svm_type epsilon_svr
kernel_type rbf
gamma 0.1
nr_class 2
total_sv 1510
rho -1.00291
SV
-1 0:1.1952286 1:1 2:1.3496622 3:1.6179172 
-1 0:-1.1952286 1:1 2:1.3496622 3:1.6179172 
-1 0:0 1:1 2:1.3496622 3:1.6179172 
-1 0:0 1:1 2:1.3496622 3:1.6179172 
-1 0:0.5976143 1:1 2:1.3496622 3:1.6179172 
-1 0:-0.5976143 1:1 2:1.3496622 3:1.6179172 
-1 0:0 1:1 2:1.3496622 3:1.6179172 
-1 0:0 1:1 2:1.3496622 3:1.6179172 
1 0:1.7928429 1:1 2:1.3496622 3:1.3203861 
1 0:1.1952286 1:1 2:1.3496622 3:1.3203861 
1 0:-1.1952286 1:1 2:1.3496622 3:1.3203861 
1 0:-1.7928429 1:1 2:1.3496622 3:1.3203861 
1 0:0 1:1 2:1.3496622 3:1.3203861 
0.153347515873299 0:0.5976143 1:1 2:1.3496622 3:0.9951772 
1 0:0 1:1 2:1.3496622 3:0.9951772 
1 0:0.5976143 1:1 2:1.3496622 3:1.3203861 
1 0:-0.5976143 1:1 2:1.3496622 3:1.3203861 
1 0:0 1:1 2:1.3496622 3:1.3203861 
1 0:0 1:1 2:1.3496622 3:1.3203861 
1 0:0 1:1 2:1.3496622 3:1.3203861 
0.03067911094796675 0:-0.5976143 1:1 2:1.3496622 3:0.9951772 
1 0:0 1:1 2:1.3496622 3:0.9951772 
1 0:0 1:1 2:1.3496622 3:0.9951772 
1 0:0 1:1 2:1.3496622 3:0.9951772 
-1 0:1.7928429 1:1 2:1.3496622 3:0.66304855 
-1 0:-1.7928429 1:1 2:1.3496622 3:0.66304855 
-1 0:1.7928429 1:1 2:1.3496622 3:0.40023422 
-1 0:1.1952286 1:1 2:1.3496622 3:0.66304855 
-0.08977770907217136 0:0.5976143 1:1 2:1.3496622 3:0.66304855 
-0.08978860829939968 0:-0.5976143 1:1 2:1.3496622 3:0.66304855 
-1 0:-1.1952286 1:1 2:1.3496622 3:0.66304855 
-1 0:1.1952286 1:1 2:1.3496622 3:0.40023422 
-1 0:0.5976143 1:1 2:1.3496622 3:0.40023422 
-1 0:-1.7928429 1:1 2:1.3496622 3:0.40023422 
-1 0:0 1:1 2:1.3496622 3:0.40023422 
-1 0:-0.5976143 1:1 2:1.3496622 3:0.40023422 
-1 0:-1.1952286 1:1 2:1.3496622 3:0.40023422 
-1 0:0 1:1 2:1.3496622 3:0.40023422 
-1 0:0 1:1 2:1.3496622 3:0.40023422 
-1 0:0 1:1 2:1.3496622 3:0.40023422 
1 0:0 1:1 2:1.3496622 3:0.9951772 
-1 0:-0.5976143 1:1 2:1.3496622 3:1.6179172 
-1 0:-1.1952286 1:1 2:1.3496622 3:1.6179172 
-1 0:0 1:1 2:1.3496622 3:1.6179172 
-1 0:0 1:1 2:1.3496622 3:1.6179172 
1 0:1.1952286 1:1 2:1.3496622 3:1.3203861 
1 0:0.5976143 1:1 2:1.3496622 3:1.3203861 
1 0:-1.1952286 1:1 2:1.3496622 3:1.3203861 
1 0:-1.7928429 1:1 2:1.3496622 3:1.3203861 
-1 0:1.1952286 1:1 2:1.3496622 3:1.6179172 
-1 0:0.5976143 1:1 2:1.3496622 3:1.6179172 
-1 0:0 1:1 2:1.3496622 3:1.6179172 
-1 0:0 1:1 2:1.3496622 3:1.6179172 
1 0:1.7928429 1:1 2:1.3496622 3:1.3203861 
1 0:-0.5976143 1:1 2:1.3496622 3:1.3203861 
1 0:0 1:1 2:1.3496622 3:1.3203861 
1 0:0 1:1 2:1.3496622 3:1.3203861 
0.1667032206336185 0:1.7928429 1:1 2:1.3496622 3:0.9951772 
0.166706042558482 0:-1.7928429 1:1 2:1.3496622 3:0.9951772 
1 0:0 1:1 2:1.3496622 3:1.3203861 
1 0:0 1:1 2:1.3496622 3:1.3203861 
0.02817279946799201 0:0.5976143 1:1 2:1.3496622 3:0.9951772 
0.1508482282294077 0:-0.5976143 1:1 2:1.3496622 3:0.9951772 
1 0:0 1:1 2:1.3496622 3:0.9951772 
1 0:0 1:1 2:1.3496622 3:0.9951772 
1 0:0 1:1 2:1.3496622 3:0.9951772 
1 0:1.7928429 5:1 2:-0.44988739 3:0.7913395 
-1 0:0 5:1 2:-0.44988739 3:0.3588806 
-1 0:0 1:1 2:-0.44988739 3:-0.1155691 
1 0:1.7928429 1:1 2:-0.44988739 3:0.63736919 
1 0:1.7928429 7:1 2:0.43645792 3:-0.5519498 
-1 0:0 7:1 2:0.43645792 3:-0.94420089 
-1 0:0 1:1 2:0.43645792 3:0.16563147 
1 0:1.1952286 7:1 2:0.43645792 3:-0.74032994 
1 0:0.5976143 4:1 2:-0.44988739 3:-0.25401441 
1 0:-0.5976143 4:1 2:-0.44988739 3:-0.25401441 
0.5750251836166909 0:0 4:1 2:-0.44988739 3:-0.25401441 
1 0:0 4:1 2:-0.44988739 3:-0.25401441 
-1 0:1.7928429 4:1 2:-0.44988739 3:-0.43281811 
-1 0:1.1952286 4:1 2:-0.44988739 3:-0.43281811 
-1 0:-1.1952286 4:1 2:-0.44988739 3:-0.43281811 
-1 0:-1.7928429 4:1 2:-0.44988739 3:-0.43281811 
1 0:1.7928429 4:1 2:-0.44988739 3:-0.25401441 
1 0:1.1952286 4:1 2:-0.44988739 3:-0.25401441 
1 0:-1.1952286 4:1 2:-0.44988739 3:-0.25401441 
1 0:-1.7928429 4:1 2:-0.44988739 3:-0.25401441 
1 0:0 4:1 2:-0.44988739 3:-0.25401441 
0.9887887446825393 0:0 4:1 2:-0.44988739 3:-0.25401441 
-1 0:0.5976143 4:1 2:-0.44988739 3:-0.43281811 
-1 0:-0.5976143 4:1 2:-0.44988739 3:-0.43281811 
-1 0:0 4:1 2:-0.44988739 3:-0.43281811 
-1 0:0 4:1 2:-0.44988739 3:-0.43281811 
-1 0:1.7928429 4:1 2:-0.44988739 3:-0.61333592 
-1 0:1.1952286 4:1 2:-0.44988739 3:-0.61333592 
-1 0:-0.5976143 4:1 2:-0.44988739 3:-0.61333592 
-1 0:-1.1952286 4:1 2:-0.44988739 3:-0.61333592 
-1 0:0 4:1 2:-0.44988739 3:-0.61333592 
-1 0:0 4:1 2:-0.44988739 3:-0.61333592 
-1 0:0 4:1 2:-0.44988739 3:-0.43281811 
-1 0:0 4:1 2:-0.44988739 3:-0.43281811 
-1 0:0.5976143 4:1 2:-0.44988739 3:-0.61333592 
-1 0:-1.7928429 4:1 2:-0.44988739 3:-0.61333592 
-1 0:0 4:1 2:-0.44988739 3:-0.61333592 
-1 0:0 4:1 2:-0.44988739 3:-0.61333592 
-1 0:1.7928429 4:1 2:-0.44988739 3:-0.78926426 
-1 0:-1.7928429 4:1 2:-0.44988739 3:-0.78926426 
-1 0:-1.1952286 4:1 2:-0.44988739 3:-0.82464741 
-1 0:1.7928429 4:1 2:-0.44988739 3:-0.82464741 
-1 0:0.5976143 4:1 2:-0.44988739 3:-0.82464741 
-1 0:-0.5976143 4:1 2:-0.44988739 3:-0.82464741 
-1 0:0 4:1 2:-0.44988739 3:-0.82464741 
-1 0:0 4:1 2:-0.44988739 3:-0.82464741 
-1 0:1.1952286 4:1 2:-0.44988739 3:-0.82464741 
-1 0:0 4:1 2:-0.44988739 3:-0.82464741 
-1 0:0 4:1 2:-0.44988739 3:-0.82464741 
-1 0:-1.7928429 4:1 2:-0.44988739 3:-0.82464741 
1 0:0.5976143 8:1 2:-0.44988739 3:0.29090875 
1 0:-0.5976143 8:1 2:-0.44988739 3:0.29090875 
1 0:1.7928429 8:1 2:-0.44988739 3:0.29090875 
1 0:1.1952286 8:1 2:-0.44988739 3:0.29090875 
1 0:-1.1952286 8:1 2:-0.44988739 3:0.29090875 
1 0:-1.7928429 8:1 2:-0.44988739 3:0.29090875 
1 0:0 8:1 2:-0.44988739 3:0.29090875 
-1 0:1.1952286 8:1 2:-0.44988739 3:-0.015825609 
-1 0:-1.1952286 8:1 2:-0.44988739 3:-0.015825609 
-1 0:-1.7928429 8:1 2:-0.44988739 3:-0.015825609 
-1 0:0 8:1 2:-0.44988739 3:-0.015825609 
-1 0:0 8:1 2:-0.44988739 3:-0.015825609 
1 0:0.5976143 8:1 2:-0.44988739 3:-0.24040848 
1 0:-0.5976143 8:1 2:-0.44988739 3:-0.24040848 
1 0:0 8:1 2:-0.44988739 3:0.29090875 
1 0:0 8:1 2:-0.44988739 3:0.29090875 
1 0:0 8:1 2:-0.44988739 3:0.29090875 
-1 0:1.7928429 8:1 2:-0.44988739 3:-0.015825609 
-1 0:0.5976143 8:1 2:-0.44988739 3:-0.015825609 
-1 0:-0.5976143 8:1 2:-0.44988739 3:-0.015825609 
-1 0:0 8:1 2:-0.44988739 3:-0.015825609 
-1 0:0 8:1 2:-0.44988739 3:-0.015825609 
0.07874389018164711 0:1.1952286 8:1 2:-0.44988739 3:-0.24040848 
0.07874392287017683 0:-1.1952286 8:1 2:-0.44988739 3:-0.24040848 
0.5334604536264013 0:0 8:1 2:-0.44988739 3:-0.24040848 
-1 0:0.5976143 8:1 2:-0.44988739 3:-0.44010028 
-1 0:-1.7928429 8:1 2:-0.44988739 3:-0.44010028 
-1 0:0 8:1 2:-0.44988739 3:-0.44010028 
1 0:0 8:1 2:-0.44988739 3:-0.24040848 
0.9992191423556366 0:0 8:1 2:-0.44988739 3:-0.24040848 
-1 0:1.7928429 8:1 2:-0.44988739 3:-0.44010028 
-1 0:1.1952286 8:1 2:-0.44988739 3:-0.44010028 
-1 0:-0.5976143 8:1 2:-0.44988739 3:-0.44010028 
-1 0:-1.1952286 8:1 2:-0.44988739 3:-0.44010028 
-1 0:0 8:1 2:-0.44988739 3:-0.44010028 
-1 0:0 8:1 2:-0.44988739 3:-0.44010028 
1 0:0.5976143 8:1 2:-0.44988739 3:-0.58940616 
1 0:0 8:1 2:-0.44988739 3:-0.58940616 
-1 0:0 8:1 2:-0.44988739 3:-0.44010028 
1 0:-0.5976143 8:1 2:-0.44988739 3:-0.58940616 
1 0:0 8:1 2:-0.44988739 3:-0.58940616 
1 0:0 8:1 2:-0.44988739 3:-0.58940616 
1 0:0 8:1 2:-0.44988739 3:-0.58940616 
-1 0:0 5:1 2:-0.44988739 3:0.3588806 
1 0:1.1952286 5:1 2:-0.44988739 3:0.7913395 
1 0:0.5976143 5:1 2:-0.44988739 3:0.7913395 
1 0:-1.7928429 5:1 2:-0.44988739 3:0.7913395 
0.8228976768033016 0:0 5:1 2:-0.44988739 3:0.7913395 
1 0:0 5:1 2:-0.44988739 3:0.7913395 
-1 0:1.7928429 5:1 2:-0.44988739 3:0.3588806 
1 0:-0.5976143 5:1 2:-0.44988739 3:0.7913395 
1 0:-1.1952286 5:1 2:-0.44988739 3:0.7913395 
1 0:0 5:1 2:-0.44988739 3:0.7913395 
0.8541478985824109 0:0 5:1 2:-0.44988739 3:0.7913395 
-1 0:1.1952286 5:1 2:-0.44988739 3:0.3588806 
-1 0:-1.1952286 5:1 2:-0.44988739 3:0.3588806 
-1 0:-1.7928429 5:1 2:-0.44988739 3:0.3588806 
-1 0:0.5976143 5:1 2:-0.44988739 3:0.3588806 
-1 0:-0.5976143 5:1 2:-0.44988739 3:0.3588806 
-1 0:0 5:1 2:-0.44988739 3:0.3588806 
-1 0:0 5:1 2:-0.44988739 3:0.3588806 
-1 0:1.1952286 1:1 2:-0.44988739 3:0.52401291 
-1 0:0.5976143 1:1 2:-0.44988739 3:0.80118517 
-1 0:-0.5976143 1:1 2:-0.44988739 3:0.80118517 
-1 0:0 1:1 2:-0.44988739 3:0.80118517 
-1 0:0 1:1 2:-0.44988739 3:0.80118517 
-0.7741914525714306 0:0 1:1 2:-0.44988739 3:0.80118517 
-1 0:0 1:1 2:-0.44988739 3:0.80118517 
-1 0:0.5976143 1:1 2:-0.44988739 3:0.80118517 
-1 0:-0.5976143 1:1 2:-0.44988739 3:0.80118517 
-1 0:0 1:1 2:-0.44988739 3:0.80118517 
-1 0:0 1:1 2:-0.44988739 3:0.80118517 
-0.1198290263075326 0:-1.1952286 1:1 2:-0.44988739 3:0.80118517 
-1 0:0 1:1 2:-0.44988739 3:0.80118517 
-1 0:0 1:1 2:-0.44988739 3:0.80118517 
-1 0:0.5976143 1:1 2:-0.44988739 3:0.80118517 
-1 0:-0.5976143 1:1 2:-0.44988739 3:0.80118517 
-1 0:0 1:1 2:-0.44988739 3:0.80118517 
-1 0:0 1:1 2:-0.44988739 3:0.80118517 
-0.9208132398015477 0:1.1952286 1:1 2:-0.44988739 3:0.80118517 
-1 0:-1.1952286 1:1 2:-0.44988739 3:0.80118517 
-1 0:0 1:1 2:-0.44988739 3:0.80118517 
-1 0:0 1:1 2:-0.44988739 3:0.80118517 
-1 0:0.5976143 1:1 2:-0.44988739 3:0.80118517 
-1 0:-0.5976143 1:1 2:-0.44988739 3:0.80118517 
-1 0:0 1:1 2:-0.44988739 3:0.80118517 
-1 0:0 1:1 2:-0.44988739 3:0.80118517 
-1 0:-0.5976143 1:1 2:-0.44988739 3:0.80118517 
-1 0:-1.1952286 1:1 2:-0.44988739 3:0.80118517 
-1 0:0 1:1 2:-0.44988739 3:0.80118517 
-1 0:0 1:1 2:-0.44988739 3:0.80118517 
-1 0:1.1952286 1:1 2:-0.44988739 3:0.80118517 
-0.7852249158970941 0:-1.1952286 1:1 2:-0.44988739 3:0.80118517 
-1 0:0 1:1 2:-0.44988739 3:0.80118517 
-1 0:0 1:1 2:-0.44988739 3:0.80118517 
-0.9942034475143735 0:1.1952286 1:1 2:-0.44988739 3:0.80118517 
-1 0:0.5976143 1:1 2:-0.44988739 3:0.80118517 
-1 0:0 1:1 2:-0.44988739 3:0.80118517 
-1 0:0 1:1 2:-0.44988739 3:0.80118517 
-1 0:-0.5976143 1:1 2:-0.44988739 3:0.80118517 
-0.01852480597229567 0:-1.1952286 1:1 2:-0.44988739 3:0.80118517 
-1 0:0 1:1 2:-0.44988739 3:0.80118517 
-1 0:0 1:1 2:-0.44988739 3:0.80118517 
-1 0:-0.5976143 1:1 2:-0.44988739 3:0.52401291 
-0.008562041975970229 0:1.1952286 1:1 2:-0.44988739 3:0.80118517 
-1 0:0.5976143 1:1 2:-0.44988739 3:0.80118517 
-1 0:0 1:1 2:-0.44988739 3:0.80118517 
-1 0:0 1:1 2:-0.44988739 3:0.80118517 
-1 0:1.7928429 1:1 2:-0.44988739 3:0.52401291 
-1 0:0.5976143 1:1 2:-0.44988739 3:0.52401291 
1 0:0 1:1 2:-1.3362327 3:-1.1941596 
-1 0:0 1:1 2:-0.44988739 3:-0.1155691 
1 0:1.7928429 1:1 2:-0.44988739 3:0.63736919 
1 0:1.1952286 1:1 2:-0.44988739 3:0.63736919 
1 0:-1.1952286 1:1 2:-0.44988739 3:0.63736919 
1 0:-1.7928429 1:1 2:-0.44988739 3:0.63736919 
1 0:0 1:1 2:-0.44988739 3:0.63736919 
1 0:0 1:1 2:-0.44988739 3:0.63736919 
1 0:0.5976143 1:1 2:-0.44988739 3:0.63736919 
1 0:-0.5976143 1:1 2:-0.44988739 3:0.63736919 
1 0:0 1:1 2:-0.44988739 3:0.63736919 
1 0:0 1:1 2:-0.44988739 3:0.63736919 
1 0:1.1952286 1:1 2:-0.44988739 3:0.63736919 
1 0:-1.1952286 1:1 2:-0.44988739 3:0.63736919 
1 0:-1.7928429 1:1 2:-0.44988739 3:0.63736919 
1 0:0 1:1 2:-0.44988739 3:0.63736919 
1 0:0 1:1 2:-0.44988739 3:0.63736919 
1 0:0.5976143 1:1 2:-0.44988739 3:0.63736919 
1 0:-0.5976143 1:1 2:-0.44988739 3:0.63736919 
1 0:0 1:1 2:-0.44988739 3:0.63736919 
1 0:0 1:1 2:-0.44988739 3:0.63736919 
1 0:1.7928429 1:1 2:-0.44988739 3:0.63736919 
1 0:1.1952286 1:1 2:-0.44988739 3:0.63736919 
1 0:-1.1952286 1:1 2:-0.44988739 3:0.63736919 
1 0:-1.7928429 1:1 2:-0.44988739 3:0.63736919 
1 0:0 1:1 2:-0.44988739 3:0.63736919 
1 0:0 1:1 2:-0.44988739 3:0.63736919 
1 0:0.5976143 1:1 2:-0.44988739 3:0.63736919 
1 0:-0.5976143 1:1 2:-0.44988739 3:0.63736919 
1 0:0 1:1 2:-0.44988739 3:0.63736919 
1 0:0 1:1 2:-0.44988739 3:0.63736919 
-1 0:-0.5976143 1:1 2:-0.44988739 3:0.090879348 
-1 0:-1.1952286 1:1 2:-0.44988739 3:0.090879348 
-1 0:-1.7928429 1:1 2:-0.44988739 3:0.090879348 
-1 0:0 1:1 2:-0.44988739 3:0.090879348 
-1 0:1.7928429 1:1 2:-0.44988739 3:-0.1155691 
-1 0:-0.5976143 1:1 2:-0.44988739 3:-0.1155691 
-1 0:-1.1952286 1:1 2:-0.44988739 3:-0.1155691 
-1 0:1.7928429 1:1 2:-0.44988739 3:0.090879348 
-1 0:1.1952286 1:1 2:-0.44988739 3:0.090879348 
-1 0:0.5976143 1:1 2:-0.44988739 3:0.090879348 
-1 0:0 1:1 2:-0.44988739 3:0.090879348 
-1 0:0 1:1 2:-0.44988739 3:0.090879348 
-1 0:0 1:1 2:-0.44988739 3:0.090879348 
-1 0:1.1952286 1:1 2:-0.44988739 3:-0.1155691 
-1 0:0.5976143 1:1 2:-0.44988739 3:-0.1155691 
-1 0:-1.7928429 1:1 2:-0.44988739 3:-0.1155691 
-1 0:0 1:1 2:-0.44988739 3:-0.1155691 
-1 0:0 1:1 2:-0.44988739 3:-0.1155691 
1 0:1.1952286 1:1 2:-0.44988739 3:0.63736919 
1 0:0.5976143 1:1 2:-0.44988739 3:0.63736919 
1 0:-1.7928429 1:1 2:-0.44988739 3:0.63736919 
1 0:0 1:1 2:-0.44988739 3:0.63736919 
1 0:0 1:1 2:-0.44988739 3:0.63736919 
1 0:1.7928429 1:1 2:-0.44988739 3:0.63736919 
1 0:-0.5976143 1:1 2:-0.44988739 3:0.63736919 
1 0:-1.1952286 1:1 2:-0.44988739 3:0.63736919 
1 0:0 1:1 2:-0.44988739 3:0.63736919 
1 0:0 1:1 2:-0.44988739 3:0.63736919 
1 0:1.7928429 1:1 2:-0.44988739 3:0.63736919 
1 0:-0.5976143 1:1 2:-0.44988739 3:0.63736919 
1 0:-1.1952286 1:1 2:-0.44988739 3:0.63736919 
1 0:0 1:1 2:-0.44988739 3:0.63736919 
1 0:0 1:1 2:-0.44988739 3:0.63736919 
1 0:1.1952286 1:1 2:-0.44988739 3:0.63736919 
1 0:0.5976143 1:1 2:-0.44988739 3:0.63736919 
1 0:-1.7928429 1:1 2:-0.44988739 3:0.63736919 
1 0:0 1:1 2:-0.44988739 3:0.63736919 
1 0:0 1:1 2:-0.44988739 3:0.63736919 
1 0:1.7928429 1:1 2:-0.44988739 3:0.63736919 
1 0:-0.5976143 1:1 2:-0.44988739 3:0.63736919 
1 0:-1.1952286 1:1 2:-0.44988739 3:0.63736919 
1 0:0 1:1 2:-0.44988739 3:0.63736919 
1 0:0 1:1 2:-0.44988739 3:0.63736919 
1 0:1.1952286 1:1 2:-0.44988739 3:0.63736919 
1 0:0.5976143 1:1 2:-0.44988739 3:0.63736919 
1 0:-1.7928429 1:1 2:-0.44988739 3:0.63736919 
1 0:0 1:1 2:-0.44988739 3:0.63736919 
1 0:0 1:1 2:-0.44988739 3:0.63736919 
1 0:1.7928429 1:1 2:-0.44988739 3:0.63736919 
1 0:1.1952286 1:1 2:-0.44988739 3:0.63736919 
1 0:0.5976143 1:1 2:-0.44988739 3:0.63736919 
1 0:-1.7928429 1:1 2:-0.44988739 3:0.63736919 
1 0:0 1:1 2:-0.44988739 3:0.63736919 
1 0:0 1:1 2:-0.44988739 3:0.63736919 
1 0:1.7928429 1:1 2:-0.44988739 3:0.63736919 
1 0:-0.5976143 1:1 2:-0.44988739 3:0.63736919 
1 0:-1.1952286 1:1 2:-0.44988739 3:0.63736919 
1 0:0 1:1 2:-0.44988739 3:0.63736919 
1 0:0 1:1 2:-0.44988739 3:0.63736919 
1 0:1.1952286 1:1 2:-0.44988739 3:0.63736919 
1 0:0.5976143 1:1 2:-0.44988739 3:0.63736919 
1 0:0 1:1 2:-0.44988739 3:0.63736919 
1 0:0 1:1 2:-0.44988739 3:0.63736919 
1 0:-0.5976143 1:1 2:-0.44988739 3:0.63736919 
1 0:-1.1952286 1:1 2:-0.44988739 3:0.63736919 
1 0:-1.7928429 1:1 2:-0.44988739 3:0.63736919 
1 0:0 1:1 2:-0.44988739 3:0.63736919 
1 0:0 1:1 2:-0.44988739 3:0.63736919 
-1 0:1.7928429 9:1 2:-0.44988739 3:-0.29347101 
1 0:1.7928429 9:1 2:-0.44988739 3:0.57620466 
1 0:1.1952286 9:1 2:-0.44988739 3:0.57620466 
1 0:1.7928429 9:1 2:-0.44988739 3:0.7913395 
0.9608845565174106 0:1.1952286 9:1 2:-0.44988739 3:0.7913395 
0.9608842228306324 0:-1.1952286 9:1 2:-0.44988739 3:0.7913395 
1 0:-1.7928429 9:1 2:-0.44988739 3:0.7913395 
1 0:0.5976143 9:1 2:-0.44988739 3:0.57620466 
1 0:-0.5976143 9:1 2:-0.44988739 3:0.57620466 
1 0:0 9:1 2:-0.44988739 3:0.57620466 
1 0:0 9:1 2:-0.44988739 3:0.57620466 
-1 0:1.7928429 9:1 2:-0.44988739 3:0.3588806 
-1 0:-0.5976143 9:1 2:-0.44988739 3:0.3588806 
-1 0:-1.1952286 9:1 2:-0.44988739 3:0.3588806 
1 0:-1.1952286 9:1 2:-0.44988739 3:0.57620466 
1 0:-1.7928429 9:1 2:-0.44988739 3:0.57620466 
1 0:0 9:1 2:-0.44988739 3:0.57620466 
1 0:0 9:1 2:-0.44988739 3:0.57620466 
-1 0:1.1952286 9:1 2:-0.44988739 3:0.3588806 
-1 0:0.5976143 9:1 2:-0.44988739 3:0.3588806 
-1 0:-1.7928429 9:1 2:-0.44988739 3:0.3588806 
-1 0:0 9:1 2:-0.44988739 3:0.3588806 
-1 0:0 9:1 2:-0.44988739 3:0.3588806 
-1 0:1.7928429 9:1 2:-0.44988739 3:0.13945509 
-1 0:0 9:1 2:-0.44988739 3:0.3588806 
-1 0:0 9:1 2:-0.44988739 3:0.3588806 
-1 0:1.1952286 9:1 2:-0.44988739 3:0.13945509 
-1 0:0.5976143 9:1 2:-0.44988739 3:0.13945509 
-1 0:-1.7928429 9:1 2:-0.44988739 3:0.13945509 
-1 0:0 9:1 2:-0.44988739 3:0.13945509 
-1 0:-0.5976143 9:1 2:-0.44988739 3:0.13945509 
-1 0:-1.1952286 9:1 2:-0.44988739 3:0.13945509 
-1 0:0 9:1 2:-0.44988739 3:0.13945509 
1 0:1.7928429 9:1 2:-0.44988739 3:-0.075829282 
1 0:1.1952286 9:1 2:-0.44988739 3:-0.075829282 
-1 0:0 9:1 2:-0.44988739 3:0.13945509 
-1 0:0 9:1 2:-0.44988739 3:0.13945509 
1 0:0.5976143 9:1 2:-0.44988739 3:-0.075829282 
1 0:-0.5976143 9:1 2:-0.44988739 3:-0.075829282 
1 0:0 9:1 2:-0.44988739 3:-0.075829282 
1 0:0 9:1 2:-0.44988739 3:-0.075829282 
1 0:-1.1952286 9:1 2:-0.44988739 3:-0.075829282 
1 0:-1.7928429 9:1 2:-0.44988739 3:-0.075829282 
1 0:0 9:1 2:-0.44988739 3:-0.075829282 
1 0:0 9:1 2:-0.44988739 3:-0.075829282 
-1 0:0.5976143 9:1 2:-0.44988739 3:-0.29347101 
-1 0:1.1952286 9:1 2:-0.44988739 3:-0.29347101 
1 0:0 4:1 2:-0.44988739 3:-1.023859 
-1 0:1.7928429 4:1 2:-0.44988739 3:-0.50707334 
-1 0:-1.7928429 4:1 2:-0.44988739 3:-0.50707334 
-1 0:0 4:1 2:-0.44988739 3:-0.50707334 
-1 0:0 4:1 2:-0.44988739 3:-0.50707334 
-1 0:1.7928429 4:1 2:-0.44988739 3:-0.73654408 
-1 0:1.1952286 4:1 2:-0.44988739 3:-0.73654408 
-1 0:0 4:1 2:-0.44988739 3:-0.50707334 
-0.6662982951449489 0:0 4:1 2:-0.44988739 3:-0.50707334 
-1 0:0.5976143 4:1 2:-0.44988739 3:-0.73654408 
-1 0:-0.5976143 4:1 2:-0.44988739 3:-0.73654408 
-1 0:-1.1952286 4:1 2:-0.44988739 3:-0.73654408 
-1 0:-1.7928429 4:1 2:-0.44988739 3:-0.73654408 
-1 0:0 4:1 2:-0.44988739 3:-0.73654408 
-1 0:0 4:1 2:-0.44988739 3:-0.73654408 
-1 0:-1.7928429 4:1 2:-0.44988739 3:-0.78926426 
-1 0:0 4:1 2:-0.44988739 3:-0.73654408 
-1 0:0 4:1 2:-0.44988739 3:-0.73654408 
-1 0:1.7928429 4:1 2:-0.44988739 3:-0.78926426 
1 0:1.1952286 4:1 2:-0.44988739 3:-1.023859 
1 0:0.5976143 4:1 2:-0.44988739 3:-1.023859 
1 0:-1.7928429 4:1 2:-0.44988739 3:-1.023859 
1 0:0 4:1 2:-0.44988739 3:-1.023859 
1 0:1.7928429 4:1 2:-0.44988739 3:-1.023859 
1 0:-0.5976143 4:1 2:-0.44988739 3:-1.023859 
1 0:-1.1952286 4:1 2:-0.44988739 3:-1.023859 
1 0:0 4:1 2:-0.44988739 3:-1.023859 
1 0:0 4:1 2:-0.44988739 3:-1.023859 
-1 0:-1.7928429 9:1 2:-0.44988739 3:-0.29347101 
-1 0:-0.5976143 9:1 2:-0.44988739 3:-0.29347101 
-1 0:-1.1952286 9:1 2:-0.44988739 3:-0.29347101 
-1 0:0 9:1 2:-0.44988739 3:-0.29347101 
-1 0:0 9:1 2:-0.44988739 3:-0.29347101 
-1 0:0 9:1 2:-0.44988739 3:-0.29347101 
-1 0:0 9:1 2:-0.44988739 3:-0.29347101 
-1 0:0 1:1 2:-0.44988739 3:0.52401291 
-1 0:-1.1952286 1:1 2:-0.44988739 3:0.52401291 
-1 0:-1.7928429 1:1 2:-0.44988739 3:0.52401291 
-1 0:0 1:1 2:-0.44988739 3:0.52401291 
-1 0:0 1:1 2:-0.44988739 3:0.52401291 
-1 0:0 1:1 2:-0.44988739 3:0.52401291 
-1 0:1.7928429 9:1 2:-0.44988739 3:0.70118935 
-1 0:1.1952286 9:1 2:-0.44988739 3:0.70118935 
-1 0:-1.1952286 9:1 2:-0.44988739 3:0.70118935 
-1 0:-1.7928429 9:1 2:-0.44988739 3:0.70118935 
-1 0:0 9:1 2:-0.44988739 3:0.70118935 
-1 0:0 9:1 2:-0.44988739 3:0.70118935 
1 0:1.1952286 9:1 2:-0.44988739 3:0.50790102 
1 0:0.5976143 9:1 2:-0.44988739 3:0.50790102 
1 0:-1.7928429 9:1 2:-0.44988739 3:0.50790102 
1 0:0 9:1 2:-0.44988739 3:0.50790102 
1 0:0 9:1 2:-0.44988739 3:0.50790102 
1 0:1.7928429 9:1 2:-0.44988739 3:0.29090875 
1 0:-0.5976143 9:1 2:-0.44988739 3:0.29090875 
1 0:-1.1952286 9:1 2:-0.44988739 3:0.29090875 
1 0:0 9:1 2:-0.44988739 3:0.29090875 
1 0:0 9:1 2:-0.44988739 3:0.29090875 
-1 0:1.1952286 9:1 2:-0.44988739 3:-0.015825609 
-1 0:0.5976143 9:1 2:-0.44988739 3:-0.015825609 
-1 0:0.5976143 9:1 2:-0.44988739 3:0.70118935 
-1 0:-0.5976143 9:1 2:-0.44988739 3:0.70118935 
-1 0:0 9:1 2:-0.44988739 3:0.70118935 
-1 0:0 9:1 2:-0.44988739 3:0.70118935 
1 0:1.7928429 9:1 2:-0.44988739 3:0.50790102 
1 0:-0.5976143 9:1 2:-0.44988739 3:0.50790102 
1 0:-1.1952286 9:1 2:-0.44988739 3:0.50790102 
1 0:0 9:1 2:-0.44988739 3:0.50790102 
1 0:0 9:1 2:-0.44988739 3:0.50790102 
1 0:1.1952286 9:1 2:-0.44988739 3:0.29090875 
1 0:0.5976143 9:1 2:-0.44988739 3:0.29090875 
1 0:-1.7928429 9:1 2:-0.44988739 3:0.29090875 
1 0:0 9:1 2:-0.44988739 3:0.29090875 
1 0:0 9:1 2:-0.44988739 3:0.29090875 
-1 0:1.7928429 9:1 2:-0.44988739 3:-0.015825609 
-1 0:-0.5976143 9:1 2:-0.44988739 3:-0.015825609 
-1 0:-1.1952286 9:1 2:-0.44988739 3:-0.015825609 
-1 0:0 9:1 2:-0.44988739 3:-0.015825609 
-1 0:0 9:1 2:-0.44988739 3:-0.015825609 
-1 0:-1.7928429 9:1 2:-0.44988739 3:-0.24040848 
-1 0:-1.7928429 9:1 2:-0.44988739 3:-0.015825609 
-1 0:0 9:1 2:-0.44988739 3:-0.015825609 
-1 0:0 9:1 2:-0.44988739 3:-0.015825609 
-1 0:1.7928429 9:1 2:-0.44988739 3:-0.24040848 
-1 0:0 6:1 2:-0.44988739 3:-0.76942193 
1 0:0 6:1 2:-0.44988739 3:-0.85428896 
-1 0:1.1952286 6:1 2:-0.44988739 3:-0.1257298 
-1 0:0.5976143 6:1 2:-0.44988739 3:-0.1257298 
-0.9982256056345111 0:-1.7928429 6:1 2:-0.44988739 3:-0.1257298 
-1 0:0 6:1 2:-0.44988739 3:-0.1257298 
-1 0:0 6:1 2:-0.44988739 3:-0.1257298 
-1 0:1.7928429 6:1 2:-0.44988739 3:-0.25945618 
-1 0:-0.5976143 6:1 2:-0.44988739 3:-0.25945618 
-1 0:-1.1952286 6:1 2:-0.44988739 3:-0.25945618 
-1 0:0 6:1 2:-0.44988739 3:-0.25945618 
-1 0:0 6:1 2:-0.44988739 3:-0.25945618 
-0.9982247633932473 0:1.7928429 6:1 2:-0.44988739 3:-0.1257298 
-1 0:-0.5976143 6:1 2:-0.44988739 3:-0.1257298 
-1 0:-1.1952286 6:1 2:-0.44988739 3:-0.1257298 
-1 0:0 6:1 2:-0.44988739 3:-0.1257298 
-1 0:0 6:1 2:-0.44988739 3:-0.1257298 
-1 0:1.1952286 6:1 2:-0.44988739 3:-0.25945618 
-1 0:0.5976143 6:1 2:-0.44988739 3:-0.25945618 
-1 0:-1.7928429 6:1 2:-0.44988739 3:-0.25945618 
-1 0:0 6:1 2:-0.44988739 3:-0.25945618 
-1 0:0 6:1 2:-0.44988739 3:-0.25945618 
-1 0:0.5976143 6:1 2:-0.44988739 3:-0.43120075 
-1 0:-0.5976143 6:1 2:-0.44988739 3:-0.43120075 
-1 0:0 6:1 2:-0.44988739 3:-0.43120075 
-1 0:0 6:1 2:-0.44988739 3:-0.43120075 
-0.6543033174885935 0:1.7928429 6:1 2:-0.44988739 3:-0.70197125 
-1 0:1.7928429 6:1 2:-0.44988739 3:-0.43120075 
-1 0:1.1952286 6:1 2:-0.44988739 3:-0.43120075 
-1 0:-1.1952286 6:1 2:-0.44988739 3:-0.43120075 
-1 0:-1.7928429 6:1 2:-0.44988739 3:-0.43120075 
-1 0:0 6:1 2:-0.44988739 3:-0.43120075 
-1 0:0 6:1 2:-0.44988739 3:-0.43120075 
-0.6543014762365366 0:-1.7928429 6:1 2:-0.44988739 3:-0.70197125 
1 0:1.1952286 6:1 2:-0.44988739 3:-0.85428896 
1 0:0.5976143 6:1 2:-0.44988739 3:-0.85428896 
1 0:-0.5976143 6:1 2:-0.44988739 3:-0.85428896 
1 0:0 6:1 2:-0.44988739 3:-0.85428896 
1 0:0 6:1 2:-0.44988739 3:-0.85428896 
1 0:-1.1952286 6:1 2:-0.44988739 3:-0.85428896 
1 0:0 6:1 2:-0.44988739 3:-0.85428896 
1 0:1.7928429 6:1 2:-0.44988739 3:0.32067619 
1 0:-0.5976143 6:1 2:-0.44988739 3:0.32067619 
1 0:-1.1952286 6:1 2:-0.44988739 3:0.32067619 
1 0:0 6:1 2:-0.44988739 3:0.32067619 
1 0:1.7928429 6:1 2:-0.44988739 3:0.11906388 
1 0:1.1952286 6:1 2:-0.44988739 3:0.11906388 
1 0:-1.1952286 6:1 2:-0.44988739 3:0.11906388 
1 0:-1.7928429 6:1 2:-0.44988739 3:0.11906388 
1 0:0 6:1 2:-0.44988739 3:0.11906388 
1 0:0 6:1 2:-0.44988739 3:0.11906388 
-1 0:0.5976143 6:1 2:-0.44988739 3:-0.094049754 
-1 0:-0.5976143 6:1 2:-0.44988739 3:-0.094049754 
-1 0:0 6:1 2:-0.44988739 3:-0.094049754 
-1 0:0 6:1 2:-0.44988739 3:-0.094049754 
1 0:1.1952286 6:1 2:-0.44988739 3:0.32067619 
1 0:0.5976143 6:1 2:-0.44988739 3:0.32067619 
1 0:-1.7928429 6:1 2:-0.44988739 3:0.32067619 
1 0:0 6:1 2:-0.44988739 3:0.32067619 
1 0:0 6:1 2:-0.44988739 3:0.32067619 
1 0:0 6:1 2:-0.44988739 3:0.32067619 
1 0:0.5976143 6:1 2:-0.44988739 3:0.11906388 
1 0:-0.5976143 6:1 2:-0.44988739 3:0.11906388 
1 0:0 6:1 2:-0.44988739 3:0.11906388 
1 0:0 6:1 2:-0.44988739 3:0.11906388 
-1 0:0 6:1 2:-0.44988739 3:-0.094049754 
-1 0:1.7928429 6:1 2:-0.44988739 3:-0.49750522 
-1 0:0 6:1 2:-0.44988739 3:-0.094049754 
-1 0:1.1952286 6:1 2:-0.44988739 3:-0.49750522 
-1 0:0.5976143 6:1 2:-0.44988739 3:-0.49750522 
-1 0:-1.7928429 6:1 2:-0.44988739 3:-0.49750522 
-1 0:0 6:1 2:-0.44988739 3:-0.49750522 
-1 0:0 6:1 2:-0.44988739 3:-0.49750522 
-1 0:1.7928429 6:1 2:-0.44988739 3:-0.68564437 
-1 0:-0.5976143 6:1 2:-0.44988739 3:-0.49750522 
-1 0:-1.1952286 6:1 2:-0.44988739 3:-0.49750522 
-1 0:0 6:1 2:-0.44988739 3:-0.49750522 
-1 0:0 6:1 2:-0.44988739 3:-0.49750522 
-1 0:-1.7928429 6:1 2:-0.44988739 3:-0.68564437 
-1 0:0 6:1 2:-0.44988739 3:-0.76942193 
-1 0:1.7928429 6:1 2:-0.44988739 3:-0.44010028 
-1 0:-1.1952286 6:1 2:-0.44988739 3:-0.44010028 
-1 0:0 6:1 2:-0.44988739 3:-0.44010028 
-1 0:0 6:1 2:-0.44988739 3:-0.44010028 
-1 0:1.1952286 6:1 2:-0.44988739 3:-0.44010028 
-1 0:0.5976143 6:1 2:-0.44988739 3:-0.44010028 
-1 0:-0.5976143 6:1 2:-0.44988739 3:-0.44010028 
-1 0:-1.7928429 6:1 2:-0.44988739 3:-0.44010028 
-1 0:0 6:1 2:-0.44988739 3:-0.44010028 
-1 0:0 6:1 2:-0.44988739 3:-0.44010028 
-1 0:1.7928429 6:1 2:-0.44988739 3:-0.76942193 
-1 0:1.1952286 6:1 2:-0.44988739 3:-0.76942193 
-1 0:0.5976143 6:1 2:-0.44988739 3:-0.76942193 
-1 0:0 6:1 2:-0.44988739 3:-0.76942193 
-1 0:-0.5976143 6:1 2:-0.44988739 3:-0.76942193 
-1 0:-1.1952286 6:1 2:-0.44988739 3:-0.76942193 
-1 0:-1.7928429 6:1 2:-0.44988739 3:-0.76942193 
-1 0:0 6:1 2:-0.44988739 3:-0.76942193 
-1 0:1.7928429 7:1 2:-0.44988739 3:-0.78926426 
-1 0:-1.7928429 7:1 2:-0.44988739 3:-0.78926426 
-0.9328447396505494 0:0 7:1 2:-0.44988739 3:-0.78926426 
-0.001887598318537891 0:0 7:1 2:-0.44988739 3:-0.78926426 
-0.001013782137984132 0:0 7:1 2:-0.44988739 3:-0.78926426 
-0.0001388595395738995 0:0 7:1 2:-0.44988739 3:-0.78926426 
-1 0:1.7928429 7:1 2:-0.44988739 3:-0.829672 
-1 0:-1.7928429 7:1 2:-0.44988739 3:-0.829672 
0.9368205748624761 0:1.1952286 7:1 2:-0.44988739 3:-1.1247667 
0.9368213927102242 0:-1.1952286 7:1 2:-0.44988739 3:-1.1247667 
-1 0:0 4:1 2:0.43645792 3:-0.74024613 
1 0:1.1952286 4:1 2:0.43645792 3:-0.24040848 
1 0:0.5976143 4:1 2:0.43645792 3:-0.24040848 
1 0:-1.7928429 4:1 2:0.43645792 3:-0.24040848 
1 0:0 4:1 2:0.43645792 3:-0.24040848 
1 0:0 4:1 2:0.43645792 3:-0.24040848 
1 0:1.7928429 4:1 2:0.43645792 3:-0.24040848 
1 0:-0.5976143 4:1 2:0.43645792 3:-0.24040848 
1 0:-1.1952286 4:1 2:0.43645792 3:-0.24040848 
1 0:0 4:1 2:0.43645792 3:-0.24040848 
1 0:0 4:1 2:0.43645792 3:-0.24040848 
1 0:0.5976143 4:1 2:0.43645792 3:-0.39186398 
1 0:0 4:1 2:0.43645792 3:-0.39186398 
1 0:0 4:1 2:0.43645792 3:-0.39186398 
1 0:-0.5976143 4:1 2:0.43645792 3:-0.39186398 
1 0:0 4:1 2:0.43645792 3:-0.39186398 
1 0:0 4:1 2:0.43645792 3:-0.39186398 
-1 0:1.7928429 4:1 2:0.43645792 3:-0.74024613 
-1 0:1.1952286 4:1 2:0.43645792 3:-0.74024613 
-1 0:-1.1952286 4:1 2:0.43645792 3:-0.74024613 
-1 0:-1.7928429 4:1 2:0.43645792 3:-0.74024613 
-1 0:0.5976143 4:1 2:0.43645792 3:-0.74024613 
-1 0:-0.5976143 4:1 2:0.43645792 3:-0.74024613 
-1 0:0 4:1 2:0.43645792 3:-0.74024613 
-1 0:0 4:1 2:0.43645792 3:-0.74024613 
-1 0:0 4:1 2:0.43645792 3:-0.74024613 
1 0:0 4:1 2:0.43645792 3:-0.51978197 
1 0:1.1952286 4:1 2:0.43645792 3:0.24145127 
1 0:0.5976143 4:1 2:0.43645792 3:0.24145127 
1 0:-1.7928429 4:1 2:0.43645792 3:0.24145127 
1 0:0 4:1 2:0.43645792 3:0.24145127 
1 0:0 4:1 2:0.43645792 3:0.24145127 
-1 0:1.7928429 4:1 2:0.43645792 3:-0.015825609 
1 0:1.7928429 4:1 2:0.43645792 3:0.24145127 
1 0:-0.5976143 4:1 2:0.43645792 3:0.24145127 
1 0:-1.1952286 4:1 2:0.43645792 3:0.24145127 
1 0:0 4:1 2:0.43645792 3:0.24145127 
1 0:0 4:1 2:0.43645792 3:0.24145127 
-1 0:1.1952286 4:1 2:0.43645792 3:-0.015825609 
-1 0:0.5976143 4:1 2:0.43645792 3:-0.015825609 
-1 0:-1.7928429 4:1 2:0.43645792 3:-0.015825609 
-1 0:0 4:1 2:0.43645792 3:-0.015825609 
-1 0:0 4:1 2:0.43645792 3:-0.015825609 
0.9558494803690359 0:1.1952286 4:1 2:0.43645792 3:-0.29551439 
-1 0:-0.5976143 4:1 2:0.43645792 3:-0.015825609 
-1 0:-1.1952286 4:1 2:0.43645792 3:-0.015825609 
-1 0:0 4:1 2:0.43645792 3:-0.015825609 
-1 0:0 4:1 2:0.43645792 3:-0.015825609 
1 0:0.5976143 4:1 2:0.43645792 3:-0.29551439 
1 0:-0.5976143 4:1 2:0.43645792 3:-0.29551439 
0.4454642168924604 0:0 4:1 2:0.43645792 3:-0.29551439 
0.284848830443583 0:0 4:1 2:0.43645792 3:-0.29551439 
0.9558493488280572 0:-1.1952286 4:1 2:0.43645792 3:-0.29551439 
1 0:0 4:1 2:0.43645792 3:-0.29551439 
0.9148641216943109 0:0 4:1 2:0.43645792 3:-0.29551439 
1 0:0.5976143 4:1 2:0.43645792 3:-0.51978197 
1 0:-0.5976143 4:1 2:0.43645792 3:-0.51978197 
1 0:0 4:1 2:0.43645792 3:-0.51978197 
1 0:0 4:1 2:0.43645792 3:-0.51978197 
1 0:0 4:1 2:0.43645792 3:-0.51978197 
1 0:0.5976143 4:1 2:0.43645792 3:-0.29142617 
1 0:-0.5976143 4:1 2:0.43645792 3:-0.29142617 
1 0:0 4:1 2:0.43645792 3:-0.29142617 
1 0:0 4:1 2:0.43645792 3:-0.29142617 
1 0:1.7928429 4:1 2:0.43645792 3:-0.29142617 
1 0:1.1952286 4:1 2:0.43645792 3:-0.29142617 
1 0:-1.1952286 4:1 2:0.43645792 3:-0.29142617 
1 0:-1.7928429 4:1 2:0.43645792 3:-0.29142617 
1 0:0 4:1 2:0.43645792 3:-0.29142617 
1 0:0 4:1 2:0.43645792 3:-0.29142617 
-1 0:-1.1952286 8:1 2:0.43645792 3:-0.3532907 
1 0:1.1952286 8:1 2:0.43645792 3:0.77465272 
1 0:1.7928429 8:1 2:0.43645792 3:0.77465272 
1 0:-1.1952286 8:1 2:0.43645792 3:0.77465272 
1 0:-1.7928429 8:1 2:0.43645792 3:0.77465272 
-0.9996860640865173 0:0 8:1 2:0.43645792 3:0.41516281 
-0.06385231983077343 0:0 8:1 2:0.43645792 3:0.41516281 
1 0:0.5976143 8:1 2:0.43645792 3:0.13080934 
1 0:-1.7928429 8:1 2:0.43645792 3:0.13080934 
1 0:0 8:1 2:0.43645792 3:0.13080934 
1 0:1.7928429 8:1 2:0.43645792 3:0.13080934 
1 0:1.1952286 8:1 2:0.43645792 3:0.13080934 
1 0:-0.5976143 8:1 2:0.43645792 3:0.13080934 
1 0:-1.1952286 8:1 2:0.43645792 3:0.13080934 
1 0:0 8:1 2:0.43645792 3:0.13080934 
1 0:0 8:1 2:0.43645792 3:0.13080934 
-1 0:1.1952286 8:1 2:0.43645792 3:-0.098428321 
-1 0:0.5976143 8:1 2:0.43645792 3:-0.098428321 
-1 0:-1.7928429 8:1 2:0.43645792 3:-0.098428321 
-1 0:0 8:1 2:0.43645792 3:-0.098428321 
-1 0:0 8:1 2:0.43645792 3:-0.098428321 
-1 0:1.7928429 8:1 2:0.43645792 3:-0.3532907 
1 0:0 8:1 2:0.43645792 3:0.13080934 
-1 0:1.7928429 8:1 2:0.43645792 3:-0.098428321 
-1 0:-0.5976143 8:1 2:0.43645792 3:-0.098428321 
-1 0:-1.1952286 8:1 2:0.43645792 3:-0.098428321 
-1 0:0 8:1 2:0.43645792 3:-0.098428321 
-1 0:0 8:1 2:0.43645792 3:-0.098428321 
-1 0:0.5976143 8:1 2:0.43645792 3:-0.3532907 
-1 0:-0.5976143 8:1 2:0.43645792 3:-0.3532907 
-1 0:0 8:1 2:0.43645792 3:-0.3532907 
-1 0:0 8:1 2:0.43645792 3:-0.3532907 
-1 0:1.1952286 8:1 2:0.43645792 3:-0.3532907 
-1 0:0 8:1 2:0.43645792 3:-0.3532907 
-1 0:0 8:1 2:0.43645792 3:-0.3532907 
-1 0:-1.7928429 8:1 2:0.43645792 3:-0.3532907 
1 0:1.7928429 5:1 2:0.43645792 3:0.85308024 
0.7569735186349579 0:1.1952286 5:1 2:0.43645792 3:0.85308024 
0.2622537124549667 0:1.7928429 5:1 2:0.43645792 3:1.3858697 
0.262254517995925 0:-1.7928429 5:1 2:0.43645792 3:1.3858697 
1 0:-1.7928429 5:1 2:0.43645792 3:0.85308024 
0.7569725560855068 0:-1.1952286 5:1 2:0.43645792 3:0.85308024 
1 0:0 1:1 2:0.43645792 3:0.86923489 
1 0:0.5976143 1:1 2:0.43645792 3:2.4463759 
1 0:-0.5976143 1:1 2:0.43645792 3:2.4463759 
1 0:0 1:1 2:0.43645792 3:2.4463759 
1 0:0 1:1 2:0.43645792 3:2.4463759 
-1 0:0.5976143 1:1 2:0.43645792 3:2.0954248 
-1 0:-0.5976143 1:1 2:0.43645792 3:2.0954248 
-1 0:0 1:1 2:0.43645792 3:2.0954248 
-1 0:0 1:1 2:0.43645792 3:2.0954248 
0.8812515277387503 0:1.1952286 1:1 2:0.43645792 3:2.4463759 
0.8812526559328892 0:-1.1952286 1:1 2:0.43645792 3:2.4463759 
1 0:0 1:1 2:0.43645792 3:2.4463759 
1 0:0 1:1 2:0.43645792 3:2.4463759 
-1 0:1.7928429 1:1 2:0.43645792 3:2.0954248 
-1 0:1.1952286 1:1 2:0.43645792 3:2.0954248 
-1 0:-1.1952286 1:1 2:0.43645792 3:2.0954248 
-1 0:-1.7928429 1:1 2:0.43645792 3:2.0954248 
-1 0:0 1:1 2:0.43645792 3:2.0954248 
-1 0:0 1:1 2:0.43645792 3:2.0954248 
-1 0:0.5976143 1:1 2:0.43645792 3:1.4677579 
-1 0:-0.5976143 1:1 2:0.43645792 3:1.4677579 
-1 0:0 1:1 2:0.43645792 3:1.4677579 
-1 0:0 1:1 2:0.43645792 3:1.4677579 
-1 0:1.7928429 1:1 2:0.43645792 3:1.4677579 
-1 0:1.1952286 1:1 2:0.43645792 3:1.4677579 
-1 0:-1.1952286 1:1 2:0.43645792 3:1.4677579 
-1 0:-1.7928429 1:1 2:0.43645792 3:1.4677579 
-1 0:0 1:1 2:0.43645792 3:1.4677579 
-1 0:0 1:1 2:0.43645792 3:1.4677579 
-1 0:-0.5976143 1:1 2:0.43645792 3:1.1873875 
-1 0:-1.1952286 1:1 2:0.43645792 3:1.1873875 
-1 0:1.7928429 1:1 2:0.43645792 3:1.1873875 
-1 0:1.1952286 1:1 2:0.43645792 3:1.1873875 
-1 0:0.5976143 1:1 2:0.43645792 3:1.1873875 
-1 0:-1.7928429 1:1 2:0.43645792 3:1.1873875 
-1 0:0 1:1 2:0.43645792 3:1.1873875 
-1 0:0 1:1 2:0.43645792 3:1.1873875 
1 0:1.7928429 1:1 2:0.43645792 3:0.86923489 
-1 0:0 1:1 2:0.43645792 3:1.1873875 
-1 0:0 1:1 2:0.43645792 3:1.1873875 
1 0:1.1952286 1:1 2:0.43645792 3:0.86923489 
1 0:0.5976143 1:1 2:0.43645792 3:0.86923489 
1 0:-0.5976143 1:1 2:0.43645792 3:0.86923489 
1 0:-1.1952286 1:1 2:0.43645792 3:0.86923489 
1 0:0 1:1 2:0.43645792 3:0.86923489 
1 0:-1.7928429 1:1 2:0.43645792 3:0.86923489 
1 0:0 1:1 2:0.43645792 3:0.86923489 
1 0:0 1:1 2:0.43645792 3:0.86923489 
-1 0:1.7928429 1:1 2:0.43645792 3:1.5518648 
-1 0:1.1952286 1:1 2:0.43645792 3:1.5518648 
-1 0:-1.1952286 1:1 2:0.43645792 3:1.5518648 
-0.9019361940139632 0:-1.7928429 1:1 2:0.43645792 3:1.5518648 
-1 0:0.5976143 1:1 2:0.43645792 3:1.5518648 
-1 0:-0.5976143 1:1 2:0.43645792 3:1.5518648 
1 0:1.7928429 1:1 2:0.43645792 3:0.99135993 
1 0:-0.5976143 1:1 2:0.43645792 3:0.99135993 
1 0:-1.1952286 1:1 2:0.43645792 3:0.99135993 
1 0:0 1:1 2:0.43645792 3:0.99135993 
1 0:0 1:1 2:0.43645792 3:0.99135993 
1 0:-1.1952286 1:1 2:0.43645792 3:0.69728761 
1 0:-1.7928429 1:1 2:0.43645792 3:0.69728761 
1 0:1.1952286 1:1 2:0.43645792 3:0.99135993 
1 0:0.5976143 1:1 2:0.43645792 3:0.99135993 
1 0:-1.7928429 1:1 2:0.43645792 3:0.99135993 
1 0:0 1:1 2:0.43645792 3:0.99135993 
1 0:0 1:1 2:0.43645792 3:0.99135993 
1 0:1.7928429 1:1 2:0.43645792 3:0.69728761 
1 0:1.1952286 1:1 2:0.43645792 3:0.69728761 
1 0:0.5976143 1:1 2:0.43645792 3:0.69728761 
1 0:-0.5976143 1:1 2:0.43645792 3:0.69728761 
1 0:0 1:1 2:0.43645792 3:0.69728761 
1 0:0 1:1 2:0.43645792 3:0.69728761 
1 0:0 1:1 2:0.43645792 3:0.69728761 
-1 0:1.7928429 1:1 2:0.43645792 3:0.38367783 
-1 0:-1.7928429 1:1 2:0.43645792 3:0.38367783 
-1 0:0 1:1 2:0.43645792 3:0.38367783 
-1 0:0 1:1 2:0.43645792 3:0.38367783 
1 0:0 1:1 2:0.43645792 3:0.69728761 
-1 0:1.1952286 1:1 2:0.43645792 3:0.38367783 
-1 0:0.5976143 1:1 2:0.43645792 3:0.38367783 
-1 0:-0.5976143 1:1 2:0.43645792 3:0.38367783 
-1 0:-1.1952286 1:1 2:0.43645792 3:0.38367783 
-1 0:0 1:1 2:0.43645792 3:0.38367783 
-1 0:0 1:1 2:0.43645792 3:0.38367783 
-1 0:0.5976143 1:1 2:0.43645792 3:0.16563147 
-1 0:-0.5976143 1:1 2:0.43645792 3:0.16563147 
-1 0:0 1:1 2:0.43645792 3:0.16563147 
-1 0:0 1:1 2:0.43645792 3:0.16563147 
-1 0:1.7928429 1:1 2:0.43645792 3:0.16563147 
-1 0:1.1952286 1:1 2:0.43645792 3:0.16563147 
-1 0:-1.1952286 1:1 2:0.43645792 3:0.16563147 
-1 0:-1.7928429 1:1 2:0.43645792 3:0.16563147 
-1 0:0 1:1 2:0.43645792 3:0.16563147 
-0.6827350364175164 0:0 9:1 2:1.3496622 3:1.3618009 
0.9509054311014297 0:1.7928429 5:1 2:1.3496622 3:1.9855326 
-1 0:-1.1952286 6:1 2:1.3496622 3:0.55754167 
-0.3833779765391442 0:1.7928429 1:1 2:0.43645792 3:1.5518648 
-1 0:-0.5976143 1:1 2:0.43645792 3:1.5518648 
-1 0:-1.1952286 1:1 2:0.43645792 3:1.5518648 
-0.9728445197777628 0:0 1:1 2:0.43645792 3:1.5518648 
-1 0:0 1:1 2:0.43645792 3:1.5518648 
-1 0:1.1952286 1:1 2:0.43645792 3:1.5518648 
-1 0:0.5976143 1:1 2:0.43645792 3:1.5518648 
-0.4814429548944612 0:-1.7928429 1:1 2:0.43645792 3:1.5518648 
-1 0:0 1:1 2:0.43645792 3:1.5518648 
-1 0:0 1:1 2:0.43645792 3:1.5518648 
1 0:0.5976143 1:1 2:0.43645792 3:0.99135993 
1 0:-0.5976143 1:1 2:0.43645792 3:0.99135993 
1 0:0 1:1 2:0.43645792 3:0.99135993 
1 0:0 1:1 2:0.43645792 3:0.99135993 
1 0:1.7928429 1:1 2:0.43645792 3:0.99135993 
1 0:1.1952286 1:1 2:0.43645792 3:0.99135993 
1 0:-1.1952286 1:1 2:0.43645792 3:0.99135993 
1 0:-1.7928429 1:1 2:0.43645792 3:0.99135993 
1 0:0 1:1 2:0.43645792 3:0.99135993 
1 0:0 1:1 2:0.43645792 3:0.99135993 
1 0:0.5976143 1:1 2:0.43645792 3:0.69728761 
1 0:-0.5976143 1:1 2:0.43645792 3:0.69728761 
1 0:-1.1952286 1:1 2:0.43645792 3:0.69728761 
1 0:0 1:1 2:0.43645792 3:0.69728761 
1 0:0 1:1 2:0.43645792 3:0.69728761 
1 0:1.7928429 1:1 2:0.43645792 3:0.69728761 
1 0:1.1952286 1:1 2:0.43645792 3:0.69728761 
1 0:-1.7928429 1:1 2:0.43645792 3:0.69728761 
1 0:0 1:1 2:0.43645792 3:0.69728761 
1 0:0 1:1 2:0.43645792 3:0.69728761 
-1 0:0 9:1 2:0.43645792 3:0.066405854 
-0.990730102090768 0:0 9:1 2:0.43645792 3:1.3858697 
-1 0:0 9:1 2:0.43645792 3:1.3858697 
-0.598319413989118 0:0 9:1 2:0.43645792 3:1.3858697 
0.9702333030953388 0:0 9:1 2:0.43645792 3:0.5936049 
1 0:0 9:1 2:0.43645792 3:0.5936049 
1 0:1.1952286 9:1 2:0.43645792 3:0.32294011 
1 0:0.5976143 9:1 2:0.43645792 3:0.32294011 
0.7368819281494814 0:1.7928429 9:1 2:0.43645792 3:0.5936049 
0.7368824396508868 0:-1.7928429 9:1 2:0.43645792 3:0.5936049 
0.8833048012569747 0:0 9:1 2:0.43645792 3:0.5936049 
1 0:0 9:1 2:0.43645792 3:0.5936049 
1 0:1.7928429 9:1 2:0.43645792 3:0.32294011 
1 0:-0.5976143 9:1 2:0.43645792 3:0.32294011 
1 0:-1.1952286 9:1 2:0.43645792 3:0.32294011 
1 0:0 9:1 2:0.43645792 3:0.32294011 
1 0:0 9:1 2:0.43645792 3:0.32294011 
-1 0:1.1952286 9:1 2:0.43645792 3:0.066405854 
-1 0:0.5976143 9:1 2:0.43645792 3:0.066405854 
-1 0:-1.7928429 9:1 2:0.43645792 3:0.066405854 
-1 0:0 9:1 2:0.43645792 3:0.066405854 
1 0:-1.7928429 9:1 2:0.43645792 3:0.32294011 
1 0:0 9:1 2:0.43645792 3:0.32294011 
1 0:0 9:1 2:0.43645792 3:0.32294011 
-1 0:1.7928429 9:1 2:0.43645792 3:0.066405854 
-1 0:-0.5976143 9:1 2:0.43645792 3:0.066405854 
-1 0:-1.1952286 9:1 2:0.43645792 3:0.066405854 
-1 0:0 9:1 2:0.43645792 3:0.066405854 
-1 0:0 9:1 2:0.43645792 3:0.066405854 
1 0:-1.7928429 9:1 2:0.43645792 3:0.13080934 
1 0:-1.7928429 9:1 2:0.43645792 3:1.0295237 
1 0:1.7928429 9:1 2:0.43645792 3:0.77465272 
1 0:1.1952286 9:1 2:0.43645792 3:0.77465272 
1 0:-1.1952286 9:1 2:0.43645792 3:0.77465272 
1 0:-1.7928429 9:1 2:0.43645792 3:0.77465272 
1 0:1.7928429 9:1 2:0.43645792 3:1.0295237 
1 0:0.5976143 9:1 2:0.43645792 3:0.77465272 
1 0:-0.5976143 9:1 2:0.43645792 3:0.77465272 
-1 0:1.7928429 9:1 2:0.43645792 3:0.41516281 
-1 0:1.1952286 9:1 2:0.43645792 3:0.41516281 
-1 0:-1.1952286 9:1 2:0.43645792 3:0.41516281 
-1 0:-1.7928429 9:1 2:0.43645792 3:0.41516281 
-1 0:0 9:1 2:0.43645792 3:0.41516281 
-1 0:0 9:1 2:0.43645792 3:0.41516281 
1 0:-0.5976143 9:1 2:0.43645792 3:0.13080934 
1 0:-1.1952286 9:1 2:0.43645792 3:0.13080934 
1 0:0 9:1 2:0.43645792 3:0.13080934 
-1 0:1.1952286 6:1 2:1.3496622 3:0.68152176 
-1 0:0 8:1 2:1.3496622 3:-0.015825609 
-1 0:0.5976143 9:1 2:0.43645792 3:0.41516281 
-1 0:-0.5976143 9:1 2:0.43645792 3:0.41516281 
-1 0:0 9:1 2:0.43645792 3:0.41516281 
-1 0:0 9:1 2:0.43645792 3:0.41516281 
1 0:1.7928429 9:1 2:0.43645792 3:0.13080934 
1 0:1.1952286 9:1 2:0.43645792 3:0.13080934 
1 0:0.5976143 9:1 2:0.43645792 3:0.13080934 
1 0:0 9:1 2:0.43645792 3:0.13080934 
1 0:0 9:1 2:0.43645792 3:0.13080934 
-1 0:-1.7928429 6:1 2:1.3496622 3:0.68152176 
-1 0:1.7928429 8:1 2:1.3496622 3:1.2520882 
1 0:0 9:1 2:0.43645792 3:0.13080934 
1 0:0 9:1 2:1.3496622 3:0.58458883 
0.9690102110494067 0:0 6:1 2:0.43645792 3:-0.75618698 
1 0:1.7928429 6:1 2:0.43645792 3:0.38842052 
1 0:1.1952286 6:1 2:0.43645792 3:0.38842052 
1 0:-1.1952286 6:1 2:0.43645792 3:0.38842052 
1 0:-1.7928429 6:1 2:0.43645792 3:0.38842052 
1 0:0 6:1 2:0.43645792 3:0.38842052 
1 0:0 6:1 2:0.43645792 3:0.38842052 
1 0:1.7928429 6:1 2:0.43645792 3:0.16340781 
1 0:-0.5976143 6:1 2:0.43645792 3:0.16340781 
1 0:-1.1952286 6:1 2:0.43645792 3:0.16340781 
1 0:0.5976143 6:1 2:0.43645792 3:0.38842052 
1 0:-0.5976143 6:1 2:0.43645792 3:0.38842052 
1 0:0 6:1 2:0.43645792 3:0.38842052 
1 0:0 6:1 2:0.43645792 3:0.38842052 
1 0:1.1952286 6:1 2:0.43645792 3:0.16340781 
1 0:0.5976143 6:1 2:0.43645792 3:0.16340781 
1 0:-1.7928429 6:1 2:0.43645792 3:0.16340781 
1 0:0 6:1 2:0.43645792 3:0.16340781 
1 0:0 6:1 2:0.43645792 3:0.16340781 
-1 0:1.7928429 6:1 2:0.43645792 3:-0.31486814 
-1 0:-0.5976143 6:1 2:0.43645792 3:-0.31486814 
-1 0:-1.1952286 6:1 2:0.43645792 3:-0.31486814 
1 0:0 6:1 2:0.43645792 3:0.16340781 
1 0:0 6:1 2:0.43645792 3:0.16340781 
-1 0:1.1952286 6:1 2:0.43645792 3:-0.31486814 
-1 0:0.5976143 6:1 2:0.43645792 3:-0.31486814 
-1 0:-1.7928429 6:1 2:0.43645792 3:-0.31486814 
-1 0:0 6:1 2:0.43645792 3:-0.31486814 
-1 0:0 6:1 2:0.43645792 3:-0.31486814 
-1 0:1.7928429 6:1 2:0.43645792 3:-0.59502491 
-1 0:-1.7928429 6:1 2:0.43645792 3:-0.59502491 
-1 0:0 6:1 2:0.43645792 3:-0.31486814 
-1 0:0 6:1 2:0.43645792 3:-0.31486814 
1 0:0 6:1 2:0.43645792 3:-0.75618698 
1 0:0 6:1 2:0.43645792 3:-0.75618698 
0.5373093140059305 0:0 6:1 2:0.43645792 3:-0.75618698 
1 0:0 6:1 2:0.43645792 3:-0.40721649 
-1 0:1.7928429 6:1 2:0.43645792 3:0.87050503 
-1 0:-0.5976143 6:1 2:0.43645792 3:0.87050503 
-1 0:-1.1952286 6:1 2:0.43645792 3:0.87050503 
-1 0:0 6:1 2:0.43645792 3:0.87050503 
-1 0:0 6:1 2:0.43645792 3:0.87050503 
1 0:0.5976143 6:1 2:0.43645792 3:0.61594157 
1 0:-0.5976143 6:1 2:0.43645792 3:0.61594157 
1 0:0 6:1 2:0.43645792 3:0.61594157 
1 0:0 6:1 2:0.43645792 3:0.61594157 
-1 0:1.1952286 6:1 2:0.43645792 3:0.87050503 
-1 0:0.5976143 6:1 2:0.43645792 3:0.87050503 
-1 0:-1.7928429 6:1 2:0.43645792 3:0.87050503 
-1 0:0 6:1 2:0.43645792 3:0.87050503 
-1 0:0 6:1 2:0.43645792 3:0.87050503 
1 0:1.7928429 6:1 2:0.43645792 3:0.61594157 
1 0:1.1952286 6:1 2:0.43645792 3:0.61594157 
1 0:-1.1952286 6:1 2:0.43645792 3:0.61594157 
1 0:-1.7928429 6:1 2:0.43645792 3:0.61594157 
1 0:0 6:1 2:0.43645792 3:0.61594157 
1 0:0 6:1 2:0.43645792 3:0.61594157 
1 0:0.5976143 6:1 2:0.43645792 3:0.36281982 
1 0:-0.5976143 6:1 2:0.43645792 3:0.36281982 
1 0:0 6:1 2:0.43645792 3:0.36281982 
1 0:0 6:1 2:0.43645792 3:0.36281982 
1 0:1.7928429 6:1 2:0.43645792 3:0.10523543 
1 0:1.1952286 6:1 2:0.43645792 3:0.10523543 
1 0:-1.1952286 6:1 2:0.43645792 3:0.10523543 
1 0:-1.7928429 6:1 2:0.43645792 3:0.10523543 
1 0:1.7928429 6:1 2:0.43645792 3:0.36281982 
1 0:1.1952286 6:1 2:0.43645792 3:0.36281982 
1 0:-1.1952286 6:1 2:0.43645792 3:0.36281982 
1 0:-1.7928429 6:1 2:0.43645792 3:0.36281982 
1 0:0 6:1 2:0.43645792 3:0.36281982 
1 0:0 6:1 2:0.43645792 3:0.36281982 
1 0:0.5976143 6:1 2:0.43645792 3:0.10523543 
1 0:-0.5976143 6:1 2:0.43645792 3:0.10523543 
1 0:0 6:1 2:0.43645792 3:0.10523543 
1 0:0 6:1 2:0.43645792 3:0.10523543 
1 0:1.7928429 6:1 2:0.43645792 3:-0.14704709 
1 0:1.1952286 6:1 2:0.43645792 3:-0.14704709 
1 0:-1.1952286 6:1 2:0.43645792 3:-0.14704709 
1 0:-1.7928429 6:1 2:0.43645792 3:-0.14704709 
1 0:0 6:1 2:0.43645792 3:0.10523543 
1 0:0 6:1 2:0.43645792 3:0.10523543 
1 0:0.5976143 6:1 2:0.43645792 3:-0.14704709 
1 0:-0.5976143 6:1 2:0.43645792 3:-0.14704709 
1 0:0 6:1 2:0.43645792 3:-0.14704709 
1 0:0 6:1 2:0.43645792 3:-0.14704709 
1 0:1.7928429 6:1 2:0.43645792 3:-0.40721649 
1 0:1.1952286 6:1 2:0.43645792 3:-0.40721649 
1 0:-1.1952286 6:1 2:0.43645792 3:-0.40721649 
1 0:-1.7928429 6:1 2:0.43645792 3:-0.40721649 
1 0:0 6:1 2:0.43645792 3:-0.14704709 
1 0:0 6:1 2:0.43645792 3:-0.14704709 
1 0:0.5976143 6:1 2:0.43645792 3:-0.40721649 
1 0:-0.5976143 6:1 2:0.43645792 3:-0.40721649 
1 0:0 6:1 2:0.43645792 3:-0.40721649 
1 0:0 6:1 2:0.43645792 3:-0.40721649 
1 0:0 6:1 2:0.43645792 3:-0.40721649 
-1 0:1.7928429 6:1 2:0.43645792 3:-0.042183721 
-1 0:1.1952286 6:1 2:0.43645792 3:-0.042183721 
-1 0:-1.1952286 6:1 2:0.43645792 3:-0.042183721 
-1 0:-1.7928429 6:1 2:0.43645792 3:-0.042183721 
-1 0:0 6:1 2:0.43645792 3:-0.042183721 
-1 0:0 6:1 2:0.43645792 3:-0.042183721 
-1 0:0.5976143 6:1 2:0.43645792 3:-0.042183721 
-1 0:-0.5976143 6:1 2:0.43645792 3:-0.042183721 
-1 0:0 6:1 2:0.43645792 3:-0.042183721 
-1 0:0 6:1 2:0.43645792 3:-0.042183721 
1 0:0 7:1 2:0.43645792 3:-0.86728054 
1 0:1.1952286 7:1 2:0.43645792 3:-0.5519498 
1 0:-1.1952286 7:1 2:0.43645792 3:-0.5519498 
1 0:-1.7928429 7:1 2:0.43645792 3:-0.5519498 
1 0:0 7:1 2:0.43645792 3:-0.5519498 
1 0:0 7:1 2:0.43645792 3:-0.5519498 
-1 0:0.5976143 7:1 2:0.43645792 3:-0.65212168 
-1 0:-0.5976143 7:1 2:0.43645792 3:-0.65212168 
-1 0:0 7:1 2:0.43645792 3:-0.65212168 
-1 0:0 7:1 2:0.43645792 3:-0.65212168 
1 0:0.5976143 7:1 2:0.43645792 3:-0.5519498 
1 0:-0.5976143 7:1 2:0.43645792 3:-0.5519498 
1 0:0 7:1 2:0.43645792 3:-0.5519498 
1 0:0 7:1 2:0.43645792 3:-0.5519498 
-1 0:1.7928429 7:1 2:0.43645792 3:-0.65212168 
-1 0:1.1952286 7:1 2:0.43645792 3:-0.65212168 
-1 0:-1.1952286 7:1 2:0.43645792 3:-0.65212168 
-1 0:-1.7928429 7:1 2:0.43645792 3:-0.65212168 
-1 0:0 7:1 2:0.43645792 3:-0.65212168 
-1 0:0 7:1 2:0.43645792 3:-0.65212168 
1 0:1.7928429 7:1 2:0.43645792 3:-0.86728054 
1 0:-0.5976143 7:1 2:0.43645792 3:-0.86728054 
1 0:-1.1952286 7:1 2:0.43645792 3:-0.86728054 
1 0:0 7:1 2:0.43645792 3:-0.86728054 
1 0:1.1952286 7:1 2:0.43645792 3:-0.86728054 
1 0:0.5976143 7:1 2:0.43645792 3:-0.86728054 
1 0:-1.7928429 7:1 2:0.43645792 3:-0.86728054 
1 0:0 7:1 2:0.43645792 3:-0.86728054 
1 0:0 7:1 2:0.43645792 3:-0.86728054 
-0.338447399021335 0:-0.5976143 7:1 2:0.43645792 3:-0.94420089 
1 0:-1.1952286 7:1 2:0.43645792 3:-0.74032994 
1 0:0 7:1 2:0.43645792 3:-0.74032994 
1 0:0 7:1 2:0.43645792 3:-0.74032994 
1 0:0.5976143 7:1 2:0.43645792 3:-0.74032994 
1 0:-0.5976143 7:1 2:0.43645792 3:-0.74032994 
1 0:0 7:1 2:0.43645792 3:-0.74032994 
1 0:0 7:1 2:0.43645792 3:-0.74032994 
-1 0:1.7928429 7:1 2:0.43645792 3:-0.77249988 
-1 0:1.1952286 7:1 2:0.43645792 3:-0.77249988 
-1 0:-1.1952286 7:1 2:0.43645792 3:-0.77249988 
-1 0:-1.7928429 7:1 2:0.43645792 3:-0.77249988 
-1 0:0 7:1 2:0.43645792 3:-0.77249988 
-1 0:1.7928429 7:1 2:0.43645792 3:-0.94420089 
-1 0:-1.7928429 7:1 2:0.43645792 3:-0.94420089 
-1 0:0 7:1 2:0.43645792 3:-0.94420089 
-1 0:0.5976143 7:1 2:0.43645792 3:-0.77249988 
-1 0:-0.5976143 7:1 2:0.43645792 3:-0.77249988 
-1 0:0 7:1 2:0.43645792 3:-0.77249988 
-1 0:0 7:1 2:0.43645792 3:-0.77249988 
-1 0:0 7:1 2:0.43645792 3:-0.77249988 
-1 0:1.1952286 7:1 2:0.43645792 3:-0.94420089 
-0.3384450353360843 0:0.5976143 7:1 2:0.43645792 3:-0.94420089 
-1 0:0 7:1 2:0.43645792 3:-0.94420089 
-1 0:0 7:1 2:0.43645792 3:-0.94420089 
-1 0:-1.1952286 7:1 2:0.43645792 3:-0.94420089 
1 0:1.1952286 4:1 2:-1.3362327 3:-1.1941596 
1 0:-1.1952286 4:1 2:-1.3362327 3:-1.1941596 
1 0:1.1952286 4:1 2:-1.3362327 3:-1.1941596 
1 0:-1.1952286 4:1 2:-1.3362327 3:-1.1941596 
1 0:-1.1952286 4:1 2:-1.3362327 3:-1.1941596 
1 0:1.1952286 4:1 2:-1.3362327 3:-1.1941596 
0.4605970141772728 0:-1.1952286 4:1 2:-1.3362327 3:-1.1941596 
1 0:1.1952286 4:1 2:-1.3362327 3:-1.1941596 
0.2014124713096062 0:1.1952286 4:1 2:-1.3362327 3:-1.1941596 
0.8650705998452149 0:-1.1952286 4:1 2:-1.3362327 3:-1.1941596 
0.4081034689857696 0:1.1952286 4:1 2:-1.3362327 3:-1.1941596 
0.8610486167621128 0:0.5976143 4:1 2:-1.3362327 3:-1.1941596 
0.1080835433998555 0:-0.5976143 4:1 2:-1.3362327 3:-1.1941596 
0.7529696581215172 0:-0.5976143 4:1 2:-1.3362327 3:-1.1941596 
1 0:-1.1952286 4:1 2:-1.3362327 3:-1.1941596 
0.7161541689704286 0:1.1952286 4:1 2:-1.3362327 3:-1.1941596 
-1 0:0 9:1 2:1.3496622 3:0.43020728 
1 0:1.7928429 9:1 2:1.3496622 3:1.6664878 
1 0:1.1952286 9:1 2:1.3496622 3:1.6664878 
1 0:0.5976143 9:1 2:1.3496622 3:1.6664878 
1 0:-0.5976143 9:1 2:1.3496622 3:1.6664878 
1 0:-1.1952286 9:1 2:1.3496622 3:1.6664878 
1 0:-1.7928429 9:1 2:1.3496622 3:1.6664878 
1 0:0 9:1 2:1.3496622 3:1.6664878 
1 0:0 9:1 2:1.3496622 3:1.6664878 
-1 0:0.5976143 9:1 2:1.3496622 3:1.3618009 
-1 0:-0.5976143 9:1 2:1.3496622 3:1.3618009 
-1 0:1.7928429 9:1 2:1.3496622 3:1.0506665 
-1 0:1.1952286 9:1 2:1.3496622 3:1.0506665 
-1 0:0 9:1 2:1.3496622 3:1.0506665 
-1 0:0 9:1 2:1.3496622 3:1.0506665 
1 0:0 9:1 2:1.3496622 3:1.6664878 
0.8203014777131986 0:0 9:1 2:1.3496622 3:1.6664878 
-0.3821161133430468 0:1.1952286 9:1 2:1.3496622 3:1.3618009 
-0.3821163749421563 0:-1.1952286 9:1 2:1.3496622 3:1.3618009 
-1 0:0.5976143 9:1 2:1.3496622 3:1.0506665 
-1 0:-0.5976143 9:1 2:1.3496622 3:1.0506665 
-1 0:-1.1952286 9:1 2:1.3496622 3:1.0506665 
-1 0:-1.7928429 9:1 2:1.3496622 3:1.0506665 
-1 0:0 9:1 2:1.3496622 3:1.0506665 
-1 0:0 9:1 2:1.3496622 3:1.0506665 
-1 0:0.5976143 9:1 2:1.3496622 3:0.43020728 
-1 0:-0.5976143 9:1 2:1.3496622 3:0.43020728 
-1 0:0 9:1 2:1.3496622 3:0.43020728 
-1 0:0 9:1 2:1.3496622 3:0.43020728 
-1 0:1.7928429 9:1 2:1.3496622 3:0.43020728 
-1 0:1.1952286 9:1 2:1.3496622 3:0.43020728 
-1 0:-1.1952286 9:1 2:1.3496622 3:0.43020728 
-1 0:-1.7928429 9:1 2:1.3496622 3:0.43020728 
-1 0:0 9:1 2:1.3496622 3:0.43020728 
1 0:0 9:1 2:1.3496622 3:0.58458883 
-1 0:1.7928429 9:1 2:1.3496622 3:1.2520882 
-1 0:1.1952286 9:1 2:1.3496622 3:1.2520882 
-1 0:0 9:1 2:1.3496622 3:1.2520882 
-1 0:0 9:1 2:1.3496622 3:1.2520882 
1 0:1.7928429 9:1 2:1.3496622 3:0.83348207 
-1 0:0.5976143 9:1 2:1.3496622 3:1.2520882 
-1 0:-0.5976143 9:1 2:1.3496622 3:1.2520882 
-1 0:-1.1952286 9:1 2:1.3496622 3:1.2520882 
-1 0:-1.7928429 9:1 2:1.3496622 3:1.2520882 
-1 0:0 9:1 2:1.3496622 3:1.2520882 
-1 0:0 9:1 2:1.3496622 3:1.2520882 
1 0:0.5976143 9:1 2:1.3496622 3:0.83348207 
1 0:-0.5976143 9:1 2:1.3496622 3:0.83348207 
1 0:0 9:1 2:1.3496622 3:0.83348207 
1 0:0 9:1 2:1.3496622 3:0.83348207 
1 0:1.1952286 9:1 2:1.3496622 3:0.83348207 
1 0:-1.1952286 9:1 2:1.3496622 3:0.83348207 
1 0:-1.7928429 9:1 2:1.3496622 3:0.83348207 
1 0:0 9:1 2:1.3496622 3:0.83348207 
1 0:0 9:1 2:1.3496622 3:0.83348207 
1 0:1.1952286 9:1 2:1.3496622 3:0.58458883 
1 0:0.5976143 9:1 2:1.3496622 3:0.58458883 
1 0:-1.7928429 9:1 2:1.3496622 3:0.58458883 
1 0:0 9:1 2:1.3496622 3:0.58458883 
1 0:1.7928429 9:1 2:1.3496622 3:0.58458883 
1 0:-0.5976143 9:1 2:1.3496622 3:0.58458883 
1 0:-1.1952286 9:1 2:1.3496622 3:0.58458883 
1 0:0 9:1 2:1.3496622 3:0.58458883 
1 0:-1.1952286 8:1 2:-1.3362327 3:-1.1941596 
0.3287820932238351 0:1.1952286 8:1 2:-1.3362327 3:-1.1941596 
0.1144479521584941 0:-1.1952286 8:1 2:-1.3362327 3:-1.1941596 
0.009317897207587337 0:0.5976143 8:1 2:-1.3362327 3:-1.1941596 
0.05246664892919762 0:1.1952286 8:1 2:-1.3362327 3:-1.1941596 
0.2658585886515615 0:-1.1952286 8:1 2:-1.3362327 3:-1.1941596 
0.9990609737264931 0:1.1952286 8:1 2:-1.3362327 3:-1.1941596 
0.2349918609958147 0:0.5976143 8:1 2:-1.3362327 3:-1.1941596 
0.2443154856889286 0:-0.5976143 8:1 2:-1.3362327 3:-1.1941596 
0.01100750949949401 0:0 5:1 2:-1.3362327 3:-1.1941596 
0.583950030992169 0:0 5:1 2:-1.3362327 3:-1.1941596 
-0.5193099735501032 0:0 1:1 2:-1.3362327 3:-0.99146261 
-0.9996255609639687 0:1.7928429 1:1 2:-1.3362327 3:-0.99146261 
-1 0:0 1:1 2:-1.3362327 3:-0.99146261 
-1 0:0 1:1 2:-1.3362327 3:-0.99146261 
-0.9689267958184884 0:1.7928429 1:1 2:-1.3362327 3:-0.99146261 
-0.9988075037369467 0:-1.7928429 1:1 2:-1.3362327 3:-0.99146261 
-1 0:0 1:1 2:-1.3362327 3:-0.99146261 
-0.2046869673501202 0:0 1:1 2:-1.3362327 3:-0.99146261 
-0.7198773159357726 0:-1.7928429 1:1 2:-1.3362327 3:-0.99146261 
1 0:0 1:1 2:-1.3362327 3:-1.1941596 
1 0:0.5976143 1:1 2:-1.3362327 3:-1.1941596 
1 0:-0.5976143 1:1 2:-1.3362327 3:-1.1941596 
1 0:0 1:1 2:-1.3362327 3:-1.1941596 
1 0:0 1:1 2:-1.3362327 3:-1.1941596 
1 0:1.7928429 1:1 2:-1.3362327 3:-1.1941596 
1 0:1.1952286 1:1 2:-1.3362327 3:-1.1941596 
1 0:-1.1952286 1:1 2:-1.3362327 3:-1.1941596 
1 0:-1.7928429 1:1 2:-1.3362327 3:-1.1941596 
1 0:0 1:1 2:-1.3362327 3:-1.1941596 
1 0:0 1:1 2:-1.3362327 3:-1.1941596 
1 0:0.5976143 1:1 2:-1.3362327 3:-1.1941596 
1 0:-0.5976143 1:1 2:-1.3362327 3:-1.1941596 
1 0:0 1:1 2:-1.3362327 3:-1.1941596 
1 0:1.7928429 1:1 2:-1.3362327 3:-1.1941596 
1 0:1.1952286 1:1 2:-1.3362327 3:-1.1941596 
1 0:-1.1952286 1:1 2:-1.3362327 3:-1.1941596 
1 0:-1.7928429 1:1 2:-1.3362327 3:-1.1941596 
1 0:0 1:1 2:-1.3362327 3:-1.1941596 
-0.7501325954752277 0:1.7928429 1:1 2:-1.3362327 3:-0.99146261 
-1 0:1.7928429 1:1 2:-1.3362327 3:-0.99146261 
-1 0:-1.7928429 1:1 2:-1.3362327 3:-0.99146261 
-1 0:1.7928429 1:1 2:-1.3362327 3:-0.99146261 
-1 0:-1.7928429 1:1 2:-1.3362327 3:-0.99146261 
-1 0:-1.7928429 1:1 2:-1.3362327 3:-0.99146261 
-1 0:0 1:1 2:-1.3362327 3:-0.99146261 
-1 0:1.7928429 1:1 2:-1.3362327 3:-0.99146261 
-1 0:0 1:1 2:-1.3362327 3:-0.99146261 
-1 0:0 1:1 2:-1.3362327 3:-0.99146261 
-1 0:-1.7928429 1:1 2:-1.3362327 3:-0.99146261 
-1 0:0 1:1 2:-1.3362327 3:-0.99146261 
-1 0:0 1:1 2:-1.3362327 3:-0.99146261 
-1 0:1.7928429 1:1 2:-1.3362327 3:-0.99146261 
-1 0:-1.7928429 1:1 2:-1.3362327 3:-0.99146261 
-1 0:0 1:1 2:-1.3362327 3:-0.99146261 
-0.2524012880660826 0:0 1:1 2:-1.3362327 3:-0.99146261 
1 0:1.7928429 6:1 2:1.3496622 3:0.98536584 
1 0:-1.7928429 6:1 2:1.3496622 3:0.98536584 
1 0:0.5976143 6:1 2:1.3496622 3:0.69058138 
1 0:-1.7928429 6:1 2:1.3496622 3:0.69058138 
1 0:0 6:1 2:1.3496622 3:0.69058138 
1 0:1.7928429 6:1 2:1.3496622 3:0.69058138 
1 0:1.1952286 6:1 2:1.3496622 3:0.69058138 
1 0:-0.5976143 6:1 2:1.3496622 3:0.69058138 
1 0:-1.1952286 6:1 2:1.3496622 3:0.69058138 
1 0:0 6:1 2:1.3496622 3:0.69058138 
1 0:0 6:1 2:1.3496622 3:0.69058138 
1 0:1.1952286 6:1 2:1.3496622 3:0.39629157 
0.3523052147621696 0:0.5976143 6:1 2:1.3496622 3:0.39629157 
1 0:-1.7928429 6:1 2:1.3496622 3:0.39629157 
1 0:1.7928429 6:1 2:1.3496622 3:0.046420995 
1 0:-0.5976143 6:1 2:1.3496622 3:0.046420995 
1 0:-1.1952286 6:1 2:1.3496622 3:0.046420995 
1 0:0 6:1 2:1.3496622 3:0.69058138 
1 0:1.7928429 6:1 2:1.3496622 3:0.39629157 
0.3523068812083153 0:-0.5976143 6:1 2:1.3496622 3:0.39629157 
1 0:-1.1952286 6:1 2:1.3496622 3:0.39629157 
1 0:1.1952286 6:1 2:1.3496622 3:0.046420995 
1 0:0.5976143 6:1 2:1.3496622 3:0.046420995 
1 0:-1.7928429 6:1 2:1.3496622 3:0.046420995 
1 0:0 6:1 2:1.3496622 3:0.046420995 
1 0:0 6:1 2:1.3496622 3:0.046420995 
1 0:0.5976143 6:1 2:1.3496622 3:-0.26333653 
1 0:-0.5976143 6:1 2:1.3496622 3:-0.26333653 
1 0:0 6:1 2:1.3496622 3:-0.26333653 
1 0:0 6:1 2:1.3496622 3:-0.26333653 
1 0:0 6:1 2:1.3496622 3:0.046420995 
1 0:0 6:1 2:1.3496622 3:0.046420995 
0.1191241122343792 0:1.1952286 6:1 2:1.3496622 3:-0.26333653 
0.1191228965229184 0:-1.1952286 6:1 2:1.3496622 3:-0.26333653 
1 0:0 6:1 2:1.3496622 3:-0.26333653 
1 0:0 6:1 2:1.3496622 3:-0.26333653 
-1 0:1.7928429 6:1 2:1.3496622 3:-0.55522056 
-1 0:1.1952286 6:1 2:1.3496622 3:-0.55522056 
-1 0:-1.1952286 6:1 2:1.3496622 3:-0.55522056 
-1 0:-1.7928429 6:1 2:1.3496622 3:-0.55522056 
0.4900898753888118 0:1.1952286 9:1 2:-1.3362327 3:-1.1941596 
0.1245069517042849 0:-1.1952286 9:1 2:-1.3362327 3:-1.1941596 
0.02551671124057432 0:0.5976143 9:1 2:-1.3362327 3:-1.1941596 
-1 0:0.5976143 6:1 2:1.3496622 3:1.4916529 
-1 0:-0.5976143 6:1 2:1.3496622 3:1.4916529 
-1 0:0 6:1 2:1.3496622 3:1.4916529 
-1 0:0 6:1 2:1.3496622 3:1.4916529 
-1 0:1.7928429 6:1 2:1.3496622 3:1.4916529 
-1 0:1.1952286 6:1 2:1.3496622 3:1.4916529 
-1 0:-1.1952286 6:1 2:1.3496622 3:1.4916529 
-1 0:-1.7928429 6:1 2:1.3496622 3:1.4916529 
-1 0:0 6:1 2:1.3496622 3:1.4916529 
-1 0:0 6:1 2:1.3496622 3:1.4916529 
1 0:0.5976143 6:1 2:1.3496622 3:1.1837421 
1 0:-0.5976143 6:1 2:1.3496622 3:1.1837421 
1 0:0 6:1 2:1.3496622 3:1.1837421 
1 0:0 6:1 2:1.3496622 3:1.1837421 
-1 0:-0.5976143 6:1 2:1.3496622 3:0.8723717 
-1 0:-1.1952286 6:1 2:1.3496622 3:0.8723717 
-1 0:0 6:1 2:1.3496622 3:0.8723717 
-1 0:0 6:1 2:1.3496622 3:0.8723717 
-1 0:1.1952286 6:1 2:1.3496622 3:0.55754167 
-1 0:0.5976143 6:1 2:1.3496622 3:0.55754167 
1 0:1.7928429 6:1 2:1.3496622 3:1.1837421 
1 0:1.1952286 6:1 2:1.3496622 3:1.1837421 
1 0:-1.1952286 6:1 2:1.3496622 3:1.1837421 
1 0:-1.7928429 6:1 2:1.3496622 3:1.1837421 
1 0:0 6:1 2:1.3496622 3:1.1837421 
1 0:0 6:1 2:1.3496622 3:1.1837421 
-1 0:1.1952286 6:1 2:1.3496622 3:0.8723717 
-1 0:0.5976143 6:1 2:1.3496622 3:0.8723717 
-1 0:0 6:1 2:1.3496622 3:0.8723717 
-1 0:0 6:1 2:1.3496622 3:0.8723717 
-1 0:-0.5976143 6:1 2:1.3496622 3:0.55754167 
-1 0:0 6:1 2:1.3496622 3:0.55754167 
-1 0:0 6:1 2:1.3496622 3:0.55754167 
-1 0:1.1952286 6:1 2:1.3496622 3:0.24617126 
-1 0:0.5976143 6:1 2:1.3496622 3:0.24617126 
-1 0:-1.7928429 6:1 2:1.3496622 3:0.24617126 
-1 0:0 6:1 2:1.3496622 3:0.24617126 
-1 0:0 6:1 2:1.3496622 3:0.55754167 
-1 0:0 6:1 2:1.3496622 3:0.55754167 
-1 0:1.7928429 6:1 2:1.3496622 3:0.24617126 
-1 0:-0.5976143 6:1 2:1.3496622 3:0.24617126 
-1 0:-1.1952286 6:1 2:1.3496622 3:0.24617126 
-1 0:0 6:1 2:1.3496622 3:0.24617126 
-1 0:0 6:1 2:1.3496622 3:0.24617126 
-1 0:1.1952286 6:1 2:1.3496622 3:-0.061739394 
-1 0:0.5976143 6:1 2:1.3496622 3:-0.061739394 
-1 0:-1.7928429 6:1 2:1.3496622 3:-0.061739394 
-1 0:0 6:1 2:1.3496622 3:-0.061739394 
-1 0:0 6:1 2:1.3496622 3:0.24617126 
-1 0:1.7928429 6:1 2:1.3496622 3:-0.061739394 
-1 0:-0.5976143 6:1 2:1.3496622 3:-0.061739394 
-1 0:-1.1952286 6:1 2:1.3496622 3:-0.061739394 
-1 0:0 6:1 2:1.3496622 3:-0.061739394 
-1 0:0 6:1 2:1.3496622 3:-0.061739394 
-1 0:0 6:1 2:1.3496622 3:-0.061739394 
-1 0:0 6:1 2:1.3496622 3:-0.20296095 
-1 0:1.7928429 6:1 2:1.3496622 3:0.68152176 
-1 0:-1.1952286 6:1 2:1.3496622 3:0.68152176 
-1 0:0.5976143 6:1 2:1.3496622 3:0.68152176 
-1 0:-0.5976143 6:1 2:1.3496622 3:0.68152176 
-1 0:0 6:1 2:1.3496622 3:0.68152176 
-1 0:0 6:1 2:1.3496622 3:0.68152176 
1 0:1.7928429 6:1 2:1.3496622 3:0.41392092 
1 0:1.1952286 6:1 2:1.3496622 3:0.41392092 
1 0:-1.1952286 6:1 2:1.3496622 3:0.41392092 
1 0:-1.7928429 6:1 2:1.3496622 3:0.41392092 
1 0:0 6:1 2:1.3496622 3:0.41392092 
1 0:0 6:1 2:1.3496622 3:0.41392092 
-1 0:0 6:1 2:1.3496622 3:0.68152176 
-1 0:0 6:1 2:1.3496622 3:0.68152176 
1 0:0.5976143 6:1 2:1.3496622 3:0.41392092 
1 0:-0.5976143 6:1 2:1.3496622 3:0.41392092 
1 0:0 6:1 2:1.3496622 3:0.41392092 
1 0:0 6:1 2:1.3496622 3:0.41392092 
-1 0:1.1952286 6:1 2:1.3496622 3:-0.20296095 
-1 0:0.5976143 6:1 2:1.3496622 3:-0.20296095 
-1 0:-1.7928429 6:1 2:1.3496622 3:-0.20296095 
-1 0:0 6:1 2:1.3496622 3:-0.20296095 
-1 0:1.7928429 6:1 2:1.3496622 3:-0.20296095 
-1 0:-0.5976143 6:1 2:1.3496622 3:-0.20296095 
-1 0:-1.1952286 6:1 2:1.3496622 3:-0.20296095 
-1 0:0 6:1 2:1.3496622 3:-0.20296095 
-1 0:0 6:1 2:1.3496622 3:-0.20296095 
-1 0:1.7928429 7:1 2:1.3496622 3:-0.20311088 
-0.6258647774794971 0:1.1952286 7:1 2:1.3496622 3:-0.20311088 
-0.6258641328517051 0:-1.1952286 7:1 2:1.3496622 3:-0.20311088 
-1 0:-1.7928429 7:1 2:1.3496622 3:-0.20311088 
-1 0:-1.1952286 7:1 2:1.3496622 3:-0.3825639 
-1 0:-1.7928429 7:1 2:1.3496622 3:-0.3825639 
-1 0:1.7928429 7:1 2:1.3496622 3:-0.3825639 
-1 0:1.1952286 7:1 2:1.3496622 3:-0.3825639 
-1 0:0.5976143 7:1 2:1.3496622 3:-0.3825639 
-1 0:-0.5976143 7:1 2:1.3496622 3:-0.3825639 
-0.1432178024798601 0:0 7:1 2:1.3496622 3:-0.3825639 
-1 0:0 7:1 2:1.3496622 3:-0.3825639 
-1 0:0 7:1 2:1.3496622 3:-0.3825639 
-0.9247964988938202 0:0 7:1 2:1.3496622 3:-0.3825639 
1 0:0 7:1 2:1.3496622 3:-0.83675938 
-1 0:1.7928429 7:1 2:1.3496622 3:-0.38287233 
-1 0:-1.7928429 7:1 2:1.3496622 3:-0.38287233 
1 0:1.7928429 7:1 2:1.3496622 3:-0.83675938 
1 0:1.1952286 7:1 2:1.3496622 3:-0.83675938 
1 0:0.5976143 7:1 2:1.3496622 3:-0.83675938 
1 0:-1.7928429 7:1 2:1.3496622 3:-0.83675938 
1 0:0 7:1 2:1.3496622 3:-0.83675938 
1 0:-0.5976143 7:1 2:1.3496622 3:-0.83675938 
1 0:-1.1952286 7:1 2:1.3496622 3:-0.83675938 
1 0:0 7:1 2:1.3496622 3:-0.83675938 
1 0:0 7:1 2:1.3496622 3:-0.83675938 
-1 0:0 4:1 2:1.3496622 3:-0.15357224 
1 0:1.1952286 4:1 2:1.3496622 3:0.73052523 
1 0:0.5976143 4:1 2:1.3496622 3:0.73052523 
1 0:-1.7928429 4:1 2:1.3496622 3:0.73052523 
-0.09177206559926847 0:1.7928429 4:1 2:1.3496622 3:0.43645318 
-1 0:-0.5976143 4:1 2:1.3496622 3:0.43645318 
-1 0:-1.1952286 4:1 2:1.3496622 3:0.43645318 
-1 0:0 4:1 2:1.3496622 3:0.43645318 
-1 0:0 4:1 2:1.3496622 3:0.43645318 
-1 0:1.1952286 4:1 2:1.3496622 3:0.13693197 
-1 0:-1.1952286 4:1 2:1.3496622 3:0.13693197 
-1 0:-1.7928429 4:1 2:1.3496622 3:0.13693197 
-1 0:0 4:1 2:1.3496622 3:0.13693197 
-1 0:0 4:1 2:1.3496622 3:0.13693197 
1 0:1.7928429 4:1 2:1.3496622 3:0.73052523 
1 0:-0.5976143 4:1 2:1.3496622 3:0.73052523 
1 0:-1.1952286 4:1 2:1.3496622 3:0.73052523 
0.6422447486091449 0:0 4:1 2:1.3496622 3:0.73052523 
-1 0:1.1952286 4:1 2:1.3496622 3:0.43645318 
-1 0:0.5976143 4:1 2:1.3496622 3:0.43645318 
-0.09177197987922124 0:-1.7928429 4:1 2:1.3496622 3:0.43645318 
-1 0:0 4:1 2:1.3496622 3:0.43645318 
-1 0:0 4:1 2:1.3496622 3:0.43645318 
-1 0:1.7928429 4:1 2:1.3496622 3:0.13693197 
-1 0:0.5976143 4:1 2:1.3496622 3:0.13693197 
-1 0:-0.5976143 4:1 2:1.3496622 3:0.13693197 
-1 0:0 4:1 2:1.3496622 3:0.13693197 
-1 0:0 4:1 2:1.3496622 3:0.13693197 
-1 0:1.7928429 4:1 2:1.3496622 3:-0.15357224 
-1 0:1.1952286 4:1 2:1.3496622 3:-0.15357224 
-1 0:-1.1952286 4:1 2:1.3496622 3:-0.15357224 
-1 0:-1.7928429 4:1 2:1.3496622 3:-0.15357224 
-1 0:0.5976143 4:1 2:1.3496622 3:-0.15357224 
-1 0:-0.5976143 4:1 2:1.3496622 3:-0.15357224 
-1 0:0 4:1 2:1.3496622 3:-0.15357224 
-1 0:0 4:1 2:1.3496622 3:-0.15357224 
-1 0:0 4:1 2:1.3496622 3:-0.15357224 
-1 0:0 4:1 2:1.3496622 3:-0.14646916 
1 0:0.5976143 4:1 2:1.3496622 3:-0.00046835598 
1 0:-0.5976143 4:1 2:1.3496622 3:-0.00046835598 
1 0:0 4:1 2:1.3496622 3:-0.00046835598 
1 0:0 4:1 2:1.3496622 3:-0.00046835598 
1 0:1.7928429 4:1 2:1.3496622 3:-0.00046835598 
1 0:1.1952286 4:1 2:1.3496622 3:-0.00046835598 
1 0:-1.1952286 4:1 2:1.3496622 3:-0.00046835598 
1 0:-1.7928429 4:1 2:1.3496622 3:-0.00046835598 
1 0:0 4:1 2:1.3496622 3:-0.00046835598 
1 0:0 4:1 2:1.3496622 3:-0.00046835598 
-1 0:0.5976143 4:1 2:1.3496622 3:-0.14646916 
-1 0:-1.7928429 4:1 2:1.3496622 3:-0.14646916 
-1 0:0 4:1 2:1.3496622 3:-0.14646916 
-1 0:1.7928429 4:1 2:1.3496622 3:-0.14646916 
-1 0:1.1952286 4:1 2:1.3496622 3:-0.14646916 
-1 0:-0.5976143 4:1 2:1.3496622 3:-0.14646916 
-1 0:-1.1952286 4:1 2:1.3496622 3:-0.14646916 
-1 0:0 4:1 2:1.3496622 3:-0.14646916 
-1 0:0 4:1 2:1.3496622 3:-0.14646916 
0.002953784696293996 0:-1.1952286 9:1 2:-1.3362327 3:-1.1941596 
0.006578607775462601 0:1.1952286 9:1 2:-1.3362327 3:-1.1941596 
0.002270608658691785 0:-0.5976143 9:1 2:-1.3362327 3:-1.1941596 
0.02530961628790359 0:0.5976143 9:1 2:-1.3362327 3:-1.1941596 
0.05438653381900786 0:-0.5976143 9:1 2:-1.3362327 3:-1.1941596 
0.3692041674321032 0:-1.1952286 9:1 2:-1.3362327 3:-1.1941596 
0.49998885775725 0:0.5976143 9:1 2:-1.3362327 3:-1.1941596 
0.494164565144574 0:-0.5976143 9:1 2:-1.3362327 3:-1.1941596 
1 0:0.5976143 9:1 2:-1.3362327 3:-1.1941596 
1 0:-0.5976143 9:1 2:-1.3362327 3:-1.1941596 
1 0:1.1952286 6:1 2:-1.3362327 3:-1.1941596 
1 0:-1.1952286 6:1 2:-1.3362327 3:-1.1941596 
1 0:1.1952286 6:1 2:-1.3362327 3:-1.1941596 
1 0:-1.1952286 6:1 2:-1.3362327 3:-1.1941596 
0.07195599307272862 0:1.1952286 6:1 2:-1.3362327 3:-1.1941596 
1 0:-1.1952286 6:1 2:-1.3362327 3:-1.1941596 
0.7638978160587743 0:-1.1952286 6:1 2:-1.3362327 3:-1.1941596 
0.01803229765586505 0:0.5976143 6:1 2:-1.3362327 3:-1.1941596 
1 0:1.7928429 4:1 2:1.3496622 3:0.24827193 
1 0:-1.7928429 4:1 2:1.3496622 3:0.24827193 
1 0:0 4:1 2:1.3496622 3:0.24827193 
1 0:0 4:1 2:1.3496622 3:0.24827193 
-1 0:1.7928429 4:1 2:1.3496622 3:-0.026245641 
1 0:1.1952286 4:1 2:1.3496622 3:0.24827193 
1 0:0.5976143 4:1 2:1.3496622 3:0.24827193 
1 0:-0.5976143 4:1 2:1.3496622 3:0.24827193 
1 0:-1.1952286 4:1 2:1.3496622 3:0.24827193 
1 0:0 4:1 2:1.3496622 3:0.24827193 
1 0:0 4:1 2:1.3496622 3:0.24827193 
-1 0:1.1952286 4:1 2:1.3496622 3:-0.026245641 
-1 0:0.5976143 4:1 2:1.3496622 3:-0.026245641 
-1 0:0 4:1 2:1.3496622 3:-0.026245641 
-1 0:0 4:1 2:1.3496622 3:-0.026245641 
1 0:1.7928429 4:1 2:1.3496622 3:-0.2217678 
1 0:1.1952286 4:1 2:1.3496622 3:-0.2217678 
1 0:-1.1952286 4:1 2:1.3496622 3:-0.2217678 
1 0:-1.7928429 4:1 2:1.3496622 3:-0.2217678 
-1 0:-0.5976143 4:1 2:1.3496622 3:-0.026245641 
-1 0:-1.1952286 4:1 2:1.3496622 3:-0.026245641 
-1 0:-1.7928429 4:1 2:1.3496622 3:-0.026245641 
-1 0:0 4:1 2:1.3496622 3:-0.026245641 
-1 0:0 4:1 2:1.3496622 3:-0.026245641 
1 0:0.5976143 4:1 2:1.3496622 3:-0.2217678 
1 0:-0.5976143 4:1 2:1.3496622 3:-0.2217678 
1 0:0 4:1 2:1.3496622 3:-0.2217678 
1 0:0 4:1 2:1.3496622 3:-0.2217678 
1 0:0 4:1 2:1.3496622 3:-0.2217678 
1 0:0 4:1 2:1.3496622 3:-0.2217678 
0.001417939439600798 0:1.1952286 6:1 2:-1.3362327 3:-1.1941596 
0.2285245266371481 0:0.5976143 6:1 2:-1.3362327 3:-1.1941596 
0.09602517257089171 0:0.5976143 6:1 2:-1.3362327 3:-1.1941596 
0.1140052293118235 0:-1.1952286 6:1 2:-1.3362327 3:-1.1941596 
0.0133865826426778 0:1.1952286 6:1 2:-1.3362327 3:-1.1941596 
1 0:1.1952286 6:1 2:-1.3362327 3:-1.1941596 
1 0:1.1952286 6:1 2:-1.3362327 3:-1.1941596 
0.2822605920335138 0:-0.5976143 6:1 2:-1.3362327 3:-1.1941596 
0.1643519339587573 0:-1.1952286 6:1 2:-1.3362327 3:-1.1941596 
0.93658565497623 0:1.1952286 6:1 2:-1.3362327 3:-1.1941596 
0.5348484924551634 0:0.5976143 6:1 2:-1.3362327 3:-1.1941596 
0.9810847199449113 0:-1.1952286 6:1 2:-1.3362327 3:-1.1941596 
0.1643950573154851 0:0.5976143 6:1 2:-1.3362327 3:-1.1941596 
1 0:-0.5976143 6:1 2:-1.3362327 3:-1.1941596 
1 0:1.1952286 6:1 2:-1.3362327 3:-1.1941596 
1 0:-1.1952286 6:1 2:-1.3362327 3:-1.1941596 
1 0:0.5976143 6:1 2:-1.3362327 3:-1.1941596 
0.7595750522040651 0:-0.5976143 6:1 2:-1.3362327 3:-1.1941596 
1 0:1.1952286 6:1 2:-1.3362327 3:-1.1941596 
1 0:-1.1952286 6:1 2:-1.3362327 3:-1.1941596 
-1 0:0 8:1 2:1.3496622 3:-0.015825609 
-1 0:-0.5976143 8:1 2:1.3496622 3:1.2520882 
-1 0:0 8:1 2:1.3496622 3:1.2520882 
-1 0:0 8:1 2:1.3496622 3:1.2520882 
1 0:1.7928429 8:1 2:1.3496622 3:0.83348207 
1 0:1.1952286 8:1 2:1.3496622 3:0.83348207 
-1 0:1.1952286 8:1 2:1.3496622 3:1.2520882 
-1 0:0.5976143 8:1 2:1.3496622 3:1.2520882 
-1 0:-1.1952286 8:1 2:1.3496622 3:1.2520882 
-1 0:-1.7928429 8:1 2:1.3496622 3:1.2520882 
-1 0:0 8:1 2:1.3496622 3:1.2520882 
-1 0:0 8:1 2:1.3496622 3:1.2520882 
1 0:0.5976143 8:1 2:1.3496622 3:0.83348207 
1 0:-0.5976143 8:1 2:1.3496622 3:0.83348207 
1 0:1.7928429 8:1 2:1.3496622 3:0.58458883 
1 0:1.1952286 8:1 2:1.3496622 3:0.58458883 
1 0:-1.1952286 8:1 2:1.3496622 3:0.58458883 
1 0:-1.7928429 8:1 2:1.3496622 3:0.58458883 
1 0:0 8:1 2:1.3496622 3:0.58458883 
1 0:0 8:1 2:1.3496622 3:0.58458883 
1 0:-1.1952286 8:1 2:1.3496622 3:0.83348207 
1 0:-1.7928429 8:1 2:1.3496622 3:0.83348207 
1 0:0.5976143 8:1 2:1.3496622 3:0.58458883 
1 0:-0.5976143 8:1 2:1.3496622 3:0.58458883 
1 0:0 8:1 2:1.3496622 3:0.58458883 
1 0:0 8:1 2:1.3496622 3:0.58458883 
1 0:-0.5976143 8:1 2:1.3496622 3:0.2671148 
1 0:-1.1952286 8:1 2:1.3496622 3:0.2671148 
0.9140089976715966 0:0 8:1 2:1.3496622 3:0.2671148 
1 0:0 8:1 2:1.3496622 3:0.2671148 
1 0:1.1952286 8:1 2:1.3496622 3:0.2671148 
1 0:0.5976143 8:1 2:1.3496622 3:0.2671148 
1 0:0 8:1 2:1.3496622 3:0.2671148 
0.8657633381734812 0:0 8:1 2:1.3496622 3:0.2671148 
-1 0:1.7928429 8:1 2:1.3496622 3:-0.015825609 
-1 0:-0.5976143 8:1 2:1.3496622 3:-0.015825609 
-1 0:-1.1952286 8:1 2:1.3496622 3:-0.015825609 
-1 0:1.1952286 8:1 2:1.3496622 3:-0.015825609 
-1 0:0.5976143 8:1 2:1.3496622 3:-0.015825609 
-1 0:-1.7928429 8:1 2:1.3496622 3:-0.015825609 
-1 0:0 8:1 2:1.3496622 3:-0.015825609 
-1 0:0 8:1 2:1.3496622 3:-0.015825609 
-0.0335269323427651 0:0 5:1 2:1.3496622 3:1.3618009 
0.9509052694183679 0:-1.7928429 5:1 2:1.3496622 3:1.9855326 
-1 0:0.5976143 5:1 2:1.3496622 3:1.3618009 
-1 0:-0.5976143 5:1 2:1.3496622 3:1.3618009 
-0.4105874835281035 0:0 5:1 2:1.3496622 3:1.3618009 
-1 0:0 1:1 2:1.3496622 3:1.1488466 
1 0:1.7928429 1:1 2:1.3496622 3:2.5298348 
0.02358546479243412 0:0 1:1 2:1.3496622 3:2.5298348 
0.4260489436329895 0:-1.7928429 1:1 2:1.3496622 3:2.4995696 
1 0:-1.7928429 1:1 2:1.3496622 3:2.5298348 
0.006208003684850159 0:0 1:1 2:1.3496622 3:2.5298348 
0.5591849319291985 0:0 1:1 2:1.3496622 3:2.5298348 
0.4260501672787048 0:1.7928429 1:1 2:1.3496622 3:2.4995696 
1 0:1.7928429 1:1 2:1.3496622 3:1.4948137 
1 0:-0.5976143 1:1 2:1.3496622 3:1.4948137 
1 0:-1.1952286 1:1 2:1.3496622 3:1.4948137 
1 0:0 1:1 2:1.3496622 3:1.4948137 
1 0:0 1:1 2:1.3496622 3:1.4948137 
-1 0:1.1952286 1:1 2:1.3496622 3:1.1488466 
-1 0:0.5976143 1:1 2:1.3496622 3:1.1488466 
-1 0:-1.7928429 1:1 2:1.3496622 3:1.1488466 
-1 0:0 1:1 2:1.3496622 3:1.1488466 
1 0:1.1952286 1:1 2:1.3496622 3:1.4948137 
1 0:0.5976143 1:1 2:1.3496622 3:1.4948137 
1 0:-1.7928429 1:1 2:1.3496622 3:1.4948137 
1 0:0 1:1 2:1.3496622 3:1.4948137 
1 0:0 1:1 2:1.3496622 3:1.4948137 
-1 0:1.7928429 1:1 2:1.3496622 3:1.1488466 
-1 0:-0.5976143 1:1 2:1.3496622 3:1.1488466 
-1 0:-1.1952286 1:1 2:1.3496622 3:1.1488466 
-1 0:0 1:1 2:1.3496622 3:1.1488466 
-1 0:0 1:1 2:1.3496622 3:1.1488466 
