svm_type epsilon_svr
kernel_type rbf
gamma 0.1
nr_class 2
total_sv 1344
rho -1.14532
SV
1 0:0 1:1 2:1.3496622 3:2.1426177 
1 0:0 1:1 2:1.3496622 3:2.1426177 
1 0:0 1:1 2:1.3496622 3:1.994829 
1 0:0 1:1 2:1.3496622 3:1.8566083 
-1 0:-0.5976143 1:1 2:1.3496622 3:1.4188818 
-1 0:-1.1952286 1:1 2:1.3496622 3:1.4190264 
-1 0:0 1:1 2:1.3496622 3:1.2452295 
-1 0:-1.1952286 1:1 2:1.3496622 3:1.0552834 
-0.1965169405329704 0:-1.7928429 1:1 2:1.3496622 3:1.0553005 
-1 0:-0.5976143 1:1 2:1.3496622 3:1.0551769 
-1 0:0 1:1 2:1.3496622 3:1.0515614 
-1 0:0 1:1 2:1.3496622 3:0.97806401 
0.4966484808258347 0:-0.5976143 1:1 2:1.3496622 3:2.1461512 
1 0:0 1:1 2:1.3496622 3:2.1426177 
1 0:-0.5976143 1:1 2:1.3496622 3:2.1461512 
1 0:0 1:1 2:1.3496622 3:2.1426177 
1 0:-0.5976143 1:1 2:1.3496622 3:2.1461512 
1 0:0 1:1 2:1.3496622 3:2.1426177 
1 0:0 1:1 2:1.3496622 3:2.1426177 
0.9837672863082706 0:-0.5976143 1:1 2:1.3496622 3:2.1461512 
1 0:0 1:1 2:1.3496622 3:1.994829 
1 0:1.7928429 4:1 2:-0.44988739 3:-0.43923699 
1 0:0 1:1 2:1.3496622 3:1.8566083 
-1 0:0.5976143 5:1 2:-0.44988739 3:0.048886325 
-1 0:0 5:1 2:-0.44988739 3:0.069497067 
-1 0:1.7928429 6:1 2:-0.44988739 3:-0.27171031 
0.05057950620445551 0:1.7928429 7:1 2:0.43645792 3:-0.84010059 
-1 0:1.7928429 4:1 2:0.43645792 3:-0.20357436 
-1 0:1.7928429 9:1 2:-0.44988739 3:0.17388649 
-1 0:1.1952286 7:1 2:0.43645792 3:-0.72147225 
-1 0:1.7928429 8:1 2:-0.44988739 3:-0.41038707 
-1 0:1.1952286 8:1 2:-0.44988739 3:-0.48219749 
-1 0:0.5976143 8:1 2:-0.44988739 3:-0.45370897 
1 0:0 8:1 2:-0.44988739 3:-0.5713861 
1 0:1.7928429 8:1 2:-0.44988739 3:-0.69294658 
-1 0:-0.5976143 8:1 2:-0.44988739 3:-0.44986022 
-1 0:-1.1952286 8:1 2:-0.44988739 3:-0.44982572 
-1 0:0 8:1 2:-0.44988739 3:-0.4660116 
-1 0:0 8:1 2:-0.44988739 3:-0.45178464 
-1 0:0 8:1 2:-0.44988739 3:-0.45022875 
1 0:0 8:1 2:-0.44988739 3:-0.8347856 
1 0:1.7928429 8:1 2:-0.44988739 3:-0.96904927 
1 0:1.1952286 8:1 2:-0.44988739 3:-0.87103067 
1 0:-1.1952286 8:1 2:-0.44988739 3:-0.79854062 
1 0:0 8:1 2:-0.44988739 3:-0.88364268 
-1 0:1.7928429 8:1 2:-0.44988739 3:-0.28300304 
-1 0:1.1952286 8:1 2:-0.44988739 3:-0.070954488 
-1 0:1.1952286 8:1 2:-0.44988739 3:-0.070954488 
1 0:0 8:1 2:-0.44988739 3:-0.094968586 
1 0:0 8:1 2:-0.44988739 3:0.011013059 
-1 0:1.7928429 8:1 2:-0.44988739 3:-0.28300304 
1 0:0 8:1 2:-0.44988739 3:0.011013059 
0.8008536169770684 0:0 8:1 2:-0.44988739 3:0.073059627 
1 0:1.7928429 8:1 2:-0.44988739 3:-0.69294658 
-1 0:1.1952286 8:1 2:-0.44988739 3:-0.48219749 
1 0:0 8:1 2:-0.44988739 3:-0.094968586 
-1 0:0.5976143 8:1 2:-0.44988739 3:-0.45370897 
-1 0:-0.5976143 8:1 2:-0.44988739 3:-0.44986022 
1 0:0 8:1 2:-0.44988739 3:-0.5713861 
-1 0:0 8:1 2:-0.44988739 3:-0.45022875 
1 0:1.7928429 8:1 2:-0.44988739 3:-0.86161325 
-1 0:-1.1952286 8:1 2:-0.44988739 3:-0.44982572 
-1 0:0 8:1 2:-0.44988739 3:-0.4660116 
-1 0:0 8:1 2:-0.44988739 3:-0.45178464 
1 0:0 8:1 2:-0.44988739 3:-0.75611433 
1 0:0 8:1 2:-0.44988739 3:-0.69018277 
1 0:-1.7928429 6:1 2:-0.44988739 3:-0.6506155 
-1 0:1.1952286 6:1 2:-0.44988739 3:0.032333465 
1 0:0 6:1 2:-0.44988739 3:0.14512985 
-1 0:1.1952286 6:1 2:-0.44988739 3:0.032333465 
-0.9718371909528568 0:0.5976143 6:1 2:-0.44988739 3:0.22958223 
-0.9317770858184617 0:0.5976143 6:1 2:-0.44988739 3:0.22958223 
-0.3426741581774746 0:-0.5976143 6:1 2:-0.44988739 3:0.25700845 
1 0:0 6:1 2:-0.44988739 3:-0.0067141145 
-1 0:1.7928429 6:1 2:-0.44988739 3:-0.27171031 
-0.04972583769561433 0:-0.5976143 6:1 2:-0.44988739 3:0.25700845 
1 0:0 6:1 2:-0.44988739 3:-0.0067141145 
1 0:0 6:1 2:-0.44988739 3:0.14512985 
1 0:1.7928429 6:1 2:-0.44988739 3:-0.43923699 
-1 0:1.1952286 6:1 2:-0.44988739 3:-0.069138062 
-1 0:-0.5976143 6:1 2:-0.44988739 3:0.07424453 
-1 0:0 6:1 2:-0.44988739 3:0.061565519 
-1 0:1.1952286 6:1 2:-0.44988739 3:-0.48219749 
-1 0:0.5976143 6:1 2:-0.44988739 3:0.048886325 
1 0:0 6:1 2:-0.44988739 3:-0.1821079 
-1 0:0 6:1 2:-0.44988739 3:0.069497067 
1 0:1.7928429 6:1 2:-0.44988739 3:-0.69294658 
-1 0:0.5976143 6:1 2:-0.44988739 3:-0.45370897 
-1 0:-0.5976143 6:1 2:-0.44988739 3:-0.44986022 
1 0:0 6:1 2:-0.44988739 3:-0.5713861 
-1 0:0 6:1 2:-0.44988739 3:-0.4660116 
1 0:1.7928429 6:1 2:-0.44988739 3:-0.86161325 
1 0:-0.5976143 6:1 2:-0.44988739 3:-0.65179657 
1 0:-1.1952286 6:1 2:-0.44988739 3:-0.65088826 
-1 0:-1.1952286 6:1 2:-0.44988739 3:-0.44982572 
-1 0:0 6:1 2:-0.44988739 3:-0.45178464 
-1 0:0 6:1 2:-0.44988739 3:-0.45022875 
1 0:1.1952286 6:1 2:-0.44988739 3:-0.72947719 
1 0:0 6:1 2:-0.44988739 3:-0.69018277 
1 0:0 6:1 2:-0.44988739 3:-0.65740569 
1 0:0 6:1 2:-0.44988739 3:-0.75611433 
-0.4968921365630933 0:-0.5976143 9:1 2:-0.44988739 3:0.94832568 
1 0:0 9:1 2:-0.44988739 3:0.5616025 
-1 0:1.7928429 9:1 2:-0.44988739 3:0.096319148 
-1 0:0 9:1 2:-0.44988739 3:0.83251189 
0.07335592948348549 0:0 9:1 2:-0.44988739 3:0.78056767 
1 0:0 9:1 2:-0.44988739 3:0.47011739 
-0.9160508104350051 0:1.7928429 1:1 2:-0.44988739 3:0.45235516 
1 0:0.5976143 1:1 2:-0.44988739 3:1.3613112 
1 0:0 1:1 2:-0.44988739 3:0.92379252 
1 0:0 1:1 2:-0.44988739 3:1.3916283 
1 0:0 1:1 2:-0.44988739 3:0.92379252 
1 0:0 1:1 2:-0.44988739 3:0.92379252 
1 0:0 1:1 2:-0.44988739 3:1.3916283 
-0.5289630102553727 0:1.7928429 1:1 2:-0.44988739 3:0.45235516 
1 0:0.5976143 1:1 2:-0.44988739 3:1.3613112 
1 0:0 1:1 2:-0.44988739 3:1.3916283 
1 0:0.5976143 1:1 2:-0.44988739 3:1.3613112 
1 0:0.5976143 1:1 2:-0.44988739 3:1.3613112 
1 0:0 1:1 2:-0.44988739 3:0.92379252 
1 0:0 1:1 2:-0.44988739 3:1.3916283 
1 0:0.5976143 1:1 2:-0.44988739 3:1.3613112 
1 0:0 1:1 2:-0.44988739 3:0.92379252 
1 0:0 1:1 2:-0.44988739 3:1.3916283 
-1 0:1.7928429 1:1 2:-0.44988739 3:0.45235516 
-0.9950889899375867 0:1.7928429 1:1 2:-0.44988739 3:0.45235516 
1 0:0.5976143 1:1 2:-0.44988739 3:1.3613112 
1 0:0 1:1 2:-0.44988739 3:0.92379252 
1 0:0 1:1 2:-0.44988739 3:1.3916283 
-1 0:-0.5976143 1:1 2:-0.44988739 3:1.2868759 
-1 0:0 1:1 2:-0.44988739 3:1.2503792 
-1 0:1.7928429 1:1 2:-0.44988739 3:0.34998628 
-1 0:0 1:1 2:-0.44988739 3:1.2808659 
1 0:0 1:1 2:-0.44988739 3:0.81857531 
-1 0:1.7928429 1:1 2:-0.44988739 3:0.32646203 
-1 0:-0.5976143 1:1 2:-0.44988739 3:1.2108469 
1 0:0 1:1 2:-0.44988739 3:0.76872211 
-1 0:1.7928429 1:1 2:-0.44988739 3:0.32646203 
-1 0:0 1:1 2:-0.44988739 3:1.1786939 
-1 0:0 1:1 2:-0.44988739 3:1.1786939 
-1 0:1.7928429 1:1 2:-0.44988739 3:0.29321299 
-1 0:0 1:1 2:-0.44988739 3:1.1786939 
-1 0:-0.5976143 1:1 2:-0.44988739 3:1.2108469 
1 0:0 1:1 2:-0.44988739 3:0.76872211 
-1 0:1.7928429 1:1 2:-0.44988739 3:0.32646203 
-1 0:-0.5976143 1:1 2:-0.44988739 3:1.2108469 
1 0:0 1:1 2:-0.44988739 3:0.76872211 
-1 0:-0.5976143 1:1 2:-0.44988739 3:1.0625531 
1 0:0 1:1 2:-0.44988739 3:0.67791562 
-1 0:0 1:1 2:-0.44988739 3:1.061043 
1 0:1.7928429 1:1 2:-0.44988739 3:-0.1050525 
-1 0:-0.5976143 1:1 2:-0.44988739 3:0.71798507 
0.5743051373189212 0:-1.7928429 1:1 2:-0.44988739 3:1.0626183 
-1 0:0 1:1 2:-0.44988739 3:1.0398416 
1 0:0 1:1 2:-0.44988739 3:0.30648427 
-1 0:0 1:1 2:-0.44988739 3:0.70672465 
-1 0:0 1:1 2:-0.44988739 3:0.71699114 
-1 0:0.5976143 1:1 2:-0.44988739 3:0.42580676 
-1 0:-0.5976143 1:1 2:-0.44988739 3:0.43733062 
-1 0:0 1:1 2:-0.44988739 3:0.43668614 
1 0:1.7928429 1:1 2:-0.44988739 3:-0.53253406 
1 0:1.1952286 1:1 2:-0.44988739 3:-0.020656901 
1 0:0 1:1 2:-0.44988739 3:-0.047601672 
1 0:0 1:1 2:-0.44988739 3:0.20833686 
-1 0:0 1:1 2:-0.44988739 3:0.43156878 
-1 0:0 1:1 2:-0.44988739 3:1.0398416 
-1 0:1.7928429 1:1 2:-0.44988739 3:0.32646203 
-1 0:-0.5976143 1:1 2:-0.44988739 3:1.2108469 
-1 0:1.7928429 1:1 2:-0.44988739 3:0.32646203 
1 0:0 1:1 2:-0.44988739 3:0.76872211 
-1 0:0 1:1 2:-0.44988739 3:1.1786939 
-1 0:-0.5976143 1:1 2:-0.44988739 3:1.2108469 
1 0:0 1:1 2:-0.44988739 3:0.76872211 
-1 0:1.7928429 1:1 2:-0.44988739 3:0.32646203 
-1 0:-0.5976143 1:1 2:-0.44988739 3:1.2108469 
1 0:0 1:1 2:-0.44988739 3:0.76872211 
-1 0:0 1:1 2:-0.44988739 3:1.1786939 
-1 0:0 1:1 2:-0.44988739 3:1.1786939 
-1 0:-0.5976143 1:1 2:-0.44988739 3:1.2108469 
1 0:0 1:1 2:-0.44988739 3:0.76872211 
-0.3992344557150977 0:0 1:1 2:-0.44988739 3:1.2075551 
-1 0:1.7928429 1:1 2:-0.44988739 3:0.32646203 
-1 0:0 1:1 2:-0.44988739 3:1.1786939 
-1 0:1.7928429 1:1 2:-0.44988739 3:0.32646203 
-1 0:0 1:1 2:-0.44988739 3:1.1786939 
-1 0:-0.5976143 1:1 2:-0.44988739 3:1.2108469 
1 0:0 1:1 2:-0.44988739 3:0.76872211 
-0.9335462820420424 0:0 1:1 2:-0.44988739 3:1.2075551 
-1 0:1.7928429 1:1 2:-0.44988739 3:0.29321299 
-1 0:-0.5976143 1:1 2:-0.44988739 3:1.0625531 
1 0:0 1:1 2:-0.44988739 3:0.67791562 
0.9100171076879235 0:-1.7928429 1:1 2:-0.44988739 3:1.0626183 
-1 0:0 1:1 2:-0.44988739 3:1.061043 
-1 0:0.5976143 8:1 2:-0.44988739 3:-0.2679524 
-1 0:-0.5976143 8:1 2:-0.44988739 3:-0.26324975 
1 0:0 8:1 2:-0.44988739 3:-0.33674862 
-1 0:0 8:1 2:-0.44988739 3:-0.26393596 
-1 0:-0.5976143 8:1 2:-0.44988739 3:-0.35227076 
1 0:0 8:1 2:-0.44988739 3:-0.47005789 
1 0:0 8:1 2:-0.44988739 3:-0.38845266 
-1 0:1.7928429 8:1 2:-0.44988739 3:-0.94938974 
-1 0:1.1952286 8:1 2:-0.44988739 3:-0.29924069 
-0.8915467274094669 0:-1.1952286 8:1 2:-0.44988739 3:-0.2631152 
-1 0:0 8:1 2:-0.44988739 3:-0.26560103 
-1 0:1.1952286 8:1 2:-0.44988739 3:-0.42474877 
-1 0:0.5976143 8:1 2:-0.44988739 3:-0.35737068 
-1 0:0 8:1 2:-0.44988739 3:-0.35482077 
-1 0:0 8:1 2:-0.44988739 3:-0.35294355 
-1 0:1.1952286 8:1 2:-0.44988739 3:-0.88635764 
-1 0:0.5976143 8:1 2:-0.44988739 3:-0.85644824 
1 0:-1.7928429 8:1 2:-0.44988739 3:-0.83386132 
1 0:0 8:1 2:-0.44988739 3:-0.89162553 
1 0:-1.1952286 8:1 2:-0.44988739 3:-0.83457847 
1 0:1.7928429 8:1 2:-0.44988739 3:-1.0155286 
-1 0:0 8:1 2:-0.44988739 3:-0.84271678 
-1 0:0.5976143 8:1 2:-0.44988739 3:-0.89471805 
1 0:0 8:1 2:-0.44988739 3:-0.95210014 
1 0:0 8:1 2:-0.44988739 3:-0.91310359 
-1 0:0 8:1 2:-0.44988739 3:-0.88979213 
-1 0:0 8:1 2:-0.44988739 3:-0.89187748 
1 0:0 5:1 2:-0.44988739 3:0.17292213 
-1 0:1.7928429 5:1 2:-0.44988739 3:-0.23043223 
1 0:0 5:1 2:-0.44988739 3:0.366505 
-1 0:1.7928429 5:1 2:-0.44988739 3:-0.23043223 
1 0:0 5:1 2:-0.44988739 3:0.17292213 
1 0:0 5:1 2:-0.44988739 3:0.366505 
-1 0:1.7928429 5:1 2:-0.44988739 3:-0.23043223 
1 0:0 5:1 2:-0.44988739 3:0.366505 
-1 0:1.7928429 5:1 2:-0.44988739 3:-0.13971776 
-1 0:1.1952286 5:1 2:-0.44988739 3:0.1410696 
1 0:0 5:1 2:-0.44988739 3:0.17292213 
-1 0:0.5976143 5:1 2:-0.44988739 3:0.2943884 
-1 0:-0.5976143 5:1 2:-0.44988739 3:0.33798352 
1 0:0 5:1 2:-0.44988739 3:0.1004455 
-1 0:0 5:1 2:-0.44988739 3:0.32977702 
-0.7794235738863137 0:1.7928429 5:1 2:-0.44988739 3:-0.35700453 
-1 0:0 5:1 2:-0.44988739 3:0.31618605 
-1 0:1.1952286 5:1 2:-0.44988739 3:-0.05578225 
-1 0:0.5976143 5:1 2:-0.44988739 3:0.044222115 
1 0:0 5:1 2:-0.44988739 3:-0.13866066 
-1 0:-0.5976143 5:1 2:-0.44988739 3:0.078733652 
-1 0:0 5:1 2:-0.44988739 3:0.061477883 
-1 0:1.7928429 5:1 2:-0.44988739 3:-0.42048312 
-1 0:1.1952286 5:1 2:-0.44988739 3:-0.16291831 
-1 0:0 5:1 2:-0.44988739 3:0.072532172 
-1 0:0.5976143 5:1 2:-0.44988739 3:-0.10457689 
1 0:0 5:1 2:-0.44988739 3:-0.25821538 
-1 0:-0.5976143 5:1 2:-0.44988739 3:-0.096240211 
-1 0:0 5:1 2:-0.44988739 3:-0.097677979 
-1 0:0 5:1 2:-0.44988739 3:-0.10040855 
1 0:1.7928429 8:1 2:-1.3362327 3:-1.2357904 
0.01362300746618368 0:1.1952286 6:1 2:-1.3362327 3:-1.1409723 
1 0:0 4:1 2:-1.3362327 3:-1.1360732 
1 0:1.7928429 7:1 2:-1.3362327 3:-1.2357904 
1 0:1.7928429 9:1 2:-1.3362327 3:-1.1796983 
1 0:0 5:1 2:-0.44988739 3:0.14300963 
1 0:0 5:1 2:-0.44988739 3:0.14300963 
1 0:0 5:1 2:-0.44988739 3:0.35629256 
-1 0:1.7928429 5:1 2:-0.44988739 3:-0.27171031 
-1 0:-0.5976143 5:1 2:-0.44988739 3:0.25700845 
1 0:0 5:1 2:-0.44988739 3:0.14300963 
1 0:0 5:1 2:-0.44988739 3:0.35629256 
1 0:0 5:1 2:-0.44988739 3:0.35629256 
-1 0:1.1952286 5:1 2:-0.44988739 3:0.032333465 
-1 0:0.5976143 5:1 2:-0.44988739 3:0.22958223 
1 0:0 5:1 2:-0.44988739 3:-0.0067141145 
-1 0:0 5:1 2:-0.44988739 3:0.25291131 
1 0:1.7928429 5:1 2:-0.44988739 3:-0.43923699 
-1 0:-0.5976143 5:1 2:-0.44988739 3:0.07424453 
1 0:0 5:1 2:-0.44988739 3:-0.1821079 
-0.1240224211881227 0:0 5:1 2:-0.44988739 3:0.24329534 
-1 0:1.1952286 5:1 2:-0.44988739 3:-0.069138062 
-1 0:0 5:1 2:-0.44988739 3:0.061565519 
-1 0:1.1952286 4:1 2:-0.44988739 3:-0.12862038 
-1 0:0.5976143 4:1 2:-0.44988739 3:-0.043874795 
1 0:0 4:1 2:-0.44988739 3:-0.17139283 
-1 0:0 4:1 2:-0.44988739 3:-0.024903747 
-1 0:1.7928429 4:1 2:-0.44988739 3:-0.32386978 
-1 0:0.5976143 4:1 2:-0.44988739 3:-0.043874795 
1 0:0 4:1 2:-0.44988739 3:-0.17139283 
-1 0:1.7928429 4:1 2:-0.44988739 3:-0.41038707 
-1 0:1.1952286 4:1 2:-0.44988739 3:-0.29924069 
-1 0:1.7928429 4:1 2:-0.44988739 3:-0.32386978 
-1 0:1.1952286 4:1 2:-0.44988739 3:-0.12862038 
-1 0:0 4:1 2:-0.44988739 3:-0.024903747 
-1 0:0.5976143 4:1 2:-0.44988739 3:-0.2679524 
0.4652814143511919 0:0 4:1 2:-0.44988739 3:-0.33674862 
-1 0:0 4:1 2:-0.44988739 3:-0.26393596 
-1 0:1.7928429 4:1 2:-0.44988739 3:-0.58797429 
-1 0:1.1952286 4:1 2:-0.44988739 3:-0.42474877 
-1 0:0 4:1 2:-0.44988739 3:-0.35482077 
-1 0:0 4:1 2:-0.44988739 3:-0.35294355 
-1 0:0.5976143 4:1 2:-0.44988739 3:-0.85644824 
-1 0:-0.5976143 4:1 2:-0.44988739 3:-0.26324975 
-0.4248421305003962 0:-1.1952286 4:1 2:-0.44988739 3:-0.2631152 
-1 0:0 4:1 2:-0.44988739 3:-0.26560103 
-1 0:0.5976143 4:1 2:-0.44988739 3:-0.35737068 
-1 0:-0.5976143 4:1 2:-0.44988739 3:-0.35227076 
1 0:0 4:1 2:-0.44988739 3:-0.47005789 
-1 0:1.7928429 4:1 2:-0.44988739 3:-0.94938974 
-1 0:1.1952286 4:1 2:-0.44988739 3:-0.88635764 
1 0:-1.1952286 4:1 2:-0.44988739 3:-0.83457847 
1 0:0 4:1 2:-0.44988739 3:-0.86046805 
-1 0:1.1952286 4:1 2:-0.44988739 3:-0.98937009 
-1 0:0.5976143 4:1 2:-0.44988739 3:-0.98267384 
-1 0:-1.1952286 4:1 2:-0.44988739 3:-0.98226524 
-1 0:-1.7928429 4:1 2:-0.44988739 3:-0.98226524 
1 0:-1.7928429 4:1 2:-0.44988739 3:-0.83386132 
1 0:0 4:1 2:-0.44988739 3:-0.89162553 
-1 0:1.7928429 4:1 2:-0.44988739 3:-1.0240956 
-1 0:-0.5976143 4:1 2:-0.44988739 3:-0.98226524 
-1 0:0 4:1 2:-0.44988739 3:-0.98246954 
-1 0:0 4:1 2:-0.44988739 3:-0.98228203 
-1 0:0 4:1 2:-0.44988739 3:-0.98581766 
1 0:-1.1952286 4:1 2:-0.44988739 3:-0.79854062 
-1 0:1.1952286 4:1 2:-0.44988739 3:-0.069138062 
-1 0:0.5976143 4:1 2:-0.44988739 3:0.048886325 
1 0:0 4:1 2:-0.44988739 3:-0.1821079 
-1 0:0.5976143 4:1 2:-0.44988739 3:0.048886325 
1 0:0 4:1 2:-0.44988739 3:-0.1821079 
1 0:1.7928429 4:1 2:-0.44988739 3:-0.69294658 
-1 0:-0.5976143 4:1 2:-0.44988739 3:-0.44986022 
-1 0:-1.1952286 4:1 2:-0.44988739 3:-0.44982572 
-1 0:0 4:1 2:-0.44988739 3:-0.4660116 
-1 0:0 4:1 2:-0.44988739 3:-0.45178464 
1 0:1.7928429 4:1 2:-0.44988739 3:-0.96904927 
1 0:1.1952286 4:1 2:-0.44988739 3:-0.87103067 
1 0:0 4:1 2:-0.44988739 3:-0.88364268 
1 0:0 4:1 2:-0.44988739 3:-0.8347856 
1 0:1.7928429 4:1 2:-0.44988739 3:-0.43923699 
-1 0:1.1952286 4:1 2:-0.44988739 3:-0.069138062 
-1 0:1.1952286 4:1 2:-0.44988739 3:-0.48219749 
-1 0:0.5976143 4:1 2:-0.44988739 3:-0.45370897 
1 0:0 4:1 2:-0.44988739 3:-0.5713861 
-1 0:0 4:1 2:-0.44988739 3:-0.45022875 
1 0:-0.5976143 4:1 2:-0.44988739 3:-0.79952715 
1 0:0 4:1 2:-0.44988739 3:-0.80512039 
1 0:1.1952286 4:1 2:-0.44988739 3:0.10007779 
0.1335543668178695 0:0 4:1 2:-0.44988739 3:0.59725877 
1 0:0 4:1 2:-0.44988739 3:0.14300963 
0.03552215730752008 0:0 4:1 2:-0.44988739 3:0.59725877 
-1 0:1.7928429 4:1 2:-0.44988739 3:-0.27171031 
1 0:0 4:1 2:-0.44988739 3:0.14300963 
1 0:0 4:1 2:-0.44988739 3:0.35629256 
1 0:1.1952286 4:1 2:-0.44988739 3:0.10007779 
1 0:0 4:1 2:-0.44988739 3:0.35629256 
-1 0:0.5976143 4:1 2:-0.44988739 3:0.048886325 
1 0:0 4:1 2:-0.44988739 3:-0.1821079 
-1 0:0.5976143 4:1 2:-0.44988739 3:-0.37217047 
-1 0:-0.5976143 4:1 2:-0.44988739 3:-0.36706635 
1 0:0 4:1 2:-0.44988739 3:-0.0067141145 
1 0:0 4:1 2:-0.44988739 3:0.14512985 
1 0:1.7928429 4:1 2:-0.44988739 3:-0.43923699 
-1 0:1.1952286 4:1 2:-0.44988739 3:-0.069138062 
1 0:1.7928429 4:1 2:-0.44988739 3:-0.6279246 
-1 0:-1.1952286 4:1 2:-0.44988739 3:-0.36697205 
1 0:0 4:1 2:-0.44988739 3:-0.41087016 
-1 0:0 4:1 2:-0.44988739 3:-0.36961846 
-1 0:0.5976143 4:1 2:-0.44988739 3:-0.60755385 
1 0:0 4:1 2:-0.44988739 3:-0.6949045 
1 0:0 4:1 2:-0.44988739 3:-0.64286561 
1 0:0 4:1 2:-0.44988739 3:-0.49744294 
-1 0:0 4:1 2:-0.44988739 3:-0.3677102 
0.6986595363025823 0:1.7928429 4:1 2:-0.44988739 3:-0.79269552 
-1 0:-0.5976143 4:1 2:-0.44988739 3:-0.59760961 
-1 0:0 4:1 2:-0.44988739 3:-0.60258173 
-1 0:0 4:1 2:-0.44988739 3:-0.59934133 
1 0:-1.7928429 7:1 2:-0.44988739 3:-1.244044 
1 0:1.7928429 7:1 2:-0.44988739 3:-0.96904927 
-1 0:0.5976143 7:1 2:-0.44988739 3:-0.81071362 
1 0:0 7:1 2:-0.44988739 3:-0.88364268 
-1 0:1.7928429 7:1 2:-0.44988739 3:-0.99323098 
1 0:0 7:1 2:-0.44988739 3:-0.8347856 
-1 0:1.1952286 7:1 2:-0.44988739 3:-0.9567219 
-1 0:0.5976143 7:1 2:-0.44988739 3:-0.94914235 
-1 0:-1.1952286 7:1 2:-0.44988739 3:-0.94726385 
-1 0:-1.7928429 7:1 2:-0.44988739 3:-0.94726385 
-1 0:0 7:1 2:-0.44988739 3:-0.94821132 
-1 0:0 7:1 2:-0.44988739 3:-0.94740115 
-1 0:-0.5976143 7:1 2:-0.44988739 3:-0.94728029 
-1 0:0 7:1 2:-0.44988739 3:-0.95199288 
1 0:1.7928429 7:1 2:-0.44988739 3:-1.2844634 
1 0:1.1952286 7:1 2:-0.44988739 3:-1.2596126 
1 0:-0.5976143 7:1 2:-0.44988739 3:-1.2449901 
1 0:-1.1952286 7:1 2:-0.44988739 3:-1.2442164 
1 0:0 7:1 2:-0.44988739 3:-1.247055 
1 0:0.5976143 7:1 2:-0.44988739 3:-1.2515556 
1 0:0 7:1 2:-0.44988739 3:-1.2519145 
1 0:0 7:1 2:-0.44988739 3:-1.2482728 
1 0:0 7:1 2:-0.44988739 3:-1.2642537 
1 0:0 7:1 2:-0.44988739 3:-1.2482728 
1 0:1.7928429 7:1 2:-0.44988739 3:-0.96904927 
0.8001817506287457 0:-1.1952286 7:1 2:-0.44988739 3:-0.79854062 
-1 0:1.1952286 7:1 2:-0.44988739 3:-0.9567219 
-1 0:0.5976143 7:1 2:-0.44988739 3:-0.94914235 
-1 0:-1.7928429 7:1 2:-0.44988739 3:-0.94726385 
-1 0:0.5976143 7:1 2:-0.44988739 3:-0.81071362 
1 0:0 7:1 2:-0.44988739 3:-0.88364268 
1 0:0 7:1 2:-0.44988739 3:-0.8347856 
-1 0:1.7928429 7:1 2:-0.44988739 3:-0.99323098 
-1 0:-0.5976143 7:1 2:-0.44988739 3:-0.94728029 
-1 0:-1.1952286 7:1 2:-0.44988739 3:-0.94726385 
-1 0:0 7:1 2:-0.44988739 3:-0.95199288 
-1 0:0 7:1 2:-0.44988739 3:-0.94821132 
1 0:1.7928429 7:1 2:-0.44988739 3:-1.2844634 
1 0:1.1952286 7:1 2:-0.44988739 3:-1.2596126 
-1 0:0 7:1 2:-0.44988739 3:-0.94740115 
1 0:0.5976143 7:1 2:-0.44988739 3:-1.2515556 
1 0:-0.5976143 7:1 2:-0.44988739 3:-1.2449901 
1 0:-1.1952286 7:1 2:-0.44988739 3:-1.2442164 
1 0:-1.7928429 7:1 2:-0.44988739 3:-1.244044 
1 0:0 7:1 2:-0.44988739 3:-1.2642537 
1 0:0 7:1 2:-0.44988739 3:-1.2519145 
1 0:0 7:1 2:-0.44988739 3:-1.247055 
1 0:0 8:1 2:0.43645792 3:-0.80528918 
-1 0:1.7928429 8:1 2:0.43645792 3:-0.31453643 
1 0:-1.1952286 8:1 2:0.43645792 3:0.081665785 
1 0:0 8:1 2:0.43645792 3:-0.11587017 
1 0:0 8:1 2:0.43645792 3:-0.0040426965 
1 0:0.5976143 8:1 2:0.43645792 3:0.027564641 
1 0:-1.7928429 8:1 2:0.43645792 3:0.082796281 
1 0:0 8:1 2:0.43645792 3:0.052519541 
1 0:-0.5976143 8:1 2:0.43645792 3:-0.17891268 
1 0:0 8:1 2:0.43645792 3:-0.3440114 
1 0:0 8:1 2:0.43645792 3:-0.18758839 
1 0:1.7928429 8:1 2:0.43645792 3:-0.81631718 
-1 0:1.7928429 8:1 2:0.43645792 3:-0.51084193 
1 0:-1.1952286 8:1 2:0.43645792 3:-0.17743967 
1 0:0 8:1 2:0.43645792 3:-0.2691803 
1 0:0 8:1 2:0.43645792 3:-0.2059208 
1 0:1.1952286 8:1 2:0.43645792 3:-0.67087871 
-1 0:0.5976143 8:1 2:0.43645792 3:-0.58332742 
1 0:0 8:1 2:0.43645792 3:-0.69388163 
-1 0:0 8:1 2:0.43645792 3:-0.57365823 
1 0:0 8:1 2:0.43645792 3:-0.62122972 
1 0:1.7928429 8:1 2:0.43645792 3:-0.90163002 
1 0:1.1952286 8:1 2:0.43645792 3:-0.78388899 
-1 0:0 8:1 2:0.43645792 3:-0.7112243 
-1 0:0.5976143 8:1 2:0.43645792 3:-0.7194068 
1 0:0 8:1 2:0.43645792 3:-0.74650794 
-1 0:1.7928429 8:1 2:0.43645792 3:-0.21465056 
1 0:0 8:1 2:0.43645792 3:0.045538836 
-1 0:1.7928429 8:1 2:0.43645792 3:-0.34878963 
1 0:0 8:1 2:0.43645792 3:0.18480531 
1 0:0.5976143 8:1 2:0.43645792 3:0.087126929 
1 0:-1.1952286 8:1 2:0.43645792 3:0.18615106 
1 0:-1.7928429 8:1 2:0.43645792 3:0.18703197 
1 0:-0.5976143 8:1 2:0.43645792 3:0.18277636 
1 0:0 8:1 2:0.43645792 3:-0.080878828 
1 0:0 8:1 2:0.43645792 3:0.047228373 
1 0:1.7928429 8:1 2:0.43645792 3:-0.41554158 
1 0:0 8:1 2:0.43645792 3:0.13495156 
1 0:0 8:1 2:0.43645792 3:0.16663996 
-1 0:0.5976143 8:1 2:0.43645792 3:-0.09858957 
-1 0:-0.5976143 8:1 2:0.43645792 3:-0.090830006 
1 0:0 8:1 2:0.43645792 3:-0.25308369 
0.1330553850391331 0:0 8:1 2:0.43645792 3:-0.14216534 
-1 0:0 8:1 2:0.43645792 3:-0.094709879 
-1 0:0 8:1 2:0.43645792 3:-0.091931473 
1 0:1.7928429 8:1 2:0.43645792 3:-0.55220884 
-1 0:1.1952286 8:1 2:0.43645792 3:-0.33575962 
-1 0:0.5976143 8:1 2:0.43645792 3:-0.30971056 
-1 0:-0.5976143 8:1 2:0.43645792 3:-0.30614535 
-1 0:-1.1952286 8:1 2:0.43645792 3:-0.3061123 
-0.7784050473962544 0:-1.7928429 8:1 2:0.43645792 3:-0.3061123 
1 0:0 8:1 2:0.43645792 3:-0.42916057 
-1 0:0 8:1 2:0.43645792 3:-0.32093601 
-1 0:0 8:1 2:0.43645792 3:-0.30792791 
-1 0:0 8:1 2:0.43645792 3:-0.30647928 
1 0:0 8:1 2:0.43645792 3:-0.72850125 
-1 0:0.5976143 8:1 2:0.43645792 3:-0.09858957 
1 0:0 8:1 2:0.43645792 3:-0.25308369 
-1 0:0 8:1 2:0.43645792 3:-0.091931473 
1 0:1.7928429 8:1 2:0.43645792 3:-0.41554158 
-1 0:-0.5976143 8:1 2:0.43645792 3:-0.090830006 
0.2609608384046879 0:0 8:1 2:0.43645792 3:-0.14216534 
-1 0:0 8:1 2:0.43645792 3:-0.094709879 
1 0:1.7928429 8:1 2:0.43645792 3:-0.84010059 
1 0:-1.1952286 8:1 2:0.43645792 3:-0.61781103 
1 0:-1.7928429 8:1 2:0.43645792 3:-0.6169019 
1 0:0 8:1 2:0.43645792 3:-0.66964168 
-1 0:1.7928429 6:1 2:0.43645792 3:-0.15749624 
1 0:-1.7928429 6:1 2:0.43645792 3:0.48505082 
1 0:0 6:1 2:0.43645792 3:0.16377738 
-1 0:1.7928429 6:1 2:0.43645792 3:-0.15749624 
1 0:0 6:1 2:0.43645792 3:0.31574641 
-0.9222853293454464 0:1.7928429 6:1 2:0.43645792 3:-0.21465056 
1 0:0 6:1 2:0.43645792 3:0.31574641 
1 0:0 6:1 2:0.43645792 3:0.42236141 
1 0:-1.7928429 6:1 2:0.43645792 3:0.48505082 
1 0:0 6:1 2:0.43645792 3:0.16377738 
1 0:0 6:1 2:0.43645792 3:0.42236141 
0.05377691977279617 0:-1.7928429 6:1 2:0.43645792 3:0.30572841 
-1 0:-0.5976143 6:1 2:0.43645792 3:-0.090830006 
1 0:0 6:1 2:0.43645792 3:0.045538836 
1 0:0 6:1 2:0.43645792 3:0.18480531 
1 0:1.7928429 6:1 2:0.43645792 3:-0.41554158 
1 0:1.1952286 6:1 2:0.43645792 3:-0.19367796 
-1 0:0 6:1 2:0.43645792 3:-0.094709879 
-1 0:1.1952286 6:1 2:0.43645792 3:-0.33575962 
-1 0:0.5976143 6:1 2:0.43645792 3:-0.30971056 
1 0:0 6:1 2:0.43645792 3:-0.42916057 
1 0:0 6:1 2:0.43645792 3:-0.25308369 
1 0:0 6:1 2:0.43645792 3:-0.14216534 
-1 0:0 6:1 2:0.43645792 3:-0.091931473 
1 0:1.7928429 6:1 2:0.43645792 3:-0.55220884 
-1 0:-0.5976143 6:1 2:0.43645792 3:-0.30614535 
-1 0:0 6:1 2:0.43645792 3:-0.30647928 
-1 0:0 6:1 2:0.43645792 3:-0.30792791 
-1 0:1.7928429 9:1 2:0.43645792 3:0.41057409 
-1 0:-0.5976143 9:1 2:0.43645792 3:1.518077 
0.2931154908066131 0:-1.7928429 9:1 2:0.43645792 3:1.5180806 
1 0:0 9:1 2:0.43645792 3:0.96432735 
-1 0:1.7928429 9:1 2:0.43645792 3:0.41057409 
-1 0:-0.5976143 9:1 2:0.43645792 3:1.518077 
1 0:-1.7928429 9:1 2:0.43645792 3:1.5180806 
1 0:0 9:1 2:0.43645792 3:0.96432735 
0.1829394542948878 0:0 9:1 2:0.43645792 3:1.279291 
0.4102716793207245 0:0 1:1 2:0.43645792 3:2.0996942 
-1 0:-0.5976143 1:1 2:0.43645792 3:1.9816213 
1 0:0 1:1 2:0.43645792 3:1.1982291 
-1 0:-0.5976143 1:1 2:0.43645792 3:1.9816213 
-1 0:0 1:1 2:0.43645792 3:1.9511497 
1 0:0 1:1 2:0.43645792 3:1.1982291 
-1 0:0 1:1 2:0.43645792 3:1.9511497 
-1 0:-0.5976143 1:1 2:0.43645792 3:1.9816213 
1 0:0 1:1 2:0.43645792 3:1.1982291 
1 0:0 1:1 2:0.43645792 3:1.258885 
-1 0:0 1:1 2:0.43645792 3:1.9511497 
1 0:0 1:1 2:0.43645792 3:1.1982291 
-1 0:-0.5976143 1:1 2:0.43645792 3:1.9816213 
-1 0:0 1:1 2:0.43645792 3:1.9511497 
1 0:0 1:1 2:0.43645792 3:1.1312681 
-1 0:-0.5976143 1:1 2:0.43645792 3:1.7054337 
-1 0:-0.5976143 1:1 2:0.43645792 3:1.8346385 
-1 0:0 1:1 2:0.43645792 3:1.8160288 
-1 0:0 1:1 2:0.43645792 3:1.694656 
-1 0:1.7928429 4:1 2:1.3496622 3:0.024405203 
1 0:0 1:1 2:0.43645792 3:1.0741507 
1 0:1.1952286 8:1 2:1.3496622 3:0.1475338 
1 0:1.7928429 7:1 2:1.3496622 3:-0.75995267 
1 0:0 8:1 2:1.3496622 3:-0.43830167 
0.01432835095496407 0:-1.7928429 1:1 2:0.43645792 3:1.7171202 
1 0:0 1:1 2:0.43645792 3:1.0804951 
1 0:0 1:1 2:0.43645792 3:1.7133296 
1 0:0 1:1 2:0.43645792 3:1.7133296 
1 0:0.5976143 1:1 2:0.43645792 3:1.5548498 
1 0:0 1:1 2:0.43645792 3:1.0804951 
1 0:0 1:1 2:0.43645792 3:1.5799837 
1 0:0 1:1 2:0.43645792 3:1.4548612 
-1 0:-0.5976143 1:1 2:0.43645792 3:1.065349 
-0.8856088436332109 0:0 1:1 2:0.43645792 3:0.96086191 
-1 0:-1.1952286 1:1 2:0.43645792 3:0.7455966 
0.4531530277339881 0:0.5976143 1:1 2:0.43645792 3:1.0483901 
1 0:0.5976143 1:1 2:0.43645792 3:0.73770795 
-1 0:-0.5976143 1:1 2:0.43645792 3:0.74547902 
1 0:0 9:1 2:1.3496622 3:2.0984184 
-1 0:0 1:1 2:0.43645792 3:0.70128944 
0.7013494696971759 0:-1.7928429 1:1 2:0.43645792 3:1.7171202 
1 0:0 1:1 2:0.43645792 3:1.0804951 
1 0:0 1:1 2:0.43645792 3:1.7133296 
1 0:-1.7928429 1:1 2:0.43645792 3:1.7171202 
1 0:0 1:1 2:0.43645792 3:1.0804951 
1 0:0 1:1 2:0.43645792 3:1.7133296 
1 0:-1.7928429 1:1 2:0.43645792 3:1.7171202 
1 0:0 1:1 2:0.43645792 3:1.7133296 
1 0:-1.7928429 1:1 2:0.43645792 3:1.7171202 
1 0:0 1:1 2:0.43645792 3:1.0804951 
1 0:0 1:1 2:0.43645792 3:1.0804951 
-0.1214823973428059 0:1.7928429 1:1 2:0.43645792 3:0.44387005 
1 0:0.5976143 1:1 2:0.43645792 3:1.5548498 
1 0:0 1:1 2:0.43645792 3:1.7133296 
1 0:0 1:1 2:0.43645792 3:1.5799837 
1 0:0 1:1 2:0.43645792 3:1.4548612 
1 0:0 5:1 2:0.43645792 3:0.28903972 
1 0:0 5:1 2:0.43645792 3:0.52750632 
1 0:1.7928429 5:1 2:0.43645792 3:-0.31307101 
1 0:1.1952286 5:1 2:0.43645792 3:0.16451589 
1 0:0 5:1 2:0.43645792 3:0.28903972 
1 0:0 5:1 2:0.43645792 3:0.52750632 
1 0:1.7928429 5:1 2:0.43645792 3:-0.31307101 
1 0:1.1952286 5:1 2:0.43645792 3:0.16451589 
1 0:0 5:1 2:0.43645792 3:0.52750632 
-1 0:1.1952286 5:1 2:0.43645792 3:0.1475338 
1 0:1.7928429 5:1 2:0.43645792 3:-0.31307101 
1 0:1.1952286 5:1 2:0.43645792 3:0.16451589 
1 0:0 5:1 2:0.43645792 3:0.28903972 
-1 0:1.7928429 5:1 2:0.43645792 3:-0.15749624 
-1 0:0.5976143 5:1 2:0.43645792 3:0.25909125 
1 0:0 5:1 2:0.43645792 3:7.5179176e-06 
0.9606700353365435 0:-1.7928429 5:1 2:0.43645792 3:0.48505082 
1 0:0 5:1 2:0.43645792 3:0.16377738 
1 0:1.7928429 5:1 2:0.43645792 3:-0.31913866 
-0.9608528696672494 0:0 5:1 2:0.43645792 3:0.28836803 
-1 0:1.7928429 5:1 2:0.43645792 3:-0.14773676 
-1 0:1.1952286 5:1 2:0.43645792 3:0.055228752 
-1 0:0 5:1 2:0.43645792 3:0.30826564 
-1 0:0.5976143 5:1 2:0.43645792 3:0.15205944 
-1 0:-0.5976143 5:1 2:0.43645792 3:0.16879432 
-1 0:0 5:1 2:0.43645792 3:0.16042679 
-1 0:0 5:1 2:0.43645792 3:0.16647564 
1 0:1.7928429 5:1 2:0.43645792 3:-0.31307101 
1 0:0 5:1 2:0.43645792 3:0.52750632 
1 0:1.7928429 5:1 2:0.43645792 3:-0.31307101 
1 0:1.1952286 5:1 2:0.43645792 3:0.16451589 
1 0:1.1952286 5:1 2:0.43645792 3:0.16451589 
1 0:0 5:1 2:0.43645792 3:0.28903972 
1 0:0 5:1 2:0.43645792 3:0.28903972 
1 0:0 5:1 2:0.43645792 3:0.52750632 
1 0:1.7928429 5:1 2:0.43645792 3:-0.31307101 
1 0:1.1952286 5:1 2:0.43645792 3:0.16451589 
1 0:-1.7928429 5:1 2:0.43645792 3:0.48505082 
1 0:0 5:1 2:0.43645792 3:0.16377738 
1 0:0 5:1 2:0.43645792 3:0.28903972 
1 0:0 5:1 2:0.43645792 3:0.52750632 
-1 0:1.7928429 5:1 2:0.43645792 3:-0.15749624 
-1 0:1.1952286 5:1 2:0.43645792 3:0.1475338 
-1 0:0.5976143 5:1 2:0.43645792 3:0.25909125 
1 0:0 5:1 2:0.43645792 3:7.5179176e-06 
1 0:1.7928429 5:1 2:0.43645792 3:-0.31913866 
-1 0:0 5:1 2:0.43645792 3:0.28836803 
-1 0:0 5:1 2:0.43645792 3:0.30826564 
0.4592190351573127 0:-1.7928429 4:1 2:0.43645792 3:0.36552476 
1 0:0 4:1 2:0.43645792 3:0.080975291 
1 0:0 4:1 2:0.43645792 3:0.22150572 
-1 0:1.7928429 4:1 2:0.43645792 3:-0.34878963 
1 0:-1.1952286 4:1 2:0.43645792 3:0.18615106 
1 0:-1.7928429 4:1 2:0.43645792 3:0.18703197 
1 0:0 4:1 2:0.43645792 3:0.047228373 
-1 0:1.1952286 4:1 2:0.43645792 3:-0.096925593 
-1 0:0.5976143 4:1 2:0.43645792 3:-0.01690136 
1 0:0 4:1 2:0.43645792 3:-0.15772445 
1 0:0 4:1 2:0.43645792 3:-0.080878828 
-1 0:1.7928429 4:1 2:0.43645792 3:-0.32882118 
-1 0:-0.5976143 4:1 2:0.43645792 3:0.012735459 
-1 0:0 4:1 2:0.43645792 3:0.00718668 
-1 0:0.5976143 4:1 2:0.43645792 3:-0.10976344 
-1 0:-0.5976143 4:1 2:0.43645792 3:-0.10170391 
1 0:0 4:1 2:0.43645792 3:-0.26473088 
-1 0:1.1952286 4:1 2:0.43645792 3:-0.70987179 
1 0:0 4:1 2:0.43645792 3:-0.70946831 
1 0:1.7928429 4:1 2:0.43645792 3:-0.42796024 
-1 0:0 4:1 2:0.43645792 3:-0.10573368 
-1 0:0 4:1 2:0.43645792 3:-0.1028041 
-1 0:0.5976143 4:1 2:0.43645792 3:-0.66104539 
0.5601689018338618 0:-1.1952286 4:1 2:0.43645792 3:-0.61946697 
1 0:-1.7928429 4:1 2:0.43645792 3:-0.61859965 
1 0:1.1952286 4:1 2:0.43645792 3:-0.83808863 
1 0:0.5976143 4:1 2:0.43645792 3:-0.77651055 
1 0:-1.7928429 4:1 2:0.43645792 3:-0.72769445 
1 0:0 4:1 2:0.43645792 3:-0.83025558 
1 0:1.7928429 4:1 2:0.43645792 3:-0.93281671 
1 0:-0.5976143 4:1 2:0.43645792 3:-0.73499347 
1 0:-1.1952286 4:1 2:0.43645792 3:-0.72966917 
1 0:0 4:1 2:0.43645792 3:-0.78387895 
1 0:0 4:1 2:0.43645792 3:-0.75575201 
1 0:0 4:1 2:0.43645792 3:-0.74867253 
0.6798465408655099 0:0.5976143 4:1 2:0.43645792 3:0.65913719 
1 0:1.7928429 4:1 2:0.43645792 3:-0.31307101 
1 0:1.1952286 4:1 2:0.43645792 3:0.16451589 
1 0:0 4:1 2:0.43645792 3:0.86056434 
1 0:0.5976143 4:1 2:0.43645792 3:0.65913719 
1 0:0 4:1 2:0.43645792 3:0.28903972 
1 0:0 4:1 2:0.43645792 3:0.86056434 
-1 0:1.7928429 4:1 2:0.43645792 3:-0.15749624 
1 0:0 4:1 2:0.43645792 3:0.28903972 
1 0:0 4:1 2:0.43645792 3:0.52750632 
1 0:1.7928429 4:1 2:0.43645792 3:-0.31307101 
1 0:1.1952286 4:1 2:0.43645792 3:0.16451589 
1 0:0 4:1 2:0.43645792 3:0.52750632 
1 0:0 4:1 2:0.43645792 3:0.16377738 
1 0:1.7928429 4:1 2:0.43645792 3:-0.31913866 
1 0:0 4:1 2:0.43645792 3:0.31574641 
-1 0:0.5976143 4:1 2:0.43645792 3:-0.09858957 
-1 0:-0.5976143 4:1 2:0.43645792 3:-0.090830006 
1 0:0 4:1 2:0.43645792 3:7.5179176e-06 
1 0:0 4:1 2:0.43645792 3:0.19535003 
1 0:1.7928429 4:1 2:0.43645792 3:-0.41554158 
-1 0:-1.1952286 4:1 2:0.43645792 3:-0.090652909 
-1 0:0 4:1 2:0.43645792 3:-0.094709879 
-1 0:0 4:1 2:0.43645792 3:-0.091931473 
1 0:0 4:1 2:0.43645792 3:-0.25308369 
1 0:1.7928429 4:1 2:0.43645792 3:-0.67105015 
-1 0:-0.5976143 4:1 2:0.43645792 3:-0.42754507 
1 0:1.1952286 4:1 2:0.43645792 3:-0.54292889 
-1 0:0.5976143 4:1 2:0.43645792 3:-0.44021331 
1 0:0 4:1 2:0.43645792 3:-0.54897199 
1 0:0 4:1 2:0.43645792 3:-0.48495308 
-1 0:0 4:1 2:0.43645792 3:-0.43387919 
-1 0:0 4:1 2:0.43645792 3:-0.42978944 
-1 0:1.7928429 4:1 2:0.43645792 3:-0.21465056 
1 0:0 4:1 2:0.43645792 3:0.045538836 
-1 0:1.7928429 4:1 2:0.43645792 3:-0.21465056 
-1 0:0.5976143 4:1 2:0.43645792 3:-0.09858957 
-1 0:-1.1952286 4:1 2:0.43645792 3:-0.090652909 
1 0:0 4:1 2:0.43645792 3:0.045538836 
1 0:1.7928429 4:1 2:0.43645792 3:-0.41554158 
-1 0:-0.5976143 4:1 2:0.43645792 3:-0.090830006 
1 0:0 4:1 2:0.43645792 3:-0.25308369 
1 0:1.7928429 4:1 2:0.43645792 3:-0.84010059 
-1 0:0 4:1 2:0.43645792 3:-0.094709879 
-1 0:0 4:1 2:0.43645792 3:-0.091931473 
1 0:0 4:1 2:0.43645792 3:-0.72850125 
1 0:0 4:1 2:0.43645792 3:-0.66964168 
1 0:-1.1952286 4:1 2:0.43645792 3:-0.61781103 
1 0:-1.7928429 4:1 2:0.43645792 3:-0.6169019 
1 0:-1.7928429 7:1 2:0.43645792 3:-1.1918688 
-1 0:1.1952286 7:1 2:0.43645792 3:-0.72147225 
1 0:-1.1952286 7:1 2:0.43645792 3:-0.61781103 
1 0:-1.7928429 7:1 2:0.43645792 3:-0.6169019 
-1 0:1.1952286 7:1 2:0.43645792 3:-0.86842872 
-1 0:0.5976143 7:1 2:0.43645792 3:-0.85384729 
-1 0:-1.7928429 7:1 2:0.43645792 3:-0.85245389 
-1 0:0 7:1 2:0.43645792 3:-0.85277194 
1 0:1.7928429 7:1 2:0.43645792 3:-1.2645362 
1 0:-1.1952286 7:1 2:0.43645792 3:-1.1922321 
-1 0:0.5976143 7:1 2:0.43645792 3:-0.65438245 
0.7654710734312035 0:-0.5976143 7:1 2:0.43645792 3:-0.6218219 
1 0:0 7:1 2:0.43645792 3:-0.72850125 
1 0:0 7:1 2:0.43645792 3:-0.66964168 
-1 0:1.7928429 7:1 2:0.43645792 3:-0.94982618 
-1 0:-0.5976143 7:1 2:0.43645792 3:-0.85253422 
-1 0:-1.1952286 7:1 2:0.43645792 3:-0.85246494 
-1 0:0 7:1 2:0.43645792 3:-0.86044678 
-1 0:0 7:1 2:0.43645792 3:-0.85319076 
1 0:1.1952286 7:1 2:0.43645792 3:-1.2290426 
1 0:0 7:1 2:0.43645792 3:-1.2106373 
1 0:0 7:1 2:0.43645792 3:-1.2282025 
1 0:0 7:1 2:0.43645792 3:-1.2106373 
0.9630807159285699 0:1.7928429 7:1 2:0.43645792 3:-0.84010059 
-1 0:0.5976143 7:1 2:0.43645792 3:-0.65438245 
1 0:-0.5976143 7:1 2:0.43645792 3:-0.6218219 
1 0:0 7:1 2:0.43645792 3:-0.72850125 
1 0:0 7:1 2:0.43645792 3:-0.66964168 
-1 0:1.7928429 7:1 2:0.43645792 3:-0.94982618 
-1 0:1.1952286 7:1 2:0.43645792 3:-0.86842872 
1 0:-1.1952286 7:1 2:0.43645792 3:-0.61781103 
1 0:-1.7928429 7:1 2:0.43645792 3:-0.6169019 
-1 0:0.5976143 7:1 2:0.43645792 3:-0.85384729 
-1 0:-0.5976143 7:1 2:0.43645792 3:-0.85253422 
-1 0:0 7:1 2:0.43645792 3:-0.86044678 
-1 0:0 7:1 2:0.43645792 3:-0.85277194 
1 0:1.7928429 7:1 2:0.43645792 3:-1.2645362 
-1 0:-1.1952286 7:1 2:0.43645792 3:-0.85246494 
-1 0:-1.7928429 7:1 2:0.43645792 3:-0.85245389 
-1 0:0 7:1 2:0.43645792 3:-0.85319076 
1 0:1.1952286 7:1 2:0.43645792 3:-1.2290426 
1 0:-1.7928429 7:1 2:0.43645792 3:-1.1918688 
1 0:0 7:1 2:0.43645792 3:-1.2282025 
1 0:-1.1952286 7:1 2:0.43645792 3:-1.1922321 
1 0:0 8:1 2:-1.3362327 3:-1.2147463 
-1 0:0.5976143 8:1 2:-1.3362327 3:-1.2138759 
1 0:1.7928429 8:1 2:-1.3362327 3:-1.2357904 
-0.05113969587012498 0:1.1952286 8:1 2:-1.3362327 3:-1.2161713 
-1 0:-1.7928429 8:1 2:-1.3362327 3:-1.2133213 
1 0:0 8:1 2:-1.3362327 3:-1.2147463 
1 0:0 8:1 2:-1.3362327 3:-1.2245559 
-1 0:0 8:1 2:-1.3362327 3:-1.213401 
1 0:1.7928429 8:1 2:-1.3362327 3:-1.2357904 
-1 0:0.5976143 8:1 2:-1.3362327 3:-1.2138759 
-0.1902756157792638 0:-1.7928429 8:1 2:-1.3362327 3:-1.2133213 
1 0:0 8:1 2:-1.3362327 3:-1.2245559 
-1 0:0 8:1 2:-1.3362327 3:-1.213401 
-1 0:0.5976143 8:1 2:-1.3362327 3:-1.2138759 
1 0:0 8:1 2:-1.3362327 3:-1.2245559 
-1 0:0 8:1 2:-1.3362327 3:-1.213401 
-1 0:0.5976143 8:1 2:-1.3362327 3:-1.2138759 
1 0:0 8:1 2:-1.3362327 3:-1.2245559 
1 0:0 8:1 2:-1.3362327 3:-1.2147463 
1 0:1.7928429 8:1 2:-1.3362327 3:-1.2357904 
1 0:0 8:1 2:-1.3362327 3:-1.2147463 
1 0:1.7928429 8:1 2:-1.3362327 3:-1.2357904 
-1 0:0 8:1 2:-1.3362327 3:-1.213401 
-1 0:0.5976143 8:1 2:-1.3362327 3:-1.2138759 
1 0:0 8:1 2:-1.3362327 3:-1.2245559 
-1 0:0 8:1 2:-1.3362327 3:-1.213401 
1 0:1.7928429 8:1 2:-1.3362327 3:-1.2357904 
1 0:0 8:1 2:-1.3362327 3:-1.2245559 
1 0:0 8:1 2:-1.3362327 3:-1.2147463 
1 0:1.7928429 8:1 2:-1.3362327 3:-1.2357904 
1 0:0 8:1 2:-1.3362327 3:-1.2147463 
-1 0:0.5976143 8:1 2:-1.3362327 3:-1.2138759 
-1 0:0 8:1 2:-1.3362327 3:-1.213401 
-1 0:0.5976143 8:1 2:-1.3362327 3:-1.2138759 
1 0:0 8:1 2:-1.3362327 3:-1.2245559 
1 0:0 8:1 2:-1.3362327 3:-1.2147463 
1 0:1.7928429 8:1 2:-1.3362327 3:-1.2357904 
-0.6534039678882163 0:-0.5976143 8:1 2:-1.3362327 3:-1.2133213 
1 0:0 8:1 2:-1.3362327 3:-1.2147463 
-1 0:0 8:1 2:-1.3362327 3:-1.213401 
-0.5924473041708643 0:1.1952286 8:1 2:-1.3362327 3:-1.2161713 
-1 0:0.5976143 8:1 2:-1.3362327 3:-1.2138759 
1 0:0 8:1 2:-1.3362327 3:-1.2245559 
-1 0:0 8:1 2:-1.3362327 3:-1.213401 
1 0:1.7928429 8:1 2:-1.3362327 3:-1.2357904 
-1 0:-0.5976143 8:1 2:-1.3362327 3:-1.2133213 
1 0:0 8:1 2:-1.3362327 3:-1.2245559 
1 0:0 8:1 2:-1.3362327 3:-1.2147463 
-1 0:1.1952286 8:1 2:-1.3362327 3:-1.2161713 
-1 0:0.5976143 8:1 2:-1.3362327 3:-1.2138759 
-1 0:0 8:1 2:-1.3362327 3:-1.213401 
-1 0:0.5976143 8:1 2:-1.3362327 3:-1.2138759 
-0.9732516835765814 0:-0.5976143 8:1 2:-1.3362327 3:-1.2133213 
1 0:0 8:1 2:-1.3362327 3:-1.2245559 
1 0:1.7928429 8:1 2:-1.3362327 3:-1.2357904 
-0.9972947252277448 0:1.1952286 8:1 2:-1.3362327 3:-1.2161713 
-0.0004673257500631013 0:-1.7928429 8:1 2:-1.3362327 3:-1.2133213 
1 0:0 8:1 2:-1.3362327 3:-1.2147463 
-1 0:0 8:1 2:-1.3362327 3:-1.213401 
-1 0:0 5:1 2:1.3496622 3:0.388123 
-0.7940368548475252 0:1.7928429 5:1 2:1.3496622 3:0.010145834 
-0.2077875079963365 0:-1.1952286 5:1 2:1.3496622 3:1.3595143 
-0.07838201556206706 0:0.5976143 5:1 2:1.3496622 3:1.0968937 
1 0:0 5:1 2:1.3496622 3:0.68515138 
1 0:0 5:1 2:1.3496622 3:0.68515138 
-0.2649731963796514 0:1.7928429 5:1 2:1.3496622 3:0.010145834 
1 0:0 5:1 2:1.3496622 3:0.68515138 
-1 0:0 5:1 2:1.3496622 3:0.96211346 
0.023649521607682 0:0 5:1 2:1.3496622 3:0.37210453 
-1 0:-0.5976143 5:1 2:1.3496622 3:1.0366117 
1 0:0 5:1 2:1.3496622 3:0.50384532 
-1 0:-0.5976143 5:1 2:1.3496622 3:0.78399659 
-0.5260839083755561 0:-1.1952286 5:1 2:1.3496622 3:0.78686792 
-1 0:-0.5976143 5:1 2:1.3496622 3:0.48180703 
-1 0:-1.1952286 5:1 2:1.3496622 3:0.48457485 
-1 0:0 5:1 2:1.3496622 3:0.46138617 
-1 0:1.7928429 5:1 2:1.3496622 3:0.010145834 
-0.5532508914904017 0:-1.1952286 5:1 2:1.3496622 3:1.3595143 
1 0:0 5:1 2:1.3496622 3:0.68515138 
1 0:0 5:1 2:1.3496622 3:0.68515138 
-1 0:1.7928429 5:1 2:1.3496622 3:0.010145834 
-0.2448246261273641 0:0.5976143 5:1 2:1.3496622 3:1.0968937 
1 0:0 5:1 2:1.3496622 3:0.68515138 
-1 0:1.7928429 5:1 2:1.3496622 3:0.010145834 
-0.8771454527999238 0:-1.1952286 5:1 2:1.3496622 3:1.3595143 
-1 0:-0.5976143 5:1 2:1.3496622 3:1.0366117 
1 0:0 5:1 2:1.3496622 3:0.50384532 
-1 0:-0.5976143 5:1 2:1.3496622 3:0.78399659 
-0.3150835734795912 0:-1.1952286 5:1 2:1.3496622 3:0.78686792 
-1 0:0 5:1 2:1.3496622 3:0.96211346 
0.3298819335500972 0:0 5:1 2:1.3496622 3:0.37210453 
-1 0:-0.5976143 6:1 2:-1.3362327 3:-1.131213 
1 0:1.7928429 6:1 2:-1.3362327 3:-1.1796983 
-1 0:0.5976143 6:1 2:-1.3362327 3:-1.1323035 
-1 0:0 6:1 2:-1.3362327 3:-1.13141 
-1 0:0.5976143 6:1 2:-1.3362327 3:-1.1323035 
-1 0:-0.5976143 6:1 2:-1.3362327 3:-1.131213 
1 0:0 6:1 2:-1.3362327 3:-1.1554296 
1 0:0 6:1 2:-1.3362327 3:-1.1360732 
1 0:0 6:1 2:-1.3362327 3:-1.1554296 
1 0:0 6:1 2:-1.3362327 3:-1.1360732 
1 0:1.7928429 6:1 2:-1.3362327 3:-1.1796983 
0.9106591437043988 0:1.1952286 6:1 2:-1.3362327 3:-1.1409723 
-1 0:0 6:1 2:-1.3362327 3:-1.13141 
-1 0:0.5976143 6:1 2:-1.3362327 3:-1.1323035 
1 0:0 6:1 2:-1.3362327 3:-1.1554296 
-1 0:0 6:1 2:-1.3362327 3:-1.13141 
1 0:1.7928429 6:1 2:-1.3362327 3:-1.1796983 
-0.4382914245372559 0:-0.5976143 6:1 2:-1.3362327 3:-1.131213 
1 0:0 6:1 2:-1.3362327 3:-1.1360732 
-1 0:0.5976143 6:1 2:-1.3362327 3:-1.2138759 
-1 0:0 6:1 2:-1.3362327 3:-1.213401 
1 0:1.7928429 6:1 2:-1.3362327 3:-1.2357904 
-1 0:-0.5976143 6:1 2:-1.3362327 3:-1.2133213 
1 0:0 6:1 2:-1.3362327 3:-1.2245559 
1 0:0 6:1 2:-1.3362327 3:-1.2147463 
1 0:1.7928429 6:1 2:-1.3362327 3:-1.2357904 
-1 0:0.5976143 6:1 2:-1.3362327 3:-1.2138759 
-1 0:-0.5976143 6:1 2:-1.3362327 3:-1.2133213 
1 0:0 6:1 2:-1.3362327 3:-1.2245559 
1 0:0 6:1 2:-1.3362327 3:-1.2147463 
-1 0:0 6:1 2:-1.3362327 3:-1.213401 
-0.4894094065630593 0:0.5976143 1:1 2:-1.3362327 3:-0.98339172 
1 0:0 1:1 2:-1.3362327 3:-1.0177377 
1 0:1.7928429 1:1 2:-1.3362327 3:-1.0546273 
-1 0:1.1952286 1:1 2:-1.3362327 3:-0.99590349 
-1 0:1.1952286 1:1 2:-1.3362327 3:-0.99590349 
-1 0:0.5976143 1:1 2:-1.3362327 3:-0.98339172 
1 0:0 1:1 2:-1.3362327 3:-1.0177377 
-1 0:0.5976143 1:1 2:-1.3362327 3:-0.98339172 
1 0:0 1:1 2:-1.3362327 3:-1.0177377 
1 0:1.7928429 1:1 2:-1.3362327 3:-1.0546273 
-1 0:1.1952286 1:1 2:-1.3362327 3:-0.99590349 
1 0:1.7928429 1:1 2:-1.3362327 3:-1.0546273 
-1 0:1.1952286 1:1 2:-1.3362327 3:-0.99590349 
-1 0:0.5976143 1:1 2:-1.3362327 3:-0.98339172 
1 0:0 1:1 2:-1.3362327 3:-1.0177377 
1 0:1.7928429 1:1 2:-1.3362327 3:-1.0546273 
1 0:1.7928429 1:1 2:-1.3362327 3:-1.0546273 
-1 0:1.1952286 1:1 2:-1.3362327 3:-0.99590349 
-1 0:0.5976143 1:1 2:-1.3362327 3:-0.98339172 
1 0:0 1:1 2:-1.3362327 3:-1.0177377 
1 0:1.7928429 1:1 2:-1.3362327 3:-1.0546273 
-1 0:1.1952286 1:1 2:-1.3362327 3:-0.99590349 
-1 0:0.5976143 1:1 2:-1.3362327 3:-0.98339172 
1 0:0 1:1 2:-1.3362327 3:-1.0177377 
1 0:1.7928429 1:1 2:-1.3362327 3:-1.0546273 
-0.5099604588376511 0:0.5976143 1:1 2:-1.3362327 3:-0.98339172 
1 0:0 1:1 2:-1.3362327 3:-1.0177377 
-1 0:1.1952286 1:1 2:-1.3362327 3:-0.99590349 
-1 0:0 9:1 2:-1.3362327 3:-1.1317583 
1 0:1.1952286 9:1 2:-1.3362327 3:-1.1409723 
-1 0:0 9:1 2:-1.3362327 3:-1.1317583 
-1 0:0 9:1 2:-1.3362327 3:-1.13141 
-0.008655784313656148 0:0.5976143 9:1 2:-1.3362327 3:-1.1323035 
-1 0:-0.5976143 9:1 2:-1.3362327 3:-1.131213 
1 0:0 9:1 2:-1.3362327 3:-1.1554296 
1 0:0 9:1 2:-1.3362327 3:-1.1360732 
1 0:1.7928429 9:1 2:-1.3362327 3:-1.1796983 
1 0:1.1952286 9:1 2:-1.3362327 3:-1.1409723 
-0.07308085920605877 0:0.5976143 9:1 2:-1.3362327 3:-1.1323035 
-1 0:-0.5976143 9:1 2:-1.3362327 3:-1.131213 
1 0:0 9:1 2:-1.3362327 3:-1.1554296 
1 0:0 9:1 2:-1.3362327 3:-1.1360732 
-1 0:0 9:1 2:-1.3362327 3:-1.13141 
1 0:0 1:1 2:-1.3362327 3:-1.2245559 
1 0:1.7928429 1:1 2:-1.3362327 3:-1.0546273 
-1 0:1.1952286 1:1 2:-1.3362327 3:-0.99590349 
1 0:0 1:1 2:-1.3362327 3:-1.0177377 
1 0:1.7928429 1:1 2:-1.3362327 3:-1.0546273 
1 0:0 1:1 2:-1.3362327 3:-1.0177377 
1 0:1.7928429 1:1 2:-1.3362327 3:-1.0546273 
-1 0:1.1952286 1:1 2:-1.3362327 3:-0.99590349 
1 0:0 1:1 2:-1.3362327 3:-1.0177377 
-1 0:1.1952286 1:1 2:-1.3362327 3:-0.99590349 
-0.8203270896073472 0:0.5976143 1:1 2:-1.3362327 3:-0.98339172 
-1 0:0.5976143 1:1 2:-1.3362327 3:-0.98339172 
1 0:1.7928429 1:1 2:-1.3362327 3:-1.0546273 
-1 0:1.1952286 1:1 2:-1.3362327 3:-0.99590349 
1 0:0 1:1 2:-1.3362327 3:-1.0177377 
1 0:1.7928429 1:1 2:-1.3362327 3:-1.2357904 
-1 0:-0.5976143 1:1 2:-1.3362327 3:-1.2133213 
-1 0:-1.1952286 1:1 2:-1.3362327 3:-1.2133213 
1 0:0 1:1 2:-1.3362327 3:-1.2147463 
1 0:1.1952286 1:1 2:-1.3362327 3:-1.2161713 
-0.2633670928705344 0:-1.7928429 1:1 2:-1.3362327 3:-1.2133213 
1 0:0 1:1 2:-1.3362327 3:-1.2245559 
-1 0:0 1:1 2:-1.3362327 3:-1.213401 
-1 0:-0.5976143 1:1 2:-1.3362327 3:-1.2133213 
-1 0:0 1:1 2:-1.3362327 3:-1.213401 
1 0:1.7928429 1:1 2:-1.3362327 3:-1.2357904 
1 0:1.1952286 1:1 2:-1.3362327 3:-1.2161713 
-1 0:-1.1952286 1:1 2:-1.3362327 3:-1.2133213 
-0.9962070427025048 0:-1.7928429 1:1 2:-1.3362327 3:-1.2133213 
1 0:0 1:1 2:-1.3362327 3:-1.2147463 
-1 0:0.5976143 1:1 2:-1.3362327 3:-0.98339172 
1 0:0 1:1 2:-1.3362327 3:-1.0177377 
1 0:1.7928429 1:1 2:-1.3362327 3:-1.0546273 
1 0:1.7928429 1:1 2:-1.3362327 3:-1.0546273 
-1 0:1.1952286 1:1 2:-1.3362327 3:-0.99590349 
-1 0:1.1952286 1:1 2:-1.3362327 3:-0.99590349 
-1 0:0.5976143 1:1 2:-1.3362327 3:-0.98339172 
1 0:0 1:1 2:-1.3362327 3:-1.0177377 
-1 0:0.5976143 1:1 2:-1.3362327 3:-0.98339172 
1 0:0 1:1 2:-1.3362327 3:-1.0177377 
1 0:1.7928429 1:1 2:-1.3362327 3:-1.0546273 
1 0:1.7928429 1:1 2:-1.3362327 3:-1.0546273 
-1 0:1.1952286 1:1 2:-1.3362327 3:-0.99590349 
-1 0:1.1952286 1:1 2:-1.3362327 3:-0.99590349 
-1 0:0.5976143 1:1 2:-1.3362327 3:-0.98339172 
1 0:0 1:1 2:-1.3362327 3:-1.0177377 
1 0:1.7928429 1:1 2:-1.3362327 3:-1.0546273 
-1 0:1.1952286 1:1 2:-1.3362327 3:-0.99590349 
-1 0:0.5976143 1:1 2:-1.3362327 3:-0.98339172 
1 0:0 1:1 2:-1.3362327 3:-1.0177377 
1 0:1.7928429 1:1 2:-1.3362327 3:-1.0546273 
-1 0:1.1952286 1:1 2:-1.3362327 3:-0.99590349 
1 0:0 1:1 2:-1.3362327 3:-1.0177377 
-1 0:0.5976143 1:1 2:-1.3362327 3:-0.98339172 
1 0:0 4:1 2:1.3496622 3:-0.70946831 
1 0:0 4:1 2:1.3496622 3:0.16377738 
1 0:0 4:1 2:1.3496622 3:0.16377738 
1 0:0 4:1 2:1.3496622 3:0.16377738 
1 0:1.7928429 4:1 2:1.3496622 3:-0.31913866 
1 0:0 4:1 2:1.3496622 3:7.5179176e-06 
-0.9627979220152905 0:0 4:1 2:1.3496622 3:0.30826564 
1 0:1.7928429 4:1 2:1.3496622 3:-0.42796024 
-1 0:-0.5976143 4:1 2:1.3496622 3:-0.10170391 
-1 0:-1.1952286 4:1 2:1.3496622 3:-0.10152809 
-1 0:0 4:1 2:1.3496622 3:-0.10573368 
-1 0:0.5976143 4:1 2:1.3496622 3:-0.10976344 
1 0:0 4:1 2:1.3496622 3:-0.26473088 
-1 0:0 4:1 2:1.3496622 3:-0.1028041 
1 0:1.7928429 4:1 2:1.3496622 3:-0.80033696 
-0.9954182439231242 0:0.5976143 4:1 2:1.3496622 3:-0.66104539 
-1 0:-0.5976143 4:1 2:1.3496622 3:-0.62291752 
-0.7323208718188446 0:0 4:1 2:1.3496622 3:-0.64198141 
-1 0:0 4:1 2:1.3496622 3:-0.63500718 
1 0:1.7928429 5:1 2:-1.3362327 3:-1.1796983 
1 0:0 5:1 2:-1.3362327 3:-1.1360732 
-1 0:0.5976143 5:1 2:-1.3362327 3:-1.1323035 
1 0:0 5:1 2:-1.3362327 3:-1.1554296 
-1 0:0 5:1 2:-1.3362327 3:-1.13141 
1 0:1.7928429 5:1 2:-1.3362327 3:-1.1796983 
-0.9954304287119493 0:-0.5976143 5:1 2:-1.3362327 3:-1.131213 
-1 0:0.5976143 5:1 2:-1.3362327 3:-1.1323035 
-0.340799078278007 0:-0.5976143 5:1 2:-1.3362327 3:-1.131213 
1 0:0 5:1 2:-1.3362327 3:-1.1554296 
-1 0:0 5:1 2:-1.3362327 3:-1.13141 
1 0:1.7928429 5:1 2:-1.3362327 3:-1.1796983 
1 0:0 5:1 2:-1.3362327 3:-1.1360732 
-0.6856694326967766 0:0 5:1 2:-1.3362327 3:-1.1317583 
-1 0:0.5976143 5:1 2:-1.3362327 3:-1.1323035 
1 0:0 5:1 2:-1.3362327 3:-1.1554296 
-1 0:0 5:1 2:-1.3362327 3:-1.13141 
-1 0:0.5976143 5:1 2:-1.3362327 3:-1.1323035 
1 0:0 5:1 2:-1.3362327 3:-1.1554296 
1 0:0 5:1 2:-1.3362327 3:-1.1360732 
1 0:1.7928429 5:1 2:-1.3362327 3:-1.1796983 
1 0:0 5:1 2:-1.3362327 3:-1.1360732 
1 0:1.7928429 5:1 2:-1.3362327 3:-1.1796983 
-1 0:0 5:1 2:-1.3362327 3:-1.13141 
-1 0:0.5976143 5:1 2:-1.3362327 3:-1.1323035 
1 0:0 5:1 2:-1.3362327 3:-1.1554296 
1 0:0 5:1 2:-1.3362327 3:-1.1360732 
1 0:1.7928429 5:1 2:-1.3362327 3:-1.1796983 
1 0:0 5:1 2:-1.3362327 3:-1.1360732 
-1 0:0 5:1 2:-1.3362327 3:-1.13141 
-1 0:0.5976143 5:1 2:-1.3362327 3:-1.1323035 
1 0:0 5:1 2:-1.3362327 3:-1.1554296 
-1 0:0 5:1 2:-1.3362327 3:-1.13141 
1 0:1.7928429 5:1 2:-1.3362327 3:-1.1796983 
1 0:0 5:1 2:-1.3362327 3:-1.1360732 
-1 0:0.5976143 5:1 2:-1.3362327 3:-1.1323035 
-1 0:0.5976143 5:1 2:-1.3362327 3:-1.1323035 
1 0:0 5:1 2:-1.3362327 3:-1.1554296 
-1 0:0 5:1 2:-1.3362327 3:-1.13141 
1 0:1.7928429 5:1 2:-1.3362327 3:-1.1796983 
-0.05504215098069733 0:-0.5976143 5:1 2:-1.3362327 3:-1.131213 
1 0:0 5:1 2:-1.3362327 3:-1.1554296 
-1 0:0 5:1 2:-1.3362327 3:-1.13141 
1 0:1.7928429 5:1 2:-1.3362327 3:-1.1796983 
-1 0:-0.5976143 5:1 2:-1.3362327 3:-1.131213 
1 0:0 5:1 2:-1.3362327 3:-1.1360732 
1 0:0 5:1 2:-1.3362327 3:-1.1360732 
-1 0:0.5976143 5:1 2:-1.3362327 3:-1.1323035 
1 0:0 5:1 2:-1.3362327 3:-1.1554296 
-1 0:0 5:1 2:-1.3362327 3:-1.13141 
1 0:1.7928429 5:1 2:-1.3362327 3:-1.1796983 
-1 0:-0.5976143 5:1 2:-1.3362327 3:-1.131213 
1 0:0 5:1 2:-1.3362327 3:-1.1554296 
1 0:0 5:1 2:-1.3362327 3:-1.1360732 
-1 0:0.5976143 5:1 2:-1.3362327 3:-1.1323035 
-0.000454192311387213 0:0 5:1 2:-1.3362327 3:-1.1317583 
-1 0:0 5:1 2:-1.3362327 3:-1.13141 
-1 0:0.5976143 5:1 2:-1.3362327 3:-1.1323035 
-1 0:-0.5976143 5:1 2:-1.3362327 3:-1.131213 
1 0:0 5:1 2:-1.3362327 3:-1.1554296 
1 0:0 5:1 2:-1.3362327 3:-1.1360732 
1 0:1.7928429 5:1 2:-1.3362327 3:-1.1796983 
-1 0:0 5:1 2:-1.3362327 3:-1.13141 
-0.5280709525972904 0:-1.7928429 4:1 2:1.3496622 3:-0.53890159 
-1 0:-0.5976143 4:1 2:1.3496622 3:0.79574155 
-1 0:0 4:1 2:1.3496622 3:0.77101396 
-1 0:0 4:1 2:1.3496622 3:0.77101396 
-1 0:-0.5976143 4:1 2:1.3496622 3:0.16879432 
1 0:1.7928429 4:1 2:1.3496622 3:-0.75995267 
1 0:0 4:1 2:1.3496622 3:0.41021058 
-1 0:1.7928429 4:1 2:1.3496622 3:0.024405203 
-1 0:-0.5976143 4:1 2:1.3496622 3:0.79574155 
1 0:0 4:1 2:1.3496622 3:0.41021058 
-1 0:1.7928429 4:1 2:1.3496622 3:-0.14773676 
-1 0:0 4:1 2:1.3496622 3:0.16042679 
-1 0:0 4:1 2:1.3496622 3:0.16647564 
1 0:1.1952286 4:1 2:1.3496622 3:-0.64285475 
-1 0:0 4:1 2:1.3496622 3:-0.55878952 
-1 0:-0.5976143 4:1 2:1.3496622 3:-0.54090159 
-1 0:0 4:1 2:1.3496622 3:-0.54972702 
1 0:0 4:1 2:1.3496622 3:-0.64942713 
-1 0:-1.1952286 4:1 2:1.3496622 3:1.3595143 
-0.8887857654175938 0:-0.5976143 4:1 2:1.3496622 3:1.3569206 
1 0:0 4:1 2:1.3496622 3:0.68515138 
-1 0:1.7928429 4:1 2:1.3496622 3:-0.032522547 
-0.9910344325137811 0:1.7928429 4:1 2:1.3496622 3:0.010145834 
-0.08878870238308466 0:-0.5976143 4:1 2:1.3496622 3:1.3569206 
1 0:0 4:1 2:1.3496622 3:0.68515138 
-0.8808109287103036 0:1.7928429 4:1 2:1.3496622 3:0.010145834 
-1 0:-1.1952286 4:1 2:1.3496622 3:1.3595143 
1 0:0 4:1 2:1.3496622 3:0.50384532 
-1 0:1.7928429 4:1 2:1.3496622 3:-0.043370709 
1 0:0 4:1 2:1.3496622 3:0.37210453 
1 0:0.5976143 4:1 2:1.3496622 3:0.44096548 
-1 0:-0.5976143 4:1 2:1.3496622 3:0.48180703 
1 0:0 4:1 2:1.3496622 3:0.22783281 
-1 0:0 4:1 2:1.3496622 3:0.018240421 
1 0:0 4:1 2:1.3496622 3:-0.13380109 
1 0:0 7:1 2:1.3496622 3:-0.64942713 
1 0:1.7928429 7:1 2:1.3496622 3:-0.75995267 
0.03549425538617634 0:-1.1952286 7:1 2:1.3496622 3:-0.539066 
1 0:0 7:1 2:1.3496622 3:-0.59096037 
-1 0:1.1952286 7:1 2:1.3496622 3:-0.7469725 
-1 0:0.5976143 7:1 2:1.3496622 3:-0.72398291 
-1 0:-0.5976143 7:1 2:1.3496622 3:-0.72097921 
1 0:0 7:1 2:1.3496622 3:-0.77751598 
-1 0:0 7:1 2:1.3496622 3:-0.73392332 
1 0:0 7:1 2:1.3496622 3:-1.1917516 
0.7252344781016948 0:0 7:1 2:1.3496622 3:-1.1732931 
-1 0:-1.1952286 7:1 2:1.3496622 3:-0.72087414 
-1 0:-1.7928429 7:1 2:1.3496622 3:-0.72086218 
-1 0:0 7:1 2:1.3496622 3:-0.72248106 
-1 0:0 7:1 2:1.3496622 3:-0.72139904 
1 0:1.7928429 7:1 2:1.3496622 3:-1.2212364 
0.0201480279896368 0:0 7:1 2:1.3496622 3:-1.1732931 
1 0:0 7:1 2:1.3496622 3:-0.64942713 
-1 0:-0.5976143 7:1 2:1.3496622 3:-0.72097921 
-1 0:-1.1952286 7:1 2:1.3496622 3:-0.72087414 
-1 0:0 7:1 2:1.3496622 3:-0.73392332 
-1 0:0 7:1 2:1.3496622 3:-0.72248106 
0.852825948855949 0:-1.1952286 7:1 2:1.3496622 3:-0.539066 
1 0:0 7:1 2:1.3496622 3:-0.59096037 
-1 0:1.1952286 7:1 2:1.3496622 3:-0.7469725 
-1 0:0.5976143 7:1 2:1.3496622 3:-0.72398291 
-1 0:-1.7928429 7:1 2:1.3496622 3:-0.72086218 
1 0:0 7:1 2:1.3496622 3:-0.77751598 
-1 0:0 7:1 2:1.3496622 3:-0.72139904 
1 0:1.7928429 7:1 2:1.3496622 3:-1.2212364 
1 0:0 7:1 2:1.3496622 3:-1.1917516 
1 0:0 8:1 2:1.3496622 3:-0.64942713 
1 0:0 8:1 2:1.3496622 3:0.010745041 
1 0:1.7928429 8:1 2:1.3496622 3:-0.75995267 
1 0:1.1952286 8:1 2:1.3496622 3:-0.64285475 
1 0:0 8:1 2:1.3496622 3:-0.59096037 
-1 0:0 8:1 2:1.3496622 3:-0.001352656 
1 0:0.5976143 8:1 2:1.3496622 3:0.36466228 
1 0:0 8:1 2:1.3496622 3:0.16377738 
1 0:1.1952286 8:1 2:1.3496622 3:0.1475338 
1 0:0 8:1 2:1.3496622 3:0.31574641 
0.9712270413142551 0:0 8:1 2:1.3496622 3:0.42236141 
-1 0:-0.5976143 8:1 2:1.3496622 3:0.79574155 
-1 0:-1.1952286 8:1 2:1.3496622 3:0.79598711 
-1 0:0.5976143 8:1 2:1.3496622 3:0.0060357355 
-1 0:-0.5976143 8:1 2:1.3496622 3:0.0075755619 
-0.003470782733212313 0:-1.7928429 8:1 2:1.3496622 3:0.79601614 
1 0:0 8:1 2:1.3496622 3:0.41021058 
-1 0:1.7928429 8:1 2:1.3496622 3:-0.15766256 
-1 0:1.1952286 8:1 2:1.3496622 3:-0.010288724 
-1 0:-1.1952286 8:1 2:1.3496622 3:0.00758323 
-1 0:0 8:1 2:1.3496622 3:0.0068056487 
-1 0:0 8:1 2:1.3496622 3:0.007491578 
-1 0:0.5976143 8:1 2:1.3496622 3:0.0060357355 
-1 0:0 8:1 2:1.3496622 3:-0.001352656 
-1 0:1.7928429 8:1 2:1.3496622 3:-0.15766256 
-1 0:1.1952286 8:1 2:1.3496622 3:-0.010288724 
-1 0:-0.5976143 8:1 2:1.3496622 3:0.0075755619 
-1 0:-1.1952286 8:1 2:1.3496622 3:0.00758323 
-1 0:0 8:1 2:1.3496622 3:0.007491578 
-1 0:0 8:1 2:1.3496622 3:0.0068056487 
1 0:0 4:1 2:-1.3362327 3:-1.1360732 
1 0:1.7928429 4:1 2:-1.3362327 3:-1.1796983 
1 0:0 4:1 2:-1.3362327 3:-1.1554296 
1 0:1.7928429 4:1 2:-1.3362327 3:-1.1796983 
-1 0:0 4:1 2:-1.3362327 3:-1.13141 
-1 0:0.5976143 4:1 2:-1.3362327 3:-1.1323035 
1 0:0 4:1 2:-1.3362327 3:-1.1554296 
-1 0:0 4:1 2:-1.3362327 3:-1.13141 
1 0:1.7928429 4:1 2:-1.3362327 3:-1.1796983 
1 0:0 4:1 2:-1.3362327 3:-1.1360732 
1 0:1.7928429 4:1 2:-1.3362327 3:-1.1796983 
-1 0:0 4:1 2:-1.3362327 3:-1.13141 
-1 0:0.5976143 4:1 2:-1.3362327 3:-1.1323035 
-1 0:0 4:1 2:-1.3362327 3:-1.13141 
-1 0:0.5976143 4:1 2:-1.3362327 3:-1.1323035 
1 0:0 4:1 2:-1.3362327 3:-1.1554296 
1 0:0 4:1 2:-1.3362327 3:-1.1360732 
1 0:1.7928429 4:1 2:-1.3362327 3:-1.1796983 
1 0:0 4:1 2:-1.3362327 3:-1.1360732 
-1 0:0.5976143 4:1 2:-1.3362327 3:-1.1323035 
1 0:0 4:1 2:-1.3362327 3:-1.1554296 
-1 0:0 4:1 2:-1.3362327 3:-1.13141 
-1 0:0.5976143 4:1 2:-1.3362327 3:-1.1323035 
1 0:0 4:1 2:-1.3362327 3:-1.1554296 
1 0:0 4:1 2:-1.3362327 3:-1.1360732 
1 0:1.7928429 4:1 2:-1.3362327 3:-1.1796983 
-1 0:0 4:1 2:-1.3362327 3:-1.13141 
-1 0:0.5976143 4:1 2:-1.3362327 3:-1.1323035 
1 0:0 4:1 2:-1.3362327 3:-1.1554296 
1 0:0 8:1 2:1.3496622 3:0.31574641 
0.3482426159670338 0:0 8:1 2:1.3496622 3:0.42236141 
0.1365254561952498 0:1.1952286 8:1 2:1.3496622 3:0.064029898 
1 0:0.5976143 8:1 2:1.3496622 3:0.36466228 
1 0:0 8:1 2:1.3496622 3:0.16377738 
1 0:0 8:1 2:1.3496622 3:0.045538836 
1 0:0 8:1 2:1.3496622 3:0.18480531 
-1 0:1.7928429 8:1 2:1.3496622 3:-0.15766256 
-1 0:1.1952286 8:1 2:1.3496622 3:-0.010288724 
-1 0:-1.1952286 8:1 2:1.3496622 3:0.00758323 
-1 0:0 8:1 2:1.3496622 3:-0.001352656 
-1 0:0 8:1 2:1.3496622 3:0.0068056487 
-1 0:0.5976143 8:1 2:1.3496622 3:0.0060357355 
-1 0:-0.5976143 8:1 2:1.3496622 3:0.0075755619 
-1 0:0 8:1 2:1.3496622 3:0.007491578 
-1 0:-0.5976143 8:1 2:1.3496622 3:-0.37126664 
-0.7318895486822103 0:-1.1952286 8:1 2:1.3496622 3:-0.37094504 
-0.4810395047547393 0:-0.5976143 6:1 2:1.3496622 3:1.0366117 
1 0:0 6:1 2:1.3496622 3:0.50384532 
-1 0:-1.1952286 6:1 2:1.3496622 3:1.0394977 
-1 0:-1.1952286 6:1 2:1.3496622 3:1.0394977 
1 0:0 6:1 2:1.3496622 3:0.50384532 
-1 0:-0.5976143 6:1 2:1.3496622 3:0.79574155 
-0.9909765226579919 0:-1.1952286 6:1 2:1.3496622 3:0.79598711 
1 0:0 6:1 2:1.3496622 3:0.41021058 
1 0:0 6:1 2:1.3496622 3:0.010745041 
1 0:0 6:1 2:1.3496622 3:0.11218644 
-0.2748009348759213 0:1.7928429 6:1 2:1.3496622 3:-0.15766256 
-1 0:-0.5976143 6:1 2:1.3496622 3:0.0075755619 
-1 0:-1.1952286 6:1 2:1.3496622 3:0.00758323 
-0.5315871777942639 0:0 6:1 2:1.3496622 3:-0.001352656 
-1 0:0 6:1 2:1.3496622 3:0.0068056487 
-1 0:1.1952286 6:1 2:1.3496622 3:-0.010288724 
1 0:0 6:1 2:1.3496622 3:-0.075039574 
-1 0:0 6:1 2:1.3496622 3:0.007491578 
1 0:1.7928429 4:1 2:-1.3362327 3:-1.1796983 
-1 0:0.5976143 4:1 2:-1.3362327 3:-1.1323035 
1 0:0 4:1 2:-1.3362327 3:-1.1554296 
-1 0:0 4:1 2:-1.3362327 3:-1.13141 
1 0:1.7928429 4:1 2:-1.3362327 3:-1.1796983 
1 0:0 4:1 2:-1.3362327 3:-1.1554296 
1 0:0 4:1 2:-1.3362327 3:-1.1360732 
1 0:0 4:1 2:-1.3362327 3:-1.1360732 
-1 0:0.5976143 4:1 2:-1.3362327 3:-1.1323035 
-1 0:0 4:1 2:-1.3362327 3:-1.13141 
-1 0:0.5976143 4:1 2:-1.3362327 3:-1.2138759 
-1 0:-0.5976143 4:1 2:-1.3362327 3:-1.2133213 
1 0:0 4:1 2:-1.3362327 3:-1.2245559 
1 0:0 4:1 2:-1.3362327 3:-1.2147463 
-1 0:1.1952286 4:1 2:-1.3362327 3:-1.2161713 
-0.8848729232758912 0:-1.7928429 4:1 2:-1.3362327 3:-1.2133213 
-1 0:0 4:1 2:-1.3362327 3:-1.213401 
-1 0:-0.5976143 4:1 2:-1.3362327 3:-1.2133213 
-1 0:1.1952286 4:1 2:-1.3362327 3:-1.2161713 
-1 0:0.5976143 4:1 2:-1.3362327 3:-1.2138759 
1 0:0 4:1 2:-1.3362327 3:-1.2147463 
-1 0:-1.7928429 4:1 2:-1.3362327 3:-1.2133213 
1 0:0 4:1 2:-1.3362327 3:-1.2245559 
-1 0:0 4:1 2:-1.3362327 3:-1.213401 
1 0:0 4:1 2:-1.3362327 3:-1.1554296 
-1 0:0.5976143 4:1 2:-1.3362327 3:-1.1323035 
1 0:0 4:1 2:-1.3362327 3:-1.1554296 
1 0:1.7928429 4:1 2:-1.3362327 3:-1.1796983 
1 0:0 4:1 2:-1.3362327 3:-1.1360732 
1 0:1.7928429 4:1 2:-1.3362327 3:-1.1796983 
-1 0:0 4:1 2:-1.3362327 3:-1.13141 
-1 0:0 4:1 2:-1.3362327 3:-1.13141 
-1 0:0.5976143 4:1 2:-1.3362327 3:-1.1323035 
1 0:0 4:1 2:-1.3362327 3:-1.1554296 
1 0:0 4:1 2:-1.3362327 3:-1.1360732 
1 0:1.7928429 4:1 2:-1.3362327 3:-1.1796983 
1 0:0 4:1 2:-1.3362327 3:-1.1360732 
-1 0:0.5976143 4:1 2:-1.3362327 3:-1.1323035 
-1 0:0.5976143 4:1 2:-1.3362327 3:-1.1323035 
1 0:0 4:1 2:-1.3362327 3:-1.1554296 
-1 0:0 4:1 2:-1.3362327 3:-1.13141 
1 0:1.7928429 4:1 2:-1.3362327 3:-1.1796983 
1 0:0 4:1 2:-1.3362327 3:-1.1360732 
1 0:0 4:1 2:-1.3362327 3:-1.1554296 
-1 0:0 4:1 2:-1.3362327 3:-1.13141 
1 0:1.7928429 4:1 2:-1.3362327 3:-1.1796983 
-1 0:0.5976143 4:1 2:-1.3362327 3:-1.1323035 
1 0:0 4:1 2:-1.3362327 3:-1.1554296 
1 0:0 4:1 2:-1.3362327 3:-1.1360732 
1 0:1.7928429 4:1 2:-1.3362327 3:-1.1796983 
-1 0:0 4:1 2:-1.3362327 3:-1.13141 
-1 0:0 4:1 2:-1.3362327 3:-1.13141 
-1 0:0.5976143 4:1 2:-1.3362327 3:-1.1323035 
1 0:0 4:1 2:-1.3362327 3:-1.1360732 
-1 0:-0.5976143 7:1 2:-1.3362327 3:-1.2133213 
-0.2918983996522622 0:-1.7928429 7:1 2:-1.3362327 3:-1.2133213 
1 0:0 7:1 2:-1.3362327 3:-1.2245559 
-1 0:0 7:1 2:-1.3362327 3:-1.213401 
1 0:1.7928429 7:1 2:-1.3362327 3:-1.2357904 
-1 0:1.1952286 7:1 2:-1.3362327 3:-1.2161713 
-1 0:0.5976143 7:1 2:-1.3362327 3:-1.2138759 
1 0:0 7:1 2:-1.3362327 3:-1.2147463 
-1 0:1.1952286 7:1 2:-1.3362327 3:-1.2161713 
-1 0:0.5976143 7:1 2:-1.3362327 3:-1.2138759 
-1 0:0 7:1 2:-1.3362327 3:-1.213401 
-1 0:-0.5976143 7:1 2:-1.3362327 3:-1.2133213 
1 0:0 7:1 2:-1.3362327 3:-1.2245559 
1 0:0 7:1 2:-1.3362327 3:-1.2147463 
1 0:1.7928429 7:1 2:-1.3362327 3:-1.2357904 
-0.4224925760648501 0:1.1952286 7:1 2:-1.3362327 3:-1.2161713 
1 0:0 7:1 2:-1.3362327 3:-1.2245559 
1 0:0 7:1 2:-1.3362327 3:-1.2147463 
-1 0:0.5976143 7:1 2:-1.3362327 3:-1.2138759 
-1 0:-0.5976143 7:1 2:-1.3362327 3:-1.2133213 
-0.5562436086811631 0:0 7:1 2:-1.3362327 3:-1.2135986 
-1 0:0 7:1 2:-1.3362327 3:-1.213401 
-1 0:0.5976143 7:1 2:-1.3362327 3:-1.2138759 
-1 0:-0.5976143 7:1 2:-1.3362327 3:-1.2133213 
1 0:0 7:1 2:-1.3362327 3:-1.2245559 
1 0:0 7:1 2:-1.3362327 3:-1.2147463 
1 0:1.7928429 7:1 2:-1.3362327 3:-1.2357904 
1 0:1.7928429 7:1 2:-1.3362327 3:-1.2357904 
-1 0:0 7:1 2:-1.3362327 3:-1.2135986 
-1 0:0 7:1 2:-1.3362327 3:-1.213401 
-1 0:0.5976143 7:1 2:-1.3362327 3:-1.2138759 
-1 0:-0.5976143 7:1 2:-1.3362327 3:-1.2133213 
1 0:0 7:1 2:-1.3362327 3:-1.2147463 
-0.1921611466070566 0:0 7:1 2:-1.3362327 3:-1.2135986 
-1 0:0.5976143 7:1 2:-1.3362327 3:-1.2138759 
1 0:0 7:1 2:-1.3362327 3:-1.2147463 
-0.02595174711625799 0:-1.7928429 7:1 2:-1.3362327 3:-1.2133213 
1 0:0 7:1 2:-1.3362327 3:-1.2245559 
-1 0:0 7:1 2:-1.3362327 3:-1.213401 
1 0:1.7928429 7:1 2:-1.3362327 3:-1.2357904 
-1 0:-0.5976143 7:1 2:-1.3362327 3:-1.2133213 
-1 0:0 7:1 2:-1.3362327 3:-1.213401 
1 0:0 7:1 2:-1.3362327 3:-1.2245559 
-1 0:-0.5976143 9:1 2:1.3496622 3:2.0987372 
-1 0:-1.1952286 9:1 2:1.3496622 3:2.0987408 
-0.4702332694135667 0:1.1952286 9:1 2:1.3496622 3:1.2975071 
-0.7054456005254564 0:-1.7928429 9:1 2:1.3496622 3:2.0987408 
1 0:0 9:1 2:1.3496622 3:1.2680626 
1 0:0 9:1 2:1.3496622 3:2.0984184 
1 0:0 9:1 2:1.3496622 3:1.2680626 
-1 0:-0.5976143 9:1 2:1.3496622 3:2.0987372 
-1 0:-1.1952286 9:1 2:1.3496622 3:2.0987408 
-0.01639511878119587 0:0 9:1 2:1.3496622 3:2.0730969 
-1 0:1.1952286 1:1 2:1.3496622 3:1.3201466 
-1 0:0 1:1 2:1.3496622 3:2.2945898 
-0.9984473625916528 0:1.1952286 1:1 2:1.3496622 3:1.3203398 
-0.546166733811732 0:0.5976143 1:1 2:1.3496622 3:2.2362922 
1 0:0 1:1 2:1.3496622 3:1.3898255 
-1 0:-0.5976143 1:1 2:1.3496622 3:2.3526778 
1 0:0 1:1 2:1.3496622 3:1.3898255 
-0.4422248360984566 0:1.1952286 1:1 2:1.3496622 3:1.3203398 
-1 0:-0.5976143 1:1 2:1.3496622 3:2.3527505 
1 0:0 1:1 2:1.3496622 3:1.389934 
-1 0:-0.5976143 1:1 2:1.3496622 3:2.3526778 
-1 0:0 1:1 2:1.3496622 3:2.294485 
-1 0:0 1:1 2:1.3496622 3:2.294485 
-1 0:-0.5976143 1:1 2:1.3496622 3:2.3526778 
1 0:0 1:1 2:1.3496622 3:1.3898255 
-1 0:-0.5976143 1:1 2:1.3496622 3:2.3526778 
-1 0:0 1:1 2:1.3496622 3:2.294485 
-1 0:1.1952286 1:1 2:1.3496622 3:1.3050836 
-1 0:0.5976143 1:1 2:1.3496622 3:2.1298324 
-1 0:-0.5976143 1:1 2:1.3496622 3:2.1135706 
-1 0:0 1:1 2:1.3496622 3:2.0837735 
-1 0:0 1:1 2:1.3496622 3:2.294485 
-1 0:0.5976143 1:1 2:1.3496622 3:2.2362922 
1 0:0 1:1 2:1.3496622 3:1.3898255 
-1 0:-0.5976143 1:1 2:1.3496622 3:2.2090668 
-1 0:0 1:1 2:1.3496622 3:2.1694494 
