svm_type epsilon_svr
kernel_type rbf
gamma 0.1
nr_class 2
total_sv 799
rho -1.72212
SV
1 0:0 1:1 2:1.3496622 3:1.3793462 
1 0:0 1:1 2:1.3496622 3:1.3793462 
-1 0:0.5976143 1:1 2:1.3496622 3:1.7921288 
-1 0:0.5976143 1:1 2:1.3496622 3:1.91113 
0.2838702433674414 0:0 1:1 2:1.3496622 3:1.3043157 
-1 0:-1.1952286 1:1 2:1.3496622 3:1.830237 
-1 0:0 1:1 2:1.3496622 3:1.8110905 
-1 0:0 1:1 2:1.3496622 3:1.2604811 
-1 0:0 1:1 2:1.3496622 3:1.3880435 
-1 0:0 1:1 2:1.3496622 3:1.3932786 
-1 0:0.5976143 1:1 2:1.3496622 3:1.028564 
-1 0:-0.5976143 1:1 2:1.3496622 3:1.0342632 
-1 0:0 1:1 2:1.3496622 3:0.97664225 
-1 0:0 1:1 2:1.3496622 3:1.0314136 
-1 0:0.5976143 1:1 2:1.3496622 3:1.381795 
-1 0:-0.5976143 1:1 2:1.3496622 3:1.3942924 
-1 0:1.1952286 1:1 2:1.3496622 3:0.91892624 
-1 0:-1.1952286 1:1 2:1.3496622 3:1.0343583 
-1 0:0 1:1 2:1.3496622 3:1.0336318 
1 0:0 1:1 2:1.3496622 3:1.3793462 
1 0:0 1:1 2:1.3496622 3:1.3793462 
1 0:0 1:1 2:1.3496622 3:1.3793462 
-0.183541117741917 0:0.5976143 1:1 2:1.3496622 3:2.032118 
-0.05073075669980257 0:0.5976143 1:1 2:1.3496622 3:2.032118 
1 0:0 1:1 2:1.3496622 3:1.3793462 
-1 0:0.5976143 1:1 2:1.3496622 3:1.7921288 
-1 0:0 1:1 2:1.3496622 3:1.8110905 
-1 0:0.5976143 1:1 2:1.3496622 3:1.91113 
0.9369979051677485 0:0 1:1 2:1.3496622 3:1.3043157 
-1 0:-1.1952286 1:1 2:1.3496622 3:1.830237 
-1 0:1.7928429 4:1 2:-0.44988739 3:-0.96969155 
-1 0:1.7928429 4:1 2:-0.44988739 3:-0.96969155 
-0.2875124400457785 0:0 7:1 2:-0.44988739 3:-0.041358381 
-1 0:1.7928429 4:1 2:0.43645792 3:-0.8373184 
0.829273448098611 0:1.7928429 7:1 2:0.43645792 3:-0.16993281 
-1 0:1.7928429 4:1 2:0.43645792 3:-0.8373184 
1 0:1.7928429 7:1 2:0.43645792 3:-0.19413505 
-1 0:1.7928429 6:1 2:-0.44988739 3:-0.75875602 
-1 0:1.1952286 6:1 2:-0.44988739 3:-0.52323361 
-1 0:-1.1952286 6:1 2:-0.44988739 3:-0.45546583 
-1 0:0 6:1 2:-0.44988739 3:-0.48934972 
-1 0:-1.7928429 6:1 2:-0.44988739 3:-0.45546412 
-1 0:0 6:1 2:-0.44988739 3:-0.60711002 
1 0:0 6:1 2:-0.44988739 3:-0.4560313 
-1 0:0.5976143 6:1 2:-0.44988739 3:-0.81269708 
-1 0:0 6:1 2:-0.44988739 3:-0.83654014 
-1 0:1.7928429 6:1 2:-0.44988739 3:-0.96969155 
-1 0:1.1952286 6:1 2:-0.44988739 3:-0.87238943 
-1 0:0 6:1 2:-0.44988739 3:-0.88502837 
-1 0:1.7928429 6:1 2:-0.44988739 3:-0.75875602 
-1 0:1.1952286 6:1 2:-0.44988739 3:-0.52323361 
-1 0:-1.1952286 6:1 2:-0.44988739 3:-0.45546583 
-1 0:-1.7928429 6:1 2:-0.44988739 3:-0.45546412 
-1 0:0 6:1 2:-0.44988739 3:-0.60711002 
1 0:0 6:1 2:-0.44988739 3:-0.4560313 
-1 0:0.5976143 6:1 2:-0.44988739 3:-0.66619425 
-1 0:0 6:1 2:-0.44988739 3:-0.6973182 
-1 0:0 6:1 2:-0.44988739 3:-0.66084931 
-1 0:0 6:1 2:-0.44988739 3:-0.48934972 
-1 0:1.7928429 6:1 2:-0.44988739 3:-0.86022597 
-1 0:1.1952286 6:1 2:-0.44988739 3:-0.74010385 
-1 0:0 6:1 2:-0.44988739 3:-0.75723347 
-1 0:-0.5976143 5:1 2:-0.44988739 3:0.24416895 
-0.8375993066104057 0:-1.1952286 5:1 2:-0.44988739 3:0.24502827 
-0.9087814773352715 0:0 5:1 2:-0.44988739 3:0.23181627 
-0.9988973203521839 0:-1.1952286 5:1 2:-0.44988739 3:0.24502827 
-0.3601767012478127 0:0 5:1 2:-0.44988739 3:0.23181627 
-1 0:-0.5976143 5:1 2:-0.44988739 3:0.24416895 
-1 0:1.7928429 5:1 2:-0.44988739 3:-0.58725227 
-1 0:1.1952286 5:1 2:-0.44988739 3:-0.077833053 
-1 0:1.7928429 5:1 2:-0.44988739 3:-0.75875602 
-1 0:1.1952286 5:1 2:-0.44988739 3:-0.52323361 
-1 0:0 5:1 2:-0.44988739 3:-0.26160436 
-1 0:-0.5976143 5:1 2:-0.44988739 3:-0.45551345 
-1 0:0 5:1 2:-0.44988739 3:-0.60711002 
-1 0:0 5:1 2:-0.44988739 3:-0.48934972 
-1 0:-1.1952286 5:1 2:-0.44988739 3:-0.45546583 
-1 0:-1.7928429 5:1 2:-0.44988739 3:-0.45546412 
-1 0:0 5:1 2:-0.44988739 3:-0.45799572 
-1 0:1.1952286 5:1 2:-0.44988739 3:-0.74010385 
-1 0:0.5976143 5:1 2:-0.44988739 3:-0.66619425 
0.157744719727314 0:0 5:1 2:-0.44988739 3:-0.4560313 
-0.4847674557845665 0:1.7928429 5:1 2:-0.44988739 3:-0.86022597 
-1 0:0 5:1 2:-0.44988739 3:-0.75723347 
-1 0:0 5:1 2:-0.44988739 3:-0.6973182 
-0.6168917643749191 0:0.5976143 8:1 2:-0.44988739 3:0.87415874 
-1 0:-1.1952286 8:1 2:-0.44988739 3:0.92934252 
-1 0:1.7928429 8:1 2:-0.44988739 3:0.13643194 
-1 0:1.1952286 8:1 2:-0.44988739 3:0.53609969 
-0.3807481566754214 0:-1.1952286 8:1 2:-0.44988739 3:0.82501568 
-1 0:0.5976143 8:1 2:-0.44988739 3:0.76866085 
-1 0:0 8:1 2:-0.44988739 3:0.79638131 
-0.297271183030175 0:0.5976143 1:1 2:-0.44988739 3:1.3424803 
1 0:0 1:1 2:-0.44988739 3:0.96455902 
-1 0:-1.1952286 1:1 2:-0.44988739 3:1.3708423 
-0.3208440111713635 0:-1.1952286 1:1 2:-0.44988739 3:1.3708423 
-1 0:0 1:1 2:-0.44988739 3:1.3565045 
1 0:0 1:1 2:-0.44988739 3:0.96455902 
1 0:0 1:1 2:-0.44988739 3:0.96455902 
-1 0:0 1:1 2:-0.44988739 3:1.3565045 
-1 0:0 1:1 2:-0.44988739 3:1.3565045 
-0.9035431995629866 0:0.5976143 1:1 2:-0.44988739 3:1.3424803 
-1 0:0 1:1 2:-0.44988739 3:1.3565045 
-1 0:0.5976143 1:1 2:-0.44988739 3:1.3424803 
1 0:0 1:1 2:-0.44988739 3:0.96455902 
-1 0:0.5976143 1:1 2:-0.44988739 3:1.3424803 
1 0:0 1:1 2:-0.44988739 3:0.96455902 
-0.06105023599554346 0:-0.5976143 1:1 2:-0.44988739 3:1.370529 
-0.1881313199759493 0:-1.1952286 1:1 2:-0.44988739 3:1.3708423 
-1 0:-1.1952286 1:1 2:-0.44988739 3:1.3708423 
-1 0:0 1:1 2:-0.44988739 3:1.3565045 
-1 0:0.5976143 1:1 2:-0.44988739 3:1.3424803 
1 0:0 1:1 2:-0.44988739 3:0.96455902 
-1 0:0 1:1 2:-0.44988739 3:1.3565045 
1 0:0 1:1 2:-0.44988739 3:0.85126383 
1 0:0 1:1 2:-0.44988739 3:0.80024165 
1 0:0 1:1 2:-0.44988739 3:0.80024165 
1 0:0 1:1 2:-0.44988739 3:0.80024165 
-1 0:1.7928429 1:1 2:-0.44988739 3:-0.1037382 
-1 0:0.5976143 1:1 2:-0.44988739 3:0.4100705 
-1 0:-0.5976143 1:1 2:-0.44988739 3:0.42266769 
-1 0:0 1:1 2:-0.44988739 3:-0.051812607 
-1 0:0 1:1 2:-0.44988739 3:0.19567322 
-1 0:-0.5976143 1:1 2:-0.44988739 3:0.70048086 
-1 0:0 1:1 2:-0.44988739 3:0.69151846 
-1 0:1.7928429 1:1 2:-0.44988739 3:-0.52630483 
-1 0:1.1952286 1:1 2:-0.44988739 3:-0.031333182 
-1 0:-1.1952286 1:1 2:-0.44988739 3:0.42267944 
-1 0:0 1:1 2:-0.44988739 3:0.42194662 
-1 0:0 1:1 2:-0.44988739 3:0.4163691 
1 0:0 1:1 2:-0.44988739 3:0.80024165 
1 0:0 1:1 2:-0.44988739 3:0.80024165 
1 0:0 1:1 2:-0.44988739 3:0.80024165 
1 0:0 1:1 2:-0.44988739 3:0.80024165 
1 0:0 1:1 2:-0.44988739 3:0.80024165 
1 0:0 6:1 2:-0.44988739 3:-0.89134088 
-1 0:-1.7928429 6:1 2:-0.44988739 3:-0.27064536 
-1 0:1.7928429 6:1 2:-0.44988739 3:-0.57921507 
-1 0:0.5976143 6:1 2:-0.44988739 3:-0.3634905 
-1 0:-0.5976143 6:1 2:-0.44988739 3:-0.3589016 
-1 0:-1.1952286 6:1 2:-0.44988739 3:-0.27064645 
-1 0:0 6:1 2:-0.44988739 3:-0.28603827 
-1 0:1.1952286 6:1 2:-0.44988739 3:-0.42607833 
-1 0:-1.1952286 6:1 2:-0.44988739 3:-0.35879434 
-1 0:-1.7928429 6:1 2:-0.44988739 3:-0.35877554 
-1 0:0 6:1 2:-0.44988739 3:-0.36119609 
-1 0:0 6:1 2:-0.44988739 3:-0.35950628 
-1 0:0 6:1 2:-0.44988739 3:-0.46899535 
-1 0:0 6:1 2:-0.44988739 3:-0.39243633 
-1 0:-1.1952286 6:1 2:-0.44988739 3:-0.83629183 
-1 0:0 6:1 2:-0.44988739 3:-0.8621536 
-0.4481361122421626 0:0 6:1 2:-0.44988739 3:-0.89481619 
-1 0:0 9:1 2:-0.44988739 3:-0.10945922 
-0.2421911602878022 0:1.7928429 9:1 2:-0.44988739 3:-0.27435046 
-0.2484947910994524 0:1.7928429 9:1 2:-0.44988739 3:-0.27435046 
-0.9711153248332584 0:1.7928429 9:1 2:-0.44988739 3:-0.27435046 
-1 0:-1.1952286 9:1 2:-0.44988739 3:0.32614429 
-1 0:-0.5976143 9:1 2:-0.44988739 3:0.32431488 
-1 0:1.7928429 9:1 2:-0.44988739 3:-0.5219824 
-1 0:-0.5976143 9:1 2:-0.44988739 3:0.06769787 
-1 0:-1.1952286 9:1 2:-0.44988739 3:0.068523574 
-1 0:0 9:1 2:-0.44988739 3:0.051313897 
-1 0:1.7928429 9:1 2:-0.44988739 3:-0.50013069 
-1 0:-0.5976143 9:1 2:-0.44988739 3:-0.10550455 
-1 0:0 9:1 2:-0.44988739 3:-0.30265809 
-1 0:0 9:1 2:-0.44988739 3:-0.13371693 
-1 0:-1.1952286 9:1 2:-0.44988739 3:-0.10525732 
-1 0:-1.7928429 9:1 2:-0.44988739 3:-0.10518558 
0.2183160641152238 0:1.7928429 7:1 2:-1.3362327 3:-1.1713909 
-1 0:1.7928429 9:1 2:-0.44988739 3:-0.35600738 
-1 0:1.7928429 9:1 2:-0.44988739 3:-0.35600738 
-1 0:-0.5976143 9:1 2:-0.44988739 3:0.24416895 
-0.2142994572338707 0:-1.1952286 9:1 2:-0.44988739 3:0.24502827 
-1 0:1.7928429 9:1 2:-0.44988739 3:-0.35600738 
-1 0:0 9:1 2:-0.44988739 3:0.23181627 
-0.993154571118061 0:0 9:1 2:-0.44988739 3:0.2402862 
-1 0:-0.5976143 9:1 2:-0.44988739 3:0.063257968 
-1 0:1.7928429 9:1 2:-0.44988739 3:-0.58725227 
-0.5014758417352383 0:0 9:1 2:-0.44988739 3:0.051480519 
-1 0:0 9:1 2:-0.44988739 3:-0.26160436 
1 0:0 7:1 2:-0.44988739 3:-0.98538138 
-0.4083427224079368 0:0 7:1 2:-0.44988739 3:-0.041358381 
-1 0:-1.1952286 7:1 2:-0.44988739 3:-0.27064645 
-1 0:-1.7928429 7:1 2:-0.44988739 3:-0.27064536 
-1 0:1.1952286 7:1 2:-0.44988739 3:-0.42607833 
-1 0:0.5976143 7:1 2:-0.44988739 3:-0.3634905 
-1 0:0 7:1 2:-0.44988739 3:-0.28603827 
-1 0:-0.5976143 7:1 2:-0.44988739 3:-0.3589016 
-1 0:-1.1952286 7:1 2:-0.44988739 3:-0.35879434 
-1 0:0 7:1 2:-0.44988739 3:-0.39243633 
-1 0:0 7:1 2:-0.44988739 3:-0.36119609 
-1 0:-1.1952286 7:1 2:-0.44988739 3:-0.83629183 
-1 0:-1.7928429 7:1 2:-0.44988739 3:-0.35877554 
-1 0:0 7:1 2:-0.44988739 3:-0.46899535 
-1 0:0 7:1 2:-0.44988739 3:-0.8621536 
1 0:1.7928429 7:1 2:-0.44988739 3:-1.04279 
1 0:-0.5976143 7:1 2:-0.44988739 3:-0.98249448 
1 0:0 7:1 2:-0.44988739 3:-0.98250506 
1 0:0 7:1 2:-0.44988739 3:-0.84425367 
1 0:1.1952286 7:1 2:-0.44988739 3:-0.98826836 
1 0:0.5976143 7:1 2:-0.44988739 3:-0.98283478 
1 0:0 7:1 2:-0.44988739 3:-0.98266463 
-1 0:1.7928429 7:1 2:-0.44988739 3:-0.58725227 
-1 0:0 7:1 2:-0.44988739 3:-0.60711002 
1 0:0 7:1 2:-0.44988739 3:-0.4560313 
-1 0:1.7928429 7:1 2:-0.44988739 3:-0.58725227 
-1 0:1.7928429 7:1 2:-0.44988739 3:-0.75875602 
-1 0:1.1952286 7:1 2:-0.44988739 3:-0.52323361 
-1 0:-1.1952286 7:1 2:-0.44988739 3:-0.45546583 
-0.6073110402368825 0:-1.7928429 7:1 2:-0.44988739 3:-0.45546412 
-1 0:0 7:1 2:-0.44988739 3:-0.48934972 
-1 0:0 7:1 2:-0.44988739 3:-0.66058203 
-1 0:1.7928429 7:1 2:-0.44988739 3:-0.35600738 
-1 0:1.7928429 7:1 2:-0.44988739 3:-0.35600738 
1 0:0 7:1 2:-0.44988739 3:0.12018712 
-0.1068963740993091 0:-0.5976143 7:1 2:-0.44988739 3:0.24416895 
1 0:0 7:1 2:-0.44988739 3:0.12018712 
-0.7543881366555585 0:1.7928429 7:1 2:-0.44988739 3:-0.62174807 
-1 0:1.7928429 7:1 2:-0.44988739 3:-0.58725227 
-1 0:1.1952286 7:1 2:-0.44988739 3:-0.45711155 
-1 0:0.5976143 7:1 2:-0.44988739 3:-0.37846487 
-1 0:-1.1952286 7:1 2:-0.44988739 3:-0.3734566 
-1 0:-1.7928429 7:1 2:-0.44988739 3:-0.37344459 
-1 0:0 7:1 2:-0.44988739 3:-0.37600013 
-1 0:-0.5976143 7:1 2:-0.44988739 3:-0.37353531 
-1 0:0 7:1 2:-0.44988739 3:-0.49759628 
-1 0:0 7:1 2:-0.44988739 3:-0.41528408 
-1 0:1.1952286 7:1 2:-0.44988739 3:-0.71982249 
-1 0:-1.1952286 7:1 2:-0.44988739 3:-0.60134157 
-1 0:-1.7928429 7:1 2:-0.44988739 3:-0.6012588 
-1 0:0 7:1 2:-0.44988739 3:-0.69878853 
-1 0:0 7:1 2:-0.44988739 3:-0.60754122 
-1 0:1.1952286 4:1 2:-0.44988739 3:-0.87238943 
-0.7973516083185611 0:-1.1952286 4:1 2:-0.44988739 3:-0.80069084 
-0.957241597913976 0:-1.7928429 4:1 2:-0.44988739 3:-0.80036528 
-1 0:0 4:1 2:-0.44988739 3:-0.80723043 
-1 0:0.5976143 4:1 2:-0.44988739 3:-0.81269708 
-1 0:0 4:1 2:-0.44988739 3:-0.88502837 
-1 0:0 4:1 2:-0.44988739 3:-0.83654014 
-1 0:0 4:1 2:-0.44988739 3:-0.80467913 
-0.2179137484549254 0:1.7928429 4:1 2:-0.44988739 3:-1.0408954 
-1 0:-1.1952286 4:1 2:-0.44988739 3:-0.94784869 
-1 0:0 4:1 2:-0.44988739 3:-0.95202709 
1 0:1.7928429 4:1 2:-0.44988739 3:-1.2763143 
1 0:1.1952286 4:1 2:-0.44988739 3:-1.2587429 
-1 0:-1.7928429 4:1 2:-0.44988739 3:-0.94784869 
-1 0:0 4:1 2:-0.44988739 3:-0.99437205 
1 0:0.5976143 4:1 2:-0.44988739 3:-1.2500236 
1 0:-0.5976143 4:1 2:-0.44988739 3:-1.2428297 
1 0:0 4:1 2:-0.44988739 3:-1.258989 
1 0:0 4:1 2:-0.44988739 3:-1.2503381 
1 0:-1.1952286 4:1 2:-0.44988739 3:-1.2419333 
1 0:-1.7928429 4:1 2:-0.44988739 3:-1.2416637 
1 0:0 4:1 2:-0.44988739 3:-1.2450814 
1 0:0 4:1 2:-0.44988739 3:-1.2464267 
1 0:0 4:1 2:-0.44988739 3:-1.2503381 
-1 0:1.1952286 4:1 2:-0.44988739 3:-0.87238943 
-0.4897772603536867 0:-1.1952286 4:1 2:-0.44988739 3:-0.80069084 
-0.6485434069290115 0:-1.7928429 4:1 2:-0.44988739 3:-0.80036528 
-1 0:0 4:1 2:-0.44988739 3:-0.83654014 
-1 0:0 4:1 2:-0.44988739 3:-0.80723043 
-1 0:0.5976143 4:1 2:-0.44988739 3:-0.81269708 
-1 0:0 4:1 2:-0.44988739 3:-0.88502837 
-1 0:0 4:1 2:-0.44988739 3:-0.80467913 
-0.03650481980088953 0:1.7928429 4:1 2:-0.44988739 3:-1.0408954 
-1 0:-1.1952286 4:1 2:-0.44988739 3:-0.94784869 
-1 0:0 4:1 2:-0.44988739 3:-0.99437205 
-1 0:0 4:1 2:-0.44988739 3:-0.95202709 
-1 0:-1.7928429 4:1 2:-0.44988739 3:-0.94784869 
1 0:0.5976143 4:1 2:-0.44988739 3:-1.2500236 
1 0:-0.5976143 4:1 2:-0.44988739 3:-1.2428297 
1 0:0 4:1 2:-0.44988739 3:-1.258989 
1 0:1.7928429 4:1 2:-0.44988739 3:-1.2763143 
1 0:1.1952286 4:1 2:-0.44988739 3:-1.2587429 
1 0:-1.1952286 4:1 2:-0.44988739 3:-1.2419333 
1 0:-1.7928429 4:1 2:-0.44988739 3:-1.2416637 
1 0:0 4:1 2:-0.44988739 3:-1.2450814 
1 0:0 4:1 2:-0.44988739 3:-1.2464267 
1 0:-1.7928429 6:1 2:0.43645792 3:0.071664468 
1 0:0 6:1 2:0.43645792 3:-0.11030426 
1 0:1.7928429 6:1 2:0.43645792 3:-0.29227308 
1 0:-1.1952286 6:1 2:0.43645792 3:-0.1859221 
1 0:-1.7928429 6:1 2:0.43645792 3:-0.18561072 
1 0:-0.5976143 6:1 2:0.43645792 3:-0.57660838 
1 0:0 6:1 2:0.43645792 3:-0.34638564 
1 0:-1.1952286 6:1 2:0.43645792 3:-0.57605665 
1 0:-1.7928429 6:1 2:0.43645792 3:-0.57586689 
1 0:-1.1952286 6:1 2:0.43645792 3:-0.71220392 
1 0:-1.7928429 6:1 2:0.43645792 3:-0.71197459 
1 0:0 6:1 2:0.43645792 3:-0.57885906 
1 0:-0.5976143 6:1 2:0.43645792 3:-0.71287656 
1 0:0 6:1 2:0.43645792 3:-0.71872453 
1 0:0 6:1 2:0.43645792 3:-0.71496874 
1 0:1.7928429 6:1 2:0.43645792 3:-0.19413505 
1 0:-0.5976143 6:1 2:0.43645792 3:0.29139874 
1 0:-1.1952286 6:1 2:0.43645792 3:0.29222896 
1 0:0 6:1 2:0.43645792 3:0.18291374 
1 0:-1.7928429 6:1 2:0.43645792 3:0.29240227 
1 0:0 6:1 2:0.43645792 3:0.049133704 
1 0:-0.5976143 6:1 2:0.43645792 3:0.17102497 
1 0:0 6:1 2:0.43645792 3:-0.07279208 
1 0:0 6:1 2:0.43645792 3:0.04669924 
1 0:-1.1952286 6:1 2:0.43645792 3:0.17399057 
1 0:-1.7928429 6:1 2:0.43645792 3:0.17485892 
1 0:0 6:1 2:0.43645792 3:0.15714594 
1 0:1.7928429 6:1 2:0.43645792 3:-0.40352624 
-0.8579229269434198 0:-1.1952286 6:1 2:0.43645792 3:-0.099959187 
1 0:0.5976143 6:1 2:0.43645792 3:-0.31788871 
0.7643474622397298 0:0 6:1 2:0.43645792 3:-0.31557343 
1 0:0 6:1 2:0.43645792 3:-0.31374555 
1 0:1.7928429 6:1 2:0.43645792 3:-0.40352624 
-0.9988614376788842 0:-1.1952286 6:1 2:0.43645792 3:-0.099959187 
0.3411375234661346 0:1.7928429 6:1 2:0.43645792 3:-0.8373184 
0.008845736485470218 0:-1.7928429 6:1 2:0.43645792 3:-0.62094704 
1 0:0 6:1 2:0.43645792 3:-0.63575243 
1 0:0.5976143 6:1 2:0.43645792 3:-0.65772523 
1 0:0 6:1 2:0.43645792 3:-0.64174145 
1 0:-1.1952286 5:1 2:0.43645792 3:0.46877938 
1 0:-1.7928429 5:1 2:0.43645792 3:0.46983893 
0.07859233868000715 0:1.7928429 5:1 2:0.43645792 3:-0.12027994 
1 0:0 5:1 2:0.43645792 3:0.17477959 
1 0:0 5:1 2:0.43645792 3:0.31508123 
0.9795557231553773 0:1.7928429 5:1 2:0.43645792 3:-0.12027994 
1 0:-1.1952286 5:1 2:0.43645792 3:0.46877938 
1 0:0 5:1 2:0.43645792 3:0.31508123 
1 0:-1.1952286 5:1 2:0.43645792 3:0.29222896 
1 0:-1.7928429 5:1 2:0.43645792 3:0.29240227 
0.8730110183029451 0:0 5:1 2:0.43645792 3:0.44922939 
1 0:-1.7928429 5:1 2:0.43645792 3:0.46983893 
1 0:0 5:1 2:0.43645792 3:0.17477959 
0.7337088655129307 0:0 5:1 2:0.43645792 3:0.44922939 
1 0:-0.5976143 5:1 2:0.43645792 3:0.29139874 
1 0:0 5:1 2:0.43645792 3:0.049133704 
1 0:1.7928429 5:1 2:0.43645792 3:-0.40352624 
1 0:0.5976143 5:1 2:0.43645792 3:-0.31788871 
1 0:-0.5976143 5:1 2:0.43645792 3:-0.31325815 
1 0:0 5:1 2:0.43645792 3:-0.31557343 
1 0:0 5:1 2:0.43645792 3:-0.31374555 
0.08067248663033348 0:1.7928429 8:1 2:0.43645792 3:0.53684389 
1 0:-0.5976143 8:1 2:0.43645792 3:1.4924492 
1 0:0 8:1 2:0.43645792 3:1.0146469 
0.6026208155131226 0:1.7928429 8:1 2:0.43645792 3:0.53684389 
1 0:0 8:1 2:0.43645792 3:1.492083 
1 0:-0.5976143 8:1 2:0.43645792 3:1.4924492 
1 0:0 8:1 2:0.43645792 3:1.0146469 
1 0:0 8:1 2:0.43645792 3:1.492083 
1 0:0 1:1 2:0.43645792 3:1.3519381 
1 0:0 1:1 2:0.43645792 3:1.2902052 
1 0:0 1:1 2:0.43645792 3:1.2902052 
1 0:0 1:1 2:0.43645792 3:1.2902052 
1 0:1.7928429 1:1 2:0.43645792 3:0.62383653 
1 0:0 1:1 2:0.43645792 3:1.2148156 
1 0:0 1:1 2:0.43645792 3:1.2902052 
1 0:1.7928429 1:1 2:0.43645792 3:0.61831485 
1 0:0 1:1 2:0.43645792 3:1.1481081 
-0.09968569972397204 0:1.1952286 5:1 2:1.3496622 3:0.49697369 
-1 0:-0.5976143 5:1 2:1.3496622 3:0.77750161 
-0.2070703518906244 0:-1.7928429 9:1 2:1.3496622 3:1.336114 
1 0:0 1:1 2:0.43645792 3:1.1503214 
1 0:0 1:1 2:0.43645792 3:1.1503214 
1 0:0 1:1 2:0.43645792 3:1.004881 
1 0:0 1:1 2:0.43645792 3:1.0780028 
-1 0:0.5976143 1:1 2:0.43645792 3:1.4013553 
1 0:-1.7928429 1:1 2:0.43645792 3:1.4334094 
-1 0:0.5976143 1:1 2:0.43645792 3:1.0308247 
-1 0:0 1:1 2:0.43645792 3:1.0376081 
-1 0:0 1:1 2:0.43645792 3:1.042382 
-1 0:0.5976143 1:1 2:0.43645792 3:0.72163183 
1 0:1.7928429 1:1 2:0.43645792 3:0.3929707 
-1 0:-0.5976143 1:1 2:0.43645792 3:0.72773308 
-1 0:0 1:1 2:0.43645792 3:0.72468255 
1 0:0 1:1 2:0.43645792 3:1.1503214 
1 0:0 1:1 2:0.43645792 3:1.1503214 
1 0:0 1:1 2:0.43645792 3:1.1503214 
1 0:0 1:1 2:0.43645792 3:1.1503214 
1 0:0 1:1 2:0.43645792 3:1.0780028 
-1 0:0.5976143 1:1 2:0.43645792 3:1.4013553 
1 0:0 1:1 2:0.43645792 3:1.004881 
0.8488088533043895 0:-1.7928429 1:1 2:0.43645792 3:1.4334094 
1 0:0 9:1 2:0.43645792 3:0.22816141 
0.3599077456448055 0:0 9:1 2:0.43645792 3:0.84418923 
1 0:0 9:1 2:0.43645792 3:0.22816141 
1 0:-1.1952286 9:1 2:0.43645792 3:0.8712479 
1 0:0 9:1 2:0.43645792 3:0.50012181 
1 0:-1.1952286 9:1 2:0.43645792 3:0.8712479 
1 0:0 9:1 2:0.43645792 3:0.50012181 
1 0:-1.1952286 9:1 2:0.43645792 3:0.8712479 
1 0:0 9:1 2:0.43645792 3:0.17477959 
1 0:0 9:1 2:0.43645792 3:0.22816141 
1 0:0 9:1 2:0.43645792 3:0.50012181 
1 0:1.7928429 9:1 2:0.43645792 3:-0.12027994 
0.9169799143742952 0:-1.7928429 9:1 2:0.43645792 3:0.30568367 
1 0:1.7928429 9:1 2:0.43645792 3:-0.26369853 
1 0:0 9:1 2:0.43645792 3:0.22816141 
1 0:0 9:1 2:0.43645792 3:0.50012181 
1 0:-1.1952286 9:1 2:0.43645792 3:0.8712479 
1 0:-1.1952286 9:1 2:0.43645792 3:0.8712479 
1 0:0 9:1 2:0.43645792 3:0.22816141 
1 0:0 9:1 2:0.43645792 3:0.50012181 
1 0:-1.1952286 9:1 2:0.43645792 3:0.8712479 
1 0:0 9:1 2:0.43645792 3:0.50012181 
1 0:0 9:1 2:0.43645792 3:0.22816141 
0.5180796543516026 0:0 9:1 2:0.43645792 3:0.84418923 
1 0:1.7928429 9:1 2:0.43645792 3:-0.12027994 
1 0:0 9:1 2:0.43645792 3:0.17477959 
0.951873402333087 0:-1.7928429 9:1 2:0.43645792 3:0.30568367 
1 0:-1.7928429 7:1 2:0.43645792 3:0.35152445 
1 0:0 7:1 2:0.43645792 3:0.090795911 
1 0:0 7:1 2:0.43645792 3:-0.07279208 
1 0:-1.1952286 7:1 2:0.43645792 3:0.35043074 
1 0:-1.1952286 7:1 2:0.43645792 3:0.17399057 
1 0:-1.7928429 7:1 2:0.43645792 3:0.17485892 
1 0:0 7:1 2:0.43645792 3:-0.15680088 
-1 0:-0.5976143 7:1 2:0.43645792 3:-0.11087931 
-1 0:-1.1952286 7:1 2:0.43645792 3:-0.11072389 
1 0:-0.5976143 7:1 2:0.43645792 3:-0.62641369 
1 0:-1.7928429 7:1 2:0.43645792 3:-0.62254007 
1 0:0 7:1 2:0.43645792 3:-0.63795015 
1 0:-1.7928429 7:1 2:0.43645792 3:-0.73061782 
1 0:-1.1952286 7:1 2:0.43645792 3:-0.73275193 
0.6417603389559164 0:0 7:1 2:0.43645792 3:-0.75181172 
1 0:-1.1952286 7:1 2:0.43645792 3:0.8712479 
1 0:0 7:1 2:0.43645792 3:0.22816141 
0.9915626099509169 0:0 7:1 2:0.43645792 3:0.84418923 
1 0:1.7928429 7:1 2:0.43645792 3:-0.12027994 
1 0:0 7:1 2:0.43645792 3:0.22816141 
1 0:0 7:1 2:0.43645792 3:0.50012181 
0.8089847273708075 0:0 7:1 2:0.43645792 3:0.84418923 
1 0:-1.1952286 7:1 2:0.43645792 3:0.8712479 
1 0:0 7:1 2:0.43645792 3:0.50012181 
1 0:-1.7928429 7:1 2:0.43645792 3:0.30568367 
1 0:0 7:1 2:0.43645792 3:-0.066583845 
1 0:-1.1952286 7:1 2:0.43645792 3:0.46877938 
1 0:0 7:1 2:0.43645792 3:0.17477959 
-1 0:-0.5976143 7:1 2:0.43645792 3:-0.10011714 
-1 0:-1.1952286 7:1 2:0.43645792 3:-0.099959187 
1 0:0 7:1 2:0.43645792 3:-0.43595877 
-1 0:0 7:1 2:0.43645792 3:-0.50878052 
1 0:0 7:1 2:0.43645792 3:0.049133704 
1 0:-1.7928429 7:1 2:0.43645792 3:0.29240227 
1 0:-1.7928429 7:1 2:0.43645792 3:0.29240227 
1 0:0 7:1 2:0.43645792 3:0.049133704 
-1 0:-0.5976143 7:1 2:0.43645792 3:-0.10011714 
-1 0:-1.1952286 7:1 2:0.43645792 3:-0.099959187 
1 0:1.7928429 7:1 2:0.43645792 3:-0.19413505 
1 0:0.5976143 7:1 2:0.43645792 3:-0.65772523 
1 0:-0.5976143 7:1 2:0.43645792 3:-0.62575768 
1 0:0 7:1 2:0.43645792 3:-0.63575243 
1 0:-1.7928429 7:1 2:0.43645792 3:-0.62094704 
1 0:-1.7928429 4:1 2:0.43645792 3:-0.62094704 
-1 0:1.7928429 4:1 2:0.43645792 3:-0.96296925 
-0.6025068627766942 0:-1.1952286 4:1 2:0.43645792 3:-0.85401791 
-1 0:0 4:1 2:0.43645792 3:-0.86388869 
1 0:1.1952286 4:1 2:0.43645792 3:-1.2295502 
1 0:-1.7928429 4:1 2:0.43645792 3:-1.190044 
1 0:-0.5976143 4:1 2:0.43645792 3:-0.62575768 
1 0:0 4:1 2:0.43645792 3:-0.63575243 
-1 0:-1.7928429 4:1 2:0.43645792 3:-0.8540021 
-1 0:0 4:1 2:0.43645792 3:-0.90848568 
1 0:0 4:1 2:0.43645792 3:-0.85443609 
1 0:1.7928429 4:1 2:0.43645792 3:-1.2658342 
1 0:-0.5976143 4:1 2:0.43645792 3:-0.62575768 
1 0:-1.7928429 4:1 2:0.43645792 3:-0.62094704 
1 0:0 4:1 2:0.43645792 3:-0.63575243 
-1 0:0 4:1 2:0.43645792 3:-0.90848568 
-1 0:0 4:1 2:0.43645792 3:-0.86388869 
-1 0:1.7928429 4:1 2:0.43645792 3:-0.96296925 
-1 0:-1.7928429 4:1 2:0.43645792 3:-0.8540021 
1 0:0 4:1 2:0.43645792 3:-0.85443609 
1 0:1.7928429 4:1 2:0.43645792 3:-1.2658342 
1 0:1.1952286 4:1 2:0.43645792 3:-1.2295502 
1 0:-1.7928429 4:1 2:0.43645792 3:-1.190044 
-0.9997190145697481 0:0 6:1 2:-1.3362327 3:-1.2221902 
1 0:1.1952286 6:1 2:-1.3362327 3:-1.2141266 
-0.9225032266038209 0:0 6:1 2:-1.3362327 3:-1.2221902 
1 0:-0.5976143 6:1 2:-1.3362327 3:-1.2112033 
0.6339976522173475 0:1.1952286 6:1 2:-1.3362327 3:-1.2141266 
1 0:-0.5976143 6:1 2:-1.3362327 3:-1.2112033 
1 0:-0.5976143 6:1 2:-1.3362327 3:-1.2112033 
1 0:-0.5976143 6:1 2:-1.3362327 3:-1.2112033 
0.4685512218949417 0:1.7928429 6:1 2:-1.3362327 3:-1.2331771 
1 0:-0.5976143 6:1 2:-1.3362327 3:-1.2112033 
1 0:1.7928429 6:1 2:-1.3362327 3:-1.2331771 
1 0:1.7928429 6:1 2:-1.3362327 3:-1.2331771 
1 0:-0.5976143 6:1 2:-1.3362327 3:-1.2112033 
1 0:-0.5976143 6:1 2:-1.3362327 3:-1.2112033 
1 0:1.7928429 6:1 2:-1.3362327 3:-1.2331771 
1 0:-0.5976143 6:1 2:-1.3362327 3:-1.2112033 
1 0:1.7928429 6:1 2:-1.3362327 3:-1.2331771 
1 0:1.7928429 6:1 2:-1.3362327 3:-1.2331771 
1 0:-0.5976143 6:1 2:-1.3362327 3:-1.2112033 
1 0:-0.5976143 6:1 2:-1.3362327 3:-1.2112033 
-0.2663143032439277 0:0 6:1 2:-1.3362327 3:-1.2221902 
0.7276869492021918 0:1.7928429 6:1 2:-1.3362327 3:-1.2331771 
0.7966805712086136 0:1.1952286 6:1 2:-1.3362327 3:-1.2141266 
-1 0:0 9:1 2:1.3496622 3:0.44843278 
1 0:0 9:1 2:1.3496622 3:0.71554974 
-0.9544055913793349 0:-1.7928429 9:1 2:1.3496622 3:1.336114 
1 0:0 9:1 2:1.3496622 3:0.71554974 
-1 0:-1.7928429 9:1 2:1.3496622 3:1.336114 
1 0:0 9:1 2:1.3496622 3:0.71554974 
-1 0:0.5976143 9:1 2:1.3496622 3:0.8865163 
-1 0:-0.5976143 9:1 2:1.3496622 3:1.0163442 
-1 0:0 9:1 2:1.3496622 3:0.95143034 
-1 0:0.5976143 9:1 2:1.3496622 3:0.69765965 
0.7541937002124125 0:0 9:1 2:1.3496622 3:0.40232742 
-1 0:-1.1952286 9:1 2:1.3496622 3:0.46950514 
-1 0:0 9:1 2:1.3496622 3:0.73197636 
-1 0:0.5976143 9:1 2:1.3496622 3:0.42976741 
-1 0:-0.5976143 9:1 2:1.3496622 3:0.46709797 
-1 0:0 9:1 2:1.3496622 3:0.387213 
-1 0:0 9:1 2:1.3496622 3:0.45925495 
-1 0:-1.7928429 9:1 2:1.3496622 3:1.336114 
-0.4347867279363219 0:0.5976143 9:1 2:1.3496622 3:1.1038421 
-0.5908239896630263 0:-1.7928429 9:1 2:1.3496622 3:1.336114 
1 0:0 9:1 2:1.3496622 3:0.71554974 
1 0:0 9:1 2:1.3496622 3:0.71554974 
1 0:0 9:1 2:1.3496622 3:0.71554974 
-1 0:0 9:1 2:1.3496622 3:0.95143034 
-1 0:0.5976143 9:1 2:1.3496622 3:0.69765965 
-1 0:0 9:1 2:1.3496622 3:0.73197636 
-0.7769980493779444 0:0.5976143 9:1 2:1.3496622 3:0.8865163 
-1 0:-0.5976143 9:1 2:1.3496622 3:1.0163442 
0.9999999667586877 0:0 9:1 2:1.3496622 3:0.40232742 
1 0:0 5:1 2:-1.3362327 3:-1.2114731 
-1 0:0 5:1 2:-1.3362327 3:-1.1348234 
-0.05151458779191859 0:-1.7928429 5:1 2:-1.3362327 3:-1.1298776 
-1 0:-1.7928429 5:1 2:-1.3362327 3:-1.1298776 
-1 0:0 5:1 2:-1.3362327 3:-1.1506343 
-1 0:0 5:1 2:-1.3362327 3:-1.1506343 
-1 0:0 5:1 2:-1.3362327 3:-1.1348234 
-1 0:0 5:1 2:-1.3362327 3:-1.1348234 
1 0:1.1952286 5:1 2:-1.3362327 3:-1.2141266 
1 0:0.5976143 5:1 2:-1.3362327 3:-1.211743 
-1 0:-1.7928429 5:1 2:-1.3362327 3:-1.1298776 
-1 0:0 5:1 2:-1.3362327 3:-1.1506343 
1 0:1.7928429 5:1 2:-1.3362327 3:-1.2331771 
1 0:-0.5976143 5:1 2:-1.3362327 3:-1.2112033 
1 0:-1.1952286 5:1 2:-1.3362327 3:-1.2112033 
1 0:0 5:1 2:-1.3362327 3:-1.212665 
1 0:0.5976143 5:1 2:-1.3362327 3:-1.211743 
1 0:-0.5976143 5:1 2:-1.3362327 3:-1.2112033 
1 0:-1.7928429 5:1 2:-1.3362327 3:-1.2112033 
1 0:0 5:1 2:-1.3362327 3:-1.2114731 
1 0:0 5:1 2:-1.3362327 3:-1.2112675 
1 0:1.7928429 5:1 2:-1.3362327 3:-1.2331771 
1 0:1.1952286 5:1 2:-1.3362327 3:-1.2141266 
1 0:-1.1952286 5:1 2:-1.3362327 3:-1.2112033 
1 0:-1.7928429 5:1 2:-1.3362327 3:-1.2112033 
1 0:0 5:1 2:-1.3362327 3:-1.212665 
1 0:0 5:1 2:-1.3362327 3:-1.2112675 
1 0:1.7928429 8:1 2:-1.3362327 3:-1.1713909 
0.1775251429413338 0:-0.5976143 8:1 2:-1.3362327 3:-1.1299569 
1 0:1.7928429 8:1 2:-1.3362327 3:-1.1713909 
0.9256837988017411 0:-0.5976143 8:1 2:-1.3362327 3:-1.1299569 
0.5644577895359985 0:0 8:1 2:-1.3362327 3:-1.1301705 
-0.2953360071228721 0:0 1:1 2:-1.3362327 3:-1.0215736 
-0.1430261019815514 0:0 1:1 2:-1.3362327 3:-1.0215736 
-1 0:0 1:1 2:-1.3362327 3:-1.0215736 
-1 0:0 1:1 2:-1.3362327 3:-1.0215736 
-1 0:0 1:1 2:-1.3362327 3:-1.0215736 
1 0:0 1:1 2:-1.3362327 3:-1.2221902 
-1 0:0 1:1 2:-1.3362327 3:-1.0215736 
-1 0:0 1:1 2:-1.3362327 3:-1.0215736 
-1 0:0 1:1 2:-1.3362327 3:-1.0215736 
-1 0:0 1:1 2:-1.3362327 3:-1.0215736 
1 0:1.1952286 1:1 2:-1.3362327 3:-1.2141266 
1 0:0.5976143 1:1 2:-1.3362327 3:-1.211743 
1 0:-1.7928429 1:1 2:-1.3362327 3:-1.2112033 
1 0:1.7928429 1:1 2:-1.3362327 3:-1.2331771 
1 0:-0.5976143 1:1 2:-1.3362327 3:-1.2112033 
1 0:-1.1952286 1:1 2:-1.3362327 3:-1.2112033 
1 0:0 1:1 2:-1.3362327 3:-1.2221902 
1 0:0 1:1 2:-1.3362327 3:-1.212665 
1 0:1.7928429 1:1 2:-1.3362327 3:-1.2331771 
1 0:1.1952286 1:1 2:-1.3362327 3:-1.2141266 
1 0:-1.1952286 1:1 2:-1.3362327 3:-1.2112033 
1 0:-1.7928429 1:1 2:-1.3362327 3:-1.2112033 
1 0:0 1:1 2:-1.3362327 3:-1.2114731 
1 0:0 1:1 2:-1.3362327 3:-1.2112675 
1 0:0.5976143 1:1 2:-1.3362327 3:-1.211743 
1 0:-0.5976143 1:1 2:-1.3362327 3:-1.2112033 
1 0:0 1:1 2:-1.3362327 3:-1.2114731 
1 0:0 1:1 2:-1.3362327 3:-1.2112675 
1 0:0 1:1 2:-1.3362327 3:-1.212665 
-1 0:0 1:1 2:-1.3362327 3:-1.0215736 
-1 0:0 1:1 2:-1.3362327 3:-1.0215736 
-1 0:0 1:1 2:-1.3362327 3:-1.0215736 
-0.02468128018321441 0:-1.7928429 1:1 2:-1.3362327 3:-0.98109174 
-1 0:-1.7928429 1:1 2:-1.3362327 3:-0.98109174 
-1 0:0 1:1 2:-1.3362327 3:-1.0215736 
-0.2267464209031679 0:1.7928429 1:1 2:-1.3362327 3:-1.0620555 
-1 0:0 1:1 2:-1.3362327 3:-1.0215736 
-1 0:-1.7928429 1:1 2:-1.3362327 3:-0.98109174 
-1 0:0 1:1 2:-1.3362327 3:-1.0215736 
-0.08151907726325161 0:1.7928429 1:1 2:-1.3362327 3:-1.0620555 
-0.3532535851669805 0:-1.7928429 1:1 2:-1.3362327 3:-0.98109174 
1 0:0 7:1 2:1.3496622 3:0.17477959 
1 0:0 7:1 2:1.3496622 3:0.17477959 
1 0:0 7:1 2:1.3496622 3:0.17477959 
-1 0:-0.5976143 7:1 2:1.3496622 3:-0.11087931 
-1 0:-1.1952286 7:1 2:1.3496622 3:-0.11072389 
-1 0:0 7:1 2:1.3496622 3:-0.15873258 
-1 0:0 7:1 2:1.3496622 3:-0.11439375 
-0.1527058363859795 0:-1.7928429 7:1 2:1.3496622 3:-0.11068359 
0.2509203205374301 0:1.7928429 7:1 2:1.3496622 3:-0.80541899 
0.5987757925778354 0:-0.5976143 7:1 2:1.3496622 3:-0.62641369 
1 0:0 7:1 2:1.3496622 3:-0.63795015 
0.06552971149677429 0:1.7928429 9:1 2:-1.3362327 3:-1.1713909 
0.2020209217222061 0:-0.5976143 9:1 2:-1.3362327 3:-1.1299569 
0.07547036415063819 0:-0.5976143 9:1 2:-1.3362327 3:-1.1299569 
-0.0041403012592583 0:-1.1952286 7:1 2:1.3496622 3:0.77768884 
-1 0:0.5976143 7:1 2:1.3496622 3:0.7371563 
1 0:0 7:1 2:1.3496622 3:0.4358327 
-0.9445976381503126 0:0.5976143 7:1 2:1.3496622 3:0.7371563 
1 0:0 7:1 2:1.3496622 3:0.4358327 
-0.3496202491693239 0:0 7:1 2:1.3496622 3:-0.5637768 
-1 0:0 7:1 2:1.3496622 3:-0.55433541 
-0.9743780297249461 0:-1.1952286 7:1 2:1.3496622 3:0.15718407 
-1 0:0 7:1 2:1.3496622 3:0.0005974935 
-1 0:-1.7928429 7:1 2:1.3496622 3:1.336114 
-1 0:0.5976143 7:1 2:1.3496622 3:1.1038421 
-1 0:-1.7928429 7:1 2:1.3496622 3:1.336114 
1 0:0 7:1 2:1.3496622 3:0.71554974 
-0.03423263236839809 0:-0.5976143 7:1 2:1.3496622 3:1.0163442 
1 0:0 7:1 2:1.3496622 3:0.40232742 
-1 0:-1.7928429 7:1 2:1.3496622 3:1.0194184 
-1 0:0.5976143 7:1 2:1.3496622 3:0.42976741 
-1 0:0.5976143 7:1 2:1.3496622 3:1.1038421 
-1 0:-0.5976143 7:1 2:1.3496622 3:1.3333515 
1 0:0 7:1 2:1.3496622 3:0.71554974 
-1 0:-0.5976143 7:1 2:1.3496622 3:1.3333515 
1 0:0 7:1 2:1.3496622 3:0.53224351 
-1 0:-0.5976143 7:1 2:1.3496622 3:0.46709797 
-1 0:0 7:1 2:1.3496622 3:0.44843278 
-1 0:1.1952286 7:1 2:1.3496622 3:-0.097722249 
-1 0:0.5976143 7:1 2:1.3496622 3:-0.022415429 
1 0:0 7:1 2:1.3496622 3:0.23905677 
-1 0:0 7:1 2:1.3496622 3:0.45925495 
-1 0:-0.5976143 7:1 2:1.3496622 3:0.023610597 
-1 0:-1.1952286 7:1 2:1.3496622 3:0.029141136 
-1 0:0 7:1 2:1.3496622 3:-0.034290647 
-1 0:-0.5976143 4:1 2:1.3496622 3:-0.54589503 
-1 0:0 4:1 2:1.3496622 3:-0.59436076 
-1 0:1.7928429 4:1 2:1.3496622 3:-0.84739764 
-0.2193704003159484 0:1.1952286 4:1 2:1.3496622 3:-0.76178749 
-1 0:1.1952286 4:1 2:1.3496622 3:-0.64481304 
-0.297604883503588 0:-1.1952286 4:1 2:1.3496622 3:-0.54390839 
-0.07360837514313064 0:0 4:1 2:1.3496622 3:-0.5637768 
-1 0:-1.7928429 4:1 2:1.3496622 3:-0.72374707 
-1 0:0 4:1 2:1.3496622 3:-0.78557235 
1 0:1.7928429 4:1 2:1.3496622 3:-1.2244092 
1 0:1.1952286 4:1 2:1.3496622 3:-1.1842348 
1 0:0.5976143 4:1 2:1.3496622 3:-1.1689926 
-1 0:0 4:1 2:1.3496622 3:-0.74277794 
1 0:-0.5976143 4:1 2:1.3496622 3:-1.1611398 
1 0:-1.7928429 4:1 2:1.3496622 3:-1.1606648 
0.5328152911529962 0:0 4:1 2:1.3496622 3:-1.1650662 
1 0:0 4:1 2:1.3496622 3:-1.1631023 
1 0:-1.7928429 4:1 2:1.3496622 3:-1.1606648 
-1 0:-0.5976143 4:1 2:1.3496622 3:-0.54589503 
-1 0:0 4:1 2:1.3496622 3:-0.59436076 
-1 0:1.7928429 4:1 2:1.3496622 3:-0.84739764 
-1 0:-1.7928429 4:1 2:1.3496622 3:-0.72374707 
-1 0:1.1952286 4:1 2:1.3496622 3:-0.64481304 
-0.7871278657077256 0:-1.1952286 4:1 2:1.3496622 3:-0.54390839 
-1 0:0 4:1 2:1.3496622 3:-0.78557235 
-1 0:0 4:1 2:1.3496622 3:-0.74277794 
1 0:1.7928429 4:1 2:1.3496622 3:-1.2244092 
1 0:-0.5976143 4:1 2:1.3496622 3:-1.1611398 
1 0:0 4:1 2:1.3496622 3:-1.1631023 
1 0:1.1952286 4:1 2:1.3496622 3:-1.1842348 
1 0:0.5976143 4:1 2:1.3496622 3:-1.1689926 
0.9868373107745028 0:0 4:1 2:1.3496622 3:-1.1650662 
-1 0:0 6:1 2:1.3496622 3:-0.59436076 
-1 0:-1.1952286 6:1 2:1.3496622 3:0.15718407 
-1 0:0 6:1 2:1.3496622 3:0.14956135 
-1 0:-0.5976143 6:1 2:1.3496622 3:0.15684468 
-0.450110834415819 0:-1.1952286 6:1 2:1.3496622 3:-0.54390839 
-1 0:0 6:1 2:1.3496622 3:-0.55433541 
-0.1832533757955724 0:0.5976143 6:1 2:1.3496622 3:-0.58165857 
-1 0:-0.5976143 6:1 2:1.3496622 3:-0.54589503 
-1 0:0 6:1 2:1.3496622 3:-0.5637768 
-1 0:0.5976143 6:1 2:1.3496622 3:0.7371563 
1 0:0 6:1 2:1.3496622 3:0.4358327 
-1 0:-1.1952286 6:1 2:1.3496622 3:0.77768884 
-0.5892653625768023 0:-1.7928429 6:1 2:1.3496622 3:0.77771667 
-1 0:0 6:1 2:1.3496622 3:0.75732887 
-0.0005701998796886272 0:-1.7928429 6:1 2:1.3496622 3:-0.0027020717 
1 0:0 6:1 2:1.3496622 3:-0.0028629115 
-1 0:-1.1952286 6:1 2:1.3496622 3:-0.0027036982 
1 0:0 6:1 2:1.3496622 3:-0.0028629115 
-1 0:-1.1952286 6:1 2:1.3496622 3:-0.0027036982 
0.9762686329568635 0:1.7928429 9:1 2:-1.3362327 3:-1.1713909 
1 0:-0.5976143 9:1 2:-1.3362327 3:-1.1299569 
1 0:-0.5976143 9:1 2:-1.3362327 3:-1.1299569 
1 0:-0.5976143 9:1 2:-1.3362327 3:-1.1299569 
1 0:1.7928429 9:1 2:-1.3362327 3:-1.1713909 
1 0:1.7928429 9:1 2:-1.3362327 3:-1.1713909 
1 0:-0.5976143 9:1 2:-1.3362327 3:-1.1299569 
1 0:1.7928429 9:1 2:-1.3362327 3:-1.1713909 
0.9813480890006058 0:1.7928429 9:1 2:-1.3362327 3:-1.1713909 
0.9737905721335139 0:-0.5976143 9:1 2:-1.3362327 3:-1.1299569 
-0.3448737326731233 0:0 7:1 2:-1.3362327 3:-1.1506343 
0.3299454083885145 0:1.7928429 7:1 2:-1.3362327 3:-1.1713909 
-1 0:0 7:1 2:-1.3362327 3:-1.1506343 
-1 0:1.1952286 6:1 2:1.3496622 3:0.073598341 
-0.9913038759991609 0:0 6:1 2:1.3496622 3:0.26358141 
-0.8685825082187805 0:-1.7928429 6:1 2:1.3496622 3:-0.0027020717 
1 0:0 6:1 2:1.3496622 3:-0.0028629115 
1 0:-0.5976143 6:1 2:1.3496622 3:-0.37787238 
1 0:0 6:1 2:1.3496622 3:-0.37887076 
-1 0:0.5976143 6:1 2:1.3496622 3:0.23576407 
-1 0:0 6:1 2:1.3496622 3:0.28315995 
-1 0:-1.1952286 6:1 2:1.3496622 3:-0.0027036982 
1 0:0 7:1 2:-1.3362327 3:-1.2221902 
-1 0:0 7:1 2:-1.3362327 3:-1.1506343 
-1 0:0 7:1 2:-1.3362327 3:-1.1506343 
1 0:1.7928429 7:1 2:-1.3362327 3:-1.2331771 
1 0:1.1952286 7:1 2:-1.3362327 3:-1.2141266 
1 0:0.5976143 7:1 2:-1.3362327 3:-1.211743 
1 0:-1.7928429 7:1 2:-1.3362327 3:-1.2112033 
1 0:0 7:1 2:-1.3362327 3:-1.2221902 
1 0:0 7:1 2:-1.3362327 3:-1.2112675 
1 0:1.7928429 7:1 2:-1.3362327 3:-1.2331771 
1 0:-0.5976143 7:1 2:-1.3362327 3:-1.2112033 
1 0:-1.1952286 7:1 2:-1.3362327 3:-1.2112033 
1 0:0 7:1 2:-1.3362327 3:-1.212665 
1 0:0 7:1 2:-1.3362327 3:-1.2114731 
1 0:1.1952286 7:1 2:-1.3362327 3:-1.2141266 
1 0:0.5976143 7:1 2:-1.3362327 3:-1.211743 
1 0:-1.1952286 7:1 2:-1.3362327 3:-1.2112033 
1 0:-1.7928429 7:1 2:-1.3362327 3:-1.2112033 
1 0:-0.5976143 7:1 2:-1.3362327 3:-1.2112033 
1 0:0 7:1 2:-1.3362327 3:-1.2114731 
1 0:0 7:1 2:-1.3362327 3:-1.2112675 
1 0:0 7:1 2:-1.3362327 3:-1.212665 
-1 0:0 7:1 2:-1.3362327 3:-1.1506343 
-1 0:0 7:1 2:-1.3362327 3:-1.1506343 
-1 0:0 7:1 2:-1.3362327 3:-1.1506343 
-1 0:0 7:1 2:-1.3362327 3:-1.1506343 
-1 0:0 7:1 2:-1.3362327 3:-1.1506343 
-0.7646987797201875 0:0 7:1 2:-1.3362327 3:-1.1506343 
0.5679302059266604 0:1.7928429 7:1 2:-1.3362327 3:-1.1713909 
1 0:-0.5976143 4:1 2:-1.3362327 3:-1.2112033 
-1 0:0 4:1 2:-1.3362327 3:-1.2221902 
0.4403800393545166 0:1.1952286 4:1 2:-1.3362327 3:-1.2141266 
-1 0:0 4:1 2:-1.3362327 3:-1.2221902 
0.1008152157127155 0:1.7928429 4:1 2:-1.3362327 3:-1.2331771 
1 0:-0.5976143 4:1 2:-1.3362327 3:-1.2112033 
0.8938659031823779 0:-0.5976143 4:1 2:-1.3362327 3:-1.2112033 
-1 0:0 4:1 2:-1.3362327 3:-1.2221902 
1 0:-0.5976143 4:1 2:-1.3362327 3:-1.2112033 
0.4109360098766538 0:1.7928429 4:1 2:-1.3362327 3:-1.2331771 
-1 0:0 4:1 2:-1.3362327 3:-1.2221902 
1 0:-0.5976143 4:1 2:-1.3362327 3:-1.2112033 
-1 0:0 4:1 2:-1.3362327 3:-1.2221902 
1 0:1.7928429 4:1 2:-1.3362327 3:-1.2331771 
-1 0:0 4:1 2:-1.3362327 3:-1.2221902 
1 0:1.7928429 4:1 2:-1.3362327 3:-1.2331771 
1 0:-0.5976143 4:1 2:-1.3362327 3:-1.2112033 
-0.03006579480942428 0:1.1952286 5:1 2:1.3496622 3:0.49697369 
-1 0:0.5976143 5:1 2:1.3496622 3:0.8865163 
-1 0:-1.7928429 5:1 2:1.3496622 3:1.0194184 
1 0:0 5:1 2:1.3496622 3:0.53224351 
-1 0:0.5976143 5:1 2:1.3496622 3:0.7371563 
0.734313864596029 0:0 5:1 2:1.3496622 3:0.4358327 
-1 0:0.5976143 5:1 2:1.3496622 3:0.8865163 
-1 0:-1.7928429 5:1 2:1.3496622 3:1.0194184 
1 0:0 5:1 2:1.3496622 3:0.53224351 
-1 0:-1.1952286 5:1 2:1.3496622 3:0.77768884 
-1 0:0 5:1 2:1.3496622 3:0.75732887 
-0.3435447938057366 0:0.5976143 5:1 2:1.3496622 3:0.14227802 
-1 0:-0.5976143 5:1 2:1.3496622 3:0.15684468 
-1 0:-1.1952286 5:1 2:1.3496622 3:-0.0027036982 
1 0:0 5:1 2:1.3496622 3:-0.0028629115 
-1 0:-1.1952286 5:1 2:1.3496622 3:0.15718407 
-1 0:0 5:1 2:1.3496622 3:0.14956135 
-1 0:0.5976143 8:1 2:1.3496622 3:2.0316843 
1 0:0 8:1 2:1.3496622 3:1.3569498 
-1 0:-1.1952286 8:1 2:1.3496622 3:2.0672111 
-0.255329949537641 0:-1.7928429 8:1 2:1.3496622 3:2.0672111 
-0.294909643966982 0:0 8:1 2:1.3496622 3:2.0494468 
-1 0:-1.1952286 8:1 2:1.3496622 3:2.0672111 
-0.9520741897289171 0:-1.7928429 8:1 2:1.3496622 3:2.0672111 
-0.9721818281549757 0:0 8:1 2:1.3496622 3:2.0494468 
-1 0:0.5976143 8:1 2:1.3496622 3:2.0316843 
1 0:0 8:1 2:1.3496622 3:1.3569498 
-1 0:-1.1952286 1:1 2:1.3496622 3:2.3186402 
1 0:0 1:1 2:1.3496622 3:1.4813743 
-0.01565385749914365 0:-1.1952286 1:1 2:1.3496622 3:2.3185683 
1 0:0 1:1 2:1.3496622 3:1.481331 
-0.7922874420263862 0:-1.1952286 1:1 2:1.3496622 3:2.3185683 
1 0:0 1:1 2:1.3496622 3:1.481331 
1 0:0 1:1 2:1.3496622 3:1.481331 
-1 0:-1.1952286 1:1 2:1.3496622 3:2.3185683 
1 0:0 1:1 2:1.3496622 3:1.481331 
1 0:0 1:1 2:1.3496622 3:1.4097218 
1 0:0 1:1 2:1.3496622 3:1.3613568 
