svm_type epsilon_svr
kernel_type rbf
gamma 0.1
nr_class 2
total_sv 185
rho -0.587877
SV
1 0:0 1:1 2:0.66 3:0.053214133 
-1 0:0.33333333 1:1 2:1 3:0.17893481 
1 0:1 1:1 2:1 3:0.011548127 
1 0:0.5 1:1 2:1 3:0.036353501 
-0.9006758940668108 0:0.5 1:1 2:1 3:0.17861006 
-1 0:0.33333333 4:1 2:0.66 3:0.34728892 
0.181573112776378 0:1 4:1 2:0 3:0.0046653694 
1 0:0.5 4:1 2:0 3:0.026096951 
1 0:0.5 4:1 2:0 3:0.044947036 
-1 0:0.33333333 4:1 2:0.33 3:0.25141533 
1 0:0.5 4:1 2:0.33 3:0.13747471 
-1 0:0.5 4:1 2:0.33 3:0.25121169 
-1 0:0.5 4:1 2:0.33 3:0.38991248 
-0.09470100814332517 0:0.5 4:1 2:0.33 3:0.43884563 
1 0:0.5 5:1 2:0.66 3:0.40325395 
1 0:0.5 5:1 2:0.66 3:0.30954494 
-1 0:0.5 5:1 2:0.66 3:0.25634033 
1 0:0.5 5:1 2:0.66 3:0.14676773 
-0.1419280838561494 0:0.5 5:1 2:0.66 3:0.34321946 
1 0:0.5 5:1 2:0.66 3:0.12183939 
-1 0:0.5 5:1 2:0.66 3:0.3469524 
1 0:0.5 5:1 2:0.66 3:0.15130606 
1 0:0.5 5:1 2:0.66 3:0.33705417 
1 0:0.5 5:1 2:0.66 3:0.34844185 
0.9685532748240318 0:1 5:1 2:0 3:0.0046653694 
1 0:0.5 5:1 2:0 3:0.026096951 
0.9909050174444004 0:0.5 5:1 2:0 3:0.044947036 
-1 0:0.33333333 5:1 2:0.33 3:0.27747114 
-1 0:0.33333333 5:1 2:0.33 3:0.27353888 
-1 0:0.33333333 5:1 2:0.33 3:0.21188136 
-1 0:0.33333333 5:1 2:0.33 3:0.30128443 
-1 0:0.33333333 5:1 2:0.33 3:0.25141533 
-1 0:0.5 5:1 2:0.33 3:0.27722923 
-1 0:0.5 5:1 2:0.33 3:0.27671535 
1 0:0.5 5:1 2:0.33 3:0.10765284 
1 0:0 5:1 2:0.33 3:0.53526875 
-1 0:0.33333333 5:1 2:1 3:0.34438327 
-1 0:0.33333333 5:1 2:1 3:0.5002262 
-1 0:0.33333333 5:1 2:1 3:0.41658892 
-1 0:0.5 5:1 2:1 3:0.34402895 
1 0:0.5 5:1 2:1 3:0.46326556 
-1 0:0.33333333 6:1 2:0.66 3:0.77706564 
0.6053591436863915 0:0.5 6:1 2:0 3:0.044947036 
-0.01922420296540169 0:0.5 6:1 2:0.33 3:0.59413743 
-1 0:0.33333333 6:1 2:1 3:0.93215531 
0.2731515170104408 0:1 6:1 2:1 3:0.5578216 
1 0:0.5 6:1 2:1 3:0.74498873 
-1 0:0.33333333 7:1 2:0.66 3:0.57072004 
-1 0:0.33333333 7:1 2:0.66 3:0.82710695 
-1 0:0.33333333 7:1 2:0.66 3:0.65616651 
1 0:0 7:1 2:0.66 3:0.93284679 
0.07436540718162424 0:0 7:1 2:0.66 3:0.8616169 
1 0:0 7:1 2:0.66 3:0.90088671 
0.7048577896314304 0:1 7:1 2:0 3:0.0046653694 
1 0:0.5 7:1 2:0 3:0.026096951 
1 0:0.5 7:1 2:0 3:0.077438178 
-1 0:0.33333333 7:1 2:0.33 3:0.48838774 
-1 0:0.33333333 7:1 2:0.33 3:0.56335574 
1 0:0.5 7:1 2:1 3:0.77863487 
1 0:0.5 7:1 2:1 3:0.73073869 
1 0:0.5 7:1 2:1 3:0.74625981 
-1 0:0.5 7:1 2:1 3:0.65328207 
1 0:0.5 7:1 2:1 3:0.75109906 
1 0:0.5 7:1 2:1 3:0.71180999 
1 0:0.5 7:1 2:1 3:0.77862307 
1 0:0.5 7:1 2:1 3:0.75925924 
-1 0:0.5 7:1 2:1 3:0.75031376 
-1 0:0.33333333 8:1 2:0.33 3:0.34581332 
-1 0:0.5 8:1 2:0.33 3:0.34541507 
-0.333262786968799 0:0.5 8:1 2:0.33 3:0.45930299 
0.2339614492100763 0:0 9:1 2:0.66 3:0.42148298 
1 0:0 9:1 2:0.66 3:0.20674767 
-1 0:0.5 9:1 2:0.66 3:0.28884051 
1 0:0.5 9:1 2:0.66 3:0.14676773 
-1 0:0.5 9:1 2:0.66 3:0.28959594 
-1 0:0.5 9:1 2:0.66 3:0.3469524 
0.9106505190903508 0:0.5 9:1 2:0.66 3:0.2327232 
1 0:0.5 9:1 2:0.66 3:0.33705417 
1 0:0.5 9:1 2:0.66 3:0.29779906 
1 0:0.5 9:1 2:0.66 3:0.12602885 
1 0:0.5 9:1 2:0.66 3:0.30954494 
1 0:0.5 9:1 2:0.33 3:0.10765284 
1 0:0.5 9:1 2:0.33 3:0.10759727 
-1 0:0.5 9:1 2:0.33 3:0.25121169 
-1 0:0.5 9:1 2:0.33 3:0.30107728 
0.5740680117912323 0:0 9:1 2:0.33 3:0.14885981 
0.004277480248428969 0:1 9:1 2:1 3:0.15529532 
1 0:0.5 1:1 2:0.33 3:0.019644903 
-1 0:0.5 1:1 2:0.33 3:0.11845662 
1 0:1 1:1 2:0.33 3:0 
1 0:0 1:1 2:0.33 3:0.039289817 
-1 0:0.33333333 1:1 2:0.66 3:0.14382313 
-0.8576327875801786 0:0.66666667 1:1 2:0.66 3:0.14284876 
1 0:0.5 1:1 2:0.66 3:0.02750755 
-1 0:0.5 1:1 2:0.66 3:0.14363276 
-1 0:0.5 1:1 2:0.66 3:0.14333593 
1 0:1 1:1 2:0.66 3:0.001800955 
0.4675242135966994 0:0 4:1 2:0.66 3:0.50106601 
1 0:0.5 4:1 2:0.66 3:0.33705417 
-1 0:0.5 4:1 2:0.66 3:0.28959594 
1 0:0.5 4:1 2:0.66 3:0.36956216 
-1 0:0.5 4:1 2:0.66 3:0.3469524 
-1 0:0.33333333 4:1 2:0.66 3:0.28979751 
0.4300412771948241 0:1 4:1 2:1 3:0.19412119 
1 0:1 4:1 2:1 3:0.27716005 
-1 0:0.5 4:1 2:1 3:0.37321249 
1 0:0.5 4:1 2:1 3:0.30544829 
-1 0:0.5 4:1 2:1 3:0.37348723 
1 0:0.5 4:1 2:1 3:0.46326556 
1 0:0.5 4:1 2:1 3:0.43662418 
-1 0:0.33333333 4:1 2:1 3:0.37359588 
0.9091048646455837 0:1 5:1 2:0.66 3:0.066634117 
-1 0:0.5 5:1 2:0.66 3:0.34402895 
1 0:0.5 5:1 2:0.66 3:0.36956216 
-1 0:0.5 5:1 2:0.66 3:0.34619124 
-1 0:0.33333333 5:1 2:0.66 3:0.34438327 
-1 0:0.33333333 5:1 2:0.66 3:0.34728892 
-1 0:0.33333333 5:1 2:0.66 3:0.25728389 
1 0:0 5:1 2:0.66 3:0.17704466 
1 0:0 5:1 2:0.66 3:0.20635022 
1 0:0 5:1 2:0.66 3:0.20674767 
0.675073276041664 0:0 5:1 2:0.66 3:0.6096053 
-1 0:0.5 5:1 2:0.33 3:0.21112903 
1 0:0.5 5:1 2:0.33 3:0.36133898 
1 0:0.5 5:1 2:0.33 3:0.10759727 
-1 0:0.5 5:1 2:0.33 3:0.25121169 
-1 0:0.5 5:1 2:0.33 3:0.27324947 
-1 0:0.5 5:1 2:0.33 3:0.30107728 
1 0:0.5 5:1 2:1 3:0.51165387 
1 0:0.5 5:1 2:1 3:0.4285568 
-1 0:0.5 5:1 2:1 3:0.34321946 
1 0:0.5 5:1 2:1 3:0.15130606 
0.7215496164644386 0:0.5 5:1 2:1 3:0.36956216 
-1 0:0.5 5:1 2:1 3:0.41604428 
1 0:0.5 7:1 2:0.66 3:0.74368312 
1 0:0.5 7:1 2:0.66 3:0.68892115 
1 0:0.5 7:1 2:0.66 3:0.64992534 
-1 0:0.5 7:1 2:0.66 3:0.57055722 
1 0:0.5 7:1 2:0.66 3:0.70685799 
-1 0:0.5 7:1 2:0.66 3:0.65562494 
1 0:0.5 7:1 2:0.66 3:0.66969518 
1 0:0.5 7:1 2:0.66 3:0.72714 
1 0:0.5 7:1 2:0.66 3:0.68923987 
-1 0:0.5 7:1 2:0.33 3:0.56317097 
-1 0:0.5 7:1 2:0.33 3:0.48803888 
-1 0:0.5 7:1 2:0.33 3:0.65506903 
-1 0:0.5 7:1 2:0.33 3:0.48480188 
0.1586536061723399 0:0 7:1 2:0.33 3:0.71538981 
-1 0:0.33333333 7:1 2:1 3:0.75057963 
-1 0:0.33333333 7:1 2:1 3:0.93611681 
-1 0:0.33333333 7:1 2:1 3:0.65343231 
-1 0:0.33333333 7:1 2:1 3:0.96162316 
-1 0:0.33333333 7:1 2:1 3:1 
-1 0:0.33333333 7:1 2:1 3:0.99998059 
-1 0:0.33333333 8:1 2:0.66 3:0.41658892 
-1 0:0.5 8:1 2:0.66 3:0.41604428 
1 0:0.5 8:1 2:0.66 3:0.36956216 
1 0:0.5 8:1 2:0.66 3:0.40325395 
0.6433210657732831 0:1 8:1 2:0 3:0.020426286 
1 0:0.5 8:1 2:0 3:0.044947036 
-0.4947462130551746 0:0.33333333 8:1 2:1 3:0.58094699 
-1 0:0.33333333 8:1 2:1 3:0.5002262 
-1 0:0.5 8:1 2:1 3:0.49759255 
1 0:0.5 8:1 2:1 3:0.51165387 
1 0:0.5 8:1 2:1 3:0.4285568 
1 0:0.5 8:1 2:1 3:0.46326556 
0.06190944394007514 0:1 8:1 2:1 3:0.26804451 
-1 0:0.33333333 9:1 2:0.66 3:0.28979751 
-1 0:0.33333333 9:1 2:0.66 3:0.34728892 
0.2454836790577271 0:1 9:1 2:0 3:0.0046653694 
1 0:0.5 9:1 2:0 3:0.026096951 
-1 0:0.33333333 9:1 2:0.33 3:0.25141533 
-1 0:0.33333333 9:1 2:0.33 3:0.30128443 
-1 0:0.33333333 9:1 2:0.33 3:0.27747114 
-1 0:0.5 9:1 2:0.33 3:0.27722923 
0.5827223400423504 0:0.5 9:1 2:0.33 3:0.3009599 
-1 0:0.33333333 9:1 2:1 3:0.37359588 
-1 0:0.33333333 9:1 2:1 3:0.41658892 
1 0:0.5 9:1 2:1 3:0.43662418 
-1 0:0.5 9:1 2:1 3:0.37321249 
1 0:0.5 9:1 2:1 3:0.16655122 
0.4250648708120686 0:0.5 9:1 2:1 3:0.33705417 
1 0:0.5 9:1 2:1 3:0.36956216 
-1 0:0.5 9:1 2:1 3:0.37348723 
-1 0:0.33333333 1:1 2:0.33 3:0.11856963 
