svm_type epsilon_svr
kernel_type rbf
gamma 0.1
nr_class 2
total_sv 1367
rho 1.65833
SV
-1 0:1.7928429 1:1 2:1.3496622 3:1.4730502 
-1 0:1.7928429 1:1 2:1.3496622 3:1.4730502 
-1 0:1.7928429 1:1 2:1.3496622 3:1.4154382 
-1 0:-1.1952286 1:1 2:1.3496622 3:1.758976 
-1 0:-1.7928429 1:1 2:1.3496622 3:1.758976 
-1 0:0 1:1 2:1.3496622 3:1.6852857 
-1 0:0 1:1 2:1.3496622 3:1.6852857 
-1 0:0.5976143 1:1 2:1.3496622 3:1.7572481 
-1 0:-0.5976143 1:1 2:1.3496622 3:1.7589562 
-1 0:0 1:1 2:1.3496622 3:1.5872069 
-1 0:0 1:1 2:1.3496622 3:1.7430665 
-1 0:0 1:1 2:1.3496622 3:1.758102 
1 0:1.1952286 1:1 2:1.3496622 3:1.6090427 
1 0:0.5976143 1:1 2:1.3496622 3:1.6280072 
1 0:-0.5976143 1:1 2:1.3496622 3:1.6293265 
1 0:0 1:1 2:1.3496622 3:1.4921211 
1 0:0 1:1 2:1.3496622 3:1.6191926 
1 0:1.1952286 1:1 2:1.3496622 3:1.2113329 
1 0:0.5976143 1:1 2:1.3496622 3:1.2176472 
1 0:-0.5976143 1:1 2:1.3496622 3:1.2181437 
1 0:-1.1952286 1:1 2:1.3496622 3:1.2181458 
1 0:-1.7928429 1:1 2:1.3496622 3:1.2181458 
1 0:0 1:1 2:1.3496622 3:1.2178955 
1 0:0 1:1 2:1.3496622 3:1.2180977 
1 0:1.7928429 1:1 2:1.3496622 3:0.85654287 
-1 0:0 1:1 2:1.3496622 3:1.758812 
1 0:1.7928429 1:1 2:1.3496622 3:1.3548994 
1 0:-1.1952286 1:1 2:1.3496622 3:1.6293426 
1 0:-1.7928429 1:1 2:1.3496622 3:1.6293426 
1 0:0 1:1 2:1.3496622 3:1.6286667 
1 0:0 1:1 2:1.3496622 3:1.6292031 
1 0:1.7928429 1:1 2:1.3496622 3:1.1297951 
1 0:0 1:1 2:1.3496622 3:1.1739703 
1 0:0 1:1 2:1.3496622 3:1.2147395 
1 0:1.1952286 1:1 2:1.3496622 3:0.87647037 
1 0:-1.7928429 1:1 2:1.3496622 3:1.6293426 
-1 0:0 1:1 2:1.3496622 3:1.6852857 
-1 0:0 1:1 2:1.3496622 3:1.6852857 
-1 0:1.7928429 1:1 2:1.3496622 3:1.4730502 
-1 0:1.7928429 1:1 2:1.3496622 3:1.4730502 
-1 0:1.7928429 1:1 2:1.3496622 3:1.4730502 
-1 0:1.7928429 1:1 2:1.3496622 3:1.4730502 
-1 0:-0.5976143 1:1 2:1.3496622 3:1.7589562 
-1 0:-1.1952286 1:1 2:1.3496622 3:1.758976 
-1 0:0 1:1 2:1.3496622 3:1.758102 
-1 0:0 1:1 2:1.3496622 3:1.758812 
1 0:-0.5976143 1:1 2:1.3496622 3:1.6293265 
1 0:-1.1952286 1:1 2:1.3496622 3:1.6293426 
-0.3437393415095785 0:1.1952286 4:1 2:-0.44988739 3:-0.85422614 
1 0:1.7928429 5:1 2:-0.44988739 3:-0.058021584 
-1 0:0 1:1 2:1.3496622 3:1.6852857 
-1 0:0 1:1 2:1.3496622 3:1.6852857 
-1 0:1.7928429 1:1 2:1.3496622 3:1.4154382 
-1 0:0.5976143 1:1 2:1.3496622 3:1.7572481 
-1 0:-1.7928429 1:1 2:1.3496622 3:1.758976 
-1 0:0 1:1 2:1.3496622 3:1.5872069 
-1 0:0 1:1 2:1.3496622 3:1.7430665 
1 0:1.7928429 1:1 2:1.3496622 3:1.3548994 
1 0:1.1952286 1:1 2:1.3496622 3:1.6090427 
1 0:0.5976143 1:1 2:1.3496622 3:1.6280072 
1 0:0 1:1 2:1.3496622 3:1.6191926 
1 0:0 1:1 2:1.3496622 3:1.6286667 
1 0:0 1:1 2:1.3496622 3:1.6292031 
1 0:0 1:1 2:1.3496622 3:1.4921211 
1 0:0 6:1 2:-0.44988739 3:-0.71480541 
-1 0:0 8:1 2:-0.44988739 3:-0.93712869 
-0.6829734814133862 0:1.1952286 4:1 2:-0.44988739 3:-0.85422614 
1 0:1.7928429 5:1 2:-0.44988739 3:-0.14502768 
-1 0:0 5:1 2:-0.44988739 3:-0.66474063 
-1 0:0 5:1 2:-0.44988739 3:-1.0243915 
-1 0:1.7928429 4:1 2:0.43645792 3:-0.69885426 
1 0:0 5:1 2:0.43645792 3:-0.50578618 
-1 0:1.1952286 4:1 2:0.43645792 3:-0.68945973 
-1 0:0 5:1 2:0.43645792 3:-0.78669291 
1 0:0 9:1 2:0.43645792 3:1.310627 
-1 0:0 8:1 2:0.43645792 3:-0.76941337 
-0.04137821674577893 0:1.7928429 6:1 2:0.43645792 3:0.2324327 
-1 0:-1.7928429 8:1 2:-0.44988739 3:-0.85247262 
-1 0:0.5976143 8:1 2:-0.44988739 3:-0.52723165 
-1 0:-0.5976143 8:1 2:-0.44988739 3:-0.52716106 
-1 0:1.7928429 8:1 2:-0.44988739 3:-0.52881859 
-1 0:1.1952286 8:1 2:-0.44988739 3:-0.52742415 
-1 0:-1.1952286 8:1 2:-0.44988739 3:-0.52716106 
-1 0:-1.7928429 8:1 2:-0.44988739 3:-0.52716106 
-1 0:0 8:1 2:-0.44988739 3:-0.52719636 
-1 0:0 8:1 2:-0.44988739 3:-0.52718417 
-1 0:1.7928429 8:1 2:-0.44988739 3:-0.85791297 
-1 0:-0.5976143 8:1 2:-0.44988739 3:-0.85254807 
-1 0:-1.1952286 8:1 2:-0.44988739 3:-0.85249316 
-1 0:0 8:1 2:-0.44988739 3:-0.52798978 
-1 0:0 8:1 2:-0.44988739 3:-0.52729261 
-1 0:1.1952286 8:1 2:-0.44988739 3:-0.85422614 
-1 0:0.5976143 8:1 2:-0.44988739 3:-0.85307858 
-1 0:0 8:1 2:-0.44988739 3:-0.85335965 
-1 0:0 8:1 2:-0.44988739 3:-0.85281328 
-1 0:0 8:1 2:-0.44988739 3:-0.85267961 
-1 0:0 8:1 2:-0.44988739 3:-0.85519279 
-1 0:0 8:1 2:-0.44988739 3:-0.7173383 
-1 0:0 8:1 2:-0.44988739 3:-0.71546278 
1 0:1.7928429 8:1 2:-0.44988739 3:-0.054973363 
1 0:1.1952286 8:1 2:-0.44988739 3:-0.026289602 
1 0:-1.7928429 8:1 2:-0.44988739 3:-0.020156162 
1 0:0 8:1 2:-0.44988739 3:-0.037564677 
1 0:0 8:1 2:-0.44988739 3:-0.02027483 
1 0:1.7928429 8:1 2:-0.44988739 3:-0.054973363 
1 0:-1.1952286 8:1 2:-0.44988739 3:-0.020163152 
1 0:-1.7928429 8:1 2:-0.44988739 3:-0.020156162 
1 0:0 8:1 2:-0.44988739 3:-0.020569116 
1 0:0 8:1 2:-0.44988739 3:-0.02027483 
1 0:0.5976143 8:1 2:-0.44988739 3:-0.020948481 
1 0:-0.5976143 8:1 2:-0.44988739 3:-0.020189921 
1 0:-1.1952286 8:1 2:-0.44988739 3:-0.020163152 
1 0:0 8:1 2:-0.44988739 3:-0.023226377 
1 0:0 8:1 2:-0.44988739 3:-0.020569116 
1 0:1.1952286 8:1 2:-0.44988739 3:-0.026289602 
1 0:0.5976143 8:1 2:-0.44988739 3:-0.020948481 
1 0:-0.5976143 8:1 2:-0.44988739 3:-0.020189921 
1 0:0 8:1 2:-0.44988739 3:-0.037564677 
1 0:0 8:1 2:-0.44988739 3:-0.023226377 
-1 0:1.7928429 8:1 2:-0.44988739 3:-0.52881859 
-1 0:1.1952286 8:1 2:-0.44988739 3:-0.52742415 
-1 0:-1.7928429 8:1 2:-0.44988739 3:-0.52716106 
-1 0:0 8:1 2:-0.44988739 3:-0.52798978 
-1 0:0 8:1 2:-0.44988739 3:-0.52718417 
-1 0:1.7928429 8:1 2:-0.44988739 3:-0.72005745 
-1 0:-1.1952286 8:1 2:-0.44988739 3:-0.71463756 
-1 0:-1.7928429 8:1 2:-0.44988739 3:-0.71461906 
-1 0:0 8:1 2:-0.44988739 3:-0.71480541 
-1 0:0.5976143 8:1 2:-0.44988739 3:-0.52723165 
-1 0:-0.5976143 8:1 2:-0.44988739 3:-0.52716106 
-1 0:-1.1952286 8:1 2:-0.44988739 3:-0.52716106 
-1 0:0 8:1 2:-0.44988739 3:-0.52729261 
-1 0:0 8:1 2:-0.44988739 3:-0.52719636 
-1 0:1.1952286 8:1 2:-0.44988739 3:-0.71628809 
-1 0:0.5976143 8:1 2:-0.44988739 3:-0.71516074 
-1 0:-0.5976143 8:1 2:-0.44988739 3:-0.71468675 
-1 0:0 8:1 2:-0.44988739 3:-0.71492374 
1 0:1.7928429 6:1 2:-0.44988739 3:0.10113585 
1 0:-1.7928429 6:1 2:-0.44988739 3:0.13420763 
1 0:1.7928429 6:1 2:-0.44988739 3:0.10113585 
1 0:-1.7928429 6:1 2:-0.44988739 3:0.13420763 
1 0:1.7928429 6:1 2:-0.44988739 3:-0.058021584 
1 0:-1.1952286 6:1 2:-0.44988739 3:-0.037025211 
1 0:-1.7928429 6:1 2:-0.44988739 3:-0.037007138 
1 0:0 6:1 2:-0.44988739 3:-0.037441746 
1 0:0 6:1 2:-0.44988739 3:-0.037499887 
0.1736056519422665 0:-1.1952286 6:1 2:-0.44988739 3:0.13419416 
1 0:1.1952286 6:1 2:-0.44988739 3:-0.04043677 
1 0:0.5976143 6:1 2:-0.44988739 3:-0.037746261 
1 0:-0.5976143 6:1 2:-0.44988739 3:-0.03713706 
1 0:0 6:1 2:-0.44988739 3:-0.047514446 
1 0:0 6:1 2:-0.44988739 3:-0.038731076 
1 0:1.7928429 6:1 2:-0.44988739 3:-0.52881859 
1 0:1.1952286 6:1 2:-0.44988739 3:-0.52742415 
1 0:0.5976143 6:1 2:-0.44988739 3:-0.52723165 
1 0:-1.7928429 6:1 2:-0.44988739 3:-0.52716106 
1 0:0 6:1 2:-0.44988739 3:-0.52798978 
1 0:0 6:1 2:-0.44988739 3:-0.52718417 
1 0:1.7928429 6:1 2:-0.44988739 3:-0.72005745 
1 0:-0.5976143 6:1 2:-0.44988739 3:-0.71468675 
1 0:-1.1952286 6:1 2:-0.44988739 3:-0.71463756 
1 0:-1.7928429 6:1 2:-0.44988739 3:-0.71461906 
1 0:-0.5976143 6:1 2:-0.44988739 3:-0.52716106 
1 0:-1.1952286 6:1 2:-0.44988739 3:-0.52716106 
1 0:0 6:1 2:-0.44988739 3:-0.52729261 
1 0:0 6:1 2:-0.44988739 3:-0.52719636 
1 0:1.1952286 6:1 2:-0.44988739 3:-0.71628809 
1 0:0.5976143 6:1 2:-0.44988739 3:-0.71516074 
1 0:0 6:1 2:-0.44988739 3:-0.7173383 
1 0:0 6:1 2:-0.44988739 3:-0.71546278 
1 0:0 6:1 2:-0.44988739 3:-0.71492374 
0.262509347043054 0:1.1952286 9:1 2:-0.44988739 3:0.65879692 
1 0:1.7928429 9:1 2:-0.44988739 3:0.67313982 
0.9477216942972867 0:-1.7928429 9:1 2:-0.44988739 3:0.77949507 
1 0:1.7928429 9:1 2:-0.44988739 3:0.57563035 
1 0:-1.7928429 9:1 2:-0.44988739 3:0.68106097 
1 0:1.7928429 1:1 2:-0.44988739 3:1.0783085 
0.2290116117592718 0:1.1952286 1:1 2:-0.44988739 3:1.1829025 
1 0:-1.7928429 1:1 2:-0.44988739 3:1.1958701 
0.3945284367762032 0:0 1:1 2:-0.44988739 3:1.1957873 
1 0:1.7928429 1:1 2:-0.44988739 3:1.0783085 
1 0:-1.7928429 1:1 2:-0.44988739 3:1.1958701 
1 0:0 1:1 2:-0.44988739 3:1.1957873 
1 0:1.7928429 1:1 2:-0.44988739 3:1.0783085 
1 0:-0.5976143 1:1 2:-0.44988739 3:1.1958671 
1 0:0 1:1 2:-0.44988739 3:1.1957873 
1 0:-0.5976143 1:1 2:-0.44988739 3:1.1958671 
1 0:-0.5976143 1:1 2:-0.44988739 3:1.1958671 
0.3685106091990474 0:-1.1952286 1:1 2:-0.44988739 3:1.1958701 
1 0:1.1952286 1:1 2:-0.44988739 3:1.1829025 
1 0:-0.5976143 1:1 2:-0.44988739 3:1.1958671 
1 0:1.1952286 1:1 2:-0.44988739 3:1.1829025 
1 0:-1.7928429 1:1 2:-0.44988739 3:1.1958701 
1 0:1.7928429 1:1 2:-0.44988739 3:1.0783085 
1 0:1.1952286 1:1 2:-0.44988739 3:1.1829025 
1 0:-1.1952286 1:1 2:-0.44988739 3:1.1958701 
1 0:-1.7928429 1:1 2:-0.44988739 3:1.1958701 
1 0:0 1:1 2:-0.44988739 3:1.1957873 
1 0:1.7928429 1:1 2:-0.44988739 3:1.0783085 
1 0:-0.5976143 1:1 2:-0.44988739 3:1.1958671 
1 0:-1.1952286 1:1 2:-0.44988739 3:1.1958701 
1 0:-1.7928429 1:1 2:-0.44988739 3:1.1958701 
1 0:0 1:1 2:-0.44988739 3:1.1957873 
1 0:-0.5976143 1:1 2:-0.44988739 3:1.1958671 
0.9885427755377068 0:-1.1952286 1:1 2:-0.44988739 3:1.1958701 
1 0:1.1952286 1:1 2:-0.44988739 3:1.1829025 
1 0:1.7928429 1:1 2:-0.44988739 3:1.0783085 
0.9994565765452817 0:1.1952286 1:1 2:-0.44988739 3:1.1829025 
1 0:-1.7928429 1:1 2:-0.44988739 3:1.1958701 
0.1564056144097405 0:0 1:1 2:-0.44988739 3:1.1957873 
0.8800223981572646 0:-1.7928429 1:1 2:-0.44988739 3:0.30133276 
1 0:1.7928429 1:1 2:-0.44988739 3:0.29302918 
1 0:0 1:1 2:-1.3362327 3:-1.2401706 
-1 0:0 8:1 2:-0.44988739 3:-0.93749101 
1 0:1.7928429 8:1 2:-0.44988739 3:-0.35705899 
1 0:-0.5976143 8:1 2:-0.44988739 3:-0.35279262 
1 0:-1.1952286 8:1 2:-0.44988739 3:-0.35279262 
1 0:0 8:1 2:-0.44988739 3:-0.35281308 
1 0:0 8:1 2:-0.44988739 3:-0.35279262 
1 0:1.1952286 8:1 2:-0.44988739 3:-0.35325306 
1 0:0.5976143 8:1 2:-0.44988739 3:-0.35283362 
1 0:-1.7928429 8:1 2:-0.44988739 3:-0.35279262 
1 0:0 8:1 2:-0.44988739 3:-0.35492585 
1 0:0 8:1 2:-0.44988739 3:-0.35302288 
-1 0:1.7928429 8:1 2:-0.44988739 3:-0.43996955 
-1 0:1.1952286 8:1 2:-0.44988739 3:-0.43637956 
-1 0:-1.1952286 8:1 2:-0.44988739 3:-0.43593737 
-1 0:-1.7928429 8:1 2:-0.44988739 3:-0.43593319 
-1 0:0 8:1 2:-0.44988739 3:-0.43795141 
-1 0:0 8:1 2:-0.44988739 3:-0.43596746 
-1 0:1.7928429 8:1 2:-0.44988739 3:-0.89616023 
-1 0:-0.5976143 8:1 2:-0.44988739 3:-0.88573297 
-1 0:-1.1952286 8:1 2:-0.44988739 3:-0.88564678 
-1 0:0 8:1 2:-0.44988739 3:-0.88637781 
-1 0:0 8:1 2:-0.44988739 3:-0.88601558 
-1 0:0.5976143 8:1 2:-0.44988739 3:-0.43602066 
-1 0:-0.5976143 8:1 2:-0.44988739 3:-0.43594632 
-1 0:0 8:1 2:-0.44988739 3:-0.43615851 
-1 0:0 8:1 2:-0.44988739 3:-0.43598349 
-1 0:1.1952286 8:1 2:-0.44988739 3:-0.88930941 
-1 0:0.5976143 8:1 2:-0.44988739 3:-0.88702264 
-1 0:-1.7928429 8:1 2:-0.44988739 3:-0.88563306 
-1 0:0 8:1 2:-0.44988739 3:-0.89089669 
-1 0:0 8:1 2:-0.44988739 3:-0.88747805 
-1 0:1.7928429 8:1 2:-0.44988739 3:-0.93931077 
-1 0:1.1952286 8:1 2:-0.44988739 3:-0.93800805 
-1 0:-1.1952286 8:1 2:-0.44988739 3:-0.93697388 
-1 0:-1.7928429 8:1 2:-0.44988739 3:-0.93696228 
-1 0:0 8:1 2:-0.44988739 3:-0.93813652 
-0.06645910599201316 0:1.7928429 4:1 2:-1.3362327 3:-1.2404381 
-1 0:0.5976143 8:1 2:-0.44988739 3:-0.93739143 
-1 0:-0.5976143 8:1 2:-0.44988739 3:-0.93701258 
-1 0:0 8:1 2:-0.44988739 3:-0.93720201 
0.1067393011604943 0:1.7928429 8:1 2:-1.3362327 3:-1.2404381 
-0.160356814898106 0:1.7928429 5:1 2:-1.3362327 3:-1.164079 
-0.006633811784380135 0:1.1952286 9:1 2:-1.3362327 3:-1.1636439 
1 0:-1.1952286 7:1 2:-0.44988739 3:-0.19666977 
0.9991150856832313 0:1.7928429 7:1 2:-0.44988739 3:0.30403503 
1 0:1.7928429 7:1 2:-0.44988739 3:0.30403503 
1 0:1.7928429 7:1 2:-0.44988739 3:0.15811429 
0.9131119441193088 0:1.7928429 7:1 2:-0.44988739 3:0.30403503 
0.305607015017421 0:-1.7928429 7:1 2:-0.44988739 3:0.21117222 
1 0:1.7928429 7:1 2:-0.44988739 3:-0.058667613 
1 0:1.1952286 7:1 2:-0.44988739 3:-0.037950863 
1 0:-1.7928429 7:1 2:-0.44988739 3:-0.032651685 
1 0:0 7:1 2:-0.44988739 3:-0.045659734 
1 0:1.7928429 7:1 2:-0.44988739 3:-0.20237508 
1 0:1.1952286 7:1 2:-0.44988739 3:-0.19773114 
1 0:0 7:1 2:-0.44988739 3:-0.19952208 
1 0:0 7:1 2:-0.44988739 3:-0.19720054 
1 0:0 7:1 2:-0.44988739 3:-0.19677735 
1 0:-0.5976143 7:1 2:-0.44988739 3:-0.032788427 
1 0:-1.1952286 7:1 2:-0.44988739 3:-0.03267044 
1 0:0.5976143 7:1 2:-0.44988739 3:-0.19687113 
1 0:-0.5976143 7:1 2:-0.44988739 3:-0.19668358 
1 0:0 7:1 2:-0.44988739 3:-0.19672876 
1 0:-1.7928429 7:1 2:-0.44988739 3:-0.19666908 
0.1286453454174844 0:0 7:1 2:-0.44988739 3:-0.038731076 
1 0:-1.7928429 7:1 2:-0.44988739 3:0.46529065 
1 0:-1.7928429 7:1 2:-0.44988739 3:0.46529065 
1 0:-1.7928429 7:1 2:-0.44988739 3:0.46529065 
1 0:1.7928429 7:1 2:-0.44988739 3:0.10113585 
1 0:-0.5976143 7:1 2:-0.44988739 3:-0.03713706 
1 0:-1.7928429 7:1 2:-0.44988739 3:0.13420763 
1 0:1.7928429 7:1 2:-0.44988739 3:-0.058021584 
1 0:1.1952286 7:1 2:-0.44988739 3:-0.04043677 
1 0:-1.1952286 7:1 2:-0.44988739 3:-0.037025211 
1 0:-1.7928429 7:1 2:-0.44988739 3:-0.037007138 
1 0:0 7:1 2:-0.44988739 3:-0.047514446 
1 0:1.1952286 5:1 2:-0.44988739 3:-0.12860756 
1 0:0.5976143 5:1 2:-0.44988739 3:-0.12542038 
1 0:-1.7928429 5:1 2:-0.44988739 3:-0.12467784 
1 0:0 5:1 2:-0.44988739 3:-0.13485284 
1 0:0 5:1 2:-0.44988739 3:-0.12492763 
1 0:1.7928429 5:1 2:-0.44988739 3:-0.14502768 
1 0:1.1952286 5:1 2:-0.44988739 3:-0.12860756 
1 0:-1.1952286 5:1 2:-0.44988739 3:-0.12468858 
1 0:-1.7928429 5:1 2:-0.44988739 3:-0.12467784 
1 0:0 5:1 2:-0.44988739 3:-0.12492763 
1 0:1.7928429 5:1 2:-0.44988739 3:-0.35705899 
1 0:-0.5976143 5:1 2:-0.44988739 3:-0.35279262 
1 0:-1.1952286 5:1 2:-0.44988739 3:-0.35279262 
1 0:0 5:1 2:-0.44988739 3:-0.35281308 
1 0:0 5:1 2:-0.44988739 3:-0.35279262 
1 0:-0.5976143 5:1 2:-0.44988739 3:-0.12474707 
1 0:-1.1952286 5:1 2:-0.44988739 3:-0.12468858 
1 0:0 5:1 2:-0.44988739 3:-0.12664798 
1 0:0 5:1 2:-0.44988739 3:-0.12508364 
1 0:0.5976143 5:1 2:-0.44988739 3:-0.12542038 
1 0:-0.5976143 5:1 2:-0.44988739 3:-0.12474707 
1 0:0 5:1 2:-0.44988739 3:-0.13485284 
1 0:0 5:1 2:-0.44988739 3:-0.12664798 
1 0:0 5:1 2:-0.44988739 3:-0.12508364 
1 0:1.1952286 5:1 2:-0.44988739 3:-0.35325306 
1 0:0.5976143 5:1 2:-0.44988739 3:-0.35283362 
1 0:-1.7928429 5:1 2:-0.44988739 3:-0.35279262 
1 0:0 5:1 2:-0.44988739 3:-0.35492585 
1 0:0 5:1 2:-0.44988739 3:-0.35302288 
-1 0:1.7928429 5:1 2:-0.44988739 3:-0.43996955 
-1 0:-0.5976143 5:1 2:-0.44988739 3:-0.43594632 
-1 0:-1.1952286 5:1 2:-0.44988739 3:-0.43593737 
-1 0:0 5:1 2:-0.44988739 3:-0.43598349 
-1 0:0 5:1 2:-0.44988739 3:-0.43596746 
-1 0:1.7928429 5:1 2:-0.44988739 3:-0.89616023 
-1 0:1.1952286 5:1 2:-0.44988739 3:-0.88930941 
-1 0:-1.7928429 5:1 2:-0.44988739 3:-0.88563306 
-1 0:0 5:1 2:-0.44988739 3:-0.89089669 
-1 0:0 5:1 2:-0.44988739 3:-0.88601558 
-1 0:1.7928429 5:1 2:-0.44988739 3:-1.0246255 
-1 0:-1.1952286 5:1 2:-0.44988739 3:-1.0243915 
-1 0:-1.7928429 5:1 2:-0.44988739 3:-1.0243915 
-1 0:1.1952286 5:1 2:-0.44988739 3:-0.43637956 
-1 0:0.5976143 5:1 2:-0.44988739 3:-0.43602066 
-1 0:-1.7928429 5:1 2:-0.44988739 3:-0.43593319 
-1 0:0 5:1 2:-0.44988739 3:-0.43795141 
-1 0:0 5:1 2:-0.44988739 3:-0.43615851 
-1 0:0.5976143 5:1 2:-0.44988739 3:-0.88702264 
-1 0:-0.5976143 5:1 2:-0.44988739 3:-0.88573297 
-1 0:-1.1952286 5:1 2:-0.44988739 3:-0.88564678 
-1 0:0 5:1 2:-0.44988739 3:-0.88747805 
-1 0:0 5:1 2:-0.44988739 3:-0.88637781 
-1 0:1.1952286 5:1 2:-0.44988739 3:-1.024417 
-1 0:0.5976143 5:1 2:-0.44988739 3:-1.0243915 
-1 0:-0.5976143 5:1 2:-0.44988739 3:-1.0243915 
-1 0:0 5:1 2:-0.44988739 3:-1.0245084 
-1 0:0 5:1 2:-0.44988739 3:-1.0244043 
-1 0:0 5:1 2:-0.44988739 3:-1.0243915 
-1 0:0 5:1 2:-0.44988739 3:-0.85519279 
-1 0:0 5:1 2:-0.44988739 3:-0.85335965 
1 0:1.1952286 5:1 2:-0.44988739 3:-0.04043677 
1 0:-1.7928429 5:1 2:-0.44988739 3:-0.037007138 
1 0:0 5:1 2:-0.44988739 3:-0.047514446 
1 0:0 5:1 2:-0.44988739 3:-0.037499887 
1 0:1.7928429 5:1 2:-0.44988739 3:-0.058021584 
1 0:1.1952286 5:1 2:-0.44988739 3:-0.04043677 
1 0:-1.1952286 5:1 2:-0.44988739 3:-0.037025211 
1 0:-1.7928429 5:1 2:-0.44988739 3:-0.037007138 
1 0:0 5:1 2:-0.44988739 3:-0.037441746 
1 0:0 5:1 2:-0.44988739 3:-0.037499887 
-1 0:1.7928429 5:1 2:-0.44988739 3:-0.52881859 
1 0:0.5976143 5:1 2:-0.44988739 3:-0.037746261 
1 0:-0.5976143 5:1 2:-0.44988739 3:-0.03713706 
1 0:-1.1952286 5:1 2:-0.44988739 3:-0.037025211 
1 0:0 5:1 2:-0.44988739 3:-0.038731076 
1 0:0 5:1 2:-0.44988739 3:-0.037441746 
1 0:0.5976143 5:1 2:-0.44988739 3:-0.037746261 
1 0:-0.5976143 5:1 2:-0.44988739 3:-0.03713706 
1 0:0 5:1 2:-0.44988739 3:-0.047514446 
1 0:0 5:1 2:-0.44988739 3:-0.038731076 
-1 0:1.1952286 5:1 2:-0.44988739 3:-0.52742415 
-1 0:0.5976143 5:1 2:-0.44988739 3:-0.52723165 
-1 0:-1.7928429 5:1 2:-0.44988739 3:-0.52716106 
-1 0:0 5:1 2:-0.44988739 3:-0.52798978 
-1 0:0 5:1 2:-0.44988739 3:-0.52729261 
-1 0:1.7928429 5:1 2:-0.44988739 3:-0.85791297 
-1 0:1.1952286 5:1 2:-0.44988739 3:-0.85422614 
-1 0:-0.5976143 5:1 2:-0.44988739 3:-0.52716106 
-1 0:-1.1952286 5:1 2:-0.44988739 3:-0.52716106 
-1 0:0 5:1 2:-0.44988739 3:-0.52719636 
-1 0:0 5:1 2:-0.44988739 3:-0.52718417 
-1 0:0.5976143 5:1 2:-0.44988739 3:-0.85307858 
-1 0:-0.5976143 5:1 2:-0.44988739 3:-0.85254807 
-1 0:0 5:1 2:-0.44988739 3:-0.85267961 
-1 0:-1.1952286 5:1 2:-0.44988739 3:-0.85249316 
-1 0:-1.7928429 5:1 2:-0.44988739 3:-0.85247262 
-1 0:0 5:1 2:-0.44988739 3:-0.85281328 
-1 0:0.5976143 5:1 2:-0.44988739 3:0.46217662 
-1 0:-0.5976143 5:1 2:-0.44988739 3:0.465269 
-1 0:0 5:1 2:-0.44988739 3:0.39284707 
-1 0:0 5:1 2:-0.44988739 3:0.44656041 
-1 0:0 5:1 2:-0.44988739 3:0.46372289 
-0.002477601862884685 0:1.1952286 5:1 2:-0.44988739 3:0.42783562 
-1 0:0.5976143 5:1 2:-0.44988739 3:0.46217662 
-1 0:0 5:1 2:-0.44988739 3:0.39284707 
-1 0:0 5:1 2:-0.44988739 3:0.44656041 
1 0:1.7928429 5:1 2:-0.44988739 3:0.10113585 
0.01655875329139502 0:-1.7928429 5:1 2:-0.44988739 3:0.13420763 
1 0:1.7928429 5:1 2:-0.44988739 3:-0.058021584 
1 0:-1.1952286 5:1 2:-0.44988739 3:-0.037025211 
1 0:-1.7928429 5:1 2:-0.44988739 3:-0.037007138 
1 0:0 5:1 2:-0.44988739 3:-0.047514446 
1 0:0 5:1 2:-0.44988739 3:-0.038731076 
-0.6718275331641542 0:1.1952286 5:1 2:-0.44988739 3:0.42783562 
-1 0:0 5:1 2:-0.44988739 3:0.46521461 
-1 0:-0.5976143 5:1 2:-0.44988739 3:0.465269 
-1 0:0 5:1 2:-0.44988739 3:0.46372289 
-1 0:0 5:1 2:-0.44988739 3:0.46521461 
1 0:1.1952286 5:1 2:-0.44988739 3:-0.04043677 
1 0:0.5976143 5:1 2:-0.44988739 3:-0.037746261 
1 0:-0.5976143 5:1 2:-0.44988739 3:-0.03713706 
1 0:0 5:1 2:-0.44988739 3:-0.037441746 
1 0:0 5:1 2:-0.44988739 3:-0.037499887 
1 0:1.7928429 5:1 2:-0.44988739 3:-0.45244606 
1 0:-0.5976143 5:1 2:-0.44988739 3:-0.4497888 
1 0:-1.1952286 5:1 2:-0.44988739 3:-0.44978062 
1 0:0 5:1 2:-0.44988739 3:-0.44994711 
1 0:0 5:1 2:-0.44988739 3:-0.44981659 
1 0:0 5:1 2:-0.44988739 3:-0.44980619 
-1 0:1.7928429 5:1 2:-0.44988739 3:-0.66623072 
-1 0:-0.5976143 5:1 2:-0.44988739 3:-0.66472008 
-1 0:-1.1952286 5:1 2:-0.44988739 3:-0.66471037 
1 0:1.1952286 5:1 2:-0.44988739 3:-0.45011369 
1 0:0.5976143 5:1 2:-0.44988739 3:-0.4498443 
1 0:-1.7928429 5:1 2:-0.44988739 3:-0.44977687 
1 0:0 5:1 2:-0.44988739 3:-0.45111147 
-1 0:1.1952286 5:1 2:-0.44988739 3:-0.66511403 
-1 0:0.5976143 5:1 2:-0.44988739 3:-0.66484148 
-1 0:-1.7928429 5:1 2:-0.44988739 3:-0.66471037 
-1 0:0 5:1 2:-0.44988739 3:-0.66547055 
-1 0:0 5:1 2:-0.44988739 3:-0.66491215 
-1 0:0 5:1 2:-0.44988739 3:-0.66478078 
1 0:-0.5976143 4:1 2:-0.44988739 3:-1.2689138 
1 0:1.1952286 4:1 2:-0.44988739 3:-1.2710114 
1 0:0.5976143 4:1 2:-0.44988739 3:-1.2695825 
1 0:0 4:1 2:-0.44988739 3:-1.2692481 
1 0:0 4:1 2:-0.44988739 3:-1.2690673 
-1 0:1.7928429 4:1 2:-0.44988739 3:-0.85791297 
-0.1246916834902788 0:-1.1952286 4:1 2:-0.44988739 3:-0.85249316 
-1 0:-1.7928429 4:1 2:-0.44988739 3:-0.85247262 
1 0:1.7928429 4:1 2:-0.44988739 3:-1.273864 
1 0:-1.7928429 4:1 2:-0.44988739 3:-1.2688595 
1 0:0 4:1 2:-0.44988739 3:-1.2713618 
1 0:0 4:1 2:-0.44988739 3:-1.2699374 
1 0:-1.1952286 4:1 2:-0.44988739 3:-1.2688635 
1 0:-1.7928429 4:1 2:-0.44988739 3:-1.2688595 
1 0:0 4:1 2:-0.44988739 3:-1.2713618 
-1 0:1.7928429 4:1 2:-0.44988739 3:-0.85791297 
-0.7749420408079482 0:-1.1952286 4:1 2:-0.44988739 3:-0.85249316 
-1 0:-1.7928429 4:1 2:-0.44988739 3:-0.85247262 
1 0:1.1952286 4:1 2:-0.44988739 3:-1.2710114 
1 0:0.5976143 4:1 2:-0.44988739 3:-1.2695825 
1 0:0 4:1 2:-0.44988739 3:-1.2692481 
1 0:0 4:1 2:-0.44988739 3:-1.2690673 
1 0:1.7928429 4:1 2:-0.44988739 3:-1.273864 
1 0:-0.5976143 4:1 2:-0.44988739 3:-1.2689138 
1 0:-1.1952286 4:1 2:-0.44988739 3:-1.2688635 
1 0:0 4:1 2:-0.44988739 3:-1.2699374 
-1 0:0.5976143 8:1 2:0.43645792 3:-0.76982496 
-1 0:-0.5976143 8:1 2:0.43645792 3:-0.76920767 
1 0:1.1952286 8:1 2:0.43645792 3:-0.27870677 
1 0:0.5976143 8:1 2:0.43645792 3:-0.27394143 
1 0:0 8:1 2:0.43645792 3:-0.28435019 
1 0:0 8:1 2:0.43645792 3:-0.27562632 
1 0:1.1952286 8:1 2:0.43645792 3:-0.64228732 
1 0:0.5976143 8:1 2:0.43645792 3:-0.64132877 
1 0:-1.7928429 8:1 2:0.43645792 3:-0.64071846 
1 0:0 8:1 2:0.43645792 3:-0.64240233 
1 0:0 8:1 2:0.43645792 3:-0.64151163 
-1 0:1.7928429 8:1 2:0.43645792 3:-0.77299399 
-1 0:1.1952286 8:1 2:0.43645792 3:-0.77087184 
-1 0:0 8:1 2:0.43645792 3:-0.77000203 
-1 0:0 8:1 2:0.43645792 3:-0.76951627 
1 0:1.7928429 8:1 2:0.43645792 3:-0.29618178 
1 0:-0.5976143 8:1 2:0.43645792 3:-0.27261936 
1 0:-1.1952286 8:1 2:0.43645792 3:-0.27254588 
1 0:-1.7928429 8:1 2:0.43645792 3:-0.27251877 
1 0:0 8:1 2:0.43645792 3:-0.2732804 
1 0:0 8:1 2:0.43645792 3:-0.27279515 
1 0:1.7928429 8:1 2:0.43645792 3:-0.6440862 
1 0:-0.5976143 8:1 2:0.43645792 3:-0.64080644 
1 0:-1.1952286 8:1 2:0.43645792 3:-0.64073593 
1 0:0 8:1 2:0.43645792 3:-0.64106756 
1 0:0 8:1 2:0.43645792 3:-0.64098742 
-1 0:-1.7928429 8:1 2:0.43645792 3:-0.76910741 
-1 0:0 8:1 2:0.43645792 3:-0.7710507 
-1 0:-1.1952286 8:1 2:0.43645792 3:-0.76913213 
1 0:0 8:1 2:0.43645792 3:-0.39298257 
-1 0:1.1952286 8:1 2:0.43645792 3:0.16891094 
-1 0:-1.1952286 8:1 2:0.43645792 3:0.17844025 
-1 0:0 8:1 2:0.43645792 3:0.15124735 
-1 0:0 8:1 2:0.43645792 3:0.17825577 
-1 0:0.5976143 8:1 2:0.43645792 3:0.1772019 
-1 0:-0.5976143 8:1 2:0.43645792 3:0.17839404 
-1 0:0 8:1 2:0.43645792 3:0.17367559 
-1 0:0 8:1 2:0.43645792 3:0.17779797 
0.01371877739546136 0:1.1952286 8:1 2:0.43645792 3:-0.19244065 
1 0:0 8:1 2:0.43645792 3:-0.19446058 
1 0:0 8:1 2:0.43645792 3:-0.19207698 
1 0:1.7928429 8:1 2:0.43645792 3:-0.39446909 
1 0:1.1952286 8:1 2:0.43645792 3:-0.39320465 
1 0:0.5976143 8:1 2:0.43645792 3:-0.39301565 
1 0:1.7928429 8:1 2:0.43645792 3:-0.19721384 
0.2295177474320882 0:-1.1952286 8:1 2:0.43645792 3:-0.19171313 
1 0:-1.7928429 8:1 2:0.43645792 3:-0.19170733 
1 0:0 8:1 2:0.43645792 3:-0.19178457 
0.9734460955889169 0:0 8:1 2:0.43645792 3:-0.19176308 
1 0:-1.7928429 8:1 2:0.43645792 3:-0.39294958 
1 0:0 8:1 2:0.43645792 3:-0.39370933 
1 0:0 8:1 2:0.43645792 3:-0.39307711 
1 0:-0.5976143 8:1 2:0.43645792 3:-0.39294958 
1 0:-1.1952286 8:1 2:0.43645792 3:-0.39294958 
1 0:0 8:1 2:0.43645792 3:-0.39297123 
1 0:1.7928429 8:1 2:0.43645792 3:-0.19721384 
0.3510846834177851 0:1.1952286 8:1 2:0.43645792 3:-0.19244065 
0.01117767391299587 0:-1.1952286 8:1 2:0.43645792 3:-0.19171313 
1 0:-1.7928429 8:1 2:0.43645792 3:-0.19170733 
1 0:0 8:1 2:0.43645792 3:-0.19446058 
1 0:0 8:1 2:0.43645792 3:-0.19207698 
1 0:0 8:1 2:0.43645792 3:-0.19178457 
1 0:1.1952286 8:1 2:0.43645792 3:-0.68945973 
1 0:0.5976143 8:1 2:0.43645792 3:-0.68507674 
1 0:-0.5976143 8:1 2:0.43645792 3:-0.68331094 
1 0:0 8:1 2:0.43645792 3:-0.69095366 
1 0:0 8:1 2:0.43645792 3:-0.68629753 
1 0:0 8:1 2:0.43645792 3:-0.6841938 
0.7204556286024349 0:0 8:1 2:0.43645792 3:-0.19176308 
1 0:1.7928429 8:1 2:0.43645792 3:-0.69885426 
1 0:-1.1952286 8:1 2:0.43645792 3:-0.68313524 
1 0:-1.7928429 8:1 2:0.43645792 3:-0.68305297 
1 0:0 8:1 2:0.43645792 3:-0.6837799 
-1 0:1.1952286 6:1 2:0.43645792 3:0.31889847 
-1 0:-1.1952286 6:1 2:0.43645792 3:0.34613792 
-0.001093814228543713 0:0 6:1 2:0.43645792 3:0.34534662 
-0.08330920320222485 0:1.7928429 6:1 2:0.43645792 3:0.2324327 
-1 0:-1.1952286 6:1 2:0.43645792 3:0.34613792 
-1 0:0 6:1 2:0.43645792 3:0.34471645 
-0.6319318213206466 0:0 6:1 2:0.43645792 3:0.34534662 
-1 0:-0.5976143 6:1 2:0.43645792 3:0.17839404 
-1 0:-1.1952286 6:1 2:0.43645792 3:0.17844025 
-1 0:0.5976143 6:1 2:0.43645792 3:0.34350691 
-1 0:-0.5976143 6:1 2:0.43645792 3:0.34592582 
-1 0:0 6:1 2:0.43645792 3:0.28933203 
-1 0:0 6:1 2:0.43645792 3:0.33251811 
-1 0:0 6:1 2:0.43645792 3:0.34471645 
-1 0:1.1952286 6:1 2:0.43645792 3:0.31889847 
-1 0:0.5976143 6:1 2:0.43645792 3:0.34350691 
-1 0:-0.5976143 6:1 2:0.43645792 3:0.34592582 
-1 0:0 6:1 2:0.43645792 3:0.28933203 
-1 0:0 6:1 2:0.43645792 3:0.33251811 
-1 0:1.1952286 6:1 2:0.43645792 3:0.16891094 
-1 0:0.5976143 6:1 2:0.43645792 3:0.1772019 
-1 0:-1.7928429 6:1 2:0.43645792 3:0.17845253 
-1 0:0 6:1 2:0.43645792 3:0.15124735 
-1 0:0 6:1 2:0.43645792 3:0.17367559 
-0.1254253782109494 0:1.1952286 6:1 2:0.43645792 3:-0.19244065 
-1 0:0.5976143 6:1 2:0.43645792 3:-0.19184339 
-1 0:0 6:1 2:0.43645792 3:0.17779797 
-1 0:0 6:1 2:0.43645792 3:0.17825577 
-0.8577415241970119 0:0 6:1 2:0.43645792 3:-0.19176308 
-1 0:1.7928429 9:1 2:0.43645792 3:1.0999172 
1 0:0 9:1 2:0.43645792 3:1.2052723 
-1 0:-1.1952286 9:1 2:0.43645792 3:1.310627 
-1 0:-1.7928429 9:1 2:0.43645792 3:1.310627 
-1 0:0 9:1 2:0.43645792 3:1.310627 
1 0:1.7928429 9:1 2:0.43645792 3:1.0999172 
0.9045495304638845 0:-1.1952286 9:1 2:0.43645792 3:1.310627 
1 0:-1.7928429 9:1 2:0.43645792 3:1.310627 
-1 0:1.1952286 9:1 2:0.43645792 3:1.3022547 
-1 0:0.5976143 9:1 2:0.43645792 3:1.3105878 
-1 0:-0.5976143 9:1 2:0.43645792 3:1.310627 
-1 0:0 9:1 2:0.43645792 3:1.2052723 
-1 0:0 9:1 2:0.43645792 3:1.3064409 
-1 0:0 9:1 2:0.43645792 3:1.3106072 
1 0:1.1952286 9:1 2:0.43645792 3:1.3022547 
1 0:0.5976143 9:1 2:0.43645792 3:1.3105878 
1 0:-0.5976143 9:1 2:0.43645792 3:1.310627 
1 0:0 9:1 2:0.43645792 3:1.3106072 
1 0:0 9:1 2:0.43645792 3:1.3064409 
1 0:-1.1952286 1:1 2:0.43645792 3:1.4855578 
-1 0:1.7928429 1:1 2:0.43645792 3:1.4569962 
-1 0:1.7928429 1:1 2:0.43645792 3:1.4271598 
-0.846095091419205 0:-0.5976143 1:1 2:0.43645792 3:1.7435784 
-1 0:-1.1952286 1:1 2:0.43645792 3:1.7435784 
-1 0:-1.7928429 1:1 2:0.43645792 3:1.7435784 
-1 0:-1.1952286 1:1 2:0.43645792 3:1.7435784 
-1 0:-1.1952286 1:1 2:0.43645792 3:1.7435784 
-0.9912327871005673 0:-0.5976143 1:1 2:0.43645792 3:1.7435784 
-1 0:0 1:1 2:0.43645792 3:1.6561552 
-0.3426494212182301 0:1.1952286 1:1 2:0.43645792 3:1.7203244 
-1 0:0 1:1 2:0.43645792 3:1.5853689 
-1 0:1.7928429 1:1 2:0.43645792 3:1.4271598 
-0.3342092775970171 0:1.1952286 1:1 2:0.43645792 3:1.7203244 
-1 0:-1.7928429 1:1 2:0.43645792 3:1.7435784 
-1 0:0 1:1 2:0.43645792 3:1.5853689 
-1 0:1.7928429 1:1 2:0.43645792 3:1.4271598 
-1 0:1.1952286 1:1 2:0.43645792 3:1.7203244 
-1 0:-1.7928429 1:1 2:0.43645792 3:1.7435784 
-1 0:0 1:1 2:0.43645792 3:1.5853689 
-1 0:1.7928429 1:1 2:0.43645792 3:1.4271598 
-0.9902986481552665 0:1.1952286 1:1 2:0.43645792 3:1.7203244 
-1 0:-1.1952286 1:1 2:0.43645792 3:1.7435784 
-1 0:-1.7928429 1:1 2:0.43645792 3:1.7435784 
-1 0:0 1:1 2:0.43645792 3:1.5853689 
-1 0:1.7928429 1:1 2:0.43645792 3:1.3671045 
-1 0:1.1952286 1:1 2:0.43645792 3:1.5943298 
-1 0:-1.1952286 1:1 2:0.43645792 3:1.6062533 
-1 0:-1.7928429 1:1 2:0.43645792 3:1.6062533 
-1 0:0 1:1 2:0.43645792 3:1.4866791 
-1 0:0 1:1 2:0.43645792 3:1.6062533 
1 0:1.7928429 1:1 2:0.43645792 3:1.3064068 
1 0:0 1:1 2:0.43645792 3:1.3959823 
1 0:0 1:1 2:0.43645792 3:1.4821226 
1 0:0 1:1 2:0.43645792 3:1.4854041 
-1 0:0.5976143 1:1 2:0.43645792 3:1.6058526 
-1 0:-0.5976143 1:1 2:0.43645792 3:1.6062533 
-1 0:0 1:1 2:0.43645792 3:1.6002915 
-1 0:0 1:1 2:0.43645792 3:1.6060531 
1 0:1.1952286 1:1 2:0.43645792 3:1.4786877 
1 0:0.5976143 1:1 2:0.43645792 3:1.4852503 
1 0:-0.5976143 1:1 2:0.43645792 3:1.4855578 
1 0:0 1:1 2:0.43645792 3:1.4855578 
1 0:-1.7928429 1:1 2:0.43645792 3:1.4855578 
-1 0:0 4:1 2:1.3496622 3:-1.1925885 
1 0:1.7928429 4:1 2:1.3496622 3:-0.6244055 
1 0:0 7:1 2:1.3496622 3:0.62803032 
1 0:0 5:1 2:1.3496622 3:-0.68503053 
-1 0:0 5:1 2:1.3496622 3:-0.067749531 
1 0:1.1952286 4:1 2:1.3496622 3:-0.61469486 
-1 0:1.7928429 1:1 2:0.43645792 3:1.2686772 
-1 0:-0.5976143 1:1 2:0.43645792 3:1.4964989 
-1 0:-1.1952286 1:1 2:0.43645792 3:1.4965194 
-1 0:-1.7928429 1:1 2:0.43645792 3:1.4965194 
-1 0:0 1:1 2:0.43645792 3:1.4957934 
-1 0:0 1:1 2:0.43645792 3:1.4963417 
-1 0:0.5976143 1:1 2:0.43645792 3:1.4950878 
-1 0:-0.5976143 1:1 2:0.43645792 3:1.4964989 
-1 0:-1.1952286 1:1 2:0.43645792 3:1.4965194 
-1 0:0 1:1 2:0.43645792 3:1.4876571 
-1 0:0 1:1 2:0.43645792 3:1.4957934 
-1 0:0 1:1 2:0.43645792 3:1.4963417 
1 0:0.5976143 1:1 2:0.43645792 3:1.3703065 
1 0:-0.5976143 1:1 2:0.43645792 3:1.371366 
1 0:-1.1952286 1:1 2:0.43645792 3:1.3713814 
1 0:0 1:1 2:0.43645792 3:1.3712566 
1 0:1.7928429 1:1 2:0.43645792 3:1.1202839 
1 0:1.1952286 1:1 2:0.43645792 3:1.2403587 
1 0:-1.1952286 1:1 2:0.43645792 3:1.2548902 
1 0:-1.7928429 1:1 2:0.43645792 3:1.2548902 
1 0:0 1:1 2:0.43645792 3:1.1875872 
1 0:0 1:1 2:0.43645792 3:1.2547947 
1 0:1.7928429 1:1 2:0.43645792 3:0.8409328 
1 0:1.1952286 1:1 2:0.43645792 3:0.88305871 
0.2314996621000672 0:1.7928429 1:1 2:0.43645792 3:0.5732389 
-1 0:1.1952286 1:1 2:0.43645792 3:1.4787944 
-1 0:0.5976143 1:1 2:0.43645792 3:1.4950878 
-1 0:0 1:1 2:0.43645792 3:1.3825983 
-1 0:0 1:1 2:0.43645792 3:1.4876571 
-1 0:1.7928429 1:1 2:0.43645792 3:1.2686772 
-1 0:1.1952286 1:1 2:0.43645792 3:1.4787944 
-1 0:-1.7928429 1:1 2:0.43645792 3:1.4965194 
-1 0:0 1:1 2:0.43645792 3:1.3825983 
1 0:1.7928429 1:1 2:0.43645792 3:1.1991997 
1 0:1.1952286 1:1 2:0.43645792 3:1.3583513 
1 0:-1.7928429 1:1 2:0.43645792 3:1.3713814 
1 0:0 1:1 2:0.43645792 3:1.2852905 
1 0:0 1:1 2:0.43645792 3:1.3648662 
1 0:0 1:1 2:0.43645792 3:1.3708364 
1 0:0.5976143 1:1 2:0.43645792 3:1.2536452 
1 0:-0.5976143 1:1 2:0.43645792 3:1.2548864 
1 0:0 1:1 2:0.43645792 3:1.2476244 
1 0:0 1:1 2:0.43645792 3:1.2542658 
-0.6544147008689051 0:0 1:1 2:0.43645792 3:0.58121273 
-1 0:-0.5976143 1:1 2:0.43645792 3:0.58918639 
1 0:-1.7928429 1:1 2:0.43645792 3:1.2548902 
1 0:0 1:1 2:0.43645792 3:1.1875872 
-1 0:0.5976143 1:1 2:0.43645792 3:1.4950878 
-1 0:-0.5976143 1:1 2:0.43645792 3:1.4964989 
-1 0:-1.1952286 1:1 2:0.43645792 3:1.4965194 
-1 0:0 1:1 2:0.43645792 3:1.4876571 
-1 0:0 1:1 2:0.43645792 3:1.4957934 
-1 0:0.5976143 1:1 2:0.43645792 3:1.4950878 
-1 0:-0.5976143 1:1 2:0.43645792 3:1.4964989 
-1 0:0 1:1 2:0.43645792 3:1.4876571 
-1 0:0 1:1 2:0.43645792 3:1.4957934 
-1 0:1.1952286 1:1 2:0.43645792 3:1.4787944 
-1 0:0.5976143 1:1 2:0.43645792 3:1.4950878 
-1 0:-0.5976143 1:1 2:0.43645792 3:1.4964989 
-1 0:0 1:1 2:0.43645792 3:1.3825983 
-1 0:0 1:1 2:0.43645792 3:1.4876571 
-1 0:0 1:1 2:0.43645792 3:1.4957934 
-1 0:1.1952286 1:1 2:0.43645792 3:1.4787944 
-1 0:0.5976143 1:1 2:0.43645792 3:1.4950878 
-1 0:-0.5976143 1:1 2:0.43645792 3:1.4964989 
-1 0:0 1:1 2:0.43645792 3:1.3825983 
-1 0:0 1:1 2:0.43645792 3:1.4876571 
-1 0:1.7928429 1:1 2:0.43645792 3:1.2686772 
-1 0:1.1952286 1:1 2:0.43645792 3:1.4787944 
-1 0:-1.7928429 1:1 2:0.43645792 3:1.4965194 
-1 0:0 1:1 2:0.43645792 3:1.3825983 
-1 0:0 1:1 2:0.43645792 3:1.4963417 
-1 0:1.7928429 1:1 2:0.43645792 3:1.2686772 
-1 0:1.1952286 1:1 2:0.43645792 3:1.4787944 
-1 0:-1.1952286 1:1 2:0.43645792 3:1.4965194 
-1 0:-1.7928429 1:1 2:0.43645792 3:1.4965194 
-1 0:0 1:1 2:0.43645792 3:1.3825983 
-1 0:0 1:1 2:0.43645792 3:1.4963417 
-1 0:1.7928429 1:1 2:0.43645792 3:1.2686772 
-1 0:-1.1952286 1:1 2:0.43645792 3:1.4965194 
-1 0:-1.7928429 1:1 2:0.43645792 3:1.4965194 
-1 0:0 1:1 2:0.43645792 3:1.4963417 
-1 0:1.7928429 1:1 2:0.43645792 3:1.2686772 
-1 0:-1.1952286 1:1 2:0.43645792 3:1.4965194 
-1 0:-1.7928429 1:1 2:0.43645792 3:1.4965194 
-1 0:0 1:1 2:0.43645792 3:1.4957934 
-1 0:0 1:1 2:0.43645792 3:1.4963417 
1 0:1.7928429 1:1 2:0.43645792 3:1.1991997 
1 0:-0.5976143 1:1 2:0.43645792 3:1.371366 
1 0:-1.1952286 1:1 2:0.43645792 3:1.3713814 
1 0:-1.7928429 1:1 2:0.43645792 3:1.3713814 
1 0:0 1:1 2:0.43645792 3:1.3708364 
1 0:0 1:1 2:0.43645792 3:1.3712566 
1 0:1.7928429 1:1 2:0.43645792 3:1.1202839 
1 0:-0.5976143 1:1 2:0.43645792 3:1.2548864 
1 0:-1.1952286 1:1 2:0.43645792 3:1.2548902 
1 0:1.1952286 1:1 2:0.43645792 3:1.3583513 
1 0:0.5976143 1:1 2:0.43645792 3:1.3703065 
1 0:0 1:1 2:0.43645792 3:1.2852905 
1 0:0 1:1 2:0.43645792 3:1.3648662 
1 0:1.1952286 1:1 2:0.43645792 3:1.2403587 
1 0:0.5976143 1:1 2:0.43645792 3:1.2536452 
1 0:0 1:1 2:0.43645792 3:1.2542658 
1 0:0 1:1 2:0.43645792 3:1.2547947 
1 0:0 1:1 2:0.43645792 3:1.2476244 
-1 0:-1.1952286 7:1 2:0.43645792 3:0.05098104 
-1 0:0.5976143 7:1 2:0.43645792 3:0.71875453 
-1 0:-0.5976143 7:1 2:0.43645792 3:0.72526477 
-1 0:-1.1952286 7:1 2:0.43645792 3:0.72529973 
-1 0:0 7:1 2:0.43645792 3:0.68695196 
-1 0:0 7:1 2:0.43645792 3:0.72200956 
-1 0:0 7:1 2:0.43645792 3:0.72515889 
-1 0:0.5976143 7:1 2:0.43645792 3:0.71875453 
-1 0:-0.5976143 7:1 2:0.43645792 3:0.72526477 
-1 0:-1.1952286 7:1 2:0.43645792 3:0.72529973 
-1 0:0 7:1 2:0.43645792 3:0.68695196 
-1 0:0 7:1 2:0.43645792 3:0.72200956 
-1 0:0 7:1 2:0.43645792 3:0.72515889 
1 0:0.5976143 7:1 2:0.43645792 3:0.71875453 
1 0:-0.5976143 7:1 2:0.43645792 3:0.72526477 
1 0:-1.1952286 7:1 2:0.43645792 3:0.72529973 
1 0:0 7:1 2:0.43645792 3:0.68695196 
1 0:0 7:1 2:0.43645792 3:0.72200956 
1 0:0 7:1 2:0.43645792 3:0.72515889 
-1 0:1.7928429 7:1 2:0.43645792 3:0.46997466 
-1 0:1.1952286 7:1 2:0.43645792 3:0.64860419 
-1 0:-1.7928429 7:1 2:0.43645792 3:0.72531115 
-1 0:0 7:1 2:0.43645792 3:0.59764291 
-1 0:1.7928429 7:1 2:0.43645792 3:0.46997466 
-1 0:1.1952286 7:1 2:0.43645792 3:0.64860419 
-1 0:-1.7928429 7:1 2:0.43645792 3:0.72531115 
-1 0:0 7:1 2:0.43645792 3:0.59764291 
1 0:1.7928429 7:1 2:0.43645792 3:0.46997466 
1 0:1.1952286 7:1 2:0.43645792 3:0.64860419 
1 0:-1.7928429 7:1 2:0.43645792 3:0.72531115 
1 0:0 7:1 2:0.43645792 3:0.59764291 
-0.5733728166134684 0:-1.1952286 7:1 2:0.43645792 3:0.19097038 
-1 0:0 7:1 2:0.43645792 3:0.050097161 
-1 0:0 7:1 2:0.43645792 3:0.050813778 
-1 0:0.5976143 7:1 2:0.43645792 3:0.050667999 
-1 0:-0.5976143 7:1 2:0.43645792 3:0.050959556 
-1 0:0 7:1 2:0.43645792 3:0.05088607 
-1 0:0 7:1 2:0.43645792 3:0.044889884 
-0.9709054512079096 0:-1.1952286 7:1 2:0.43645792 3:0.19097038 
-1 0:1.7928429 7:1 2:0.43645792 3:0.46997466 
-1 0:0 7:1 2:0.43645792 3:0.59764291 
-1 0:0 7:1 2:0.43645792 3:0.68695196 
-1 0:0 7:1 2:0.43645792 3:0.72200956 
-1 0:0 7:1 2:0.43645792 3:0.72515889 
-1 0:1.7928429 7:1 2:0.43645792 3:0.46997466 
-1 0:-1.1952286 7:1 2:0.43645792 3:0.72529973 
-1 0:-1.7928429 7:1 2:0.43645792 3:0.72531115 
-1 0:0 7:1 2:0.43645792 3:0.72515889 
1 0:1.7928429 7:1 2:0.43645792 3:0.46997466 
1 0:-1.1952286 7:1 2:0.43645792 3:0.72529973 
1 0:-1.7928429 7:1 2:0.43645792 3:0.72531115 
1 0:0 7:1 2:0.43645792 3:0.72515889 
-1 0:1.1952286 7:1 2:0.43645792 3:0.64860419 
-1 0:0.5976143 7:1 2:0.43645792 3:0.71875453 
-1 0:-0.5976143 7:1 2:0.43645792 3:0.72526477 
-1 0:-1.1952286 7:1 2:0.43645792 3:0.72529973 
-1 0:-1.7928429 7:1 2:0.43645792 3:0.72531115 
-1 0:1.1952286 7:1 2:0.43645792 3:0.64860419 
-1 0:0.5976143 7:1 2:0.43645792 3:0.71875453 
-1 0:-0.5976143 7:1 2:0.43645792 3:0.72526477 
-1 0:0 7:1 2:0.43645792 3:0.59764291 
-1 0:0 7:1 2:0.43645792 3:0.68695196 
-1 0:0 7:1 2:0.43645792 3:0.72200956 
1 0:1.1952286 7:1 2:0.43645792 3:0.64860419 
1 0:0.5976143 7:1 2:0.43645792 3:0.71875453 
1 0:-0.5976143 7:1 2:0.43645792 3:0.72526477 
1 0:0 7:1 2:0.43645792 3:0.59764291 
1 0:0 7:1 2:0.43645792 3:0.68695196 
1 0:0 7:1 2:0.43645792 3:0.72200956 
-1 0:0 5:1 2:0.43645792 3:-0.78943175 
-1 0:-1.1952286 5:1 2:0.43645792 3:0.23452271 
-0.1055029590676282 0:-1.7928429 5:1 2:0.43645792 3:0.23461938 
-1 0:0 5:1 2:0.43645792 3:0.233706 
1 0:1.7928429 5:1 2:0.43645792 3:-0.70426767 
1 0:1.1952286 5:1 2:0.43645792 3:-0.69119901 
1 0:-1.1952286 5:1 2:0.43645792 3:-0.68460914 
1 0:-1.7928429 5:1 2:0.43645792 3:-0.68459464 
1 0:0 5:1 2:0.43645792 3:-0.69443112 
1 0:0 5:1 2:0.43645792 3:-0.68790407 
1 0:0 5:1 2:0.43645792 3:-0.68550248 
-1 0:-1.1952286 5:1 2:0.43645792 3:-0.786071 
-1 0:-1.7928429 5:1 2:0.43645792 3:-0.78603443 
-1 0:0 5:1 2:0.43645792 3:-0.79449223 
-1 0:1.1952286 5:1 2:0.43645792 3:0.21555103 
-1 0:0.5976143 5:1 2:0.43645792 3:0.23203424 
-1 0:-0.5976143 5:1 2:0.43645792 3:0.23430395 
-0.7751083555839832 0:0 5:1 2:0.43645792 3:0.22503687 
-1 0:0 5:1 2:0.43645792 3:0.2331691 
1 0:0.5976143 5:1 2:0.43645792 3:-0.68629616 
1 0:-0.5976143 5:1 2:0.43645792 3:-0.68470879 
1 0:0 5:1 2:0.43645792 3:-0.68503053 
-1 0:1.7928429 5:1 2:0.43645792 3:-0.80295003 
-1 0:1.1952286 5:1 2:0.43645792 3:-0.7927925 
-1 0:0.5976143 5:1 2:0.43645792 3:-0.78828394 
-1 0:-0.5976143 5:1 2:0.43645792 3:-0.78623673 
-1 0:0 5:1 2:0.43645792 3:-0.78726033 
1 0:-1.7928429 5:1 2:0.43645792 3:-0.50574585 
-1 0:1.1952286 5:1 2:0.43645792 3:0.31889847 
-1 0:-1.1952286 5:1 2:0.43645792 3:0.34613792 
-1 0:-1.7928429 5:1 2:0.43645792 3:0.34623135 
-1 0:0 5:1 2:0.43645792 3:0.28933203 
-0.4859137977588747 0:0 5:1 2:0.43645792 3:0.34534662 
-1 0:1.1952286 5:1 2:0.43645792 3:0.1821657 
-1 0:-1.1952286 5:1 2:0.43645792 3:0.19097038 
-1 0:0.5976143 5:1 2:0.43645792 3:0.34350691 
-1 0:-0.5976143 5:1 2:0.43645792 3:0.34592582 
-1 0:0 5:1 2:0.43645792 3:0.33251811 
-1 0:0 5:1 2:0.43645792 3:0.34471645 
-1 0:0.5976143 5:1 2:0.43645792 3:0.18961337 
-1 0:-0.5976143 5:1 2:0.43645792 3:0.19084063 
1 0:-0.5976143 5:1 2:0.43645792 3:-0.50575881 
1 0:-1.1952286 5:1 2:0.43645792 3:-0.50574585 
1 0:1.7928429 5:1 2:0.43645792 3:-0.50763356 
1 0:1.1952286 5:1 2:0.43645792 3:-0.50624304 
1 0:0.5976143 5:1 2:0.43645792 3:-0.50591346 
1 0:0 5:1 2:0.43645792 3:-0.50599445 
1 0:0 5:1 2:0.43645792 3:-0.50583613 
1 0:0 5:1 2:0.43645792 3:-0.50668975 
1 0:-1.1952286 5:1 2:0.43645792 3:-0.68313524 
-1 0:1.1952286 5:1 2:0.43645792 3:0.16891094 
-1 0:0.5976143 5:1 2:0.43645792 3:0.1772019 
-1 0:1.1952286 5:1 2:0.43645792 3:0.16891094 
-1 0:-1.1952286 5:1 2:0.43645792 3:0.17844025 
1 0:1.1952286 5:1 2:0.43645792 3:-0.68945973 
1 0:0.5976143 5:1 2:0.43645792 3:-0.68507674 
1 0:-0.5976143 5:1 2:0.43645792 3:-0.68331094 
1 0:0 5:1 2:0.43645792 3:-0.6837799 
-1 0:-1.1952286 5:1 2:0.43645792 3:0.17844025 
-1 0:0.5976143 5:1 2:0.43645792 3:0.1772019 
1 0:1.7928429 5:1 2:0.43645792 3:-0.69885426 
1 0:0 5:1 2:0.43645792 3:-0.69095366 
1 0:0 5:1 2:0.43645792 3:-0.68629753 
1 0:0 5:1 2:0.43645792 3:-0.6841938 
1 0:-1.7928429 5:1 2:0.43645792 3:-0.68305297 
-1 0:-0.5976143 4:1 2:0.43645792 3:-0.68331094 
-1 0:-1.1952286 4:1 2:0.43645792 3:-0.68313524 
-1 0:1.1952286 4:1 2:0.43645792 3:-0.68945973 
-1 0:0.5976143 4:1 2:0.43645792 3:-0.68507674 
-1 0:-1.7928429 4:1 2:0.43645792 3:-0.68305297 
-1 0:0 4:1 2:0.43645792 3:-0.69095366 
-1 0:0 4:1 2:0.43645792 3:-0.68629753 
-1 0:1.7928429 4:1 2:0.43645792 3:-0.90409195 
-1 0:1.1952286 4:1 2:0.43645792 3:-0.90349298 
-1 0:0.5976143 4:1 2:0.43645792 3:-0.90326851 
-1 0:-0.5976143 4:1 2:0.43645792 3:-0.90316877 
-1 0:-1.1952286 4:1 2:0.43645792 3:-0.90316681 
-1 0:0 4:1 2:0.43645792 3:-0.90321864 
-1 0:0 4:1 2:0.43645792 3:-0.9031923 
0.6344345198936518 0:0 4:1 2:0.43645792 3:-1.2212887 
-1 0:0 4:1 2:0.43645792 3:-0.6841938 
-1 0:0 4:1 2:0.43645792 3:-0.6837799 
-1 0:-1.7928429 4:1 2:0.43645792 3:-0.90316681 
-1 0:0 4:1 2:0.43645792 3:-0.90362938 
-1 0:0 4:1 2:0.43645792 3:-0.90332989 
1 0:0 4:1 2:0.43645792 3:-1.2230265 
1 0:0 4:1 2:0.43645792 3:-1.2230265 
-1 0:1.7928429 4:1 2:0.43645792 3:-0.69885426 
-1 0:0.5976143 4:1 2:0.43645792 3:-0.68507674 
-1 0:-0.5976143 4:1 2:0.43645792 3:-0.68331094 
-1 0:0 4:1 2:0.43645792 3:-0.69095366 
-1 0:0 4:1 2:0.43645792 3:-0.68629753 
-1 0:1.1952286 4:1 2:0.43645792 3:-0.90349298 
-1 0:0.5976143 4:1 2:0.43645792 3:-0.90326851 
-1 0:-1.1952286 4:1 2:0.43645792 3:-0.68313524 
-1 0:-1.7928429 4:1 2:0.43645792 3:-0.68305297 
-1 0:0 4:1 2:0.43645792 3:-0.6841938 
-1 0:0 4:1 2:0.43645792 3:-0.6837799 
-1 0:1.7928429 4:1 2:0.43645792 3:-0.90409195 
-1 0:-0.5976143 4:1 2:0.43645792 3:-0.90316877 
-1 0:-1.1952286 4:1 2:0.43645792 3:-0.90316681 
-1 0:-1.7928429 4:1 2:0.43645792 3:-0.90316681 
-1 0:0 4:1 2:0.43645792 3:-0.90321864 
-1 0:0 4:1 2:0.43645792 3:-0.9031923 
-1 0:0 4:1 2:0.43645792 3:-0.90362938 
-1 0:0 4:1 2:0.43645792 3:-0.90332989 
0.3363538507898756 0:0 4:1 2:0.43645792 3:-1.2212887 
0.5487497075593989 0:1.7928429 8:1 2:-1.3362327 3:-1.2404381 
1 0:0 8:1 2:-1.3362327 3:-1.2403044 
0.1627305279246862 0:-0.5976143 8:1 2:-1.3362327 3:-1.2401706 
1 0:0 8:1 2:-1.3362327 3:-1.2403044 
1 0:0 8:1 2:-1.3362327 3:-1.2403044 
1 0:0 8:1 2:-1.3362327 3:-1.2403044 
1 0:0 8:1 2:-1.3362327 3:-1.2403044 
1 0:0 8:1 2:-1.3362327 3:-1.2403044 
1 0:0 8:1 2:-1.3362327 3:-1.2403044 
1 0:0 8:1 2:-1.3362327 3:-1.2403044 
1 0:-0.5976143 8:1 2:-1.3362327 3:-1.2401706 
1 0:-0.5976143 8:1 2:-1.3362327 3:-1.2401706 
0.9475441537738314 0:-0.5976143 8:1 2:-1.3362327 3:-1.2401706 
0.4925454263695801 0:0 8:1 2:-1.3362327 3:-1.2401874 
2.533047005152467e-08 0:-0.5976143 8:1 2:-1.3362327 3:-1.2401706 
1 0:0 8:1 2:-1.3362327 3:-1.2403044 
0.8083643722820786 0:1.1952286 8:1 2:-1.3362327 3:-1.2402042 
1 0:0 8:1 2:-1.3362327 3:-1.2401874 
1 0:0 8:1 2:-1.3362327 3:-1.2403044 
1 0:-1.7928429 7:1 2:1.3496622 3:0.34637048 
0.3625912070615196 0:0.5976143 7:1 2:1.3496622 3:1.1583565 
-1 0:0 7:1 2:1.3496622 3:0.96734377 
-1 0:0 7:1 2:1.3496622 3:0.96734377 
-1 0:1.7928429 7:1 2:1.3496622 3:0.77131357 
-0.232767539105408 0:-1.7928429 7:1 2:1.3496622 3:1.163374 
-1 0:1.7928429 7:1 2:1.3496622 3:0.77131357 
-1 0:1.7928429 7:1 2:1.3496622 3:0.77131357 
-1 0:0 7:1 2:1.3496622 3:0.96734377 
-1 0:1.7928429 7:1 2:1.3496622 3:0.63237605 
-1 0:1.1952286 7:1 2:1.3496622 3:0.83158763 
-1 0:0.5976143 7:1 2:1.3496622 3:0.8622741 
-1 0:-1.7928429 7:1 2:1.3496622 3:0.86461031 
-1 0:0 7:1 2:1.3496622 3:0.74849318 
-1 0:0 7:1 2:1.3496622 3:0.84805344 
1 0:1.7928429 7:1 2:1.3496622 3:0.52385594 
1 0:1.1952286 7:1 2:1.3496622 3:0.61695609 
1 0:-1.7928429 7:1 2:1.3496622 3:0.62868078 
1 0:0 7:1 2:1.3496622 3:0.57626836 
1 0:1.7928429 7:1 2:1.3496622 3:0.31619143 
1 0:1.1952286 7:1 2:1.3496622 3:0.34060413 
-1 0:-0.5976143 7:1 2:1.3496622 3:0.86435984 
-1 0:-1.1952286 7:1 2:1.3496622 3:0.86451909 
-1 0:0 7:1 2:1.3496622 3:0.86331705 
-1 0:0 7:1 2:1.3496622 3:0.86395678 
1 0:0.5976143 7:1 2:1.3496622 3:0.62708813 
1 0:-0.5976143 7:1 2:1.3496622 3:0.6284315 
1 0:-1.1952286 7:1 2:1.3496622 3:0.6285899 
1 0:0 7:1 2:1.3496622 3:0.62277308 
1 0:0 7:1 2:1.3496622 3:0.6277599 
1 0:0 7:1 2:1.3496622 3:0.62803032 
1 0:0.5976143 7:1 2:1.3496622 3:0.34499778 
1 0:-1.1952286 7:1 2:1.3496622 3:0.6285899 
1 0:-1.7928429 7:1 2:1.3496622 3:0.62868078 
0.6483494076375064 0:0.5976143 7:1 2:1.3496622 3:1.1583565 
0.9965029269392275 0:0.5976143 7:1 2:1.3496622 3:1.1583565 
1 0:0.5976143 7:1 2:1.3496622 3:0.8622741 
1 0:-0.5976143 7:1 2:1.3496622 3:0.86435984 
1 0:0 7:1 2:1.3496622 3:0.84805344 
1 0:0 7:1 2:1.3496622 3:0.86331705 
1 0:0.5976143 7:1 2:1.3496622 3:0.62708813 
1 0:-0.5976143 7:1 2:1.3496622 3:0.6284315 
-1 0:1.7928429 7:1 2:1.3496622 3:0.77131357 
-0.004438331487043682 0:-1.7928429 7:1 2:1.3496622 3:1.163374 
-1 0:0 7:1 2:1.3496622 3:0.96734377 
-1 0:1.7928429 7:1 2:1.3496622 3:0.77131357 
-1 0:-1.7928429 7:1 2:1.3496622 3:1.163374 
-1 0:0 7:1 2:1.3496622 3:0.96734377 
-1 0:1.7928429 7:1 2:1.3496622 3:0.77131357 
-1 0:-1.7928429 7:1 2:1.3496622 3:1.163374 
-1 0:0 7:1 2:1.3496622 3:0.96734377 
1 0:1.7928429 7:1 2:1.3496622 3:0.63237605 
1 0:1.1952286 7:1 2:1.3496622 3:0.83158763 
1 0:-1.1952286 7:1 2:1.3496622 3:0.86451909 
1 0:-1.7928429 7:1 2:1.3496622 3:0.86461031 
1 0:0 7:1 2:1.3496622 3:0.74849318 
1 0:0 7:1 2:1.3496622 3:0.86395678 
1 0:1.7928429 7:1 2:1.3496622 3:0.52385594 
1 0:1.1952286 7:1 2:1.3496622 3:0.61695609 
1 0:0 7:1 2:1.3496622 3:0.62277308 
1 0:0 7:1 2:1.3496622 3:0.6277599 
1 0:0 7:1 2:1.3496622 3:0.57626836 
-1 0:1.7928429 6:1 2:-1.3362327 3:-1.164079 
-1 0:-1.1952286 6:1 2:-1.3362327 3:-1.1634443 
-1 0:-1.7928429 6:1 2:-1.3362327 3:-1.1634443 
-1 0:1.7928429 6:1 2:-1.3362327 3:-1.164079 
-1 0:1.1952286 6:1 2:-1.3362327 3:-1.1636439 
-0.8814497827964057 0:0.5976143 6:1 2:-1.3362327 3:-1.1635044 
-1 0:1.1952286 6:1 2:-1.3362327 3:-1.1636439 
-1 0:0.5976143 6:1 2:-1.3362327 3:-1.1635044 
-0.9911987396334772 0:-0.5976143 6:1 2:-1.3362327 3:-1.1634443 
-1 0:-0.5976143 6:1 2:-1.3362327 3:-1.1634443 
-1 0:-1.1952286 6:1 2:-1.3362327 3:-1.1634443 
-1 0:-1.7928429 6:1 2:-1.3362327 3:-1.1634443 
-1 0:1.7928429 6:1 2:-1.3362327 3:-1.164079 
-0.7810468321375572 0:-0.5976143 6:1 2:-1.3362327 3:-1.1634443 
-1 0:-1.1952286 6:1 2:-1.3362327 3:-1.1634443 
-1 0:1.1952286 6:1 2:-1.3362327 3:-1.1636439 
-0.853900676189601 0:0.5976143 6:1 2:-1.3362327 3:-1.1635044 
-1 0:-1.7928429 6:1 2:-1.3362327 3:-1.1634443 
-1 0:-1.1952286 1:1 2:-1.3362327 3:-1.0230693 
-1 0:-1.1952286 1:1 2:-1.3362327 3:-1.0230693 
-1 0:1.1952286 1:1 2:-1.3362327 3:-1.0238386 
-1 0:1.1952286 1:1 2:-1.3362327 3:-1.0238386 
-1 0:1.1952286 1:1 2:-1.3362327 3:-1.0238386 
-0.8738111173594737 0:1.1952286 1:1 2:-1.3362327 3:-1.0238386 
-1 0:-1.1952286 1:1 2:-1.3362327 3:-1.0230693 
-0.8672674397652835 0:-1.1952286 1:1 2:-1.3362327 3:-1.0230693 
-0.190691046768576 0:1.1952286 9:1 2:-1.3362327 3:-1.1636439 
-1 0:-1.7928429 9:1 2:-1.3362327 3:-1.1634443 
-1 0:1.7928429 9:1 2:-1.3362327 3:-1.164079 
-1 0:-1.7928429 9:1 2:-1.3362327 3:-1.1634443 
1 0:0.5976143 1:1 2:-1.3362327 3:-1.2401773 
-0.06717657585226637 0:1.7928429 1:1 2:-1.3362327 3:-1.0249384 
-0.007236176953682975 0:-1.7928429 1:1 2:-1.3362327 3:-1.0230693 
-0.0150804128045597 0:0 1:1 2:-1.3362327 3:-1.0231599 
-0.4022629903853486 0:-1.1952286 1:1 2:-1.3362327 3:-1.0230693 
-0.3525124727937883 0:0 1:1 2:-1.3362327 3:-1.0231599 
-0.01534116539760972 0:-0.5976143 1:1 2:-1.3362327 3:-1.0230802 
-0.3385095698683822 0:-1.1952286 1:1 2:-1.3362327 3:-1.0230693 
-0.9737501429912088 0:1.1952286 1:1 2:-1.3362327 3:-1.0238386 
-3.165318623503984e-05 0:1.7928429 1:1 2:-1.3362327 3:-1.0249384 
-0.5993175069734465 0:1.1952286 1:1 2:-1.3362327 3:-1.0238386 
-0.01112936054624085 0:-1.7928429 1:1 2:-1.3362327 3:-1.0230693 
-0.6275034959385724 0:0 1:1 2:-1.3362327 3:-1.0231599 
-0.01259712656723744 0:0 1:1 2:-1.3362327 3:-1.0231599 
1 0:0.5976143 1:1 2:-1.3362327 3:-1.2401773 
1 0:-0.5976143 1:1 2:-1.3362327 3:-1.2401706 
1 0:0 1:1 2:-1.3362327 3:-1.2401874 
1 0:0 1:1 2:-1.3362327 3:-1.2401739 
1 0:-1.1952286 1:1 2:-1.3362327 3:-1.2401706 
1 0:-1.7928429 1:1 2:-1.3362327 3:-1.2401706 
1 0:0 1:1 2:-1.3362327 3:-1.2403044 
-0.02596331413041007 0:-1.7928429 1:1 2:-1.3362327 3:-1.0230693 
1 0:1.7928429 1:1 2:-1.3362327 3:-1.2404381 
1 0:1.1952286 1:1 2:-1.3362327 3:-1.2402042 
1 0:-1.1952286 1:1 2:-1.3362327 3:-1.2401706 
1 0:-1.7928429 1:1 2:-1.3362327 3:-1.2401706 
1 0:0 1:1 2:-1.3362327 3:-1.2403044 
1 0:0 1:1 2:-1.3362327 3:-1.2401706 
1 0:1.7928429 1:1 2:-1.3362327 3:-1.2404381 
1 0:1.1952286 1:1 2:-1.3362327 3:-1.2402042 
1 0:0 1:1 2:-1.3362327 3:-1.2401874 
1 0:0 1:1 2:-1.3362327 3:-1.2401739 
1 0:-0.5976143 1:1 2:-1.3362327 3:-1.2401706 
-0.001849946928342527 0:1.7928429 1:1 2:-1.3362327 3:-1.0249384 
-0.4198834436671774 0:-1.7928429 1:1 2:-1.3362327 3:-1.0230693 
-0.3298262729676092 0:0 1:1 2:-1.3362327 3:-1.0231599 
-0.315937882969886 0:1.7928429 1:1 2:-1.3362327 3:-1.0249384 
-1 0:-1.7928429 1:1 2:-1.3362327 3:-1.0230693 
-1 0:0 1:1 2:-1.3362327 3:-1.0231599 
-1 0:1.7928429 1:1 2:-1.3362327 3:-1.0249384 
-0.9101848160950178 0:-1.7928429 1:1 2:-1.3362327 3:-1.0230693 
-1 0:0 1:1 2:-1.3362327 3:-1.0231599 
-1 0:0 1:1 2:-1.3362327 3:-1.0231599 
-0.1740421462192618 0:1.1952286 1:1 2:-1.3362327 3:-1.0238386 
-1 0:1.7928429 1:1 2:-1.3362327 3:-1.0249384 
-1 0:-1.7928429 1:1 2:-1.3362327 3:-1.0230693 
-1 0:1.7928429 1:1 2:-1.3362327 3:-1.0249384 
-0.98607971952768 0:1.1952286 1:1 2:-1.3362327 3:-1.0238386 
-1 0:-1.7928429 1:1 2:-1.3362327 3:-1.0230693 
-1 0:1.7928429 1:1 2:-1.3362327 3:-1.0249384 
-1 0:1.1952286 1:1 2:-1.3362327 3:-1.0238386 
-1 0:0 1:1 2:-1.3362327 3:-1.0231599 
-0.9982727933255725 0:-0.5976143 1:1 2:-1.3362327 3:-1.0230802 
-0.9007461797487181 0:-1.1952286 1:1 2:-1.3362327 3:-1.0230693 
-1 0:0 1:1 2:-1.3362327 3:-1.0231599 
-0.3213582528578965 0:-0.5976143 1:1 2:-1.3362327 3:-1.0230802 
-1 0:-1.1952286 1:1 2:-1.3362327 3:-1.0230693 
1 0:-0.5976143 5:1 2:1.3496622 3:-0.68470879 
1 0:-1.1952286 5:1 2:1.3496622 3:-0.68460914 
-1 0:-1.1952286 5:1 2:1.3496622 3:-0.20186937 
-0.7495841430174003 0:0 5:1 2:1.3496622 3:-0.20191848 
1 0:1.7928429 5:1 2:1.3496622 3:-0.70426767 
1 0:0 5:1 2:1.3496622 3:-0.69443112 
1 0:0 5:1 2:1.3496622 3:-0.68790407 
-0.9144095392976799 0:1.1952286 5:1 2:1.3496622 3:-0.20259622 
-1 0:0.5976143 5:1 2:1.3496622 3:-0.20199793 
-1 0:-0.5976143 5:1 2:1.3496622 3:-0.20188182 
1 0:1.1952286 5:1 2:1.3496622 3:-0.69119901 
1 0:0 5:1 2:1.3496622 3:-0.68550248 
1 0:-1.7928429 5:1 2:1.3496622 3:-0.68459464 
-0.0783162364453467 0:1.7928429 7:1 2:-1.3362327 3:-1.164079 
-0.8981849830371005 0:1.1952286 7:1 2:-1.3362327 3:-1.1636439 
-0.4888164145023435 0:-1.1952286 7:1 2:-1.3362327 3:-1.1634443 
-0.1879578901259027 0:-1.7928429 7:1 2:-1.3362327 3:-1.1634443 
-1 0:1.1952286 7:1 2:-1.3362327 3:-1.1636439 
-0.9929064598263708 0:1.1952286 7:1 2:-1.3362327 3:-1.1636439 
-1 0:1.7928429 9:1 2:-1.3362327 3:-1.164079 
1 0:-0.5976143 5:1 2:1.3496622 3:0.6362778 
1 0:-1.1952286 5:1 2:1.3496622 3:0.63630201 
1 0:0 5:1 2:1.3496622 3:0.63591975 
1 0:0 5:1 2:1.3496622 3:0.63619766 
0.3858494491195267 0:1.7928429 5:1 2:1.3496622 3:0.54649834 
1 0:1.1952286 5:1 2:1.3496622 3:0.62731182 
1 0:0.5976143 5:1 2:1.3496622 3:0.63556187 
1 0:-1.7928429 5:1 2:1.3496622 3:0.63630201 
1 0:0 5:1 2:1.3496622 3:0.59140017 
1 0:0 5:1 2:1.3496622 3:0.63180692 
0.7995017068265401 0:1.7928429 5:1 2:1.3496622 3:0.54649834 
1 0:1.1952286 5:1 2:1.3496622 3:0.62731182 
1 0:0 5:1 2:1.3496622 3:0.63180692 
1 0:0 5:1 2:1.3496622 3:0.63591975 
1 0:0 5:1 2:1.3496622 3:0.63619766 
-1 0:0.5976143 5:1 2:1.3496622 3:0.050667999 
-1 0:-0.5976143 5:1 2:1.3496622 3:0.050959556 
-1 0:-1.1952286 5:1 2:1.3496622 3:0.05098104 
-1 0:0 5:1 2:1.3496622 3:0.050097161 
-1 0:0 5:1 2:1.3496622 3:0.050813778 
1 0:0.5976143 5:1 2:1.3496622 3:0.63556187 
1 0:-0.5976143 5:1 2:1.3496622 3:0.6362778 
1 0:-1.1952286 5:1 2:1.3496622 3:0.63630201 
1 0:-1.7928429 5:1 2:1.3496622 3:0.63630201 
1 0:0 5:1 2:1.3496622 3:0.59140017 
-1 0:1.1952286 5:1 2:1.3496622 3:0.049213283 
-1 0:0 5:1 2:1.3496622 3:0.044889884 
-1 0:0 5:1 2:1.3496622 3:0.05088607 
1 0:1.7928429 5:1 2:1.3496622 3:-0.6244055 
-1 0:0.5976143 5:1 2:1.3496622 3:1.1583565 
-1 0:-0.5976143 5:1 2:1.3496622 3:1.1631489 
-1 0:0 5:1 2:1.3496622 3:1.1124238 
-1 0:0 5:1 2:1.3496622 3:1.1607527 
-1 0:0.5976143 5:1 2:1.3496622 3:1.1583565 
-1 0:-0.5976143 5:1 2:1.3496622 3:1.1631489 
-1 0:0 5:1 2:1.3496622 3:1.1124238 
-1 0:0 5:1 2:1.3496622 3:1.1607527 
1 0:1.1952286 5:1 2:1.3496622 3:0.83158763 
1 0:0.5976143 5:1 2:1.3496622 3:0.8622741 
1 0:-0.5976143 5:1 2:1.3496622 3:0.86435984 
1 0:0 5:1 2:1.3496622 3:0.74849318 
1 0:0 5:1 2:1.3496622 3:0.84805344 
1 0:0 5:1 2:1.3496622 3:0.86331705 
1 0:1.1952286 5:1 2:1.3496622 3:0.61695609 
1 0:0.5976143 5:1 2:1.3496622 3:0.62708813 
1 0:-0.5976143 5:1 2:1.3496622 3:0.6284315 
-1 0:1.7928429 5:1 2:1.3496622 3:0.77131357 
-1 0:1.1952286 5:1 2:1.3496622 3:1.0615554 
-1 0:-1.1952286 5:1 2:1.3496622 3:1.1632921 
-1 0:-1.7928429 5:1 2:1.3496622 3:1.163374 
-1 0:0 5:1 2:1.3496622 3:0.96734377 
-1 0:0 5:1 2:1.3496622 3:1.1627864 
-1 0:1.7928429 5:1 2:1.3496622 3:0.77131357 
-1 0:1.1952286 5:1 2:1.3496622 3:1.0615554 
-1 0:-1.1952286 5:1 2:1.3496622 3:1.1632921 
-1 0:-1.7928429 5:1 2:1.3496622 3:1.163374 
-1 0:0 5:1 2:1.3496622 3:0.96734377 
-1 0:0 5:1 2:1.3496622 3:1.1627864 
1 0:1.7928429 5:1 2:1.3496622 3:0.63237605 
1 0:-1.1952286 5:1 2:1.3496622 3:0.86451909 
1 0:-1.7928429 5:1 2:1.3496622 3:0.86461031 
1 0:0 5:1 2:1.3496622 3:0.86395678 
1 0:-1.1952286 5:1 2:1.3496622 3:0.6285899 
0.01771936351184197 0:-1.7928429 5:1 2:1.3496622 3:0.62868078 
1 0:0 5:1 2:1.3496622 3:0.6277599 
1 0:0 5:1 2:1.3496622 3:0.62803032 
-1 0:-0.5976143 5:1 2:1.3496622 3:-0.066690719 
-1 0:-1.1952286 5:1 2:1.3496622 3:-0.066194219 
1 0:0 5:1 2:1.3496622 3:0.57626836 
1 0:0 5:1 2:1.3496622 3:0.62277308 
-1 0:1.1952286 5:1 2:1.3496622 3:-0.077727263 
-1 0:0.5976143 5:1 2:1.3496622 3:-0.070803038 
-1 0:0 5:1 2:1.3496622 3:-0.080632945 
-1 0:0 5:1 2:1.3496622 3:-0.071960741 
-1 0:0 5:1 2:1.3496622 3:-0.068746793 
-1 0:0 4:1 2:1.3496622 3:-1.193064 
-1 0:0 4:1 2:1.3496622 3:-1.192691 
1 0:-0.5976143 4:1 2:1.3496622 3:-0.61041306 
1 0:-1.1952286 4:1 2:1.3496622 3:-0.61034972 
1 0:1.7928429 4:1 2:1.3496622 3:-0.78142911 
1 0:1.1952286 4:1 2:1.3496622 3:-0.7806847 
1 0:0.5976143 4:1 2:1.3496622 3:-0.78040491 
1 0:1.7928429 4:1 2:1.3496622 3:-0.6244055 
1 0:0.5976143 4:1 2:1.3496622 3:-0.61125244 
1 0:-1.7928429 4:1 2:1.3496622 3:-0.61033514 
1 0:0 4:1 2:1.3496622 3:-0.61737036 
1 0:0 4:1 2:1.3496622 3:-0.61252233 
1 0:0 4:1 2:1.3496622 3:-0.61083275 
1 0:0 4:1 2:1.3496622 3:-0.61064127 
1 0:-0.5976143 4:1 2:1.3496622 3:-0.78027422 
1 0:-1.1952286 4:1 2:1.3496622 3:-0.7802697 
1 0:0 4:1 2:1.3496622 3:-0.78033952 
1 0:0 4:1 2:1.3496622 3:-0.78031207 
-1 0:-1.7928429 4:1 2:1.3496622 3:-1.1924899 
-1 0:0 4:1 2:1.3496622 3:-1.1945311 
1 0:-1.7928429 4:1 2:1.3496622 3:-0.7802697 
1 0:0 4:1 2:1.3496622 3:-0.7808494 
1 0:0 4:1 2:1.3496622 3:-0.7804772 
-1 0:1.7928429 4:1 2:1.3496622 3:-1.1965723 
-1 0:1.1952286 4:1 2:1.3496622 3:-1.1936381 
-1 0:0.5976143 4:1 2:1.3496622 3:-1.1928743 
-1 0:-0.5976143 4:1 2:1.3496622 3:-1.1925076 
-1 0:-1.1952286 4:1 2:1.3496622 3:-1.1924899 
-1 0:0 4:1 2:1.3496622 3:-1.1925885 
1 0:1.1952286 4:1 2:1.3496622 3:-0.61469486 
1 0:0.5976143 4:1 2:1.3496622 3:-0.61125244 
1 0:0 4:1 2:1.3496622 3:-0.61737036 
1 0:0 4:1 2:1.3496622 3:-0.61252233 
1 0:1.1952286 4:1 2:1.3496622 3:-0.7806847 
1 0:0.5976143 4:1 2:1.3496622 3:-0.78040491 
1 0:0 4:1 2:1.3496622 3:-0.7808494 
1 0:0 4:1 2:1.3496622 3:-0.7804772 
-1 0:1.1952286 4:1 2:1.3496622 3:-1.1936381 
-1 0:0.5976143 4:1 2:1.3496622 3:-1.1928743 
-1 0:-1.7928429 4:1 2:1.3496622 3:-1.1924899 
-1 0:0 4:1 2:1.3496622 3:-1.1945311 
-1 0:0 4:1 2:1.3496622 3:-1.193064 
1 0:-0.5976143 4:1 2:1.3496622 3:-0.61041306 
1 0:-1.1952286 4:1 2:1.3496622 3:-0.61034972 
1 0:-1.7928429 4:1 2:1.3496622 3:-0.61033514 
1 0:0 4:1 2:1.3496622 3:-0.61083275 
1 0:0 4:1 2:1.3496622 3:-0.61064127 
1 0:1.7928429 4:1 2:1.3496622 3:-0.78142911 
1 0:-0.5976143 4:1 2:1.3496622 3:-0.78027422 
1 0:-1.1952286 4:1 2:1.3496622 3:-0.7802697 
1 0:-1.7928429 4:1 2:1.3496622 3:-0.7802697 
1 0:0 4:1 2:1.3496622 3:-0.78033952 
1 0:0 4:1 2:1.3496622 3:-0.78031207 
-1 0:1.7928429 4:1 2:1.3496622 3:-1.1965723 
-1 0:-0.5976143 4:1 2:1.3496622 3:-1.1925076 
-1 0:-1.1952286 4:1 2:1.3496622 3:-1.1924899 
-1 0:0 4:1 2:1.3496622 3:-1.192691 
-1 0:0.5976143 8:1 2:1.3496622 3:0.050667999 
-1 0:-0.5976143 8:1 2:1.3496622 3:0.050959556 
-1 0:-1.1952286 8:1 2:1.3496622 3:0.05098104 
-0.9232805249237644 0:0 8:1 2:1.3496622 3:0.050813778 
-1 0:1.1952286 8:1 2:1.3496622 3:0.049213283 
-1 0:0 8:1 2:1.3496622 3:0.05088607 
1 0:1.7928429 8:1 2:1.3496622 3:-0.6244055 
0.6290453595494842 0:1.1952286 8:1 2:1.3496622 3:-0.61469486 
0.659781185565871 0:-1.1952286 8:1 2:1.3496622 3:-0.61034972 
1 0:-1.7928429 8:1 2:1.3496622 3:-0.61033514 
1 0:0 8:1 2:1.3496622 3:-0.61737036 
1 0:0 8:1 2:1.3496622 3:-0.61252233 
1 0:0 8:1 2:1.3496622 3:-0.61083275 
0.6425638710113637 0:0 8:1 2:1.3496622 3:-0.61064127 
-0.5863457162211804 0:-1.1952286 8:1 2:1.3496622 3:0.34613792 
-0.01370489835214022 0:1.1952286 8:1 2:1.3496622 3:0.31889847 
-0.6994534658692358 0:-1.7928429 7:1 2:-1.3362327 3:-1.1634443 
-0.1588388692998589 0:1.7928429 7:1 2:-1.3362327 3:-1.164079 
-1 0:-1.7928429 7:1 2:-1.3362327 3:-1.1634443 
-1 0:1.7928429 7:1 2:-1.3362327 3:-1.164079 
-0.7450941456414434 0:-1.1952286 7:1 2:-1.3362327 3:-1.1634443 
-1 0:-1.7928429 7:1 2:-1.3362327 3:-1.1634443 
-1 0:1.7928429 7:1 2:-1.3362327 3:-1.164079 
-1 0:-1.7928429 7:1 2:-1.3362327 3:-1.1634443 
-1 0:1.7928429 7:1 2:-1.3362327 3:-1.164079 
-0.3579657276624125 0:1.1952286 7:1 2:-1.3362327 3:-1.1636439 
-0.6353889506212427 0:-1.1952286 7:1 2:-1.3362327 3:-1.1634443 
-1 0:-1.7928429 7:1 2:-1.3362327 3:-1.1634443 
-1 0:1.7928429 7:1 2:-1.3362327 3:-1.164079 
-0.03246245813639395 0:-1.7928429 5:1 2:-1.3362327 3:-1.1634443 
-0.9892296521975902 0:1.1952286 8:1 2:1.3496622 3:0.31889847 
-1 0:1.1952286 8:1 2:1.3496622 3:0.16891094 
-1 0:-1.1952286 8:1 2:1.3496622 3:0.17844025 
-0.3685900623255712 0:-1.1952286 8:1 2:1.3496622 3:0.34613792 
-1 0:0.5976143 8:1 2:1.3496622 3:0.1772019 
-1 0:-0.5976143 8:1 2:1.3496622 3:0.17839404 
-1 0:0 8:1 2:1.3496622 3:0.17367559 
-1 0:0 8:1 2:1.3496622 3:0.17779797 
-1 0:0 8:1 2:1.3496622 3:0.15124735 
-1 0:0 8:1 2:1.3496622 3:0.17825577 
-1 0:1.7928429 6:1 2:1.3496622 3:0.63237605 
-1 0:1.1952286 6:1 2:1.3496622 3:0.83158763 
-1 0:-1.1952286 6:1 2:1.3496622 3:0.86451909 
-1 0:-1.7928429 6:1 2:1.3496622 3:0.86461031 
-1 0:0 6:1 2:1.3496622 3:0.86395678 
1 0:1.7928429 6:1 2:1.3496622 3:0.63237605 
-1 0:0.5976143 6:1 2:1.3496622 3:0.8622741 
-1 0:-0.5976143 6:1 2:1.3496622 3:0.86435984 
-1 0:0 6:1 2:1.3496622 3:0.74849318 
-1 0:0 6:1 2:1.3496622 3:0.84805344 
-1 0:0 6:1 2:1.3496622 3:0.86331705 
1 0:1.1952286 6:1 2:1.3496622 3:0.83158763 
1 0:0.5976143 6:1 2:1.3496622 3:0.8622741 
1 0:-0.5976143 6:1 2:1.3496622 3:0.86435984 
1 0:0 6:1 2:1.3496622 3:0.74849318 
1 0:0 6:1 2:1.3496622 3:0.84805344 
1 0:1.1952286 6:1 2:1.3496622 3:0.62731182 
1 0:0.5976143 6:1 2:1.3496622 3:0.63556187 
1 0:-1.7928429 6:1 2:1.3496622 3:0.63630201 
1 0:0 6:1 2:1.3496622 3:0.59140017 
1 0:0 6:1 2:1.3496622 3:0.63180692 
0.173108179522191 0:1.7928429 6:1 2:1.3496622 3:-0.10050998 
1 0:-1.1952286 6:1 2:1.3496622 3:0.86451909 
1 0:-1.7928429 6:1 2:1.3496622 3:0.86461031 
1 0:0 6:1 2:1.3496622 3:0.86331705 
1 0:0 6:1 2:1.3496622 3:0.86395678 
1 0:1.7928429 6:1 2:1.3496622 3:0.54649834 
1 0:-0.5976143 6:1 2:1.3496622 3:0.6362778 
1 0:-1.1952286 6:1 2:1.3496622 3:0.63630201 
1 0:0 6:1 2:1.3496622 3:0.63591975 
1 0:0 6:1 2:1.3496622 3:0.63619766 
0.2968543847874667 0:-1.7928429 6:1 2:1.3496622 3:-0.099994552 
1 0:0 5:1 2:-1.3362327 3:-1.2401739 
1 0:0 5:1 2:-1.3362327 3:-1.2403044 
1 0:0 5:1 2:-1.3362327 3:-1.2401874 
1 0:0 5:1 2:-1.3362327 3:-1.2403044 
1 0:0 5:1 2:-1.3362327 3:-1.2401874 
0.332569889932348 0:0 5:1 2:-1.3362327 3:-1.2401739 
-0.6544152090151032 0:1.7928429 5:1 2:-1.3362327 3:-1.164079 
-0.4717868044314193 0:-1.7928429 5:1 2:-1.3362327 3:-1.1634443 
-1 0:1.7928429 5:1 2:-1.3362327 3:-1.164079 
-1 0:-1.7928429 5:1 2:-1.3362327 3:-1.1634443 
-0.5153844043129578 0:1.1952286 4:1 2:-1.3362327 3:-1.2402042 
-0.2211112305319067 0:-1.7928429 4:1 2:-1.3362327 3:-1.2401706 
-0.1367054300834574 0:1.1952286 4:1 2:-1.3362327 3:-1.2402042 
-0.1643342735039321 0:1.7928429 4:1 2:-1.3362327 3:-1.2404381 
-0.6255863790034141 0:-1.7928429 4:1 2:-1.3362327 3:-1.2401706 
-0.308873385967398 0:0 9:1 2:1.3496622 3:1.6616767 
-0.0468795311862021 0:1.7928429 9:1 2:1.3496622 3:1.4704688 
-0.006114647079551973 0:-1.7928429 9:1 2:1.3496622 3:1.8528843 
-0.4050010945952606 0:1.7928429 9:1 2:1.3496622 3:1.4704688 
-0.3650841707345135 0:0 9:1 2:1.3496622 3:1.6616767 
-1 0:0 1:1 2:1.3496622 3:1.8541324 
1 0:1.1952286 1:1 2:1.3496622 3:2.0171916 
1 0:0.5976143 1:1 2:1.3496622 3:2.0899298 
1 0:-0.5976143 1:1 2:1.3496622 3:2.0900849 
-1 0:0 1:1 2:1.3496622 3:1.8254479 
0.2024803383347801 0:0 1:1 2:1.3496622 3:2.0536382 
1 0:0 1:1 2:1.3496622 3:2.0900072 
1 0:1.1952286 1:1 2:1.3496622 3:2.0171397 
1 0:0.5976143 1:1 2:1.3496622 3:2.0898616 
1 0:-1.1952286 1:1 2:1.3496622 3:2.0900849 
1 0:-1.7928429 1:1 2:1.3496622 3:2.0900849 
1 0:0 1:1 2:1.3496622 3:2.0900849 
1 0:-0.5976143 1:1 2:1.3496622 3:2.0900171 
0.5106170801714558 0:-1.1952286 1:1 2:1.3496622 3:2.0900171 
1 0:0 1:1 2:1.3496622 3:2.0899393 
1 0:0 1:1 2:1.3496622 3:2.0900171 
1 0:-0.5976143 1:1 2:1.3496622 3:2.0900171 
0.7140533932091531 0:-1.7928429 1:1 2:1.3496622 3:2.0900171 
1 0:0 1:1 2:1.3496622 3:2.0899393 
1 0:0 1:1 2:1.3496622 3:2.0900171 
1 0:-0.5976143 1:1 2:1.3496622 3:2.0900171 
1 0:0 1:1 2:1.3496622 3:2.0899393 
1 0:0 1:1 2:1.3496622 3:2.0900171 
1 0:-0.5976143 1:1 2:1.3496622 3:2.0900171 
0.4732898843050083 0:-1.1952286 1:1 2:1.3496622 3:2.0900171 
1 0:0 1:1 2:1.3496622 3:2.0899393 
1 0:0 1:1 2:1.3496622 3:2.0900171 
-1 0:-0.5976143 1:1 2:1.3496622 3:1.8667409 
-1 0:0 1:1 2:1.3496622 3:1.8250848 
1 0:1.1952286 1:1 2:1.3496622 3:2.0171397 
1 0:0.5976143 1:1 2:1.3496622 3:2.0898616 
-1 0:0 1:1 2:1.3496622 3:1.8250848 
1 0:1.1952286 1:1 2:1.3496622 3:2.0171397 
1 0:0.5976143 1:1 2:1.3496622 3:2.0898616 
1 0:-1.7928429 1:1 2:1.3496622 3:2.0900171 
-1 0:0 1:1 2:1.3496622 3:1.8250848 
1 0:1.1952286 1:1 2:1.3496622 3:2.0171397 
1 0:0.5976143 1:1 2:1.3496622 3:2.0898616 
0.6843505716805134 0:-1.7928429 1:1 2:1.3496622 3:2.0900171 
-1 0:0 1:1 2:1.3496622 3:1.8250848 
0.104163558946571 0:1.1952286 1:1 2:1.3496622 3:1.9143568 
-1 0:0 1:1 2:1.3496622 3:1.7355805 
-1 0:1.7928429 1:1 2:1.3496622 3:1.4807593 
-1 0:-1.1952286 1:1 2:1.3496622 3:1.8667409 
-1 0:-1.7928429 1:1 2:1.3496622 3:1.8667409 
-1 0:0 1:1 2:1.3496622 3:1.6737499 
