svm_type epsilon_svr
kernel_type rbf
gamma 0.1
nr_class 2
total_sv 901
rho -0.305135
SV
-1 0:-1.1952286 1:1 2:1.3496622 3:0.50678917 
1 0:1.7928429 1:1 2:1.3496622 3:1.4791132 
1 0:-1.7928429 1:1 2:1.3496622 3:1.4791132 
-1 0:1.7928429 1:1 2:1.3496622 3:0.50678917 
-1 0:1.1952286 1:1 2:1.3496622 3:0.50678917 
-1 0:0 1:1 2:1.3496622 3:0.50678917 
0.4581386502552646 0:0 1:1 2:1.3496622 3:1.1668086 
-1 0:0.5976143 1:1 2:1.3496622 3:0.50678917 
-1 0:-0.5976143 1:1 2:1.3496622 3:0.50678917 
-0.324110527658081 0:0 1:1 2:1.3496622 3:0.50678917 
-0.4269342679052024 0:0 1:1 2:1.3496622 3:0.50678917 
-1 0:-1.7928429 1:1 2:1.3496622 3:0.50678917 
1 0:0 1:1 2:1.3496622 3:1.1668086 
0.8917239515459953 0:1.7928429 1:1 2:1.3496622 3:1.6433075 
0.8917239477149298 0:-1.7928429 1:1 2:1.3496622 3:1.6433075 
0.6201459877100344 0:0 1:1 2:1.3496622 3:1.4791132 
1 0:0 1:1 2:1.3496622 3:1.4791132 
0.7894793872673306 0:1.7928429 1:1 2:1.3496622 3:1.1668086 
1 0:0 1:1 2:1.3496622 3:1.1668086 
1 0:1.7928429 6:1 2:-0.44988739 3:0.38507312 
1 0:1.7928429 1:1 2:1.3496622 3:1.4791132 
1 0:-1.7928429 1:1 2:1.3496622 3:1.4791132 
1 0:0 1:1 2:1.3496622 3:1.4791132 
0.6107055695757952 0:0 1:1 2:1.3496622 3:1.4791132 
0.7894793608676458 0:-1.7928429 1:1 2:1.3496622 3:1.1668086 
1 0:0 1:1 2:1.3496622 3:1.1668086 
-1 0:0 7:1 2:-0.44988739 3:-0.88991738 
1 0:0 7:1 2:-0.44988739 3:-0.70215919 
0.9452157730796141 0:0 1:1 2:1.3496622 3:1.1668086 
1 0:1.7928429 5:1 2:0.43645792 3:-0.55331213 
-1 0:0 7:1 2:0.43645792 3:-0.78069687 
-1 0:0 5:1 2:0.43645792 3:-0.99001963 
-1 0:1.7928429 7:1 2:0.43645792 3:0.35211531 
1 0:0 8:1 2:0.43645792 3:0.2068286 
-1 0:0 4:1 2:-0.44988739 3:-0.81752301 
-1 0:1.7928429 4:1 2:-0.44988739 3:-0.42067847 
-1 0:-0.5976143 4:1 2:-0.44988739 3:-0.42067847 
-1 0:-1.1952286 4:1 2:-0.44988739 3:-0.42067847 
-1 0:0 4:1 2:-0.44988739 3:-0.42067847 
-1 0:0 4:1 2:-0.44988739 3:-0.42067847 
-1 0:1.1952286 4:1 2:-0.44988739 3:-0.42067847 
-1 0:0.5976143 4:1 2:-0.44988739 3:-0.42067847 
-1 0:-1.7928429 4:1 2:-0.44988739 3:-0.42067847 
-1 0:0 4:1 2:-0.44988739 3:-0.42067847 
-1 0:0 4:1 2:-0.44988739 3:-0.42067847 
-1 0:1.7928429 4:1 2:-0.44988739 3:-0.81752301 
-1 0:1.1952286 4:1 2:-0.44988739 3:-0.81752301 
-1 0:-1.1952286 4:1 2:-0.44988739 3:-0.81752301 
-1 0:-1.7928429 4:1 2:-0.44988739 3:-0.81752301 
-1 0:0.5976143 4:1 2:-0.44988739 3:-0.81752301 
-1 0:-0.5976143 4:1 2:-0.44988739 3:-0.81752301 
-1 0:0 4:1 2:-0.44988739 3:-0.81752301 
-1 0:0 4:1 2:-0.44988739 3:-0.81752301 
-1 0:0 4:1 2:-0.44988739 3:-0.81752301 
-0.3281178540503406 0:0 6:1 2:-0.44988739 3:0.043574541 
1 0:1.7928429 6:1 2:-0.44988739 3:-0.20646179 
1 0:-0.5976143 6:1 2:-0.44988739 3:-0.20646179 
1 0:-1.1952286 6:1 2:-0.44988739 3:-0.20646179 
1 0:0 6:1 2:-0.44988739 3:-0.20646179 
1 0:0 6:1 2:-0.44988739 3:-0.20646179 
1 0:-1.7928429 6:1 2:-0.44988739 3:0.38507312 
-0.5568291489648535 0:1.7928429 6:1 2:-0.44988739 3:0.043574541 
-0.5568291476644552 0:-1.7928429 6:1 2:-0.44988739 3:0.043574541 
-0.7534649192915847 0:0 6:1 2:-0.44988739 3:0.043574541 
-0.9999887480930507 0:0 6:1 2:-0.44988739 3:0.043574541 
1 0:1.1952286 6:1 2:-0.44988739 3:-0.20646179 
1 0:0.5976143 6:1 2:-0.44988739 3:-0.20646179 
1 0:-1.7928429 6:1 2:-0.44988739 3:-0.20646179 
1 0:0 6:1 2:-0.44988739 3:-0.20646179 
1 0:0 6:1 2:-0.44988739 3:-0.20646179 
-1 0:1.7928429 6:1 2:-0.44988739 3:-0.42878598 
-1 0:-0.5976143 6:1 2:-0.44988739 3:-0.42878598 
-1 0:-1.1952286 6:1 2:-0.44988739 3:-0.42878598 
-1 0:0 6:1 2:-0.44988739 3:-0.42878598 
-1 0:0 6:1 2:-0.44988739 3:-0.42878598 
-1 0:1.1952286 6:1 2:-0.44988739 3:-0.42878598 
-1 0:0.5976143 6:1 2:-0.44988739 3:-0.42878598 
-1 0:-1.7928429 6:1 2:-0.44988739 3:-0.42878598 
-1 0:0 6:1 2:-0.44988739 3:-0.42878598 
-1 0:0 6:1 2:-0.44988739 3:-0.42878598 
1 0:1.7928429 9:1 2:-0.44988739 3:0.87290179 
1 0:1.1952286 9:1 2:-0.44988739 3:0.87290179 
1 0:-1.1952286 9:1 2:-0.44988739 3:0.87290179 
1 0:-1.7928429 9:1 2:-0.44988739 3:0.87290179 
0.1081726470468852 0:1.7928429 9:1 2:-0.44988739 3:0.45577291 
0.1081726614410076 0:-1.7928429 9:1 2:-0.44988739 3:0.45577291 
0.002567773088720052 0:0 6:1 2:-1.3362327 3:-1.2683079 
1 0:-1.7928429 1:1 2:-0.44988739 3:0.77080021 
1 0:1.7928429 1:1 2:-0.44988739 3:0.77080021 
1 0:-1.7928429 1:1 2:-0.44988739 3:0.77080021 
1 0:1.7928429 1:1 2:-0.44988739 3:0.77080021 
1 0:-1.7928429 1:1 2:-0.44988739 3:0.77080021 
1 0:1.7928429 1:1 2:-0.44988739 3:0.77080021 
-1 0:1.7928429 1:1 2:-0.44988739 3:0.45110277 
-1 0:1.1952286 1:1 2:-0.44988739 3:0.45110277 
-1 0:-1.1952286 1:1 2:-0.44988739 3:0.45110277 
-1 0:-1.7928429 1:1 2:-0.44988739 3:0.45110277 
-1 0:0.5976143 1:1 2:-0.44988739 3:0.16237307 
-1 0:-0.5976143 1:1 2:-0.44988739 3:0.16237307 
-1 0:0 1:1 2:-0.44988739 3:0.16237307 
-1 0:0 1:1 2:-0.44988739 3:0.16237307 
-1 0:1.7928429 1:1 2:-0.44988739 3:-0.067473534 
-1 0:-1.7928429 1:1 2:-0.44988739 3:-0.067473534 
-1 0:1.7928429 1:1 2:-0.44988739 3:0.16237307 
-1 0:1.1952286 1:1 2:-0.44988739 3:0.16237307 
-1 0:-1.1952286 1:1 2:-0.44988739 3:0.16237307 
-1 0:-1.7928429 1:1 2:-0.44988739 3:0.16237307 
-1 0:0 1:1 2:-0.44988739 3:0.16237307 
-1 0:0 1:1 2:-0.44988739 3:0.16237307 
0.4309628442676812 0:0 4:1 2:-1.3362327 3:-1.2683079 
1 0:1.7928429 1:1 2:-0.44988739 3:0.77080021 
1 0:-1.7928429 1:1 2:-0.44988739 3:0.77080021 
1 0:1.7928429 1:1 2:-0.44988739 3:0.77080021 
0.8192033829771814 0:1.1952286 1:1 2:-0.44988739 3:0.77080021 
0.8192030919348384 0:-1.1952286 1:1 2:-0.44988739 3:0.77080021 
1 0:-1.7928429 1:1 2:-0.44988739 3:0.77080021 
1 0:1.7928429 1:1 2:-0.44988739 3:0.77080021 
1 0:1.1952286 1:1 2:-0.44988739 3:0.77080021 
1 0:-1.1952286 1:1 2:-0.44988739 3:0.77080021 
1 0:-1.7928429 1:1 2:-0.44988739 3:0.77080021 
1 0:1.7928429 1:1 2:-0.44988739 3:0.77080021 
1 0:1.1952286 1:1 2:-0.44988739 3:0.77080021 
1 0:-1.1952286 1:1 2:-0.44988739 3:0.77080021 
1 0:-1.7928429 1:1 2:-0.44988739 3:0.77080021 
1 0:1.7928429 1:1 2:-0.44988739 3:0.77080021 
1 0:1.1952286 1:1 2:-0.44988739 3:0.77080021 
1 0:-1.1952286 1:1 2:-0.44988739 3:0.77080021 
1 0:-1.7928429 1:1 2:-0.44988739 3:0.77080021 
0.9526801934845456 0:0 1:1 2:-0.44988739 3:0.77080021 
1 0:0 1:1 2:-0.44988739 3:0.77080021 
1 0:0 1:1 2:-0.44988739 3:0.77080021 
1 0:0 1:1 2:-0.44988739 3:0.77080021 
-1 0:1.7928429 1:1 2:-0.44988739 3:0.45110277 
-0.421091255880714 0:1.1952286 1:1 2:-0.44988739 3:0.45110277 
-0.4210909761017461 0:-1.1952286 1:1 2:-0.44988739 3:0.45110277 
1 0:0 1:1 2:-0.44988739 3:0.77080021 
0.5395797884100875 0:0 1:1 2:-0.44988739 3:0.77080021 
-1 0:-1.7928429 1:1 2:-0.44988739 3:0.45110277 
1 0:1.7928429 8:1 2:-0.44988739 3:0.21645422 
1 0:0.5976143 8:1 2:-0.44988739 3:0.21645422 
1 0:-0.5976143 8:1 2:-0.44988739 3:0.21645422 
1 0:1.1952286 8:1 2:-0.44988739 3:0.21645422 
1 0:-1.1952286 8:1 2:-0.44988739 3:0.21645422 
1 0:-1.7928429 8:1 2:-0.44988739 3:0.21645422 
1 0:0 8:1 2:-0.44988739 3:0.21645422 
1 0:0 8:1 2:-0.44988739 3:0.21645422 
1 0:0 8:1 2:-0.44988739 3:0.21645422 
1 0:0 8:1 2:-0.44988739 3:0.21645422 
1 0:-1.1952286 4:1 2:-0.44988739 3:-0.50334954 
1 0:-1.7928429 4:1 2:-0.44988739 3:-0.50334954 
1 0:0 4:1 2:-0.44988739 3:-0.50334954 
1 0:0 4:1 2:-0.44988739 3:-0.50334954 
-1 0:1.7928429 4:1 2:-0.44988739 3:-0.81752301 
1 0:1.7928429 4:1 2:-0.44988739 3:-0.50334954 
1 0:1.1952286 4:1 2:-0.44988739 3:-0.50334954 
1 0:0.5976143 4:1 2:-0.44988739 3:-0.50334954 
1 0:-0.5976143 4:1 2:-0.44988739 3:-0.50334954 
1 0:0 4:1 2:-0.44988739 3:-0.50334954 
1 0:0 4:1 2:-0.44988739 3:-0.50334954 
-1 0:1.1952286 4:1 2:-0.44988739 3:-0.81752301 
-1 0:0.5976143 4:1 2:-0.44988739 3:-0.81752301 
-1 0:-1.7928429 4:1 2:-0.44988739 3:-0.81752301 
-1 0:0 4:1 2:-0.44988739 3:-0.81752301 
-1 0:0 4:1 2:-0.44988739 3:-0.81752301 
-1 0:1.7928429 4:1 2:-0.44988739 3:-1.0787059 
-1 0:-0.5976143 4:1 2:-0.44988739 3:-0.81752301 
-1 0:-1.1952286 4:1 2:-0.44988739 3:-0.81752301 
-1 0:0 4:1 2:-0.44988739 3:-0.81752301 
-1 0:0 4:1 2:-0.44988739 3:-0.81752301 
-1 0:-1.7928429 4:1 2:-0.44988739 3:-1.0787059 
1 0:1.7928429 8:1 2:-0.44988739 3:0.84185353 
1 0:-1.7928429 8:1 2:-0.44988739 3:0.84185353 
1 0:1.7928429 8:1 2:-0.44988739 3:0.62665856 
1 0:-1.7928429 8:1 2:-0.44988739 3:0.62665856 
-1 0:1.1952286 8:1 2:-0.44988739 3:0.043574541 
-1 0:0.5976143 8:1 2:-0.44988739 3:0.043574541 
-1 0:-1.7928429 8:1 2:-0.44988739 3:0.043574541 
-1 0:0 8:1 2:-0.44988739 3:0.043574541 
-1 0:0 8:1 2:-0.44988739 3:0.043574541 
0.0160663845508362 0:0 8:1 2:-0.44988739 3:-0.20646179 
-1 0:1.7928429 8:1 2:-0.44988739 3:0.043574541 
-1 0:-0.5976143 8:1 2:-0.44988739 3:0.043574541 
-1 0:-1.1952286 8:1 2:-0.44988739 3:0.043574541 
-1 0:0 8:1 2:-0.44988739 3:0.043574541 
-1 0:0 8:1 2:-0.44988739 3:0.043574541 
0.9875445490446775 0:0 8:1 2:-0.44988739 3:-0.20646179 
-1 0:-1.1952286 7:1 2:-0.44988739 3:-0.88991738 
-1 0:1.7928429 7:1 2:-0.44988739 3:-0.22766828 
-1 0:1.1952286 7:1 2:-0.44988739 3:-0.22766828 
-1 0:-1.1952286 7:1 2:-0.44988739 3:-0.22766828 
-1 0:0 7:1 2:-0.44988739 3:-0.22766828 
-1 0:0 7:1 2:-0.44988739 3:-0.22766828 
-1 0:1.1952286 7:1 2:-0.44988739 3:-0.4188778 
-1 0:0.5976143 7:1 2:-0.44988739 3:-0.4188778 
-1 0:-1.7928429 7:1 2:-0.44988739 3:-0.4188778 
-1 0:0 7:1 2:-0.44988739 3:-0.4188778 
-1 0:0 7:1 2:-0.44988739 3:-0.4188778 
1 0:1.7928429 7:1 2:-0.44988739 3:-0.72033651 
1 0:-0.5976143 7:1 2:-0.44988739 3:-0.72033651 
1 0:-1.1952286 7:1 2:-0.44988739 3:-0.72033651 
1 0:0 7:1 2:-0.44988739 3:-0.72033651 
-1 0:1.7928429 7:1 2:-0.44988739 3:-0.86623534 
-1 0:1.1952286 7:1 2:-0.44988739 3:-0.86623534 
-1 0:-1.1952286 7:1 2:-0.44988739 3:-0.86623534 
-1 0:-1.7928429 7:1 2:-0.44988739 3:-0.86623534 
-1 0:0 7:1 2:-0.44988739 3:-0.86623534 
-1 0:0 7:1 2:-0.44988739 3:-0.86623534 
-1 0:0.5976143 7:1 2:-0.44988739 3:-0.88991738 
-1 0:-0.5976143 7:1 2:-0.44988739 3:-0.88991738 
-1 0:0 7:1 2:-0.44988739 3:-0.88991738 
-1 0:0.5976143 7:1 2:-0.44988739 3:-0.22766828 
-1 0:-0.5976143 7:1 2:-0.44988739 3:-0.22766828 
-1 0:-1.7928429 7:1 2:-0.44988739 3:-0.22766828 
-1 0:0 7:1 2:-0.44988739 3:-0.22766828 
-1 0:0 7:1 2:-0.44988739 3:-0.22766828 
-1 0:1.7928429 7:1 2:-0.44988739 3:-0.4188778 
-1 0:-0.5976143 7:1 2:-0.44988739 3:-0.4188778 
-1 0:-1.1952286 7:1 2:-0.44988739 3:-0.4188778 
-1 0:0 7:1 2:-0.44988739 3:-0.4188778 
-1 0:0 7:1 2:-0.44988739 3:-0.4188778 
1 0:1.1952286 7:1 2:-0.44988739 3:-0.72033651 
1 0:0.5976143 7:1 2:-0.44988739 3:-0.72033651 
1 0:-1.7928429 7:1 2:-0.44988739 3:-0.72033651 
1 0:0 7:1 2:-0.44988739 3:-0.72033651 
1 0:0 7:1 2:-0.44988739 3:-0.72033651 
1 0:0 7:1 2:-0.44988739 3:-0.72033651 
-1 0:0.5976143 7:1 2:-0.44988739 3:-0.86623534 
-1 0:-0.5976143 7:1 2:-0.44988739 3:-0.86623534 
-1 0:0 7:1 2:-0.44988739 3:-0.86623534 
-1 0:0 7:1 2:-0.44988739 3:-0.86623534 
-1 0:1.7928429 7:1 2:-0.44988739 3:-0.88991738 
-1 0:1.1952286 7:1 2:-0.44988739 3:-0.88991738 
-1 0:0 7:1 2:-0.44988739 3:-0.88991738 
-1 0:0 7:1 2:-0.44988739 3:-0.88991738 
-1 0:-1.7928429 7:1 2:-0.44988739 3:-0.88991738 
1 0:0 7:1 2:-0.44988739 3:-0.70215919 
1 0:1.7928429 7:1 2:-0.44988739 3:0.41821431 
1 0:-0.5976143 7:1 2:-0.44988739 3:0.41821431 
1 0:-1.1952286 7:1 2:-0.44988739 3:0.41821431 
1 0:1.1952286 7:1 2:-0.44988739 3:0.41821431 
1 0:0.5976143 7:1 2:-0.44988739 3:0.41821431 
1 0:-1.7928429 7:1 2:-0.44988739 3:0.41821431 
0.9028955883914022 0:1.1952286 7:1 2:-0.44988739 3:-0.26553824 
0.9028956407898483 0:-1.1952286 7:1 2:-0.44988739 3:-0.26553824 
1 0:0.5976143 7:1 2:-0.44988739 3:-0.49269699 
1 0:-0.5976143 7:1 2:-0.44988739 3:-0.49269699 
1 0:0 7:1 2:-0.44988739 3:-0.49269699 
1 0:0 7:1 2:-0.44988739 3:-0.49269699 
1 0:1.7928429 7:1 2:-0.44988739 3:-0.49269699 
1 0:1.1952286 7:1 2:-0.44988739 3:-0.49269699 
1 0:-1.1952286 7:1 2:-0.44988739 3:-0.49269699 
1 0:-1.7928429 7:1 2:-0.44988739 3:-0.49269699 
1 0:0 7:1 2:-0.44988739 3:-0.49269699 
1 0:0 7:1 2:-0.44988739 3:-0.49269699 
1 0:0.5976143 7:1 2:-0.44988739 3:-0.70215919 
1 0:-0.5976143 7:1 2:-0.44988739 3:-0.70215919 
1 0:0 7:1 2:-0.44988739 3:-0.70215919 
1 0:1.1952286 7:1 2:-0.44988739 3:-0.70215919 
1 0:-1.1952286 7:1 2:-0.44988739 3:-0.70215919 
1 0:0 7:1 2:-0.44988739 3:-0.70215919 
1 0:1.7928429 7:1 2:-0.44988739 3:-0.20646179 
1 0:1.1952286 7:1 2:-0.44988739 3:-0.20646179 
1 0:0.5976143 7:1 2:-0.44988739 3:-0.20646179 
1 0:-1.7928429 7:1 2:-0.44988739 3:-0.20646179 
1 0:0 7:1 2:-0.44988739 3:-0.20646179 
1 0:0 7:1 2:-0.44988739 3:-0.20646179 
1 0:0 7:1 2:-0.44988739 3:-0.20646179 
-1 0:0.5976143 7:1 2:-0.44988739 3:-0.42878598 
-1 0:-0.5976143 7:1 2:-0.44988739 3:-0.42878598 
-1 0:0 7:1 2:-0.44988739 3:-0.42878598 
-1 0:0 7:1 2:-0.44988739 3:-0.42878598 
-1 0:1.7928429 7:1 2:-0.44988739 3:-0.59501368 
-1 0:-1.7928429 7:1 2:-0.44988739 3:-0.59501368 
1 0:-0.5976143 7:1 2:-0.44988739 3:-0.20646179 
1 0:-1.1952286 7:1 2:-0.44988739 3:-0.20646179 
1 0:0 7:1 2:-0.44988739 3:-0.20646179 
-1 0:1.7928429 7:1 2:-0.44988739 3:-0.42878598 
-1 0:1.1952286 7:1 2:-0.44988739 3:-0.42878598 
-1 0:-1.1952286 7:1 2:-0.44988739 3:-0.42878598 
-1 0:-1.7928429 7:1 2:-0.44988739 3:-0.42878598 
-1 0:0 7:1 2:-0.44988739 3:-0.42878598 
-1 0:0 7:1 2:-0.44988739 3:-0.42878598 
-0.004747889911401981 0:0 5:1 2:-0.44988739 3:-1.1910502 
-1 0:1.7928429 5:1 2:-0.44988739 3:-0.86251043 
-1 0:1.1952286 5:1 2:-0.44988739 3:-0.86251043 
-1 0:-1.1952286 5:1 2:-0.44988739 3:-0.86251043 
-1 0:-1.7928429 5:1 2:-0.44988739 3:-0.86251043 
-1 0:0 5:1 2:-0.44988739 3:-0.86251043 
-1 0:0 5:1 2:-0.44988739 3:-0.86251043 
-1 0:0.5976143 5:1 2:-0.44988739 3:-0.86251043 
-1 0:-0.5976143 5:1 2:-0.44988739 3:-0.86251043 
-1 0:0 5:1 2:-0.44988739 3:-0.86251043 
-1 0:0 5:1 2:-0.44988739 3:-0.86251043 
-1 0:0.5976143 5:1 2:-0.44988739 3:-1.1910502 
-1 0:-1.7928429 5:1 2:-0.44988739 3:-1.1910502 
-0.3074035538110402 0:0 5:1 2:-0.44988739 3:-1.1910502 
-1 0:1.7928429 5:1 2:-0.44988739 3:-1.1910502 
-1 0:1.1952286 5:1 2:-0.44988739 3:-1.1910502 
-1 0:-0.5976143 5:1 2:-0.44988739 3:-1.1910502 
-1 0:-1.1952286 5:1 2:-0.44988739 3:-1.1910502 
-1 0:0 5:1 2:-0.44988739 3:-1.1910502 
1 0:1.1952286 4:1 2:0.43645792 3:-0.20646179 
1 0:0.5976143 4:1 2:0.43645792 3:-0.20646179 
1 0:-1.7928429 4:1 2:0.43645792 3:-0.20646179 
1 0:0 4:1 2:0.43645792 3:-0.20646179 
1 0:0 4:1 2:0.43645792 3:-0.20646179 
1 0:1.7928429 4:1 2:0.43645792 3:-0.37508274 
1 0:-0.5976143 4:1 2:0.43645792 3:-0.37508274 
1 0:-1.1952286 4:1 2:0.43645792 3:-0.37508274 
1 0:0 4:1 2:0.43645792 3:-0.37508274 
1 0:0 4:1 2:0.43645792 3:-0.37508274 
1 0:1.1952286 4:1 2:0.43645792 3:-0.55695359 
1 0:0.5976143 4:1 2:0.43645792 3:-0.55695359 
1 0:1.7928429 4:1 2:0.43645792 3:-0.20646179 
1 0:-0.5976143 4:1 2:0.43645792 3:-0.20646179 
1 0:-1.1952286 4:1 2:0.43645792 3:-0.20646179 
1 0:0 4:1 2:0.43645792 3:-0.20646179 
1 0:0 4:1 2:0.43645792 3:-0.20646179 
1 0:1.1952286 4:1 2:0.43645792 3:-0.37508274 
1 0:0.5976143 4:1 2:0.43645792 3:-0.37508274 
1 0:-1.7928429 4:1 2:0.43645792 3:-0.37508274 
1 0:0 4:1 2:0.43645792 3:-0.37508274 
1 0:0 4:1 2:0.43645792 3:-0.37508274 
1 0:1.7928429 4:1 2:0.43645792 3:-0.55695359 
1 0:-0.5976143 4:1 2:0.43645792 3:-0.55695359 
1 0:-1.1952286 4:1 2:0.43645792 3:-0.55695359 
1 0:0 4:1 2:0.43645792 3:-0.55695359 
1 0:0 4:1 2:0.43645792 3:-0.55695359 
1 0:0 4:1 2:0.43645792 3:-0.55695359 
1 0:-1.7928429 4:1 2:0.43645792 3:-0.55695359 
1 0:0 4:1 2:0.43645792 3:-0.55695359 
-1 0:1.7928429 4:1 2:0.43645792 3:-0.76294933 
-0.0396196350824229 0:1.1952286 4:1 2:0.43645792 3:-0.76294933 
-0.03961963665728958 0:-1.1952286 4:1 2:0.43645792 3:-0.76294933 
-1 0:-1.7928429 4:1 2:0.43645792 3:-0.76294933 
1 0:1.7928429 4:1 2:0.43645792 3:0.33001031 
1 0:1.1952286 4:1 2:0.43645792 3:0.33001031 
1 0:-1.1952286 4:1 2:0.43645792 3:0.33001031 
1 0:-1.7928429 4:1 2:0.43645792 3:0.33001031 
0.7118942461024199 0:0 4:1 2:0.43645792 3:0.33001031 
-1 0:0.5976143 4:1 2:0.43645792 3:0.043574541 
-1 0:-0.5976143 4:1 2:0.43645792 3:0.043574541 
-1 0:0 4:1 2:0.43645792 3:0.043574541 
-1 0:0 4:1 2:0.43645792 3:0.043574541 
-1 0:1.7928429 4:1 2:0.43645792 3:-0.26781321 
-1 0:1.1952286 4:1 2:0.43645792 3:-0.26781321 
1 0:0.5976143 4:1 2:0.43645792 3:0.33001031 
1 0:-0.5976143 4:1 2:0.43645792 3:0.33001031 
-1 0:1.7928429 4:1 2:0.43645792 3:0.043574541 
-1 0:1.1952286 4:1 2:0.43645792 3:0.043574541 
-1 0:-1.1952286 4:1 2:0.43645792 3:0.043574541 
-1 0:-1.7928429 4:1 2:0.43645792 3:0.043574541 
-1 0:0 4:1 2:0.43645792 3:0.043574541 
-1 0:0 4:1 2:0.43645792 3:0.043574541 
-1 0:0.5976143 4:1 2:0.43645792 3:-0.26781321 
-1 0:-0.5976143 4:1 2:0.43645792 3:-0.26781321 
-1 0:0 4:1 2:0.43645792 3:-0.26781321 
-1 0:-1.1952286 4:1 2:0.43645792 3:-0.26781321 
-1 0:-1.7928429 4:1 2:0.43645792 3:-0.26781321 
-1 0:0 4:1 2:0.43645792 3:-0.26781321 
-1 0:0 4:1 2:0.43645792 3:-0.26781321 
-1 0:0 4:1 2:0.43645792 3:-0.26781321 
1 0:1.7928429 4:1 2:0.43645792 3:-0.26326165 
1 0:-0.5976143 4:1 2:0.43645792 3:-0.26326165 
1 0:-1.1952286 4:1 2:0.43645792 3:-0.26326165 
1 0:0 4:1 2:0.43645792 3:-0.26326165 
1 0:1.1952286 4:1 2:0.43645792 3:-0.26326165 
1 0:0.5976143 4:1 2:0.43645792 3:-0.26326165 
1 0:-1.7928429 4:1 2:0.43645792 3:-0.26326165 
1 0:0 4:1 2:0.43645792 3:-0.26326165 
1 0:0 4:1 2:0.43645792 3:-0.26326165 
1 0:0 4:1 2:0.43645792 3:-0.26326165 
-0.2838665042653448 0:0 6:1 2:0.43645792 3:0.90809388 
-0.3712268420660422 0:0 6:1 2:0.43645792 3:0.90809388 
-1 0:0 6:1 2:0.43645792 3:0.90809388 
1 0:1.7928429 6:1 2:0.43645792 3:0.2068286 
1 0:1.1952286 6:1 2:0.43645792 3:0.2068286 
1 0:-1.1952286 6:1 2:0.43645792 3:0.2068286 
1 0:-1.7928429 6:1 2:0.43645792 3:0.2068286 
1 0:0 6:1 2:0.43645792 3:0.2068286 
1 0:0 6:1 2:0.43645792 3:0.2068286 
-1 0:-1.1952286 6:1 2:0.43645792 3:-0.04839008 
1 0:0.5976143 6:1 2:0.43645792 3:0.2068286 
1 0:-0.5976143 6:1 2:0.43645792 3:0.2068286 
1 0:0 6:1 2:0.43645792 3:0.2068286 
1 0:0 6:1 2:0.43645792 3:0.2068286 
-1 0:1.7928429 6:1 2:0.43645792 3:-0.04839008 
-1 0:1.1952286 6:1 2:0.43645792 3:-0.04839008 
-1 0:-1.7928429 6:1 2:0.43645792 3:-0.04839008 
-1 0:1.7928429 6:1 2:0.43645792 3:-0.3321377 
-0.4876874757684884 0:1.1952286 6:1 2:0.43645792 3:-0.3321377 
-0.4876874847528794 0:-1.1952286 6:1 2:0.43645792 3:-0.3321377 
-1 0:-1.7928429 6:1 2:0.43645792 3:-0.3321377 
0.327323237290163 0:1.7928429 9:1 2:0.43645792 3:1.4044077 
-0.8196771968134718 0:0 9:1 2:0.43645792 3:0.98287343 
0.3273232311305188 0:-1.7928429 9:1 2:0.43645792 3:1.4044077 
-0.6780628570902125 0:0 9:1 2:0.43645792 3:0.98287343 
-0.5996120925819743 0:1.7928429 1:1 2:0.43645792 3:1.7245524 
-1 0:1.1952286 1:1 2:0.43645792 3:1.7245524 
-1 0:-1.1952286 1:1 2:0.43645792 3:1.7245524 
-0.4583009662024885 0:-1.7928429 1:1 2:0.43645792 3:1.7245524 
-1 0:0.5976143 1:1 2:0.43645792 3:1.7245524 
-1 0:-0.5976143 1:1 2:0.43645792 3:1.7245524 
-1 0:0 1:1 2:0.43645792 3:1.7245524 
-1 0:0 1:1 2:0.43645792 3:1.7245524 
-1 0:0 1:1 2:0.43645792 3:1.7245524 
-1 0:1.1952286 1:1 2:0.43645792 3:1.7245524 
-1 0:0.5976143 1:1 2:0.43645792 3:1.7245524 
-1 0:-1.7928429 1:1 2:0.43645792 3:1.7245524 
-1 0:0 1:1 2:0.43645792 3:1.7245524 
-1 0:0 1:1 2:0.43645792 3:1.7245524 
-0.8586889295105238 0:1.7928429 1:1 2:0.43645792 3:1.7245524 
-1 0:-0.5976143 1:1 2:0.43645792 3:1.7245524 
-1 0:-1.1952286 1:1 2:0.43645792 3:1.7245524 
-1 0:0 1:1 2:0.43645792 3:1.7245524 
-1 0:0 1:1 2:0.43645792 3:1.7245524 
-1 0:0 1:1 2:0.43645792 3:1.7245524 
1 0:0 1:1 2:0.43645792 3:1.0289448 
1 0:1.1952286 1:1 2:0.43645792 3:1.0289448 
1 0:0.5976143 1:1 2:0.43645792 3:1.0289448 
1 0:-1.7928429 1:1 2:0.43645792 3:1.0289448 
1 0:0 1:1 2:0.43645792 3:1.0289448 
1 0:1.7928429 1:1 2:0.43645792 3:1.0289448 
1 0:-0.5976143 1:1 2:0.43645792 3:1.0289448 
1 0:-1.1952286 1:1 2:0.43645792 3:1.0289448 
1 0:0 1:1 2:0.43645792 3:1.0289448 
1 0:0 1:1 2:0.43645792 3:1.0289448 
-1 0:-0.5976143 1:1 2:0.43645792 3:0.24559735 
1 0:0 1:1 2:0.43645792 3:0.83750958 
0.5965785232338418 0:0 1:1 2:0.43645792 3:0.83750958 
-1 0:-1.7928429 1:1 2:0.43645792 3:0.48835634 
-1 0:1.7928429 1:1 2:0.43645792 3:0.24559735 
-1 0:-1.7928429 1:1 2:0.43645792 3:0.24559735 
-1 0:1.7928429 1:1 2:0.43645792 3:0.48835634 
-1 0:1.1952286 1:1 2:0.43645792 3:0.24559735 
-1 0:0.5976143 1:1 2:0.43645792 3:0.24559735 
-1 0:-1.1952286 1:1 2:0.43645792 3:0.24559735 
-1 0:0 4:1 2:1.3496622 3:0.21364515 
1 0:0 7:1 2:1.3496622 3:-0.55695359 
-1 0:0 7:1 2:1.3496622 3:-0.0075429549 
0.174012382189824 0:0 1:1 2:0.43645792 3:0.83750958 
1 0:0 1:1 2:0.43645792 3:0.83750958 
-1 0:0 8:1 2:0.43645792 3:0.13512584 
-1 0:1.1952286 8:1 2:0.43645792 3:0.13512584 
-1 0:0.5976143 8:1 2:0.43645792 3:0.13512584 
-1 0:-1.7928429 8:1 2:0.43645792 3:0.13512584 
-1 0:0 8:1 2:0.43645792 3:0.13512584 
-1 0:1.7928429 8:1 2:0.43645792 3:0.13512584 
-1 0:-0.5976143 8:1 2:0.43645792 3:0.13512584 
-1 0:-1.1952286 8:1 2:0.43645792 3:0.13512584 
-1 0:0 8:1 2:0.43645792 3:0.13512584 
-1 0:0 8:1 2:0.43645792 3:0.13512584 
1 0:0 8:1 2:0.43645792 3:0.2068286 
-0.1844058710513825 0:0 8:1 2:0.43645792 3:1.3385229 
-0.9252260679678591 0:0 8:1 2:0.43645792 3:1.3385229 
-1 0:0 8:1 2:0.43645792 3:1.3385229 
-1 0:0 8:1 2:0.43645792 3:1.3385229 
1 0:0.5976143 8:1 2:0.43645792 3:0.2068286 
1 0:-0.5976143 8:1 2:0.43645792 3:0.2068286 
1 0:1.7928429 8:1 2:0.43645792 3:0.2068286 
1 0:1.1952286 8:1 2:0.43645792 3:0.2068286 
1 0:-1.1952286 8:1 2:0.43645792 3:0.2068286 
1 0:-1.7928429 8:1 2:0.43645792 3:0.2068286 
1 0:0 8:1 2:0.43645792 3:0.2068286 
1 0:0 8:1 2:0.43645792 3:0.2068286 
-0.9847761230077231 0:0 1:1 2:1.3496622 3:0.50678917 
-1 0:0 7:1 2:0.43645792 3:-0.78069687 
1 0:1.7928429 7:1 2:0.43645792 3:0.49363655 
1 0:-1.7928429 7:1 2:0.43645792 3:0.49363655 
1 0:0.5976143 7:1 2:0.43645792 3:0.24312166 
1 0:-0.5976143 7:1 2:0.43645792 3:0.24312166 
1 0:0 7:1 2:0.43645792 3:0.24312166 
1 0:0 7:1 2:0.43645792 3:0.24312166 
0.5927676883217252 0:1.1952286 7:1 2:0.43645792 3:-0.078785812 
0.592767669586007 0:-1.1952286 7:1 2:0.43645792 3:-0.078785812 
1 0:0 7:1 2:0.43645792 3:-0.078785812 
-1 0:1.7928429 7:1 2:0.43645792 3:-0.28936045 
-1 0:-1.7928429 7:1 2:0.43645792 3:-0.28936045 
1 0:0.5976143 7:1 2:0.43645792 3:-0.60126923 
1 0:-0.5976143 7:1 2:0.43645792 3:-0.60126923 
1 0:1.7928429 7:1 2:0.43645792 3:0.24312166 
1 0:1.1952286 7:1 2:0.43645792 3:0.24312166 
1 0:-1.1952286 7:1 2:0.43645792 3:0.24312166 
1 0:-1.7928429 7:1 2:0.43645792 3:0.24312166 
1 0:0 7:1 2:0.43645792 3:0.24312166 
1 0:0 7:1 2:0.43645792 3:0.24312166 
1 0:0.5976143 7:1 2:0.43645792 3:-0.078785812 
1 0:-0.5976143 7:1 2:0.43645792 3:-0.078785812 
1 0:0 7:1 2:0.43645792 3:-0.078785812 
1 0:0 7:1 2:0.43645792 3:-0.078785812 
1 0:0 7:1 2:0.43645792 3:-0.078785812 
1 0:1.7928429 7:1 2:0.43645792 3:-0.60126923 
1 0:1.1952286 7:1 2:0.43645792 3:-0.60126923 
1 0:-1.1952286 7:1 2:0.43645792 3:-0.60126923 
1 0:-1.7928429 7:1 2:0.43645792 3:-0.60126923 
1 0:0 7:1 2:0.43645792 3:-0.60126923 
1 0:0 7:1 2:0.43645792 3:-0.60126923 
-1 0:-0.5976143 7:1 2:0.43645792 3:-0.78069687 
-1 0:-1.1952286 7:1 2:0.43645792 3:-0.78069687 
1 0:0 7:1 2:0.43645792 3:-0.60126923 
1 0:0 7:1 2:0.43645792 3:-0.60126923 
-1 0:1.7928429 7:1 2:0.43645792 3:-0.78069687 
-1 0:1.1952286 7:1 2:0.43645792 3:-0.78069687 
-1 0:0.5976143 7:1 2:0.43645792 3:-0.78069687 
-1 0:-1.7928429 7:1 2:0.43645792 3:-0.78069687 
-1 0:0 7:1 2:0.43645792 3:-0.78069687 
-1 0:0 7:1 2:0.43645792 3:-0.78069687 
0.2348022672977659 0:-1.7928429 7:1 2:0.43645792 3:1.0264149 
0.2348022886396706 0:1.7928429 7:1 2:0.43645792 3:1.0264149 
1 0:1.1952286 7:1 2:0.43645792 3:0.74694406 
1 0:-1.7928429 7:1 2:0.43645792 3:0.74694406 
-1 0:-0.5976143 7:1 2:0.43645792 3:0.46513435 
-1 0:0 7:1 2:0.43645792 3:0.46513435 
-1 0:0 7:1 2:0.43645792 3:0.46513435 
1 0:1.7928429 7:1 2:0.43645792 3:0.74694406 
1 0:-1.1952286 7:1 2:0.43645792 3:0.74694406 
-1 0:0.5976143 7:1 2:0.43645792 3:0.46513435 
-1 0:0 7:1 2:0.43645792 3:0.46513435 
-1 0:0 7:1 2:0.43645792 3:0.46513435 
-1 0:0.5976143 7:1 2:0.43645792 3:0.35211531 
-1 0:-0.5976143 7:1 2:0.43645792 3:0.35211531 
-1 0:0 7:1 2:0.43645792 3:0.35211531 
-1 0:0 7:1 2:0.43645792 3:0.35211531 
-1 0:1.7928429 7:1 2:0.43645792 3:0.014229092 
-1 0:1.1952286 7:1 2:0.43645792 3:0.014229092 
-1 0:-1.1952286 7:1 2:0.43645792 3:0.014229092 
-1 0:-1.7928429 7:1 2:0.43645792 3:0.014229092 
-1 0:0 7:1 2:0.43645792 3:0.014229092 
-1 0:0 7:1 2:0.43645792 3:0.014229092 
1 0:1.7928429 7:1 2:0.43645792 3:-0.25146508 
1 0:-0.5976143 7:1 2:0.43645792 3:-0.25146508 
1 0:-1.1952286 7:1 2:0.43645792 3:-0.25146508 
1 0:0 7:1 2:0.43645792 3:-0.25146508 
1 0:0 7:1 2:0.43645792 3:-0.25146508 
0.03357319797847839 0:0 7:1 2:0.43645792 3:-0.49940216 
-1 0:1.1952286 7:1 2:0.43645792 3:0.35211531 
-1 0:-1.1952286 7:1 2:0.43645792 3:0.35211531 
-1 0:-1.7928429 7:1 2:0.43645792 3:0.35211531 
-1 0:0 7:1 2:0.43645792 3:0.35211531 
-1 0:0 7:1 2:0.43645792 3:0.35211531 
-1 0:0.5976143 7:1 2:0.43645792 3:0.014229092 
-1 0:-0.5976143 7:1 2:0.43645792 3:0.014229092 
-1 0:0 7:1 2:0.43645792 3:0.014229092 
-1 0:0 7:1 2:0.43645792 3:0.014229092 
1 0:1.1952286 7:1 2:0.43645792 3:-0.25146508 
1 0:0.5976143 7:1 2:0.43645792 3:-0.25146508 
1 0:-1.7928429 7:1 2:0.43645792 3:-0.25146508 
1 0:0 7:1 2:0.43645792 3:-0.25146508 
1 0:0 7:1 2:0.43645792 3:-0.25146508 
0.6925972428959848 0:0 7:1 2:0.43645792 3:-0.49940216 
0.8785011214519682 0:0 7:1 2:0.43645792 3:-0.49940216 
1 0:-0.5976143 5:1 2:0.43645792 3:-0.90438139 
1 0:0.5976143 5:1 2:0.43645792 3:-0.55331213 
1 0:-0.5976143 5:1 2:0.43645792 3:-0.55331213 
1 0:0 5:1 2:0.43645792 3:-0.55331213 
1 0:0 5:1 2:0.43645792 3:-0.55331213 
-1 0:1.7928429 5:1 2:0.43645792 3:-0.66483715 
-1 0:1.1952286 5:1 2:0.43645792 3:-0.66483715 
1 0:1.1952286 5:1 2:0.43645792 3:-0.55331213 
1 0:-1.1952286 5:1 2:0.43645792 3:-0.55331213 
1 0:-1.7928429 5:1 2:0.43645792 3:-0.55331213 
1 0:0 5:1 2:0.43645792 3:-0.55331213 
1 0:0 5:1 2:0.43645792 3:-0.55331213 
-1 0:0.5976143 5:1 2:0.43645792 3:-0.66483715 
-1 0:-0.5976143 5:1 2:0.43645792 3:-0.66483715 
-1 0:0 5:1 2:0.43645792 3:-0.66483715 
-1 0:0 5:1 2:0.43645792 3:-0.66483715 
1 0:1.1952286 5:1 2:0.43645792 3:-0.90438139 
1 0:0.5976143 5:1 2:0.43645792 3:-0.90438139 
1 0:0 5:1 2:0.43645792 3:-0.90438139 
1 0:0 5:1 2:0.43645792 3:-0.90438139 
-1 0:-1.1952286 5:1 2:0.43645792 3:-0.66483715 
-1 0:-1.7928429 5:1 2:0.43645792 3:-0.66483715 
-1 0:0 5:1 2:0.43645792 3:-0.66483715 
-1 0:0 5:1 2:0.43645792 3:-0.66483715 
1 0:1.7928429 5:1 2:0.43645792 3:-0.90438139 
1 0:-1.7928429 5:1 2:0.43645792 3:-0.90438139 
1 0:0 5:1 2:0.43645792 3:-0.90438139 
1 0:0 5:1 2:0.43645792 3:-0.90438139 
1 0:-1.1952286 5:1 2:0.43645792 3:-0.90438139 
-1 0:0 5:1 2:0.43645792 3:-0.99001963 
1 0:1.1952286 5:1 2:0.43645792 3:-0.76304264 
1 0:-1.1952286 5:1 2:0.43645792 3:-0.76304264 
1 0:0 5:1 2:0.43645792 3:-0.76304264 
1 0:0 5:1 2:0.43645792 3:-0.76304264 
1 0:0.5976143 5:1 2:0.43645792 3:-0.79885861 
1 0:-0.5976143 5:1 2:0.43645792 3:-0.79885861 
1 0:0 5:1 2:0.43645792 3:-0.79885861 
1 0:0 5:1 2:0.43645792 3:-0.79885861 
1 0:0.5976143 5:1 2:0.43645792 3:-0.76304264 
1 0:-0.5976143 5:1 2:0.43645792 3:-0.76304264 
1 0:0 5:1 2:0.43645792 3:-0.76304264 
1 0:0 5:1 2:0.43645792 3:-0.76304264 
0.2341587108859297 0:1.7928429 5:1 2:0.43645792 3:-0.79885861 
1 0:1.1952286 5:1 2:0.43645792 3:-0.79885861 
1 0:-1.1952286 5:1 2:0.43645792 3:-0.79885861 
0.2341587202883951 0:-1.7928429 5:1 2:0.43645792 3:-0.79885861 
1 0:0 5:1 2:0.43645792 3:-0.79885861 
1 0:0 5:1 2:0.43645792 3:-0.79885861 
-1 0:0.5976143 5:1 2:0.43645792 3:-0.99001963 
-1 0:-0.5976143 5:1 2:0.43645792 3:-0.99001963 
-1 0:-1.1952286 5:1 2:0.43645792 3:-0.99001963 
-1 0:1.7928429 5:1 2:0.43645792 3:-0.99001963 
-1 0:1.1952286 5:1 2:0.43645792 3:-0.99001963 
-1 0:-1.7928429 5:1 2:0.43645792 3:-0.99001963 
-1 0:0 5:1 2:0.43645792 3:-0.99001963 
-1 0:0 5:1 2:0.43645792 3:-0.99001963 
0.01040872689848364 0:0 4:1 2:-1.3362327 3:-1.2683079 
0.2333646255079251 0:-0.5976143 4:1 2:-1.3362327 3:-1.2683079 
0.3279017145995639 0:0.5976143 4:1 2:-1.3362327 3:-1.2683079 
1 0:0.5976143 4:1 2:-1.3362327 3:-1.2683079 
0.9786461521288911 0:-0.5976143 4:1 2:-1.3362327 3:-1.2683079 
0.6802800735205814 0:0.5976143 4:1 2:-1.3362327 3:-1.2683079 
0.7961710502979275 0:-0.5976143 4:1 2:-1.3362327 3:-1.2683079 
0.8491079794372052 0:0 4:1 2:-1.3362327 3:-1.2683079 
1 0:0 4:1 2:-1.3362327 3:-1.2683079 
-1 0:-1.1952286 8:1 2:1.3496622 3:0.54015928 
1 0:0.5976143 8:1 2:1.3496622 3:1.2288013 
1 0:-0.5976143 8:1 2:1.3496622 3:1.2288013 
-0.7644130425730906 0:0 8:1 2:1.3496622 3:1.6059842 
-0.2958163965946296 0:0 8:1 2:1.3496622 3:1.6059842 
1 0:1.7928429 8:1 2:1.3496622 3:1.2288013 
1 0:1.1952286 8:1 2:1.3496622 3:1.2288013 
1 0:-1.1952286 8:1 2:1.3496622 3:1.2288013 
1 0:-1.7928429 8:1 2:1.3496622 3:1.2288013 
1 0:0 8:1 2:1.3496622 3:1.2288013 
1 0:0 8:1 2:1.3496622 3:1.2288013 
-1 0:0.5976143 8:1 2:1.3496622 3:0.87254239 
-1 0:-0.5976143 8:1 2:1.3496622 3:0.87254239 
-0.01832582806052659 0:0 8:1 2:1.3496622 3:0.87254239 
-0.8867402209350724 0:0 8:1 2:1.3496622 3:0.87254239 
-1 0:0.5976143 8:1 2:1.3496622 3:0.54015928 
-1 0:-0.5976143 8:1 2:1.3496622 3:0.54015928 
-1 0:0 8:1 2:1.3496622 3:0.54015928 
-1 0:0 8:1 2:1.3496622 3:0.54015928 
1 0:0 8:1 2:1.3496622 3:1.2288013 
1 0:0 8:1 2:1.3496622 3:1.2288013 
-1 0:1.1952286 8:1 2:1.3496622 3:0.87254239 
-1 0:-1.1952286 8:1 2:1.3496622 3:0.87254239 
-1 0:0 8:1 2:1.3496622 3:0.87254239 
-1 0:0 8:1 2:1.3496622 3:0.87254239 
-1 0:1.7928429 8:1 2:1.3496622 3:0.54015928 
-1 0:1.1952286 8:1 2:1.3496622 3:0.54015928 
-1 0:0 8:1 2:1.3496622 3:0.54015928 
-1 0:0 8:1 2:1.3496622 3:0.54015928 
-1 0:-1.7928429 8:1 2:1.3496622 3:0.54015928 
1 0:-1.1952286 8:1 2:1.3496622 3:0.71203791 
0.2648121552383523 0:1.7928429 8:1 2:1.3496622 3:1.4205472 
1 0:0.5976143 8:1 2:1.3496622 3:0.71203791 
1 0:-0.5976143 8:1 2:1.3496622 3:0.71203791 
1 0:0 8:1 2:1.3496622 3:0.71203791 
1 0:0 8:1 2:1.3496622 3:0.71203791 
0.2648121643678555 0:-1.7928429 8:1 2:1.3496622 3:1.4205472 
1 0:1.7928429 8:1 2:1.3496622 3:0.71203791 
1 0:1.1952286 8:1 2:1.3496622 3:0.71203791 
1 0:0 8:1 2:1.3496622 3:0.71203791 
1 0:0 8:1 2:1.3496622 3:0.71203791 
1 0:-1.7928429 8:1 2:1.3496622 3:0.71203791 
0.008114457622147325 0:0 6:1 2:-1.3362327 3:-1.2683079 
0.3351425772290854 0:0 6:1 2:-1.3362327 3:-1.2683079 
-0.1043091291050721 0:-1.7928429 9:1 2:-1.3362327 3:-1.2683079 
-0.1043091159394736 0:1.7928429 9:1 2:-1.3362327 3:-1.2683079 
-1 0:-1.7928429 9:1 2:-1.3362327 3:-1.2683079 
-1 0:1.7928429 9:1 2:-1.3362327 3:-1.2683079 
-0.2662492316948882 0:1.7928429 1:1 2:-1.3362327 3:-1.0426378 
-0.6921684206799454 0:0 1:1 2:-1.3362327 3:-1.0426378 
-1 0:0 1:1 2:-1.3362327 3:-1.0426378 
-0.4569270721167411 0:-1.7928429 1:1 2:-1.3362327 3:-1.0426378 
-1 0:0 1:1 2:-1.3362327 3:-1.0426378 
-1 0:0 1:1 2:-1.3362327 3:-1.0426378 
-0.1528556344541372 0:0 1:1 2:-1.3362327 3:-1.0426378 
1 0:-1.7928429 1:1 2:-1.3362327 3:-1.2683079 
1 0:1.1952286 1:1 2:-1.3362327 3:-1.2683079 
1 0:0.5976143 1:1 2:-1.3362327 3:-1.2683079 
1 0:1.7928429 1:1 2:-1.3362327 3:-1.2683079 
1 0:-0.5976143 1:1 2:-1.3362327 3:-1.2683079 
1 0:-1.1952286 1:1 2:-1.3362327 3:-1.2683079 
1 0:0 1:1 2:-1.3362327 3:-1.2683079 
1 0:0 1:1 2:-1.3362327 3:-1.2683079 
1 0:1.1952286 1:1 2:-1.3362327 3:-1.2683079 
1 0:0.5976143 1:1 2:-1.3362327 3:-1.2683079 
1 0:0 1:1 2:-1.3362327 3:-1.2683079 
1 0:0 1:1 2:-1.3362327 3:-1.2683079 
1 0:-1.7928429 1:1 2:-1.3362327 3:-1.2683079 
1 0:0 1:1 2:-1.3362327 3:-1.2683079 
1 0:0 1:1 2:-1.3362327 3:-1.2683079 
1 0:1.7928429 1:1 2:-1.3362327 3:-1.2683079 
1 0:-0.5976143 1:1 2:-1.3362327 3:-1.2683079 
1 0:-1.1952286 1:1 2:-1.3362327 3:-1.2683079 
1 0:0 1:1 2:-1.3362327 3:-1.2683079 
1 0:0 1:1 2:-1.3362327 3:-1.2683079 
-0.180044060804931 0:1.7928429 1:1 2:-1.3362327 3:-1.0426378 
-1 0:1.7928429 1:1 2:-1.3362327 3:-1.0426378 
-0.9315251904545379 0:-1.7928429 1:1 2:-1.3362327 3:-1.0426378 
-1 0:-1.7928429 1:1 2:-1.3362327 3:-1.0426378 
-1 0:-1.7928429 1:1 2:-1.3362327 3:-1.0426378 
-1 0:1.7928429 1:1 2:-1.3362327 3:-1.0426378 
-1 0:-1.7928429 1:1 2:-1.3362327 3:-1.0426378 
-1 0:1.7928429 1:1 2:-1.3362327 3:-1.0426378 
-1 0:-1.7928429 1:1 2:-1.3362327 3:-1.0426378 
-1 0:0 1:1 2:-1.3362327 3:-1.0426378 
-1 0:1.7928429 1:1 2:-1.3362327 3:-1.0426378 
-1 0:0 1:1 2:-1.3362327 3:-1.0426378 
-1 0:0 1:1 2:-1.3362327 3:-1.0426378 
-0.9421589578082855 0:1.7928429 1:1 2:-1.3362327 3:-1.0426378 
-1 0:0 1:1 2:-1.3362327 3:-1.0426378 
-1 0:0 1:1 2:-1.3362327 3:-1.0426378 
-1 0:0 1:1 2:-1.3362327 3:-1.0426378 
-1 0:0 1:1 2:-1.3362327 3:-1.0426378 
-0.8354133975733484 0:0 1:1 2:-1.3362327 3:-1.0426378 
1 0:0 7:1 2:1.3496622 3:-0.55695359 
1 0:1.1952286 7:1 2:1.3496622 3:1.1411454 
1 0:0.5976143 7:1 2:1.3496622 3:1.1411454 
1 0:-1.7928429 7:1 2:1.3496622 3:1.1411454 
1 0:0 7:1 2:1.3496622 3:1.1411454 
1 0:0 7:1 2:1.3496622 3:1.1411454 
1 0:0.5976143 7:1 2:1.3496622 3:0.83004329 
1 0:-0.5976143 7:1 2:1.3496622 3:0.83004329 
1 0:0 7:1 2:1.3496622 3:0.83004329 
1 0:0 7:1 2:1.3496622 3:0.83004329 
1 0:1.7928429 7:1 2:1.3496622 3:1.1411454 
1 0:-0.5976143 7:1 2:1.3496622 3:1.1411454 
1 0:-1.1952286 7:1 2:1.3496622 3:1.1411454 
1 0:0 7:1 2:1.3496622 3:1.1411454 
1 0:0 7:1 2:1.3496622 3:1.1411454 
1 0:1.7928429 7:1 2:1.3496622 3:0.83004329 
1 0:1.1952286 7:1 2:1.3496622 3:0.83004329 
1 0:-1.1952286 7:1 2:1.3496622 3:0.83004329 
1 0:-1.7928429 7:1 2:1.3496622 3:0.83004329 
1 0:0 7:1 2:1.3496622 3:0.83004329 
1 0:0 7:1 2:1.3496622 3:0.83004329 
1 0:1.1952286 7:1 2:1.3496622 3:0.11287596 
1 0:-1.1952286 7:1 2:1.3496622 3:0.11287596 
1 0:0 7:1 2:1.3496622 3:0.11287596 
1 0:0 7:1 2:1.3496622 3:0.11287596 
1 0:0.5976143 7:1 2:1.3496622 3:0.11287596 
1 0:-0.5976143 7:1 2:1.3496622 3:0.11287596 
1 0:0 7:1 2:1.3496622 3:0.11287596 
1 0:0 7:1 2:1.3496622 3:0.11287596 
1 0:1.1952286 7:1 2:1.3496622 3:-0.55695359 
1 0:0.5976143 7:1 2:1.3496622 3:-0.55695359 
1 0:-1.7928429 7:1 2:1.3496622 3:-0.55695359 
1 0:0 7:1 2:1.3496622 3:-0.55695359 
1 0:1.7928429 7:1 2:1.3496622 3:-0.55695359 
1 0:-0.5976143 7:1 2:1.3496622 3:-0.55695359 
1 0:-1.1952286 7:1 2:1.3496622 3:-0.55695359 
1 0:0 7:1 2:1.3496622 3:-0.55695359 
-0.03749312214844559 0:1.7928429 8:1 2:-1.3362327 3:-1.2683079 
-0.0391298103012658 0:-1.7928429 8:1 2:-1.3362327 3:-1.2683079 
-1 0:0 7:1 2:1.3496622 3:-0.0075429549 
-0.5094630428941204 0:0 7:1 2:1.3496622 3:1.5429914 
-1 0:0 7:1 2:1.3496622 3:1.5429914 
-0.6560410191440406 0:0 7:1 2:1.3496622 3:1.5429914 
-1 0:1.7928429 7:1 2:1.3496622 3:0.33526525 
-1 0:1.1952286 7:1 2:1.3496622 3:0.33526525 
-1 0:-1.1952286 7:1 2:1.3496622 3:0.33526525 
-1 0:-1.7928429 7:1 2:1.3496622 3:0.33526525 
-1 0:0 7:1 2:1.3496622 3:0.33526525 
-1 0:0 7:1 2:1.3496622 3:0.33526525 
-1 0:0.5976143 7:1 2:1.3496622 3:-0.0075429549 
-1 0:0.5976143 7:1 2:1.3496622 3:0.33526525 
-1 0:-0.5976143 7:1 2:1.3496622 3:0.33526525 
-1 0:0 7:1 2:1.3496622 3:0.33526525 
-1 0:0 7:1 2:1.3496622 3:0.33526525 
-1 0:1.7928429 7:1 2:1.3496622 3:-0.0075429549 
-1 0:1.1952286 7:1 2:1.3496622 3:-0.0075429549 
-1 0:-0.5976143 7:1 2:1.3496622 3:-0.0075429549 
-1 0:-1.1952286 7:1 2:1.3496622 3:-0.0075429549 
-1 0:-1.7928429 7:1 2:1.3496622 3:-0.0075429549 
-1 0:0 7:1 2:1.3496622 3:-0.0075429549 
-1 0:0 7:1 2:1.3496622 3:-0.0075429549 
-1 0:0 7:1 2:1.3496622 3:-0.16477009 
-1 0:0.5976143 7:1 2:1.3496622 3:0.81995688 
-1 0:-0.5976143 7:1 2:1.3496622 3:0.81995688 
-0.6433848581526803 0:0 7:1 2:1.3496622 3:0.81995688 
-1 0:0 7:1 2:1.3496622 3:0.81995688 
-1 0:1.1952286 7:1 2:1.3496622 3:0.81995688 
-1 0:-1.1952286 7:1 2:1.3496622 3:0.81995688 
-1 0:0 7:1 2:1.3496622 3:0.81995688 
-1 0:0 7:1 2:1.3496622 3:0.81995688 
-1 0:1.1952286 7:1 2:1.3496622 3:-0.16477009 
-1 0:0.5976143 7:1 2:1.3496622 3:-0.16477009 
-1 0:-1.7928429 7:1 2:1.3496622 3:-0.16477009 
-1 0:0 7:1 2:1.3496622 3:-0.16477009 
-1 0:1.7928429 7:1 2:1.3496622 3:-0.16477009 
-1 0:-0.5976143 7:1 2:1.3496622 3:-0.16477009 
-1 0:-1.1952286 7:1 2:1.3496622 3:-0.16477009 
-1 0:0 7:1 2:1.3496622 3:-0.16477009 
-1 0:0 7:1 2:1.3496622 3:-0.16477009 
-0.660107787769872 0:1.7928429 5:1 2:1.3496622 3:-0.164937 
-0.6601077857305463 0:-1.7928429 5:1 2:1.3496622 3:-0.164937 
-1 0:-1.1952286 5:1 2:1.3496622 3:-0.36472862 
-1 0:-1.7928429 5:1 2:1.3496622 3:-0.36472862 
-0.001494525648277564 0:0 5:1 2:1.3496622 3:-0.36472862 
-0.08448038247779845 0:0 5:1 2:1.3496622 3:-0.36472862 
-1 0:1.7928429 5:1 2:1.3496622 3:-0.36472862 
-1 0:1.1952286 5:1 2:1.3496622 3:-0.36472862 
-1 0:0.5976143 5:1 2:1.3496622 3:-0.36472862 
-1 0:-0.5976143 5:1 2:1.3496622 3:-0.36472862 
-1 0:0 5:1 2:1.3496622 3:-0.36472862 
-1 0:0 5:1 2:1.3496622 3:-0.36472862 
-0.2611570281154884 0:1.7928429 5:1 2:1.3496622 3:-0.87040106 
-0.2611570460920735 0:-1.7928429 5:1 2:1.3496622 3:-0.87040106 
-1 0:-1.7928429 4:1 2:1.3496622 3:-0.10978382 
1 0:1.7928429 4:1 2:1.3496622 3:0.87451424 
1 0:1.1952286 4:1 2:1.3496622 3:0.87451424 
1 0:-1.1952286 4:1 2:1.3496622 3:0.87451424 
1 0:-1.7928429 4:1 2:1.3496622 3:0.87451424 
0.3902392485892188 0:0 4:1 2:1.3496622 3:0.87451424 
0.7572998487482366 0:0 4:1 2:1.3496622 3:0.87451424 
-1 0:1.7928429 4:1 2:1.3496622 3:0.21364515 
-1 0:-0.5976143 4:1 2:1.3496622 3:0.21364515 
-1 0:-1.1952286 4:1 2:1.3496622 3:0.21364515 
1 0:0.5976143 4:1 2:1.3496622 3:0.87451424 
1 0:-0.5976143 4:1 2:1.3496622 3:0.87451424 
1 0:0 4:1 2:1.3496622 3:0.87451424 
1 0:0 4:1 2:1.3496622 3:0.87451424 
-1 0:1.1952286 4:1 2:1.3496622 3:0.21364515 
-1 0:0.5976143 4:1 2:1.3496622 3:0.21364515 
-1 0:-1.7928429 4:1 2:1.3496622 3:0.21364515 
-1 0:0 4:1 2:1.3496622 3:0.21364515 
-1 0:0 4:1 2:1.3496622 3:0.21364515 
-1 0:1.7928429 4:1 2:1.3496622 3:-0.10978382 
-1 0:-0.5976143 4:1 2:1.3496622 3:-0.10978382 
-1 0:-1.1952286 4:1 2:1.3496622 3:-0.10978382 
-1 0:0 4:1 2:1.3496622 3:-0.10978382 
-1 0:0 4:1 2:1.3496622 3:0.21364515 
-1 0:1.1952286 4:1 2:1.3496622 3:-0.10978382 
-1 0:0.5976143 4:1 2:1.3496622 3:-0.10978382 
-1 0:0 4:1 2:1.3496622 3:-0.10978382 
-1 0:0 4:1 2:1.3496622 3:-0.10978382 
-1 0:0 4:1 2:1.3496622 3:-0.10978382 
-1 0:-1.7928429 4:1 2:1.3496622 3:-0.10187571 
0.2224019391583139 0:0.5976143 4:1 2:1.3496622 3:0.060672333 
0.2224019132996912 0:-0.5976143 4:1 2:1.3496622 3:0.060672333 
0.02812901936403054 0:0 4:1 2:1.3496622 3:0.060672333 
-1 0:1.7928429 4:1 2:1.3496622 3:-0.10187571 
-1 0:1.1952286 4:1 2:1.3496622 3:-0.10187571 
-1 0:-1.1952286 4:1 2:1.3496622 3:-0.10187571 
-1 0:0 4:1 2:1.3496622 3:-0.10187571 
0.532292990470805 0:0 4:1 2:1.3496622 3:0.060672333 
-1 0:0.5976143 4:1 2:1.3496622 3:-0.10187571 
-1 0:-0.5976143 4:1 2:1.3496622 3:-0.10187571 
-1 0:0 4:1 2:1.3496622 3:-0.10187571 
-1 0:0 4:1 2:1.3496622 3:-0.10187571 
-1 0:0 4:1 2:1.3496622 3:-0.10187571 
-0.9472973597616277 0:1.7928429 8:1 2:-1.3362327 3:-1.2683079 
-0.945660663266831 0:-1.7928429 8:1 2:-1.3362327 3:-1.2683079 
0.08205371171558351 0:0.5976143 7:1 2:-1.3362327 3:-1.2683079 
1 0:1.7928429 4:1 2:1.3496622 3:-0.18570843 
1 0:-0.5976143 4:1 2:1.3496622 3:-0.18570843 
1 0:-1.1952286 4:1 2:1.3496622 3:-0.18570843 
1 0:0 4:1 2:1.3496622 3:-0.18570843 
1 0:0 4:1 2:1.3496622 3:-0.18570843 
1 0:1.1952286 4:1 2:1.3496622 3:-0.18570843 
1 0:0.5976143 4:1 2:1.3496622 3:-0.18570843 
1 0:-1.7928429 4:1 2:1.3496622 3:-0.18570843 
1 0:0 4:1 2:1.3496622 3:-0.18570843 
1 0:0 4:1 2:1.3496622 3:-0.18570843 
0.01075418555120323 0:0.5976143 7:1 2:-1.3362327 3:-1.2683079 
0.005050813456134985 0:-0.5976143 7:1 2:-1.3362327 3:-1.2683079 
0.1339942467463268 0:0.5976143 7:1 2:-1.3362327 3:-1.2683079 
0.2217512702449127 0:-0.5976143 7:1 2:-1.3362327 3:-1.2683079 
0.8236846380333455 0:0 7:1 2:-1.3362327 3:-1.2683079 
0.991564414996486 0:0 7:1 2:-1.3362327 3:-1.2683079 
1 0:0 5:1 2:-1.3362327 3:-1.2683079 
0.9712780020132116 0:0 5:1 2:-1.3362327 3:-1.2683079 
0.03924571037928964 0:0 5:1 2:-1.3362327 3:-1.2683079 
0.1794362354429169 0:0 5:1 2:-1.3362327 3:-1.2683079 
1 0:0 5:1 2:-1.3362327 3:-1.2683079 
1 0:0 5:1 2:-1.3362327 3:-1.2683079 
-1 0:-1.7928429 6:1 2:1.3496622 3:0.043574541 
0.6204656068605903 0:-1.7928429 6:1 2:1.3496622 3:1.4205472 
-0.4814355675889744 0:0 6:1 2:1.3496622 3:1.4205472 
1 0:-1.7928429 6:1 2:1.3496622 3:0.98913986 
1 0:0.5976143 6:1 2:1.3496622 3:0.71203791 
1 0:-0.5976143 6:1 2:1.3496622 3:0.71203791 
1 0:0 6:1 2:1.3496622 3:0.71203791 
1 0:0 6:1 2:1.3496622 3:0.71203791 
0.620465610336642 0:1.7928429 6:1 2:1.3496622 3:1.4205472 
-0.9143571129546794 0:0 6:1 2:1.3496622 3:1.4205472 
1 0:1.7928429 6:1 2:1.3496622 3:0.98913986 
1 0:1.7928429 6:1 2:1.3496622 3:0.71203791 
1 0:1.1952286 6:1 2:1.3496622 3:0.71203791 
1 0:-1.1952286 6:1 2:1.3496622 3:0.71203791 
1 0:-1.7928429 6:1 2:1.3496622 3:0.71203791 
1 0:0 6:1 2:1.3496622 3:0.71203791 
1 0:0 6:1 2:1.3496622 3:0.71203791 
-1 0:0.5976143 6:1 2:1.3496622 3:0.35858245 
-1 0:-0.5976143 6:1 2:1.3496622 3:0.35858245 
-1 0:0 6:1 2:1.3496622 3:0.35858245 
-1 0:0 6:1 2:1.3496622 3:0.35858245 
-1 0:0 6:1 2:1.3496622 3:0.35858245 
-1 0:0 6:1 2:1.3496622 3:0.35858245 
-1 0:1.1952286 6:1 2:1.3496622 3:0.35858245 
-1 0:-1.1952286 6:1 2:1.3496622 3:0.35858245 
-1 0:1.7928429 6:1 2:1.3496622 3:0.043574541 
-1 0:1.1952286 6:1 2:1.3496622 3:0.043574541 
-1 0:-1.1952286 6:1 2:1.3496622 3:0.043574541 
1 0:-1.7928429 9:1 2:1.3496622 3:1.6770672 
1 0:1.7928429 9:1 2:1.3496622 3:1.6770672 
