svm_type epsilon_svr
kernel_type rbf
gamma 0.1
nr_class 2
total_sv 131
rho -0.641281
SV
1 0:0.5 1:1 2:1 3:0.40364736 
0.02243994045724507 0:0.5 1:1 2:1 3:0.47626388 
1 0:0.5 1:1 2:1 3:0.17401334 
-1 0:0.5 1:1 2:1 3:0.35423296 
-1 0:0.33333333 4:1 2:0.33 3:0.091361812 
1 0:0.5 4:1 2:0.33 3:0.0048193232 
-1 0:0.5 4:1 2:0.33 3:0.091319661 
1 0:1 4:1 2:0.33 3:0 
-1 0:0.33333333 5:1 2:0.66 3:0.32717998 
-0.06612978822907341 0:0.33333333 5:1 2:0.66 3:0.26789105 
-1 0:0.5 5:1 2:0.66 3:0.32691375 
-1 0:0.33333333 5:1 2:1 3:0.35427137 
0.6688828511341601 0:1 5:1 2:1 3:0.28167693 
0.2448342605339649 0:0.5 5:1 2:1 3:0.47626388 
1 0:0.5 5:1 2:1 3:0.50308225 
1 0:0.5 5:1 2:1 3:0.34022996 
0.2181391666130468 0:1 6:1 2:0.66 3:0.092561007 
-1 0:0.5 6:1 2:0.66 3:0.32691375 
1 0:0.5 6:1 2:0.66 3:0.12217804 
1 0:0.5 6:1 2:0.66 3:0.15642334 
-1 0:0.33333333 6:1 2:0.66 3:0.32717998 
-1 0:0.33333333 6:1 2:0.66 3:0.3241863 
0.4207214406455523 0:0 6:1 2:0.66 3:0.18230196 
1 0:0 6:1 2:0.66 3:0.1517951 
1 0:0 6:1 2:0.66 3:0.18185883 
1 0:0.5 6:1 2:0 3:0.015055581 
0.9133900484876607 0:0.5 6:1 2:0.33 3:0.10612042 
-1 0:0.5 6:1 2:0.33 3:0.25502632 
1 0:0.5 6:1 2:0.33 3:0.10884308 
-1 0:0.5 6:1 2:0.33 3:0.2509435 
-1 0:0.5 6:1 2:0.33 3:0.27952301 
-1 0:0.5 6:1 2:0.33 3:0.22817618 
-1 0:0.5 6:1 2:1 3:0.32391876 
1 0:0.5 6:1 2:1 3:0.50308225 
1 0:0.5 6:1 2:1 3:0.55407211 
1 0:0.5 6:1 2:1 3:0.15642334 
1 0:0.5 7:1 2:0.66 3:0.69295173 
1 0:0.5 7:1 2:0.66 3:0.71392267 
-1 0:0.5 7:1 2:0.66 3:0.55728055 
1 0:0.5 7:1 2:0.66 3:0.73109475 
-1 0:0.5 7:1 2:0.33 3:0.47084974 
-1 0:0.5 7:1 2:0.33 3:0.47240123 
-1 0:0.33333333 7:1 2:0.33 3:0.4726018 
-1 0:0.33333333 7:1 2:0.33 3:0.54988044 
-1 0:0.33333333 7:1 2:1 3:0.64272788 
-0.2679703224606249 0:0.33333333 7:1 2:1 3:0.74287636 
-1 0:0.33333333 7:1 2:1 3:0.9341438 
-1 0:0.33333333 7:1 2:1 3:0.9604379 
1 0:0.5 8:1 2:0.66 3:0.41849645 
1 0:1 8:1 2:0 3:0.029186279 
0.1782935441542281 0:0 8:1 2:0 3:0.040733947 
1 0:0.5 8:1 2:0 3:0.034960107 
-1 0:0.33333333 8:1 2:0.33 3:0.32568138 
-1 0:0.33333333 1:1 2:0.66 3:0.32717998 
-1 0:0.33333333 1:1 2:0.66 3:0.26789105 
1 0:1 1:1 2:0 3:0.01199937 
1 0:0.5 1:1 2:0 3:0.015055581 
-1 0:0.33333333 1:1 2:0.33 3:0.22832023 
-1 0:0.33333333 1:1 2:0.33 3:0.25519452 
-1 0:0.33333333 1:1 2:0.33 3:0.27970737 
0.6445448467037826 0:0 1:1 2:0.33 3:0.12258799 
1 0:0 4:1 2:0.33 3:0.009638659 
1 0:1 4:1 2:0.66 3:0.0029152284 
-0.6860865597262766 0:0.66666667 4:1 2:0.66 3:0.11698636 
-1 0:0.5 4:1 2:0.66 3:0.11735286 
-1 0:0.5 4:1 2:0.66 3:0.11721416 
1 0:0.5 4:1 2:0.66 3:0.013456412 
-1 0:0.33333333 4:1 2:0.66 3:0.11744194 
1 0:0 4:1 2:0.66 3:0.023997596 
1 0:1 4:1 2:1 3:0.014438327 
-1 0:0.5 4:1 2:1 3:0.1535085 
-0.6175356965809872 0:0.5 4:1 2:1 3:0.15318044 
1 0:0.5 5:1 2:0 3:0.015055581 
1 0:0.5 5:1 2:0 3:0.034960107 
0.7644033133008113 0:1 5:1 2:0 3:0.01199937 
0.6822070128954046 0:0 5:1 2:0 3:0.01811178 
-1 0:0.33333333 5:1 2:0.33 3:0.22832023 
-1 0:0.5 5:1 2:0.33 3:0.42186918 
-0.2575663538091909 0:0.5 5:1 2:0.33 3:0.37137453 
-1 0:0.5 5:1 2:0.33 3:0.22817618 
1 0:0.5 6:1 2:0.66 3:0.41849645 
1 0:0.5 6:1 2:0.66 3:0.15220822 
-1 0:0.5 6:1 2:0.66 3:0.32391876 
1 0:0.5 6:1 2:0 3:0.034960107 
1 0:1 6:1 2:0 3:0.01199937 
0.05701082981210313 0:0 6:1 2:0 3:0.01811178 
-1 0:0.33333333 6:1 2:0.33 3:0.22832023 
-1 0:0.33333333 6:1 2:0.33 3:0.25519452 
-0.5772800648618995 0:0.33333333 6:1 2:0.33 3:0.27970737 
-1 0:0.33333333 6:1 2:0.33 3:0.2511239 
-1 0:0.33333333 6:1 2:1 3:0.3241863 
-1 0:0.33333333 6:1 2:1 3:0.39865845 
-1 0:0.33333333 9:1 2:0.66 3:0.77018039 
0.06483483650129379 0:1 9:1 2:0 3:0.029186279 
1 0:0.5 9:1 2:0 3:0.034960107 
-0.6536535389220358 0:0.33333333 9:1 2:0.33 3:0.6133113 
-0.5791641507797221 0:0.33333333 9:1 2:1 3:0.93005995 
1 0:0.5 9:1 2:1 3:0.73248884 
-0.06950028730646053 0:0.33333333 7:1 2:0.66 3:0.64554527 
-1 0:0.33333333 7:1 2:0.66 3:0.55746112 
1 0:1 7:1 2:0 3:0.01199937 
1 0:0 7:1 2:0 3:0.01811178 
0.3010411589685298 0:0.5 7:1 2:0 3:0.070860605 
1 0:0.5 7:1 2:0 3:0.015055581 
-1 0:0.5 7:1 2:0.33 3:0.54970464 
1 0:0.5 7:1 2:1 3:0.73371473 
1 0:0.5 7:1 2:1 3:0.76708767 
1 0:0.5 7:1 2:1 3:0.73871882 
1 0:0.5 7:1 2:1 3:0.76709973 
1 0:0.5 7:1 2:1 3:0.74716833 
-1 0:0.5 7:1 2:1 3:0.64255224 
-0.2965372126470617 0:0.5 8:1 2:0.33 3:0.37225908 
-1 0:0.5 8:1 2:0.33 3:0.44311439 
-1 0:0.5 8:1 2:0.33 3:0.32531969 
-0.02737816513877237 0:0.33333333 8:1 2:1 3:0.48496087 
1 0:0.5 1:1 2:0.66 3:0.1300192 
1 0:0.5 1:1 2:0.66 3:0.15220822 
0.09302666270911773 0:0.5 1:1 2:0.66 3:0.32434626 
-1 0:0.5 1:1 2:0.66 3:0.32691375 
1 0:0.5 1:1 2:0.66 3:0.33478093 
1 0:0 1:1 2:0.66 3:0.18230196 
1 0:0.5 1:1 2:0.33 3:0.10612042 
0.2211305366417679 0:0.5 1:1 2:0.33 3:0.086123789 
-1 0:0.5 1:1 2:0.33 3:0.25502632 
1 0:0.5 1:1 2:0.33 3:0.10884308 
-1 0:0.5 1:1 2:0.33 3:0.27952301 
-1 0:0.5 1:1 2:0.33 3:0.22817618 
-1 0:0.33333333 1:1 2:1 3:0.35427137 
1 0:0.5 4:1 2:1 3:0.023304132 
-1 0:0.33333333 4:1 2:1 3:0.15366298 
0.6039016909034364 0:0 4:1 2:1 3:0.032169951 
