svm_type epsilon_svr
kernel_type rbf
gamma 0.1
nr_class 2
total_sv 720
rho -0.703188
SV
-1 0:-1.7928429 1:1 2:1.2495834 3:-0.99730505 
1 0:0 4:1 2:0.16247426 3:-0.53863672 
1 0:0 4:1 2:0.16247426 3:-0.087381603 
1 0:0 4:1 2:0.16247426 3:0.12733857 
1 0:0 4:1 2:0.16247426 3:-0.15637654 
1 0:0 4:1 2:0.16247426 3:-0.021199654 
1 0:0 4:1 2:0.16247426 3:-0.83484646 
1 0:0 4:1 2:0.16247426 3:-0.88974344 
-1 0:0 4:1 2:0.16247426 3:-0.53444995 
-1 0:0 4:1 2:0.16247426 3:-0.29402857 
1 0:0 4:1 2:0.16247426 3:0.010583754 
1 0:0 4:1 2:0.16247426 3:-0.40137144 
1 0:0 4:1 2:0.16247426 3:-0.83187677 
-0.5807607216781318 0:1.7928429 4:1 2:0.16247426 3:-0.54285437 
-1 0:-1.1952286 4:1 2:0.16247426 3:-0.53441897 
1 0:-1.1952286 4:1 2:0.16247426 3:-0.10006073 
1 0:-1.1952286 4:1 2:0.16247426 3:-0.88119597 
-1 0:-1.1952286 4:1 2:0.16247426 3:-0.29391854 
1 0:-1.1952286 4:1 2:0.16247426 3:-0.39051785 
1 0:-1.1952286 4:1 2:0.16247426 3:0.016193023 
-0.8843822616584022 0:-1.7928429 4:1 2:0.16247426 3:-0.53441897 
1 0:-1.7928429 4:1 2:0.16247426 3:-0.88111406 
1 0:-1.7928429 4:1 2:0.16247426 3:-0.39048097 
1 0:-1.7928429 4:1 2:0.16247426 3:-0.09996313 
1 0:-1.7928429 4:1 2:0.16247426 3:0.016279623 
1 0:1.7928429 4:1 2:-1.9477964 3:-1.5480064 
1 0:1.1952286 4:1 2:-1.9477964 3:-1.5471123 
-0.5708766664786354 0:-0.5976143 4:1 2:-1.9477964 3:-1.5469323 
1 0:0 4:1 2:-1.9477964 3:-1.5470223 
-0.7743459118653101 0:0 4:1 2:-1.9477964 3:-1.5469323 
1 0:0 4:1 2:-1.9477964 3:-1.5474694 
-1 0:-1.7928429 4:1 2:-1.9477964 3:-1.5469323 
-1 0:-0.5976143 4:1 2:-0.89266106 3:-0.58580558 
-1 0:-1.1952286 4:1 2:-0.89266106 3:-0.69481505 
-1 0:-1.1952286 4:1 2:-0.89266106 3:-0.48642741 
-1 0:-1.1952286 4:1 2:-0.89266106 3:-0.58579101 
-1 0:0.5976143 4:1 2:1.2495834 3:-0.0054230776 
-1 0:0.5976143 4:1 2:1.2495834 3:-0.1843589 
-0.9836257139502219 0:0.5976143 4:1 2:1.2495834 3:0.69221622 
-1 0:0.5976143 4:1 2:1.2495834 3:-0.7977037 
-1 0:-0.5976143 4:1 2:1.2495834 3:-0.60671084 
-1 0:-0.5976143 4:1 2:1.2495834 3:-0.18430857 
-1 0:-0.5976143 4:1 2:1.2495834 3:-0.0039618721 
-1 0:-0.5976143 4:1 2:1.2495834 3:0.69561646 
-1 0:1.1952286 4:1 2:1.2495834 3:-0.18465293 
-0.6153314127423578 0:-1.7928429 4:1 2:1.2495834 3:-0.60651136 
-0.3918315142972779 0:-1.7928429 4:1 2:1.2495834 3:-0.18430857 
-1 0:-1.1952286 4:1 2:1.2495834 3:-0.60657299 
-1 0:-1.1952286 4:1 2:1.2495834 3:0.69563908 
-1 0:-1.1952286 4:1 2:1.2495834 3:-0.18430857 
0.8598112249897553 0:1.7928429 4:1 2:1.2495834 3:0.42152093 
1 0:1.7928429 4:1 2:1.2495834 3:0.091602919 
1 0:1.7928429 4:1 2:1.2495834 3:-0.8356821 
1 0:1.7928429 4:1 2:1.2495834 3:-0.6163399 
-1 0:0 4:1 2:1.2495834 3:-0.79457283 
1 0:0 4:1 2:1.2495834 3:0.066395852 
1 0:0 1:1 2:-1.9477964 3:-1.5470223 
-1 0:0 1:1 2:-1.9477964 3:-1.5469323 
1 0:0 1:1 2:-1.9477964 3:-1.5474694 
1 0:1.7928429 1:1 2:0.16247426 3:-1.5359541 
-1 0:1.7928429 1:1 2:0.16247426 3:-1.1468956 
-1 0:1.1952286 1:1 2:0.16247426 3:-1.1449781 
-0.6426079699733303 0:0.5976143 1:1 2:0.16247426 3:-1.5247387 
-1 0:0.5976143 1:1 2:0.16247426 3:-1.1444475 
-1 0:-1.1952286 1:1 2:0.16247426 3:-1.1441795 
1 0:-1.1952286 1:1 2:0.16247426 3:-0.88119597 
1 0:-1.1952286 1:1 2:0.16247426 3:-1.5229871 
-1 0:-0.5976143 1:1 2:0.16247426 3:-1.1441927 
1 0:-0.5976143 1:1 2:0.16247426 3:-0.88147126 
-1 0:0 1:1 2:0.16247426 3:-1.1443201 
-1 0:0 1:1 2:0.16247426 3:-1.1442588 
1 0:0 1:1 2:0.16247426 3:-1.5294706 
0.2093843289461905 0:0 1:1 2:0.16247426 3:-0.88424349 
1 0:0 1:1 2:0.16247426 3:-0.9016772 
1 0:0 1:1 2:0.16247426 3:-1.5254782 
1 0:0 1:1 2:0.16247426 3:-0.88974344 
1 0:0 1:1 2:0.16247426 3:-1.1455374 
-1 0:-1.7928429 1:1 2:0.16247426 3:-1.1441793 
1 0:-1.7928429 1:1 2:0.16247426 3:-0.88111406 
1 0:-1.7928429 1:1 2:0.16247426 3:-1.5229871 
-1 0:-0.5976143 1:1 2:1.2495834 3:-0.99731932 
1 0:1.1952286 1:1 2:1.2495834 3:-1.4932662 
-1 0:1.1952286 1:1 2:1.2495834 3:-0.99822322 
-1 0:0.5976143 1:1 2:1.2495834 3:-0.7977037 
-1 0:0.5976143 1:1 2:1.2495834 3:-0.99764463 
-1 0:-1.1952286 1:1 2:1.2495834 3:-0.99730505 
1 0:1.7928429 1:1 2:1.2495834 3:-1.5002284 
0.9229997843638793 0:1.7928429 1:1 2:1.2495834 3:-0.8356821 
1 0:0 1:1 2:1.2495834 3:-0.99939538 
1 0:0 1:1 2:1.2495834 3:-0.8014641 
-1 0:0 1:1 2:1.2495834 3:-0.99740714 
1 0:0 1:1 2:1.2495834 3:-0.81494922 
-0.890701612362567 0:0 1:1 2:1.2495834 3:-0.79457283 
1 0:0 1:1 2:1.2495834 3:-1.4950888 
-1 0:0 1:1 2:1.2495834 3:-0.99748192 
1 0:0 1:1 2:1.2495834 3:-1.4916077 
-1 0:-0.5976143 4:1 2:-0.89266106 3:-0.69481505 
-1 0:-0.5976143 4:1 2:-0.89266106 3:-0.48642741 
-1 0:1.1952286 4:1 2:-0.89266106 3:-0.48852447 
-1 0:1.1952286 4:1 2:-0.89266106 3:-0.69670814 
-1 0:1.1952286 4:1 2:-0.89266106 3:-0.58860308 
-1 0:0.5976143 4:1 2:-0.89266106 3:-0.48672562 
-1 0:0.5976143 4:1 2:-0.89266106 3:-1.1267032 
-1 0:0.5976143 4:1 2:-0.89266106 3:-0.58613048 
-1 0:0.5976143 4:1 2:-0.89266106 3:-1.1853377 
-1 0:0.5976143 4:1 2:-0.89266106 3:-0.69505478 
-1 0:0 4:1 2:-0.89266106 3:-1.1848901 
1 0:0 4:1 2:-0.89266106 3:-1.0911233 
1 0:0 4:1 2:-0.89266106 3:-0.10254688 
-1 0:0 4:1 2:-0.89266106 3:-0.69484837 
-1 0:0 4:1 2:-0.89266106 3:-0.58586223 
-1 0:0 4:1 2:-0.89266106 3:-0.48657647 
-1 0:0 4:1 2:-0.89266106 3:-0.69493497 
1 0:0 4:1 2:-0.89266106 3:-0.69939805 
1 0:0 4:1 2:-0.89266106 3:-0.49363767 
1 0:0 4:1 2:-0.89266106 3:-0.14324709 
1 0:0 4:1 2:-0.89266106 3:-0.92170372 
1 0:0 4:1 2:-0.89266106 3:-1.1877422 
-1 0:0 4:1 2:-0.89266106 3:-0.48647387 
-1 0:0 4:1 2:-0.89266106 3:-0.58596808 
1 0:0 4:1 2:-0.89266106 3:-0.92750707 
1 0:0 4:1 2:-0.89266106 3:-1.1288408 
1 0:0 4:1 2:-0.89266106 3:-1.138046 
1 0:0 4:1 2:-0.89266106 3:-0.59593723 
1 0:0 4:1 2:-0.89266106 3:-1.086459 
0.149374364812475 0:1.7928429 4:1 2:-0.89266106 3:-1.1528656 
1 0:1.7928429 4:1 2:-0.89266106 3:-1.0986559 
1 0:1.7928429 4:1 2:-0.89266106 3:-0.93617181 
0.6929473098031989 0:1.7928429 4:1 2:-0.89266106 3:-0.19760165 
1 0:0 4:1 2:1.2495834 3:-0.61142558 
1 0:0 4:1 2:1.2495834 3:-0.8014641 
-1 0:0 4:1 2:1.2495834 3:0.69539537 
1 0:0 4:1 2:1.2495834 3:-0.81494922 
-1 0:0 4:1 2:1.2495834 3:-0.004692373 
1 0:0 4:1 2:1.2495834 3:-0.18630425 
1 0:0 4:1 2:1.2495834 3:0.12733857 
1 0:0 4:1 2:1.2495834 3:0.22029251 
-1 0:0 4:1 2:1.2495834 3:0.69391624 
1 0:0 4:1 2:1.2495834 3:0.67040776 
1 0:0 4:1 2:1.2495834 3:-0.60775076 
1 0:0 4:1 2:1.2495834 3:-0.0085258213 
1 0:0 4:1 2:1.2495834 3:0.55858001 
-1 0:0 4:1 2:1.2495834 3:-0.18433384 
-1 0:0 4:1 2:1.2495834 3:-0.18431081 
1 0:0 4:1 2:1.2495834 3:-0.031884324 
1 0:0 4:1 2:1.2495834 3:0.30190586 
-1 0:0 4:1 2:1.2495834 3:-0.0041554498 
-1 0:0 4:1 2:1.2495834 3:-0.60702515 
-1 0:-0.5976143 1:1 2:-0.89266106 3:-1.2499922 
-0.4928550005214239 0:1.1952286 1:1 2:-0.89266106 3:-1.08929 
-1 0:1.1952286 1:1 2:-0.89266106 3:-1.2502379 
-1 0:0.5976143 1:1 2:-0.89266106 3:-1.2500691 
-1 0:0.5976143 1:1 2:-0.89266106 3:-1.5826433 
1 0:0 1:1 2:-0.89266106 3:-1.2510688 
1 0:0 1:1 2:-0.89266106 3:-1.0911233 
1 0:0 1:1 2:-0.89266106 3:-1.5833383 
-1 0:0 1:1 2:-0.89266106 3:-1.2500307 
-1 0:0 1:1 2:-0.89266106 3:-1.2500093 
-1 0:0 1:1 2:-0.89266106 3:-1.5815654 
1 0:0 1:1 2:-0.89266106 3:-1.086459 
1 0:0 1:1 2:-0.89266106 3:-1.586434 
-0.0972719236788198 0:1.7928429 1:1 2:-0.89266106 3:-1.2521454 
1 0:1.7928429 1:1 2:-0.89266106 3:-1.5916493 
1 0:-1.1952286 1:1 2:-0.89266106 3:-1.0836278 
-1 0:-1.1952286 1:1 2:-0.89266106 3:-1.2499922 
1 0:-1.7928429 1:1 2:-0.89266106 3:-1.5812185 
-1 0:-1.7928429 1:1 2:-0.89266106 3:-1.2499922 
-1 0:-0.5976143 1:1 2:-1.9477964 3:-1.5469323 
0.8859553091416893 0:1.1952286 1:1 2:-1.9477964 3:-1.5471123 
-1 0:-1.7928429 1:1 2:-1.9477964 3:-1.5469323 
-0.4440616300204485 0:-1.1952286 1:1 2:-1.9477964 3:-1.5469323 
1 0:1.7928429 1:1 2:-1.9477964 3:-1.5480064 
1 0:0 5:1 2:-0.89266106 3:-0.31526689 
-0.2162490231504712 0:0 5:1 2:-0.89266106 3:0.44911308 
1 0:0 5:1 2:-0.89266106 3:-0.11474146 
1 0:0 5:1 2:-0.89266106 3:-0.11576966 
-1 0:0 5:1 2:-0.89266106 3:-0.10925547 
1 0:0 5:1 2:-0.89266106 3:0.084332143 
1 0:0 5:1 2:-0.89266106 3:0.40247616 
-1 0:0 5:1 2:-0.89266106 3:0.18665972 
1 0:0 5:1 2:-0.89266106 3:0.042688706 
1 0:0 5:1 2:-0.89266106 3:0.43813825 
1 0:0 5:1 2:-0.89266106 3:0.32635777 
1 0:0 5:1 2:-0.89266106 3:0.30460779 
-1 0:0 5:1 2:-0.89266106 3:-0.10416784 
-1 0:0 5:1 2:-0.89266106 3:0.1845267 
1 0:0 5:1 2:-0.89266106 3:0.16730828 
-1 0:0 5:1 2:-0.89266106 3:-0.30003804 
1 0:0 5:1 2:-0.89266106 3:-0.30237217 
-1 0:0 5:1 2:-0.89266106 3:0.0951189 
-1 0:0 5:1 2:-0.89266106 3:-0.3003987 
1 0:0 5:1 2:-0.89266106 3:-0.14493936 
1 0:0 5:1 2:-0.89266106 3:-0.14907561 
1 0:1.7928429 5:1 2:-0.89266106 3:0.16145469 
1 0:1.7928429 5:1 2:1.2495834 3:0.47318578 
0.8569216670939155 0:1.7928429 5:1 2:1.2495834 3:0.38418735 
-1 0:0.5976143 5:1 2:1.2495834 3:0.34426573 
-1 0:0.5976143 5:1 2:1.2495834 3:0.67910388 
-0.7098512427073879 0:0 5:1 2:1.2495834 3:1.3243713 
-1 0:0 5:1 2:1.2495834 3:0.68525619 
1 0:0 5:1 2:1.2495834 3:0.65727036 
-1 0:0 5:1 2:1.2495834 3:0.34787361 
1 0:0 5:1 2:1.2495834 3:0.89389578 
1 0:0 5:1 2:1.2495834 3:1.1777739 
-0.9977323655511249 0:0 5:1 2:1.2495834 3:0.68258848 
-1 0:-0.5976143 6:1 2:0.16247426 3:-0.53441897 
-1 0:-0.5976143 6:1 2:0.16247426 3:-0.29393932 
-1 0:1.1952286 6:1 2:0.16247426 3:-0.53620274 
-0.1533865163664676 0:1.1952286 6:1 2:-0.89266106 3:-0.12249414 
-1 0:0.5976143 6:1 2:-0.89266106 3:0.092752362 
-1 0:0.5976143 6:1 2:-0.89266106 3:-0.11093694 
-1 0:0.5976143 6:1 2:-0.89266106 3:-0.69505478 
1 0:0 6:1 2:-0.89266106 3:-0.69939805 
-1 0:0 6:1 2:-0.89266106 3:0.0951189 
1 0:0 6:1 2:-0.89266106 3:0.084332143 
-1 0:0 6:1 2:-0.89266106 3:-0.69484837 
-1 0:0 6:1 2:-0.89266106 3:-0.10925547 
1 0:0 6:1 2:-0.89266106 3:-0.92750707 
1 0:0 6:1 2:-0.89266106 3:-0.91975113 
1 0:0 6:1 2:-0.89266106 3:0.042688706 
1 0:0 6:1 2:-0.89266106 3:-0.11576966 
-1 0:0 6:1 2:-0.89266106 3:0.094103127 
-1 0:0 6:1 2:-0.89266106 3:-0.69493497 
1 0:0 6:1 2:-0.89266106 3:-0.92170372 
1 0:0 6:1 2:-0.89266106 3:-0.14907561 
-1 0:-0.5976143 6:1 2:-0.89266106 3:-0.69481505 
1 0:-0.5976143 6:1 2:-0.89266106 3:-0.91898324 
-1 0:-0.5976143 6:1 2:-0.89266106 3:-0.10909429 
-1 0:-0.5976143 6:1 2:-0.89266106 3:0.095453891 
1 0:-1.1952286 6:1 2:-0.89266106 3:-0.91887575 
-1 0:-1.1952286 6:1 2:-0.89266106 3:-0.69481505 
0.5255978292263888 0:-1.7928429 6:1 2:-0.89266106 3:-0.91884244 
-0.2717334686503931 0:0.5976143 6:1 2:1.2495834 3:-0.1843589 
-1 0:0.5976143 6:1 2:1.2495834 3:0.69221622 
-1 0:-0.5976143 6:1 2:1.2495834 3:0.9680301 
-1 0:-0.5976143 6:1 2:1.2495834 3:-0.0039618721 
-1 0:-0.5976143 6:1 2:1.2495834 3:-0.18430857 
-1 0:-0.5976143 6:1 2:1.2495834 3:0.69561646 
-0.3718515869330063 0:-1.7928429 6:1 2:1.2495834 3:0.9684953 
-1 0:-1.1952286 6:1 2:1.2495834 3:0.96839179 
-0.5566379573789813 0:-1.1952286 6:1 2:1.2495834 3:0.69563908 
1 0:1.7928429 6:1 2:1.2495834 3:0.47318578 
1 0:1.7928429 6:1 2:1.2495834 3:-0.059890727 
1 0:0 6:1 2:1.2495834 3:0.55858001 
-1 0:0 6:1 2:1.2495834 3:0.69391624 
1 0:0 7:1 2:0.16247426 3:-0.67401014 
-1 0:0 7:1 2:0.16247426 3:-0.30616487 
1 0:0 7:1 2:0.16247426 3:0.11123964 
1 0:0 7:1 2:0.16247426 3:0.5404263 
1 0:0 7:1 2:0.16247426 3:0.066395852 
1 0:0 7:1 2:0.16247426 3:-0.9016772 
-1 0:0 7:1 2:0.16247426 3:-0.29424517 
1 0:0 7:1 2:0.16247426 3:-0.90935285 
1 0:0 7:1 2:0.16247426 3:-0.18659747 
1 0:0 7:1 2:0.16247426 3:-1.0129865 
1 0:0 7:1 2:0.16247426 3:-0.3206347 
1 0:0 7:1 2:0.16247426 3:0.22029251 
1 0:0 7:1 2:0.16247426 3:0.1450173 
1 0:0 7:1 2:0.16247426 3:0.70388345 
1 0:0 7:1 2:0.16247426 3:-0.021199654 
1 0:0 7:1 2:0.16247426 3:-0.30821211 
-1 0:0 7:1 2:0.16247426 3:0.16306546 
1 0:0 7:1 2:0.16247426 3:-0.88974344 
1 0:0 7:1 2:0.16247426 3:-0.087381603 
-1 0:0 7:1 2:0.16247426 3:-0.66932261 
-1 0:0 7:1 2:0.16247426 3:-0.6694846 
1 0:0 7:1 2:0.16247426 3:0.12733857 
-1 0:0 7:1 2:0.16247426 3:-0.29402857 
-1 0:0 7:1 2:0.16247426 3:-0.1780336 
1 0:0 7:1 2:0.16247426 3:-0.89397332 
1 0:0 7:1 2:0.16247426 3:0.093968438 
1 0:0 7:1 2:0.16247426 3:0.30190586 
0.298471434222217 0:1.7928429 7:1 2:0.16247426 3:-0.92224023 
1 0:1.7928429 7:1 2:0.16247426 3:-1.0471328 
0.8441150132095752 0:1.7928429 7:1 2:0.16247426 3:0.27884465 
1 0:-1.1952286 7:1 2:0.16247426 3:-1.0043093 
0.7149242745654203 0:-1.1952286 7:1 2:0.16247426 3:-0.88119597 
-1 0:-1.1952286 7:1 2:0.16247426 3:-0.66922174 
-1 0:1.1952286 7:1 2:-0.89266106 3:-0.58860308 
-1 0:0.5976143 7:1 2:-0.89266106 3:-0.85961471 
-1 0:0.5976143 7:1 2:-0.89266106 3:-1.2890699 
-1 0:0.5976143 7:1 2:-0.89266106 3:-0.60266436 
-1 0:0.5976143 7:1 2:-0.89266106 3:-0.48672562 
-1 0:0.5976143 7:1 2:-0.89266106 3:-0.58613048 
-1 0:0.5976143 7:1 2:-0.89266106 3:-0.69505478 
-1 0:0 7:1 2:-0.89266106 3:-0.85941125 
1 0:0 7:1 2:-0.89266106 3:-1.0911233 
1 0:0 7:1 2:-0.89266106 3:-0.22102474 
1 0:0 7:1 2:-0.89266106 3:-1.086459 
-1 0:0 7:1 2:-0.89266106 3:-0.69484837 
1 0:0 7:1 2:-0.89266106 3:-0.6090027 
1 0:0 7:1 2:-0.89266106 3:-0.60345578 
-1 0:0 7:1 2:-0.89266106 3:-0.60239019 
1 0:0 7:1 2:-0.89266106 3:-0.11576966 
-1 0:0 7:1 2:-0.89266106 3:-0.10925547 
-1 0:0 7:1 2:-0.89266106 3:-1.2890549 
1 0:0 7:1 2:-0.89266106 3:0.084332143 
-1 0:0 7:1 2:-0.89266106 3:-0.58586223 
1 0:0 7:1 2:-0.89266106 3:0.042688706 
-1 0:0 7:1 2:-0.89266106 3:-0.48657647 
1 0:0 7:1 2:-0.89266106 3:0.43813825 
-1 0:0 7:1 2:-0.89266106 3:-0.69493497 
1 0:0 7:1 2:-0.89266106 3:0.32635777 
1 0:0 7:1 2:-0.89266106 3:-1.138046 
-1 0:0 7:1 2:-0.89266106 3:-0.48647387 
1 0:0 7:1 2:-0.89266106 3:-0.49363767 
1 0:0 7:1 2:-0.89266106 3:-0.48747599 
-1 0:0 7:1 2:-0.89266106 3:-0.8592785 
1 0:0 7:1 2:-0.89266106 3:-0.69939805 
-1 0:0 7:1 2:-0.89266106 3:0.0951189 
1 0:0 7:1 2:-0.89266106 3:-0.24831939 
-1 0:0 7:1 2:-0.89266106 3:-0.58596808 
-1 0:0 7:1 2:-0.89266106 3:-1.2890624 
1 0:0 7:1 2:-0.89266106 3:-0.86296289 
-0.5474019945475661 0:0 7:1 2:-0.89266106 3:-0.21426277 
1 0:0 7:1 2:-0.89266106 3:-1.2902389 
-1 0:0 7:1 2:-0.89266106 3:-0.60250481 
1 0:0 7:1 2:-0.89266106 3:-1.1288408 
1 0:0 7:1 2:-0.89266106 3:-1.0845556 
0.7327326960481244 0:0 7:1 2:-0.89266106 3:-1.0841616 
-1 0:-0.5976143 7:1 2:1.2495834 3:-0.14511908 
-1 0:1.1952286 7:1 2:1.2495834 3:-0.31044884 
-1 0:-1.7928429 7:1 2:1.2495834 3:-0.30605219 
0.3545938820416432 0:-1.7928429 7:1 2:1.2495834 3:0.3489821 
-0.4308614683918519 0:-1.7928429 7:1 2:1.2495834 3:1.325547 
-1 0:-1.1952286 7:1 2:1.2495834 3:-0.30605626 
1 0:-1.1952286 7:1 2:1.2495834 3:0.34886881 
-1 0:-1.1952286 7:1 2:1.2495834 3:1.3254537 
-0.09752170743880911 0:-1.1952286 7:1 2:1.2495834 3:-0.0038972783 
1 0:1.7928429 7:1 2:1.2495834 3:0.56632352 
1 0:1.7928429 7:1 2:1.2495834 3:0.47318578 
1 0:1.7928429 7:1 2:1.2495834 3:-0.8356821 
1 0:1.7928429 7:1 2:1.2495834 3:-0.93574013 
1 0:0 7:1 2:1.2495834 3:-0.15936191 
1 0:0 7:1 2:1.2495834 3:-0.90935285 
-1 0:0 7:1 2:1.2495834 3:-0.30635213 
1 0:0 7:1 2:1.2495834 3:1.1777739 
-1 0:0 7:1 2:1.2495834 3:-0.79457283 
1 0:0 7:1 2:1.2495834 3:0.94593515 
-1 0:0 7:1 2:1.2495834 3:-0.004692373 
-1 0:0 7:1 2:1.2495834 3:-0.30616487 
-0.8932450060559268 0:0 7:1 2:1.2495834 3:1.3243713 
-1 0:0.5976143 8:1 2:-0.89266106 3:0.73625268 
-0.4355924354978215 0:0.5976143 8:1 2:-0.89266106 3:0.85600734 
1 0:0 8:1 2:-0.89266106 3:0.61647948 
1 0:0 8:1 2:-0.89266106 3:0.73055804 
-1 0:0 8:1 2:-0.89266106 3:0.747362 
1 0:0 8:1 2:-0.89266106 3:0.830493 
1 0:0 8:1 2:-0.89266106 3:0.71239964 
-1 0:0 8:1 2:-0.89266106 3:0.8655228 
-1 0:-0.5976143 8:1 2:1.2495834 3:2.149576 
0.09903591751354607 0:1.1952286 8:1 2:1.2495834 3:1.84376 
-0.793172600427519 0:-1.7928429 8:1 2:1.2495834 3:2.149576 
-1 0:-1.1952286 8:1 2:1.2495834 3:2.149576 
0.7764103945973578 0:1.7928429 8:1 2:1.2495834 3:1.345862 
1 0:0 8:1 2:1.2495834 3:1.996668 
-1 0:0 8:1 2:1.2495834 3:2.1495629 
1 0:0 8:1 2:1.2495834 3:1.747719 
-0.2002025672130184 0:-0.5976143 9:1 2:0.16247426 3:1.4348923 
-1 0:-0.5976143 9:1 2:0.16247426 3:0.63932531 
-1 0:-0.5976143 9:1 2:0.16247426 3:1.8548273 
-1 0:-0.5976143 9:1 2:0.16247426 3:2.15248 
-1 0:-0.5976143 9:1 2:0.16247426 3:0.9965665 
-1 0:-0.5976143 9:1 2:0.16247426 3:1.5740729 
-1 0:-0.5976143 9:1 2:0.16247426 3:1.7105843 
-1 0:-0.5976143 9:1 2:0.16247426 3:2.0189445 
-1 0:-0.5976143 9:1 2:0.16247426 3:1.7235895 
-0.3178741156472855 0:1.1952286 9:1 2:0.16247426 3:0.97555722 
-1 0:1.1952286 9:1 2:0.16247426 3:0.63066933 
-1 0:0.5976143 9:1 2:0.16247426 3:1.4299514 
-1 0:0.5976143 9:1 2:0.16247426 3:0.63854835 
-1 0:0.5976143 9:1 2:0.16247426 3:0.99468289 
-1 0:0 9:1 2:0.16247426 3:1.7230124 
1 0:0 9:1 2:0.16247426 3:1.7496002 
-0.3086385429708652 0:0 9:1 2:0.16247426 3:2.0188047 
1 0:0 9:1 2:0.16247426 3:1.9514739 
1 0:0 9:1 2:0.16247426 3:1.3988367 
1 0:0 9:1 2:0.16247426 3:1.4648776 
1 0:0 9:1 2:0.16247426 3:0.98606604 
-1 0:0 9:1 2:0.16247426 3:1.5736059 
1 0:0 9:1 2:0.16247426 3:1.4502301 
1 0:0 9:1 2:0.16247426 3:0.91629047 
-1 0:0 9:1 2:0.16247426 3:1.8547267 
1 0:0 9:1 2:0.16247426 3:1.6683514 
1 0:0 9:1 2:0.16247426 3:0.607017 
1 0:0 9:1 2:0.16247426 3:0.63500038 
1 0:0 9:1 2:0.16247426 3:1.5635089 
1 0:0 9:1 2:0.16247426 3:1.797217 
1 0:0 9:1 2:0.16247426 3:1.6505463 
-1 0:0 9:1 2:0.16247426 3:1.4343217 
-1 0:0 9:1 2:0.16247426 3:0.99641001 
-1 0:0 9:1 2:0.16247426 3:1.7105012 
1 0:0 9:1 2:0.16247426 3:1.6695434 
1 0:0 9:1 2:0.16247426 3:2.006161 
-1 0:0 9:1 2:0.16247426 3:0.63926214 
1 0:0 9:1 2:0.16247426 3:1.5431295 
1 0:0 9:1 2:0.16247426 3:1.243142 
1 0:0 9:1 2:0.16247426 3:1.3580509 
1 0:-1.7928429 9:1 2:0.16247426 3:1.574132 
1 0:-1.7928429 9:1 2:0.16247426 3:0.99657486 
0.7565579666668441 0:-1.7928429 9:1 2:0.16247426 3:1.7236844 
1 0:-1.7928429 9:1 2:0.16247426 3:0.63933122 
1 0:-1.7928429 9:1 2:0.16247426 3:1.4349135 
-1 0:-0.5976143 9:1 2:-1.9477964 3:-1.2874892 
-1 0:0.5976143 9:1 2:-1.9477964 3:-1.2879624 
0.4701799354312926 0:-1.7928429 9:1 2:-0.89266106 3:0.29531749 
-1 0:-0.5976143 9:1 2:1.2495834 3:2.2028339 
-1 0:-0.5976143 9:1 2:1.2495834 3:2.166136 
-1 0:-0.5976143 9:1 2:1.2495834 3:1.8823512 
-1 0:-0.5976143 9:1 2:1.2495834 3:2.4330543 
-1 0:-0.5976143 9:1 2:1.2495834 3:0.98502112 
-1 0:-0.5976143 9:1 2:1.2495834 3:2.4329732 
-1 0:-0.5976143 9:1 2:1.2495834 3:2.0372704 
-1 0:-0.5976143 9:1 2:1.2495834 3:1.3909779 
-1 0:-0.5976143 9:1 2:1.2495834 3:2.2727056 
-1 0:0.5976143 9:1 2:1.2495834 3:0.98429348 
-0.2592649868206622 0:0.5976143 9:1 2:1.2495834 3:1.8770794 
-1 0:0.5976143 9:1 2:1.2495834 3:1.3879527 
-1 0:0 9:1 2:1.2495834 3:1.3894655 
1 0:0 9:1 2:1.2495834 3:1.908331 
1 0:0 9:1 2:1.2495834 3:1.666273 
1 0:0 9:1 2:1.2495834 3:1.8227693 
-1 0:0 9:1 2:1.2495834 3:2.166136 
1 0:0 9:1 2:1.2495834 3:0.9797605 
-1 0:0 9:1 2:1.2495834 3:2.1655048 
1 0:0 9:1 2:1.2495834 3:2.0614126 
1 0:0 9:1 2:1.2495834 3:1.5683899 
1 0:0 9:1 2:1.2495834 3:2.1222371 
1 0:0 9:1 2:1.2495834 3:1.3749574 
1 0:0 9:1 2:1.2495834 3:2.1848397 
1 0:0 9:1 2:1.2495834 3:1.7651899 
1 0:0 9:1 2:1.2495834 3:0.91868615 
-1 0:0 5:1 2:0.16247426 3:-0.0041554498 
1 0:0 5:1 2:0.16247426 3:-0.031884324 
1 0:0 5:1 2:0.16247426 3:-0.0085258213 
1 0:0 5:1 2:0.16247426 3:0.093968438 
1 0:0 5:1 2:0.16247426 3:0.5404263 
1 0:0 5:1 2:0.16247426 3:0.30190586 
1 0:-1.1952286 5:1 2:0.16247426 3:0.34886881 
1 0:-1.7928429 5:1 2:0.16247426 3:0.3489821 
1 0:-1.7928429 5:1 2:0.16247426 3:0.16345038 
1 0:1.1952286 5:1 2:-1.9477964 3:-1.4557652 
0.4395683586350908 0:0 5:1 2:-1.9477964 3:-1.455501 
1 0:0 5:1 2:-1.9477964 3:-1.4561927 
1 0:1.7928429 5:1 2:-1.9477964 3:-1.4571487 
-0.4444480462208177 0:-1.1952286 5:1 2:-1.9477964 3:-1.4552368 
-1 0:-1.7928429 5:1 2:-1.9477964 3:-1.4552368 
-1 0:0.5976143 5:1 2:-0.89266106 3:-0.10698042 
-1 0:0.5976143 5:1 2:-0.89266106 3:-0.11093694 
-1 0:0.5976143 5:1 2:-0.89266106 3:-0.30089793 
-1 0:0.5976143 5:1 2:-0.89266106 3:0.092752362 
-1 0:0.5976143 5:1 2:-0.89266106 3:0.18170984 
-1 0:-0.5976143 5:1 2:-0.89266106 3:0.44976269 
-1 0:-0.5976143 5:1 2:-0.89266106 3:0.49062957 
-1 0:-0.5976143 5:1 2:-0.89266106 3:-0.29989948 
-0.3120140211290429 0:-0.5976143 5:1 2:-0.89266106 3:-0.10389968 
-1 0:-0.5976143 5:1 2:-0.89266106 3:0.18734336 
-1 0:-0.5976143 5:1 2:-0.89266106 3:-0.10909429 
-1 0:-0.5976143 5:1 2:-0.89266106 3:0.095453891 
-1 0:1.1952286 5:1 2:-0.89266106 3:-0.30488644 
-0.645018825262445 0:1.1952286 5:1 2:-0.89266106 3:-0.1256409 
1 0:0 5:1 2:-0.89266106 3:0.11058412 
-1 0:1.1952286 6:1 2:0.16247426 3:-0.2983535 
-1 0:0.5976143 6:1 2:0.16247426 3:-0.5346531 
-1 0:0.5976143 6:1 2:0.16247426 3:-0.29455103 
1 0:-1.1952286 6:1 2:0.16247426 3:0.34886881 
1 0:-1.1952286 6:1 2:0.16247426 3:0.14844302 
0.6850030791150221 0:0 6:1 2:0.16247426 3:0.34205243 
-1 0:0 6:1 2:0.16247426 3:-0.53444995 
1 0:0 6:1 2:0.16247426 3:0.22029251 
1 0:0 6:1 2:0.16247426 3:0.066395852 
-1 0:0 6:1 2:0.16247426 3:-0.29402857 
-1 0:0 6:1 2:0.16247426 3:-0.29424517 
1 0:0 6:1 2:0.16247426 3:-0.53531086 
1 0:0 6:1 2:0.16247426 3:-0.30821211 
1 0:0 6:1 2:0.16247426 3:0.12733857 
1 0:0 6:1 2:0.16247426 3:0.30190586 
1 0:0 6:1 2:0.16247426 3:-0.53863672 
1 0:0 6:1 2:0.16247426 3:-0.29613612 
0.8316444571727178 0:-1.7928429 6:1 2:0.16247426 3:0.3489821 
1 0:-1.7928429 6:1 2:0.16247426 3:0.14846604 
-1 0:0.5976143 6:1 2:-1.9477964 3:-1.4554118 
-0.739384119862919 0:-0.5976143 6:1 2:-1.9477964 3:-1.4552459 
0.2515787312881661 0:1.1952286 6:1 2:-1.9477964 3:-1.5471123 
-0.8206611202022063 0:-1.7928429 6:1 2:-1.9477964 3:-1.5469323 
-1 0:-1.7928429 6:1 2:-1.9477964 3:-1.4552368 
1 0:1.7928429 6:1 2:-1.9477964 3:-1.4571487 
1 0:1.7928429 6:1 2:-1.9477964 3:-1.5480064 
-0.3367107677296854 0:0 6:1 2:-1.9477964 3:-1.5469323 
1 0:0 6:1 2:-1.9477964 3:-1.5470223 
-1 0:0 6:1 2:-1.9477964 3:-1.4552669 
1 0:0 6:1 2:-1.9477964 3:-1.5474694 
1 0:0 6:1 2:-1.9477964 3:-1.4561927 
1 0:1.7928429 6:1 2:-0.89266106 3:-0.93617181 
-1 0:1.1952286 6:1 2:-0.89266106 3:-0.69670814 
-1 0:0 6:1 2:1.2495834 3:0.69539537 
1 0:0 6:1 2:1.2495834 3:0.89389578 
-1 0:0 6:1 2:1.2495834 3:-0.18431081 
1 0:0 6:1 2:1.2495834 3:-0.031884324 
-1 0:0 6:1 2:1.2495834 3:-0.18433384 
1 0:0 6:1 2:1.2495834 3:-0.0085258213 
-1 0:0 6:1 2:1.2495834 3:-0.0041554498 
1 0:0 6:1 2:1.2495834 3:-0.18630425 
1 0:0 6:1 2:1.2495834 3:0.67040776 
1 0:0 6:1 2:1.2495834 3:0.72084044 
1 0:0 6:1 2:1.2495834 3:-0.18448075 
-1 0:-0.5976143 7:1 2:0.16247426 3:-0.29393932 
-1 0:-0.5976143 7:1 2:0.16247426 3:-0.66923193 
-1 0:-0.5976143 7:1 2:0.16247426 3:-0.30607684 
1 0:-0.5976143 7:1 2:0.16247426 3:-1.0047537 
-1 0:1.1952286 7:1 2:0.16247426 3:-0.2983535 
-1 0:1.1952286 7:1 2:0.16247426 3:-0.1953429 
-1 0:1.1952286 7:1 2:0.16247426 3:-0.67132267 
-1 0:1.1952286 7:1 2:0.16247426 3:0.12660073 
-1 0:1.1952286 7:1 2:0.16247426 3:-0.31044884 
-1 0:0.5976143 7:1 2:0.16247426 3:0.15829245 
-1 0:0.5976143 7:1 2:0.16247426 3:-0.29455103 
-0.3396735955625182 0:0.5976143 7:1 2:0.16247426 3:0.14300532 
-1 0:0.5976143 7:1 2:0.16247426 3:-0.18055683 
-1 0:0.5976143 7:1 2:0.16247426 3:-0.30662742 
-1 0:0.5976143 7:1 2:0.16247426 3:-0.66973737 
1 0:0 7:1 2:0.16247426 3:-1.0077967 
1 0:0 7:1 2:0.16247426 3:0.17990488 
1 0:0 7:1 2:0.16247426 3:0.010583754 
1 0:0 7:1 2:0.16247426 3:-0.21240504 
-1 0:0 7:1 2:0.16247426 3:-0.30635213 
1 0:0 7:1 2:0.16247426 3:-1.0256702 
1 0:-1.1952286 7:1 2:0.16247426 3:0.21547813 
-1 0:-1.1952286 7:1 2:0.16247426 3:-0.30605626 
-1 0:-1.1952286 7:1 2:0.16247426 3:-0.29391854 
1 0:-1.1952286 7:1 2:0.16247426 3:-0.88301315 
1 0:-1.1952286 7:1 2:0.16247426 3:0.016193023 
0.05778221242001948 0:-1.7928429 7:1 2:0.16247426 3:-0.88111406 
-1 0:-1.7928429 7:1 2:0.16247426 3:-0.66922174 
1 0:-1.7928429 7:1 2:0.16247426 3:-0.88296557 
1 0:-1.7928429 7:1 2:0.16247426 3:0.21559489 
1 0:-1.7928429 7:1 2:0.16247426 3:-1.0042075 
1 0:-1.7928429 7:1 2:0.16247426 3:0.016279623 
0.5947531350553618 0:1.1952286 7:1 2:-1.9477964 3:-1.5471123 
-0.3694655321928231 0:-1.7928429 7:1 2:-1.9477964 3:-1.4552368 
-1 0:-1.7928429 7:1 2:-1.9477964 3:-1.5469323 
1 0:1.7928429 7:1 2:-1.9477964 3:-1.4571487 
1 0:1.7928429 7:1 2:-1.9477964 3:-1.5480064 
-0.667547101406058 0:0 7:1 2:-1.9477964 3:-1.5469323 
1 0:0 7:1 2:-1.9477964 3:-1.5470223 
1 0:0 7:1 2:-1.9477964 3:-1.5474694 
1 0:0 7:1 2:-1.9477964 3:-1.4561927 
-1 0:-0.5976143 7:1 2:-0.89266106 3:-0.85920779 
-1 0:-0.5976143 7:1 2:-0.89266106 3:0.49062957 
-1 0:-0.5976143 7:1 2:-0.89266106 3:-0.58580558 
-1 0:-0.5976143 7:1 2:-0.89266106 3:-0.69481505 
1 0:-0.5976143 7:1 2:-0.89266106 3:-1.0837478 
-1 0:-0.5976143 7:1 2:-0.89266106 3:-0.60234536 
-1 0:-0.5976143 7:1 2:-0.89266106 3:-0.48642741 
-1 0:-0.5976143 7:1 2:-0.89266106 3:0.095453891 
-1 0:-0.5976143 7:1 2:-0.89266106 3:-1.2890549 
-1 0:1.1952286 7:1 2:-0.89266106 3:-0.60457629 
-1 0:1.1952286 7:1 2:-0.89266106 3:-0.48852447 
-1 0:1.1952286 7:1 2:-0.89266106 3:-0.86087348 
-1 0:1.1952286 7:1 2:-0.89266106 3:-0.69670814 
1 0:0 7:1 2:-0.89266106 3:-0.59593723 
1 0:0 7:1 2:-0.89266106 3:-0.14907561 
1 0:1.7928429 7:1 2:-0.89266106 3:0.16145469 
1 0:1.7928429 7:1 2:-0.89266106 3:-1.0986559 
1 0:1.7928429 7:1 2:-0.89266106 3:-1.1528656 
1 0:-1.1952286 7:1 2:-0.89266106 3:-1.0836278 
-1 0:-1.1952286 7:1 2:-0.89266106 3:-0.69481505 
-0.5244971861396943 0:-1.1952286 7:1 2:-0.89266106 3:-0.85920015 
-1 0:-1.1952286 7:1 2:-0.89266106 3:-1.2890549 
1 0:-1.7928429 7:1 2:-0.89266106 3:-1.1232264 
-1 0:-1.7928429 7:1 2:-0.89266106 3:-1.2890549 
-1 0:0.5976143 7:1 2:1.2495834 3:0.15829245 
-1 0:0.5976143 7:1 2:1.2495834 3:0.69221622 
-1 0:0.5976143 7:1 2:1.2495834 3:0.34426573 
-1 0:0.5976143 7:1 2:1.2495834 3:-0.0054230776 
-1 0:0.5976143 7:1 2:1.2495834 3:-0.30662742 
-0.6473898652804618 0:0.5976143 7:1 2:1.2495834 3:-0.15475253 
-1 0:0.5976143 7:1 2:1.2495834 3:-0.7977037 
-1 0:-0.5976143 7:1 2:1.2495834 3:0.68607308 
-1 0:-0.5976143 7:1 2:1.2495834 3:-0.79429663 
-1 0:-0.5976143 7:1 2:1.2495834 3:0.34868644 
-1 0:-0.5976143 7:1 2:1.2495834 3:-0.30607684 
-1 0:-0.5976143 7:1 2:1.2495834 3:-0.0039618721 
-1 0:-0.5976143 7:1 2:1.2495834 3:1.3251293 
-1 0:-0.5976143 7:1 2:1.2495834 3:0.69561646 
-1 0:-0.5976143 7:1 2:1.2495834 3:0.9680301 
1 0:0 7:1 2:1.2495834 3:-0.031884324 
1 0:0 7:1 2:1.2495834 3:-0.8014641 
1 0:0 7:1 2:1.2495834 3:0.093968438 
-1 0:0 7:1 2:1.2495834 3:0.68525619 
1 0:0 7:1 2:1.2495834 3:0.2905997 
-1 0:0 7:1 2:1.2495834 3:0.69539537 
1 0:0 7:1 2:1.2495834 3:-0.81494922 
1 0:0 7:1 2:1.2495834 3:-0.3206347 
-1 0:0 7:1 2:1.2495834 3:-0.0041554498 
1 0:0 7:1 2:1.2495834 3:0.72084044 
-1 0:0 7:1 2:1.2495834 3:0.34647619 
1 0:0 7:1 2:1.2495834 3:0.22029251 
1 0:0 7:1 2:1.2495834 3:0.1450173 
-1 0:0 7:1 2:1.2495834 3:0.69391624 
1 0:0 7:1 2:1.2495834 3:0.67040776 
1 0:0 7:1 2:1.2495834 3:-0.0085258213 
-1 0:0 7:1 2:1.2495834 3:0.16306546 
1 0:0 7:1 2:1.2495834 3:-0.18134744 
1 0:0 7:1 2:1.2495834 3:0.55858001 
-1 0:0 7:1 2:1.2495834 3:-0.14791699 
-1 0:0 7:1 2:1.2495834 3:0.34787361 
1 0:0 7:1 2:1.2495834 3:0.89389578 
1 0:0 7:1 2:1.2495834 3:0.33685579 
1 0:0 7:1 2:1.2495834 3:-0.89397332 
1 0:0 7:1 2:1.2495834 3:0.53536169 
1 0:0 7:1 2:1.2495834 3:0.65727036 
1 0:0 7:1 2:1.2495834 3:0.30190586 
1 0:0 8:1 2:0.16247426 3:1.2634469 
-1 0:0 8:1 2:0.16247426 3:1.5015233 
1 0:0 8:1 2:0.16247426 3:1.4578139 
-1 0:-0.5976143 8:1 2:0.16247426 3:1.5015245 
1 0:-1.7928429 8:1 2:0.16247426 3:1.5015245 
-0.8985941639467262 0:-0.5976143 8:1 2:-1.9477964 3:-1.4552459 
0.1286656710325834 0:1.1952286 8:1 2:-1.9477964 3:-1.4557652 
1 0:1.7928429 8:1 2:-1.9477964 3:-1.4571487 
1 0:0 8:1 2:-1.9477964 3:-1.4561927 
-1 0:-1.7928429 8:1 2:-1.9477964 3:-1.4552368 
-1 0:-0.5976143 8:1 2:-0.89266106 3:0.8666861 
-0.3534319568140147 0:-0.5976143 8:1 2:-0.89266106 3:0.74905081 
1 0:0 9:1 2:-1.9477964 3:-1.5470223 
1 0:0 9:1 2:-1.9477964 3:-1.5474694 
1 0:0 9:1 2:-1.9477964 3:-1.2900942 
-1 0:0 9:1 2:-1.9477964 3:-1.2876235 
1 0:1.7928429 9:1 2:-1.9477964 3:-1.2927137 
1 0:1.7928429 9:1 2:-1.9477964 3:-1.5480064 
-1 0:-1.7928429 9:1 2:-1.9477964 3:-1.5469323 
-0.03008695250724242 0:-1.7928429 9:1 2:-1.9477964 3:-1.2874748 
-1 0:-0.5976143 9:1 2:-0.89266106 3:1.2437981 
-1 0:-0.5976143 9:1 2:-0.89266106 3:0.99318766 
-1 0:-0.5976143 9:1 2:-0.89266106 3:0.29531749 
-1 0:-0.5976143 9:1 2:-0.89266106 3:0.6085805 
-1 0:-0.5976143 9:1 2:-0.89266106 3:1.3643603 
-1 0:-0.5976143 9:1 2:-0.89266106 3:1.1587772 
-1 0:1.1952286 9:1 2:-0.89266106 3:0.29173631 
-1 0:0.5976143 9:1 2:-0.89266106 3:0.6080448 
-1 0:0.5976143 9:1 2:-0.89266106 3:0.29521031 
-1 0:0 9:1 2:-0.89266106 3:0.99316076 
1 0:0 9:1 2:-0.89266106 3:0.27027609 
1 0:0 9:1 2:-0.89266106 3:1.3354333 
1 0:0 9:1 2:-0.89266106 3:0.96797305 
-1 0:0 9:1 2:-0.89266106 3:1.2437244 
1 0:0 9:1 2:-0.89266106 3:1.1885111 
1 0:0 9:1 2:-0.89266106 3:0.2935268 
1 0:0 9:1 2:-0.89266106 3:1.1228942 
-1 0:0 9:1 2:-0.89266106 3:0.29531749 
1 0:0 9:1 2:-0.89266106 3:0.8605067 
1 0:0 9:1 2:-0.89266106 3:0.60151267 
1 0:0 9:1 2:-0.89266106 3:0.54541286 
1 0:0 9:1 2:-0.89266106 3:1.2030005 
-1 0:0 9:1 2:-0.89266106 3:1.3638468 
-1 0:0 9:1 2:-0.89266106 3:0.60855523 
1 0:0 9:1 2:-0.89266106 3:1.0580516 
1 0:0 9:1 2:-0.89266106 3:0.98936195 
-1 0:0 9:1 2:-0.89266106 3:1.1587006 
-0.2676770639600673 0:0 9:1 2:-0.89266106 3:0.2952639 
0.2508650773495437 0:1.7928429 9:1 2:-0.89266106 3:1.0126436 
-1 0:0 9:1 2:1.2495834 3:0.98498037 
1 0:0 9:1 2:1.2495834 3:1.9086525 
-1 0:0 9:1 2:1.2495834 3:2.0366363 
-1 0:0 9:1 2:1.2495834 3:0.9846574 
1 0:0 9:1 2:1.2495834 3:1.9531542 
-1 0:0 9:1 2:1.2495834 3:2.2727056 
1 0:0 9:1 2:1.2495834 3:2.093108 
-1 0:0 9:1 2:1.2495834 3:1.8817905 
1 0:0 9:1 2:1.2495834 3:1.2359014 
-1 0:0 9:1 2:1.2495834 3:1.3907916 
1 0:0 9:1 2:1.2495834 3:1.766395 
1 0:0 9:1 2:1.2495834 3:1.8204667 
1 0:0 9:1 2:1.2495834 3:2.1849995 
0.7167714280411789 0:1.7928429 9:1 2:1.2495834 3:1.3666539 
-0.3505748072550367 0:-1.1952286 9:1 2:1.2495834 3:0.98503844 
-0.4616658725467344 0:-1.1952286 9:1 2:1.2495834 3:2.4330543 
-1 0:-0.5976143 5:1 2:0.16247426 3:-0.0039618721 
-1 0:1.1952286 5:1 2:0.16247426 3:-0.013154364 
-1 0:1.1952286 5:1 2:0.16247426 3:0.12660073 
-1 0:0.5976143 5:1 2:0.16247426 3:-0.0054230776 
-1 0:0.5976143 5:1 2:0.16247426 3:0.15829245 
1 0:0 5:1 2:0.16247426 3:0.22029251 
1 0:0 5:1 2:0.16247426 3:0.79186794 
1 0:0 5:1 2:0.16247426 3:0.1450173 
1 0:0 5:1 2:0.16247426 3:0.70388345 
-0.391154192914296 0:0 5:1 2:1.2495834 3:0.96720913 
1 0:0 5:1 2:1.2495834 3:0.53536169 
1 0:0 5:1 2:1.2495834 3:0.94593515 
1 0:0 5:1 2:1.2495834 3:0.2905997 
1 0:0 5:1 2:1.2495834 3:0.72084044 
-1 0:0 5:1 2:1.2495834 3:0.34647619 
-1 0:-0.5976143 5:1 2:1.2495834 3:0.9680301 
-1 0:-0.5976143 5:1 2:1.2495834 3:0.68607308 
-1 0:-0.5976143 5:1 2:1.2495834 3:0.34868644 
-1 0:-0.5976143 5:1 2:1.2495834 3:1.3251293 
-1 0:-1.1952286 5:1 2:1.2495834 3:1.3254537 
-0.8795044804311815 0:-1.7928429 5:1 2:1.2495834 3:1.325547 
-1 0:-0.5976143 4:1 2:0.16247426 3:-0.53441897 
-1 0:-0.5976143 4:1 2:0.16247426 3:-0.29393932 
1 0:-0.5976143 4:1 2:0.16247426 3:-0.39063542 
-1 0:1.1952286 4:1 2:0.16247426 3:-0.2983535 
-1 0:1.1952286 4:1 2:0.16247426 3:-0.41222483 
-1 0:1.1952286 4:1 2:0.16247426 3:-0.53620274 
-0.6972758864431386 0:0.5976143 4:1 2:0.16247426 3:-0.83161167 
-1 0:0.5976143 4:1 2:0.16247426 3:-0.29455103 
-1 0:0.5976143 4:1 2:0.16247426 3:-0.98530059 
-1 0:0.5976143 4:1 2:0.16247426 3:-0.5346531 
-1 0:0.5976143 4:1 2:0.16247426 3:-0.39354173 
1 0:0 4:1 2:0.16247426 3:-0.4299975 
1 0:0 4:1 2:0.16247426 3:-0.11807344 
1 0:0 4:1 2:0.16247426 3:0.066395852 
1 0:0 4:1 2:0.16247426 3:-0.98555815 
1 0:0 4:1 2:0.16247426 3:-0.98873486 
-1 0:0 4:1 2:0.16247426 3:-0.53453604 
1 0:0 4:1 2:0.16247426 3:-0.9016772 
-1 0:0 4:1 2:0.16247426 3:-0.29424517 
1 0:0 4:1 2:0.16247426 3:-0.30821211 
1 0:0 5:1 2:1.2495834 3:0.33685579 
