svm_type epsilon_svr
kernel_type rbf
gamma 0.1
nr_class 2
total_sv 785
rho -1.77356
SV
1 0:1.7928429 1:1 2:1.3496622 3:2.5235593 
1 0:0 1:1 2:1.3496622 3:2.5237662 
-1 0:1.7928429 1:1 2:1.3496622 3:2.1837693 
-0.2866000043770955 0:-1.7928429 1:1 2:1.3496622 3:1.2598143 
1 0:0.5976143 1:1 2:1.3496622 3:0.94367423 
1 0:-1.7928429 6:1 2:-0.44988739 3:-0.70779416 
1 0:0 7:1 2:0.43645792 3:-0.32006389 
-0.1172488278276246 0:-1.1952286 6:1 2:-0.44988739 3:-0.18255002 
-1 0:-1.7928429 6:1 2:-0.44988739 3:-0.18255002 
-1 0:1.7928429 6:1 2:-0.44988739 3:-0.34135493 
-1 0:1.1952286 6:1 2:-0.44988739 3:-0.34130951 
-1 0:-0.5976143 6:1 2:-0.44988739 3:-0.34118275 
-1 0:0.5976143 6:1 2:-0.44988739 3:-0.34126948 
-1 0:-1.7928429 6:1 2:-0.44988739 3:-0.34118275 
-1 0:0 6:1 2:-0.44988739 3:-0.34122612 
-1 0:1.7928429 6:1 2:-0.44988739 3:-0.55997418 
-1 0:0 6:1 2:-0.44988739 3:-0.34122406 
-0.05502157218222518 0:1.1952286 6:1 2:-0.44988739 3:-0.55997418 
-1 0:1.1952286 6:1 2:-0.44988739 3:-0.70779416 
1 0:-1.1952286 6:1 2:-0.44988739 3:-0.70779416 
-1 0:1.7928429 6:1 2:-0.44988739 3:-0.70779416 
1 0:-0.5976143 6:1 2:-0.44988739 3:-0.70779416 
1 0:-1.7928429 6:1 2:-0.44988739 3:-0.70779416 
-1 0:1.7928429 6:1 2:-0.44988739 3:-0.56186128 
-1 0:1.1952286 6:1 2:-0.44988739 3:-0.56183601 
-1 0:0.5976143 6:1 2:-0.44988739 3:-0.56183601 
-1 0:-1.1952286 6:1 2:-0.44988739 3:-0.56183601 
-1 0:-0.5976143 6:1 2:-0.44988739 3:-0.56183601 
-1 0:-1.7928429 6:1 2:-0.44988739 3:-0.56183601 
-1 0:0 6:1 2:-0.44988739 3:-0.56183601 
-1 0:1.7928429 6:1 2:-0.44988739 3:-0.71897134 
-1 0:0 6:1 2:-0.44988739 3:-0.56184871 
-1 0:0 6:1 2:-0.44988739 3:-0.56183601 
-1 0:0 6:1 2:-0.44988739 3:-0.56183601 
-1 0:1.1952286 6:1 2:-0.44988739 3:-0.71896832 
-1 0:0.5976143 6:1 2:-0.44988739 3:-0.71896832 
-1 0:-1.1952286 6:1 2:-0.44988739 3:-0.71896832 
-1 0:-0.5976143 6:1 2:-0.44988739 3:-0.71896832 
-1 0:-1.7928429 6:1 2:-0.44988739 3:-0.71896832 
-1 0:0 6:1 2:-0.44988739 3:-0.71896832 
-1 0:0 6:1 2:-0.44988739 3:-0.71896986 
-1 0:0 6:1 2:-0.44988739 3:-0.71896832 
-1 0:0 6:1 2:-0.44988739 3:-0.71896832 
-0.04213719056925631 0:1.7928429 7:1 2:-0.44988739 3:0.29664859 
-0.5285899366549386 0:-1.7928429 7:1 2:-0.44988739 3:0.29683564 
1 0:-0.5976143 7:1 2:-0.44988739 3:0.044136849 
1 0:-1.1952286 7:1 2:-0.44988739 3:0.044136849 
1 0:-1.7928429 7:1 2:-0.44988739 3:0.044140441 
1 0:0 7:1 2:-0.44988739 3:0.044136849 
1 0:0 7:1 2:-0.44988739 3:0.044138645 
-1 0:0.5976143 7:1 2:-0.44988739 3:-0.1941006 
-1 0:1.1952286 7:1 2:-0.44988739 3:-0.19410368 
-1 0:1.7928429 7:1 2:-0.44988739 3:-0.19410368 
-1 0:-0.5976143 7:1 2:-0.44988739 3:-0.1941006 
-1 0:-1.7928429 7:1 2:-0.44988739 3:-0.1941006 
-1 0:-1.1952286 7:1 2:-0.44988739 3:-0.1941006 
-1 0:0 7:1 2:-0.44988739 3:-0.19410214 
-1 0:0 7:1 2:-0.44988739 3:-0.1941006 
-0.2146895164651816 0:1.1952286 7:1 2:-0.44988739 3:-0.38856167 
-1 0:0 7:1 2:-0.44988739 3:-0.19410214 
-1 0:1.7928429 7:1 2:-0.44988739 3:-0.38863236 
-1 0:0 7:1 2:-0.44988739 3:-0.1941006 
-1 0:-0.5976143 7:1 2:-0.44988739 3:-0.38840361 
-1 0:0.5976143 7:1 2:-0.44988739 3:-0.38849508 
-1 0:-1.1952286 7:1 2:-0.44988739 3:-0.38836461 
-1 0:-1.7928429 7:1 2:-0.44988739 3:-0.38832317 
-1 0:0 7:1 2:-0.44988739 3:-0.38846314 
-1 0:1.7928429 7:1 2:-0.44988739 3:-0.5145283 
-1 0:0 7:1 2:-0.44988739 3:-0.38844325 
-1 0:0 7:1 2:-0.44988739 3:-0.38844928 
-1 0:1.1952286 7:1 2:-0.44988739 3:-0.5145283 
-1 0:0.5976143 7:1 2:-0.44988739 3:-0.5145283 
-1 0:-1.1952286 7:1 2:-0.44988739 3:-0.5145283 
-1 0:-0.5976143 7:1 2:-0.44988739 3:-0.5145283 
-1 0:-1.7928429 7:1 2:-0.44988739 3:-0.5145283 
-1 0:0 7:1 2:-0.44988739 3:-0.5145283 
-1 0:1.7928429 8:1 2:-0.44988739 3:0.80678388 
-1 0:0 7:1 2:-0.44988739 3:-0.5145283 
-1 0:0 7:1 2:-0.44988739 3:-0.5145283 
-1 0:0 7:1 2:-0.44988739 3:-0.5145283 
-0.6901350529397406 0:-1.7928429 8:1 2:-0.44988739 3:0.8067885 
-1 0:1.1952286 8:1 2:-0.44988739 3:0.4725952 
-1 0:1.7928429 8:1 2:-0.44988739 3:0.47259289 
-0.2392262973093859 0:0.5976143 8:1 2:-0.44988739 3:0.4725952 
-1 0:-0.5976143 8:1 2:-0.44988739 3:0.4725952 
-0.3292554474185188 0:-1.1952286 8:1 2:-0.44988739 3:0.4725952 
-1 0:-1.7928429 8:1 2:-0.44988739 3:0.4725952 
-1 0:0 8:1 2:-0.44988739 3:0.4725952 
-1 0:0 8:1 2:-0.44988739 3:0.47259417 
-1 0:0 8:1 2:-0.44988739 3:0.4725952 
1 0:1.7928429 9:1 2:-1.3362327 3:-1.2862671 
-0.7014205288305745 0:-0.5976143 1:1 2:-0.44988739 3:0.35306747 
-1 0:-1.7928429 1:1 2:-0.44988739 3:0.10419124 
-1 0:0.5976143 1:1 2:-0.44988739 3:-0.070694621 
-1 0:1.1952286 1:1 2:-0.44988739 3:-0.070694621 
-1 0:-0.5976143 1:1 2:-0.44988739 3:-0.070694621 
-1 0:-1.7928429 1:1 2:-0.44988739 3:-0.070694621 
-0.1909762488774855 0:-1.1952286 1:1 2:-0.44988739 3:-0.070694621 
-1 0:0 1:1 2:-0.44988739 3:-0.070694621 
-1 0:0 1:1 2:-0.44988739 3:-0.070694621 
-0.4629111786473172 0:1.7928429 1:1 2:-0.44988739 3:0.62338843 
-0.08091703662722068 0:-0.5976143 1:1 2:-0.44988739 3:0.35306747 
1 0:1.7928429 9:1 2:-1.3362327 3:-1.2862671 
1 0:1.7928429 6:1 2:-1.3362327 3:-1.2862671 
-1 0:1.7928429 6:1 2:-0.44988739 3:-0.44121443 
-1 0:1.1952286 6:1 2:-0.44988739 3:-0.44117068 
-1 0:-0.5976143 6:1 2:-0.44988739 3:-0.44116799 
-1 0:-1.1952286 6:1 2:-0.44988739 3:-0.44116799 
-1 0:-1.7928429 6:1 2:-0.44988739 3:-0.44116799 
-1 0:1.1952286 6:1 2:-0.44988739 3:-0.57841051 
-1 0:1.7928429 6:1 2:-0.44988739 3:-0.57841051 
-1 0:0.5976143 6:1 2:-0.44988739 3:-0.57841051 
-1 0:-1.1952286 6:1 2:-0.44988739 3:-0.57841051 
-1 0:-1.7928429 6:1 2:-0.44988739 3:-0.57841051 
-1 0:0 6:1 2:-0.44988739 3:-0.57841051 
-1 0:1.7928429 6:1 2:-0.44988739 3:-0.70779416 
-1 0:0 6:1 2:-0.44988739 3:-0.57841051 
-1 0:0 6:1 2:-0.44988739 3:-0.57841051 
-1 0:0 6:1 2:-0.44988739 3:-0.57841051 
-1 0:1.1952286 6:1 2:-0.44988739 3:-0.70779416 
1 0:-1.1952286 6:1 2:-0.44988739 3:-0.70779416 
1 0:-0.5976143 6:1 2:-0.44988739 3:-0.70779416 
-1 0:0.5976143 6:1 2:-0.44988739 3:-0.93243683 
0.797138211721392 0:1.1952286 6:1 2:-0.44988739 3:-0.93243683 
-0.2718339132763931 0:-1.7928429 6:1 2:-0.44988739 3:-0.93243683 
-1 0:0 6:1 2:-0.44988739 3:-0.93243683 
-1 0:-1.1952286 6:1 2:-0.44988739 3:-0.93243683 
-1 0:0 6:1 2:-0.44988739 3:-0.93243683 
-0.2736068411454482 0:-1.7928429 5:1 2:-0.44988739 3:0.4725952 
-0.4924391753073512 0:0.5976143 5:1 2:-0.44988739 3:0.1736742 
-1 0:1.1952286 5:1 2:-0.44988739 3:0.1736742 
-1 0:-1.7928429 5:1 2:-0.44988739 3:0.1736742 
-0.9661431036359984 0:1.1952286 5:1 2:-0.44988739 3:-0.071879816 
-1 0:1.7928429 5:1 2:-0.44988739 3:-0.072213512 
-1 0:0 5:1 2:-0.44988739 3:0.1736742 
-1 0:-1.7928429 5:1 2:-0.44988739 3:-0.071874427 
-1 0:0.5976143 5:1 2:-0.44988739 3:-0.23681982 
-1 0:1.1952286 5:1 2:-0.44988739 3:-0.2368279 
-1 0:-0.5976143 5:1 2:-0.44988739 3:-0.23681982 
-1 0:1.7928429 5:1 2:-0.44988739 3:-0.2368279 
-1 0:-1.7928429 5:1 2:-0.44988739 3:-0.23681982 
-0.2943843734168681 0:0 5:1 2:-0.44988739 3:-0.23682392 
-1 0:0 5:1 2:-0.44988739 3:-0.23681982 
-1 0:0 5:1 2:-0.44988739 3:-0.23682392 
-1 0:0 5:1 2:-0.44988739 3:-0.23681982 
-1 0:-1.7928429 5:1 2:-0.44988739 3:0.76652421 
1 0:-0.5976143 5:1 2:-0.44988739 3:0.044136849 
1 0:-1.7928429 5:1 2:-0.44988739 3:0.044140441 
1 0:-1.1952286 5:1 2:-0.44988739 3:0.044136849 
-1 0:1.7928429 5:1 2:-0.44988739 3:-0.19410368 
-1 0:1.1952286 5:1 2:-0.44988739 3:-0.19410368 
-1 0:0.5976143 5:1 2:-0.44988739 3:-0.1941006 
-1 0:-1.1952286 5:1 2:-0.44988739 3:-0.1941006 
-1 0:0 5:1 2:-0.44988739 3:-0.19410214 
-1 0:0 5:1 2:-0.44988739 3:-0.1941006 
-1 0:-0.5976143 5:1 2:-0.44988739 3:-0.1941006 
-1 0:-1.7928429 5:1 2:-0.44988739 3:-0.1941006 
-1 0:0 5:1 2:-0.44988739 3:-0.1941006 
-1 0:0 5:1 2:-0.44988739 3:-0.19410214 
-1 0:1.7928429 4:1 2:-0.44988739 3:-0.022508855 
-0.7868347612359544 0:-1.7928429 4:1 2:-0.44988739 3:-0.20974714 
-1 0:1.1952286 4:1 2:-0.44988739 3:-0.55935567 
-1 0:-0.5976143 4:1 2:-0.44988739 3:-0.55935567 
-1 0:-1.7928429 4:1 2:-0.44988739 3:-0.55935567 
-1 0:0 4:1 2:-0.44988739 3:-0.55935567 
-1 0:1.7928429 4:1 2:-0.44988739 3:-0.55935567 
-1 0:0.5976143 4:1 2:-0.44988739 3:-0.55935567 
-1 0:-1.1952286 4:1 2:-0.44988739 3:-0.55935567 
-1 0:0 4:1 2:-0.44988739 3:-0.55935567 
-1 0:1.7928429 4:1 2:-0.44988739 3:-0.7057762 
-1 0:0.5976143 4:1 2:-0.44988739 3:-0.7057762 
-1 0:0 4:1 2:-0.44988739 3:-0.55935567 
-1 0:1.1952286 4:1 2:-0.44988739 3:-0.7057762 
-1 0:-0.5976143 4:1 2:-0.44988739 3:-0.7057762 
-1 0:-1.7928429 4:1 2:-0.44988739 3:-0.7057762 
-1 0:0 4:1 2:-0.44988739 3:-0.7057762 
-1 0:1.7928429 4:1 2:-0.44988739 3:-0.97312744 
-1 0:0 4:1 2:-0.44988739 3:-0.7057762 
-1 0:0 4:1 2:-0.44988739 3:-0.7057762 
-1 0:0 4:1 2:-0.44988739 3:-0.7057762 
-1 0:1.1952286 4:1 2:-0.44988739 3:-0.97309242 
-1 0:0.5976143 4:1 2:-0.44988739 3:-0.97307529 
-1 0:0 4:1 2:-0.44988739 3:-0.97307144 
-1 0:0 4:1 2:-0.44988739 3:-0.97307022 
-0.1541959474087675 0:1.7928429 4:1 2:-0.44988739 3:-0.04767493 
-1 0:1.7928429 4:1 2:-0.44988739 3:-0.43851278 
-1 0:1.1952286 4:1 2:-0.44988739 3:-0.43849033 
-1 0:0.5976143 4:1 2:-0.44988739 3:-0.43848456 
1 0:-0.5976143 4:1 2:-0.44988739 3:-0.56648557 
1 0:-1.1952286 4:1 2:-0.44988739 3:-0.56648185 
0.09766855544919864 0:0 4:1 2:-0.44988739 3:-0.56650712 
-1 0:0.5976143 4:1 2:-0.44988739 3:-0.14426007 
-1 0:0.5976143 4:1 2:-0.44988739 3:-0.34811187 
-1 0:-1.7928429 4:1 2:-0.44988739 3:-0.34811187 
-1 0:0 4:1 2:-0.44988739 3:-0.34811187 
-1 0:1.1952286 4:1 2:-0.44988739 3:-0.56183601 
-1 0:1.1952286 4:1 2:-0.44988739 3:-0.14426315 
-1 0:-1.7928429 4:1 2:-0.44988739 3:-0.14426007 
-1 0:-0.5976143 4:1 2:-0.44988739 3:-0.34811187 
-1 0:0 4:1 2:-0.44988739 3:-0.34811187 
-0.1801998443108693 0:1.7928429 4:1 2:-0.44988739 3:-0.56186128 
-1 0:0.5976143 4:1 2:-0.44988739 3:-0.56183601 
-1 0:0.5976143 4:1 2:-0.44988739 3:-0.67737612 
-1 0:0 4:1 2:-0.44988739 3:-0.67739292 
-1 0:0 4:1 2:-0.44988739 3:-0.67738452 
-1 0:1.1952286 9:1 2:-0.44988739 3:-0.70779416 
-1 0:1.7928429 9:1 2:-0.44988739 3:-0.70779416 
-1 0:0.5976143 9:1 2:-0.44988739 3:-0.70779416 
-1 0:0.5976143 9:1 2:-0.44988739 3:-0.93243683 
-1 0:-1.1952286 9:1 2:-0.44988739 3:-0.93243683 
-1 0:-1.7928429 9:1 2:-0.44988739 3:-0.93243683 
-1 0:0 9:1 2:-0.44988739 3:-0.93243683 
-1 0:0 9:1 2:-0.44988739 3:-0.93243683 
-1 0:0.5976143 9:1 2:-0.44988739 3:-0.93243683 
-1 0:-1.1952286 9:1 2:-0.44988739 3:-0.93243683 
-1 0:-1.7928429 9:1 2:-0.44988739 3:-0.93243683 
-1 0:0 9:1 2:-0.44988739 3:-0.93243683 
-1 0:0 9:1 2:-0.44988739 3:-0.93243683 
-1 0:1.1952286 9:1 2:-0.44988739 3:-0.80422792 
-1 0:0.5976143 9:1 2:-0.44988739 3:-0.80422792 
-1 0:-0.5976143 9:1 2:-0.44988739 3:-0.80422792 
-1 0:-1.7928429 9:1 2:-0.44988739 3:-0.80422792 
-1 0:0 9:1 2:-0.44988739 3:-0.80422792 
-1 0:-1.1952286 9:1 2:-0.44988739 3:-0.80422792 
-1 0:0 9:1 2:-0.44988739 3:-0.80422792 
-1 0:0 9:1 2:-0.44988739 3:-0.80422792 
-1 0:1.7928429 9:1 2:-0.44988739 3:-0.93348276 
-1 0:1.1952286 9:1 2:-0.44988739 3:-0.93348276 
-1 0:-0.5976143 9:1 2:-0.44988739 3:-0.93348276 
-1 0:0.5976143 9:1 2:-0.44988739 3:-0.93348276 
-0.6675713352663869 0:-1.1952286 9:1 2:-0.44988739 3:-0.93348276 
-1 0:0 9:1 2:-0.44988739 3:-0.93348276 
-1 0:0 9:1 2:-0.44988739 3:-0.93348276 
-1 0:-1.7928429 9:1 2:-0.44988739 3:-0.93348276 
-1 0:0 9:1 2:-0.44988739 3:-0.93348276 
-1 0:0 9:1 2:-0.44988739 3:-0.93348276 
-0.9807034065192024 0:1.7928429 9:1 2:-0.44988739 3:-0.97515439 
-1 0:0.5976143 9:1 2:-0.44988739 3:-0.97515439 
-1 0:-0.5976143 9:1 2:-0.44988739 3:-0.97515439 
-1 0:-1.7928429 9:1 2:-0.44988739 3:-0.97515439 
-1 0:-1.1952286 9:1 2:-0.44988739 3:-0.97515439 
-1 0:0 9:1 2:-0.44988739 3:-0.97515439 
-1 0:0 9:1 2:-0.44988739 3:-0.97515439 
1 0:-0.5976143 6:1 2:0.43645792 3:-0.10911915 
1 0:-1.1952286 6:1 2:0.43645792 3:-0.10911915 
1 0:1.1952286 6:1 2:0.43645792 3:-0.49475307 
1 0:1.7928429 6:1 2:0.43645792 3:-0.49475307 
1 0:0.5976143 6:1 2:0.43645792 3:-0.49475307 
1 0:-1.1952286 6:1 2:0.43645792 3:-0.49475307 
1 0:0 6:1 2:0.43645792 3:-0.49475307 
1 0:0 6:1 2:0.43645792 3:-0.49475307 
1 0:0 6:1 2:0.43645792 3:-0.49475307 
-1 0:0.5976143 6:1 2:0.43645792 3:-0.68125148 
-1 0:0 6:1 2:0.43645792 3:-0.68125148 
-0.4538786127965727 0:0 6:1 2:0.43645792 3:-0.68125148 
1 0:0 6:1 2:0.43645792 3:0.23682308 
1 0:1.1952286 6:1 2:0.43645792 3:0.042826181 
1 0:0.5976143 6:1 2:0.43645792 3:0.042846324 
0.1619221945664668 0:-1.1952286 6:1 2:0.43645792 3:0.042909188 
1 0:0 6:1 2:0.43645792 3:0.042867621 
1 0:-0.5976143 6:1 2:0.43645792 3:0.04288802 
1 0:0 6:1 2:0.43645792 3:0.04286839 
1 0:0 6:1 2:0.43645792 3:0.042867107 
1 0:0 6:1 2:0.43645792 3:0.042867236 
1 0:1.1952286 6:1 2:0.43645792 3:-0.20633486 
1 0:1.7928429 6:1 2:0.43645792 3:-0.20633486 
1 0:-0.5976143 6:1 2:0.43645792 3:-0.2063382 
1 0:-1.1952286 6:1 2:0.43645792 3:-0.2063382 
1 0:0 6:1 2:0.43645792 3:-0.20633486 
1 0:1.1952286 6:1 2:0.43645792 3:-0.45332861 
1 0:0 6:1 2:0.43645792 3:-0.20633653 
1 0:1.7928429 6:1 2:0.43645792 3:-0.45335619 
1 0:0 6:1 2:0.43645792 3:-0.20633653 
1 0:-0.5976143 6:1 2:0.43645792 3:-0.45329371 
1 0:0 6:1 2:0.43645792 3:-0.45332502 
1 0:-1.1952286 6:1 2:0.43645792 3:-0.45329371 
1 0:0 6:1 2:0.43645792 3:-0.45331116 
1 0:0 6:1 2:0.43645792 3:-0.45330077 
1 0:1.7928429 6:1 2:0.43645792 3:-0.30063981 
1 0:1.1952286 6:1 2:0.43645792 3:-0.30063981 
1 0:0 6:1 2:0.43645792 3:-0.30063891 
1 0:0 6:1 2:0.43645792 3:-0.30064045 
1 0:-1.7928429 6:1 2:0.43645792 3:0.23682308 
1 0:1.7928429 6:1 2:0.43645792 3:0.23678113 
1 0:-1.1952286 6:1 2:0.43645792 3:0.23682308 
1 0:0 6:1 2:0.43645792 3:0.23682308 
1 0:-0.5976143 6:1 2:0.43645792 3:0.23682308 
1 0:0 6:1 2:0.43645792 3:0.23682308 
1 0:0 6:1 2:0.43645792 3:0.23680204 
1 0:0.5976143 7:1 2:0.43645792 3:0.75298159 
0.3244180290003745 0:1.1952286 7:1 2:0.43645792 3:0.7530442 
0.9333764969308945 0:0 7:1 2:0.43645792 3:0.75301546 
1 0:0 7:1 2:0.43645792 3:0.75303778 
1 0:0.5976143 7:1 2:0.43645792 3:0.42514841 
1 0:-0.5976143 7:1 2:0.43645792 3:0.42514841 
1 0:-1.1952286 7:1 2:0.43645792 3:0.42514841 
1 0:-1.7928429 7:1 2:0.43645792 3:0.42514841 
1 0:0 7:1 2:0.43645792 3:0.42514841 
1 0:0 7:1 2:0.43645792 3:0.42514662 
1 0:0 7:1 2:0.43645792 3:0.42514841 
1 0:0 7:1 2:0.43645792 3:0.42514841 
0.2682185571224031 0:-1.1952286 7:1 2:0.43645792 3:0.12864143 
1 0:0 7:1 2:0.43645792 3:0.12864143 
1 0:1.7928429 7:1 2:0.43645792 3:-0.32028751 
1 0:1.1952286 7:1 2:0.43645792 3:-0.3202394 
1 0:0.5976143 7:1 2:0.43645792 3:-0.32019745 
1 0:-0.5976143 7:1 2:0.43645792 3:-0.32003772 
1 0:-1.7928429 7:1 2:0.43645792 3:-0.31999833 
1 0:0 7:1 2:0.43645792 3:-0.32011752 
1 0:-1.1952286 7:1 2:0.43645792 3:-0.32001809 
1 0:0 7:1 2:0.43645792 3:-0.32014292 
1 0:0 7:1 2:0.43645792 3:-0.32012881 
1 0:0.5976143 8:1 2:0.43645792 3:1.3449625 
1 0:-0.5976143 8:1 2:0.43645792 3:1.3449664 
1 0:0 8:1 2:0.43645792 3:1.3449664 
1 0:0 8:1 2:0.43645792 3:1.3449646 
1 0:-0.5976143 8:1 2:0.43645792 3:0.83040232 
0.9076648797011732 0:-1.7928429 8:1 2:0.43645792 3:0.83040232 
1 0:0 8:1 2:0.43645792 3:0.83038154 
-1 0:0 4:1 2:1.3496622 3:0.034486455 
1 0:1.1952286 8:1 2:0.43645792 3:0.83030816 
1 0:0.5976143 8:1 2:0.43645792 3:0.83036076 
1 0:-1.1952286 8:1 2:0.43645792 3:0.83040232 
1 0:0 8:1 2:0.43645792 3:0.83040232 
-1 0:1.7928429 7:1 2:1.3496622 3:1.1889392 
1 0:1.7928429 1:1 2:0.43645792 3:2.7183723 
-1 0:0.5976143 1:1 2:0.43645792 3:2.719119 
1 0:0 1:1 2:0.43645792 3:2.7187459 
-0.2862302304445878 0:-1.7928429 1:1 2:0.43645792 3:2.719119 
-0.5191737524081872 0:0 1:1 2:0.43645792 3:2.719119 
-1 0:0 1:1 2:0.43645792 3:2.719119 
-1 0:1.1952286 1:1 2:0.43645792 3:2.3458045 
-0.5276806318049382 0:0.5976143 1:1 2:0.43645792 3:2.3458045 
-1 0:1.7928429 1:1 2:0.43645792 3:2.0195751 
-1 0:1.7928429 1:1 2:0.43645792 3:1.7135244 
1 0:0 1:1 2:0.43645792 3:1.7135244 
1 0:0 1:1 2:0.43645792 3:1.4056297 
1 0:-0.5976143 1:1 2:0.43645792 3:1.1298481 
1 0:1.1952286 1:1 2:0.43645792 3:0.82379767 
1 0:0 1:1 2:0.43645792 3:1.5078525 
1 0:1.1952286 1:1 2:0.43645792 3:0.95832533 
0.322560754547537 0:1.1952286 1:1 2:0.43645792 3:0.67245405 
1 0:0.5976143 1:1 2:0.43645792 3:0.67245405 
1 0:-0.5976143 1:1 2:0.43645792 3:0.38710262 
1 0:-1.1952286 1:1 2:0.43645792 3:0.38710262 
0.8479920439715347 0:-0.5976143 1:1 2:0.43645792 3:0.18531112 
1 0:-1.1952286 1:1 2:0.43645792 3:0.18531112 
1 0:-1.7928429 1:1 2:0.43645792 3:0.18531112 
1 0:0 1:1 2:0.43645792 3:1.5078525 
1 0:1.1952286 1:1 2:0.43645792 3:0.95832533 
1 0:0.5976143 1:1 2:0.43645792 3:0.67245405 
0.2400605436153894 0:1.1952286 1:1 2:0.43645792 3:0.67245405 
-1 0:1.7928429 8:1 2:1.3496622 3:1.9107758 
0.915884154420388 0:-0.5976143 5:1 2:0.43645792 3:1.0860038 
1 0:1.1952286 5:1 2:0.43645792 3:0.83030816 
1 0:0.5976143 5:1 2:0.43645792 3:0.83036076 
1 0:1.1952286 5:1 2:0.43645792 3:0.57143231 
1 0:0.5976143 5:1 2:0.43645792 3:0.57143334 
1 0:-0.5976143 5:1 2:0.43645792 3:0.32256134 
1 0:-1.1952286 5:1 2:0.43645792 3:0.32256134 
1 0:-1.7928429 5:1 2:0.43645792 3:0.32256134 
1 0:1.7928429 5:1 2:0.43645792 3:0.026366372 
1 0:0 5:1 2:0.43645792 3:0.32256134 
1 0:-1.1952286 5:1 2:0.43645792 3:0.026380869 
1 0:0 5:1 2:0.43645792 3:0.026373685 
0.5553542073880152 0:0 5:1 2:0.43645792 3:0.026380869 
1 0:-0.5976143 5:1 2:0.43645792 3:0.026380869 
0.1701064743875527 0:-1.7928429 5:1 2:0.43645792 3:0.026380869 
1 0:-0.5976143 5:1 2:0.43645792 3:1.2440706 
0.6999444413309347 0:0 5:1 2:0.43645792 3:1.2440727 
1 0:1.1952286 5:1 2:0.43645792 3:0.7530442 
1 0:0.5976143 5:1 2:0.43645792 3:0.75298159 
1 0:-1.1952286 5:1 2:0.43645792 3:0.42514841 
1 0:0 5:1 2:0.43645792 3:0.42514841 
1 0:-0.5976143 5:1 2:0.43645792 3:0.42514841 
1 0:-1.7928429 5:1 2:0.43645792 3:0.42514841 
1 0:0 5:1 2:0.43645792 3:0.42514841 
1 0:0 5:1 2:0.43645792 3:0.42514841 
1 0:-1.7928429 4:1 2:0.43645792 3:0.23674713 
1 0:-1.1952286 4:1 2:0.43645792 3:0.23674713 
1 0:0 4:1 2:0.43645792 3:-0.47421244 
1 0:1.1952286 4:1 2:0.43645792 3:0.18357772 
1 0:0.5976143 4:1 2:0.43645792 3:0.18360235 
1 0:0 4:1 2:0.43645792 3:0.18360723 
1 0:0 4:1 2:0.43645792 3:-0.021792067 
1 0:1.7928429 4:1 2:0.43645792 3:-0.26281199 
1 0:1.1952286 4:1 2:0.43645792 3:-0.26281199 
1 0:-1.1952286 4:1 2:0.43645792 3:-0.26281289 
1 0:-0.5976143 4:1 2:0.43645792 3:-0.26281289 
1 0:0 4:1 2:0.43645792 3:-0.2628125 
1 0:0 4:1 2:0.43645792 3:-0.26281096 
1 0:1.1952286 4:1 2:0.43645792 3:-0.46647673 
0.3471998751703481 0:1.7928429 4:1 2:0.43645792 3:-0.46648006 
1 0:-0.5976143 4:1 2:0.43645792 3:-0.46647673 
0.1479173035610745 0:-1.1952286 4:1 2:0.43645792 3:-0.46647673 
0.8985524148136312 0:0 4:1 2:0.43645792 3:-0.46647673 
1 0:0 4:1 2:0.43645792 3:-0.46647839 
1 0:0 4:1 2:0.43645792 3:-0.46647673 
1 0:0 4:1 2:0.43645792 3:-0.46647673 
1 0:-0.5976143 4:1 2:0.43645792 3:0.88113938 
1 0:0.5976143 4:1 2:0.43645792 3:0.62594716 
1 0:1.1952286 4:1 2:0.43645792 3:0.37557333 
1 0:0 4:1 2:0.43645792 3:0.37557526 
1 0:-1.1952286 4:1 2:0.43645792 3:0.10202445 
0.8000317241843899 0:0 4:1 2:0.43645792 3:0.8811363 
1 0:1.1952286 4:1 2:0.43645792 3:0.62594716 
1 0:0.5976143 4:1 2:0.43645792 3:0.37557526 
1 0:-0.5976143 4:1 2:0.43645792 3:0.10199918 
1 0:0 4:1 2:0.43645792 3:0.10197326 
1 0:-1.1952286 4:1 2:0.43645792 3:-0.12405981 
1 0:1.1952286 4:1 2:0.43645792 3:-0.38001641 
1 0:1.7928429 4:1 2:0.43645792 3:-0.38001641 
1 0:-1.1952286 4:1 2:0.43645792 3:-0.38001641 
1 0:0 4:1 2:0.43645792 3:-0.38001641 
1 0:0 4:1 2:0.43645792 3:-0.38001641 
1 0:0 4:1 2:0.43645792 3:-0.38001641 
1 0:-1.1952286 9:1 2:0.43645792 3:-0.55115219 
1 0:0 9:1 2:0.43645792 3:-0.55121916 
1 0:0 9:1 2:0.43645792 3:-0.55119184 
1 0:-1.1952286 9:1 2:0.43645792 3:-0.69311144 
1 0:0 9:1 2:0.43645792 3:-0.69317148 
1 0:0 9:1 2:0.43645792 3:-0.69317533 
1 0:-0.5976143 9:1 2:0.43645792 3:-0.69314505 
1 0:0 9:1 2:0.43645792 3:-0.69318733 
1 0:0 9:1 2:0.43645792 3:-0.69317437 
1 0:1.7928429 9:1 2:0.43645792 3:-0.80422792 
1 0:-1.7928429 9:1 2:0.43645792 3:-0.69309297 
0.9572859150501157 0:-0.5976143 9:1 2:0.43645792 3:-0.80422792 
1 0:-1.1952286 9:1 2:0.43645792 3:-0.80422792 
1 0:0 9:1 2:0.43645792 3:-0.80422792 
1 0:0 9:1 2:0.43645792 3:-0.80422792 
1 0:0.5976143 9:1 2:0.43645792 3:-0.60063682 
1 0:-1.1952286 9:1 2:0.43645792 3:-0.60063682 
1 0:0 9:1 2:0.43645792 3:-0.60073484 
1 0:0.5976143 9:1 2:0.43645792 3:-0.67423923 
1 0:-1.1952286 9:1 2:0.43645792 3:-0.67423923 
1 0:-1.7928429 9:1 2:0.43645792 3:-0.67423923 
1 0:0 9:1 2:0.43645792 3:-0.67423923 
1 0:1.7928429 9:1 2:0.43645792 3:-0.60083286 
1 0:-0.5976143 9:1 2:0.43645792 3:-0.60063682 
1 0:-1.7928429 9:1 2:0.43645792 3:-0.60063682 
0.9707406134968415 0:0 9:1 2:0.43645792 3:-0.60065273 
1 0:0 9:1 2:0.43645792 3:-0.60063682 
1 0:-0.5976143 9:1 2:0.43645792 3:-0.67423923 
1 0:0 9:1 2:0.43645792 3:-0.67423923 
1 0:0 9:1 2:0.43645792 3:-0.67424359 
1 0:0 9:1 2:0.43645792 3:-0.67423923 
1 0:1.7928429 6:1 2:-1.3362327 3:-1.2862671 
0.004787508388756639 0:-1.7928429 6:1 2:-1.3362327 3:-1.2862671 
1 0:0 6:1 2:-1.3362327 3:-1.2862671 
-0.2641683772048755 0:0 6:1 2:-1.3362327 3:-1.2862671 
1 0:1.7928429 6:1 2:-1.3362327 3:-1.2862671 
1 0:0 6:1 2:-1.3362327 3:-1.2862671 
-1 0:0 6:1 2:-1.3362327 3:-1.2862671 
1 0:1.7928429 6:1 2:-1.3362327 3:-1.2862671 
1 0:0 6:1 2:-1.3362327 3:-1.2862671 
-1 0:0 6:1 2:-1.3362327 3:-1.2862671 
1 0:1.7928429 6:1 2:-1.3362327 3:-1.2862671 
1 0:0 6:1 2:-1.3362327 3:-1.2862671 
-0.1079323756613678 0:0 6:1 2:-1.3362327 3:-1.2862671 
1 0:1.7928429 6:1 2:-1.3362327 3:-1.2862671 
1 0:0 6:1 2:-1.3362327 3:-1.2862671 
1 0:1.7928429 6:1 2:-1.3362327 3:-1.2862671 
1 0:0 6:1 2:-1.3362327 3:-1.2862671 
0.8977910770331657 0:-1.7928429 6:1 2:-1.3362327 3:-1.2862671 
1 0:-1.7928429 6:1 2:-1.3362327 3:-1.2862671 
1 0:0 6:1 2:-1.3362327 3:-1.2862671 
1 0:1.7928429 6:1 2:-1.3362327 3:-1.2862671 
1 0:-1.7928429 6:1 2:-1.3362327 3:-1.2862671 
1 0:0 6:1 2:-1.3362327 3:-1.2862671 
1 0:1.7928429 6:1 2:-1.3362327 3:-1.2862671 
1 0:-1.7928429 6:1 2:-1.3362327 3:-1.2862671 
1 0:0 6:1 2:-1.3362327 3:-1.2862671 
1 0:1.7928429 6:1 2:-1.3362327 3:-1.2862671 
1 0:0 6:1 2:-1.3362327 3:-1.2862671 
0.6141468440324808 0:-1.7928429 6:1 2:-1.3362327 3:-1.2862671 
-0.01741746822132921 0:0 6:1 2:-1.3362327 3:-1.2862671 
-1 0:1.7928429 5:1 2:1.3496622 3:1.9107758 
-1 0:1.1952286 5:1 2:1.3496622 3:1.9112364 
-0.5126162133997928 0:-1.7928429 5:1 2:1.3496622 3:1.9116772 
-1 0:0 5:1 2:1.3496622 3:1.5751158 
-1 0:1.7928429 5:1 2:1.3496622 3:1.5748523 
-1 0:-1.7928429 5:1 2:1.3496622 3:1.5753793 
-1 0:-1.1952286 5:1 2:1.3496622 3:1.2726777 
-1 0:-0.5976143 5:1 2:1.3496622 3:0.67580436 
-0.1057004457318018 0:0 5:1 2:1.3496622 3:0.67580436 
-1 0:-1.7928429 5:1 2:1.3496622 3:0.37312353 
-1 0:-1.7928429 5:1 2:1.3496622 3:1.7502539 
-0.03820232048232997 0:1.7928429 5:1 2:1.3496622 3:1.4841953 
-0.3850365256865186 0:0 5:1 2:1.3496622 3:1.484386 
-1 0:0 5:1 2:1.3496622 3:0.49970867 
-1 0:-0.5976143 5:1 2:1.3496622 3:0.49971047 
0.7768566862118778 0:0.5976143 7:1 2:-1.3362327 3:-1.1770465 
-1 0:-0.5976143 7:1 2:-1.3362327 3:-1.1770465 
-0.00101486813492928 0:-1.1952286 7:1 2:-1.3362327 3:-1.1770465 
-1 0:0 7:1 2:-1.3362327 3:-1.1770465 
-1 0:0 7:1 2:-1.3362327 3:-1.1770465 
-0.2695908902195225 0:-1.1952286 7:1 2:-1.3362327 3:-1.1770465 
-1 0:-0.5976143 7:1 2:-1.3362327 3:-1.1770465 
-1 0:0 7:1 2:-1.3362327 3:-1.1770465 
-1 0:0 7:1 2:-1.3362327 3:-1.1770465 
-0.0001810294870881865 0:-1.1952286 7:1 2:-1.3362327 3:-1.1770465 
-1 0:-0.5976143 7:1 2:-1.3362327 3:-1.1770465 
0.2231181694854053 0:0.5976143 7:1 2:-1.3362327 3:-1.1770465 
-1 0:0 7:1 2:-1.3362327 3:-1.1770465 
1 0:1.7928429 7:1 2:-1.3362327 3:-1.2862671 
1 0:-0.5976143 7:1 2:-1.3362327 3:-1.2862671 
-1 0:0 7:1 2:-1.3362327 3:-1.1770465 
1 0:0.5976143 7:1 2:-1.3362327 3:-1.2862671 
1 0:1.1952286 7:1 2:-1.3362327 3:-1.2862671 
1 0:-1.1952286 7:1 2:-1.3362327 3:-1.2862671 
1 0:-1.7928429 7:1 2:-1.3362327 3:-1.2862671 
1 0:0 7:1 2:-1.3362327 3:-1.2862671 
1 0:0 7:1 2:-1.3362327 3:-1.2862671 
1 0:0 7:1 2:-1.3362327 3:-1.2862671 
1 0:0 7:1 2:-1.3362327 3:-1.2862671 
1 0:0.5976143 7:1 2:-1.3362327 3:-1.2862671 
1 0:-1.1952286 7:1 2:-1.3362327 3:-1.2862671 
1 0:1.7928429 7:1 2:-1.3362327 3:-1.2862671 
1 0:-0.5976143 7:1 2:-1.3362327 3:-1.2862671 
1 0:1.1952286 7:1 2:-1.3362327 3:-1.2862671 
1 0:-1.7928429 7:1 2:-1.3362327 3:-1.2862671 
1 0:0 7:1 2:-1.3362327 3:-1.2862671 
1 0:0 7:1 2:-1.3362327 3:-1.2862671 
1 0:0 7:1 2:-1.3362327 3:-1.2862671 
1 0:0 7:1 2:-1.3362327 3:-1.2862671 
-1 0:0.5976143 1:1 2:-1.3362327 3:-1.0777119 
-0.09431801777758826 0:-1.7928429 1:1 2:-1.3362327 3:-1.0775727 
-1 0:-1.1952286 1:1 2:-1.3362327 3:-1.0775986 
-1 0:0.5976143 1:1 2:-1.3362327 3:-1.0777119 
-0.7404559800814349 0:-1.1952286 1:1 2:-1.3362327 3:-1.0775986 
-1 0:0.5976143 1:1 2:-1.3362327 3:-1.0777119 
-1 0:0.5976143 1:1 2:-1.3362327 3:-1.0777119 
-0.6537787020467972 0:0.5976143 1:1 2:-1.3362327 3:-1.0777119 
-0.2056071922661324 0:-1.1952286 1:1 2:-1.3362327 3:-1.0775986 
0.9640206675119447 0:1.7928429 8:1 2:-1.3362327 3:-1.1770465 
1 0:0.5976143 8:1 2:-1.3362327 3:-1.1770465 
-0.1826884137900401 0:-0.5976143 8:1 2:-1.3362327 3:-1.1770465 
0.6050878693426146 0:-1.7928429 8:1 2:-1.3362327 3:-1.1770465 
1 0:1.7928429 8:1 2:-1.3362327 3:-1.1770465 
1 0:0.5976143 8:1 2:-1.3362327 3:-1.1770465 
-0.8319410833207297 0:-0.5976143 8:1 2:-1.3362327 3:-1.1770465 
0.9991526869464979 0:-1.7928429 8:1 2:-1.3362327 3:-1.1770465 
-0.1900101206921974 0:0.5976143 1:1 2:-1.3362327 3:-1.0777119 
-0.1406026090602329 0:-1.1952286 1:1 2:-1.3362327 3:-1.0775986 
-0.0287670906316955 0:0.5976143 1:1 2:-1.3362327 3:-1.0777119 
-0.02048647267298798 0:-1.1952286 1:1 2:-1.3362327 3:-1.0775986 
1 0:1.7928429 1:1 2:-1.3362327 3:-1.2862671 
1 0:1.1952286 1:1 2:-1.3362327 3:-1.2862671 
1 0:0.5976143 1:1 2:-1.3362327 3:-1.2862671 
1 0:-1.1952286 1:1 2:-1.3362327 3:-1.2862671 
1 0:0 1:1 2:-1.3362327 3:-1.2862671 
1 0:-0.5976143 1:1 2:-1.3362327 3:-1.2862671 
1 0:0 1:1 2:-1.3362327 3:-1.2862671 
1 0:-1.7928429 1:1 2:-1.3362327 3:-1.2862671 
1 0:0 1:1 2:-1.3362327 3:-1.2862671 
1 0:0 1:1 2:-1.3362327 3:-1.2862671 
1 0:1.1952286 1:1 2:-1.3362327 3:-1.2862671 
1 0:1.7928429 1:1 2:-1.3362327 3:-1.2862671 
1 0:0.5976143 1:1 2:-1.3362327 3:-1.2862671 
1 0:0 1:1 2:-1.3362327 3:-1.2862671 
1 0:-0.5976143 1:1 2:-1.3362327 3:-1.2862671 
1 0:-1.7928429 1:1 2:-1.3362327 3:-1.2862671 
1 0:-1.1952286 1:1 2:-1.3362327 3:-1.2862671 
1 0:0 1:1 2:-1.3362327 3:-1.2862671 
1 0:0 1:1 2:-1.3362327 3:-1.2862671 
1 0:0 1:1 2:-1.3362327 3:-1.2862671 
-0.3037893225238629 0:0 1:1 2:-1.3362327 3:-1.0776742 
-0.5693875393380491 0:0.5976143 1:1 2:-1.3362327 3:-1.0777119 
-1 0:0 1:1 2:-1.3362327 3:-1.0776742 
-1 0:0.5976143 1:1 2:-1.3362327 3:-1.0777119 
-1 0:0 1:1 2:-1.3362327 3:-1.0776742 
-1 0:0.5976143 1:1 2:-1.3362327 3:-1.0777119 
-0.4770775358248952 0:-1.7928429 1:1 2:-1.3362327 3:-1.0775727 
-1 0:0 1:1 2:-1.3362327 3:-1.0776742 
-1 0:0.5976143 1:1 2:-1.3362327 3:-1.0777119 
-0.4878981109179115 0:-1.1952286 1:1 2:-1.3362327 3:-1.0775986 
-0.9446652968819579 0:0 1:1 2:-1.3362327 3:-1.0776742 
-0.4755477408435702 0:-1.7928429 1:1 2:-1.3362327 3:-1.0775727 
-1 0:-0.5976143 4:1 2:1.3496622 3:0.37662433 
-1 0:1.7928429 4:1 2:1.3496622 3:0.057841126 
-1 0:0.5976143 4:1 2:1.3496622 3:-0.23491424 
-0.1096692658171852 0:1.1952286 4:1 2:1.3496622 3:-0.23491424 
-1 0:0 4:1 2:1.3496622 3:-0.23491424 
0.4702920660200442 0:1.7928429 4:1 2:1.3496622 3:-0.53436677 
0.2133741925437695 0:1.7928429 5:1 2:-1.3362327 3:-1.1770465 
-0.3656312257542747 0:-0.5976143 5:1 2:-1.3362327 3:-1.1770465 
1 0:0.5976143 5:1 2:-1.3362327 3:-1.1770465 
0.239669479862586 0:-1.7928429 5:1 2:-1.3362327 3:-1.1770465 
1 0:0.5976143 5:1 2:-1.3362327 3:-1.1770465 
1 0:0.5976143 5:1 2:-1.3362327 3:-1.1770465 
1 0:0.5976143 5:1 2:-1.3362327 3:-1.1770465 
1 0:0.5976143 5:1 2:-1.3362327 3:-1.1770465 
1 0:0.5976143 5:1 2:-1.3362327 3:-1.1770465 
-0.06567553334928804 0:-0.5976143 5:1 2:-1.3362327 3:-1.1770465 
1 0:1.7928429 4:1 2:1.3496622 3:-0.19653257 
-1 0:-0.5976143 4:1 2:1.3496622 3:-0.1965291 
-1 0:0 4:1 2:1.3496622 3:-0.1965291 
-1 0:1.7928429 4:1 2:1.3496622 3:1.4475297 
-1 0:1.1952286 4:1 2:1.3496622 3:1.4476711 
-1 0:-1.1952286 4:1 2:1.3496622 3:1.447893 
-1 0:-1.7928429 4:1 2:1.3496622 3:1.447893 
-1 0:1.7928429 4:1 2:1.3496622 3:1.1469971 
-1 0:0 4:1 2:1.3496622 3:1.4477114 
-1 0:-1.7928429 4:1 2:1.3496622 3:1.1470512 
-0.7859863079933155 0:-0.5976143 4:1 2:1.3496622 3:0.23436904 
-1 0:0 4:1 2:1.3496622 3:0.23436635 
-1 0:-0.5976143 4:1 2:1.3496622 3:-0.068318202 
-0.1675847574554468 0:-1.7928429 4:1 2:1.3496622 3:-0.068318202 
-1 0:-0.5976143 9:1 2:1.3496622 3:-0.1723663 
-1 0:-1.7928429 9:1 2:1.3496622 3:-0.17215243 
-1 0:-1.1952286 9:1 2:1.3496622 3:-0.17225905 
-1 0:0 9:1 2:1.3496622 3:-0.17246714 
-0.371027742974789 0:1.1952286 9:1 2:1.3496622 3:-0.47171657 
-1 0:0 9:1 2:1.3496622 3:-0.47171657 
1 0:1.1952286 9:1 2:1.3496622 3:-0.67123891 
1 0:1.7928429 9:1 2:1.3496622 3:-0.67123891 
1 0:0.5976143 9:1 2:1.3496622 3:-0.67123891 
1 0:0 9:1 2:1.3496622 3:-0.67123891 
0.1539291239477316 0:-1.1952286 9:1 2:1.3496622 3:-0.67123891 
1 0:0 9:1 2:1.3496622 3:-0.67123891 
1 0:0 9:1 2:1.3496622 3:-0.67123891 
-1 0:1.1952286 9:1 2:1.3496622 3:-0.23758831 
-0.533530044613668 0:-1.7928429 9:1 2:1.3496622 3:-0.23748503 
-1 0:0 9:1 2:1.3496622 3:-0.23753904 
-1 0:0 9:1 2:1.3496622 3:-0.23754328 
-1 0:0.5976143 9:1 2:1.3496622 3:-0.23756547 
-1 0:-1.1952286 9:1 2:1.3496622 3:-0.23748978 
-1 0:0 9:1 2:1.3496622 3:-0.23754084 
-0.7395140395327336 0:0 9:1 2:1.3496622 3:-0.42147962 
-1 0:0.5976143 9:1 2:1.3496622 3:-0.5812325 
-1 0:0 9:1 2:1.3496622 3:-0.5812325 
-1 0:-0.5976143 9:1 2:1.3496622 3:-0.5812325 
-1 0:0 9:1 2:1.3496622 3:-0.5812325 
-0.7263503005419597 0:-0.5976143 6:1 2:1.3496622 3:0.0064451477 
-1 0:0 6:1 2:1.3496622 3:0.0064451477 
-1 0:0 6:1 2:1.3496622 3:0.0064451477 
-0.7539282003038056 0:0.5976143 6:1 2:1.3496622 3:-0.14581258 
-1 0:-0.5976143 6:1 2:1.3496622 3:-0.14581258 
-1 0:-1.7928429 6:1 2:1.3496622 3:-0.14581258 
-1 0:0 6:1 2:1.3496622 3:-0.14581258 
-1 0:1.7928429 6:1 2:1.3496622 3:0.71335108 
-0.3156325318833073 0:0.5976143 6:1 2:1.3496622 3:0.71335083 
-1 0:-1.7928429 6:1 2:1.3496622 3:0.71335365 
-1 0:0 6:1 2:1.3496622 3:0.71335237 
-0.7788834924930141 0:0 6:1 2:1.3496622 3:0.71335211 
-1 0:0 6:1 2:1.3496622 3:0.71335083 
-0.8439655937089209 0:1.7928429 6:1 2:1.3496622 3:0.42748249 
-1 0:-0.5976143 6:1 2:1.3496622 3:0.42748006 
-1 0:-1.7928429 6:1 2:1.3496622 3:0.42748249 
-1 0:0 6:1 2:1.3496622 3:0.42748249 
-1 0:0 6:1 2:1.3496622 3:0.42748134 
-1 0:-1.7928429 6:1 2:1.3496622 3:0.13824833 
-1 0:-0.5976143 5:1 2:-1.3362327 3:-1.1770465 
1 0:0.5976143 5:1 2:-1.3362327 3:-1.1770465 
1 0:0.5976143 5:1 2:-1.3362327 3:-1.1770465 
0.03431544910857495 0:-1.7928429 5:1 2:-1.3362327 3:-1.1770465 
-1 0:-0.5976143 5:1 2:-1.3362327 3:-1.1770465 
1 0:-1.7928429 5:1 2:-1.3362327 3:-1.1770465 
-1 0:-0.5976143 5:1 2:-1.3362327 3:-1.1770465 
1 0:-1.7928429 5:1 2:-1.3362327 3:-1.1770465 
-1 0:-0.5976143 5:1 2:-1.3362327 3:-1.1770465 
1 0:-1.7928429 5:1 2:-1.3362327 3:-1.1770465 
1 0:0.5976143 5:1 2:-1.3362327 3:-1.1770465 
1 0:0.5976143 5:1 2:-1.3362327 3:-1.1770465 
0.3675293100166656 0:1.7928429 5:1 2:-1.3362327 3:-1.1770465 
1 0:0.5976143 5:1 2:-1.3362327 3:-1.1770465 
-1 0:-0.5976143 5:1 2:-1.3362327 3:-1.1770465 
0.999808096406178 0:-1.7928429 5:1 2:-1.3362327 3:-1.1770465 
0.3046962557120119 0:0.5976143 4:1 2:-1.3362327 3:-1.1770465 
-1 0:-0.5976143 4:1 2:-1.3362327 3:-1.1770465 
0.09729292028551566 0:-1.7928429 4:1 2:-1.3362327 3:-1.1770465 
-1 0:-0.5976143 4:1 2:-1.3362327 3:-1.1770465 
-1 0:-0.5976143 4:1 2:-1.3362327 3:-1.1770465 
-1 0:-0.5976143 4:1 2:-1.3362327 3:-1.1770465 
0.700171203865228 0:0.5976143 4:1 2:-1.3362327 3:-1.1770465 
-1 0:-0.5976143 4:1 2:-1.3362327 3:-1.1770465 
-1 0:-0.5976143 4:1 2:-1.3362327 3:-1.1770465 
1 0:0.5976143 4:1 2:-1.3362327 3:-1.1770465 
-0.1585786690637244 0:-1.7928429 6:1 2:1.3496622 3:0.3059912 
1 0:-1.7928429 6:1 2:1.3496622 3:0.036314411 
1 0:-1.1952286 6:1 2:1.3496622 3:0.03631069 
-1 0:1.1952286 7:1 2:1.3496622 3:1.1889392 
-1 0:-1.1952286 7:1 2:1.3496622 3:1.1889392 
-1 0:0 7:1 2:1.3496622 3:1.1889392 
-1 0:-1.7928429 7:1 2:1.3496622 3:1.1889392 
-1 0:0 7:1 2:1.3496622 3:1.1889392 
-1 0:-0.5976143 7:1 2:1.3496622 3:0.7887196 
-1 0:-1.7928429 7:1 2:1.3496622 3:0.7887196 
-0.189200655388066 0:0 7:1 2:1.3496622 3:0.49970867 
-0.4313449730153197 0:-1.7928429 7:1 2:1.3496622 3:0.21323068 
0.0972853583414696 0:1.7928429 7:1 2:1.3496622 3:-0.070694621 
-1 0:0.5976143 7:1 2:1.3496622 3:-0.070694621 
-1 0:0 7:1 2:1.3496622 3:-0.070694621 
-1 0:-0.5976143 4:1 2:-1.3362327 3:-1.1770465 
1 0:0.5976143 4:1 2:-1.3362327 3:-1.1770465 
-1 0:-0.5976143 4:1 2:-1.3362327 3:-1.1770465 
1 0:0.5976143 4:1 2:-1.3362327 3:-1.1770465 
1 0:0.5976143 4:1 2:-1.3362327 3:-1.2862671 
1 0:1.1952286 4:1 2:-1.3362327 3:-1.2862671 
1 0:1.7928429 4:1 2:-1.3362327 3:-1.2862671 
1 0:-0.5976143 4:1 2:-1.3362327 3:-1.2862671 
1 0:-1.1952286 4:1 2:-1.3362327 3:-1.2862671 
1 0:0 4:1 2:-1.3362327 3:-1.2862671 
1 0:-1.7928429 4:1 2:-1.3362327 3:-1.2862671 
1 0:0 4:1 2:-1.3362327 3:-1.2862671 
1 0:0 4:1 2:-1.3362327 3:-1.2862671 
1 0:0.5976143 4:1 2:-1.3362327 3:-1.2862671 
1 0:0 4:1 2:-1.3362327 3:-1.2862671 
1 0:1.1952286 4:1 2:-1.3362327 3:-1.2862671 
1 0:1.7928429 4:1 2:-1.3362327 3:-1.2862671 
1 0:-0.5976143 4:1 2:-1.3362327 3:-1.2862671 
1 0:-1.1952286 4:1 2:-1.3362327 3:-1.2862671 
1 0:-1.7928429 4:1 2:-1.3362327 3:-1.2862671 
1 0:0 4:1 2:-1.3362327 3:-1.2862671 
1 0:0 4:1 2:-1.3362327 3:-1.2862671 
1 0:0 4:1 2:-1.3362327 3:-1.2862671 
1 0:0 4:1 2:-1.3362327 3:-1.2862671 
-1 0:-0.5976143 4:1 2:-1.3362327 3:-1.1770465 
1 0:0.5976143 4:1 2:-1.3362327 3:-1.1770465 
1 0:0.5976143 4:1 2:-1.3362327 3:-1.1770465 
1 0:0.5976143 4:1 2:-1.3362327 3:-1.1770465 
1 0:0.5976143 4:1 2:-1.3362327 3:-1.1770465 
-1 0:-0.5976143 4:1 2:-1.3362327 3:-1.1770465 
-1 0:-0.5976143 4:1 2:-1.3362327 3:-1.1770465 
0.2958042910733779 0:-1.7928429 4:1 2:-1.3362327 3:-1.1770465 
-1 0:-0.5976143 4:1 2:-1.3362327 3:-1.1770465 
1 0:-1.7928429 4:1 2:-1.3362327 3:-1.1770465 
-1 0:-0.5976143 4:1 2:-1.3362327 3:-1.1770465 
0.6880132697377049 0:0.5976143 4:1 2:-1.3362327 3:-1.1770465 
1 0:-1.7928429 4:1 2:-1.3362327 3:-1.1770465 
0.001561570106658143 0:0.5976143 4:1 2:-1.3362327 3:-1.1770465 
-1 0:-0.5976143 4:1 2:-1.3362327 3:-1.1770465 
1 0:-1.7928429 4:1 2:-1.3362327 3:-1.1770465 
0.509773448542342 0:1.1952286 9:1 2:-1.3362327 3:-1.2862671 
1 0:0 9:1 2:-1.3362327 3:-1.2862671 
0.9104811132919576 0:-1.7928429 9:1 2:-1.3362327 3:-1.2862671 
1 0:1.7928429 9:1 2:-1.3362327 3:-1.2862671 
1 0:-1.7928429 9:1 2:-1.3362327 3:-1.2862671 
1 0:0 9:1 2:-1.3362327 3:-1.2862671 
1 0:1.7928429 9:1 2:-1.3362327 3:-1.2862671 
1 0:0 9:1 2:-1.3362327 3:-1.2862671 
1 0:-1.7928429 9:1 2:-1.3362327 3:-1.2862671 
1 0:-1.7928429 9:1 2:-1.3362327 3:-1.2862671 
1 0:0 9:1 2:-1.3362327 3:-1.2862671 
1 0:1.7928429 9:1 2:-1.3362327 3:-1.2862671 
1 0:0 9:1 2:-1.3362327 3:-1.2862671 
1 0:-1.7928429 9:1 2:-1.3362327 3:-1.2862671 
1 0:1.7928429 9:1 2:-1.3362327 3:-1.2862671 
0.9109786344445622 0:1.1952286 9:1 2:-1.3362327 3:-1.2862671 
0.9997400139016837 0:-1.7928429 9:1 2:-1.3362327 3:-1.2862671 
0.630369389162627 0:0 9:1 2:-1.3362327 3:-1.2862671 
1 0:0 9:1 2:-1.3362327 3:-1.2862671 
-1 0:-1.7928429 8:1 2:1.3496622 3:1.9116772 
-0.8885780534718 0:1.1952286 8:1 2:1.3496622 3:1.9112364 
-0.6188489249672821 0:0 8:1 2:1.3496622 3:1.9114434 
-0.4648072939740953 0:-1.1952286 8:1 2:1.3496622 3:1.9116503 
-1 0:0 8:1 2:1.3496622 3:1.9112264 
-1 0:-1.1952286 8:1 2:1.3496622 3:1.2726777 
-1 0:-1.7928429 8:1 2:1.3496622 3:1.2727054 
0.62143046940108 0:1.1952286 1:1 2:1.3496622 3:3.0811932 
-1 0:-1.7928429 1:1 2:1.3496622 3:3.082643 
-1 0:0 1:1 2:1.3496622 3:3.0823972 
1 0:0 1:1 2:1.3496622 3:2.7455299 
1 0:1.7928429 1:1 2:1.3496622 3:3.0788962 
-1 0:0.5976143 1:1 2:1.3496622 3:3.0819533 
-0.04364313061053043 0:-1.1952286 1:1 2:1.3496622 3:3.082643 
1 0:0 1:1 2:1.3496622 3:3.0807694 
-1 0:0 1:1 2:1.3496622 3:3.0822894 
1 0:1.7928429 1:1 2:1.3496622 3:2.7447396 
-1 0:0.5976143 1:1 2:1.3496622 3:2.7461658 
-1 0:1.1952286 1:1 2:1.3496622 3:2.3896 
-0.7465672871687438 0:1.7928429 1:1 2:1.3496622 3:2.3891628 
-1 0:1.7928429 1:1 2:1.3496622 3:2.0531295 
-1 0:1.7928429 1:1 2:1.3496622 3:1.717177 
-1 0:-1.7928429 1:1 2:1.3496622 3:1.7171837 
-1 0:0 1:1 2:1.3496622 3:1.7171803 
1 0:0 1:1 2:1.3496622 3:1.7171837 
-0.1043363432104832 0:-1.7928429 1:1 2:1.3496622 3:1.2598143 
0.3506563227413179 0:0.5976143 1:1 2:1.3496622 3:0.94367423 
-1 0:-1.7928429 1:1 2:1.3496622 3:0.62080789 
-1 0:0.5976143 1:1 2:1.3496622 3:0.39547429 
-1 0:-0.5976143 1:1 2:1.3496622 3:0.39547429 
-1 0:0 1:1 2:1.3496622 3:0.39547429 
-1 0:0 1:1 2:1.3496622 3:0.39547429 
