svm_type epsilon_svr
kernel_type rbf
gamma 0.1
nr_class 2
total_sv 904
rho -1.52819
SV
1 0:-1.1952286 1:1 2:1.3496622 3:2.1846014 
1 0:0 1:1 2:1.3496622 3:2.1835362 
0.7278509279101487 0:-1.1952286 1:1 2:1.3496622 3:2.5243231 
1 0:0 1:1 2:1.3496622 3:2.5192875 
0.221811374685687 0:-1.1952286 1:1 2:1.3496622 3:1.8650661 
1 0:0 1:1 2:1.3496622 3:1.8650135 
1 0:0 1:1 2:1.3496622 3:1.5459237 
-0.2214417882762328 0:-0.5976143 1:1 2:1.3496622 3:1.5459237 
-1 0:0 1:1 2:1.3496622 3:1.5459237 
1 0:0 1:1 2:1.3496622 3:1.2600237 
1 0:0 1:1 2:1.3496622 3:0.94385242 
0.8827111813556175 0:1.7928429 5:1 2:0.43645792 3:1.3440723 
-1 0:0 1:1 2:1.3496622 3:0.94385242 
1 0:0 4:1 2:-0.44988739 3:-0.1826927 
-1 0:0 4:1 2:-0.44988739 3:-0.18271695 
-1 0:1.1952286 4:1 2:-0.44988739 3:-0.34128028 
-1 0:-0.5976143 4:1 2:-0.44988739 3:-0.34112887 
-1 0:0.5976143 4:1 2:-0.44988739 3:-0.34123678 
-0.4153449277065344 0:1.7928429 4:1 2:-0.44988739 3:-0.34132326 
1 0:0 4:1 2:-0.44988739 3:-0.341226 
-1 0:0 4:1 2:-0.44988739 3:-0.34118289 
1 0:0 4:1 2:-0.44988739 3:-0.56028744 
1 0:-1.1952286 4:1 2:-0.44988739 3:-0.70777918 
1 0:0 4:1 2:-0.44988739 3:-0.70777918 
1 0:-1.7928429 4:1 2:-0.44988739 3:-0.70777918 
1 0:0 4:1 2:-0.44988739 3:-0.70777918 
1 0:0 4:1 2:-0.44988739 3:-0.70777918 
-1 0:1.1952286 4:1 2:-0.44988739 3:-0.56185306 
-1 0:-1.1952286 4:1 2:-0.44988739 3:-0.56180533 
-1 0:1.7928429 4:1 2:-0.44988739 3:-0.56180661 
-1 0:-0.5976143 4:1 2:-0.44988739 3:-0.56180533 
-1 0:0.5976143 4:1 2:-0.44988739 3:-0.56181162 
-1 0:-1.7928429 4:1 2:-0.44988739 3:-0.56180533 
-1 0:0 4:1 2:-0.44988739 3:-0.56180841 
-1 0:1.1952286 4:1 2:-0.44988739 3:-0.71908397 
-1 0:0.5976143 4:1 2:-0.44988739 3:-0.71900898 
-1 0:0 4:1 2:-0.44988739 3:-0.56180533 
-1 0:1.7928429 4:1 2:-0.44988739 3:-0.71932378 
-1 0:-0.5976143 4:1 2:-0.44988739 3:-0.71896189 
-0.6680617673947578 0:-1.7928429 4:1 2:-0.44988739 3:-0.71896189 
-1 0:0 4:1 2:-0.44988739 3:-0.71902296 
-1 0:0 4:1 2:-0.44988739 3:-0.71898543 
-1 0:0 4:1 2:-0.44988739 3:-0.7189649 
1 0:0 6:1 2:-0.44988739 3:0.29693277 
-1 0:0 6:1 2:-0.44988739 3:0.29695304 
0.7622851545426468 0:-1.1952286 6:1 2:-0.44988739 3:0.044060821 
1 0:-0.5976143 6:1 2:-0.44988739 3:0.043962665 
1 0:0 6:1 2:-0.44988739 3:0.043018316 
-1 0:1.1952286 6:1 2:-0.44988739 3:-0.19404066 
-1 0:-0.5976143 6:1 2:-0.44988739 3:-0.19404066 
-1 0:0.5976143 6:1 2:-0.44988739 3:-0.19404066 
-1 0:1.7928429 6:1 2:-0.44988739 3:-0.19404066 
-1 0:-1.1952286 6:1 2:-0.44988739 3:-0.19404066 
-0.5523462513881685 0:-1.7928429 6:1 2:-0.44988739 3:-0.19404066 
-1 0:0 6:1 2:-0.44988739 3:-0.19404066 
-1 0:0 6:1 2:-0.44988739 3:-0.19404066 
-1 0:0 6:1 2:-0.44988739 3:-0.19404066 
-1 0:1.1952286 6:1 2:-0.44988739 3:-0.38849771 
-1 0:0.5976143 6:1 2:-0.44988739 3:-0.38845332 
-1 0:-1.1952286 6:1 2:-0.44988739 3:-0.38837492 
-1 0:-0.5976143 6:1 2:-0.44988739 3:-0.38853005 
-1 0:0 6:1 2:-0.44988739 3:-0.38849168 
-1 0:1.1952286 6:1 2:-0.44988739 3:-0.51450873 
-0.3299467415364867 0:0 6:1 2:-0.44988739 3:-0.38843625 
-0.7732478642186539 0:1.7928429 6:1 2:-0.44988739 3:-0.51451476 
-1 0:0 6:1 2:-0.44988739 3:-0.38882195 
-1 0:0.5976143 6:1 2:-0.44988739 3:-0.51450873 
-1 0:-0.5976143 6:1 2:-0.44988739 3:-0.51450873 
-1 0:-1.1952286 6:1 2:-0.44988739 3:-0.51450873 
-1 0:0 6:1 2:-0.44988739 3:-0.51450873 
-1 0:0 6:1 2:-0.44988739 3:-0.51450873 
-1 0:-0.5976143 5:1 2:-0.44988739 3:0.80695753 
1 0:0 5:1 2:-0.44988739 3:0.80693033 
-1 0:1.1952286 5:1 2:-0.44988739 3:0.47273251 
-1 0:1.7928429 5:1 2:-0.44988739 3:0.47273251 
-1 0:0.5976143 5:1 2:-0.44988739 3:0.47273251 
-1 0:-1.1952286 5:1 2:-0.44988739 3:0.47273251 
-1 0:0 5:1 2:-0.44988739 3:0.47273251 
-1 0:-0.5976143 5:1 2:-0.44988739 3:0.47273251 
-0.08918552542400514 0:-1.7928429 5:1 2:-0.44988739 3:0.47273251 
-1 0:0 5:1 2:-0.44988739 3:0.47273251 
-1 0:0.5976143 1:1 2:-0.44988739 3:0.78750061 
1 0:0 1:1 2:-0.44988739 3:0.78748419 
-1 0:-0.5976143 1:1 2:-0.44988739 3:0.78750061 
-1 0:-0.5976143 1:1 2:-0.44988739 3:0.78750061 
-1 0:0.5976143 1:1 2:-0.44988739 3:0.78750061 
1 0:0 1:1 2:-0.44988739 3:0.78748419 
-0.1306787371239571 0:0.5976143 1:1 2:-0.44988739 3:0.78750061 
1 0:0 1:1 2:-0.44988739 3:0.78748419 
1 0:0 1:1 2:-0.44988739 3:0.78748419 
-1 0:-0.5976143 1:1 2:-0.44988739 3:0.78750061 
1 0:0 1:1 2:-0.44988739 3:0.78748419 
-1 0:-0.5976143 1:1 2:-0.44988739 3:0.78750061 
-1 0:-0.5976143 1:1 2:-0.44988739 3:0.78750061 
-0.9798501646079611 0:0 1:1 2:-0.44988739 3:0.78750061 
-1 0:-0.5976143 1:1 2:-0.44988739 3:0.78750061 
-1 0:0 1:1 2:-0.44988739 3:0.78750061 
-0.326488902980089 0:0.5976143 1:1 2:-0.44988739 3:0.78750061 
1 0:0 1:1 2:-0.44988739 3:0.78748419 
-0.490824507651184 0:0 1:1 2:-0.44988739 3:0.78750061 
1 0:0 1:1 2:-0.44988739 3:0.50838065 
1 0:0 1:1 2:-0.44988739 3:0.62354115 
1 0:0 1:1 2:-0.44988739 3:0.62354115 
1 0:0 1:1 2:-0.44988739 3:0.62354115 
-1 0:0.5976143 1:1 2:-0.44988739 3:0.35318682 
1 0:0 1:1 2:-0.44988739 3:0.35318682 
-1 0:0.5976143 1:1 2:-0.44988739 3:0.1042864 
-1 0:-0.5976143 1:1 2:-0.44988739 3:0.1042864 
-1 0:1.1952286 1:1 2:-0.44988739 3:0.1042864 
1 0:0 1:1 2:-0.44988739 3:0.1042864 
-1 0:0 1:1 2:-0.44988739 3:0.1042864 
-1 0:1.7928429 1:1 2:-0.44988739 3:-0.070617112 
-1 0:0 1:1 2:-0.44988739 3:0.1042864 
-1 0:0.5976143 1:1 2:-0.44988739 3:-0.070617112 
-0.80332328052881 0:-1.1952286 1:1 2:-0.44988739 3:-0.070617112 
-1 0:0 1:1 2:-0.44988739 3:-0.070617112 
-1 0:1.1952286 1:1 2:-0.44988739 3:-0.070617112 
-1 0:-0.5976143 1:1 2:-0.44988739 3:-0.070617112 
-1 0:0 1:1 2:-0.44988739 3:-0.070617112 
0.04690906997556092 0:1.7928429 4:1 2:-1.3362327 3:-1.286317 
0.005601963529591418 0:1.7928429 7:1 2:-1.3362327 3:-1.1770822 
1 0:1.7928429 5:1 2:-1.3362327 3:-1.1770822 
1 0:0 1:1 2:-0.44988739 3:0.62354115 
1 0:0 1:1 2:-0.44988739 3:0.62354115 
1 0:0 1:1 2:-0.44988739 3:0.62354115 
1 0:0 1:1 2:-0.44988739 3:0.62354115 
1 0:0 1:1 2:-0.44988739 3:0.62354115 
-1 0:0.5976143 1:1 2:-0.44988739 3:0.35318682 
1 0:0 1:1 2:-0.44988739 3:0.35318682 
-1 0:1.7928429 4:1 2:-0.44988739 3:-0.44112167 
-1 0:1.1952286 4:1 2:-0.44988739 3:-0.44112167 
-1 0:0.5976143 4:1 2:-0.44988739 3:-0.44112167 
-1 0:-0.5976143 4:1 2:-0.44988739 3:-0.44112167 
-1 0:-1.7928429 4:1 2:-0.44988739 3:-0.44112167 
-1 0:-1.1952286 4:1 2:-0.44988739 3:-0.44112167 
-1 0:0 4:1 2:-0.44988739 3:-0.44112167 
-1 0:0 4:1 2:-0.44988739 3:-0.44112167 
-1 0:0 4:1 2:-0.44988739 3:-0.44112167 
-1 0:1.1952286 4:1 2:-0.44988739 3:-0.57838648 
-1 0:1.7928429 4:1 2:-0.44988739 3:-0.57838648 
-1 0:0.5976143 4:1 2:-0.44988739 3:-0.57838648 
-1 0:-1.7928429 4:1 2:-0.44988739 3:-0.57838648 
-1 0:-0.5976143 4:1 2:-0.44988739 3:-0.57838648 
-1 0:0 4:1 2:-0.44988739 3:-0.57838648 
-1 0:0 4:1 2:-0.44988739 3:-0.57838648 
-1 0:0 4:1 2:-0.44988739 3:-0.57838648 
1 0:-1.1952286 4:1 2:-0.44988739 3:-0.70777918 
1 0:-1.7928429 4:1 2:-0.44988739 3:-0.70777918 
1 0:0 4:1 2:-0.44988739 3:-0.70777918 
1 0:0 4:1 2:-0.44988739 3:-0.70777918 
1 0:0 4:1 2:-0.44988739 3:-0.70777918 
1 0:0 4:1 2:-0.44988739 3:-0.93250517 
1 0:0 4:1 2:-0.44988739 3:-0.93245956 
1 0:0 8:1 2:-0.44988739 3:0.80693033 
-1 0:0 8:1 2:-0.44988739 3:0.5971253 
-1 0:-0.5976143 8:1 2:-0.44988739 3:0.47273251 
1 0:0 8:1 2:-0.44988739 3:0.47273251 
-1 0:0 8:1 2:-0.44988739 3:0.47273251 
-1 0:0.5976143 8:1 2:-0.44988739 3:0.1737802 
-1 0:-1.1952286 8:1 2:-0.44988739 3:0.1737802 
-1 0:0 8:1 2:-0.44988739 3:0.1737802 
1 0:0 8:1 2:-0.44988739 3:0.5971253 
-1 0:0.5976143 8:1 2:-0.44988739 3:0.47273251 
-1 0:0 8:1 2:-0.44988739 3:0.47273251 
-1 0:-0.5976143 8:1 2:-0.44988739 3:0.1737802 
-1 0:0 8:1 2:-0.44988739 3:0.1737802 
1 0:0 8:1 2:-0.44988739 3:-0.071791646 
-0.6071673356258951 0:1.7928429 8:1 2:-0.44988739 3:-0.23675576 
-1 0:0 8:1 2:-0.44988739 3:-0.071791646 
-0.5701874738177524 0:1.1952286 8:1 2:-0.44988739 3:-0.23675576 
-1 0:-0.5976143 8:1 2:-0.44988739 3:-0.23675576 
-0.1960808670398412 0:0 8:1 2:-0.44988739 3:-0.23675576 
-1 0:0 8:1 2:-0.44988739 3:-0.23675576 
-0.668182090259641 0:-1.7928429 8:1 2:-0.44988739 3:0.76669261 
1 0:0 8:1 2:-0.44988739 3:0.76653761 
-1 0:1.1952286 8:1 2:-0.44988739 3:0.52424648 
-1 0:0.5976143 8:1 2:-0.44988739 3:0.52424648 
-1 0:-0.5976143 8:1 2:-0.44988739 3:0.52424648 
-0.1544172249570374 0:-1.1952286 8:1 2:-0.44988739 3:0.52424648 
1 0:0 8:1 2:-0.44988739 3:0.52424648 
-1 0:0 8:1 2:-0.44988739 3:0.52424648 
-1 0:0 8:1 2:-0.44988739 3:0.52424648 
1 0:0 8:1 2:-0.44988739 3:0.29693277 
1 0:-1.1952286 8:1 2:-0.44988739 3:0.044060821 
1 0:-0.5976143 8:1 2:-0.44988739 3:0.043962665 
1 0:0 8:1 2:-0.44988739 3:0.043018316 
-1 0:1.7928429 8:1 2:-0.44988739 3:-0.19404066 
-1 0:0.5976143 8:1 2:-0.44988739 3:-0.19404066 
-1 0:-1.1952286 8:1 2:-0.44988739 3:-0.19404066 
-1 0:0 8:1 2:-0.44988739 3:-0.19404066 
-1 0:0 8:1 2:-0.44988739 3:-0.19404066 
-1 0:1.1952286 8:1 2:-0.44988739 3:-0.19404066 
-1 0:-0.5976143 8:1 2:-0.44988739 3:-0.19404066 
-1 0:0 8:1 2:-0.44988739 3:-0.19404066 
-1 0:-1.7928429 8:1 2:-0.44988739 3:-0.19404066 
-1 0:0 7:1 2:-0.44988739 3:-0.39513523 
-1 0:0.5976143 7:1 2:-0.44988739 3:-0.55932936 
-1 0:1.1952286 7:1 2:-0.44988739 3:-0.55932936 
-1 0:-0.5976143 7:1 2:-0.44988739 3:-0.55932936 
-1 0:0 7:1 2:-0.44988739 3:-0.55932936 
-1 0:1.7928429 7:1 2:-0.44988739 3:-0.7057668 
-1 0:0.5976143 7:1 2:-0.44988739 3:-0.7057668 
-1 0:-1.1952286 7:1 2:-0.44988739 3:-0.55932936 
-1 0:0 7:1 2:-0.44988739 3:-0.55932936 
-1 0:1.1952286 7:1 2:-0.44988739 3:-0.7057668 
-1 0:-0.5976143 7:1 2:-0.44988739 3:-0.7057668 
-1 0:-1.1952286 7:1 2:-0.44988739 3:-0.7057668 
-1 0:-1.7928429 7:1 2:-0.44988739 3:-0.7057668 
-1 0:0 7:1 2:-0.44988739 3:-0.7057668 
1 0:1.7928429 7:1 2:-0.44988739 3:-0.97329443 
-1 0:0 7:1 2:-0.44988739 3:-0.7057668 
1 0:1.1952286 7:1 2:-0.44988739 3:-0.9731259 
-1 0:0 7:1 2:-0.44988739 3:-0.7057668 
1 0:-1.1952286 7:1 2:-0.44988739 3:-0.97307714 
1 0:-1.7928429 7:1 2:-0.44988739 3:-0.97307714 
1 0:0 7:1 2:-0.44988739 3:-0.97310152 
1 0:0 7:1 2:-0.44988739 3:-0.97318582 
1 0:0 7:1 2:-0.44988739 3:-0.022384375 
-1 0:1.7928429 7:1 2:-0.44988739 3:-0.20968272 
-1 0:0.5976143 7:1 2:-0.44988739 3:-0.20968272 
-1 0:-0.5976143 7:1 2:-0.44988739 3:-0.20968272 
-0.6271926706511787 0:0 7:1 2:-0.44988739 3:-0.022388224 
-0.04461010430502047 0:-1.1952286 7:1 2:-0.44988739 3:-0.20968272 
-1 0:-1.7928429 7:1 2:-0.44988739 3:-0.20968272 
-1 0:0 7:1 2:-0.44988739 3:-0.20968272 
-1 0:1.7928429 7:1 2:-0.44988739 3:-0.39513523 
-1 0:0 7:1 2:-0.44988739 3:-0.20968272 
-1 0:1.1952286 7:1 2:-0.44988739 3:-0.39513523 
-1 0:-0.5976143 7:1 2:-0.44988739 3:-0.39513523 
-1 0:-1.7928429 7:1 2:-0.44988739 3:-0.39513523 
-1 0:0 7:1 2:-0.44988739 3:-0.39513523 
-1 0:0.5976143 7:1 2:-0.44988739 3:-0.39513523 
-1 0:-1.1952286 7:1 2:-0.44988739 3:-0.39513523 
-1 0:0 7:1 2:-0.44988739 3:-0.39513523 
1 0:0 7:1 2:-0.44988739 3:0.36539355 
1 0:0 7:1 2:-0.44988739 3:0.15553733 
1 0:0 7:1 2:-0.44988739 3:-0.047567562 
1 0:0 7:1 2:-0.44988739 3:-0.23835153 
1 0:0 7:1 2:-0.44988739 3:-0.23959022 
1 0:1.1952286 7:1 2:-0.44988739 3:-0.43846993 
1 0:0 7:1 2:-0.44988739 3:-0.43845851 
1 0:0 7:1 2:-0.44988739 3:-0.43853575 
1 0:1.7928429 7:1 2:-0.44988739 3:-0.56762244 
1 0:-1.1952286 7:1 2:-0.44988739 3:-0.5665118 
1 0:0 7:1 2:-0.44988739 3:-0.56686837 
1 0:-0.5976143 7:1 2:-0.44988739 3:-0.56658378 
1 0:-1.7928429 7:1 2:-0.44988739 3:-0.56647318 
1 0:0 7:1 2:-0.44988739 3:-0.56704775 
1 0:0 7:1 2:-0.44988739 3:-0.5667588 
-1 0:-0.5976143 7:1 2:-0.44988739 3:-0.14431365 
-1 0:0 7:1 2:-0.44988739 3:-0.14445864 
-1 0:1.1952286 7:1 2:-0.44988739 3:-0.34811795 
-1 0:-0.5976143 7:1 2:-0.44988739 3:-0.34806009 
-1 0:-1.7928429 7:1 2:-0.44988739 3:-0.34806009 
-1 0:0 7:1 2:-0.44988739 3:-0.34808896 
-1 0:0 7:1 2:-0.44988739 3:-0.34806137 
-1 0:1.1952286 7:1 2:-0.44988739 3:-0.56185306 
-1 0:0 7:1 2:-0.44988739 3:-0.56180841 
0.4453952697919158 0:0 7:1 2:-0.44988739 3:-0.67737244 
-1 0:0 7:1 2:-0.44988739 3:-0.67735749 
-1 0:0.5976143 7:1 2:-0.44988739 3:-0.14468459 
1 0:0 7:1 2:-0.44988739 3:-0.14418739 
-1 0:0 7:1 2:-0.44988739 3:-0.14449918 
-1 0:1.7928429 7:1 2:-0.44988739 3:-0.34819866 
-1 0:0.5976143 7:1 2:-0.44988739 3:-0.34807189 
-1 0:-1.1952286 7:1 2:-0.44988739 3:-0.34806009 
-1 0:0 7:1 2:-0.44988739 3:-0.34806599 
-1 0:0.5976143 7:1 2:-0.44988739 3:-0.56181162 
-1 0:0 7:1 2:-0.44988739 3:-0.56180533 
-1 0:-0.5976143 7:1 2:-0.44988739 3:-0.67735749 
-1 0:1.7928429 9:1 2:-0.44988739 3:-0.80422823 
-1 0:1.1952286 9:1 2:-0.44988739 3:-0.80422823 
-1 0:-0.5976143 9:1 2:-0.44988739 3:-0.80422823 
-1 0:0.5976143 9:1 2:-0.44988739 3:-0.80422823 
-1 0:-1.7928429 9:1 2:-0.44988739 3:-0.80422823 
-1 0:-1.1952286 9:1 2:-0.44988739 3:-0.80422823 
-1 0:0 9:1 2:-0.44988739 3:-0.80422823 
-1 0:0 9:1 2:-0.44988739 3:-0.80422823 
-1 0:1.7928429 9:1 2:-0.44988739 3:-0.93349918 
-1 0:-0.5976143 9:1 2:-0.44988739 3:-0.93349918 
-1 0:0 9:1 2:-0.44988739 3:-0.80422823 
-1 0:0.5976143 9:1 2:-0.44988739 3:-0.93349918 
-1 0:1.1952286 9:1 2:-0.44988739 3:-0.93349918 
-1 0:0 9:1 2:-0.44988739 3:-0.93349918 
-1 0:1.1952286 9:1 2:-0.44988739 3:-0.97516452 
-1 0:0 9:1 2:-0.44988739 3:-0.93349918 
-1 0:0 9:1 2:-0.44988739 3:-0.93349918 
-1 0:0.5976143 9:1 2:-0.44988739 3:-0.97516452 
-1 0:-1.1952286 9:1 2:-0.44988739 3:-0.97516452 
-1 0:0 9:1 2:-0.44988739 3:-0.97516452 
1 0:-1.7928429 9:1 2:-0.44988739 3:-0.70777918 
1 0:0 9:1 2:-0.44988739 3:-0.70777918 
-0.08409662310048663 0:1.7928429 9:1 2:-0.44988739 3:-0.93255072 
-1 0:1.1952286 9:1 2:-0.44988739 3:-0.93248509 
-1 0:-0.5976143 9:1 2:-0.44988739 3:-0.93245956 
-0.3588611390445669 0:1.7928429 9:1 2:-0.44988739 3:-0.93255072 
-1 0:1.1952286 9:1 2:-0.44988739 3:-0.93248509 
-1 0:-0.5976143 9:1 2:-0.44988739 3:-0.93245956 
1 0:-1.1952286 4:1 2:0.43645792 3:-0.10904877 
1 0:-1.7928429 4:1 2:0.43645792 3:-0.10904877 
1 0:0 4:1 2:0.43645792 3:-0.10904877 
1 0:0 4:1 2:0.43645792 3:-0.2990498 
1 0:0 4:1 2:0.43645792 3:-0.49471911 
-1 0:0 4:1 2:0.43645792 3:-0.49471911 
-1 0:0.5976143 4:1 2:0.43645792 3:-0.68124202 
1 0:0 4:1 2:0.43645792 3:-0.68124202 
-1 0:-0.5976143 4:1 2:0.43645792 3:-0.68124202 
-1 0:0 4:1 2:0.43645792 3:-0.68124202 
-1 0:0 4:1 2:0.43645792 3:-0.68124202 
1 0:0 4:1 2:0.43645792 3:-0.30057423 
1 0:0 4:1 2:0.43645792 3:-0.30057808 
0.4330816819640206 0:1.7928429 4:1 2:0.43645792 3:-0.56180661 
1 0:0 4:1 2:0.43645792 3:-0.56180597 
1 0:1.1952286 4:1 2:0.43645792 3:0.23676954 
1 0:-1.7928429 4:1 2:0.43645792 3:0.23693467 
1 0:1.7928429 4:1 2:0.43645792 3:0.23633868 
1 0:-0.5976143 4:1 2:0.43645792 3:0.23693467 
1 0:-1.1952286 4:1 2:0.43645792 3:0.23693467 
1 0:0.5976143 4:1 2:0.43645792 3:0.2369017 
1 0:0 4:1 2:0.43645792 3:0.23663661 
1 0:0 4:1 2:0.43645792 3:0.23685217 
1 0:0 4:1 2:0.43645792 3:0.23691812 
1 0:0 4:1 2:0.43645792 3:0.23693467 
0.6963312186905405 0:1.7928429 4:1 2:0.43645792 3:0.042861395 
0.2480735218512707 0:-1.1952286 4:1 2:0.43645792 3:0.042988933 
1 0:0 4:1 2:0.43645792 3:0.042938765 
1 0:0 4:1 2:0.43645792 3:0.04293684 
0.2163000193800456 0:-1.7928429 4:1 2:0.43645792 3:-0.20632323 
0.709336768601232 0:-1.1952286 4:1 2:0.43645792 3:-0.20636929 
1 0:0 4:1 2:0.43645792 3:-0.20645911 
1 0:0 4:1 2:0.43645792 3:-0.20650068 
1 0:0 4:1 2:0.43645792 3:-0.4533243 
1 0:0 6:1 2:0.43645792 3:0.75312452 
1 0:0.5976143 6:1 2:0.43645792 3:0.42526385 
1 0:-1.1952286 6:1 2:0.43645792 3:0.42527925 
1 0:1.7928429 6:1 2:0.43645792 3:0.42479629 
1 0:-0.5976143 6:1 2:0.43645792 3:0.42527925 
1 0:1.1952286 6:1 2:0.43645792 3:0.42508986 
1 0:-1.7928429 6:1 2:0.43645792 3:0.42527925 
1 0:0 6:1 2:0.43645792 3:0.42503777 
1 0:0 6:1 2:0.43645792 3:0.42527155 
1 0:0 6:1 2:0.43645792 3:0.42518456 
0.3958895845897669 0:1.7928429 6:1 2:0.43645792 3:0.12832854 
1 0:0 6:1 2:0.43645792 3:0.42527925 
1 0:-1.7928429 6:1 2:0.43645792 3:0.12874901 
1 0:0 6:1 2:0.43645792 3:0.12857977 
1 0:0 6:1 2:0.43645792 3:0.12853871 
1 0:0 6:1 2:0.43645792 3:-0.12548762 
1 0:0 6:1 2:0.43645792 3:-0.12548762 
-0.05809199621343016 0:0.5976143 6:1 2:0.43645792 3:-0.32018217 
0.08635430465993746 0:-1.1952286 6:1 2:0.43645792 3:-0.31997534 
1 0:-1.7928429 6:1 2:0.43645792 3:-0.31994942 
1 0:0 6:1 2:0.43645792 3:-0.32014599 
1 0:-1.1952286 5:1 2:0.43645792 3:1.3451857 
1 0:0 5:1 2:0.43645792 3:1.3446291 
0.3888389092104375 0:0 5:1 2:0.43645792 3:1.34513 
1 0:0 5:1 2:0.43645792 3:1.3450023 
0.6214721947284293 0:-0.5976143 5:1 2:0.43645792 3:0.83055752 
1 0:-1.7928429 5:1 2:0.43645792 3:0.83056727 
1 0:-1.1952286 5:1 2:0.43645792 3:0.83056727 
1 0:0 5:1 2:0.43645792 3:0.83047489 
1 0:0 5:1 2:0.43645792 3:0.83054649 
-0.9562147270480363 0:-1.7928429 1:1 2:0.43645792 3:2.7194705 
-1 0:0 1:1 2:0.43645792 3:2.7194705 
0.3319439914026218 0:1.7928429 1:1 2:0.43645792 3:2.3450436 
-1 0:0 1:1 2:0.43645792 3:2.3461227 
-1 0:0.5976143 1:1 2:0.43645792 3:2.0198628 
-1 0:0 1:1 2:0.43645792 3:2.0198628 
1 0:0 1:1 2:0.43645792 3:1.7137799 
-1 0:0 1:1 2:0.43645792 3:1.4058529 
1 0:0 1:1 2:0.43645792 3:1.4058529 
1 0:0 1:1 2:0.43645792 3:1.1300451 
1 0:0 1:1 2:0.43645792 3:0.82396479 
1 0:0 1:1 2:0.43645792 3:1.5080856 
-1 0:0 1:1 2:0.43645792 3:1.2174964 
-1 0:-0.5976143 1:1 2:0.43645792 3:0.95850497 
1 0:0 1:1 2:0.43645792 3:1.2174964 
1 0:0 1:1 2:0.43645792 3:0.95850497 
-1 0:0.5976143 1:1 2:0.43645792 3:0.67260545 
1 0:0 1:1 2:0.43645792 3:0.67260545 
-1 0:0 1:1 2:0.43645792 3:0.67260545 
-1 0:0 1:1 2:0.43645792 3:0.67260545 
1 0:-1.1952286 1:1 2:0.43645792 3:0.38722533 
1 0:0 1:1 2:0.43645792 3:0.38722533 
1 0:-0.5976143 1:1 2:0.43645792 3:0.38722533 
1 0:-1.7928429 1:1 2:0.43645792 3:0.38722533 
1 0:0 1:1 2:0.43645792 3:0.38722533 
1 0:-1.7928429 1:1 2:0.43645792 3:0.18541468 
1 0:0 1:1 2:0.43645792 3:0.18541468 
0.5264233202244735 0:0 1:1 2:0.43645792 3:0.38721584 
1 0:-1.1952286 1:1 2:0.43645792 3:0.18541468 
1 0:0 1:1 2:0.43645792 3:0.18541468 
1 0:0 1:1 2:0.43645792 3:0.18541468 
0.8481101694583352 0:0 1:1 2:0.43645792 3:2.0561897 
1 0:0 1:1 2:0.43645792 3:1.7939815 
1 0:0 1:1 2:0.43645792 3:1.5080856 
1 0:0 1:1 2:0.43645792 3:1.2174964 
-1 0:0 1:1 2:0.43645792 3:1.2174964 
-1 0:-0.5976143 1:1 2:0.43645792 3:0.95850497 
1 0:0 1:1 2:0.43645792 3:0.95850497 
-1 0:0.5976143 1:1 2:0.43645792 3:0.67260545 
1 0:0 1:1 2:0.43645792 3:0.67260545 
-1 0:0 1:1 2:0.43645792 3:0.67260545 
-1 0:0 1:1 2:0.43645792 3:0.67260545 
1 0:0 8:1 2:0.43645792 3:1.3446291 
1 0:0 8:1 2:0.43645792 3:1.0858062 
1 0:0 8:1 2:0.43645792 3:0.83047489 
1 0:0 8:1 2:0.43645792 3:0.57152345 
1 0:-1.1952286 8:1 2:0.43645792 3:0.32268064 
1 0:0 8:1 2:0.43645792 3:0.3223804 
1 0:-1.7928429 8:1 2:0.43645792 3:0.32268064 
1 0:0 8:1 2:0.43645792 3:0.32258094 
1 0:-1.7928429 8:1 2:0.43645792 3:0.026470273 
0.7810637379575712 0:0 8:1 2:0.43645792 3:0.026470273 
1 0:0 8:1 2:0.43645792 3:0.026470273 
1 0:0 8:1 2:0.43645792 3:1.2438102 
1 0:0 8:1 2:0.43645792 3:1.0016845 
1 0:1.7928429 8:1 2:0.43645792 3:0.42479629 
1 0:0 8:1 2:0.43645792 3:0.75312452 
1 0:0.5976143 8:1 2:0.43645792 3:0.42526385 
1 0:-0.5976143 8:1 2:0.43645792 3:0.42527925 
1 0:-1.1952286 8:1 2:0.43645792 3:0.42527925 
1 0:0 8:1 2:0.43645792 3:0.42518456 
1 0:-1.7928429 8:1 2:0.43645792 3:0.42527925 
1 0:0 8:1 2:0.43645792 3:0.42527155 
1 0:0 8:1 2:0.43645792 3:0.42503777 
1 0:0 8:1 2:0.43645792 3:0.42527925 
1 0:0 8:1 2:0.43645792 3:0.12853871 
-1 0:0 8:1 2:0.43645792 3:0.12874901 
1 0:-0.5976143 7:1 2:0.43645792 3:0.2368618 
1 0:-1.1952286 7:1 2:0.43645792 3:0.2368618 
1 0:0 7:1 2:0.43645792 3:0.2368618 
1 0:0 7:1 2:0.43645792 3:0.2368618 
1 0:0 7:1 2:0.43645792 3:0.53792542 
1 0:1.7928429 7:1 2:0.43645792 3:0.2368618 
1 0:-1.7928429 7:1 2:0.43645792 3:0.2368618 
1 0:0 7:1 2:0.43645792 3:0.2368618 
1 0:0 7:1 2:0.43645792 3:-0.044354724 
1 0:0 7:1 2:0.43645792 3:-0.28724595 
1 0:0 7:1 2:0.43645792 3:-0.47419261 
-1 0:0.5976143 7:1 2:0.43645792 3:-0.69015906 
1 0:0 7:1 2:0.43645792 3:-0.69015906 
-1 0:0 7:1 2:0.43645792 3:-0.69015906 
-1 0:-0.5976143 7:1 2:0.43645792 3:-0.69015906 
-1 0:0 7:1 2:0.43645792 3:-0.69015906 
1 0:1.7928429 7:1 2:0.43645792 3:0.18366763 
1 0:-1.7928429 7:1 2:0.43645792 3:0.18371639 
1 0:0 7:1 2:0.43645792 3:0.18369201 
1 0:0 7:1 2:0.43645792 3:0.18370933 
1 0:-1.7928429 7:1 2:0.43645792 3:-0.021620684 
1 0:0 7:1 2:0.43645792 3:-0.021859081 
1 0:0 7:1 2:0.43645792 3:-0.021773242 
1 0:0 7:1 2:0.43645792 3:-0.26297491 
1 0:0 7:1 2:0.43645792 3:-0.26293513 
1 0:0 7:1 2:0.43645792 3:-0.46644715 
1 0:0 7:1 2:0.43645792 3:0.62609474 
-1 0:0.5976143 7:1 2:0.43645792 3:0.37569927 
1 0:0 7:1 2:0.43645792 3:0.37569927 
1 0:-0.5976143 7:1 2:0.43645792 3:0.10201907 
1 0:-1.7928429 7:1 2:0.43645792 3:0.10215122 
1 0:0 7:1 2:0.43645792 3:0.10205615 
1 0:0 7:1 2:0.43645792 3:0.88115408 
-1 0:0 7:1 2:0.43645792 3:0.37569927 
1 0:-1.1952286 7:1 2:0.43645792 3:0.10211863 
1 0:0 7:1 2:0.43645792 3:0.10205794 
1 0:0 7:1 2:0.43645792 3:-0.1240847 
1 0:-1.7928429 7:1 2:0.43645792 3:-0.12399052 
0.3853101249540278 0:1.7928429 7:1 2:0.43645792 3:-0.37997253 
1 0:0 7:1 2:0.43645792 3:-0.37997253 
1 0:-1.1952286 9:1 2:0.43645792 3:-0.55113047 
1 0:0 9:1 2:0.43645792 3:-0.55173236 
1 0:-1.7928429 9:1 2:0.43645792 3:-0.55113047 
1 0:0 9:1 2:0.43645792 3:-0.55144315 
-0.9628635142126852 0:1.1952286 9:1 2:0.43645792 3:-0.6932629 
-1 0:0.5976143 9:1 2:0.43645792 3:-0.693199 
1 0:0 9:1 2:0.43645792 3:-0.69319849 
-1 0:0 9:1 2:0.43645792 3:-0.69316064 
1 0:1.1952286 9:1 2:0.43645792 3:-0.80422823 
1 0:1.7928429 9:1 2:0.43645792 3:-0.80422823 
1 0:0.5976143 9:1 2:0.43645792 3:-0.80422823 
1 0:0 9:1 2:0.43645792 3:-0.80422823 
1 0:0 9:1 2:0.43645792 3:-0.80422823 
1 0:0 9:1 2:0.43645792 3:-0.80422823 
1 0:0 9:1 2:0.43645792 3:-0.80422823 
0.5729383772899039 0:-0.5976143 9:1 2:0.43645792 3:-0.6006187 
1 0:-1.1952286 9:1 2:0.43645792 3:-0.6006187 
1 0:-1.7928429 9:1 2:0.43645792 3:-0.6006187 
1 0:0 9:1 2:0.43645792 3:-0.60074059 
1 0:0 9:1 2:0.43645792 3:-0.60092074 
1 0:1.7928429 9:1 2:0.43645792 3:-0.67503158 
1 0:-0.5976143 9:1 2:0.43645792 3:-0.67422869 
1 0:-1.1952286 9:1 2:0.43645792 3:-0.67422869 
1 0:-1.7928429 9:1 2:0.43645792 3:-0.67422869 
1 0:0 9:1 2:0.43645792 3:-0.67463011 
1 0:0 9:1 2:0.43645792 3:-0.67433705 
0.03703438016499248 0:1.7928429 4:1 2:-1.3362327 3:-1.286317 
1 0:0 9:1 2:0.43645792 3:-0.82151001 
-0.1188737344477909 0:0 9:1 2:0.43645792 3:-0.82151001 
0.02729339268556963 0:-1.1952286 4:1 2:-1.3362327 3:-1.286317 
1 0:0 4:1 2:-1.3362327 3:-1.286317 
-1 0:0 4:1 2:-1.3362327 3:-1.286317 
0.3686623936965712 0:1.7928429 4:1 2:-1.3362327 3:-1.286317 
1 0:0 4:1 2:-1.3362327 3:-1.286317 
-1 0:0 4:1 2:-1.3362327 3:-1.286317 
-1 0:0 4:1 2:-1.3362327 3:-1.286317 
1 0:1.7928429 4:1 2:-1.3362327 3:-1.286317 
1 0:0 4:1 2:-1.3362327 3:-1.286317 
1 0:1.7928429 4:1 2:-1.3362327 3:-1.286317 
1 0:0 4:1 2:-1.3362327 3:-1.286317 
-1 0:0 4:1 2:-1.3362327 3:-1.286317 
1 0:1.7928429 4:1 2:-1.3362327 3:-1.286317 
1 0:0 4:1 2:-1.3362327 3:-1.286317 
1 0:1.7928429 4:1 2:-1.3362327 3:-1.286317 
-1 0:0 4:1 2:-1.3362327 3:-1.286317 
1 0:0 4:1 2:-1.3362327 3:-1.286317 
-1 0:0 4:1 2:-1.3362327 3:-1.286317 
1 0:0 4:1 2:-1.3362327 3:-1.286317 
-0.9229025856653282 0:0 4:1 2:-1.3362327 3:-1.286317 
1 0:1.7928429 4:1 2:-1.3362327 3:-1.286317 
1 0:0 4:1 2:-1.3362327 3:-1.286317 
1 0:1.7928429 4:1 2:-1.3362327 3:-1.286317 
0.08214752959857349 0:-1.1952286 4:1 2:-1.3362327 3:-1.286317 
1 0:0 4:1 2:-1.3362327 3:-1.286317 
0.8691076745087525 0:1.7928429 4:1 2:-1.3362327 3:-1.286317 
0.998370634033136 0:-1.1952286 4:1 2:-1.3362327 3:-1.286317 
1 0:0 4:1 2:-1.3362327 3:-1.286317 
-1 0:0.5976143 8:1 2:1.3496622 3:1.9113751 
-1 0:-1.7928429 8:1 2:1.3496622 3:1.9118968 
-1 0:0 8:1 2:1.3496622 3:1.9116351 
-0.4563082629680739 0:-0.5976143 8:1 2:1.3496622 3:1.5754847 
-0.7184679164623773 0:-1.7928429 8:1 2:1.3496622 3:1.575576 
-1 0:0 8:1 2:1.3496622 3:1.5753936 
-1 0:-0.5976143 8:1 2:1.3496622 3:1.2728525 
-1 0:0 8:1 2:1.3496622 3:1.2728047 
-1 0:-1.1952286 8:1 2:1.3496622 3:0.97691232 
1 0:0 8:1 2:1.3496622 3:0.97679094 
-1 0:0 8:1 2:1.3496622 3:0.97685869 
-1 0:0.5976143 8:1 2:1.3496622 3:0.67595789 
1 0:0 8:1 2:1.3496622 3:1.9108288 
1 0:0 8:1 2:1.3496622 3:1.5749224 
-1 0:-1.1952286 8:1 2:1.3496622 3:1.2728799 
1 0:0 8:1 2:1.3496622 3:1.272697 
-0.1978203215040455 0:0 8:1 2:1.3496622 3:1.272825 
-1 0:-0.5976143 8:1 2:1.3496622 3:0.97688718 
1 0:0 8:1 2:1.3496622 3:0.67589066 
-1 0:0 8:1 2:1.3496622 3:0.67595789 
-1 0:0 8:1 2:1.3496622 3:0.67595789 
-1 0:0.5976143 8:1 2:1.3496622 3:0.37324358 
-1 0:-1.1952286 8:1 2:1.3496622 3:0.37324358 
1 0:0 8:1 2:1.3496622 3:0.37324358 
-1 0:0 8:1 2:1.3496622 3:0.37324358 
-1 0:-0.5976143 8:1 2:1.3496622 3:0.37324358 
-1 0:0 8:1 2:1.3496622 3:0.37324358 
0.7655889164607432 0:1.7928429 8:1 2:1.3496622 3:1.7487788 
-0.6601804933749075 0:0.5976143 8:1 2:1.3496622 3:1.7500178 
1 0:0 8:1 2:1.3496622 3:1.7496274 
-1 0:-0.5976143 8:1 2:1.3496622 3:1.4846855 
1 0:0 8:1 2:1.3496622 3:1.4841649 
-1 0:0 8:1 2:1.3496622 3:1.4846001 
1 0:0 8:1 2:1.3496622 3:1.1891483 
-0.3093554933228714 0:1.1952286 8:1 2:1.3496622 3:0.78888839 
-1 0:0.5976143 8:1 2:1.3496622 3:0.78888839 
1 0:0 8:1 2:1.3496622 3:0.78888839 
1 0:0 8:1 2:1.3496622 3:0.49982249 
0.06411074424992932 0:1.7928429 6:1 2:-1.3362327 3:-1.1770822 
-1 0:-1.7928429 6:1 2:-1.3362327 3:-1.1770822 
-1 0:-1.7928429 6:1 2:-1.3362327 3:-1.1770822 
0.06312313882313471 0:1.7928429 6:1 2:-1.3362327 3:-1.1770822 
-1 0:-1.7928429 6:1 2:-1.3362327 3:-1.1770822 
1 0:1.7928429 6:1 2:-1.3362327 3:-1.286317 
1 0:1.1952286 6:1 2:-1.3362327 3:-1.286317 
1 0:-1.1952286 6:1 2:-1.3362327 3:-1.286317 
1 0:0 6:1 2:-1.3362327 3:-1.286317 
1 0:0 6:1 2:-1.3362327 3:-1.286317 
1 0:-1.7928429 6:1 2:-1.3362327 3:-1.286317 
1 0:1.1952286 6:1 2:-1.3362327 3:-1.286317 
1 0:1.7928429 6:1 2:-1.3362327 3:-1.286317 
1 0:-1.7928429 6:1 2:-1.3362327 3:-1.286317 
1 0:-1.1952286 6:1 2:-1.3362327 3:-1.286317 
1 0:0 6:1 2:-1.3362327 3:-1.286317 
1 0:0 6:1 2:-1.3362327 3:-1.286317 
0.005068281528036334 0:1.1952286 5:1 2:-1.3362327 3:-1.1770822 
0.8334866747616115 0:-0.5976143 5:1 2:-1.3362327 3:-1.1770822 
-0.09474007337027626 0:-1.7928429 5:1 2:-1.3362327 3:-1.1770822 
0.007237150234355658 0:1.1952286 5:1 2:-1.3362327 3:-1.1770822 
1 0:1.7928429 5:1 2:-1.3362327 3:-1.1770822 
0.9995952033731045 0:-0.5976143 5:1 2:-1.3362327 3:-1.1770822 
-0.4508330963972144 0:-1.7928429 5:1 2:-1.3362327 3:-1.1770822 
0.5278939869315339 0:1.7928429 1:1 2:-1.3362327 3:-1.078054 
-1 0:-0.5976143 1:1 2:-1.3362327 3:-1.0776726 
1 0:0 1:1 2:-1.3362327 3:-1.0778281 
-0.4981113321821782 0:0.5976143 1:1 2:-1.3362327 3:-1.0777554 
-1 0:0 1:1 2:-1.3362327 3:-1.077714 
-1 0:0.5976143 1:1 2:-1.3362327 3:-1.0777554 
-1 0:-0.5976143 1:1 2:-1.3362327 3:-1.0776726 
1 0:0 1:1 2:-1.3362327 3:-1.0778281 
-1 0:0 1:1 2:-1.3362327 3:-1.077714 
-1 0:-0.5976143 1:1 2:-1.3362327 3:-1.0776726 
-1 0:0.5976143 1:1 2:-1.3362327 3:-1.0777554 
1 0:0 1:1 2:-1.3362327 3:-1.0778281 
-1 0:-0.5976143 1:1 2:-1.3362327 3:-1.0776726 
-1 0:0 1:1 2:-1.3362327 3:-1.077714 
-0.3925975498597461 0:0.5976143 1:1 2:-1.3362327 3:-1.0777554 
1 0:0 1:1 2:-1.3362327 3:-1.0778281 
-1 0:0 1:1 2:-1.3362327 3:-1.077714 
-1 0:-0.5976143 1:1 2:-1.3362327 3:-1.0776726 
1 0:0 1:1 2:-1.3362327 3:-1.0778281 
-1 0:0 1:1 2:-1.3362327 3:-1.077714 
-0.6418185985479439 0:-0.5976143 1:1 2:-1.3362327 3:-1.0776726 
1 0:0 1:1 2:-1.3362327 3:-1.0778281 
-1 0:0 1:1 2:-1.3362327 3:-1.077714 
1 0:0 1:1 2:-1.3362327 3:-1.0778281 
-1 0:0 1:1 2:-1.3362327 3:-1.077714 
1 0:0 1:1 2:-1.3362327 3:-1.0778281 
1 0:0 1:1 2:-1.3362327 3:-1.0778281 
1 0:0 1:1 2:-1.3362327 3:-1.0778281 
-1 0:0 1:1 2:-1.3362327 3:-1.077714 
-1 0:0 1:1 2:-1.3362327 3:-1.077714 
-1 0:0 1:1 2:-1.3362327 3:-1.077714 
1 0:0 1:1 2:-1.3362327 3:-1.0778281 
-1 0:0 1:1 2:-1.3362327 3:-1.077714 
1 0:0.5976143 1:1 2:-1.3362327 3:-1.286317 
1 0:1.1952286 1:1 2:-1.3362327 3:-1.286317 
1 0:1.7928429 1:1 2:-1.3362327 3:-1.286317 
1 0:-0.5976143 1:1 2:-1.3362327 3:-1.286317 
1 0:-1.1952286 1:1 2:-1.3362327 3:-1.286317 
1 0:-1.7928429 1:1 2:-1.3362327 3:-1.286317 
1 0:0 1:1 2:-1.3362327 3:-1.286317 
1 0:0 1:1 2:-1.3362327 3:-1.286317 
1 0:1.1952286 1:1 2:-1.3362327 3:-1.286317 
1 0:0 1:1 2:-1.3362327 3:-1.286317 
1 0:1.7928429 1:1 2:-1.3362327 3:-1.286317 
1 0:0 1:1 2:-1.3362327 3:-1.286317 
1 0:0.5976143 1:1 2:-1.3362327 3:-1.286317 
1 0:-0.5976143 1:1 2:-1.3362327 3:-1.286317 
1 0:-1.7928429 1:1 2:-1.3362327 3:-1.286317 
1 0:-1.1952286 1:1 2:-1.3362327 3:-1.286317 
1 0:0 1:1 2:-1.3362327 3:-1.286317 
1 0:0 1:1 2:-1.3362327 3:-1.286317 
1 0:0 1:1 2:-1.3362327 3:-1.286317 
1 0:0 1:1 2:-1.3362327 3:-1.286317 
1 0:0 1:1 2:-1.3362327 3:-1.0778281 
-1 0:0 1:1 2:-1.3362327 3:-1.077714 
-0.4730231432460865 0:-0.5976143 1:1 2:-1.3362327 3:-1.0776726 
1 0:0 1:1 2:-1.3362327 3:-1.0778281 
-1 0:0 1:1 2:-1.3362327 3:-1.077714 
-1 0:0.5976143 1:1 2:-1.3362327 3:-1.0777554 
-1 0:-0.5976143 1:1 2:-1.3362327 3:-1.0776726 
1 0:0 1:1 2:-1.3362327 3:-1.0778281 
-1 0:0 1:1 2:-1.3362327 3:-1.077714 
-1 0:0.5976143 1:1 2:-1.3362327 3:-1.0777554 
1 0:0 1:1 2:-1.3362327 3:-1.0778281 
-1 0:-0.5976143 1:1 2:-1.3362327 3:-1.0776726 
-1 0:0 1:1 2:-1.3362327 3:-1.077714 
-1 0:0.5976143 1:1 2:-1.3362327 3:-1.0777554 
1 0:0 1:1 2:-1.3362327 3:-1.0778281 
-1 0:-0.5976143 1:1 2:-1.3362327 3:-1.0776726 
-0.2745333223282756 0:-1.7928429 1:1 2:-1.3362327 3:-1.0776023 
-1 0:0 1:1 2:-1.3362327 3:-1.077714 
0.08099074044007505 0:1.7928429 1:1 2:-1.3362327 3:-1.078054 
-0.5606760429362411 0:0.5976143 1:1 2:-1.3362327 3:-1.0777554 
1 0:0 1:1 2:-1.3362327 3:-1.0778281 
-1 0:0 1:1 2:-1.3362327 3:-1.077714 
-1 0:-0.5976143 1:1 2:-1.3362327 3:-1.0776726 
-0.7138540211609248 0:-1.7928429 1:1 2:-1.3362327 3:-1.0776023 
1 0:0 7:1 2:1.3496622 3:0.37674704 
-1 0:0 7:1 2:1.3496622 3:0.37674704 
1 0:0 7:1 2:1.3496622 3:0.97808455 
1 0:0 7:1 2:1.3496622 3:0.67689197 
-1 0:0.5976143 7:1 2:1.3496622 3:0.37674704 
-1 0:-0.5976143 7:1 2:1.3496622 3:0.37674704 
-1 0:0 7:1 2:1.3496622 3:0.37674704 
1 0:0 7:1 2:1.3496622 3:0.057958913 
0.6777935891950425 0:0 7:1 2:1.3496622 3:0.057970974 
1 0:1.7928429 7:1 2:1.3496622 3:-0.53699154 
1 0:0 7:1 2:1.3496622 3:-0.23493199 
1 0:1.1952286 7:1 2:1.3496622 3:-0.53618025 
0.4978710643135359 0:-1.1952286 7:1 2:1.3496622 3:-0.53473665 
1 0:0 7:1 2:1.3496622 3:-0.53545851 
1 0:0 7:1 2:1.3496622 3:-0.53580071 
0.1682738445151038 0:1.7928429 8:1 2:-1.3362327 3:-1.1770822 
0.05571924873640773 0:-0.5976143 8:1 2:-1.3362327 3:-1.1770822 
-0.1695511387953508 0:-1.7928429 8:1 2:-1.3362327 3:-1.1770822 
-1 0:-0.5976143 7:1 2:1.3496622 3:0.64383695 
-1 0:0 7:1 2:1.3496622 3:0.64383695 
1 0:0 7:1 2:1.3496622 3:0.51466108 
1 0:0 7:1 2:1.3496622 3:0.034573324 
-1 0:0.5976143 7:1 2:1.3496622 3:0.64383695 
1 0:0 7:1 2:1.3496622 3:0.64383361 
-1 0:0 7:1 2:1.3496622 3:0.64383695 
0.229709546231459 0:1.7928429 7:1 2:1.3496622 3:1.4473032 
1 0:0 7:1 2:1.3496622 3:-0.19646299 
-1 0:-0.5976143 7:1 2:1.3496622 3:1.4481141 
-1 0:-1.1952286 7:1 2:1.3496622 3:1.4481141 
-1 0:-1.7928429 7:1 2:1.3496622 3:1.4481141 
1 0:0 7:1 2:1.3496622 3:1.4477086 
-1 0:0 7:1 2:1.3496622 3:1.4481141 
-0.01930883159215907 0:-1.1952286 7:1 2:1.3496622 3:1.1472431 
1 0:0 7:1 2:1.3496622 3:1.1471191 
-1 0:-1.7928429 7:1 2:1.3496622 3:1.1472431 
1 0:0 7:1 2:1.3496622 3:0.84663763 
-1 0:0.5976143 7:1 2:1.3496622 3:0.53705395 
-1 0:-0.5976143 7:1 2:1.3496622 3:0.53718534 
1 0:0 7:1 2:1.3496622 3:0.53699108 
-1 0:0 7:1 2:1.3496622 3:0.53711964 
-1 0:0 7:1 2:1.3496622 3:0.53718534 
-1 0:0.5976143 7:1 2:1.3496622 3:0.23446897 
-1 0:-0.5976143 7:1 2:1.3496622 3:0.23446897 
-1 0:-1.1952286 7:1 2:1.3496622 3:0.23446897 
-1 0:0 7:1 2:1.3496622 3:0.23446897 
-1 0:0 7:1 2:1.3496622 3:0.23446897 
-1 0:1.1952286 7:1 2:1.3496622 3:-0.068298967 
-0.8279751700276687 0:1.7928429 7:1 2:1.3496622 3:-0.068247516 
-1 0:0.5976143 7:1 2:1.3496622 3:-0.068274845 
-1 0:-1.7928429 7:1 2:1.3496622 3:-0.068247516 
-1 0:0 7:1 2:1.3496622 3:-0.068261245 
-1 0:-0.5976143 7:1 2:1.3496622 3:-0.068247516 
-1 0:-1.1952286 7:1 2:1.3496622 3:-0.068247516 
-1 0:0 7:1 2:1.3496622 3:-0.068250595 
-1 0:0 7:1 2:1.3496622 3:-0.068273306 
-0.2000488663848412 0:1.1952286 9:1 2:1.3496622 3:-0.17417829 
-1 0:-1.7928429 9:1 2:1.3496622 3:-0.17207647 
-1 0:0.5976143 9:1 2:1.3496622 3:-0.47167636 
-1 0:-1.1952286 9:1 2:1.3496622 3:-0.47167636 
-1 0:-0.5976143 9:1 2:1.3496622 3:-0.47167636 
-1 0:-1.7928429 9:1 2:1.3496622 3:-0.47167636 
1 0:1.7928429 9:1 2:1.3496622 3:-0.67182747 
-1 0:0 9:1 2:1.3496622 3:-0.47167636 
1 0:1.1952286 9:1 2:1.3496622 3:-0.67157323 
1 0:0.5976143 9:1 2:1.3496622 3:-0.67165695 
1 0:-1.1952286 9:1 2:1.3496622 3:-0.67127485 
1 0:-0.5976143 9:1 2:1.3496622 3:-0.67135087 
1 0:-1.7928429 9:1 2:1.3496622 3:-0.67123077 
1 0:0 9:1 2:1.3496622 3:-0.67142407 
1 0:0 9:1 2:1.3496622 3:-0.67152915 
1 0:0 9:1 2:1.3496622 3:-0.6714249 
1 0:0 9:1 2:1.3496622 3:-0.67150388 
-1 0:-0.5976143 9:1 2:1.3496622 3:-0.23745055 
-0.7390238502630524 0:-1.7928429 9:1 2:1.3496622 3:-0.23741629 
-1 0:0 9:1 2:1.3496622 3:-0.23747916 
-1 0:-0.5976143 9:1 2:1.3496622 3:-0.42144073 
-1 0:0.5976143 9:1 2:1.3496622 3:-0.23750778 
1 0:0 9:1 2:1.3496622 3:-0.23748994 
-1 0:0 9:1 2:1.3496622 3:-0.23747916 
1 0:0 9:1 2:1.3496622 3:-0.42156352 
-1 0:1.1952286 9:1 2:1.3496622 3:-0.5812031 
-1 0:-0.5976143 9:1 2:1.3496622 3:-0.5812031 
-1 0:-1.7928429 9:1 2:1.3496622 3:-0.5812031 
-1 0:0 9:1 2:1.3496622 3:-0.5812031 
-1 0:0.5976143 9:1 2:1.3496622 3:-0.5812031 
-1 0:-1.1952286 9:1 2:1.3496622 3:-0.5812031 
-1 0:0 9:1 2:1.3496622 3:-0.5812031 
-1 0:0 9:1 2:1.3496622 3:-0.5812031 
1 0:0 4:1 2:1.3496622 3:0.0065289906 
-1 0:0 4:1 2:1.3496622 3:0.0065289906 
-1 0:0.5976143 4:1 2:1.3496622 3:-0.14573402 
-1 0:0 4:1 2:1.3496622 3:-0.14573402 
-1 0:-0.5976143 4:1 2:1.3496622 3:-0.14573402 
-1 0:-0.5976143 4:1 2:1.3496622 3:0.71350319 
1 0:0 4:1 2:1.3496622 3:0.71349524 
-1 0:-1.7928429 4:1 2:1.3496622 3:0.71350319 
-0.1377601048247318 0:-1.1952286 4:1 2:1.3496622 3:0.71350319 
-1 0:0 4:1 2:1.3496622 3:0.71350319 
-1 0:-0.5976143 4:1 2:1.3496622 3:0.42760483 
1 0:0 4:1 2:1.3496622 3:0.42759829 
-1 0:0 4:1 2:1.3496622 3:0.42760483 
-1 0:0.5976143 4:1 2:1.3496622 3:0.42760483 
-1 0:-1.7928429 4:1 2:1.3496622 3:0.42760483 
-1 0:0 4:1 2:1.3496622 3:0.42760483 
-1 0:0.5976143 4:1 2:1.3496622 3:0.13834005 
-1 0:-1.1952286 4:1 2:1.3496622 3:0.13834005 
-1 0:-0.5976143 4:1 2:1.3496622 3:0.13834005 
-1 0:-1.7928429 4:1 2:1.3496622 3:0.13834005 
1 0:0 4:1 2:1.3496622 3:0.13834005 
-1 0:0 4:1 2:1.3496622 3:0.13834005 
-1 0:0 4:1 2:1.3496622 3:0.13834005 
1 0:0 4:1 2:1.3496622 3:-0.14912264 
-1 0:0 4:1 2:1.3496622 3:-0.14907401 
0.1605602836310837 0:-0.5976143 8:1 2:-1.3362327 3:-1.1770822 
1 0:-0.5976143 8:1 2:-1.3362327 3:-1.1770822 
1 0:-0.5976143 8:1 2:-1.3362327 3:-1.1770822 
1 0:-0.5976143 8:1 2:-1.3362327 3:-1.1770822 
0.8662193305680687 0:1.7928429 8:1 2:-1.3362327 3:-1.1770822 
1 0:1.7928429 8:1 2:-1.3362327 3:-1.1770822 
1 0:1.7928429 8:1 2:-1.3362327 3:-1.1770822 
0.9701135665373829 0:1.7928429 8:1 2:-1.3362327 3:-1.1770822 
1 0:-0.5976143 8:1 2:-1.3362327 3:-1.1770822 
-0.5246739881597771 0:-1.7928429 8:1 2:-1.3362327 3:-1.1770822 
-0.008494169674183734 0:-1.7928429 7:1 2:-1.3362327 3:-1.1770822 
0.01256087224409412 0:1.7928429 7:1 2:-1.3362327 3:-1.1770822 
1 0:1.7928429 7:1 2:-1.3362327 3:-1.286317 
0.3468571889740291 0:-0.5976143 7:1 2:-1.3362327 3:-1.286317 
0.0226015368348779 0:0.5976143 7:1 2:-1.3362327 3:-1.286317 
1 0:1.1952286 7:1 2:-1.3362327 3:-1.286317 
1 0:-1.1952286 7:1 2:-1.3362327 3:-1.286317 
1 0:-1.7928429 7:1 2:-1.3362327 3:-1.286317 
1 0:0 7:1 2:-1.3362327 3:-1.286317 
1 0:0 7:1 2:-1.3362327 3:-1.286317 
0.05655453987863187 0:0.5976143 7:1 2:-1.3362327 3:-1.286317 
1 0:1.1952286 7:1 2:-1.3362327 3:-1.286317 
1 0:1.7928429 7:1 2:-1.3362327 3:-1.286317 
0.9331388509883273 0:-0.5976143 7:1 2:-1.3362327 3:-1.286317 
1 0:-1.1952286 7:1 2:-1.3362327 3:-1.286317 
1 0:-1.7928429 7:1 2:-1.3362327 3:-1.286317 
1 0:0 7:1 2:-1.3362327 3:-1.286317 
1 0:0 7:1 2:-1.3362327 3:-1.286317 
-1 0:0.5976143 4:1 2:1.3496622 3:0.30605343 
1 0:0 4:1 2:1.3496622 3:0.30604445 
-1 0:0 4:1 2:1.3496622 3:0.3060832 
-1 0:-0.5976143 4:1 2:1.3496622 3:0.30611296 
-1 0:0 4:1 2:1.3496622 3:0.30609243 
1 0:-1.1952286 4:1 2:1.3496622 3:0.036234659 
1 0:-0.5976143 4:1 2:1.3496622 3:0.036136375 
1 0:0 4:1 2:1.3496622 3:0.035192155 
1 0:0 4:1 2:1.3496622 3:0.035620961 
1 0:1.7928429 4:1 2:1.3496622 3:-0.15919048 
0.09284285118753254 0:-1.1952286 4:1 2:1.3496622 3:-0.15808998 
1 0:0 4:1 2:1.3496622 3:-0.15862643 
1 0:0 4:1 2:1.3496622 3:-0.15844141 
1 0:0 4:1 2:1.3496622 3:-0.42640189 
-1 0:-1.1952286 6:1 2:1.3496622 3:1.1891483 
-1 0:-0.5976143 6:1 2:1.3496622 3:1.1891483 
-1 0:-1.7928429 6:1 2:1.3496622 3:1.1891483 
-1 0:-0.5976143 6:1 2:1.3496622 3:0.78888839 
-1 0:0.5976143 6:1 2:1.3496622 3:0.78888839 
-1 0:1.1952286 6:1 2:1.3496622 3:0.78888839 
-1 0:-1.1952286 6:1 2:1.3496622 3:0.78888839 
-1 0:-1.7928429 6:1 2:1.3496622 3:0.78888839 
1 0:0 6:1 2:1.3496622 3:0.78888839 
-0.981875240077433 0:0 6:1 2:1.3496622 3:0.78888839 
-1 0:0 6:1 2:1.3496622 3:0.78888839 
-0.7509377272982446 0:0.5976143 6:1 2:1.3496622 3:0.49985328 
1 0:0 6:1 2:1.3496622 3:0.49982249 
1 0:0 6:1 2:1.3496622 3:0.21300108 
1 0:0 6:1 2:1.3496622 3:-0.070617112 
-1 0:0 6:1 2:1.3496622 3:-0.070617112 
-1 0:-0.5976143 6:1 2:1.3496622 3:-0.070617112 
-0.7864854209731295 0:-1.7928429 7:1 2:-1.3362327 3:-1.1770822 
-1 0:-1.7928429 7:1 2:-1.3362327 3:-1.1770822 
-1 0:-1.7928429 7:1 2:-1.3362327 3:-1.1770822 
0.7850462758702117 0:1.7928429 7:1 2:-1.3362327 3:-1.1770822 
-0.1756167380294195 0:-1.7928429 7:1 2:-1.3362327 3:-1.1770822 
1 0:1.7928429 9:1 2:-1.3362327 3:-1.286317 
1 0:1.7928429 9:1 2:-1.3362327 3:-1.286317 
1 0:0 9:1 2:-1.3362327 3:-1.286317 
-0.09201968855906906 0:0 9:1 2:-1.3362327 3:-1.286317 
1 0:0 9:1 2:-1.3362327 3:-1.286317 
-0.8494553953720791 0:0 9:1 2:-1.3362327 3:-1.286317 
1 0:1.7928429 9:1 2:-1.3362327 3:-1.286317 
1 0:0 9:1 2:-1.3362327 3:-1.286317 
1 0:1.7928429 9:1 2:-1.3362327 3:-1.286317 
1 0:0 9:1 2:-1.3362327 3:-1.286317 
1 0:1.7928429 9:1 2:-1.3362327 3:-1.286317 
0.005692631709150162 0:-1.1952286 9:1 2:-1.3362327 3:-1.286317 
1 0:0 9:1 2:-1.3362327 3:-1.286317 
1 0:1.7928429 9:1 2:-1.3362327 3:-1.286317 
0.386133939929924 0:-1.1952286 9:1 2:-1.3362327 3:-1.286317 
1 0:0 9:1 2:-1.3362327 3:-1.286317 
-0.5011950552447472 0:0.5976143 5:1 2:1.3496622 3:1.9113751 
-0.07480379838835072 0:-0.5976143 5:1 2:1.3496622 3:1.9117523 
-1 0:-1.1952286 5:1 2:1.3496622 3:1.9118481 
-1 0:-1.7928429 5:1 2:1.3496622 3:1.9118968 
1 0:0 5:1 2:1.3496622 3:1.9108288 
-1 0:0 5:1 2:1.3496622 3:1.9116351 
-1 0:-1.1952286 5:1 2:1.3496622 3:1.2728799 
1 0:0 5:1 2:1.3496622 3:1.272697 
-1 0:-0.5976143 5:1 2:1.3496622 3:1.2728525 
-1 0:-1.7928429 5:1 2:1.3496622 3:1.2729038 
-1 0:0 5:1 2:1.3496622 3:1.2728047 
-1 0:-1.7928429 1:1 2:1.3496622 3:3.0830309 
1 0:1.7928429 1:1 2:1.3496622 3:3.0645437 
-1 0:-1.1952286 1:1 2:1.3496622 3:3.0830098 
-1 0:-1.7928429 1:1 2:1.3496622 3:2.7466754 
-1 0:0.5976143 1:1 2:1.3496622 3:2.3895235 
-1 0:0.5976143 1:1 2:1.3496622 3:2.0537329 
1 0:0 1:1 2:1.3496622 3:2.053407 
-1 0:-0.5976143 1:1 2:1.3496622 3:1.7174382 
-1 0:0.5976143 1:1 2:1.3496622 3:1.7174362 
-1 0:0 1:1 2:1.3496622 3:1.7174372 
-1 0:0 1:1 2:1.3496622 3:1.7174382 
-1 0:-0.5976143 1:1 2:1.3496622 3:1.4070621 
-1 0:0 1:1 2:1.3496622 3:1.4070621 
-1 0:-0.5976143 1:1 2:1.3496622 3:1.0707092 
-0.8821351525874621 0:-1.1952286 1:1 2:1.3496622 3:1.0707092 
1 0:0 1:1 2:1.3496622 3:1.0707092 
0.04462865434420197 0:1.7928429 1:1 2:1.3496622 3:1.8649609 
1 0:-1.1952286 1:1 2:1.3496622 3:1.8650661 
1 0:0 1:1 2:1.3496622 3:1.8650135 
1 0:0 1:1 2:1.3496622 3:1.5459237 
-1 0:0 1:1 2:1.3496622 3:1.5459237 
1 0:0 1:1 2:1.3496622 3:1.2600237 
1 0:0 1:1 2:1.3496622 3:0.94385242 
-1 0:0 1:1 2:1.3496622 3:0.94385242 
-1 0:-0.5976143 1:1 2:1.3496622 3:0.62095574 
-1 0:0.5976143 1:1 2:1.3496622 3:0.62095574 
1 0:0 1:1 2:1.3496622 3:0.62095574 
-1 0:0 1:1 2:1.3496622 3:0.62095574 
0.6772766823084062 0:1.7928429 1:1 2:1.3496622 3:0.39559821 
-1 0:0 1:1 2:1.3496622 3:0.62095574 
-1 0:-0.5976143 1:1 2:1.3496622 3:0.39559821 
-1 0:-1.1952286 1:1 2:1.3496622 3:0.39559821 
-0.7791756571029778 0:-1.7928429 1:1 2:1.3496622 3:0.39559821 
1 0:0 1:1 2:1.3496622 3:0.39559821 
-1 0:0 1:1 2:1.3496622 3:0.39559821 
