svm_type epsilon_svr
kernel_type rbf
gamma 0.1
nr_class 2
total_sv 1740
rho -0.832632
SV
-1 0:0.5976143 1:1 2:1.3496622 3:1.9581509 
1 0:0 1:1 2:1.3496622 3:1.5676435 
1 0:-0.5976143 1:1 2:1.3496622 3:1.9670561 
-0.6770144585879642 0:-1.1952286 1:1 2:1.3496622 3:1.9671413 
-1 0:0.5976143 1:1 2:1.3496622 3:1.9581509 
1 0:-0.5976143 1:1 2:1.3496622 3:1.8257503 
0.06586121612503258 0:-1.7928429 1:1 2:1.3496622 3:1.6936262 
1 0:-0.5976143 1:1 2:1.3496622 3:1.9670561 
1 0:0 1:1 2:1.3496622 3:1.5676435 
-1 0:-1.1952286 1:1 2:1.3496622 3:1.8258251 
1 0:0 1:1 2:1.3496622 3:1.4871657 
-1 0:-1.1952286 1:1 2:1.3496622 3:1.6936217 
-1 0:0.5976143 1:1 2:1.3496622 3:1.272292 
-1 0:-1.1952286 1:1 2:1.3496622 3:1.2742365 
-1 0:0 1:1 2:1.3496622 3:1.259921 
-1 0:0 1:1 2:1.3496622 3:1.2732512 
-1 0:-1.1952286 1:1 2:1.3496622 3:0.92777674 
-1 0:0.5976143 1:1 2:1.3496622 3:0.92680935 
-1 0:0 1:1 2:1.3496622 3:0.92364931 
-1 0:0 1:1 2:1.3496622 3:0.92728131 
0.1398259867478607 0:-1.7928429 1:1 2:1.3496622 3:1.6936262 
-1 0:0.5976143 1:1 2:1.3496622 3:1.9581509 
1 0:-0.5976143 1:1 2:1.3496622 3:1.9670561 
1 0:0 1:1 2:1.3496622 3:1.5676435 
-1 0:0.5976143 1:1 2:1.3496622 3:1.9581509 
1 0:0 1:1 2:1.3496622 3:1.5676435 
1 0:-0.5976143 1:1 2:1.3496622 3:1.9670561 
1 0:0 1:1 2:1.3496622 3:1.5676435 
-1 0:0.5976143 1:1 2:1.3496622 3:1.9581509 
1 0:-0.5976143 1:1 2:1.3496622 3:1.9670561 
1 0:0 1:1 2:1.3496622 3:1.5676435 
1 0:-0.5976143 1:1 2:1.3496622 3:1.9670561 
-0.5385961733818659 0:-1.1952286 1:1 2:1.3496622 3:1.9671413 
-1 0:0.5976143 1:1 2:1.3496622 3:1.9581509 
1 0:-0.5976143 1:1 2:1.3496622 3:1.8257503 
1 0:0 1:1 2:1.3496622 3:1.4871657 
-1 0:-1.1952286 1:1 2:1.3496622 3:1.6936217 
-1 0:-1.1952286 1:1 2:1.3496622 3:1.8258251 
1 0:0 4:1 2:-0.44988739 3:-0.0064465734 
1 0:0 1:1 2:-0.44988739 3:0.33909741 
1 0:0 6:1 2:-0.44988739 3:-0.69828873 
-1 0:1.7928429 7:1 2:-0.44988739 3:-0.94283238 
1 0:0 8:1 2:-0.44988739 3:-0.92438371 
1 0:1.7928429 5:1 2:-0.44988739 3:-0.17548988 
-1 0:0 5:1 2:-0.44988739 3:-0.10511052 
-1 0:1.7928429 7:1 2:-0.44988739 3:-0.94283238 
-1 0:0 5:1 2:-0.44988739 3:-0.4151353 
1 0:0 5:1 2:-0.44988739 3:-1.0129559 
1 0:0 8:1 2:0.43645792 3:-0.75379238 
1 0:0 5:1 2:0.43645792 3:-0.77746646 
1 0:0 5:1 2:-0.44988739 3:-0.64671732 
1 0:0 1:1 2:0.43645792 3:0.63263715 
1 0:0 5:1 2:0.43645792 3:-0.48475959 
-1 0:0 8:1 2:-0.44988739 3:-0.89023063 
-1 0:-0.5976143 8:1 2:-0.44988739 3:-0.50582645 
-1 0:0 8:1 2:-0.44988739 3:-0.56322209 
-1 0:1.1952286 8:1 2:-0.44988739 3:-0.51049774 
-1 0:-1.1952286 8:1 2:-0.44988739 3:-0.50581462 
-1 0:-1.7928429 8:1 2:-0.44988739 3:-0.50581462 
-1 0:0 8:1 2:-0.44988739 3:-0.50815614 
-1 0:0 8:1 2:-0.44988739 3:-0.50607929 
-1 0:1.1952286 8:1 2:-0.44988739 3:-0.85053721 
1 0:-1.7928429 8:1 2:-0.44988739 3:-0.83762896 
1 0:0 8:1 2:-0.44988739 3:-0.5058934 
-1 0:1.7928429 8:1 2:-0.44988739 3:-0.94283238 
1 0:-0.5976143 8:1 2:-0.44988739 3:-0.83808388 
1 0:0 8:1 2:-0.44988739 3:-0.83903161 
-1 0:0 8:1 2:-0.44988739 3:-0.84414808 
-1 0:0.5976143 8:1 2:-0.44988739 3:0.0057604326 
1 0:-1.7928429 8:1 2:-0.44988739 3:0.011277644 
-1 0:0 8:1 2:-0.44988739 3:-0.056562822 
1 0:0 8:1 2:-0.44988739 3:0.010578059 
-1 0:0.5976143 8:1 2:-0.44988739 3:0.0057604326 
1 0:-0.5976143 8:1 2:-0.44988739 3:0.011167741 
-1 0:0 8:1 2:-0.44988739 3:-0.056562822 
1 0:1.7928429 8:1 2:-0.44988739 3:-0.12440329 
1 0:-0.5976143 8:1 2:-0.44988739 3:0.011167741 
-1 0:0 8:1 2:-0.44988739 3:-0.008382736 
1 0:1.7928429 8:1 2:-0.44988739 3:-0.12440329 
1 0:-1.7928429 8:1 2:-0.44988739 3:0.011277644 
-1 0:0 8:1 2:-0.44988739 3:-0.008382736 
-1 0:1.1952286 8:1 2:-0.44988739 3:-0.51049774 
-1 0:-1.1952286 8:1 2:-0.44988739 3:-0.50581462 
-1 0:-1.7928429 8:1 2:-0.44988739 3:-0.50581462 
-1 0:0 8:1 2:-0.44988739 3:-0.50607929 
-1 0:1.1952286 8:1 2:-0.44988739 3:-0.70921621 
-1 0:0.5976143 8:1 2:-0.44988739 3:-0.70050843 
-1 0:0 8:1 2:-0.44988739 3:-0.75422477 
-1 0:0 8:1 2:-0.44988739 3:-0.70318043 
1 0:0 8:1 2:-0.44988739 3:0.010578059 
-1 0:-0.5976143 8:1 2:-0.44988739 3:-0.50582645 
-1 0:0 8:1 2:-0.44988739 3:-0.56322209 
-1 0:0 8:1 2:-0.44988739 3:-0.50815614 
1 0:0 8:1 2:-0.44988739 3:-0.5058934 
1 0:-0.5976143 8:1 2:-0.44988739 3:-0.69743577 
1 0:0 8:1 2:-0.44988739 3:-0.69828873 
-0.879524898409855 0:-1.1952286 6:1 2:-0.44988739 3:0.16864207 
-1 0:0 6:1 2:-0.44988739 3:0.16630716 
-1 0:0.5976143 6:1 2:-0.44988739 3:0.16417815 
1 0:1.7928429 6:1 2:-0.44988739 3:-0.092516599 
-1 0:0.5976143 6:1 2:-0.44988739 3:0.16417815 
1 0:-0.5976143 6:1 2:-0.44988739 3:0.16843617 
-1 0:0 6:1 2:-0.44988739 3:0.03809873 
-1 0:0 6:1 2:-0.44988739 3:0.14742166 
0.6573264615862556 0:1.7928429 6:1 2:-0.44988739 3:-0.092516599 
1 0:-0.5976143 6:1 2:-0.44988739 3:0.16843617 
-0.4890983632991233 0:-1.1952286 6:1 2:-0.44988739 3:0.16864207 
-1 0:0 6:1 2:-0.44988739 3:0.03809873 
-1 0:0 6:1 2:-0.44988739 3:0.14742166 
-1 0:1.1952286 6:1 2:-0.44988739 3:-0.033265225 
-1 0:-1.1952286 6:1 2:-0.44988739 3:-0.0059346224 
-1 0:0 6:1 2:-0.44988739 3:-0.019599924 
-1 0:0 6:1 2:-0.44988739 3:-0.0079113028 
-1 0:1.1952286 6:1 2:-0.44988739 3:-0.51049774 
-1 0:-1.1952286 6:1 2:-0.44988739 3:-0.50581462 
-1 0:-1.7928429 6:1 2:-0.44988739 3:-0.50581462 
-1 0:0 6:1 2:-0.44988739 3:0.16630716 
-1 0:0.5976143 6:1 2:-0.44988739 3:-0.0097959921 
1 0:-0.5976143 6:1 2:-0.44988739 3:-0.0060266136 
-1 0:0 6:1 2:-0.44988739 3:-0.072009866 
1 0:0 6:1 2:-0.44988739 3:-0.0064465734 
-1 0:1.7928429 6:1 2:-0.44988739 3:-0.62062955 
-1 0:-0.5976143 6:1 2:-0.44988739 3:-0.50582645 
-1 0:0 6:1 2:-0.44988739 3:-0.56322209 
-1 0:0 6:1 2:-0.44988739 3:-0.50815614 
1 0:0 6:1 2:-0.44988739 3:-0.5058934 
-1 0:1.7928429 6:1 2:-0.44988739 3:-0.81142147 
1 0:-0.5976143 6:1 2:-0.44988739 3:-0.69743577 
1 0:-1.1952286 6:1 2:-0.44988739 3:-0.69714466 
1 0:0 6:1 2:-0.44988739 3:-0.69897214 
-1 0:0 6:1 2:-0.44988739 3:-0.50607929 
-1 0:1.1952286 6:1 2:-0.44988739 3:-0.70921621 
1 0:-1.7928429 6:1 2:-0.44988739 3:-0.69702798 
-1 0:0 6:1 2:-0.44988739 3:-0.75422477 
-1 0:0 6:1 2:-0.44988739 3:-0.70318043 
-1 0:0.5976143 9:1 2:-0.44988739 3:0.81551148 
1 0:-0.5976143 9:1 2:-0.44988739 3:0.82670693 
-0.2549984248258259 0:0 9:1 2:-0.44988739 3:0.66317684 
-1 0:0 9:1 2:-0.44988739 3:0.78753885 
1 0:-0.5976143 9:1 2:-0.44988739 3:0.72631897 
-0.4574041210473958 0:-1.1952286 9:1 2:-0.44988739 3:0.72640905 
-1 0:0.5976143 9:1 2:-0.44988739 3:0.713335 
-1 0:0 9:1 2:-0.44988739 3:0.68701004 
-1 0:0 9:1 2:-0.44988739 3:0.71982707 
-1 0:0 9:1 2:-0.44988739 3:0.5676472 
0.001383781268411042 0:1.7928429 1:1 2:-0.44988739 3:0.92319422 
-1 0:0.5976143 1:1 2:-0.44988739 3:1.2468015 
-1 0:0.5976143 1:1 2:-0.44988739 3:1.2468015 
-0.4907355903409741 0:0 1:1 2:-0.44988739 3:1.2245431 
-1 0:-1.1952286 1:1 2:-0.44988739 3:1.2515499 
-1 0:-1.1952286 1:1 2:-0.44988739 3:1.2515499 
-1 0:0.5976143 1:1 2:-0.44988739 3:1.2468015 
-1 0:0.5976143 1:1 2:-0.44988739 3:1.2468015 
-1 0:-1.1952286 1:1 2:-0.44988739 3:1.2515499 
-1 0:0 1:1 2:-0.44988739 3:1.2245431 
-1 0:-1.1952286 1:1 2:-0.44988739 3:1.2515499 
-1 0:0 1:1 2:-0.44988739 3:1.2245431 
-1 0:-1.1952286 1:1 2:-0.44988739 3:1.2515499 
-1 0:0.5976143 1:1 2:-0.44988739 3:1.2468015 
0.9584250811319823 0:1.7928429 1:1 2:-0.44988739 3:0.92319422 
-1 0:0.5976143 1:1 2:-0.44988739 3:1.2468015 
-1 0:0 1:1 2:-0.44988739 3:1.2245431 
0.7680957744679197 0:1.7928429 1:1 2:-0.44988739 3:0.92319422 
-1 0:-1.1952286 1:1 2:-0.44988739 3:1.2515499 
-0.8314226368198461 0:0 1:1 2:-0.44988739 3:1.2245431 
1 0:1.7928429 1:1 2:-0.44988739 3:0.78049466 
1 0:0 1:1 2:-0.44988739 3:1.148389 
-1 0:0.5976143 1:1 2:-0.44988739 3:1.1419672 
1 0:-0.5976143 1:1 2:-0.44988739 3:1.1486207 
-1 0:-1.1952286 1:1 2:-0.44988739 3:0.3391774 
-1 0:0.5976143 1:1 2:-0.44988739 3:1.0698875 
1 0:-0.5976143 1:1 2:-0.44988739 3:1.0760594 
1 0:0 1:1 2:-0.44988739 3:1.0758351 
0.4154107310010374 0:1.7928429 1:1 2:-0.44988739 3:0.73809124 
1 0:-0.5976143 1:1 2:-0.44988739 3:1.0760594 
1 0:0 1:1 2:-0.44988739 3:1.0758351 
0.7853332445297871 0:1.7928429 1:1 2:-0.44988739 3:0.73809124 
1 0:-0.5976143 1:1 2:-0.44988739 3:1.0760594 
1 0:1.7928429 1:1 2:-0.44988739 3:0.73809124 
-1 0:0.5976143 1:1 2:-0.44988739 3:1.0698875 
-1 0:0.5976143 1:1 2:-0.44988739 3:1.0698875 
1 0:0 1:1 2:-0.44988739 3:1.0758351 
-1 0:0.5976143 1:1 2:-0.44988739 3:0.93267488 
1 0:-1.7928429 1:1 2:-0.44988739 3:0.93474668 
1 0:0 1:1 2:-0.44988739 3:0.93468686 
-1 0:0.5976143 1:1 2:-0.44988739 3:0.60546184 
-1 0:0 1:1 2:-0.44988739 3:0.90951188 
-1 0:-1.1952286 1:1 2:-0.44988739 3:0.60651739 
-1 0:0 1:1 2:-0.44988739 3:0.59201895 
-1 0:0 1:1 2:-0.44988739 3:0.60597796 
-1 0:1.1952286 1:1 2:-0.44988739 3:0.041762032 
-1 0:0.5976143 1:1 2:-0.44988739 3:0.33762225 
-1 0:0 1:1 2:-0.44988739 3:-0.076639684 
-1 0:0 1:1 2:-0.44988739 3:0.19046972 
0.6223716855753092 0:-1.7928429 1:1 2:-0.44988739 3:0.6065273 
-1 0:0 1:1 2:-0.44988739 3:0.53515117 
1 0:0 1:1 2:-0.44988739 3:0.606464 
-1 0:-0.5976143 1:1 2:-0.44988739 3:0.3391774 
-1 0:0 1:1 2:-0.44988739 3:0.33839974 
1 0:1.7928429 1:1 2:-0.44988739 3:0.73809124 
-1 0:0.5976143 1:1 2:-0.44988739 3:1.0698875 
1 0:0 1:1 2:-0.44988739 3:1.0758351 
-1 0:0.5976143 1:1 2:-0.44988739 3:1.0698875 
1 0:-0.5976143 1:1 2:-0.44988739 3:1.0760594 
1 0:0 1:1 2:-0.44988739 3:1.0758351 
1 0:1.7928429 1:1 2:-0.44988739 3:0.73809124 
1 0:-0.5976143 1:1 2:-0.44988739 3:1.0760594 
1 0:1.7928429 1:1 2:-0.44988739 3:0.73809124 
1 0:0 1:1 2:-0.44988739 3:1.0758351 
-1 0:0.5976143 1:1 2:-0.44988739 3:1.0698875 
-1 0:0.5976143 1:1 2:-0.44988739 3:1.0698875 
1 0:-0.5976143 1:1 2:-0.44988739 3:1.0760594 
1 0:0 1:1 2:-0.44988739 3:1.0758351 
1 0:1.7928429 1:1 2:-0.44988739 3:0.73809124 
-1 0:0.5976143 1:1 2:-0.44988739 3:1.0698875 
1 0:-0.5976143 1:1 2:-0.44988739 3:1.0760594 
0.9830431856893626 0:1.7928429 1:1 2:-0.44988739 3:0.73809124 
1 0:-0.5976143 1:1 2:-0.44988739 3:1.0760594 
1 0:-1.7928429 1:1 2:-0.44988739 3:0.93474668 
1 0:0 1:1 2:-0.44988739 3:0.93468686 
0.03042393250146307 0:-1.7928429 1:1 2:-0.44988739 3:1.0760594 
1 0:0 1:1 2:-0.44988739 3:1.0758351 
-1 0:0.5976143 1:1 2:-0.44988739 3:0.93267488 
-1 0:0 1:1 2:-0.44988739 3:0.90951188 
-1 0:0.5976143 8:1 2:-0.44988739 3:-0.32856019 
-0.9111719616056376 0:-1.7928429 8:1 2:-0.44988739 3:-0.32797312 
-1 0:0 8:1 2:-0.44988739 3:-0.33924082 
1 0:0 8:1 2:-0.44988739 3:-0.32806241 
-1 0:0.5976143 8:1 2:-0.44988739 3:-0.41356658 
-1 0:-0.5976143 8:1 2:-0.44988739 3:-0.41281804 
-1 0:1.1952286 8:1 2:-0.44988739 3:-0.33132566 
-1 0:-0.5976143 8:1 2:-0.44988739 3:-0.32797312 
-1 0:-1.1952286 8:1 2:-0.44988739 3:-0.32797312 
-1 0:0 8:1 2:-0.44988739 3:-0.32964939 
-1 0:0 8:1 2:-0.44988739 3:-0.32826665 
-1 0:1.1952286 8:1 2:-0.44988739 3:-0.41748794 
-1 0:-1.1952286 8:1 2:-0.44988739 3:-0.41278265 
-1 0:-1.7928429 8:1 2:-0.44988739 3:-0.41277109 
-1 0:0 8:1 2:-0.44988739 3:-0.4151353 
-1 0:0 8:1 2:-0.44988739 3:-0.41319235 
-1 0:1.1952286 8:1 2:-0.44988739 3:-0.88803127 
1 0:0.5976143 8:1 2:-0.44988739 3:-0.87750376 
-1 0:0 8:1 2:-0.44988739 3:-0.46387646 
1 0:0 8:1 2:-0.44988739 3:-0.41296777 
1 0:-0.5976143 8:1 2:-0.44988739 3:-0.87190368 
-1 0:0 8:1 2:-0.44988739 3:-0.89466003 
-1 0:0 8:1 2:-0.44988739 3:-0.87977258 
1 0:-1.7928429 8:1 2:-0.44988739 3:-0.87144034 
1 0:0 8:1 2:-0.44988739 3:-0.87331807 
-1 0:1.7928429 8:1 2:-0.44988739 3:-0.99782607 
-1 0:1.1952286 8:1 2:-0.44988739 3:-0.93266178 
1 0:-0.5976143 8:1 2:-0.44988739 3:-0.92401644 
1 0:0.5976143 8:1 2:-0.44988739 3:-0.92553247 
-1 0:0 8:1 2:-0.44988739 3:-0.92826116 
0.548098874081316 0:0 8:1 2:-0.44988739 3:-0.92477445 
-1 0:0 8:1 2:-0.44988739 3:-0.96081222 
-1 0:1.7928429 7:1 2:-1.3362327 3:-1.2366977 
1 0:0 8:1 2:-1.3362327 3:-1.2330378 
0.6371507495452831 0:1.1952286 7:1 2:-1.3362327 3:-1.2336169 
-1 0:1.7928429 5:1 2:-1.3362327 3:-1.1722614 
1 0:0 5:1 2:-1.3362327 3:-1.1549009 
1 0:0 9:1 2:-1.3362327 3:-1.1549009 
1 0:0 5:1 2:-1.3362327 3:-1.1549009 
1 0:1.7928429 4:1 2:-0.44988739 3:0.042615863 
1 0:-0.5976143 4:1 2:-0.44988739 3:0.47123555 
-0.7772247222720337 0:0 4:1 2:-0.44988739 3:0.38808785 
-1 0:0.5976143 4:1 2:-0.44988739 3:0.44937973 
-1 0:0 4:1 2:-0.44988739 3:0.25710265 
1 0:1.7928429 4:1 2:-0.44988739 3:0.042615863 
-1 0:0.5976143 4:1 2:-0.44988739 3:0.44937973 
1 0:-0.5976143 4:1 2:-0.44988739 3:0.47123555 
-1 0:0 4:1 2:-0.44988739 3:0.25710265 
1 0:1.7928429 4:1 2:-0.44988739 3:0.042615863 
1 0:-0.5976143 4:1 2:-0.44988739 3:0.47123555 
-0.3826389330526546 0:0 4:1 2:-0.44988739 3:0.38808785 
-1 0:0.5976143 4:1 2:-0.44988739 3:0.44937973 
-1 0:0 4:1 2:-0.44988739 3:0.25710265 
-1 0:0.5976143 4:1 2:-0.44988739 3:0.2377878 
1 0:-0.5976143 4:1 2:-0.44988739 3:0.24668208 
-1 0:0 4:1 2:-0.44988739 3:0.16436213 
-1 0:0 4:1 2:-0.44988739 3:0.22493094 
-1 0:-1.1952286 4:1 2:-0.44988739 3:-0.0015013074 
-1 0:-1.1952286 4:1 2:-0.44988739 3:0.24708326 
-1 0:0 4:1 2:-0.44988739 3:0.24223503 
-1 0:1.1952286 4:1 2:-0.44988739 3:-0.036962784 
-1 0:0.5976143 4:1 2:-0.44988739 3:-0.0068140165 
-1 0:0 4:1 2:-0.44988739 3:-0.058476378 
1 0:0 4:1 2:-0.44988739 3:-0.0022579307 
-1 0:0.5976143 4:1 2:-0.44988739 3:-0.17024516 
-1 0:-0.5976143 4:1 2:-0.44988739 3:-0.16887799 
-1 0:0 4:1 2:-0.44988739 3:-0.21785591 
-1 0:0 4:1 2:-0.44988739 3:-0.17171963 
-1 0:0 4:1 2:-0.44988739 3:-0.019232133 
-1 0:0 4:1 2:-0.44988739 3:-0.0042177432 
-1 0:1.1952286 4:1 2:-0.44988739 3:-0.174651 
-1 0:-1.1952286 4:1 2:-0.44988739 3:-0.16878826 
1 0:0 4:1 2:-0.44988739 3:-0.16912666 
-1 0:0 4:1 2:-0.44988739 3:-0.16956158 
-1 0:-1.1952286 4:1 2:-0.44988739 3:-0.0059346224 
1 0:1.7928429 4:1 2:-0.44988739 3:-0.047031734 
1 0:-0.5976143 4:1 2:-0.44988739 3:0.50613482 
1 0:1.7928429 4:1 2:-0.44988739 3:-0.047031734 
0.5408142497656365 0:1.1952286 4:1 2:-0.44988739 3:0.33040868 
-1 0:0.5976143 4:1 2:-0.44988739 3:0.48847129 
-1 0:0.5976143 4:1 2:-0.44988739 3:0.48847129 
1 0:-0.5976143 4:1 2:-0.44988739 3:0.50613482 
1 0:1.7928429 4:1 2:-0.44988739 3:-0.047031734 
1 0:-0.5976143 4:1 2:-0.44988739 3:0.50613482 
1 0:-0.5976143 4:1 2:-0.44988739 3:0.16843617 
-1 0:-1.1952286 4:1 2:-0.44988739 3:0.16864207 
0.9246993581999123 0:1.1952286 4:1 2:-0.44988739 3:0.33040868 
-1 0:0.5976143 4:1 2:-0.44988739 3:0.48847129 
-1 0:0.5976143 4:1 2:-0.44988739 3:0.16417815 
-1 0:0 4:1 2:-0.44988739 3:0.03809873 
-1 0:0.5976143 4:1 2:-0.44988739 3:-0.0097959921 
-1 0:0 4:1 2:-0.44988739 3:-0.0079113028 
-1 0:0 4:1 2:-0.44988739 3:0.14742166 
-1 0:0 4:1 2:-0.44988739 3:0.16630716 
-1 0:1.1952286 4:1 2:-0.44988739 3:-0.033265225 
-1 0:0 4:1 2:-0.44988739 3:-0.072009866 
-1 0:0 4:1 2:-0.44988739 3:-0.019599924 
-1 0:0 5:1 2:-0.44988739 3:-1.0130584 
1 0:-0.5976143 5:1 2:-0.44988739 3:-0.095543093 
-1 0:1.1952286 5:1 2:-0.44988739 3:-0.11484542 
-1 0:0.5976143 5:1 2:-0.44988739 3:-0.099723562 
1 0:-1.7928429 5:1 2:-0.44988739 3:-0.095323983 
-1 0:0 5:1 2:-0.44988739 3:-0.097633327 
1 0:0 5:1 2:-0.44988739 3:-0.096248416 
-1 0:0.5976143 5:1 2:-0.44988739 3:-0.099723562 
1 0:-1.7928429 5:1 2:-0.44988739 3:-0.095323983 
-1 0:0 5:1 2:-0.44988739 3:-0.13540693 
1 0:0 5:1 2:-0.44988739 3:-0.096248416 
-1 0:0.5976143 5:1 2:-0.44988739 3:-0.32856019 
-1 0:0 5:1 2:-0.44988739 3:-0.13540693 
1 0:1.7928429 5:1 2:-0.44988739 3:-0.17548988 
-1 0:1.1952286 5:1 2:-0.44988739 3:-0.11484542 
1 0:-0.5976143 5:1 2:-0.44988739 3:-0.095543093 
-1 0:0 5:1 2:-0.44988739 3:-0.10511052 
-1 0:0 5:1 2:-0.44988739 3:-0.097633327 
-1 0:1.1952286 5:1 2:-0.44988739 3:-0.33132566 
-1 0:-0.5976143 5:1 2:-0.44988739 3:-0.32797312 
-1 0:-1.1952286 5:1 2:-0.44988739 3:-0.32797312 
-1 0:0 5:1 2:-0.44988739 3:-0.32964939 
-1 0:0 5:1 2:-0.44988739 3:-0.32826665 
-1 0:1.1952286 5:1 2:-0.44988739 3:-0.41748794 
-1 0:-1.1952286 5:1 2:-0.44988739 3:-0.41278265 
-1 0:0 5:1 2:-0.44988739 3:-0.33924082 
1 0:0 5:1 2:-0.44988739 3:-0.32806241 
-1 0:0.5976143 5:1 2:-0.44988739 3:-0.41356658 
-1 0:-0.5976143 5:1 2:-0.44988739 3:-0.41281804 
-1 0:0 5:1 2:-0.44988739 3:-0.46387646 
1 0:0 5:1 2:-0.44988739 3:-0.41296777 
1 0:-0.5976143 5:1 2:-0.44988739 3:-0.87190368 
1 0:-1.1952286 5:1 2:-0.44988739 3:-0.87151389 
-1 0:0 5:1 2:-0.44988739 3:-0.87977258 
-1 0:0 5:1 2:-0.44988739 3:-0.41319235 
1 0:0.5976143 5:1 2:-0.44988739 3:-0.87750376 
1 0:-1.7928429 5:1 2:-0.44988739 3:-0.87144034 
-1 0:0 5:1 2:-0.44988739 3:-0.89466003 
1 0:0 5:1 2:-0.44988739 3:-0.87470376 
1 0:0 5:1 2:-0.44988739 3:-0.87331807 
1 0:0.5976143 5:1 2:-0.44988739 3:-1.0129821 
-1 0:0 5:1 2:-0.44988739 3:-1.0148227 
1 0:1.7928429 5:1 2:-0.44988739 3:-1.0166967 
1 0:1.1952286 5:1 2:-0.44988739 3:-1.0131683 
-1 0:-1.1952286 5:1 2:-0.44988739 3:-1.0129486 
-1 0:-1.7928429 5:1 2:-0.44988739 3:-1.0129486 
1 0:0 5:1 2:-0.44988739 3:-1.0129653 
-1 0:0.5976143 5:1 2:-0.44988739 3:-0.0097959921 
1 0:-0.5976143 5:1 2:-0.44988739 3:-0.0060266136 
-1 0:0 5:1 2:-0.44988739 3:-0.072009866 
-1 0:0 5:1 2:-0.44988739 3:-0.019599924 
1 0:1.7928429 5:1 2:-0.44988739 3:-0.13811067 
1 0:-0.5976143 5:1 2:-0.44988739 3:-0.0060266136 
-0.6324854242204339 0:-1.1952286 5:1 2:-0.44988739 3:-0.0059346224 
-1 0:0 5:1 2:-0.44988739 3:-0.019599924 
-1 0:-0.5976143 5:1 2:-0.44988739 3:-0.50582645 
-1 0:-1.1952286 5:1 2:-0.44988739 3:-0.50581462 
-1 0:0 5:1 2:-0.44988739 3:-0.56322209 
-1 0:0 5:1 2:-0.44988739 3:-0.50815614 
1 0:1.7928429 5:1 2:-0.44988739 3:-0.13811067 
-1 0:0 5:1 2:-0.44988739 3:-0.0079113028 
1 0:0 5:1 2:-0.44988739 3:-0.0064465734 
-1 0:0.5976143 5:1 2:-0.44988739 3:-0.0097959921 
-1 0:0 5:1 2:-0.44988739 3:-0.072009866 
-1 0:0 5:1 2:-0.44988739 3:-0.0079113028 
1 0:0 5:1 2:-0.44988739 3:-0.0064465734 
-1 0:1.1952286 5:1 2:-0.44988739 3:-0.51049774 
-1 0:-1.7928429 5:1 2:-0.44988739 3:-0.50581462 
-1 0:0 5:1 2:-0.44988739 3:-0.50607929 
1 0:0 5:1 2:-0.44988739 3:-0.5058934 
1 0:0.5976143 5:1 2:-0.44988739 3:-0.84135182 
1 0:-1.7928429 5:1 2:-0.44988739 3:-0.83762896 
-1 0:0 5:1 2:-0.44988739 3:-0.89023063 
-1 0:1.1952286 5:1 2:-0.44988739 3:-0.85053721 
1 0:-0.5976143 5:1 2:-0.44988739 3:-0.83808388 
1 0:-1.1952286 5:1 2:-0.44988739 3:-0.83775895 
-1 0:0 5:1 2:-0.44988739 3:-0.84414808 
1 0:0 5:1 2:-0.44988739 3:-0.83971789 
1 0:0 5:1 2:-0.44988739 3:-0.83903161 
1 0:1.7928429 5:1 2:-0.44988739 3:-0.047031734 
1 0:-0.5976143 5:1 2:-0.44988739 3:0.50613482 
1 0:1.7928429 5:1 2:-0.44988739 3:-0.047031734 
1 0:1.1952286 5:1 2:-0.44988739 3:0.33040868 
1 0:1.1952286 5:1 2:-0.44988739 3:0.33040868 
-1 0:0.5976143 5:1 2:-0.44988739 3:0.48847129 
-1 0:0.5976143 5:1 2:-0.44988739 3:0.48847129 
1 0:-0.5976143 5:1 2:-0.44988739 3:0.50613482 
1 0:1.7928429 5:1 2:-0.44988739 3:-0.092516599 
1 0:-0.5976143 5:1 2:-0.44988739 3:0.16843617 
-1 0:0 5:1 2:-0.44988739 3:0.03809873 
-1 0:0 5:1 2:-0.44988739 3:0.14742166 
1 0:1.7928429 5:1 2:-0.44988739 3:-0.13811067 
1 0:-0.5976143 5:1 2:-0.44988739 3:-0.0060266136 
-0.01564152136398156 0:-1.1952286 5:1 2:-0.44988739 3:-0.0059346224 
-1 0:0 5:1 2:-0.44988739 3:-0.019599924 
-1 0:0 5:1 2:-0.44988739 3:-0.0079113028 
-1 0:1.1952286 5:1 2:-0.44988739 3:-0.43578011 
-1 0:0.5976143 5:1 2:-0.44988739 3:0.16417815 
1 0:-1.7928429 5:1 2:-0.44988739 3:0.16871423 
-0.9460738195823638 0:0 5:1 2:-0.44988739 3:0.16630716 
-1 0:0.5976143 5:1 2:-0.44988739 3:-0.0097959921 
-1 0:0 5:1 2:-0.44988739 3:-0.072009866 
1 0:0 5:1 2:-0.44988739 3:-0.0064465734 
-1 0:0.5976143 5:1 2:-0.44988739 3:-0.42802876 
-1 0:-0.5976143 5:1 2:-0.44988739 3:-0.42691078 
-1 0:0 5:1 2:-0.44988739 3:-0.49773244 
-1 0:0 5:1 2:-0.44988739 3:-0.43133679 
1 0:0 5:1 2:-0.44988739 3:-0.42704425 
-1 0:-0.5976143 5:1 2:-0.44988739 3:-0.64621258 
-1 0:-1.1952286 5:1 2:-0.44988739 3:-0.6461045 
-1 0:0 5:1 2:-0.44988739 3:-0.64753758 
-1 0:-1.1952286 5:1 2:-0.44988739 3:-0.42689348 
-1 0:-1.7928429 5:1 2:-0.44988739 3:-0.42688678 
-1 0:0 5:1 2:-0.44988739 3:-0.42746977 
-1 0:1.1952286 5:1 2:-0.44988739 3:-0.70325234 
-1 0:0 5:1 2:-0.44988739 3:-0.71528336 
-1 0:0 5:1 2:-0.44988739 3:-0.67467838 
-1 0:-1.7928429 5:1 2:-0.44988739 3:-0.64610207 
-1 0:0.5976143 7:1 2:-0.44988739 3:-0.84135182 
1 0:-0.5976143 7:1 2:-0.44988739 3:-0.83808388 
-1 0:1.1952286 7:1 2:-0.44988739 3:-0.85053721 
-1 0:0 7:1 2:-0.44988739 3:-0.83971789 
-1 0:1.1952286 7:1 2:-0.44988739 3:-0.98134521 
1 0:0.5976143 7:1 2:-0.44988739 3:-0.98000134 
-1 0:0 7:1 2:-0.44988739 3:-0.89023063 
-1 0:0 7:1 2:-0.44988739 3:-0.84414808 
1 0:0 7:1 2:-0.44988739 3:-0.83903161 
-1 0:1.7928429 7:1 2:-0.44988739 3:-0.98683756 
-1 0:-0.5976143 7:1 2:-0.44988739 3:-0.9796132 
-1 0:-1.1952286 7:1 2:-0.44988739 3:-0.97961077 
-1 0:0 7:1 2:-0.44988739 3:-0.98047799 
-1 0:0 7:1 2:-0.44988739 3:-0.97980727 
-1 0:-1.7928429 7:1 2:-0.44988739 3:-0.97961077 
-1 0:0 7:1 2:-0.44988739 3:-0.98322416 
1 0:0 7:1 2:-0.44988739 3:-0.9796632 
1 0:0.5976143 7:1 2:-0.44988739 3:-1.2655198 
1 0:-0.5976143 7:1 2:-0.44988739 3:-1.2625445 
1 0:1.7928429 7:1 2:-0.44988739 3:-1.279012 
1 0:1.1952286 7:1 2:-0.44988739 3:-1.2696494 
1 0:-1.7928429 7:1 2:-0.44988739 3:-1.2622821 
1 0:0 7:1 2:-0.44988739 3:-1.2640322 
-1 0:0 7:1 2:-0.44988739 3:-1.270647 
1 0:0 7:1 2:-0.44988739 3:-1.2659913 
1 0:0 7:1 2:-0.44988739 3:-1.2634246 
-1 0:0.5976143 7:1 2:-0.44988739 3:-0.84135182 
1 0:-0.5976143 7:1 2:-0.44988739 3:-0.83808388 
-1 0:0 7:1 2:-0.44988739 3:-0.89023063 
1 0:0 7:1 2:-0.44988739 3:-0.83903161 
-1 0:1.7928429 7:1 2:-0.44988739 3:-0.98683756 
-1 0:-0.5976143 7:1 2:-0.44988739 3:-0.9796132 
-1 0:-1.1952286 7:1 2:-0.44988739 3:-0.97961077 
-1 0:0 7:1 2:-0.44988739 3:-0.98322416 
-1 0:0 7:1 2:-0.44988739 3:-0.98047799 
-1 0:1.1952286 7:1 2:-0.44988739 3:-0.85053721 
-1 0:0 7:1 2:-0.44988739 3:-0.84414808 
-1 0:0 7:1 2:-0.44988739 3:-0.83971789 
-1 0:1.1952286 7:1 2:-0.44988739 3:-0.98134521 
1 0:0.5976143 7:1 2:-0.44988739 3:-0.98000134 
-1 0:-1.7928429 7:1 2:-0.44988739 3:-0.97961077 
-1 0:0 7:1 2:-0.44988739 3:-0.97980727 
1 0:0 7:1 2:-0.44988739 3:-0.9796632 
1 0:0.5976143 7:1 2:-0.44988739 3:-1.2655198 
1 0:-0.5976143 7:1 2:-0.44988739 3:-1.2625445 
-1 0:0 7:1 2:-0.44988739 3:-1.270647 
1 0:1.7928429 7:1 2:-0.44988739 3:-1.279012 
1 0:1.1952286 7:1 2:-0.44988739 3:-1.2696494 
1 0:-1.7928429 7:1 2:-0.44988739 3:-1.2622821 
1 0:0 7:1 2:-0.44988739 3:-1.2659913 
1 0:0 7:1 2:-0.44988739 3:-1.2640322 
1 0:0 7:1 2:-0.44988739 3:-1.2634246 
-1 0:0.5976143 8:1 2:0.43645792 3:-0.011658075 
1 0:-0.5976143 8:1 2:0.43645792 3:0.00082473092 
1 0:0 8:1 2:0.43645792 3:-0.005416585 
1 0:1.7928429 8:1 2:0.43645792 3:-0.12941516 
1 0:-1.1952286 8:1 2:0.43645792 3:0.0015655296 
1 0:-1.7928429 8:1 2:0.43645792 3:0.0017862042 
1 0:0 8:1 2:0.43645792 3:-0.0015646057 
-0.1326751958215008 0:1.1952286 8:1 2:0.43645792 3:-0.31747412 
1 0:-1.7928429 8:1 2:0.43645792 3:-0.24611303 
1 0:0 8:1 2:0.43645792 3:-0.24781983 
1 0:1.7928429 8:1 2:0.43645792 3:-0.76598156 
1 0:-0.5976143 8:1 2:0.43645792 3:-0.62197603 
1 0:1.7928429 8:1 2:0.43645792 3:-0.43973547 
1 0:-0.5976143 8:1 2:0.43645792 3:-0.24642135 
1 0:-1.1952286 8:1 2:0.43645792 3:-0.24617199 
1 0:0 8:1 2:0.43645792 3:-0.25108873 
1 0:-1.1952286 8:1 2:0.43645792 3:-0.62172353 
1 0:-1.7928429 8:1 2:0.43645792 3:-0.62164232 
1 0:0 8:1 2:0.43645792 3:-0.62385255 
1 0:0 8:1 2:0.43645792 3:-0.62269431 
1 0:0.5976143 8:1 2:0.43645792 3:-0.75637795 
1 0:-0.5976143 8:1 2:0.43645792 3:-0.75302219 
-1 0:0 8:1 2:0.43645792 3:-0.7612401 
1 0:0 8:1 2:0.43645792 3:-0.75470003 
-1 0:0 8:1 2:0.43645792 3:-0.69381194 
-1 0:0 8:1 2:0.43645792 3:-0.63268727 
-1 0:1.1952286 8:1 2:0.43645792 3:-0.76975772 
1 0:-1.7928429 8:1 2:0.43645792 3:-0.75260831 
-1 0:0 8:1 2:0.43645792 3:-0.80462342 
1 0:-1.1952286 8:1 2:0.43645792 3:-0.75272256 
-1 0:0 8:1 2:0.43645792 3:-0.37115829 
1 0:1.1952286 8:1 2:0.43645792 3:0.15111609 
1 0:-1.7928429 8:1 2:0.43645792 3:0.21383496 
1 0:1.7928429 8:1 2:0.43645792 3:0.0039428674 
1 0:-0.5976143 8:1 2:0.43645792 3:0.21364506 
1 0:-1.1952286 8:1 2:0.43645792 3:0.2137934 
1 0:0 8:1 2:0.43645792 3:0.20952859 
1 0:1.1952286 8:1 2:0.43645792 3:0.014713663 
1 0:-1.1952286 8:1 2:0.43645792 3:0.10080838 
1 0:-1.7928429 8:1 2:0.43645792 3:0.10099376 
1 0:0 8:1 2:0.43645792 3:0.2127215 
1 0:1.7928429 8:1 2:0.43645792 3:-0.12236522 
1 0:-0.5976143 8:1 2:0.43645792 3:0.10022461 
0.9224141145443687 0:0 8:1 2:0.43645792 3:-0.01068582 
1 0:0 8:1 2:0.43645792 3:0.09224068 
1 0:0 8:1 2:0.43645792 3:0.0983554 
1 0:0 8:1 2:0.43645792 3:0.057761023 
-1 0:-1.1952286 8:1 2:0.43645792 3:-0.16370127 
-1 0:0.5976143 8:1 2:0.43645792 3:-0.16493611 
-1 0:-0.5976143 8:1 2:0.43645792 3:-0.16375344 
-1 0:0 8:1 2:0.43645792 3:-0.23585628 
-1 0:0 8:1 2:0.43645792 3:-0.16694617 
1 0:1.7928429 8:1 2:0.43645792 3:-0.47653273 
-1 0:0 8:1 2:0.43645792 3:-0.16434468 
1 0:0 8:1 2:0.43645792 3:-0.16394333 
1 0:0.5976143 8:1 2:0.43645792 3:-0.36944358 
-1 0:-0.5976143 8:1 2:0.43645792 3:-0.36894293 
-1 0:-1.1952286 8:1 2:0.43645792 3:-0.36893154 
-1 0:-1.7928429 8:1 2:0.43645792 3:-0.36893154 
-1 0:0 8:1 2:0.43645792 3:-0.42273214 
1 0:0 8:1 2:0.43645792 3:-0.36901258 
-1 0:0 8:1 2:0.43645792 3:-0.71839802 
-1 0:0.5976143 8:1 2:0.43645792 3:-0.16493611 
-1 0:0 8:1 2:0.43645792 3:-0.16434468 
1 0:0 8:1 2:0.43645792 3:-0.16394333 
1 0:0.5976143 8:1 2:0.43645792 3:-0.6770079 
1 0:-0.5976143 8:1 2:0.43645792 3:-0.66570489 
1 0:0 8:1 2:0.43645792 3:-0.67135635 
-1 0:-0.5976143 8:1 2:0.43645792 3:-0.16375344 
-1 0:-1.1952286 8:1 2:0.43645792 3:-0.16370127 
-1 0:0 8:1 2:0.43645792 3:-0.23585628 
-1 0:0 8:1 2:0.43645792 3:-0.16694617 
-1 0:1.1952286 8:1 2:0.43645792 3:-0.69793989 
1 0:-1.1952286 8:1 2:0.43645792 3:-0.66500044 
1 0:-1.7928429 8:1 2:0.43645792 3:-0.66483923 
1 0:0 8:1 2:0.43645792 3:-0.66853236 
1 0:0 6:1 2:0.43645792 3:-0.36919326 
1 0:1.7928429 6:1 2:0.43645792 3:0.11331919 
1 0:1.1952286 6:1 2:0.43645792 3:0.27949616 
1 0:-0.5976143 6:1 2:0.43645792 3:0.38396181 
1 0:-1.1952286 6:1 2:0.43645792 3:0.3846807 
0.2241940280488416 0:0 6:1 2:0.43645792 3:0.33208834 
1 0:0 6:1 2:0.43645792 3:0.37433908 
1 0:1.1952286 6:1 2:0.43645792 3:0.27949616 
1 0:-1.7928429 6:1 2:0.43645792 3:0.38491233 
1 0:0 6:1 2:0.43645792 3:0.37433908 
-1 0:0.5976143 6:1 2:0.43645792 3:0.20541211 
1 0:-0.5976143 6:1 2:0.43645792 3:0.21364506 
1 0:-1.7928429 6:1 2:0.43645792 3:0.38491233 
1 0:0 6:1 2:0.43645792 3:0.24911576 
1 0:1.7928429 6:1 2:0.43645792 3:0.11331919 
1 0:-0.5976143 6:1 2:0.43645792 3:0.38396181 
1 0:-1.1952286 6:1 2:0.43645792 3:0.3846807 
1 0:0 6:1 2:0.43645792 3:0.24911576 
0.7117365666455548 0:0 6:1 2:0.43645792 3:0.33208834 
1 0:1.7928429 6:1 2:0.43645792 3:0.0039428674 
1 0:-1.1952286 6:1 2:0.43645792 3:0.2137934 
1 0:-1.7928429 6:1 2:0.43645792 3:0.21383496 
1 0:0 6:1 2:0.43645792 3:0.20952859 
-1 0:1.1952286 6:1 2:0.43645792 3:-0.17019125 
-1 0:0.5976143 6:1 2:0.43645792 3:-0.16493611 
0.003163656585241404 0:-1.7928429 6:1 2:0.43645792 3:-0.16368353 
-1 0:0 6:1 2:0.43645792 3:-0.23585628 
1 0:0 6:1 2:0.43645792 3:-0.16394333 
1 0:1.7928429 6:1 2:0.43645792 3:-0.47653273 
1 0:0 6:1 2:0.43645792 3:0.2127215 
-1 0:-1.1952286 6:1 2:0.43645792 3:-0.16370127 
-1 0:0 6:1 2:0.43645792 3:-0.16694617 
-1 0:0 6:1 2:0.43645792 3:-0.16434468 
-1 0:-1.1952286 6:1 2:0.43645792 3:-0.36893154 
1 0:0 9:1 2:0.43645792 3:1.368562 
1 0:0.5976143 6:1 2:0.43645792 3:-0.36944358 
-1 0:0 6:1 2:0.43645792 3:-0.42273214 
-1 0:0 6:1 2:0.43645792 3:-0.37115829 
1 0:0 6:1 2:0.43645792 3:-0.36901258 
1 0:1.7928429 9:1 2:0.43645792 3:0.94518273 
-1 0:-1.1952286 9:1 2:0.43645792 3:1.368562 
0.02285897479600434 0:1.1952286 9:1 2:0.43645792 3:1.308332 
0.1869604226795042 0:1.1952286 9:1 2:0.43645792 3:1.308332 
1 0:-1.7928429 9:1 2:0.43645792 3:1.368562 
1 0:0 9:1 2:0.43645792 3:1.1568724 
1 0:0 9:1 2:0.43645792 3:1.368562 
1 0:1.7928429 9:1 2:0.43645792 3:0.94518273 
1 0:-1.7928429 9:1 2:0.43645792 3:1.368562 
1 0:0 9:1 2:0.43645792 3:1.1568724 
-1 0:-1.1952286 9:1 2:0.43645792 3:1.368562 
1 0:0 1:1 2:0.43645792 3:1.3130265 
-1 0:-1.1952286 1:1 2:0.43645792 3:1.9240887 
1 0:0 1:1 2:0.43645792 3:1.9238654 
1 0:0 1:1 2:0.43645792 3:1.4766794 
1 0:0 1:1 2:0.43645792 3:1.8099424 
0.03329219808111169 0:1.7928429 1:1 2:0.43645792 3:1.143242 
-1 0:-1.1952286 1:1 2:0.43645792 3:1.8101167 
1 0:0 1:1 2:0.43645792 3:1.5423465 
-1 0:-1.1952286 1:1 2:0.43645792 3:1.8101167 
1 0:0 1:1 2:0.43645792 3:1.4766794 
1 0:0 1:1 2:0.43645792 3:1.8099424 
0.1278727677235688 0:1.7928429 1:1 2:0.43645792 3:1.143242 
1 0:0 1:1 2:0.43645792 3:1.4766794 
0.8691830926225651 0:1.7928429 1:1 2:0.43645792 3:1.143242 
-1 0:-1.1952286 1:1 2:0.43645792 3:1.8101167 
-1 0:-1.1952286 1:1 2:0.43645792 3:1.8101167 
1 0:0 1:1 2:0.43645792 3:1.8099424 
1 0:0 1:1 2:0.43645792 3:1.4766794 
1 0:0 1:1 2:0.43645792 3:1.8099424 
-1 0:-1.1952286 1:1 2:0.43645792 3:1.6700775 
-1 0:-1.1952286 1:1 2:0.43645792 3:1.5470125 
1 0:0 7:1 2:1.3496622 3:-1.1848464 
1 0:0 6:1 2:1.3496622 3:-0.070183432 
1 0:0 1:1 2:0.43645792 3:1.3938261 
0.7947065446980884 0:0 1:1 2:0.43645792 3:1.670017 
-1 0:-0.5976143 8:1 2:1.3496622 3:-0.070145696 
-1 0:-1.1952286 1:1 2:0.43645792 3:1.5581356 
1 0:-1.7928429 1:1 2:0.43645792 3:1.5581477 
1 0:0 1:1 2:0.43645792 3:1.312284 
1 0:-1.7928429 1:1 2:0.43645792 3:1.5581477 
1 0:0 1:1 2:0.43645792 3:1.312284 
-1 0:-1.1952286 1:1 2:0.43645792 3:1.5581356 
-1 0:-1.1952286 1:1 2:0.43645792 3:1.4305033 
1 0:-1.7928429 1:1 2:0.43645792 3:1.4305133 
-1 0:0.5976143 1:1 2:0.43645792 3:1.3066546 
1 0:0 1:1 2:0.43645792 3:1.1327611 
-1 0:0.5976143 1:1 2:0.43645792 3:1.4264935 
1 0:0 1:1 2:0.43645792 3:1.2252884 
-1 0:-1.1952286 1:1 2:0.43645792 3:1.3117504 
1 0:-1.7928429 1:1 2:0.43645792 3:1.3117504 
-1 0:0.5976143 1:1 2:0.43645792 3:0.93457365 
1 0:-1.7928429 1:1 2:0.43645792 3:0.93765927 
1 0:0 1:1 2:0.43645792 3:0.93721705 
-1 0:-1.1952286 1:1 2:0.43645792 3:0.93765927 
-1 0:0 1:1 2:0.43645792 3:0.92588979 
-1 0:0 1:1 2:0.43645792 3:0.9361109 
-1 0:-1.1952286 1:1 2:0.43645792 3:0.63279348 
1 0:-1.7928429 1:1 2:0.43645792 3:0.63279348 
-1 0:0.5976143 1:1 2:0.43645792 3:0.6319633 
-1 0:0 1:1 2:0.43645792 3:0.62880587 
-1 0:0 1:1 2:0.43645792 3:0.63237457 
1 0:0 1:1 2:0.43645792 3:1.1327611 
1 0:-1.7928429 1:1 2:0.43645792 3:1.5581477 
1 0:0 1:1 2:0.43645792 3:1.312284 
1 0:0 1:1 2:0.43645792 3:1.312284 
-0.9364622247569586 0:-1.1952286 1:1 2:0.43645792 3:1.5581356 
1 0:-1.7928429 1:1 2:0.43645792 3:1.5581477 
1 0:0 1:1 2:0.43645792 3:1.312284 
-1 0:0.5976143 1:1 2:0.43645792 3:1.4264935 
-0.2077870279691733 0:-1.1952286 1:1 2:0.43645792 3:1.5581356 
1 0:-1.7928429 1:1 2:0.43645792 3:1.5581477 
1 0:-1.7928429 1:1 2:0.43645792 3:1.5581477 
1 0:0 1:1 2:0.43645792 3:1.312284 
-1 0:-1.1952286 1:1 2:0.43645792 3:1.4305033 
1 0:0 1:1 2:0.43645792 3:1.2252884 
-1 0:-1.1952286 1:1 2:0.43645792 3:1.3117504 
1 0:-1.7928429 1:1 2:0.43645792 3:1.3117504 
1 0:-1.7928429 1:1 2:0.43645792 3:1.4305133 
-1 0:0.5976143 1:1 2:0.43645792 3:1.3066546 
1 0:1.1952286 4:1 2:0.43645792 3:0.43474182 
1 0:0 4:1 2:0.43645792 3:0.75358471 
1 0:-0.5976143 4:1 2:0.43645792 3:0.77108721 
1 0:1.7928429 4:1 2:0.43645792 3:0.040369817 
1 0:1.1952286 4:1 2:0.43645792 3:0.43474182 
1 0:-0.5976143 4:1 2:0.43645792 3:0.77108721 
0.1511738356597417 0:-1.1952286 4:1 2:0.43645792 3:0.77146891 
1 0:1.7928429 4:1 2:0.43645792 3:0.040369817 
1 0:-0.5976143 4:1 2:0.43645792 3:0.77108721 
1 0:1.7928429 4:1 2:0.43645792 3:0.040369817 
1 0:1.1952286 4:1 2:0.43645792 3:0.43474182 
1 0:0 4:1 2:0.43645792 3:0.75358471 
1 0:-0.5976143 4:1 2:0.43645792 3:0.38396181 
1 0:-1.1952286 4:1 2:0.43645792 3:0.3846807 
1 0:-1.7928429 4:1 2:0.43645792 3:0.22662678 
1 0:0 4:1 2:0.43645792 3:0.75358471 
-1 0:0.5976143 4:1 2:0.43645792 3:0.36471635 
1 0:-1.7928429 4:1 2:0.43645792 3:0.38491233 
-1 0:0.5976143 4:1 2:0.43645792 3:0.21634568 
1 0:-0.5976143 4:1 2:0.43645792 3:0.22634124 
-1 0:0 4:1 2:0.43645792 3:0.16335944 
1 0:0 4:1 2:0.43645792 3:0.22518483 
-1 0:-1.1952286 4:1 2:0.43645792 3:0.08376723 
-1 0:0 4:1 2:0.43645792 3:0.082561432 
1 0:0 4:1 2:0.43645792 3:0.08331736 
-1 0:1.1952286 4:1 2:0.43645792 3:0.072104694 
-1 0:0.5976143 4:1 2:0.43645792 3:0.081479449 
-1 0:0 4:1 2:0.43645792 3:0.047315413 
-1 0:0 4:1 2:0.43645792 3:0.077935962 
1 0:1.7928429 4:1 2:0.43645792 3:0.040369817 
1 0:-0.5976143 4:1 2:0.43645792 3:0.77108721 
1 0:1.1952286 4:1 2:0.43645792 3:0.43474182 
1 0:1.7928429 4:1 2:0.43645792 3:0.040369817 
1 0:-0.5976143 4:1 2:0.43645792 3:0.77108721 
1 0:1.7928429 4:1 2:0.43645792 3:0.040369817 
1 0:1.1952286 4:1 2:0.43645792 3:0.43474182 
0.8370209795648861 0:-1.1952286 4:1 2:0.43645792 3:0.77146891 
1 0:0 4:1 2:0.43645792 3:0.75358471 
1 0:0 4:1 2:0.43645792 3:0.75358471 
1 0:1.1952286 4:1 2:0.43645792 3:0.43474182 
1 0:-1.1952286 4:1 2:0.43645792 3:0.77146891 
1 0:0 4:1 2:0.43645792 3:0.75358471 
1 0:-0.5976143 4:1 2:0.43645792 3:0.77108721 
1 0:-0.5976143 4:1 2:0.43645792 3:0.38396181 
1 0:-1.1952286 4:1 2:0.43645792 3:0.3846807 
-1 0:0.5976143 4:1 2:0.43645792 3:0.21634568 
-1 0:0 4:1 2:0.43645792 3:0.16335944 
-1 0:0.5976143 4:1 2:0.43645792 3:0.36471635 
1 0:-1.7928429 4:1 2:0.43645792 3:0.38491233 
1 0:-0.5976143 4:1 2:0.43645792 3:0.22634124 
1 0:0 4:1 2:0.43645792 3:0.22518483 
1 0:-1.7928429 4:1 2:0.43645792 3:0.22662678 
-1 0:0.5976143 5:1 2:0.43645792 3:0.25315015 
1 0:-0.5976143 5:1 2:0.43645792 3:0.27009497 
1 0:1.7928429 5:1 2:0.43645792 3:0.045292303 
0.3849233313675072 0:1.1952286 5:1 2:0.43645792 3:0.18809464 
1 0:-1.1952286 5:1 2:0.43645792 3:0.27083698 
1 0:-1.7928429 5:1 2:0.43645792 3:0.27107627 
1 0:0 5:1 2:0.43645792 3:0.26162256 
1 0:-0.5976143 5:1 2:0.43645792 3:0.10022461 
1 0:0 5:1 2:0.43645792 3:0.0983554 
1 0:1.7928429 5:1 2:0.43645792 3:-0.14725728 
1 0:-0.5976143 5:1 2:0.43645792 3:-0.064691957 
-1 0:0 5:1 2:0.43645792 3:-0.075653691 
-1 0:1.1952286 5:1 2:0.43645792 3:-0.18062852 
1 0:1.7928429 5:1 2:0.43645792 3:-0.12236522 
1 0:-1.1952286 5:1 2:0.43645792 3:0.10080838 
1 0:-1.7928429 5:1 2:0.43645792 3:0.10099376 
1 0:0 5:1 2:0.43645792 3:0.09224068 
-1 0:0.5976143 5:1 2:0.43645792 3:-0.068184493 
1 0:0 5:1 2:0.43645792 3:-0.064994537 
-1 0:0.5976143 5:1 2:0.43645792 3:-0.17530607 
-1 0:-0.5976143 5:1 2:0.43645792 3:-0.1741114 
-1 0:0 5:1 2:0.43645792 3:-0.24591549 
-1 0:0 5:1 2:0.43645792 3:-0.17734431 
1 0:-0.5976143 5:1 2:0.43645792 3:-0.66694555 
1 0:-1.1952286 5:1 2:0.43645792 3:-0.66648325 
1 0:0 5:1 2:0.43645792 3:-0.67180718 
-1 0:-1.1952286 5:1 2:0.43645792 3:-0.1740601 
-1 0:-1.7928429 5:1 2:0.43645792 3:-0.17404254 
-1 0:0 5:1 2:0.43645792 3:-0.17470874 
1 0:0 5:1 2:0.43645792 3:-0.17430008 
-1 0:1.1952286 5:1 2:0.43645792 3:-0.69562568 
1 0:0.5976143 5:1 2:0.43645792 3:-0.6766688 
1 0:-1.7928429 5:1 2:0.43645792 3:-0.6663983 
-1 0:0 5:1 2:0.43645792 3:-0.70410313 
1 0:0 5:1 2:0.43645792 3:-0.66869252 
1 0:-0.5976143 5:1 2:0.43645792 3:-0.77266448 
1 0:-1.1952286 5:1 2:0.43645792 3:-0.77074693 
-1 0:1.1952286 5:1 2:0.43645792 3:-0.82455187 
1 0:0.5976143 5:1 2:0.43645792 3:-0.78956165 
1 0:-1.7928429 5:1 2:0.43645792 3:-0.7700536 
-1 0:0 5:1 2:0.43645792 3:-0.8259526 
1 0:0 5:1 2:0.43645792 3:-0.78111307 
-1 0:-1.1952286 5:1 2:0.43645792 3:-0.48397593 
1 0:1.7928429 5:1 2:0.43645792 3:0.040369817 
1 0:1.1952286 5:1 2:0.43645792 3:0.43474182 
1 0:-1.1952286 5:1 2:0.43645792 3:0.77146891 
1 0:-0.5976143 5:1 2:0.43645792 3:0.77108721 
1 0:0 5:1 2:0.43645792 3:0.40596997 
1 0:0 5:1 2:0.43645792 3:0.60310537 
1 0:1.7928429 5:1 2:0.43645792 3:0.040369817 
1 0:-0.5976143 5:1 2:0.43645792 3:0.77108721 
1 0:-1.1952286 5:1 2:0.43645792 3:0.77146891 
1 0:0 5:1 2:0.43645792 3:0.60310537 
1 0:1.7928429 5:1 2:0.43645792 3:0.11331919 
1 0:1.1952286 5:1 2:0.43645792 3:0.27949616 
1 0:-1.1952286 5:1 2:0.43645792 3:0.3846807 
1 0:-1.7928429 5:1 2:0.43645792 3:0.38491233 
1 0:0 5:1 2:0.43645792 3:0.75358471 
1 0:1.1952286 5:1 2:0.43645792 3:0.43474182 
1 0:0 5:1 2:0.43645792 3:0.40596997 
1 0:0 5:1 2:0.43645792 3:0.75358471 
1 0:-0.5976143 5:1 2:0.43645792 3:0.38396181 
1 0:1.7928429 5:1 2:0.43645792 3:-0.058932161 
1 0:0 5:1 2:0.43645792 3:0.37433908 
-1 0:0.5976143 5:1 2:0.43645792 3:0.21634568 
1 0:-0.5976143 5:1 2:0.43645792 3:0.22634124 
1 0:0 5:1 2:0.43645792 3:0.22518483 
-1 0:-0.5976143 5:1 2:0.43645792 3:-0.16375344 
-1 0:-1.1952286 5:1 2:0.43645792 3:-0.16370127 
-1 0:0 5:1 2:0.43645792 3:-0.16694617 
-1 0:0 5:1 2:0.43645792 3:-0.16434468 
-1 0:1.1952286 5:1 2:0.43645792 3:-0.17019125 
-1 0:0.5976143 5:1 2:0.43645792 3:-0.16493611 
-1 0:-1.7928429 5:1 2:0.43645792 3:-0.16368353 
-1 0:0 5:1 2:0.43645792 3:-0.23585628 
1 0:0 5:1 2:0.43645792 3:-0.16394333 
1 0:0.5976143 5:1 2:0.43645792 3:-0.48743482 
-1 0:1.1952286 5:1 2:0.43645792 3:-0.55741829 
-1 0:0 5:1 2:0.43645792 3:-0.57151155 
-1 0:0 5:1 2:0.43645792 3:-0.52069711 
-1 0:-1.7928429 5:1 2:0.43645792 3:-0.48397263 
1 0:-1.7928429 5:1 2:0.43645792 3:-0.66483923 
-1 0:0.5976143 5:1 2:0.43645792 3:0.20541211 
1 0:-1.7928429 5:1 2:0.43645792 3:0.21383496 
1 0:1.7928429 5:1 2:0.43645792 3:0.0039428674 
1 0:-0.5976143 5:1 2:0.43645792 3:0.21364506 
1 0:0 5:1 2:0.43645792 3:0.20952859 
-1 0:0.5976143 5:1 2:0.43645792 3:0.20541211 
1 0:-1.7928429 5:1 2:0.43645792 3:0.21383496 
1 0:0 5:1 2:0.43645792 3:0.20952859 
1 0:0 5:1 2:0.43645792 3:0.2127215 
-1 0:0.5976143 5:1 2:0.43645792 3:-0.16493611 
-1 0:-0.5976143 5:1 2:0.43645792 3:-0.16375344 
-1 0:0 5:1 2:0.43645792 3:-0.16434468 
1 0:0 5:1 2:0.43645792 3:-0.16394333 
1 0:0 5:1 2:0.43645792 3:0.2127215 
1 0:1.7928429 5:1 2:0.43645792 3:0.0039428674 
1 0:-0.5976143 5:1 2:0.43645792 3:0.21364506 
-1 0:1.1952286 5:1 2:0.43645792 3:-0.17019125 
-1 0:-1.1952286 5:1 2:0.43645792 3:-0.16370127 
-1 0:-1.7928429 5:1 2:0.43645792 3:-0.16368353 
-1 0:0 5:1 2:0.43645792 3:-0.23585628 
-1 0:0 5:1 2:0.43645792 3:-0.16694617 
1 0:0.5976143 5:1 2:0.43645792 3:-0.6770079 
1 0:0 5:1 2:0.43645792 3:-0.67135635 
1 0:-0.5976143 5:1 2:0.43645792 3:-0.66570489 
1 0:-1.1952286 5:1 2:0.43645792 3:-0.66500044 
1 0:0 5:1 2:0.43645792 3:-0.66853236 
-1 0:0 5:1 2:0.43645792 3:-0.71839802 
1 0:-1.7928429 7:1 2:0.43645792 3:-1.2125866 
-1 0:1.1952286 7:1 2:0.43645792 3:-0.69793989 
1 0:-1.1952286 7:1 2:0.43645792 3:-0.66500044 
1 0:-1.7928429 7:1 2:0.43645792 3:-0.66483923 
1 0:0 7:1 2:0.43645792 3:-0.66853236 
1 0:0.5976143 7:1 2:0.43645792 3:-0.88996169 
-1 0:-0.5976143 7:1 2:0.43645792 3:-0.88936723 
-1 0:0 7:1 2:0.43645792 3:-0.91004812 
-1 0:0 7:1 2:0.43645792 3:-0.89084257 
1 0:0 7:1 2:0.43645792 3:-0.88952017 
1 0:-0.5976143 7:1 2:0.43645792 3:-0.66570489 
-1 0:0 7:1 2:0.43645792 3:-0.71839802 
-1 0:0 7:1 2:0.43645792 3:-0.68147016 
-1 0:1.7928429 7:1 2:0.43645792 3:-0.93078944 
-1 0:-1.1952286 7:1 2:0.43645792 3:-0.88931663 
-1 0:-1.7928429 7:1 2:0.43645792 3:-0.88930689 
-1 0:0 7:1 2:0.43645792 3:-0.88966451 
1 0:1.1952286 7:1 2:0.43645792 3:-1.2320908 
1 0:0.5976143 7:1 2:0.43645792 3:-1.2197474 
-1 0:0 7:1 2:0.43645792 3:-1.2223812 
1 0:0 7:1 2:0.43645792 3:-1.2164607 
1 0:-0.5976143 7:1 2:0.43645792 3:-1.213174 
1 0:-1.1952286 7:1 2:0.43645792 3:-1.2126714 
1 0:0 7:1 2:0.43645792 3:-1.2151361 
-1 0:0 7:1 2:0.43645792 3:-1.2337349 
-1 0:0 7:1 2:0.43645792 3:-1.2223812 
1 0:-0.5976143 7:1 2:0.43645792 3:-0.66570489 
-1 0:1.1952286 7:1 2:0.43645792 3:-0.69793989 
1 0:-1.1952286 7:1 2:0.43645792 3:-0.66500044 
1 0:-1.7928429 7:1 2:0.43645792 3:-0.66483923 
1 0:0 7:1 2:0.43645792 3:-0.66853236 
1 0:0.5976143 7:1 2:0.43645792 3:-0.88996169 
-1 0:-0.5976143 7:1 2:0.43645792 3:-0.88936723 
-1 0:0 7:1 2:0.43645792 3:-0.91004812 
-1 0:0 7:1 2:0.43645792 3:-0.89084257 
-1 0:0 7:1 2:0.43645792 3:-0.71839802 
-1 0:0 7:1 2:0.43645792 3:-0.68147016 
-1 0:1.7928429 7:1 2:0.43645792 3:-0.93078944 
-0.1573702259122027 0:1.1952286 7:1 2:0.43645792 3:-0.89236851 
-1 0:-1.1952286 7:1 2:0.43645792 3:-0.88931663 
-1 0:-1.7928429 7:1 2:0.43645792 3:-0.88930689 
-1 0:0 7:1 2:0.43645792 3:-0.88966451 
1 0:0 7:1 2:0.43645792 3:-0.88952017 
1 0:1.1952286 7:1 2:0.43645792 3:-1.2320908 
1 0:0.5976143 7:1 2:0.43645792 3:-1.2197474 
1 0:-1.7928429 7:1 2:0.43645792 3:-1.2125866 
-1 0:0 7:1 2:0.43645792 3:-1.2337349 
1 0:-0.5976143 7:1 2:0.43645792 3:-1.213174 
1 0:-1.1952286 7:1 2:0.43645792 3:-1.2126714 
1 0:0 7:1 2:0.43645792 3:-1.2151361 
1 0:0 7:1 2:0.43645792 3:-1.2164607 
1 0:0.5976143 8:1 2:-1.3362327 3:-1.2330983 
1 0:-0.5976143 8:1 2:-1.3362327 3:-1.2330232 
-0.4600574046813113 0:1.7928429 8:1 2:-1.3362327 3:-1.2366977 
1 0:1.1952286 8:1 2:-1.3362327 3:-1.2336169 
-1 0:-1.1952286 8:1 2:-1.3362327 3:-1.2330232 
1 0:0 8:1 2:-1.3362327 3:-1.2330608 
1 0:0 8:1 2:-1.3362327 3:-1.2330378 
-1 0:0 8:1 2:-1.3362327 3:-1.2348605 
-1 0:0 8:1 2:-1.3362327 3:-1.2333201 
-1 0:1.7928429 8:1 2:-1.3362327 3:-1.2366977 
1 0:-0.5976143 8:1 2:-1.3362327 3:-1.2330232 
-1 0:-1.1952286 8:1 2:-1.3362327 3:-1.2330232 
1 0:1.1952286 8:1 2:-1.3362327 3:-1.2336169 
1 0:0.5976143 8:1 2:-1.3362327 3:-1.2330983 
-1 0:0 8:1 2:-1.3362327 3:-1.2348605 
-1 0:0 8:1 2:-1.3362327 3:-1.2333201 
1 0:0 8:1 2:-1.3362327 3:-1.2330608 
1 0:0 8:1 2:-1.3362327 3:-1.2330378 
-1 0:0 8:1 2:-1.3362327 3:-1.2333201 
-1 0:1.7928429 8:1 2:-1.3362327 3:-1.2366977 
1 0:1.1952286 8:1 2:-1.3362327 3:-1.2336169 
1 0:-0.5976143 8:1 2:-1.3362327 3:-1.2330232 
-1 0:-1.1952286 8:1 2:-1.3362327 3:-1.2330232 
1 0:0.5976143 8:1 2:-1.3362327 3:-1.2330983 
-1 0:0 8:1 2:-1.3362327 3:-1.2348605 
1 0:0 8:1 2:-1.3362327 3:-1.2330378 
-1 0:1.7928429 8:1 2:-1.3362327 3:-1.2366977 
1 0:-0.5976143 8:1 2:-1.3362327 3:-1.2330232 
-1 0:-1.1952286 8:1 2:-1.3362327 3:-1.2330232 
-1 0:0 8:1 2:-1.3362327 3:-1.2333201 
1 0:0 8:1 2:-1.3362327 3:-1.2330608 
1 0:1.1952286 8:1 2:-1.3362327 3:-1.2336169 
1 0:0.5976143 8:1 2:-1.3362327 3:-1.2330983 
-1 0:0 8:1 2:-1.3362327 3:-1.2348605 
-1 0:0 8:1 2:-1.3362327 3:-1.2333201 
-1 0:1.7928429 8:1 2:-1.3362327 3:-1.2366977 
1 0:1.1952286 8:1 2:-1.3362327 3:-1.2336169 
-1 0:-1.1952286 8:1 2:-1.3362327 3:-1.2330232 
1 0:0 8:1 2:-1.3362327 3:-1.2330608 
1 0:0 8:1 2:-1.3362327 3:-1.2330378 
1 0:0.5976143 8:1 2:-1.3362327 3:-1.2330983 
1 0:-0.5976143 8:1 2:-1.3362327 3:-1.2330232 
-1 0:0 8:1 2:-1.3362327 3:-1.2348605 
1 0:1.1952286 8:1 2:-1.3362327 3:-1.2336169 
1 0:0.5976143 8:1 2:-1.3362327 3:-1.2330983 
-1 0:0 8:1 2:-1.3362327 3:-1.2333201 
1 0:0 8:1 2:-1.3362327 3:-1.2330608 
1 0:0 8:1 2:-1.3362327 3:-1.2330378 
-1 0:1.7928429 8:1 2:-1.3362327 3:-1.2366977 
1 0:-0.5976143 8:1 2:-1.3362327 3:-1.2330232 
-1 0:-1.1952286 8:1 2:-1.3362327 3:-1.2330232 
1 0:0 8:1 2:-1.3362327 3:-1.2330378 
-1 0:0 8:1 2:-1.3362327 3:-1.2348605 
1 0:0 8:1 2:-1.3362327 3:-1.2330608 
-1 0:1.7928429 8:1 2:-1.3362327 3:-1.2366977 
1 0:1.1952286 8:1 2:-1.3362327 3:-1.2336169 
-1 0:-1.1952286 8:1 2:-1.3362327 3:-1.2330232 
1 0:0.5976143 8:1 2:-1.3362327 3:-1.2330983 
1 0:-0.5976143 8:1 2:-1.3362327 3:-1.2330232 
-1 0:0 8:1 2:-1.3362327 3:-1.2348605 
-1 0:0 8:1 2:-1.3362327 3:-1.2333201 
-1 0:1.7928429 8:1 2:-1.3362327 3:-1.2366977 
1 0:1.1952286 8:1 2:-1.3362327 3:-1.2336169 
1 0:-0.5976143 8:1 2:-1.3362327 3:-1.2330232 
-1 0:-1.1952286 8:1 2:-1.3362327 3:-1.2330232 
-1 0:0 8:1 2:-1.3362327 3:-1.2333201 
1 0:0 8:1 2:-1.3362327 3:-1.2330608 
1 0:1.1952286 8:1 2:-1.3362327 3:-1.2336169 
1 0:0.5976143 8:1 2:-1.3362327 3:-1.2330983 
1 0:0 8:1 2:-1.3362327 3:-1.2330608 
1 0:0 8:1 2:-1.3362327 3:-1.2330378 
1 0:0.5976143 8:1 2:-1.3362327 3:-1.2330983 
-1 0:0 8:1 2:-1.3362327 3:-1.2348605 
1 0:0 8:1 2:-1.3362327 3:-1.2330378 
-1 0:1.7928429 8:1 2:-1.3362327 3:-1.2366977 
1 0:-0.5976143 8:1 2:-1.3362327 3:-1.2330232 
-1 0:-1.1952286 8:1 2:-1.3362327 3:-1.2330232 
1 0:0 8:1 2:-1.3362327 3:-1.2330608 
1 0:0 8:1 2:-1.3362327 3:-1.2330378 
1 0:0.5976143 8:1 2:-1.3362327 3:-1.2330983 
1 0:-0.5976143 8:1 2:-1.3362327 3:-1.2330232 
-1 0:0 8:1 2:-1.3362327 3:-1.2333201 
1 0:0 8:1 2:-1.3362327 3:-1.2330608 
-1 0:0 8:1 2:-1.3362327 3:-1.2348605 
-1 0:0 8:1 2:-1.3362327 3:-1.2333201 
-0.9698967103247269 0:1.7928429 8:1 2:-1.3362327 3:-1.2366977 
1 0:1.1952286 8:1 2:-1.3362327 3:-1.2336169 
-1 0:-1.1952286 8:1 2:-1.3362327 3:-1.2330232 
-1 0:0 8:1 2:-1.3362327 3:-1.2348605 
1 0:-0.5976143 4:1 2:1.3496622 3:1.2176648 
-1 0:-1.1952286 4:1 2:1.3496622 3:1.218173 
-1 0:-1.1952286 4:1 2:1.3496622 3:1.218173 
-1 0:-1.7928429 4:1 2:1.3496622 3:1.2183333 
-1 0:0.5976143 4:1 2:1.3496622 3:1.1852874 
-1 0:0.5976143 4:1 2:1.3496622 3:1.1852874 
-1 0:-1.7928429 4:1 2:1.3496622 3:1.2183333 
-1 0:0.5976143 4:1 2:1.3496622 3:1.1852874 
1 0:-0.5976143 4:1 2:1.3496622 3:1.2176648 
1 0:-0.5976143 4:1 2:1.3496622 3:1.2176648 
-1 0:-1.1952286 4:1 2:1.3496622 3:1.218173 
0.0004938930548144838 0:0 4:1 2:1.3496622 3:0.90405571 
-1 0:0.5976143 4:1 2:1.3496622 3:0.66156604 
1 0:-0.5976143 4:1 2:1.3496622 3:0.67224954 
-1 0:-1.7928429 4:1 2:1.3496622 3:1.2183333 
1 0:-0.5976143 4:1 2:1.3496622 3:0.91287312 
-1 0:-1.1952286 4:1 2:1.3496622 3:0.38488225 
-0.2615601986701817 0:0 4:1 2:1.3496622 3:0.36899055 
-1 0:0 4:1 2:1.3496622 3:0.3806583 
-1 0:0.5976143 4:1 2:1.3496622 3:0.37699361 
1 0:-0.5976143 4:1 2:1.3496622 3:0.67224954 
-1 0:0.5976143 4:1 2:1.3496622 3:1.1852874 
1 0:-0.5976143 4:1 2:1.3496622 3:1.2176648 
-1 0:0.5976143 4:1 2:1.3496622 3:1.1852874 
-1 0:-1.7928429 4:1 2:1.3496622 3:1.2183333 
-1 0:0.5976143 4:1 2:1.3496622 3:1.1852874 
1 0:-0.5976143 4:1 2:1.3496622 3:1.2176648 
-1 0:-1.1952286 4:1 2:1.3496622 3:1.218173 
-1 0:-1.7928429 4:1 2:1.3496622 3:1.2183333 
1 0:-0.5976143 4:1 2:1.3496622 3:1.2176648 
-1 0:-1.1952286 4:1 2:1.3496622 3:1.218173 
-1 0:-1.1952286 4:1 2:1.3496622 3:1.218173 
-1 0:-1.7928429 4:1 2:1.3496622 3:1.2183333 
1 0:-0.5976143 4:1 2:1.3496622 3:0.91287312 
0.4635176820313624 0:0 4:1 2:1.3496622 3:0.90405571 
-1 0:0.5976143 4:1 2:1.3496622 3:0.66156604 
-1 0:0 6:1 2:-1.3362327 3:-1.2348605 
0.2546686894409897 0:1.1952286 6:1 2:-1.3362327 3:-1.1566822 
1 0:0.5976143 6:1 2:-1.3362327 3:-1.1552772 
-1 0:1.7928429 6:1 2:-1.3362327 3:-1.1722614 
1 0:-0.5976143 6:1 2:-1.3362327 3:-1.1548004 
-1 0:-1.1952286 6:1 2:-1.3362327 3:-1.1547793 
-1 0:0 6:1 2:-1.3362327 3:-1.1557307 
1 0:0 6:1 2:-1.3362327 3:-1.1550388 
0.0406619686439818 0:1.1952286 6:1 2:-1.3362327 3:-1.1566822 
-1 0:-1.1952286 6:1 2:-1.3362327 3:-1.1547793 
-0.05983440436185042 0:-1.7928429 6:1 2:-1.3362327 3:-1.1547678 
1 0:0 6:1 2:-1.3362327 3:-1.1550388 
1 0:0 6:1 2:-1.3362327 3:-1.1549009 
1 0:0.5976143 6:1 2:-1.3362327 3:-1.1552772 
-1 0:0 6:1 2:-1.3362327 3:-1.1635146 
1 0:0 6:1 2:-1.3362327 3:-1.1549009 
-1 0:1.7928429 6:1 2:-1.3362327 3:-1.1722614 
1 0:0.5976143 6:1 2:-1.3362327 3:-1.1552772 
1 0:-0.5976143 6:1 2:-1.3362327 3:-1.1548004 
-1 0:0 6:1 2:-1.3362327 3:-1.1635146 
-1 0:0 6:1 2:-1.3362327 3:-1.1557307 
-1 0:1.7928429 6:1 2:-1.3362327 3:-1.1722614 
1 0:1.1952286 6:1 2:-1.3362327 3:-1.1566822 
1 0:-0.5976143 6:1 2:-1.3362327 3:-1.1548004 
-1 0:-1.1952286 6:1 2:-1.3362327 3:-1.1547793 
-1 0:0 6:1 2:-1.3362327 3:-1.1557307 
1 0:0 6:1 2:-1.3362327 3:-1.1550388 
1 0:1.1952286 6:1 2:-1.3362327 3:-1.2336169 
1 0:0.5976143 6:1 2:-1.3362327 3:-1.2330983 
-0.8568057548478623 0:-1.7928429 6:1 2:-1.3362327 3:-1.1547678 
-1 0:0 6:1 2:-1.3362327 3:-1.1635146 
1 0:0 6:1 2:-1.3362327 3:-1.1549009 
1 0:-0.5976143 6:1 2:-1.3362327 3:-1.2330232 
-1 0:0 6:1 2:-1.3362327 3:-1.2348605 
-0.7804081353752933 0:0 6:1 2:-1.3362327 3:-1.2333201 
1 0:1.1952286 6:1 2:-1.3362327 3:-1.2336169 
1 0:0 6:1 2:-1.3362327 3:-1.2330378 
1 0:0 6:1 2:-1.3362327 3:-1.2330608 
1 0:0 6:1 2:-1.3362327 3:-1.2330378 
1 0:0.5976143 6:1 2:-1.3362327 3:-1.2330983 
1 0:-0.5976143 6:1 2:-1.3362327 3:-1.2330232 
1 0:0 6:1 2:-1.3362327 3:-1.2330608 
-0.5752275358096651 0:0 6:1 2:-1.3362327 3:-1.2333201 
-1 0:1.7928429 1:1 2:-1.3362327 3:-1.0231741 
1 0:0.5976143 1:1 2:-1.3362327 3:-1.0127564 
1 0:-0.5976143 1:1 2:-1.3362327 3:-1.0117001 
-1 0:0 1:1 2:-1.3362327 3:-1.0173865 
1 0:0 1:1 2:-1.3362327 3:-1.0119636 
-1 0:1.7928429 1:1 2:-1.3362327 3:-1.0231741 
-1 0:0 1:1 2:-1.3362327 3:-1.0173865 
1 0:0 1:1 2:-1.3362327 3:-1.0119636 
1 0:0.5976143 1:1 2:-1.3362327 3:-1.0127564 
1 0:-0.5976143 1:1 2:-1.3362327 3:-1.0117001 
-1 0:0 1:1 2:-1.3362327 3:-1.0173865 
-1 0:0 1:1 2:-1.3362327 3:-1.0130011 
-1 0:1.7928429 1:1 2:-1.3362327 3:-1.0231741 
1 0:-0.5976143 1:1 2:-1.3362327 3:-1.0117001 
-1 0:-1.1952286 1:1 2:-1.3362327 3:-1.0116066 
-1 0:0 1:1 2:-1.3362327 3:-1.0130011 
1 0:0.5976143 1:1 2:-1.3362327 3:-1.0127564 
1 0:0 1:1 2:-1.3362327 3:-1.0119636 
-1 0:-1.1952286 1:1 2:-1.3362327 3:-1.0116066 
-1 0:0 1:1 2:-1.3362327 3:-1.0130011 
1 0:0.5976143 1:1 2:-1.3362327 3:-1.0127564 
1 0:-0.5976143 1:1 2:-1.3362327 3:-1.0117001 
-1 0:-1.1952286 1:1 2:-1.3362327 3:-1.0116066 
-1 0:0 1:1 2:-1.3362327 3:-1.0130011 
-1 0:1.7928429 1:1 2:-1.3362327 3:-1.0231741 
-1 0:-1.1952286 1:1 2:-1.3362327 3:-1.0116066 
1 0:0 1:1 2:-1.3362327 3:-1.0119636 
1 0:0.5976143 1:1 2:-1.3362327 3:-1.0127564 
-1 0:0 1:1 2:-1.3362327 3:-1.0173865 
1 0:0 1:1 2:-1.3362327 3:-1.0119636 
-1 0:1.7928429 1:1 2:-1.3362327 3:-1.0231741 
1 0:-0.5976143 1:1 2:-1.3362327 3:-1.0117001 
-1 0:-1.1952286 1:1 2:-1.3362327 3:-1.0116066 
-1 0:0 1:1 2:-1.3362327 3:-1.0173865 
-1 0:0 1:1 2:-1.3362327 3:-1.0130011 
-1 0:1.7928429 1:1 2:-1.3362327 3:-1.0231741 
-1 0:-1.1952286 1:1 2:-1.3362327 3:-1.0116066 
1 0:0.5976143 1:1 2:-1.3362327 3:-1.0127564 
1 0:-0.5976143 1:1 2:-1.3362327 3:-1.0117001 
-1 0:0 1:1 2:-1.3362327 3:-1.0173865 
-1 0:0 1:1 2:-1.3362327 3:-1.0130011 
1 0:0 1:1 2:-1.3362327 3:-1.0119636 
-1 0:1.7928429 1:1 2:-1.3362327 3:-1.0231741 
1 0:-0.5976143 1:1 2:-1.3362327 3:-1.0117001 
-1 0:-1.1952286 1:1 2:-1.3362327 3:-1.0116066 
1 0:0.5976143 1:1 2:-1.3362327 3:-1.0127564 
-1 0:0 1:1 2:-1.3362327 3:-1.0173865 
-1 0:0 1:1 2:-1.3362327 3:-1.0130011 
1 0:0 1:1 2:-1.3362327 3:-1.0119636 
-1 0:1.7928429 9:1 2:-1.3362327 3:-1.1722614 
1 0:-0.5976143 9:1 2:-1.3362327 3:-1.1548004 
-1 0:0 9:1 2:-1.3362327 3:-1.1557307 
1 0:0 9:1 2:-1.3362327 3:-1.1550388 
1 0:1.1952286 9:1 2:-1.3362327 3:-1.1566822 
-1 0:0 9:1 2:-1.3362327 3:-1.1635146 
-1 0:0 9:1 2:-1.3362327 3:-1.1557307 
1 0:1.1952286 9:1 2:-1.3362327 3:-1.1566822 
1 0:0.5976143 9:1 2:-1.3362327 3:-1.1552772 
-0.5699428070294319 0:-1.7928429 9:1 2:-1.3362327 3:-1.1547678 
-1 0:0 9:1 2:-1.3362327 3:-1.1635146 
1 0:0 9:1 2:-1.3362327 3:-1.1549009 
-1 0:1.7928429 9:1 2:-1.3362327 3:-1.1722614 
1 0:0.5976143 9:1 2:-1.3362327 3:-1.1552772 
1 0:-0.5976143 9:1 2:-1.3362327 3:-1.1548004 
1 0:0 9:1 2:-1.3362327 3:-1.1550388 
-0.9998942919253346 0:-1.7928429 9:1 2:-1.3362327 3:-1.1547678 
-1 0:0 1:1 2:-1.3362327 3:-1.2348605 
-1 0:-1.1952286 1:1 2:-1.3362327 3:-1.0116066 
1 0:0 1:1 2:-1.3362327 3:-1.0119636 
1 0:0.5976143 1:1 2:-1.3362327 3:-1.0127564 
1 0:-0.5976143 1:1 2:-1.3362327 3:-1.0117001 
-1 0:0 1:1 2:-1.3362327 3:-1.0173865 
1 0:0 1:1 2:-1.3362327 3:-1.0119636 
-0.9982470635318194 0:1.7928429 1:1 2:-1.3362327 3:-1.0231741 
1 0:-0.5976143 1:1 2:-1.3362327 3:-1.0117001 
-1 0:-1.1952286 1:1 2:-1.3362327 3:-1.0116066 
-0.9285856602547726 0:1.7928429 1:1 2:-1.3362327 3:-1.0231741 
1 0:0.5976143 1:1 2:-1.3362327 3:-1.0127564 
1 0:-0.5976143 1:1 2:-1.3362327 3:-1.0117001 
-1 0:0 1:1 2:-1.3362327 3:-1.0173865 
-1 0:0 1:1 2:-1.3362327 3:-1.0130011 
-1 0:-1.1952286 1:1 2:-1.3362327 3:-1.0116066 
-1 0:0 1:1 2:-1.3362327 3:-1.0130011 
1 0:0.5976143 1:1 2:-1.3362327 3:-1.0127564 
-1 0:0 1:1 2:-1.3362327 3:-1.0173865 
1 0:0 1:1 2:-1.3362327 3:-1.0119636 
-1 0:-1.1952286 1:1 2:-1.3362327 3:-1.0116066 
1 0:0 1:1 2:-1.3362327 3:-1.0119636 
1 0:1.1952286 1:1 2:-1.3362327 3:-1.2336169 
1 0:0.5976143 1:1 2:-1.3362327 3:-1.2330983 
-1 0:0 1:1 2:-1.3362327 3:-1.0130011 
-0.009581473171314964 0:1.7928429 1:1 2:-1.3362327 3:-1.0231741 
1 0:0.5976143 1:1 2:-1.3362327 3:-1.0127564 
1 0:-0.5976143 1:1 2:-1.3362327 3:-1.0117001 
-1 0:0 1:1 2:-1.3362327 3:-1.0173865 
-1 0:0 1:1 2:-1.3362327 3:-1.0130011 
1 0:1.7928429 1:1 2:-1.3362327 3:-1.2366977 
1 0:-0.5976143 1:1 2:-1.3362327 3:-1.2330232 
1 0:-1.1952286 1:1 2:-1.3362327 3:-1.2330232 
-0.04842638658381653 0:0 1:1 2:-1.3362327 3:-1.2333201 
1 0:0 1:1 2:-1.3362327 3:-1.2330608 
1 0:1.1952286 1:1 2:-1.3362327 3:-1.2336169 
1 0:0.5976143 1:1 2:-1.3362327 3:-1.2330983 
1 0:-1.1952286 1:1 2:-1.3362327 3:-1.2330232 
1 0:-1.7928429 1:1 2:-1.3362327 3:-1.2330232 
1 0:-1.7928429 1:1 2:-1.3362327 3:-1.2330232 
-1 0:0 1:1 2:-1.3362327 3:-1.2348605 
1 0:0 1:1 2:-1.3362327 3:-1.2330378 
1 0:1.7928429 1:1 2:-1.3362327 3:-1.2366977 
1 0:-0.5976143 1:1 2:-1.3362327 3:-1.2330232 
1 0:0 1:1 2:-1.3362327 3:-1.2330608 
1 0:0 1:1 2:-1.3362327 3:-1.2330378 
-0.0007096949282044886 0:0 1:1 2:-1.3362327 3:-1.2333201 
1 0:0.5976143 1:1 2:-1.3362327 3:-1.0127564 
1 0:-0.5976143 1:1 2:-1.3362327 3:-1.0117001 
-1 0:0 1:1 2:-1.3362327 3:-1.0173865 
-1 0:0 1:1 2:-1.3362327 3:-1.0130011 
1 0:0 1:1 2:-1.3362327 3:-1.0119636 
1 0:-0.5976143 1:1 2:-1.3362327 3:-1.0117001 
-1 0:-1.1952286 1:1 2:-1.3362327 3:-1.0116066 
-1 0:-1.1952286 1:1 2:-1.3362327 3:-1.0116066 
1 0:0.5976143 1:1 2:-1.3362327 3:-1.0127564 
-1 0:0 1:1 2:-1.3362327 3:-1.0173865 
1 0:0 1:1 2:-1.3362327 3:-1.0119636 
-0.4654090190971798 0:1.7928429 1:1 2:-1.3362327 3:-1.0231741 
1 0:-0.5976143 1:1 2:-1.3362327 3:-1.0117001 
-1 0:-1.1952286 1:1 2:-1.3362327 3:-1.0116066 
-1 0:0 1:1 2:-1.3362327 3:-1.0173865 
-1 0:0 1:1 2:-1.3362327 3:-1.0130011 
-1 0:1.7928429 1:1 2:-1.3362327 3:-1.0231741 
-1 0:-1.1952286 1:1 2:-1.3362327 3:-1.0116066 
-1 0:0 1:1 2:-1.3362327 3:-1.0130011 
1 0:0.5976143 1:1 2:-1.3362327 3:-1.0127564 
1 0:0 1:1 2:-1.3362327 3:-1.0119636 
1 0:0.5976143 1:1 2:-1.3362327 3:-1.0127564 
1 0:-0.5976143 1:1 2:-1.3362327 3:-1.0117001 
-1 0:0 1:1 2:-1.3362327 3:-1.0173865 
-1 0:0 1:1 2:-1.3362327 3:-1.0130011 
-1 0:1.7928429 1:1 2:-1.3362327 3:-1.0231741 
1 0:-0.5976143 1:1 2:-1.3362327 3:-1.0117001 
-1 0:-1.1952286 1:1 2:-1.3362327 3:-1.0116066 
-1 0:0 1:1 2:-1.3362327 3:-1.0130011 
1 0:0 1:1 2:-1.3362327 3:-1.0119636 
1 0:0.5976143 1:1 2:-1.3362327 3:-1.0127564 
-1 0:0 1:1 2:-1.3362327 3:-1.0173865 
1 0:0 1:1 2:-1.3362327 3:-1.0119636 
-0.9998063454631291 0:1.7928429 1:1 2:-1.3362327 3:-1.0231741 
1 0:-0.5976143 1:1 2:-1.3362327 3:-1.0117001 
-1 0:-1.1952286 1:1 2:-1.3362327 3:-1.0116066 
-1 0:0 1:1 2:-1.3362327 3:-1.0173865 
1 0:0.5976143 1:1 2:-1.3362327 3:-1.0127564 
-1 0:0 1:1 2:-1.3362327 3:-1.0130011 
1 0:0 1:1 2:-1.3362327 3:-1.0119636 
1 0:-1.7928429 5:1 2:1.3496622 3:-0.6663983 
-1 0:0.5976143 5:1 2:1.3496622 3:0.36471635 
1 0:-0.5976143 5:1 2:1.3496622 3:0.38396181 
1 0:0 5:1 2:1.3496622 3:0.37433908 
-1 0:0.5976143 5:1 2:1.3496622 3:0.36471635 
1 0:-0.5976143 5:1 2:1.3496622 3:0.38396181 
1 0:0 5:1 2:1.3496622 3:0.37433908 
-1 0:0.5976143 5:1 2:1.3496622 3:0.36471635 
0.0506139958371311 0:1.7928429 5:1 2:1.3496622 3:0.11331919 
0.5998324379849265 0:1.7928429 5:1 2:1.3496622 3:0.11331919 
1 0:-0.5976143 5:1 2:1.3496622 3:0.38396181 
1 0:0 5:1 2:1.3496622 3:0.37433908 
1 0:0 5:1 2:1.3496622 3:0.22518483 
-1 0:0.5976143 5:1 2:1.3496622 3:-0.17530607 
-1 0:-0.5976143 5:1 2:1.3496622 3:-0.1741114 
-1 0:0.5976143 5:1 2:1.3496622 3:0.21634568 
1 0:-0.5976143 5:1 2:1.3496622 3:0.22634124 
-1 0:1.1952286 5:1 2:1.3496622 3:-0.18062852 
-1 0:-1.1952286 5:1 2:1.3496622 3:-0.1740601 
-1 0:-1.7928429 5:1 2:1.3496622 3:-0.17404254 
-1 0:0 5:1 2:1.3496622 3:-0.17470874 
1 0:0 5:1 2:1.3496622 3:-0.17430008 
1 0:0.5976143 5:1 2:1.3496622 3:-0.6766688 
1 0:0 5:1 2:1.3496622 3:-0.67180718 
-1 0:0 5:1 2:1.3496622 3:-0.24591549 
-1 0:0 5:1 2:1.3496622 3:-0.17734431 
1 0:-0.5976143 5:1 2:1.3496622 3:-0.66694555 
1 0:-1.1952286 5:1 2:1.3496622 3:-0.66648325 
1 0:0 5:1 2:1.3496622 3:-0.66869252 
1 0:0 4:1 2:-1.3362327 3:-1.1550388 
-1 0:1.7928429 4:1 2:-1.3362327 3:-1.1722614 
1 0:-0.5976143 4:1 2:-1.3362327 3:-1.1548004 
-0.2817403906737774 0:-1.1952286 4:1 2:-1.3362327 3:-1.1547793 
-1 0:0 4:1 2:-1.3362327 3:-1.1557307 
1 0:0 4:1 2:-1.3362327 3:-1.1550388 
0.00027578349503628 0:1.1952286 4:1 2:-1.3362327 3:-1.1566822 
1 0:0.5976143 4:1 2:-1.3362327 3:-1.1552772 
-1 0:0 4:1 2:-1.3362327 3:-1.1635146 
1 0:0 4:1 2:-1.3362327 3:-1.1549009 
-1 0:1.7928429 4:1 2:-1.3362327 3:-1.1722614 
1 0:-0.5976143 4:1 2:-1.3362327 3:-1.1548004 
-1 0:0 4:1 2:-1.3362327 3:-1.1635146 
-1 0:0 4:1 2:-1.3362327 3:-1.1557307 
-1 0:1.7928429 4:1 2:-1.3362327 3:-1.1722614 
-0.2869117240589864 0:-1.1952286 4:1 2:-1.3362327 3:-1.1547793 
1 0:0 4:1 2:-1.3362327 3:-1.1550388 
1 0:0 4:1 2:-1.3362327 3:-1.1549009 
1 0:0.5976143 4:1 2:-1.3362327 3:-1.1552772 
-1 0:-1.1952286 4:1 2:-1.3362327 3:-1.1547793 
1 0:0 4:1 2:-1.3362327 3:-1.1550388 
1 0:0 4:1 2:-1.3362327 3:-1.1549009 
1 0:0.5976143 4:1 2:-1.3362327 3:-1.1552772 
1 0:-0.5976143 4:1 2:-1.3362327 3:-1.1548004 
-1 0:0 4:1 2:-1.3362327 3:-1.1635146 
-1 0:0 4:1 2:-1.3362327 3:-1.1557307 
-1 0:1.7928429 4:1 2:-1.3362327 3:-1.1722614 
1 0:-0.5976143 4:1 2:-1.3362327 3:-1.1548004 
-1 0:-1.1952286 4:1 2:-1.3362327 3:-1.1547793 
-1 0:0 4:1 2:-1.3362327 3:-1.1557307 
1 0:0 4:1 2:-1.3362327 3:-1.1550388 
1 0:0.5976143 4:1 2:-1.3362327 3:-1.1552772 
-1 0:0 4:1 2:-1.3362327 3:-1.1635146 
1 0:0.5976143 4:1 2:-1.3362327 3:-1.1552772 
-1 0:0 4:1 2:-1.3362327 3:-1.1635146 
1 0:0 4:1 2:-1.3362327 3:-1.1549009 
-1 0:1.7928429 4:1 2:-1.3362327 3:-1.1722614 
1 0:-0.5976143 4:1 2:-1.3362327 3:-1.1548004 
-1 0:-1.1952286 4:1 2:-1.3362327 3:-1.1547793 
-1 0:0 4:1 2:-1.3362327 3:-1.1557307 
1 0:0.5976143 4:1 2:-1.3362327 3:-1.1552772 
1 0:-0.5976143 4:1 2:-1.3362327 3:-1.1548004 
-1 0:0 4:1 2:-1.3362327 3:-1.1635146 
-1 0:0 4:1 2:-1.3362327 3:-1.1557307 
1 0:0 4:1 2:-1.3362327 3:-1.1550388 
1 0:0 4:1 2:-1.3362327 3:-1.1549009 
-1 0:1.7928429 4:1 2:-1.3362327 3:-1.1722614 
0.0889793851454164 0:1.1952286 4:1 2:-1.3362327 3:-1.1566822 
-1 0:-1.1952286 4:1 2:-1.3362327 3:-1.1547793 
1 0:0 4:1 2:-1.3362327 3:-1.1549009 
1 0:0 5:1 2:1.3496622 3:-0.59520642 
-1 0:0.5976143 5:1 2:1.3496622 3:0.676955 
-1 0:-1.7928429 5:1 2:1.3496622 3:0.6808155 
0.1541861742940082 0:-0.5976143 5:1 2:1.3496622 3:0.68077237 
-1 0:-1.1952286 5:1 2:1.3496622 3:0.68080541 
-1 0:0.5976143 5:1 2:1.3496622 3:0.676955 
0.4996891575256711 0:-0.5976143 5:1 2:1.3496622 3:0.68077237 
-1 0:-1.1952286 5:1 2:1.3496622 3:0.68080541 
-1 0:-1.7928429 5:1 2:1.3496622 3:0.6808155 
-1 0:0.5976143 5:1 2:1.3496622 3:0.081479449 
-1 0:-1.7928429 5:1 2:1.3496622 3:0.083819747 
1 0:0 5:1 2:1.3496622 3:0.08331736 
-1 0:-1.1952286 5:1 2:1.3496622 3:0.08376723 
-1 0:0 5:1 2:1.3496622 3:0.077935962 
-1 0:0 5:1 2:1.3496622 3:0.082561432 
-1 0:1.1952286 5:1 2:1.3496622 3:-0.62847793 
1 0:-1.1952286 5:1 2:1.3496622 3:-0.59069285 
1 0:-0.5976143 5:1 2:1.3496622 3:-0.59084762 
-1 0:0 5:1 2:1.3496622 3:-0.6378706 
-1 0:0 5:1 2:1.3496622 3:-0.60958539 
1 0:0 5:1 2:1.3496622 3:-0.59197629 
-1 0:0.5976143 5:1 2:1.3496622 3:1.1852874 
-1 0:-1.7928429 5:1 2:1.3496622 3:1.2183333 
-0.9979526498692379 0:0 5:1 2:1.3496622 3:1.2164051 
-1 0:0.5976143 5:1 2:1.3496622 3:1.1852874 
1 0:-0.5976143 5:1 2:1.3496622 3:1.2176648 
-0.1578462603280511 0:0 5:1 2:1.3496622 3:1.2164051 
1 0:-0.5976143 5:1 2:1.3496622 3:0.91287312 
1 0:-0.5976143 5:1 2:1.3496622 3:1.2176648 
-1 0:-1.1952286 5:1 2:1.3496622 3:1.218173 
-1 0:-1.1952286 5:1 2:1.3496622 3:1.218173 
-1 0:-1.7928429 5:1 2:1.3496622 3:1.2183333 
0.7557063835072668 0:1.7928429 5:1 2:1.3496622 3:0.41314476 
-1 0:-1.1952286 5:1 2:1.3496622 3:0.91343846 
1 0:0 5:1 2:1.3496622 3:0.90405571 
-1 0:0.5976143 5:1 2:1.3496622 3:0.66156604 
-1 0:0.5976143 5:1 2:1.3496622 3:0.37699361 
1 0:-0.5976143 5:1 2:1.3496622 3:0.67224954 
-1 0:-1.1952286 5:1 2:1.3496622 3:0.67281174 
1 0:1.7928429 5:1 2:1.3496622 3:0.24296696 
-1 0:-1.1952286 5:1 2:1.3496622 3:0.38488225 
-0.6388780041745739 0:-1.7928429 5:1 2:1.3496622 3:0.38505893 
-0.9432063692381375 0:0 5:1 2:1.3496622 3:0.3806583 
-1 0:0.5976143 5:1 2:1.3496622 3:-0.055262946 
1 0:-0.5976143 5:1 2:1.3496622 3:-0.038028943 
-1 0:-1.1952286 5:1 2:1.3496622 3:-0.036443182 
1 0:0 5:1 2:1.3496622 3:-0.043222011 
-0.8852525966683447 0:0 5:1 2:1.3496622 3:-0.046645858 
-1 0:0 7:1 2:1.3496622 3:-1.195756 
-1 0:1.1952286 7:1 2:1.3496622 3:-0.62847793 
-1 0:0.5976143 7:1 2:1.3496622 3:-0.59956522 
-0.004047306567156616 0:-1.7928429 7:1 2:1.3496622 3:-0.59064494 
-1 0:0 7:1 2:1.3496622 3:-0.6378706 
1 0:-0.5976143 7:1 2:1.3496622 3:-0.59084762 
-1 0:0 7:1 2:1.3496622 3:-0.60958539 
-1 0:1.1952286 7:1 2:1.3496622 3:-0.77052104 
1 0:0.5976143 7:1 2:1.3496622 3:-0.76521815 
-1 0:-1.1952286 7:1 2:1.3496622 3:-0.76397653 
-1 0:-1.7928429 7:1 2:1.3496622 3:-0.7639694 
1 0:0 7:1 2:1.3496622 3:-0.59197629 
-0.7129821174348064 0:-0.5976143 7:1 2:1.3496622 3:-0.76405496 
-1 0:0 7:1 2:1.3496622 3:-0.79142477 
-1 0:0 7:1 2:1.3496622 3:-0.76724874 
0.3331615492981106 0:1.7928429 7:1 2:1.3496622 3:-1.2071192 
1 0:1.1952286 7:1 2:1.3496622 3:-1.1906874 
1 0:0 7:1 2:1.3496622 3:-0.76430433 
1 0:0.5976143 7:1 2:1.3496622 3:-1.1860575 
1 0:-0.5976143 7:1 2:1.3496622 3:-1.1845229 
1 0:0 7:1 2:1.3496622 3:-1.1852902 
0.9997511499077301 0:-1.1952286 7:1 2:1.3496622 3:-1.1844047 
0.8350204951630433 0:-1.1952286 7:1 2:1.3496622 3:-1.1844047 
-1 0:0.5976143 7:1 2:1.3496622 3:-0.59956522 
1 0:-0.5976143 7:1 2:1.3496622 3:-0.59084762 
-0.4513700614785092 0:-1.7928429 7:1 2:1.3496622 3:-0.59064494 
-1 0:0 7:1 2:1.3496622 3:-0.6378706 
1 0:0 7:1 2:1.3496622 3:-0.59197629 
-1 0:1.1952286 7:1 2:1.3496622 3:-0.62847793 
-1 0:0 7:1 2:1.3496622 3:-0.60958539 
-1 0:1.1952286 7:1 2:1.3496622 3:-0.77052104 
1 0:0.5976143 7:1 2:1.3496622 3:-0.76521815 
-1 0:-1.7928429 7:1 2:1.3496622 3:-0.7639694 
-1 0:0 7:1 2:1.3496622 3:-0.79142477 
1 0:0 7:1 2:1.3496622 3:-0.76430433 
0.9795843570562544 0:1.7928429 7:1 2:1.3496622 3:-1.2071192 
1 0:0.5976143 7:1 2:1.3496622 3:-1.1860575 
1 0:-0.5976143 7:1 2:1.3496622 3:-1.1845229 
1 0:0 7:1 2:1.3496622 3:-1.1852902 
1 0:0 7:1 2:1.3496622 3:-1.1848464 
-0.07801489946066936 0:-0.5976143 7:1 2:1.3496622 3:-0.76405496 
-1 0:-1.1952286 7:1 2:1.3496622 3:-0.76397653 
-1 0:0 7:1 2:1.3496622 3:-0.76724874 
1 0:1.1952286 7:1 2:1.3496622 3:-1.1906874 
-1 0:0 7:1 2:1.3496622 3:-1.195756 
-0.2345742963260507 0:0 8:1 2:1.3496622 3:-0.60958539 
-1 0:0.5976143 8:1 2:1.3496622 3:0.081479449 
-1 0:-1.1952286 8:1 2:1.3496622 3:0.08376723 
-1 0:-1.7928429 8:1 2:1.3496622 3:0.083819747 
-1 0:0 8:1 2:1.3496622 3:0.082561432 
1 0:0 8:1 2:1.3496622 3:0.08331736 
-1 0:0 8:1 2:1.3496622 3:0.077935962 
-1 0:1.1952286 8:1 2:1.3496622 3:-0.62847793 
1 0:-0.5976143 8:1 2:1.3496622 3:-0.59084762 
1 0:-1.1952286 8:1 2:1.3496622 3:-0.59069285 
1 0:-1.7928429 8:1 2:1.3496622 3:-0.59064494 
1 0:0 8:1 2:1.3496622 3:-0.59197629 
1 0:0 8:1 2:1.3496622 3:-0.59520642 
-1 0:-1.7928429 8:1 2:1.3496622 3:-0.070145175 
1 0:-1.1952286 8:1 2:1.3496622 3:0.3846807 
-1 0:0.5976143 8:1 2:1.3496622 3:0.36471635 
1 0:-0.5976143 8:1 2:1.3496622 3:0.38396181 
1 0:-0.5976143 8:1 2:1.3496622 3:0.68077237 
-1 0:-1.1952286 8:1 2:1.3496622 3:0.68080541 
-0.4406171793413621 0:0 8:1 2:1.3496622 3:0.65218519 
-1 0:-1.1952286 8:1 2:1.3496622 3:-0.070145175 
-1 0:-1.7928429 8:1 2:1.3496622 3:-0.070145175 
1 0:0 8:1 2:1.3496622 3:0.37433908 
-1 0:0.5976143 8:1 2:1.3496622 3:0.676955 
-1 0:-1.7928429 8:1 2:1.3496622 3:0.6808155 
1 0:0.5976143 8:1 2:1.3496622 3:-0.070387586 
-1 0:-0.5976143 8:1 2:1.3496622 3:-0.070145696 
-1 0:0 8:1 2:1.3496622 3:-0.075280162 
-1 0:0 8:1 2:1.3496622 3:-0.070714685 
1 0:0 8:1 2:1.3496622 3:-0.070183432 
-1 0:-0.5976143 8:1 2:1.3496622 3:-0.070145696 
-1 0:-1.1952286 8:1 2:1.3496622 3:-0.070145175 
1 0:0 8:1 2:1.3496622 3:-0.070183432 
-1 0:0 8:1 2:1.3496622 3:-0.070266554 
1 0:0.5976143 8:1 2:1.3496622 3:-0.070387586 
-1 0:0 8:1 2:1.3496622 3:-0.070714685 
-1 0:0 8:1 2:1.3496622 3:-0.070266554 
-1 0:0 8:1 2:1.3496622 3:-0.075280162 
1 0:0.5976143 4:1 2:-1.3362327 3:-1.1552772 
1 0:-0.5976143 4:1 2:-1.3362327 3:-1.1548004 
-1 0:0 4:1 2:-1.3362327 3:-1.1635146 
1 0:1.1952286 4:1 2:-1.3362327 3:-1.1566822 
1 0:0.5976143 4:1 2:-1.3362327 3:-1.1552772 
1 0:-0.5976143 4:1 2:-1.3362327 3:-1.1548004 
-1 0:-1.1952286 4:1 2:-1.3362327 3:-1.1547793 
-1 0:1.7928429 4:1 2:-1.3362327 3:-1.1722614 
1 0:1.1952286 4:1 2:-1.3362327 3:-1.1566822 
-1 0:-1.1952286 4:1 2:-1.3362327 3:-1.1547793 
-1 0:0 4:1 2:-1.3362327 3:-1.1557307 
1 0:0 4:1 2:-1.3362327 3:-1.1550388 
1 0:0 4:1 2:-1.3362327 3:-1.1549009 
-1 0:1.7928429 4:1 2:-1.3362327 3:-1.1722614 
-1 0:0 4:1 2:-1.3362327 3:-1.1635146 
1 0:0 4:1 2:-1.3362327 3:-1.1549009 
-1 0:1.7928429 4:1 2:-1.3362327 3:-1.1722614 
1 0:0.5976143 4:1 2:-1.3362327 3:-1.1552772 
1 0:-0.5976143 4:1 2:-1.3362327 3:-1.1548004 
-1 0:0 4:1 2:-1.3362327 3:-1.1635146 
-1 0:0 4:1 2:-1.3362327 3:-1.1557307 
-1 0:1.7928429 4:1 2:-1.3362327 3:-1.1722614 
1 0:1.1952286 4:1 2:-1.3362327 3:-1.1566822 
-1 0:0 4:1 2:-1.3362327 3:-1.1557307 
1 0:0 4:1 2:-1.3362327 3:-1.1550388 
1 0:1.1952286 4:1 2:-1.3362327 3:-1.1566822 
-1 0:-1.1952286 4:1 2:-1.3362327 3:-1.1547793 
1 0:0 4:1 2:-1.3362327 3:-1.1550388 
1 0:0 4:1 2:-1.3362327 3:-1.1549009 
1 0:0.5976143 4:1 2:-1.3362327 3:-1.1552772 
1 0:-0.5976143 4:1 2:-1.3362327 3:-1.1548004 
-1 0:0 4:1 2:-1.3362327 3:-1.1635146 
-1 0:0 4:1 2:-1.3362327 3:-1.1557307 
1 0:0 4:1 2:-1.3362327 3:-1.1549009 
-1 0:1.7928429 4:1 2:-1.3362327 3:-1.1722614 
1 0:-0.5976143 4:1 2:-1.3362327 3:-1.1548004 
-1 0:-1.1952286 4:1 2:-1.3362327 3:-1.1547793 
1 0:0 4:1 2:-1.3362327 3:-1.1549009 
-0.6817121773754046 0:-1.1952286 4:1 2:-1.3362327 3:-1.1547793 
1 0:0 4:1 2:-1.3362327 3:-1.1550388 
0.8941677417198363 0:1.1952286 4:1 2:-1.3362327 3:-1.1566822 
1 0:0.5976143 4:1 2:-1.3362327 3:-1.1552772 
-1 0:0 4:1 2:-1.3362327 3:-1.1557307 
1 0:0 4:1 2:-1.3362327 3:-1.1550388 
-1 0:0 4:1 2:-1.3362327 3:-1.1635146 
-1 0:-1.1952286 5:1 2:-1.3362327 3:-1.1547793 
1 0:0.5976143 5:1 2:-1.3362327 3:-1.1552772 
0.9210463755197675 0:-0.5976143 5:1 2:-1.3362327 3:-1.1548004 
-1 0:0 5:1 2:-1.3362327 3:-1.1635146 
1 0:0 5:1 2:-1.3362327 3:-1.1549009 
-1 0:1.7928429 5:1 2:-1.3362327 3:-1.1722614 
1 0:-0.5976143 5:1 2:-1.3362327 3:-1.1548004 
-1 0:-1.1952286 5:1 2:-1.3362327 3:-1.1547793 
-1 0:0 5:1 2:-1.3362327 3:-1.1557307 
1 0:0 5:1 2:-1.3362327 3:-1.1550388 
-1 0:1.7928429 5:1 2:-1.3362327 3:-1.1722614 
-1 0:-1.1952286 5:1 2:-1.3362327 3:-1.1547793 
1 0:0 5:1 2:-1.3362327 3:-1.1550388 
1 0:0 5:1 2:-1.3362327 3:-1.1549009 
1 0:0.5976143 5:1 2:-1.3362327 3:-1.1552772 
-1 0:0 5:1 2:-1.3362327 3:-1.1635146 
1 0:0 5:1 2:-1.3362327 3:-1.1549009 
-1 0:1.7928429 5:1 2:-1.3362327 3:-1.1722614 
-0.2088593582860747 0:1.7928429 5:1 2:-1.3362327 3:-1.1722614 
-1 0:-1.1952286 5:1 2:-1.3362327 3:-1.1547793 
-1 0:0 5:1 2:-1.3362327 3:-1.1557307 
1 0:0 5:1 2:-1.3362327 3:-1.1550388 
1 0:0.5976143 5:1 2:-1.3362327 3:-1.1552772 
-1 0:0 5:1 2:-1.3362327 3:-1.1635146 
1 0:0 5:1 2:-1.3362327 3:-1.1549009 
1 0:0.5976143 5:1 2:-1.3362327 3:-1.1552772 
1 0:-0.5976143 5:1 2:-1.3362327 3:-1.1548004 
-1 0:0 5:1 2:-1.3362327 3:-1.1635146 
-1 0:0 5:1 2:-1.3362327 3:-1.1557307 
-1 0:1.7928429 5:1 2:-1.3362327 3:-1.1722614 
1 0:-0.5976143 5:1 2:-1.3362327 3:-1.1548004 
-1 0:-1.1952286 5:1 2:-1.3362327 3:-1.1547793 
-1 0:0 5:1 2:-1.3362327 3:-1.1557307 
1 0:0 5:1 2:-1.3362327 3:-1.1550388 
1 0:0.5976143 5:1 2:-1.3362327 3:-1.1552772 
1 0:0 5:1 2:-1.3362327 3:-1.1550388 
1 0:0 5:1 2:-1.3362327 3:-1.1549009 
1 0:0.5976143 5:1 2:-1.3362327 3:-1.1552772 
1 0:-0.5976143 5:1 2:-1.3362327 3:-1.1548004 
1 0:0 5:1 2:-1.3362327 3:-1.1550388 
1 0:-0.5976143 5:1 2:-1.3362327 3:-1.1548004 
-1 0:-1.1952286 5:1 2:-1.3362327 3:-1.1547793 
-1 0:0 5:1 2:-1.3362327 3:-1.1635146 
-1 0:0 5:1 2:-1.3362327 3:-1.1557307 
-0.993398570095164 0:1.7928429 5:1 2:-1.3362327 3:-1.1722614 
-1 0:0 5:1 2:-1.3362327 3:-1.1635146 
-1 0:0 5:1 2:-1.3362327 3:-1.1557307 
1 0:-0.5976143 8:1 2:1.3496622 3:0.38396181 
1 0:-1.1952286 8:1 2:1.3496622 3:0.3846807 
-1 0:0.5976143 8:1 2:1.3496622 3:0.36471635 
1 0:0 8:1 2:1.3496622 3:0.37433908 
-1 0:0.5976143 8:1 2:1.3496622 3:0.20541211 
1 0:-0.5976143 8:1 2:1.3496622 3:0.21364506 
1 0:0 8:1 2:1.3496622 3:0.2127215 
-1 0:-1.1952286 8:1 2:1.3496622 3:-0.070145175 
-1 0:0 8:1 2:1.3496622 3:-0.070714685 
-1 0:0 8:1 2:1.3496622 3:-0.070266554 
1 0:0.5976143 8:1 2:1.3496622 3:-0.43217367 
-1 0:0 8:1 2:1.3496622 3:-0.4429302 
-1 0:0 8:1 2:1.3496622 3:-0.43252033 
1 0:0.5976143 8:1 2:1.3496622 3:-0.070387586 
-1 0:-1.7928429 8:1 2:1.3496622 3:-0.070145175 
-1 0:0 8:1 2:1.3496622 3:-0.075280162 
1 0:0 8:1 2:1.3496622 3:-0.070183432 
1 0:-0.5976143 8:1 2:1.3496622 3:-0.4308418 
-0.9494572919145384 0:-1.1952286 8:1 2:1.3496622 3:-0.43059825 
1 0:0 8:1 2:1.3496622 3:-0.43150773 
1 0:0 8:1 2:1.3496622 3:-0.43124584 
-1 0:-1.7928429 8:1 2:1.3496622 3:-0.43048826 
0.260408580312211 0:1.7928429 6:1 2:1.3496622 3:0.41314476 
-1 0:0.5976143 6:1 2:1.3496622 3:0.89523829 
1 0:-0.5976143 6:1 2:1.3496622 3:0.91287312 
-1 0:0.5976143 6:1 2:1.3496622 3:0.89523829 
-0.9321443365559872 0:-1.7928429 6:1 2:1.3496622 3:0.91361688 
-1 0:-1.1952286 6:1 2:1.3496622 3:0.91343846 
-0.99950433921134 0:-1.7928429 6:1 2:1.3496622 3:0.91361688 
0.1928116032287503 0:1.7928429 6:1 2:1.3496622 3:0.41314476 
1 0:-0.5976143 6:1 2:1.3496622 3:0.91287312 
-1 0:-1.1952286 6:1 2:1.3496622 3:0.91343846 
-1 0:0.5976143 6:1 2:1.3496622 3:0.676955 
-1 0:-1.1952286 6:1 2:1.3496622 3:0.68080541 
-1 0:0.5976143 6:1 2:1.3496622 3:0.081479449 
1 0:-0.5976143 6:1 2:1.3496622 3:0.083643416 
1 0:-0.5976143 6:1 2:1.3496622 3:0.68077237 
-1 0:0 6:1 2:1.3496622 3:0.65218519 
-0.2734666792972931 0:1.1952286 6:1 2:1.3496622 3:0.072104694 
-1 0:0 6:1 2:1.3496622 3:0.077935962 
1 0:0.5976143 6:1 2:1.3496622 3:-0.070387586 
-1 0:0 6:1 2:1.3496622 3:-0.070714685 
1 0:0 6:1 2:1.3496622 3:0.08331736 
-1 0:-0.5976143 6:1 2:1.3496622 3:-0.070145696 
-1 0:-1.1952286 6:1 2:1.3496622 3:-0.070145175 
0.6111850453442 0:-1.7928429 5:1 2:-1.3362327 3:-1.2330232 
1 0:-0.5976143 5:1 2:-1.3362327 3:-1.1548004 
-1 0:-1.1952286 5:1 2:-1.3362327 3:-1.1547793 
-1 0:0 5:1 2:-1.3362327 3:-1.1557307 
-1 0:1.7928429 5:1 2:-1.3362327 3:-1.1722614 
-1 0:-1.1952286 5:1 2:-1.3362327 3:-1.1547793 
1 0:0.5976143 5:1 2:-1.3362327 3:-1.1552772 
-1 0:0 5:1 2:-1.3362327 3:-1.1635146 
1 0:0 5:1 2:-1.3362327 3:-1.1550388 
1 0:0 5:1 2:-1.3362327 3:-1.1549009 
1 0:0.5976143 5:1 2:-1.3362327 3:-1.1552772 
1 0:-0.5976143 5:1 2:-1.3362327 3:-1.1548004 
-1 0:0 5:1 2:-1.3362327 3:-1.1635146 
-1 0:0 5:1 2:-1.3362327 3:-1.1557307 
1 0:1.7928429 5:1 2:-1.3362327 3:-1.2366977 
1 0:1.1952286 5:1 2:-1.3362327 3:-1.2336169 
1 0:-0.5976143 5:1 2:-1.3362327 3:-1.2330232 
1 0:0 5:1 2:-1.3362327 3:-1.1550388 
1 0:0 5:1 2:-1.3362327 3:-1.1549009 
1 0:0.5976143 5:1 2:-1.3362327 3:-1.2330983 
-1 0:0 5:1 2:-1.3362327 3:-1.2348605 
1 0:0 5:1 2:-1.3362327 3:-1.2330378 
1 0:1.7928429 5:1 2:-1.3362327 3:-1.2366977 
1 0:1.1952286 5:1 2:-1.3362327 3:-1.2336169 
1 0:0.5976143 5:1 2:-1.3362327 3:-1.2330983 
-1 0:0 5:1 2:-1.3362327 3:-1.2333201 
1 0:0 5:1 2:-1.3362327 3:-1.2330608 
1 0:-0.5976143 5:1 2:-1.3362327 3:-1.2330232 
1 0:0 5:1 2:-1.3362327 3:-1.2330608 
1 0:0 5:1 2:-1.3362327 3:-1.2330378 
-1 0:0 5:1 2:-1.3362327 3:-1.2333201 
-1 0:0 5:1 2:-1.3362327 3:-1.2348605 
-0.9999644577606062 0:1.7928429 5:1 2:-1.3362327 3:-1.1722614 
-1 0:-1.1952286 5:1 2:-1.3362327 3:-1.1547793 
-1 0:0 5:1 2:-1.3362327 3:-1.1557307 
1 0:0 5:1 2:-1.3362327 3:-1.1550388 
1 0:0.5976143 5:1 2:-1.3362327 3:-1.1552772 
-1 0:0 5:1 2:-1.3362327 3:-1.1635146 
1 0:0.5976143 5:1 2:-1.3362327 3:-1.1552772 
1 0:-0.5976143 5:1 2:-1.3362327 3:-1.1548004 
-1 0:0 5:1 2:-1.3362327 3:-1.1635146 
1 0:0 5:1 2:-1.3362327 3:-1.1549009 
-1 0:1.7928429 5:1 2:-1.3362327 3:-1.1722614 
1 0:-0.5976143 5:1 2:-1.3362327 3:-1.1548004 
-1 0:-1.1952286 5:1 2:-1.3362327 3:-1.1547793 
-1 0:0 5:1 2:-1.3362327 3:-1.1557307 
1 0:0 5:1 2:-1.3362327 3:-1.1550388 
-1 0:-1.1952286 5:1 2:-1.3362327 3:-1.1547793 
1 0:0 5:1 2:-1.3362327 3:-1.1550388 
1 0:0 5:1 2:-1.3362327 3:-1.1549009 
1 0:0.5976143 5:1 2:-1.3362327 3:-1.1552772 
1 0:-0.5976143 5:1 2:-1.3362327 3:-1.1548004 
1 0:0 5:1 2:-1.3362327 3:-1.1549009 
-1 0:1.7928429 5:1 2:-1.3362327 3:-1.1722614 
1 0:0.5976143 5:1 2:-1.3362327 3:-1.1552772 
1 0:-0.5976143 5:1 2:-1.3362327 3:-1.1548004 
-1 0:0 5:1 2:-1.3362327 3:-1.1635146 
-1 0:0 5:1 2:-1.3362327 3:-1.1557307 
-1 0:1.7928429 5:1 2:-1.3362327 3:-1.1722614 
-1 0:-1.1952286 5:1 2:-1.3362327 3:-1.1547793 
1 0:0 5:1 2:-1.3362327 3:-1.1550388 
1 0:0.5976143 5:1 2:-1.3362327 3:-1.1552772 
-1 0:0 5:1 2:-1.3362327 3:-1.1635146 
-1 0:0 5:1 2:-1.3362327 3:-1.1635146 
-1 0:0 5:1 2:-1.3362327 3:-1.1557307 
1 0:0 5:1 2:-1.3362327 3:-1.1549009 
-1 0:1.7928429 5:1 2:-1.3362327 3:-1.1722614 
1 0:-0.5976143 5:1 2:-1.3362327 3:-1.1548004 
-1 0:-1.1952286 5:1 2:-1.3362327 3:-1.1547793 
-1 0:0 5:1 2:-1.3362327 3:-1.1557307 
1 0:0 5:1 2:-1.3362327 3:-1.1550388 
1 0:0.5976143 5:1 2:-1.3362327 3:-1.1552772 
1 0:0 5:1 2:-1.3362327 3:-1.1549009 
-1 0:1.7928429 5:1 2:-1.3362327 3:-1.1722614 
1 0:-0.5976143 5:1 2:-1.3362327 3:-1.1548004 
-1 0:-1.1952286 5:1 2:-1.3362327 3:-1.1547793 
-1 0:0 5:1 2:-1.3362327 3:-1.1635146 
-1 0:0 5:1 2:-1.3362327 3:-1.1557307 
1 0:0 5:1 2:-1.3362327 3:-1.1550388 
1 0:0 7:1 2:-1.3362327 3:-1.2330608 
1 0:1.1952286 7:1 2:-1.3362327 3:-1.2336169 
1 0:0.5976143 7:1 2:-1.3362327 3:-1.2330983 
-1 0:0 7:1 2:-1.3362327 3:-1.2348605 
7.479087005578627e-05 0:-0.5976143 7:1 2:-1.3362327 3:-1.2330232 
-1 0:-1.1952286 7:1 2:-1.3362327 3:-1.2330232 
-1 0:0 7:1 2:-1.3362327 3:-1.2333201 
1 0:0 7:1 2:-1.3362327 3:-1.2330608 
1 0:1.1952286 7:1 2:-1.3362327 3:-1.2336169 
1 0:0.5976143 7:1 2:-1.3362327 3:-1.2330983 
1 0:0 7:1 2:-1.3362327 3:-1.2330378 
-1 0:1.7928429 7:1 2:-1.3362327 3:-1.2366977 
-1 0:-1.1952286 7:1 2:-1.3362327 3:-1.2330232 
-1 0:0 7:1 2:-1.3362327 3:-1.2348605 
-1 0:0 7:1 2:-1.3362327 3:-1.2333201 
-1 0:1.7928429 7:1 2:-1.3362327 3:-1.2366977 
1 0:1.1952286 7:1 2:-1.3362327 3:-1.2336169 
1 0:0 7:1 2:-1.3362327 3:-1.2330608 
1 0:0 7:1 2:-1.3362327 3:-1.2330378 
1 0:0.5976143 7:1 2:-1.3362327 3:-1.2330983 
0.4145500066536122 0:-0.5976143 7:1 2:-1.3362327 3:-1.2330232 
-1 0:0 7:1 2:-1.3362327 3:-1.2348605 
-1 0:0 7:1 2:-1.3362327 3:-1.2333201 
-1 0:-1.1952286 7:1 2:-1.3362327 3:-1.2330232 
1 0:0 7:1 2:-1.3362327 3:-1.2330378 
-1 0:0 7:1 2:-1.3362327 3:-1.2348605 
1 0:0.5976143 7:1 2:-1.3362327 3:-1.2330983 
-1 0:0 7:1 2:-1.3362327 3:-1.2348605 
-1 0:1.7928429 7:1 2:-1.3362327 3:-1.2366977 
1 0:-0.5976143 7:1 2:-1.3362327 3:-1.2330232 
-1 0:-1.1952286 7:1 2:-1.3362327 3:-1.2330232 
-1 0:0 7:1 2:-1.3362327 3:-1.2333201 
1 0:0 7:1 2:-1.3362327 3:-1.2330608 
1 0:1.1952286 7:1 2:-1.3362327 3:-1.2336169 
1 0:0.5976143 7:1 2:-1.3362327 3:-1.2330983 
-1 0:0 7:1 2:-1.3362327 3:-1.2348605 
1 0:0 7:1 2:-1.3362327 3:-1.2330608 
1 0:0 7:1 2:-1.3362327 3:-1.2330378 
-1 0:1.7928429 7:1 2:-1.3362327 3:-1.2366977 
1 0:-0.5976143 7:1 2:-1.3362327 3:-1.2330232 
-1 0:-1.1952286 7:1 2:-1.3362327 3:-1.2330232 
-1 0:0 7:1 2:-1.3362327 3:-1.2333201 
-1 0:1.7928429 7:1 2:-1.3362327 3:-1.2366977 
0.5235472256987147 0:1.1952286 7:1 2:-1.3362327 3:-1.2336169 
-1 0:-1.1952286 7:1 2:-1.3362327 3:-1.2330232 
1 0:0 7:1 2:-1.3362327 3:-1.2330378 
1 0:0.5976143 7:1 2:-1.3362327 3:-1.2330983 
0.9343455698173636 0:-0.5976143 7:1 2:-1.3362327 3:-1.2330232 
1 0:0 7:1 2:-1.3362327 3:-1.2330608 
1 0:0 7:1 2:-1.3362327 3:-1.2330378 
-1 0:0 7:1 2:-1.3362327 3:-1.2333201 
-0.05824448277403434 0:-1.7928429 9:1 2:1.3496622 3:1.921625 
-1 0:0.5976143 9:1 2:1.3496622 3:1.920255 
0.2751382483588831 0:0 9:1 2:1.3496622 3:1.550898 
-1 0:-1.1952286 9:1 2:1.3496622 3:1.921625 
-1 0:-1.1952286 9:1 2:1.3496622 3:1.921625 
-0.5738871609974737 0:-1.7928429 9:1 2:1.3496622 3:1.921625 
-1 0:0.5976143 9:1 2:1.3496622 3:1.920255 
1 0:0 9:1 2:1.3496622 3:1.550898 
-1 0:0.5976143 1:1 2:1.3496622 3:2.161401 
1 0:0 1:1 2:1.3496622 3:1.6778166 
1 0:0 1:1 2:1.3496622 3:2.1635622 
0.04096803600542296 0:1.7928429 1:1 2:1.3496622 3:1.192148 
-1 0:-1.1952286 1:1 2:1.3496622 3:2.1634929 
-1 0:-1.1952286 1:1 2:1.3496622 3:2.1635622 
-1 0:0 1:1 2:1.3496622 3:2.1624816 
-1 0:0.5976143 1:1 2:1.3496622 3:2.1613286 
-1 0:0 1:1 2:1.3496622 3:2.1624106 
1 0:0 1:1 2:1.3496622 3:2.1634929 
-1 0:0.5976143 1:1 2:1.3496622 3:2.1613286 
1 0:0 1:1 2:1.3496622 3:1.6778205 
-1 0:-1.1952286 1:1 2:1.3496622 3:2.1634929 
-1 0:0 1:1 2:1.3496622 3:2.1624106 
-1 0:0.5976143 1:1 2:1.3496622 3:2.1613286 
1 0:0 1:1 2:1.3496622 3:1.6778205 
1 0:0 1:1 2:1.3496622 3:1.6778205 
-1 0:-1.1952286 1:1 2:1.3496622 3:2.1634929 
-1 0:0 1:1 2:1.3496622 3:2.1624106 
1 0:0 1:1 2:1.3496622 3:2.1634929 
-1 0:0.5976143 1:1 2:1.3496622 3:2.1613286 
1 0:0 1:1 2:1.3496622 3:1.6778205 
1 0:0 1:1 2:1.3496622 3:2.1634929 
-1 0:-1.1952286 1:1 2:1.3496622 3:2.1634929 
-1 0:0 1:1 2:1.3496622 3:2.1624106 
1 0:1.7928429 1:1 2:1.3496622 3:1.1851674 
-1 0:-1.1952286 1:1 2:1.3496622 3:2.0267074 
-1 0:0 1:1 2:1.3496622 3:2.0259927 
1 0:0 1:1 2:1.3496622 3:2.0267074 
0.6088018905790307 0:0 1:1 2:1.3496622 3:1.5551852 
1 0:0 1:1 2:1.3496622 3:2.1634929 
-1 0:0.5976143 1:1 2:1.3496622 3:2.0252776 
1 0:0 1:1 2:1.3496622 3:1.6059372 
-1 0:-1.1952286 1:1 2:1.3496622 3:1.9357499 
-0.5942017225138827 0:0 1:1 2:1.3496622 3:1.8481763 
1 0:0 1:1 2:1.3496622 3:1.9357492 
