svm_type epsilon_svr
kernel_type rbf
gamma 0.1
nr_class 2
total_sv 1205
rho -0.729172
SV
1 0:1.7928429 1:1 2:1.3496622 3:2.4877871 
1 0:0.5976143 1:1 2:1.3496622 3:2.5207988 
1 0:1.1952286 1:1 2:1.3496622 3:2.5110189 
-1 0:-0.5976143 1:1 2:1.3496622 3:2.5262988 
1 0:0 1:1 2:1.3496622 3:2.5070734 
1 0:0 1:1 2:1.3496622 3:2.5235488 
1 0:1.1952286 1:1 2:1.3496622 3:2.1753311 
1 0:0 1:1 2:1.3496622 3:2.5186892 
1 0:1.7928429 1:1 2:1.3496622 3:2.1790514 
-1 0:-0.5976143 1:1 2:1.3496622 3:2.186439 
0.08575752236259601 0:-1.7928429 1:1 2:1.3496622 3:2.186439 
1 0:0 1:1 2:1.3496622 3:2.1827452 
-1 0:0 1:1 2:1.3496622 3:2.186439 
1 0:1.1952286 1:1 2:1.3496622 3:1.8667167 
1 0:0 1:1 2:1.3496622 3:2.1808849 
1 0:1.7928429 1:1 2:1.3496622 3:1.8642582 
-1 0:0.5976143 1:1 2:1.3496622 3:1.8655438 
-0.9964705663591983 0:-0.5976143 1:1 2:1.3496622 3:1.8667167 
1 0:-1.7928429 1:1 2:1.3496622 3:1.8667167 
1 0:0 1:1 2:1.3496622 3:1.8654876 
-1 0:1.1952286 1:1 2:1.3496622 3:1.5473557 
1 0:0 1:1 2:1.3496622 3:1.8667167 
1 0:1.7928429 1:1 2:1.3496622 3:1.5407458 
-1 0:0 1:1 2:1.3496622 3:1.8667167 
-1 0:0.5976143 1:1 2:1.3496622 3:1.5473876 
1 0:0 1:1 2:1.3496622 3:1.5440665 
-1 0:0 1:1 2:1.3496622 3:1.5473876 
-1 0:1.1952286 1:1 2:1.3496622 3:1.2613058 
1 0:0 1:1 2:1.3496622 3:1.5473716 
1 0:1.7928429 1:1 2:1.3496622 3:1.2578341 
-1 0:0 1:1 2:1.3496622 3:1.5473876 
-1 0:0.5976143 1:1 2:1.3496622 3:1.2613202 
1 0:0 1:1 2:1.3496622 3:1.261313 
1 0:0 1:1 2:1.3496622 3:1.2595772 
-1 0:0 1:1 2:1.3496622 3:1.2613202 
-1 0:1.1952286 1:1 2:1.3496622 3:0.94496383 
-1 0:0.5976143 1:1 2:1.3496622 3:0.94496383 
1 0:0 1:1 2:1.3496622 3:0.94496383 
1 0:0 1:1 2:1.3496622 3:0.94496383 
1 0:0 4:1 2:-0.44988739 3:-0.97363597 
-1 0:0 5:1 2:-0.44988739 3:-0.19362753 
1 0:1.7928429 5:1 2:0.43645792 3:0.75210534 
-1 0:0 6:1 2:0.43645792 3:0.12914028 
1 0:0 1:1 2:0.43645792 3:0.18597277 
-1 0:0 1:1 2:-0.44988739 3:-0.070099506 
1 0:1.7928429 7:1 2:0.43645792 3:-0.10885651 
-1 0:1.7928429 8:1 2:-0.44988739 3:-0.80424198 
-1 0:-0.5976143 7:1 2:-0.44988739 3:-0.18245342 
1 0:0 7:1 2:-0.44988739 3:-0.18263676 
-0.9740263916344695 0:0 7:1 2:-0.44988739 3:-0.18265614 
1 0:1.7928429 7:1 2:-0.44988739 3:-0.34581418 
-1 0:0 7:1 2:-0.44988739 3:-0.1827066 
1 0:1.1952286 7:1 2:-0.44988739 3:-0.34355052 
1 0:0 7:1 2:-0.44988739 3:-0.34329196 
1 0:0.5976143 7:1 2:-0.44988739 3:-0.34219056 
1 0:0 7:1 2:-0.44988739 3:-0.34217284 
-1 0:1.7928429 7:1 2:-0.44988739 3:-0.56128201 
-1 0:1.1952286 7:1 2:-0.44988739 3:-0.56054034 
-1 0:0.5976143 7:1 2:-0.44988739 3:-0.56017316 
-1 0:-0.5976143 7:1 2:-0.44988739 3:-0.55978172 
-1 0:0 7:1 2:-0.44988739 3:-0.55997737 
1 0:1.7928429 7:1 2:-0.44988739 3:-0.70801654 
-1 0:0 7:1 2:-0.44988739 3:-0.55987326 
1 0:0.5976143 7:1 2:-0.44988739 3:-0.70763453 
1 0:1.1952286 7:1 2:-0.44988739 3:-0.70765571 
1 0:0 7:1 2:-0.44988739 3:-0.70782557 
1 0:0 7:1 2:-0.44988739 3:-0.70767561 
1 0:0 7:1 2:-0.44988739 3:-0.70763453 
1 0:0 7:1 2:-0.44988739 3:-0.70767356 
1 0:1.7928429 7:1 2:-0.44988739 3:-0.71937435 
-1 0:0.5976143 7:1 2:-0.44988739 3:-0.56193997 
1 0:0 7:1 2:-0.44988739 3:-0.5617741 
-1 0:0 7:1 2:-0.44988739 3:-0.56176999 
1 0:1.1952286 7:1 2:-0.44988739 3:-0.71902843 
1 0:0 7:1 2:-0.44988739 3:-0.71892963 
1 0:0 7:1 2:-0.44988739 3:-0.71909904 
1 0:1.7928429 5:1 2:-0.44988739 3:0.29559353 
-1 0:-0.5976143 5:1 2:-0.44988739 3:0.29762867 
1 0:0 5:1 2:-0.44988739 3:0.29663973 
-1 0:0.5976143 5:1 2:-0.44988739 3:0.29727394 
1 0:0 5:1 2:-0.44988739 3:0.29727022 
-0.1341279004434768 0:0 5:1 2:-0.44988739 3:0.29745137 
1 0:1.7928429 5:1 2:-0.44988739 3:0.034668882 
-1 0:0 5:1 2:-0.44988739 3:0.29754419 
1 0:1.1952286 5:1 2:-0.44988739 3:0.038755966 
1 0:0 5:1 2:-0.44988739 3:0.039307629 
1 0:0 5:1 2:-0.44988739 3:0.041232095 
1 0:1.7928429 5:1 2:-0.44988739 3:-0.19435585 
-1 0:0 5:1 2:-0.44988739 3:0.042392424 
-1 0:-0.5976143 5:1 2:-0.44988739 3:-0.1935953 
-1 0:0.5976143 5:1 2:-0.44988739 3:-0.19376451 
-0.1403917368555282 0:0 5:1 2:-0.44988739 3:-0.19367991 
1 0:0 5:1 2:-0.44988739 3:-0.19397557 
1 0:1.7928429 5:1 2:-0.44988739 3:-0.39077544 
0.2375986851247563 0:-1.7928429 5:1 2:-0.44988739 3:-0.38811161 
1 0:0 5:1 2:-0.44988739 3:-0.38944346 
1 0:0 5:1 2:-0.44988739 3:-0.38887511 
-1 0:1.1952286 5:1 2:-0.44988739 3:-0.51435224 
-1 0:1.7928429 5:1 2:-0.44988739 3:-0.51437818 
1 0:0 5:1 2:-0.44988739 3:-0.5143145 
-1 0:0 5:1 2:-0.44988739 3:-0.51425095 
-1 0:0 9:1 2:-0.44988739 3:0.47356816 
1 0:1.1952286 9:1 2:-0.44988739 3:0.80763935 
1 0:1.7928429 9:1 2:-0.44988739 3:0.80531767 
-0.4936118225392157 0:0.5976143 9:1 2:-0.44988739 3:0.80693068 
-1 0:-0.5976143 9:1 2:-0.44988739 3:0.80786967 
1 0:0 9:1 2:-0.44988739 3:0.80665311 
-1 0:0 9:1 2:-0.44988739 3:0.80759904 
1 0:0 9:1 2:-0.44988739 3:0.80781421 
-1 0:1.1952286 9:1 2:-0.44988739 3:0.47343028 
-0.004510661104587352 0:1.7928429 9:1 2:-0.44988739 3:0.47306747 
-1 0:0.5976143 9:1 2:-0.44988739 3:0.47356816 
-1 0:0 9:1 2:-0.44988739 3:0.47356816 
1 0:0 9:1 2:-0.44988739 3:0.47331781 
1 0:1.7928429 1:1 2:-0.44988739 3:0.78449826 
-1 0:1.1952286 1:1 2:-0.44988739 3:0.78697605 
-1 0:0.5976143 1:1 2:-0.44988739 3:0.78795408 
1 0:0 1:1 2:-0.44988739 3:0.78762567 
-1 0:0 1:1 2:-0.44988739 3:0.78827529 
-1 0:1.1952286 1:1 2:-0.44988739 3:0.78697605 
1 0:0 1:1 2:-0.44988739 3:0.78647176 
-1 0:0 1:1 2:-0.44988739 3:0.78819467 
1 0:1.7928429 1:1 2:-0.44988739 3:0.78449826 
-1 0:0.5976143 1:1 2:-0.44988739 3:0.78795408 
1 0:0 1:1 2:-0.44988739 3:0.78647176 
-1 0:0 1:1 2:-0.44988739 3:0.78819467 
1 0:1.7928429 1:1 2:-0.44988739 3:0.78449826 
-1 0:-0.5976143 1:1 2:-0.44988739 3:0.78843552 
1 0:0 1:1 2:-0.44988739 3:0.78647176 
-1 0:0 1:1 2:-0.44988739 3:0.78819467 
1 0:1.7928429 1:1 2:-0.44988739 3:0.78449826 
-0.4078195479005108 0:-0.5976143 1:1 2:-0.44988739 3:0.78843552 
-0.1004210438615358 0:-0.5976143 1:1 2:-0.44988739 3:0.78843552 
1 0:0 1:1 2:-0.44988739 3:0.78762567 
-1 0:0 1:1 2:-0.44988739 3:0.78827529 
-1 0:1.1952286 1:1 2:-0.44988739 3:0.78697605 
-1 0:0.5976143 1:1 2:-0.44988739 3:0.78795408 
1 0:0 1:1 2:-0.44988739 3:0.78762567 
-1 0:0 1:1 2:-0.44988739 3:0.78827529 
-1 0:0.5976143 1:1 2:-0.44988739 3:0.78795408 
-1 0:1.1952286 1:1 2:-0.44988739 3:0.78697605 
1 0:0 1:1 2:-0.44988739 3:0.78762567 
1 0:0 1:1 2:-0.44988739 3:0.78647176 
-1 0:0 1:1 2:-0.44988739 3:0.78819467 
-1 0:1.1952286 1:1 2:-0.44988739 3:0.78697605 
-1 0:0 1:1 2:-0.44988739 3:0.78827529 
-1 0:0.5976143 1:1 2:-0.44988739 3:0.78795408 
1 0:1.7928429 1:1 2:-0.44988739 3:0.78449826 
-1 0:-0.5976143 1:1 2:-0.44988739 3:0.78843552 
1 0:0 1:1 2:-0.44988739 3:0.78647176 
-1 0:0 1:1 2:-0.44988739 3:0.78819467 
-1 0:1.1952286 1:1 2:-0.44988739 3:0.78697605 
1 0:0 1:1 2:-0.44988739 3:0.78762567 
1 0:1.7928429 1:1 2:-0.44988739 3:0.78449826 
-1 0:0 1:1 2:-0.44988739 3:0.78827529 
-1 0:0.5976143 1:1 2:-0.44988739 3:0.78795408 
-1 0:-0.5976143 1:1 2:-0.44988739 3:0.78843552 
1 0:0 1:1 2:-0.44988739 3:0.78647176 
-1 0:0 1:1 2:-0.44988739 3:0.78827529 
1 0:0 1:1 2:-0.44988739 3:0.78762567 
-1 0:0 1:1 2:-0.44988739 3:0.78819467 
-0.5610262448100495 0:0.5976143 1:1 2:-0.44988739 3:0.50875496 
1 0:0 1:1 2:-0.44988739 3:0.5079482 
1 0:0 1:1 2:-0.44988739 3:0.50869693 
-0.3767962352553244 0:0 6:1 2:-1.3362327 3:-1.1772123 
-1 0:0 1:1 2:-1.3362327 3:-1.286511 
1 0:1.7928429 1:1 2:-0.44988739 3:0.62291471 
1 0:0 1:1 2:-0.44988739 3:0.62368989 
1 0:0 1:1 2:-0.44988739 3:0.6243164 
1 0:1.7928429 1:1 2:-0.44988739 3:0.62291471 
1 0:0 1:1 2:-0.44988739 3:0.62368989 
1 0:0 1:1 2:-0.44988739 3:0.6243164 
1 0:1.7928429 1:1 2:-0.44988739 3:0.62291471 
1 0:0 1:1 2:-0.44988739 3:0.6243164 
1 0:0 1:1 2:-0.44988739 3:0.62368989 
-1 0:0.5976143 1:1 2:-0.44988739 3:0.3539525 
-1 0:1.1952286 1:1 2:-0.44988739 3:0.35373245 
-1 0:-0.5976143 1:1 2:-0.44988739 3:0.3539525 
1 0:0 1:1 2:-0.44988739 3:0.35332419 
-1 0:0 1:1 2:-0.44988739 3:0.3539525 
-1 0:1.7928429 1:1 2:-0.44988739 3:0.10379279 
-1 0:-0.5976143 1:1 2:-0.44988739 3:0.10490639 
1 0:0 1:1 2:-0.44988739 3:0.10434959 
-1 0:0.5976143 1:1 2:-0.44988739 3:0.10490639 
-1 0:-1.1952286 1:1 2:-0.44988739 3:0.10490639 
-1 0:0 1:1 2:-0.44988739 3:0.10490639 
-1 0:1.7928429 1:1 2:-0.44988739 3:-0.070099506 
-1 0:0.5976143 1:1 2:-0.44988739 3:-0.070099506 
-1 0:0 1:1 2:-0.44988739 3:0.10490639 
-1 0:1.1952286 1:1 2:-0.44988739 3:-0.070270128 
-1 0:-0.5976143 1:1 2:-0.44988739 3:-0.070099506 
-1 0:0 1:1 2:-0.44988739 3:-0.070099506 
-1 0:-1.1952286 1:1 2:-0.44988739 3:-0.070099506 
1 0:0 1:1 2:-0.44988739 3:-0.070099506 
1 0:0 1:1 2:-0.44988739 3:0.62368989 
1 0:1.7928429 1:1 2:-0.44988739 3:0.62291471 
1 0:1.7928429 1:1 2:-0.44988739 3:0.62291471 
1 0:0 1:1 2:-0.44988739 3:0.6243164 
1 0:0 1:1 2:-0.44988739 3:0.62368989 
1 0:0 1:1 2:-0.44988739 3:0.6243164 
1 0:1.7928429 1:1 2:-0.44988739 3:0.62291471 
1 0:1.7928429 1:1 2:-0.44988739 3:0.62291471 
1 0:0 1:1 2:-0.44988739 3:0.62368989 
1 0:0 1:1 2:-0.44988739 3:0.6243164 
1 0:0 1:1 2:-0.44988739 3:0.6243164 
1 0:0 1:1 2:-0.44988739 3:0.62368989 
1 0:1.7928429 1:1 2:-0.44988739 3:0.62291471 
1 0:0 1:1 2:-0.44988739 3:0.62368989 
1 0:0 1:1 2:-0.44988739 3:0.6243164 
-1 0:0.5976143 1:1 2:-0.44988739 3:0.3539525 
-0.9096334179087771 0:1.1952286 1:1 2:-0.44988739 3:0.35373245 
-1 0:-0.5976143 1:1 2:-0.44988739 3:0.3539525 
1 0:0 1:1 2:-0.44988739 3:0.35332419 
-1 0:0 1:1 2:-0.44988739 3:0.3539525 
-0.01957361962667853 0:1.7928429 9:1 2:-1.3362327 3:-1.1772503 
-1 0:1.7928429 7:1 2:-0.44988739 3:-0.4417105 
-1 0:1.1952286 7:1 2:-0.44988739 3:-0.44129955 
-1 0:0.5976143 7:1 2:-0.44988739 3:-0.44105087 
-1 0:-0.5976143 7:1 2:-0.44988739 3:-0.44084828 
1 0:0 7:1 2:-0.44988739 3:-0.44126566 
-1 0:0 7:1 2:-0.44988739 3:-0.44094958 
-1 0:0 7:1 2:-0.44988739 3:-0.44091722 
-1 0:1.7928429 7:1 2:-0.44988739 3:-0.57845713 
-1 0:1.1952286 7:1 2:-0.44988739 3:-0.57826802 
-1 0:-0.5976143 7:1 2:-0.44988739 3:-0.57816609 
-1 0:0.5976143 7:1 2:-0.44988739 3:-0.57816609 
-1 0:0 7:1 2:-0.44988739 3:-0.57816609 
-1 0:0 7:1 2:-0.44988739 3:-0.57816609 
1 0:1.7928429 7:1 2:-0.44988739 3:-0.70801654 
1 0:0.5976143 7:1 2:-0.44988739 3:-0.70763453 
0.01605523283043117 0:-1.7928429 7:1 2:-0.44988739 3:-0.70763453 
1 0:1.1952286 7:1 2:-0.44988739 3:-0.70765571 
0.07358982924173874 0:-0.5976143 7:1 2:-0.44988739 3:-0.70771259 
1 0:0 7:1 2:-0.44988739 3:-0.70782557 
1 0:0 7:1 2:-0.44988739 3:-0.70767561 
1 0:0 7:1 2:-0.44988739 3:-0.70767356 
1 0:0 7:1 2:-0.44988739 3:-0.70763453 
1 0:0 7:1 2:-0.44988739 3:-0.93260825 
1 0:1.7928429 6:1 2:-0.44988739 3:0.80531767 
1 0:0 6:1 2:-0.44988739 3:0.80665311 
1 0:1.7928429 6:1 2:-0.44988739 3:0.59689706 
-1 0:0.5976143 6:1 2:-0.44988739 3:0.5980294 
1 0:0 6:1 2:-0.44988739 3:0.59746528 
-1 0:1.1952286 6:1 2:-0.44988739 3:0.47343028 
1 0:1.1952286 6:1 2:-0.44988739 3:0.80763935 
1 0:0 6:1 2:-0.44988739 3:0.80781421 
-1 0:0 6:1 2:-0.44988739 3:0.80759904 
1 0:0 6:1 2:-0.44988739 3:0.59789896 
-1 0:1.7928429 6:1 2:-0.44988739 3:0.47306747 
-1 0:0 6:1 2:-0.44988739 3:0.59760984 
-0.4562648156568544 0:-0.5976143 6:1 2:-0.44988739 3:0.47356816 
-1 0:0.5976143 6:1 2:-0.44988739 3:0.47356816 
-1 0:0 6:1 2:-0.44988739 3:0.47356816 
1 0:0 6:1 2:-0.44988739 3:0.47331781 
-1 0:0 6:1 2:-0.44988739 3:0.47356816 
-1 0:1.7928429 6:1 2:-0.44988739 3:0.17383271 
-1 0:1.1952286 6:1 2:-0.44988739 3:0.17432236 
-1 0:-0.5976143 6:1 2:-0.44988739 3:0.17444086 
1 0:0 6:1 2:-0.44988739 3:0.17413685 
-1 0:0.5976143 6:1 2:-0.44988739 3:0.17443675 
-1 0:0 6:1 2:-0.44988739 3:0.17443881 
-1 0:0 6:1 2:-0.44988739 3:0.17444086 
1 0:1.7928429 6:1 2:-0.44988739 3:-0.073623501 
1 0:0.5976143 6:1 2:-0.44988739 3:-0.071840128 
1 0:1.1952286 6:1 2:-0.44988739 3:-0.073006619 
1 0:0 6:1 2:-0.44988739 3:-0.07244905 
1 0:0 6:1 2:-0.44988739 3:-0.072140673 
1 0:0 6:1 2:-0.44988739 3:-0.071557428 
1 0:1.1952286 6:1 2:-0.44988739 3:-0.23708722 
1 0:1.7928429 6:1 2:-0.44988739 3:-0.2384613 
1 0:0.5976143 6:1 2:-0.44988739 3:-0.23658806 
1 0:0 6:1 2:-0.44988739 3:-0.23739829 
-1 0:1.1952286 6:1 2:-0.44988739 3:0.76725047 
1 0:0 6:1 2:-0.44988739 3:-0.23671131 
-1 0:1.7928429 6:1 2:-0.44988739 3:0.76709153 
-1 0:0.5976143 6:1 2:-0.44988739 3:0.76737423 
-1 0:-0.5976143 6:1 2:-0.44988739 3:0.76750723 
1 0:0 6:1 2:-0.44988739 3:0.76733751 
-1 0:0 6:1 2:-0.44988739 3:0.76744073 
-1 0:0 6:1 2:-0.44988739 3:0.76746795 
-1 0:1.1952286 6:1 2:-0.44988739 3:0.52471018 
-1 0:-0.5976143 6:1 2:-0.44988739 3:0.52511228 
1 0:0 6:1 2:-0.44988739 3:0.52501188 
-1 0:0.5976143 6:1 2:-0.44988739 3:0.52494384 
-1 0:0 6:1 2:-0.44988739 3:0.52502806 
1 0:1.7928429 6:1 2:-0.44988739 3:0.29559353 
-1 0:0 6:1 2:-0.44988739 3:0.52510021 
1 0:0 6:1 2:-0.44988739 3:0.29663973 
0.602660615585097 0:-1.7928429 6:1 2:-0.44988739 3:0.2976858 
1 0:0 6:1 2:-0.44988739 3:0.29727022 
1 0:1.1952286 6:1 2:-0.44988739 3:0.038755966 
1 0:1.7928429 6:1 2:-0.44988739 3:0.034668882 
1 0:0 6:1 2:-0.44988739 3:0.039307629 
1 0:0 6:1 2:-0.44988739 3:0.041232095 
-1 0:0.5976143 6:1 2:-0.44988739 3:-0.19376451 
1 0:0 6:1 2:-0.44988739 3:-0.19397557 
-1 0:1.1952286 6:1 2:-0.44988739 3:-0.1937699 
-1 0:-0.5976143 6:1 2:-0.44988739 3:-0.1935953 
-1 0:0 6:1 2:-0.44988739 3:-0.19367991 
-1 0:0 6:1 2:-0.44988739 3:-0.19362753 
-1 0:1.1952286 4:1 2:-0.44988739 3:-0.022003894 
-1 0:-0.5976143 4:1 2:-0.44988739 3:-0.021888862 
-1 0:1.7928429 4:1 2:-0.44988739 3:-0.022067957 
-1 0:0.5976143 4:1 2:-0.44988739 3:-0.021946378 
1 0:0 4:1 2:-0.44988739 3:-0.02195896 
-1 0:0 4:1 2:-0.44988739 3:-0.02191762 
-1 0:1.7928429 4:1 2:-0.44988739 3:-0.20929029 
-1 0:0.5976143 4:1 2:-0.44988739 3:-0.20925088 
1 0:0 4:1 2:-0.44988739 3:-0.20926847 
-1 0:0 4:1 2:-0.44988739 3:-0.2092487 
-1 0:1.7928429 4:1 2:-0.44988739 3:-0.39480757 
-1 0:-0.5976143 4:1 2:-0.44988739 3:-0.39480757 
-1 0:0 4:1 2:-0.44988739 3:-0.021907992 
-1 0:1.1952286 4:1 2:-0.44988739 3:-0.20927078 
-1 0:-0.5976143 4:1 2:-0.44988739 3:-0.20924652 
-1 0:0 4:1 2:-0.44988739 3:-0.20924652 
-1 0:1.1952286 4:1 2:-0.44988739 3:-0.39480757 
-1 0:0.5976143 4:1 2:-0.44988739 3:-0.39480757 
-1 0:0 4:1 2:-0.44988739 3:-0.39480757 
-1 0:0 4:1 2:-0.44988739 3:-0.39480757 
-1 0:1.1952286 4:1 2:-0.44988739 3:-0.55910219 
-1 0:-0.5976143 4:1 2:-0.44988739 3:-0.55909782 
-1 0:0 4:1 2:-0.44988739 3:-0.39480757 
-1 0:0.5976143 4:1 2:-0.44988739 3:-0.55909782 
1 0:0 4:1 2:-0.44988739 3:-0.55913287 
-1 0:1.7928429 4:1 2:-0.44988739 3:-0.70562097 
-1 0:0.5976143 4:1 2:-0.44988739 3:-0.70562097 
-1 0:0 4:1 2:-0.44988739 3:-0.55909782 
-1 0:1.1952286 4:1 2:-0.44988739 3:-0.70562097 
-1 0:0 4:1 2:-0.44988739 3:-0.55909782 
-1 0:-0.5976143 4:1 2:-0.44988739 3:-0.70562097 
-1 0:0 4:1 2:-0.44988739 3:-0.70562097 
1 0:1.1952286 4:1 2:-0.44988739 3:-0.9745699 
1 0:1.7928429 4:1 2:-0.44988739 3:-0.97444306 
-1 0:0 4:1 2:-0.44988739 3:-0.70562097 
1 0:0.5976143 4:1 2:-0.44988739 3:-0.97382309 
1 0:0 4:1 2:-0.44988739 3:-0.97357525 
1 0:0 4:1 2:-0.44988739 3:-0.97377411 
1 0:0 4:1 2:-0.44988739 3:-0.97386604 
1 0:1.1952286 4:1 2:-0.44988739 3:0.36543895 
1 0:1.7928429 4:1 2:-0.44988739 3:0.36437581 
-1 0:-0.5976143 4:1 2:-0.44988739 3:0.36609961 
1 0:0 4:1 2:-0.44988739 3:0.36529889 
1 0:0 4:1 2:-0.44988739 3:0.36582321 
1 0:1.7928429 4:1 2:-0.44988739 3:0.15384573 
1 0:1.1952286 4:1 2:-0.44988739 3:0.15529724 
1 0:0 4:1 2:-0.44988739 3:0.15574619 
1 0:0 4:1 2:-0.44988739 3:0.15502725 
1 0:1.7928429 4:1 2:-0.44988739 3:-0.048162643 
1 0:0 4:1 2:-0.44988739 3:-0.047581195 
1 0:0 4:1 2:-0.44988739 3:-0.047276798 
-1 0:0 4:1 2:-0.44988739 3:-0.047126718 
1 0:0.5976143 4:1 2:-0.44988739 3:-0.23851047 
1 0:1.1952286 4:1 2:-0.44988739 3:-0.23762976 
1 0:1.7928429 4:1 2:-0.44988739 3:-0.23851548 
0.158568467508827 0:-1.7928429 4:1 2:-0.44988739 3:-0.23675843 
1 0:0 4:1 2:-0.44988739 3:-0.23763695 
1 0:0 4:1 2:-0.44988739 3:-0.23780193 
1 0:1.1952286 4:1 2:-0.44988739 3:-0.43893627 
1 0:0 4:1 2:-0.44988739 3:-0.23725886 
1 0:1.7928429 4:1 2:-0.44988739 3:-0.43991301 
1 0:0 4:1 2:-0.44988739 3:-0.43854059 
1 0:1.7928429 4:1 2:-0.44988739 3:-0.57449971 
1 0:0 4:1 2:-0.44988739 3:-0.43902896 
1 0:1.1952286 4:1 2:-0.44988739 3:-0.57097495 
1 0:0.5976143 4:1 2:-0.44988739 3:-0.57091474 
1 0:-0.5976143 4:1 2:-0.44988739 3:-0.56775047 
1 0:-1.1952286 4:1 2:-0.44988739 3:-0.56726685 
1 0:0 4:1 2:-0.44988739 3:-0.57068095 
1 0:0 4:1 2:-0.44988739 3:-0.56869114 
1 0:-1.7928429 4:1 2:-0.44988739 3:-0.56686206 
1 0:0 4:1 2:-0.44988739 3:-0.56912084 
1 0:0 4:1 2:-0.44988739 3:-0.56933267 
-1 0:0 4:1 2:-0.44988739 3:-0.14381825 
-1 0:1.1952286 4:1 2:-0.44988739 3:-0.34818952 
-1 0:-0.5976143 4:1 2:-0.44988739 3:-0.34773851 
-1 0:0 4:1 2:-0.44988739 3:-0.34781773 
-1 0:0.5976143 4:1 2:-0.44988739 3:-0.14399671 
1 0:0 4:1 2:-0.44988739 3:-0.14422356 
-1 0:1.7928429 4:1 2:-0.44988739 3:-0.34833588 
-1 0:0.5976143 4:1 2:-0.44988739 3:-0.34789707 
-1 0:0 4:1 2:-0.44988739 3:-0.34779 
1 0:0 4:1 2:-0.44988739 3:-0.5617741 
-0.4726075070703508 0:0 4:1 2:-0.44988739 3:-0.56176999 
1 0:1.7928429 8:1 2:-0.44988739 3:-0.70801654 
1 0:0.5976143 8:1 2:-0.44988739 3:-0.70763453 
1 0:0 4:1 2:-0.44988739 3:-0.67820682 
1 0:1.1952286 8:1 2:-0.44988739 3:-0.70765571 
1 0:0 8:1 2:-0.44988739 3:-0.70782557 
1 0:0 8:1 2:-0.44988739 3:-0.70767356 
1 0:0 8:1 2:-0.44988739 3:-0.70767561 
1 0:0 8:1 2:-0.44988739 3:-0.70763453 
1 0:0 8:1 2:-0.44988739 3:-0.93260825 
-1 0:1.1952286 8:1 2:-0.44988739 3:-0.80414004 
1 0:0 8:1 2:-0.44988739 3:-0.93260825 
-1 0:0.5976143 8:1 2:-0.44988739 3:-0.80414004 
-1 0:-0.5976143 8:1 2:-0.44988739 3:-0.80414004 
-1 0:-1.1952286 8:1 2:-0.44988739 3:-0.80414004 
-1 0:0 8:1 2:-0.44988739 3:-0.80414004 
1 0:1.7928429 8:1 2:-0.44988739 3:-0.93408575 
-1 0:0 8:1 2:-0.44988739 3:-0.80414004 
-1 0:0 8:1 2:-0.44988739 3:-0.80414004 
1 0:1.1952286 8:1 2:-0.44988739 3:-0.9336694 
1 0:0.5976143 8:1 2:-0.44988739 3:-0.93348665 
-1 0:1.7928429 8:1 2:-0.44988739 3:-0.97554625 
1 0:0 8:1 2:-0.44988739 3:-0.93378617 
1 0:0 8:1 2:-0.44988739 3:-0.93357806 
-1 0:1.1952286 8:1 2:-0.44988739 3:-0.97535175 
-1 0:0.5976143 8:1 2:-0.44988739 3:-0.97521708 
-1 0:-0.5976143 8:1 2:-0.44988739 3:-0.97517638 
-1 0:0 8:1 2:-0.44988739 3:-0.97517638 
-1 0:0 8:1 2:-0.44988739 3:-0.97519673 
1 0:1.1952286 7:1 2:0.43645792 3:-0.10904703 
1 0:0 7:1 2:0.43645792 3:-0.10880028 
1 0:1.1952286 7:1 2:0.43645792 3:-0.29873189 
1 0:0 7:1 2:0.43645792 3:-0.10870502 
1 0:1.7928429 7:1 2:0.43645792 3:-0.29887799 
1 0:0 7:1 2:0.43645792 3:-0.2986989 
-1 0:1.1952286 7:1 2:0.43645792 3:-0.49445308 
-1 0:-0.5976143 7:1 2:0.43645792 3:-0.49444974 
-1 0:0 7:1 2:0.43645792 3:-0.49447349 
-1 0:1.7928429 7:1 2:0.43645792 3:-0.68109294 
1 0:0 7:1 2:0.43645792 3:-0.29877195 
-1 0:1.7928429 7:1 2:0.43645792 3:-0.49448749 
-1 0:0.5976143 7:1 2:0.43645792 3:-0.49449724 
-1 0:0 7:1 2:0.43645792 3:-0.49444974 
-1 0:1.1952286 7:1 2:0.43645792 3:-0.68108184 
-1 0:-0.5976143 7:1 2:0.43645792 3:-0.68108184 
-1 0:0.5976143 7:1 2:0.43645792 3:-0.68108184 
-1 0:0 7:1 2:0.43645792 3:-0.68108184 
-1 0:0 7:1 2:0.43645792 3:-0.68108184 
-1 0:0 7:1 2:0.43645792 3:-0.68108184 
1 0:1.7928429 7:1 2:0.43645792 3:0.23701105 
1 0:1.1952286 7:1 2:0.43645792 3:0.23702184 
1 0:0.5976143 7:1 2:0.43645792 3:0.23733381 
0.8904498930819501 0:-1.7928429 7:1 2:0.43645792 3:0.2376323 
1 0:0 7:1 2:0.43645792 3:0.23729504 
1 0:0 7:1 2:0.43645792 3:0.23735332 
1 0:0 7:1 2:0.43645792 3:0.23732174 
-1 0:1.7928429 7:1 2:0.43645792 3:0.04328456 
-1 0:1.1952286 7:1 2:0.43645792 3:0.043351191 
-1 0:0.5976143 7:1 2:0.43645792 3:0.043411146 
-1 0:-0.5976143 7:1 2:0.43645792 3:0.043470716 
-1 0:0 7:1 2:0.43645792 3:0.043440931 
1 0:0 7:1 2:0.43645792 3:0.043397922 
-1 0:0 7:1 2:0.43645792 3:0.043450816 
-1 0:1.7928429 7:1 2:0.43645792 3:-0.2098055 
-1 0:1.1952286 7:1 2:0.43645792 3:-0.20790773 
1 0:0 7:1 2:0.43645792 3:-0.20789657 
1 0:0 7:1 2:0.43645792 3:-0.45374272 
1 0:0 7:1 2:0.43645792 3:-0.45359508 
1 0:0 7:1 2:0.43645792 3:-0.30088347 
-1 0:0 7:1 2:0.43645792 3:-0.3006163 
1 0:0 7:1 2:0.43645792 3:-0.5617741 
-1 0:0.5976143 5:1 2:0.43645792 3:0.75355453 
1 0:0 5:1 2:0.43645792 3:0.75359946 
1 0:0 5:1 2:0.43645792 3:0.75305923 
-0.7561939818824194 0:0 5:1 2:0.43645792 3:0.7534965 
-1 0:0 5:1 2:0.43645792 3:0.75368189 
1 0:1.1952286 5:1 2:0.43645792 3:0.4253511 
1 0:1.7928429 5:1 2:0.43645792 3:0.42431825 
0.05702425053112056 0:-1.7928429 5:1 2:0.43645792 3:0.42608712 
1 0:0 5:1 2:0.43645792 3:0.42571917 
-1 0:1.1952286 5:1 2:0.43645792 3:0.12877452 
1 0:0 5:1 2:0.43645792 3:0.42520269 
-1 0:1.7928429 5:1 2:0.43645792 3:0.12854625 
-1 0:0.5976143 5:1 2:0.43645792 3:0.12900227 
1 0:0 5:1 2:0.43645792 3:0.12896478 
-1 0:0 5:1 2:0.43645792 3:0.12913913 
-1 0:1.7928429 5:1 2:0.43645792 3:-0.12518726 
-1 0:0.5976143 5:1 2:0.43645792 3:-0.12505528 
1 0:0 5:1 2:0.43645792 3:-0.1250947 
-1 0:0 5:1 2:0.43645792 3:0.12914028 
-1 0:1.1952286 5:1 2:0.43645792 3:-0.12513244 
-1 0:0 5:1 2:0.43645792 3:-0.12502537 
-0.2726711164361441 0:1.1952286 5:1 2:0.43645792 3:-0.32170815 
1 0:0 5:1 2:0.43645792 3:-0.32092462 
0.09192442487389781 0:-1.7928429 5:1 2:0.43645792 3:-0.32020812 
1 0:1.7928429 9:1 2:0.43645792 3:1.3372872 
1 0:1.1952286 9:1 2:0.43645792 3:1.3409471 
1 0:0 9:1 2:0.43645792 3:1.3418281 
-0.6200228729299897 0:0 9:1 2:0.43645792 3:1.344899 
1 0:0 9:1 2:0.43645792 3:1.3435672 
1 0:1.7928429 9:1 2:0.43645792 3:0.82946889 
-1 0:1.1952286 9:1 2:0.43645792 3:0.83044306 
-1 0:0.5976143 9:1 2:0.43645792 3:0.83024715 
1 0:-1.7928429 9:1 2:0.43645792 3:0.83142699 
1 0:0 9:1 2:0.43645792 3:0.83083232 
1 0:1.7928429 1:1 2:0.43645792 3:2.6825495 
1 0:0 9:1 2:0.43645792 3:0.83044794 
-1 0:0 9:1 2:0.43645792 3:0.8310896 
-0.480623120295921 0:0 9:1 2:0.43645792 3:0.83055039 
1 0:1.1952286 1:1 2:0.43645792 3:2.7134832 
1 0:0.5976143 1:1 2:0.43645792 3:2.7148826 
-1 0:-0.5976143 1:1 2:0.43645792 3:2.7216212 
-0.40419015995198 0:-1.1952286 1:1 2:0.43645792 3:2.7216212 
1 0:0 1:1 2:0.43645792 3:2.7020854 
-1 0:0 1:1 2:0.43645792 3:2.7209624 
1 0:0 1:1 2:0.43645792 3:2.717552 
1 0:1.7928429 1:1 2:0.43645792 3:2.3301293 
1 0:0 1:1 2:0.43645792 3:2.7182519 
-1 0:0.5976143 1:1 2:0.43645792 3:2.344394 
1 0:1.1952286 1:1 2:0.43645792 3:2.3452636 
-1 0:-0.5976143 1:1 2:0.43645792 3:2.3480549 
1 0:0 1:1 2:0.43645792 3:2.3390922 
1 0:0 1:1 2:0.43645792 3:2.3466592 
-1 0:0 1:1 2:0.43645792 3:2.3480549 
-1 0:0 1:1 2:0.43645792 3:2.3462244 
1 0:1.7928429 1:1 2:0.43645792 3:2.013102 
-1 0:0.5976143 1:1 2:0.43645792 3:2.0216041 
0.5522246485508592 0:1.1952286 1:1 2:0.43645792 3:2.0216041 
-1 0:-0.5976143 1:1 2:0.43645792 3:2.0216041 
1 0:0 1:1 2:0.43645792 3:2.017353 
-1 0:0 1:1 2:0.43645792 3:2.0216041 
1 0:0 1:1 2:0.43645792 3:2.0216041 
-1 0:0 1:1 2:0.43645792 3:2.0216041 
-1 0:0.5976143 1:1 2:0.43645792 3:1.715342 
-1 0:1.1952286 1:1 2:0.43645792 3:1.714936 
1 0:1.7928429 1:1 2:0.43645792 3:1.7100454 
-1 0:-0.5976143 1:1 2:0.43645792 3:1.715342 
1 0:-1.7928429 1:1 2:0.43645792 3:1.715342 
1 0:0 1:1 2:0.43645792 3:1.7126937 
0.8037993085068627 0:0 1:1 2:0.43645792 3:1.7151389 
-1 0:0 1:1 2:0.43645792 3:1.715342 
-1 0:1.1952286 1:1 2:0.43645792 3:1.4071041 
-1 0:0 1:1 2:0.43645792 3:1.715342 
-1 0:0.5976143 1:1 2:0.43645792 3:1.4072348 
1 0:0 1:1 2:0.43645792 3:1.405942 
1 0:0 1:1 2:0.43645792 3:1.4071693 
-1 0:0 1:1 2:0.43645792 3:1.4072348 
-1 0:0 1:1 2:0.43645792 3:1.4072348 
-1 0:1.7928429 1:1 2:0.43645792 3:1.1312655 
-1 0:1.1952286 1:1 2:0.43645792 3:1.1312075 
-1 0:0.5976143 1:1 2:0.43645792 3:1.1312655 
1 0:0 1:1 2:0.43645792 3:1.1312655 
1 0:0 1:1 2:0.43645792 3:1.1312365 
-1 0:1.7928429 1:1 2:0.43645792 3:0.82500603 
-1 0:0 1:1 2:0.43645792 3:1.1312655 
-1 0:1.1952286 1:1 2:0.43645792 3:0.82500603 
-1 0:0.5976143 1:1 2:0.43645792 3:0.82500603 
1 0:0 1:1 2:0.43645792 3:0.82500603 
1 0:0 1:1 2:0.43645792 3:0.82500603 
1 0:1.7928429 1:1 2:0.43645792 3:1.5063724 
-1 0:0.5976143 1:1 2:0.43645792 3:1.5095273 
1 0:0 1:1 2:0.43645792 3:1.5079497 
-1 0:0 1:1 2:0.43645792 3:1.5095273 
-1 0:1.7928429 1:1 2:0.43645792 3:1.2170464 
-1 0:0.5976143 1:1 2:0.43645792 3:1.218768 
-1 0:1.1952286 1:1 2:0.43645792 3:1.5093299 
0.8142991796118809 0:-1.7928429 1:1 2:0.43645792 3:1.5095273 
1 0:0 1:1 2:0.43645792 3:1.5094287 
-1 0:0 1:1 2:0.43645792 3:1.5095273 
-1 0:1.1952286 1:1 2:0.43645792 3:1.2186964 
1 0:0 1:1 2:0.43645792 3:1.2187323 
1 0:0 1:1 2:0.43645792 3:1.2179071 
-1 0:0 1:1 2:0.43645792 3:1.218768 
-1 0:1.7928429 1:1 2:0.43645792 3:0.95962496 
-1 0:1.1952286 1:1 2:0.43645792 3:0.95958131 
1 0:0 1:1 2:0.43645792 3:0.95960313 
-1 0:0.5976143 1:1 2:0.43645792 3:0.95962496 
1 0:0 1:1 2:0.43645792 3:0.95962496 
-1 0:1.7928429 1:1 2:0.43645792 3:0.67355809 
-1 0:1.1952286 1:1 2:0.43645792 3:0.67355809 
-1 0:0.5976143 1:1 2:0.43645792 3:0.67355809 
1 0:0 1:1 2:0.43645792 3:0.67355809 
1 0:1.7928429 1:1 2:0.43645792 3:0.3847939 
1 0:0.5976143 1:1 2:0.43645792 3:0.38747146 
1 0:1.1952286 1:1 2:0.43645792 3:0.38631986 
1 0:0 1:1 2:0.43645792 3:0.38639856 
1 0:0 1:1 2:0.43645792 3:0.38710865 
1 0:0 1:1 2:0.43645792 3:0.38790565 
1 0:1.1952286 1:1 2:0.43645792 3:0.18485776 
1 0:0 1:1 2:0.43645792 3:0.38773388 
1 0:1.7928429 1:1 2:0.43645792 3:0.18508089 
1 0:0.5976143 1:1 2:0.43645792 3:0.18572871 
1 0:0 1:1 2:0.43645792 3:0.18547002 
-0.3072870568847827 0:-1.7928429 1:1 2:0.43645792 3:0.18608215 
1 0:0 1:1 2:0.43645792 3:0.1859001 
1 0:0 1:1 2:0.43645792 3:0.18558146 
1 0:1.7928429 1:1 2:0.43645792 3:2.0501801 
1 0:1.1952286 1:1 2:0.43645792 3:2.0577681 
-1 0:-0.5976143 1:1 2:0.43645792 3:2.0581029 
-1 0:0.5976143 1:1 2:0.43645792 3:2.0568746 
1 0:-1.7928429 1:1 2:0.43645792 3:2.0581029 
1 0:0 1:1 2:0.43645792 3:2.0541415 
-1 0:0 1:1 2:0.43645792 3:2.0579543 
-1 0:0 1:1 2:0.43645792 3:2.0574888 
1 0:0 1:1 2:0.43645792 3:2.0579355 
1 0:1.7928429 1:1 2:0.43645792 3:1.7906992 
-1 0:0.5976143 1:1 2:0.43645792 3:1.795598 
1 0:-1.7928429 1:1 2:0.43645792 3:1.795598 
1 0:0 1:1 2:0.43645792 3:1.7953184 
-1 0:-0.5976143 1:1 2:0.43645792 3:1.795598 
1 0:0 1:1 2:0.43645792 3:1.7931487 
-1 0:0 1:1 2:0.43645792 3:1.795598 
-1 0:0 1:1 2:0.43645792 3:1.7954745 
1 0:1.7928429 1:1 2:0.43645792 3:1.5063724 
-1 0:1.1952286 1:1 2:0.43645792 3:1.5093299 
1 0:0 1:1 2:0.43645792 3:1.5079497 
-1 0:0.5976143 1:1 2:0.43645792 3:1.5095273 
0.04606124471690631 0:-1.7928429 1:1 2:0.43645792 3:1.5095273 
1 0:0 1:1 2:0.43645792 3:1.5094287 
-1 0:0 1:1 2:0.43645792 3:1.5095273 
-1 0:1.7928429 1:1 2:0.43645792 3:1.2170464 
-1 0:0 1:1 2:0.43645792 3:1.5095273 
-1 0:0.5976143 1:1 2:0.43645792 3:1.218768 
-1 0:1.1952286 1:1 2:0.43645792 3:1.2186964 
1 0:0 1:1 2:0.43645792 3:1.2179071 
1 0:0 1:1 2:0.43645792 3:1.2187323 
-1 0:1.7928429 1:1 2:0.43645792 3:0.95962496 
-1 0:0 1:1 2:0.43645792 3:1.218768 
-1 0:1.1952286 1:1 2:0.43645792 3:0.95958131 
-1 0:0.5976143 1:1 2:0.43645792 3:0.95962496 
1 0:0 1:1 2:0.43645792 3:0.95960313 
1 0:0 1:1 2:0.43645792 3:0.95962496 
-1 0:1.7928429 1:1 2:0.43645792 3:0.67355809 
-1 0:0.5976143 1:1 2:0.43645792 3:0.67355809 
-1 0:1.1952286 1:1 2:0.43645792 3:0.67355809 
1 0:0 1:1 2:0.43645792 3:0.67355809 
0.5875920669784374 0:0 1:1 2:0.43645792 3:0.67355809 
1 0:1.7928429 6:1 2:0.43645792 3:1.3372872 
1 0:0 6:1 2:0.43645792 3:1.3435672 
1 0:1.1952286 6:1 2:0.43645792 3:1.3409471 
1 0:0 6:1 2:0.43645792 3:1.3418281 
-1 0:0.5976143 6:1 2:0.43645792 3:1.0847356 
0.3014139292297692 0:1.1952286 6:1 2:0.43645792 3:1.0840698 
1 0:1.7928429 6:1 2:0.43645792 3:1.0828866 
1 0:0 6:1 2:0.43645792 3:1.0855346 
1 0:0 6:1 2:0.43645792 3:1.0850545 
1 0:1.7928429 6:1 2:0.43645792 3:0.82946889 
-1 0:0 6:1 2:0.43645792 3:1.0857393 
-1 0:1.1952286 6:1 2:0.43645792 3:0.83044306 
-1 0:0.5976143 6:1 2:0.43645792 3:0.83024715 
-1 0:0 6:1 2:0.43645792 3:0.83055039 
1 0:0 6:1 2:0.43645792 3:0.83044794 
1 0:0 6:1 2:0.43645792 3:0.83083232 
-1 0:0 6:1 2:0.43645792 3:0.8310896 
-1 0:1.7928429 6:1 2:0.43645792 3:0.57035123 
-1 0:0.5976143 6:1 2:0.43645792 3:0.57208492 
-1 0:1.1952286 6:1 2:0.43645792 3:0.57155393 
-1 0:0 6:1 2:0.43645792 3:0.57222974 
1 0:0 6:1 2:0.43645792 3:0.5713023 
-1 0:0 6:1 2:0.43645792 3:0.57221176 
1 0:1.7928429 6:1 2:0.43645792 3:0.31937141 
1 0:0 6:1 2:0.43645792 3:0.32263967 
1 0:0 6:1 2:0.43645792 3:0.3214 
1 0:1.7928429 6:1 2:0.43645792 3:0.026677917 
1 0:0 6:1 2:0.43645792 3:0.026861377 
-1 0:0 7:1 2:1.3496622 3:-0.4260842 
1 0:0 6:1 2:0.43645792 3:0.026785631 
-1 0:0 9:1 2:1.3496622 3:1.2739079 
1 0:0 6:1 2:1.3496622 3:1.273701 
1 0:1.1952286 6:1 2:0.43645792 3:1.2396794 
1 0:0 6:1 2:0.43645792 3:1.2428355 
1 0:0 6:1 2:0.43645792 3:1.2424309 
1 0:1.7928429 6:1 2:0.43645792 3:1.0009554 
-1 0:0.5976143 6:1 2:0.43645792 3:1.0005679 
1 0:0 6:1 2:0.43645792 3:1.0020197 
1 0:0 6:1 2:0.43645792 3:1.0021478 
-1 0:0 6:1 2:0.43645792 3:1.0017059 
-1 0:1.1952286 6:1 2:0.43645792 3:0.75336401 
-1 0:0.5976143 6:1 2:0.43645792 3:0.75355453 
1 0:0 6:1 2:0.43645792 3:0.75305923 
1 0:0 6:1 2:0.43645792 3:0.75359946 
1 0:1.7928429 6:1 2:0.43645792 3:0.42431825 
-1 0:0 6:1 2:0.43645792 3:0.7534965 
-1 0:0 6:1 2:0.43645792 3:0.75368189 
1 0:0 6:1 2:0.43645792 3:0.42520269 
1 0:0 6:1 2:0.43645792 3:0.42571917 
-1 0:1.7928429 6:1 2:0.43645792 3:0.12854625 
-1 0:1.1952286 6:1 2:0.43645792 3:0.12877452 
-1 0:0.5976143 6:1 2:0.43645792 3:0.12900227 
-1 0:-0.5976143 6:1 2:0.43645792 3:0.12927598 
0.8699722821914071 0:0 6:1 2:0.43645792 3:0.12896478 
1 0:1.7928429 6:1 2:0.43645792 3:1.240264 
-1 0:0 6:1 2:0.43645792 3:0.12913913 
1 0:1.7928429 4:1 2:0.43645792 3:0.53815526 
-1 0:0.5976143 4:1 2:0.43645792 3:0.53862899 
1 0:0 4:1 2:0.43645792 3:0.53859048 
1 0:0 4:1 2:0.43645792 3:0.53847724 
1 0:1.7928429 4:1 2:0.43645792 3:0.2371343 
-1 0:0 4:1 2:0.43645792 3:0.53878716 
1 0:1.1952286 4:1 2:0.43645792 3:0.23726782 
1 0:0.5976143 4:1 2:0.43645792 3:0.23742304 
0.4533258780230811 0:-1.7928429 4:1 2:0.43645792 3:0.23755938 
1 0:0 4:1 2:0.43645792 3:0.23734691 
1 0:0 4:1 2:0.43645792 3:0.23748428 
1 0:0 4:1 2:0.43645792 3:0.23741367 
-0.04450906767283156 0:0.5976143 4:1 2:0.43645792 3:-0.043911229 
1 0:0 4:1 2:0.43645792 3:-0.043919702 
-1 0:1.7928429 4:1 2:0.43645792 3:-0.28685515 
-1 0:0 4:1 2:0.43645792 3:-0.043860132 
-1 0:1.1952286 4:1 2:0.43645792 3:-0.28685515 
-1 0:-0.5976143 4:1 2:0.43645792 3:-0.28685515 
1 0:0 4:1 2:0.43645792 3:-0.28685515 
-1 0:0.5976143 4:1 2:0.43645792 3:-0.28685515 
-1 0:0 4:1 2:0.43645792 3:-0.28685515 
-1 0:0 4:1 2:0.43645792 3:-0.28685515 
1 0:0 4:1 2:0.43645792 3:-0.47397388 
-1 0:1.7928429 4:1 2:0.43645792 3:-0.6900041 
-0.2763540019340517 0:0.5976143 4:1 2:0.43645792 3:-0.6900041 
-1 0:-0.5976143 4:1 2:0.43645792 3:-0.6900041 
-1 0:0 4:1 2:0.43645792 3:-0.6900041 
-1 0:-1.1952286 4:1 2:0.43645792 3:-0.6900041 
-1 0:0 4:1 2:0.43645792 3:-0.6900041 
1 0:1.7928429 4:1 2:0.43645792 3:0.18218995 
1 0:1.1952286 4:1 2:0.43645792 3:0.18356674 
1 0:0 4:1 2:0.43645792 3:0.18397076 
1 0:0 4:1 2:0.43645792 3:0.18328647 
1 0:1.7928429 4:1 2:0.43645792 3:-0.026093032 
1 0:1.1952286 4:1 2:0.43645792 3:-0.022763153 
1 0:0 4:1 2:0.43645792 3:-0.023774044 
1 0:0.5976143 4:1 2:0.43645792 3:-0.022200192 
1 0:-1.7928429 4:1 2:0.43645792 3:-0.021455055 
1 0:0 4:1 2:0.43645792 3:-0.021983096 
1 0:0 4:1 2:0.43645792 3:-0.022208537 
1 0:0 4:1 2:0.43645792 3:-0.26420037 
-1 0:1.7928429 4:1 2:0.43645792 3:-0.46946134 
-1 0:1.1952286 4:1 2:0.43645792 3:-0.46620515 
1 0:0 4:1 2:0.43645792 3:-0.46780635 
1 0:1.7928429 4:1 2:0.43645792 3:0.88074597 
-1 0:1.1952286 4:1 2:0.43645792 3:0.87940744 
-1 0:-0.5976143 4:1 2:0.43645792 3:0.88178921 
-1 0:0 4:1 2:0.43645792 3:0.88144437 
-1 0:1.1952286 4:1 2:0.43645792 3:0.62674901 
-1 0:0.5976143 4:1 2:0.43645792 3:0.62681397 
1 0:0 4:1 2:0.43645792 3:0.62679369 
-1 0:0 4:1 2:0.43645792 3:0.62687585 
-1 0:1.7928429 4:1 2:0.43645792 3:0.3762903 
-1 0:0.5976143 4:1 2:0.43645792 3:0.88056033 
1 0:0 4:1 2:0.43645792 3:0.88142204 
-1 0:0 4:1 2:0.43645792 3:0.88117477 
-1 0:1.7928429 4:1 2:0.43645792 3:0.62668508 
-0.70737859115017 0:-0.5976143 4:1 2:0.43645792 3:0.62693748 
-1 0:0 4:1 2:0.43645792 3:0.62687534 
-1 0:0.5976143 4:1 2:0.43645792 3:0.3763654 
-1 0:-0.5976143 4:1 2:0.43645792 3:0.37642497 
-1 0:1.1952286 4:1 2:0.43645792 3:0.37633742 
1 0:0 4:1 2:0.43645792 3:0.37638428 
-1 0:0 4:1 2:0.43645792 3:0.37639596 
-1 0:0 4:1 2:0.43645792 3:0.37639519 
1 0:1.7928429 4:1 2:0.43645792 3:0.10181594 
1 0:1.1952286 4:1 2:0.43645792 3:0.10224461 
1 0:0 4:1 2:0.43645792 3:0.1022414 
1 0:0 4:1 2:0.43645792 3:0.10244386 
1 0:0 4:1 2:0.43645792 3:-0.12380252 
1 0:0 4:1 2:0.43645792 3:-0.379636 
-1 0:1.7928429 4:1 2:0.43645792 3:-0.379636 
-1 0:1.1952286 4:1 2:0.43645792 3:-0.379636 
-1 0:-0.5976143 4:1 2:0.43645792 3:-0.379636 
-1 0:0 4:1 2:0.43645792 3:-0.379636 
1 0:1.7928429 8:1 2:0.43645792 3:-0.55597194 
1 0:1.1952286 8:1 2:0.43645792 3:-0.554053 
1 0:0 8:1 2:0.43645792 3:-0.55346718 
1 0:0 8:1 2:0.43645792 3:-0.55254103 
-1 0:0.5976143 8:1 2:0.43645792 3:-0.69328204 
-1 0:1.1952286 8:1 2:0.43645792 3:-0.69341364 
-1 0:1.7928429 8:1 2:0.43645792 3:-0.69355396 
-1 0:-0.5976143 8:1 2:0.43645792 3:-0.69309833 
-1 0:0 8:1 2:0.43645792 3:-0.69315719 
-1 0:0.5976143 8:1 2:0.43645792 3:-0.80414004 
-1 0:1.1952286 8:1 2:0.43645792 3:-0.80414004 
-1 0:1.7928429 8:1 2:0.43645792 3:-0.80424198 
-0.8893372399005202 0:0 8:1 2:0.43645792 3:-0.80414004 
1 0:1.7928429 8:1 2:0.43645792 3:-0.60362027 
1 0:0 8:1 2:0.43645792 3:-0.60201573 
1 0:1.7928429 8:1 2:0.43645792 3:-0.68575782 
1 0:0.5976143 8:1 2:0.43645792 3:-0.67826183 
1 0:1.1952286 8:1 2:0.43645792 3:-0.68071562 
0.7830286627176078 0:-1.7928429 8:1 2:0.43645792 3:-0.67425589 
1 0:0 8:1 2:0.43645792 3:-0.67667656 
1 0:0 8:1 2:0.43645792 3:-0.67761215 
1 0:0 8:1 2:0.43645792 3:-0.67622843 
1 0:0 8:1 2:0.43645792 3:-0.68000682 
-1 0:1.7928429 8:1 2:0.43645792 3:-0.82149086 
-0.6305629399348569 0:-0.5976143 7:1 2:-1.3362327 3:-1.286511 
-0.2554235294265043 0:1.7928429 7:1 2:-1.3362327 3:-1.2865187 
-1 0:1.7928429 7:1 2:-1.3362327 3:-1.2865187 
-0.9777335263136765 0:1.7928429 7:1 2:-1.3362327 3:-1.2865187 
-0.19555967208402 0:-0.5976143 7:1 2:-1.3362327 3:-1.286511 
-0.2106640953965196 0:-1.1952286 7:1 2:-1.3362327 3:-1.286511 
1 0:1.7928429 6:1 2:1.3496622 3:1.9029874 
1 0:1.1952286 6:1 2:1.3496622 3:1.9088783 
-1 0:-0.5976143 6:1 2:1.3496622 3:1.9130318 
1 0:0 6:1 2:1.3496622 3:1.9110937 
-1 0:0 6:1 2:1.3496622 3:1.9125396 
1 0:0 6:1 2:1.3496622 3:1.9082305 
1 0:1.7928429 6:1 2:1.3496622 3:1.5739588 
-1 0:0.5976143 6:1 2:1.3496622 3:1.5762525 
1 0:0 6:1 2:1.3496622 3:1.5758979 
-1 0:0 6:1 2:1.3496622 3:1.5767424 
-1 0:1.1952286 6:1 2:1.3496622 3:1.2732888 
-1 0:0 6:1 2:1.3496622 3:1.2739079 
-1 0:1.1952286 6:1 2:1.3496622 3:0.97723299 
1 0:0 6:1 2:1.3496622 3:1.5754953 
-0.6401637451229163 0:0 6:1 2:1.3496622 3:1.5765722 
1 0:1.7928429 6:1 2:1.3496622 3:1.2723719 
-1 0:0.5976143 6:1 2:1.3496622 3:1.2736234 
1 0:0 6:1 2:1.3496622 3:1.2732603 
-1 0:1.7928429 6:1 2:1.3496622 3:0.97656719 
-1 0:0.5976143 6:1 2:1.3496622 3:0.97760427 
-1 0:0 6:1 2:1.3496622 3:0.97775191 
1 0:0 6:1 2:1.3496622 3:0.97728023 
-1 0:0 6:1 2:1.3496622 3:0.97778632 
-0.267823029479712 0:0.5976143 6:1 2:1.3496622 3:0.67523016 
1 0:0 6:1 2:1.3496622 3:0.67665624 
1 0:0 6:1 2:1.3496622 3:0.67605181 
-1 0:1.7928429 6:1 2:1.3496622 3:0.37363867 
-1 0:1.1952286 6:1 2:1.3496622 3:0.37370723 
1 0:0 6:1 2:1.3496622 3:0.37382983 
1 0:0 6:1 2:1.3496622 3:0.37386411 
1 0:1.7928429 6:1 2:1.3496622 3:1.7486459 
-1 0:-0.5976143 6:1 2:1.3496622 3:1.7518673 
-1 0:0.5976143 6:1 2:1.3496622 3:1.7509956 
1 0:1.1952286 6:1 2:1.3496622 3:1.7493695 
1 0:0 6:1 2:1.3496622 3:1.750339 
1 0:0 6:1 2:1.3496622 3:1.7506662 
-1 0:0 6:1 2:1.3496622 3:1.7516871 
-1 0:0.5976143 6:1 2:1.3496622 3:1.4854441 
-1 0:1.1952286 6:1 2:1.3496622 3:1.4841125 
1 0:1.7928429 6:1 2:1.3496622 3:1.4834506 
1 0:0 6:1 2:1.3496622 3:1.4848079 
1 0:0 6:1 2:1.3496622 3:1.485115 
1 0:1.7928429 6:1 2:1.3496622 3:1.1891156 
-1 0:0 6:1 2:1.3496622 3:1.4857445 
-1 0:1.1952286 6:1 2:1.3496622 3:1.1904033 
-1 0:0 6:1 2:1.3496622 3:1.4858876 
-1 0:-0.5976143 6:1 2:1.3496622 3:1.1904033 
-1 0:0.5976143 6:1 2:1.3496622 3:1.1904033 
1 0:0 6:1 2:1.3496622 3:1.1904033 
-1 0:1.7928429 6:1 2:1.3496622 3:0.78979099 
1 0:0 6:1 2:1.3496622 3:1.1897593 
-1 0:0 6:1 2:1.3496622 3:1.1904033 
-1 0:0 6:1 2:1.3496622 3:1.1904033 
-1 0:1.1952286 6:1 2:1.3496622 3:0.7899091 
-1 0:0.5976143 6:1 2:1.3496622 3:0.7899091 
-0.8791072233342669 0:-0.5976143 6:1 2:1.3496622 3:0.7899091 
1 0:0 6:1 2:1.3496622 3:0.78985004 
-1 0:0 6:1 2:1.3496622 3:0.7899091 
-1 0:0 6:1 2:1.3496622 3:0.7899091 
1 0:1.7928429 6:1 2:1.3496622 3:0.49935704 
1 0:0 6:1 2:1.3496622 3:0.50038025 
1 0:0 6:1 2:1.3496622 3:0.50003105 
1 0:0 5:1 2:-1.3362327 3:-1.1772313 
1 0:0 5:1 2:-1.3362327 3:-1.1772313 
-1 0:-0.5976143 5:1 2:-1.3362327 3:-1.286511 
1 0:0 5:1 2:-1.3362327 3:-1.1772313 
-1 0:1.7928429 5:1 2:-1.3362327 3:-1.2865187 
-0.4258232649812599 0:-1.1952286 5:1 2:-1.3362327 3:-1.286511 
-1 0:1.7928429 5:1 2:-1.3362327 3:-1.2865187 
-1 0:-0.5976143 5:1 2:-1.3362327 3:-1.286511 
-0.3197640741247377 0:-1.1952286 5:1 2:-1.3362327 3:-1.286511 
0.00265813954339588 0:1.7928429 1:1 2:-1.3362327 3:-1.0787787 
-1 0:-0.5976143 1:1 2:-1.3362327 3:-1.0778555 
1 0:0 1:1 2:-1.3362327 3:-1.0782848 
-0.439497436681471 0:-0.5976143 1:1 2:-1.3362327 3:-1.0778555 
1 0:0 1:1 2:-1.3362327 3:-1.0782848 
1 0:0 1:1 2:-1.3362327 3:-1.0782848 
1 0:0 1:1 2:-1.3362327 3:-1.0782848 
1 0:0 1:1 2:-1.3362327 3:-1.0782848 
-0.9519576413442276 0:0 1:1 2:-1.3362327 3:-1.0779023 
-0.222212512316788 0:0 1:1 2:-1.3362327 3:-1.0779023 
1 0:0 1:1 2:-1.3362327 3:-1.0782848 
1 0:0 1:1 2:-1.3362327 3:-1.0782848 
-0.003367891416439544 0:1.7928429 9:1 2:-1.3362327 3:-1.1772503 
-0.3701921134695175 0:-1.7928429 9:1 2:-1.3362327 3:-1.1772123 
0.2726184391638444 0:0 9:1 2:-1.3362327 3:-1.1772313 
1 0:0 1:1 2:-1.3362327 3:-1.0782848 
1 0:0 1:1 2:-1.3362327 3:-1.0782848 
1 0:0 1:1 2:-1.3362327 3:-1.0782848 
1 0:0 1:1 2:-1.3362327 3:-1.0782848 
-1 0:1.1952286 1:1 2:-1.3362327 3:-1.286511 
-1 0:-0.5976143 1:1 2:-1.3362327 3:-1.286511 
-1 0:0.5976143 1:1 2:-1.3362327 3:-1.286511 
-1 0:1.7928429 1:1 2:-1.3362327 3:-1.2865187 
-1 0:0 1:1 2:-1.3362327 3:-1.2865149 
-1 0:0 1:1 2:-1.3362327 3:-1.286511 
-1 0:1.1952286 1:1 2:-1.3362327 3:-1.286511 
-1 0:0 1:1 2:-1.3362327 3:-1.286511 
-1 0:1.7928429 1:1 2:-1.3362327 3:-1.2865187 
-1 0:0 1:1 2:-1.3362327 3:-1.286511 
-1 0:0.5976143 1:1 2:-1.3362327 3:-1.286511 
-1 0:-0.5976143 1:1 2:-1.3362327 3:-1.286511 
-1 0:0 1:1 2:-1.3362327 3:-1.286511 
-1 0:0 1:1 2:-1.3362327 3:-1.2865149 
-1 0:0 1:1 2:-1.3362327 3:-1.286511 
1 0:0 1:1 2:-1.3362327 3:-1.0782848 
1 0:0 1:1 2:-1.3362327 3:-1.0782848 
1 0:0 1:1 2:-1.3362327 3:-1.0782848 
0.5024669173479286 0:1.7928429 1:1 2:-1.3362327 3:-1.0787787 
1 0:0 1:1 2:-1.3362327 3:-1.0782848 
1 0:1.7928429 1:1 2:-1.3362327 3:-1.0787787 
1 0:0 1:1 2:-1.3362327 3:-1.0782848 
1 0:1.7928429 1:1 2:-1.3362327 3:-1.0787787 
-0.4922046758793641 0:-0.5976143 1:1 2:-1.3362327 3:-1.0778555 
1 0:0 1:1 2:-1.3362327 3:-1.0782848 
-0.0583755603408571 0:0 1:1 2:-1.3362327 3:-1.0779023 
-1 0:-0.5976143 4:1 2:1.3496622 3:0.97884292 
1 0:0 4:1 2:1.3496622 3:0.97825543 
-1 0:0 4:1 2:1.3496622 3:0.97870863 
-1 0:1.1952286 4:1 2:1.3496622 3:0.67760037 
-1 0:-0.5976143 4:1 2:1.3496622 3:0.6776204 
-1 0:1.7928429 4:1 2:1.3496622 3:0.37733059 
1 0:1.7928429 4:1 2:1.3496622 3:0.97637642 
-1 0:0.5976143 4:1 2:1.3496622 3:0.97836507 
1 0:0 4:1 2:1.3496622 3:0.97772393 
-1 0:0 4:1 2:1.3496622 3:0.97860412 
-1 0:0.5976143 4:1 2:1.3496622 3:0.67766046 
1 0:0 4:1 2:1.3496622 3:0.67763555 
-1 0:0 4:1 2:1.3496622 3:0.67754774 
-1 0:0 4:1 2:1.3496622 3:0.67764043 
-1 0:1.1952286 4:1 2:1.3496622 3:0.37738143 
-1 0:0.5976143 4:1 2:1.3496622 3:0.37741096 
1 0:0 4:1 2:1.3496622 3:0.37742855 
-1 0:0 4:1 2:1.3496622 3:0.377441 
-1 0:0 4:1 2:1.3496622 3:0.37744036 
1 0:1.7928429 4:1 2:1.3496622 3:0.057839637 
1 0:1.1952286 4:1 2:1.3496622 3:0.058301432 
1 0:0 4:1 2:1.3496622 3:0.058417362 
1 0:0 4:1 2:1.3496622 3:0.058196928 
1 0:1.7928429 4:1 2:1.3496622 3:-0.23497672 
1 0:0 4:1 2:1.3496622 3:-0.23470493 
-0.3498917016675087 0:-1.1952286 4:1 2:1.3496622 3:-0.23443315 
1 0:1.1952286 4:1 2:1.3496622 3:-0.54025346 
1 0:1.7928429 4:1 2:1.3496622 3:-0.53861413 
1 0:0.5976143 4:1 2:1.3496622 3:-0.53884637 
1 0:0 4:1 2:1.3496622 3:-0.53650222 
1 0:0 4:1 2:1.3496622 3:-0.53814938 
-0.160800227646652 0:1.7928429 6:1 2:-1.3362327 3:-1.1772503 
-0.03241350068480129 0:-1.1952286 6:1 2:-1.3362327 3:-1.1772123 
-0.000296788998229636 0:-1.1952286 6:1 2:-1.3362327 3:-1.1772123 
-9.714229859610948e-05 0:1.7928429 6:1 2:-1.3362327 3:-1.1772503 
-4.977928710165439e-06 0:0 6:1 2:-1.3362327 3:-1.1772123 
-0.004308323160095147 0:1.7928429 6:1 2:-1.3362327 3:-1.1772503 
-0.0147442152497839 0:-1.1952286 6:1 2:-1.3362327 3:-1.1772123 
-1 0:1.1952286 4:1 2:1.3496622 3:0.6447101 
-1 0:-0.5976143 4:1 2:1.3496622 3:0.64477275 
-1 0:0 4:1 2:1.3496622 3:0.64476916 
1 0:1.1952286 4:1 2:1.3496622 3:0.51490863 
1 0:0 4:1 2:1.3496622 3:0.51522548 
0.3215307118360063 0:1.7928429 4:1 2:1.3496622 3:0.034828077 
-1 0:0.5976143 4:1 2:1.3496622 3:0.6446721 
1 0:0 4:1 2:1.3496622 3:0.64459789 
-1 0:0 4:1 2:1.3496622 3:0.64472242 
1 0:1.7928429 4:1 2:1.3496622 3:0.51420483 
1 0:0 4:1 2:1.3496622 3:0.51487859 
1 0:0 4:1 2:1.3496622 3:0.03512567 
1 0:0 4:1 2:1.3496622 3:0.034990354 
-1 0:1.1952286 4:1 2:1.3496622 3:-0.20245119 
-1 0:1.7928429 4:1 2:1.3496622 3:-0.20310787 
1 0:0 4:1 2:1.3496622 3:-0.19956346 
1 0:1.7928429 4:1 2:1.3496622 3:1.4426329 
1 0:1.1952286 4:1 2:1.3496622 3:1.4459724 
1 0:0 4:1 2:1.3496622 3:1.4460767 
1 0:0 4:1 2:1.3496622 3:1.4477467 
1 0:1.7928429 4:1 2:1.3496622 3:1.1466836 
1 0:1.1952286 4:1 2:1.3496622 3:1.145798 
1 0:0 4:1 2:1.3496622 3:1.1475787 
1 0:0 4:1 2:1.3496622 3:1.1471358 
-1 0:0.5976143 4:1 2:1.3496622 3:0.84732676 
1 0:1.7928429 4:1 2:1.3496622 3:0.84483252 
1 0:0 4:1 2:1.3496622 3:0.84626451 
-1 0:1.1952286 4:1 2:1.3496622 3:0.53751231 
1 0:0 4:1 2:1.3496622 3:0.84710209 
-1 0:1.7928429 4:1 2:1.3496622 3:0.53718314 
-0.2475885646288275 0:0 4:1 2:1.3496622 3:0.84746926 
-1 0:0.5976143 4:1 2:1.3496622 3:0.53664855 
1 0:0 4:1 2:1.3496622 3:0.53755981 
-1 0:0 4:1 2:1.3496622 3:0.53705604 
-1 0:1.1952286 4:1 2:1.3496622 3:0.23465291 
-0.6380264674849568 0:-0.5976143 4:1 2:1.3496622 3:0.23454045 
-1 0:0 4:1 2:1.3496622 3:0.53711612 
-1 0:0.5976143 4:1 2:1.3496622 3:0.23489761 
-1 0:1.7928429 4:1 2:1.3496622 3:0.23423618 
1 0:0 4:1 2:1.3496622 3:0.23463006 
-1 0:1.7928429 4:1 2:1.3496622 3:-0.068572643 
-1 0:0.5976143 4:1 2:1.3496622 3:-0.06802971 
-1 0:1.1952286 4:1 2:1.3496622 3:-0.068292639 
-1 0:-0.5976143 4:1 2:1.3496622 3:-0.067759206 
-1 0:0 4:1 2:1.3496622 3:-0.067869231 
-1 0:0 4:1 2:1.3496622 3:-0.067894522 
-1 0:1.1952286 8:1 2:1.3496622 3:-0.17405292 
-0.166555361904601 0:-1.1952286 8:1 2:1.3496622 3:-0.17255122 
-1 0:1.7928429 8:1 2:1.3496622 3:-0.17523815 
-1 0:-0.5976143 8:1 2:1.3496622 3:-0.17286691 
-0.4480045880395688 0:0.5976143 8:1 2:1.3496622 3:-0.17350023 
1 0:0 8:1 2:1.3496622 3:-0.17373311 
-1 0:1.1952286 8:1 2:1.3496622 3:-0.4716011 
-1 0:-0.5976143 8:1 2:1.3496622 3:-0.47139351 
-1 0:0.5976143 8:1 2:1.3496622 3:-0.47146142 
-1 0:1.7928429 8:1 2:1.3496622 3:-0.47199421 
-1 0:0 8:1 2:1.3496622 3:-0.47139351 
1 0:0.5976143 8:1 2:1.3496622 3:-0.67141682 
-1 0:0 8:1 2:1.3496622 3:-0.47142753 
1 0:1.1952286 8:1 2:1.3496622 3:-0.67207543 
1 0:0 8:1 2:1.3496622 3:-0.67293258 
1 0:0 8:1 2:1.3496622 3:-0.67159347 
1 0:1.7928429 8:1 2:1.3496622 3:-0.23774813 
1 0:0 8:1 2:1.3496622 3:-0.23740586 
1 0:1.1952286 8:1 2:1.3496622 3:-0.23765531 
1 0:0 8:1 2:1.3496622 3:-0.23737056 
1 0:1.7928429 8:1 2:1.3496622 3:-0.42148653 
0.469953118373878 0:1.1952286 8:1 2:1.3496622 3:-0.42133478 
1 0:0 8:1 2:1.3496622 3:-0.42131206 
-1 0:1.7928429 8:1 2:1.3496622 3:-0.58098436 
-1 0:0.5976143 8:1 2:1.3496622 3:-0.58098436 
-1 0:1.1952286 8:1 2:1.3496622 3:-0.58098436 
-1 0:-0.5976143 8:1 2:1.3496622 3:-0.58098436 
-1 0:0 8:1 2:1.3496622 3:-0.58098436 
-0.2959514376067086 0:0 8:1 2:1.3496622 3:-0.58098436 
-1 0:0.5976143 7:1 2:1.3496622 3:0.0069981616 
-0.483947649133472 0:-0.5976143 7:1 2:1.3496622 3:0.007091753 
1 0:0 7:1 2:1.3496622 3:0.0069326861 
-1 0:0 7:1 2:1.3496622 3:0.0070819959 
1 0:0 7:1 2:1.3496622 3:-0.1457675 
1 0:1.7928429 7:1 2:1.3496622 3:0.71051221 
-1 0:0.5976143 7:1 2:1.3496622 3:0.71393671 
-1 0:-0.5976143 7:1 2:1.3496622 3:0.71439735 
-0.3169817467929482 0:0 7:1 2:1.3496622 3:0.71416703 
-0.1278008611845435 0:-1.1952286 7:1 2:1.3496622 3:0.71447361 
1 0:0 7:1 2:1.3496622 3:0.71371846 
1 0:0 7:1 2:1.3496622 3:0.71245645 
-1 0:0 7:1 2:1.3496622 3:0.71423687 
-0.1500176187546879 0:1.7928429 7:1 2:1.3496622 3:0.42790683 
-1 0:0.5976143 7:1 2:1.3496622 3:0.42781734 
-1 0:1.1952286 7:1 2:1.3496622 3:0.4283147 
-1 0:-0.5976143 7:1 2:1.3496622 3:0.4283269 
-1 0:0 7:1 2:1.3496622 3:0.42815627 
1 0:0 7:1 2:1.3496622 3:0.42816051 
-1 0:0 7:1 2:1.3496622 3:0.42807218 
-1 0:1.7928429 7:1 2:1.3496622 3:0.13850546 
-1 0:1.1952286 7:1 2:1.3496622 3:0.13886455 
-1 0:-0.5976143 7:1 2:1.3496622 3:0.13887739 
1 0:0 7:1 2:1.3496622 3:0.13874272 
-1 0:0.5976143 7:1 2:1.3496622 3:0.13897766 
-1 0:0 7:1 2:1.3496622 3:0.13892746 
-1 0:0 7:1 2:1.3496622 3:0.13869932 
-1 0:1.1952286 7:1 2:1.3496622 3:-0.15143344 
1 0:0 7:1 2:1.3496622 3:-0.15132727 
-0.2933983320605693 0:1.7928429 6:1 2:-1.3362327 3:-1.1772503 
-1 0:1.7928429 6:1 2:-1.3362327 3:-1.1772503 
-0.6102114549518068 0:-1.1952286 6:1 2:-1.3362327 3:-1.1772123 
1 0:0 4:1 2:-1.3362327 3:-1.1772313 
1 0:0 4:1 2:-1.3362327 3:-1.1772313 
1 0:0 4:1 2:-1.3362327 3:-1.1772313 
0.4555343252161673 0:0 4:1 2:-1.3362327 3:-1.1772313 
1 0:1.7928429 7:1 2:1.3496622 3:0.30656607 
1 0:0 7:1 2:1.3496622 3:0.30669343 
-1 0:0 7:1 2:1.3496622 3:0.30672694 
1 0:0 7:1 2:1.3496622 3:0.30671294 
1 0:1.7928429 7:1 2:1.3496622 3:0.026838396 
1 0:1.1952286 7:1 2:1.3496622 3:0.03092548 
1 0:0 7:1 2:1.3496622 3:0.033401481 
1 0:0 7:1 2:1.3496622 3:0.031477015 
1 0:1.7928429 7:1 2:1.3496622 3:-0.16524441 
1 0:1.1952286 7:1 2:1.3496622 3:-0.16249816 
1 0:0 7:1 2:1.3496622 3:-0.16172401 
-0.9668333263351352 0:1.7928429 7:1 2:1.3496622 3:-0.42632646 
1 0:0 7:1 2:1.3496622 3:-0.16054083 
1 0:0 7:1 2:1.3496622 3:-0.42615288 
1 0:1.7928429 5:1 2:1.3496622 3:1.1891156 
-1 0:0.5976143 5:1 2:1.3496622 3:1.1904033 
-1 0:-0.5976143 5:1 2:1.3496622 3:1.1904033 
-1 0:0 5:1 2:1.3496622 3:1.1904033 
1 0:0 5:1 2:1.3496622 3:1.1904033 
1 0:0 5:1 2:1.3496622 3:1.1897593 
-1 0:0 5:1 2:1.3496622 3:1.1904033 
-1 0:1.7928429 5:1 2:1.3496622 3:0.78979099 
-1 0:0.5976143 5:1 2:1.3496622 3:0.7899091 
-1 0:1.1952286 5:1 2:1.3496622 3:0.7899091 
-1 0:-0.5976143 5:1 2:1.3496622 3:0.7899091 
1 0:0 5:1 2:1.3496622 3:0.78985004 
-1 0:0 5:1 2:1.3496622 3:0.7899091 
-1 0:0 5:1 2:1.3496622 3:0.7899091 
1 0:1.1952286 5:1 2:1.3496622 3:0.50006571 
1 0:1.7928429 5:1 2:1.3496622 3:0.49935704 
1 0:0 5:1 2:1.3496622 3:0.50003105 
1 0:0 5:1 2:1.3496622 3:0.50038025 
1 0:1.1952286 5:1 2:1.3496622 3:0.211334 
1 0:0.5976143 5:1 2:1.3496622 3:0.21258433 
1 0:1.7928429 5:1 2:1.3496622 3:0.20696768 
1 0:0 5:1 2:1.3496622 3:0.21047422 
1 0:0 5:1 2:1.3496622 3:0.21315563 
1 0:0 5:1 2:1.3496622 3:0.21255608 
-1 0:1.7928429 5:1 2:1.3496622 3:-0.070099506 
-1 0:1.1952286 5:1 2:1.3496622 3:-0.070270128 
-1 0:0.5976143 5:1 2:1.3496622 3:-0.070099506 
-1 0:-0.5976143 5:1 2:1.3496622 3:-0.070099506 
-0.1955970640273444 0:0 5:1 2:1.3496622 3:-0.070099506 
1 0:0 5:1 2:1.3496622 3:-0.070099506 
-1 0:0 5:1 2:1.3496622 3:-0.070099506 
-1 0:1.7928429 4:1 2:-1.3362327 3:-1.2865187 
-1 0:-0.5976143 4:1 2:-1.3362327 3:-1.286511 
-0.5629900506553195 0:-1.1952286 4:1 2:-1.3362327 3:-1.286511 
-0.1802037524806961 0:0 4:1 2:-1.3362327 3:-1.286511 
-1 0:1.7928429 4:1 2:-1.3362327 3:-1.2865187 
-1 0:0 4:1 2:-1.3362327 3:-1.286511 
-1 0:-0.5976143 4:1 2:-1.3362327 3:-1.286511 
-0.7416400539284416 0:-1.1952286 4:1 2:-1.3362327 3:-1.286511 
-1 0:0 4:1 2:-1.3362327 3:-1.286511 
0.3259499762883327 0:1.1952286 4:1 2:-1.3362327 3:-1.1772271 
0.8904535907865617 0:0 4:1 2:-1.3362327 3:-1.1772313 
-0.006988148383126145 0:1.7928429 8:1 2:-1.3362327 3:-1.2865187 
-0.1331627771535018 0:-1.1952286 8:1 2:-1.3362327 3:-1.286511 
-0.5911025004572413 0:1.7928429 8:1 2:-1.3362327 3:-1.2865187 
-1 0:1.7928429 8:1 2:-1.3362327 3:-1.2865187 
1 0:1.1952286 9:1 2:1.3496622 3:1.9088783 
1 0:1.7928429 9:1 2:1.3496622 3:1.9029874 
-0.9161685919025078 0:0.5976143 9:1 2:1.3496622 3:1.9118825 
1 0:0 9:1 2:1.3496622 3:1.9082305 
-1 0:-0.5976143 9:1 2:1.3496622 3:1.9130318 
1 0:0 9:1 2:1.3496622 3:1.9110937 
-1 0:0 9:1 2:1.3496622 3:1.9125396 
1 0:1.7928429 9:1 2:1.3496622 3:1.2723719 
-1 0:1.1952286 9:1 2:1.3496622 3:1.2732888 
-0.9586504526204097 0:-0.5976143 9:1 2:1.3496622 3:1.2740371 
1 0:0 9:1 2:1.3496622 3:1.2732603 
-1 0:0.5976143 9:1 2:1.3496622 3:1.2736234 
-1 0:0 9:1 2:1.3496622 3:1.2738304 
1 0:1.1952286 1:1 2:1.3496622 3:3.0686162 
-1 0:-1.1952286 1:1 2:1.3496622 3:3.0850883 
1 0:0 1:1 2:1.3496622 3:3.0250116 
1 0:0 1:1 2:1.3496622 3:3.0838281 
1 0:1.7928429 1:1 2:1.3496622 3:2.7218898 
-0.2145681967302489 0:0.5976143 1:1 2:1.3496622 3:2.7472573 
1 0:1.7928429 1:1 2:1.3496622 3:2.9647064 
1 0:0.5976143 1:1 2:1.3496622 3:3.0827112 
-1 0:-0.5976143 1:1 2:1.3496622 3:3.0849451 
1 0:0 1:1 2:1.3496622 3:3.0768523 
-1 0:0 1:1 2:1.3496622 3:3.0841193 
1 0:1.1952286 1:1 2:1.3496622 3:2.7421538 
-1 0:-0.5976143 1:1 2:1.3496622 3:2.748575 
-1 0:-1.1952286 1:1 2:1.3496622 3:2.7486346 
1 0:0 1:1 2:1.3496622 3:2.7353521 
1 0:0 1:1 2:1.3496622 3:2.7453942 
-1 0:0 1:1 2:1.3496622 3:2.7481165 
1 0:1.7928429 1:1 2:1.3496622 3:2.3881216 
-1 0:0 1:1 2:1.3496622 3:2.7479162 
-1 0:0.5976143 1:1 2:1.3496622 3:2.3911052 
1 0:1.1952286 1:1 2:1.3496622 3:2.3890673 
-1 0:-0.5976143 1:1 2:1.3496622 3:2.3919862 
1 0:0 1:1 2:1.3496622 3:2.3901113 
1 0:0 1:1 2:1.3496622 3:2.3905203 
1 0:1.7928429 1:1 2:1.3496622 3:2.0523331 
-1 0:0 1:1 2:1.3496622 3:2.3915456 
-1 0:1.1952286 1:1 2:1.3496622 3:2.0549781 
-1 0:0 1:1 2:1.3496622 3:2.3916683 
-1 0:-0.5976143 1:1 2:1.3496622 3:2.0554921 
-1 0:0.5976143 1:1 2:1.3496622 3:2.0553828 
1 0:0 1:1 2:1.3496622 3:2.055223 
0.9295268291162715 0:1.7928429 1:1 2:1.3496622 3:1.7164843 
1 0:0 1:1 2:1.3496622 3:2.0539428 
-1 0:0 1:1 2:1.3496622 3:2.0552967 
-1 0:0 1:1 2:1.3496622 3:2.0554374 
-1 0:1.1952286 1:1 2:1.3496622 3:1.7176935 
-1 0:0.5976143 1:1 2:1.3496622 3:1.7189344 
-1 0:-0.5976143 1:1 2:1.3496622 3:1.7189835 
-1 0:0 1:1 2:1.3496622 3:1.7189591 
-1 0:1.1952286 1:1 2:1.3496622 3:1.4084447 
1 0:0 1:1 2:1.3496622 3:1.7177435 
-1 0:1.7928429 1:1 2:1.3496622 3:1.4081699 
-1 0:0 1:1 2:1.3496622 3:1.7188207 
-1 0:0.5976143 1:1 2:1.3496622 3:1.4084447 
-1 0:1.7928429 1:1 2:1.3496622 3:1.0718949 
1 0:0 1:1 2:1.3496622 3:1.4083073 
-1 0:0 1:1 2:1.3496622 3:1.4084447 
-1 0:0 1:1 2:1.3496622 3:1.4084447 
-1 0:1.1952286 1:1 2:1.3496622 3:1.0718949 
-1 0:0.5976143 1:1 2:1.3496622 3:1.0718949 
1 0:0 1:1 2:1.3496622 3:1.0718949 
1 0:0 1:1 2:1.3496622 3:1.0718949 
1 0:1.7928429 1:1 2:1.3496622 3:1.8642582 
1 0:1.1952286 1:1 2:1.3496622 3:1.8667167 
-1 0:0.5976143 1:1 2:1.3496622 3:1.8655438 
-0.02659903739095414 0:-0.5976143 1:1 2:1.3496622 3:1.8667167 
1 0:-1.7928429 1:1 2:1.3496622 3:1.8667167 
1 0:0 1:1 2:1.3496622 3:1.8654876 
1 0:0 1:1 2:1.3496622 3:1.8667167 
-1 0:0 1:1 2:1.3496622 3:1.8667167 
1 0:1.7928429 1:1 2:1.3496622 3:1.5407458 
-1 0:1.1952286 1:1 2:1.3496622 3:1.5473557 
-1 0:0.5976143 1:1 2:1.3496622 3:1.5473876 
1 0:0 1:1 2:1.3496622 3:1.5440665 
1 0:0 1:1 2:1.3496622 3:1.5473716 
-1 0:0 1:1 2:1.3496622 3:1.5473876 
-1 0:0 1:1 2:1.3496622 3:1.5473876 
1 0:1.7928429 1:1 2:1.3496622 3:1.2578341 
-1 0:1.1952286 1:1 2:1.3496622 3:1.2613058 
-1 0:0.5976143 1:1 2:1.3496622 3:1.2613202 
1 0:0 1:1 2:1.3496622 3:1.2595772 
1 0:0 1:1 2:1.3496622 3:1.261313 
-1 0:0 1:1 2:1.3496622 3:1.2613202 
-1 0:1.1952286 1:1 2:1.3496622 3:0.94496383 
-1 0:0.5976143 1:1 2:1.3496622 3:0.94496383 
1 0:0 1:1 2:1.3496622 3:0.94496383 
1 0:0 1:1 2:1.3496622 3:0.94496383 
-0.6142116053851193 0:1.7928429 1:1 2:1.3496622 3:0.62187815 
-1 0:-1.7928429 1:1 2:1.3496622 3:0.62187815 
1 0:0 1:1 2:1.3496622 3:0.62187815 
1 0:0 1:1 2:1.3496622 3:0.62187815 
-1 0:1.7928429 1:1 2:1.3496622 3:0.39638871 
-1 0:-1.1952286 1:1 2:1.3496622 3:0.39638871 
-1 0:-1.7928429 1:1 2:1.3496622 3:0.39638871 
1 0:0 1:1 2:1.3496622 3:0.39638871 
1 0:0 1:1 2:1.3496622 3:0.39638871 
