svm_type epsilon_svr
kernel_type rbf
gamma 0.1
nr_class 2
total_sv 823
rho -1.74343
SV
-1 0:0 1:1 2:1.3496622 3:1.2606244 
-1 0:-1.7928429 1:1 2:1.3496622 3:0.94437253 
-1 0:1.7928429 4:1 2:-0.44988739 3:-0.70896445 
0.7974475438796718 0:-0.5976143 1:1 2:1.3496622 3:0.94437253 
-1 0:0 1:1 2:1.3496622 3:0.94437253 
-1 0:1.7928429 8:1 2:-0.44988739 3:-0.18378222 
0.4779547404012977 0:0 8:1 2:-0.44988739 3:-0.18253513 
-1 0:1.7928429 8:1 2:-0.44988739 3:-0.34134434 
-1 0:1.1952286 8:1 2:-0.44988739 3:-0.34112962 
-1 0:-1.1952286 8:1 2:-0.44988739 3:-0.34093621 
-1 0:-0.5976143 8:1 2:-0.44988739 3:-0.34100513 
-1 0:-1.7928429 8:1 2:-0.44988739 3:-0.34093621 
-1 0:0 8:1 2:-0.44988739 3:-0.34114027 
-1 0:0 8:1 2:-0.44988739 3:-0.34103285 
-1 0:1.7928429 8:1 2:-0.44988739 3:-0.56176503 
1 0:-0.5976143 8:1 2:-0.44988739 3:-0.55990254 
-1 0:0.5976143 8:1 2:-0.44988739 3:-0.70771261 
-1 0:1.1952286 8:1 2:-0.44988739 3:-0.70810489 
-1 0:1.7928429 8:1 2:-0.44988739 3:-0.70896445 
-1 0:-0.5976143 8:1 2:-0.44988739 3:-0.70767995 
-1 0:-1.1952286 8:1 2:-0.44988739 3:-0.70767995 
-1 0:-1.7928429 8:1 2:-0.44988739 3:-0.70767995 
-1 0:0 8:1 2:-0.44988739 3:-0.70789242 
-1 0:1.7928429 8:1 2:-0.44988739 3:-0.5626792 
-1 0:0 8:1 2:-0.44988739 3:-0.70832217 
-1 0:0 8:1 2:-0.44988739 3:-0.70767995 
-1 0:0 8:1 2:-0.44988739 3:-0.70769625 
-1 0:1.1952286 8:1 2:-0.44988739 3:-0.56222795 
-1 0:0 8:1 2:-0.44988739 3:-0.56217405 
-1 0:0 8:1 2:-0.44988739 3:-0.56194843 
-1 0:-1.7928429 8:1 2:-0.44988739 3:-0.5616689 
-1 0:1.7928429 8:1 2:-0.44988739 3:-0.71992663 
-1 0:1.1952286 8:1 2:-0.44988739 3:-0.71944721 
-1 0:0.5976143 8:1 2:-0.44988739 3:-0.71914612 
-1 0:-1.1952286 8:1 2:-0.44988739 3:-0.71886551 
-1 0:0 8:1 2:-0.44988739 3:-0.71939607 
-1 0:0 8:1 2:-0.44988739 3:-0.71902298 
-1 0:-0.5976143 8:1 2:-0.44988739 3:-0.71889984 
-1 0:-1.7928429 8:1 2:-0.44988739 3:-0.71886551 
-1 0:0 8:1 2:-0.44988739 3:-0.71898358 
-1 0:0 8:1 2:-0.44988739 3:-0.71915633 
0.2988937015387784 0:-0.5976143 6:1 2:-0.44988739 3:0.2973083 
1 0:0 6:1 2:-0.44988739 3:0.29729328 
-1 0:0 6:1 2:-0.44988739 3:0.041094345 
-1 0:1.7928429 6:1 2:-0.44988739 3:-0.19383709 
-0.2054007929595153 0:0.5976143 6:1 2:-0.44988739 3:-0.19381052 
-1 0:-1.7928429 6:1 2:-0.44988739 3:-0.19381052 
-1 0:1.1952286 6:1 2:-0.44988739 3:-0.19381052 
-0.4724983854411448 0:-1.1952286 6:1 2:-0.44988739 3:-0.19381052 
-1 0:-0.5976143 6:1 2:-0.44988739 3:-0.19381052 
-1 0:0 6:1 2:-0.44988739 3:-0.19382374 
-1 0:0 6:1 2:-0.44988739 3:-0.19381052 
-1 0:1.7928429 6:1 2:-0.44988739 3:-0.38854659 
-1 0:0 6:1 2:-0.44988739 3:-0.19381052 
-1 0:1.1952286 6:1 2:-0.44988739 3:-0.38837128 
-1 0:0.5976143 6:1 2:-0.44988739 3:-0.38832187 
-1 0:-0.5976143 6:1 2:-0.44988739 3:-0.38867814 
-1 0:-1.1952286 6:1 2:-0.44988739 3:-0.38839246 
-1 0:0 6:1 2:-0.44988739 3:-0.38837757 
-1 0:-1.7928429 6:1 2:-0.44988739 3:-0.38820842 
-1 0:0 6:1 2:-0.44988739 3:-0.38838193 
-1 0:0.5976143 6:1 2:-0.44988739 3:-0.51436025 
-1 0:0 6:1 2:-0.44988739 3:-0.38850001 
-1 0:1.1952286 6:1 2:-0.44988739 3:-0.51439593 
-1 0:1.7928429 6:1 2:-0.44988739 3:-0.51441877 
-1 0:-0.5976143 6:1 2:-0.44988739 3:-0.51436025 
-1 0:-1.1952286 6:1 2:-0.44988739 3:-0.51436025 
-1 0:0 6:1 2:-0.44988739 3:-0.51438951 
-1 0:-1.7928429 6:1 2:-0.44988739 3:-0.51436025 
-1 0:0 6:1 2:-0.44988739 3:-0.51436025 
-1 0:0 6:1 2:-0.44988739 3:-0.51437809 
-1 0:0 6:1 2:-0.44988739 3:-0.51436025 
-1 0:1.7928429 7:1 2:-0.44988739 3:0.80583977 
-1 0:-1.7928429 7:1 2:-0.44988739 3:0.80744275 
-1 0:1.7928429 7:1 2:-0.44988739 3:0.47313257 
-1 0:0 7:1 2:-0.44988739 3:0.80664139 
-1 0:0 7:1 2:-0.44988739 3:0.8073524 
-0.9549060476806098 0:1.1952286 7:1 2:-0.44988739 3:0.47313257 
-0.1215558919972026 0:-1.1952286 7:1 2:-0.44988739 3:0.47313257 
-1 0:0 7:1 2:-0.44988739 3:0.47313257 
-1 0:-1.7928429 7:1 2:-0.44988739 3:0.47313257 
-1 0:0 7:1 2:-0.44988739 3:0.47313257 
1 0:1.7928429 4:1 2:-1.3362327 3:-1.2863652 
-1 0:0 9:1 2:-1.3362327 3:-1.1771026 
-0.01253963699839492 0:0 1:1 2:-0.44988739 3:0.78784432 
-0.901351282667663 0:0 1:1 2:-0.44988739 3:0.78784432 
-0.8582350286809366 0:0 1:1 2:-0.44988739 3:0.78784432 
-0.7017461475619999 0:-1.7928429 1:1 2:-0.44988739 3:0.35355641 
-1 0:0 1:1 2:-0.44988739 3:0.35355641 
-1 0:1.7928429 1:1 2:-0.44988739 3:0.10459257 
-1 0:0 1:1 2:-0.44988739 3:0.10459257 
-1 0:1.7928429 1:1 2:-0.44988739 3:-0.070355517 
-1 0:0.5976143 1:1 2:-0.44988739 3:-0.070355517 
-1 0:-1.7928429 1:1 2:-0.44988739 3:-0.070355517 
-1 0:0 1:1 2:-0.44988739 3:-0.070355517 
-0.5873356959704533 0:0 1:1 2:-0.44988739 3:-0.070355517 
-1 0:0 1:1 2:-0.44988739 3:0.35355641 
-1 0:1.1952286 8:1 2:-0.44988739 3:-0.44100865 
-1 0:-1.7928429 1:1 2:-0.44988739 3:0.35355641 
-1 0:1.7928429 8:1 2:-0.44988739 3:-0.4411103 
-1 0:-1.7928429 8:1 2:-0.44988739 3:-0.44095449 
-1 0:1.1952286 8:1 2:-0.44988739 3:-0.57825427 
-1 0:0 8:1 2:-0.44988739 3:-0.44103239 
-1 0:1.7928429 8:1 2:-0.44988739 3:-0.57825427 
-1 0:-0.5976143 8:1 2:-0.44988739 3:-0.57825427 
-1 0:-1.7928429 8:1 2:-0.44988739 3:-0.57825427 
-1 0:-1.1952286 8:1 2:-0.44988739 3:-0.57825427 
-1 0:0 8:1 2:-0.44988739 3:-0.57825427 
-1 0:0 8:1 2:-0.44988739 3:-0.57825427 
-1 0:1.7928429 8:1 2:-0.44988739 3:-0.70896445 
-1 0:0 8:1 2:-0.44988739 3:-0.57825427 
-1 0:0.5976143 8:1 2:-0.44988739 3:-0.70771261 
-1 0:1.1952286 8:1 2:-0.44988739 3:-0.70810489 
-1 0:-0.5976143 8:1 2:-0.44988739 3:-0.70767995 
-1 0:-1.1952286 8:1 2:-0.44988739 3:-0.70767995 
-1 0:0 8:1 2:-0.44988739 3:-0.70832217 
-1 0:0 8:1 2:-0.44988739 3:-0.70769625 
-1 0:0 8:1 2:-0.44988739 3:-0.70789242 
-1 0:-1.7928429 8:1 2:-0.44988739 3:-0.70767995 
-1 0:0 8:1 2:-0.44988739 3:-0.70767995 
-0.5183802595873968 0:1.7928429 8:1 2:-0.44988739 3:-0.9325723 
-1 0:0 8:1 2:-0.44988739 3:-0.93249491 
-1 0:0 9:1 2:-0.44988739 3:0.80664139 
-0.6553817460585096 0:-1.7928429 9:1 2:-0.44988739 3:0.80744275 
-0.9076457505046016 0:-1.7928429 9:1 2:-0.44988739 3:0.59755706 
-1 0:0 9:1 2:-0.44988739 3:0.59747184 
0.6555121091461775 0:0 9:1 2:-0.44988739 3:0.47313257 
-1 0:0 9:1 2:-0.44988739 3:0.17409073 
-1 0:1.7928429 9:1 2:-0.44988739 3:-0.071588617 
-1 0:1.7928429 9:1 2:-0.44988739 3:-0.2365365 
-1 0:0 9:1 2:-0.44988739 3:-0.071559484 
-1 0:1.1952286 9:1 2:-0.44988739 3:-0.2365365 
-1 0:-0.5976143 9:1 2:-0.44988739 3:-0.2365365 
-1 0:0 9:1 2:-0.44988739 3:-0.2365365 
-1 0:0 9:1 2:-0.44988739 3:-0.2365365 
-1 0:0 9:1 2:-0.44988739 3:-0.2365365 
-1 0:0 9:1 2:-0.44988739 3:-0.2365365 
1 0:0 9:1 2:-0.44988739 3:0.52465966 
-0.993876821502386 0:1.7928429 9:1 2:-0.44988739 3:0.038508404 
-1 0:0 9:1 2:-0.44988739 3:0.041094345 
-1 0:0 9:1 2:-0.44988739 3:0.041740542 
-1 0:1.1952286 9:1 2:-0.44988739 3:-0.19381052 
-1 0:1.7928429 9:1 2:-0.44988739 3:-0.19383709 
-1 0:0.5976143 9:1 2:-0.44988739 3:-0.19381052 
-1 0:-1.1952286 9:1 2:-0.44988739 3:-0.19381052 
-1 0:0 9:1 2:-0.44988739 3:-0.19381052 
-1 0:0 9:1 2:-0.44988739 3:-0.19381052 
-1 0:-0.5976143 9:1 2:-0.44988739 3:-0.19381052 
-1 0:-1.7928429 9:1 2:-0.44988739 3:-0.19381052 
-1 0:0 9:1 2:-0.44988739 3:-0.19381052 
-1 0:0 9:1 2:-0.44988739 3:-0.19382374 
-1 0:0 5:1 2:-0.44988739 3:-0.022143087 
-1 0:0 5:1 2:-0.44988739 3:-0.209478 
-1 0:0 5:1 2:-0.44988739 3:-0.39495633 
-1 0:1.7928429 5:1 2:-0.44988739 3:-0.55927547 
-1 0:0 5:1 2:-0.44988739 3:-0.55923389 
-0.7486081338397563 0:1.7928429 5:1 2:-0.44988739 3:-0.70566705 
-1 0:1.1952286 5:1 2:-0.44988739 3:-0.55919641 
-1 0:-1.7928429 5:1 2:-0.44988739 3:-0.55919231 
-1 0:0 5:1 2:-0.44988739 3:-0.55919436 
-1 0:0 5:1 2:-0.44988739 3:-0.70566705 
-1 0:0 5:1 2:-0.44988739 3:-0.70576125 
-1 0:0 5:1 2:-0.44988739 3:-0.973338 
-1 0:0 5:1 2:-0.44988739 3:-0.97357184 
-1 0:0 5:1 2:-0.44988739 3:-0.047822056 
-0.8817962761734295 0:1.7928429 5:1 2:-0.44988739 3:-0.24640515 
-1 0:0 5:1 2:-0.44988739 3:-0.2417619 
-0.8511408303896048 0:-1.7928429 5:1 2:-0.44988739 3:-0.43858262 
-1 0:1.7928429 5:1 2:-0.44988739 3:-0.57090675 
-1 0:0 5:1 2:-0.44988739 3:-0.43875049 
-1 0:0 5:1 2:-0.44988739 3:-0.43865488 
-1 0:1.1952286 5:1 2:-0.44988739 3:-0.57059591 
-1 0:0 5:1 2:-0.44988739 3:-0.56868196 
-1 0:0 5:1 2:-0.44988739 3:-0.56866695 
-1 0:1.7928429 5:1 2:-0.44988739 3:-0.14396688 
-1 0:0 5:1 2:-0.44988739 3:-0.14401192 
-1 0:-1.7928429 5:1 2:-0.44988739 3:-0.34786919 
-1 0:0 5:1 2:-0.44988739 3:-0.34797533 
-1 0:0 5:1 2:-0.44988739 3:-0.56194843 
-1 0:1.7928429 5:1 2:-0.44988739 3:-0.34836882 
-1 0:0 5:1 2:-0.44988739 3:-0.34811907 
-1 0:0 5:1 2:-0.44988739 3:-0.56217405 
-1 0:0.5976143 5:1 2:-0.44988739 3:-0.67732379 
-1 0:-1.7928429 5:1 2:-0.44988739 3:-0.67770702 
-1 0:0 5:1 2:-0.44988739 3:-0.67745906 
-0.4267114946789126 0:1.1952286 4:1 2:-0.44988739 3:-0.80415358 
-1 0:-0.5976143 5:1 2:-0.44988739 3:-0.67725051 
-1 0:-1.1952286 5:1 2:-0.44988739 3:-0.67738302 
-1 0:0 5:1 2:-0.44988739 3:-0.67853834 
-1 0:0 5:1 2:-0.44988739 3:-0.67726392 
-1 0:1.7928429 4:1 2:-0.44988739 3:-0.80415358 
-1 0:0 5:1 2:-0.44988739 3:-0.67728715 
-1 0:0.5976143 4:1 2:-0.44988739 3:-0.80415358 
-1 0:-0.5976143 4:1 2:-0.44988739 3:-0.80415358 
-1 0:-1.7928429 4:1 2:-0.44988739 3:-0.80415358 
-1 0:0 4:1 2:-0.44988739 3:-0.80415358 
-1 0:0 4:1 2:-0.44988739 3:-0.80415358 
-1 0:1.1952286 4:1 2:-0.44988739 3:-0.93345747 
-1 0:0 4:1 2:-0.44988739 3:-0.80415358 
-1 0:1.7928429 4:1 2:-0.44988739 3:-0.93346254 
-1 0:0.5976143 4:1 2:-0.44988739 3:-0.93345747 
-1 0:0 4:1 2:-0.44988739 3:-0.80415358 
-1 0:-1.1952286 4:1 2:-0.44988739 3:-0.93345747 
-1 0:-1.7928429 4:1 2:-0.44988739 3:-0.93345747 
-1 0:0 4:1 2:-0.44988739 3:-0.93346003 
-1 0:0 4:1 2:-0.44988739 3:-0.93345747 
-1 0:1.1952286 4:1 2:-0.44988739 3:-0.97515229 
-1 0:0 4:1 2:-0.44988739 3:-0.93345747 
-1 0:1.7928429 4:1 2:-0.44988739 3:-0.97524784 
-1 0:0 4:1 2:-0.44988739 3:-0.9751906 
-1 0:1.1952286 4:1 2:-0.44988739 3:-0.70810489 
-1 0:0.5976143 4:1 2:-0.44988739 3:-0.70771261 
-1 0:-0.5976143 4:1 2:-0.44988739 3:-0.70767995 
-1 0:-1.1952286 4:1 2:-0.44988739 3:-0.70767995 
-1 0:0 4:1 2:-0.44988739 3:-0.70789242 
-1 0:-1.7928429 4:1 2:-0.44988739 3:-0.70767995 
-1 0:0 4:1 2:-0.44988739 3:-0.70769625 
-1 0:0 4:1 2:-0.44988739 3:-0.70832217 
-1 0:1.7928429 4:1 2:-0.44988739 3:-0.9325723 
-1 0:0 4:1 2:-0.44988739 3:-0.70767995 
-1 0:-1.7928429 4:1 2:-0.44988739 3:-0.93241758 
-1 0:-0.5976143 4:1 2:-0.44988739 3:-0.93241758 
-1 0:0 4:1 2:-0.44988739 3:-0.93249491 
-1 0:0 4:1 2:-0.44988739 3:-0.93245846 
-1 0:1.7928429 4:1 2:-0.44988739 3:-0.9325723 
-1 0:0 4:1 2:-0.44988739 3:-0.93241758 
-1 0:-0.5976143 4:1 2:-0.44988739 3:-0.93241758 
-1 0:-1.7928429 4:1 2:-0.44988739 3:-0.93241758 
1 0:1.1952286 8:1 2:0.43645792 3:-0.10879697 
-1 0:0 4:1 2:-0.44988739 3:-0.93249491 
-1 0:0 4:1 2:-0.44988739 3:-0.93241758 
-1 0:0 4:1 2:-0.44988739 3:-0.93245846 
1 0:0.5976143 8:1 2:0.43645792 3:-0.10879697 
1 0:0 8:1 2:0.43645792 3:-0.10879697 
1 0:0 8:1 2:0.43645792 3:-0.29884642 
1 0:1.7928429 8:1 2:0.43645792 3:-0.49459151 
1 0:0.5976143 8:1 2:0.43645792 3:-0.49456558 
1 0:1.1952286 8:1 2:0.43645792 3:-0.49456558 
1 0:-0.5976143 8:1 2:0.43645792 3:-0.49456558 
0.633253693758724 0:-1.1952286 8:1 2:0.43645792 3:-0.49456558 
1 0:0 8:1 2:0.43645792 3:-0.49456558 
1 0:0 8:1 2:0.43645792 3:-0.49456558 
1 0:1.7928429 8:1 2:0.43645792 3:-0.68114983 
1 0:-1.1952286 8:1 2:0.43645792 3:-0.68113603 
0.9667384613981993 0:-1.7928429 8:1 2:0.43645792 3:-0.68113603 
1 0:0.5976143 8:1 2:0.43645792 3:-0.30042398 
1 0:-1.1952286 8:1 2:0.43645792 3:-0.30037123 
1 0:1.1952286 8:1 2:0.43645792 3:-0.30047147 
1 0:0 8:1 2:0.43645792 3:-0.30039754 
1 0:0 8:1 2:0.43645792 3:-0.30037123 
1 0:-1.1952286 8:1 2:0.43645792 3:-0.5616689 
1 0:0.5976143 8:1 2:0.43645792 3:-0.56215069 
1 0:-0.5976143 8:1 2:0.43645792 3:-0.56171703 
1 0:0 8:1 2:0.43645792 3:-0.5619338 
1 0:0 8:1 2:0.43645792 3:-0.56185897 
1 0:0.5976143 8:1 2:0.43645792 3:0.23647598 
1 0:1.1952286 8:1 2:0.43645792 3:0.2359956 
1 0:-0.5976143 8:1 2:0.43645792 3:0.23724166 
1 0:1.7928429 8:1 2:0.43645792 3:0.23378621 
1 0:-1.7928429 8:1 2:0.43645792 3:0.23727464 
1 0:-1.1952286 8:1 2:0.43645792 3:0.23727464 
0.1518375700435013 0:0 8:1 2:0.43645792 3:0.23663512 
1 0:0 8:1 2:0.43645792 3:0.23685882 
0.3391409571972051 0:1.7928429 8:1 2:0.43645792 3:0.043118282 
1 0:-0.5976143 8:1 2:0.43645792 3:0.043218901 
1 0:0 8:1 2:0.43645792 3:0.23708662 
1 0:0.5976143 8:1 2:0.43645792 3:0.043167052 
1 0:1.1952286 8:1 2:0.43645792 3:0.043142538 
1 0:-1.1952286 8:1 2:0.43645792 3:0.043245468 
1 0:-1.7928429 8:1 2:0.43645792 3:0.043273446 
1 0:0 8:1 2:0.43645792 3:0.043192591 
1 0:0 8:1 2:0.43645792 3:0.043192976 
1 0:1.1952286 8:1 2:0.43645792 3:-0.20692517 
1 0:-0.5976143 8:1 2:0.43645792 3:-0.206256 
1 0:0.5976143 8:1 2:0.43645792 3:-0.20647302 
1 0:-1.1952286 8:1 2:0.43645792 3:-0.20621056 
0.9679646208626599 0:0 8:1 2:0.43645792 3:-0.20656787 
1 0:0 8:1 2:0.43645792 3:-0.2063004 
1 0:0 8:1 2:0.43645792 3:-0.20636445 
1 0:0.5976143 8:1 2:0.43645792 3:-0.45332835 
1 0:-0.5976143 8:1 2:0.43645792 3:-0.45334555 
1 0:0 8:1 2:0.43645792 3:-0.45326957 
1 0:1.1952286 6:1 2:0.43645792 3:0.75353699 
1 0:0.5976143 6:1 2:0.43645792 3:0.75364634 
1 0:0 8:1 2:0.43645792 3:-0.45333695 
0.7490130810353256 0:-1.1952286 6:1 2:0.43645792 3:0.75349515 
1 0:-0.5976143 6:1 2:0.43645792 3:0.7531743 
1 0:0 6:1 2:0.43645792 3:0.75341019 
1 0:0 6:1 2:0.43645792 3:0.75367817 
1 0:1.1952286 6:1 2:0.43645792 3:0.42382629 
1 0:0.5976143 6:1 2:0.43645792 3:0.42502897 
1 0:-1.1952286 6:1 2:0.43645792 3:0.42566721 
1 0:-1.7928429 6:1 2:0.43645792 3:0.42533622 
1 0:-1.1952286 6:1 2:0.43645792 3:0.12906141 
1 0:-0.5976143 6:1 2:0.43645792 3:0.12901533 
1 0:-1.7928429 6:1 2:0.43645792 3:0.12906141 
1 0:0 6:1 2:0.43645792 3:0.12882115 
1 0:0.5976143 6:1 2:0.43645792 3:-0.12525887 
1 0:-0.5976143 6:1 2:0.43645792 3:-0.12524001 
1 0:-1.1952286 6:1 2:0.43645792 3:-0.12524001 
1 0:0 6:1 2:0.43645792 3:-0.12524001 
0.235301498783059 0:0 6:1 2:0.43645792 3:-0.12524938 
1 0:1.7928429 6:1 2:0.43645792 3:-0.32116811 
1 0:1.1952286 6:1 2:0.43645792 3:-0.32066412 
1 0:0.5976143 6:1 2:0.43645792 3:-0.32043234 
1 0:-1.1952286 6:1 2:0.43645792 3:-0.31982207 
1 0:-0.5976143 6:1 2:0.43645792 3:-0.32002087 
0.2356211734984484 0:-1.7928429 6:1 2:0.43645792 3:-0.31978396 
1 0:0 6:1 2:0.43645792 3:-0.32024316 
1 0:0 6:1 2:0.43645792 3:-0.32019888 
1 0:0 6:1 2:0.43645792 3:-0.3202266 
1 0:0.5976143 7:1 2:0.43645792 3:1.3453407 
0.7007990566375868 0:0 7:1 2:0.43645792 3:1.3456302 
1 0:1.1952286 7:1 2:0.43645792 3:1.3445319 
1 0:-0.5976143 7:1 2:0.43645792 3:1.3457491 
1 0:-1.1952286 7:1 2:0.43645792 3:1.3458081 
1 0:0 7:1 2:0.43645792 3:1.345545 
1 0:0.5976143 7:1 2:0.43645792 3:0.83053694 
1 0:-0.5976143 7:1 2:0.43645792 3:0.8307315 
1 0:0 7:1 2:0.43645792 3:0.83063422 
-1 0:1.7928429 4:1 2:1.3496622 3:-0.17859775 
0.359056293139663 0:1.1952286 7:1 2:0.43645792 3:0.83089501 
0.6626228372597621 0:-1.1952286 7:1 2:0.43645792 3:0.83093043 
1 0:0 7:1 2:0.43645792 3:0.83090733 
-1 0:1.7928429 6:1 2:1.3496622 3:1.1897309 
-0.5441468137387022 0:0.5976143 1:1 2:0.43645792 3:2.7194743 
-0.8077346229798709 0:-0.5976143 1:1 2:0.43645792 3:2.720443 
-1 0:0 1:1 2:0.43645792 3:2.720443 
-1 0:-1.7928429 1:1 2:0.43645792 3:2.720443 
1 0:-1.1952286 1:1 2:0.43645792 3:1.7144962 
1 0:-0.5976143 1:1 2:0.43645792 3:1.1306127 
0.6479668654966416 0:0 1:1 2:0.43645792 3:1.1306127 
1 0:0.5976143 1:1 2:0.43645792 3:0.82445434 
-0.7622495531549304 0:0 1:1 2:0.43645792 3:0.82445434 
1 0:0 1:1 2:0.43645792 3:0.82445434 
1 0:-0.5976143 1:1 2:0.43645792 3:0.82445434 
0.4670379842545634 0:-1.1952286 1:1 2:0.43645792 3:1.5087495 
1 0:0 1:1 2:0.43645792 3:0.95902881 
1 0:-0.5976143 1:1 2:0.43645792 3:1.2180863 
0.0647884967494857 0:1.7928429 1:1 2:0.43645792 3:0.67304668 
1 0:0.5976143 1:1 2:0.43645792 3:0.67305644 
1 0:-0.5976143 1:1 2:0.43645792 3:0.67305644 
1 0:0 1:1 2:0.43645792 3:0.67305644 
1 0:0 1:1 2:0.43645792 3:0.67305644 
1 0:-1.1952286 1:1 2:0.43645792 3:1.5087495 
1 0:-0.5976143 1:1 2:0.43645792 3:1.2180863 
0.01530865104195027 0:1.7928429 1:1 2:0.43645792 3:0.67304668 
1 0:0 1:1 2:0.43645792 3:0.95902881 
1 0:0.5976143 1:1 2:0.43645792 3:0.67305644 
1 0:-0.5976143 1:1 2:0.43645792 3:0.67305644 
-0.1553301710799105 0:1.7928429 4:1 2:1.3496622 3:-0.2373738 
1 0:0 1:1 2:0.43645792 3:0.67305644 
-0.08867188950447694 0:1.7928429 8:1 2:1.3496622 3:0.30628716 
1 0:0 1:1 2:0.43645792 3:0.67305644 
-1 0:1.7928429 7:1 2:1.3496622 3:1.9082638 
1 0:-0.5976143 9:1 2:0.43645792 3:0.8307315 
1 0:0.5976143 9:1 2:0.43645792 3:0.83053694 
1 0:0 9:1 2:0.43645792 3:0.83090733 
1 0:0 9:1 2:0.43645792 3:0.83063422 
1 0:1.1952286 9:1 2:0.43645792 3:0.5718786 
1 0:-1.1952286 9:1 2:0.43645792 3:0.57154183 
1 0:-0.5976143 9:1 2:0.43645792 3:0.57200232 
1 0:0.5976143 9:1 2:0.43645792 3:0.57197665 
1 0:0 9:1 2:0.43645792 3:0.57198949 
1 0:0 9:1 2:0.43645792 3:0.57200232 
1 0:1.1952286 9:1 2:0.43645792 3:0.32149659 
1 0:-1.1952286 9:1 2:0.43645792 3:0.32304245 
1 0:1.7928429 9:1 2:0.43645792 3:0.02674724 
1 0:0.5976143 9:1 2:0.43645792 3:0.02551414 
1 0:0 9:1 2:0.43645792 3:0.026149684 
1 0:-1.1952286 9:1 2:0.43645792 3:0.026739796 
0.1263798778382737 0:0.5976143 9:1 2:0.43645792 3:1.0017715 
0.03807550057788156 0:-0.5976143 9:1 2:0.43645792 3:1.0025236 
1 0:0 9:1 2:0.43645792 3:1.0022928 
1 0:1.1952286 9:1 2:0.43645792 3:0.75353699 
1 0:-0.5976143 9:1 2:0.43645792 3:0.7531743 
1 0:0.5976143 9:1 2:0.43645792 3:0.75364634 
1 0:-1.1952286 9:1 2:0.43645792 3:0.75349515 
1 0:0 9:1 2:0.43645792 3:0.75341019 
1 0:0 9:1 2:0.43645792 3:0.75367817 
1 0:-1.7928429 9:1 2:0.43645792 3:0.42533622 
0.1206197957295531 0:-1.1952286 9:1 2:0.43645792 3:0.42566721 
1 0:-1.1952286 9:1 2:0.43645792 3:0.12906141 
0.06362148636616424 0:-0.5976143 9:1 2:0.43645792 3:0.12901533 
1 0:1.1952286 5:1 2:0.43645792 3:0.5382928 
1 0:-0.5976143 5:1 2:0.43645792 3:0.53834209 
1 0:0 5:1 2:0.43645792 3:0.53834209 
1 0:0.5976143 5:1 2:0.43645792 3:0.53834209 
1 0:0 5:1 2:0.43645792 3:0.53834209 
1 0:0 5:1 2:0.43645792 3:-0.044094522 
1 0:0.5976143 5:1 2:0.43645792 3:-0.28703956 
1 0:-0.5976143 5:1 2:0.43645792 3:-0.28703956 
0.1314094221719871 0:0 5:1 2:0.43645792 3:-0.28703956 
-1 0:0 5:1 2:0.43645792 3:-0.47406106 
0.5741839105928215 0:1.7928429 5:1 2:0.43645792 3:-0.69005534 
1 0:1.1952286 5:1 2:0.43645792 3:-0.69022789 
1 0:0.5976143 5:1 2:0.43645792 3:-0.69007921 
1 0:-0.5976143 5:1 2:0.43645792 3:-0.69005534 
1 0:-1.7928429 5:1 2:0.43645792 3:-0.69005534 
1 0:-1.1952286 5:1 2:0.43645792 3:-0.69005534 
1 0:0 5:1 2:0.43645792 3:-0.69005534 
1 0:0 5:1 2:0.43645792 3:-0.69006728 
0.9782394458349291 0:0.5976143 5:1 2:0.43645792 3:0.18397824 
1 0:-0.5976143 5:1 2:0.43645792 3:0.1840428 
1 0:0 5:1 2:0.43645792 3:0.18401045 
1 0:-1.1952286 5:1 2:0.43645792 3:0.1840428 
1 0:0 5:1 2:0.43645792 3:0.18403073 
1 0:-0.5976143 5:1 2:0.43645792 3:-0.021638964 
1 0:0 5:1 2:0.43645792 3:-0.021838149 
1 0:0.5976143 5:1 2:0.43645792 3:-0.26294317 
1 0:1.1952286 5:1 2:0.43645792 3:-0.26337311 
1 0:0 5:1 2:0.43645792 3:-0.26278864 
1 0:-0.5976143 5:1 2:0.43645792 3:-0.46631158 
1 0:0.5976143 5:1 2:0.43645792 3:-0.46947711 
1 0:0 5:1 2:0.43645792 3:-0.46904511 
1 0:-0.5976143 5:1 2:0.43645792 3:0.62653387 
1 0:0.5976143 5:1 2:0.43645792 3:0.3760746 
1 0:-1.1952286 5:1 2:0.43645792 3:0.3760746 
1 0:0 5:1 2:0.43645792 3:0.3760746 
1 0:0 5:1 2:0.43645792 3:0.3760746 
1 0:0.5976143 5:1 2:0.43645792 3:0.626481 
1 0:0 5:1 2:0.43645792 3:0.62653387 
1 0:-0.5976143 5:1 2:0.43645792 3:0.3760746 
1 0:-0.5976143 5:1 2:0.43645792 3:-0.12374253 
1 0:1.7928429 5:1 2:0.43645792 3:-0.38014103 
1 0:-0.5976143 4:1 2:0.43645792 3:-0.55310715 
0.9037368808026008 0:-1.1952286 4:1 2:0.43645792 3:-0.55104278 
0.8253627449520704 0:0 4:1 2:0.43645792 3:-0.55266142 
1 0:1.7928429 4:1 2:0.43645792 3:-0.69329755 
1 0:-0.5976143 4:1 2:0.43645792 3:-0.69306006 
1 0:0 4:1 2:0.43645792 3:-0.55150571 
1 0:0.5976143 4:1 2:0.43645792 3:-0.69317075 
1 0:-1.1952286 4:1 2:0.43645792 3:-0.69302874 
1 0:1.1952286 4:1 2:0.43645792 3:-0.69323467 
1 0:-1.7928429 4:1 2:0.43645792 3:-0.69299679 
1 0:0 4:1 2:0.43645792 3:-0.69313174 
1 0:0 4:1 2:0.43645792 3:-0.69311544 
1 0:1.7928429 4:1 2:0.43645792 3:-0.80415358 
1 0:-0.5976143 4:1 2:0.43645792 3:-0.80415358 
1 0:0 4:1 2:0.43645792 3:-0.69310446 
1 0:0.5976143 4:1 2:0.43645792 3:-0.80415358 
1 0:1.1952286 4:1 2:0.43645792 3:-0.80415358 
1 0:-1.1952286 4:1 2:0.43645792 3:-0.80415358 
1 0:-1.7928429 4:1 2:0.43645792 3:-0.80415358 
1 0:0 4:1 2:0.43645792 3:-0.80415358 
1 0:0 4:1 2:0.43645792 3:-0.80415358 
1 0:0 4:1 2:0.43645792 3:-0.80415358 
1 0:0.5976143 4:1 2:0.43645792 3:-0.60108998 
0.130402586640055 0:0 4:1 2:0.43645792 3:-0.60083227 
1 0:0 4:1 2:0.43645792 3:-0.60076129 
1 0:-1.1952286 4:1 2:0.43645792 3:-0.67412091 
1 0:1.7928429 4:1 2:0.43645792 3:-0.82146671 
1 0:1.1952286 4:1 2:0.43645792 3:-0.82143976 
1 0:0.5976143 4:1 2:0.43645792 3:-0.82143976 
1 0:-0.5976143 4:1 2:0.43645792 3:-0.82143976 
1 0:-1.1952286 4:1 2:0.43645792 3:-0.82143976 
1 0:0 4:1 2:0.43645792 3:-0.82143976 
1 0:-1.7928429 4:1 2:0.43645792 3:-0.82143976 
1 0:0 4:1 2:0.43645792 3:-0.82143976 
1 0:0 4:1 2:0.43645792 3:-0.82143976 
1 0:1.7928429 8:1 2:-1.3362327 3:-1.2863652 
0.9952231775622813 0:0.5976143 8:1 2:-1.3362327 3:-1.2863652 
0.7797668258931071 0:-1.7928429 8:1 2:-1.3362327 3:-1.2863652 
1 0:-1.1952286 8:1 2:-1.3362327 3:-1.2863652 
0.888163486300893 0:0.5976143 8:1 2:-1.3362327 3:-1.2863652 
1 0:1.7928429 8:1 2:-1.3362327 3:-1.2863652 
1 0:-1.1952286 8:1 2:-1.3362327 3:-1.2863652 
1 0:1.7928429 8:1 2:-1.3362327 3:-1.2863652 
1 0:-1.1952286 8:1 2:-1.3362327 3:-1.2863652 
1 0:1.7928429 8:1 2:-1.3362327 3:-1.2863652 
1 0:-1.1952286 8:1 2:-1.3362327 3:-1.2863652 
1 0:1.7928429 8:1 2:-1.3362327 3:-1.2863652 
1 0:-1.1952286 8:1 2:-1.3362327 3:-1.2863652 
1 0:1.7928429 8:1 2:-1.3362327 3:-1.2863652 
1 0:-1.1952286 8:1 2:-1.3362327 3:-1.2863652 
1 0:1.7928429 8:1 2:-1.3362327 3:-1.2863652 
1 0:-1.1952286 8:1 2:-1.3362327 3:-1.2863652 
0.618093278341987 0:0.5976143 8:1 2:-1.3362327 3:-1.2863652 
1 0:0.5976143 8:1 2:-1.3362327 3:-1.2863652 
1 0:1.7928429 8:1 2:-1.3362327 3:-1.2863652 
1 0:-1.1952286 8:1 2:-1.3362327 3:-1.2863652 
1 0:1.7928429 8:1 2:-1.3362327 3:-1.2863652 
1 0:0.5976143 8:1 2:-1.3362327 3:-1.2863652 
1 0:-1.1952286 8:1 2:-1.3362327 3:-1.2863652 
0.5629328267619093 0:-1.7928429 8:1 2:-1.3362327 3:-1.2863652 
0.8794597906226888 0:0.5976143 8:1 2:-1.3362327 3:-1.2863652 
1 0:1.7928429 8:1 2:-1.3362327 3:-1.2863652 
0.03891449759621569 0:-1.7928429 8:1 2:-1.3362327 3:-1.2863652 
1 0:-1.1952286 8:1 2:-1.3362327 3:-1.2863652 
-1 0:1.7928429 9:1 2:1.3496622 3:1.9082638 
-1 0:-1.7928429 9:1 2:1.3496622 3:1.9126148 
-1 0:0.5976143 9:1 2:1.3496622 3:1.911726 
-1 0:0 9:1 2:1.3496622 3:1.9104392 
-0.9060616186624058 0:0 9:1 2:1.3496622 3:1.912104 
1 0:-0.5976143 9:1 2:1.3496622 3:1.2734366 
-1 0:0 9:1 2:1.3496622 3:1.2729792 
-1 0:0 9:1 2:1.3496622 3:0.97721728 
-1 0:0 9:1 2:1.3496622 3:0.67612302 
-1 0:-1.7928429 9:1 2:1.3496622 3:0.67640973 
1 0:0 9:1 2:1.3496622 3:0.67640973 
-0.4347729026446349 0:-1.7928429 9:1 2:1.3496622 3:0.37361828 
-1 0:0 9:1 2:1.3496622 3:0.37361469 
-1 0:1.7928429 9:1 2:1.3496622 3:1.7477273 
-0.5957743729665261 0:-1.7928429 9:1 2:1.3496622 3:1.7511417 
-1 0:0 9:1 2:1.3496622 3:0.78936901 
0.07470205206019048 0:0 9:1 2:1.3496622 3:0.78936901 
-1 0:0 9:1 2:1.3496622 3:0.49981619 
-1 0:-1.7928429 9:1 2:1.3496622 3:0.50024279 
-1 0:-0.5976143 6:1 2:-1.3362327 3:-1.1771026 
-0.0007667379529640373 0:-1.1952286 6:1 2:-1.3362327 3:-1.1771026 
-1 0:0 6:1 2:-1.3362327 3:-1.1771026 
-1 0:0 6:1 2:-1.3362327 3:-1.1771026 
0.250478009799261 0:0 6:1 2:-1.3362327 3:-1.1771026 
-1 0:-0.5976143 6:1 2:-1.3362327 3:-1.1771026 
-0.1820841226785593 0:-1.1952286 6:1 2:-1.3362327 3:-1.1771026 
-1 0:0 6:1 2:-1.3362327 3:-1.1771026 
0.3059259441970071 0:0 6:1 2:-1.3362327 3:-1.1771026 
-1 0:0 6:1 2:-1.3362327 3:-1.1771026 
-1 0:-0.5976143 6:1 2:-1.3362327 3:-1.1771026 
0.9977030350574057 0:0 6:1 2:-1.3362327 3:-1.1771026 
-1 0:0 6:1 2:-1.3362327 3:-1.1771026 
-1 0:0 6:1 2:-1.3362327 3:-1.1771026 
1 0:1.7928429 6:1 2:-1.3362327 3:-1.2863652 
1 0:1.1952286 6:1 2:-1.3362327 3:-1.2863652 
1 0:-0.5976143 6:1 2:-1.3362327 3:-1.2863652 
1 0:0 6:1 2:-1.3362327 3:-1.2863652 
1 0:0.5976143 6:1 2:-1.3362327 3:-1.2863652 
1 0:-1.7928429 6:1 2:-1.3362327 3:-1.2863652 
1 0:-1.1952286 6:1 2:-1.3362327 3:-1.2863652 
1 0:0 6:1 2:-1.3362327 3:-1.2863652 
1 0:0 6:1 2:-1.3362327 3:-1.2863652 
1 0:0 6:1 2:-1.3362327 3:-1.2863652 
1 0:1.7928429 6:1 2:-1.3362327 3:-1.2863652 
1 0:-0.5976143 6:1 2:-1.3362327 3:-1.2863652 
1 0:0.5976143 6:1 2:-1.3362327 3:-1.2863652 
1 0:1.1952286 6:1 2:-1.3362327 3:-1.2863652 
1 0:-1.1952286 6:1 2:-1.3362327 3:-1.2863652 
1 0:-1.7928429 6:1 2:-1.3362327 3:-1.2863652 
1 0:0 6:1 2:-1.3362327 3:-1.2863652 
1 0:0 6:1 2:-1.3362327 3:-1.2863652 
1 0:0 6:1 2:-1.3362327 3:-1.2863652 
1 0:0 6:1 2:-1.3362327 3:-1.2863652 
-0.01264746186706113 0:1.7928429 1:1 2:-1.3362327 3:-1.0786622 
-0.1838621625749672 0:0 1:1 2:-1.3362327 3:-1.0781523 
-5.006482609950859e-05 0:1.7928429 1:1 2:-1.3362327 3:-1.0786622 
-0.0001790739014656688 0:-1.7928429 1:1 2:-1.3362327 3:-1.0776424 
-5.4178664413496e-05 0:1.7928429 1:1 2:-1.3362327 3:-1.0786622 
-0.4771849887140343 0:0 1:1 2:-1.3362327 3:-1.0781523 
-1 0:0 1:1 2:-1.3362327 3:-1.0781523 
-1 0:0 1:1 2:-1.3362327 3:-1.0781523 
-1 0:0 1:1 2:-1.3362327 3:-1.0781523 
0.892524761142752 0:0.5976143 7:1 2:-1.3362327 3:-1.1771026 
0.5622332221052416 0:1.7928429 7:1 2:-1.3362327 3:-1.1771026 
0.09631000290936741 0:-1.7928429 7:1 2:-1.3362327 3:-1.1771026 
-1 0:0 7:1 2:-1.3362327 3:-1.1771026 
0.99956215870301 0:1.7928429 7:1 2:-1.3362327 3:-1.1771026 
1 0:0 7:1 2:-1.3362327 3:-1.1771026 
0.9800036003919259 0:0.5976143 7:1 2:-1.3362327 3:-1.1771026 
0.9903036953750313 0:-1.7928429 7:1 2:-1.3362327 3:-1.1771026 
-1 0:0 7:1 2:-1.3362327 3:-1.1771026 
1 0:0 7:1 2:-1.3362327 3:-1.1771026 
-1 0:0 1:1 2:-1.3362327 3:-1.0781523 
-1 0:0 1:1 2:-1.3362327 3:-1.0781523 
-1 0:0 1:1 2:-1.3362327 3:-1.0781523 
-1 0:0 1:1 2:-1.3362327 3:-1.0781523 
1 0:1.7928429 1:1 2:-1.3362327 3:-1.2863652 
1 0:1.1952286 1:1 2:-1.3362327 3:-1.2863652 
1 0:0.5976143 1:1 2:-1.3362327 3:-1.2863652 
1 0:-1.1952286 1:1 2:-1.3362327 3:-1.2863652 
1 0:-0.5976143 1:1 2:-1.3362327 3:-1.2863652 
1 0:-1.7928429 1:1 2:-1.3362327 3:-1.2863652 
1 0:0 1:1 2:-1.3362327 3:-1.2863652 
1 0:0 1:1 2:-1.3362327 3:-1.2863652 
1 0:0 1:1 2:-1.3362327 3:-1.2863652 
1 0:0 1:1 2:-1.3362327 3:-1.2863652 
1 0:1.1952286 1:1 2:-1.3362327 3:-1.2863652 
1 0:1.7928429 1:1 2:-1.3362327 3:-1.2863652 
1 0:0.5976143 1:1 2:-1.3362327 3:-1.2863652 
1 0:-0.5976143 1:1 2:-1.3362327 3:-1.2863652 
1 0:-1.7928429 1:1 2:-1.3362327 3:-1.2863652 
1 0:0 1:1 2:-1.3362327 3:-1.2863652 
1 0:-1.1952286 1:1 2:-1.3362327 3:-1.2863652 
1 0:0 1:1 2:-1.3362327 3:-1.2863652 
1 0:0 1:1 2:-1.3362327 3:-1.2863652 
1 0:0 1:1 2:-1.3362327 3:-1.2863652 
-1 0:0 1:1 2:-1.3362327 3:-1.0781523 
-1 0:0 1:1 2:-1.3362327 3:-1.0781523 
-1 0:0 1:1 2:-1.3362327 3:-1.0781523 
-1 0:0 1:1 2:-1.3362327 3:-1.0781523 
-0.01731897090880441 0:-1.7928429 1:1 2:-1.3362327 3:-1.0776424 
-1 0:-1.7928429 1:1 2:-1.3362327 3:-1.0776424 
-1 0:0 1:1 2:-1.3362327 3:-1.0781523 
-0.008686510589143437 0:-1.7928429 1:1 2:-1.3362327 3:-1.0776424 
-1 0:0 1:1 2:-1.3362327 3:-1.0781523 
-0.5946515869872373 0:0 5:1 2:1.3496622 3:0.67721879 
-1 0:0 5:1 2:1.3496622 3:0.37712263 
1 0:-0.5976143 5:1 2:1.3496622 3:0.37712263 
-1 0:0 5:1 2:1.3496622 3:0.058232738 
-1 0:0 5:1 2:1.3496622 3:-0.23493096 
-1 0:0 5:1 2:1.3496622 3:-0.53778003 
-0.04963814564957107 0:0 5:1 2:1.3496622 3:-0.53671711 
1 0:0 9:1 2:-1.3362327 3:-1.1771026 
-1 0:0 9:1 2:-1.3362327 3:-1.1771026 
0.3696730688833907 0:0.5976143 9:1 2:-1.3362327 3:-1.1771026 
0.1534234359840327 0:-1.7928429 9:1 2:-1.3362327 3:-1.1771026 
1 0:0 9:1 2:-1.3362327 3:-1.1771026 
-1 0:0 9:1 2:-1.3362327 3:-1.1771026 
1 0:0 9:1 2:-1.3362327 3:-1.1771026 
-1 0:0 9:1 2:-1.3362327 3:-1.1771026 
1 0:0 9:1 2:-1.3362327 3:-1.1771026 
0.3437261745964077 0:0.5976143 9:1 2:-1.3362327 3:-1.1771026 
-1 0:0 9:1 2:-1.3362327 3:-1.1771026 
1 0:0 9:1 2:-1.3362327 3:-1.1771026 
1 0:0.5976143 9:1 2:-1.3362327 3:-1.1771026 
-1 0:0 9:1 2:-1.3362327 3:-1.1771026 
1 0:0 9:1 2:-1.3362327 3:-1.1771026 
1 0:0.5976143 9:1 2:-1.3362327 3:-1.1771026 
-1 0:0 9:1 2:-1.3362327 3:-1.1771026 
-0.06190704249438674 0:-1.7928429 5:1 2:1.3496622 3:0.6442806 
-1 0:0 5:1 2:1.3496622 3:0.51466061 
-1 0:0 5:1 2:1.3496622 3:0.034799222 
-0.8879821201036358 0:1.7928429 5:1 2:1.3496622 3:-0.20279913 
-1 0:0 5:1 2:1.3496622 3:-0.1995163 
-0.5005524038352025 0:1.1952286 5:1 2:1.3496622 3:1.4465262 
-1 0:0 5:1 2:1.3496622 3:0.64416433 
-1 0:-0.5976143 5:1 2:1.3496622 3:-0.19623693 
-0.8329618645953424 0:-1.7928429 5:1 2:1.3496622 3:-0.19623347 
-1 0:0 5:1 2:1.3496622 3:-0.19633383 
1 0:0 5:1 2:1.3496622 3:-0.1963011 
-1 0:1.7928429 5:1 2:1.3496622 3:1.4443247 
-1 0:-1.7928429 5:1 2:1.3496622 3:1.4487627 
-1 0:0 5:1 2:1.3496622 3:1.4465437 
-0.7800098629910946 0:1.7928429 5:1 2:1.3496622 3:1.1469364 
-1 0:-1.7928429 5:1 2:1.3496622 3:1.147815 
-1 0:0 5:1 2:1.3496622 3:1.1473758 
-1 0:0 5:1 2:1.3496622 3:0.84696612 
-1 0:0 5:1 2:1.3496622 3:0.53714081 
-1 0:0 5:1 2:1.3496622 3:0.23395382 
1 0:0.5976143 5:1 2:1.3496622 3:0.23422423 
1 0:0.5976143 5:1 2:1.3496622 3:-0.068032803 
-1 0:0 5:1 2:1.3496622 3:-0.067985317 
1 0:0 5:1 2:1.3496622 3:-0.06800906 
1 0:0 5:1 2:1.3496622 3:-0.067994044 
1 0:0 4:1 2:1.3496622 3:-0.17230558 
-1 0:-1.1952286 4:1 2:1.3496622 3:-0.17209883 
1 0:-0.5976143 4:1 2:1.3496622 3:-0.17219842 
-1 0:-1.7928429 4:1 2:1.3496622 3:-0.17199987 
-1 0:0 4:1 2:1.3496622 3:-0.17231149 
-1 0:0 4:1 2:1.3496622 3:-0.47151696 
-1 0:0 4:1 2:1.3496622 3:-0.17529875 
1 0:0 4:1 2:1.3496622 3:-0.17230199 
-1 0:-0.5976143 4:1 2:1.3496622 3:-0.47151696 
-1 0:0 4:1 2:1.3496622 3:-0.47151696 
-0.2918642327406463 0:0 4:1 2:1.3496622 3:-0.47151696 
1 0:1.1952286 4:1 2:1.3496622 3:-0.67196774 
1 0:0.5976143 4:1 2:1.3496622 3:-0.67167133 
-1 0:0 4:1 2:1.3496622 3:-0.67566466 
-1 0:0 4:1 2:1.3496622 3:-0.23729282 
-1 0:1.7928429 4:1 2:1.3496622 3:-0.42308558 
-1 0:-1.7928429 4:1 2:1.3496622 3:-0.42126853 
-1 0:0 4:1 2:1.3496622 3:-0.42217706 
-1 0:0 4:1 2:1.3496622 3:-0.42193796 
-1 0:0 4:1 2:1.3496622 3:-0.58107161 
-0.2129121996354801 0:-1.7928429 4:1 2:1.3496622 3:-0.2372117 
-1 0:0 4:1 2:1.3496622 3:-0.58107161 
-1 0:0 8:1 2:1.3496622 3:0.0067693036 
-1 0:-1.7928429 8:1 2:1.3496622 3:-0.14549157 
-1 0:0 8:1 2:1.3496622 3:-0.14556267 
-1 0:1.7928429 8:1 2:1.3496622 3:0.71375053 
-1 0:1.1952286 8:1 2:1.3496622 3:0.71390762 
-1 0:0 8:1 2:1.3496622 3:0.71383754 
-1 0:-1.7928429 8:1 2:1.3496622 3:0.71392456 
-1 0:0 8:1 2:1.3496622 3:0.71386526 
-0.4572807491623707 0:-1.7928429 8:1 2:1.3496622 3:0.42799339 
-1 0:0 8:1 2:1.3496622 3:0.42781743 
-1 0:0 8:1 2:1.3496622 3:0.1378226 
-1 0:0 8:1 2:1.3496622 3:-0.14977892 
1 0:0 9:1 2:-1.3362327 3:-1.1771026 
-1 0:0 9:1 2:-1.3362327 3:-1.1771026 
1 0:0 9:1 2:-1.3362327 3:-1.1771026 
0.02753612909662015 0:-1.7928429 9:1 2:-1.3362327 3:-1.1771026 
1 0:0 9:1 2:-1.3362327 3:-1.1771026 
1 0:0.5976143 9:1 2:-1.3362327 3:-1.1771026 
1 0:0.5976143 9:1 2:-1.3362327 3:-1.1771026 
-1 0:0 9:1 2:-1.3362327 3:-1.1771026 
1 0:0.5976143 9:1 2:-1.3362327 3:-1.1771026 
1 0:-1.7928429 9:1 2:-1.3362327 3:-1.1771026 
1 0:0 9:1 2:-1.3362327 3:-1.1771026 
1 0:0.5976143 9:1 2:-1.3362327 3:-1.1771026 
0.8496746746427715 0:1.7928429 9:1 2:-1.3362327 3:-1.1771026 
0.9461004075350788 0:0.5976143 9:1 2:-1.3362327 3:-1.1771026 
-1 0:0 9:1 2:-1.3362327 3:-1.1771026 
0.5168232828699166 0:1.7928429 9:1 2:-1.3362327 3:-1.1771026 
1 0:-1.7928429 9:1 2:-1.3362327 3:-1.1771026 
-1 0:0 9:1 2:-1.3362327 3:-1.1771026 
1 0:0 9:1 2:-1.3362327 3:-1.1771026 
0.312530333906857 0:1.7928429 5:1 2:-1.3362327 3:-1.1771026 
-1 0:-0.5976143 5:1 2:-1.3362327 3:-1.1771026 
-1 0:0 5:1 2:-1.3362327 3:-1.1771026 
1 0:0 5:1 2:-1.3362327 3:-1.1771026 
-0.8113669205427823 0:-0.5976143 5:1 2:-1.3362327 3:-1.1771026 
-1 0:0 5:1 2:-1.3362327 3:-1.1771026 
1 0:0 5:1 2:-1.3362327 3:-1.1771026 
-1 0:0 5:1 2:-1.3362327 3:-1.1771026 
1 0:0 5:1 2:-1.3362327 3:-1.1771026 
-1 0:0 5:1 2:-1.3362327 3:-1.1771026 
1 0:0 5:1 2:-1.3362327 3:-1.1771026 
-1 0:0 5:1 2:-1.3362327 3:-1.1771026 
1 0:0 5:1 2:-1.3362327 3:-1.1771026 
0.0007383691663312666 0:1.7928429 5:1 2:-1.3362327 3:-1.1771026 
-1 0:0 5:1 2:-1.3362327 3:-1.1771026 
1 0:0 5:1 2:-1.3362327 3:-1.1771026 
0.00247956284113759 0:1.7928429 5:1 2:-1.3362327 3:-1.1771026 
-1 0:0 5:1 2:-1.3362327 3:-1.1771026 
-1 0:-1.7928429 8:1 2:1.3496622 3:0.30647056 
-1 0:0 8:1 2:1.3496622 3:0.30637892 
-1 0:1.1952286 8:1 2:1.3496622 3:0.032574304 
-1 0:0 8:1 2:1.3496622 3:0.03326619 
-1 0:0 8:1 2:1.3496622 3:0.033912515 
-0.6994349658982502 0:0 8:1 2:1.3496622 3:0.034399055 
-1 0:0 8:1 2:1.3496622 3:-0.1598089 
-1 0:0 8:1 2:1.3496622 3:-0.42701153 
-1 0:1.1952286 6:1 2:1.3496622 3:1.1897309 
-1 0:-1.7928429 6:1 2:1.3496622 3:1.1897309 
-1 0:0 6:1 2:1.3496622 3:1.1897309 
-0.658746800302076 0:0 6:1 2:1.3496622 3:1.1897309 
-0.4137981325776702 0:1.7928429 6:1 2:1.3496622 3:0.78936901 
-1 0:-1.7928429 6:1 2:1.3496622 3:0.78936901 
-1 0:0 6:1 2:1.3496622 3:0.78936901 
-1 0:0 6:1 2:1.3496622 3:0.49981619 
-1 0:-1.7928429 6:1 2:1.3496622 3:0.50024279 
-1 0:-1.7928429 6:1 2:1.3496622 3:0.21361743 
-1 0:0 6:1 2:1.3496622 3:0.21275215 
-1 0:0 6:1 2:1.3496622 3:-0.070355517 
1 0:0 5:1 2:-1.3362327 3:-1.1771026 
-1 0:0 5:1 2:-1.3362327 3:-1.1771026 
1 0:0 5:1 2:-1.3362327 3:-1.1771026 
1 0:1.1952286 5:1 2:-1.3362327 3:-1.2863652 
1 0:1.7928429 5:1 2:-1.3362327 3:-1.2863652 
1 0:0.5976143 5:1 2:-1.3362327 3:-1.2863652 
1 0:0 5:1 2:-1.3362327 3:-1.2863652 
1 0:-0.5976143 5:1 2:-1.3362327 3:-1.2863652 
1 0:-1.7928429 5:1 2:-1.3362327 3:-1.2863652 
1 0:-1.1952286 5:1 2:-1.3362327 3:-1.2863652 
1 0:0 5:1 2:-1.3362327 3:-1.2863652 
1 0:0 5:1 2:-1.3362327 3:-1.2863652 
1 0:1.1952286 5:1 2:-1.3362327 3:-1.2863652 
1 0:0 5:1 2:-1.3362327 3:-1.2863652 
1 0:0.5976143 5:1 2:-1.3362327 3:-1.2863652 
1 0:1.7928429 5:1 2:-1.3362327 3:-1.2863652 
1 0:-1.1952286 5:1 2:-1.3362327 3:-1.2863652 
1 0:-0.5976143 5:1 2:-1.3362327 3:-1.2863652 
1 0:0 5:1 2:-1.3362327 3:-1.2863652 
1 0:0 5:1 2:-1.3362327 3:-1.2863652 
1 0:-1.7928429 5:1 2:-1.3362327 3:-1.2863652 
1 0:0 5:1 2:-1.3362327 3:-1.2863652 
1 0:0 5:1 2:-1.3362327 3:-1.2863652 
-1 0:0 5:1 2:-1.3362327 3:-1.1771026 
-1 0:0 5:1 2:-1.3362327 3:-1.1771026 
0.02164957092964452 0:1.7928429 5:1 2:-1.3362327 3:-1.1771026 
1 0:0 5:1 2:-1.3362327 3:-1.1771026 
-0.03918943339730411 0:0 5:1 2:-1.3362327 3:-1.1771026 
1 0:0 5:1 2:-1.3362327 3:-1.1771026 
-1 0:0 5:1 2:-1.3362327 3:-1.1771026 
-0.2598719331667754 0:0 5:1 2:-1.3362327 3:-1.1771026 
1 0:0 5:1 2:-1.3362327 3:-1.1771026 
-1 0:0 5:1 2:-1.3362327 3:-1.1771026 
0.003440748297992282 0:1.7928429 5:1 2:-1.3362327 3:-1.1771026 
1 0:0 5:1 2:-1.3362327 3:-1.1771026 
-1 0:-0.5976143 5:1 2:-1.3362327 3:-1.1771026 
1 0:0 5:1 2:-1.3362327 3:-1.1771026 
0.3053332120604733 0:1.7928429 5:1 2:-1.3362327 3:-1.1771026 
-1 0:0 5:1 2:-1.3362327 3:-1.1771026 
-0.3569372096668167 0:-0.5976143 5:1 2:-1.3362327 3:-1.1771026 
-1 0:0 5:1 2:-1.3362327 3:-1.1771026 
1 0:0 5:1 2:-1.3362327 3:-1.1771026 
1 0:0.5976143 4:1 2:-1.3362327 3:-1.2863652 
0.4584858587483458 0:-1.7928429 4:1 2:-1.3362327 3:-1.2863652 
1.041284718449601e-07 0:1.1952286 4:1 2:-1.3362327 3:-1.2863652 
1 0:-1.1952286 4:1 2:-1.3362327 3:-1.2863652 
1 0:1.7928429 4:1 2:-1.3362327 3:-1.2863652 
1 0:0.5976143 4:1 2:-1.3362327 3:-1.2863652 
1 0:-1.1952286 4:1 2:-1.3362327 3:-1.2863652 
1 0:1.7928429 4:1 2:-1.3362327 3:-1.2863652 
1 0:0.5976143 4:1 2:-1.3362327 3:-1.2863652 
1 0:-1.1952286 4:1 2:-1.3362327 3:-1.2863652 
1 0:1.7928429 4:1 2:-1.3362327 3:-1.2863652 
1 0:0.5976143 4:1 2:-1.3362327 3:-1.2863652 
1 0:-1.1952286 4:1 2:-1.3362327 3:-1.2863652 
0.4170279516621593 0:-1.7928429 4:1 2:-1.3362327 3:-1.2863652 
1 0:1.7928429 4:1 2:-1.3362327 3:-1.2863652 
0.2895824512986084 0:1.1952286 4:1 2:-1.3362327 3:-1.2863652 
1 0:-1.7928429 4:1 2:-1.3362327 3:-1.2863652 
1 0:0.5976143 4:1 2:-1.3362327 3:-1.2863652 
1 0:-1.1952286 4:1 2:-1.3362327 3:-1.2863652 
1 0:1.7928429 4:1 2:-1.3362327 3:-1.2863652 
1 0:0.5976143 4:1 2:-1.3362327 3:-1.2863652 
0.8823938069599109 0:1.1952286 4:1 2:-1.3362327 3:-1.2863652 
0.2899467227077155 0:-1.7928429 4:1 2:-1.3362327 3:-1.2863652 
-1 0:0.5976143 7:1 2:1.3496622 3:1.911726 
1 0:-1.1952286 4:1 2:-1.3362327 3:-1.2863652 
-0.2080746549934386 0:1.1952286 7:1 2:1.3496622 3:1.9109238 
-0.1271531498862905 0:-1.1952286 7:1 2:1.3496622 3:1.9125332 
-1 0:0 7:1 2:1.3496622 3:1.9104392 
-1 0:-1.7928429 7:1 2:1.3496622 3:1.9126148 
-1 0:0 7:1 2:1.3496622 3:1.912104 
-1 0:0 7:1 2:1.3496622 3:1.2729792 
0.7665336596025965 0:-0.5976143 7:1 2:1.3496622 3:1.2734366 
-1 0:-1.7928429 7:1 2:1.3496622 3:1.2734877 
-1 0:1.7928429 1:1 2:1.3496622 3:2.9969043 
-0.4914860184433332 0:-1.7928429 1:1 2:1.3496622 3:3.0840961 
-1 0:-1.7928429 1:1 2:1.3496622 3:2.7476549 
0.04287463822858694 0:-0.5976143 1:1 2:1.3496622 3:1.7181555 
1 0:-1.1952286 1:1 2:1.3496622 3:1.7181555 
-1 0:0 1:1 2:1.3496622 3:1.4077003 
-1 0:0 1:1 2:1.3496622 3:1.0712617 
-1 0:0 1:1 2:1.3496622 3:1.2606244 
1 0:-0.5976143 1:1 2:1.3496622 3:0.94437253 
-1 0:-1.7928429 1:1 2:1.3496622 3:0.94437253 
-1 0:0 1:1 2:1.3496622 3:0.94437253 
-1 0:0 1:1 2:1.3496622 3:0.62139356 
-0.5180596494251692 0:-1.7928429 1:1 2:1.3496622 3:0.39597861 
-1 0:0 1:1 2:1.3496622 3:0.39597861 
