svm_type epsilon_svr
kernel_type rbf
gamma 0.1
nr_class 2
total_sv 753
rho -1.7758
SV
-1 0:1.7928429 1:1 2:1.3496622 3:0.94367978 
-0.06357182109205786 0:-1.7928429 1:1 2:1.3496622 3:1.2598153 
-1 0:1.1952286 1:1 2:1.3496622 3:0.94367978 
-1 0:0.5976143 1:1 2:1.3496622 3:0.62081805 
-1 0:-1.7928429 1:1 2:1.3496622 3:0.62081805 
1 0:1.7928429 1:1 2:1.3496622 3:0.39548767 
-0.5200603646936277 0:0 1:1 2:1.3496622 3:0.39548767 
1 0:1.1952286 1:1 2:1.3496622 3:2.5239256 
1 0:0 1:1 2:1.3496622 3:2.5236667 
1 0:0 1:1 2:1.3496622 3:2.5239408 
-1 0:1.7928429 1:1 2:1.3496622 3:2.183784 
1 0:1.7928429 1:1 2:1.3496622 3:1.5456825 
1 0:0 1:1 2:1.3496622 3:1.5456825 
-0.7752815928156368 0:-1.7928429 1:1 2:1.3496622 3:1.2598153 
-1 0:1.1952286 1:1 2:1.3496622 3:0.94367978 
-1 0:1.7928429 1:1 2:1.3496622 3:0.94367978 
-1 0:1.7928429 4:1 2:-0.44988739 3:-0.55933774 
-1 0:1.7928429 5:1 2:-0.44988739 3:0.80677598 
-1 0:1.7928429 4:1 2:-0.44988739 3:-0.14425283 
-1 0:1.7928429 6:1 2:-0.44988739 3:0.29660347 
1 0:0 6:1 2:0.43645792 3:0.42516137 
1 0:1.7928429 7:1 2:0.43645792 3:-0.109116 
1 0:1.7928429 5:1 2:0.43645792 3:1.3445477 
-1 0:1.7928429 7:1 2:-0.44988739 3:-0.18252837 
-0.2391524578237834 0:-1.7928429 7:1 2:-0.44988739 3:-0.18252837 
-1 0:1.7928429 7:1 2:-0.44988739 3:-0.34142107 
-1 0:1.7928429 7:1 2:-0.44988739 3:-0.55994714 
-1 0:1.1952286 7:1 2:-0.44988739 3:-0.34138079 
-1 0:-1.7928429 7:1 2:-0.44988739 3:-0.34116589 
-1 0:1.1952286 7:1 2:-0.44988739 3:-0.55994714 
-1 0:1.7928429 7:1 2:-0.44988739 3:-0.56194249 
-1 0:1.1952286 7:1 2:-0.44988739 3:-0.56184525 
-1 0:-1.1952286 7:1 2:-0.44988739 3:-0.56180894 
-1 0:0 7:1 2:-0.44988739 3:-0.56187578 
-1 0:0.5976143 7:1 2:-0.44988739 3:-0.56180894 
-1 0:-1.7928429 7:1 2:-0.44988739 3:-0.56180894 
-1 0:-0.5976143 7:1 2:-0.44988739 3:-0.56180894 
-1 0:0 7:1 2:-0.44988739 3:-0.56182703 
-1 0:0 7:1 2:-0.44988739 3:-0.56180894 
-1 0:1.7928429 7:1 2:-0.44988739 3:-0.7190342 
-1 0:0.5976143 7:1 2:-0.44988739 3:-0.71895216 
-1 0:0 7:1 2:-0.44988739 3:-0.56180894 
-1 0:1.1952286 7:1 2:-0.44988739 3:-0.71897634 
-1 0:-0.5976143 7:1 2:-0.44988739 3:-0.71893901 
-1 0:-1.7928429 7:1 2:-0.44988739 3:-0.71893901 
-1 0:0 7:1 2:-0.44988739 3:-0.71895768 
-1 0:-1.1952286 7:1 2:-0.44988739 3:-0.71893901 
-1 0:0 7:1 2:-0.44988739 3:-0.71898661 
-1 0:0 7:1 2:-0.44988739 3:-0.71893901 
-1 0:0 7:1 2:-0.44988739 3:-0.71894555 
1 0:-0.5976143 6:1 2:-0.44988739 3:0.29685044 
1 0:1.1952286 6:1 2:-0.44988739 3:0.044155254 
1 0:1.7928429 6:1 2:-0.44988739 3:0.044155254 
1 0:0 6:1 2:-0.44988739 3:0.04415705 
-1 0:1.1952286 6:1 2:-0.44988739 3:-0.19408417 
1 0:0 6:1 2:-0.44988739 3:0.044155254 
-1 0:1.7928429 6:1 2:-0.44988739 3:-0.19408456 
-1 0:0.5976143 6:1 2:-0.44988739 3:-0.19407879 
-1 0:-0.5976143 6:1 2:-0.44988739 3:-0.19407879 
-1 0:-1.1952286 6:1 2:-0.44988739 3:-0.19407879 
-1 0:0 6:1 2:-0.44988739 3:-0.19408174 
-1 0:-1.7928429 6:1 2:-0.44988739 3:-0.19407879 
-1 0:0 6:1 2:-0.44988739 3:-0.19408148 
-1 0:0 6:1 2:-0.44988739 3:-0.19407879 
-1 0:0.5976143 6:1 2:-0.44988739 3:-0.38857544 
-1 0:0 6:1 2:-0.44988739 3:-0.19407879 
-1 0:1.1952286 6:1 2:-0.44988739 3:-0.38864241 
-1 0:1.7928429 6:1 2:-0.44988739 3:-0.38872041 
-1 0:-0.5976143 6:1 2:-0.44988739 3:-0.38848024 
-0.1761839575720178 0:-1.1952286 6:1 2:-0.44988739 3:-0.38844021 
-1 0:-1.7928429 6:1 2:-0.44988739 3:-0.3883989 
-1 0:0 6:1 2:-0.44988739 3:-0.38855966 
-1 0:0 6:1 2:-0.44988739 3:-0.38852784 
-1 0:1.1952286 6:1 2:-0.44988739 3:-0.51452179 
-1 0:0 6:1 2:-0.44988739 3:-0.38854131 
-1 0:1.7928429 6:1 2:-0.44988739 3:-0.51455207 
-1 0:0 6:1 2:-0.44988739 3:-0.38851758 
-1 0:0.5976143 6:1 2:-0.44988739 3:-0.5145019 
-1 0:-0.5976143 6:1 2:-0.44988739 3:-0.5145019 
-1 0:-1.1952286 6:1 2:-0.44988739 3:-0.5145019 
-1 0:-1.7928429 6:1 2:-0.44988739 3:-0.5145019 
-1 0:0 6:1 2:-0.44988739 3:-0.51452692 
-1 0:0 6:1 2:-0.44988739 3:-0.51451178 
-1 0:0 6:1 2:-0.44988739 3:-0.5145019 
-1 0:0 6:1 2:-0.44988739 3:-0.5145019 
-0.4241475199909266 0:-1.7928429 5:1 2:-0.44988739 3:0.806796 
-1 0:0 5:1 2:-0.44988739 3:0.80678599 
-1 0:1.7928429 5:1 2:-0.44988739 3:0.47260517 
-1 0:0.5976143 5:1 2:-0.44988739 3:0.47260748 
-1 0:0 5:1 2:-0.44988739 3:0.47260645 
-1 0:0 5:1 2:-0.44988739 3:0.47260748 
-1 0:-1.7928429 5:1 2:-0.44988739 3:0.47260748 
-1 0:0 5:1 2:-0.44988739 3:0.47260748 
-0.3861328571802615 0:0 5:1 2:-0.44988739 3:0.47260748 
0.1171781203117785 0:1.1952286 1:1 2:-0.44988739 3:0.62339855 
-1 0:1.1952286 1:1 2:-0.44988739 3:0.35308146 
-0.9526548467093534 0:-1.7928429 1:1 2:-0.44988739 3:0.35308146 
-1 0:1.7928429 1:1 2:-0.44988739 3:0.35308146 
-0.3078487955379838 0:0 1:1 2:-0.44988739 3:0.35308146 
-1 0:1.7928429 1:1 2:-0.44988739 3:0.10419942 
-1 0:0.5976143 1:1 2:-0.44988739 3:0.10420879 
-1 0:1.1952286 1:1 2:-0.44988739 3:-0.070674574 
-1 0:0 1:1 2:-0.44988739 3:-0.070674574 
0.3579003330393921 0:1.1952286 1:1 2:-0.44988739 3:0.62339855 
1 0:1.1952286 1:1 2:-0.44988739 3:0.62339855 
1 0:1.1952286 1:1 2:-0.44988739 3:0.62339855 
-1 0:1.1952286 1:1 2:-0.44988739 3:0.35308146 
-1 0:1.7928429 1:1 2:-0.44988739 3:0.35308146 
-0.6035703645149821 0:0 1:1 2:-0.44988739 3:0.35308146 
-0.1687282774099279 0:-1.7928429 1:1 2:-0.44988739 3:0.35308146 
1 0:1.7928429 7:1 2:-1.3362327 3:-1.286231 
-1 0:1.7928429 7:1 2:-0.44988739 3:-0.44117972 
-1 0:0.5976143 7:1 2:-0.44988739 3:-0.44114264 
-1 0:0 7:1 2:-0.44988739 3:-0.44116112 
-1 0:0 7:1 2:-0.44988739 3:-0.44114264 
-1 0:1.1952286 7:1 2:-0.44988739 3:-0.44116522 
-1 0:-1.7928429 7:1 2:-0.44988739 3:-0.44114264 
-1 0:0 7:1 2:-0.44988739 3:-0.44115393 
-0.5804916407167792 0:0 7:1 2:-0.44988739 3:-0.44114264 
-1 0:1.1952286 7:1 2:-0.44988739 3:-0.57838321 
-1 0:-0.5976143 7:1 2:-0.44988739 3:-0.57838321 
-1 0:-1.7928429 7:1 2:-0.44988739 3:-0.57838321 
-1 0:0 7:1 2:-0.44988739 3:-0.57838321 
-1 0:0 7:1 2:-0.44988739 3:-0.57838321 
-1 0:1.7928429 7:1 2:-0.44988739 3:-0.57838321 
-1 0:0.5976143 7:1 2:-0.44988739 3:-0.57838321 
-1 0:-1.1952286 7:1 2:-0.44988739 3:-0.57838321 
-1 0:0 7:1 2:-0.44988739 3:-0.57838321 
-1 0:0 7:1 2:-0.44988739 3:-0.57838321 
-1 0:1.7928429 7:1 2:-0.44988739 3:-0.93258106 
-0.8729092292763653 0:0.5976143 7:1 2:-0.44988739 3:-0.93245559 
-1 0:1.7928429 8:1 2:-0.44988739 3:0.80677598 
-1 0:-1.7928429 8:1 2:-0.44988739 3:0.806796 
-1 0:1.7928429 8:1 2:-0.44988739 3:0.59698929 
-1 0:0.5976143 8:1 2:-0.44988739 3:0.1736887 
-1 0:1.7928429 8:1 2:-0.44988739 3:-0.0722862 
-1 0:1.1952286 8:1 2:-0.44988739 3:-0.071897085 
-1 0:0.5976143 8:1 2:-0.44988739 3:-0.071859752 
-0.1135540538042414 0:-1.7928429 8:1 2:-0.44988739 3:-0.071854363 
-1 0:0 8:1 2:-0.44988739 3:-0.072070282 
-1 0:0.5976143 8:1 2:-0.44988739 3:-0.2367974 
-0.4307018012427297 0:-0.5976143 8:1 2:-0.44988739 3:-0.2367974 
-1 0:0 8:1 2:-0.44988739 3:-0.2367974 
-1 0:0 8:1 2:-0.44988739 3:-0.2367974 
-0.9542231369168682 0:0.5976143 8:1 2:-0.44988739 3:0.76653229 
-1 0:1.7928429 8:1 2:-0.44988739 3:0.29660347 
1 0:1.7928429 8:1 2:-0.44988739 3:0.044155254 
1 0:0 8:1 2:-0.44988739 3:0.04415705 
-1 0:1.7928429 8:1 2:-0.44988739 3:-0.19408456 
-1 0:0.5976143 8:1 2:-0.44988739 3:-0.19407879 
-1 0:-0.5976143 8:1 2:-0.44988739 3:-0.19407879 
-1 0:-1.7928429 8:1 2:-0.44988739 3:-0.19407879 
-1 0:0 8:1 2:-0.44988739 3:-0.19408148 
-1 0:1.1952286 8:1 2:-0.44988739 3:-0.19408417 
-1 0:-1.1952286 8:1 2:-0.44988739 3:-0.19407879 
-1 0:0 8:1 2:-0.44988739 3:-0.19408174 
-1 0:0 8:1 2:-0.44988739 3:-0.19407879 
-1 0:0 8:1 2:-0.44988739 3:-0.19407879 
-1 0:1.1952286 4:1 2:-0.44988739 3:-0.20973024 
-1 0:1.7928429 4:1 2:-0.44988739 3:-0.20975064 
-1 0:1.1952286 4:1 2:-0.44988739 3:-0.39515639 
-1 0:1.7928429 4:1 2:-0.44988739 3:-0.39515639 
-1 0:1.1952286 4:1 2:-0.44988739 3:-0.55932863 
-1 0:0.5976143 4:1 2:-0.44988739 3:-0.55932863 
-1 0:-1.1952286 4:1 2:-0.44988739 3:-0.55932863 
-1 0:0 4:1 2:-0.44988739 3:-0.55932863 
-1 0:-0.5976143 4:1 2:-0.44988739 3:-0.55932863 
-1 0:0 4:1 2:-0.44988739 3:-0.55933325 
-1 0:-1.7928429 4:1 2:-0.44988739 3:-0.55932863 
-1 0:0 4:1 2:-0.44988739 3:-0.55932863 
-1 0:0 4:1 2:-0.44988739 3:-0.55932863 
-1 0:1.7928429 4:1 2:-0.44988739 3:-0.70574708 
-1 0:0.5976143 4:1 2:-0.44988739 3:-0.70574708 
-1 0:1.1952286 4:1 2:-0.44988739 3:-0.70574708 
-1 0:-0.5976143 4:1 2:-0.44988739 3:-0.70574708 
-1 0:-1.7928429 4:1 2:-0.44988739 3:-0.70574708 
-1 0:0 4:1 2:-0.44988739 3:-0.70574708 
-1 0:0 4:1 2:-0.44988739 3:-0.70574708 
-1 0:0 4:1 2:-0.44988739 3:-0.70574708 
-1 0:0 4:1 2:-0.44988739 3:-0.70574708 
-0.1277069340178983 0:1.7928429 4:1 2:-0.44988739 3:-0.97347482 
-1 0:1.1952286 4:1 2:-0.44988739 3:-0.97314761 
-1 0:-0.5976143 4:1 2:-0.44988739 3:-0.97304972 
-1 0:0 4:1 2:-0.44988739 3:-0.97325589 
-1 0:0 4:1 2:-0.44988739 3:-0.97307981 
-1 0:0 4:1 2:-0.44988739 3:-0.97309225 
-0.67084630374945 0:0 4:1 2:-0.44988739 3:-0.97307596 
1 0:0 4:1 2:-0.44988739 3:-0.56657685 
-1 0:1.1952286 4:1 2:-0.44988739 3:-0.1442468 
-1 0:0 4:1 2:-0.44988739 3:-0.1442459 
-1 0:-1.7928429 4:1 2:-0.44988739 3:-0.14423898 
-1 0:1.7928429 4:1 2:-0.44988739 3:-0.3481615 
-1 0:1.1952286 4:1 2:-0.44988739 3:-0.34814174 
-0.1140893087681702 0:-1.7928429 4:1 2:-0.44988739 3:-0.34808786 
-1 0:0 4:1 2:-0.44988739 3:-0.34812468 
-1 0:0 4:1 2:-0.44988739 3:-0.3481148 
-1 0:1.7928429 4:1 2:-0.44988739 3:-0.56194249 
-1 0:1.1952286 4:1 2:-0.44988739 3:-0.56184525 
-1 0:0 4:1 2:-0.44988739 3:-0.56187578 
-1 0:0 4:1 2:-0.44988739 3:-0.56182703 
-0.5685471972993427 0:1.7928429 9:1 2:-0.44988739 3:-0.70776501 
-1 0:1.7928429 9:1 2:-0.44988739 3:-0.93258106 
-1 0:0.5976143 9:1 2:-0.44988739 3:-0.93245559 
-1 0:-1.7928429 9:1 2:-0.44988739 3:-0.93240447 
-1 0:0 9:1 2:-0.44988739 3:-0.9324928 
-1 0:-1.1952286 9:1 2:-0.44988739 3:-0.93240447 
-0.6406956951334011 0:0 9:1 2:-0.44988739 3:-0.93246149 
-1 0:0 9:1 2:-0.44988739 3:-0.93243006 
-1 0:1.7928429 9:1 2:-0.44988739 3:-0.93258106 
-1 0:0.5976143 9:1 2:-0.44988739 3:-0.93245559 
-1 0:-1.7928429 9:1 2:-0.44988739 3:-0.93240447 
-1 0:-1.1952286 9:1 2:-0.44988739 3:-0.93240447 
-1 0:0 9:1 2:-0.44988739 3:-0.9324928 
-0.2587729611558208 0:0 9:1 2:-0.44988739 3:-0.93246149 
-1 0:0 9:1 2:-0.44988739 3:-0.93243006 
-1 0:1.7928429 9:1 2:-0.44988739 3:-0.80419739 
-1 0:1.1952286 9:1 2:-0.44988739 3:-0.80419739 
-1 0:0.5976143 9:1 2:-0.44988739 3:-0.80419739 
-1 0:0 9:1 2:-0.44988739 3:-0.80419739 
-1 0:-1.7928429 9:1 2:-0.44988739 3:-0.80419739 
-1 0:0 9:1 2:-0.44988739 3:-0.80419739 
-1 0:0 9:1 2:-0.44988739 3:-0.80419739 
-1 0:0 9:1 2:-0.44988739 3:-0.80419739 
-1 0:1.1952286 9:1 2:-0.44988739 3:-0.93345038 
-1 0:1.7928429 9:1 2:-0.44988739 3:-0.93347392 
-1 0:0.5976143 9:1 2:-0.44988739 3:-0.93345038 
-1 0:0 9:1 2:-0.44988739 3:-0.93346218 
-1 0:0 9:1 2:-0.44988739 3:-0.93345038 
-1 0:-0.5976143 9:1 2:-0.44988739 3:-0.93345038 
-1 0:-1.1952286 9:1 2:-0.44988739 3:-0.93345038 
-1 0:0 9:1 2:-0.44988739 3:-0.93345038 
-1 0:-1.7928429 9:1 2:-0.44988739 3:-0.93345038 
-1 0:0 9:1 2:-0.44988739 3:-0.93345038 
-1 0:1.7928429 9:1 2:-0.44988739 3:-0.97526741 
-1 0:-0.5976143 9:1 2:-0.44988739 3:-0.97512141 
-1 0:0.5976143 9:1 2:-0.44988739 3:-0.9751241 
-1 0:0 9:1 2:-0.44988739 3:-0.97519441 
-1 0:0 9:1 2:-0.44988739 3:-0.97512141 
-1 0:-1.7928429 9:1 2:-0.44988739 3:-0.97512141 
-1 0:0 9:1 2:-0.44988739 3:-0.97512275 
0.5877884942604291 0:1.1952286 7:1 2:0.43645792 3:-0.10909855 
1 0:-1.1952286 7:1 2:0.43645792 3:-0.10909855 
1 0:0 7:1 2:0.43645792 3:-0.10909855 
1 0:0 7:1 2:0.43645792 3:-0.10910727 
1 0:0.5976143 7:1 2:0.43645792 3:-0.29907849 
1 0:-1.1952286 7:1 2:0.43645792 3:-0.49472696 
1 0:0 7:1 2:0.43645792 3:-0.49472696 
0.6393338125657666 0:-1.7928429 7:1 2:0.43645792 3:-0.6812227 
1 0:1.1952286 7:1 2:0.43645792 3:0.23683873 
1 0:1.7928429 7:1 2:0.43645792 3:0.23673455 
1 0:-1.1952286 7:1 2:0.43645792 3:0.23683873 
1 0:-0.5976143 7:1 2:0.43645792 3:0.23683873 
1 0:0.5976143 7:1 2:0.43645792 3:0.23683873 
1 0:-1.7928429 7:1 2:0.43645792 3:0.23683873 
1 0:0 7:1 2:0.43645792 3:0.23678664 
1 0:0 7:1 2:0.43645792 3:0.23683873 
1 0:0 7:1 2:0.43645792 3:0.23683873 
1 0:0 7:1 2:0.43645792 3:0.23683873 
1 0:-0.5976143 7:1 2:0.43645792 3:0.042839217 
1 0:1.7928429 7:1 2:0.43645792 3:0.042757493 
1 0:1.1952286 7:1 2:0.43645792 3:0.042777379 
1 0:0.5976143 7:1 2:0.43645792 3:0.042797521 
1 0:0 7:1 2:0.43645792 3:0.042820229 
1 0:0 7:1 2:0.43645792 3:0.042819074 
1 0:0 7:1 2:0.43645792 3:0.042818305 
1 0:0 7:1 2:0.43645792 3:0.042818048 
1 0:0.5976143 7:1 2:0.43645792 3:-0.20631288 
1 0:-0.5976143 7:1 2:0.43645792 3:-0.20631621 
1 0:0 7:1 2:0.43645792 3:-0.20631455 
1 0:-1.1952286 7:1 2:0.43645792 3:-0.20631621 
1 0:0 7:1 2:0.43645792 3:-0.20631455 
1 0:0 7:1 2:0.43645792 3:-0.20631621 
0.9003611391039731 0:1.7928429 7:1 2:0.43645792 3:-0.45336775 
1 0:1.1952286 7:1 2:0.43645792 3:-0.45332773 
1 0:-0.5976143 7:1 2:0.43645792 3:-0.4532682 
1 0:0.5976143 7:1 2:0.43645792 3:-0.45328603 
1 0:-1.1952286 7:1 2:0.43645792 3:-0.4532682 
1 0:0 7:1 2:0.43645792 3:-0.4532682 
0.6678263440860337 0:0 7:1 2:0.43645792 3:-0.45329796 
1 0:0 7:1 2:0.43645792 3:-0.45327718 
0.1207063546786975 0:-1.1952286 6:1 2:0.43645792 3:0.75305734 
1 0:1.7928429 6:1 2:0.43645792 3:0.42515765 
1 0:0.5976143 6:1 2:0.43645792 3:0.42516137 
1 0:-1.1952286 6:1 2:0.43645792 3:0.42516137 
0.121225657748118 0:1.1952286 6:1 2:0.43645792 3:0.75305272 
1 0:-0.5976143 6:1 2:0.43645792 3:0.75305734 
1 0:0 6:1 2:0.43645792 3:0.75305503 
0.3075964474375435 0:0 6:1 2:0.43645792 3:0.75302655 
1 0:1.1952286 6:1 2:0.43645792 3:0.42515765 
1 0:-0.5976143 6:1 2:0.43645792 3:0.42516137 
1 0:-1.7928429 6:1 2:0.43645792 3:0.42516137 
1 0:0 6:1 2:0.43645792 3:0.42515957 
1 0:0 6:1 2:0.43645792 3:0.42516137 
1 0:0 6:1 2:0.43645792 3:0.42515957 
0.7191687508254927 0:-0.5976143 6:1 2:0.43645792 3:0.12865862 
1 0:-1.1952286 6:1 2:0.43645792 3:0.12865862 
1 0:-0.5976143 6:1 2:0.43645792 3:-0.12554132 
1 0:1.1952286 6:1 2:0.43645792 3:-0.32036448 
1 0:0.5976143 6:1 2:0.43645792 3:-0.32030828 
1 0:-0.5976143 6:1 2:0.43645792 3:-0.32020141 
1 0:-1.1952286 6:1 2:0.43645792 3:-0.32005939 
1 0:0 6:1 2:0.43645792 3:-0.32025748 
1 0:-1.7928429 6:1 2:0.43645792 3:-0.32003989 
1 0:0 6:1 2:0.43645792 3:-0.32021193 
1 0:0 6:1 2:0.43645792 3:-0.32025478 
1 0:1.1952286 5:1 2:0.43645792 3:1.3448869 
1 0:-0.5976143 5:1 2:0.43645792 3:1.3449662 
1 0:0 5:1 2:0.43645792 3:1.3447583 
1 0:0 5:1 2:0.43645792 3:1.344928 
0.01182153901950946 0:0 5:1 2:0.43645792 3:1.3449644 
0.5865817534768805 0:1.1952286 5:1 2:0.43645792 3:0.83040256 
1 0:-1.1952286 5:1 2:0.43645792 3:0.83040949 
1 0:0 5:1 2:0.43645792 3:0.83040076 
1 0:-0.5976143 5:1 2:0.43645792 3:0.83040949 
0.006771333003120172 0:0 5:1 2:0.43645792 3:0.83037972 
1 0:0 5:1 2:0.43645792 3:0.83040538 
1 0:0 5:1 2:0.43645792 3:0.8304059 
-1 0:0.5976143 1:1 2:0.43645792 3:2.7190992 
1 0:0 1:1 2:0.43645792 3:2.7188061 
-0.1850281543028725 0:0 1:1 2:0.43645792 3:2.7190992 
-0.9484297357242782 0:-1.7928429 1:1 2:0.43645792 3:2.7190992 
-1 0:0 1:1 2:0.43645792 3:2.7190992 
-1 0:0 1:1 2:0.43645792 3:2.34579 
1 0:0 1:1 2:0.43645792 3:1.4056286 
1 0:1.7928429 1:1 2:0.43645792 3:1.4056286 
1 0:-0.5976143 1:1 2:0.43645792 3:1.1298509 
-1 0:1.7928429 9:1 2:1.3496622 3:-0.17294342 
1 0:0 1:1 2:0.43645792 3:1.5078487 
1 0:-1.1952286 1:1 2:0.43645792 3:0.95833067 
0.5234163863777855 0:-0.5976143 1:1 2:0.43645792 3:0.95833067 
1 0:1.1952286 1:1 2:0.43645792 3:0.38710098 
1 0:1.7928429 1:1 2:0.43645792 3:0.38709828 
1 0:0 1:1 2:0.43645792 3:0.38710714 
1 0:1.7928429 1:1 2:0.43645792 3:0.18532353 
1 0:1.1952286 1:1 2:0.43645792 3:0.18532456 
1 0:0 1:1 2:0.43645792 3:0.18532545 
0.1264777920305488 0:1.7928429 1:1 2:0.43645792 3:1.5078472 
1 0:0 1:1 2:0.43645792 3:1.5078487 
0.1417009804684279 0:-0.5976143 1:1 2:0.43645792 3:0.95833067 
1 0:-1.1952286 1:1 2:0.43645792 3:0.95833067 
1 0:1.1952286 8:1 2:0.43645792 3:1.3448869 
1 0:1.1952286 8:1 2:0.43645792 3:1.0859876 
1 0:1.1952286 8:1 2:0.43645792 3:0.83040256 
1 0:-0.5976143 8:1 2:0.43645792 3:0.83040949 
0.1075032230000403 0:-1.1952286 8:1 2:0.43645792 3:0.83040949 
1 0:-0.5976143 8:1 2:0.43645792 3:0.57144677 
1 0:1.7928429 8:1 2:0.43645792 3:0.32257307 
1 0:0 8:1 2:0.43645792 3:0.32257436 
1 0:0 8:1 2:0.43645792 3:0.32257577 
1 0:1.1952286 8:1 2:0.43645792 3:0.026371303 
0.5882657275753213 0:1.7928429 8:1 2:0.43645792 3:0.026385031 
0.3713325128238184 0:-1.1952286 8:1 2:0.43645792 3:0.026399528 
1 0:-0.5976143 8:1 2:0.43645792 3:0.026399528 
-0.312987406197084 0:0 7:1 2:1.3496622 3:0.71336095 
-1 0:1.7928429 5:1 2:1.3496622 3:1.9107708 
1 0:1.1952286 8:1 2:0.43645792 3:1.243997 
1 0:0 8:1 2:0.43645792 3:1.244036 
0.02625532318577492 0:1.1952286 8:1 2:0.43645792 3:0.75305272 
1 0:-0.5976143 8:1 2:0.43645792 3:0.75305734 
1 0:1.1952286 8:1 2:0.43645792 3:1.0019041 
1 0:0 8:1 2:0.43645792 3:1.0019167 
1 0:-1.1952286 8:1 2:0.43645792 3:0.75305734 
1 0:1.7928429 8:1 2:0.43645792 3:0.42515765 
1 0:1.1952286 8:1 2:0.43645792 3:0.42515765 
1 0:0 8:1 2:0.43645792 3:0.42515957 
1 0:-1.7928429 8:1 2:0.43645792 3:0.42516137 
1 0:-1.1952286 8:1 2:0.43645792 3:0.42516137 
1 0:0 8:1 2:0.43645792 3:0.42515957 
1 0:0.5976143 4:1 2:0.43645792 3:0.53780199 
1 0:1.1952286 4:1 2:0.43645792 3:0.23676278 
1 0:1.7928429 4:1 2:0.43645792 3:0.23676047 
1 0:0 4:1 2:0.43645792 3:0.53780199 
0.6293157214417225 0:-1.1952286 4:1 2:0.43645792 3:0.23676278 
1 0:0 4:1 2:0.43645792 3:0.23676278 
1 0:1.1952286 4:1 2:0.43645792 3:-0.044468396 
1 0:-1.1952286 4:1 2:0.43645792 3:0.18362851 
1 0:0 4:1 2:0.43645792 3:0.18361568 
1 0:-0.5976143 4:1 2:0.43645792 3:0.18362851 
1 0:0 4:1 2:0.43645792 3:0.18362274 
1 0:1.1952286 4:1 2:0.43645792 3:-0.021824935 
1 0:-1.1952286 4:1 2:0.43645792 3:-0.021753604 
1 0:1.7928429 4:1 2:0.43645792 3:-0.26280972 
1 0:0.5976143 4:1 2:0.43645792 3:-0.26278919 
1 0:-1.1952286 4:1 2:0.43645792 3:-0.26279009 
1 0:0 4:1 2:0.43645792 3:-0.26278971 
1 0:0.5976143 4:1 2:0.43645792 3:-0.46645102 
0.7754311130476103 0:0 4:1 2:0.43645792 3:-0.021784266 
1 0:1.1952286 4:1 2:0.43645792 3:-0.26278919 
1 0:-0.5976143 4:1 2:0.43645792 3:-0.26279009 
1 0:-1.1952286 4:1 2:0.43645792 3:-0.46645102 
1 0:0 4:1 2:0.43645792 3:-0.46645102 
1 0:-0.5976143 4:1 2:0.43645792 3:-0.46645102 
1 0:0 4:1 2:0.43645792 3:-0.46645102 
0.9155830727709645 0:1.1952286 4:1 2:0.43645792 3:0.88082149 
1 0:1.7928429 4:1 2:0.43645792 3:0.10185164 
0.8699502369033479 0:1.1952286 4:1 2:0.43645792 3:0.10187551 
1 0:0 4:1 2:0.43645792 3:0.10192695 
1 0:0.5976143 4:1 2:0.43645792 3:0.10189937 
1 0:1.7928429 4:1 2:0.43645792 3:-0.12419834 
1 0:0 4:1 2:0.43645792 3:-0.12411867 
1 0:1.7928429 4:1 2:0.43645792 3:-0.37999194 
1 0:1.1952286 4:1 2:0.43645792 3:-0.37999194 
1 0:0.5976143 4:1 2:0.43645792 3:-0.37999194 
1 0:-1.1952286 4:1 2:0.43645792 3:-0.37999194 
1 0:0 4:1 2:0.43645792 3:-0.37999194 
1 0:-0.5976143 4:1 2:0.43645792 3:-0.37999194 
1 0:-1.1952286 9:1 2:0.43645792 3:-0.55117775 
1 0:1.1952286 9:1 2:0.43645792 3:-0.69335153 
1 0:0.5976143 9:1 2:0.43645792 3:-0.69329944 
1 0:-0.5976143 9:1 2:0.43645792 3:-0.69319045 
1 0:-1.1952286 9:1 2:0.43645792 3:-0.69316018 
1 0:-1.7928429 9:1 2:0.43645792 3:-0.69312894 
1 0:0 9:1 2:0.43645792 3:-0.69324498 
1 0:0 9:1 2:0.43645792 3:-0.69325588 
1 0:0 9:1 2:0.43645792 3:-0.69326602 
1 0:0 9:1 2:0.43645792 3:-0.69324492 
1 0:1.7928429 9:1 2:0.43645792 3:-0.80419739 
1 0:0 9:1 2:0.43645792 3:-0.80419739 
1 0:1.1952286 9:1 2:0.43645792 3:-0.80419739 
1 0:-0.5976143 9:1 2:0.43645792 3:-0.80419739 
0.2901041336576545 0:-1.7928429 9:1 2:0.43645792 3:-0.80419739 
1 0:-1.1952286 9:1 2:0.43645792 3:-0.80419739 
1 0:0 9:1 2:0.43645792 3:-0.80419739 
1 0:0 9:1 2:0.43645792 3:-0.80419739 
1 0:0 9:1 2:0.43645792 3:-0.80419739 
1 0:-1.1952286 9:1 2:0.43645792 3:-0.67421055 
1 0:0.5976143 9:1 2:0.43645792 3:-0.60079715 
0.3037438001583115 0:0 9:1 2:0.43645792 3:-0.6006092 
1 0:-0.5976143 9:1 2:0.43645792 3:-0.67421055 
1 0:1.1952286 9:1 2:0.43645792 3:-0.60083923 
1 0:-0.5976143 9:1 2:0.43645792 3:-0.6006092 
1 0:0 9:1 2:0.43645792 3:-0.60070311 
1 0:-1.7928429 9:1 2:0.43645792 3:-0.67421055 
1 0:0 9:1 2:0.43645792 3:-0.67421729 
1 0:0 9:1 2:0.43645792 3:-0.67421055 
1 0:-1.7928429 9:1 2:0.43645792 3:-0.82148061 
1 0:0 9:1 2:0.43645792 3:-0.82148061 
1 0:1.7928429 7:1 2:-1.3362327 3:-1.286231 
0.5005436644109925 0:0 7:1 2:-1.3362327 3:-1.2862304 
1 0:1.7928429 7:1 2:-1.3362327 3:-1.286231 
1 0:1.7928429 7:1 2:-1.3362327 3:-1.286231 
0.2863004330660422 0:0 7:1 2:-1.3362327 3:-1.2862304 
1 0:1.7928429 7:1 2:-1.3362327 3:-1.286231 
1 0:0 7:1 2:-1.3362327 3:-1.2862304 
1 0:1.7928429 7:1 2:-1.3362327 3:-1.286231 
0.2527075579728333 0:-1.7928429 7:1 2:-1.3362327 3:-1.2862297 
1 0:1.7928429 7:1 2:-1.3362327 3:-1.286231 
1 0:0 7:1 2:-1.3362327 3:-1.2862304 
1 0:-1.7928429 7:1 2:-1.3362327 3:-1.2862297 
1 0:0 7:1 2:-1.3362327 3:-1.2862304 
1 0:-1.7928429 7:1 2:-1.3362327 3:-1.2862297 
1 0:0 7:1 2:-1.3362327 3:-1.2862304 
1 0:1.7928429 7:1 2:-1.3362327 3:-1.286231 
1 0:0 7:1 2:-1.3362327 3:-1.2862304 
1 0:-1.7928429 7:1 2:-1.3362327 3:-1.2862297 
1 0:1.7928429 7:1 2:-1.3362327 3:-1.286231 
1 0:0 7:1 2:-1.3362327 3:-1.2862304 
1 0:-1.7928429 7:1 2:-1.3362327 3:-1.2862297 
1 0:1.7928429 7:1 2:-1.3362327 3:-1.286231 
0.9782161701004763 0:-1.7928429 7:1 2:-1.3362327 3:-1.2862297 
1 0:0 7:1 2:-1.3362327 3:-1.2862304 
-0.7439057386695883 0:1.7928429 8:1 2:1.3496622 3:1.9107708 
-1 0:1.1952286 8:1 2:1.3496622 3:1.9112281 
-1 0:-1.7928429 8:1 2:1.3496622 3:1.9116689 
-1 0:0 8:1 2:1.3496622 3:1.9115208 
-1 0:0.5976143 8:1 2:1.3496622 3:1.5752014 
-0.05044138151092116 0:-1.7928429 8:1 2:1.3496622 3:1.5753715 
-1 0:1.1952286 8:1 2:1.3496622 3:1.5750554 
1 0:1.7928429 8:1 2:1.3496622 3:1.272405 
-1 0:1.7928429 8:1 2:1.3496622 3:0.97662741 
-0.7003200227811729 0:-1.7928429 8:1 2:1.3496622 3:0.97680625 
-1 0:1.7928429 8:1 2:1.3496622 3:0.67575754 
-1 0:0 8:1 2:1.3496622 3:0.67578576 
-1 0:-1.7928429 8:1 2:1.3496622 3:0.37313723 
-1 0:-1.7928429 8:1 2:1.3496622 3:1.7502479 
-0.7407936940366221 0:0 8:1 2:1.3496622 3:1.7501235 
-1 0:1.7928429 8:1 2:1.3496622 3:0.78872736 
-1 0:-0.5976143 6:1 2:-1.3362327 3:-1.1770106 
0.01554920227021584 0:0.5976143 6:1 2:-1.3362327 3:-1.1770106 
-1 0:0 6:1 2:-1.3362327 3:-1.1770106 
-0.9910479508111086 0:0 6:1 2:-1.3362327 3:-1.1770106 
-1 0:-0.5976143 6:1 2:-1.3362327 3:-1.1770106 
-1 0:0 6:1 2:-1.3362327 3:-1.1770106 
-0.9974308913618023 0:0 6:1 2:-1.3362327 3:-1.1770106 
0.9472148537724204 0:0.5976143 6:1 2:-1.3362327 3:-1.1770106 
-1 0:-0.5976143 6:1 2:-1.3362327 3:-1.1770106 
-1 0:0 6:1 2:-1.3362327 3:-1.1770106 
-0.5389508145411986 0:0 6:1 2:-1.3362327 3:-1.1770106 
1 0:-0.5976143 6:1 2:-1.3362327 3:-1.2862297 
1 0:1.7928429 6:1 2:-1.3362327 3:-1.286231 
1 0:1.1952286 6:1 2:-1.3362327 3:-1.2862297 
1 0:-1.1952286 6:1 2:-1.3362327 3:-1.2862297 
1 0:0.5976143 6:1 2:-1.3362327 3:-1.2862297 
1 0:0 6:1 2:-1.3362327 3:-1.2862304 
1 0:-1.7928429 6:1 2:-1.3362327 3:-1.2862297 
1 0:0 6:1 2:-1.3362327 3:-1.2862297 
1 0:0 6:1 2:-1.3362327 3:-1.2862297 
1 0:1.7928429 6:1 2:-1.3362327 3:-1.286231 
1 0:-0.5976143 6:1 2:-1.3362327 3:-1.2862297 
1 0:0 6:1 2:-1.3362327 3:-1.2862297 
1 0:0.5976143 6:1 2:-1.3362327 3:-1.2862297 
1 0:1.1952286 6:1 2:-1.3362327 3:-1.2862297 
1 0:-1.1952286 6:1 2:-1.3362327 3:-1.2862297 
1 0:-1.7928429 6:1 2:-1.3362327 3:-1.2862297 
1 0:0 6:1 2:-1.3362327 3:-1.2862297 
1 0:0 6:1 2:-1.3362327 3:-1.2862304 
1 0:0 6:1 2:-1.3362327 3:-1.2862297 
1 0:0 6:1 2:-1.3362327 3:-1.2862297 
-0.797156867245482 0:1.7928429 1:1 2:-1.3362327 3:-1.0781032 
-0.6822623567253954 0:-1.7928429 1:1 2:-1.3362327 3:-1.0776135 
-1 0:0 1:1 2:-1.3362327 3:-1.0778584 
-0.2556313665147316 0:-1.7928429 1:1 2:-1.3362327 3:-1.0776135 
-1 0:0 1:1 2:-1.3362327 3:-1.0778584 
-1 0:0 1:1 2:-1.3362327 3:-1.0778584 
-1 0:0 1:1 2:-1.3362327 3:-1.0778584 
-1 0:0 1:1 2:-1.3362327 3:-1.0778584 
-0.3862401297085737 0:0 1:1 2:-1.3362327 3:-1.0778584 
1 0:0.5976143 5:1 2:-1.3362327 3:-1.1770106 
-0.09011753568992459 0:0 5:1 2:-1.3362327 3:-1.1770106 
1 0:1.1952286 5:1 2:-1.3362327 3:-1.1770106 
0.07640971731702224 0:-1.7928429 5:1 2:-1.3362327 3:-1.1770106 
1 0:0.5976143 5:1 2:-1.3362327 3:-1.1770106 
1 0:1.1952286 5:1 2:-1.3362327 3:-1.1770106 
0.7860195751931534 0:-1.7928429 5:1 2:-1.3362327 3:-1.1770106 
-0.5173232386807607 0:0 5:1 2:-1.3362327 3:-1.1770106 
-0.3520799984423101 0:0 1:1 2:-1.3362327 3:-1.0778584 
-0.004721544387721547 0:-1.7928429 1:1 2:-1.3362327 3:-1.0776135 
-0.06593943581848664 0:1.7928429 1:1 2:-1.3362327 3:-1.0781032 
-1 0:0 1:1 2:-1.3362327 3:-1.0778584 
-1 0:0 1:1 2:-1.3362327 3:-1.0778584 
1 0:1.7928429 1:1 2:-1.3362327 3:-1.286231 
1 0:-0.5976143 1:1 2:-1.3362327 3:-1.2862297 
1 0:0.5976143 1:1 2:-1.3362327 3:-1.2862297 
1 0:1.1952286 1:1 2:-1.3362327 3:-1.2862297 
1 0:-1.1952286 1:1 2:-1.3362327 3:-1.2862297 
1 0:-1.7928429 1:1 2:-1.3362327 3:-1.2862297 
1 0:0 1:1 2:-1.3362327 3:-1.2862304 
1 0:0 1:1 2:-1.3362327 3:-1.2862297 
1 0:0 1:1 2:-1.3362327 3:-1.2862297 
1 0:0.5976143 1:1 2:-1.3362327 3:-1.2862297 
1 0:0 1:1 2:-1.3362327 3:-1.2862297 
1 0:1.1952286 1:1 2:-1.3362327 3:-1.2862297 
1 0:1.7928429 1:1 2:-1.3362327 3:-1.286231 
1 0:-0.5976143 1:1 2:-1.3362327 3:-1.2862297 
1 0:-1.1952286 1:1 2:-1.3362327 3:-1.2862297 
1 0:-1.7928429 1:1 2:-1.3362327 3:-1.2862297 
1 0:0 1:1 2:-1.3362327 3:-1.2862304 
1 0:0 1:1 2:-1.3362327 3:-1.2862297 
1 0:0 1:1 2:-1.3362327 3:-1.2862297 
1 0:0 1:1 2:-1.3362327 3:-1.2862297 
-1 0:0 1:1 2:-1.3362327 3:-1.0778584 
-1 0:0 1:1 2:-1.3362327 3:-1.0778584 
-1 0:0 1:1 2:-1.3362327 3:-1.0778584 
-1 0:0 1:1 2:-1.3362327 3:-1.0778584 
-1 0:-1.7928429 1:1 2:-1.3362327 3:-1.0776135 
-0.9960367994364776 0:0 1:1 2:-1.3362327 3:-1.0778584 
-0.007023940257011405 0:1.7928429 1:1 2:-1.3362327 3:-1.0781032 
-0.1762056910437644 0:-1.7928429 1:1 2:-1.3362327 3:-1.0776135 
-0.9920171319388497 0:0 1:1 2:-1.3362327 3:-1.0778584 
-1 0:1.7928429 4:1 2:1.3496622 3:0.67674874 
-0.4424055790441913 0:-1.7928429 4:1 2:1.3496622 3:0.97790701 
-1 0:1.7928429 4:1 2:1.3496622 3:0.37663593 
-0.2029102371658338 0:0.5976143 4:1 2:1.3496622 3:0.37663593 
-1 0:1.1952286 4:1 2:1.3496622 3:0.37663593 
-1 0:0 4:1 2:1.3496622 3:0.37663696 
-1 0:0 4:1 2:1.3496622 3:0.37663696 
-0.8350796356344209 0:-0.5976143 4:1 2:1.3496622 3:-0.23489185 
-1 0:0 4:1 2:1.3496622 3:-0.23489185 
-1 0:0 4:1 2:1.3496622 3:-0.23489185 
1 0:1.7928429 4:1 2:1.3496622 3:-0.53447159 
1 0:0.5976143 8:1 2:-1.3362327 3:-1.1770106 
0.07292266469803489 0:-1.7928429 8:1 2:-1.3362327 3:-1.1770106 
-0.155212372132079 0:0 8:1 2:-1.3362327 3:-1.1770106 
1 0:0.5976143 8:1 2:-1.3362327 3:-1.1770106 
1 0:0.5976143 8:1 2:-1.3362327 3:-1.1770106 
1 0:0.5976143 8:1 2:-1.3362327 3:-1.1770106 
1 0:0.5976143 8:1 2:-1.3362327 3:-1.1770106 
1 0:0.5976143 8:1 2:-1.3362327 3:-1.1770106 
-1 0:1.7928429 4:1 2:1.3496622 3:-0.19651367 
-0.5587187897320773 0:-1.7928429 4:1 2:1.3496622 3:-0.19650726 
-1 0:0 4:1 2:1.3496622 3:-0.19651047 
0.1463359698185526 0:1.7928429 4:1 2:1.3496622 3:1.4476212 
-1 0:0.5976143 4:1 2:1.3496622 3:1.4478416 
-0.1213757837956288 0:0 4:1 2:1.3496622 3:1.4478665 
-1 0:-1.7928429 4:1 2:1.3496622 3:1.4478914 
-1 0:0 4:1 2:1.3496622 3:1.447886 
-1 0:1.7928429 4:1 2:1.3496622 3:0.84642773 
-1 0:-1.7928429 4:1 2:1.3496622 3:1.1470538 
-1 0:1.1952286 4:1 2:1.3496622 3:0.84648264 
-1 0:1.1952286 9:1 2:1.3496622 3:-0.17285669 
-1 0:-0.5976143 9:1 2:1.3496622 3:-0.17258497 
-1 0:-1.1952286 9:1 2:1.3496622 3:-0.17248772 
-1 0:0 9:1 2:1.3496622 3:-0.17266233 
-1 0:0 9:1 2:1.3496622 3:-0.1726758 
-1 0:-1.7928429 9:1 2:1.3496622 3:-0.17238111 
-1 0:0 9:1 2:1.3496622 3:-0.17267618 
-1 0:0 9:1 2:1.3496622 3:-0.17267221 
-0.3954415769390283 0:1.1952286 9:1 2:1.3496622 3:-0.47169079 
1 0:1.7928429 9:1 2:1.3496622 3:-0.67129469 
-1 0:0 9:1 2:1.3496622 3:-0.47169079 
-1 0:0 9:1 2:1.3496622 3:-0.47169079 
1 0:1.1952286 9:1 2:1.3496622 3:-0.67126274 
1 0:0.5976143 9:1 2:1.3496622 3:-0.67122477 
0.1078797578110312 0:0 9:1 2:1.3496622 3:-0.67125248 
1 0:0 9:1 2:1.3496622 3:-0.67121752 
1 0:0 9:1 2:1.3496622 3:-0.67123651 
-0.2890937096270603 0:-1.7928429 9:1 2:1.3496622 3:-0.23750442 
-0.9139860640206259 0:-1.1952286 9:1 2:1.3496622 3:-0.23753059 
-1 0:0 9:1 2:1.3496622 3:-0.42148766 
-1 0:0 9:1 2:1.3496622 3:-0.58120516 
-0.2018818971091085 0:1.7928429 7:1 2:1.3496622 3:0.0064640916 
-1 0:0 7:1 2:1.3496622 3:0.0064640916 
-1 0:0 7:1 2:1.3496622 3:0.0064640916 
-1 0:0 7:1 2:1.3496622 3:-0.14579146 
-0.5257476675755348 0:1.7928429 7:1 2:1.3496622 3:0.71335992 
-1 0:0.5976143 7:1 2:1.3496622 3:0.71335967 
-1 0:0 7:1 2:1.3496622 3:0.7133612 
-1 0:0.5976143 7:1 2:1.3496622 3:0.42749542 
1 0:1.7928429 7:1 2:1.3496622 3:-0.14921575 
-1 0:1.1952286 7:1 2:1.3496622 3:0.71335992 
-1 0:-1.7928429 7:1 2:1.3496622 3:0.71336249 
-1 0:0 7:1 2:1.3496622 3:0.7133612 
-1 0:1.1952286 7:1 2:1.3496622 3:0.42749542 
-1 0:-1.7928429 7:1 2:1.3496622 3:0.42749542 
-1 0:0 7:1 2:1.3496622 3:0.42749542 
-0.324215575720642 0:-1.7928429 7:1 2:1.3496622 3:0.13826539 
1 0:0.5976143 8:1 2:-1.3362327 3:-1.1770106 
1 0:0.5976143 8:1 2:-1.3362327 3:-1.1770106 
-0.6318717964514347 0:0 8:1 2:-1.3362327 3:-1.1770106 
1 0:0.5976143 8:1 2:-1.3362327 3:-1.1770106 
-1 0:0 8:1 2:-1.3362327 3:-1.1770106 
1 0:0.5976143 8:1 2:-1.3362327 3:-1.1770106 
0.9921232915782199 0:-1.7928429 8:1 2:-1.3362327 3:-1.1770106 
-1 0:0 8:1 2:-1.3362327 3:-1.1770106 
1 0:0.5976143 8:1 2:-1.3362327 3:-1.1770106 
0.9966946827823978 0:-1.7928429 8:1 2:-1.3362327 3:-1.1770106 
-1 0:0 8:1 2:-1.3362327 3:-1.1770106 
0.3242520515868741 0:0.5976143 4:1 2:-1.3362327 3:-1.1770106 
-1 0:0 4:1 2:-1.3362327 3:-1.1770106 
-1 0:0 4:1 2:-1.3362327 3:-1.1770106 
-1 0:0 4:1 2:-1.3362327 3:-1.1770106 
0.8072650747586529 0:0.5976143 4:1 2:-1.3362327 3:-1.1770106 
1 0:0.5976143 4:1 2:-1.3362327 3:-1.1770106 
-1 0:0 4:1 2:-1.3362327 3:-1.1770106 
1 0:0.5976143 4:1 2:-1.3362327 3:-1.1770106 
-1 0:0 4:1 2:-1.3362327 3:-1.1770106 
1 0:0.5976143 4:1 2:-1.3362327 3:-1.1770106 
-1 0:0 4:1 2:-1.3362327 3:-1.1770106 
-1 0:0 7:1 2:1.3496622 3:0.30591131 
-1 0:1.7928429 7:1 2:1.3496622 3:0.30581689 
-1 0:0.5976143 7:1 2:1.3496622 3:0.30588039 
-1 0:-1.7928429 7:1 2:1.3496622 3:0.30600586 
1 0:1.7928429 7:1 2:1.3496622 3:0.036329207 
-1 0:-1.7928429 6:1 2:1.3496622 3:1.1889412 
-1 0:0 6:1 2:1.3496622 3:1.1889412 
-1 0:-1.1952286 6:1 2:1.3496622 3:1.1889412 
-1 0:0 6:1 2:1.3496622 3:1.1889412 
-1 0:1.1952286 6:1 2:1.3496622 3:0.78872736 
-1 0:1.7928429 6:1 2:1.3496622 3:0.78872736 
-1 0:0.5976143 6:1 2:1.3496622 3:0.78872736 
-1 0:-1.7928429 6:1 2:1.3496622 3:0.78872736 
-0.5838538899199414 0:1.7928429 6:1 2:1.3496622 3:0.49970183 
-1 0:0 6:1 2:1.3496622 3:0.78872736 
-0.3367049147334788 0:0 6:1 2:1.3496622 3:0.78872736 
-0.1155234129513836 0:-1.7928429 6:1 2:1.3496622 3:0.49972236 
-1 0:-1.7928429 6:1 2:1.3496622 3:0.21324666 
-0.4522485401067755 0:0 6:1 2:1.3496622 3:0.21313954 
1 0:1.7928429 6:1 2:1.3496622 3:-0.070674574 
1 0:0.5976143 4:1 2:-1.3362327 3:-1.1770106 
-1 0:0 4:1 2:-1.3362327 3:-1.1770106 
1 0:0.5976143 4:1 2:-1.3362327 3:-1.1770106 
-1 0:0 4:1 2:-1.3362327 3:-1.1770106 
1 0:1.7928429 4:1 2:-1.3362327 3:-1.286231 
1 0:1.1952286 4:1 2:-1.3362327 3:-1.2862297 
1 0:-0.5976143 4:1 2:-1.3362327 3:-1.2862297 
1 0:-1.7928429 4:1 2:-1.3362327 3:-1.2862297 
1 0:0 4:1 2:-1.3362327 3:-1.2862297 
1 0:1.7928429 4:1 2:-1.3362327 3:-1.286231 
1 0:0.5976143 4:1 2:-1.3362327 3:-1.2862297 
1 0:-1.1952286 4:1 2:-1.3362327 3:-1.2862297 
1 0:0 4:1 2:-1.3362327 3:-1.2862304 
1 0:0 4:1 2:-1.3362327 3:-1.2862297 
1 0:0 4:1 2:-1.3362327 3:-1.2862297 
1 0:1.1952286 4:1 2:-1.3362327 3:-1.2862297 
1 0:-0.5976143 4:1 2:-1.3362327 3:-1.2862297 
1 0:0 4:1 2:-1.3362327 3:-1.2862304 
1 0:0.5976143 4:1 2:-1.3362327 3:-1.2862297 
1 0:-1.7928429 4:1 2:-1.3362327 3:-1.2862297 
1 0:-1.1952286 4:1 2:-1.3362327 3:-1.2862297 
1 0:0 4:1 2:-1.3362327 3:-1.2862297 
1 0:0 4:1 2:-1.3362327 3:-1.2862297 
1 0:0 4:1 2:-1.3362327 3:-1.2862297 
1 0:0.5976143 4:1 2:-1.3362327 3:-1.1770106 
-1 0:0 4:1 2:-1.3362327 3:-1.1770106 
1 0:0.5976143 4:1 2:-1.3362327 3:-1.1770106 
-1 0:0 4:1 2:-1.3362327 3:-1.1770106 
1 0:0.5976143 4:1 2:-1.3362327 3:-1.1770106 
-1 0:0 4:1 2:-1.3362327 3:-1.1770106 
1 0:0.5976143 4:1 2:-1.3362327 3:-1.1770106 
-1 0:0 4:1 2:-1.3362327 3:-1.1770106 
1 0:0.5976143 4:1 2:-1.3362327 3:-1.1770106 
-1 0:0 4:1 2:-1.3362327 3:-1.1770106 
1 0:0.5976143 4:1 2:-1.3362327 3:-1.1770106 
-1 0:0 4:1 2:-1.3362327 3:-1.1770106 
0.232783796405356 0:1.1952286 9:1 2:-1.3362327 3:-1.2862297 
1 0:1.7928429 9:1 2:-1.3362327 3:-1.286231 
0.4408504207843262 0:-1.7928429 9:1 2:-1.3362327 3:-1.2862297 
1 0:1.7928429 9:1 2:-1.3362327 3:-1.286231 
1 0:0 9:1 2:-1.3362327 3:-1.2862304 
1 0:0 9:1 2:-1.3362327 3:-1.2862304 
1 0:-1.7928429 9:1 2:-1.3362327 3:-1.2862297 
1 0:1.7928429 9:1 2:-1.3362327 3:-1.286231 
0.3847914126785754 0:1.1952286 9:1 2:-1.3362327 3:-1.2862297 
1 0:-1.7928429 9:1 2:-1.3362327 3:-1.2862297 
1 0:0 9:1 2:-1.3362327 3:-1.2862304 
1 0:1.1952286 9:1 2:-1.3362327 3:-1.2862297 
1 0:-1.7928429 9:1 2:-1.3362327 3:-1.2862297 
1 0:0 9:1 2:-1.3362327 3:-1.2862304 
1 0:1.7928429 9:1 2:-1.3362327 3:-1.286231 
1 0:0 9:1 2:-1.3362327 3:-1.2862304 
1 0:1.7928429 9:1 2:-1.3362327 3:-1.286231 
1 0:1.1952286 9:1 2:-1.3362327 3:-1.2862297 
1 0:-1.7928429 9:1 2:-1.3362327 3:-1.2862297 
0.8589953393490565 0:1.1952286 9:1 2:-1.3362327 3:-1.2862297 
1 0:1.7928429 9:1 2:-1.3362327 3:-1.286231 
1 0:-1.7928429 9:1 2:-1.3362327 3:-1.2862297 
-1 0:1.1952286 5:1 2:1.3496622 3:1.9112281 
1 0:0 9:1 2:-1.3362327 3:-1.2862304 
-1 0:0.5976143 5:1 2:1.3496622 3:1.9114267 
-0.5876309840266396 0:-1.1952286 5:1 2:1.3496622 3:1.911642 
-1 0:-1.7928429 5:1 2:1.3496622 3:1.9116689 
-1 0:0 5:1 2:1.3496622 3:1.9115208 
-0.2452651153700677 0:1.1952286 5:1 2:1.3496622 3:1.2725528 
-1 0:-1.7928429 5:1 2:1.3496622 3:1.2727024 
-1 0:0.5976143 1:1 2:1.3496622 3:3.0819719 
-1 0:1.1952286 1:1 2:1.3496622 3:3.0813366 
0.2115001035163572 0:1.7928429 1:1 2:1.3496622 3:3.0793654 
1 0:0 1:1 2:1.3496622 3:3.0809917 
1 0:1.7928429 1:1 2:1.3496622 3:2.7448641 
-1 0:0 1:1 2:1.3496622 3:3.0823891 
-1 0:-1.7928429 1:1 2:1.3496622 3:2.7463 
1 0:0 1:1 2:1.3496622 3:2.7455821 
-1 0:0 1:1 2:1.3496622 3:2.7462933 
-1 0:1.7928429 1:1 2:1.3496622 3:2.3891679 
-1 0:1.7928429 1:1 2:1.3496622 3:2.0531328 
-1 0:0 1:1 2:1.3496622 3:2.3898035 
-0.8315653575649401 0:0 1:1 2:1.3496622 3:2.0534958 
-1 0:0.5976143 1:1 2:1.3496622 3:1.7171781 
1 0:1.1952286 1:1 2:1.3496622 3:1.4068364 
-1 0:1.7928429 1:1 2:1.3496622 3:1.070522 
-1 0:0 1:1 2:1.3496622 3:1.070522 
1 0:1.7928429 1:1 2:1.3496622 3:1.5456825 
1 0:0 1:1 2:1.3496622 3:1.5456825 
