FANN_FLO_2.1
num_layers=3
learning_rate=0,700000
connection_rate=1,000000
network_type=0
learning_momentum=0,000000
training_algorithm=2
train_error_function=1
train_stop_function=0
cascade_output_change_fraction=0,010000
quickprop_decay=-0,000100
quickprop_mu=1,750000
rprop_increase_factor=1,200000
rprop_decrease_factor=0,500000
rprop_delta_min=0,000000
rprop_delta_max=50,000000
rprop_delta_zero=0,100000
cascade_output_stagnation_epochs=12
cascade_candidate_change_fraction=0,010000
cascade_candidate_stagnation_epochs=12
cascade_max_out_epochs=150
cascade_min_out_epochs=50
cascade_max_cand_epochs=150
cascade_min_cand_epochs=50
cascade_num_candidate_groups=2
bit_fail_limit=3,49999999999999977796e-01
cascade_candidate_limit=1,00000000000000000000e+03
cascade_weight_multiplier=4,00000000000000022204e-01
cascade_activation_functions_count=10
cascade_activation_functions=3 5 7 8 10 11 14 15 16 17 
cascade_activation_steepnesses_count=4
cascade_activation_steepnesses=2,50000000000000000000e-01 5,00000000000000000000e-01 7,50000000000000000000e-01 1,00000000000000000000e+00 
layer_sizes=65 14 2 
scale_included=0
neurons (num_inputs, activation_function, activation_steepness)=(0, 0, 0,00000000000000000000e+00) (0, 0, 0,00000000000000000000e+00) (0, 0, 0,00000000000000000000e+00) (0, 0, 0,00000000000000000000e+00) (0, 0, 0,00000000000000000000e+00) (0, 0, 0,00000000000000000000e+00) (0, 0, 0,00000000000000000000e+00) (0, 0, 0,00000000000000000000e+00) (0, 0, 0,00000000000000000000e+00) (0, 0, 0,00000000000000000000e+00) (0, 0, 0,00000000000000000000e+00) (0, 0, 0,00000000000000000000e+00) (0, 0, 0,00000000000000000000e+00) (0, 0, 0,00000000000000000000e+00) (0, 0, 0,00000000000000000000e+00) (0, 0, 0,00000000000000000000e+00) (0, 0, 0,00000000000000000000e+00) (0, 0, 0,00000000000000000000e+00) (0, 0, 0,00000000000000000000e+00) (0, 0, 0,00000000000000000000e+00) (0, 0, 0,00000000000000000000e+00) (0, 0, 0,00000000000000000000e+00) (0, 0, 0,00000000000000000000e+00) (0, 0, 0,00000000000000000000e+00) (0, 0, 0,00000000000000000000e+00) (0, 0, 0,00000000000000000000e+00) (0, 0, 0,00000000000000000000e+00) (0, 0, 0,00000000000000000000e+00) (0, 0, 0,00000000000000000000e+00) (0, 0, 0,00000000000000000000e+00) (0, 0, 0,00000000000000000000e+00) (0, 0, 0,00000000000000000000e+00) (0, 0, 0,00000000000000000000e+00) (0, 0, 0,00000000000000000000e+00) (0, 0, 0,00000000000000000000e+00) (0, 0, 0,00000000000000000000e+00) (0, 0, 0,00000000000000000000e+00) (0, 0, 0,00000000000000000000e+00) (0, 0, 0,00000000000000000000e+00) (0, 0, 0,00000000000000000000e+00) (0, 0, 0,00000000000000000000e+00) (0, 0, 0,00000000000000000000e+00) (0, 0, 0,00000000000000000000e+00) (0, 0, 0,00000000000000000000e+00) (0, 0, 0,00000000000000000000e+00) (0, 0, 0,00000000000000000000e+00) (0, 0, 0,00000000000000000000e+00) (0, 0, 0,00000000000000000000e+00) (0, 0, 0,00000000000000000000e+00) (0, 0, 0,00000000000000000000e+00) (0, 0, 0,00000000000000000000e+00) (0, 0, 0,00000000000000000000e+00) (0, 0, 0,00000000000000000000e+00) (0, 0, 0,00000000000000000000e+00) (0, 0, 0,00000000000000000000e+00) (0, 0, 0,00000000000000000000e+00) (0, 0, 0,00000000000000000000e+00) (0, 0, 0,00000000000000000000e+00) (0, 0, 0,00000000000000000000e+00) (0, 0, 0,00000000000000000000e+00) (0, 0, 0,00000000000000000000e+00) (0, 0, 0,00000000000000000000e+00) (0, 0, 0,00000000000000000000e+00) (0, 0, 0,00000000000000000000e+00) (0, 0, 0,00000000000000000000e+00) (65, 6, 1,00000000000000000000e+00) (65, 6, 1,00000000000000000000e+00) (65, 6, 1,00000000000000000000e+00) (65, 6, 1,00000000000000000000e+00) (65, 6, 1,00000000000000000000e+00) (65, 6, 1,00000000000000000000e+00) (65, 6, 1,00000000000000000000e+00) (65, 6, 1,00000000000000000000e+00) (65, 6, 1,00000000000000000000e+00) (65, 6, 1,00000000000000000000e+00) (65, 6, 1,00000000000000000000e+00) (65, 6, 1,00000000000000000000e+00) (65, 6, 1,00000000000000000000e+00) (0, 6, 1,00000000000000000000e+00) (14, 6, 1,00000000000000000000e+00) (0, 6, 1,00000000000000000000e+00) 
connections (connected_to_neuron, weight)=(0, 6,76761525661537660659e-02) (1, 6,44473949365536924461e+01) (2, 5,19004582284358377819e+01) (3, 1,50000000000000000000e+03) (4, 1,50000000000000000000e+03) (5, 1,50000000000000000000e+03) (6, 1,50000000000000000000e+03) (7, 1,50000000000000000000e+03) (8, 1,50000000000000000000e+03) (9, 3,12938594971494296715e+02) (10, 3,03621001781136726549e+02) (11, 2,79654367088548212905e+02) (12, 5,58553419291501882071e+02) (13, 6,43264232839019172161e+01) (14, 8,85623042913131115483e+01) (15, 6,84822747998398995151e+01) (16, 5,18086163558393764106e+02) (17, 2,23540765260317986218e+00) (18, 5,09490141113866035205e-01) (19, 8,71421816313325936498e-01) (20, 2,41359176769074146307e-01) (21, 1,66633135616528843537e-01) (22, 2,03619114354585484250e+00) (23, 2,60167745130340355431e-01) (24, 4,89903014869342623427e-01) (25, 5,57085282324007224908e-01) (26, 6,05977309683782494609e-01) (27, 9,63089761875908010325e+01) (28, 6,21373348282074516646e+02) (29, 6,75137398987512256099e+02) (30, 7,30991699943880462342e+02) (31, 1,37762075122011106032e+03) (32, 5,80676978777761974015e+02) (33, 2,39601850894425325578e+01) (34, -2,60335176946898400274e+02) (35, -1,42216246519110723057e+03) (36, -1,35077735466578860724e+03) (37, -1,50000000000000000000e+03) (38, -1,50000000000000000000e+03) (39, -1,50000000000000000000e+03) (40, -1,50000000000000000000e+03) (41, 1,50000000000000000000e+03) (42, 6,54569554848185362061e+02) (43, -1,18893540729107940024e+03) (44, 2,76618352890991729964e+01) (45, -1,10332585049180443093e+03) (46, -1,22582817495316976419e+03) (47, -1,42038701040053842917e+03) (48, -2,55746285671335158440e+02) (49, -1,50000000000000000000e+03) (50, 6,40799990797042710255e+02) (51, 5,42538871914082392323e+01) (52, 6,02063512875081414677e+01) (53, -4,24805753019656037850e+02) (54, -1,50000000000000000000e+03) (55, 2,37794799818331403785e+00) (56, -1,50000000000000000000e+03) (57, 6,90799990797042710255e+02) (58, 6,63164327962613953105e+00) (59, 3,53505735175511119905e+02) (60, -7,15444239616887784905e+02) (61, 2,69616902650821600673e+02) (62, -1,01609838066006563650e+00) (63, -3,60725498627786578254e+01) (64, 2,03605637689468288443e+00) (0, 3,85583432624983304948e-02) (1, 4,47738928811127934182e+01) (2, 4,02179457272300396653e+02) (3, 1,50000000000000000000e+03) (4, 1,50000000000000000000e+03) (5, 1,50000000000000000000e+03) (6, 1,50000000000000000000e+03) (7, 1,50000000000000000000e+03) (8, 1,50000000000000000000e+03) (9, 5,78643188136048252090e+02) (10, 9,75670122205940231197e+01) (11, 9,68298245164840807320e+01) (12, 5,03118009127829509453e+02) (13, 1,25273950623572375207e+02) (14, 1,69780989241496520492e+01) (15, 4,50971021714013744486e+01) (16, -1,24100891396027492419e+02) (17, 2,17914174901113844030e+00) (18, 1,45920641414815555059e+00) (19, 2,84992835366828733967e-01) (20, 2,32275238975365061478e-01) (21, 1,46357210539255683246e-01) (22, 2,01358230617921662997e+00) (23, 1,46843488661388410499e-01) (24, 4,73980735463097602178e-01) (25, 4,81567281683592640640e-01) (26, 4,03147469415825632222e-01) (27, 5,29864414729560309070e+01) (28, 4,49781609733077402780e+02) (29, 2,49455687745416042844e+02) (30, 4,93252905775230033214e+02) (31, 1,19234724497489287387e+03) (32, 5,47635434345706784143e+01) (33, 1,61872820528291356368e+02) (34, -1,17417646971251770083e+02) (35, -4,27058840229016084322e+02) (36, -1,10282278297342168116e+03) (37, -1,02622825732151181910e+03) (38, -1,50000000000000000000e+03) (39, -1,50000000000000000000e+03) (40, -1,50000000000000000000e+03) (41, 1,50000000000000000000e+03) (42, 6,54569554848185362061e+02) (43, -9,06914881653424345131e+01) (44, -1,48219428466873903716e+00) (45, -1,47801649635343915179e+03) (46, -1,45836257948029196996e+03) (47, -1,48099910049155869274e+03) (48, -5,97400766136617107804e+02) (49, -1,50000000000000000000e+03) (50, 6,40799990797042710255e+02) (51, -4,61731481450095060381e+01) (52, -5,04259086503993444239e+02) (53, -6,76046810221745886338e+02) (54, -1,50000000000000000000e+03) (55, 8,38350589247029098772e-01) (56, -1,50000000000000000000e+03) (57, 6,90799990797042710255e+02) (58, 1,93109488902895130025e+01) (59, -5,26122568602353680944e+02) (60, -5,69076131343737074531e+02) (61, 3,46655710579004733063e+02) (62, -7,12651728532552652950e+01) (63, -1,16307667589876984948e+02) (64, 2,01365092880229212824e+00) (0, 7,10657157587904625418e-02) (1, 2,96584894018155331707e+01) (2, 1,37438091984783625321e+02) (3, 1,50000000000000000000e+03) (4, 1,50000000000000000000e+03) (5, 1,50000000000000000000e+03) (6, 1,50000000000000000000e+03) (7, 1,50000000000000000000e+03) (8, 1,50000000000000000000e+03) (9, 3,10081032801740605009e+02) (10, 6,07388774951550942660e+01) (11, 8,38256855328705654529e+01) (12, 9,59388478312285883476e+02) (13, 8,73520521775879288384e+00) (14, 2,70339638262359471810e+01) (15, -9,80380289239877633634e+00) (16, 1,15119760647981138391e+03) (17, 2,25016121548023351195e+00) (18, 5,77649725974657024530e-01) (19, 3,25154567017495066406e-01) (20, 2,55126709249994199080e-01) (21, 1,80773376621859160895e-01) (22, 2,12601227474908416326e+00) (23, 3,63217812092223202303e-01) (24, 8,54313508406712052157e-01) (25, 1,93686993682071095790e+00) (26, 3,06903864978544826947e-01) (27, 1,00831780732259073829e+03) (28, 3,28464832381130463546e+02) (29, 1,01627376760955428381e+02) (30, 1,09913179147195933183e+03) (31, 1,40394685847510095300e+03) (32, 1,12335085792763243262e+03) (33, 6,17941428887015220539e+01) (34, -9,31614453437143197334e+01) (35, -4,05987093687859726288e+02) (36, -1,44775463376593529574e+03) (37, -9,21869094315272263884e+02) (38, -9,65799990797042710255e+02) (39, -9,65799990797042710255e+02) (40, -9,65799990797042710255e+02) (41, 9,90799990797042710255e+02) (42, 1,46999999880790710449e+03) (43, -7,43567635830492463356e+02) (44, -1,00961174432993459504e+02) (45, -1,05971417090984527931e+03) (46, -1,43830416051623592466e+03) (47, -1,47226517925334042047e+03) (48, -1,42926581251412244455e+02) (49, -9,65799990797042710255e+02) (50, 1,50000000000000000000e+03) (51, -1,50000000000000000000e+03) (52, -1,21773442450220969135e+02) (53, -9,29406078526081245172e+01) (54, -9,65799990797042710255e+02) (55, -2,64629030009266550394e+01) (56, -9,65799990797042710255e+02) (57, 1,50000000000000000000e+03) (58, -1,48882074431221280975e+03) (59, -1,37634190346732339094e+02) (60, -7,12957933818250353397e+02) (61, 7,96164097491715665456e+02) (62, -5,76441017268590627509e+00) (63, -1,36139695277622763570e+02) (64, 2,12582552365449561904e+00) (0, 4,07484513761154409917e-01) (1, 1,03734785115286758383e+01) (2, 2,92825384345914301321e+02) (3, 1,50000000000000000000e+03) (4, 1,50000000000000000000e+03) (5, 1,50000000000000000000e+03) (6, 1,50000000000000000000e+03) (7, 1,50000000000000000000e+03) (8, 1,50000000000000000000e+03) (9, 2,30253015701476243748e+02) (10, 9,63330113994100656782e+02) (11, 2,01473463645167555569e+02) (12, 1,31645363923502895886e+03) (13, 9,84756574424233463105e+02) (14, 4,45718242535752551703e+02) (15, 3,17492989220201479839e+02) (16, 1,05406373075910482839e+03) (17, 3,25349490117881812168e+00) (18, 4,10298565280349514239e+00) (19, 1,77741362312951416413e+01) (20, 2,23248692148359095810e+00) (21, 1,46788926690009047249e+00) (22, 1,68745025993954484989e+01) (23, 3,24855679600826785514e-01) (24, 1,88656198834169086531e+00) (25, 2,80461530154059168751e+01) (26, 1,79393864676763192811e+00) (27, 1,45019285200408660330e+02) (28, 4,12590122903775068153e+02) (29, 5,00461200741243203538e+02) (30, 1,50000000000000000000e+03) (31, 1,37762075122011106032e+03) (32, 1,50000000000000000000e+03) (33, 4,07865461845753074499e+00) (34, -9,18030251576939008373e+02) (35, -3,77666941290564636802e+02) (36, -4,12943318414573070640e+02) (37, -1,16450182484972015118e+03) (38, -1,50000000000000000000e+03) (39, -1,50000000000000000000e+03) (40, -1,50000000000000000000e+03) (41, 1,50000000000000000000e+03) (42, 6,54569554848185362061e+02) (43, -6,20941762085955247130e+02) (44, 1,29970994898958487340e+01) (45, -7,57115053613989744008e+02) (46, -9,57202890387190564070e+02) (47, -1,42038701040053842917e+03) (48, -1,65581028953341359511e+02) (49, -1,50000000000000000000e+03) (50, 6,40799990797042710255e+02) (51, -8,17586274282001454594e+02) (52, 6,76082333977998814589e+02) (53, 3,62311752110184102094e+02) (54, -1,50000000000000000000e+03) (55, 3,62374680418051795527e+01) (56, -1,50000000000000000000e+03) (57, 6,90799990797042710255e+02) (58, -2,08773589166084377666e+02) (59, 5,58765417828167414882e+02) (60, -2,94025074884990488044e+02) (61, 8,00147614901767383344e+02) (62, -3,18587212598868774194e+01) (63, -4,08142226081831864803e+01) (64, 1,68742814417452180464e+01) (0, 8,76708550291376842445e-02) (1, 7,76405745024657623077e+00) (2, 1,08617076548365844246e+02) (3, 1,50000000000000000000e+03) (4, 1,50000000000000000000e+03) (5, 1,50000000000000000000e+03) (6, 1,50000000000000000000e+03) (7, 1,50000000000000000000e+03) (8, 1,50000000000000000000e+03) (9, 1,15928872969616179489e+02) (10, 4,13192017457948111314e+02) (11, 1,47961884930005169281e+02) (12, 1,01627229018569835262e+03) (13, 9,84756530864839646711e+02) (14, 6,85780454666861942314e+02) (15, 1,32420901615085028880e+02) (16, 9,88858585861227879832e+02) (17, 1,41039900588144480054e+01) (18, 4,81539802023870500136e+00) (19, 3,88154049660534354871e+01) (20, 2,20260043153457374387e+00) (21, 3,65076356167656435048e+00) (22, 1,50504810686853396362e+01) (23, 1,91491533368038258089e-01) (24, 3,28112513949250317324e+00) (25, 7,21436970262918997321e+00) (26, 3,07527515425086228618e+00) (27, -2,16162714254067395814e+02) (28, 1,86222795039367063907e+01) (29, 2,69876210422937617750e+02) (30, 1,50000000000000000000e+03) (31, 1,37762075122011106032e+03) (32, 5,90124167356889302027e+02) (33, 3,79347202504861424899e+00) (34, -2,84013794372772352403e+01) (35, -3,45722193695163468874e+02) (36, -6,96599034669381353524e+02) (37, -1,33801022961057606153e+03) (38, -1,50000000000000000000e+03) (39, -1,50000000000000000000e+03) (40, -1,50000000000000000000e+03) (41, 1,50000000000000000000e+03) (42, 6,54569554848185362061e+02) (43, -6,20941783651872697192e+02) (44, -1,31269525285458543706e+00) (45, -7,60249586104661034369e+02) (46, -5,96631144502650840877e+02) (47, -1,42038701040053842917e+03) (48, -2,32848558528578202242e+01) (49, -1,50000000000000000000e+03) (50, 6,40799990797042710255e+02) (51, 2,06211171482548252243e+01) (52, 7,96576746402375192702e+02) (53, 3,46818317246605715809e+02) (54, -1,50000000000000000000e+03) (55, 2,55881147257759593572e+01) (56, -1,50000000000000000000e+03) (57, 6,90799990797042710255e+02) (58, -2,57600569265903857286e+02) (59, -6,00149887213054711310e+01) (60, 7,33899715655470686215e+02) (61, 6,27772176596340614196e+02) (62, 1,63379321893306048707e+01) (63, -4,37722971155970412838e+01) (64, 1,50504960158160336903e+01) (0, 8,76692210818881823009e-02) (1, 7,76414740710514994504e+00) (2, 1,08617086689753818973e+02) (3, 1,50000000000000000000e+03) (4, 1,50000000000000000000e+03) (5, 1,50000000000000000000e+03) (6, 1,50000000000000000000e+03) (7, 1,50000000000000000000e+03) (8, 1,50000000000000000000e+03) (9, 1,15928813411683051982e+02) (10, 4,13191949782456447338e+02) (11, 1,47961853676311136496e+02) (12, 1,01627232841069746883e+03) (13, 9,84756580455027346943e+02) (14, 6,85780500745177732824e+02) (15, 1,32420994075940086532e+02) (16, 9,88858713560492219585e+02) (17, 1,41039153735651741073e+01) (18, 4,81537215173010402225e+00) (19, 3,88152857242765065848e+01) (20, 2,20265951001119830721e+00) (21, 3,65076760251332110840e+00) (22, 1,50503834096837998402e+01) (23, 1,91403685322087735443e-01) (24, 3,28106905800828574371e+00) (25, 7,21431027782425893236e+00) (26, 3,07522857247154668414e+00) (27, -2,16162607674468745245e+02) (28, 1,86222634847300376748e+01) (29, 2,69876241817958486990e+02) (30, 1,50000000000000000000e+03) (31, 1,37762075122011106032e+03) (32, 5,90124140794159757206e+02) (33, 3,79354427337959432265e+00) (34, -2,84014603012842670182e+01) (35, -3,45722125459925109681e+02) (36, -6,96598981270706417490e+02) (37, -1,33801022961057606153e+03) (38, -1,50000000000000000000e+03) (39, -1,50000000000000000000e+03) (40, -1,50000000000000000000e+03) (41, 1,50000000000000000000e+03) (42, 6,54569554848185362061e+02) (43, -6,20941775926229070137e+02) (44, -1,31260976198970924500e+00) (45, -7,60249584952011105088e+02) (46, -5,96631044316154202534e+02) (47, -1,42038701040053842917e+03) (48, -2,32848558528578202242e+01) (49, -1,50000000000000000000e+03) (50, 6,40799990797042710255e+02) (51, 2,06211026941357431497e+01) (52, 7,96576824761204534298e+02) (53, 3,46818313535973516082e+02) (54, -1,50000000000000000000e+03) (55, 2,55881370031238120077e+01) (56, -1,50000000000000000000e+03) (57, 6,90799990797042710255e+02) (58, -2,57600588323565887094e+02) (59, -6,00149199613450576862e+01) (60, 7,33899746081153466548e+02) (61, 6,27772219645620680240e+02) (62, 1,63378353815176531327e+01) (63, -4,37722932526383488039e+01) (64, 1,50504307817919560364e+01) (0, 8,85716174908769970919e-02) (1, 3,07244061627175817364e+01) (2, 2,85389274429567478819e+02) (3, 1,50000000000000000000e+03) (4, 1,50000000000000000000e+03) (5, 1,50000000000000000000e+03) (6, 1,50000000000000000000e+03) (7, 1,50000000000000000000e+03) (8, 1,50000000000000000000e+03) (9, 3,86979518106954685663e+02) (10, 4,22835714567839460187e+01) (11, 1,90917768890573640306e+01) (12, 5,32746659978478874109e+02) (13, 6,32405926612596402947e+01) (14, 6,81988570245682467430e+02) (15, 5,58177454936994990931e+02) (16, 6,09511621306752090277e+02) (17, 4,09778323065872385200e+00) (18, 8,96121275988962828762e+00) (19, 3,04200399827492862226e-01) (20, 2,69148898792952062653e-01) (21, 2,40213200175163399397e-01) (22, 2,40010741892240853090e+00) (23, 2,30318142384864893435e-01) (24, 6,59648961457986793278e-01) (25, 7,49623434128727561543e-01) (26, 3,63469641540846155614e-01) (27, -2,79318085810390073220e+02) (28, 6,48356165455821951582e+02) (29, 7,90342357353210445581e+02) (30, 1,50000000000000000000e+03) (31, 1,41569205887770522168e+03) (32, 1,02950466045154644235e+03) (33, 7,44483766470838190799e+01) (34, 2,15874793353624383485e+00) (35, -6,57803768217235216298e+01) (36, -1,71443582997834397474e+02) (37, -8,40393191634312074711e+02) (38, -1,50000000000000000000e+03) (39, -1,50000000000000000000e+03) (40, -1,50000000000000000000e+03) (41, 1,50000000000000000000e+03) (42, 6,54569554848185362061e+02) (43, -6,83101287139718579056e+02) (44, 3,34018260745223116714e+01) (45, -7,70702673310306067833e+02) (46, -1,18135327023115314660e+03) (47, -1,45055478355169066162e+03) (48, -2,17117962664582400123e+01) (49, -1,50000000000000000000e+03) (50, 6,40799990797042710255e+02) (51, -1,00348491000770323467e+02) (52, 3,61260750527017080458e+02) (53, 9,66083511553721336895e+01) (54, -1,50000000000000000000e+03) (55, 2,79901047094430310835e+01) (56, -1,50000000000000000000e+03) (57, 6,90799990797042710255e+02) (58, -1,23720660052196947731e+02) (59, 6,64155667583785998431e+02) (60, 3,56100431543387685451e+02) (61, 6,99289690991493898764e+02) (62, 2,33637923581483022417e+01) (63, 2,19295409661075382246e+01) (64, 2,39991999472898109858e+00) (0, 7,96578029241626489609e-02) (1, 3,59582435752196403200e+01) (2, 2,85389326858360902861e+02) (3, 1,50000000000000000000e+03) (4, 1,50000000000000000000e+03) (5, 1,50000000000000000000e+03) (6, 1,50000000000000000000e+03) (7, 1,50000000000000000000e+03) (8, 1,50000000000000000000e+03) (9, 3,88093271179949113048e+02) (10, 9,89631849081763732556e+01) (11, 1,92846997499098229412e+01) (12, 7,15239486918853003772e+02) (13, 8,73283012610584705726e+01) (14, 6,81988508457486432235e+02) (15, 5,58177410384422046263e+02) (16, 5,03044564079001190748e+02) (17, 4,09775192849589942057e+00) (18, 2,02199554924441784465e+01) (19, 3,05902280619832489528e-01) (20, 2,67680648340238858118e-01) (21, 2,42740187484521113825e-01) (22, 2,27362935829961099188e+00) (23, 1,68687889765141624254e-01) (24, 6,57930629955764234573e-01) (25, 7,35252393161701989222e-01) (26, 4,93828267470182546983e-01) (27, 5,92733123668915311555e+01) (28, 1,48499999940395355225e+03) (29, 9,38452144142657516568e+02) (30, 1,50000000000000000000e+03) (31, 1,37762075122011106032e+03) (32, 1,30096869075136692118e+03) (33, 5,18448823960192726190e+01) (34, 2,96481413677428307096e+01) (35, -6,57802391516987796649e+01) (36, -1,72033988399113923151e+02) (37, -6,53307395464586761591e+02) (38, -1,50000000000000000000e+03) (39, -1,50000000000000000000e+03) (40, -1,50000000000000000000e+03) (41, 1,50000000000000000000e+03) (42, 6,54569554848185362061e+02) (43, -6,83101307870289701896e+02) (44, 2,73849503258214674872e+01) (45, -7,70702537748909321635e+02) (46, -1,19501105249023021315e+03) (47, -1,42038701040053842917e+03) (48, -2,17117962664582400123e+01) (49, -1,50000000000000000000e+03) (50, 6,40799990797042710255e+02) (51, -1,25717849439623421404e+02) (52, 6,23681065179308916413e+02) (53, 6,09027006518221298847e+01) (54, -1,50000000000000000000e+03) (55, 1,23523956272234922693e+01) (56, -1,50000000000000000000e+03) (57, 6,90799990797042710255e+02) (58, -1,23720568187836946095e+02) (59, 6,29628129301302806198e+02) (60, 3,56100394609611839769e+02) (61, 6,73759454771137939133e+02) (62, 2,18620471511877987325e+01) (63, 3,45523803698439238019e+01) (64, 2,27335697255267188410e+00) (0, 8,76696645951605124658e-02) (1, 7,76404428230397858357e+00) (2, 1,08617175706958846604e+02) (3, 1,50000000000000000000e+03) (4, 1,50000000000000000000e+03) (5, 1,50000000000000000000e+03) (6, 1,50000000000000000000e+03) (7, 1,50000000000000000000e+03) (8, 1,50000000000000000000e+03) (9, 1,15928826974002561201e+02) (10, 4,13192034514160638992e+02) (11, 1,47961919336451671825e+02) (12, 1,01627228923404129546e+03) (13, 9,84756549502910843330e+02) (14, 6,85780410826341494612e+02) (15, 1,32421010803388469412e+02) (16, 9,88858632684759982112e+02) (17, 1,41038649227391221785e+01) (18, 4,81549206765883930359e+00) (19, 3,88153462223290688371e+01) (20, 2,20259657612468728871e+00) (21, 3,65082509668291699256e+00) (22, 1,50505245711265978059e+01) (23, 1,91499017971012985839e-01) (24, 3,28106564422719859664e+00) (25, 7,21424271218773149883e+00) (26, 3,07517257651439201993e+00) (27, -2,16162670248355425429e+02) (28, 1,86222658164343464193e+01) (29, 2,69876266396150583660e+02) (30, 1,50000000000000000000e+03) (31, 1,37762075122011106032e+03) (32, 5,90124210162155577564e+02) (33, 3,79344874163864087535e+00) (34, -2,84014557107771068445e+01) (35, -3,45722219293201305845e+02) (36, -6,96598991335909659028e+02) (37, -1,33801022961057606153e+03) (38, -1,50000000000000000000e+03) (39, -1,50000000000000000000e+03) (40, -1,50000000000000000000e+03) (41, 1,50000000000000000000e+03) (42, 6,54569554848185362061e+02) (43, -6,20941679622914648462e+02) (44, -1,31272936218553981647e+00) (45, -7,60249628674288146613e+02) (46, -5,96631079200005387975e+02) (47, -1,42038701040053842917e+03) (48, -2,32848558528578202242e+01) (49, -1,50000000000000000000e+03) (50, 6,40799990797042710255e+02) (51, 2,06210935017563770089e+01) (52, 7,96576819372848603962e+02) (53, 3,46818314719536488155e+02) (54, -1,50000000000000000000e+03) (55, 2,55881282009867945249e+01) (56, -1,50000000000000000000e+03) (57, 6,90799990797042710255e+02) (58, -2,57600511784985599206e+02) (59, -6,00149840117017987495e+01) (60, 7,33899800803659786652e+02) (61, 6,27772111635262263007e+02) (62, 1,63379220209906641514e+01) (63, -4,37723170767501983391e+01) (64, 1,50503195268412035546e+01) (0, -2,08557553789845730174e-02) (1, -2,62622684388834159108e+02) (2, 2,94148047068787761305e+01) (3, 1,50000000000000000000e+03) (4, 1,50000000000000000000e+03) (5, 1,50000000000000000000e+03) (6, 1,50000000000000000000e+03) (7, 1,50000000000000000000e+03) (8, 1,50000000000000000000e+03) (9, -7,77660903870145148176e+01) (10, -1,31242258053306120047e+01) (11, -1,57092024096706879277e+01) (12, 1,37186897851153055683e+01) (13, 1,03437871279707072070e+00) (14, 1,47476994077957304086e+01) (15, -3,85811092800045773998e+00) (16, 5,40092808631494989413e+01) (17, 1,16475423427081214989e+00) (18, 2,58288182557463386058e-01) (19, 2,01008119382470651360e-01) (20, 2,02846682305699466120e-01) (21, 1,28520109976467344914e-01) (22, 1,63916468286421945777e+00) (23, 1,30463901056525360955e-01) (24, 4,01296427790147125503e-01) (25, 4,12213702041591856240e-01) (26, 2,02406267777161280597e-01) (27, -8,88754373158674759736e+00) (28, 4,80502996051928960242e+02) (29, 1,47896154506516609217e+02) (30, 3,29377194444367944470e+01) (31, 1,49068832564571334842e+03) (32, 5,67249506581238733816e+02) (33, 5,49441533450896670843e+01) (34, -1,89410669621276724683e+02) (35, -8,76587173232865666250e+02) (36, -1,50000000000000000000e+03) (37, -1,41307559357044874560e+03) (38, -1,50000000000000000000e+03) (39, -1,50000000000000000000e+03) (40, -1,50000000000000000000e+03) (41, 1,50000000000000000000e+03) (42, 1,00968173124230588655e+02) (43, -1,46934125098735694337e+03) (44, 5,59289084697331588814e+01) (45, -1,48382351032728183782e+03) (46, -1,47985571164236193908e+03) (47, -1,47925274351423240660e+03) (48, 3,32691856967867408912e+02) (49, 2,79802649521895887119e+02) (50, 1,85085847799182118933e+02) (51, -1,13938683720509493469e+03) (52, -2,51694406496405861162e+02) (53, -7,69524811621100752745e+01) (54, 2,77918545813275557066e+02) (55, 3,07858119117002040355e+01) (56, 2,77918591745886658373e+02) (57, 1,85311103283043223655e+02) (58, -8,40178741316434980035e+02) (59, -1,90919361239164345534e+02) (60, -4,89122771778893024930e+02) (61, 9,53475814592051733598e+01) (62, 6,73535057882100289817e+01) (63, 8,01443465313072778144e+01) (64, 1,63894319527113907498e+00) (0, 6,68986238480291373065e-02) (1, 3,18290162822769389095e+01) (2, 5,31401281763030851835e+02) (3, 1,50000000000000000000e+03) (4, 1,50000000000000000000e+03) (5, 1,50000000000000000000e+03) (6, 1,50000000000000000000e+03) (7, 1,50000000000000000000e+03) (8, 1,50000000000000000000e+03) (9, 7,93676983051745537523e+02) (10, 4,48632042972467317554e+01) (11, 2,01769178980902808007e+01) (12, 8,45806301618635643536e+02) (13, 7,70830220176133025234e+01) (14, 4,41952058258936858692e+02) (15, 5,58434435265861793596e+02) (16, 7,19081488100494652826e+02) (17, 2,72166623956704079035e+00) (18, 5,95155436719190777950e+00) (19, 2,83153615485687515374e-01) (20, 2,77556303164116557891e-01) (21, 2,20279264989914513873e-01) (22, 3,38111993763466678331e+00) (23, 1,46423033996896795328e-01) (24, 3,89695771611767494136e+00) (25, 6,47164181889722689434e-01) (26, 3,31964492557513202176e-01) (27, 9,90560513982677690592e+01) (28, 1,18592837862998180753e+03) (29, 1,13646068363785661859e+03) (30, 1,50000000000000000000e+03) (31, 1,37762075122011106032e+03) (32, 1,22935674237380567320e+03) (33, 2,35432511154923020058e+02) (34, -6,37870717869464840533e+01) (35, -1,14832704209644518301e+01) (36, -2,50533642913153158815e+02) (37, -7,90165012748114349961e+02) (38, -1,50000000000000000000e+03) (39, -1,50000000000000000000e+03) (40, -1,50000000000000000000e+03) (41, 1,50000000000000000000e+03) (42, 6,54569554848185362061e+02) (43, -6,83101303076808790138e+02) (44, 3,60339154972721473769e+01) (45, -9,73387482939708775120e+02) (46, -1,00235618920597676151e+03) (47, -1,37632300216079170241e+03) (48, -4,76071109398492922082e+01) (49, -1,50000000000000000000e+03) (50, 6,40799990797042710255e+02) (51, 7,97074023203525143799e+01) (52, 9,53016061800362876966e+02) (53, -3,82699957855051820843e+02) (54, -1,50000000000000000000e+03) (55, 4,78527503767507198518e+01) (56, -1,50000000000000000000e+03) (57, 6,90799990797042710255e+02) (58, -1,23418422065275677824e+02) (59, 6,64155661439552659431e+02) (60, -2,60136222706329760967e+02) (61, 7,07332708064350526911e+02) (62, 3,68634143032437364695e+01) (63, -3,10348671558461930431e+01) (64, 3,38119509844234933382e+00) (0, 8,88134155943070130457e-02) (1, 5,62983853366219744174e+00) (2, 1,61053829229807035972e+02) (3, 1,50000000000000000000e+03) (4, 1,50000000000000000000e+03) (5, 1,50000000000000000000e+03) (6, 1,50000000000000000000e+03) (7, 1,50000000000000000000e+03) (8, 1,50000000000000000000e+03) (9, 1,25832988063031535830e+02) (10, 5,97285673218049623756e+02) (11, 1,16470928740302792903e+03) (12, 1,09556149188858330490e+03) (13, 1,01952389236597025501e+03) (14, 5,25176758144963514496e+02) (15, 1,32420951211964109007e+02) (16, 1,03785918594474219390e+03) (17, 3,19256666672514022309e+00) (18, 1,44402164015728189383e+01) (19, 5,82881484100531395143e+01) (20, 2,47426625382057174818e+00) (21, 6,84491924635234649799e+00) (22, 1,21317348734877619165e+01) (23, 1,72267930998290463851e-01) (24, 1,24913808802849111146e+01) (25, 1,24011525089933538624e+01) (26, 7,86967393280216143125e-01) (27, -1,68368528841147941932e+01) (28, 9,95623897069542174165e+00) (29, 4,89447793572710281751e+02) (30, 1,50000000000000000000e+03) (31, 1,37762075122011106032e+03) (32, 2,01251253400874730914e+02) (33, 3,86589634870023424185e+00) (34, -1,18113602622102007444e+03) (35, -6,05100732139903243478e+02) (36, -1,13078271667064268513e+03) (37, -1,25329704846901427118e+03) (38, -1,50000000000000000000e+03) (39, -1,50000000000000000000e+03) (40, -1,50000000000000000000e+03) (41, 1,50000000000000000000e+03) (42, 6,54569554848185362061e+02) (43, -6,20941732710920746285e+02) (44, -2,48381826089068846741e+00) (45, -7,60249547408266266757e+02) (46, -5,96631043964820037218e+02) (47, -1,42038701040053842917e+03) (48, -1,65686511660418148040e+02) (49, -1,50000000000000000000e+03) (50, 6,40799990797042710255e+02) (51, -9,10962071557579747605e+02) (52, 7,72560361028046372667e+02) (53, -1,42539709399814881863e+02) (54, -1,50000000000000000000e+03) (55, 2,63520414157442104397e+01) (56, -1,50000000000000000000e+03) (57, 6,90799990797042710255e+02) (58, -2,63445247403869245773e+02) (59, 6,97963482993720845116e+02) (60, -3,23116506402124286979e+02) (61, 6,27772168222229993262e+02) (62, 1,63378346264951694877e+01) (63, -7,74113241223393089285e+01) (64, 1,21317568184416764154e+01) (0, 6,31804431681803058130e-02) (1, 6,64561543005745818391e+01) (2, 4,82808858440357298036e+01) (3, 1,50000000000000000000e+03) (4, 1,50000000000000000000e+03) (5, 1,50000000000000000000e+03) (6, 1,50000000000000000000e+03) (7, 1,50000000000000000000e+03) (8, 1,50000000000000000000e+03) (9, 3,12694545161261885369e+02) (10, 3,03620986391664189341e+02) (11, 3,33050434771861887384e+02) (12, 6,23714711347599404689e+02) (13, 6,14330329519494000579e+01) (14, 7,82541338809779034591e+01) (15, 4,03840549530453571947e+01) (16, 5,03985544594411521757e+02) (17, 2,24641389623075760085e+00) (18, 5,06015533959169983014e-01) (19, 9,00147039587686603745e-01) (20, 2,39265840622621434042e-01) (21, 1,63376778902495745083e-01) (22, 2,03125507677833549991e+00) (23, 2,70152955387572391022e-01) (24, 4,89949324522733486997e-01) (25, 5,25378053804039235608e-01) (26, 4,35695848836220034350e-01) (27, 6,50122903879136231353e+01) (28, 5,29580464864168106942e+02) (29, 6,78464953757176317595e+02) (30, 7,44744596722828305246e+02) (31, 1,37762075122011106032e+03) (32, 7,24522280542825797056e+02) (33, 2,37651552687434062250e+01) (34, -9,98483069525277755929e+02) (35, -1,32459262619904484382e+03) (36, -1,34528949284363147854e+03) (37, -1,50000000000000000000e+03) (38, -1,50000000000000000000e+03) (39, -1,50000000000000000000e+03) (40, -1,50000000000000000000e+03) (41, 1,50000000000000000000e+03) (42, 6,54569554848185362061e+02) (43, -1,18893540177993804718e+03) (44, 3,37641973205963807914e+01) (45, -1,08452374576289116703e+03) (46, -1,17314322364504300822e+03) (47, -1,42038701040053842917e+03) (48, 4,35663607129510097593e+01) (49, -1,50000000000000000000e+03) (50, 6,40799990797042710255e+02) (51, -1,42341631157095463323e+02) (52, 6,02063916652966781839e+01) (53, -2,56056108015392510424e+02) (54, -1,50000000000000000000e+03) (55, 7,96716041517863704513e+00) (56, -1,50000000000000000000e+03) (57, 6,90799990797042710255e+02) (58, -2,77276560073967914377e+02) (59, 1,20008667549417765485e+02) (60, -7,15444161127971597125e+02) (61, 3,88387510606507817101e+02) (62, 8,65767870055574348953e+01) (63, -3,62703883493416725514e+01) (64, 2,03108949840026209444e+00) (65, 3,66925322864072728235e-02) (66, 4,09657866229189773777e-02) (67, -4,83894603307267242437e-03) (68, 8,36421960946811052229e-03) (69, 4,69114727466330046213e-03) (70, 4,69417256690757463133e-03) (71, 5,12931142669930447558e-03) (72, 1,00407073013594177330e-02) (73, 4,72472969713816533244e-03) (74, 2,35369686078856277245e-01) (75, 6,84930397548325856777e-03) (76, 5,74050841227865312616e-03) (77, 2,25808101953880804857e-02) (78, 3,45880296875152259961e-01) 
