svm_type epsilon_svr
kernel_type rbf
gamma 0.1
nr_class 2
total_sv 2597
rho -1.28593
SV
-1 0:0.5 1:1 2:0.66 3:0.13568977 
-1 0:0.5 1:1 2:0.66 3:0.16806815 
1 0:0.5 1:1 2:0.66 3:0.10638236 
1 0:0.5 1:1 2:0.66 3:0.11032677 
-1 0:0.5 1:1 2:0.66 3:0.15686971 
-1 0:0.5 1:1 2:0.66 3:0.16803227 
-1 0:0.5 1:1 2:0.66 3:0.13571236 
1 0:0.5 1:1 2:0.66 3:0.15685562 
1 0:0.5 1:1 2:0.66 3:0.13927958 
1 0:0.5 1:1 2:0.66 3:0.16804654 
1 0:0.5 1:1 2:0.66 3:0.11033843 
-1 0:0.5 1:1 2:0.66 3:0.15677607 
1 0:0.5 1:1 2:0.66 3:0.13959608 
-1 0:0.5 1:1 2:0.66 3:0.16776997 
1 0:0.5 1:1 2:0.66 3:0.15657101 
1 0:0.5 1:1 2:0.66 3:0.13873184 
-1 0:0.5 1:1 2:0.66 3:0.16788905 
-1 0:0.5 1:1 2:0.66 3:0.13965007 
-1 0:0.5 1:1 2:0.66 3:0.13570421 
-1 0:0.5 1:1 2:0.66 3:0.13944667 
-1 0:0.5 1:1 2:0.66 3:0.10638254 
1 0:0.5 1:1 2:0.66 3:0.16767568 
-1 0:0.5 1:1 2:0.66 3:0.13907451 
1 0:0.5 1:1 2:0.66 3:0.135695 
-1 0:0.5 1:1 2:0.66 3:0.13571952 
1 0:0.5 1:1 2:0.66 3:0.10637646 
1 0:0.5 1:1 2:0.66 3:0.16788752 
1 0:0.33333333 1:1 2:0.66 3:0.15690906 
1 0:0.33333333 1:1 2:0.66 3:0.11033843 
1 0:0.33333333 1:1 2:0.66 3:0.1063832 
1 0:0.33333333 1:1 2:0.66 3:0.16817915 
-1 0:0.33333333 1:1 2:0.66 3:0.16818831 
-1 0:0.33333333 1:1 2:0.66 3:0.13993694 
-1 0:0.33333333 1:1 2:0.66 3:0.15691273 
1 0:0.33333333 1:1 2:0.66 3:0.1398562 
-1 0:0.33333333 1:1 2:0.66 3:0.13573431 
1 0:0.16666667 1:1 2:0.66 3:0.13998945 
1 0:0.16666667 1:1 2:0.66 3:0.11033843 
1 0:0.16666667 1:1 2:0.66 3:0.1063832 
-1 0:0.16666667 1:1 2:0.66 3:0.16822672 
-1 0:0.16666667 1:1 2:0.66 3:0.13574601 
-1 0:0.16666667 1:1 2:0.66 3:0.14002287 
-1 0:0.33333333 1:1 2:1 3:0.24003635 
-1 0:0.33333333 1:1 2:1 3:0.14075602 
1 0:0.33333333 1:1 2:1 3:0.19793286 
-1 0:0.33333333 1:1 2:1 3:0.25472292 
1 0:0.33333333 1:1 2:1 3:0.14074456 
-1 0:0.33333333 1:1 2:1 3:0.19793272 
-1 0:0.83333333 1:1 2:1 3:0.14047681 
1 0:0.83333333 1:1 2:1 3:0.2399124 
1 0:0.83333333 1:1 2:1 3:0.19789877 
-1 0:0.83333333 1:1 2:1 3:0.23992987 
0.3982586218328656 0:0.83333333 1:1 2:1 3:0.25446039 
-1 0:0.83333333 1:1 2:1 3:0.18642682 
-1 0:0.5 4:1 2:0.66 3:0.38300307 
-1 0:0.5 4:1 2:0.66 3:0.38288487 
-1 0:0.5 4:1 2:0.66 3:0.83078179 
1 0:0.5 4:1 2:0.66 3:0.91602707 
-1 0:0.5 4:1 2:0.66 3:0.70497862 
-1 0:0.5 4:1 2:0.66 3:0.61605989 
-1 0:0.5 4:1 2:0.66 3:0.38270272 
-1 0:0.5 4:1 2:0.66 3:0.70491901 
1 0:0.5 4:1 2:0.66 3:0.83135066 
-1 0:0.5 4:1 2:0.66 3:0.57304369 
1 0:0.5 4:1 2:0.66 3:0.70492136 
1 0:0.5 4:1 2:0.66 3:0.68602233 
-1 0:0.5 4:1 2:0.66 3:0.91644512 
1 0:0.5 4:1 2:0.66 3:0.38265435 
-1 0:0.5 4:1 2:0.66 3:0.75667428 
0.620116184934681 0:0 4:1 2:0.66 3:0.38302139 
1 0:0 4:1 2:0.66 3:0.3368353 
1 0:0.33333333 4:1 2:0 3:4.0818126e-06 
-1 0:0.33333333 4:1 2:0 3:0.047728943 
1 0:0.33333333 4:1 2:0 3:0.047730558 
1 0:0.83333333 4:1 2:0 3:0.047634562 
1 0:0.83333333 4:1 2:0 3:4.0818126e-06 
-1 0:0.83333333 4:1 2:0 3:0.047641948 
1 0:0.66666667 4:1 2:0 3:4.0818126e-06 
-1 0:0.66666667 4:1 2:0 3:0.047679286 
1 0:0.66666667 4:1 2:0 3:0.047681753 
1 0:0.16666667 4:1 2:0 3:4.0818126e-06 
1 0:0.16666667 4:1 2:0 3:0.04773787 
-1 0:0.16666667 4:1 2:0 3:0.047739559 
-1 0:1 4:1 2:0 3:0 
-1 0:1 4:1 2:0 3:0.0475562 
1 0:1 4:1 2:0 3:2.3125377e-06 
1 0:1 4:1 2:0 3:0.047519405 
-1 0:0.5 4:1 2:0 3:0.047708769 
-1 0:0.5 4:1 2:0 3:0.047690753 
1 0:0.5 4:1 2:0 3:4.0818126e-06 
-1 0:0.5 4:1 2:0 3:0.047704115 
-1 0:0.5 4:1 2:0 3:0.047654883 
1 0:0.5 4:1 2:0 3:0.047706156 
1 0:0.5 4:1 2:0 3:0.047686216 
1 0:0.5 4:1 2:0 3:3.2008459e-06 
1 0:0.5 4:1 2:0 3:0.04763236 
-1 0:0.5 4:1 2:0 3:2.0409063e-06 
1 0:0.5 4:1 2:0 3:0.047719855 
-1 0:0 4:1 2:0 3:0.047753566 
1 0:0 4:1 2:0 3:4.0818126e-06 
1 0:0 4:1 2:0 3:0.047745329 
1 0:1 4:1 2:0.33 3:0.47371305 
-1 0:1 4:1 2:0.33 3:0.3751341 
-1 0:1 4:1 2:0.33 3:0.43700052 
-1 0:1 4:1 2:0.33 3:0.41025137 
-1 0:1 4:1 2:0.33 3:0.47410167 
1 0:1 4:1 2:0.33 3:0.37494543 
-1 0:1 4:1 2:0.33 3:0.27812991 
-1 0:0.16666667 4:1 2:0.33 3:0.41075294 
-1 0:0.16666667 4:1 2:0.33 3:0.47459119 
-1 0:0.66666667 4:1 2:1 3:0.76435179 
-1 0:0.66666667 4:1 2:1 3:0.72124679 
-1 0:0.66666667 4:1 2:1 3:0.68739306 
1 0:0.66666667 4:1 2:1 3:0.87086296 
1 0:0.66666667 4:1 2:1 3:0.72098426 
-1 0:0.66666667 4:1 2:1 3:0.99967111 
-1 0:0.66666667 4:1 2:1 3:0.92275777 
1 0:0.66666667 4:1 2:1 3:0.61643042 
-1 0:0.66666667 4:1 2:1 3:0.79435834 
1 0:0.66666667 4:1 2:1 3:0.92266157 
1 0:0.66666667 4:1 2:1 3:0.99939108 
1 0:0.66666667 4:1 2:1 3:0.8411977 
1 0:0.66666667 4:1 2:1 3:0.68744979 
-1 0:0.66666667 4:1 2:1 3:0.87210365 
1 0:0.66666667 4:1 2:1 3:0.79377021 
-1 0:0.66666667 4:1 2:1 3:0.84129889 
1 0:0.66666667 4:1 2:1 3:0.6482113 
1 0:0.66666667 4:1 2:1 3:0.76440676 
1 0:0.33333333 4:1 2:1 3:0.92296298 
-1 0:0.33333333 4:1 2:1 3:0.764445 
-1 0:0.33333333 4:1 2:1 3:0.92299845 
-1 0:0.33333333 4:1 2:1 3:0.8721349 
1 0:0.33333333 4:1 2:1 3:0.87212098 
-1 0:0.33333333 4:1 2:1 3:0.68746536 
-1 0:0.33333333 4:1 2:1 3:0.84136532 
1 0:0.33333333 4:1 2:1 3:0.79438371 
1 0:0.33333333 4:1 2:1 3:0.8413992 
1 0:0.5 4:1 2:1 3:0.86772349 
1 0:0.5 4:1 2:1 3:0.72125255 
1 0:0.5 4:1 2:1 3:0.99964656 
1 0:0.5 4:1 2:1 3:0.76437023 
1 0:0.5 4:1 2:1 3:0.7211184 
1 0:0.5 4:1 2:1 3:0.92285809 
-1 0:0.5 4:1 2:1 3:0.720668 
1 0:0.5 4:1 2:1 3:0.91993845 
1 0:0.5 4:1 2:1 3:0.8721349 
-1 0:0.5 4:1 2:1 3:0.51040848 
-1 0:0.5 4:1 2:1 3:0.76439836 
-1 0:0.5 4:1 2:1 3:0.53944744 
1 0:0.5 4:1 2:1 3:0.99971316 
-1 0:0.5 4:1 2:1 3:0.79437102 
-1 0:0.5 4:1 2:1 3:0.84133213 
-1 0:0.5 4:1 2:1 3:0.79364352 
-1 0:0.5 4:1 2:1 3:0.87130626 
-1 0:0.5 4:1 2:1 3:0.86921121 
1 0:0.5 4:1 2:1 3:0.64820766 
1 0:0.5 4:1 2:1 3:0.7640774 
1 0:0.5 4:1 2:1 3:0.58237947 
1 0:0.5 4:1 2:1 3:0.87038043 
-1 0:0.5 4:1 2:1 3:0.9998453 
1 0:0.5 4:1 2:1 3:0.84106391 
-1 0:0.5 4:1 2:1 3:0.87211928 
-1 0:0.5 4:1 2:1 3:0.72124967 
1 0:0.5 4:1 2:1 3:0.64745167 
-1 0:0.5 4:1 2:1 3:0.92195128 
-1 0:0.5 4:1 2:1 3:0.99939671 
-1 0:0.5 4:1 2:1 3:0.84088354 
1 0:0.5 4:1 2:1 3:0.98619325 
1 0:0.5 4:1 2:1 3:0.92223542 
-1 0:0.5 4:1 2:1 3:0.76441821 
-1 0:0.5 4:1 2:1 3:0.58276557 
1 0:0.5 4:1 2:1 3:0.79438371 
-1 0:0.5 4:1 2:1 3:0.76433411 
-1 0:0.5 4:1 2:1 3:0.79247513 
-1 0:0.5 4:1 2:1 3:0.61642578 
-1 0:0.5 4:1 2:1 3:0.68724376 
-1 0:0.5 4:1 2:1 3:0.99721638 
-1 0:0.5 4:1 2:1 3:0.68742924 
-1 0:0.5 4:1 2:1 3:0.92287806 
1 0:0.5 4:1 2:1 3:0.84097035 
1 0:0.5 4:1 2:1 3:0.616399 
-1 0:0.5 4:1 2:1 3:0.92293279 
1 0:0.5 4:1 2:1 3:0.7209714 
-1 0:0.5 4:1 2:1 3:0.84138276 
1 0:0.5 4:1 2:1 3:0.79407696 
1 0:0.5 4:1 2:1 3:0.68731565 
-1 0:0.5 4:1 2:1 3:0.87103663 
-1 0:0.5 4:1 2:1 3:0.92244509 
-1 0:1 4:1 2:1 3:0.68702223 
1 0:1 4:1 2:1 3:0.4365164 
-1 0:1 4:1 2:1 3:0.99443288 
-1 0:1 4:1 2:1 3:0.84034093 
1 0:1 4:1 2:1 3:0.97239943 
1 0:1 4:1 2:1 3:0.84051524 
1 0:1 4:1 2:1 3:0.76370921 
-1 0:0.83333333 5:1 2:0.66 3:0.30041217 
-1 0:0.83333333 5:1 2:0.66 3:0.32376745 
-1 0:0.83333333 5:1 2:0.66 3:0.484248 
1 0:0.83333333 5:1 2:0.66 3:0.36789012 
-1 0:0.83333333 5:1 2:0.66 3:0.42511087 
1 0:0.83333333 5:1 2:0.66 3:0.32372713 
1 0:0.83333333 5:1 2:0.66 3:0.57782816 
1 0:0.83333333 5:1 2:0.66 3:0.30035377 
1 0:0.83333333 5:1 2:0.66 3:0.3915641 
-1 0:0.83333333 5:1 2:0.66 3:0.52312817 
1 0:0.83333333 5:1 2:0.66 3:0.48422216 
-1 0:0.83333333 5:1 2:0.66 3:0.4665751 
1 0:0.83333333 5:1 2:0.66 3:0.52333003 
1 0:0.83333333 5:1 2:0.66 3:0.60099148 
1 0:0.83333333 5:1 2:0.66 3:0.4665916 
-1 0:0.83333333 5:1 2:0.66 3:0.60121155 
-1 0:0.83333333 5:1 2:0.66 3:0.57802274 
-1 0:0.83333333 5:1 2:0.66 3:0.54214149 
-1 0:0.83333333 5:1 2:0.66 3:0.36752023 
-1 0:0.83333333 5:1 2:0.66 3:0.39127012 
-1 0:0.66666667 5:1 2:0.66 3:0.48392921 
1 0:0.66666667 5:1 2:0.66 3:0.57838435 
-1 0:0.66666667 5:1 2:0.66 3:0.30045813 
-1 0:0.66666667 5:1 2:0.66 3:0.39164139 
-1 0:0.66666667 5:1 2:0.66 3:0.57862955 
-1 0:0.66666667 5:1 2:0.66 3:0.32379726 
1 0:0.66666667 5:1 2:0.66 3:0.36790389 
-1 0:0.66666667 5:1 2:0.66 3:0.52322344 
1 0:0.66666667 5:1 2:0.66 3:0.42512702 
1 0:0.66666667 5:1 2:0.66 3:0.60148752 
-1 0:0.66666667 5:1 2:0.66 3:0.6015953 
1 0:0.66666667 5:1 2:0.66 3:0.32377923 
-1 0:0.66666667 5:1 2:0.66 3:0.54243615 
1 0:0.66666667 5:1 2:0.66 3:0.48417735 
1 0:0.66666667 5:1 2:0.66 3:0.39162976 
1 0:0.66666667 5:1 2:0.66 3:0.5231354 
1 0:0.66666667 5:1 2:0.66 3:0.46663518 
1 0:0.66666667 5:1 2:0.66 3:0.30043373 
1 0:0.66666667 5:1 2:0.66 3:0.54238734 
-1 0:0.66666667 5:1 2:0.66 3:0.46656347 
-1 0:0.66666667 5:1 2:0.66 3:0.42513331 
-1 0:0.66666667 5:1 2:0.66 3:0.36800006 
1 0:0.16666667 5:1 2:0.66 3:0.30044398 
1 0:0.16666667 5:1 2:0.66 3:0.60219001 
1 0:0.16666667 5:1 2:0.66 3:0.36825099 
1 0:0.16666667 5:1 2:0.66 3:0.57908695 
-1 0:0.16666667 5:1 2:0.66 3:0.30044782 
1 0:0.16666667 5:1 2:0.66 3:0.39173245 
-1 0:0.33333333 5:1 2:0.66 3:0.42505114 
1 0:0.33333333 5:1 2:0.66 3:0.30045813 
1 0:0.33333333 5:1 2:0.66 3:0.36824191 
1 0:0.33333333 5:1 2:0.66 3:0.48431613 
-1 0:0.5 5:1 2:0.66 3:0.54241271 
-1 0:0.5 5:1 2:0.66 3:0.30044263 
-1 0:0.5 5:1 2:0.66 3:0.3238229 
-1 0:0.5 5:1 2:0.66 3:0.46647191 
1 0:0.5 5:1 2:0.66 3:0.54261692 
1 0:0.5 5:1 2:0.66 3:0.54246028 
-1 0:0.5 5:1 2:0.66 3:0.48414217 
-1 0:0.5 5:1 2:0.66 3:0.54253746 
1 0:0.5 5:1 2:0.66 3:0.42506477 
-1 0:0.5 5:1 2:0.66 3:0.3237765 
1 0:0.5 5:1 2:0.66 3:0.39153015 
-1 0:0.5 5:1 2:0.66 3:0.30044201 
-1 0:0.5 5:1 2:0.66 3:0.46659049 
1 0:0.5 5:1 2:0.66 3:0.3004162 
1 0:0.5 5:1 2:0.66 3:0.36807292 
-1 0:0.5 5:1 2:0.66 3:0.52345349 
1 0:0.5 5:1 2:0.66 3:0.46666431 
1 0:0.5 5:1 2:0.66 3:0.57855009 
1 0:0.5 5:1 2:0.66 3:0.42494801 
1 0:0.5 5:1 2:0.66 3:0.46664546 
1 0:0.5 5:1 2:0.66 3:0.32377065 
1 0:0.5 5:1 2:0.66 3:0.48424671 
-1 0:0.5 5:1 2:0.66 3:0.36714811 
-1 0:0.5 5:1 2:0.66 3:0.39158195 
-1 0:0.5 5:1 2:0.66 3:0.46660194 
-1 0:0.5 5:1 2:0.66 3:0.32382284 
1 0:0.5 5:1 2:0.66 3:0.32381053 
-1 0:0.5 5:1 2:0.66 3:0.39150129 
-1 0:0.5 5:1 2:0.66 3:0.36788562 
-1 0:0.5 5:1 2:0.66 3:0.60187362 
1 0:0.5 5:1 2:0.66 3:0.48437004 
-1 0:0.5 5:1 2:0.66 3:0.30043 
1 0:0.5 5:1 2:0.66 3:0.57845753 
1 0:0.5 5:1 2:0.66 3:0.52335834 
-1 0:0.5 5:1 2:0.66 3:0.36822985 
-1 0:0.5 5:1 2:0.66 3:0.52340691 
-1 0:0.5 5:1 2:0.66 3:0.3917042 
1 0:0.5 5:1 2:0.66 3:0.3238108 
1 0:0.5 5:1 2:0.66 3:0.57878877 
-1 0:0.5 5:1 2:0.66 3:0.30033891 
0.3071472278585724 0:0 5:1 2:0.66 3:0.30045813 
1 0:0 5:1 2:0.66 3:0.39173245 
0.8264203340143256 0:0 5:1 2:0.66 3:0.60223165 
1 0:0.33333333 5:1 2:0 3:0.025004355 
-1 0:0.83333333 5:1 2:0 3:0.025004355 
1 0:0.83333333 5:1 2:0 3:0.025000963 
1 0:0.66666667 5:1 2:0 3:0.025004355 
1 0:0.5 5:1 2:0 3:0.025004355 
1 0:0.5 5:1 2:0 3:0.025000001 
1 0:0.5 5:1 2:0 3:0.025002659 
-1 0:0.16666667 5:1 2:0.33 3:0.30428505 
-1 0:0.16666667 5:1 2:0.33 3:0.36235433 
-1 0:0.16666667 5:1 2:0.33 3:0.40259295 
-1 0:0.16666667 5:1 2:0.33 3:0.43106239 
1 0:1 5:1 2:0.33 3:0.33403345 
1 0:1 5:1 2:0.33 3:0.36188421 
-1 0:1 5:1 2:0.33 3:0.41410954 
-1 0:1 5:1 2:0.33 3:0.30210475 
-1 0:1 5:1 2:0.33 3:0.27766364 
-1 0:1 5:1 2:0.33 3:0.36223554 
1 0:1 5:1 2:0.33 3:0.23972804 
-1 0:1 5:1 2:0.33 3:0.23989393 
1 0:1 5:1 2:0.33 3:0.47847514 
1 0:1 5:1 2:0.33 3:0.43080239 
1 0:1 5:1 2:0.33 3:0.27743195 
-1 0:1 5:1 2:0.33 3:0.46970923 
1 0:1 5:1 2:0.33 3:0.41433689 
1 0:1 5:1 2:0.33 3:0.30220203 
1 0:1 5:1 2:0.33 3:0.46973155 
1 0:1 5:1 2:0.33 3:0.40247843 
-1 0:1 5:1 2:0.33 3:0.24976193 
-1 0:1 5:1 2:0.33 3:0.47872422 
1 0:1 5:1 2:0.33 3:0.24981643 
-1 0:1 5:1 2:0.33 3:0.33412383 
-1 0:1 5:1 2:0.33 3:0.43079775 
-1 0:1 5:1 2:0.33 3:0.40251731 
1 0:0.5 5:1 2:0.33 3:0.4787806 
-1 0:0.5 5:1 2:0.33 3:0.27795618 
-1 0:0.5 5:1 2:0.33 3:0.36233028 
1 0:0.5 5:1 2:0.33 3:0.24997043 
-1 0:0.5 5:1 2:0.33 3:0.46978335 
1 0:0.5 5:1 2:0.33 3:0.33410301 
-1 0:0.5 5:1 2:0.33 3:0.24995454 
1 0:0.5 5:1 2:0.33 3:0.24021431 
1 0:0.5 5:1 2:0.33 3:0.47904618 
-1 0:0.5 5:1 2:0.33 3:0.47901564 
1 0:0.5 5:1 2:0.33 3:0.47895151 
1 0:0.5 5:1 2:0.33 3:0.40257598 
-1 0:0.5 5:1 2:0.33 3:0.3622983 
-1 0:0.5 5:1 2:0.33 3:0.47903632 
-1 0:0.5 5:1 2:0.33 3:0.24987616 
1 0:0.5 5:1 2:0.33 3:0.41433683 
1 0:0.5 5:1 2:0.33 3:0.27790453 
1 0:0.5 5:1 2:0.33 3:0.24990341 
1 0:0.5 5:1 2:0.33 3:0.36233039 
-1 0:0.5 5:1 2:0.33 3:0.3623444 
-1 0:0.5 5:1 2:0.33 3:0.24006939 
-1 0:0.5 5:1 2:0.33 3:0.47899708 
-1 0:0.5 5:1 2:0.33 3:0.40255513 
-1 0:0.5 5:1 2:0.33 3:0.41437383 
-1 0:0.5 5:1 2:0.33 3:0.24998144 
1 0:0.5 5:1 2:0.33 3:0.27796696 
1 0:0.33333333 5:1 2:1 3:0.73184635 
1 0:0.33333333 5:1 2:1 3:0.65495986 
-1 0:0.33333333 5:1 2:1 3:0.73188928 
-1 0:0.33333333 5:1 2:1 3:0.58570242 
-1 0:0.33333333 5:1 2:1 3:0.40879555 
-1 0:0.33333333 5:1 2:1 3:0.63419388 
-1 0:0.33333333 5:1 2:1 3:0.449103 
-1 0:0.33333333 5:1 2:1 3:0.65497677 
-1 0:0.33333333 5:1 2:1 3:0.51796448 
-1 0:0.33333333 5:1 2:1 3:0.69494893 
-1 0:0.33333333 5:1 2:1 3:0.37982319 
1 0:0.33333333 5:1 2:1 3:0.69498265 
1 0:0.33333333 5:1 2:1 3:0.6341802 
-1 0:0.83333333 5:1 2:1 3:0.58546838 
1 0:0.83333333 5:1 2:1 3:0.44898742 
-1 0:0.83333333 5:1 2:1 3:0.37980801 
-1 0:0.83333333 5:1 2:1 3:0.65469862 
1 0:0.83333333 5:1 2:1 3:0.73089631 
1 0:0.83333333 5:1 2:1 3:0.56655707 
-1 0:0.83333333 5:1 2:1 3:0.6339347 
-1 0:0.83333333 5:1 2:1 3:0.69439046 
1 0:0.83333333 5:1 2:1 3:0.37975142 
-1 0:0.83333333 5:1 2:1 3:0.51786076 
-1 0:0.83333333 5:1 2:1 3:0.40860232 
1 0:0.83333333 5:1 2:1 3:0.63373819 
1 0:0.83333333 5:1 2:1 3:0.58551577 
1 0:0.83333333 5:1 2:1 3:0.65448531 
1 0:0.83333333 5:1 2:1 3:0.69441131 
1 0:0.83333333 5:1 2:1 3:0.51779791 
1 0:0.83333333 5:1 2:1 3:0.47495069 
-1 0:0.83333333 5:1 2:1 3:0.44857278 
1 0:0.83333333 5:1 2:1 3:0.40865383 
-1 0:0.83333333 5:1 2:1 3:0.73148821 
-1 0:0.66666667 5:1 2:1 3:0.44910459 
-1 0:0.66666667 5:1 2:1 3:0.69473339 
1 0:0.66666667 5:1 2:1 3:0.40873552 
1 0:0.66666667 5:1 2:1 3:0.44871978 
-1 0:0.66666667 5:1 2:1 3:0.51791256 
1 0:0.66666667 5:1 2:1 3:0.51788284 
1 0:0.66666667 5:1 2:1 3:0.56655707 
-1 0:0.66666667 5:1 2:1 3:0.40871955 
-1 0:0.66666667 5:1 2:1 3:0.65491675 
1 0:0.66666667 5:1 2:1 3:0.73158347 
1 0:0.66666667 5:1 2:1 3:0.5855923 
1 0:0.66666667 5:1 2:1 3:0.69478325 
-1 0:0.66666667 5:1 2:1 3:0.73166176 
-1 0:0.66666667 5:1 2:1 3:0.6341385 
1 0:0.66666667 5:1 2:1 3:0.65481368 
1 0:0.66666667 5:1 2:1 3:0.63404277 
-1 0:0.66666667 5:1 2:1 3:0.37982319 
1 0:0.66666667 5:1 2:1 3:0.47495069 
-1 0:0.66666667 5:1 2:1 3:0.5856495 
1 0:0.66666667 5:1 2:1 3:0.37981773 
-1 0:0.5 5:1 2:1 3:0.44883866 
-1 0:0.5 5:1 2:1 3:0.65484474 
1 0:0.5 5:1 2:1 3:0.44890408 
1 0:0.5 5:1 2:1 3:0.37977947 
-1 0:0.5 5:1 2:1 3:0.51794539 
-1 0:0.5 5:1 2:1 3:0.40875755 
1 0:0.5 5:1 2:1 3:0.37978731 
1 0:0.5 5:1 2:1 3:0.6947079 
1 0:0.5 5:1 2:1 3:0.63411148 
1 0:0.5 5:1 2:1 3:0.65473257 
-1 0:0.5 5:1 2:1 3:0.37976011 
-1 0:0.5 5:1 2:1 3:0.58567593 
-1 0:1 5:1 2:1 3:0.69368804 
1 0:1 5:1 2:1 3:0.47492367 
-1 0:1 5:1 2:1 3:0.63345099 
-1 0:1 5:1 2:1 3:0.44892763 
-1 0:1 5:1 2:1 3:0.37969701 
1 0:1 5:1 2:1 3:0.63358678 
-1 0:1 5:1 2:1 3:0.56650175 
1 0:1 5:1 2:1 3:0.37973574 
-1 0:1 5:1 2:1 3:0.51776432 
1 0:1 5:1 2:1 3:0.58530604 
1 0:1 5:1 2:1 3:0.4487108 
1 0:1 5:1 2:1 3:0.72954885 
1 0:1 5:1 2:1 3:0.51764562 
-1 0:1 5:1 2:1 3:0.65418625 
1 0:1 5:1 2:1 3:0.40849173 
-1 0:1 5:1 2:1 3:0.58547537 
-1 0:1 5:1 2:1 3:0.73051955 
-1 0:1 5:1 2:1 3:0.4084781 
-1 0:1 5:1 2:1 3:0.47495069 
1 0:1 5:1 2:1 3:0.56626254 
1 0:1 5:1 2:1 3:0.65428903 
1 0:1 5:1 2:1 3:0.69424581 
1 0:0.16666667 5:1 2:1 3:0.73190978 
0.02545153453968495 0:0.16666667 5:1 2:1 3:0.69500449 
-1 0:0.5 6:1 2:0.66 3:0.18116551 
1 0:0.5 6:1 2:0.66 3:0.34847314 
-1 0:0.5 6:1 2:0.66 3:0.22595724 
-1 0:0.5 6:1 2:0.66 3:0.22540167 
1 0:0.5 6:1 2:0.66 3:0.26938585 
1 0:0.5 6:1 2:0.66 3:0.22551112 
1 0:0.5 6:1 2:0.66 3:0.30419866 
1 0:0.5 6:1 2:0.66 3:0.16577655 
-1 0:0.5 6:1 2:0.66 3:0.19047616 
-1 0:0.5 6:1 2:0.66 3:0.24696439 
-1 0:0.5 6:1 2:0.66 3:0.16575467 
-1 0:0.5 6:1 2:0.66 3:0.26937504 
-1 0:0.5 6:1 2:0.66 3:0.19048914 
1 0:0.5 6:1 2:0.66 3:0.22545001 
1 0:0.5 6:1 2:0.66 3:0.18117456 
1 0:0.5 6:1 2:0.66 3:0.19046958 
-1 0:0.5 6:1 2:0.66 3:0.24680825 
1 0:0.5 6:1 2:0.66 3:0.26940764 
1 0:0.5 6:1 2:0.66 3:0.30420849 
1 0:0.5 6:1 2:0.66 3:0.13848467 
-1 0:0.5 6:1 2:0.66 3:0.22548768 
-1 0:0.5 6:1 2:0.66 3:0.26937833 
-1 0:0.5 6:1 2:0.66 3:0.34859069 
-1 0:0.5 6:1 2:0.66 3:0.13848402 
-1 0:0.5 6:1 2:0.66 3:0.22553247 
1 0:0.5 6:1 2:0.66 3:0.22594969 
-1 0:0.5 6:1 2:0.66 3:0.13848479 
-1 0:0.5 6:1 2:0.66 3:0.26943803 
1 0:0.5 6:1 2:0.66 3:0.19048599 
1 0:0.5 6:1 2:0.66 3:0.30421076 
1 0:0.5 6:1 2:0.66 3:0.24692043 
-1 0:0.5 6:1 2:0.66 3:0.22594021 
-1 0:0.5 6:1 2:0.66 3:0.24705175 
1 0:0.5 6:1 2:0.66 3:0.24702679 
-1 0:0.5 6:1 2:0.66 3:0.18115333 
-1 0:0.5 6:1 2:0.66 3:0.24702063 
1 0:0.5 6:1 2:0.66 3:0.225921 
1 0:0.5 6:1 2:0.66 3:0.30420394 
1 0:0.5 6:1 2:0.66 3:0.18117062 
-1 0:0.5 6:1 2:0.66 3:0.34858546 
1 0:0.5 6:1 2:0.66 3:0.26940159 
1 0:0.5 6:1 2:0.66 3:0.1658031 
-1 0:0.5 6:1 2:0.66 3:0.26944226 
1 0:0.5 6:1 2:0.66 3:0.2255359 
-1 0:0.5 6:1 2:0.66 3:0.19050062 
1 0:0.5 6:1 2:0.66 3:0.2694338 
1 0:0.5 6:1 2:0.66 3:0.22551217 
1 0:0.5 6:1 2:0.66 3:0.24671922 
-1 0:0.5 6:1 2:0.66 3:0.16577978 
1 0:0.5 6:1 2:0.66 3:0.18116951 
-1 0:0.5 6:1 2:0.66 3:0.2255184 
-1 0:0.5 6:1 2:0.66 3:0.34850899 
1 0:0.5 6:1 2:0.66 3:0.19051976 
1 0:0.5 6:1 2:0.66 3:0.18117494 
-1 0:0.5 6:1 2:0.66 3:0.34847634 
-1 0:0.5 6:1 2:0.66 3:0.225903 
-1 0:0.5 6:1 2:0.66 3:0.3042001 
1 0:0.5 6:1 2:0.66 3:0.24706485 
-1 0:0.5 6:1 2:0.66 3:0.16577734 
1 0:0.5 6:1 2:0.66 3:0.3485494 
-1 0:0.5 6:1 2:0.66 3:0.18117174 
1 0:0.66666667 6:1 2:0 3:4.0818126e-06 
1 0:0.16666667 6:1 2:0 3:4.0818126e-06 
1 0:0.33333333 6:1 2:0 3:4.0818126e-06 
1 0:0.5 6:1 2:0 3:3.2008459e-06 
1 0:0.5 6:1 2:0 3:4.0818126e-06 
-1 0:0.5 6:1 2:0 3:2.0409063e-06 
1 0:0 6:1 2:0 3:4.0818126e-06 
-1 0:0.33333333 6:1 2:0.33 3:0.13236897 
1 0:0.33333333 6:1 2:0.33 3:0.16623133 
-1 0:0.33333333 6:1 2:0.33 3:0.21631186 
1 0:0.33333333 6:1 2:0.33 3:0.12984171 
-1 0:0.33333333 6:1 2:0.33 3:0.19343738 
-1 0:0.33333333 6:1 2:0.33 3:0.16580633 
1 0:0.33333333 6:1 2:0.33 3:0.080990474 
1 0:0.33333333 6:1 2:0.33 3:0.13239461 
-1 0:0.33333333 6:1 2:0.33 3:0.16623803 
-1 0:0.33333333 6:1 2:0.33 3:0.25254661 
1 0:0.83333333 6:1 2:0.33 3:0.1298063 
1 0:0.83333333 6:1 2:0.33 3:0.2522119 
-1 0:0.83333333 6:1 2:0.33 3:0.080962386 
1 0:0.83333333 6:1 2:0.33 3:0.16605781 
-1 0:0.83333333 6:1 2:0.33 3:0.21591395 
1 0:0.83333333 6:1 2:0.33 3:0.21569063 
1 0:0.83333333 6:1 2:0.33 3:0.1657851 
-1 0:0.83333333 6:1 2:0.33 3:0.25225994 
1 0:0.83333333 6:1 2:0.33 3:0.13240761 
-1 0:0.83333333 6:1 2:0.33 3:0.16569148 
-1 0:0.83333333 6:1 2:0.33 3:0.16200143 
-1 0:0.83333333 6:1 2:0.33 3:0.19335087 
1 0:0.83333333 6:1 2:0.33 3:0.19333216 
-1 0:0.83333333 6:1 2:0.33 3:0.12967682 
-1 0:0.83333333 6:1 2:0.33 3:0.16609455 
1 0:0.83333333 6:1 2:0.33 3:0.080946529 
-1 0:0.83333333 6:1 2:0.33 3:0.13238566 
1 0:0.66666667 6:1 2:0.33 3:0.12976319 
-1 0:0.66666667 6:1 2:0.33 3:0.21611041 
-1 0:0.66666667 6:1 2:0.33 3:0.16574836 
1 0:0.66666667 6:1 2:0.33 3:0.080973545 
-1 0:0.66666667 6:1 2:0.33 3:0.13241099 
1 0:0.66666667 6:1 2:0.33 3:0.13241246 
-1 0:0.66666667 6:1 2:0.33 3:0.19339128 
1 0:0.66666667 6:1 2:0.33 3:0.2160017 
1 0:0.66666667 6:1 2:0.33 3:0.16573767 
-1 0:0.66666667 6:1 2:0.33 3:0.16617469 
1 0:0.66666667 6:1 2:0.33 3:0.1661418 
-1 0:0.66666667 6:1 2:0.33 3:0.080989549 
-1 0:0.66666667 6:1 2:0.33 3:0.2524556 
1 0:0.66666667 6:1 2:0.33 3:0.25244621 
-1 0:0.66666667 6:1 2:0.33 3:0.12976489 
-1 0:0.5 6:1 2:0.33 3:0.16578565 
-1 0:0.5 6:1 2:0.33 3:0.12976496 
1 0:0.5 6:1 2:0.33 3:0.16577038 
-1 0:0.5 6:1 2:0.33 3:0.13238998 
-1 0:0.5 6:1 2:0.33 3:0.19339624 
-1 0:0.5 6:1 2:0.33 3:0.16577978 
1 0:0.5 6:1 2:0.33 3:0.16199294 
-1 0:0.5 6:1 2:0.33 3:0.25248086 
1 0:1 6:1 2:0.33 3:0.13232508 
1 0:1 6:1 2:0.33 3:0.25238016 
-1 0:1 6:1 2:0.33 3:0.080923653 
-1 0:1 6:1 2:0.33 3:0.13239375 
1 0:1 6:1 2:0.33 3:0.16588817 
-1 0:1 6:1 2:0.33 3:0.16196041 
1 0:1 6:1 2:0.33 3:0.12972717 
1 0:1 6:1 2:0.33 3:0.21517286 
-1 0:1 6:1 2:0.33 3:0.21554597 
-1 0:1 6:1 2:0.33 3:0.12958306 
-1 0:1 6:1 2:0.33 3:0.16575021 
1 0:1 6:1 2:0.33 3:0.19323816 
-1 0:1 6:1 2:0.33 3:0.16596006 
-1 0:1 6:1 2:0.33 3:0.25195239 
1 0:1 6:1 2:0.33 3:0.080916429 
1 0:1 6:1 2:0.33 3:0.16195964 
-1 0:1 6:1 2:0.33 3:0.19326665 
1 0:1 6:1 2:0.33 3:0.16573012 
0.03376532979846609 0:0.16666667 6:1 2:0.33 3:0.16624857 
1 0:0.16666667 6:1 2:0.33 3:0.080990474 
-1 0:0.16666667 6:1 2:0.33 3:0.25255292 
-1 0:0.16666667 6:1 2:0.33 3:0.13241246 
-1 0:0.16666667 6:1 2:0.33 3:0.1298531 
1 0:0.16666667 6:1 2:0.33 3:0.13239853 
1 0:0.16666667 6:1 2:0.33 3:0.12985149 
-1 0:0.16666667 6:1 2:0.33 3:0.2163261 
-1 0:0.16666667 6:1 2:0.33 3:0.16581787 
1 0:0 6:1 2:0.33 3:0.080990474 
1 0:0 6:1 2:0.33 3:0.13241246 
-1 0:0 6:1 2:0.33 3:0.2525874 
-1 0:0.33333333 6:1 2:1 3:0.45768955 
1 0:0.33333333 6:1 2:1 3:0.29589422 
-1 0:0.33333333 6:1 2:1 3:0.36441955 
1 0:0.33333333 6:1 2:1 3:0.45767863 
1 0:0.33333333 6:1 2:1 3:0.25790218 
-1 0:0.33333333 6:1 2:1 3:0.30239834 
-1 0:0.33333333 6:1 2:1 3:0.26103766 
-1 0:0.33333333 6:1 2:1 3:0.19682528 
0.4475144095301675 0:0.33333333 6:1 2:1 3:0.39224476 
1 0:0.33333333 6:1 2:1 3:0.26024106 
1 0:0.33333333 6:1 2:1 3:0.30235932 
-1 0:0.33333333 6:1 2:1 3:0.39225416 
-1 0:0.33333333 6:1 2:1 3:0.32604593 
1 0:1 6:1 2:1 3:0.19675701 
-1 0:1 6:1 2:1 3:0.2567929 
-1 0:1 6:1 2:1 3:0.36432264 
-1 0:1 6:1 2:1 3:0.29575835 
-1 0:1 6:1 2:1 3:0.39222829 
1 0:1 6:1 2:1 3:0.25904018 
1 0:1 6:1 2:1 3:0.25647519 
-1 0:1 6:1 2:1 3:0.26078177 
-1 0:1 6:1 2:1 3:0.30031356 
1 0:1 6:1 2:1 3:0.39214868 
-1 0:1 6:1 2:1 3:0.45716961 
1 0:1 6:1 2:1 3:0.26081424 
1 0:1 6:1 2:1 3:0.364394 
-1 0:1 6:1 2:1 3:0.25942731 
-1 0:1 6:1 2:1 3:0.32601659 
1 0:1 6:1 2:1 3:0.32595293 
1 0:1 6:1 2:1 3:0.45678997 
1 0:1 6:1 2:1 3:0.30041094 
-1 0:1 6:1 2:1 3:0.19676784 
1 0:1 6:1 2:1 3:0.29582149 
1 0:0.5 6:1 2:1 3:0.19681257 
-1 0:0.5 6:1 2:1 3:0.19681683 
1 0:0.5 6:1 2:1 3:0.30191214 
-1 0:0.5 6:1 2:1 3:0.32606014 
1 0:0.5 6:1 2:1 3:0.45764192 
-1 0:0.5 6:1 2:1 3:0.25774869 
-1 0:0.5 6:1 2:1 3:0.36438636 
1 0:0.5 6:1 2:1 3:0.45762595 
-1 0:0.5 6:1 2:1 3:0.3922465 
1 0:0.5 6:1 2:1 3:0.25995081 
1 0:0.5 6:1 2:1 3:0.39220671 
-1 0:0.5 6:1 2:1 3:0.30219798 
-1 0:0.5 6:1 2:1 3:0.26021304 
-1 0:0.5 6:1 2:1 3:0.26016809 
-1 0:0.5 6:1 2:1 3:0.19681832 
-1 0:0.5 6:1 2:1 3:0.45757902 
1 0:0.5 6:1 2:1 3:0.32604945 
-1 0:0.5 6:1 2:1 3:0.25766567 
1 0:0.5 6:1 2:1 3:0.29588817 
1 0:0.5 6:1 2:1 3:0.26011605 
1 0:0.5 6:1 2:1 3:0.29588351 
-1 0:0.5 6:1 2:1 3:0.36441884 
1 0:0.5 6:1 2:1 3:0.30209837 
-1 0:0.5 6:1 2:1 3:0.3644209 
-1 0:0.5 6:1 2:1 3:0.32605368 
1 0:0.5 6:1 2:1 3:0.39220574 
-1 0:0.5 6:1 2:1 3:0.30226441 
-1 0:0.5 6:1 2:1 3:0.30139677 
1 0:0.5 6:1 2:1 3:0.25728042 
1 0:0.5 6:1 2:1 3:0.29585784 
1 0:0.5 6:1 2:1 3:0.36443068 
-1 0:0.5 6:1 2:1 3:0.25762929 
-1 0:0.5 6:1 2:1 3:0.32603903 
1 0:0.5 6:1 2:1 3:0.25770734 
-1 0:0.5 6:1 2:1 3:0.36442903 
-1 0:0.5 6:1 2:1 3:0.2958263 
1 0:0.5 6:1 2:1 3:0.3921865 
-1 0:0.5 6:1 2:1 3:0.260914 
1 0:0.5 6:1 2:1 3:0.25755106 
1 0:0.5 6:1 2:1 3:0.32604675 
-1 0:1 1:1 2:0.33 3:0.071111548 
1 0:1 1:1 2:0.33 3:0.13232508 
-1 0:1 1:1 2:0.33 3:0.11033843 
1 0:1 1:1 2:0.33 3:0.080916429 
-1 0:0.83333333 1:1 2:0.33 3:0.080962386 
1 0:0.83333333 1:1 2:0.33 3:0.080710738 
-1 0:0.83333333 1:1 2:0.33 3:0.080750998 
1 0:0.83333333 1:1 2:0.33 3:0.13240761 
-1 0:0.83333333 1:1 2:0.33 3:0.071168444 
1 0:0.83333333 1:1 2:0.33 3:0.080946529 
-1 0:0.83333333 1:1 2:0.33 3:0.13238566 
1 0:0.66666667 1:1 2:0.33 3:0.080973545 
1 0:0.66666667 1:1 2:0.33 3:0.13241246 
-1 0:0.66666667 1:1 2:0.33 3:0.13241099 
-1 0:0.66666667 1:1 2:0.33 3:0.071201304 
-1 0:0.66666667 1:1 2:0.33 3:0.080989549 
1 0:0.5 1:1 2:0.33 3:0.080731632 
-1 0:0.5 1:1 2:0.33 3:0.13238998 
1 0:0.5 1:1 2:0.33 3:0.080968494 
-1 0:0.5 1:1 2:0.33 3:0.080957071 
-1 0:0.5 1:1 2:0.33 3:0.071192582 
1 0:0.5 1:1 2:0.33 3:0.08068403 
1 0:0.5 1:1 2:0.33 3:0.071174405 
-1 0:0.5 1:1 2:0.33 3:0.080751777 
-1 0:0.5 1:1 2:0.33 3:0.071164127 
-1 0:0.5 1:1 2:0.33 3:0.080978934 
-1 0:0.5 1:1 2:0.33 3:0.08071297 
1 0:0.5 1:1 2:0.33 3:0.13240306 
-1 0:0.5 1:1 2:0.33 3:0.13240311 
1 0:0.5 1:1 2:0.33 3:0.13241246 
1 0:0.5 1:1 2:0.33 3:0.13240353 
1 0:0.5 1:1 2:0.33 3:0.080953459 
1 0:0.5 1:1 2:0.33 3:0.080982002 
-1 0:0.5 1:1 2:0.33 3:0.13239022 
1 0:0.5 1:1 2:0.33 3:0.13236876 
-1 0:0.5 1:1 2:0.33 3:0.13239907 
-1 0:0.5 1:1 2:0.33 3:0.080976423 
1 0:0.5 1:1 2:0.33 3:0.080990474 
-1 0:0.5 1:1 2:0.33 3:0.080990019 
-1 0:0.5 1:1 2:0.33 3:0.071208998 
-1 0:0.33333333 1:1 2:0.33 3:0.13236897 
-1 0:0.16666667 1:1 2:0.33 3:0.13241246 
-1 0:0.83333333 1:1 2:1 3:0.19785458 
1 0:0.83333333 1:1 2:1 3:0.18640119 
-1 0:0.83333333 1:1 2:1 3:0.25409097 
1 0:0.83333333 1:1 2:1 3:0.16138158 
-1 0:0.66666667 1:1 2:1 3:0.23998061 
1 0:0.66666667 1:1 2:1 3:0.23997882 
-1 0:0.66666667 1:1 2:1 3:0.19791871 
1 0:0.66666667 1:1 2:1 3:0.14069666 
-1 0:0.66666667 1:1 2:1 3:0.18644406 
1 0:0.66666667 1:1 2:1 3:0.25458681 
-1 0:0.66666667 1:1 2:1 3:0.14063617 
1 0:0.66666667 1:1 2:1 3:0.19792047 
-1 0:0.66666667 1:1 2:1 3:0.25447311 
1 0:0.66666667 1:1 2:1 3:0.18643314 
1 0:0.66666667 1:1 2:1 3:0.16138158 
-1 0:0.16666667 1:1 2:1 3:0.19794073 
1 0:0.16666667 1:1 2:1 3:0.14076649 
-1 0:0.16666667 1:1 2:1 3:0.14077658 
-1 0:0.16666667 1:1 2:1 3:0.24004125 
-1 0:0.16666667 1:1 2:1 3:0.25479551 
1 0:0.16666667 1:1 2:1 3:0.19794112 
-1 0:1 1:1 2:1 3:0.25430158 
1 0:1 1:1 2:1 3:0.13992272 
1 0:1 1:1 2:1 3:0.25418929 
1 0:1 1:1 2:1 3:0.23989117 
-1 0:1 1:1 2:1 3:0.14040985 
1 0:1 1:1 2:1 3:0.18631127 
-1 0:1 1:1 2:1 3:0.1978749 
-1 0:1 1:1 2:1 3:0.18636007 
-1 0:1 1:1 2:1 3:0.23976953 
1 0:1 1:1 2:1 3:0.19786406 
1 0:1 1:1 2:1 3:0.16138158 
1 0:0.5 1:1 2:1 3:0.23996946 
-1 0:0.5 1:1 2:1 3:0.25444324 
-1 0:0.5 1:1 2:1 3:0.14059353 
-1 0:0.5 1:1 2:1 3:0.19790905 
1 0:0.5 1:1 2:1 3:0.14065625 
1 0:0.5 1:1 2:1 3:0.14072061 
1 0:0.5 1:1 2:1 3:0.24000816 
1 0:0.5 1:1 2:1 3:0.14070013 
-1 0:0.5 1:1 2:1 3:0.25464986 
1 0:0.5 1:1 2:1 3:0.19792667 
-1 0:0.5 1:1 2:1 3:0.23990791 
-1 0:0.5 1:1 2:1 3:0.1406961 
1 0:0.5 1:1 2:1 3:0.19791994 
-1 0:0.5 1:1 2:1 3:0.254598 
1 0:0.5 1:1 2:1 3:0.1979198 
-1 0:0.5 1:1 2:1 3:0.2400197 
-1 0:0.5 1:1 2:1 3:0.14071992 
-1 0:0.5 1:1 2:1 3:0.1979257 
-1 0:0.5 1:1 2:1 3:0.25460105 
-1 0:0.5 1:1 2:1 3:0.24000848 
1 0:0.5 1:1 2:1 3:0.18644867 
-1 0:0.5 1:1 2:1 3:0.18643775 
1 0:0.5 1:1 2:1 3:0.25453354 
1 0:0.5 1:1 2:1 3:0.25465925 
1 0:0.5 1:1 2:1 3:0.18637998 
1 0:0.5 1:1 2:1 3:0.14034996 
-1 0:0.5 1:1 2:1 3:0.18644635 
-1 0:0.33333333 7:1 2:0.66 3:0.22090942 
-1 0:0.33333333 7:1 2:0.66 3:0.32384844 
-1 0:0.33333333 7:1 2:0.66 3:0.46664041 
1 0:0.33333333 7:1 2:0.66 3:0.39173245 
1 0:0.33333333 7:1 2:0.66 3:0.22095206 
0.9363630112488512 0:0.33333333 7:1 2:0.66 3:0.46660864 
-1 0:0.83333333 7:1 2:0.66 3:0.22069249 
1 0:0.83333333 7:1 2:0.66 3:0.32372713 
1 0:0.83333333 7:1 2:0.66 3:0.4665916 
-1 0:0.83333333 7:1 2:0.66 3:0.4665751 
-1 0:0.83333333 7:1 2:0.66 3:0.26565108 
-1 0:0.83333333 7:1 2:0.66 3:0.32376745 
1 0:0.83333333 7:1 2:0.66 3:0.26565014 
-1 0:0.83333333 7:1 2:0.66 3:0.39127012 
1 0:0.83333333 7:1 2:0.66 3:0.3915641 
1 0:0.83333333 7:1 2:0.66 3:0.22068671 
1 0:0.66666667 7:1 2:0.66 3:0.32377923 
-1 0:0.66666667 7:1 2:0.66 3:0.46656347 
1 0:0.66666667 7:1 2:0.66 3:0.39162976 
1 0:0.66666667 7:1 2:0.66 3:0.22078878 
-1 0:0.66666667 7:1 2:0.66 3:0.32379726 
1 0:0.66666667 7:1 2:0.66 3:0.26566778 
-1 0:0.66666667 7:1 2:0.66 3:0.22068665 
-1 0:0.66666667 7:1 2:0.66 3:0.26566632 
1 0:0.66666667 7:1 2:0.66 3:0.46663518 
-1 0:0.66666667 7:1 2:0.66 3:0.39164139 
-1 0:0.16666667 7:1 2:0.66 3:0.2209727 
1 0:0.16666667 7:1 2:0.66 3:0.39173245 
-1 0:1 7:1 2:0.66 3:0.39143146 
-1 0:1 7:1 2:0.66 3:0.32368664 
1 0:1 7:1 2:0.66 3:0.39132785 
-1 0:1 7:1 2:0.66 3:0.46643027 
-1 0:1 7:1 2:0.66 3:0.22058587 
1 0:1 7:1 2:0.66 3:0.4663037 
-1 0:1 7:1 2:0.66 3:0.26561989 
1 0:1 7:1 2:0.66 3:0.22070204 
1 0:1 7:1 2:0.66 3:0.2656376 
1 0:1 7:1 2:0.66 3:0.32367492 
1 0:0.5 7:1 2:0.66 3:0.39164829 
-1 0:0.5 7:1 2:0.66 3:0.22080082 
1 0:0.5 7:1 2:0.66 3:0.32377065 
-1 0:0.5 7:1 2:0.66 3:0.26567313 
-1 0:0.5 7:1 2:0.66 3:0.26566552 
1 0:0.5 7:1 2:0.66 3:0.46662191 
1 0:0.5 7:1 2:0.66 3:0.26566505 
1 0:0.5 7:1 2:0.66 3:0.39169945 
-1 0:0.5 7:1 2:0.66 3:0.26567325 
-1 0:0.5 7:1 2:0.66 3:0.3238229 
-1 0:0.5 7:1 2:0.66 3:0.39158195 
-1 0:0.5 7:1 2:0.66 3:0.46660194 
1 0:0.5 7:1 2:0.66 3:0.22087042 
1 0:0.5 7:1 2:0.66 3:0.39168112 
1 0:0.5 7:1 2:0.66 3:0.46666431 
-1 0:0.5 7:1 2:0.66 3:0.46647191 
1 0:0.5 7:1 2:0.66 3:0.26567463 
-1 0:0.5 7:1 2:0.66 3:0.2208326 
-1 0:0.5 7:1 2:0.66 3:0.32382284 
1 0:0.5 7:1 2:0.66 3:0.32381053 
-1 0:0.5 7:1 2:0.66 3:0.39150129 
-1 0:0.5 7:1 2:0.66 3:0.3237765 
1 0:0.5 7:1 2:0.66 3:0.22086593 
1 0:0.5 7:1 2:0.66 3:0.39153015 
-1 0:0.5 7:1 2:0.66 3:0.46664399 
-1 0:0.5 7:1 2:0.66 3:0.46659049 
1 0:0.5 7:1 2:0.66 3:0.26565877 
-1 0:0.5 7:1 2:0.66 3:0.2656499 
-1 0:0.5 7:1 2:0.66 3:0.22080681 
-1 0:0.5 7:1 2:0.66 3:0.22079803 
1 0:0.5 7:1 2:0.66 3:0.26567386 
1 0:0.5 7:1 2:0.66 3:0.32379676 
1 0:0.5 7:1 2:0.66 3:0.2208296 
-1 0:0.5 7:1 2:0.66 3:0.32381691 
-1 0:0.5 7:1 2:0.66 3:0.3917042 
1 0:0.5 7:1 2:0.66 3:0.46652189 
-1 0:0.5 7:1 2:0.66 3:0.39168694 
1 0:0.5 7:1 2:0.66 3:0.46664546 
1 0:0.5 7:1 2:0.66 3:0.3238108 
1 0:0 7:1 2:0.66 3:0.39173245 
1 0:0.33333333 7:1 2:0 3:4.0818126e-06 
1 0:0.33333333 7:1 2:0 3:0.025004355 
1 0:0.83333333 7:1 2:0 3:4.0818126e-06 
-1 0:0.83333333 7:1 2:0 3:0.025004355 
1 0:0.83333333 7:1 2:0 3:0.025000963 
1 0:0.66666667 7:1 2:0 3:4.0818126e-06 
1 0:0.66666667 7:1 2:0 3:0.025004355 
1 0:0.5 7:1 2:0 3:0.025002659 
1 0:0.5 7:1 2:0 3:4.0818126e-06 
1 0:0.5 7:1 2:0 3:0.025004355 
1 0:0.5 7:1 2:0 3:0.025000001 
-1 0:0.5 7:1 2:0 3:2.0409063e-06 
1 0:0.5 7:1 2:0 3:3.2008459e-06 
-1 0:1 7:1 2:0 3:0 
-1 0:1 7:1 2:0 3:0.025004355 
1 0:1 7:1 2:0 3:2.3125377e-06 
1 0:1 7:1 2:0 3:0.024995655 
1 0:0.16666667 7:1 2:0 3:4.0818126e-06 
1 0:0.16666667 7:1 2:0 3:0.025004355 
1 0:0 7:1 2:0 3:4.0818126e-06 
1 0:0 7:1 2:0 3:0.025004355 
-1 0:0.66666667 7:1 2:0.33 3:0.17664489 
1 0:0.66666667 7:1 2:0.33 3:0.20531219 
1 0:0.66666667 7:1 2:0.33 3:0.17664451 
-1 0:0.66666667 7:1 2:0.33 3:0.36230737 
-1 0:0.66666667 7:1 2:0.33 3:0.30378883 
1 0:0.66666667 7:1 2:0.33 3:0.36226858 
1 0:0.66666667 7:1 2:0.33 3:0.30362864 
-1 0:0.66666667 7:1 2:0.33 3:0.20531666 
-1 0:0.66666667 7:1 2:0.33 3:0.24997245 
1 0:1 7:1 2:0.33 3:0.20488871 
1 0:1 7:1 2:0.33 3:0.17661664 
-1 0:1 7:1 2:0.33 3:0.24976193 
-1 0:1 7:1 2:0.33 3:0.20496539 
-1 0:1 7:1 2:0.33 3:0.30210475 
-1 0:1 7:1 2:0.33 3:0.17658014 
1 0:1 7:1 2:0.33 3:0.30220203 
1 0:1 7:1 2:0.33 3:0.36188421 
-1 0:1 7:1 2:0.33 3:0.36223554 
-1 0:0.83333333 7:1 2:0.33 3:0.20520049 
-1 0:0.83333333 7:1 2:0.33 3:0.30337545 
1 0:0.83333333 7:1 2:0.33 3:0.30313689 
-1 0:0.83333333 7:1 2:0.33 3:0.36221907 
-1 0:0.83333333 7:1 2:0.33 3:0.17663373 
1 0:0.83333333 7:1 2:0.33 3:0.17662257 
1 0:0.83333333 7:1 2:0.33 3:0.36217496 
1 0:0.83333333 7:1 2:0.33 3:0.20517708 
-1 0:0.83333333 7:1 2:0.33 3:0.24991865 
-1 0:0 7:1 2:0.33 3:0.20548316 
-1 0:0.5 7:1 2:0.33 3:0.36233028 
1 0:0.5 7:1 2:0.33 3:0.17663414 
-1 0:0.5 7:1 2:0.33 3:0.24995454 
0.2645095615533209 0:0.5 7:1 2:0.33 3:0.17664513 
-1 0:0.5 7:1 2:0.33 3:0.3622983 
-1 0:0.5 7:1 2:0.33 3:0.20536203 
-1 0:0.5 7:1 2:0.33 3:0.24987616 
-1 0:0.5 7:1 2:0.33 3:0.20536837 
1 0:0.5 7:1 2:0.33 3:0.24990341 
-1 0:0.5 7:1 2:0.33 3:0.3623444 
1 0:0.5 7:1 2:0.33 3:0.30326307 
-1 0:0.5 7:1 2:0.33 3:0.24998144 
1 0:0.5 7:1 2:0.33 3:0.20519338 
-1 0:0.5 7:1 2:0.33 3:0.17661294 
1 0:0.5 7:1 2:0.33 3:0.30388955 
1 0:0.5 7:1 2:0.33 3:0.30370326 
-1 0:0.5 7:1 2:0.33 3:0.24998978 
1 0:0.5 7:1 2:0.33 3:0.36212351 
-1 0:0.5 7:1 2:0.33 3:0.20532547 
-1 0:0.5 7:1 2:0.33 3:0.30318795 
-1 0:0.5 7:1 2:0.33 3:0.3622867 
-1 0:0.5 7:1 2:0.33 3:0.17663972 
-1 0:0.5 7:1 2:0.33 3:0.30398916 
1 0:0.5 7:1 2:0.33 3:0.36226773 
1 0:0.5 7:1 2:0.33 3:0.17663121 
1 0:0.5 7:1 2:0.33 3:0.20532338 
-1 0:0.5 7:1 2:0.33 3:0.30383024 
1 0:0.5 7:1 2:0.33 3:0.30396867 
-1 0:0.5 7:1 2:0.33 3:0.20522427 
-1 0:0.5 7:1 2:0.33 3:0.1766453 
-1 0:0.5 7:1 2:0.33 3:0.30405556 
-1 0:0.33333333 7:1 2:0.33 3:0.36235318 
-1 0:0.33333333 7:1 2:0.33 3:0.2054074 
-1 0:0.33333333 7:1 2:0.33 3:0.30418952 
-1 0:0.16666667 7:1 2:0.33 3:0.20545045 
-1 0:0.16666667 7:1 2:0.33 3:0.30428505 
-1 0:0.16666667 7:1 2:0.33 3:0.36235433 
1 0:0.66666667 7:1 2:1 3:0.40873552 
1 0:0.66666667 7:1 2:1 3:0.56655707 
-1 0:0.66666667 7:1 2:1 3:0.40871955 
1 0:0.66666667 7:1 2:1 3:0.27823801 
1 0:0.66666667 7:1 2:1 3:0.34289724 
-1 0:0.66666667 7:1 2:1 3:0.34298492 
1 0:0.66666667 7:1 2:1 3:0.47495069 
-1 0:0.33333333 7:1 2:1 3:0.34314273 
-1 0:0.33333333 7:1 2:1 3:0.40879555 
-1 0:0.83333333 7:1 2:1 3:0.27823407 
1 0:0.83333333 7:1 2:1 3:0.56655707 
1 0:0.83333333 7:1 2:1 3:0.47495069 
1 0:0.83333333 7:1 2:1 3:0.34261124 
-1 0:0.83333333 7:1 2:1 3:0.40860232 
1 0:0.83333333 7:1 2:1 3:0.27819898 
1 0:0.83333333 7:1 2:1 3:0.40865383 
-1 0:0.83333333 7:1 2:1 3:0.34276444 
-1 0:1 7:1 2:1 3:0.3423459 
1 0:1 7:1 2:1 3:0.47492367 
1 0:1 7:1 2:1 3:0.34161252 
-1 0:1 7:1 2:1 3:0.4084781 
1 0:1 7:1 2:1 3:0.56626254 
1 0:1 7:1 2:1 3:0.27823801 
-1 0:1 7:1 2:1 3:0.47495069 
1 0:1 7:1 2:1 3:0.40849173 
-1 0:1 7:1 2:1 3:0.56650175 
-1 0:1 7:1 2:1 3:0.27812991 
1 0:0.5 7:1 2:1 3:0.34289078 
-1 0:0.5 7:1 2:1 3:0.34306383 
-1 0:0.5 7:1 2:1 3:0.34310808 
-1 0:0.5 7:1 2:1 3:0.40870058 
-1 0:0.5 7:1 2:1 3:0.40878274 
1 0:0.5 7:1 2:1 3:0.40872577 
-1 0:0.5 7:1 2:1 3:0.34276594 
-1 0:0.5 7:1 2:1 3:0.56652941 
1 0:0.5 7:1 2:1 3:0.47495069 
1 0:0.5 7:1 2:1 3:0.34241458 
-1 0:0.5 7:1 2:1 3:0.40863909 
1 0:0.5 7:1 2:1 3:0.27821848 
1 0:0.5 7:1 2:1 3:0.4086459 
1 0:0.5 7:1 2:1 3:0.40876395 
0.9966722586894459 0:0.5 7:1 2:1 3:0.34305804 
-1 0:0.5 7:1 2:1 3:0.40875755 
1 0:0.5 7:1 2:1 3:0.47493718 
-1 0:0.5 7:1 2:1 3:0.27818394 
1 0:0.5 7:1 2:1 3:0.27823801 
1 0:0.5 7:1 2:1 3:0.56640978 
1 0:0.5 7:1 2:1 3:0.34302791 
1 0:0.5 7:1 2:1 3:0.56655707 
-1 0:0.5 7:1 2:1 3:0.27823604 
-1 0:0.5 7:1 2:1 3:0.34297547 
1 0:0.33333333 8:1 2:0.66 3:0.18587349 
1 0:0.33333333 8:1 2:0.66 3:0.34860669 
-1 0:0.33333333 8:1 2:0.66 3:0.28926809 
1 0:0.33333333 8:1 2:0.66 3:0.49596674 
1 0:0.33333333 8:1 2:0.66 3:0.3177343 
-1 0:0.33333333 8:1 2:0.66 3:0.34860314 
1 0:0.33333333 8:1 2:0.66 3:0.41751348 
1 0:0.33333333 8:1 2:0.66 3:0.23415646 
-1 0:0.33333333 8:1 2:0.66 3:0.3177313 
-1 0:0.33333333 8:1 2:0.66 3:0.28424259 
1 0:0.33333333 8:1 2:0.66 3:0.28929349 
1 0:0.33333333 8:1 2:0.66 3:0.33643476 
1 0:0.33333333 8:1 2:0.66 3:0.26602258 
-1 0:0.33333333 8:1 2:0.66 3:0.43763711 
1 0:0.33333333 8:1 2:0.66 3:0.13644513 
-1 0:0.33333333 8:1 2:0.66 3:0.38037797 
1 0:0.33333333 8:1 2:0.66 3:0.43767364 
-1 0:0.33333333 8:1 2:0.66 3:0.23417584 
-1 0:0.33333333 8:1 2:0.66 3:0.33643722 
-1 0:0.83333333 8:1 2:0.66 3:0.38035858 
1 0:0.83333333 8:1 2:0.66 3:0.18763542 
1 0:0.83333333 8:1 2:0.66 3:0.34854318 
1 0:0.83333333 8:1 2:0.66 3:0.31765886 
-1 0:0.83333333 8:1 2:0.66 3:0.41745433 
1 0:0.83333333 8:1 2:0.66 3:0.26597862 
-1 0:0.83333333 8:1 2:0.66 3:0.28420735 
1 0:0.83333333 8:1 2:0.66 3:0.38035303 
-1 0:0.83333333 8:1 2:0.66 3:0.18692272 
-1 0:0.83333333 8:1 2:0.66 3:0.23380087 
1 0:0.83333333 8:1 2:0.66 3:0.43763053 
1 0:0.83333333 8:1 2:0.66 3:0.22865875 
1 0:0.83333333 8:1 2:0.66 3:0.28421404 
1 0:0.83333333 8:1 2:0.66 3:0.41741798 
-1 0:0.83333333 8:1 2:0.66 3:0.34855451 
-1 0:0.83333333 8:1 2:0.66 3:0.3362899 
1 0:0.83333333 8:1 2:0.66 3:0.23380988 
1 0:0.83333333 8:1 2:0.66 3:0.33625994 
1 0:0.83333333 8:1 2:0.66 3:0.28906541 
1 0:0.83333333 8:1 2:0.66 3:0.20743667 
1 0:0.83333333 8:1 2:0.66 3:0.49542195 
-1 0:0.83333333 8:1 2:0.66 3:0.49556537 
1 0:0.83333333 8:1 2:0.66 3:0.18584955 
-1 0:0.83333333 8:1 2:0.66 3:0.31766047 
1 0:0.83333333 8:1 2:0.66 3:0.13644513 
-1 0:0.83333333 8:1 2:0.66 3:0.18586109 
-1 0:0.83333333 8:1 2:0.66 3:0.26599277 
-1 0:0.83333333 8:1 2:0.66 3:0.28899758 
-1 0:0.83333333 8:1 2:0.66 3:0.43762078 
-1 0:0.66666667 8:1 2:0.66 3:0.18764772 
1 0:0.66666667 8:1 2:0.66 3:0.49568565 
1 0:0.66666667 8:1 2:0.66 3:0.28919418 
-1 0:0.66666667 8:1 2:0.66 3:0.34857204 
-1 0:0.66666667 8:1 2:0.66 3:0.26601997 
1 0:0.66666667 8:1 2:0.66 3:0.43764539 
1 0:0.66666667 8:1 2:0.66 3:0.26601703 
-1 0:0.66666667 8:1 2:0.66 3:0.31769028 
-1 0:0.66666667 8:1 2:0.66 3:0.18587264 
1 0:0.66666667 8:1 2:0.66 3:0.22865875 
1 0:0.66666667 8:1 2:0.66 3:0.18587225 
1 0:0.66666667 8:1 2:0.66 3:0.33636002 
1 0:0.66666667 8:1 2:0.66 3:0.23404137 
1 0:0.66666667 8:1 2:0.66 3:0.20743667 
1 0:0.66666667 8:1 2:0.66 3:0.31769342 
1 0:0.66666667 8:1 2:0.66 3:0.28422814 
1 0:0.66666667 8:1 2:0.66 3:0.34857868 
-1 0:0.66666667 8:1 2:0.66 3:0.38036513 
1 0:0.66666667 8:1 2:0.66 3:0.38035944 
-1 0:0.66666667 8:1 2:0.66 3:0.28422027 
-1 0:0.66666667 8:1 2:0.66 3:0.23403468 
-1 0:0.66666667 8:1 2:0.66 3:0.28913744 
-1 0:0.66666667 8:1 2:0.66 3:0.41749539 
-1 0:0.66666667 8:1 2:0.66 3:0.49577962 
-1 0:0.66666667 8:1 2:0.66 3:0.3363898 
1 0:0.66666667 8:1 2:0.66 3:0.13644513 
1 0:0.66666667 8:1 2:0.66 3:0.41747454 
-1 0:0.66666667 8:1 2:0.66 3:0.43760022 
-1 0:0.5 8:1 2:0.66 3:0.28923115 
-1 0:0.5 8:1 2:0.66 3:0.28913691 
1 0:0.5 8:1 2:0.66 3:0.28923444 
-1 0:0.5 8:1 2:0.66 3:0.18587308 
-1 0:0.5 8:1 2:0.66 3:0.18726374 
1 0:0.5 8:1 2:0.66 3:0.43764075 
1 0:0.5 8:1 2:0.66 3:0.38036643 
-1 0:0.5 8:1 2:0.66 3:0.43761866 
1 0:0.5 8:1 2:0.66 3:0.26601979 
-1 0:0.5 8:1 2:0.66 3:0.28920278 
1 0:0.5 8:1 2:0.66 3:0.33641761 
-1 0:0.5 8:1 2:0.66 3:0.23410524 
-1 0:0.5 8:1 2:0.66 3:0.33634875 
1 0:0.5 8:1 2:0.66 3:0.33635236 
1 0:0.5 8:1 2:0.66 3:0.41751071 
-1 0:0.5 8:1 2:0.66 3:0.41751348 
1 0:0.5 8:1 2:0.66 3:0.41746573 
1 0:0.5 8:1 2:0.66 3:0.18586151 
1 0:0.5 8:1 2:0.66 3:0.28924383 
-1 0:0.5 8:1 2:0.66 3:0.31771081 
1 0:0.5 8:1 2:0.66 3:0.49588786 
-1 0:0.5 8:1 2:0.66 3:0.34854623 
-1 0:0.5 8:1 2:0.66 3:0.49578925 
-1 0:0.5 8:1 2:0.66 3:0.28422693 
-1 0:0.5 8:1 2:0.66 3:0.28423143 
-1 0:0.5 8:1 2:0.66 3:0.41748387 
-1 0:0.5 8:1 2:0.66 3:0.18728521 
-1 0:0.5 8:1 2:0.66 3:0.38037174 
1 0:0.5 8:1 2:0.66 3:0.34857653 
-1 0:0.5 8:1 2:0.66 3:0.1858396 
-1 0:0.5 8:1 2:0.66 3:0.49592985 
-1 0:0.5 8:1 2:0.66 3:0.43762013 
1 0:0.5 8:1 2:0.66 3:0.34859269 
1 0:0.5 8:1 2:0.66 3:0.38036375 
-1 0:0.5 8:1 2:0.66 3:0.26600769 
1 0:0.5 8:1 2:0.66 3:0.28423102 
-1 0:0.5 8:1 2:0.66 3:0.26596411 
-1 0:0.5 8:1 2:0.66 3:0.38036869 
-1 0:0.5 8:1 2:0.66 3:0.2340071 
1 0:0.5 8:1 2:0.66 3:0.2842262 
1 0:0.5 8:1 2:0.66 3:0.28883419 
1 0:0.5 8:1 2:0.66 3:0.23410357 
1 0:0.5 8:1 2:0.66 3:0.31770443 
-1 0:0.5 8:1 2:0.66 3:0.28422274 
1 0:0.5 8:1 2:0.66 3:0.33619584 
-1 0:0.5 8:1 2:0.66 3:0.18586729 
1 0:0.5 8:1 2:0.66 3:0.26600058 
-1 0:0.5 8:1 2:0.66 3:0.41737616 
-1 0:0.5 8:1 2:0.66 3:0.49587958 
1 0:0.5 8:1 2:0.66 3:0.28919227 
-1 0:0.5 8:1 2:0.66 3:0.31771098 
-1 0:0.5 8:1 2:0.66 3:0.34858758 
1 0:0.5 8:1 2:0.66 3:0.18587349 
1 0:0.5 8:1 2:0.66 3:0.2340989 
1 0:0.5 8:1 2:0.66 3:0.31771398 
1 0:0.5 8:1 2:0.66 3:0.34856126 
1 0:0.5 8:1 2:0.66 3:0.23384066 
1 0:0.5 8:1 2:0.66 3:0.49571208 
-1 0:0.5 8:1 2:0.66 3:0.38037168 
1 0:0.5 8:1 2:0.66 3:0.41743983 
-1 0:0.5 8:1 2:0.66 3:0.4376458 
-1 0:0.5 8:1 2:0.66 3:0.3364135 
1 0:0.5 8:1 2:0.66 3:0.38036625 
1 0:0.5 8:1 2:0.66 3:0.49588275 
1 0:0.5 8:1 2:0.66 3:0.18726917 
-1 0:0.5 8:1 2:0.66 3:0.34859183 
-1 0:0.5 8:1 2:0.66 3:0.2891607 
-1 0:0.5 8:1 2:0.66 3:0.33636481 
1 0:0.5 8:1 2:0.66 3:0.18764723 
1 0:0.5 8:1 2:0.66 3:0.28423983 
1 0:0.5 8:1 2:0.66 3:0.43765889 
1 0:0.5 8:1 2:0.66 3:0.26602258 
1 0:0.5 8:1 2:0.66 3:0.41749398 
1 0:0.5 8:1 2:0.66 3:0.43765954 
-1 0:0.5 8:1 2:0.66 3:0.38037156 
1 0:0.5 8:1 2:0.66 3:0.18764772 
1 0:0.5 8:1 2:0.66 3:0.2340056 
1 0:0.5 8:1 2:0.66 3:0.43765942 
1 0:0.5 8:1 2:0.66 3:0.31771386 
-1 0:0.5 8:1 2:0.66 3:0.26602126 
1 0:0.5 8:1 2:0.66 3:0.26595433 
-1 0:0.5 8:1 2:0.66 3:0.49563467 
1 0:0.5 8:1 2:0.66 3:0.22865875 
1 0:0.5 8:1 2:0.66 3:0.31765813 
1 0:0.5 8:1 2:0.66 3:0.18764159 
-1 0:0.5 8:1 2:0.66 3:0.34858217 
-1 0:0.5 8:1 2:0.66 3:0.43763734 
1 0:0.5 8:1 2:0.66 3:0.20743667 
-1 0:0.5 8:1 2:0.66 3:0.31770446 
-1 0:0.5 8:1 2:0.66 3:0.28423342 
-1 0:0.5 8:1 2:0.66 3:0.23384189 
-1 0:0.5 8:1 2:0.66 3:0.41750443 
1 0:0.5 8:1 2:0.66 3:0.18585845 
-1 0:0.5 8:1 2:0.66 3:0.31768749 
-1 0:0.5 8:1 2:0.66 3:0.23413267 
1 0:0.5 8:1 2:0.66 3:0.3363974 
1 0:0.5 8:1 2:0.66 3:0.28423607 
1 0:0.5 8:1 2:0.66 3:0.13644513 
1 0:0.5 8:1 2:0.66 3:0.18587287 
1 0:0.5 8:1 2:0.66 3:0.49582619 
-1 0:0.5 8:1 2:0.66 3:0.33642853 
1 0:0.5 8:1 2:0.66 3:0.34859577 
-1 0:1 8:1 2:0.66 3:0.23347902 
1 0:1 8:1 2:0.66 3:0.26588609 
-1 0:1 8:1 2:0.66 3:0.28419463 
-1 0:1 8:1 2:0.66 3:0.49522373 
-1 0:1 8:1 2:0.66 3:0.33625225 
1 0:1 8:1 2:0.66 3:0.34851264 
-1 0:1 8:1 2:0.66 3:0.18687976 
-1 0:1 8:1 2:0.66 3:0.18580574 
1 0:1 8:1 2:0.66 3:0.31756081 
1 0:1 8:1 2:0.66 3:0.22865875 
1 0:1 8:1 2:0.66 3:0.49572811 
1 0:1 8:1 2:0.66 3:0.18584339 
1 0:1 8:1 2:0.66 3:0.4376159 
1 0:1 8:1 2:0.66 3:0.23344939 
-1 0:1 8:1 2:0.66 3:0.34848259 
1 0:1 8:1 2:0.66 3:0.28830376 
-1 0:1 8:1 2:0.66 3:0.41723885 
1 0:1 8:1 2:0.66 3:0.20743667 
1 0:1 8:1 2:0.66 3:0.41736618 
-1 0:1 8:1 2:0.66 3:0.28890798 
1 0:1 8:1 2:0.66 3:0.18689062 
-1 0:1 8:1 2:0.66 3:0.31762115 
1 0:1 8:1 2:0.66 3:0.38034226 
-1 0:1 8:1 2:0.66 3:0.26590565 
1 0:1 8:1 2:0.66 3:0.13644513 
1 0:1 8:1 2:0.66 3:0.33594503 
1 0:1 8:1 2:0.66 3:0.28420009 
-1 0:1 8:1 2:0.66 3:0.43762095 
-1 0:1 8:1 2:0.66 3:0.38035218 
1 0:0.16666667 8:1 2:0.66 3:0.49600227 
-1 0:0.16666667 8:1 2:0.66 3:0.28932383 
-1 0:0.16666667 8:1 2:0.66 3:0.23421334 
1 0:0.16666667 8:1 2:0.66 3:0.34860986 
1 0:0.16666667 8:1 2:0.66 3:0.13644513 
-1 0:0.16666667 8:1 2:0.66 3:0.28424652 
1 0:0.16666667 8:1 2:0.66 3:0.31775001 
1 0:0 8:1 2:0.66 3:0.49603745 
1 0:0 8:1 2:0.66 3:0.18587349 
1 0:0 8:1 2:0.66 3:0.34860986 
0.0751243236304793 0:0 8:1 2:0.66 3:0.13644513 
1 0:0.33333333 8:1 2:0 3:4.0818126e-06 
1 0:0.33333333 8:1 2:0 3:0.025004355 
1 0:0.83333333 8:1 2:0 3:4.0818126e-06 
-1 0:0.83333333 8:1 2:0 3:0.025004355 
1 0:0.83333333 8:1 2:0 3:0.025000963 
1 0:0.66666667 8:1 2:0 3:4.0818126e-06 
1 0:0.66666667 8:1 2:0 3:0.025004355 
1 0:0.16666667 8:1 2:0 3:4.0818126e-06 
1 0:0.16666667 8:1 2:0 3:0.025004355 
-1 0:1 8:1 2:0 3:0 
-1 0:1 8:1 2:0 3:0.025004355 
1 0:1 8:1 2:0 3:2.3125377e-06 
1 0:1 8:1 2:0 3:0.024995655 
1 0:0.5 8:1 2:0 3:0.025002659 
1 0:0.5 8:1 2:0 3:4.0818126e-06 
1 0:0.5 8:1 2:0 3:0.025004355 
1 0:0.5 8:1 2:0 3:0.025000001 
-1 0:0.5 8:1 2:0 3:2.0409063e-06 
1 0:0.5 8:1 2:0 3:3.2008459e-06 
1 0:0 8:1 2:0 3:4.0818126e-06 
1 0:0 8:1 2:0 3:0.025004355 
-1 0:0.66666667 8:1 2:0.33 3:0.071574041 
1 0:0.66666667 8:1 2:0.33 3:0.32991008 
-1 0:0.66666667 8:1 2:0.33 3:0.2613615 
1 0:0.66666667 8:1 2:0.33 3:0.13922705 
1 0:0.66666667 8:1 2:0.33 3:0.28925223 
-1 0:0.66666667 8:1 2:0.33 3:0.16390309 
1 0:0.66666667 8:1 2:0.33 3:0.071526249 
-1 0:0.66666667 8:1 2:0.33 3:0.24640853 
-1 0:0.66666667 8:1 2:0.33 3:0.16574836 
-1 0:0.66666667 8:1 2:0.33 3:0.19397709 
1 0:0.66666667 8:1 2:0.33 3:0.28345077 
1 0:0.66666667 8:1 2:0.33 3:0.23971679 
-1 0:0.66666667 8:1 2:0.33 3:0.13924936 
-1 0:0.66666667 8:1 2:0.33 3:0.37798905 
1 0:0.66666667 8:1 2:0.33 3:0.16573767 
1 0:0.66666667 8:1 2:0.33 3:0.13287303 
1 0:0.66666667 8:1 2:0.33 3:0.3779625 
-1 0:0.66666667 8:1 2:0.33 3:0.21470189 
-1 0:0.66666667 8:1 2:0.33 3:0.32994318 
-1 0:0.66666667 8:1 2:0.33 3:0.28924615 
1 0:0.66666667 8:1 2:0.33 3:0.16368484 
-1 0:0.66666667 8:1 2:0.33 3:0.2397582 
1 0:0.66666667 8:1 2:0.33 3:0.19396232 
-1 0:0.66666667 8:1 2:0.33 3:0.28346986 
-1 0:1 8:1 2:0.33 3:0.16632695 
-1 0:1 8:1 2:0.33 3:0.26124965 
-1 0:1 8:1 2:0.33 3:0.23866272 
-1 0:1 8:1 2:0.33 3:0.1937715 
-1 0:1 8:1 2:0.33 3:0.1389744 
1 0:1 8:1 2:0.33 3:0.23971565 
1 0:1 8:1 2:0.33 3:0.37761702 
1 0:1 8:1 2:0.33 3:0.28922442 
-1 0:1 8:1 2:0.33 3:0.28921488 
1 0:1 8:1 2:0.33 3:0.2832557 
-1 0:1 8:1 2:0.33 3:0.16314243 
1 0:1 8:1 2:0.33 3:0.13895992 
1 0:1 8:1 2:0.33 3:0.071384442 
1 0:1 8:1 2:0.33 3:0.13287303 
-1 0:1 8:1 2:0.33 3:0.071224327 
-1 0:1 8:1 2:0.33 3:0.21453794 
1 0:1 8:1 2:0.33 3:0.26117615 
1 0:1 8:1 2:0.33 3:0.24640042 
-1 0:1 8:1 2:0.33 3:0.37776073 
1 0:1 8:1 2:0.33 3:0.16286484 
-1 0:1 8:1 2:0.33 3:0.32980184 
-1 0:1 8:1 2:0.33 3:0.16575021 
-1 0:1 8:1 2:0.33 3:0.2463999 
1 0:1 8:1 2:0.33 3:0.19364931 
1 0:1 8:1 2:0.33 3:0.16637173 
-1 0:1 8:1 2:0.33 3:0.28324586 
1 0:1 8:1 2:0.33 3:0.32946176 
1 0:1 8:1 2:0.33 3:0.16573012 
-1 0:0.83333333 8:1 2:0.33 3:0.2833808 
1 0:0.83333333 8:1 2:0.33 3:0.23991824 
-1 0:0.83333333 8:1 2:0.33 3:0.1390135 
-1 0:0.83333333 8:1 2:0.33 3:0.21465673 
-1 0:0.83333333 8:1 2:0.33 3:0.28923306 
-1 0:0.83333333 8:1 2:0.33 3:0.16637969 
1 0:0.83333333 8:1 2:0.33 3:0.19387272 
1 0:0.83333333 8:1 2:0.33 3:0.32979377 
1 0:0.83333333 8:1 2:0.33 3:0.26129455 
-1 0:0.83333333 8:1 2:0.33 3:0.37785911 
1 0:0.83333333 8:1 2:0.33 3:0.071355429 
1 0:0.83333333 8:1 2:0.33 3:0.28923908 
1 0:0.83333333 8:1 2:0.33 3:0.13287303 
-1 0:0.83333333 8:1 2:0.33 3:0.24640421 
-1 0:0.83333333 8:1 2:0.33 3:0.16320286 
-1 0:0.83333333 8:1 2:0.33 3:0.26130524 
-1 0:0.83333333 8:1 2:0.33 3:0.071425319 
-1 0:0.83333333 8:1 2:0.33 3:0.19389619 
1 0:0.83333333 8:1 2:0.33 3:0.16638677 
-1 0:0.83333333 8:1 2:0.33 3:0.32984703 
1 0:0.83333333 8:1 2:0.33 3:0.1657851 
-1 0:0.83333333 8:1 2:0.33 3:0.23994881 
-1 0:0.83333333 8:1 2:0.33 3:0.16569148 
1 0:0.83333333 8:1 2:0.33 3:0.28339888 
1 0:0.83333333 8:1 2:0.33 3:0.16367107 
1 0:0.83333333 8:1 2:0.33 3:0.13899841 
1 0:0.83333333 8:1 2:0.33 3:0.37786019 
1 0:0 8:1 2:0.33 3:0.16461182 
1 0:0 8:1 2:0.33 3:0.071690446 
-1 0:0 8:1 2:0.33 3:0.19403914 
-1 0:0 8:1 2:0.33 3:0.1393352 
-1 0:0 8:1 2:0.33 3:0.07169444 
-0.6136412243613313 0:0 8:1 2:0.33 3:0.21474015 
-1 0:0 8:1 2:0.33 3:0.16461091 
1 0:0 8:1 2:0.33 3:0.24011755 
1 0:0.5 8:1 2:0.33 3:0.16419345 
1 0:0.5 8:1 2:0.33 3:0.23987886 
-1 0:0.5 8:1 2:0.33 3:0.071602922 
-1 0:0.5 8:1 2:0.33 3:0.37794797 
1 0:0.5 8:1 2:0.33 3:0.26128336 
-1 0:0.5 8:1 2:0.33 3:0.16635737 
-1 0:0.5 8:1 2:0.33 3:0.26130424 
-1 0:0.5 8:1 2:0.33 3:0.26131989 
-1 0:0.5 8:1 2:0.33 3:0.16385079 
-1 0:0.5 8:1 2:0.33 3:0.19403846 
1 0:0.5 8:1 2:0.33 3:0.28348111 
1 0:0.5 8:1 2:0.33 3:0.2399166 
-1 0:0.5 8:1 2:0.33 3:0.23938482 
-1 0:0.5 8:1 2:0.33 3:0.28338376 
1 0:0.5 8:1 2:0.33 3:0.071537452 
1 0:0.5 8:1 2:0.33 3:0.28345832 
1 0:0.5 8:1 2:0.33 3:0.32973201 
1 0:0.5 8:1 2:0.33 3:0.37802053 
1 0:0.5 8:1 2:0.33 3:0.32997043 
-1 0:0.5 8:1 2:0.33 3:0.28925922 
-1 0:0.5 8:1 2:0.33 3:0.071552105 
1 0:0.5 8:1 2:0.33 3:0.13915705 
-1 0:0.5 8:1 2:0.33 3:0.24640947 
-1 0:0.5 8:1 2:0.33 3:0.32997997 
1 0:0.5 8:1 2:0.33 3:0.16637975 
1 0:0.5 8:1 2:0.33 3:0.28924936 
1 0:0.5 8:1 2:0.33 3:0.3779869 
1 0:0.5 8:1 2:0.33 3:0.19400604 
-1 0:0.5 8:1 2:0.33 3:0.16578565 
-1 0:0.5 8:1 2:0.33 3:0.19390532 
1 0:0.5 8:1 2:0.33 3:0.16577561 
-1 0:0.5 8:1 2:0.33 3:0.28350666 
1 0:0.5 8:1 2:0.33 3:0.28338869 
1 0:0.5 8:1 2:0.33 3:0.16638727 
1 0:0.5 8:1 2:0.33 3:0.071582939 
1 0:0.5 8:1 2:0.33 3:0.071516426 
-1 0:0.5 8:1 2:0.33 3:0.24001811 
1 0:0.5 8:1 2:0.33 3:0.071569049 
-1 0:0.5 8:1 2:0.33 3:0.16638374 
1 0:0.5 8:1 2:0.33 3:0.13926365 
-1 0:0.5 8:1 2:0.33 3:0.32996729 
-1 0:0.5 8:1 2:0.33 3:0.21471722 
1 0:0.5 8:1 2:0.33 3:0.37782815 
1 0:0.5 8:1 2:0.33 3:0.1658031 
-1 0:0.5 8:1 2:0.33 3:0.13928739 
-1 0:0.5 8:1 2:0.33 3:0.26134174 
-1 0:0.5 8:1 2:0.33 3:0.23989783 
-1 0:0.5 8:1 2:0.33 3:0.071459383 
-1 0:0.5 8:1 2:0.33 3:0.21471675 
-1 0:0.5 8:1 2:0.33 3:0.28925517 
1 0:0.5 8:1 2:0.33 3:0.26133496 
1 0:0.5 8:1 2:0.33 3:0.1940202 
-1 0:0.5 8:1 2:0.33 3:0.16411895 
1 0:0.5 8:1 2:0.33 3:0.16577038 
-1 0:0.5 8:1 2:0.33 3:0.21469713 
-1 0:0.5 8:1 2:0.33 3:0.16575467 
-1 0:0.5 8:1 2:0.33 3:0.21463905 
-1 0:0.5 8:1 2:0.33 3:0.32992054 
-1 0:0.5 8:1 2:0.33 3:0.28925071 
1 0:0.5 8:1 2:0.33 3:0.24640542 
-1 0:0.5 8:1 2:0.33 3:0.19396244 
-1 0:0.5 8:1 2:0.33 3:0.37800617 
1 0:0.5 8:1 2:0.33 3:0.32994996 
1 0:0.5 8:1 2:0.33 3:0.13927777 
-1 0:0.5 8:1 2:0.33 3:0.13927804 
-1 0:0.5 8:1 2:0.33 3:0.24640733 
-1 0:0.5 8:1 2:0.33 3:0.26135528 
-1 0:0.5 8:1 2:0.33 3:0.16424772 
-1 0:0.5 8:1 2:0.33 3:0.37790004 
1 0:0.5 8:1 2:0.33 3:0.16404671 
1 0:0.5 8:1 2:0.33 3:0.16409517 
1 0:0.5 8:1 2:0.33 3:0.19396323 
-1 0:0.5 8:1 2:0.33 3:0.24640518 
-1 0:0.5 8:1 2:0.33 3:0.16577734 
-1 0:0.5 8:1 2:0.33 3:0.16387669 
-1 0:0.5 8:1 2:0.33 3:0.16577978 
1 0:0.5 8:1 2:0.33 3:0.21466824 
-1 0:0.5 8:1 2:0.33 3:0.19397474 
-1 0:0.5 8:1 2:0.33 3:0.32990168 
1 0:0.5 8:1 2:0.33 3:0.13914356 
-1 0:0.5 8:1 2:0.33 3:0.37798552 
1 0:0.5 8:1 2:0.33 3:0.24009884 
-1 0:0.5 8:1 2:0.33 3:0.13916856 
-1 0:0.5 8:1 2:0.33 3:0.28345066 
1 0:0.5 8:1 2:0.33 3:0.28925441 
1 0:0.5 8:1 2:0.33 3:0.24000308 
-1 0:0.5 8:1 2:0.33 3:0.23998822 
-1 0:0.5 8:1 2:0.33 3:0.13915479 
-1 0:0.5 8:1 2:0.33 3:0.28349247 
1 0:0.5 8:1 2:0.33 3:0.32989646 
1 0:0.5 8:1 2:0.33 3:0.37794808 
1 0:0.5 8:1 2:0.33 3:0.19385152 
1 0:0.5 8:1 2:0.33 3:0.16373832 
-1 0:0.5 8:1 2:0.33 3:0.28924378 
-1 0:0.5 8:1 2:0.33 3:0.071612569 
-1 0:0.33333333 8:1 2:0.33 3:0.32999137 
1 0:0.33333333 8:1 2:0.33 3:0.37801131 
-1 0:0.33333333 8:1 2:0.33 3:0.16580633 
-1 0:0.33333333 8:1 2:0.33 3:0.21473161 
-1 0:0.33333333 8:1 2:0.33 3:0.071651111 
1 0:0.33333333 8:1 2:0.33 3:0.071639629 
1 0:0.33333333 8:1 2:0.33 3:0.13930025 
1 0:0.33333333 8:1 2:0.33 3:0.24004096 
-1 0:0.33333333 8:1 2:0.33 3:0.28926416 
-1 0:0.33333333 8:1 2:0.33 3:0.28351505 
1 0:0.33333333 8:1 2:0.33 3:0.16440861 
-1 0:0.33333333 8:1 2:0.33 3:0.16433485 
-1 0:0.33333333 8:1 2:0.33 3:0.19394778 
-1 0:0.33333333 8:1 2:0.33 3:0.13930671 
-1 0:0.33333333 8:1 2:0.33 3:0.37802332 
-1 0:0.33333333 8:1 2:0.33 3:0.2400375 
1 0:0.33333333 8:1 2:0.33 3:0.19404977 
-1 0:0.33333333 8:1 2:0.33 3:0.26134905 
-1 0:0.16666667 8:1 2:0.33 3:0.21473754 
-1 0:0.16666667 8:1 2:0.33 3:0.26137821 
-1 0:0.16666667 8:1 2:0.33 3:0.24008739 
-1 0:0.16666667 8:1 2:0.33 3:0.28352052 
-1 0:0.16666667 8:1 2:0.33 3:0.32999407 
-1 0:0.16666667 8:1 2:0.33 3:0.19405332 
1 0:0.16666667 8:1 2:0.33 3:0.24008792 
-1 0:0.16666667 8:1 2:0.33 3:0.16449868 
-1 0:0.16666667 8:1 2:0.33 3:0.13932364 
-1 0:0.16666667 8:1 2:0.33 3:0.16581787 
1 0:0.16666667 8:1 2:0.33 3:0.13931572 
-1 0:0.16666667 8:1 2:0.33 3:0.071678891 
1 0:0.16666667 8:1 2:0.33 3:0.071677437 
1 0:0.16666667 8:1 2:0.33 3:0.16451923 
-1 0:0.16666667 8:1 2:0.33 3:0.28926838 
0.2754353190988953 0:1 8:1 2:1 3:0.27858725 
-1 0:1 8:1 2:1 3:0.5561232 
-1 0:1 8:1 2:1 3:0.62459235 
1 0:1 8:1 2:1 3:0.30750196 
-1 0:1 8:1 2:1 3:0.30756609 
-1 0:1 8:1 2:1 3:0.30217411 
-1 0:1 8:1 2:1 3:0.41187535 
-1 0:1 8:1 2:1 3:0.48780047 
1 0:1 8:1 2:1 3:0.51760199 
1 0:1 8:1 2:1 3:0.44924801 
1 0:1 8:1 2:1 3:0.62425041 
1 0:1 8:1 2:1 3:0.41188792 
1 0:1 8:1 2:1 3:0.44167317 
-1 0:1 8:1 2:1 3:0.38059137 
1 0:1 8:1 2:1 3:0.55655693 
1 0:1 8:1 2:1 3:0.17107307 
1 0:1 8:1 2:1 3:0.24781455 
1 0:1 8:1 2:1 3:0.34784974 
-1 0:1 8:1 2:1 3:0.17040535 
1 0:1 8:1 2:1 3:0.24052508 
-1 0:1 8:1 2:1 3:0.41722969 
1 0:1 8:1 2:1 3:0.48751351 
-1 0:1 8:1 2:1 3:0.24774466 
-1 0:1 8:1 2:1 3:0.27864815 
-1 0:1 8:1 2:1 3:0.24058328 
1 0:1 8:1 2:1 3:0.41714382 
-1 0:1 8:1 2:1 3:0.44159229 
-1 0:1 8:1 2:1 3:0.34793058 
-1 0:1 8:1 2:1 3:0.51771798 
1 0:1 8:1 2:1 3:0.30223845 
1 0:1 8:1 2:1 3:0.38058021 
-1 0:1 8:1 2:1 3:0.44922881 
1 0:0.83333333 8:1 2:1 3:0.1706981 
-1 0:0.83333333 8:1 2:1 3:0.55660374 
-1 0:0.83333333 8:1 2:1 3:0.44168867 
-1 0:0.83333333 8:1 2:1 3:0.6254164 
1 0:0.83333333 8:1 2:1 3:0.34794506 
1 0:0.83333333 8:1 2:1 3:0.4120489 
-1 0:0.83333333 8:1 2:1 3:0.24795874 
-1 0:0.83333333 8:1 2:1 3:0.44918599 
-1 0:0.83333333 8:1 2:1 3:0.30222867 
1 0:0.83333333 8:1 2:1 3:0.24063138 
-1 0:0.83333333 8:1 2:1 3:0.24063964 
-1 0:0.83333333 8:1 2:1 3:0.48813641 
1 0:0.83333333 8:1 2:1 3:0.51786622 
-1 0:0.83333333 8:1 2:1 3:0.38059777 
-1 0:0.83333333 8:1 2:1 3:0.27870788 
1 0:0.83333333 8:1 2:1 3:0.30760759 
-1 0:0.83333333 8:1 2:1 3:0.17078032 
-1 0:0.83333333 8:1 2:1 3:0.30760873 
-1 0:0.83333333 8:1 2:1 3:0.51793822 
1 0:0.83333333 8:1 2:1 3:0.44926193 
1 0:0.83333333 8:1 2:1 3:0.38059184 
1 0:0.83333333 8:1 2:1 3:0.41721911 
1 0:0.83333333 8:1 2:1 3:0.62501427 
1 0:0.83333333 8:1 2:1 3:0.24796476 
1 0:0.83333333 8:1 2:1 3:0.30230035 
-1 0:0.83333333 8:1 2:1 3:0.34798361 
-1 0:0.83333333 8:1 2:1 3:0.41696199 
1 0:0.83333333 8:1 2:1 3:0.44173883 
-1 0:0.83333333 8:1 2:1 3:0.41200056 
1 0:0.83333333 8:1 2:1 3:0.48789655 
1 0:0.83333333 8:1 2:1 3:0.55635436 
-1 0:0.66666667 8:1 2:1 3:0.62570677 
1 0:0.66666667 8:1 2:1 3:0.41702154 
1 0:0.66666667 8:1 2:1 3:0.5567296 
-1 0:0.66666667 8:1 2:1 3:0.41708121 
1 0:0.66666667 8:1 2:1 3:0.41213118 
1 0:0.66666667 8:1 2:1 3:0.17101995 
1 0:0.66666667 8:1 2:1 3:0.30229086 
-1 0:0.66666667 8:1 2:1 3:0.30763598 
-1 0:0.66666667 8:1 2:1 3:0.44923427 
1 0:0.66666667 8:1 2:1 3:0.34800103 
1 0:0.66666667 8:1 2:1 3:0.2494175 
-1 0:0.66666667 8:1 2:1 3:0.27874254 
1 0:0.66666667 8:1 2:1 3:0.38059859 
1 0:0.66666667 8:1 2:1 3:0.44173014 
1 0:0.66666667 8:1 2:1 3:0.51805686 
-1 0:0.66666667 8:1 2:1 3:0.41211691 
-1 0:0.66666667 8:1 2:1 3:0.51809897 
-1 0:0.66666667 8:1 2:1 3:0.55687431 
-1 0:0.66666667 8:1 2:1 3:0.24802425 
-1 0:0.66666667 8:1 2:1 3:0.44174535 
1 0:0.66666667 8:1 2:1 3:0.48808402 
1 0:0.66666667 8:1 2:1 3:0.30763998 
-1 0:0.66666667 8:1 2:1 3:0.48807427 
-1 0:0.66666667 8:1 2:1 3:0.38060423 
-1 0:0.66666667 8:1 2:1 3:0.34803788 
1 0:0.66666667 8:1 2:1 3:0.44927567 
-1 0:0.66666667 8:1 2:1 3:0.30228934 
1 0:0.66666667 8:1 2:1 3:0.24064942 
-1 0:0.66666667 8:1 2:1 3:0.1711392 
1 0:0.66666667 8:1 2:1 3:0.62551918 
1 0:0.16666667 8:1 2:1 3:0.51819734 
-1 0:0.16666667 8:1 2:1 3:0.30765909 
1 0:0.16666667 8:1 2:1 3:0.17166067 
1 0:0.16666667 8:1 2:1 3:0.55696634 
-1 0:0.16666667 8:1 2:1 3:0.17171656 
1 0:0.16666667 8:1 2:1 3:0.62582588 
-1 0:0.16666667 8:1 2:1 3:0.27878033 
1 0:0.33333333 8:1 2:1 3:0.41218844 
-1 0:0.33333333 8:1 2:1 3:0.27877848 
1 0:0.33333333 8:1 2:1 3:0.55695665 
1 0:0.33333333 8:1 2:1 3:0.30765569 
-1 0:0.33333333 8:1 2:1 3:0.38061738 
-1 0:0.33333333 8:1 2:1 3:0.34794852 
1 0:0.33333333 8:1 2:1 3:0.48815744 
-1 0:0.33333333 8:1 2:1 3:0.41724331 
1 0:0.33333333 8:1 2:1 3:0.62581583 
-1 0:0.33333333 8:1 2:1 3:0.30765445 
1 0:0.33333333 8:1 2:1 3:0.1714843 
-1 0:0.33333333 8:1 2:1 3:0.44927045 
-1 0:0.33333333 8:1 2:1 3:0.48816519 
-1 0:0.33333333 8:1 2:1 3:0.41219173 
1 0:0.33333333 8:1 2:1 3:0.51816616 
1 0:0.33333333 8:1 2:1 3:0.44926651 
-1 0:0.33333333 8:1 2:1 3:0.1715606 
-0.5607808177373289 0:0.33333333 8:1 2:1 3:0.51817186 
1 0:0.33333333 8:1 2:1 3:0.24064942 
1 0:0.5 8:1 2:1 3:0.24943445 
-1 0:0.5 8:1 2:1 3:0.24942243 
-1 0:0.5 8:1 2:1 3:0.38060819 
1 0:0.5 8:1 2:1 3:0.30758368 
-1 0:0.5 8:1 2:1 3:0.51807019 
1 0:0.5 8:1 2:1 3:0.62503811 
-1 0:0.5 8:1 2:1 3:0.62520914 
-1 0:0.5 8:1 2:1 3:0.24859033 
-1 0:0.5 8:1 2:1 3:0.41217881 
1 0:0.5 8:1 2:1 3:0.6254201 
-1 0:0.5 8:1 2:1 3:0.30764523 
1 0:0.5 8:1 2:1 3:0.38060549 
1 0:0.5 8:1 2:1 3:0.55666035 
1 0:0.5 8:1 2:1 3:0.30230176 
-1 0:0.5 8:1 2:1 3:0.30231265 
1 0:0.5 8:1 2:1 3:0.44174165 
1 0:0.5 8:1 2:1 3:0.3479662 
-1 0:0.5 8:1 2:1 3:0.41712926 
-1 0:0.5 8:1 2:1 3:0.27874412 
-1 0:0.5 8:1 2:1 3:0.44923627 
1 0:0.5 8:1 2:1 3:0.38060531 
1 0:0.5 8:1 2:1 3:0.41215978 
-1 0:0.5 8:1 2:1 3:0.41716226 
1 0:0.5 8:1 2:1 3:0.3076341 
-1 0:0.5 8:1 2:1 3:0.62574706 
1 0:0.5 8:1 2:1 3:0.30230543 
-1 0:0.5 8:1 2:1 3:0.4492634 
1 0:0.5 8:1 2:1 3:0.24942675 
-1 0:0.5 8:1 2:1 3:0.48814117 
1 0:0.5 8:1 2:1 3:0.2406404 
-1 0:0.5 8:1 2:1 3:0.41715809 
1 0:0.5 8:1 2:1 3:0.17129017 
1 0:0.5 8:1 2:1 3:0.55692024 
-1 0:0.5 8:1 2:1 3:0.48815256 
1 0:0.5 8:1 2:1 3:0.44927197 
-1 0:0.5 8:1 2:1 3:0.55678504 
1 0:0.5 8:1 2:1 3:0.62575681 
-1 0:0.5 8:1 2:1 3:0.30227066 
-1 0:0.5 8:1 2:1 3:0.41215432 
-1 0:0.5 8:1 2:1 3:0.55694549 
1 0:0.5 8:1 2:1 3:0.51791021 
-1 0:0.5 8:1 2:1 3:0.27877231 
1 0:0.5 8:1 2:1 3:0.48812073 
1 0:0.5 8:1 2:1 3:0.44175234 
-1 0:0.5 8:1 2:1 3:0.41728219 
-1 0:0.5 8:1 2:1 3:0.55691859 
1 0:0.5 8:1 2:1 3:0.55684312 
1 0:0.5 8:1 2:1 3:0.27866384 
-1 0:0.5 8:1 2:1 3:0.48811973 
1 0:0.5 8:1 2:1 3:0.30765117 
1 0:0.5 8:1 2:1 3:0.55676166 
1 0:0.5 8:1 2:1 3:0.44926998 
-1 0:0.5 8:1 2:1 3:0.48798459 
-1 0:0.5 8:1 2:1 3:0.302301 
-1 0:0.5 8:1 2:1 3:0.17138091 
-1 0:0.5 8:1 2:1 3:0.51797035 
1 0:0.5 8:1 2:1 3:0.24058725 
-1 0:0.5 8:1 2:1 3:0.38061081 
-1 0:0.5 8:1 2:1 3:0.44175316 
1 0:0.5 8:1 2:1 3:0.24870039 
1 0:0.5 8:1 2:1 3:0.30227557 
-1 0:0.5 8:1 2:1 3:0.34798905 
1 0:0.5 8:1 2:1 3:0.51803178 
-1 0:0.5 8:1 2:1 3:0.3076339 
1 0:0.5 8:1 2:1 3:0.41204203 
-1 0:0.5 8:1 2:1 3:0.27876051 
-1 0:0.5 8:1 2:1 3:0.1713499 
-1 0:0.5 8:1 2:1 3:0.44174922 
1 0:0.5 8:1 2:1 3:0.17117937 
-1 0:0.5 8:1 2:1 3:0.44167276 
-1 0:0.5 8:1 2:1 3:0.24064454 
1 0:0.5 8:1 2:1 3:0.41217423 
-1 0:0.5 8:1 2:1 3:0.44172091 
1 0:0.5 8:1 2:1 3:0.34793983 
-1 0:0.5 8:1 2:1 3:0.38061078 
-1 0:0.5 8:1 2:1 3:0.30224338 
-1 0:0.5 8:1 2:1 3:0.24061635 
-1 0:0.5 8:1 2:1 3:0.34799322 
1 0:0.5 8:1 2:1 3:0.51811154 
-1 0:0.5 8:1 2:1 3:0.27869802 
1 0:0.5 8:1 2:1 3:0.30230652 
1 0:0.5 8:1 2:1 3:0.44924989 
-1 0:0.5 8:1 2:1 3:0.17124844 
1 0:0.5 8:1 2:1 3:0.44174599 
-1 0:0.5 8:1 2:1 3:0.41203574 
-1 0:0.5 8:1 2:1 3:0.51813538 
1 0:0.5 8:1 2:1 3:0.51813544 
1 0:0.5 8:1 2:1 3:0.62566748 
-1 0:0.5 8:1 2:1 3:0.30761487 
-1 0:0.5 8:1 2:1 3:0.62562114 
-1 0:0.5 8:1 2:1 3:0.38061095 
1 0:0.5 8:1 2:1 3:0.41722998 
1 0:0.5 8:1 2:1 3:0.44927109 
-1 0:0.5 8:1 2:1 3:0.24869737 
1 0:0.5 8:1 2:1 3:0.41711475 
-1 0:0.5 8:1 2:1 3:0.17123064 
1 0:0.5 8:1 2:1 3:0.38060546 
-1 0:0.5 8:1 2:1 3:0.34787954 
-1 0:0.5 8:1 2:1 3:0.55654477 
1 0:0.5 8:1 2:1 3:0.30764782 
-1 0:0.5 8:1 2:1 3:0.51814049 
-1 0:0.5 8:1 2:1 3:0.62580432 
1 0:0.5 8:1 2:1 3:0.17155613 
1 0:0.5 8:1 2:1 3:0.41212137 
1 0:0.5 8:1 2:1 3:0.17125214 
1 0:0.5 8:1 2:1 3:0.41724813 
1 0:0.5 8:1 2:1 3:0.38060261 
1 0:0.5 8:1 2:1 3:0.48784105 
1 0:0.5 8:1 2:1 3:0.48803263 
1 0:0.5 8:1 2:1 3:0.48811662 
1 0:0.5 8:1 2:1 3:0.24862528 
-1 0:0.5 8:1 2:1 3:0.44925236 
-1 0:0.5 8:1 2:1 3:0.44925342 
1 0:0.5 8:1 2:1 3:0.44171316 
-1 0:0.5 8:1 2:1 3:0.41209776 
-1 0:0.5 8:1 2:1 3:0.30764993 
1 0:0.5 8:1 2:1 3:0.24064942 
-1 0:0.5 8:1 2:1 3:0.34799474 
-1 0:0.5 8:1 2:1 3:0.24873011 
1 0:0 8:1 2:1 3:0.17203917 
-1 0:0 8:1 2:1 3:0.17205596 
1 0:0 8:1 2:1 3:0.62582588 
-1 0:0.66666667 9:1 2:0.66 3:0.48392921 
1 0:0.66666667 9:1 2:0.66 3:0.48417735 
-1 0:0.66666667 9:1 2:0.66 3:0.6015953 
1 0:0.66666667 9:1 2:0.66 3:0.60148752 
-1 0:1 9:1 2:0.66 3:0.48397613 
1 0:1 9:1 2:0.66 3:0.48399933 
-1 0:1 9:1 2:0.66 3:0.60034303 
1 0:1 9:1 2:0.66 3:0.60015433 
-1 0:0.83333333 9:1 2:0.66 3:0.484248 
-1 0:0.83333333 9:1 2:0.66 3:0.60121155 
1 0:0.83333333 9:1 2:0.66 3:0.60099148 
1 0:0.83333333 9:1 2:0.66 3:0.48422216 
-1 0:0.5 9:1 2:0.66 3:0.48414217 
1 0:0.5 9:1 2:0.66 3:0.60177636 
1 0:0.5 9:1 2:0.66 3:0.48422327 
1 0:0.5 9:1 2:0.66 3:0.60159077 
1 0:0.5 9:1 2:0.66 3:0.60189541 
-1 0:0.5 9:1 2:0.66 3:0.4843341 
1 0:0.5 9:1 2:0.66 3:0.60119299 
-1 0:0.5 9:1 2:0.66 3:0.48420172 
-1 0:0.5 9:1 2:0.66 3:0.60171035 
-1 0:0.5 9:1 2:0.66 3:0.60187362 
-1 0:0.5 9:1 2:0.66 3:0.60129453 
1 0:0.5 9:1 2:0.66 3:0.48437004 
-1 0:0.5 9:1 2:0.66 3:0.601969 
-1 0:0.5 9:1 2:0.66 3:0.48421699 
1 0:0.5 9:1 2:0.66 3:0.48431119 
1 0:0.5 9:1 2:0.66 3:0.48424671 
-1 0:0.33333333 9:1 2:0.66 3:0.60215195 
1 0:0.33333333 9:1 2:0.66 3:0.60206526 
-1 0:0.33333333 9:1 2:0.66 3:0.48435518 
-0.670307420591297 0:0.16666667 9:1 2:0.66 3:0.48442014 
0.9206760513755251 0:0.16666667 9:1 2:0.66 3:0.60219001 
1 0:0.33333333 9:1 2:0 3:0.025004355 
-1 0:0.83333333 9:1 2:0 3:0.025004355 
1 0:0.83333333 9:1 2:0 3:0.025000963 
1 0:0.66666667 9:1 2:0 3:0.025004355 
1 0:0.16666667 9:1 2:0 3:0.025004355 
-1 0:1 9:1 2:0 3:0.025004355 
1 0:1 9:1 2:0 3:0.024995655 
1 0:0.5 9:1 2:0 3:0.025004355 
1 0:0.5 9:1 2:0 3:0.025000001 
1 0:0.5 9:1 2:0 3:0.025002659 
-1 0:0.33333333 9:1 2:0.33 3:0.47907667 
-1 0:0.83333333 9:1 2:0.33 3:0.47894517 
-1 0:0.83333333 9:1 2:0.33 3:0.4025869 
0.6007277369141228 0:0.83333333 9:1 2:0.33 3:0.40256141 
1 0:0.83333333 9:1 2:0.33 3:0.47900619 
1 0:0.66666667 9:1 2:0.33 3:0.47884409 
-1 0:0.66666667 9:1 2:0.33 3:0.4789175 
-1 0:0.16666667 9:1 2:0.33 3:0.40259295 
1 0:1 9:1 2:0.33 3:0.40247843 
-1 0:1 9:1 2:0.33 3:0.47872422 
-1 0:1 9:1 2:0.33 3:0.40251731 
1 0:1 9:1 2:0.33 3:0.47847514 
-1 0:0.5 9:1 2:0.33 3:0.40255513 
-1 0:0.5 9:1 2:0.33 3:0.47903632 
1 0:0.5 9:1 2:0.33 3:0.4787806 
-1 0:0.5 9:1 2:0.33 3:0.4025899 
-1 0:0.5 9:1 2:0.33 3:0.47890517 
-1 0:0.5 9:1 2:0.33 3:0.47901564 
1 0:0.5 9:1 2:0.33 3:0.40253569 
-1 0:0.5 9:1 2:0.33 3:0.47899708 
1 0:0.33333333 9:1 2:1 3:0.73184635 
0.3709598366572209 0:0.33333333 9:1 2:1 3:0.58568692 
-1 0:0.33333333 9:1 2:1 3:0.58570242 
-1 0:0.83333333 9:1 2:1 3:0.58546838 
1 0:0.83333333 9:1 2:1 3:0.58551577 
-1 0:0.83333333 9:1 2:1 3:0.73148821 
1 0:0.83333333 9:1 2:1 3:0.73089631 
-1 0:0.66666667 9:1 2:1 3:0.73166176 
-1 0:0.66666667 9:1 2:1 3:0.5856495 
1 0:0.66666667 9:1 2:1 3:0.73158347 
1 0:0.66666667 9:1 2:1 3:0.5855923 
1 0:0.16666667 9:1 2:1 3:0.73190978 
-1 0:1 9:1 2:1 3:0.58547537 
1 0:1 9:1 2:1 3:0.72954885 
1 0:1 9:1 2:1 3:0.58530604 
-1 0:1 9:1 2:1 3:0.73051955 
-1 0:0.5 9:1 2:1 3:0.73180412 
1 0:0.5 9:1 2:1 3:0.58563964 
1 0:0.5 9:1 2:1 3:0.58561004 
-1 0:0.5 9:1 2:1 3:0.58559612 
1 0:0.5 9:1 2:1 3:0.73173376 
1 0:0.5 9:1 2:1 3:0.58550925 
1 0:0.5 9:1 2:1 3:0.73140305 
1 0:0.5 9:1 2:1 3:0.73171491 
-1 0:0.5 9:1 2:1 3:0.73123842 
-1 0:0.5 9:1 2:1 3:0.5856841 
1 0:0.5 9:1 2:1 3:0.73074813 
-1 0:0.5 9:1 2:1 3:0.58558948 
-1 0:0.5 9:1 2:1 3:0.73177552 
-1 0:0.5 9:1 2:1 3:0.73171021 
-1 0:0.5 9:1 2:1 3:0.58567593 
1 0:0.5 9:1 2:1 3:0.58565737 
1 0:0.33333333 4:1 2:0.66 3:0.76502896 
0.8334724090393528 0:0.33333333 4:1 2:0.66 3:0.75668045 
1 0:0.33333333 4:1 2:0.66 3:0.91679774 
-1 0:0.33333333 4:1 2:0.66 3:0.3368353 
1 0:0.33333333 4:1 2:0.66 3:0.38301978 
1 0:0.33333333 4:1 2:0.66 3:0.83135066 
-1 0:0.33333333 4:1 2:0.66 3:0.38296211 
1 0:0.83333333 4:1 2:0.66 3:0.8307122 
-1 0:0.83333333 4:1 2:0.66 3:0.4483351 
1 0:0.83333333 4:1 2:0.66 3:0.33655524 
0.174431001543785 0:0.83333333 4:1 2:0.66 3:0.48297853 
-1 0:0.83333333 4:1 2:0.66 3:0.91274365 
-1 0:0.83333333 4:1 2:0.66 3:0.70497874 
-1 0:0.83333333 4:1 2:0.66 3:0.83120301 
1 0:0.83333333 4:1 2:0.66 3:0.61612379 
1 0:0.83333333 4:1 2:0.66 3:0.76495237 
-1 0:0.83333333 4:1 2:0.66 3:0.76491966 
-1 0:0.83333333 4:1 2:0.66 3:0.75666806 
-1 0:0.83333333 4:1 2:0.66 3:0.38276136 
-1 0:0.83333333 4:1 2:0.66 3:0.51376784 
1 0:0.83333333 4:1 2:0.66 3:0.75668045 
1 0:0.83333333 4:1 2:0.66 3:0.57302866 
-1 0:0.83333333 4:1 2:0.66 3:0.33662281 
-1 0:0.83333333 4:1 2:0.66 3:0.63954787 
-1 0:0.83333333 4:1 2:0.66 3:0.68662809 
1 0:0.83333333 4:1 2:0.66 3:0.51376039 
-1 0:0.83333333 4:1 2:0.66 3:0.48297612 
1 0:0.83333333 4:1 2:0.66 3:0.55301703 
1 0:0.83333333 4:1 2:0.66 3:0.70485734 
1 0:0.83333333 4:1 2:0.66 3:0.91493632 
1 0:0.83333333 4:1 2:0.66 3:0.63950623 
1 0:0.83333333 4:1 2:0.66 3:0.38263635 
-1 0:0.83333333 4:1 2:0.66 3:0.61614787 
-1 0:0.83333333 4:1 2:0.66 3:0.5530276 
-1 0:0.83333333 4:1 2:0.66 3:0.57304234 
1 0:0.83333333 4:1 2:0.66 3:0.68653523 
1 0:0.66666667 4:1 2:0.66 3:0.57304504 
1 0:0.66666667 4:1 2:0.66 3:0.9152564 
-1 0:0.66666667 4:1 2:0.66 3:0.76489869 
-1 0:0.66666667 4:1 2:0.66 3:0.91609262 
1 0:0.66666667 4:1 2:0.66 3:0.38289976 
-1 0:0.66666667 4:1 2:0.66 3:0.3829612 
1 0:0.66666667 4:1 2:0.66 3:0.33675446 
1 0:0.66666667 4:1 2:0.66 3:0.61615368 
1 0:0.66666667 4:1 2:0.66 3:0.83051327 
-1 0:0.66666667 4:1 2:0.66 3:0.7049327 
1 0:0.66666667 4:1 2:0.66 3:0.6395514 
1 0:0.66666667 4:1 2:0.66 3:0.68662809 
1 0:0.66666667 4:1 2:0.66 3:0.75668045 
1 0:0.66666667 4:1 2:0.66 3:0.70498532 
-1 0:0.66666667 4:1 2:0.66 3:0.3367744 
-1 0:0.66666667 4:1 2:0.66 3:0.83097754 
1 0:0.66666667 4:1 2:0.66 3:0.76474799 
1 0:0.16666667 4:1 2:0.66 3:0.91679774 
1 0:0.16666667 4:1 2:0.66 3:0.3368353 
0.5630810220848426 0:0.16666667 4:1 2:0.66 3:0.83135066 
1 0:1 4:1 2:0.66 3:0.90786074 
-1 0:1 4:1 2:0.66 3:0.76375584 
-1 0:1 4:1 2:0.66 3:0.63931641 
-1 0:1 4:1 2:0.66 3:0.83021292 
1 0:1 4:1 2:0.66 3:0.48297853 
1 0:1 4:1 2:0.66 3:0.38228731 
1 0:1 4:1 2:0.66 3:0.44833733 
1 0:1 4:1 2:0.66 3:0.51377037 
-1 0:1 4:1 2:0.66 3:0.68619306 
-1 0:1 4:1 2:0.66 3:0.91299173 
-1 0:1 4:1 2:0.66 3:0.38238231 
-1 0:1 4:1 2:0.66 3:0.55291431 
-1 0:1 4:1 2:0.66 3:0.75668045 
-1 0:1 4:1 2:0.66 3:0.51369466 
1 0:1 4:1 2:0.66 3:0.70386479 
1 0:1 4:1 2:0.66 3:0.63882977 
1 0:1 4:1 2:0.66 3:0.5530303 
1 0:1 4:1 2:0.66 3:0.82725047 
1 0:1 4:1 2:0.66 3:0.68541658 
-1 0:1 4:1 2:0.66 3:0.57291971 
1 0:1 4:1 2:0.66 3:0.75473574 
1 0:1 4:1 2:0.66 3:0.61556232 
1 0:1 4:1 2:0.66 3:0.57265125 
1 0:1 4:1 2:0.66 3:0.33660628 
-1 0:1 4:1 2:0.66 3:0.33641335 
-1 0:1 4:1 2:0.66 3:0.6159661 
-1 0:1 4:1 2:0.66 3:0.70485276 
1 0:1 4:1 2:0.66 3:0.76321675 
-1 0:0.5 4:1 2:0.66 3:0.6864106 
1 0:0.5 4:1 2:0.66 3:0.33669529 
1 0:0.5 4:1 2:0.66 3:0.70495707 
1 0:0.5 4:1 2:0.66 3:0.63919055 
-1 0:0.5 4:1 2:0.66 3:0.83116413 
1 0:0.5 4:1 2:0.66 3:0.57284812 
1 0:0.5 4:1 2:0.66 3:0.91232924 
1 0:0.5 4:1 2:0.66 3:0.6395514 
1 0:0.5 4:1 2:0.66 3:0.68658163 
-1 0:0.5 4:1 2:0.66 3:0.76497428 
1 0:0.5 4:1 2:0.66 3:0.33672078 
-1 0:0.5 4:1 2:0.66 3:0.76439237 
-1 0:0.5 4:1 2:0.66 3:0.33680485 
-1 0:0.5 4:1 2:0.66 3:0.70498203 
-1 0:0.5 4:1 2:0.66 3:0.63954963 
1 0:0.5 4:1 2:0.66 3:0.61613871 
1 0:0.5 4:1 2:0.66 3:0.83093197 
-1 0:0.5 4:1 2:0.66 3:0.6161508 
-1 0:0.5 4:1 2:0.66 3:0.63954423 
-1 0:0.5 4:1 2:0.66 3:0.33662434 
1 0:0.5 4:1 2:0.66 3:0.70442508 
1 0:0.5 4:1 2:0.66 3:0.61585797 
-1 0:0.5 4:1 2:0.66 3:0.55302895 
-1 0:0.5 4:1 2:0.66 3:0.83127684 
-1 0:0.5 4:1 2:0.66 3:0.91489474 
1 0:0.5 4:1 2:0.66 3:0.63952884 
-1 0:0.5 4:1 2:0.66 3:0.51376908 
1 0:0.5 4:1 2:0.66 3:0.76488847 
1 0:0.5 4:1 2:0.66 3:0.91664704 
1 0:0.5 4:1 2:0.66 3:0.8310314 
1 0:0.5 4:1 2:0.66 3:0.75668045 
1 0:0.5 4:1 2:0.66 3:0.70498532 
-1 0:0.5 4:1 2:0.66 3:0.91678318 
1 0:0.5 4:1 2:0.66 3:0.76499067 
1 0:0.5 4:1 2:0.66 3:0.82930059 
1 0:0.5 4:1 2:0.66 3:0.38295979 
-1 0:0.5 4:1 2:0.66 3:0.9147707 
1 0:0.5 4:1 2:0.66 3:0.38299908 
-1 0:0.5 4:1 2:0.66 3:0.7650232 
1 0:0.5 4:1 2:0.66 3:0.33681028 
-1 0:0.5 4:1 2:0.66 3:0.44833621 
-1 0:0.5 4:1 2:0.66 3:0.76496383 
-1 0:0.5 4:1 2:0.66 3:0.38296167 
-1 0:0.5 4:1 2:0.66 3:0.33682535 
-1 0:0.5 4:1 2:0.66 3:0.51373255 
1 0:0.5 4:1 2:0.66 3:0.33679366 
1 0:0.5 4:1 2:0.66 3:0.91586697 
1 0:0.5 4:1 2:0.66 3:0.68662809 
1 0:0.5 4:1 2:0.66 3:0.76499495 
1 0:0.5 4:1 2:0.66 3:0.57303688 
1 0:0.5 4:1 2:0.66 3:0.7557081 
1 0:0.5 4:1 2:0.66 3:0.38281678 
-1 0:0.5 4:1 2:0.66 3:0.48297729 
-1 0:0.5 4:1 2:0.66 3:0.63943393 
1 0:0.5 4:1 2:0.66 3:0.76412286 
-1 0:0.5 4:1 2:0.66 3:0.70495901 
-1 0:0.5 4:1 2:0.66 3:0.57298238 
-1 0:0.5 4:1 2:0.66 3:0.55297233 
-1 0:0.5 4:1 2:0.66 3:0.33672906 
-1 0:0.33333333 4:1 2:0.33 3:0.47462643 
-1 0:0.33333333 4:1 2:0.33 3:0.41074054 
-1 0:0.83333333 4:1 2:0.33 3:0.27823407 
1 0:0.83333333 4:1 2:0.33 3:0.41050738 
-1 0:0.83333333 4:1 2:0.33 3:0.47444114 
-1 0:0.83333333 4:1 2:0.33 3:0.41053129 
-1 0:0.83333333 4:1 2:0.33 3:0.31826546 
1 0:0.83333333 4:1 2:0.33 3:0.43704004 
1 0:0.83333333 4:1 2:0.33 3:0.27819898 
-1 0:0.83333333 4:1 2:0.33 3:0.43709977 
-1 0:0.83333333 4:1 2:0.33 3:0.37523039 
1 0:0.83333333 4:1 2:0.33 3:0.4742798 
1 0:0.66666667 4:1 2:0.33 3:0.27823801 
-1 0:0.66666667 4:1 2:0.33 3:0.41067247 
-1 0:0.66666667 4:1 2:0.33 3:0.4745549 
-1 0:0.5 4:1 2:0.33 3:0.31821801 
-1 0:0.5 4:1 2:0.33 3:0.47460147 
1 0:0.5 4:1 2:0.33 3:0.41045681 
-1 0:0.5 4:1 2:0.33 3:0.47451614 
1 0:0.5 4:1 2:0.33 3:0.41062807 
0.1408510101352141 0:0.5 4:1 2:0.33 3:0.43707411 
1 0:0.5 4:1 2:0.33 3:0.37508914 
-1 0:0.5 4:1 2:0.33 3:0.43708292 
-1 0:0.5 4:1 2:0.33 3:0.47459067 
1 0:0.5 4:1 2:0.33 3:0.37520769 
-1 0:0.5 4:1 2:0.33 3:0.37518349 
1 0:0.5 4:1 2:0.33 3:0.47416445 
1 0:0.5 4:1 2:0.33 3:0.27821848 
-1 0:0.5 4:1 2:0.33 3:0.31826658 
1 0:0.5 4:1 2:0.33 3:0.4369308 
-1 0:0.5 4:1 2:0.33 3:0.41064211 
-1 0:0.5 4:1 2:0.33 3:0.43710394 
-1 0:0.5 4:1 2:0.33 3:0.41049922 
-1 0:0.5 4:1 2:0.33 3:0.41070654 
-1 0:0.5 4:1 2:0.33 3:0.27818394 
1 0:0.5 4:1 2:0.33 3:0.27823801 
-1 0:0.5 4:1 2:0.33 3:0.43705432 
1 0:0.5 4:1 2:0.33 3:0.31814034 
-1 0:0.5 4:1 2:0.33 3:0.37523162 
-1 0:0.5 4:1 2:0.33 3:0.27823604 
1 0:0.5 4:1 2:0.33 3:0.31824867 
-1 0:0.5 4:1 2:0.33 3:0.41072087 
-1 0:0.5 4:1 2:0.33 3:0.47436214 
1 0:1 4:1 2:0.33 3:0.31801298 
-1 0:1 4:1 2:0.33 3:0.31816832 
1 0:1 4:1 2:0.33 3:0.41017062 
1 0:1 4:1 2:0.33 3:0.4367535 
1 0:1 4:1 2:0.33 3:0.27823801 
-1 0:0.33333333 4:1 2:1 3:0.99987784 
1 0:0.33333333 4:1 2:1 3:0.99990204 
-1 0:0.83333333 4:1 2:1 3:0.92189302 
0.1395163028922705 0:0.83333333 4:1 2:1 3:0.4365164 
-1 0:0.83333333 4:1 2:1 3:0.68744163 
-1 0:0.83333333 4:1 2:1 3:0.58277814 
-1 0:0.83333333 4:1 2:1 3:0.84106203 
-1 0:0.83333333 4:1 2:1 3:0.99882996 
-1 0:0.83333333 4:1 2:1 3:0.72008344 
1 0:0.83333333 4:1 2:1 3:0.72125255 
1 0:0.83333333 4:1 2:1 3:0.86862595 
1 0:0.83333333 4:1 2:1 3:0.64820402 
-1 0:0.83333333 4:1 2:1 3:0.86993836 
1 0:0.83333333 4:1 2:1 3:0.61643042 
1 0:0.83333333 4:1 2:1 3:0.92149423 
1 0:0.83333333 4:1 2:1 3:0.84073155 
1 0:0.83333333 4:1 2:1 3:0.99616709 
1 0:0.83333333 4:1 2:1 3:0.79184294 
1 0:0.83333333 4:1 2:1 3:0.68716595 
-1 0:0.83333333 4:1 2:1 3:0.79290333 
1 0:0.83333333 4:1 2:1 3:0.58277485 
-1 0:0.83333333 4:1 2:1 3:0.76436477 
-1 0:0.83333333 4:1 2:1 3:0.6482113 
1 0:0.83333333 4:1 2:1 3:0.7643142 
-1 0:0 4:1 2:1 3:1 
1 0:0.5 4:1 2:1 3:0.84129842 
1 0:0.5 4:1 2:1 3:0.84132649 
-1 0:0.5 4:1 2:1 3:0.99977447 
1 0:0.5 4:1 2:1 3:0.7931133 
1 0:0.5 4:1 2:1 3:0.7935388 
-1 0:0.5 4:1 2:1 3:0.72124591 
1 0:0.5 4:1 2:1 3:0.76441927 
1 0:0.5 4:1 2:1 3:0.6871774 
1 0:0.5 4:1 2:1 3:0.92281228 
-1 0:0.5 4:1 2:1 3:0.64816819 
1 0:0.5 4:1 2:1 3:0.99805095 
-1 0:0.5 4:1 2:1 3:0.68744645 
-1 0:0.5 4:1 2:1 3:0.76440095 
-1 0:0.5 4:1 2:1 3:0.68745132 
1 0:0.5 4:1 2:1 3:0.87149197 
-1 0:0.5 4:1 2:1 3:0.84123622 
1 0:1 4:1 2:1 3:0.91685917 
-1 0:1 4:1 2:1 3:0.64812514 
-1 0:1 4:1 2:1 3:0.51040003 
-1 0:1 4:1 2:1 3:0.76422258 
-1 0:1 4:1 2:1 3:0.61642109 
-1 0:1 4:1 2:1 3:0.72123927 
1 0:1 4:1 2:1 3:0.6466921 
-1 0:1 4:1 2:1 3:0.92087861 
1 0:1 4:1 2:1 3:0.68688938 
-1 0:1 4:1 2:1 3:0.86628757 
-1 0:1 4:1 2:1 3:0.79056654 
1 0:1 4:1 2:1 3:0.51041688 
1 0:1 4:1 2:1 3:0.7206902 
1 0:1 4:1 2:1 3:0.7926939 
1 0:1 4:1 2:1 3:0.58198075 
-1 0:1 4:1 2:1 3:0.58275306 
1 0:1 4:1 2:1 3:0.53945026 
1 0:1 4:1 2:1 3:0.86331208 
1 0:1 4:1 2:1 3:0.61636758 
-1 0:1 4:1 2:1 3:0.53944462 
-1 0:0.16666667 4:1 2:1 3:0.92299728 
-1 0:0.16666667 4:1 2:1 3:0.68746101 
1 0:0.16666667 4:1 2:1 3:0.8721349 
1 0:0.16666667 4:1 2:1 3:0.92297661 
1 0:0.16666667 4:1 2:1 3:0.99993481 
-1 0:0.16666667 4:1 2:1 3:0.99996347 
-1 0:0.16666667 4:1 2:1 3:0.84141042 
-1 0:0.16666667 4:1 2:1 3:0.76443713 
-1 0:1 5:1 2:0.66 3:0.52318444 
1 0:1 5:1 2:0.66 3:0.48399933 
1 0:1 5:1 2:0.66 3:0.54196442 
1 0:1 5:1 2:0.66 3:0.36732301 
1 0:1 5:1 2:0.66 3:0.30037423 
1 0:1 5:1 2:0.66 3:0.42473047 
1 0:1 5:1 2:0.66 3:0.32367492 
1 0:1 5:1 2:0.66 3:0.52322402 
1 0:1 5:1 2:0.66 3:0.4663037 
1 0:1 5:1 2:0.66 3:0.60015433 
-1 0:1 5:1 2:0.66 3:0.30042712 
-1 0:1 5:1 2:0.66 3:0.39143146 
-1 0:1 5:1 2:0.66 3:0.36604522 
-1 0:1 5:1 2:0.66 3:0.46643027 
-1 0:1 5:1 2:0.66 3:0.60034303 
-1 0:1 5:1 2:0.66 3:0.48397613 
1 0:1 5:1 2:0.66 3:0.57796189 
1 0:1 5:1 2:0.66 3:0.39132785 
-1 0:1 5:1 2:0.66 3:0.42495576 
-1 0:1 5:1 2:0.66 3:0.541856 
-1 0:1 5:1 2:0.66 3:0.32368664 
-1 0:1 5:1 2:0.66 3:0.57728425 
1 0:0.83333333 5:1 2:0.66 3:0.54223505 
1 0:0.83333333 5:1 2:0.66 3:0.42500557 
-1 0:0.33333333 5:1 2:0.66 3:0.32384844 
-1 0:0.33333333 5:1 2:0.66 3:0.52363168 
1 0:0.33333333 5:1 2:0.66 3:0.57897366 
-1 0:0.33333333 5:1 2:0.66 3:0.48435518 
-1 0:0.33333333 5:1 2:0.66 3:0.54288432 
1 0:0.33333333 5:1 2:0.66 3:0.52358134 
-1 0:0.33333333 5:1 2:0.66 3:0.57905053 
1 0:0.33333333 5:1 2:0.66 3:0.39173245 
-1 0:0.33333333 5:1 2:0.66 3:0.36824946 
-1 0:0.33333333 5:1 2:0.66 3:0.46664041 
1 0:0.33333333 5:1 2:0.66 3:0.54282559 
-1 0:0.33333333 5:1 2:0.66 3:0.60215195 
1 0:0.33333333 5:1 2:0.66 3:0.60206526 
-1 0:0.33333333 5:1 2:0.66 3:0.30042589 
1 0:0.5 5:1 2:0.66 3:0.60177636 
1 0:0.5 5:1 2:0.66 3:0.30044591 
1 0:0.5 5:1 2:0.66 3:0.30039887 
-1 0:0.5 5:1 2:0.66 3:0.60129453 
-1 0:0.5 5:1 2:0.66 3:0.57856982 
1 0:0.5 5:1 2:0.66 3:0.54260647 
-1 0:0.5 5:1 2:0.66 3:0.48421699 
-1 0:0.5 5:1 2:0.66 3:0.48420172 
-1 0:0.5 5:1 2:0.66 3:0.52342753 
-1 0:0.5 5:1 2:0.66 3:0.601969 
1 0:0.5 5:1 2:0.66 3:0.48422327 
1 0:0.5 5:1 2:0.66 3:0.30045813 
-1 0:0.5 5:1 2:0.66 3:0.60171035 
1 0:0.5 5:1 2:0.66 3:0.36807057 
-1 0:0.5 5:1 2:0.66 3:0.52346511 
-1 0:0.5 5:1 2:0.66 3:0.46664399 
-1 0:0.5 5:1 2:0.66 3:0.42509226 
1 0:0.5 5:1 2:0.66 3:0.54257011 
-1 0:0.5 5:1 2:0.66 3:0.39168694 
1 0:0.5 5:1 2:0.66 3:0.60189541 
1 0:0.5 5:1 2:0.66 3:0.60119299 
1 0:0.5 5:1 2:0.66 3:0.52339569 
-1 0:0.5 5:1 2:0.66 3:0.4843341 
1 0:0.5 5:1 2:0.66 3:0.46662191 
1 0:0.5 5:1 2:0.66 3:0.60159077 
1 0:0.5 5:1 2:0.66 3:0.52346746 
1 0:0.5 5:1 2:0.66 3:0.36820289 
1 0:0.5 5:1 2:0.66 3:0.39168112 
1 0:0.5 5:1 2:0.66 3:0.52349677 
1 0:0.5 5:1 2:0.66 3:0.46652189 
-1 0:0.5 5:1 2:0.66 3:0.57884004 
-1 0:0.5 5:1 2:0.66 3:0.42518435 
-1 0:0.5 5:1 2:0.66 3:0.54266021 
-1 0:0.5 5:1 2:0.66 3:0.57821831 
1 0:0.5 5:1 2:0.66 3:0.42515604 
1 0:0.5 5:1 2:0.66 3:0.36778701 
-1 0:0.5 5:1 2:0.66 3:0.5427288 
-1 0:0.5 5:1 2:0.66 3:0.42506336 
-1 0:0.5 5:1 2:0.66 3:0.36812478 
1 0:0.5 5:1 2:0.66 3:0.39164829 
1 0:0.5 5:1 2:0.66 3:0.32379676 
-1 0:0.5 5:1 2:0.66 3:0.32381691 
1 0:0.5 5:1 2:0.66 3:0.42516015 
-1 0:0.5 5:1 2:0.66 3:0.57886806 
1 0:0.5 5:1 2:0.66 3:0.48431119 
-1 0:0.5 5:1 2:0.66 3:0.4251215 
1 0:0.5 5:1 2:0.66 3:0.578679 
1 0:0.5 5:1 2:0.66 3:0.39169945 
-1 0:1 5:1 2:0 3:0.025004355 
1 0:1 5:1 2:0 3:0.024995655 
1 0:0.16666667 5:1 2:0 3:0.025004355 
1 0:0 5:1 2:0 3:0.025004355 
1 0:0.33333333 5:1 2:0.33 3:0.27796919 
-1 0:0.33333333 5:1 2:0.33 3:0.36235318 
1 0:0.33333333 5:1 2:0.33 3:0.3041505 
-1 0:0.33333333 5:1 2:0.33 3:0.43104953 
-1 0:0.33333333 5:1 2:0.33 3:0.30418952 
-1 0:0.33333333 5:1 2:0.33 3:0.46982534 
-1 0:0.33333333 5:1 2:0.33 3:0.47907667 
1 0:0.83333333 5:1 2:0.33 3:0.41429084 
1 0:0.83333333 5:1 2:0.33 3:0.27757305 
1 0:0.83333333 5:1 2:0.33 3:0.4697679 
1 0:0.83333333 5:1 2:0.33 3:0.33414545 
-1 0:0.83333333 5:1 2:0.33 3:0.47894517 
-1 0:0.83333333 5:1 2:0.33 3:0.30337545 
1 0:0.83333333 5:1 2:0.33 3:0.43100137 
1 0:0.83333333 5:1 2:0.33 3:0.24995046 
-1 0:0.83333333 5:1 2:0.33 3:0.43102985 
1 0:0.83333333 5:1 2:0.33 3:0.24004234 
-1 0:0.83333333 5:1 2:0.33 3:0.46973366 
-1 0:0.83333333 5:1 2:0.33 3:0.36221907 
1 0:0.83333333 5:1 2:0.33 3:0.30313689 
-1 0:0.83333333 5:1 2:0.33 3:0.41433465 
1 0:0.83333333 5:1 2:0.33 3:0.36217496 
1 0:0.83333333 5:1 2:0.33 3:0.47900619 
-1 0:0.83333333 5:1 2:0.33 3:0.4025869 
-1 0:0.83333333 5:1 2:0.33 3:0.2777069 
-1 0:0.83333333 5:1 2:0.33 3:0.2399245 
-1 0:0.83333333 5:1 2:0.33 3:0.33416715 
1 0:0.83333333 5:1 2:0.33 3:0.40256141 
-1 0:0.83333333 5:1 2:0.33 3:0.24991865 
1 0:0.66666667 5:1 2:0.33 3:0.47884409 
-1 0:0.66666667 5:1 2:0.33 3:0.46980126 
0.4452933306772183 0:0.66666667 5:1 2:0.33 3:0.24995169 
-1 0:0.66666667 5:1 2:0.33 3:0.33417255 
-1 0:0.66666667 5:1 2:0.33 3:0.36230737 
1 0:0.66666667 5:1 2:0.33 3:0.27783987 
1 0:0.66666667 5:1 2:0.33 3:0.24015651 
-1 0:0.66666667 5:1 2:0.33 3:0.43104366 
-1 0:0.66666667 5:1 2:0.33 3:0.4789175 
-1 0:0.66666667 5:1 2:0.33 3:0.24018846 
1 0:0.66666667 5:1 2:0.33 3:0.43106139 
-1 0:0.66666667 5:1 2:0.33 3:0.30378883 
1 0:0.66666667 5:1 2:0.33 3:0.36226858 
1 0:0.66666667 5:1 2:0.33 3:0.46979621 
1 0:0.66666667 5:1 2:0.33 3:0.30362864 
1 0:0.66666667 5:1 2:0.33 3:0.41434429 
-1 0:0.66666667 5:1 2:0.33 3:0.27794318 
-1 0:0.66666667 5:1 2:0.33 3:0.41436484 
-1 0:0.66666667 5:1 2:0.33 3:0.24997245 
1 0:0.5 5:1 2:0.33 3:0.46981142 
-1 0:0.5 5:1 2:0.33 3:0.46977507 
-1 0:0.5 5:1 2:0.33 3:0.4025899 
-1 0:0.5 5:1 2:0.33 3:0.43104612 
1 0:0.5 5:1 2:0.33 3:0.30388955 
1 0:0.5 5:1 2:0.33 3:0.23997119 
1 0:0.5 5:1 2:0.33 3:0.43093236 
1 0:0.5 5:1 2:0.33 3:0.30370326 
-1 0:0.5 5:1 2:0.33 3:0.24998978 
1 0:0.5 5:1 2:0.33 3:0.36212351 
1 0:0.5 5:1 2:0.33 3:0.27777112 
1 0:0.5 5:1 2:0.33 3:0.33415899 
-1 0:0.5 5:1 2:0.33 3:0.30318795 
-1 0:0.5 5:1 2:0.33 3:0.3622867 
-1 0:0.5 5:1 2:0.33 3:0.27796919 
1 0:0.5 5:1 2:0.33 3:0.43104736 
-1 0:0.5 5:1 2:0.33 3:0.41435873 
-1 0:0.5 5:1 2:0.33 3:0.41424615 
1 0:0.5 5:1 2:0.33 3:0.24018541 
-1 0:0.5 5:1 2:0.33 3:0.24005412 
-1 0:0.5 5:1 2:0.33 3:0.4698133 
-1 0:0.5 5:1 2:0.33 3:0.24020138 
1 0:0.5 5:1 2:0.33 3:0.30326307 
1 0:0.5 5:1 2:0.33 3:0.43103156 
1 0:0.5 5:1 2:0.33 3:0.46978781 
-1 0:0.5 5:1 2:0.33 3:0.30398916 
1 0:0.5 5:1 2:0.33 3:0.36226773 
-1 0:0.5 5:1 2:0.33 3:0.41438281 
1 0:0.5 5:1 2:0.33 3:0.46981765 
-1 0:0.5 5:1 2:0.33 3:0.33414818 
1 0:0.5 5:1 2:0.33 3:0.30396867 
-1 0:0.5 5:1 2:0.33 3:0.47890517 
1 0:0.5 5:1 2:0.33 3:0.36230916 
-1 0:0.5 5:1 2:0.33 3:0.27783805 
1 0:0.5 5:1 2:0.33 3:0.27770059 
-1 0:0.5 5:1 2:0.33 3:0.33416985 
1 0:0.5 5:1 2:0.33 3:0.40253569 
-1 0:0.5 5:1 2:0.33 3:0.2778164 
1 0:0.5 5:1 2:0.33 3:0.24012832 
-1 0:0.5 5:1 2:0.33 3:0.30383024 
1 0:0.5 5:1 2:0.33 3:0.41435985 
-1 0:0.5 5:1 2:0.33 3:0.43100137 
1 0:0.5 5:1 2:0.33 3:0.46980173 
-1 0:0.5 5:1 2:0.33 3:0.43093007 
1 0:0.5 5:1 2:0.33 3:0.47899697 
-1 0:0.5 5:1 2:0.33 3:0.30405556 
-1 0:0.5 5:1 2:0.33 3:0.43104659 
1 0:0.5 5:1 2:1 3:0.65492573 
0.2023342520859451 0:0.5 5:1 2:1 3:0.44897697 
1 0:0.5 5:1 2:1 3:0.44890772 
1 0:0.5 5:1 2:1 3:0.69494142 
1 0:0.5 5:1 2:1 3:0.44904598 
-1 0:0.5 5:1 2:1 3:0.69486524 
-1 0:0.5 5:1 2:1 3:0.5856841 
1 0:0.5 5:1 2:1 3:0.6548868 
-1 0:0.5 5:1 2:1 3:0.69434841 
-1 0:0.5 5:1 2:1 3:0.63383169 
1 0:0.5 5:1 2:1 3:0.63389723 
1 0:0.5 5:1 2:1 3:0.40877828 
-1 0:0.5 5:1 2:1 3:0.40878274 
1 0:0.5 5:1 2:1 3:0.6341442 
-1 0:0.5 5:1 2:1 3:0.63417456 
-1 0:0.5 5:1 2:1 3:0.37981562 
-1 0:0.5 5:1 2:1 3:0.37976575 
1 0:0.5 5:1 2:1 3:0.58563964 
1 0:0.5 5:1 2:1 3:0.73074813 
1 0:0.5 5:1 2:1 3:0.40872577 
1 0:0.5 5:1 2:1 3:0.58550925 
1 0:0.5 5:1 2:1 3:0.51780872 
-1 0:0.5 5:1 2:1 3:0.40870058 
1 0:0.5 5:1 2:1 3:0.73173376 
1 0:0.5 5:1 2:1 3:0.51788202 
1 0:0.5 5:1 2:1 3:0.73140305 
-1 0:0.5 5:1 2:1 3:0.69484116 
-1 0:0.5 5:1 2:1 3:0.63416622 
-1 0:0.5 5:1 2:1 3:0.56652941 
-1 0:0.5 5:1 2:1 3:0.63407067 
1 0:0.5 5:1 2:1 3:0.47495069 
1 0:0.5 5:1 2:1 3:0.51792448 
1 0:0.5 5:1 2:1 3:0.58565737 
-1 0:0.5 5:1 2:1 3:0.73123842 
-1 0:0.5 5:1 2:1 3:0.6946877 
-1 0:0.5 5:1 2:1 3:0.73177552 
1 0:0.5 5:1 2:1 3:0.58561004 
-1 0:0.5 5:1 2:1 3:0.51793852 
-1 0:0.5 5:1 2:1 3:0.40863909 
-1 0:0.5 5:1 2:1 3:0.6545915 
-1 0:0.5 5:1 2:1 3:0.44905308 
-1 0:0.5 5:1 2:1 3:0.65494676 
1 0:0.5 5:1 2:1 3:0.63396748 
-1 0:0.5 5:1 2:1 3:0.65495398 
1 0:0.5 5:1 2:1 3:0.51791661 
-1 0:0.5 5:1 2:1 3:0.37982319 
-1 0:0.5 5:1 2:1 3:0.44910377 
-1 0:0.5 5:1 2:1 3:0.58558948 
1 0:0.5 5:1 2:1 3:0.4086459 
1 0:0.5 5:1 2:1 3:0.40876395 
-1 0:0.5 5:1 2:1 3:0.44901614 
-1 0:0.5 5:1 2:1 3:0.73180412 
1 0:0.5 5:1 2:1 3:0.65464048 
-1 0:0.5 5:1 2:1 3:0.51791549 
-1 0:0.5 5:1 2:1 3:0.73171021 
1 0:0.5 5:1 2:1 3:0.73171491 
-1 0:0.5 5:1 2:1 3:0.58559612 
1 0:0.5 5:1 2:1 3:0.69463308 
1 0:0.5 5:1 2:1 3:0.56655707 
1 0:0.5 5:1 2:1 3:0.47493718 
-1 0:0.5 5:1 2:1 3:0.51787004 
1 0:0.5 5:1 2:1 3:0.69488292 
1 0:0.5 5:1 2:1 3:0.56640978 
1 0:0.33333333 6:1 2:0.66 3:0.30421531 
-1 0:0.33333333 6:1 2:0.66 3:0.19053471 
1 0:0.33333333 6:1 2:0.66 3:0.22555293 
-1 0:0.33333333 6:1 2:0.66 3:0.30421399 
1 0:0.33333333 6:1 2:0.66 3:0.3485672 
1 0:0.33333333 6:1 2:0.66 3:0.1658031 
-1 0:0.33333333 6:1 2:0.66 3:0.24709756 
-1 0:0.33333333 6:1 2:0.66 3:0.16580633 
1 0:0.33333333 6:1 2:0.66 3:0.26944226 
1 0:0.33333333 6:1 2:0.66 3:0.13848595 
1 0:0.33333333 6:1 2:0.66 3:0.19052755 
-1 0:0.33333333 6:1 2:0.66 3:0.22556257 
1 0:0.33333333 6:1 2:0.66 3:0.22595724 
1 0:0.33333333 6:1 2:0.66 3:0.24709548 
-1 0:0.33333333 6:1 2:0.66 3:0.34858091 
-1 0:0.83333333 6:1 2:0.66 3:0.22538849 
-1 0:0.83333333 6:1 2:0.66 3:0.2693144 
1 0:0.83333333 6:1 2:0.66 3:0.18117418 
-1 0:0.83333333 6:1 2:0.66 3:0.18115609 
1 0:0.83333333 6:1 2:0.66 3:0.22594215 
1 0:0.83333333 6:1 2:0.66 3:0.19047912 
1 0:0.83333333 6:1 2:0.66 3:0.1657851 
1 0:0.83333333 6:1 2:0.66 3:0.2254407 
-1 0:0.83333333 6:1 2:0.66 3:0.34855019 
1 0:0.83333333 6:1 2:0.66 3:0.30418797 
-1 0:0.83333333 6:1 2:0.66 3:0.16569148 
1 0:0.83333333 6:1 2:0.66 3:0.13848595 
-1 0:0.83333333 6:1 2:0.66 3:0.24679204 
-1 0:0.83333333 6:1 2:0.66 3:0.19038498 
1 0:0.83333333 6:1 2:0.66 3:0.24671666 
1 0:0.83333333 6:1 2:0.66 3:0.26932941 
-1 0:0.83333333 6:1 2:0.66 3:0.22584876 
1 0:0.83333333 6:1 2:0.66 3:0.34848691 
-1 0:0.83333333 6:1 2:0.66 3:0.30418174 
1 0:0.66666667 6:1 2:0.66 3:0.26936089 
1 0:0.66666667 6:1 2:0.66 3:0.13848595 
-1 0:0.66666667 6:1 2:0.66 3:0.22547426 
-1 0:0.66666667 6:1 2:0.66 3:0.34837174 
-1 0:0.66666667 6:1 2:0.66 3:0.16574836 
-1 0:0.66666667 6:1 2:0.66 3:0.18116854 
1 0:0.66666667 6:1 2:0.66 3:0.22588479 
1 0:0.66666667 6:1 2:0.66 3:0.16573767 
1 0:0.66666667 6:1 2:0.66 3:0.18116407 
-1 0:0.66666667 6:1 2:0.66 3:0.2694338 
1 0:0.66666667 6:1 2:0.66 3:0.24695808 
1 0:0.66666667 6:1 2:0.66 3:0.30420168 
-1 0:0.66666667 6:1 2:0.66 3:0.30419537 
1 0:0.66666667 6:1 2:0.66 3:0.19036988 
1 0:0.66666667 6:1 2:0.66 3:0.22551884 
-1 0:0.66666667 6:1 2:0.66 3:0.19041047 
-1 0:0.66666667 6:1 2:0.66 3:0.22594599 
1 0:0.66666667 6:1 2:0.66 3:0.34855827 
-1 0:0.66666667 6:1 2:0.66 3:0.24694369 
-1 0:0.5 6:1 2:0.66 3:0.30420891 
1 0:0.5 6:1 2:0.66 3:0.13848595 
1 0:0.5 6:1 2:0.66 3:0.16577038 
-1 0:0.5 6:1 2:0.66 3:0.16578565 
-1 0:0.5 6:1 2:0.66 3:0.2259516 
1 0:0.5 6:1 2:0.66 3:0.16577561 
1 0:0.5 6:1 2:0.66 3:0.22593298 
-1 0:0.5 6:1 2:0.66 3:0.1904726 
1 0:0.5 6:1 2:0.66 3:0.34856273 
-1 0:0.5 6:1 2:0.66 3:0.30420468 
1 0:0.5 6:1 2:0.66 3:0.22594599 
1 0:0.5 6:1 2:0.66 3:0.1904487 
1 0:0.5 6:1 2:0.66 3:0.34855551 
-1 0:0.5 6:1 2:0.66 3:0.30419287 
-1 0:1 6:1 2:0.66 3:0.2259232 
-1 0:1 6:1 2:0.66 3:0.26930999 
-1 0:1 6:1 2:0.66 3:0.18113174 
1 0:1 6:1 2:0.66 3:0.24628258 
-1 0:1 6:1 2:0.66 3:0.19041378 
1 0:1 6:1 2:0.66 3:0.19038959 
-1 0:1 6:1 2:0.66 3:0.30416289 
1 0:1 6:1 2:0.66 3:0.22590873 
-1 0:1 6:1 2:0.66 3:0.13848364 
-1 0:1 6:1 2:0.66 3:0.16575021 
1 0:1 6:1 2:0.66 3:0.13848341 
1 0:1 6:1 2:0.66 3:0.18116631 
1 0:1 6:1 2:0.66 3:0.30417273 
1 0:1 6:1 2:0.66 3:0.26937298 
-1 0:1 6:1 2:0.66 3:0.24648882 
1 0:1 6:1 2:0.66 3:0.2252996 
-1 0:1 6:1 2:0.66 3:0.22523678 
1 0:1 6:1 2:0.66 3:0.34848444 
-1 0:1 6:1 2:0.66 3:0.3485548 
1 0:1 6:1 2:0.66 3:0.16573012 
-1 0:0.16666667 6:1 2:0.66 3:0.22558688 
1 0:0.16666667 6:1 2:0.66 3:0.1658211 
1 0:0.16666667 6:1 2:0.66 3:0.34861192 
-1 0:0.16666667 6:1 2:0.66 3:0.24713674 
-1 0:0.16666667 6:1 2:0.66 3:0.16581787 
-1 0:0.16666667 6:1 2:0.66 3:0.19056734 
-1 0:0.16666667 6:1 2:0.66 3:0.30421845 
1 0:0.16666667 6:1 2:0.66 3:0.19056041 
1 0:0 6:1 2:0.66 3:0.34862654 
-0.9243599190766515 0:0 6:1 2:0.66 3:0.19058742 
-1 0:1 6:1 2:0 3:0 
1 0:1 6:1 2:0 3:2.3125377e-06 
1 0:0.83333333 6:1 2:0 3:4.0818126e-06 
1 0:0.5 6:1 2:0.33 3:0.16577561 
1 0:0.5 6:1 2:0.33 3:0.080968494 
1 0:0.5 6:1 2:0.33 3:0.16606836 
1 0:0.5 6:1 2:0.33 3:0.21574977 
-1 0:0.5 6:1 2:0.33 3:0.16577734 
1 0:0.5 6:1 2:0.33 3:0.1662104 
-1 0:0.5 6:1 2:0.33 3:0.16575467 
-1 0:0.5 6:1 2:0.33 3:0.25250112 
1 0:0.5 6:1 2:0.33 3:0.13240353 
1 0:0.5 6:1 2:0.33 3:0.12980245 
-1 0:0.5 6:1 2:0.33 3:0.1298033 
-1 0:0.5 6:1 2:0.33 3:0.21628161 
-1 0:0.5 6:1 2:0.33 3:0.2522699 
1 0:0.5 6:1 2:0.33 3:0.12985125 
1 0:0.5 6:1 2:0.33 3:0.16201456 
-1 0:0.5 6:1 2:0.33 3:0.21612001 
-1 0:0.5 6:1 2:0.33 3:0.12971808 
-1 0:0.5 6:1 2:0.33 3:0.16621871 
-1 0:0.5 6:1 2:0.33 3:0.19341433 
1 0:0.5 6:1 2:0.33 3:0.25239805 
-1 0:0.5 6:1 2:0.33 3:0.080978934 
1 0:0.5 6:1 2:0.33 3:0.21614521 
-1 0:0.5 6:1 2:0.33 3:0.21621113 
1 0:0.5 6:1 2:0.33 3:0.16615319 
1 0:0.5 6:1 2:0.33 3:0.16618658 
-1 0:0.5 6:1 2:0.33 3:0.25240645 
1 0:0.5 6:1 2:0.33 3:0.19333991 
-1 0:0.5 6:1 2:0.33 3:0.16617155 
-1 0:0.5 6:1 2:0.33 3:0.12981769 
1 0:0.5 6:1 2:0.33 3:0.13240306 
-1 0:0.5 6:1 2:0.33 3:0.13240311 
1 0:0.5 6:1 2:0.33 3:0.21600575 
-1 0:0.5 6:1 2:0.33 3:0.19341007 
1 0:0.5 6:1 2:0.33 3:0.13241246 
-1 0:0.5 6:1 2:0.33 3:0.080957071 
1 0:0.5 6:1 2:0.33 3:0.080953459 
-1 0:0.5 6:1 2:0.33 3:0.21593636 
0.3049944264007578 0:0.5 6:1 2:0.33 3:0.25249254 
1 0:0.5 6:1 2:0.33 3:0.080982002 
1 0:0.5 6:1 2:0.33 3:0.1658031 
-1 0:0.5 6:1 2:0.33 3:0.13239022 
1 0:0.5 6:1 2:0.33 3:0.16577655 
1 0:0.5 6:1 2:0.33 3:0.13236876 
1 0:0.5 6:1 2:0.33 3:0.12979014 
-1 0:0.5 6:1 2:0.33 3:0.19335413 
-1 0:0.5 6:1 2:0.33 3:0.13239907 
-1 0:0.5 6:1 2:0.33 3:0.16620637 
-1 0:0.5 6:1 2:0.33 3:0.080976423 
1 0:0.5 6:1 2:0.33 3:0.080990474 
-1 0:0.5 6:1 2:0.33 3:0.080990019 
1 0:0.5 6:1 2:0.33 3:0.12982889 
-1 0:0.5 6:1 2:0.33 3:0.1661043 
-1 0:0.5 6:1 2:0.33 3:0.16201382 
1 0:0.5 6:1 2:0.33 3:0.25249698 
-1 0:0.5 6:1 2:0.33 3:0.1619933 
1 0:0.5 6:1 2:0.33 3:0.21619616 
1 0:0.33333333 6:1 2:1 3:0.26104341 
1 0:0.33333333 6:1 2:1 3:0.19682543 
-1 0:0.33333333 6:1 2:1 3:0.25792059 
-1 0:0.33333333 6:1 2:1 3:0.26025483 
1 0:0.83333333 6:1 2:1 3:0.32603506 
1 0:0.83333333 6:1 2:1 3:0.26088654 
-1 0:0.83333333 6:1 2:1 3:0.19674761 
1 0:0.83333333 6:1 2:1 3:0.39224197 
1 0:0.83333333 6:1 2:1 3:0.30134579 
-1 0:0.83333333 6:1 2:1 3:0.29584589 
1 0:0.83333333 6:1 2:1 3:0.19679157 
-1 0:0.83333333 6:1 2:1 3:0.25724516 
1 0:0.83333333 6:1 2:1 3:0.25963422 
1 0:0.83333333 6:1 2:1 3:0.45735062 
1 0:0.83333333 6:1 2:1 3:0.29588213 
-1 0:0.83333333 6:1 2:1 3:0.3922647 
-1 0:0.83333333 6:1 2:1 3:0.25984923 
-1 0:0.83333333 6:1 2:1 3:0.45750349 
-1 0:0.83333333 6:1 2:1 3:0.30158427 
1 0:0.83333333 6:1 2:1 3:0.25710335 
-1 0:0.83333333 6:1 2:1 3:0.26094736 
1 0:0.83333333 6:1 2:1 3:0.3644167 
-1 0:0.83333333 6:1 2:1 3:0.36439485 
-1 0:0.83333333 6:1 2:1 3:0.32605985 
-1 0:0.66666667 6:1 2:1 3:0.30199765 
1 0:0.66666667 6:1 2:1 3:0.45757327 
1 0:0.66666667 6:1 2:1 3:0.25999104 
-1 0:0.66666667 6:1 2:1 3:0.45762078 
-1 0:0.66666667 6:1 2:1 3:0.32606146 
-1 0:0.66666667 6:1 2:1 3:0.3921784 
-1 0:0.66666667 6:1 2:1 3:0.26100048 
-1 0:0.66666667 6:1 2:1 3:0.26008134 
1 0:0.66666667 6:1 2:1 3:0.39212821 
-1 0:0.66666667 6:1 2:1 3:0.29588591 
1 0:0.66666667 6:1 2:1 3:0.30183746 
-1 0:0.66666667 6:1 2:1 3:0.36442225 
1 0:0.66666667 6:1 2:1 3:0.2575125 
1 0:0.66666667 6:1 2:1 3:0.29587282 
-1 0:0.66666667 6:1 2:1 3:0.25741075 
1 0:0.66666667 6:1 2:1 3:0.36442363 
1 0:0.66666667 6:1 2:1 3:0.19681313 
1 0:0.66666667 6:1 2:1 3:0.32606093 
-1 0:0.66666667 6:1 2:1 3:0.19681136 
1 0:0.66666667 6:1 2:1 3:0.26099754 
1 0:0.16666667 6:1 2:1 3:0.30247848 
-1 0:0.16666667 6:1 2:1 3:0.26027163 
-1 0:0.16666667 6:1 2:1 3:0.1968333 
1 0:0.16666667 6:1 2:1 3:0.25799879 
1 0:0.16666667 6:1 2:1 3:0.19683359 
-1 0:0.16666667 6:1 2:1 3:0.25801342 
-1 0:0.16666667 6:1 2:1 3:0.30249396 
1 0:0.5 6:1 2:1 3:0.26102048 
1 0:0.5 6:1 2:1 3:0.45752334 
1 0:0.5 6:1 2:1 3:0.19681242 
-1 0:0.5 6:1 2:1 3:0.39221628 
1 0:0.5 6:1 2:1 3:0.32599727 
-1 0:0.5 6:1 2:1 3:0.29589422 
1 0:0.5 6:1 2:1 3:0.26093021 
1 0:0.5 6:1 2:1 3:0.19679671 
-1 0:0.5 6:1 2:1 3:0.30203911 
-1 0:0.5 6:1 2:1 3:0.26102427 
-1 0:0.5 6:1 2:1 3:0.29589008 
1 0:0.5 6:1 2:1 3:0.26014345 
-1 0:0.5 6:1 2:1 3:0.26101907 
-1 0:0.5 6:1 2:1 3:0.25744845 
-1 0:0.5 6:1 2:1 3:0.39222729 
-1 0:0.5 6:1 2:1 3:0.26006043 
1 0:0.5 6:1 2:1 3:0.26102764 
-1 0:0.5 6:1 2:1 3:0.45742779 
-1 0:0.5 6:1 2:1 3:0.457666 
1 0:0.5 6:1 2:1 3:0.30217748 
1 0:0.5 6:1 2:1 3:0.25767809 
-1 0:0.5 6:1 2:1 3:0.26099678 
1 0:0.5 6:1 2:1 3:0.36442759 
-1 0:0.5 6:1 2:1 3:0.45765514 
1 0:0.5 6:1 2:1 3:0.29589199 
1 0:0.5 6:1 2:1 3:0.26096639 
-1 0:0.5 6:1 2:1 3:0.25985314 
-1 0:0.5 6:1 2:1 3:0.19680176 
1 0:0.5 6:1 2:1 3:0.36442313 
1 0:0.5 6:1 2:1 3:0.2596585 
-1 0:0.5 6:1 2:1 3:0.29587006 
1 0:0.5 6:1 2:1 3:0.19681926 
1 0:0.5 6:1 2:1 3:0.36443079 
-1 0:0.5 6:1 2:1 3:0.32601389 
-1 0:0.5 6:1 2:1 3:0.3922647 
1 0:0.5 6:1 2:1 3:0.30147195 
1 0:0.5 6:1 2:1 3:0.45723468 
1 0:0.5 6:1 2:1 3:0.3922524 
-1 0:0.5 6:1 2:1 3:0.19679046 
1 0:0.5 6:1 2:1 3:0.32600719 
1 0:0 6:1 2:1 3:0.30253298 
1 0:0 6:1 2:1 3:0.25808563 
1 0:1 1:1 2:0.33 3:0.071132104 
-1 0:1 1:1 2:0.33 3:0.080923653 
-1 0:1 1:1 2:0.33 3:0.13239375 
-1 0:1 1:1 2:0.33 3:0.0806734 
1 0:0.33333333 1:1 2:0 3:4.0818126e-06 
1 0:0.83333333 1:1 2:0 3:4.0818126e-06 
1 0:0.66666667 1:1 2:0 3:4.0818126e-06 
1 0:0.16666667 1:1 2:0 3:4.0818126e-06 
-1 0:1 1:1 2:0 3:0 
1 0:1 1:1 2:0 3:2.3125377e-06 
1 0:0.5 1:1 2:0 3:3.2008459e-06 
1 0:0.5 1:1 2:0 3:4.0818126e-06 
-1 0:0.5 1:1 2:0 3:2.0409063e-06 
1 0:0 1:1 2:0 3:4.0818126e-06 
1 0:0.66666667 1:1 2:0.66 3:0.15673269 
1 0:0.66666667 1:1 2:0.66 3:0.11033843 
1 0:0.66666667 1:1 2:0.66 3:0.1063832 
-1 0:0.66666667 1:1 2:0.66 3:0.16787625 
-1 0:0.66666667 1:1 2:0.66 3:0.13569042 
1 0:0.66666667 1:1 2:0.66 3:0.13913098 
-1 0:0.66666667 1:1 2:0.66 3:0.15680044 
-1 0:0.66666667 1:1 2:0.66 3:0.13936321 
1 0:0.66666667 1:1 2:0.66 3:0.16782066 
1 0:1 1:1 2:0.66 3:0.11031511 
-1 0:1 1:1 2:0.66 3:0.11033843 
-1 0:1 1:1 2:0.66 3:0.15635702 
1 0:1 1:1 2:0.66 3:0.13741639 
-1 0:1 1:1 2:0.66 3:0.13562452 
1 0:1 1:1 2:0.66 3:0.13563316 
1 0:1 1:1 2:0.66 3:0.16710276 
1 0:1 1:1 2:0.66 3:0.15620399 
-1 0:1 1:1 2:0.66 3:0.10637703 
-1 0:1 1:1 2:0.66 3:0.13808719 
-1 0:1 1:1 2:0.66 3:0.16729381 
1 0:1 1:1 2:0.66 3:0.10636972 
1 0:0.83333333 1:1 2:0.66 3:0.11033843 
-1 0:0.83333333 1:1 2:0.66 3:0.1356624 
1 0:0.83333333 1:1 2:0.66 3:0.15653292 
1 0:0.83333333 1:1 2:0.66 3:0.16754168 
-1 0:0.83333333 1:1 2:0.66 3:0.15662407 
1 0:0.83333333 1:1 2:0.66 3:0.13856971 
-1 0:0.83333333 1:1 2:0.66 3:0.16755138 
-1 0:0.83333333 1:1 2:0.66 3:0.13887047 
1 0:0.83333333 1:1 2:0.66 3:0.13566525 
-1 0:0.83333333 1:1 2:0.66 3:0.10638189 
1 0:0.83333333 1:1 2:0.66 3:0.10638151 
1 0:0 1:1 2:0.66 3:0.11033843 
0.4597709700361976 0:0 1:1 2:0.66 3:0.1063832 
-1 0:0 1:1 2:0.66 3:0.14006181 
-1 0:0 1:1 2:0.66 3:0.13575501 
1 0:0 1:1 2:0.66 3:0.14004727 
-1 0:0 1:1 2:0.66 3:0.16824613 
-1 0:0.5 1:1 2:0.66 3:0.10638011 
1 0:0.5 1:1 2:0.66 3:0.1063832 
-1 0:0.5 1:1 2:0.66 3:0.1397154 
1 0:0.5 1:1 2:0.66 3:0.1679999 
1 0:0.5 1:1 2:0.66 3:0.13570736 
-1 0:0.5 1:1 2:0.66 3:0.1566475 
1 0:0.5 1:1 2:0.66 3:0.15673049 
-1 0:0.5 1:1 2:0.66 3:0.15685659 
1 0:0.5 1:1 2:0.66 3:0.13949358 
1 0:0.5 1:1 2:0.66 3:0.15682088 
1 0:0.5 1:1 2:1 3:0.19790397 
-1 0:0.5 1:1 2:1 3:0.19789766 
-1 0:0.5 1:1 2:1 3:0.19792426 
1 0:0.5 1:1 2:1 3:0.23997753 
-1 0:0.5 1:1 2:1 3:0.18640436 
-1 0:0.5 1:1 2:1 3:0.23998558 
0.4062029151943997 0:0.5 1:1 2:1 3:0.25465908 
-1 0:0.5 1:1 2:1 3:0.1406267 
1 0:0.5 1:1 2:1 3:0.18644089 
1 0:0.5 1:1 2:1 3:0.18642491 
1 0:0.5 1:1 2:1 3:0.16138158 
1 0:0 1:1 2:1 3:0.1407772 
1 0:0.83333333 1:1 2:1 3:0.14054601 
