svm_type epsilon_svr
kernel_type rbf
gamma 0.1
nr_class 2
total_sv 1043
rho -1.449
SV
1 0:0 1:1 2:1.3496622 3:1.3793462 
1 0:0 1:1 2:1.3496622 3:2.1109707 
1 0:0 1:1 2:1.3496622 3:2.1109707 
-1 0:0 1:1 2:1.3496622 3:1.659655 
-1 0:1.1952286 1:1 2:1.3496622 3:1.3839007 
-1 0:0.5976143 1:1 2:1.3496622 3:2.032118 
-1 0:0 1:1 2:1.3496622 3:1.7491874 
-1 0:1.1952286 1:1 2:1.3496622 3:1.3839007 
-1 0:0.5976143 1:1 2:1.3496622 3:2.032118 
1 0:0 1:1 2:1.3496622 3:1.3793462 
-1 0:0 1:1 2:1.3496622 3:1.7491874 
1 0:0 1:1 2:1.3496622 3:1.9648555 
1 0:0 1:1 2:1.3496622 3:1.8279292 
-0.3555045894113188 0:-0.5976143 1:1 2:1.3496622 3:1.3942924 
-1 0:0 1:1 2:1.3496622 3:1.2604811 
1 0:0.5976143 1:1 2:1.3496622 3:1.028564 
-1 0:-1.1952286 1:1 2:1.3496622 3:1.830237 
-1 0:0 1:1 2:1.3496622 3:1.570013 
1 0:0.5976143 1:1 2:1.3496622 3:1.381795 
1 0:0 1:1 2:1.3496622 3:1.3932786 
1 0:1.7928429 1:1 2:1.3496622 3:0.53876439 
-1 0:-0.5976143 1:1 2:1.3496622 3:1.0342632 
-1 0:-1.1952286 1:1 2:1.3496622 3:1.0343583 
-1 0:0 1:1 2:1.3496622 3:0.97664225 
-1 0:1.1952286 1:1 2:1.3496622 3:1.3839007 
-1 0:0.5976143 1:1 2:1.3496622 3:2.032118 
1 0:0 1:1 2:1.3496622 3:1.3793462 
1 0:0 1:1 2:1.3496622 3:2.1109707 
-1 0:0 1:1 2:1.3496622 3:1.7491874 
-1 0:1.1952286 1:1 2:1.3496622 3:1.3839007 
1 0:0 1:1 2:1.3496622 3:2.1109707 
-1 0:0.5976143 1:1 2:1.3496622 3:2.032118 
1 0:0 1:1 2:1.3496622 3:1.3793462 
-1 0:0 1:1 2:1.3496622 3:1.7491874 
1 0:0 1:1 2:1.3496622 3:2.1109707 
-1 0:0 1:1 2:1.3496622 3:1.659655 
-1 0:0 1:1 2:1.3496622 3:1.570013 
-1 0:0 1:1 2:1.3496622 3:1.7491874 
-1 0:1.1952286 1:1 2:1.3496622 3:1.3839007 
-1 0:0.5976143 1:1 2:1.3496622 3:2.032118 
1 0:0 1:1 2:1.3496622 3:1.3793462 
1 0:0 1:1 2:1.3496622 3:2.1109707 
-1 0:0.5976143 1:1 2:1.3496622 3:2.032118 
1 0:0 1:1 2:1.3496622 3:1.3793462 
-1 0:0 1:1 2:1.3496622 3:1.7491874 
-1 0:1.1952286 1:1 2:1.3496622 3:1.3839007 
1 0:0 1:1 2:1.3496622 3:1.9648555 
1 0:0 1:1 2:1.3496622 3:1.8279292 
-1 0:-1.1952286 1:1 2:1.3496622 3:1.830237 
1 0:1.7928429 4:1 2:-0.44988739 3:-0.58725227 
1 0:0 4:1 2:-0.44988739 3:-0.26160436 
-1 0:1.7928429 5:1 2:-0.44988739 3:-0.40347771 
-1 0:1.1952286 4:1 2:-0.44988739 3:-0.1252835 
-1 0:1.7928429 5:1 2:0.43645792 3:-0.29227308 
-1 0:1.1952286 6:1 2:-0.44988739 3:-0.87238943 
-1 0:1.7928429 7:1 2:-0.44988739 3:-0.24728573 
-1 0:1.1952286 6:1 2:0.43645792 3:-0.72263321 
-1 0:-1.1952286 5:1 2:-0.44988739 3:-0.45546583 
1 0:1.7928429 5:1 2:-0.44988739 3:-0.75875602 
-1 0:-0.5976143 5:1 2:-0.44988739 3:-0.45551345 
1 0:0 5:1 2:-0.44988739 3:-0.60711002 
-1 0:1.1952286 5:1 2:-0.44988739 3:-0.87238943 
-1 0:0.5976143 5:1 2:-0.44988739 3:-0.81269708 
-1 0:1.7928429 5:1 2:-0.44988739 3:-0.26529599 
1 0:0 5:1 2:-0.44988739 3:0.07608684 
-1 0:1.7928429 5:1 2:-0.44988739 3:-0.26529599 
1 0:0 5:1 2:-0.44988739 3:0.07608684 
1 0:0 5:1 2:-0.44988739 3:-0.60711002 
-1 0:1.1952286 5:1 2:-0.44988739 3:-0.065444412 
0.2999396166647216 0:-1.1952286 5:1 2:-0.44988739 3:0.081802797 
-1 0:1.1952286 5:1 2:-0.44988739 3:-0.065444412 
1 0:1.7928429 5:1 2:-0.44988739 3:-0.75875602 
-1 0:-0.5976143 5:1 2:-0.44988739 3:-0.45551345 
-1 0:-1.1952286 5:1 2:-0.44988739 3:-0.45546583 
-1 0:1.7928429 5:1 2:-0.44988739 3:-0.86022597 
-1 0:1.1952286 5:1 2:-0.44988739 3:-0.74010385 
-1 0:0.5976143 5:1 2:-0.44988739 3:-0.66619425 
-1 0:1.1952286 7:1 2:-0.44988739 3:0.037187825 
-1 0:0 7:1 2:-0.44988739 3:0.14110805 
-1 0:1.7928429 7:1 2:-0.44988739 3:-0.24728573 
-1 0:1.1952286 7:1 2:-0.44988739 3:0.037187825 
-1 0:0 7:1 2:-0.44988739 3:0.14110805 
-1 0:1.1952286 7:1 2:-0.44988739 3:-0.077833053 
1 0:0 7:1 2:-0.44988739 3:-0.60711002 
1 0:1.7928429 7:1 2:-0.44988739 3:-0.58725227 
1 0:0 7:1 2:-0.44988739 3:-0.26160436 
-1 0:0 7:1 2:-0.44988739 3:-0.006950411 
1 0:1.7928429 7:1 2:-0.44988739 3:-0.75875602 
-1 0:-0.5976143 7:1 2:-0.44988739 3:-0.45551345 
-1 0:-1.1952286 7:1 2:-0.44988739 3:-0.45546583 
-1 0:0 7:1 2:-0.44988739 3:-0.48934972 
-1 0:0 7:1 2:-0.44988739 3:-0.45799572 
-1 0:1.1952286 7:1 2:-0.44988739 3:-0.74010385 
1 0:-1.1952286 7:1 2:-0.44988739 3:-0.65453265 
1 0:-1.7928429 7:1 2:-0.44988739 3:-0.65424106 
-1 0:0.5976143 7:1 2:-0.44988739 3:-0.66619425 
-1 0:0 8:1 2:-0.44988739 3:0.68055768 
1 0:0 8:1 2:-0.44988739 3:0.57259641 
-1 0:0 8:1 2:-0.44988739 3:0.78065498 
-1 0:1.1952286 8:1 2:-0.44988739 3:0.53609969 
-1 0:0.5976143 8:1 2:-0.44988739 3:0.76866085 
-1 0:1.7928429 8:1 2:-0.44988739 3:0.13643194 
-0.3649672270261187 0:0 8:1 2:-0.44988739 3:0.79638131 
-1 0:1.1952286 8:1 2:-0.44988739 3:0.63196744 
-1 0:0 1:1 2:-0.44988739 3:1.2170571 
1 0:0.5976143 1:1 2:-0.44988739 3:1.3424803 
0.9997023968653265 0:0 1:1 2:-0.44988739 3:1.3678073 
1 0:0.5976143 1:1 2:-0.44988739 3:1.3424803 
-0.9993443524297746 0:-0.5976143 1:1 2:-0.44988739 3:1.370529 
1 0:0.5976143 1:1 2:-0.44988739 3:1.3424803 
-1 0:-0.5976143 1:1 2:-0.44988739 3:1.370529 
1 0:0 1:1 2:-0.44988739 3:1.3678073 
-1 0:-0.5976143 1:1 2:-0.44988739 3:1.370529 
-1 0:0 1:1 2:-0.44988739 3:1.2170571 
-1 0:0 1:1 2:-0.44988739 3:1.2170571 
1 0:0.5976143 1:1 2:-0.44988739 3:1.3424803 
1 0:0 1:1 2:-0.44988739 3:1.3678073 
1 0:0.5976143 1:1 2:-0.44988739 3:1.3424803 
-1 0:-0.5976143 1:1 2:-0.44988739 3:1.370529 
1 0:0 1:1 2:-0.44988739 3:1.3678073 
-0.154900037719922 0:-0.5976143 1:1 2:-0.44988739 3:1.370529 
-1 0:0 1:1 2:-0.44988739 3:1.2170571 
-1 0:1.1952286 1:1 2:-0.44988739 3:0.88628986 
-1 0:0 1:1 2:-0.44988739 3:1.0750847 
0.794641282739837 0:0 1:1 2:-0.44988739 3:1.3678073 
-1 0:-0.5976143 1:1 2:-0.44988739 3:1.370529 
-1 0:0 1:1 2:-0.44988739 3:1.2170571 
-1 0:0 1:1 2:-0.44988739 3:1.2170571 
1 0:0.5976143 1:1 2:-0.44988739 3:1.3424803 
0.07627757932612705 0:0 1:1 2:-0.44988739 3:1.3678073 
1 0:0 1:1 2:-0.44988739 3:0.19567322 
-1 0:1.7928429 1:1 2:-0.44988739 3:0.4120116 
-0.6016686494381438 0:1.1952286 1:1 2:-0.44988739 3:0.84454922 
-1 0:0 1:1 2:-0.44988739 3:1.0165103 
-0.2146553140119016 0:1.1952286 1:1 2:-0.44988739 3:0.84454922 
1 0:0 1:1 2:-0.44988739 3:1.1848703 
1 0:0 1:1 2:-0.44988739 3:1.1848703 
-1 0:1.7928429 1:1 2:-0.44988739 3:0.4120116 
-1 0:0 1:1 2:-0.44988739 3:1.0165103 
-1 0:1.7928429 1:1 2:-0.44988739 3:0.4120116 
-1 0:1.1952286 1:1 2:-0.44988739 3:0.84454922 
-1 0:0 1:1 2:-0.44988739 3:1.0165103 
1 0:-1.7928429 1:1 2:-0.44988739 3:0.70051826 
1 0:0 1:1 2:-0.44988739 3:1.1848703 
1 0:0.5976143 1:1 2:-0.44988739 3:1.0051264 
1 0:1.7928429 1:1 2:-0.44988739 3:-0.1037382 
1 0:0.5976143 1:1 2:-0.44988739 3:0.68255625 
1 0:0 1:1 2:-0.44988739 3:0.29839003 
-0.4390751803160717 0:0 1:1 2:-0.44988739 3:0.62038498 
1 0:1.7928429 1:1 2:-0.44988739 3:-0.52630483 
1 0:1.1952286 1:1 2:-0.44988739 3:-0.031333182 
-1 0:-0.5976143 1:1 2:-0.44988739 3:0.42266769 
1 0:0.5976143 1:1 2:-0.44988739 3:0.4100705 
1 0:0 1:1 2:-0.44988739 3:-0.051812607 
1 0:0 1:1 2:-0.44988739 3:1.1848703 
-1 0:1.7928429 1:1 2:-0.44988739 3:0.4120116 
-1 0:1.7928429 1:1 2:-0.44988739 3:0.4120116 
-1 0:1.1952286 1:1 2:-0.44988739 3:0.84454922 
-1 0:0 1:1 2:-0.44988739 3:1.0165103 
-1 0:1.1952286 1:1 2:-0.44988739 3:0.84454922 
1 0:0 1:1 2:-0.44988739 3:1.1848703 
-1 0:0 1:1 2:-0.44988739 3:1.0165103 
1 0:0 1:1 2:-0.44988739 3:1.1848703 
-1 0:1.7928429 1:1 2:-0.44988739 3:0.4120116 
-1 0:0 1:1 2:-0.44988739 3:1.0165103 
-1 0:0 1:1 2:-0.44988739 3:1.0165103 
-1 0:1.7928429 1:1 2:-0.44988739 3:0.4120116 
-1 0:1.1952286 1:1 2:-0.44988739 3:0.84454922 
-1 0:1.1952286 1:1 2:-0.44988739 3:0.84454922 
1 0:0 1:1 2:-0.44988739 3:1.1848703 
-1 0:1.7928429 1:1 2:-0.44988739 3:0.4120116 
1 0:0 1:1 2:-0.44988739 3:1.1848703 
-0.7301969416140889 0:1.1952286 1:1 2:-0.44988739 3:0.84454922 
-1 0:0 1:1 2:-0.44988739 3:1.0165103 
1 0:0.5976143 1:1 2:-0.44988739 3:1.0051264 
-1 0:-0.5976143 5:1 2:-0.44988739 3:-0.27077901 
-1 0:0 5:1 2:-0.44988739 3:-0.33706154 
-1 0:0 5:1 2:-0.44988739 3:-0.28603827 
-1 0:1.7928429 5:1 2:-0.44988739 3:-0.57921507 
-1 0:-0.5976143 5:1 2:-0.44988739 3:-0.3589016 
-1 0:-1.1952286 5:1 2:-0.44988739 3:-0.35879434 
-1 0:0 5:1 2:-0.44988739 3:-0.39243633 
-1 0:1.1952286 5:1 2:-0.44988739 3:-0.30143019 
-1 0:1.1952286 5:1 2:-0.44988739 3:-0.42607833 
-1 0:0 5:1 2:-0.44988739 3:-0.36119609 
-1 0:0 5:1 2:-0.44988739 3:-0.35950628 
-1 0:0.5976143 5:1 2:-0.44988739 3:-0.85761702 
-1 0:0 5:1 2:-0.44988739 3:-0.84425367 
-1 0:1.7928429 5:1 2:-0.44988739 3:-0.95401626 
-1 0:1.1952286 5:1 2:-0.44988739 3:-0.88801529 
-1 0:-0.5976143 5:1 2:-0.44988739 3:-0.83818676 
-1 0:0 5:1 2:-0.44988739 3:-0.8621536 
-1 0:0 5:1 2:-0.44988739 3:-0.84790184 
1 0:1.7928429 5:1 2:-0.44988739 3:-1.043545 
1 0:0 5:1 2:-0.44988739 3:-0.96670318 
1 0:-1.1952286 5:1 2:-0.44988739 3:-0.88998115 
1 0:0 9:1 2:-0.44988739 3:0.14293132 
-1 0:1.1952286 9:1 2:-0.44988739 3:0.13919333 
-1 0:1.1952286 9:1 2:-0.44988739 3:0.13919333 
-1 0:1.1952286 9:1 2:-0.44988739 3:0.15008417 
-1 0:1.1952286 9:1 2:-0.44988739 3:0.13919333 
1 0:0 9:1 2:-0.44988739 3:0.14293132 
1 0:0 9:1 2:-0.44988739 3:0.14293132 
-1 0:1.7928429 9:1 2:-0.44988739 3:-0.10872604 
-1 0:-0.5976143 9:1 2:-0.44988739 3:0.32431488 
-1 0:-1.1952286 9:1 2:-0.44988739 3:0.32614429 
-1 0:0 9:1 2:-0.44988739 3:0.23811432 
1 0:1.7928429 9:1 2:-0.44988739 3:-0.5219824 
-1 0:1.1952286 9:1 2:-0.44988739 3:-0.058040541 
-1 0:0 9:1 2:-0.44988739 3:0.0052414264 
-1 0:0 9:1 2:-0.44988739 3:0.051313897 
-1 0:-0.5976143 9:1 2:-0.44988739 3:0.06769787 
1 0:0 9:1 2:-0.44988739 3:-0.226663 
-1 0:-0.5976143 9:1 2:-0.44988739 3:-0.10550455 
-1 0:-1.1952286 9:1 2:-0.44988739 3:-0.10525732 
0.1692001720649516 0:0.5976143 9:1 2:-0.44988739 3:-0.11341371 
1 0:0 9:1 2:-0.44988739 3:-0.30265809 
-1 0:0 9:1 2:-0.44988739 3:-0.13371693 
1 0:1.7928429 6:1 2:-1.3362327 3:-1.2331771 
1 0:1.7928429 6:1 2:-1.3362327 3:-1.2331771 
1 0:1.1952286 8:1 2:-1.3362327 3:-1.1397552 
0.03705962554611388 0:1.7928429 4:1 2:-1.3362327 3:-1.1713909 
-1 0:1.7928429 9:1 2:-0.44988739 3:-0.35600738 
-1 0:1.1952286 9:1 2:-0.44988739 3:0.090851753 
-1 0:1.1952286 9:1 2:-0.44988739 3:0.090851753 
1 0:0 9:1 2:-0.44988739 3:0.12018712 
0.578238566606729 0:0 9:1 2:-0.44988739 3:0.58234005 
-1 0:1.7928429 9:1 2:-0.44988739 3:-0.35600738 
1 0:0 9:1 2:-0.44988739 3:0.12018712 
1 0:0 9:1 2:-0.44988739 3:0.58234005 
-1 0:1.7928429 9:1 2:-0.44988739 3:-0.35600738 
1 0:0 9:1 2:-0.44988739 3:0.12018712 
0.9523624733960471 0:0 9:1 2:-0.44988739 3:0.58234005 
-1 0:1.7928429 9:1 2:-0.44988739 3:-0.24728573 
-1 0:-0.5976143 9:1 2:-0.44988739 3:0.24416895 
-1 0:0 9:1 2:-0.44988739 3:0.14110805 
-1 0:1.1952286 9:1 2:-0.44988739 3:0.090851753 
-1 0:1.1952286 9:1 2:-0.44988739 3:0.037187825 
-1 0:1.1952286 9:1 2:-0.44988739 3:-0.077833053 
-1 0:0 9:1 2:-0.44988739 3:-0.006950411 
1 0:1.7928429 9:1 2:-0.44988739 3:-0.58725227 
-1 0:-0.5976143 9:1 2:-0.44988739 3:0.063257968 
1 0:0 9:1 2:-0.44988739 3:-0.26160436 
-1 0:-1.7928429 4:1 2:-0.44988739 3:-0.98249448 
-1 0:0 4:1 2:-0.44988739 3:-0.077288908 
-1 0:1.7928429 4:1 2:-0.44988739 3:-0.30438223 
-1 0:0 4:1 2:-0.44988739 3:-0.077288908 
-1 0:1.7928429 4:1 2:-0.44988739 3:-0.40347771 
-0.6066439124853313 0:1.1952286 4:1 2:-0.44988739 3:-0.30143019 
-0.1343951680579058 0:-1.1952286 4:1 2:-0.44988739 3:-0.27064645 
-1 0:1.7928429 4:1 2:-0.44988739 3:-0.30438223 
-1 0:1.1952286 4:1 2:-0.44988739 3:-0.1252835 
-1 0:-0.5976143 4:1 2:-0.44988739 3:-0.27077901 
-1 0:0 4:1 2:-0.44988739 3:-0.33706154 
-1 0:0 4:1 2:-0.44988739 3:-0.28603827 
-1 0:1.7928429 4:1 2:-0.44988739 3:-0.57921507 
-1 0:1.1952286 4:1 2:-0.44988739 3:-0.42607833 
-1 0:-0.5976143 4:1 2:-0.44988739 3:-0.3589016 
-1 0:-1.1952286 4:1 2:-0.44988739 3:-0.35879434 
-1 0:0 4:1 2:-0.44988739 3:-0.39243633 
-1 0:0 4:1 2:-0.44988739 3:-0.36119609 
-1 0:1.1952286 4:1 2:-0.44988739 3:-0.88801529 
1 0:-1.7928429 4:1 2:-0.44988739 3:-0.83561603 
-1 0:0 4:1 2:-0.44988739 3:-0.84790184 
-1 0:0 4:1 2:-0.44988739 3:-0.98538138 
-1 0:0 4:1 2:-0.44988739 3:-0.35950628 
-1 0:0.5976143 4:1 2:-0.44988739 3:-0.85761702 
1 0:0 4:1 2:-0.44988739 3:-0.89481619 
-1 0:0 4:1 2:-0.44988739 3:-0.8621536 
-1 0:1.1952286 4:1 2:-0.44988739 3:-0.98826836 
-1 0:-0.5976143 4:1 2:-0.44988739 3:-0.98249448 
-1 0:-1.1952286 4:1 2:-0.44988739 3:-0.98249448 
-1 0:1.1952286 4:1 2:-0.44988739 3:-0.077833053 
1 0:0 4:1 2:-0.44988739 3:-0.26160436 
1 0:1.7928429 4:1 2:-0.44988739 3:-0.75875602 
-1 0:-0.5976143 4:1 2:-0.44988739 3:-0.45551345 
1 0:1.7928429 4:1 2:-0.44988739 3:-0.58725227 
-1 0:1.1952286 4:1 2:-0.44988739 3:-0.077833053 
1 0:0 4:1 2:-0.44988739 3:-0.60711002 
1 0:-0.5976143 4:1 2:-0.44988739 3:-0.80176368 
1 0:0 4:1 2:-0.44988739 3:-0.88502837 
1 0:-1.1952286 4:1 2:-0.44988739 3:-0.80069084 
1 0:-1.7928429 4:1 2:-0.44988739 3:-0.80036528 
-1 0:1.1952286 4:1 2:-0.44988739 3:0.090851753 
1 0:0 4:1 2:-0.44988739 3:0.58234005 
1 0:0 4:1 2:-0.44988739 3:0.12018712 
1 0:0 4:1 2:-0.44988739 3:0.58234005 
-1 0:1.7928429 4:1 2:-0.44988739 3:-0.24728573 
1 0:1.7928429 4:1 2:-0.44988739 3:-0.58725227 
-1 0:1.1952286 4:1 2:-0.44988739 3:-0.077833053 
-1 0:-1.1952286 4:1 2:-0.44988739 3:-0.3734566 
-1 0:-1.7928429 4:1 2:-0.44988739 3:-0.37344459 
-0.4094393619912245 0:0 4:1 2:-0.44988739 3:-0.37600013 
-1 0:1.7928429 4:1 2:-0.44988739 3:-0.35600738 
1 0:0 4:1 2:-0.44988739 3:0.12018712 
-1 0:1.7928429 4:1 2:-0.44988739 3:-0.35600738 
-1 0:1.1952286 4:1 2:-0.44988739 3:0.090851753 
-1 0:1.1952286 4:1 2:-0.44988739 3:0.037187825 
1 0:0.5976143 4:1 2:-0.44988739 3:0.21946359 
1 0:0 4:1 2:-0.44988739 3:-0.26160436 
-1 0:-0.5976143 4:1 2:-0.44988739 3:-0.37353531 
-1 0:0 4:1 2:-0.44988739 3:-0.41528408 
1 0:1.1952286 4:1 2:-0.44988739 3:-0.71982249 
-1 0:-0.5976143 4:1 2:-0.44988739 3:-0.6018362 
-1 0:-1.1952286 4:1 2:-0.44988739 3:-0.60134157 
1 0:0 6:1 2:-0.44988739 3:-1.2464267 
-1 0:1.1952286 6:1 2:-0.44988739 3:-0.87238943 
-1 0:0.5976143 6:1 2:-0.44988739 3:-0.81269708 
0.4182156393203987 0:-1.7928429 6:1 2:-0.44988739 3:-0.80036528 
-1 0:0 6:1 2:-0.44988739 3:-0.83654014 
0.2883092823784738 0:1.7928429 6:1 2:-0.44988739 3:-1.0408954 
-1 0:1.1952286 6:1 2:-0.44988739 3:-0.95620549 
-1 0:0 6:1 2:-0.44988739 3:-0.95202709 
-1 0:1.7928429 6:1 2:-0.44988739 3:-0.96969155 
-1 0:0 6:1 2:-0.44988739 3:-0.80723043 
1 0:1.7928429 6:1 2:-0.44988739 3:-1.2763143 
1 0:-0.5976143 6:1 2:-0.44988739 3:-1.2428297 
1 0:-1.1952286 6:1 2:-0.44988739 3:-1.2419333 
-1 0:0 6:1 2:-0.44988739 3:-0.94863147 
1 0:1.1952286 6:1 2:-0.44988739 3:-1.2587429 
1 0:0.5976143 6:1 2:-0.44988739 3:-1.2500236 
1 0:-1.7928429 6:1 2:-0.44988739 3:-1.2416637 
1 0:0 6:1 2:-0.44988739 3:-1.258989 
1 0:0 6:1 2:-0.44988739 3:-1.2503381 
1 0:0 6:1 2:-0.44988739 3:-1.2450814 
-1 0:0.5976143 6:1 2:-0.44988739 3:-0.81269708 
-1 0:0 6:1 2:-0.44988739 3:-0.83654014 
0.001067067273949826 0:1.7928429 6:1 2:-0.44988739 3:-1.0408954 
-1 0:1.1952286 6:1 2:-0.44988739 3:-0.95620549 
-1 0:1.7928429 6:1 2:-0.44988739 3:-0.96969155 
0.4635811356727407 0:-1.7928429 6:1 2:-0.44988739 3:-0.80036528 
-1 0:0 6:1 2:-0.44988739 3:-0.80723043 
-1 0:0 6:1 2:-0.44988739 3:-0.95202709 
1 0:1.7928429 6:1 2:-0.44988739 3:-1.2763143 
1 0:-0.5976143 6:1 2:-0.44988739 3:-1.2428297 
1 0:-1.1952286 6:1 2:-0.44988739 3:-1.2419333 
1 0:0 6:1 2:-0.44988739 3:-1.2464267 
1 0:0 6:1 2:-0.44988739 3:-1.2450814 
-1 0:0 6:1 2:-0.44988739 3:-0.94863147 
1 0:1.1952286 6:1 2:-0.44988739 3:-1.2587429 
1 0:0.5976143 6:1 2:-0.44988739 3:-1.2500236 
1 0:-1.7928429 6:1 2:-0.44988739 3:-1.2416637 
1 0:0 6:1 2:-0.44988739 3:-1.258989 
1 0:0 6:1 2:-0.44988739 3:-1.2503381 
1 0:0 5:1 2:0.43645792 3:-0.80890117 
-1 0:1.1952286 5:1 2:0.43645792 3:-0.085157769 
1 0:-1.7928429 5:1 2:0.43645792 3:0.071664468 
-1 0:1.7928429 5:1 2:0.43645792 3:-0.50716056 
1 0:-0.5976143 5:1 2:0.43645792 3:-0.18735863 
1 0:1.7928429 5:1 2:0.43645792 3:-0.81697163 
1 0:-1.1952286 5:1 2:0.43645792 3:-0.57605665 
0.7358886149593634 0:-1.1952286 5:1 2:0.43645792 3:0.070542927 
-1 0:1.1952286 5:1 2:0.43645792 3:-0.36632706 
-1 0:0.5976143 5:1 2:0.43645792 3:-0.24447555 
1 0:-1.1952286 5:1 2:0.43645792 3:-0.1859221 
1 0:-1.7928429 5:1 2:0.43645792 3:-0.18561072 
1 0:0.5976143 5:1 2:0.43645792 3:-0.59055057 
1 0:-0.5976143 5:1 2:0.43645792 3:-0.57660838 
1 0:0 5:1 2:0.43645792 3:-0.69641931 
1 0:0 5:1 2:0.43645792 3:-0.57885906 
1 0:1.7928429 5:1 2:0.43645792 3:-0.90582766 
1 0:-0.5976143 5:1 2:0.43645792 3:-0.71287656 
1 0:-1.1952286 5:1 2:0.43645792 3:-0.71220392 
1 0:0 5:1 2:0.43645792 3:-0.71496874 
1 0:0.5976143 5:1 2:0.43645792 3:-0.7245725 
1 0:-1.7928429 5:1 2:0.43645792 3:-0.71197459 
-0.6665574928239092 0:1.1952286 5:1 2:0.43645792 3:0.073598341 
1 0:0 5:1 2:0.43645792 3:0.28315995 
1 0:-0.5976143 5:1 2:0.43645792 3:0.17102497 
-1 0:1.7928429 5:1 2:0.43645792 3:-0.19413505 
1 0:-0.5976143 5:1 2:0.43645792 3:0.29139874 
1 0:-1.1952286 5:1 2:0.43645792 3:0.29222896 
1 0:0 5:1 2:0.43645792 3:0.049133704 
-1 0:1.7928429 5:1 2:0.43645792 3:-0.32044299 
-1 0:1.1952286 5:1 2:0.43645792 3:-0.080592088 
1 0:-1.1952286 5:1 2:0.43645792 3:0.17399057 
1 0:-1.7928429 5:1 2:0.43645792 3:0.17485892 
1 0:1.1952286 5:1 2:0.43645792 3:-0.19508147 
1 0:0.5976143 5:1 2:0.43645792 3:-0.10687476 
1 0:0 5:1 2:0.43645792 3:-0.25172238 
1 0:0 5:1 2:0.43645792 3:0.15714594 
1 0:1.7928429 5:1 2:0.43645792 3:-0.40352624 
-1 0:-0.5976143 5:1 2:0.43645792 3:-0.10011714 
-1 0:-1.1952286 5:1 2:0.43645792 3:-0.099959187 
1 0:1.7928429 5:1 2:0.43645792 3:-0.61382599 
1 0:1.1952286 5:1 2:0.43645792 3:-0.37625052 
-1 0:-1.1952286 5:1 2:0.43645792 3:-0.31321234 
1 0:0.5976143 5:1 2:0.43645792 3:-0.31788871 
-1 0:-0.5976143 5:1 2:0.43645792 3:-0.31325815 
1 0:0 5:1 2:0.43645792 3:-0.46351831 
1 0:0 5:1 2:0.43645792 3:-0.31374555 
1 0:1.1952286 5:1 2:0.43645792 3:-0.19508147 
1 0:0.5976143 5:1 2:0.43645792 3:-0.10687476 
1 0:1.7928429 5:1 2:0.43645792 3:-0.40352624 
-1 0:-0.5976143 5:1 2:0.43645792 3:-0.10011714 
-1 0:-1.1952286 5:1 2:0.43645792 3:-0.099959187 
1 0:0 5:1 2:0.43645792 3:-0.25172238 
-1 0:1.1952286 5:1 2:0.43645792 3:-0.72263321 
1 0:-1.7928429 5:1 2:0.43645792 3:-0.62094704 
-1 0:1.1952286 7:1 2:0.43645792 3:0.16138308 
1 0:-1.1952286 7:1 2:0.43645792 3:0.46877938 
1 0:0 7:1 2:0.43645792 3:0.44922939 
1 0:-0.5976143 7:1 2:0.43645792 3:0.46538674 
-1 0:1.7928429 7:1 2:0.43645792 3:-0.19413505 
1 0:-1.1952286 7:1 2:0.43645792 3:0.29222896 
1 0:0 7:1 2:0.43645792 3:0.28315995 
1 0:1.7928429 7:1 2:0.43645792 3:-0.40352624 
-1 0:1.7928429 7:1 2:0.43645792 3:-0.12027994 
1 0:-0.5976143 7:1 2:0.43645792 3:0.46538674 
-1 0:1.7928429 7:1 2:0.43645792 3:-0.12027994 
-1 0:1.1952286 7:1 2:0.43645792 3:0.16138308 
1 0:-1.1952286 7:1 2:0.43645792 3:0.46877938 
0.3216755029292073 0:-1.7928429 7:1 2:0.43645792 3:0.46983893 
1 0:0 7:1 2:0.43645792 3:0.44922939 
-1 0:1.1952286 7:1 2:0.43645792 3:0.073598341 
1 0:-1.7928429 7:1 2:0.43645792 3:0.29240227 
0.8563239175120099 0:1.1952286 7:1 2:0.43645792 3:-0.19508147 
1 0:0.5976143 7:1 2:0.43645792 3:-0.10687476 
1 0:0 7:1 2:0.43645792 3:-0.25172238 
1 0:1.1952286 7:1 2:0.43645792 3:-0.37625052 
1 0:0.5976143 7:1 2:0.43645792 3:-0.31788871 
-1 0:-0.5976143 7:1 2:0.43645792 3:-0.10011714 
-1 0:-1.1952286 7:1 2:0.43645792 3:-0.099959187 
1 0:1.7928429 7:1 2:0.43645792 3:-0.61382599 
-0.73455119779274 0:-0.5976143 7:1 2:0.43645792 3:-0.31325815 
1 0:0 7:1 2:0.43645792 3:-0.31374555 
1 0:0 7:1 2:0.43645792 3:-0.46351831 
1 0:0 8:1 2:0.43645792 3:1.0146469 
1 0:0.5976143 8:1 2:0.43645792 3:1.473405 
1 0:0 8:1 2:0.43645792 3:1.0146469 
1 0:0 8:1 2:0.43645792 3:1.492083 
1 0:0.5976143 8:1 2:0.43645792 3:1.473405 
1 0:0 8:1 2:0.43645792 3:1.492083 
1 0:0 1:1 2:0.43645792 3:1.3519381 
-1 0:0.5976143 1:1 2:0.43645792 3:2.0031152 
-1 0:0 1:1 2:0.43645792 3:1.7205926 
-1 0:0 1:1 2:0.43645792 3:2.0364245 
-0.1673112019360779 0:-1.1952286 1:1 2:0.43645792 3:1.951328 
-1 0:0 1:1 2:0.43645792 3:1.9285849 
1 0:0 1:1 2:0.43645792 3:1.9501345 
1 0:0 1:1 2:0.43645792 3:1.2902052 
-1 0:0 1:1 2:0.43645792 3:1.6470195 
1 0:0 1:1 2:0.43645792 3:1.9501345 
-0.0002782355570795221 0:-1.1952286 1:1 2:0.43645792 3:1.951328 
-1 0:0 1:1 2:0.43645792 3:1.6470195 
-1 0:0 1:1 2:0.43645792 3:1.9285849 
-0.7491612786463993 0:-1.1952286 1:1 2:0.43645792 3:1.951328 
-1 0:0 1:1 2:0.43645792 3:1.9285849 
1 0:0 1:1 2:0.43645792 3:1.9501345 
1 0:0 1:1 2:0.43645792 3:2.0682632 
1 0:0 1:1 2:0.43645792 3:1.2902052 
-1 0:0 1:1 2:0.43645792 3:1.6470195 
-0.9738526229294777 0:-1.1952286 1:1 2:0.43645792 3:1.951328 
-1 0:0 1:1 2:0.43645792 3:1.9285849 
1 0:0 1:1 2:0.43645792 3:1.2902052 
1 0:0 1:1 2:0.43645792 3:1.9501345 
1 0:0 1:1 2:0.43645792 3:1.2902052 
-1 0:0 1:1 2:0.43645792 3:1.6470195 
-1 0:-1.1952286 1:1 2:0.43645792 3:1.8057947 
1 0:0 1:1 2:0.43645792 3:1.8049623 
1 0:0.5976143 1:1 2:0.43645792 3:1.6608242 
1 0:0 1:1 2:0.43645792 3:1.1481081 
-0.1755624864393345 0:1.7928429 7:1 2:1.3496622 3:0.045068614 
1 0:0 1:1 2:0.43645792 3:1.2148156 
-1 0:0 1:1 2:0.43645792 3:1.550564 
-1 0:0 1:1 2:0.43645792 3:1.4630025 
1 0:0 1:1 2:0.43645792 3:1.6771814 
-1 0:1.7928429 6:1 2:1.3496622 3:-0.75779975 
-1 0:1.7928429 4:1 2:1.3496622 3:-0.12027994 
-1 0:1.1952286 8:1 2:1.3496622 3:1.3970386 
0.3494015328978082 0:0 1:1 2:0.43645792 3:1.1503214 
1 0:0 1:1 2:0.43645792 3:1.6861588 
-1 0:0 1:1 2:0.43645792 3:1.4612455 
1 0:0.5976143 1:1 2:0.43645792 3:1.4013553 
1 0:-1.7928429 1:1 2:0.43645792 3:1.4334094 
1 0:0 1:1 2:0.43645792 3:1.4303484 
1 0:1.7928429 1:1 2:0.43645792 3:0.49841782 
-1 0:0 1:1 2:0.43645792 3:1.4612455 
1 0:0 1:1 2:0.43645792 3:1.6861588 
1 0:0.5976143 1:1 2:0.43645792 3:1.532713 
-1 0:0 1:1 2:0.43645792 3:1.3666374 
1 0:0 1:1 2:0.43645792 3:1.5542232 
0.567053145830723 0:1.7928429 1:1 2:0.43645792 3:0.57635265 
-1 0:0 1:1 2:0.43645792 3:1.2654775 
1 0:0.5976143 1:1 2:0.43645792 3:1.0308247 
1 0:-1.7928429 1:1 2:0.43645792 3:1.0446415 
1 0:0 1:1 2:0.43645792 3:1.042382 
-1 0:-0.5976143 1:1 2:0.43645792 3:0.72773308 
1 0:1.7928429 1:1 2:0.43645792 3:0.3929707 
1 0:1.1952286 1:1 2:0.43645792 3:0.65545547 
1 0:0.5976143 1:1 2:0.43645792 3:0.72163183 
1 0:0 1:1 2:0.43645792 3:1.6861588 
-1 0:0 1:1 2:0.43645792 3:1.4612455 
1 0:0 1:1 2:0.43645792 3:1.6861588 
-1 0:0 1:1 2:0.43645792 3:1.4612455 
1 0:0 1:1 2:0.43645792 3:1.6861588 
0.00785787766445716 0:0 1:1 2:0.43645792 3:1.1503214 
-1 0:0 1:1 2:0.43645792 3:1.4612455 
-1 0:0 1:1 2:0.43645792 3:1.4612455 
1 0:0.5976143 1:1 2:0.43645792 3:1.532713 
1 0:0 1:1 2:0.43645792 3:1.5542232 
1 0:0.5976143 1:1 2:0.43645792 3:1.4013553 
1 0:0 1:1 2:0.43645792 3:1.4303484 
1 0:0 1:1 2:0.43645792 3:1.6861588 
-1 0:0 1:1 2:0.43645792 3:1.3666374 
0.07234886355015496 0:1.7928429 1:1 2:0.43645792 3:0.57635265 
-1 0:0 1:1 2:0.43645792 3:1.2654775 
1 0:-1.7928429 1:1 2:0.43645792 3:1.4334094 
1 0:1.7928429 9:1 2:0.43645792 3:-0.41556907 
0.4919632929193525 0:-0.5976143 9:1 2:0.43645792 3:0.8683452 
1 0:1.7928429 9:1 2:0.43645792 3:-0.41556907 
-1 0:1.1952286 9:1 2:0.43645792 3:0.12899572 
1 0:0 9:1 2:0.43645792 3:0.84418923 
1 0:0 9:1 2:0.43645792 3:0.22816141 
-1 0:1.7928429 9:1 2:0.43645792 3:-0.12027994 
-1 0:1.1952286 9:1 2:0.43645792 3:0.16138308 
-1 0:1.1952286 9:1 2:0.43645792 3:0.12899572 
1 0:0 9:1 2:0.43645792 3:0.22816141 
1 0:0 9:1 2:0.43645792 3:0.84418923 
1 0:0 9:1 2:0.43645792 3:0.22816141 
1 0:1.7928429 9:1 2:0.43645792 3:-0.41556907 
-1 0:1.1952286 9:1 2:0.43645792 3:0.12899572 
1 0:0 9:1 2:0.43645792 3:0.84418923 
1 0:1.7928429 9:1 2:0.43645792 3:-0.43885145 
1 0:1.1952286 9:1 2:0.43645792 3:0.070761597 
1 0:0.5976143 9:1 2:0.43645792 3:0.14227802 
-1 0:0 9:1 2:0.43645792 3:0.31508123 
1 0:0.5976143 9:1 2:0.43645792 3:0.23854317 
1 0:-1.7928429 9:1 2:0.43645792 3:0.30568367 
1 0:0 9:1 2:0.43645792 3:-0.066583845 
1 0:1.7928429 9:1 2:0.43645792 3:-0.26369853 
-1 0:-0.5976143 9:1 2:0.43645792 3:0.15684468 
-1 0:1.1952286 9:1 2:0.43645792 3:0.12899572 
1 0:0 9:1 2:0.43645792 3:0.22816141 
1 0:0 9:1 2:0.43645792 3:0.84418923 
1 0:1.7928429 9:1 2:0.43645792 3:-0.41556907 
1 0:0 9:1 2:0.43645792 3:0.22816141 
1 0:1.7928429 9:1 2:0.43645792 3:-0.41556907 
-1 0:1.1952286 9:1 2:0.43645792 3:0.12899572 
1 0:0 9:1 2:0.43645792 3:0.84418923 
1 0:1.7928429 9:1 2:0.43645792 3:-0.41556907 
-1 0:1.1952286 9:1 2:0.43645792 3:0.12899572 
1 0:0 9:1 2:0.43645792 3:0.84418923 
0.9934862393260473 0:-0.5976143 9:1 2:0.43645792 3:0.8683452 
1 0:0 9:1 2:0.43645792 3:0.22816141 
-1 0:1.7928429 9:1 2:0.43645792 3:-0.12027994 
-1 0:1.1952286 9:1 2:0.43645792 3:0.16138308 
-1 0:0 9:1 2:0.43645792 3:0.31508123 
1 0:0.5976143 9:1 2:0.43645792 3:0.23854317 
1 0:-1.7928429 9:1 2:0.43645792 3:0.30568367 
1 0:0 9:1 2:0.43645792 3:-0.066583845 
1 0:1.7928429 9:1 2:0.43645792 3:-0.43885145 
-1 0:1.1952286 4:1 2:0.43645792 3:0.091319453 
0.5968091799229063 0:-1.7928429 4:1 2:0.43645792 3:0.35152445 
1 0:1.1952286 4:1 2:0.43645792 3:-0.20674127 
1 0:0.5976143 4:1 2:0.43645792 3:-0.11790819 
1 0:0 4:1 2:0.43645792 3:-0.26346857 
-1 0:1.1952286 4:1 2:0.43645792 3:-0.71140849 
-1 0:1.7928429 4:1 2:0.43645792 3:-0.16993281 
-1 0:1.7928429 4:1 2:0.43645792 3:-0.32044299 
-1 0:1.1952286 4:1 2:0.43645792 3:-0.080592088 
1 0:-1.1952286 4:1 2:0.43645792 3:0.17399057 
1 0:-1.7928429 4:1 2:0.43645792 3:0.17485892 
1 0:0.5976143 4:1 2:0.43645792 3:-0.024996817 
1 0:1.7928429 4:1 2:0.43645792 3:-0.41625345 
-1 0:-0.5976143 4:1 2:0.43645792 3:-0.11087931 
-1 0:-1.1952286 4:1 2:0.43645792 3:-0.11072389 
-1 0:0.5976143 4:1 2:0.43645792 3:-0.66339799 
1 0:0 4:1 2:0.43645792 3:-0.71397949 
1 0:1.7928429 4:1 2:0.43645792 3:-0.94356167 
-0.3744593545840822 0:1.1952286 4:1 2:0.43645792 3:-0.84466011 
1 0:-1.1952286 4:1 2:0.43645792 3:-0.73275193 
1 0:-1.7928429 4:1 2:0.43645792 3:-0.73061782 
1 0:0 4:1 2:0.43645792 3:-0.83708979 
1 0:-1.1952286 4:1 2:0.43645792 3:-0.62333072 
1 0:-1.7928429 4:1 2:0.43645792 3:-0.62254007 
1 0:0 4:1 2:0.43645792 3:-0.55486754 
1 0:1.7928429 4:1 2:0.43645792 3:-0.41556907 
1 0:-0.5976143 4:1 2:0.43645792 3:0.8683452 
1 0:0 4:1 2:0.43645792 3:0.84418923 
1 0:1.7928429 4:1 2:0.43645792 3:-0.43885145 
1 0:0 4:1 2:0.43645792 3:0.22816141 
1 0:0 4:1 2:0.43645792 3:0.84418923 
1 0:1.7928429 4:1 2:0.43645792 3:-0.41556907 
1 0:-0.5976143 4:1 2:0.43645792 3:0.8683452 
1 0:0 4:1 2:0.43645792 3:0.22816141 
-1 0:1.7928429 4:1 2:0.43645792 3:-0.12027994 
-1 0:1.1952286 4:1 2:0.43645792 3:0.16138308 
1 0:0.5976143 4:1 2:0.43645792 3:0.23854317 
1 0:0 4:1 2:0.43645792 3:-0.066583845 
1 0:0 4:1 2:0.43645792 3:0.29533534 
1 0:1.7928429 4:1 2:0.43645792 3:-0.40352624 
-1 0:-0.5976143 4:1 2:0.43645792 3:-0.10011714 
-1 0:-1.1952286 4:1 2:0.43645792 3:-0.099959187 
1 0:0 4:1 2:0.43645792 3:-0.25172238 
1 0:1.7928429 4:1 2:0.43645792 3:-0.67696546 
1 0:1.1952286 4:1 2:0.43645792 3:-0.58468128 
1 0:1.1952286 4:1 2:0.43645792 3:-0.19508147 
1 0:0.5976143 4:1 2:0.43645792 3:-0.10687476 
1 0:0.5976143 4:1 2:0.43645792 3:-0.44795588 
-1 0:-0.5976143 4:1 2:0.43645792 3:-0.43351961 
1 0:0 4:1 2:0.43645792 3:-0.50878052 
-0.6790957448882623 0:1.7928429 4:1 2:0.43645792 3:-0.19413505 
-0.2090171725817485 0:1.1952286 4:1 2:0.43645792 3:0.073598341 
1 0:-1.7928429 4:1 2:0.43645792 3:0.29240227 
0.1143328351086065 0:0 4:1 2:0.43645792 3:0.28315995 
1 0:-1.7928429 4:1 2:0.43645792 3:0.29240227 
0.06015925986618028 0:0 4:1 2:0.43645792 3:0.28315995 
1 0:1.7928429 4:1 2:0.43645792 3:-0.40352624 
1 0:1.1952286 4:1 2:0.43645792 3:-0.19508147 
1 0:0.5976143 4:1 2:0.43645792 3:-0.10687476 
-1 0:1.7928429 4:1 2:0.43645792 3:-0.19413505 
-1 0:1.1952286 4:1 2:0.43645792 3:0.073598341 
-1 0:-0.5976143 4:1 2:0.43645792 3:-0.10011714 
-1 0:-1.1952286 4:1 2:0.43645792 3:-0.099959187 
1 0:0 4:1 2:0.43645792 3:-0.25172238 
1 0:0 4:1 2:0.43645792 3:-0.72913267 
-1 0:1.1952286 4:1 2:0.43645792 3:-0.72263321 
1 0:-1.1952286 4:1 2:0.43645792 3:-0.62198599 
1 0:-1.7928429 4:1 2:0.43645792 3:-0.62094704 
-1 0:1.7928429 6:1 2:0.43645792 3:-0.8373184 
-1 0:1.1952286 6:1 2:0.43645792 3:-0.72263321 
1 0:-1.1952286 6:1 2:0.43645792 3:-0.62198599 
1 0:-1.7928429 6:1 2:0.43645792 3:-0.62094704 
0.4615632243657261 0:0 6:1 2:0.43645792 3:-0.63575243 
-1 0:-0.5976143 6:1 2:0.43645792 3:-0.85411586 
1 0:-0.5976143 6:1 2:0.43645792 3:-0.62575768 
1 0:0 6:1 2:0.43645792 3:-0.72913267 
1 0:1.7928429 6:1 2:0.43645792 3:-0.96296925 
-1 0:-1.1952286 6:1 2:0.43645792 3:-0.85401791 
-1 0:-1.7928429 6:1 2:0.43645792 3:-0.8540021 
-1 0:0.5976143 6:1 2:0.43645792 3:-1.2077417 
-1 0:-0.5976143 6:1 2:0.43645792 3:-1.1923562 
1 0:0 6:1 2:0.43645792 3:-1.2279391 
1 0:1.7928429 6:1 2:0.43645792 3:-1.2658342 
0.008410354362730276 0:-1.7928429 6:1 2:0.43645792 3:-1.190044 
-1 0:0 6:1 2:0.43645792 3:-1.2000489 
-1 0:0 6:1 2:0.43645792 3:-1.1969257 
-1 0:1.7928429 6:1 2:0.43645792 3:-0.8373184 
1 0:-1.7928429 6:1 2:0.43645792 3:-0.62094704 
1 0:0 6:1 2:0.43645792 3:-0.72913267 
0.7287684745632792 0:0 6:1 2:0.43645792 3:-0.63575243 
-1 0:-0.5976143 6:1 2:0.43645792 3:-0.85411586 
1 0:1.7928429 6:1 2:0.43645792 3:-1.2658342 
1 0:0 6:1 2:0.43645792 3:-1.2279391 
1 0:-0.5976143 6:1 2:0.43645792 3:-0.62575768 
1 0:-1.1952286 6:1 2:0.43645792 3:-0.62198599 
1 0:1.7928429 6:1 2:0.43645792 3:-0.96296925 
-1 0:-1.1952286 6:1 2:0.43645792 3:-0.85401791 
-1 0:-1.7928429 6:1 2:0.43645792 3:-0.8540021 
-1 0:0.5976143 6:1 2:0.43645792 3:-1.2077417 
-1 0:-0.5976143 6:1 2:0.43645792 3:-1.1923562 
-1 0:0 6:1 2:0.43645792 3:-1.2000489 
-1 0:0 6:1 2:0.43645792 3:-1.1969257 
0.6962121087824783 0:-1.7928429 6:1 2:0.43645792 3:-1.190044 
-0.9805213522745453 0:0.5976143 5:1 2:-1.3362327 3:-1.211743 
-0.4826348758416176 0:-1.7928429 5:1 2:-1.3362327 3:-1.2112033 
1 0:0 5:1 2:-1.3362327 3:-1.2221902 
-0.01594654996551741 0:0 5:1 2:-1.3362327 3:-1.2112675 
0.999878024882229 0:1.7928429 5:1 2:-1.3362327 3:-1.2331771 
1 0:1.7928429 5:1 2:-1.3362327 3:-1.2331771 
-1 0:0.5976143 5:1 2:-1.3362327 3:-1.211743 
1 0:0 5:1 2:-1.3362327 3:-1.2221902 
1 0:1.7928429 5:1 2:-1.3362327 3:-1.2331771 
1 0:0 5:1 2:-1.3362327 3:-1.2221902 
1 0:1.7928429 5:1 2:-1.3362327 3:-1.2331771 
-1 0:0.5976143 5:1 2:-1.3362327 3:-1.211743 
-1 0:0.5976143 5:1 2:-1.3362327 3:-1.211743 
-0.2677724594776866 0:0.5976143 5:1 2:-1.3362327 3:-1.211743 
1 0:0 5:1 2:-1.3362327 3:-1.2221902 
1 0:1.7928429 5:1 2:-1.3362327 3:-1.2331771 
1 0:0 5:1 2:-1.3362327 3:-1.2221902 
1 0:1.7928429 5:1 2:-1.3362327 3:-1.2331771 
-0.7782302288493499 0:0 5:1 2:-1.3362327 3:-1.2112675 
-1 0:0 5:1 2:-1.3362327 3:-1.2112675 
1 0:0 5:1 2:-1.3362327 3:-1.2221902 
1 0:0 5:1 2:-1.3362327 3:-1.2221902 
1 0:1.7928429 5:1 2:-1.3362327 3:-1.2331771 
-1 0:0 5:1 2:-1.3362327 3:-1.2112675 
1 0:1.7928429 5:1 2:-1.3362327 3:-1.2331771 
1 0:1.7928429 5:1 2:-1.3362327 3:-1.2331771 
-1 0:0 5:1 2:-1.3362327 3:-1.2112675 
1 0:0 5:1 2:-1.3362327 3:-1.2221902 
1 0:0 5:1 2:-1.3362327 3:-1.2221902 
1 0:0 5:1 2:-1.3362327 3:-1.2221902 
-0.9417865428622367 0:0 5:1 2:-1.3362327 3:-1.2112675 
0.9939474993507694 0:1.7928429 5:1 2:-1.3362327 3:-1.2331771 
-0.5703788285204408 0:-1.7928429 5:1 2:-1.3362327 3:-1.2112033 
-1 0:1.1952286 9:1 2:1.3496622 3:0.58537161 
0.07334657723390416 0:0 9:1 2:1.3496622 3:1.3162161 
1 0:0 9:1 2:1.3496622 3:0.71554974 
-1 0:1.1952286 9:1 2:1.3496622 3:0.49697369 
-0.9726539319548494 0:-1.7928429 9:1 2:1.3496622 3:1.0194184 
-1 0:1.1952286 9:1 2:1.3496622 3:0.58537161 
1 0:0 9:1 2:1.3496622 3:0.71554974 
1 0:0 9:1 2:1.3496622 3:0.71554974 
-1 0:1.1952286 9:1 2:1.3496622 3:0.58537161 
-0.9993514848260769 0:-0.5976143 9:1 2:1.3496622 3:1.0163442 
-1 0:-1.1952286 9:1 2:1.3496622 3:1.0187911 
-1 0:0 9:1 2:1.3496622 3:0.75788241 
-1 0:0 9:1 2:1.3496622 3:0.95143034 
1 0:0.5976143 9:1 2:1.3496622 3:0.69765965 
-1 0:0 9:1 2:1.3496622 3:0.59648293 
0.8172853223770111 0:1.7928429 9:1 2:1.3496622 3:0.0079876305 
0.7748909936225875 0:1.1952286 9:1 2:1.3496622 3:0.30492067 
-1 0:-1.1952286 9:1 2:1.3496622 3:0.46950514 
0.6350940764490498 0:0 9:1 2:1.3496622 3:0.75578499 
1 0:0.5976143 9:1 2:1.3496622 3:0.42976741 
-1 0:-0.5976143 9:1 2:1.3496622 3:0.46709797 
-1 0:0 9:1 2:1.3496622 3:0.387213 
-1 0:1.1952286 9:1 2:1.3496622 3:0.58537161 
1 0:0 9:1 2:1.3496622 3:0.71554974 
1 0:0 9:1 2:1.3496622 3:0.71554974 
-1 0:1.1952286 9:1 2:1.3496622 3:0.58537161 
-1 0:1.1952286 9:1 2:1.3496622 3:0.58537161 
1 0:0 9:1 2:1.3496622 3:0.71554974 
0.5980998843140608 0:0 9:1 2:1.3496622 3:1.3162161 
-0.3074007709589229 0:-0.5976143 9:1 2:1.3496622 3:1.0163442 
-1 0:-1.1952286 9:1 2:1.3496622 3:1.0187911 
-1 0:0 9:1 2:1.3496622 3:0.75788241 
-1 0:0 9:1 2:1.3496622 3:0.95143034 
-1 0:1.1952286 9:1 2:1.3496622 3:0.49697369 
-0.9882585730352546 0:-1.7928429 9:1 2:1.3496622 3:1.0194184 
1 0:0.5976143 9:1 2:1.3496622 3:0.69765965 
0.9999979001537844 0:0 9:1 2:1.3496622 3:0.75578499 
-1 0:0 9:1 2:1.3496622 3:0.59648293 
0.921709151820817 0:1.7928429 7:1 2:-1.3362327 3:-1.1713909 
-0.002485530012543891 0:0.5976143 7:1 2:-1.3362327 3:-1.1311218 
-0.9979667661417656 0:0 7:1 2:-1.3362327 3:-1.1301705 
-0.3422853770484643 0:0.5976143 7:1 2:-1.3362327 3:-1.1311218 
-1 0:0 7:1 2:-1.3362327 3:-1.1301705 
1 0:1.7928429 7:1 2:-1.3362327 3:-1.1713909 
0.05994008659490687 0:1.7928429 7:1 2:-1.3362327 3:-1.1713909 
1 0:1.1952286 7:1 2:-1.3362327 3:-1.2141266 
-0.4925348443458494 0:-1.7928429 7:1 2:-1.3362327 3:-1.2112033 
1 0:0 7:1 2:-1.3362327 3:-1.2221902 
1 0:1.7928429 7:1 2:-1.3362327 3:-1.2331771 
-0.8748979324230026 0:0 7:1 2:-1.3362327 3:-1.1301705 
1 0:1.7928429 7:1 2:-1.3362327 3:-1.2331771 
1 0:1.1952286 7:1 2:-1.3362327 3:-1.2141266 
1 0:0 7:1 2:-1.3362327 3:-1.2221902 
-0.1996030196965437 0:-1.7928429 7:1 2:-1.3362327 3:-1.2112033 
0.9735569699754512 0:0 1:1 2:-1.3362327 3:-1.0215736 
0.1102958195954923 0:1.7928429 1:1 2:-1.3362327 3:-1.0620555 
-1 0:1.1952286 1:1 2:-1.3362327 3:-0.99619216 
-1 0:1.1952286 1:1 2:-1.3362327 3:-0.99619216 
0.5686585599633515 0:0 1:1 2:-1.3362327 3:-1.0215736 
-1 0:1.1952286 1:1 2:-1.3362327 3:-0.99619216 
-1 0:1.1952286 1:1 2:-1.3362327 3:-0.99619216 
-1 0:1.1952286 1:1 2:-1.3362327 3:-0.99619216 
0.5623961741374913 0:1.7928429 1:1 2:-1.3362327 3:-1.0620555 
-1 0:1.1952286 1:1 2:-1.3362327 3:-0.99619216 
1 0:1.7928429 1:1 2:-1.3362327 3:-1.0620555 
-1 0:1.1952286 1:1 2:-1.3362327 3:-0.99619216 
1 0:1.7928429 8:1 2:-1.3362327 3:-1.1713909 
1 0:1.7928429 8:1 2:-1.3362327 3:-1.1713909 
1 0:1.1952286 8:1 2:-1.3362327 3:-1.1397552 
-0.7287463425845402 0:-1.1952286 8:1 2:-1.3362327 3:-1.1298915 
-0.008705446586006475 0:-1.7928429 8:1 2:-1.3362327 3:-1.1298776 
-0.2917158659946847 0:-1.7928429 8:1 2:-1.3362327 3:-1.1298776 
-0.9332647476131668 0:-1.7928429 1:1 2:-1.3362327 3:-1.2112033 
1 0:1.7928429 1:1 2:-1.3362327 3:-1.0620555 
-1 0:1.1952286 1:1 2:-1.3362327 3:-0.99619216 
-1 0:1.1952286 1:1 2:-1.3362327 3:-0.99619216 
1 0:1.7928429 1:1 2:-1.3362327 3:-1.0620555 
-1 0:1.1952286 1:1 2:-1.3362327 3:-0.99619216 
1 0:1.7928429 1:1 2:-1.3362327 3:-1.0620555 
1 0:1.7928429 1:1 2:-1.3362327 3:-1.0620555 
-1 0:1.1952286 1:1 2:-1.3362327 3:-0.99619216 
1 0:0.5976143 1:1 2:-1.3362327 3:-1.211743 
1 0:0 1:1 2:-1.3362327 3:-1.2221902 
1 0:1.7928429 1:1 2:-1.3362327 3:-1.2331771 
1 0:1.7928429 1:1 2:-1.3362327 3:-1.2331771 
1 0:1.1952286 1:1 2:-1.3362327 3:-1.2141266 
-1 0:-1.7928429 1:1 2:-1.3362327 3:-1.2112033 
1 0:1.1952286 1:1 2:-1.3362327 3:-1.2141266 
1 0:0.5976143 1:1 2:-1.3362327 3:-1.211743 
1 0:0 1:1 2:-1.3362327 3:-1.2221902 
-1 0:1.1952286 1:1 2:-1.3362327 3:-0.99619216 
1 0:1.7928429 1:1 2:-1.3362327 3:-1.0620555 
1 0:1.7928429 1:1 2:-1.3362327 3:-1.0620555 
-1 0:1.1952286 1:1 2:-1.3362327 3:-0.99619216 
-1 0:1.1952286 1:1 2:-1.3362327 3:-0.99619216 
1 0:1.7928429 1:1 2:-1.3362327 3:-1.0620555 
1 0:1.7928429 1:1 2:-1.3362327 3:-1.0620555 
-1 0:1.1952286 1:1 2:-1.3362327 3:-0.99619216 
1 0:1.7928429 1:1 2:-1.3362327 3:-1.0620555 
-1 0:1.1952286 1:1 2:-1.3362327 3:-0.99619216 
0.9969968554923549 0:1.7928429 1:1 2:-1.3362327 3:-1.0620555 
-1 0:1.1952286 1:1 2:-1.3362327 3:-0.99619216 
0.1412049176138724 0:0 1:1 2:-1.3362327 3:-1.0215736 
-0.973058677344764 0:1.7928429 4:1 2:1.3496622 3:-0.12027994 
-1 0:1.1952286 4:1 2:1.3496622 3:0.16138308 
1 0:0.5976143 4:1 2:1.3496622 3:0.23854317 
1 0:0 4:1 2:1.3496622 3:-0.066583845 
-1 0:1.1952286 4:1 2:1.3496622 3:0.16138308 
-1 0:1.1952286 4:1 2:1.3496622 3:0.16138308 
-0.43409600039732 0:1.7928429 4:1 2:1.3496622 3:-0.12027994 
1 0:1.7928429 4:1 2:1.3496622 3:-0.43885145 
1 0:0.5976143 4:1 2:1.3496622 3:-0.11790819 
-1 0:-0.5976143 4:1 2:1.3496622 3:-0.11087931 
-1 0:-1.1952286 4:1 2:1.3496622 3:-0.11072389 
-0.04414847762751775 0:0 4:1 2:1.3496622 3:-0.15873258 
1 0:1.7928429 4:1 2:1.3496622 3:-0.41625345 
1 0:1.1952286 4:1 2:1.3496622 3:-0.20674127 
-1 0:-1.7928429 4:1 2:1.3496622 3:-0.11068359 
1 0:1.7928429 4:1 2:1.3496622 3:-0.80541899 
0.7982741391317738 0:-1.7928429 4:1 2:1.3496622 3:-0.62254007 
1 0:0 4:1 2:1.3496622 3:-0.71397949 
0.2487757564961368 0:1.7928429 9:1 2:-1.3362327 3:-1.1713909 
-0.003642591095220381 0:-1.7928429 9:1 2:-1.3362327 3:-1.1298776 
-0.4743371960852706 0:0 9:1 2:-1.3362327 3:-1.1301705 
0.9191006035856378 0:1.7928429 9:1 2:-1.3362327 3:-1.1713909 
-1 0:-1.1952286 4:1 2:1.3496622 3:0.77768884 
-1 0:0 4:1 2:1.3496622 3:0.63256128 
1 0:0.5976143 4:1 2:1.3496622 3:0.14227802 
-1 0:-0.5976143 4:1 2:1.3496622 3:0.15684468 
-1 0:-1.1952286 4:1 2:1.3496622 3:0.77768884 
-1 0:0 4:1 2:1.3496622 3:0.63256128 
1 0:1.7928429 4:1 2:1.3496622 3:-0.26369853 
1 0:1.1952286 4:1 2:1.3496622 3:0.070761597 
1 0:0 4:1 2:1.3496622 3:0.15486256 
-1 0:0.5976143 4:1 2:1.3496622 3:-0.58165857 
-1 0:-0.5976143 4:1 2:1.3496622 3:-0.54589503 
-1 0:0 4:1 2:1.3496622 3:-0.59436076 
-1 0:0 4:1 2:1.3496622 3:-0.5637768 
1 0:0 4:1 2:1.3496622 3:-0.053203058 
-1 0:1.1952286 4:1 2:1.3496622 3:-0.64481304 
-1 0:0 4:1 2:1.3496622 3:-0.55433541 
-0.9995191327540289 0:0.5976143 4:1 2:1.3496622 3:1.1038421 
1 0:0 4:1 2:1.3496622 3:0.71554974 
0.68268235041883 0:0 4:1 2:1.3496622 3:1.3162161 
-1 0:1.1952286 4:1 2:1.3496622 3:0.49697369 
-1 0:-1.1952286 4:1 2:1.3496622 3:1.0187911 
-1 0:-1.7928429 4:1 2:1.3496622 3:1.0194184 
1 0:0.5976143 4:1 2:1.3496622 3:0.69765965 
-1 0:0 4:1 2:1.3496622 3:0.59648293 
-1 0:1.1952286 4:1 2:1.3496622 3:0.58537161 
-1 0:1.1952286 4:1 2:1.3496622 3:0.58537161 
-0.761457794479214 0:0.5976143 4:1 2:1.3496622 3:1.1038421 
1 0:0 4:1 2:1.3496622 3:0.71554974 
0.3504047331271773 0:0 4:1 2:1.3496622 3:1.3162161 
-1 0:0 4:1 2:1.3496622 3:0.75788241 
-1 0:1.1952286 4:1 2:1.3496622 3:0.42423832 
1 0:0 4:1 2:1.3496622 3:0.75578499 
1 0:0.5976143 4:1 2:1.3496622 3:0.42976741 
1 0:0 4:1 2:1.3496622 3:0.45925495 
-1 0:1.7928429 4:1 2:1.3496622 3:-0.29409355 
-1 0:-0.5976143 4:1 2:1.3496622 3:0.023610597 
-1 0:0 4:1 2:1.3496622 3:-0.034290647 
-1 0:-0.5976143 4:1 2:1.3496622 3:0.46709797 
-0.387212006155761 0:-1.1952286 4:1 2:1.3496622 3:0.46950514 
1 0:0.5976143 4:1 2:1.3496622 3:-0.022415429 
-1 0:1.7928429 6:1 2:1.3496622 3:-0.75779975 
-1 0:1.1952286 6:1 2:1.3496622 3:-0.64481304 
-1 0:0.5976143 6:1 2:1.3496622 3:-0.58165857 
0.01721379889480616 0:1.1952286 6:1 2:1.3496622 3:-0.76178749 
1 0:0.5976143 6:1 2:1.3496622 3:-0.72737229 
-1 0:-1.7928429 6:1 2:1.3496622 3:-0.72374707 
1 0:1.7928429 6:1 2:1.3496622 3:-1.2244092 
1 0:1.1952286 6:1 2:1.3496622 3:-1.1842348 
1 0:0 6:1 2:1.3496622 3:-1.192537 
0.5322296908682536 0:0 6:1 2:1.3496622 3:-1.1724913 
-1 0:0 6:1 2:1.3496622 3:-0.59436076 
-1 0:0 6:1 2:1.3496622 3:-0.5637768 
-1 0:0 6:1 2:1.3496622 3:-0.55433541 
1 0:1.7928429 6:1 2:1.3496622 3:-0.84739764 
1 0:0 6:1 2:1.3496622 3:-0.7244582 
0.5013652081863275 0:-1.7928429 6:1 2:1.3496622 3:-1.1606648 
0.1460695977121297 0:-1.7928429 6:1 2:1.3496622 3:-1.1606648 
-1 0:1.1952286 6:1 2:1.3496622 3:-0.64481304 
-1 0:0 6:1 2:1.3496622 3:-0.5637768 
-1 0:0 6:1 2:1.3496622 3:-0.55433541 
1 0:0.5976143 6:1 2:1.3496622 3:-0.72737229 
1 0:1.7928429 6:1 2:1.3496622 3:-1.2244092 
-1 0:0.5976143 6:1 2:1.3496622 3:-0.58165857 
-1 0:0 6:1 2:1.3496622 3:-0.59436076 
1 0:1.7928429 6:1 2:1.3496622 3:-0.84739764 
0.02267774328905076 0:1.1952286 6:1 2:1.3496622 3:-0.76178749 
-1 0:-1.7928429 6:1 2:1.3496622 3:-0.72374707 
0.9194435679916642 0:0 6:1 2:1.3496622 3:-0.7244582 
1 0:1.1952286 6:1 2:1.3496622 3:-1.1842348 
0.9146766779590058 0:0 6:1 2:1.3496622 3:-1.1724913 
1 0:0 6:1 2:1.3496622 3:-1.192537 
1 0:0.5976143 5:1 2:1.3496622 3:0.14227802 
-1 0:-0.5976143 5:1 2:1.3496622 3:0.15684468 
0.1859730922939137 0:0 5:1 2:1.3496622 3:-0.053203058 
1 0:1.7928429 5:1 2:1.3496622 3:-0.26369853 
1 0:1.1952286 5:1 2:1.3496622 3:0.070761597 
-1 0:-1.1952286 5:1 2:1.3496622 3:0.15718407 
1 0:0 5:1 2:1.3496622 3:0.15486256 
-1 0:0.5976143 5:1 2:1.3496622 3:-0.58165857 
-1 0:-0.5976143 5:1 2:1.3496622 3:-0.54589503 
1 0:1.7928429 5:1 2:1.3496622 3:-0.75779975 
-1 0:1.1952286 5:1 2:1.3496622 3:-0.64481304 
-1 0:0 5:1 2:1.3496622 3:-0.59436076 
-1 0:0 5:1 2:1.3496622 3:-0.5637768 
-1 0:0 5:1 2:1.3496622 3:-0.55433541 
-1 0:1.7928429 5:1 2:1.3496622 3:-0.12027994 
-0.7926710552832043 0:0 5:1 2:1.3496622 3:0.31508123 
-1 0:1.1952286 5:1 2:1.3496622 3:0.16138308 
-1 0:0 5:1 2:1.3496622 3:0.63256128 
0.1855671680477113 0:1.7928429 5:1 2:1.3496622 3:-0.14349798 
-1 0:-0.5976143 5:1 2:1.3496622 3:-0.0027248423 
-1 0:-1.1952286 5:1 2:1.3496622 3:-0.0027036982 
1 0:0 5:1 2:1.3496622 3:-0.0028629115 
-1 0:-0.5976143 5:1 2:1.3496622 3:-0.0027248423 
-1 0:-1.1952286 5:1 2:1.3496622 3:-0.0027036982 
1 0:0 5:1 2:1.3496622 3:-0.0028629115 
-1 0:1.1952286 5:1 2:1.3496622 3:0.4874339 
-0.833182456294402 0:-1.1952286 5:1 2:1.3496622 3:0.77768884 
-0.1177702460668714 0:-1.7928429 5:1 2:1.3496622 3:0.77771667 
1 0:0 5:1 2:1.3496622 3:0.77388073 
1 0:0.5976143 5:1 2:1.3496622 3:-0.0039081895 
-0.3401356313403066 0:-1.7928429 5:1 2:1.3496622 3:-0.0027020717 
-1 0:0 5:1 2:1.3496622 3:-0.0098422745 
1 0:0.5976143 5:1 2:1.3496622 3:-0.0039081895 
-1 0:0 5:1 2:1.3496622 3:-0.0098422745 
1 0:1.7928429 9:1 2:-1.3362327 3:-1.1713909 
1 0:1.7928429 9:1 2:-1.3362327 3:-1.1713909 
1 0:1.7928429 9:1 2:-1.3362327 3:-1.1713909 
1 0:1.7928429 9:1 2:-1.3362327 3:-1.1713909 
-0.03205897525107524 0:-1.7928429 9:1 2:-1.3362327 3:-1.1298776 
0.8017745189351682 0:1.7928429 9:1 2:-1.3362327 3:-1.1713909 
-1 0:1.1952286 5:1 2:1.3496622 3:0.16138308 
-1 0:0 5:1 2:1.3496622 3:0.18291374 
0.2893140995034233 0:1.7928429 5:1 2:1.3496622 3:-0.14349798 
-1 0:-1.1952286 5:1 2:1.3496622 3:-0.0027036982 
-1 0:0 5:1 2:1.3496622 3:-0.0098422745 
1 0:1.1952286 5:1 2:1.3496622 3:-0.40819773 
1 0:0.5976143 5:1 2:1.3496622 3:-0.38337075 
-1 0:1.7928429 5:1 2:1.3496622 3:-0.12027994 
-0.1621925341355407 0:0 5:1 2:1.3496622 3:0.31508123 
-1 0:1.1952286 5:1 2:1.3496622 3:0.073598341 
1 0:0.5976143 5:1 2:1.3496622 3:-0.0039081895 
-1 0:-0.5976143 5:1 2:1.3496622 3:-0.0027248423 
1 0:0 5:1 2:1.3496622 3:-0.0028629115 
1 0:0 5:1 2:1.3496622 3:-0.38062156 
1 0:0 5:1 2:1.3496622 3:-0.37887076 
-1 0:0 7:1 2:1.3496622 3:0.75788241 
-1 0:1.1952286 7:1 2:1.3496622 3:0.49697369 
-1 0:-1.7928429 7:1 2:1.3496622 3:1.0194184 
1 0:0 7:1 2:1.3496622 3:1.0032164 
-1 0:-1.7928429 7:1 2:1.3496622 3:1.0194184 
1 0:0 7:1 2:1.3496622 3:1.0032164 
-1 0:-1.1952286 7:1 2:1.3496622 3:0.77768884 
-1 0:0 7:1 2:1.3496622 3:0.63256128 
1 0:1.7928429 7:1 2:1.3496622 3:-0.26369853 
1 0:1.1952286 7:1 2:1.3496622 3:0.070761597 
-0.1971342477339962 0:1.7928429 7:1 2:1.3496622 3:0.045068614 
-1 0:1.1952286 7:1 2:1.3496622 3:0.49697369 
-1 0:0 7:1 2:1.3496622 3:0.75788241 
-1 0:1.1952286 7:1 2:1.3496622 3:0.4874339 
0.4621910970464065 0:0 7:1 2:1.3496622 3:0.77388073 
1 0:0.5976143 7:1 2:1.3496622 3:0.14227802 
-1 0:-0.5976143 7:1 2:1.3496622 3:0.15684468 
0.3778962435795523 0:0 7:1 2:1.3496622 3:-0.053203058 
-1 0:-0.5976143 7:1 2:1.3496622 3:-0.0027248423 
-1 0:-1.1952286 7:1 2:1.3496622 3:-0.0027036982 
-1 0:0 7:1 2:1.3496622 3:-0.0098422745 
1 0:0.5976143 7:1 2:1.3496622 3:-0.0039081895 
1 0:0 7:1 2:1.3496622 3:-0.0028629115 
-0.006337602719682135 0:-1.7928429 4:1 2:-1.3362327 3:-1.2112033 
1 0:0 4:1 2:-1.3362327 3:-1.2221902 
1 0:1.7928429 4:1 2:-1.3362327 3:-1.2331771 
1 0:1.1952286 4:1 2:-1.3362327 3:-1.2141266 
1 0:1.1952286 4:1 2:-1.3362327 3:-1.2141266 
-0.1209018507570652 0:-1.7928429 4:1 2:-1.3362327 3:-1.2112033 
1 0:0 4:1 2:-1.3362327 3:-1.2221902 
1 0:1.7928429 4:1 2:-1.3362327 3:-1.2331771 
0.4763303940961469 0:1.7928429 4:1 2:-1.3362327 3:-1.1713909 
1 0:1.7928429 4:1 2:-1.3362327 3:-1.1713909 
1 0:1.7928429 4:1 2:-1.3362327 3:-1.1713909 
0.997215205247129 0:1.7928429 4:1 2:-1.3362327 3:-1.1713909 
-0.9999982936113712 0:0.5976143 6:1 2:-1.3362327 3:-1.211743 
-0.7154460839320195 0:-1.7928429 6:1 2:-1.3362327 3:-1.2112033 
1 0:0 6:1 2:-1.3362327 3:-1.2221902 
-1 0:0 6:1 2:-1.3362327 3:-1.2112675 
-1 0:0.5976143 6:1 2:-1.3362327 3:-1.211743 
-1 0:0.5976143 6:1 2:-1.3362327 3:-1.211743 
1 0:0 6:1 2:-1.3362327 3:-1.2221902 
-1 0:0 6:1 2:-1.3362327 3:-1.2112675 
1 0:1.7928429 6:1 2:-1.3362327 3:-1.2331771 
1 0:1.7928429 6:1 2:-1.3362327 3:-1.2331771 
1 0:0 6:1 2:-1.3362327 3:-1.2221902 
-1 0:0 6:1 2:-1.3362327 3:-1.2112675 
1 0:0 6:1 2:-1.3362327 3:-1.2221902 
1 0:0 6:1 2:-1.3362327 3:-1.2221902 
-0.2283424934336545 0:0.5976143 6:1 2:-1.3362327 3:-1.211743 
-1 0:-1.7928429 6:1 2:-1.3362327 3:-1.2112033 
1 0:0 6:1 2:-1.3362327 3:-1.2221902 
1 0:1.7928429 6:1 2:-1.3362327 3:-1.2331771 
-1 0:-1.7928429 6:1 2:-1.3362327 3:-1.2112033 
-1 0:0 6:1 2:-1.3362327 3:-1.2112675 
1 0:1.7928429 6:1 2:-1.3362327 3:-1.2331771 
-1 0:-1.7928429 6:1 2:-1.3362327 3:-1.2112033 
-1 0:0 6:1 2:-1.3362327 3:-1.2112675 
-0.7087133758988498 0:0.5976143 6:1 2:-1.3362327 3:-1.211743 
-1 0:0 6:1 2:-1.3362327 3:-1.2112675 
-1 0:0.5976143 8:1 2:1.3496622 3:2.0316843 
-0.1692270869343408 0:-1.7928429 8:1 2:1.3496622 3:2.0672111 
1 0:0 8:1 2:1.3496622 3:1.3569498 
1 0:0 8:1 2:1.3496622 3:2.0669555 
-1 0:-1.1952286 8:1 2:1.3496622 3:2.0672111 
-1 0:0 8:1 2:1.3496622 3:1.7321247 
-0.2281066633845827 0:0 8:1 2:1.3496622 3:2.0494468 
0.632535449812674 0:1.7928429 8:1 2:1.3496622 3:0.64668844 
-1 0:-1.1952286 8:1 2:1.3496622 3:2.0672111 
-1 0:0 8:1 2:1.3496622 3:1.7321247 
-1 0:1.1952286 8:1 2:1.3496622 3:1.3970386 
-1 0:0.5976143 8:1 2:1.3496622 3:2.0316843 
-1 0:-1.7928429 8:1 2:1.3496622 3:2.0672111 
1 0:0 8:1 2:1.3496622 3:1.3569498 
1 0:0 8:1 2:1.3496622 3:2.0669555 
-1 0:-1.1952286 1:1 2:1.3496622 3:2.1764162 
1 0:0 1:1 2:1.3496622 3:1.4813743 
-1 0:0 1:1 2:1.3496622 3:1.8733644 
-1 0:0 1:1 2:1.3496622 3:1.8733388 
-0.06419419312534307 0:0 1:1 2:1.3496622 3:2.2717863 
1 0:0 1:1 2:1.3496622 3:1.481331 
1 0:0 1:1 2:1.3496622 3:2.318398 
-0.6164490621439576 0:1.1952286 1:1 2:1.3496622 3:1.428089 
-1 0:0 1:1 2:1.3496622 3:2.2718842 
1 0:0 1:1 2:1.3496622 3:2.3184703 
1 0:0 1:1 2:1.3496622 3:1.481331 
1 0:0 1:1 2:1.3496622 3:2.318398 
-1 0:0 1:1 2:1.3496622 3:1.8733388 
-0.6450262577848332 0:0 1:1 2:1.3496622 3:2.2717863 
-0.8567202327523251 0:0 1:1 2:1.3496622 3:2.2717863 
1 0:0 1:1 2:1.3496622 3:2.318398 
1 0:0 1:1 2:1.3496622 3:1.481331 
-1 0:0 1:1 2:1.3496622 3:1.8733388 
1 0:0 1:1 2:1.3496622 3:2.318398 
1 0:0 1:1 2:1.3496622 3:1.481331 
-1 0:0 1:1 2:1.3496622 3:1.8733388 
1 0:0 1:1 2:1.3496622 3:1.4097218 
-1 0:0 1:1 2:1.3496622 3:1.793937 
-1 0:0 1:1 2:1.3496622 3:2.145582 
1 0:0 1:1 2:1.3496622 3:2.0817463 
1 0:0 1:1 2:1.3496622 3:1.3613568 
1 0:0 1:1 2:1.3496622 3:2.1763291 
-1 0:-1.1952286 1:1 2:1.3496622 3:2.0818902 
-1 0:0 1:1 2:1.3496622 3:1.7389501 
