svm_type epsilon_svr
kernel_type rbf
gamma 0.1
nr_class 2
total_sv 1188
rho -2.92614
SV
1 0:1.7928429 1:1 2:1.3496622 3:1.9144625 
1 0:1.1952286 1:1 2:1.3496622 3:1.9144625 
1 0:0 1:1 2:1.3496622 3:1.9144625 
1 0:0 1:1 2:1.3496622 3:1.9144625 
-1 0:1.7928429 1:1 2:1.3496622 3:1.5858119 
-1 0:1.7928429 1:1 2:1.3496622 3:1.2930693 
-1 0:1.1952286 1:1 2:1.3496622 3:1.2930693 
-1 0:0.5976143 1:1 2:1.3496622 3:1.2930693 
-1 0:-1.7928429 1:1 2:1.3496622 3:1.2930693 
-1 0:0 1:1 2:1.3496622 3:1.2930693 
-1 0:1.1952286 1:1 2:1.3496622 3:0.97309444 
-1 0:0.5976143 1:1 2:1.3496622 3:0.97309444 
-1 0:-1.7928429 1:1 2:1.3496622 3:0.97309444 
-1 0:0 1:1 2:1.3496622 3:0.97309444 
-1 0:0 1:1 2:1.3496622 3:0.97309444 
-1 0:0 1:1 2:1.3496622 3:0.97309444 
1 0:0.5976143 1:1 2:1.3496622 3:1.9144625 
1 0:-0.5976143 1:1 2:1.3496622 3:1.9144625 
1 0:-1.1952286 1:1 2:1.3496622 3:1.9144625 
1 0:-1.7928429 1:1 2:1.3496622 3:1.9144625 
1 0:0 1:1 2:1.3496622 3:1.9144625 
1 0:0 1:1 2:1.3496622 3:1.9144625 
-1 0:-1.7928429 1:1 2:1.3496622 3:1.5858119 
-1 0:-0.5976143 1:1 2:1.3496622 3:1.2930693 
-1 0:-1.1952286 1:1 2:1.3496622 3:1.2930693 
-1 0:0 1:1 2:1.3496622 3:1.2930693 
-1 0:0 1:1 2:1.3496622 3:1.2930693 
-1 0:0 1:1 2:1.3496622 3:1.2930693 
-1 0:1.7928429 1:1 2:1.3496622 3:0.97309444 
-1 0:-0.5976143 1:1 2:1.3496622 3:0.97309444 
-1 0:-1.1952286 1:1 2:1.3496622 3:0.97309444 
-1 0:0 1:1 2:1.3496622 3:0.97309444 
-1 0:0 1:1 2:1.3496622 3:0.97309444 
-1 0:0.5976143 1:1 2:1.3496622 3:2.5449512 
-0.2261595485671591 0:-1.7928429 1:1 2:1.3496622 3:2.5449512 
-1 0:0 1:1 2:1.3496622 3:2.5449512 
-1 0:0 1:1 2:1.3496622 3:2.5449512 
-1 0:1.7928429 1:1 2:1.3496622 3:2.2345038 
-1 0:-0.5976143 1:1 2:1.3496622 3:2.2345038 
-1 0:-1.1952286 1:1 2:1.3496622 3:2.2345038 
-1 0:0 1:1 2:1.3496622 3:2.2345038 
-1 0:0 1:1 2:1.3496622 3:2.2345038 
1 0:1.1952286 1:1 2:1.3496622 3:1.9144625 
1 0:0.5976143 1:1 2:1.3496622 3:1.9144625 
1 0:-1.7928429 1:1 2:1.3496622 3:1.9144625 
1 0:0 1:1 2:1.3496622 3:1.9144625 
1 0:0 1:1 2:1.3496622 3:1.9144625 
-1 0:1.7928429 1:1 2:1.3496622 3:1.5858119 
-1 0:1.1952286 1:1 2:1.3496622 3:1.2930693 
-1 0:0.5976143 1:1 2:1.3496622 3:1.2930693 
-0.2261594770914315 0:1.7928429 1:1 2:1.3496622 3:2.5449512 
-1 0:1.1952286 1:1 2:1.3496622 3:2.5449512 
-1 0:-0.5976143 1:1 2:1.3496622 3:2.5449512 
-1 0:-1.1952286 1:1 2:1.3496622 3:2.5449512 
-1 0:0 1:1 2:1.3496622 3:2.5449512 
-1 0:0 1:1 2:1.3496622 3:2.5449512 
-1 0:1.1952286 1:1 2:1.3496622 3:2.2345038 
-1 0:0.5976143 1:1 2:1.3496622 3:2.2345038 
-1 0:-1.7928429 1:1 2:1.3496622 3:2.2345038 
-1 0:0 1:1 2:1.3496622 3:2.2345038 
-1 0:0 1:1 2:1.3496622 3:2.2345038 
1 0:1.7928429 1:1 2:1.3496622 3:1.9144625 
1 0:-0.5976143 1:1 2:1.3496622 3:1.9144625 
1 0:-1.1952286 1:1 2:1.3496622 3:1.9144625 
1 0:0 1:1 2:1.3496622 3:1.9144625 
1 0:0 1:1 2:1.3496622 3:1.9144625 
-1 0:-1.7928429 1:1 2:1.3496622 3:1.5858119 
-1 0:1.7928429 1:1 2:1.3496622 3:1.2930693 
-1 0:-0.5976143 1:1 2:1.3496622 3:1.2930693 
-1 0:-1.1952286 1:1 2:1.3496622 3:1.2930693 
-1 0:0 1:1 2:1.3496622 3:1.2930693 
-1 0:1.7928429 1:1 2:1.3496622 3:0.97309444 
-1 0:1.1952286 1:1 2:1.3496622 3:0.97309444 
-1 0:-1.7928429 1:1 2:1.3496622 3:1.2930693 
-1 0:0 1:1 2:1.3496622 3:1.2930693 
-1 0:0 1:1 2:1.3496622 3:1.2930693 
-1 0:0 1:1 2:1.3496622 3:1.2930693 
-1 0:0.5976143 1:1 2:1.3496622 3:0.97309444 
-1 0:-0.5976143 1:1 2:1.3496622 3:0.97309444 
-1 0:0 1:1 2:1.3496622 3:0.97309444 
-1 0:0 1:1 2:1.3496622 3:0.97309444 
-1 0:-1.1952286 1:1 2:1.3496622 3:0.97309444 
-1 0:-1.7928429 1:1 2:1.3496622 3:0.97309444 
-1 0:0 1:1 2:1.3496622 3:0.97309444 
1 0:1.7928429 5:1 2:0.43645792 3:0.37610307 
-1 0:1.7928429 6:1 2:-0.44988739 3:-0.50497848 
1 0:0 7:1 2:0.43645792 3:-0.35367086 
-1 0:1.1952286 5:1 2:0.43645792 3:0.25103437 
1 0:0 6:1 2:-0.44988739 3:-0.78262773 
-1 0:1.7928429 6:1 2:-0.44988739 3:-0.43191833 
-1 0:1.7928429 6:1 2:-0.44988739 3:-0.25599234 
-0.3994943736884136 0:1.1952286 6:1 2:-0.44988739 3:-0.25599234 
-0.399494124170771 0:-1.1952286 6:1 2:-0.44988739 3:-0.25599234 
-1 0:-1.7928429 6:1 2:-0.44988739 3:-0.25599234 
-1 0:-1.7928429 6:1 2:-0.44988739 3:-0.43191833 
-1 0:1.7928429 6:1 2:-0.44988739 3:-0.60953083 
-1 0:-0.5976143 6:1 2:-0.44988739 3:-0.60953083 
-1 0:-1.1952286 6:1 2:-0.44988739 3:-0.60953083 
-1 0:0 6:1 2:-0.44988739 3:-0.60953083 
-1 0:0 6:1 2:-0.44988739 3:-0.60953083 
1 0:1.1952286 6:1 2:-0.44988739 3:-0.78262773 
-1 0:1.1952286 6:1 2:-0.44988739 3:-0.60953083 
-1 0:0.5976143 6:1 2:-0.44988739 3:-0.60953083 
-1 0:-1.7928429 6:1 2:-0.44988739 3:-0.60953083 
-1 0:0 6:1 2:-0.44988739 3:-0.60953083 
-1 0:0 6:1 2:-0.44988739 3:-0.60953083 
1 0:1.7928429 6:1 2:-0.44988739 3:-0.78262773 
1 0:0.5976143 6:1 2:-0.44988739 3:-0.78262773 
1 0:-0.5976143 6:1 2:-0.44988739 3:-0.78262773 
1 0:0 6:1 2:-0.44988739 3:-0.78262773 
1 0:0 6:1 2:-0.44988739 3:-0.78262773 
1 0:-1.1952286 6:1 2:-0.44988739 3:-0.78262773 
1 0:-1.7928429 6:1 2:-0.44988739 3:-0.78262773 
1 0:0 6:1 2:-0.44988739 3:-0.78262773 
-1 0:0 6:1 2:-0.44988739 3:-0.81744142 
-1 0:1.7928429 6:1 2:-0.44988739 3:-0.58598621 
-1 0:1.1952286 6:1 2:-0.44988739 3:-0.58598621 
-1 0:-1.1952286 6:1 2:-0.44988739 3:-0.58598621 
-1 0:-1.7928429 6:1 2:-0.44988739 3:-0.58598621 
-1 0:0 6:1 2:-0.44988739 3:-0.58598621 
-1 0:0 6:1 2:-0.44988739 3:-0.58598621 
-1 0:0 6:1 2:-0.44988739 3:-0.81744142 
-1 0:0.5976143 6:1 2:-0.44988739 3:-0.58598621 
-1 0:-0.5976143 6:1 2:-0.44988739 3:-0.58598621 
-1 0:0 6:1 2:-0.44988739 3:-0.58598621 
-1 0:0 6:1 2:-0.44988739 3:-0.58598621 
-1 0:0 6:1 2:-0.44988739 3:-0.81744142 
-1 0:0 6:1 2:-0.44988739 3:-0.81744142 
-1 0:1.7928429 7:1 2:-0.44988739 3:0.28016067 
-1 0:1.1952286 7:1 2:-0.44988739 3:0.28016067 
-1 0:-1.1952286 7:1 2:-0.44988739 3:0.28016067 
-1 0:-1.7928429 7:1 2:-0.44988739 3:0.28016067 
-1 0:1.1952286 7:1 2:-0.44988739 3:-0.021637016 
-1 0:0.5976143 7:1 2:-0.44988739 3:-0.021637016 
-1 0:-1.7928429 7:1 2:-0.44988739 3:-0.021637016 
-1 0:0 7:1 2:-0.44988739 3:-0.021637016 
-1 0:0 7:1 2:-0.44988739 3:-0.021637016 
-1 0:1.7928429 7:1 2:-0.44988739 3:-0.24260539 
-1 0:-0.5976143 7:1 2:-0.44988739 3:-0.24260539 
-1 0:-1.1952286 7:1 2:-0.44988739 3:-0.24260539 
-1 0:0.5976143 7:1 2:-0.44988739 3:0.28016067 
-1 0:-0.5976143 7:1 2:-0.44988739 3:0.28016067 
-0.4887613723784325 0:0 7:1 2:-0.44988739 3:0.28016067 
-0.9577011458048487 0:0 7:1 2:-0.44988739 3:0.28016067 
-1 0:1.7928429 7:1 2:-0.44988739 3:-0.021637016 
-1 0:-0.5976143 7:1 2:-0.44988739 3:-0.021637016 
-1 0:-1.1952286 7:1 2:-0.44988739 3:-0.021637016 
-1 0:0 7:1 2:-0.44988739 3:-0.021637016 
-1 0:0 7:1 2:-0.44988739 3:-0.021637016 
-1 0:1.1952286 7:1 2:-0.44988739 3:-0.24260539 
-1 0:0.5976143 7:1 2:-0.44988739 3:-0.24260539 
-1 0:-1.7928429 7:1 2:-0.44988739 3:-0.24260539 
-1 0:0 7:1 2:-0.44988739 3:-0.24260539 
-1 0:0 7:1 2:-0.44988739 3:-0.24260539 
-1 0:1.7928429 7:1 2:-0.44988739 3:-0.58598621 
-1 0:0 7:1 2:-0.44988739 3:-0.58598621 
-0.1836963739885443 0:0 7:1 2:-0.44988739 3:-0.58598621 
-1 0:0 7:1 2:-0.44988739 3:-0.24260539 
-1 0:0 7:1 2:-0.44988739 3:-0.24260539 
-0.4876774923437732 0:0 7:1 2:-0.44988739 3:-0.58598621 
-1 0:0 7:1 2:-0.44988739 3:-0.58598621 
-1 0:-1.7928429 7:1 2:-0.44988739 3:-0.58598621 
-1 0:-1.1952286 8:1 2:-0.44988739 3:0.34703857 
-1 0:0.5976143 8:1 2:-0.44988739 3:0.34703857 
-1 0:-0.5976143 8:1 2:-0.44988739 3:0.34703857 
-1 0:0 8:1 2:-0.44988739 3:0.34703857 
-1 0:0 8:1 2:-0.44988739 3:0.34703857 
-1 0:1.7928429 8:1 2:-0.44988739 3:0.34703857 
-1 0:1.1952286 8:1 2:-0.44988739 3:0.34703857 
-1 0:0 8:1 2:-0.44988739 3:0.34703857 
-1 0:0 8:1 2:-0.44988739 3:0.34703857 
-1 0:-1.7928429 8:1 2:-0.44988739 3:0.34703857 
1 0:1.1952286 1:1 2:-0.44988739 3:0.78222457 
1 0:-1.1952286 1:1 2:-0.44988739 3:0.78222457 
1 0:0.5976143 1:1 2:-0.44988739 3:0.78222457 
1 0:-0.5976143 1:1 2:-0.44988739 3:0.78222457 
1 0:-0.5976143 1:1 2:-0.44988739 3:0.78222457 
1 0:-1.1952286 1:1 2:-0.44988739 3:0.78222457 
1 0:1.1952286 1:1 2:-0.44988739 3:0.78222457 
1 0:0.5976143 1:1 2:-0.44988739 3:0.78222457 
1 0:-0.5976143 1:1 2:-0.44988739 3:0.78222457 
1 0:-1.1952286 1:1 2:-0.44988739 3:0.78222457 
1 0:1.1952286 1:1 2:-0.44988739 3:0.78222457 
1 0:0.5976143 1:1 2:-0.44988739 3:0.78222457 
1 0:0.5976143 1:1 2:-0.44988739 3:0.78222457 
1 0:-0.5976143 1:1 2:-0.44988739 3:0.78222457 
1 0:1.1952286 1:1 2:-0.44988739 3:0.78222457 
1 0:-1.1952286 1:1 2:-0.44988739 3:0.78222457 
1 0:1.1952286 1:1 2:-0.44988739 3:0.78222457 
1 0:0.5976143 1:1 2:-0.44988739 3:0.78222457 
1 0:-0.5976143 1:1 2:-0.44988739 3:0.78222457 
1 0:-1.1952286 1:1 2:-0.44988739 3:0.78222457 
1 0:1.1952286 1:1 2:-0.44988739 3:0.78222457 
1 0:0.5976143 1:1 2:-0.44988739 3:0.78222457 
1 0:-0.5976143 1:1 2:-0.44988739 3:0.78222457 
1 0:-1.1952286 1:1 2:-0.44988739 3:0.78222457 
1 0:0 1:1 2:-1.3362327 3:-1.1810066 
-1 0:1.7928429 1:1 2:-0.44988739 3:0.62104509 
-1 0:-1.7928429 1:1 2:-0.44988739 3:0.62104509 
-1 0:-1.7928429 1:1 2:-0.44988739 3:0.62104509 
-1 0:0.5976143 1:1 2:-0.44988739 3:0.33851405 
-1 0:-0.5976143 1:1 2:-0.44988739 3:0.33851405 
-1 0:0 1:1 2:-0.44988739 3:0.33851405 
-1 0:0 1:1 2:-0.44988739 3:0.33851405 
-1 0:1.7928429 1:1 2:-0.44988739 3:0.083350604 
-1 0:1.1952286 1:1 2:-0.44988739 3:0.083350604 
-1 0:1.7928429 1:1 2:-0.44988739 3:0.62104509 
-1 0:-1.7928429 1:1 2:-0.44988739 3:0.62104509 
-1 0:1.7928429 1:1 2:-0.44988739 3:0.62104509 
-1 0:1.7928429 1:1 2:-0.44988739 3:0.33851405 
-1 0:1.1952286 1:1 2:-0.44988739 3:0.33851405 
-1 0:-1.1952286 1:1 2:-0.44988739 3:0.33851405 
-1 0:-1.7928429 1:1 2:-0.44988739 3:0.33851405 
-1 0:0 1:1 2:-0.44988739 3:0.33851405 
-1 0:0 1:1 2:-0.44988739 3:0.33851405 
-1 0:0.5976143 1:1 2:-0.44988739 3:0.083350604 
-1 0:-0.5976143 1:1 2:-0.44988739 3:0.083350604 
-1 0:0 1:1 2:-0.44988739 3:0.083350604 
-1 0:0 1:1 2:-0.44988739 3:0.083350604 
0.0005147312940533445 0:1.7928429 6:1 2:-1.3362327 3:-1.1810066 
-1 0:-1.1952286 1:1 2:-0.44988739 3:0.083350604 
-1 0:-1.7928429 1:1 2:-0.44988739 3:0.083350604 
-1 0:0 1:1 2:-0.44988739 3:0.083350604 
-1 0:0 1:1 2:-0.44988739 3:0.083350604 
0.1359145519858328 0:1.1952286 5:1 2:-1.3362327 3:-1.1810066 
-1 0:-1.7928429 1:1 2:-0.44988739 3:0.33851405 
-0.5941675657220709 0:1.7928429 1:1 2:-0.44988739 3:0.62104509 
-0.4981139971595885 0:-1.7928429 1:1 2:-0.44988739 3:0.62104509 
-0.7398469461800421 0:1.7928429 1:1 2:-0.44988739 3:0.62104509 
-0.8359093763292887 0:-1.7928429 1:1 2:-0.44988739 3:0.62104509 
-1 0:1.7928429 1:1 2:-0.44988739 3:0.62104509 
-1 0:-1.7928429 1:1 2:-0.44988739 3:0.62104509 
-1 0:1.7928429 1:1 2:-0.44988739 3:0.62104509 
-1 0:1.1952286 1:1 2:-0.44988739 3:0.33851405 
-1 0:0.5976143 1:1 2:-0.44988739 3:0.33851405 
-1 0:0 1:1 2:-0.44988739 3:0.33851405 
-1 0:0 1:1 2:-0.44988739 3:0.33851405 
-0.999991843883585 0:-1.7928429 1:1 2:-0.44988739 3:0.62104509 
-1 0:1.7928429 1:1 2:-0.44988739 3:0.33851405 
-1 0:-0.5976143 1:1 2:-0.44988739 3:0.33851405 
-1 0:-1.1952286 1:1 2:-0.44988739 3:0.33851405 
-1 0:0 1:1 2:-0.44988739 3:0.33851405 
-1 0:0 1:1 2:-0.44988739 3:0.33851405 
1 0:0.5976143 9:1 2:-0.44988739 3:0.77253736 
1 0:-0.5976143 9:1 2:-0.44988739 3:0.77253736 
1 0:0 9:1 2:-0.44988739 3:0.77253736 
1 0:0 9:1 2:-0.44988739 3:0.77253736 
0.7016250097992984 0:1.7928429 9:1 2:-0.44988739 3:0.77253736 
1 0:1.1952286 9:1 2:-0.44988739 3:0.77253736 
1 0:-1.1952286 9:1 2:-0.44988739 3:0.77253736 
0.701625032224667 0:-1.7928429 9:1 2:-0.44988739 3:0.77253736 
1 0:0 9:1 2:-0.44988739 3:0.77253736 
1 0:0 9:1 2:-0.44988739 3:0.77253736 
-1 0:1.7928429 9:1 2:-0.44988739 3:0.34703857 
-1 0:1.7928429 9:1 2:-0.44988739 3:-0.080674973 
-1 0:-1.7928429 9:1 2:-0.44988739 3:0.34703857 
-1 0:1.1952286 9:1 2:-0.44988739 3:-0.080674973 
-1 0:0.5976143 9:1 2:-0.44988739 3:-0.080674973 
-1 0:-1.1952286 9:1 2:-0.44988739 3:-0.080674973 
-1 0:-1.7928429 9:1 2:-0.44988739 3:-0.080674973 
-0.4667550229099778 0:0 9:1 2:-0.44988739 3:-0.080674973 
-1 0:0 9:1 2:-0.44988739 3:-0.080674973 
-1 0:-0.5976143 9:1 2:-0.44988739 3:-0.080674973 
-1 0:0 9:1 2:-0.44988739 3:-0.080674973 
-0.1473901446156607 0:0 9:1 2:-0.44988739 3:-0.080674973 
-1 0:1.7928429 9:1 2:-0.44988739 3:-0.29481391 
-1 0:1.1952286 9:1 2:-0.44988739 3:-0.29481391 
-1 0:-1.1952286 9:1 2:-0.44988739 3:-0.29481391 
-1 0:-1.7928429 9:1 2:-0.44988739 3:-0.29481391 
-0.8210631791913889 0:0.5976143 9:1 2:-0.44988739 3:-0.29481391 
-0.8210635924836368 0:-0.5976143 9:1 2:-0.44988739 3:-0.29481391 
-1 0:1.1952286 6:1 2:-0.44988739 3:-0.50497848 
-1 0:-0.5976143 6:1 2:-0.44988739 3:-0.50497848 
-1 0:-1.1952286 6:1 2:-0.44988739 3:-0.50497848 
-1 0:0 6:1 2:-0.44988739 3:-0.50497848 
-1 0:0 6:1 2:-0.44988739 3:-0.50497848 
-1 0:1.1952286 6:1 2:-0.44988739 3:-0.73075604 
-1 0:0.5976143 6:1 2:-0.44988739 3:-0.73075604 
-1 0:-1.7928429 6:1 2:-0.44988739 3:-0.73075604 
-1 0:0 6:1 2:-0.44988739 3:-0.73075604 
-1 0:0 6:1 2:-0.44988739 3:-0.73075604 
1 0:1.7928429 6:1 2:-0.44988739 3:-0.78262773 
1 0:-0.5976143 6:1 2:-0.44988739 3:-0.78262773 
1 0:-1.1952286 6:1 2:-0.44988739 3:-0.78262773 
1 0:0 6:1 2:-0.44988739 3:-0.78262773 
-1 0:0.5976143 6:1 2:-0.44988739 3:-0.50497848 
-1 0:-1.7928429 6:1 2:-0.44988739 3:-0.50497848 
-1 0:0 6:1 2:-0.44988739 3:-0.50497848 
-1 0:0 6:1 2:-0.44988739 3:-0.50497848 
-1 0:1.7928429 6:1 2:-0.44988739 3:-0.73075604 
-1 0:-0.5976143 6:1 2:-0.44988739 3:-0.73075604 
-1 0:-1.1952286 6:1 2:-0.44988739 3:-0.73075604 
-1 0:0 6:1 2:-0.44988739 3:-0.73075604 
-1 0:0 6:1 2:-0.44988739 3:-0.73075604 
1 0:1.1952286 6:1 2:-0.44988739 3:-0.78262773 
1 0:0.5976143 6:1 2:-0.44988739 3:-0.78262773 
1 0:-1.7928429 6:1 2:-0.44988739 3:-0.78262773 
1 0:0 6:1 2:-0.44988739 3:-0.78262773 
1 0:0 6:1 2:-0.44988739 3:-0.78262773 
1 0:0 6:1 2:-0.44988739 3:-0.78262773 
-1 0:1.7928429 9:1 2:-0.44988739 3:0.49366061 
-1 0:1.1952286 9:1 2:-0.44988739 3:0.49366061 
-1 0:-1.7928429 9:1 2:-0.44988739 3:0.49366061 
-0.8098559486929001 0:0 9:1 2:-0.44988739 3:0.49366061 
-1 0:0 9:1 2:-0.44988739 3:0.49366061 
-1 0:1.7928429 9:1 2:-0.44988739 3:0.28016067 
-1 0:-0.5976143 9:1 2:-0.44988739 3:0.28016067 
-1 0:-1.1952286 9:1 2:-0.44988739 3:0.28016067 
-1 0:0 9:1 2:-0.44988739 3:0.28016067 
-1 0:0 9:1 2:-0.44988739 3:0.28016067 
-1 0:1.1952286 9:1 2:-0.44988739 3:-0.021637016 
-1 0:0.5976143 9:1 2:-0.44988739 3:-0.021637016 
-1 0:-1.7928429 9:1 2:-0.44988739 3:-0.021637016 
-1 0:0 9:1 2:-0.44988739 3:-0.021637016 
-1 0:-1.1952286 9:1 2:-0.44988739 3:0.49366061 
-1 0:0 9:1 2:-0.44988739 3:0.49366061 
-1 0:0 9:1 2:-0.44988739 3:0.49366061 
-1 0:1.1952286 9:1 2:-0.44988739 3:0.28016067 
-1 0:0.5976143 9:1 2:-0.44988739 3:0.28016067 
-1 0:-1.7928429 9:1 2:-0.44988739 3:0.28016067 
-1 0:0 9:1 2:-0.44988739 3:0.28016067 
-1 0:0 9:1 2:-0.44988739 3:0.28016067 
-1 0:1.7928429 9:1 2:-0.44988739 3:-0.021637016 
-1 0:-0.5976143 9:1 2:-0.44988739 3:-0.021637016 
-1 0:-1.1952286 9:1 2:-0.44988739 3:-0.021637016 
-1 0:0 9:1 2:-0.44988739 3:-0.021637016 
-1 0:0 9:1 2:-0.44988739 3:-0.021637016 
-0.5141485607333854 0:1.1952286 9:1 2:-0.44988739 3:-0.24260539 
-1 0:-1.7928429 9:1 2:-0.44988739 3:-0.24260539 
-1 0:0 9:1 2:-0.44988739 3:-0.021637016 
-1 0:1.7928429 9:1 2:-0.44988739 3:-0.24260539 
-0.5141484717563539 0:-1.1952286 9:1 2:-0.44988739 3:-0.24260539 
1 0:0 5:1 2:-0.44988739 3:-0.84660591 
0.5474613054979656 0:0 5:1 2:-0.44988739 3:-0.12977238 
-1 0:1.7928429 5:1 2:-0.44988739 3:-0.43032699 
-1 0:1.1952286 5:1 2:-0.44988739 3:-0.43032699 
-1 0:-1.1952286 5:1 2:-0.44988739 3:-0.43032699 
-1 0:-1.7928429 5:1 2:-0.44988739 3:-0.43032699 
-1 0:0 5:1 2:-0.44988739 3:-0.43032699 
1 0:1.7928429 5:1 2:-0.44988739 3:-0.82567702 
1 0:-0.5976143 5:1 2:-0.44988739 3:-0.82567702 
1 0:-1.1952286 5:1 2:-0.44988739 3:-0.82567702 
-1 0:0.5976143 5:1 2:-0.44988739 3:-0.43032699 
-1 0:-0.5976143 5:1 2:-0.44988739 3:-0.43032699 
-1 0:0 5:1 2:-0.44988739 3:-0.43032699 
-1 0:0 5:1 2:-0.44988739 3:-0.43032699 
-1 0:0 5:1 2:-0.44988739 3:-0.43032699 
1 0:1.1952286 5:1 2:-0.44988739 3:-0.82567702 
1 0:0.5976143 5:1 2:-0.44988739 3:-0.82567702 
1 0:-1.7928429 5:1 2:-0.44988739 3:-0.82567702 
1 0:1.7928429 5:1 2:-0.44988739 3:-0.84660591 
1 0:-0.5976143 5:1 2:-0.44988739 3:-0.84660591 
1 0:-1.1952286 5:1 2:-0.44988739 3:-0.84660591 
1 0:0 5:1 2:-0.44988739 3:-0.84660591 
1 0:0 5:1 2:-0.44988739 3:-0.84660591 
1 0:1.1952286 5:1 2:-0.44988739 3:-0.84660591 
1 0:0.5976143 5:1 2:-0.44988739 3:-0.84660591 
1 0:-1.7928429 5:1 2:-0.44988739 3:-0.84660591 
1 0:0 5:1 2:-0.44988739 3:-0.84660591 
1 0:0 5:1 2:-0.44988739 3:0.30944904 
1 0:0 5:1 2:-0.44988739 3:0.30944904 
-1 0:-1.7928429 5:1 2:-0.44988739 3:0.11108152 
-1 0:1.7928429 5:1 2:-0.44988739 3:-0.0986022 
-1 0:-0.5976143 5:1 2:-0.44988739 3:-0.0986022 
-1 0:-1.1952286 5:1 2:-0.44988739 3:-0.0986022 
-1 0:0 5:1 2:-0.44988739 3:-0.0986022 
-1 0:0 5:1 2:-0.44988739 3:-0.0986022 
-1 0:1.7928429 5:1 2:-0.44988739 3:-0.29481391 
-1 0:1.1952286 5:1 2:-0.44988739 3:-0.29481391 
-1 0:-1.1952286 5:1 2:-0.44988739 3:-0.29481391 
-1 0:-1.7928429 5:1 2:-0.44988739 3:-0.29481391 
1 0:0 5:1 2:-0.44988739 3:0.30944904 
1 0:0 5:1 2:-0.44988739 3:0.30944904 
-1 0:1.7928429 5:1 2:-0.44988739 3:0.11108152 
-1 0:1.1952286 5:1 2:-0.44988739 3:-0.0986022 
-1 0:0.5976143 5:1 2:-0.44988739 3:-0.0986022 
-1 0:-1.7928429 5:1 2:-0.44988739 3:-0.0986022 
-1 0:0 5:1 2:-0.44988739 3:-0.0986022 
-1 0:0 5:1 2:-0.44988739 3:-0.0986022 
-1 0:0.5976143 5:1 2:-0.44988739 3:-0.29481391 
-1 0:-0.5976143 5:1 2:-0.44988739 3:-0.29481391 
-1 0:0 5:1 2:-0.44988739 3:-0.29481391 
-1 0:0 5:1 2:-0.44988739 3:-0.29481391 
-1 0:0 5:1 2:-0.44988739 3:-0.29481391 
-1 0:0 5:1 2:-0.44988739 3:-0.29481391 
-1 0:0 5:1 2:-0.44988739 3:-0.76310476 
-1 0:0.5976143 5:1 2:-0.44988739 3:-0.24260539 
-1 0:-0.5976143 5:1 2:-0.44988739 3:-0.24260539 
-1 0:1.7928429 5:1 2:-0.44988739 3:-0.24260539 
-1 0:1.1952286 5:1 2:-0.44988739 3:-0.24260539 
-1 0:-1.1952286 5:1 2:-0.44988739 3:-0.24260539 
-1 0:-1.7928429 5:1 2:-0.44988739 3:-0.24260539 
-1 0:0 5:1 2:-0.44988739 3:-0.24260539 
-1 0:0 5:1 2:-0.44988739 3:-0.24260539 
-1 0:1.7928429 5:1 2:-0.44988739 3:-0.58598621 
-1 0:-1.7928429 5:1 2:-0.44988739 3:-0.58598621 
-1 0:0 5:1 2:-0.44988739 3:-0.24260539 
-1 0:0 5:1 2:-0.44988739 3:-0.24260539 
-1 0:1.7928429 5:1 2:-0.44988739 3:-0.76310476 
-1 0:1.1952286 5:1 2:-0.44988739 3:-0.76310476 
-1 0:0 5:1 2:-0.44988739 3:-0.76310476 
-1 0:0 5:1 2:-0.44988739 3:-0.76310476 
-1 0:0.5976143 5:1 2:-0.44988739 3:-0.76310476 
-1 0:-0.5976143 5:1 2:-0.44988739 3:-0.76310476 
-1 0:-1.1952286 5:1 2:-0.44988739 3:-0.76310476 
-1 0:-1.7928429 5:1 2:-0.44988739 3:-0.76310476 
-1 0:0 5:1 2:-0.44988739 3:-0.76310476 
-1 0:0 4:1 2:-0.44988739 3:-1.0134469 
-1 0:0 4:1 2:-0.44988739 3:-1.0134469 
-0.8482614866564716 0:0 4:1 2:-0.44988739 3:-1.0134469 
-0.03912847161349314 0:0 4:1 2:-0.44988739 3:-1.0134469 
-1 0:0 4:1 2:-0.44988739 3:-1.0134469 
-1 0:0 4:1 2:-0.44988739 3:-1.0134469 
-1 0:0 4:1 2:-0.44988739 3:-1.0134469 
1 0:-1.1952286 4:1 2:-0.44988739 3:-1.1127305 
-1 0:1.1952286 4:1 2:-0.44988739 3:-1.0048724 
-1 0:0.5976143 4:1 2:-0.44988739 3:-1.0048724 
-1 0:-1.1952286 4:1 2:-0.44988739 3:-1.0048724 
-0.3203309564927316 0:-1.7928429 4:1 2:-0.44988739 3:-1.0048724 
-1 0:0 4:1 2:-0.44988739 3:-1.0048724 
-1 0:0 4:1 2:-0.44988739 3:-1.0048724 
1 0:0.5976143 4:1 2:-0.44988739 3:-1.1127305 
1 0:-0.5976143 4:1 2:-0.44988739 3:-1.1127305 
1 0:0 4:1 2:-0.44988739 3:-1.1127305 
1 0:0 4:1 2:-0.44988739 3:-1.1127305 
-0.3203309475518341 0:1.7928429 4:1 2:-0.44988739 3:-1.0048724 
-1 0:-0.5976143 4:1 2:-0.44988739 3:-1.0048724 
-1 0:0 4:1 2:-0.44988739 3:-1.0048724 
-1 0:0 4:1 2:-0.44988739 3:-1.0048724 
1 0:1.7928429 4:1 2:-0.44988739 3:-1.1127305 
1 0:1.1952286 4:1 2:-0.44988739 3:-1.1127305 
1 0:0 4:1 2:-0.44988739 3:-1.1127305 
1 0:0 4:1 2:-0.44988739 3:-1.1127305 
1 0:-1.7928429 4:1 2:-0.44988739 3:-1.1127305 
1 0:1.7928429 6:1 2:0.43645792 3:-0.5523508 
1 0:1.1952286 6:1 2:0.43645792 3:-0.5523508 
1 0:-1.1952286 6:1 2:0.43645792 3:-0.5523508 
1 0:-1.7928429 6:1 2:0.43645792 3:-0.5523508 
1 0:0 6:1 2:0.43645792 3:-0.5523508 
1 0:0 6:1 2:0.43645792 3:-0.5523508 
1 0:0.5976143 6:1 2:0.43645792 3:-0.5523508 
1 0:-0.5976143 6:1 2:0.43645792 3:-0.5523508 
1 0:0 6:1 2:0.43645792 3:-0.5523508 
1 0:0 6:1 2:0.43645792 3:-0.5523508 
1 0:-0.5976143 6:1 2:0.43645792 3:0.23149918 
1 0:-1.1952286 6:1 2:0.43645792 3:0.23149918 
1 0:0 6:1 2:0.43645792 3:0.23149918 
1 0:1.1952286 6:1 2:0.43645792 3:-0.29682441 
1 0:0.5976143 6:1 2:0.43645792 3:-0.29682441 
1 0:0 6:1 2:0.43645792 3:-0.29682441 
1 0:0 6:1 2:0.43645792 3:-0.29682441 
1 0:1.7928429 6:1 2:0.43645792 3:-0.51748257 
1 0:1.1952286 6:1 2:0.43645792 3:-0.51748257 
1 0:-1.1952286 6:1 2:0.43645792 3:-0.51748257 
1 0:-1.7928429 6:1 2:0.43645792 3:-0.51748257 
1 0:1.1952286 6:1 2:0.43645792 3:0.23149918 
1 0:0.5976143 6:1 2:0.43645792 3:0.23149918 
1 0:0 6:1 2:0.43645792 3:0.23149918 
1 0:0 6:1 2:0.43645792 3:0.23149918 
1 0:0 6:1 2:0.43645792 3:0.23149918 
1 0:1.7928429 6:1 2:0.43645792 3:-0.29682441 
1 0:-0.5976143 6:1 2:0.43645792 3:-0.29682441 
1 0:-1.1952286 6:1 2:0.43645792 3:-0.29682441 
1 0:-1.7928429 6:1 2:0.43645792 3:-0.29682441 
1 0:0 6:1 2:0.43645792 3:-0.29682441 
1 0:0 6:1 2:0.43645792 3:-0.29682441 
1 0:-1.1952286 7:1 2:0.43645792 3:-0.35367086 
1 0:1.7928429 7:1 2:0.43645792 3:0.75611914 
1 0:0.5976143 7:1 2:0.43645792 3:0.75611914 
1 0:-0.5976143 7:1 2:0.43645792 3:0.75611914 
1 0:0 7:1 2:0.43645792 3:0.75611914 
1 0:0 7:1 2:0.43645792 3:0.75611914 
1 0:0 7:1 2:0.43645792 3:0.75611914 
1 0:1.7928429 7:1 2:0.43645792 3:0.40241496 
1 0:-0.5976143 7:1 2:0.43645792 3:0.40241496 
1 0:-1.1952286 7:1 2:0.43645792 3:0.40241496 
1 0:0 7:1 2:0.43645792 3:0.40241496 
1 0:0 7:1 2:0.43645792 3:0.40241496 
1 0:1.7928429 7:1 2:0.43645792 3:0.12263795 
1 0:1.1952286 7:1 2:0.43645792 3:0.12263795 
1 0:1.1952286 7:1 2:0.43645792 3:0.75611914 
1 0:-1.1952286 7:1 2:0.43645792 3:0.75611914 
1 0:-1.7928429 7:1 2:0.43645792 3:0.75611914 
1 0:0 7:1 2:0.43645792 3:0.75611914 
1 0:1.1952286 7:1 2:0.43645792 3:0.40241496 
1 0:0.5976143 7:1 2:0.43645792 3:0.40241496 
1 0:-1.7928429 7:1 2:0.43645792 3:0.40241496 
1 0:0 7:1 2:0.43645792 3:0.40241496 
1 0:0 7:1 2:0.43645792 3:0.40241496 
1 0:0.5976143 7:1 2:0.43645792 3:0.12263795 
1 0:-0.5976143 7:1 2:0.43645792 3:0.12263795 
1 0:0 7:1 2:0.43645792 3:0.12263795 
1 0:0 7:1 2:0.43645792 3:0.12263795 
1 0:0.5976143 7:1 2:0.43645792 3:-0.35367086 
1 0:-0.5976143 7:1 2:0.43645792 3:-0.35367086 
1 0:0 7:1 2:0.43645792 3:-0.35367086 
1 0:-1.1952286 7:1 2:0.43645792 3:0.12263795 
1 0:-1.7928429 7:1 2:0.43645792 3:0.12263795 
1 0:0 7:1 2:0.43645792 3:0.12263795 
1 0:0 7:1 2:0.43645792 3:0.12263795 
1 0:1.7928429 7:1 2:0.43645792 3:-0.35367086 
1 0:1.1952286 7:1 2:0.43645792 3:-0.35367086 
1 0:0 7:1 2:0.43645792 3:-0.35367086 
1 0:0 7:1 2:0.43645792 3:-0.35367086 
1 0:-1.7928429 7:1 2:0.43645792 3:-0.35367086 
1 0:0 8:1 2:0.43645792 3:0.83328443 
1 0:1.1952286 8:1 2:0.43645792 3:1.357499 
1 0:0.5976143 8:1 2:0.43645792 3:1.357499 
1 0:-0.5976143 8:1 2:0.43645792 3:1.357499 
0.0794899467671776 0:0 8:1 2:0.43645792 3:1.357499 
0.7352907995768139 0:1.1952286 8:1 2:0.43645792 3:0.83328443 
1 0:0 8:1 2:0.43645792 3:0.83328443 
1 0:-1.1952286 8:1 2:0.43645792 3:1.357499 
0.03458684194717039 0:0 8:1 2:0.43645792 3:1.357499 
1 0:0.5976143 8:1 2:0.43645792 3:0.83328443 
1 0:-0.5976143 8:1 2:0.43645792 3:0.83328443 
0.7352908669527073 0:-1.1952286 8:1 2:0.43645792 3:0.83328443 
1 0:0 8:1 2:0.43645792 3:0.83328443 
1 0:0 8:1 2:0.43645792 3:0.83328443 
1 0:1.7928429 1:1 2:0.43645792 3:2.7583582 
1 0:-0.5976143 1:1 2:0.43645792 3:2.7583582 
1 0:-1.1952286 1:1 2:0.43645792 3:2.7583582 
0.4265393557610468 0:0 1:1 2:0.43645792 3:2.7583582 
1 0:1.1952286 1:1 2:0.43645792 3:2.7583582 
1 0:0.5976143 1:1 2:0.43645792 3:2.7583582 
1 0:-1.7928429 1:1 2:0.43645792 3:2.7583582 
-1 0:1.1952286 1:1 2:0.43645792 3:2.370972 
-1 0:0.5976143 1:1 2:0.43645792 3:2.370972 
-1 0:-1.7928429 1:1 2:0.43645792 3:2.370972 
-1 0:0 1:1 2:0.43645792 3:2.370972 
-1 0:0 1:1 2:0.43645792 3:2.370972 
-1 0:-0.5976143 1:1 2:0.43645792 3:2.0565693 
-1 0:0 1:1 2:0.43645792 3:2.0565693 
-1 0:0 1:1 2:0.43645792 3:2.0565693 
1 0:1.1952286 1:1 2:0.43645792 3:1.7499666 
1 0:0.5976143 1:1 2:0.43645792 3:1.7499666 
1 0:-1.7928429 1:1 2:0.43645792 3:1.7499666 
-1 0:0 1:1 2:0.43645792 3:1.4380693 
-1 0:0 1:1 2:0.43645792 3:1.4380693 
0.0200617331212236 0:0 1:1 2:0.43645792 3:2.7583582 
-1 0:1.7928429 1:1 2:0.43645792 3:2.370972 
-1 0:-0.5976143 1:1 2:0.43645792 3:2.370972 
-1 0:-1.1952286 1:1 2:0.43645792 3:2.370972 
-1 0:0 1:1 2:0.43645792 3:2.370972 
-1 0:0 1:1 2:0.43645792 3:2.370972 
-1 0:0.5976143 1:1 2:0.43645792 3:2.0565693 
-1 0:0 1:1 2:0.43645792 3:2.0565693 
-1 0:0 1:1 2:0.43645792 3:2.0565693 
1 0:1.7928429 1:1 2:0.43645792 3:1.7499666 
1 0:-0.5976143 1:1 2:0.43645792 3:1.7499666 
1 0:-1.1952286 1:1 2:0.43645792 3:1.7499666 
-1 0:0 1:1 2:0.43645792 3:1.4380693 
-1 0:0 1:1 2:0.43645792 3:1.4380693 
-1 0:1.7928429 1:1 2:0.43645792 3:1.1622113 
-1 0:-0.5976143 1:1 2:0.43645792 3:1.1622113 
-1 0:-1.1952286 1:1 2:0.43645792 3:1.1622113 
-1 0:0 1:1 2:0.43645792 3:1.1622113 
-1 0:0 1:1 2:0.43645792 3:1.1622113 
-1 0:1.1952286 1:1 2:0.43645792 3:0.84917908 
-1 0:0.5976143 1:1 2:0.43645792 3:0.84917908 
-1 0:-1.7928429 1:1 2:0.43645792 3:0.84917908 
-1 0:0 1:1 2:0.43645792 3:0.84917908 
-1 0:1.1952286 1:1 2:0.43645792 3:1.1622113 
-1 0:0.5976143 1:1 2:0.43645792 3:1.1622113 
-1 0:-1.7928429 1:1 2:0.43645792 3:1.1622113 
-1 0:0 1:1 2:0.43645792 3:1.1622113 
-1 0:0 1:1 2:0.43645792 3:1.1622113 
-1 0:1.7928429 1:1 2:0.43645792 3:0.84917908 
-1 0:-0.5976143 1:1 2:0.43645792 3:0.84917908 
-1 0:-1.1952286 1:1 2:0.43645792 3:0.84917908 
-1 0:0 1:1 2:0.43645792 3:0.84917908 
-1 0:0 1:1 2:0.43645792 3:0.84917908 
-1 0:0 1:1 2:0.43645792 3:0.84917908 
1 0:0 1:1 2:0.43645792 3:0.15689964 
0.04643815138432892 0:1.1952286 1:1 2:0.43645792 3:0.9693386 
0.004426474505748016 0:-1.1952286 1:1 2:0.43645792 3:0.9693386 
1 0:0.5976143 1:1 2:0.43645792 3:0.67999917 
1 0:-0.5976143 1:1 2:0.43645792 3:0.67999917 
1 0:0 1:1 2:0.43645792 3:0.67999917 
1 0:0 1:1 2:0.43645792 3:0.67999917 
1 0:1.7928429 1:1 2:0.43645792 3:0.37143671 
1 0:1.1952286 1:1 2:0.43645792 3:0.37143671 
1 0:-1.1952286 1:1 2:0.43645792 3:0.37143671 
1 0:-1.7928429 1:1 2:0.43645792 3:0.37143671 
1 0:0 1:1 2:0.43645792 3:0.37143671 
1 0:0 1:1 2:0.43645792 3:0.37143671 
1 0:0.5976143 1:1 2:0.43645792 3:0.15689964 
1 0:-0.5976143 1:1 2:0.43645792 3:0.15689964 
1 0:0 1:1 2:0.43645792 3:0.15689964 
1 0:0 1:1 2:0.43645792 3:0.15689964 
1 0:1.1952286 1:1 2:0.43645792 3:1.2314458 
1 0:-1.1952286 1:1 2:0.43645792 3:1.2314458 
0.07228396439559352 0:1.7928429 1:1 2:0.43645792 3:0.67999917 
1 0:1.1952286 1:1 2:0.43645792 3:0.67999917 
1 0:-1.1952286 1:1 2:0.43645792 3:0.67999917 
0.2789197378847889 0:-1.7928429 1:1 2:0.43645792 3:0.67999917 
1 0:0 1:1 2:0.43645792 3:0.67999917 
1 0:0 1:1 2:0.43645792 3:0.67999917 
1 0:0.5976143 1:1 2:0.43645792 3:0.37143671 
1 0:-0.5976143 1:1 2:0.43645792 3:0.37143671 
1 0:0 1:1 2:0.43645792 3:0.37143671 
1 0:0 1:1 2:0.43645792 3:0.37143671 
1 0:1.7928429 1:1 2:0.43645792 3:0.15689964 
1 0:1.1952286 1:1 2:0.43645792 3:0.15689964 
1 0:-1.1952286 1:1 2:0.43645792 3:0.15689964 
1 0:-1.7928429 1:1 2:0.43645792 3:0.15689964 
-1 0:1.7928429 4:1 2:1.3496622 3:-0.20590807 
-1 0:1.7928429 6:1 2:1.3496622 3:0.23821006 
1 0:0 1:1 2:0.43645792 3:0.15689964 
0.5278917249918667 0:-1.7928429 1:1 2:0.43645792 3:0.67999917 
1 0:0.5976143 1:1 2:0.43645792 3:1.8135657 
1 0:-0.5976143 1:1 2:0.43645792 3:1.8135657 
1 0:0 1:1 2:0.43645792 3:1.8135657 
1 0:0 1:1 2:0.43645792 3:1.8135657 
1 0:1.7928429 1:1 2:0.43645792 3:1.8135657 
1 0:1.1952286 1:1 2:0.43645792 3:1.8135657 
1 0:-1.1952286 1:1 2:0.43645792 3:1.8135657 
1 0:-1.7928429 1:1 2:0.43645792 3:1.8135657 
1 0:0 1:1 2:0.43645792 3:1.8135657 
1 0:0 1:1 2:0.43645792 3:1.8135657 
1 0:1.1952286 1:1 2:0.43645792 3:1.2314458 
1 0:-1.1952286 1:1 2:0.43645792 3:1.2314458 
0.3221113161184893 0:-1.1952286 1:1 2:0.43645792 3:0.9693386 
1 0:1.1952286 1:1 2:0.43645792 3:0.67999917 
1 0:0.5976143 1:1 2:0.43645792 3:0.67999917 
1 0:0 1:1 2:0.43645792 3:0.67999917 
1 0:0 1:1 2:0.43645792 3:0.67999917 
0.2800976324380713 0:1.1952286 1:1 2:0.43645792 3:0.9693386 
0.7345280225597974 0:1.7928429 1:1 2:0.43645792 3:0.67999917 
1 0:-0.5976143 1:1 2:0.43645792 3:0.67999917 
1 0:-1.1952286 1:1 2:0.43645792 3:0.67999917 
1 0:0 1:1 2:0.43645792 3:0.67999917 
1 0:0 1:1 2:0.43645792 3:0.67999917 
1 0:1.1952286 9:1 2:0.43645792 3:0.83328443 
1 0:0.5976143 9:1 2:0.43645792 3:0.83328443 
1 0:-1.7928429 9:1 2:0.43645792 3:0.83328443 
1 0:0 9:1 2:0.43645792 3:0.83328443 
1 0:0 9:1 2:0.43645792 3:0.83328443 
1 0:1.7928429 9:1 2:0.43645792 3:0.57798516 
1 0:1.1952286 9:1 2:0.43645792 3:0.57798516 
1 0:-1.1952286 9:1 2:0.43645792 3:0.57798516 
1 0:-1.7928429 9:1 2:0.43645792 3:0.57798516 
1 0:0 9:1 2:0.43645792 3:0.57798516 
1 0:0 9:1 2:0.43645792 3:0.57798516 
1 0:1.7928429 9:1 2:0.43645792 3:0.83328443 
1 0:-0.5976143 9:1 2:0.43645792 3:0.83328443 
1 0:-1.1952286 9:1 2:0.43645792 3:0.83328443 
1 0:0 9:1 2:0.43645792 3:0.83328443 
1 0:0 9:1 2:0.43645792 3:0.83328443 
1 0:0.5976143 9:1 2:0.43645792 3:0.57798516 
1 0:-0.5976143 9:1 2:0.43645792 3:0.57798516 
1 0:0 9:1 2:0.43645792 3:0.57798516 
1 0:0 9:1 2:0.43645792 3:0.57798516 
-1 0:1.7928429 4:1 2:1.3496622 3:-0.38277639 
1 0:0 9:1 2:0.43645792 3:0.12263795 
-1 0:0 9:1 2:0.43645792 3:1.2587832 
-1 0:0 9:1 2:0.43645792 3:1.2587832 
1 0:1.1952286 9:1 2:0.43645792 3:0.75611914 
1 0:0.5976143 9:1 2:0.43645792 3:0.75611914 
-1 0:0 9:1 2:0.43645792 3:1.2587832 
-1 0:0 9:1 2:0.43645792 3:1.2587832 
0.6291216524527026 0:1.7928429 9:1 2:0.43645792 3:0.75611914 
1 0:-0.5976143 9:1 2:0.43645792 3:0.75611914 
1 0:-1.1952286 9:1 2:0.43645792 3:0.75611914 
1 0:0 9:1 2:0.43645792 3:0.75611914 
1 0:0 9:1 2:0.43645792 3:0.75611914 
1 0:0.5976143 9:1 2:0.43645792 3:0.40241496 
1 0:-0.5976143 9:1 2:0.43645792 3:0.40241496 
1 0:0 9:1 2:0.43645792 3:0.40241496 
1 0:0 9:1 2:0.43645792 3:0.40241496 
1 0:1.7928429 9:1 2:0.43645792 3:0.12263795 
1 0:1.1952286 9:1 2:0.43645792 3:0.12263795 
1 0:-1.1952286 9:1 2:0.43645792 3:0.12263795 
1 0:-1.7928429 9:1 2:0.43645792 3:0.12263795 
0.6291217004374765 0:-1.7928429 9:1 2:0.43645792 3:0.75611914 
0.1494324591977943 0:0 9:1 2:0.43645792 3:0.75611914 
0.4276003419507513 0:0 9:1 2:0.43645792 3:0.75611914 
1 0:1.7928429 9:1 2:0.43645792 3:0.40241496 
1 0:1.1952286 9:1 2:0.43645792 3:0.40241496 
1 0:-1.1952286 9:1 2:0.43645792 3:0.40241496 
1 0:-1.7928429 9:1 2:0.43645792 3:0.40241496 
1 0:0 9:1 2:0.43645792 3:0.40241496 
1 0:0 9:1 2:0.43645792 3:0.40241496 
1 0:0.5976143 9:1 2:0.43645792 3:0.12263795 
1 0:-0.5976143 9:1 2:0.43645792 3:0.12263795 
1 0:0 9:1 2:0.43645792 3:0.12263795 
1 0:0 9:1 2:0.43645792 3:0.12263795 
1 0:0 9:1 2:0.43645792 3:0.12263795 
1 0:0 5:1 2:0.43645792 3:-0.75008281 
1 0:-0.5976143 5:1 2:0.43645792 3:0.37610307 
1 0:-1.1952286 5:1 2:0.43645792 3:0.37610307 
1 0:0 5:1 2:0.43645792 3:0.37610307 
1 0:0 5:1 2:0.43645792 3:0.37610307 
1 0:1.1952286 5:1 2:0.43645792 3:0.15471177 
1 0:-1.1952286 5:1 2:0.43645792 3:0.15471177 
0.7421820046262119 0:0 5:1 2:0.43645792 3:0.15471177 
0.3292222163429972 0:0 5:1 2:0.43645792 3:0.15471177 
1 0:0.5976143 5:1 2:0.43645792 3:-0.12977238 
1 0:-0.5976143 5:1 2:0.43645792 3:-0.12977238 
1 0:0 5:1 2:0.43645792 3:-0.12977238 
1 0:0 5:1 2:0.43645792 3:-0.12977238 
1 0:1.7928429 5:1 2:0.43645792 3:-0.75008281 
1 0:1.1952286 5:1 2:0.43645792 3:-0.75008281 
1 0:-1.1952286 5:1 2:0.43645792 3:-0.75008281 
1 0:-1.7928429 5:1 2:0.43645792 3:-0.75008281 
1 0:1.1952286 5:1 2:0.43645792 3:0.37610307 
1 0:0.5976143 5:1 2:0.43645792 3:0.37610307 
1 0:-1.7928429 5:1 2:0.43645792 3:0.37610307 
1 0:0 5:1 2:0.43645792 3:0.37610307 
1 0:0 5:1 2:0.43645792 3:0.37610307 
1 0:0.5976143 5:1 2:0.43645792 3:0.15471177 
1 0:-0.5976143 5:1 2:0.43645792 3:0.15471177 
1 0:0 5:1 2:0.43645792 3:0.15471177 
1 0:0 5:1 2:0.43645792 3:0.15471177 
1 0:1.7928429 5:1 2:0.43645792 3:-0.12977238 
1 0:1.1952286 5:1 2:0.43645792 3:-0.12977238 
1 0:-1.1952286 5:1 2:0.43645792 3:-0.12977238 
1 0:-1.7928429 5:1 2:0.43645792 3:-0.12977238 
1 0:0 5:1 2:0.43645792 3:-0.12977238 
1 0:0 5:1 2:0.43645792 3:-0.12977238 
1 0:1.7928429 5:1 2:0.43645792 3:-0.59151453 
1 0:-1.7928429 5:1 2:0.43645792 3:-0.59151453 
1 0:0.5976143 5:1 2:0.43645792 3:-0.75008281 
1 0:-0.5976143 5:1 2:0.43645792 3:-0.75008281 
1 0:0 5:1 2:0.43645792 3:-0.75008281 
1 0:0 5:1 2:0.43645792 3:-0.75008281 
1 0:0 5:1 2:0.43645792 3:-0.75008281 
1 0:0.5976143 5:1 2:0.43645792 3:0.59996233 
1 0:-0.5976143 5:1 2:0.43645792 3:0.59996233 
0.8169451315389813 0:0 5:1 2:0.43645792 3:0.59996233 
1 0:0 5:1 2:0.43645792 3:0.59996233 
0.2686989648032213 0:1.7928429 5:1 2:0.43645792 3:0.59996233 
1 0:1.1952286 5:1 2:0.43645792 3:0.59996233 
1 0:-1.1952286 5:1 2:0.43645792 3:0.59996233 
0.2686989628767114 0:-1.7928429 5:1 2:0.43645792 3:0.59996233 
1 0:0 5:1 2:0.43645792 3:0.59996233 
0.3193488617768164 0:0 5:1 2:0.43645792 3:0.59996233 
1 0:1.7928429 5:1 2:0.43645792 3:0.097475636 
1 0:-0.5976143 5:1 2:0.43645792 3:0.097475636 
1 0:-1.1952286 5:1 2:0.43645792 3:0.097475636 
1 0:0 5:1 2:0.43645792 3:0.097475636 
1 0:0 5:1 2:0.43645792 3:0.097475636 
1 0:1.1952286 5:1 2:0.43645792 3:-0.15074658 
1 0:0.5976143 5:1 2:0.43645792 3:-0.15074658 
1 0:-1.7928429 5:1 2:0.43645792 3:-0.15074658 
1 0:0 5:1 2:0.43645792 3:-0.15074658 
1 0:1.1952286 5:1 2:0.43645792 3:0.097475636 
1 0:0.5976143 5:1 2:0.43645792 3:0.097475636 
1 0:-1.7928429 5:1 2:0.43645792 3:0.097475636 
1 0:0 5:1 2:0.43645792 3:0.097475636 
1 0:0 5:1 2:0.43645792 3:0.097475636 
1 0:1.7928429 5:1 2:0.43645792 3:-0.15074658 
1 0:-0.5976143 5:1 2:0.43645792 3:-0.15074658 
1 0:-1.1952286 5:1 2:0.43645792 3:-0.15074658 
1 0:0 5:1 2:0.43645792 3:-0.15074658 
1 0:0 5:1 2:0.43645792 3:-0.15074658 
1 0:0 5:1 2:0.43645792 3:-0.15074658 
-1 0:0 5:1 2:0.43645792 3:-0.50149 
-1 0:1.7928429 5:1 2:0.43645792 3:0.25103437 
-1 0:0.5976143 5:1 2:0.43645792 3:0.25103437 
-1 0:-1.7928429 5:1 2:0.43645792 3:0.25103437 
-1 0:0 5:1 2:0.43645792 3:0.25103437 
-1 0:0 5:1 2:0.43645792 3:0.25103437 
-1 0:0.5976143 5:1 2:0.43645792 3:-0.28237683 
-1 0:-0.5976143 5:1 2:0.43645792 3:0.25103437 
-1 0:-1.1952286 5:1 2:0.43645792 3:0.25103437 
-1 0:0 5:1 2:0.43645792 3:0.25103437 
-1 0:0 5:1 2:0.43645792 3:0.25103437 
-0.1482377153917495 0:1.7928429 5:1 2:0.43645792 3:-0.28237683 
-1 0:-0.5976143 5:1 2:0.43645792 3:-0.28237683 
-1 0:0 5:1 2:0.43645792 3:-0.28237683 
-1 0:0 5:1 2:0.43645792 3:-0.28237683 
-1 0:0.5976143 5:1 2:0.43645792 3:-0.50149 
-1 0:-0.5976143 5:1 2:0.43645792 3:-0.50149 
-1 0:0 5:1 2:0.43645792 3:-0.50149 
-1 0:0 5:1 2:0.43645792 3:-0.50149 
-0.1482377307467961 0:-1.7928429 5:1 2:0.43645792 3:-0.28237683 
-1 0:0 5:1 2:0.43645792 3:-0.28237683 
-1 0:0 5:1 2:0.43645792 3:-0.28237683 
-1 0:1.7928429 5:1 2:0.43645792 3:-0.50149 
-1 0:1.1952286 5:1 2:0.43645792 3:-0.50149 
-1 0:-1.1952286 5:1 2:0.43645792 3:-0.50149 
-1 0:-1.7928429 5:1 2:0.43645792 3:-0.50149 
-1 0:0 5:1 2:0.43645792 3:-0.50149 
1 0:0 4:1 2:0.43645792 3:-0.93507078 
1 0:1.7928429 4:1 2:0.43645792 3:-0.93507078 
1 0:1.1952286 4:1 2:0.43645792 3:-0.93507078 
1 0:-1.1952286 4:1 2:0.43645792 3:-0.93507078 
1 0:-1.7928429 4:1 2:0.43645792 3:-0.93507078 
1 0:0.5976143 4:1 2:0.43645792 3:-0.93507078 
1 0:-0.5976143 4:1 2:0.43645792 3:-0.93507078 
1 0:0 4:1 2:0.43645792 3:-0.93507078 
1 0:0 4:1 2:0.43645792 3:-0.93507078 
1 0:0 4:1 2:0.43645792 3:-0.93507078 
1 0:-1.1952286 6:1 2:-1.3362327 3:-1.1810066 
1 0:1.1952286 6:1 2:-1.3362327 3:-1.1810066 
0.1673312679904515 0:-1.1952286 6:1 2:-1.3362327 3:-1.1810066 
1 0:1.1952286 6:1 2:-1.3362327 3:-1.1810066 
0.5453432201038199 0:1.1952286 6:1 2:-1.3362327 3:-1.1810066 
0.3398596529708661 0:-1.1952286 6:1 2:-1.3362327 3:-1.1810066 
1 0:-1.1952286 6:1 2:-1.3362327 3:-1.1810066 
0.5918631405271879 0:1.7928429 6:1 2:-1.3362327 3:-1.1810066 
1 0:-1.1952286 6:1 2:-1.3362327 3:-1.1810066 
0.5801841627859492 0:1.7928429 6:1 2:-1.3362327 3:-1.1810066 
0.9627970395874721 0:1.1952286 6:1 2:-1.3362327 3:-1.1810066 
1 0:-1.1952286 6:1 2:-1.3362327 3:-1.1810066 
0.593299884984541 0:-1.7928429 6:1 2:-1.3362327 3:-1.1810066 
0.9990519716645854 0:1.1952286 6:1 2:-1.3362327 3:-1.1810066 
0.5792630137342305 0:-1.7928429 6:1 2:-1.3362327 3:-1.1810066 
1 0:1.7928429 9:1 2:1.3496622 3:1.9477111 
1 0:1.1952286 9:1 2:1.3496622 3:1.9477111 
1 0:-1.1952286 9:1 2:1.3496622 3:1.9477111 
1 0:-1.7928429 9:1 2:1.3496622 3:1.9477111 
-1 0:1.7928429 9:1 2:1.3496622 3:1.3338176 
-1 0:1.1952286 9:1 2:1.3496622 3:1.3338176 
-1 0:-1.1952286 9:1 2:1.3496622 3:1.3338176 
-1 0:-1.7928429 9:1 2:1.3496622 3:1.3338176 
-1 0:0 9:1 2:1.3496622 3:1.3338176 
-1 0:1.1952286 9:1 2:1.3496622 3:1.0276907 
-1 0:0.5976143 9:1 2:1.3496622 3:1.0276907 
-1 0:-1.7928429 9:1 2:1.3496622 3:1.0276907 
-1 0:0 9:1 2:1.3496622 3:1.0276907 
-1 0:0 9:1 2:1.3496622 3:1.0276907 
-1 0:1.7928429 9:1 2:1.3496622 3:0.71336462 
-0.6606179208527815 0:-1.1952286 9:1 2:1.3496622 3:0.71336462 
1 0:0.5976143 9:1 2:1.3496622 3:1.9477111 
1 0:-0.5976143 9:1 2:1.3496622 3:1.9477111 
0.2727081576873495 0:1.1952286 9:1 2:1.3496622 3:1.6336008 
0.2727081871772296 0:-1.1952286 9:1 2:1.3496622 3:1.6336008 
-1 0:0.5976143 9:1 2:1.3496622 3:1.3338176 
-1 0:-0.5976143 9:1 2:1.3496622 3:1.3338176 
-1 0:0 9:1 2:1.3496622 3:1.3338176 
-1 0:0 9:1 2:1.3496622 3:1.3338176 
-1 0:0 9:1 2:1.3496622 3:1.3338176 
-1 0:1.7928429 9:1 2:1.3496622 3:1.0276907 
-1 0:-0.5976143 9:1 2:1.3496622 3:1.0276907 
-1 0:-1.1952286 9:1 2:1.3496622 3:1.0276907 
-1 0:0 9:1 2:1.3496622 3:1.0276907 
-1 0:0 9:1 2:1.3496622 3:1.0276907 
-0.660617915336118 0:1.1952286 9:1 2:1.3496622 3:0.71336462 
-1 0:-1.7928429 9:1 2:1.3496622 3:0.71336462 
0.9909440275692584 0:1.7928429 9:1 2:1.3496622 3:1.8073209 
1 0:-0.5976143 9:1 2:1.3496622 3:1.8073209 
1 0:-1.1952286 9:1 2:1.3496622 3:1.8073209 
1 0:0 9:1 2:1.3496622 3:1.8073209 
1 0:0 9:1 2:1.3496622 3:1.8073209 
-1 0:1.7928429 9:1 2:1.3496622 3:1.2258707 
-1 0:-0.5976143 9:1 2:1.3496622 3:1.2258707 
-1 0:-1.1952286 9:1 2:1.3496622 3:1.2258707 
1 0:1.1952286 9:1 2:1.3496622 3:1.8073209 
1 0:0.5976143 9:1 2:1.3496622 3:1.8073209 
0.9909439770574501 0:-1.7928429 9:1 2:1.3496622 3:1.8073209 
1 0:0 9:1 2:1.3496622 3:1.8073209 
1 0:0 9:1 2:1.3496622 3:1.8073209 
-1 0:1.1952286 9:1 2:1.3496622 3:1.2258707 
-1 0:0.5976143 9:1 2:1.3496622 3:1.2258707 
-1 0:-1.7928429 9:1 2:1.3496622 3:1.2258707 
-1 0:0 9:1 2:1.3496622 3:1.2258707 
-1 0:0 9:1 2:1.3496622 3:1.2258707 
-1 0:1.7928429 9:1 2:1.3496622 3:0.81400168 
-1 0:-0.5976143 9:1 2:1.3496622 3:0.81400168 
-1 0:-1.1952286 9:1 2:1.3496622 3:0.81400168 
-1 0:0 9:1 2:1.3496622 3:0.81400168 
-1 0:0 9:1 2:1.3496622 3:0.81400168 
1 0:0.5976143 9:1 2:1.3496622 3:0.56911419 
1 0:0 9:1 2:1.3496622 3:0.56911419 
1 0:0 9:1 2:1.3496622 3:0.56911419 
-1 0:0 9:1 2:1.3496622 3:1.2258707 
-1 0:0 9:1 2:1.3496622 3:1.2258707 
-1 0:1.1952286 9:1 2:1.3496622 3:0.81400168 
-1 0:0.5976143 9:1 2:1.3496622 3:0.81400168 
-1 0:-1.7928429 9:1 2:1.3496622 3:0.81400168 
-1 0:0 9:1 2:1.3496622 3:0.81400168 
-1 0:0 9:1 2:1.3496622 3:0.81400168 
1 0:-0.5976143 9:1 2:1.3496622 3:0.56911419 
1 0:0 9:1 2:1.3496622 3:0.56911419 
1 0:0 9:1 2:1.3496622 3:0.56911419 
1 0:-1.1952286 7:1 2:-1.3362327 3:-1.1810066 
1 0:1.1952286 7:1 2:-1.3362327 3:-1.1810066 
0.849943068348896 0:-1.1952286 7:1 2:-1.3362327 3:-1.1810066 
1 0:1.1952286 7:1 2:-1.3362327 3:-1.1810066 
0.0177242549993 0:-1.7928429 7:1 2:-1.3362327 3:-1.1810066 
0.02082316538287654 0:1.7928429 7:1 2:-1.3362327 3:-1.1810066 
0.4700223231137171 0:-1.1952286 7:1 2:-1.3362327 3:-1.1810066 
1 0:-1.1952286 7:1 2:-1.3362327 3:-1.1810066 
0.5598631477858651 0:1.1952286 7:1 2:-1.3362327 3:-1.1810066 
0.5193790523481144 0:1.7928429 7:1 2:-1.3362327 3:-1.1810066 
0.9999998698323332 0:-1.1952286 7:1 2:-1.3362327 3:-1.1810066 
0.8221154197491051 0:1.7928429 7:1 2:-1.3362327 3:-1.1810066 
0.7601011072461983 0:1.1952286 7:1 2:-1.3362327 3:-1.1810066 
1 0:1.1952286 7:1 2:-1.3362327 3:-1.1810066 
0.5958425319588334 0:-1.7928429 7:1 2:-1.3362327 3:-1.1810066 
0.7487500668278412 0:-1.7928429 7:1 2:-1.3362327 3:-1.1810066 
1 0:1.7928429 8:1 2:-1.3362327 3:-1.1810066 
0.4087316117314629 0:1.1952286 8:1 2:-1.3362327 3:-1.1810066 
1 0:-1.7928429 8:1 2:-1.3362327 3:-1.1810066 
0.1894483861247815 0:-1.1952286 8:1 2:-1.3362327 3:-1.1810066 
0.4711640101211724 0:1.1952286 8:1 2:-1.3362327 3:-1.1810066 
1 0:1.7928429 8:1 2:-1.3362327 3:-1.1810066 
0.6904472277884134 0:-1.1952286 8:1 2:-1.3362327 3:-1.1810066 
1 0:-1.7928429 8:1 2:-1.3362327 3:-1.1810066 
-0.2248121045024927 0:-1.7928429 1:1 2:-1.3362327 3:-0.98157186 
-0.1853034697851836 0:1.7928429 1:1 2:-1.3362327 3:-0.98157186 
-0.9999997389473139 0:0 1:1 2:-1.3362327 3:-0.98157186 
-1 0:0 1:1 2:-1.3362327 3:-0.98157186 
-1 0:0 1:1 2:-1.3362327 3:-0.98157186 
-1 0:0 1:1 2:-1.3362327 3:-0.98157186 
-0.4666920213270959 0:0 1:1 2:-1.3362327 3:-0.98157186 
1 0:0.5976143 1:1 2:-1.3362327 3:-1.1810066 
1 0:1.7928429 1:1 2:-1.3362327 3:-1.1810066 
1 0:1.1952286 1:1 2:-1.3362327 3:-1.1810066 
1 0:0 1:1 2:-1.3362327 3:-1.1810066 
1 0:0 1:1 2:-1.3362327 3:-1.1810066 
1 0:-1.1952286 1:1 2:-1.3362327 3:-1.1810066 
1 0:-1.7928429 1:1 2:-1.3362327 3:-1.1810066 
1 0:-0.5976143 1:1 2:-1.3362327 3:-1.1810066 
1 0:-1.7928429 1:1 2:-1.3362327 3:-1.1810066 
1 0:0 1:1 2:-1.3362327 3:-1.1810066 
1 0:0 1:1 2:-1.3362327 3:-1.1810066 
1 0:1.1952286 1:1 2:-1.3362327 3:-1.1810066 
1 0:0.5976143 1:1 2:-1.3362327 3:-1.1810066 
1 0:0 1:1 2:-1.3362327 3:-1.1810066 
1 0:0 1:1 2:-1.3362327 3:-1.1810066 
1 0:1.7928429 1:1 2:-1.3362327 3:-1.1810066 
1 0:-0.5976143 1:1 2:-1.3362327 3:-1.1810066 
1 0:-1.1952286 1:1 2:-1.3362327 3:-1.1810066 
1 0:0 1:1 2:-1.3362327 3:-1.1810066 
-0.1506900672357285 0:1.7928429 1:1 2:-1.3362327 3:-0.98157186 
-1 0:0 1:1 2:-1.3362327 3:-0.98157186 
-1 0:0 1:1 2:-1.3362327 3:-0.98157186 
-0.1111812684941162 0:-1.7928429 1:1 2:-1.3362327 3:-0.98157186 
-1 0:0 1:1 2:-1.3362327 3:-0.98157186 
-1 0:0 1:1 2:-1.3362327 3:-0.98157186 
-1 0:0 1:1 2:-1.3362327 3:-0.98157186 
-1 0:0 1:1 2:-1.3362327 3:-0.98157186 
-1 0:0 1:1 2:-1.3362327 3:-0.98157186 
-1 0:0 1:1 2:-1.3362327 3:-0.98157186 
-1 0:0 1:1 2:-1.3362327 3:-0.98157186 
-0.3601466867268329 0:-1.7928429 5:1 2:1.3496622 3:0.67340087 
-1 0:-1.7928429 5:1 2:1.3496622 3:0.38384744 
1 0:1.7928429 5:1 2:1.3496622 3:0.039607775 
-0.3601466055562909 0:1.7928429 5:1 2:1.3496622 3:0.67340087 
-1 0:1.7928429 5:1 2:1.3496622 3:0.38384744 
1 0:1.1952286 5:1 2:1.3496622 3:0.039607775 
1 0:0.5976143 5:1 2:1.3496622 3:0.039607775 
1 0:-1.7928429 5:1 2:1.3496622 3:0.039607775 
1 0:0 5:1 2:1.3496622 3:0.039607775 
1 0:0 5:1 2:1.3496622 3:0.039607775 
1 0:-0.5976143 5:1 2:1.3496622 3:0.039607775 
1 0:-1.1952286 5:1 2:1.3496622 3:0.039607775 
1 0:0 5:1 2:1.3496622 3:0.039607775 
1 0:0 5:1 2:1.3496622 3:0.039607775 
1 0:-1.1952286 9:1 2:-1.3362327 3:-1.1810066 
1 0:1.1952286 9:1 2:-1.3362327 3:-1.1810066 
1 0:-1.1952286 9:1 2:-1.3362327 3:-1.1810066 
0.9989604579923905 0:1.1952286 9:1 2:-1.3362327 3:-1.1810066 
8.813894084144496e-09 0:1.7928429 9:1 2:-1.3362327 3:-1.1810066 
0.459833506032886 0:-1.1952286 9:1 2:-1.3362327 3:-1.1810066 
0.486828878221465 0:1.1952286 9:1 2:-1.3362327 3:-1.1810066 
0.09110823383906708 0:-1.7928429 9:1 2:-1.3362327 3:-1.1810066 
0.06200832036208944 0:1.7928429 9:1 2:-1.3362327 3:-1.1810066 
0.02250249726098045 0:-1.7928429 9:1 2:-1.3362327 3:-1.1810066 
1 0:1.7928429 5:1 2:1.3496622 3:1.4615797 
1 0:1.1952286 5:1 2:1.3496622 3:1.4615797 
1 0:0.5976143 5:1 2:1.3496622 3:1.4615797 
1 0:0 5:1 2:1.3496622 3:1.4615797 
1 0:0 5:1 2:1.3496622 3:1.4615797 
1 0:-0.5976143 5:1 2:1.3496622 3:1.4615797 
1 0:-1.1952286 5:1 2:1.3496622 3:1.4615797 
1 0:-1.7928429 5:1 2:1.3496622 3:1.4615797 
1 0:0 5:1 2:1.3496622 3:1.4615797 
1 0:0 5:1 2:1.3496622 3:1.4615797 
-1 0:1.7928429 5:1 2:1.3496622 3:0.8522654 
-1 0:1.1952286 5:1 2:1.3496622 3:0.8522654 
-1 0:-1.1952286 5:1 2:1.3496622 3:0.8522654 
-1 0:-1.7928429 5:1 2:1.3496622 3:0.8522654 
-1 0:0 5:1 2:1.3496622 3:0.8522654 
-1 0:0 5:1 2:1.3496622 3:0.8522654 
-1 0:1.7928429 5:1 2:1.3496622 3:0.23614321 
-1 0:0.5976143 5:1 2:1.3496622 3:0.8522654 
-1 0:-0.5976143 5:1 2:1.3496622 3:0.8522654 
-1 0:0 5:1 2:1.3496622 3:0.8522654 
-1 0:0 5:1 2:1.3496622 3:0.8522654 
-1 0:1.7928429 5:1 2:1.3496622 3:0.54250234 
-1 0:-1.7928429 5:1 2:1.3496622 3:0.54250234 
-1 0:-1.7928429 5:1 2:1.3496622 3:0.23614321 
-0.9572883929162489 0:0 5:1 2:1.3496622 3:0.23614321 
-1 0:0 5:1 2:1.3496622 3:0.23614321 
-1 0:0 5:1 2:1.3496622 3:0.23614321 
-0.6268467046830943 0:0 5:1 2:1.3496622 3:0.23614321 
-1 0:1.7928429 5:1 2:1.3496622 3:0.66448705 
-1 0:-0.5976143 5:1 2:1.3496622 3:0.66448705 
-0.3048336782406829 0:-1.1952286 5:1 2:1.3496622 3:0.66448705 
-1 0:0 5:1 2:1.3496622 3:0.66448705 
-1 0:0 5:1 2:1.3496622 3:0.66448705 
-1 0:1.1952286 5:1 2:1.3496622 3:0.40119306 
-1 0:0.5976143 5:1 2:1.3496622 3:0.40119306 
-1 0:-1.7928429 5:1 2:1.3496622 3:0.40119306 
-1 0:0 5:1 2:1.3496622 3:0.40119306 
-1 0:0 5:1 2:1.3496622 3:0.40119306 
-0.3048337932661163 0:1.1952286 5:1 2:1.3496622 3:0.66448705 
-1 0:0.5976143 5:1 2:1.3496622 3:0.66448705 
-1 0:-1.7928429 5:1 2:1.3496622 3:0.66448705 
-1 0:0 5:1 2:1.3496622 3:0.66448705 
-1 0:0 5:1 2:1.3496622 3:0.66448705 
-1 0:1.7928429 5:1 2:1.3496622 3:0.40119306 
-1 0:-0.5976143 5:1 2:1.3496622 3:0.40119306 
-1 0:-1.1952286 5:1 2:1.3496622 3:0.40119306 
-1 0:0 5:1 2:1.3496622 3:0.40119306 
-1 0:0 5:1 2:1.3496622 3:0.40119306 
-1 0:-1.7928429 4:1 2:1.3496622 3:-0.20590807 
-0.9858710189340306 0:0 4:1 2:1.3496622 3:-0.54127897 
-0.1422694926804476 0:0 4:1 2:1.3496622 3:-0.54127897 
-0.2382072868073647 0:0 4:1 2:1.3496622 3:-0.38277639 
-1 0:-1.7928429 4:1 2:1.3496622 3:-0.38277639 
-0.8651481125685311 0:0 4:1 2:1.3496622 3:-0.38277639 
-1 0:1.7928429 6:1 2:1.3496622 3:0.12866204 
-1 0:-1.7928429 6:1 2:1.3496622 3:0.12866204 
1 0:0 6:1 2:1.3496622 3:-0.15017796 
1 0:-0.5976143 6:1 2:1.3496622 3:-0.15017796 
1 0:-1.1952286 6:1 2:1.3496622 3:-0.15017796 
1 0:0 6:1 2:1.3496622 3:-0.15017796 
1 0:1.1952286 6:1 2:1.3496622 3:-0.15017796 
1 0:0.5976143 6:1 2:1.3496622 3:-0.15017796 
1 0:0 6:1 2:1.3496622 3:-0.15017796 
1 0:0 6:1 2:1.3496622 3:-0.15017796 
0.01517664952385986 0:1.7928429 9:1 2:-1.3362327 3:-1.1810066 
0.007394550946643159 0:1.1952286 9:1 2:-1.3362327 3:-1.1810066 
0.8526093713771017 0:1.7928429 9:1 2:-1.3362327 3:-1.1810066 
0.01776013270975206 0:1.1952286 9:1 2:-1.3362327 3:-1.1810066 
0.04716503106331778 0:-1.1952286 9:1 2:-1.3362327 3:-1.1810066 
0.9981771226686066 0:-1.7928429 9:1 2:-1.3362327 3:-1.1810066 
1 0:-1.7928429 9:1 2:-1.3362327 3:-1.1810066 
1 0:1.7928429 9:1 2:-1.3362327 3:-1.1810066 
1 0:1.1952286 9:1 2:-1.3362327 3:-1.1810066 
1 0:-1.1952286 9:1 2:-1.3362327 3:-1.1810066 
0.9960544051609087 0:1.1952286 9:1 2:-1.3362327 3:-1.1810066 
0.6844646759599522 0:-1.7928429 9:1 2:-1.3362327 3:-1.1810066 
0.8664582118779253 0:1.7928429 9:1 2:-1.3362327 3:-1.1810066 
1 0:-1.1952286 9:1 2:-1.3362327 3:-1.1810066 
0.9999182499033572 0:-1.1952286 5:1 2:-1.3362327 3:-1.1810066 
1 0:1.1952286 5:1 2:-1.3362327 3:-1.1810066 
0.3728165929643701 0:-1.1952286 5:1 2:-1.3362327 3:-1.1810066 
0.411731419185498 0:1.1952286 5:1 2:-1.3362327 3:-1.1810066 
0.0003940589809969364 0:-1.7928429 5:1 2:-1.3362327 3:-1.1810066 
-0.9999901818829249 0:0 6:1 2:1.3496622 3:-0.48479157 
-1 0:1.1952286 6:1 2:1.3496622 3:0.23821006 
-1 0:-1.1952286 6:1 2:1.3496622 3:0.23821006 
-1 0:-1.7928429 6:1 2:1.3496622 3:0.23821006 
-1 0:0 6:1 2:1.3496622 3:0.23821006 
-1 0:0 6:1 2:1.3496622 3:0.23821006 
-1 0:1.1952286 6:1 2:1.3496622 3:-0.031889345 
-1 0:0.5976143 6:1 2:1.3496622 3:-0.031889345 
-1 0:-0.5976143 6:1 2:1.3496622 3:-0.031889345 
-1 0:-1.1952286 6:1 2:1.3496622 3:-0.031889345 
-1 0:0 6:1 2:1.3496622 3:-0.031889345 
-0.215482131642082 0:0.5976143 6:1 2:1.3496622 3:0.23821006 
-0.2154833121875373 0:-0.5976143 6:1 2:1.3496622 3:0.23821006 
-1 0:0 6:1 2:1.3496622 3:0.23821006 
-1 0:0 6:1 2:1.3496622 3:0.23821006 
-1 0:1.7928429 6:1 2:1.3496622 3:-0.031889345 
-1 0:-1.7928429 6:1 2:1.3496622 3:-0.031889345 
-1 0:0 6:1 2:1.3496622 3:-0.031889345 
-1 0:0 6:1 2:1.3496622 3:-0.031889345 
-1 0:0 6:1 2:1.3496622 3:-0.031889345 
-0.3140233844593708 0:-1.7928429 6:1 2:1.3496622 3:-0.22426471 
-1 0:0 6:1 2:1.3496622 3:-0.48479157 
-0.3140238170514456 0:1.7928429 6:1 2:1.3496622 3:-0.22426471 
-0.2926197852059734 0:0 6:1 2:1.3496622 3:-0.48479157 
-0.2842127896401551 0:0 6:1 2:1.3496622 3:-0.48479157 
0.99336131062786 0:-1.1952286 5:1 2:-1.3362327 3:-1.1810066 
1 0:1.1952286 5:1 2:-1.3362327 3:-1.1810066 
1 0:-1.1952286 5:1 2:-1.3362327 3:-1.1810066 
1 0:1.1952286 5:1 2:-1.3362327 3:-1.1810066 
0.7361640215360922 0:1.1952286 5:1 2:-1.3362327 3:-1.1810066 
0.03457623173927615 0:-1.7928429 5:1 2:-1.3362327 3:-1.1810066 
0.5218493434443282 0:-1.1952286 5:1 2:-1.3362327 3:-1.1810066 
0.6041350382998765 0:1.1952286 5:1 2:-1.3362327 3:-1.1810066 
0.9142548586833505 0:-1.7928429 5:1 2:-1.3362327 3:-1.1810066 
0.9492254998529771 0:1.7928429 5:1 2:-1.3362327 3:-1.1810066 
1 0:-1.1952286 5:1 2:-1.3362327 3:-1.1810066 
0.3294137822032265 0:1.7928429 4:1 2:-1.3362327 3:-1.1810066 
0.2967768559060321 0:1.1952286 4:1 2:-1.3362327 3:-1.1810066 
0.2286069721885249 0:-1.1952286 4:1 2:-1.3362327 3:-1.1810066 
0.3096746126683139 0:-1.7928429 4:1 2:-1.3362327 3:-1.1810066 
0.4902688866294064 0:1.7928429 4:1 2:-1.3362327 3:-1.1810066 
0.1102190375211167 0:1.1952286 4:1 2:-1.3362327 3:-1.1810066 
0.1783889244881203 0:-1.1952286 4:1 2:-1.3362327 3:-1.1810066 
0.510008054918738 0:-1.7928429 4:1 2:-1.3362327 3:-1.1810066 
-1 0:-1.7928429 7:1 2:1.3496622 3:-0.021637016 
-0.5136492855238257 0:1.7928429 7:1 2:1.3496622 3:1.2258707 
-0.5136492897744114 0:-1.7928429 7:1 2:1.3496622 3:1.2258707 
-1 0:0.5976143 7:1 2:1.3496622 3:0.81400168 
-1 0:-0.5976143 7:1 2:1.3496622 3:0.81400168 
-1 0:-1.7928429 7:1 2:1.3496622 3:0.81400168 
-1 0:0 7:1 2:1.3496622 3:0.81400168 
-1 0:0 7:1 2:1.3496622 3:0.81400168 
1 0:-0.5976143 7:1 2:1.3496622 3:0.56911419 
-1 0:1.7928429 7:1 2:1.3496622 3:0.81400168 
-1 0:1.1952286 7:1 2:1.3496622 3:0.81400168 
-1 0:-1.1952286 7:1 2:1.3496622 3:0.81400168 
-1 0:0 7:1 2:1.3496622 3:0.81400168 
-1 0:0 7:1 2:1.3496622 3:0.81400168 
1 0:0.5976143 7:1 2:1.3496622 3:0.56911419 
0.9443340181862513 0:0 7:1 2:1.3496622 3:0.56911419 
0.6825899223671644 0:0 7:1 2:1.3496622 3:0.56911419 
-1 0:1.7928429 7:1 2:1.3496622 3:0.25674967 
-1 0:-0.5976143 7:1 2:1.3496622 3:0.25674967 
-1 0:-1.1952286 7:1 2:1.3496622 3:0.25674967 
-1 0:0 7:1 2:1.3496622 3:0.25674967 
-1 0:1.7928429 7:1 2:1.3496622 3:-0.021637016 
-0.8332972415491759 0:0 7:1 2:1.3496622 3:-0.021637016 
-1 0:1.1952286 7:1 2:1.3496622 3:0.25674967 
-1 0:0.5976143 7:1 2:1.3496622 3:0.25674967 
-1 0:-1.7928429 7:1 2:1.3496622 3:0.25674967 
-1 0:0 7:1 2:1.3496622 3:0.25674967 
-1 0:0 7:1 2:1.3496622 3:0.25674967 
-1 0:0 7:1 2:1.3496622 3:0.25674967 
-0.08219277897773011 0:0 7:1 2:1.3496622 3:-0.021637016 
-0.06066324037291135 0:0 7:1 2:1.3496622 3:-0.021637016 
-1 0:0 8:1 2:1.3496622 3:1.3338176 
0.7600904494723055 0:0.5976143 8:1 2:1.3496622 3:1.9477111 
0.7600888613274942 0:-0.5976143 8:1 2:1.3496622 3:1.9477111 
0.09568070122435782 0:1.7928429 8:1 2:1.3496622 3:1.9477111 
1 0:1.1952286 8:1 2:1.3496622 3:1.9477111 
1 0:-1.1952286 8:1 2:1.3496622 3:1.9477111 
0.09568134598486099 0:-1.7928429 8:1 2:1.3496622 3:1.9477111 
-1 0:0.5976143 8:1 2:1.3496622 3:1.3338176 
-1 0:-0.5976143 8:1 2:1.3496622 3:1.3338176 
-1 0:0 8:1 2:1.3496622 3:1.3338176 
-1 0:0 8:1 2:1.3496622 3:1.3338176 
-1 0:1.7928429 8:1 2:1.3496622 3:1.3338176 
-1 0:1.1952286 8:1 2:1.3496622 3:1.3338176 
-1 0:-1.1952286 8:1 2:1.3496622 3:1.3338176 
-1 0:-1.7928429 8:1 2:1.3496622 3:1.3338176 
-1 0:0 8:1 2:1.3496622 3:1.3338176 
1 0:0 1:1 2:1.3496622 3:1.1242906 
1 0:1.7928429 1:1 2:1.3496622 3:3.1143566 
1 0:-0.5976143 1:1 2:1.3496622 3:3.1143566 
1 0:-1.1952286 1:1 2:1.3496622 3:3.1143566 
1 0:0 1:1 2:1.3496622 3:3.1143566 
1 0:0 1:1 2:1.3496622 3:3.1143566 
1 0:1.1952286 1:1 2:1.3496622 3:2.7739524 
1 0:-1.1952286 1:1 2:1.3496622 3:2.7739524 
1 0:-1.7928429 1:1 2:1.3496622 3:2.7739524 
-1 0:0.5976143 1:1 2:1.3496622 3:2.4335533 
-1 0:-0.5976143 1:1 2:1.3496622 3:2.4335533 
-1 0:0 1:1 2:1.3496622 3:2.4335533 
-1 0:0 1:1 2:1.3496622 3:2.4335533 
1 0:1.1952286 1:1 2:1.3496622 3:3.1143566 
1 0:0.5976143 1:1 2:1.3496622 3:3.1143566 
1 0:-1.7928429 1:1 2:1.3496622 3:3.1143566 
1 0:0 1:1 2:1.3496622 3:3.1143566 
1 0:0 1:1 2:1.3496622 3:3.1143566 
1 0:1.7928429 1:1 2:1.3496622 3:2.7739524 
1 0:0.5976143 1:1 2:1.3496622 3:2.7739524 
1 0:-0.5976143 1:1 2:1.3496622 3:2.7739524 
-1 0:1.7928429 1:1 2:1.3496622 3:2.4335533 
-1 0:1.1952286 1:1 2:1.3496622 3:2.4335533 
-1 0:-1.1952286 1:1 2:1.3496622 3:2.4335533 
-1 0:-1.7928429 1:1 2:1.3496622 3:2.4335533 
-1 0:0 1:1 2:1.3496622 3:2.4335533 
-1 0:0 1:1 2:1.3496622 3:2.4335533 
1 0:1.1952286 1:1 2:1.3496622 3:1.752755 
1 0:-1.1952286 1:1 2:1.3496622 3:1.752755 
1 0:0 1:1 2:1.3496622 3:1.752755 
1 0:0 1:1 2:1.3496622 3:1.752755 
1 0:0.5976143 1:1 2:1.3496622 3:1.4646897 
1 0:-0.5976143 1:1 2:1.3496622 3:1.4646897 
1 0:0 1:1 2:1.3496622 3:1.4646897 
1 0:0 1:1 2:1.3496622 3:1.4646897 
0.1440232192641334 0:1.1952286 1:1 2:1.3496622 3:1.1242906 
0.1440226174838661 0:-1.1952286 1:1 2:1.3496622 3:1.1242906 
1 0:0.5976143 1:1 2:1.3496622 3:1.752755 
1 0:-0.5976143 1:1 2:1.3496622 3:1.752755 
1 0:0 1:1 2:1.3496622 3:1.752755 
1 0:0 1:1 2:1.3496622 3:1.752755 
1 0:1.7928429 1:1 2:1.3496622 3:1.4646897 
1 0:1.1952286 1:1 2:1.3496622 3:1.4646897 
1 0:-1.1952286 1:1 2:1.3496622 3:1.4646897 
1 0:-1.7928429 1:1 2:1.3496622 3:1.4646897 
1 0:0 1:1 2:1.3496622 3:1.4646897 
1 0:0 1:1 2:1.3496622 3:1.4646897 
1 0:0.5976143 1:1 2:1.3496622 3:1.1242906 
1 0:-0.5976143 1:1 2:1.3496622 3:1.1242906 
1 0:0 1:1 2:1.3496622 3:1.1242906 
1 0:0 1:1 2:1.3496622 3:1.1242906 
1 0:0 1:1 2:1.3496622 3:1.1242906 
