svm_type epsilon_svr
kernel_type rbf
gamma 0.1
nr_class 2
total_sv 1190
rho -2.92614
SV
1 0:-1.1952286 1:1 2:1.3496622 3:1.9144625 
1 0:-1.7928429 1:1 2:1.3496622 3:1.9144625 
1 0:0 1:1 2:1.3496622 3:1.9144625 
1 0:0 1:1 2:1.3496622 3:1.9144625 
-1 0:-1.7928429 1:1 2:1.3496622 3:1.5858119 
-1 0:0.5976143 1:1 2:1.3496622 3:1.2930693 
-1 0:-0.5976143 1:1 2:1.3496622 3:1.2930693 
-1 0:0 1:1 2:1.3496622 3:1.2930693 
-1 0:0 1:1 2:1.3496622 3:1.2930693 
-1 0:1.7928429 1:1 2:1.3496622 3:0.97309444 
-1 0:1.1952286 1:1 2:1.3496622 3:0.97309444 
-1 0:-0.5976143 1:1 2:1.3496622 3:0.97309444 
-1 0:-1.1952286 1:1 2:1.3496622 3:0.97309444 
1 0:1.7928429 1:1 2:1.3496622 3:1.9144625 
1 0:1.1952286 1:1 2:1.3496622 3:1.9144625 
1 0:0.5976143 1:1 2:1.3496622 3:1.9144625 
1 0:-0.5976143 1:1 2:1.3496622 3:1.9144625 
1 0:0 1:1 2:1.3496622 3:1.9144625 
1 0:0 1:1 2:1.3496622 3:1.9144625 
-1 0:1.7928429 1:1 2:1.3496622 3:1.5858119 
-1 0:1.7928429 1:1 2:1.3496622 3:1.2930693 
-1 0:1.1952286 1:1 2:1.3496622 3:1.2930693 
-1 0:-1.1952286 1:1 2:1.3496622 3:1.2930693 
-1 0:-1.7928429 1:1 2:1.3496622 3:1.2930693 
-1 0:0 1:1 2:1.3496622 3:1.2930693 
-1 0:0 1:1 2:1.3496622 3:1.2930693 
-1 0:0.5976143 1:1 2:1.3496622 3:0.97309444 
-1 0:-1.7928429 1:1 2:1.3496622 3:0.97309444 
-1 0:0 1:1 2:1.3496622 3:0.97309444 
-1 0:0 1:1 2:1.3496622 3:0.97309444 
-1 0:0 1:1 2:1.3496622 3:0.97309444 
-1 0:0 1:1 2:1.3496622 3:0.97309444 
-1 0:-1.7928429 1:1 2:1.3496622 3:0.97309444 
-0.2261593301655089 0:1.7928429 1:1 2:1.3496622 3:2.5449512 
-1 0:1.1952286 1:1 2:1.3496622 3:2.5449512 
-1 0:-0.5976143 1:1 2:1.3496622 3:2.5449512 
-1 0:-1.1952286 1:1 2:1.3496622 3:2.5449512 
-1 0:0 1:1 2:1.3496622 3:2.5449512 
-1 0:0 1:1 2:1.3496622 3:2.5449512 
-1 0:1.1952286 1:1 2:1.3496622 3:2.2345038 
-1 0:0.5976143 1:1 2:1.3496622 3:2.2345038 
-1 0:-1.7928429 1:1 2:1.3496622 3:2.2345038 
-1 0:0 1:1 2:1.3496622 3:2.2345038 
-1 0:0 1:1 2:1.3496622 3:2.2345038 
1 0:0.5976143 1:1 2:1.3496622 3:1.9144625 
1 0:-0.5976143 1:1 2:1.3496622 3:1.9144625 
1 0:0 1:1 2:1.3496622 3:1.9144625 
1 0:0 1:1 2:1.3496622 3:1.9144625 
-1 0:1.7928429 1:1 2:1.3496622 3:1.5858119 
-1 0:0.5976143 1:1 2:1.3496622 3:2.5449512 
-0.2261592584961049 0:-1.7928429 1:1 2:1.3496622 3:2.5449512 
-1 0:0 1:1 2:1.3496622 3:2.5449512 
-1 0:0 1:1 2:1.3496622 3:2.5449512 
-1 0:1.7928429 1:1 2:1.3496622 3:2.2345038 
-1 0:-0.5976143 1:1 2:1.3496622 3:2.2345038 
-1 0:-1.1952286 1:1 2:1.3496622 3:2.2345038 
-1 0:0 1:1 2:1.3496622 3:2.2345038 
-1 0:0 1:1 2:1.3496622 3:2.2345038 
1 0:1.7928429 1:1 2:1.3496622 3:1.9144625 
1 0:1.1952286 1:1 2:1.3496622 3:1.9144625 
1 0:-1.1952286 1:1 2:1.3496622 3:1.9144625 
1 0:-1.7928429 1:1 2:1.3496622 3:1.9144625 
1 0:0 1:1 2:1.3496622 3:1.9144625 
1 0:0 1:1 2:1.3496622 3:1.9144625 
-1 0:-1.7928429 1:1 2:1.3496622 3:1.5858119 
-1 0:0.5976143 1:1 2:1.3496622 3:1.2930693 
-1 0:-0.5976143 1:1 2:1.3496622 3:1.2930693 
-1 0:0 1:1 2:1.3496622 3:1.2930693 
-1 0:0 1:1 2:1.3496622 3:1.2930693 
-1 0:1.7928429 1:1 2:1.3496622 3:0.97309444 
-1 0:1.1952286 1:1 2:1.3496622 3:0.97309444 
-1 0:-0.5976143 1:1 2:1.3496622 3:0.97309444 
-1 0:-1.1952286 1:1 2:1.3496622 3:0.97309444 
-1 0:0 1:1 2:1.3496622 3:0.97309444 
-1 0:1.7928429 1:1 2:1.3496622 3:1.2930693 
-1 0:1.1952286 1:1 2:1.3496622 3:1.2930693 
-1 0:-1.1952286 1:1 2:1.3496622 3:1.2930693 
-1 0:-1.7928429 1:1 2:1.3496622 3:1.2930693 
-1 0:0 1:1 2:1.3496622 3:1.2930693 
-1 0:0 1:1 2:1.3496622 3:1.2930693 
-1 0:0.5976143 1:1 2:1.3496622 3:0.97309444 
-1 0:0 1:1 2:1.3496622 3:0.97309444 
-1 0:0 1:1 2:1.3496622 3:0.97309444 
-1 0:0 1:1 2:1.3496622 3:0.97309444 
-1 0:1.7928429 7:1 2:-0.44988739 3:-0.50497848 
1 0:1.1952286 4:1 2:0.43645792 3:0.37610307 
1 0:0 4:1 2:0.43645792 3:-0.75008281 
-1 0:1.7928429 8:1 2:-0.44988739 3:0.28016067 
-1 0:1.7928429 4:1 2:-0.44988739 3:-0.24260539 
0.03019709029994203 0:0 5:1 2:0.43645792 3:1.357499 
1 0:1.7928429 8:1 2:0.43645792 3:0.75611914 
-1 0:1.7928429 4:1 2:0.43645792 3:0.25103437 
1 0:0 6:1 2:0.43645792 3:-0.93507078 
1 0:0 8:1 2:0.43645792 3:-0.35367086 
1 0:0 9:1 2:0.43645792 3:0.12263795 
-0.3994936291506477 0:1.1952286 7:1 2:-0.44988739 3:-0.25599234 
-0.3994933672534636 0:-1.1952286 7:1 2:-0.44988739 3:-0.25599234 
-1 0:1.7928429 7:1 2:-0.44988739 3:-0.43191833 
-1 0:1.7928429 7:1 2:-0.44988739 3:-0.25599234 
-1 0:-1.7928429 7:1 2:-0.44988739 3:-0.25599234 
-1 0:1.7928429 7:1 2:-0.44988739 3:-0.60953083 
-1 0:-0.5976143 7:1 2:-0.44988739 3:-0.60953083 
-1 0:-1.1952286 7:1 2:-0.44988739 3:-0.60953083 
-1 0:0 7:1 2:-0.44988739 3:-0.60953083 
1 0:1.7928429 7:1 2:-0.44988739 3:-0.78262773 
1 0:1.1952286 7:1 2:-0.44988739 3:-0.78262773 
-1 0:-1.7928429 7:1 2:-0.44988739 3:-0.43191833 
-1 0:1.1952286 7:1 2:-0.44988739 3:-0.60953083 
-1 0:0.5976143 7:1 2:-0.44988739 3:-0.60953083 
-1 0:-1.7928429 7:1 2:-0.44988739 3:-0.60953083 
-1 0:0 7:1 2:-0.44988739 3:-0.60953083 
-1 0:0 7:1 2:-0.44988739 3:-0.60953083 
-1 0:0 7:1 2:-0.44988739 3:-0.60953083 
1 0:0.5976143 7:1 2:-0.44988739 3:-0.78262773 
1 0:-0.5976143 7:1 2:-0.44988739 3:-0.78262773 
1 0:-1.7928429 7:1 2:-0.44988739 3:-0.78262773 
1 0:0 7:1 2:-0.44988739 3:-0.78262773 
1 0:-1.1952286 7:1 2:-0.44988739 3:-0.78262773 
1 0:0 7:1 2:-0.44988739 3:-0.78262773 
1 0:0 7:1 2:-0.44988739 3:-0.78262773 
1 0:0 7:1 2:-0.44988739 3:-0.78262773 
-1 0:1.7928429 7:1 2:-0.44988739 3:-0.58598621 
-1 0:1.1952286 7:1 2:-0.44988739 3:-0.58598621 
-1 0:0.5976143 7:1 2:-0.44988739 3:-0.58598621 
-1 0:-1.7928429 7:1 2:-0.44988739 3:-0.58598621 
-1 0:0 7:1 2:-0.44988739 3:-0.58598621 
-1 0:0 7:1 2:-0.44988739 3:-0.58598621 
-1 0:0 7:1 2:-0.44988739 3:-0.81744142 
-1 0:-0.5976143 7:1 2:-0.44988739 3:-0.58598621 
-1 0:-1.1952286 7:1 2:-0.44988739 3:-0.58598621 
-1 0:0 7:1 2:-0.44988739 3:-0.58598621 
-1 0:0 7:1 2:-0.44988739 3:-0.58598621 
-1 0:0 7:1 2:-0.44988739 3:-0.81744142 
-1 0:0 7:1 2:-0.44988739 3:-0.81744142 
-1 0:0 7:1 2:-0.44988739 3:-0.81744142 
-1 0:-1.7928429 8:1 2:-0.44988739 3:-0.58598621 
-1 0:1.1952286 8:1 2:-0.44988739 3:0.28016067 
-1 0:-1.1952286 8:1 2:-0.44988739 3:0.28016067 
-1 0:-1.7928429 8:1 2:-0.44988739 3:0.28016067 
-1 0:1.1952286 8:1 2:-0.44988739 3:-0.021637016 
-1 0:0.5976143 8:1 2:-0.44988739 3:-0.021637016 
-1 0:-1.7928429 8:1 2:-0.44988739 3:-0.021637016 
-1 0:0 8:1 2:-0.44988739 3:-0.021637016 
-1 0:0 8:1 2:-0.44988739 3:-0.021637016 
-1 0:0 8:1 2:-0.44988739 3:-0.021637016 
-1 0:0.5976143 8:1 2:-0.44988739 3:-0.24260539 
-1 0:-0.5976143 8:1 2:-0.44988739 3:-0.24260539 
-1 0:0 8:1 2:-0.44988739 3:-0.24260539 
-1 0:0 8:1 2:-0.44988739 3:-0.24260539 
-1 0:0.5976143 8:1 2:-0.44988739 3:0.28016067 
-1 0:-0.5976143 8:1 2:-0.44988739 3:0.28016067 
-0.483569568141873 0:0 8:1 2:-0.44988739 3:0.28016067 
-0.9628851893768156 0:0 8:1 2:-0.44988739 3:0.28016067 
-1 0:1.7928429 8:1 2:-0.44988739 3:-0.021637016 
-1 0:-0.5976143 8:1 2:-0.44988739 3:-0.021637016 
-1 0:-1.1952286 8:1 2:-0.44988739 3:-0.021637016 
-1 0:0 8:1 2:-0.44988739 3:-0.021637016 
-1 0:1.7928429 8:1 2:-0.44988739 3:-0.24260539 
-1 0:1.1952286 8:1 2:-0.44988739 3:-0.24260539 
-1 0:-1.1952286 8:1 2:-0.44988739 3:-0.24260539 
-1 0:-1.7928429 8:1 2:-0.44988739 3:-0.24260539 
-1 0:0 8:1 2:-0.44988739 3:-0.24260539 
-1 0:0 8:1 2:-0.44988739 3:-0.58598621 
-1 0:0 8:1 2:-0.44988739 3:-0.24260539 
-1 0:1.7928429 8:1 2:-0.44988739 3:-0.58598621 
-0.1918240922451902 0:0 8:1 2:-0.44988739 3:-0.58598621 
-0.4795622815608145 0:0 8:1 2:-0.44988739 3:-0.58598621 
-1 0:0 8:1 2:-0.44988739 3:-0.58598621 
-1 0:-1.7928429 5:1 2:-0.44988739 3:0.34703857 
-1 0:0.5976143 5:1 2:-0.44988739 3:0.34703857 
-1 0:-0.5976143 5:1 2:-0.44988739 3:0.34703857 
-1 0:0 5:1 2:-0.44988739 3:0.34703857 
-1 0:0 5:1 2:-0.44988739 3:0.34703857 
-1 0:1.7928429 5:1 2:-0.44988739 3:0.34703857 
-1 0:1.1952286 5:1 2:-0.44988739 3:0.34703857 
-1 0:-1.1952286 5:1 2:-0.44988739 3:0.34703857 
-1 0:0 5:1 2:-0.44988739 3:0.34703857 
-1 0:0 5:1 2:-0.44988739 3:0.34703857 
1 0:1.1952286 1:1 2:-0.44988739 3:0.78222457 
1 0:-1.1952286 1:1 2:-0.44988739 3:0.78222457 
1 0:1.1952286 1:1 2:-0.44988739 3:0.78222457 
1 0:0.5976143 1:1 2:-0.44988739 3:0.78222457 
1 0:-0.5976143 1:1 2:-0.44988739 3:0.78222457 
1 0:1.1952286 1:1 2:-0.44988739 3:0.78222457 
1 0:-1.1952286 1:1 2:-0.44988739 3:0.78222457 
1 0:1.1952286 1:1 2:-0.44988739 3:0.78222457 
1 0:0.5976143 1:1 2:-0.44988739 3:0.78222457 
1 0:-0.5976143 1:1 2:-0.44988739 3:0.78222457 
1 0:-1.1952286 1:1 2:-0.44988739 3:0.78222457 
1 0:0.5976143 1:1 2:-0.44988739 3:0.78222457 
1 0:-0.5976143 1:1 2:-0.44988739 3:0.78222457 
1 0:-0.5976143 1:1 2:-0.44988739 3:0.78222457 
1 0:-1.1952286 1:1 2:-0.44988739 3:0.78222457 
1 0:1.1952286 1:1 2:-0.44988739 3:0.78222457 
1 0:0.5976143 1:1 2:-0.44988739 3:0.78222457 
1 0:-1.1952286 1:1 2:-0.44988739 3:0.78222457 
1 0:0.5976143 1:1 2:-0.44988739 3:0.78222457 
1 0:-0.5976143 1:1 2:-0.44988739 3:0.78222457 
1 0:-0.5976143 1:1 2:-0.44988739 3:0.78222457 
1 0:-1.1952286 1:1 2:-0.44988739 3:0.78222457 
1 0:1.1952286 1:1 2:-0.44988739 3:0.78222457 
1 0:0.5976143 1:1 2:-0.44988739 3:0.78222457 
-1 0:-1.7928429 1:1 2:-0.44988739 3:0.62104509 
-1 0:1.7928429 1:1 2:-0.44988739 3:0.62104509 
-1 0:1.7928429 1:1 2:-0.44988739 3:0.62104509 
-1 0:1.7928429 1:1 2:-0.44988739 3:0.62104509 
-1 0:-1.7928429 1:1 2:-0.44988739 3:0.62104509 
-1 0:-1.7928429 1:1 2:-0.44988739 3:0.62104509 
-1 0:1.7928429 1:1 2:-0.44988739 3:0.33851405 
-1 0:0.5976143 1:1 2:-0.44988739 3:0.33851405 
-1 0:-0.5976143 1:1 2:-0.44988739 3:0.33851405 
-1 0:0 1:1 2:-0.44988739 3:0.33851405 
-1 0:0 1:1 2:-0.44988739 3:0.33851405 
-1 0:1.7928429 1:1 2:-0.44988739 3:0.083350604 
-1 0:1.1952286 1:1 2:-0.44988739 3:0.083350604 
-1 0:-1.1952286 1:1 2:-0.44988739 3:0.083350604 
-1 0:0 1:1 2:-0.44988739 3:0.083350604 
-1 0:0 1:1 2:-0.44988739 3:0.083350604 
-1 0:1.1952286 1:1 2:-0.44988739 3:0.33851405 
-1 0:-1.1952286 1:1 2:-0.44988739 3:0.33851405 
-1 0:-1.7928429 1:1 2:-0.44988739 3:0.33851405 
-1 0:0 1:1 2:-0.44988739 3:0.33851405 
-1 0:0 1:1 2:-0.44988739 3:0.33851405 
-1 0:0.5976143 1:1 2:-0.44988739 3:0.083350604 
-1 0:-0.5976143 1:1 2:-0.44988739 3:0.083350604 
-1 0:-1.7928429 1:1 2:-0.44988739 3:0.083350604 
-1 0:0 1:1 2:-0.44988739 3:0.083350604 
-1 0:0 1:1 2:-0.44988739 3:0.083350604 
9.344763134477284e-09 0:1.7928429 4:1 2:-1.3362327 3:-1.1810066 
-1 0:0 1:1 2:-0.44988739 3:0.33851405 
-0.5929210056190914 0:-1.7928429 1:1 2:-0.44988739 3:0.62104509 
-0.5020623188999999 0:1.7928429 1:1 2:-0.44988739 3:0.62104509 
-0.831991735717538 0:1.7928429 1:1 2:-0.44988739 3:0.62104509 
-0.741099662566385 0:-1.7928429 1:1 2:-0.44988739 3:0.62104509 
-1 0:1.7928429 1:1 2:-0.44988739 3:0.62104509 
-1 0:-1.7928429 1:1 2:-0.44988739 3:0.62104509 
-0.9999672860500192 0:1.7928429 1:1 2:-0.44988739 3:0.62104509 
-1 0:-1.7928429 1:1 2:-0.44988739 3:0.62104509 
-1 0:1.1952286 1:1 2:-0.44988739 3:0.33851405 
-1 0:0.5976143 1:1 2:-0.44988739 3:0.33851405 
-1 0:-1.7928429 1:1 2:-0.44988739 3:0.33851405 
-1 0:0 1:1 2:-0.44988739 3:0.33851405 
-1 0:1.7928429 1:1 2:-0.44988739 3:0.33851405 
-1 0:-0.5976143 1:1 2:-0.44988739 3:0.33851405 
-1 0:-1.1952286 1:1 2:-0.44988739 3:0.33851405 
-1 0:0 1:1 2:-0.44988739 3:0.33851405 
-1 0:0 1:1 2:-0.44988739 3:0.33851405 
1 0:1.1952286 9:1 2:-0.44988739 3:0.77253736 
1 0:0.5976143 9:1 2:-0.44988739 3:0.77253736 
0.7016441376734238 0:-1.7928429 9:1 2:-0.44988739 3:0.77253736 
1 0:0 9:1 2:-0.44988739 3:0.77253736 
1 0:0 9:1 2:-0.44988739 3:0.77253736 
1 0:0 9:1 2:-0.44988739 3:0.77253736 
-1 0:1.7928429 9:1 2:-0.44988739 3:0.34703857 
0.7016442571409148 0:1.7928429 9:1 2:-0.44988739 3:0.77253736 
1 0:-0.5976143 9:1 2:-0.44988739 3:0.77253736 
1 0:-1.1952286 9:1 2:-0.44988739 3:0.77253736 
1 0:0 9:1 2:-0.44988739 3:0.77253736 
-1 0:-1.7928429 9:1 2:-0.44988739 3:0.34703857 
-1 0:1.7928429 9:1 2:-0.44988739 3:-0.080674973 
-1 0:1.1952286 9:1 2:-0.44988739 3:-0.080674973 
-1 0:0.5976143 9:1 2:-0.44988739 3:-0.080674973 
-1 0:-0.5976143 9:1 2:-0.44988739 3:-0.080674973 
-1 0:-1.7928429 9:1 2:-0.44988739 3:-0.080674973 
-0.2476991336365073 0:0 9:1 2:-0.44988739 3:-0.080674973 
-1 0:0 9:1 2:-0.44988739 3:-0.080674973 
-1 0:1.7928429 9:1 2:-0.44988739 3:-0.29481391 
-1 0:-1.1952286 9:1 2:-0.44988739 3:-0.080674973 
-1 0:0 9:1 2:-0.44988739 3:-0.080674973 
-0.3659914420734982 0:0 9:1 2:-0.44988739 3:-0.080674973 
-1 0:1.1952286 9:1 2:-0.44988739 3:-0.29481391 
-0.8210751025377278 0:0.5976143 9:1 2:-0.44988739 3:-0.29481391 
-1 0:-1.7928429 9:1 2:-0.44988739 3:-0.29481391 
-0.821079305695773 0:-0.5976143 9:1 2:-0.44988739 3:-0.29481391 
-1 0:-1.1952286 9:1 2:-0.44988739 3:-0.29481391 
-1 0:1.1952286 7:1 2:-0.44988739 3:-0.50497848 
-1 0:0.5976143 7:1 2:-0.44988739 3:-0.50497848 
-1 0:-1.7928429 7:1 2:-0.44988739 3:-0.50497848 
-1 0:0 7:1 2:-0.44988739 3:-0.50497848 
-1 0:0 7:1 2:-0.44988739 3:-0.50497848 
-1 0:0.5976143 7:1 2:-0.44988739 3:-0.73075604 
-1 0:-0.5976143 7:1 2:-0.44988739 3:-0.73075604 
-1 0:-1.7928429 7:1 2:-0.44988739 3:-0.73075604 
-1 0:0 7:1 2:-0.44988739 3:-0.73075604 
-1 0:0 7:1 2:-0.44988739 3:-0.73075604 
1 0:1.7928429 7:1 2:-0.44988739 3:-0.78262773 
1 0:-0.5976143 7:1 2:-0.44988739 3:-0.78262773 
1 0:-1.1952286 7:1 2:-0.44988739 3:-0.78262773 
1 0:0 7:1 2:-0.44988739 3:-0.78262773 
1 0:0 7:1 2:-0.44988739 3:-0.78262773 
-1 0:-0.5976143 7:1 2:-0.44988739 3:-0.50497848 
-1 0:-1.1952286 7:1 2:-0.44988739 3:-0.50497848 
-1 0:0 7:1 2:-0.44988739 3:-0.50497848 
-1 0:0 7:1 2:-0.44988739 3:-0.50497848 
-1 0:1.7928429 7:1 2:-0.44988739 3:-0.73075604 
-1 0:1.1952286 7:1 2:-0.44988739 3:-0.73075604 
-1 0:-1.1952286 7:1 2:-0.44988739 3:-0.73075604 
-1 0:0 7:1 2:-0.44988739 3:-0.73075604 
-1 0:0 7:1 2:-0.44988739 3:-0.73075604 
1 0:1.1952286 7:1 2:-0.44988739 3:-0.78262773 
1 0:0.5976143 7:1 2:-0.44988739 3:-0.78262773 
1 0:-1.7928429 7:1 2:-0.44988739 3:-0.78262773 
1 0:0 7:1 2:-0.44988739 3:-0.78262773 
1 0:0 7:1 2:-0.44988739 3:-0.78262773 
-1 0:1.7928429 9:1 2:-0.44988739 3:0.49366061 
-1 0:1.1952286 9:1 2:-0.44988739 3:0.49366061 
-1 0:-1.1952286 9:1 2:-0.44988739 3:0.49366061 
-1 0:-1.7928429 9:1 2:-0.44988739 3:0.49366061 
-0.8100217766324651 0:0 9:1 2:-0.44988739 3:0.49366061 
-1 0:1.1952286 9:1 2:-0.44988739 3:0.28016067 
-1 0:0.5976143 9:1 2:-0.44988739 3:0.28016067 
-1 0:-1.7928429 9:1 2:-0.44988739 3:0.28016067 
-1 0:0 9:1 2:-0.44988739 3:0.28016067 
-1 0:0 9:1 2:-0.44988739 3:0.28016067 
-1 0:1.7928429 9:1 2:-0.44988739 3:-0.021637016 
-1 0:0 9:1 2:-0.44988739 3:0.49366061 
-1 0:0 9:1 2:-0.44988739 3:0.49366061 
-1 0:0 9:1 2:-0.44988739 3:0.49366061 
-1 0:1.7928429 9:1 2:-0.44988739 3:0.28016067 
-1 0:-0.5976143 9:1 2:-0.44988739 3:0.28016067 
-1 0:-1.1952286 9:1 2:-0.44988739 3:0.28016067 
-1 0:0 9:1 2:-0.44988739 3:0.28016067 
-1 0:0 9:1 2:-0.44988739 3:0.28016067 
-1 0:1.1952286 9:1 2:-0.44988739 3:-0.021637016 
-1 0:-1.1952286 9:1 2:-0.44988739 3:-0.021637016 
-1 0:-1.7928429 9:1 2:-0.44988739 3:-0.021637016 
-1 0:0 9:1 2:-0.44988739 3:-0.021637016 
-1 0:0 9:1 2:-0.44988739 3:-0.021637016 
-1 0:0.5976143 9:1 2:-0.44988739 3:-0.021637016 
-1 0:-0.5976143 9:1 2:-0.44988739 3:-0.021637016 
-1 0:0 9:1 2:-0.44988739 3:-0.021637016 
-1 0:0 9:1 2:-0.44988739 3:-0.021637016 
-1 0:1.7928429 9:1 2:-0.44988739 3:-0.24260539 
-0.5143207274993982 0:1.1952286 9:1 2:-0.44988739 3:-0.24260539 
-0.5143181436392158 0:-1.1952286 9:1 2:-0.44988739 3:-0.24260539 
-1 0:-1.7928429 9:1 2:-0.44988739 3:-0.24260539 
1 0:0 4:1 2:-0.44988739 3:-0.84660591 
0.007372479633619288 0:0 4:1 2:-0.44988739 3:-0.12977238 
-1 0:0.5976143 4:1 2:-0.44988739 3:-0.43032699 
-1 0:-0.5976143 4:1 2:-0.44988739 3:-0.43032699 
-1 0:0 4:1 2:-0.44988739 3:-0.43032699 
-1 0:0 4:1 2:-0.44988739 3:-0.43032699 
1 0:1.1952286 4:1 2:-0.44988739 3:-0.82567702 
1 0:0.5976143 4:1 2:-0.44988739 3:-0.82567702 
1 0:-1.7928429 4:1 2:-0.44988739 3:-0.82567702 
1 0:1.1952286 4:1 2:-0.44988739 3:-0.84660591 
1 0:0.5976143 4:1 2:-0.44988739 3:-0.84660591 
1 0:-1.7928429 4:1 2:-0.44988739 3:-0.84660591 
0.5400766603949959 0:0 4:1 2:-0.44988739 3:-0.12977238 
-1 0:1.7928429 4:1 2:-0.44988739 3:-0.43032699 
-1 0:1.1952286 4:1 2:-0.44988739 3:-0.43032699 
-1 0:-1.1952286 4:1 2:-0.44988739 3:-0.43032699 
-1 0:-1.7928429 4:1 2:-0.44988739 3:-0.43032699 
-1 0:0 4:1 2:-0.44988739 3:-0.43032699 
-1 0:0 4:1 2:-0.44988739 3:-0.43032699 
1 0:1.7928429 4:1 2:-0.44988739 3:-0.82567702 
1 0:-0.5976143 4:1 2:-0.44988739 3:-0.82567702 
1 0:-1.1952286 4:1 2:-0.44988739 3:-0.82567702 
1 0:1.7928429 4:1 2:-0.44988739 3:-0.84660591 
1 0:-0.5976143 4:1 2:-0.44988739 3:-0.84660591 
1 0:-1.1952286 4:1 2:-0.44988739 3:-0.84660591 
1 0:0 4:1 2:-0.44988739 3:-0.84660591 
1 0:0 4:1 2:-0.44988739 3:-0.84660591 
1 0:0 4:1 2:-0.44988739 3:-0.84660591 
1 0:0 4:1 2:-0.44988739 3:0.30944904 
1 0:0 4:1 2:-0.44988739 3:0.30944904 
1 0:0 4:1 2:-0.44988739 3:0.30944904 
1 0:0 4:1 2:-0.44988739 3:0.30944904 
-1 0:1.7928429 4:1 2:-0.44988739 3:0.11108152 
-1 0:1.7928429 4:1 2:-0.44988739 3:-0.0986022 
-1 0:1.1952286 4:1 2:-0.44988739 3:-0.0986022 
-1 0:-1.1952286 4:1 2:-0.44988739 3:-0.0986022 
-1 0:-1.7928429 4:1 2:-0.44988739 3:-0.0986022 
-1 0:0 4:1 2:-0.44988739 3:-0.0986022 
-1 0:1.1952286 4:1 2:-0.44988739 3:-0.29481391 
-1 0:0.5976143 4:1 2:-0.44988739 3:-0.29481391 
-1 0:-1.7928429 4:1 2:-0.44988739 3:-0.29481391 
-1 0:0 4:1 2:-0.44988739 3:-0.29481391 
-1 0:0 4:1 2:-0.44988739 3:-0.29481391 
-1 0:-1.7928429 4:1 2:-0.44988739 3:0.11108152 
-1 0:0.5976143 4:1 2:-0.44988739 3:-0.0986022 
-1 0:-0.5976143 4:1 2:-0.44988739 3:-0.0986022 
-1 0:0 4:1 2:-0.44988739 3:-0.0986022 
-1 0:0 4:1 2:-0.44988739 3:-0.0986022 
-1 0:0 4:1 2:-0.44988739 3:-0.0986022 
-1 0:1.7928429 4:1 2:-0.44988739 3:-0.29481391 
-1 0:-0.5976143 4:1 2:-0.44988739 3:-0.29481391 
-1 0:-1.1952286 4:1 2:-0.44988739 3:-0.29481391 
-1 0:0 4:1 2:-0.44988739 3:-0.29481391 
-1 0:0 4:1 2:-0.44988739 3:-0.29481391 
-1 0:0 4:1 2:-0.44988739 3:-0.76310476 
-1 0:-0.5976143 4:1 2:-0.44988739 3:-0.24260539 
-1 0:-1.1952286 4:1 2:-0.44988739 3:-0.24260539 
-1 0:0 4:1 2:-0.44988739 3:-0.24260539 
-1 0:1.1952286 4:1 2:-0.44988739 3:-0.24260539 
-1 0:0.5976143 4:1 2:-0.44988739 3:-0.24260539 
-1 0:-1.7928429 4:1 2:-0.44988739 3:-0.24260539 
-1 0:0 4:1 2:-0.44988739 3:-0.24260539 
-1 0:0 4:1 2:-0.44988739 3:-0.24260539 
-1 0:0 4:1 2:-0.44988739 3:-0.24260539 
-1 0:1.7928429 4:1 2:-0.44988739 3:-0.58598621 
-1 0:-1.7928429 4:1 2:-0.44988739 3:-0.58598621 
-1 0:1.7928429 4:1 2:-0.44988739 3:-0.76310476 
-1 0:0.5976143 4:1 2:-0.44988739 3:-0.76310476 
-1 0:-0.5976143 4:1 2:-0.44988739 3:-0.76310476 
-1 0:0 4:1 2:-0.44988739 3:-0.76310476 
-1 0:0 4:1 2:-0.44988739 3:-0.76310476 
-1 0:1.1952286 4:1 2:-0.44988739 3:-0.76310476 
-1 0:-1.1952286 4:1 2:-0.44988739 3:-0.76310476 
-1 0:-1.7928429 4:1 2:-0.44988739 3:-0.76310476 
-1 0:0 4:1 2:-0.44988739 3:-0.76310476 
-1 0:0 6:1 2:-0.44988739 3:-1.0134469 
-1 0:0 6:1 2:-0.44988739 3:-1.0134469 
-0.8528698242822758 0:0 6:1 2:-0.44988739 3:-1.0134469 
-0.03453395132743989 0:0 6:1 2:-0.44988739 3:-1.0134469 
-1 0:0 6:1 2:-0.44988739 3:-1.0134469 
-1 0:0 6:1 2:-0.44988739 3:-1.0134469 
-1 0:0 6:1 2:-0.44988739 3:-1.0134469 
1 0:0 6:1 2:-0.44988739 3:-1.1127305 
-0.3203328487597461 0:1.7928429 6:1 2:-0.44988739 3:-1.0048724 
-1 0:1.1952286 6:1 2:-0.44988739 3:-1.0048724 
-1 0:0.5976143 6:1 2:-0.44988739 3:-1.0048724 
-0.3203328343778244 0:-1.7928429 6:1 2:-0.44988739 3:-1.0048724 
-1 0:0 6:1 2:-0.44988739 3:-1.0048724 
-1 0:0 6:1 2:-0.44988739 3:-1.0048724 
1 0:1.7928429 6:1 2:-0.44988739 3:-1.1127305 
1 0:-0.5976143 6:1 2:-0.44988739 3:-1.1127305 
1 0:0 6:1 2:-0.44988739 3:-1.1127305 
1 0:0 6:1 2:-0.44988739 3:-1.1127305 
-1 0:-0.5976143 6:1 2:-0.44988739 3:-1.0048724 
-1 0:-1.1952286 6:1 2:-0.44988739 3:-1.0048724 
-1 0:0 6:1 2:-0.44988739 3:-1.0048724 
-1 0:0 6:1 2:-0.44988739 3:-1.0048724 
1 0:1.1952286 6:1 2:-0.44988739 3:-1.1127305 
1 0:0.5976143 6:1 2:-0.44988739 3:-1.1127305 
1 0:-1.1952286 6:1 2:-0.44988739 3:-1.1127305 
1 0:-1.7928429 6:1 2:-0.44988739 3:-1.1127305 
1 0:0 6:1 2:-0.44988739 3:-1.1127305 
1 0:1.7928429 7:1 2:0.43645792 3:-0.5523508 
1 0:1.1952286 7:1 2:0.43645792 3:-0.5523508 
1 0:0.5976143 7:1 2:0.43645792 3:-0.5523508 
1 0:-1.7928429 7:1 2:0.43645792 3:-0.5523508 
1 0:0 7:1 2:0.43645792 3:-0.5523508 
1 0:0 7:1 2:0.43645792 3:-0.5523508 
1 0:-0.5976143 7:1 2:0.43645792 3:-0.5523508 
1 0:-1.1952286 7:1 2:0.43645792 3:-0.5523508 
1 0:0 7:1 2:0.43645792 3:-0.5523508 
1 0:0 7:1 2:0.43645792 3:-0.5523508 
1 0:0.5976143 7:1 2:0.43645792 3:0.23149918 
1 0:-0.5976143 7:1 2:0.43645792 3:0.23149918 
1 0:0 7:1 2:0.43645792 3:0.23149918 
1 0:0 7:1 2:0.43645792 3:0.23149918 
1 0:0 7:1 2:0.43645792 3:0.23149918 
1 0:1.7928429 7:1 2:0.43645792 3:-0.29682441 
1 0:-0.5976143 7:1 2:0.43645792 3:-0.29682441 
1 0:-1.1952286 7:1 2:0.43645792 3:-0.29682441 
1 0:1.1952286 7:1 2:0.43645792 3:0.23149918 
1 0:-1.1952286 7:1 2:0.43645792 3:0.23149918 
1 0:0 7:1 2:0.43645792 3:0.23149918 
1 0:1.1952286 7:1 2:0.43645792 3:-0.29682441 
1 0:0.5976143 7:1 2:0.43645792 3:-0.29682441 
1 0:-1.7928429 7:1 2:0.43645792 3:-0.29682441 
1 0:0 7:1 2:0.43645792 3:-0.29682441 
1 0:0 7:1 2:0.43645792 3:-0.29682441 
1 0:1.7928429 7:1 2:0.43645792 3:-0.51748257 
1 0:0 7:1 2:0.43645792 3:-0.29682441 
1 0:0 7:1 2:0.43645792 3:-0.29682441 
1 0:1.1952286 7:1 2:0.43645792 3:-0.51748257 
1 0:-1.1952286 7:1 2:0.43645792 3:-0.51748257 
1 0:-1.7928429 7:1 2:0.43645792 3:-0.51748257 
1 0:-0.5976143 8:1 2:0.43645792 3:-0.35367086 
1 0:1.1952286 8:1 2:0.43645792 3:0.75611914 
1 0:-1.1952286 8:1 2:0.43645792 3:0.75611914 
1 0:-1.7928429 8:1 2:0.43645792 3:0.75611914 
1 0:0 8:1 2:0.43645792 3:0.75611914 
1 0:1.1952286 8:1 2:0.43645792 3:0.40241496 
1 0:-1.1952286 8:1 2:0.43645792 3:0.40241496 
1 0:-1.7928429 8:1 2:0.43645792 3:0.40241496 
1 0:0 8:1 2:0.43645792 3:0.40241496 
1 0:0 8:1 2:0.43645792 3:0.40241496 
1 0:0.5976143 8:1 2:0.43645792 3:0.75611914 
1 0:-0.5976143 8:1 2:0.43645792 3:0.75611914 
1 0:0 8:1 2:0.43645792 3:0.75611914 
1 0:0 8:1 2:0.43645792 3:0.75611914 
1 0:0 8:1 2:0.43645792 3:0.75611914 
1 0:1.7928429 8:1 2:0.43645792 3:0.40241496 
1 0:0.5976143 8:1 2:0.43645792 3:0.40241496 
1 0:-0.5976143 8:1 2:0.43645792 3:0.40241496 
1 0:0 8:1 2:0.43645792 3:0.40241496 
1 0:0 8:1 2:0.43645792 3:0.40241496 
1 0:1.7928429 8:1 2:0.43645792 3:0.12263795 
1 0:-0.5976143 8:1 2:0.43645792 3:0.12263795 
1 0:-1.1952286 8:1 2:0.43645792 3:0.12263795 
1 0:0 8:1 2:0.43645792 3:0.12263795 
1 0:0 8:1 2:0.43645792 3:0.12263795 
1 0:1.7928429 8:1 2:0.43645792 3:-0.35367086 
1 0:-1.7928429 8:1 2:0.43645792 3:-0.35367086 
1 0:0 8:1 2:0.43645792 3:-0.35367086 
1 0:1.1952286 8:1 2:0.43645792 3:0.12263795 
1 0:0.5976143 8:1 2:0.43645792 3:0.12263795 
1 0:-1.7928429 8:1 2:0.43645792 3:0.12263795 
1 0:0 8:1 2:0.43645792 3:0.12263795 
1 0:0 8:1 2:0.43645792 3:0.12263795 
1 0:1.1952286 8:1 2:0.43645792 3:-0.35367086 
1 0:0.5976143 8:1 2:0.43645792 3:-0.35367086 
1 0:0 8:1 2:0.43645792 3:-0.35367086 
1 0:0 8:1 2:0.43645792 3:-0.35367086 
1 0:-1.1952286 8:1 2:0.43645792 3:-0.35367086 
1 0:0 5:1 2:0.43645792 3:0.83328443 
1 0:0.5976143 5:1 2:0.43645792 3:1.357499 
1 0:-0.5976143 5:1 2:0.43645792 3:1.357499 
1 0:1.1952286 5:1 2:0.43645792 3:1.357499 
1 0:-1.1952286 5:1 2:0.43645792 3:1.357499 
1 0:0.5976143 5:1 2:0.43645792 3:0.83328443 
1 0:-0.5976143 5:1 2:0.43645792 3:0.83328443 
1 0:0 5:1 2:0.43645792 3:0.83328443 
1 0:0 5:1 2:0.43645792 3:0.83328443 
0.08388109865504575 0:0 5:1 2:0.43645792 3:1.357499 
0.7352897989083264 0:1.1952286 5:1 2:0.43645792 3:0.83328443 
0.7352897191320388 0:-1.1952286 5:1 2:0.43645792 3:0.83328443 
1 0:0 5:1 2:0.43645792 3:0.83328443 
1 0:1.1952286 1:1 2:0.43645792 3:2.7583582 
1 0:0.5976143 1:1 2:0.43645792 3:2.7583582 
1 0:-1.7928429 1:1 2:0.43645792 3:2.7583582 
0.4394544630383538 0:0 1:1 2:0.43645792 3:2.7583582 
-1 0:1.7928429 1:1 2:0.43645792 3:2.370972 
-1 0:-0.5976143 1:1 2:0.43645792 3:2.370972 
-1 0:-1.1952286 1:1 2:0.43645792 3:2.370972 
-1 0:0 1:1 2:0.43645792 3:2.370972 
-1 0:0 1:1 2:0.43645792 3:2.370972 
-1 0:0.5976143 1:1 2:0.43645792 3:2.0565693 
-1 0:0 1:1 2:0.43645792 3:2.0565693 
-1 0:0 1:1 2:0.43645792 3:2.0565693 
1 0:1.7928429 1:1 2:0.43645792 3:2.7583582 
1 0:-0.5976143 1:1 2:0.43645792 3:2.7583582 
1 0:-1.1952286 1:1 2:0.43645792 3:2.7583582 
0.007150265375949381 0:0 1:1 2:0.43645792 3:2.7583582 
-1 0:1.1952286 1:1 2:0.43645792 3:2.370972 
-1 0:0.5976143 1:1 2:0.43645792 3:2.370972 
-1 0:-1.7928429 1:1 2:0.43645792 3:2.370972 
-1 0:0 1:1 2:0.43645792 3:2.370972 
-1 0:0 1:1 2:0.43645792 3:2.370972 
-1 0:-0.5976143 1:1 2:0.43645792 3:2.0565693 
-1 0:0 1:1 2:0.43645792 3:2.0565693 
-1 0:0 1:1 2:0.43645792 3:2.0565693 
1 0:0.5976143 1:1 2:0.43645792 3:1.7499666 
1 0:-0.5976143 1:1 2:0.43645792 3:1.7499666 
-1 0:0 1:1 2:0.43645792 3:1.4380693 
-1 0:0 1:1 2:0.43645792 3:1.4380693 
-1 0:0.5976143 1:1 2:0.43645792 3:1.1622113 
-1 0:-0.5976143 1:1 2:0.43645792 3:1.1622113 
1 0:1.7928429 1:1 2:0.43645792 3:1.7499666 
1 0:1.1952286 1:1 2:0.43645792 3:1.7499666 
1 0:-1.1952286 1:1 2:0.43645792 3:1.7499666 
1 0:-1.7928429 1:1 2:0.43645792 3:1.7499666 
-1 0:0 1:1 2:0.43645792 3:1.4380693 
-1 0:0 1:1 2:0.43645792 3:1.4380693 
-1 0:1.7928429 1:1 2:0.43645792 3:1.1622113 
-1 0:1.1952286 1:1 2:0.43645792 3:1.1622113 
-1 0:-1.1952286 1:1 2:0.43645792 3:1.1622113 
-1 0:-1.7928429 1:1 2:0.43645792 3:1.1622113 
-1 0:0 1:1 2:0.43645792 3:1.1622113 
-1 0:0 1:1 2:0.43645792 3:1.1622113 
-1 0:0.5976143 1:1 2:0.43645792 3:0.84917908 
-1 0:-0.5976143 1:1 2:0.43645792 3:0.84917908 
-1 0:0 1:1 2:0.43645792 3:1.1622113 
-1 0:0 1:1 2:0.43645792 3:1.1622113 
-1 0:1.7928429 1:1 2:0.43645792 3:0.84917908 
-1 0:1.1952286 1:1 2:0.43645792 3:0.84917908 
-1 0:-1.1952286 1:1 2:0.43645792 3:0.84917908 
-1 0:-1.7928429 1:1 2:0.43645792 3:0.84917908 
-1 0:0 1:1 2:0.43645792 3:0.84917908 
-1 0:0 1:1 2:0.43645792 3:0.84917908 
-1 0:0 1:1 2:0.43645792 3:0.84917908 
-1 0:0 1:1 2:0.43645792 3:0.84917908 
1 0:0 1:1 2:0.43645792 3:0.15689964 
0.007847512891066881 0:-1.1952286 1:1 2:0.43645792 3:0.9693386 
1 0:1.1952286 1:1 2:0.43645792 3:0.67999917 
1 0:0.5976143 1:1 2:0.43645792 3:0.67999917 
0.05210132995352124 0:-1.7928429 1:1 2:0.43645792 3:0.67999917 
1 0:0 1:1 2:0.43645792 3:0.67999917 
1 0:0 1:1 2:0.43645792 3:0.67999917 
1 0:1.7928429 1:1 2:0.43645792 3:0.37143671 
1 0:-1.7928429 1:1 2:0.43645792 3:0.37143671 
1 0:0 1:1 2:0.43645792 3:0.37143671 
1 0:0 1:1 2:0.43645792 3:0.37143671 
1 0:1.7928429 1:1 2:0.43645792 3:0.15689964 
1 0:1.1952286 1:1 2:0.43645792 3:0.15689964 
1 0:0.5976143 1:1 2:0.43645792 3:0.15689964 
1 0:-1.7928429 1:1 2:0.43645792 3:0.15689964 
-1 0:1.1952286 7:1 2:1.3496622 3:0.23821006 
0.09568242894042453 0:1.7928429 5:1 2:1.3496622 3:1.9477111 
1 0:1.1952286 1:1 2:0.43645792 3:1.2314458 
1 0:-1.1952286 1:1 2:0.43645792 3:1.2314458 
0.2235983207258561 0:1.7928429 1:1 2:0.43645792 3:0.67999917 
1 0:-0.5976143 1:1 2:0.43645792 3:0.67999917 
1 0:-1.1952286 1:1 2:0.43645792 3:0.67999917 
1 0:0 1:1 2:0.43645792 3:0.67999917 
1 0:0 1:1 2:0.43645792 3:0.67999917 
1 0:1.1952286 1:1 2:0.43645792 3:0.37143671 
1 0:0.5976143 1:1 2:0.43645792 3:0.37143671 
1 0:-0.5976143 1:1 2:0.43645792 3:0.37143671 
1 0:-1.1952286 1:1 2:0.43645792 3:0.37143671 
1 0:0 1:1 2:0.43645792 3:0.37143671 
1 0:0 1:1 2:0.43645792 3:0.37143671 
1 0:-0.5976143 1:1 2:0.43645792 3:0.15689964 
1 0:-1.1952286 1:1 2:0.43645792 3:0.15689964 
1 0:0 1:1 2:0.43645792 3:0.15689964 
1 0:0 1:1 2:0.43645792 3:0.15689964 
1 0:0 1:1 2:0.43645792 3:0.15689964 
1 0:0 1:1 2:0.43645792 3:0.67999917 
1 0:1.7928429 1:1 2:0.43645792 3:1.8135657 
1 0:-0.5976143 1:1 2:0.43645792 3:1.8135657 
1 0:-1.1952286 1:1 2:0.43645792 3:1.8135657 
1 0:0 1:1 2:0.43645792 3:1.8135657 
1 0:0 1:1 2:0.43645792 3:1.8135657 
1 0:-1.1952286 1:1 2:0.43645792 3:1.2314458 
0.3265318416541982 0:1.1952286 1:1 2:0.43645792 3:0.9693386 
1 0:1.1952286 1:1 2:0.43645792 3:1.8135657 
1 0:0.5976143 1:1 2:0.43645792 3:1.8135657 
1 0:-1.7928429 1:1 2:0.43645792 3:1.8135657 
1 0:0 1:1 2:0.43645792 3:1.8135657 
1 0:0 1:1 2:0.43645792 3:1.8135657 
1 0:1.1952286 1:1 2:0.43645792 3:1.2314458 
0.3186823579137502 0:-1.1952286 1:1 2:0.43645792 3:0.9693386 
1 0:1.1952286 1:1 2:0.43645792 3:0.67999917 
1 0:0.5976143 1:1 2:0.43645792 3:0.67999917 
0.754725229813898 0:-1.7928429 1:1 2:0.43645792 3:0.67999917 
1 0:0 1:1 2:0.43645792 3:0.67999917 
0.5832277340780109 0:1.7928429 1:1 2:0.43645792 3:0.67999917 
1 0:-0.5976143 1:1 2:0.43645792 3:0.67999917 
1 0:-1.1952286 1:1 2:0.43645792 3:0.67999917 
1 0:0 1:1 2:0.43645792 3:0.67999917 
1 0:0 1:1 2:0.43645792 3:0.67999917 
1 0:0.5976143 9:1 2:0.43645792 3:0.83328443 
1 0:-0.5976143 9:1 2:0.43645792 3:0.83328443 
1 0:0 9:1 2:0.43645792 3:0.83328443 
1 0:0 9:1 2:0.43645792 3:0.83328443 
1 0:0.5976143 9:1 2:0.43645792 3:0.57798516 
1 0:-0.5976143 9:1 2:0.43645792 3:0.57798516 
1 0:0 9:1 2:0.43645792 3:0.57798516 
1 0:0 9:1 2:0.43645792 3:0.57798516 
1 0:1.7928429 9:1 2:0.43645792 3:0.83328443 
1 0:1.1952286 9:1 2:0.43645792 3:0.83328443 
1 0:-1.1952286 9:1 2:0.43645792 3:0.83328443 
1 0:-1.7928429 9:1 2:0.43645792 3:0.83328443 
1 0:0 9:1 2:0.43645792 3:0.83328443 
1 0:0 9:1 2:0.43645792 3:0.83328443 
1 0:1.7928429 9:1 2:0.43645792 3:0.57798516 
1 0:1.1952286 9:1 2:0.43645792 3:0.57798516 
1 0:-1.1952286 9:1 2:0.43645792 3:0.57798516 
1 0:-1.7928429 9:1 2:0.43645792 3:0.57798516 
1 0:0 9:1 2:0.43645792 3:0.57798516 
1 0:0 9:1 2:0.43645792 3:0.57798516 
-1 0:0 8:1 2:1.3496622 3:0.81400168 
1 0:0 9:1 2:1.3496622 3:0.56911419 
1 0:-1.1952286 9:1 2:0.43645792 3:0.12263795 
-1 0:0 9:1 2:0.43645792 3:1.2587832 
-1 0:0 9:1 2:0.43645792 3:1.2587832 
-1 0:0 9:1 2:0.43645792 3:1.2587832 
-1 0:0 9:1 2:0.43645792 3:1.2587832 
0.6291820343422244 0:1.7928429 9:1 2:0.43645792 3:0.75611914 
1 0:-0.5976143 9:1 2:0.43645792 3:0.75611914 
1 0:-1.1952286 9:1 2:0.43645792 3:0.75611914 
1 0:0 9:1 2:0.43645792 3:0.75611914 
1 0:0 9:1 2:0.43645792 3:0.75611914 
1 0:1.1952286 9:1 2:0.43645792 3:0.40241496 
1 0:0.5976143 9:1 2:0.43645792 3:0.40241496 
1 0:-1.7928429 9:1 2:0.43645792 3:0.40241496 
1 0:0 9:1 2:0.43645792 3:0.40241496 
1 0:0 9:1 2:0.43645792 3:0.40241496 
1 0:0.5976143 9:1 2:0.43645792 3:0.12263795 
1 0:-0.5976143 9:1 2:0.43645792 3:0.12263795 
1 0:0 9:1 2:0.43645792 3:0.12263795 
1 0:1.1952286 9:1 2:0.43645792 3:0.75611914 
1 0:0.5976143 9:1 2:0.43645792 3:0.75611914 
0.6291818811396404 0:-1.7928429 9:1 2:0.43645792 3:0.75611914 
0.4262153228313417 0:0 9:1 2:0.43645792 3:0.75611914 
0.1507414456655546 0:0 9:1 2:0.43645792 3:0.75611914 
1 0:1.7928429 9:1 2:0.43645792 3:0.40241496 
1 0:-0.5976143 9:1 2:0.43645792 3:0.40241496 
1 0:-1.1952286 9:1 2:0.43645792 3:0.40241496 
1 0:0 9:1 2:0.43645792 3:0.40241496 
1 0:0 9:1 2:0.43645792 3:0.40241496 
1 0:1.7928429 9:1 2:0.43645792 3:0.12263795 
1 0:1.1952286 9:1 2:0.43645792 3:0.12263795 
1 0:0 9:1 2:0.43645792 3:0.12263795 
1 0:0 9:1 2:0.43645792 3:0.12263795 
1 0:-1.7928429 9:1 2:0.43645792 3:0.12263795 
1 0:-1.1952286 4:1 2:0.43645792 3:-0.75008281 
1 0:1.7928429 4:1 2:0.43645792 3:0.37610307 
1 0:-1.1952286 4:1 2:0.43645792 3:0.37610307 
1 0:-1.7928429 4:1 2:0.43645792 3:0.37610307 
1 0:0 4:1 2:0.43645792 3:0.37610307 
1 0:0 4:1 2:0.43645792 3:0.37610307 
1 0:0.5976143 4:1 2:0.43645792 3:0.15471177 
1 0:-0.5976143 4:1 2:0.43645792 3:0.15471177 
0.6363713618305346 0:0 4:1 2:0.43645792 3:0.15471177 
0.4353115952851192 0:0 4:1 2:0.43645792 3:0.15471177 
1 0:1.7928429 4:1 2:0.43645792 3:-0.12977238 
1 0:1.1952286 4:1 2:0.43645792 3:-0.12977238 
1 0:-0.5976143 4:1 2:0.43645792 3:-0.12977238 
1 0:-1.1952286 4:1 2:0.43645792 3:-0.12977238 
1 0:0 4:1 2:0.43645792 3:-0.12977238 
1 0:0 4:1 2:0.43645792 3:-0.12977238 
1 0:1.7928429 4:1 2:0.43645792 3:-0.75008281 
1 0:1.1952286 4:1 2:0.43645792 3:-0.75008281 
1 0:0 4:1 2:0.43645792 3:-0.75008281 
1 0:0 4:1 2:0.43645792 3:-0.75008281 
1 0:0.5976143 4:1 2:0.43645792 3:0.37610307 
1 0:-0.5976143 4:1 2:0.43645792 3:0.37610307 
1 0:0 4:1 2:0.43645792 3:0.37610307 
1 0:0 4:1 2:0.43645792 3:0.37610307 
1 0:1.1952286 4:1 2:0.43645792 3:0.15471177 
1 0:-1.1952286 4:1 2:0.43645792 3:0.15471177 
1 0:0 4:1 2:0.43645792 3:0.15471177 
1 0:0 4:1 2:0.43645792 3:0.15471177 
1 0:0.5976143 4:1 2:0.43645792 3:-0.12977238 
1 0:-1.7928429 4:1 2:0.43645792 3:-0.12977238 
1 0:0 4:1 2:0.43645792 3:-0.12977238 
1 0:0 4:1 2:0.43645792 3:-0.12977238 
1 0:1.7928429 4:1 2:0.43645792 3:-0.59151453 
1 0:-1.7928429 4:1 2:0.43645792 3:-0.59151453 
1 0:0.5976143 4:1 2:0.43645792 3:-0.75008281 
1 0:-0.5976143 4:1 2:0.43645792 3:-0.75008281 
1 0:0 4:1 2:0.43645792 3:-0.75008281 
1 0:-1.7928429 4:1 2:0.43645792 3:-0.75008281 
0.268720292899945 0:1.7928429 4:1 2:0.43645792 3:0.59996233 
1 0:1.1952286 4:1 2:0.43645792 3:0.59996233 
1 0:-1.1952286 4:1 2:0.43645792 3:0.59996233 
0.2687202504875464 0:-1.7928429 4:1 2:0.43645792 3:0.59996233 
0.8421707285015611 0:0 4:1 2:0.43645792 3:0.59996233 
1 0:0 4:1 2:0.43645792 3:0.59996233 
1 0:0.5976143 4:1 2:0.43645792 3:0.59996233 
1 0:-0.5976143 4:1 2:0.43645792 3:0.59996233 
1 0:0 4:1 2:0.43645792 3:0.59996233 
0.2938688766716765 0:0 4:1 2:0.43645792 3:0.59996233 
1 0:1.1952286 4:1 2:0.43645792 3:0.097475636 
1 0:0.5976143 4:1 2:0.43645792 3:0.097475636 
1 0:-1.7928429 4:1 2:0.43645792 3:0.097475636 
1 0:0 4:1 2:0.43645792 3:0.097475636 
1 0:0 4:1 2:0.43645792 3:0.097475636 
1 0:1.7928429 4:1 2:0.43645792 3:-0.15074658 
1 0:-0.5976143 4:1 2:0.43645792 3:-0.15074658 
1 0:-1.1952286 4:1 2:0.43645792 3:-0.15074658 
1 0:1.7928429 4:1 2:0.43645792 3:0.097475636 
1 0:-0.5976143 4:1 2:0.43645792 3:0.097475636 
1 0:-1.1952286 4:1 2:0.43645792 3:0.097475636 
1 0:0 4:1 2:0.43645792 3:0.097475636 
1 0:0 4:1 2:0.43645792 3:0.097475636 
1 0:1.1952286 4:1 2:0.43645792 3:-0.15074658 
1 0:0.5976143 4:1 2:0.43645792 3:-0.15074658 
1 0:-1.7928429 4:1 2:0.43645792 3:-0.15074658 
1 0:0 4:1 2:0.43645792 3:-0.15074658 
1 0:0 4:1 2:0.43645792 3:-0.15074658 
1 0:0 4:1 2:0.43645792 3:-0.15074658 
1 0:0 4:1 2:0.43645792 3:-0.15074658 
-1 0:1.1952286 4:1 2:0.43645792 3:0.25103437 
-1 0:-1.1952286 4:1 2:0.43645792 3:0.25103437 
-1 0:0 4:1 2:0.43645792 3:0.25103437 
-1 0:0 4:1 2:0.43645792 3:0.25103437 
-0.1482545496559619 0:1.7928429 4:1 2:0.43645792 3:-0.28237683 
-1 0:0.5976143 4:1 2:0.43645792 3:0.25103437 
-1 0:-0.5976143 4:1 2:0.43645792 3:0.25103437 
-1 0:-1.7928429 4:1 2:0.43645792 3:0.25103437 
-1 0:0 4:1 2:0.43645792 3:0.25103437 
-1 0:0 4:1 2:0.43645792 3:0.25103437 
-1 0:0.5976143 4:1 2:0.43645792 3:-0.28237683 
-1 0:-0.5976143 4:1 2:0.43645792 3:-0.28237683 
-1 0:0 4:1 2:0.43645792 3:-0.28237683 
-1 0:0 4:1 2:0.43645792 3:-0.28237683 
-1 0:1.7928429 4:1 2:0.43645792 3:-0.50149 
-1 0:1.1952286 4:1 2:0.43645792 3:-0.50149 
-1 0:-1.1952286 4:1 2:0.43645792 3:-0.50149 
-1 0:-1.7928429 4:1 2:0.43645792 3:-0.50149 
-1 0:0 4:1 2:0.43645792 3:-0.50149 
-0.1482545300874596 0:-1.7928429 4:1 2:0.43645792 3:-0.28237683 
-1 0:0 4:1 2:0.43645792 3:-0.28237683 
-1 0:0 4:1 2:0.43645792 3:-0.28237683 
-1 0:0.5976143 4:1 2:0.43645792 3:-0.50149 
-1 0:-0.5976143 4:1 2:0.43645792 3:-0.50149 
-1 0:0 4:1 2:0.43645792 3:-0.50149 
-1 0:0 4:1 2:0.43645792 3:-0.50149 
-1 0:0 4:1 2:0.43645792 3:-0.50149 
1 0:0 6:1 2:0.43645792 3:-0.93507078 
1 0:1.7928429 6:1 2:0.43645792 3:-0.93507078 
1 0:-0.5976143 6:1 2:0.43645792 3:-0.93507078 
1 0:-1.1952286 6:1 2:0.43645792 3:-0.93507078 
1 0:1.1952286 6:1 2:0.43645792 3:-0.93507078 
1 0:0.5976143 6:1 2:0.43645792 3:-0.93507078 
1 0:-1.7928429 6:1 2:0.43645792 3:-0.93507078 
1 0:0 6:1 2:0.43645792 3:-0.93507078 
1 0:0 6:1 2:0.43645792 3:-0.93507078 
1 0:1.1952286 7:1 2:-1.3362327 3:-1.1810066 
1 0:-1.1952286 7:1 2:-1.3362327 3:-1.1810066 
0.4350120441152637 0:1.1952286 7:1 2:-1.3362327 3:-1.1810066 
1 0:-1.1952286 7:1 2:-1.3362327 3:-1.1810066 
1 0:-1.1952286 7:1 2:-1.3362327 3:-1.1810066 
0.01016094020499959 0:-1.1952286 7:1 2:-1.3362327 3:-1.1810066 
0.07492271351148751 0:1.1952286 7:1 2:-1.3362327 3:-1.1810066 
0.4769629226087246 0:1.7928429 7:1 2:-1.3362327 3:-1.1810066 
1 0:1.1952286 7:1 2:-1.3362327 3:-1.1810066 
1 0:1.1952286 7:1 2:-1.3362327 3:-1.1810066 
0.497028847720059 0:-1.1952286 7:1 2:-1.3362327 3:-1.1810066 
0.3543771226700153 0:-1.7928429 7:1 2:-1.3362327 3:-1.1810066 
0.6956001760269535 0:1.7928429 7:1 2:-1.3362327 3:-1.1810066 
0.997256671441938 0:1.1952286 7:1 2:-1.3362327 3:-1.1810066 
1 0:-1.1952286 7:1 2:-1.3362327 3:-1.1810066 
0.818187107124915 0:-1.7928429 7:1 2:-1.3362327 3:-1.1810066 
1 0:1.7928429 9:1 2:1.3496622 3:1.9477111 
1 0:1.1952286 9:1 2:1.3496622 3:1.9477111 
1 0:-1.1952286 9:1 2:1.3496622 3:1.9477111 
1 0:-1.7928429 9:1 2:1.3496622 3:1.9477111 
1 0:0.5976143 9:1 2:1.3496622 3:1.9477111 
1 0:-0.5976143 9:1 2:1.3496622 3:1.9477111 
0.2727698035398646 0:1.1952286 9:1 2:1.3496622 3:1.6336008 
0.272770174456549 0:-1.1952286 9:1 2:1.3496622 3:1.6336008 
-1 0:1.1952286 9:1 2:1.3496622 3:1.3338176 
-1 0:0.5976143 9:1 2:1.3496622 3:1.3338176 
-1 0:-1.7928429 9:1 2:1.3496622 3:1.3338176 
-1 0:0 9:1 2:1.3496622 3:1.3338176 
-1 0:0 9:1 2:1.3496622 3:1.3338176 
-1 0:0.5976143 9:1 2:1.3496622 3:1.0276907 
-1 0:-0.5976143 9:1 2:1.3496622 3:1.0276907 
-1 0:0 9:1 2:1.3496622 3:1.0276907 
-1 0:0 9:1 2:1.3496622 3:1.0276907 
-1 0:1.7928429 9:1 2:1.3496622 3:0.71336462 
-0.6606377717201211 0:1.1952286 9:1 2:1.3496622 3:0.71336462 
-0.6606377823481584 0:-1.1952286 9:1 2:1.3496622 3:0.71336462 
-1 0:-1.7928429 9:1 2:1.3496622 3:0.71336462 
-1 0:1.7928429 9:1 2:1.3496622 3:1.3338176 
-1 0:-0.5976143 9:1 2:1.3496622 3:1.3338176 
-1 0:-1.1952286 9:1 2:1.3496622 3:1.3338176 
-1 0:0 9:1 2:1.3496622 3:1.3338176 
-1 0:0 9:1 2:1.3496622 3:1.3338176 
-1 0:1.7928429 9:1 2:1.3496622 3:1.0276907 
-1 0:1.1952286 9:1 2:1.3496622 3:1.0276907 
-1 0:-1.1952286 9:1 2:1.3496622 3:1.0276907 
-1 0:-1.7928429 9:1 2:1.3496622 3:1.0276907 
-1 0:0 9:1 2:1.3496622 3:1.0276907 
-1 0:0 9:1 2:1.3496622 3:1.0276907 
1 0:0 9:1 2:1.3496622 3:0.56911419 
1 0:1.1952286 9:1 2:1.3496622 3:1.8073209 
1 0:0.5976143 9:1 2:1.3496622 3:1.8073209 
1 0:0 9:1 2:1.3496622 3:1.8073209 
1 0:0 9:1 2:1.3496622 3:1.8073209 
-1 0:1.7928429 9:1 2:1.3496622 3:1.2258707 
-1 0:0.5976143 9:1 2:1.3496622 3:1.2258707 
-1 0:-0.5976143 9:1 2:1.3496622 3:1.2258707 
-1 0:0 9:1 2:1.3496622 3:1.2258707 
-1 0:0 9:1 2:1.3496622 3:1.2258707 
-1 0:1.7928429 9:1 2:1.3496622 3:0.81400168 
-1 0:1.1952286 9:1 2:1.3496622 3:0.81400168 
-1 0:-1.1952286 9:1 2:1.3496622 3:0.81400168 
-1 0:-1.7928429 9:1 2:1.3496622 3:0.81400168 
0.9908903194573813 0:1.7928429 9:1 2:1.3496622 3:1.8073209 
1 0:-0.5976143 9:1 2:1.3496622 3:1.8073209 
1 0:-1.1952286 9:1 2:1.3496622 3:1.8073209 
1 0:0 9:1 2:1.3496622 3:1.8073209 
1 0:0 9:1 2:1.3496622 3:1.8073209 
-1 0:1.1952286 9:1 2:1.3496622 3:1.2258707 
-1 0:-1.1952286 9:1 2:1.3496622 3:1.2258707 
-1 0:-1.7928429 9:1 2:1.3496622 3:1.2258707 
-1 0:0 9:1 2:1.3496622 3:1.2258707 
-1 0:0 9:1 2:1.3496622 3:1.2258707 
-1 0:0.5976143 9:1 2:1.3496622 3:0.81400168 
-1 0:-0.5976143 9:1 2:1.3496622 3:0.81400168 
-1 0:0 9:1 2:1.3496622 3:0.81400168 
-1 0:0 9:1 2:1.3496622 3:0.81400168 
-1 0:0 9:1 2:1.3496622 3:0.81400168 
-1 0:0 9:1 2:1.3496622 3:0.81400168 
1 0:0.5976143 9:1 2:1.3496622 3:0.56911419 
1 0:-0.5976143 9:1 2:1.3496622 3:0.56911419 
1 0:0 9:1 2:1.3496622 3:0.56911419 
1 0:0 9:1 2:1.3496622 3:0.56911419 
1 0:1.1952286 8:1 2:-1.3362327 3:-1.1810066 
1 0:-1.1952286 8:1 2:-1.3362327 3:-1.1810066 
0.7829088064544373 0:1.1952286 8:1 2:-1.3362327 3:-1.1810066 
0.0005592695746523697 0:-1.7928429 8:1 2:-1.3362327 3:-1.1810066 
0.9995061900123243 0:-1.1952286 8:1 2:-1.3362327 3:-1.1810066 
0.6446753591509627 0:1.7928429 8:1 2:-1.3362327 3:-1.1810066 
0.4278120050333224 0:-1.1952286 8:1 2:-1.3362327 3:-1.1810066 
0.5370584351704885 0:1.1952286 8:1 2:-1.3362327 3:-1.1810066 
0.8926502391476731 0:-1.1952286 8:1 2:-1.3362327 3:-1.1810066 
1 0:1.1952286 8:1 2:-1.3362327 3:-1.1810066 
0.6199257111118363 0:-1.7928429 8:1 2:-1.3362327 3:-1.1810066 
0.7176419610237306 0:1.7928429 8:1 2:-1.3362327 3:-1.1810066 
1 0:1.1952286 8:1 2:-1.3362327 3:-1.1810066 
1 0:-1.1952286 8:1 2:-1.3362327 3:-1.1810066 
0.7418314131944141 0:-1.7928429 8:1 2:-1.3362327 3:-1.1810066 
0.4159944954143879 0:-1.1952286 5:1 2:-1.3362327 3:-1.1810066 
1 0:1.7928429 5:1 2:-1.3362327 3:-1.1810066 
0.1897199503481665 0:1.1952286 5:1 2:-1.3362327 3:-1.1810066 
1 0:1.7928429 5:1 2:-1.3362327 3:-1.1810066 
0.6901761853180501 0:1.1952286 5:1 2:-1.3362327 3:-1.1810066 
0.46390166362656 0:-1.1952286 5:1 2:-1.3362327 3:-1.1810066 
1 0:-1.7928429 5:1 2:-1.3362327 3:-1.1810066 
1 0:-1.7928429 5:1 2:-1.3362327 3:-1.1810066 
-0.2503007433132767 0:1.7928429 1:1 2:-1.3362327 3:-0.98157186 
-0.9999996988360489 0:0 1:1 2:-1.3362327 3:-0.98157186 
-1 0:0 1:1 2:-1.3362327 3:-0.98157186 
-1 0:0 1:1 2:-1.3362327 3:-0.98157186 
-0.1825678436023859 0:-1.7928429 1:1 2:-1.3362327 3:-0.98157186 
-1 0:0 1:1 2:-1.3362327 3:-0.98157186 
-0.466693479539616 0:0 1:1 2:-1.3362327 3:-0.98157186 
1 0:0 1:1 2:-1.3362327 3:-1.1810066 
1 0:1.7928429 1:1 2:-1.3362327 3:-1.1810066 
1 0:-0.5976143 1:1 2:-1.3362327 3:-1.1810066 
1 0:1.1952286 1:1 2:-1.3362327 3:-1.1810066 
1 0:0.5976143 1:1 2:-1.3362327 3:-1.1810066 
1 0:-1.1952286 1:1 2:-1.3362327 3:-1.1810066 
1 0:-1.7928429 1:1 2:-1.3362327 3:-1.1810066 
1 0:0 1:1 2:-1.3362327 3:-1.1810066 
1 0:0 1:1 2:-1.3362327 3:-1.1810066 
1 0:0.5976143 1:1 2:-1.3362327 3:-1.1810066 
1 0:-0.5976143 1:1 2:-1.3362327 3:-1.1810066 
1 0:-1.7928429 1:1 2:-1.3362327 3:-1.1810066 
1 0:0 1:1 2:-1.3362327 3:-1.1810066 
1 0:0 1:1 2:-1.3362327 3:-1.1810066 
1 0:0 1:1 2:-1.3362327 3:-1.1810066 
1 0:1.7928429 1:1 2:-1.3362327 3:-1.1810066 
1 0:1.1952286 1:1 2:-1.3362327 3:-1.1810066 
1 0:-1.1952286 1:1 2:-1.3362327 3:-1.1810066 
1 0:0 1:1 2:-1.3362327 3:-1.1810066 
1 0:0 1:1 2:-1.3362327 3:-1.1810066 
-1 0:0 1:1 2:-1.3362327 3:-0.98157186 
-1 0:0 1:1 2:-1.3362327 3:-0.98157186 
-0.08569015676355071 0:1.7928429 1:1 2:-1.3362327 3:-0.98157186 
-0.1534232159625208 0:-1.7928429 1:1 2:-1.3362327 3:-0.98157186 
-1 0:0 1:1 2:-1.3362327 3:-0.98157186 
-1 0:0 1:1 2:-1.3362327 3:-0.98157186 
-1 0:0 1:1 2:-1.3362327 3:-0.98157186 
-1 0:0 1:1 2:-1.3362327 3:-0.98157186 
-1 0:0 1:1 2:-1.3362327 3:-0.98157186 
-1 0:0 1:1 2:-1.3362327 3:-0.98157186 
0.9908901236267785 0:-1.7928429 9:1 2:1.3496622 3:1.8073209 
-1 0:0 1:1 2:-1.3362327 3:-0.98157186 
-0.3602699087044436 0:1.7928429 4:1 2:1.3496622 3:0.67340087 
-0.3602702950708058 0:-1.7928429 4:1 2:1.3496622 3:0.67340087 
1 0:1.1952286 4:1 2:1.3496622 3:0.039607775 
1 0:0.5976143 4:1 2:1.3496622 3:0.039607775 
1 0:-1.7928429 4:1 2:1.3496622 3:0.039607775 
1 0:0 4:1 2:1.3496622 3:0.039607775 
1 0:0 4:1 2:1.3496622 3:0.039607775 
1 0:0 4:1 2:1.3496622 3:0.039607775 
-1 0:1.7928429 4:1 2:1.3496622 3:0.38384744 
-1 0:-1.7928429 4:1 2:1.3496622 3:0.38384744 
1 0:1.7928429 4:1 2:1.3496622 3:0.039607775 
1 0:-0.5976143 4:1 2:1.3496622 3:0.039607775 
1 0:-1.1952286 4:1 2:1.3496622 3:0.039607775 
1 0:0 4:1 2:1.3496622 3:0.039607775 
0.05505530599787707 0:1.7928429 9:1 2:-1.3362327 3:-1.1810066 
0.9217618874280329 0:-1.1952286 9:1 2:-1.3362327 3:-1.1810066 
0.9973006179827301 0:1.1952286 9:1 2:-1.3362327 3:-1.1810066 
0.103427835032729 0:-1.7928429 9:1 2:-1.3362327 3:-1.1810066 
1 0:1.1952286 9:1 2:-1.3362327 3:-1.1810066 
1 0:-1.1952286 9:1 2:-1.3362327 3:-1.1810066 
0.5140315365273096 0:1.1952286 9:1 2:-1.3362327 3:-1.1810066 
0.5520121020846812 0:-1.1952286 9:1 2:-1.3362327 3:-1.1810066 
0.03325153115426931 0:-1.7928429 9:1 2:-1.3362327 3:-1.1810066 
0.0067169209428861 0:1.7928429 9:1 2:-1.3362327 3:-1.1810066 
0.01284001330939653 0:1.1952286 9:1 2:-1.3362327 3:-1.1810066 
1.969565748671012e-05 0:-1.1952286 9:1 2:-1.3362327 3:-1.1810066 
1 0:1.7928429 4:1 2:1.3496622 3:1.4615797 
1 0:1.1952286 4:1 2:1.3496622 3:1.4615797 
1 0:-1.1952286 4:1 2:1.3496622 3:1.4615797 
1 0:-1.7928429 4:1 2:1.3496622 3:1.4615797 
1 0:0 4:1 2:1.3496622 3:1.4615797 
1 0:0.5976143 4:1 2:1.3496622 3:1.4615797 
1 0:-0.5976143 4:1 2:1.3496622 3:1.4615797 
1 0:0 4:1 2:1.3496622 3:1.4615797 
1 0:0 4:1 2:1.3496622 3:1.4615797 
1 0:0 4:1 2:1.3496622 3:1.4615797 
-1 0:1.7928429 4:1 2:1.3496622 3:0.8522654 
-1 0:1.1952286 4:1 2:1.3496622 3:0.8522654 
-1 0:-1.1952286 4:1 2:1.3496622 3:0.8522654 
-1 0:-1.7928429 4:1 2:1.3496622 3:0.8522654 
-1 0:0 4:1 2:1.3496622 3:0.8522654 
-1 0:0 4:1 2:1.3496622 3:0.8522654 
-1 0:1.7928429 4:1 2:1.3496622 3:0.54250234 
-1 0:0.5976143 4:1 2:1.3496622 3:0.8522654 
-1 0:-0.5976143 4:1 2:1.3496622 3:0.8522654 
-1 0:0 4:1 2:1.3496622 3:0.8522654 
-1 0:0 4:1 2:1.3496622 3:0.8522654 
-1 0:-1.7928429 4:1 2:1.3496622 3:0.54250234 
-1 0:1.7928429 4:1 2:1.3496622 3:0.23614321 
-1 0:-1.7928429 4:1 2:1.3496622 3:0.23614321 
-0.9483274082576435 0:0 4:1 2:1.3496622 3:0.23614321 
-1 0:0 4:1 2:1.3496622 3:0.23614321 
-1 0:0 4:1 2:1.3496622 3:0.23614321 
-0.6360249345374757 0:0 4:1 2:1.3496622 3:0.23614321 
-1 0:-0.5976143 4:1 2:1.3496622 3:0.66448705 
-1 0:0 4:1 2:1.3496622 3:0.66448705 
-1 0:0 4:1 2:1.3496622 3:0.66448705 
-1 0:1.7928429 4:1 2:1.3496622 3:0.66448705 
-0.3046142536096996 0:1.1952286 4:1 2:1.3496622 3:0.66448705 
-1 0:0.5976143 4:1 2:1.3496622 3:0.66448705 
-0.304613723401321 0:-1.1952286 4:1 2:1.3496622 3:0.66448705 
-1 0:-1.7928429 4:1 2:1.3496622 3:0.66448705 
-1 0:0 4:1 2:1.3496622 3:0.66448705 
-1 0:0 4:1 2:1.3496622 3:0.66448705 
-1 0:0.5976143 4:1 2:1.3496622 3:0.40119306 
-1 0:-0.5976143 4:1 2:1.3496622 3:0.40119306 
-1 0:0 4:1 2:1.3496622 3:0.40119306 
-1 0:0 4:1 2:1.3496622 3:0.40119306 
-1 0:1.7928429 4:1 2:1.3496622 3:0.40119306 
-1 0:1.1952286 4:1 2:1.3496622 3:0.40119306 
-1 0:-1.1952286 4:1 2:1.3496622 3:0.40119306 
-1 0:-1.7928429 4:1 2:1.3496622 3:0.40119306 
-1 0:0 4:1 2:1.3496622 3:0.40119306 
-1 0:0 4:1 2:1.3496622 3:0.40119306 
-1 0:1.7928429 6:1 2:1.3496622 3:-0.20590807 
-1 0:-1.7928429 6:1 2:1.3496622 3:-0.20590807 
-0.9822946593878359 0:0 6:1 2:1.3496622 3:-0.54127897 
-0.1457388840603935 0:0 6:1 2:1.3496622 3:-0.54127897 
-1 0:-1.7928429 6:1 2:1.3496622 3:-0.38277639 
-0.2383144194489377 0:0 6:1 2:1.3496622 3:-0.38277639 
-1 0:1.7928429 6:1 2:1.3496622 3:-0.38277639 
-0.8651445755957233 0:0 6:1 2:1.3496622 3:-0.38277639 
-1 0:-1.7928429 7:1 2:1.3496622 3:0.12866204 
-1 0:1.7928429 7:1 2:1.3496622 3:0.12866204 
1 0:0.5976143 7:1 2:1.3496622 3:-0.15017796 
1 0:0 7:1 2:1.3496622 3:-0.15017796 
1 0:1.1952286 7:1 2:1.3496622 3:-0.15017796 
1 0:-0.5976143 7:1 2:1.3496622 3:-0.15017796 
1 0:-1.1952286 7:1 2:1.3496622 3:-0.15017796 
1 0:0 7:1 2:1.3496622 3:-0.15017796 
1 0:0 7:1 2:1.3496622 3:-0.15017796 
1 0:0 7:1 2:1.3496622 3:-0.15017796 
0.6647022844334252 0:1.1952286 9:1 2:-1.3362327 3:-1.1810066 
0.02827125494755667 0:1.7928429 9:1 2:-1.3362327 3:-1.1810066 
0.5133496183955272 0:-1.1952286 9:1 2:-1.3362327 3:-1.1810066 
0.6596389533894632 0:-1.7928429 9:1 2:-1.3362327 3:-1.1810066 
0.7062756705764686 0:1.7928429 9:1 2:-1.3362327 3:-1.1810066 
1 0:-1.7928429 9:1 2:-1.3362327 3:-1.1810066 
1 0:1.7928429 9:1 2:-1.3362327 3:-1.1810066 
0.3180675256658766 0:1.1952286 9:1 2:-1.3362327 3:-1.1810066 
0.5197996996933869 0:-1.1952286 9:1 2:-1.3362327 3:-1.1810066 
1 0:1.7928429 9:1 2:-1.3362327 3:-1.1810066 
1 0:1.1952286 9:1 2:-1.3362327 3:-1.1810066 
1 0:-1.1952286 9:1 2:-1.3362327 3:-1.1810066 
1 0:-1.7928429 9:1 2:-1.3362327 3:-1.1810066 
1 0:1.1952286 4:1 2:-1.3362327 3:-1.1810066 
0.002032694351335109 0:-1.7928429 4:1 2:-1.3362327 3:-1.1810066 
0.004695217304818876 0:1.7928429 4:1 2:-1.3362327 3:-1.1810066 
1 0:1.1952286 4:1 2:-1.3362327 3:-1.1810066 
1 0:-1.1952286 4:1 2:-1.3362327 3:-1.1810066 
1 0:1.1952286 4:1 2:-1.3362327 3:-1.1810066 
1 0:-1.1952286 4:1 2:-1.3362327 3:-1.1810066 
0.2252459040681256 0:1.1952286 4:1 2:-1.3362327 3:-1.1810066 
1 0:-1.1952286 4:1 2:-1.3362327 3:-1.1810066 
1 0:-1.1952286 4:1 2:-1.3362327 3:-1.1810066 
0.1465182013133802 0:-1.1952286 4:1 2:-1.3362327 3:-1.1810066 
-1 0:1.7928429 7:1 2:1.3496622 3:0.23821006 
-1 0:-1.1952286 7:1 2:1.3496622 3:0.23821006 
-1 0:-1.7928429 7:1 2:1.3496622 3:0.23821006 
-1 0:0 7:1 2:1.3496622 3:0.23821006 
-1 0:0 7:1 2:1.3496622 3:0.23821006 
-1 0:0 7:1 2:1.3496622 3:0.23821006 
-1 0:1.7928429 7:1 2:1.3496622 3:-0.031889345 
-1 0:-0.5976143 7:1 2:1.3496622 3:-0.031889345 
-1 0:-1.1952286 7:1 2:1.3496622 3:-0.031889345 
-0.2154825761211289 0:0.5976143 7:1 2:1.3496622 3:0.23821006 
-0.2154834839240845 0:-0.5976143 7:1 2:1.3496622 3:0.23821006 
-1 0:0 7:1 2:1.3496622 3:0.23821006 
-1 0:1.1952286 7:1 2:1.3496622 3:-0.031889345 
-1 0:0.5976143 7:1 2:1.3496622 3:-0.031889345 
-1 0:-1.7928429 7:1 2:1.3496622 3:-0.031889345 
-1 0:0 7:1 2:1.3496622 3:-0.031889345 
-1 0:0 7:1 2:1.3496622 3:-0.031889345 
-1 0:0 7:1 2:1.3496622 3:-0.031889345 
-0.314020906173865 0:-1.7928429 7:1 2:1.3496622 3:-0.22426471 
-0.9999770028270741 0:0 7:1 2:1.3496622 3:-0.48479157 
-1 0:0 7:1 2:1.3496622 3:-0.031889345 
-0.314021220030248 0:1.7928429 7:1 2:1.3496622 3:-0.22426471 
-1 0:0 7:1 2:1.3496622 3:-0.48479157 
-0.2926342573589453 0:0 7:1 2:1.3496622 3:-0.48479157 
-0.2842144183151071 0:0 7:1 2:1.3496622 3:-0.48479157 
0.6626879748824573 0:1.1952286 4:1 2:-1.3362327 3:-1.1810066 
0.03966170836606019 0:1.7928429 4:1 2:-1.3362327 3:-1.1810066 
0.02833001391810835 0:-1.7928429 4:1 2:-1.3362327 3:-1.1810066 
0.9048766900039373 0:1.7928429 4:1 2:-1.3362327 3:-1.1810066 
1 0:1.1952286 4:1 2:-1.3362327 3:-1.1810066 
0.7414168271044783 0:-1.1952286 4:1 2:-1.3362327 3:-1.1810066 
0.918870024338768 0:-1.7928429 4:1 2:-1.3362327 3:-1.1810066 
0.3082902186600002 0:1.1952286 6:1 2:-1.3362327 3:-1.1810066 
0.3186894441185665 0:-1.1952286 6:1 2:-1.3362327 3:-1.1810066 
0.2929034799460973 0:-1.7928429 6:1 2:-1.3362327 3:-1.1810066 
0.2352368754097155 0:1.7928429 6:1 2:-1.3362327 3:-1.1810066 
0.08831278153488271 0:-1.1952286 6:1 2:-1.3362327 3:-1.1810066 
0.5844446877971065 0:1.7928429 6:1 2:-1.3362327 3:-1.1810066 
0.09871172469234771 0:1.1952286 6:1 2:-1.3362327 3:-1.1810066 
0.5267778472945094 0:-1.7928429 6:1 2:-1.3362327 3:-1.1810066 
-1 0:-1.7928429 8:1 2:1.3496622 3:-0.021637016 
-0.5136473477068251 0:-1.7928429 8:1 2:1.3496622 3:1.2258707 
-1 0:0.5976143 8:1 2:1.3496622 3:0.81400168 
-1 0:-0.5976143 8:1 2:1.3496622 3:0.81400168 
-1 0:0 8:1 2:1.3496622 3:0.81400168 
-1 0:0 8:1 2:1.3496622 3:0.81400168 
1 0:-0.5976143 8:1 2:1.3496622 3:0.56911419 
-0.513647338919639 0:1.7928429 8:1 2:1.3496622 3:1.2258707 
-1 0:1.7928429 8:1 2:1.3496622 3:0.81400168 
-1 0:1.1952286 8:1 2:1.3496622 3:0.81400168 
-1 0:-1.1952286 8:1 2:1.3496622 3:0.81400168 
-1 0:-1.7928429 8:1 2:1.3496622 3:0.81400168 
-1 0:0 8:1 2:1.3496622 3:0.81400168 
1 0:0.5976143 8:1 2:1.3496622 3:0.56911419 
0.9348622747644619 0:0 8:1 2:1.3496622 3:0.56911419 
0.692045774734476 0:0 8:1 2:1.3496622 3:0.56911419 
-1 0:0.5976143 8:1 2:1.3496622 3:0.25674967 
-1 0:-0.5976143 8:1 2:1.3496622 3:0.25674967 
-1 0:0 8:1 2:1.3496622 3:0.25674967 
-1 0:0 8:1 2:1.3496622 3:0.25674967 
-1 0:1.7928429 8:1 2:1.3496622 3:-0.021637016 
-0.8337346767902244 0:0 8:1 2:1.3496622 3:-0.021637016 
-0.08174014381133272 0:0 8:1 2:1.3496622 3:-0.021637016 
-1 0:1.7928429 8:1 2:1.3496622 3:0.25674967 
-1 0:1.1952286 8:1 2:1.3496622 3:0.25674967 
-1 0:-1.1952286 8:1 2:1.3496622 3:0.25674967 
-1 0:-1.7928429 8:1 2:1.3496622 3:0.25674967 
-1 0:0 8:1 2:1.3496622 3:0.25674967 
-1 0:0 8:1 2:1.3496622 3:0.25674967 
-0.06066307891877706 0:0 8:1 2:1.3496622 3:-0.021637016 
-1 0:0 5:1 2:1.3496622 3:1.3338176 
0.7600883733216787 0:0.5976143 5:1 2:1.3496622 3:1.9477111 
0.7600901429454284 0:-0.5976143 5:1 2:1.3496622 3:1.9477111 
1 0:1.1952286 5:1 2:1.3496622 3:1.9477111 
1 0:-1.1952286 5:1 2:1.3496622 3:1.9477111 
0.09568171938330677 0:-1.7928429 5:1 2:1.3496622 3:1.9477111 
-1 0:0.5976143 5:1 2:1.3496622 3:1.3338176 
-1 0:-0.5976143 5:1 2:1.3496622 3:1.3338176 
-1 0:-1.1952286 5:1 2:1.3496622 3:1.3338176 
-1 0:-1.7928429 5:1 2:1.3496622 3:1.3338176 
-1 0:1.7928429 5:1 2:1.3496622 3:1.3338176 
-1 0:1.1952286 5:1 2:1.3496622 3:1.3338176 
-1 0:0 5:1 2:1.3496622 3:1.3338176 
-1 0:0 5:1 2:1.3496622 3:1.3338176 
-1 0:0 5:1 2:1.3496622 3:1.3338176 
1 0:1.7928429 1:1 2:1.3496622 3:3.1143566 
1 0:1.1952286 1:1 2:1.3496622 3:3.1143566 
1 0:-1.1952286 1:1 2:1.3496622 3:3.1143566 
1 0:-1.7928429 1:1 2:1.3496622 3:3.1143566 
1 0:0 1:1 2:1.3496622 3:3.1143566 
1 0:0 1:1 2:1.3496622 3:3.1143566 
1 0:1.1952286 1:1 2:1.3496622 3:2.7739524 
1 0:0.5976143 1:1 2:1.3496622 3:2.7739524 
1 0:-1.7928429 1:1 2:1.3496622 3:2.7739524 
-1 0:0.5976143 1:1 2:1.3496622 3:2.4335533 
-1 0:-0.5976143 1:1 2:1.3496622 3:2.4335533 
-1 0:0 1:1 2:1.3496622 3:2.4335533 
-1 0:0 1:1 2:1.3496622 3:2.4335533 
1 0:0.5976143 1:1 2:1.3496622 3:3.1143566 
1 0:-0.5976143 1:1 2:1.3496622 3:3.1143566 
1 0:0 1:1 2:1.3496622 3:3.1143566 
1 0:0 1:1 2:1.3496622 3:3.1143566 
1 0:1.7928429 1:1 2:1.3496622 3:2.7739524 
1 0:-0.5976143 1:1 2:1.3496622 3:2.7739524 
1 0:-1.1952286 1:1 2:1.3496622 3:2.7739524 
-1 0:1.7928429 1:1 2:1.3496622 3:2.4335533 
-1 0:1.1952286 1:1 2:1.3496622 3:2.4335533 
-1 0:-1.1952286 1:1 2:1.3496622 3:2.4335533 
-1 0:-1.7928429 1:1 2:1.3496622 3:2.4335533 
-1 0:0 1:1 2:1.3496622 3:2.4335533 
-1 0:0 1:1 2:1.3496622 3:2.4335533 
1 0:-0.5976143 1:1 2:1.3496622 3:1.752755 
1 0:0 1:1 2:1.3496622 3:1.752755 
1 0:0 1:1 2:1.3496622 3:1.752755 
1 0:1.7928429 1:1 2:1.3496622 3:1.4646897 
1 0:1.1952286 1:1 2:1.3496622 3:1.4646897 
1 0:-1.1952286 1:1 2:1.3496622 3:1.4646897 
1 0:-1.7928429 1:1 2:1.3496622 3:1.4646897 
1 0:0 1:1 2:1.3496622 3:1.4646897 
0.1440191343491962 0:1.1952286 1:1 2:1.3496622 3:1.1242906 
1 0:0.5976143 1:1 2:1.3496622 3:1.1242906 
1 0:0 1:1 2:1.3496622 3:1.1242906 
1 0:1.1952286 1:1 2:1.3496622 3:1.752755 
1 0:0.5976143 1:1 2:1.3496622 3:1.752755 
1 0:-1.1952286 1:1 2:1.3496622 3:1.752755 
1 0:0 1:1 2:1.3496622 3:1.752755 
1 0:0 1:1 2:1.3496622 3:1.752755 
1 0:0.5976143 1:1 2:1.3496622 3:1.4646897 
1 0:-0.5976143 1:1 2:1.3496622 3:1.4646897 
1 0:0 1:1 2:1.3496622 3:1.4646897 
1 0:0 1:1 2:1.3496622 3:1.4646897 
1 0:0 1:1 2:1.3496622 3:1.4646897 
1 0:-0.5976143 1:1 2:1.3496622 3:1.1242906 
0.1440197363744306 0:-1.1952286 1:1 2:1.3496622 3:1.1242906 
1 0:0 1:1 2:1.3496622 3:1.1242906 
1 0:0 1:1 2:1.3496622 3:1.1242906 
1 0:0 1:1 2:1.3496622 3:1.1242906 
