svm_type epsilon_svr
kernel_type rbf
gamma 0.1
nr_class 2
total_sv 800
rho -1.8522
SV
-1 0:0 1:1 2:1.3496622 3:0.92136814 
-0.01330837375127779 0:0.5976143 1:1 2:1.3496622 3:1.9574591 
-1 0:-1.1952286 1:1 2:1.3496622 3:0.92567919 
-0.8234645358641016 0:0.5976143 1:1 2:1.3496622 3:1.9574591 
-0.9897224716399099 0:0.5976143 1:1 2:1.3496622 3:1.9574591 
-1 0:1.7928429 4:1 2:-0.44988739 3:-0.90073594 
1 0:0 7:1 2:-0.44988739 3:-0.9299202 
-1 0:1.7928429 4:1 2:-0.44988739 3:-0.90073594 
1 0:0 8:1 2:-0.44988739 3:-1.0190384 
-1 0:-1.7928429 8:1 2:-0.44988739 3:-0.41762624 
1 0:1.7928429 7:1 2:0.43645792 3:-0.11999523 
1 0:0 8:1 2:0.43645792 3:-0.48943749 
1 0:0 5:1 2:0.43645792 3:-0.37371359 
0.5728355807121507 0:1.7928429 5:1 2:0.43645792 3:0.12259247 
1 0:0 1:1 2:0.43645792 3:0.62992829 
0.4277183344367523 0:1.7928429 9:1 2:0.43645792 3:0.92737137 
-1 0:1.7928429 7:1 2:-0.44988739 3:-0.56745768 
-1 0:1.1952286 7:1 2:-0.44988739 3:-0.51303141 
-1 0:-1.1952286 7:1 2:-0.44988739 3:-0.51086116 
-1 0:-1.7928429 7:1 2:-0.44988739 3:-0.51086116 
1 0:0 7:1 2:-0.44988739 3:-0.51087929 
-1 0:0 7:1 2:-0.44988739 3:-0.53915942 
-1 0:0 7:1 2:-0.44988739 3:-0.51194633 
-1 0:1.7928429 7:1 2:-0.44988739 3:-0.90073594 
-1 0:0 7:1 2:-0.44988739 3:-0.84712527 
-1 0:1.1952286 7:1 2:-0.44988739 3:-0.85086572 
-0.5900978991131995 0:0.5976143 7:1 2:-0.44988739 3:-0.84589469 
-1 0:0 7:1 2:-0.44988739 3:-0.87203402 
-1 0:1.7928429 7:1 2:-0.44988739 3:-0.56745768 
-1 0:0 7:1 2:-0.44988739 3:-0.53915942 
-1 0:0 7:1 2:-0.44988739 3:-0.51194633 
-1 0:1.1952286 7:1 2:-0.44988739 3:-0.51303141 
-1 0:-1.1952286 7:1 2:-0.44988739 3:-0.51086116 
-1 0:-1.7928429 7:1 2:-0.44988739 3:-0.51086116 
1 0:0 7:1 2:-0.44988739 3:-0.51087929 
-1 0:0.5976143 7:1 2:-0.44988739 3:-0.7048859 
-1 0:0 7:1 2:-0.44988739 3:-0.7376089 
-1 0:1.7928429 7:1 2:-0.44988739 3:-0.77277295 
-1 0:1.1952286 7:1 2:-0.44988739 3:-0.7098551 
-1 0:0 7:1 2:-0.44988739 3:-0.70617346 
-1 0:0 7:1 2:-0.44988739 3:-0.70377311 
-1 0:0 5:1 2:-0.44988739 3:-0.7376089 
-0.8728260998786437 0:0 5:1 2:-0.44988739 3:0.16335243 
-1 0:-1.1952286 5:1 2:-0.44988739 3:0.16502928 
-1 0:0 5:1 2:-0.44988739 3:0.15342151 
-1 0:-1.1952286 5:1 2:-0.44988739 3:0.16502928 
-1 0:0 5:1 2:-0.44988739 3:0.15342151 
-0.9969389289802574 0:0 5:1 2:-0.44988739 3:0.16335243 
-0.1846601654702504 0:-1.7928429 5:1 2:-0.44988739 3:-0.0099166348 
-1 0:1.7928429 5:1 2:-0.44988739 3:-0.12737838 
-1 0:-1.1952286 5:1 2:-0.44988739 3:-0.0099260446 
-1 0:0 5:1 2:-0.44988739 3:-0.068647418 
-1 0:0 5:1 2:-0.44988739 3:-0.018895078 
-1 0:1.7928429 5:1 2:-0.44988739 3:-0.56745768 
-1 0:1.1952286 5:1 2:-0.44988739 3:-0.51303141 
-1 0:-1.1952286 5:1 2:-0.44988739 3:-0.51086116 
-1 0:-1.7928429 5:1 2:-0.44988739 3:-0.51086116 
-1 0:0 5:1 2:-0.44988739 3:-0.53915942 
1 0:0 5:1 2:-0.44988739 3:-0.51087929 
-1 0:1.7928429 5:1 2:-0.44988739 3:-0.77277295 
-1 0:0 5:1 2:-0.44988739 3:-0.51194633 
-1 0:1.1952286 5:1 2:-0.44988739 3:-0.7098551 
-1 0:0.5976143 5:1 2:-0.44988739 3:-0.7048859 
-0.5243485158190233 0:0 5:1 2:-0.44988739 3:-0.70377311 
-1 0:0 5:1 2:-0.44988739 3:-0.70617346 
-0.628080356605234 0:1.1952286 9:1 2:-0.44988739 3:0.74806614 
-1 0:-1.1952286 9:1 2:-0.44988739 3:0.8245339 
-1 0:1.1952286 9:1 2:-0.44988739 3:0.64718224 
-1 0:0.5976143 9:1 2:-0.44988739 3:0.71089774 
-1 0:0 9:1 2:-0.44988739 3:0.78629994 
-1 0:1.7928429 9:1 2:-0.44988739 3:0.43258986 
-0.9424259917881761 0:-1.1952286 9:1 2:-0.44988739 3:0.72393386 
-1 0:0 9:1 2:-0.44988739 3:0.68555805 
-0.7276145998993971 0:0.5976143 1:1 2:-0.44988739 3:1.2450131 
-0.2213399837543652 0:-1.1952286 1:1 2:-0.44988739 3:1.2501184 
-0.9976378448724621 0:-1.1952286 1:1 2:-0.44988739 3:1.2501184 
-0.9905594431517604 0:0.5976143 1:1 2:-0.44988739 3:1.2450131 
-0.9730751661469692 0:-1.1952286 1:1 2:-0.44988739 3:1.2501184 
-1 0:1.7928429 1:1 2:-0.44988739 3:-0.087987186 
-0.6080985220718114 0:-1.1952286 1:1 2:-0.44988739 3:0.33586906 
-1 0:0 1:1 2:-0.44988739 3:0.12394085 
-0.0645281964555065 0:1.7928429 7:1 2:-0.44988739 3:-0.35337613 
-1 0:-1.1952286 7:1 2:-0.44988739 3:-0.33265383 
-1 0:0 7:1 2:-0.44988739 3:-0.34301498 
-1 0:0 7:1 2:-0.44988739 3:-0.33402329 
-1 0:1.7928429 7:1 2:-0.44988739 3:-0.4769636 
-1 0:1.1952286 7:1 2:-0.44988739 3:-0.42116325 
-1 0:-1.1952286 7:1 2:-0.44988739 3:-0.41762824 
-1 0:0 7:1 2:-0.44988739 3:-0.44729492 
-1 0:0 7:1 2:-0.44988739 3:-0.41939579 
-1 0:-1.7928429 7:1 2:-0.44988739 3:-0.33265383 
-1 0:0.5976143 7:1 2:-0.44988739 3:-0.4180522 
-1 0:-0.5976143 7:1 2:-0.44988739 3:-0.4176366 
-1 0:-1.7928429 7:1 2:-0.44988739 3:-0.41762624 
-1 0:0 7:1 2:-0.44988739 3:-0.4178444 
-1 0:0 7:1 2:-0.44988739 3:-0.89207151 
-1 0:-1.1952286 7:1 2:-0.44988739 3:-0.87728221 
-1 0:0 7:1 2:-0.44988739 3:-0.88323377 
-1 0:0 7:1 2:-0.44988739 3:-0.94776713 
-1 0:-1.1952286 6:1 2:-0.44988739 3:0.24361423 
-1 0:0 6:1 2:-0.44988739 3:0.22312856 
-1 0:0 6:1 2:-0.44988739 3:0.23995628 
-1 0:-0.5976143 6:1 2:-0.44988739 3:0.24337619 
-0.1593197080298615 0:-1.7928429 6:1 2:-0.44988739 3:0.2437146 
-1 0:-1.1952286 6:1 2:-0.44988739 3:-0.0054755943 
-1 0:0 6:1 2:-0.44988739 3:-0.018201024 
-1 0:-1.1952286 6:1 2:-0.44988739 3:-0.17309952 
-1 0:0 6:1 2:-0.44988739 3:-0.17545282 
1 0:0 1:1 2:-1.3362327 3:-1.2395657 
-1 0:-1.7928429 6:1 2:-0.44988739 3:-0.17309151 
-1 0:0 6:1 2:-0.44988739 3:-0.19170864 
1 0:0 5:1 2:-1.3362327 3:-1.2395657 
0.6503524126156981 0:0 6:1 2:-1.3362327 3:-1.1611658 
0.7588458344034588 0:0 8:1 2:-1.3362327 3:-1.1611658 
1 0:0 9:1 2:-1.3362327 3:-1.1611658 
-0.04141746563538085 0:1.7928429 6:1 2:-0.44988739 3:0.064433068 
-1 0:-1.1952286 6:1 2:-0.44988739 3:0.16502928 
-1 0:0 6:1 2:-0.44988739 3:0.16335243 
-1 0:1.7928429 6:1 2:-0.44988739 3:0.064433068 
-1 0:1.7928429 6:1 2:-0.44988739 3:0.064433068 
-1 0:0.5976143 6:1 2:-0.44988739 3:0.16180209 
-1 0:-0.5976143 6:1 2:-0.44988739 3:0.16490277 
-1 0:0 6:1 2:-0.44988739 3:0.15342151 
-0.3396524626082439 0:0 6:1 2:-0.44988739 3:0.16427685 
-1 0:-1.1952286 6:1 2:-0.44988739 3:-0.0099260446 
-1 0:0 6:1 2:-0.44988739 3:-0.068647418 
-1 0:0 6:1 2:-0.44988739 3:-0.018895078 
-1 0:0 8:1 2:-0.44988739 3:-0.10812748 
-1 0:0 8:1 2:-0.44988739 3:-0.10812748 
-1 0:-1.1952286 8:1 2:-0.44988739 3:-0.33265383 
-1 0:0 8:1 2:-0.44988739 3:-0.33402329 
-1 0:1.1952286 8:1 2:-0.44988739 3:-0.42116325 
-1 0:-1.1952286 8:1 2:-0.44988739 3:-0.41762824 
-1 0:0 8:1 2:-0.44988739 3:-0.4178444 
-1 0:-1.7928429 8:1 2:-0.44988739 3:-0.33265383 
-1 0:0 8:1 2:-0.44988739 3:-0.34301498 
-1 0:1.7928429 8:1 2:-0.44988739 3:-0.4769636 
-1 0:0.5976143 8:1 2:-0.44988739 3:-0.4180522 
-1 0:-0.5976143 8:1 2:-0.44988739 3:-0.4176366 
-1 0:0 8:1 2:-0.44988739 3:-0.44729492 
-1 0:0 8:1 2:-0.44988739 3:-0.41939579 
-1 0:-1.1952286 8:1 2:-0.44988739 3:-0.87728221 
-1 0:0 8:1 2:-0.44988739 3:-0.88323377 
-1 0:0 8:1 2:-0.44988739 3:-0.89207151 
1 0:0 8:1 2:-0.44988739 3:-0.87853466 
1 0:1.7928429 8:1 2:-0.44988739 3:-1.0220166 
1 0:-0.5976143 8:1 2:-0.44988739 3:-1.0190384 
1 0:0 8:1 2:-0.44988739 3:-1.0190425 
1 0:1.1952286 8:1 2:-0.44988739 3:-1.0191305 
1 0:0.5976143 8:1 2:-0.44988739 3:-1.0190466 
-0.07767414179004631 0:1.7928429 8:1 2:-0.44988739 3:-0.90073594 
-1 0:1.7928429 8:1 2:-0.44988739 3:-0.56745768 
-1 0:-1.1952286 8:1 2:-0.44988739 3:-0.51086116 
-1 0:0 8:1 2:-0.44988739 3:-0.51194633 
-1 0:0 8:1 2:-0.44988739 3:-0.87203402 
-1 0:0 8:1 2:-0.44988739 3:-0.84712527 
-0.7419826298303102 0:1.1952286 8:1 2:-0.44988739 3:-0.51303141 
-1 0:-1.7928429 8:1 2:-0.44988739 3:-0.51086116 
-1 0:0 8:1 2:-0.44988739 3:-0.53915942 
1 0:0 8:1 2:-0.44988739 3:-0.51087929 
-1 0:1.7928429 8:1 2:-0.44988739 3:-0.50762527 
-1 0:0 8:1 2:-0.44988739 3:-0.46969816 
-1 0:1.7928429 8:1 2:-0.44988739 3:-0.7268292 
-1 0:-1.1952286 8:1 2:-0.44988739 3:-0.65143719 
-1 0:0 8:1 2:-0.44988739 3:-0.68913324 
-1 0:0 8:1 2:-0.44988739 3:-0.65609239 
-1 0:-1.1952286 8:1 2:-0.44988739 3:-0.43177279 
-1 0:-1.7928429 8:1 2:-0.44988739 3:-0.43177097 
-1 0:0 8:1 2:-0.44988739 3:-0.43358129 
-1 0:0 8:1 2:-0.44988739 3:-0.43203104 
-1 0:1.1952286 8:1 2:-0.44988739 3:-0.66074768 
-1 0:-1.7928429 8:1 2:-0.44988739 3:-0.65143719 
1 0:0 4:1 2:-0.44988739 3:-1.2706958 
-1 0:-1.1952286 4:1 2:-0.44988739 3:-0.84338473 
-1 0:0 4:1 2:-0.44988739 3:-0.84712527 
-1 0:0 4:1 2:-0.44988739 3:-0.8447338 
-1 0:1.1952286 4:1 2:-0.44988739 3:-0.85086572 
-1 0:0.5976143 4:1 2:-0.44988739 3:-0.84589469 
-1 0:0 4:1 2:-0.44988739 3:-0.87203402 
-1 0:0 4:1 2:-0.44988739 3:-0.84419867 
-1 0:0 4:1 2:-0.44988739 3:-0.98748348 
-1 0:0 4:1 2:-0.44988739 3:-0.98592033 
-1 0:-1.1952286 4:1 2:-0.44988739 3:-0.98563194 
-1 0:-1.7928429 4:1 2:-0.44988739 3:-0.98563194 
1 0:1.1952286 4:1 2:-0.44988739 3:-1.2724929 
1 0:0.5976143 4:1 2:-0.44988739 3:-1.2701676 
1 0:1.7928429 4:1 2:-0.44988739 3:-1.2780773 
1 0:-0.5976143 4:1 2:-0.44988739 3:-1.2689637 
1 0:-1.1952286 4:1 2:-0.44988739 3:-1.2688987 
1 0:-1.7928429 4:1 2:-0.44988739 3:-1.2688847 
1 0:0 4:1 2:-0.44988739 3:-1.273481 
1 0:0 4:1 2:-0.44988739 3:-1.2692572 
1 0:0 4:1 2:-0.44988739 3:-1.2695656 
1 0:-1.7928429 4:1 2:-0.44988739 3:-1.2688847 
-1 0:1.1952286 4:1 2:-0.44988739 3:-0.85086572 
-1 0:0.5976143 4:1 2:-0.44988739 3:-0.84589469 
-0.1240466914856583 0:-1.7928429 4:1 2:-0.44988739 3:-0.84333219 
-1 0:0 4:1 2:-0.44988739 3:-0.87203402 
-1 0:0 4:1 2:-0.44988739 3:-0.84419867 
-1 0:-1.1952286 4:1 2:-0.44988739 3:-0.84338473 
-1 0:0 4:1 2:-0.44988739 3:-0.84712527 
-1 0:0 4:1 2:-0.44988739 3:-0.8447338 
-1 0:-1.1952286 4:1 2:-0.44988739 3:-0.98563194 
-1 0:-1.7928429 4:1 2:-0.44988739 3:-0.98563194 
1 0:1.1952286 4:1 2:-0.44988739 3:-1.2724929 
1 0:0.5976143 4:1 2:-0.44988739 3:-1.2701676 
1 0:0 4:1 2:-0.44988739 3:-1.2706958 
1 0:0 4:1 2:-0.44988739 3:-1.2695656 
-1 0:0 4:1 2:-0.44988739 3:-0.98748348 
-1 0:0 4:1 2:-0.44988739 3:-0.98592033 
1 0:1.7928429 4:1 2:-0.44988739 3:-1.2780773 
1 0:-0.5976143 4:1 2:-0.44988739 3:-1.2689637 
1 0:-1.1952286 4:1 2:-0.44988739 3:-1.2688987 
1 0:0 4:1 2:-0.44988739 3:-1.2692572 
1 0:0 4:1 2:-0.44988739 3:-1.273481 
1 0:-1.7928429 7:1 2:0.43645792 3:-0.75813221 
1 0:-1.1952286 7:1 2:0.43645792 3:-0.25062919 
1 0:-1.7928429 7:1 2:0.43645792 3:-0.25060427 
1 0:-1.7928429 7:1 2:0.43645792 3:-0.0021715619 
1 0:-0.5976143 7:1 2:0.43645792 3:-0.62701095 
1 0:-1.1952286 7:1 2:0.43645792 3:-0.6269334 
1 0:0 7:1 2:0.43645792 3:-0.62778437 
1 0:-1.7928429 7:1 2:0.43645792 3:-0.62691955 
1 0:0 7:1 2:0.43645792 3:-0.62733192 
1 0:0.5976143 7:1 2:0.43645792 3:-0.75972541 
1 0:-0.5976143 7:1 2:0.43645792 3:-0.75827422 
1 0:0 7:1 2:0.43645792 3:-0.75899982 
1 0:-1.1952286 7:1 2:0.43645792 3:-0.75815861 
1 0:0 7:1 2:0.43645792 3:-0.75861289 
1 0:-1.1952286 7:1 2:0.43645792 3:0.21027105 
1 0:-1.7928429 7:1 2:0.43645792 3:0.21028673 
1 0:0 7:1 2:0.43645792 3:0.206806 
1 0:0 7:1 2:0.43645792 3:0.20943027 
1 0:1.7928429 7:1 2:0.43645792 3:0.02568627 
1 0:-0.5976143 7:1 2:0.43645792 3:0.21019507 
1 0:0 7:1 2:0.43645792 3:0.11798659 
1 0:-1.1952286 7:1 2:0.43645792 3:0.097143007 
0.8215887094198586 0:1.1952286 7:1 2:0.43645792 3:-0.17305474 
1 0:-0.5976143 7:1 2:0.43645792 3:0.096804605 
1 0:-1.7928429 7:1 2:0.43645792 3:0.097238498 
1 0:0 7:1 2:0.43645792 3:0.094827169 
-1 0:-1.1952286 7:1 2:0.43645792 3:-0.16802751 
1 0:0 7:1 2:0.43645792 3:-0.16812718 
1 0:0.5976143 7:1 2:0.43645792 3:-0.37390997 
1 0:-0.5976143 7:1 2:0.43645792 3:-0.37369651 
-1 0:-1.1952286 7:1 2:0.43645792 3:-0.37369651 
1 0:0 7:1 2:0.43645792 3:-0.37371359 
1 0:0 7:1 2:0.43645792 3:-0.37380324 
0.9999018833750465 0:1.1952286 7:1 2:0.43645792 3:-0.17305474 
-1 0:-1.1952286 7:1 2:0.43645792 3:-0.16802751 
1 0:0 7:1 2:0.43645792 3:-0.16812718 
1 0:-0.5976143 7:1 2:0.43645792 3:-0.67053666 
1 0:0 7:1 2:0.43645792 3:-0.67232059 
0.3852161016355631 0:1.1952286 7:1 2:0.43645792 3:-0.69184664 
1 0:0.5976143 7:1 2:0.43645792 3:-0.67771646 
1 0:0 7:1 2:0.43645792 3:-0.67412656 
0.8817243778603566 0:0.5976143 5:1 2:0.43645792 3:0.36508782 
1 0:-0.5976143 5:1 2:0.43645792 3:0.38121922 
1 0:-1.1952286 5:1 2:0.43645792 3:0.38162976 
0.9685221152840258 0:0.5976143 5:1 2:0.43645792 3:0.36508782 
1 0:-1.7928429 5:1 2:0.43645792 3:0.38175453 
1 0:0 5:1 2:0.43645792 3:0.37873714 
1 0:-1.7928429 5:1 2:0.43645792 3:0.21028673 
0.4432435453918716 0:0 5:1 2:0.43645792 3:0.11798659 
1 0:-1.7928429 5:1 2:0.43645792 3:0.38175453 
1 0:0 5:1 2:0.43645792 3:0.25217341 
1 0:0 5:1 2:0.43645792 3:0.37873714 
1 0:1.7928429 5:1 2:0.43645792 3:0.12259247 
1 0:-0.5976143 5:1 2:0.43645792 3:0.38121922 
1 0:-1.1952286 5:1 2:0.43645792 3:0.38162976 
1 0:0 5:1 2:0.43645792 3:0.25217341 
1 0:-0.5976143 5:1 2:0.43645792 3:0.21019507 
1 0:-1.1952286 5:1 2:0.43645792 3:0.21027105 
1 0:0 5:1 2:0.43645792 3:-0.16812718 
1 0:0.5976143 5:1 2:0.43645792 3:-0.37390997 
1 0:-0.5976143 5:1 2:0.43645792 3:-0.37369651 
-1 0:-1.1952286 5:1 2:0.43645792 3:-0.16802751 
1 0:0 5:1 2:0.43645792 3:-0.37380324 
1 0:-0.5976143 9:1 2:0.43645792 3:1.3673712 
1 0:0 9:1 2:0.43645792 3:1.3667003 
0.1446128951116922 0:-1.7928429 9:1 2:0.43645792 3:1.3673712 
1 0:0 9:1 2:0.43645792 3:1.1473712 
1 0:0 9:1 2:0.43645792 3:1.3673712 
1 0:1.7928429 9:1 2:0.43645792 3:0.92737137 
1 0:-0.5976143 9:1 2:0.43645792 3:1.3673712 
1 0:0 9:1 2:0.43645792 3:1.3667003 
0.009081713521979649 0:-1.7928429 9:1 2:0.43645792 3:1.3673712 
1 0:0 9:1 2:0.43645792 3:1.1473712 
1 0:0 9:1 2:0.43645792 3:1.3673712 
1 0:-0.5976143 1:1 2:0.43645792 3:1.8098341 
-1 0:-1.1952286 1:1 2:0.43645792 3:1.8098341 
-1 0:0 1:1 2:0.43645792 3:1.7263664 
-1 0:-1.1952286 1:1 2:0.43645792 3:1.8098341 
-0.1117642149945605 0:0 1:1 2:0.43645792 3:1.7263664 
1 0:-0.5976143 1:1 2:0.43645792 3:1.9240406 
-1 0:-1.1952286 1:1 2:0.43645792 3:1.9240406 
-1 0:0 1:1 2:0.43645792 3:1.8136838 
1 0:-0.5976143 1:1 2:0.43645792 3:1.8098341 
1 0:-0.5976143 1:1 2:0.43645792 3:1.8098341 
-1 0:-1.1952286 1:1 2:0.43645792 3:1.8098341 
-1 0:-1.1952286 1:1 2:0.43645792 3:1.8098341 
-0.04712797353976805 0:0 1:1 2:0.43645792 3:1.7263664 
1 0:-0.5976143 1:1 2:0.43645792 3:1.8098341 
1 0:-0.5976143 1:1 2:0.43645792 3:1.669507 
1 0:0 1:1 2:0.43645792 3:1.6694432 
1 0:-0.5976143 1:1 2:0.43645792 3:1.5461887 
1 0:0 5:1 2:1.3496622 3:-0.074300745 
1 0:0 4:1 2:1.3496622 3:-1.19098 
1 0:0 1:1 2:0.43645792 3:1.5461559 
1 0:-0.5976143 1:1 2:0.43645792 3:1.42936 
1 0:-0.5976143 1:1 2:0.43645792 3:1.3104002 
0.1402243372206451 0:-1.7928429 1:1 2:0.43645792 3:1.3104427 
1 0:-1.7928429 1:1 2:0.43645792 3:0.93558205 
0.5146131355769753 0:0 1:1 2:0.43645792 3:0.93514188 
1 0:1.7928429 1:1 2:0.43645792 3:0.55614701 
1 0:-0.5976143 1:1 2:0.43645792 3:0.9355709 
1 0:0 8:1 2:1.3496622 3:-0.67332525 
1 0:-0.5976143 1:1 2:0.43645792 3:1.42936 
0.9949057248227954 0:-1.7928429 1:1 2:0.43645792 3:1.3104427 
1 0:-0.5976143 1:1 2:0.43645792 3:1.3104002 
1 0:-1.1952286 6:1 2:0.43645792 3:0.76910332 
1 0:0 6:1 2:0.43645792 3:0.76677894 
0.8999757406113198 0:-0.5976143 6:1 2:0.43645792 3:0.76878321 
1 0:-1.1952286 6:1 2:0.43645792 3:0.76910332 
1 0:0 6:1 2:0.43645792 3:0.76677894 
0.3911283428419941 0:-0.5976143 6:1 2:0.43645792 3:0.76878321 
1 0:-0.5976143 6:1 2:0.43645792 3:0.76878321 
1 0:-1.1952286 6:1 2:0.43645792 3:0.76910332 
1 0:0 6:1 2:0.43645792 3:0.76677894 
0.1520015423312918 0:1.7928429 6:1 2:0.43645792 3:0.12259247 
1 0:-1.7928429 6:1 2:0.43645792 3:0.22309946 
0.09606263935975179 0:0 6:1 2:0.43645792 3:0.12237727 
1 0:1.7928429 6:1 2:0.43645792 3:0.015308218 
1 0:1.1952286 6:1 2:0.43645792 3:0.070324949 
1 0:0 6:1 2:0.43645792 3:0.079732057 
1 0:-0.5976143 6:1 2:0.43645792 3:0.76878321 
1 0:-1.1952286 6:1 2:0.43645792 3:0.76910332 
1 0:0 6:1 2:0.43645792 3:0.76677894 
1 0:-0.5976143 6:1 2:0.43645792 3:0.76878321 
1 0:-1.1952286 6:1 2:0.43645792 3:0.76910332 
1 0:0 6:1 2:0.43645792 3:0.76677894 
1 0:-0.5976143 6:1 2:0.43645792 3:0.76878321 
1 0:-1.1952286 6:1 2:0.43645792 3:0.76910332 
1 0:0 6:1 2:0.43645792 3:0.76677894 
0.9095818349159973 0:0 6:1 2:0.43645792 3:0.12237727 
0.2907034580210359 0:1.7928429 6:1 2:0.43645792 3:0.12259247 
0.0237821822247031 0:-1.1952286 6:1 2:0.43645792 3:0.38162976 
0.3073746795504647 0:-1.7928429 6:1 2:0.43645792 3:0.38175453 
1 0:-1.7928429 6:1 2:0.43645792 3:0.22309946 
1 0:1.7928429 8:1 2:0.43645792 3:0.055915004 
1 0:-1.1952286 8:1 2:0.43645792 3:0.26755726 
1 0:-1.7928429 8:1 2:0.43645792 3:0.26768604 
1 0:-1.7928429 8:1 2:0.43645792 3:0.097238498 
1 0:-1.1952286 8:1 2:0.43645792 3:0.097143007 
-1 0:-1.1952286 8:1 2:0.43645792 3:-0.17840782 
1 0:0 8:1 2:0.43645792 3:-0.17850593 
1 0:0.5976143 8:1 2:0.43645792 3:-0.67871903 
1 0:-1.7928429 8:1 2:0.43645792 3:-0.67176829 
1 0:-0.5976143 8:1 2:0.43645792 3:-0.67216838 
1 0:0 8:1 2:0.43645792 3:-0.67544366 
1 0:0 8:1 2:0.43645792 3:-0.67332525 
1 0:-1.7928429 8:1 2:0.43645792 3:-0.77550186 
1 0:0 8:1 2:0.43645792 3:-0.78037304 
1 0:-0.5976143 8:1 2:0.43645792 3:0.76878321 
1 0:-1.1952286 8:1 2:0.43645792 3:0.76910332 
1 0:0 8:1 2:0.43645792 3:0.45343692 
1 0:0 8:1 2:0.43645792 3:0.76677894 
1 0:-0.5976143 8:1 2:0.43645792 3:0.76878321 
1 0:0 8:1 2:0.43645792 3:0.45343692 
0.03807017546186525 0:0 8:1 2:0.43645792 3:0.65107055 
1 0:1.7928429 8:1 2:0.43645792 3:0.12259247 
0.7007019910976542 0:-1.1952286 8:1 2:0.43645792 3:0.38162976 
0.9835769430563466 0:0 8:1 2:0.43645792 3:0.65107055 
1 0:-1.1952286 8:1 2:0.43645792 3:0.76910332 
1 0:0 8:1 2:0.43645792 3:0.76677894 
1 0:0 8:1 2:0.43645792 3:0.25217341 
1 0:-1.7928429 8:1 2:0.43645792 3:0.22309946 
-1 0:-1.1952286 8:1 2:0.43645792 3:-0.16802751 
1 0:0 8:1 2:0.43645792 3:-0.16812718 
0.1696749337489723 0:0.5976143 8:1 2:0.43645792 3:-0.49085209 
-1 0:0 8:1 2:0.43645792 3:-0.49492327 
1 0:-0.5976143 8:1 2:0.43645792 3:-0.48903313 
-1 0:-1.1952286 8:1 2:0.43645792 3:-0.48897424 
-1 0:0 8:1 2:0.43645792 3:-0.53697227 
1 0:-0.5976143 8:1 2:0.43645792 3:0.21019507 
1 0:-1.7928429 8:1 2:0.43645792 3:0.21028673 
1 0:-1.7928429 8:1 2:0.43645792 3:0.21028673 
1 0:-0.5976143 8:1 2:0.43645792 3:0.21019507 
0.07953534023370699 0:0 8:1 2:0.43645792 3:0.11798659 
-1 0:-1.1952286 8:1 2:0.43645792 3:-0.16802751 
1 0:0 8:1 2:0.43645792 3:-0.16812718 
1 0:0.5976143 8:1 2:0.43645792 3:-0.67771646 
1 0:-1.7928429 8:1 2:0.43645792 3:-0.67017543 
1 0:-0.5976143 8:1 2:0.43645792 3:-0.67053666 
1 0:0 8:1 2:0.43645792 3:-0.67232059 
1 0:0 8:1 2:0.43645792 3:-0.67412656 
-1 0:1.7928429 4:1 2:0.43645792 3:-0.73847617 
1 0:-0.5976143 4:1 2:0.43645792 3:-0.67053666 
-1 0:0 4:1 2:0.43645792 3:-0.70432576 
1 0:0 4:1 2:0.43645792 3:-0.67232059 
-1 0:1.7928429 4:1 2:0.43645792 3:-0.90854436 
1 0:-0.5976143 4:1 2:0.43645792 3:-0.89514918 
-1 0:0 4:1 2:0.43645792 3:-0.90184333 
-1 0:0 4:1 2:0.43645792 3:-0.89553995 
1 0:1.7928429 4:1 2:0.43645792 3:-1.2442589 
0.4127494568918966 0:1.1952286 4:1 2:0.43645792 3:-1.2291089 
0.3270520602636642 0:0.5976143 4:1 2:0.43645792 3:-0.67771646 
1 0:0 4:1 2:0.43645792 3:-0.67412656 
-1 0:-1.7928429 4:1 2:0.43645792 3:-0.8951423 
1 0:0 4:1 2:0.43645792 3:-0.89518926 
1 0:-1.7928429 4:1 2:0.43645792 3:-1.219087 
-1 0:0 4:1 2:0.43645792 3:-1.2241109 
-1 0:0 4:1 2:0.43645792 3:-1.2241109 
-1 0:1.7928429 4:1 2:0.43645792 3:-0.73847617 
1 0:0 4:1 2:0.43645792 3:-0.67412656 
1 0:0 4:1 2:0.43645792 3:-0.67232059 
0.01008143401416576 0:0.5976143 4:1 2:0.43645792 3:-0.67771646 
1 0:-0.5976143 4:1 2:0.43645792 3:-0.67053666 
-1 0:0 4:1 2:0.43645792 3:-0.70432576 
-0.3068445245053309 0:1.7928429 4:1 2:0.43645792 3:-0.90854436 
-1 0:-1.7928429 4:1 2:0.43645792 3:-0.8951423 
-1 0:0 4:1 2:0.43645792 3:-0.89553995 
1 0:-0.5976143 4:1 2:0.43645792 3:-0.89514918 
-1 0:0 4:1 2:0.43645792 3:-0.90184333 
1 0:0 4:1 2:0.43645792 3:-0.89518926 
1 0:1.7928429 4:1 2:0.43645792 3:-1.2442589 
1 0:1.1952286 4:1 2:0.43645792 3:-1.2291089 
1 0:-1.7928429 4:1 2:0.43645792 3:-1.219087 
0.07362158305120658 0:1.7928429 7:1 2:-1.3362327 3:-1.240575 
1 0:-0.5976143 7:1 2:-1.3362327 3:-1.2395657 
-1 0:0 7:1 2:-1.3362327 3:-1.2400703 
1 0:1.1952286 7:1 2:-1.3362327 3:-1.2397256 
0.8025938204410907 0:-1.1952286 7:1 2:-1.3362327 3:-1.2395657 
0.02203383306338374 0:0 7:1 2:-1.3362327 3:-1.2395657 
1 0:-0.5976143 7:1 2:-1.3362327 3:-1.2395657 
-1 0:0 7:1 2:-1.3362327 3:-1.2400703 
1 0:1.1952286 7:1 2:-1.3362327 3:-1.2397256 
-1 0:0 7:1 2:-1.3362327 3:-1.2400703 
1 0:-0.5976143 7:1 2:-1.3362327 3:-1.2395657 
-1 0:0 7:1 2:-1.3362327 3:-1.2400703 
1 0:-0.5976143 7:1 2:-1.3362327 3:-1.2395657 
-1 0:0 7:1 2:-1.3362327 3:-1.2400703 
1 0:1.1952286 7:1 2:-1.3362327 3:-1.2397256 
1 0:1.1952286 7:1 2:-1.3362327 3:-1.2397256 
1 0:1.1952286 7:1 2:-1.3362327 3:-1.2397256 
-1 0:0 7:1 2:-1.3362327 3:-1.2400703 
1 0:-0.5976143 7:1 2:-1.3362327 3:-1.2395657 
1 0:-0.5976143 7:1 2:-1.3362327 3:-1.2395657 
1 0:1.1952286 7:1 2:-1.3362327 3:-1.2397256 
0.7252820071618244 0:0 7:1 2:-1.3362327 3:-1.2395657 
-1 0:0 7:1 2:-1.3362327 3:-1.2400703 
1 0:0 7:1 2:-1.3362327 3:-1.2395657 
1 0:1.1952286 7:1 2:-1.3362327 3:-1.2397256 
1 0:-0.5976143 7:1 2:-1.3362327 3:-1.2395657 
1 0:1.1952286 7:1 2:-1.3362327 3:-1.2397256 
1 0:-0.5976143 7:1 2:-1.3362327 3:-1.2395657 
1 0:-0.5976143 7:1 2:-1.3362327 3:-1.2395657 
-1 0:0 7:1 2:-1.3362327 3:-1.2400703 
0.2720810203317767 0:1.7928429 7:1 2:-1.3362327 3:-1.240575 
1 0:1.1952286 7:1 2:-1.3362327 3:-1.2397256 
1 0:0 7:1 2:-1.3362327 3:-1.2395657 
-1 0:0 7:1 2:-1.3362327 3:-1.2400703 
0.896710641571083 0:0 7:1 2:-1.3362327 3:-1.2395657 
1 0:1.1952286 7:1 2:-1.3362327 3:-1.2397256 
0.9916897952339446 0:1.7928429 7:1 2:-1.3362327 3:-1.240575 
1 0:-0.5976143 7:1 2:-1.3362327 3:-1.2395657 
0.6623002069652558 0:-1.1952286 7:1 2:-1.3362327 3:-1.2395657 
-1 0:0 7:1 2:-1.3362327 3:-1.2400703 
-1 0:-1.7928429 6:1 2:1.3496622 3:1.2168881 
-0.2817453385365325 0:0.5976143 6:1 2:1.3496622 3:1.1837969 
-1 0:-1.7928429 6:1 2:1.3496622 3:1.2168881 
-0.3651676364882684 0:0.5976143 6:1 2:1.3496622 3:1.1837969 
-1 0:-1.7928429 6:1 2:1.3496622 3:1.2168881 
-0.6854572947576653 0:0.5976143 6:1 2:1.3496622 3:0.37581665 
-1 0:-0.5976143 6:1 2:1.3496622 3:0.38152225 
-1 0:0 6:1 2:1.3496622 3:0.37866936 
-1 0:0.5976143 6:1 2:1.3496622 3:1.1837969 
-1 0:-1.7928429 6:1 2:1.3496622 3:1.2168881 
-1 0:0.5976143 6:1 2:1.3496622 3:1.1837969 
-1 0:-1.7928429 6:1 2:1.3496622 3:1.2168881 
-1 0:0.5976143 6:1 2:1.3496622 3:1.1837969 
-1 0:-1.7928429 6:1 2:1.3496622 3:1.2168881 
1 0:-0.5976143 5:1 2:-1.3362327 3:-1.2395657 
-0.03884482221075602 0:-1.7928429 5:1 2:-1.3362327 3:-1.1611492 
-0.9749183140421418 0:-1.7928429 5:1 2:-1.3362327 3:-1.1611492 
-1 0:0 5:1 2:-1.3362327 3:-1.1639525 
-1 0:0 5:1 2:-1.3362327 3:-1.1639525 
-1 0:0 5:1 2:-1.3362327 3:-1.1614396 
-1 0:0 5:1 2:-1.3362327 3:-1.1639525 
-1 0:0 5:1 2:-1.3362327 3:-1.1614396 
-1 0:0 5:1 2:-1.3362327 3:-1.1614396 
-0.9384756307946877 0:-1.7928429 5:1 2:-1.3362327 3:-1.1611492 
1 0:0.5976143 5:1 2:-1.3362327 3:-1.2395753 
1 0:-0.5976143 5:1 2:-1.3362327 3:-1.2395657 
1 0:0 5:1 2:-1.3362327 3:-1.2396457 
1 0:1.7928429 5:1 2:-1.3362327 3:-1.240575 
1 0:-1.7928429 5:1 2:-1.3362327 3:-1.2395657 
1 0:1.7928429 5:1 2:-1.3362327 3:-1.240575 
1 0:1.1952286 5:1 2:-1.3362327 3:-1.2397256 
1 0:-1.1952286 5:1 2:-1.3362327 3:-1.2395657 
1 0:-1.7928429 5:1 2:-1.3362327 3:-1.2395657 
1 0:0 5:1 2:-1.3362327 3:-1.2395705 
1 0:0 5:1 2:-1.3362327 3:-1.2395657 
1 0:1.1952286 5:1 2:-1.3362327 3:-1.2397256 
1 0:0.5976143 5:1 2:-1.3362327 3:-1.2395753 
0.6656687737344599 0:0 5:1 2:-1.3362327 3:-1.2396457 
1 0:0 5:1 2:-1.3362327 3:-1.2395705 
1 0:-1.1952286 5:1 2:-1.3362327 3:-1.2395657 
0.5428765902022237 0:-0.5976143 9:1 2:-1.3362327 3:-1.1611535 
-1 0:0 9:1 2:-1.3362327 3:-1.1639525 
0.0007638648162344654 0:1.7928429 9:1 2:-1.3362327 3:-1.1667559 
1 0:1.1952286 9:1 2:-1.3362327 3:-1.16173 
1 0:0 9:1 2:-1.3362327 3:-1.1611658 
0.2908563312504854 0:1.7928429 9:1 2:-1.3362327 3:-1.1667559 
0.9999990323524994 0:-0.5976143 9:1 2:-1.3362327 3:-1.1611535 
1 0:1.1952286 9:1 2:-1.3362327 3:-1.16173 
-1 0:0 9:1 2:-1.3362327 3:-1.1639525 
-1 0:0 1:1 2:-1.3362327 3:-1.0202149 
-3.992587113283464e-08 0:1.7928429 1:1 2:-1.3362327 3:-1.022744 
-1 0:0 1:1 2:-1.3362327 3:-1.0202149 
0.09012380142350029 0:0 1:1 2:-1.3362327 3:-1.0178116 
-1 0:0 1:1 2:-1.3362327 3:-1.0202149 
-1 0:0 1:1 2:-1.3362327 3:-1.0202149 
-1 0:0 1:1 2:-1.3362327 3:-1.0202149 
-1 0:0 1:1 2:-1.3362327 3:-1.0202149 
-1 0:0 1:1 2:-1.3362327 3:-1.0202149 
1 0:-1.7928429 1:1 2:-1.3362327 3:-1.2395657 
-1 0:0 1:1 2:-1.3362327 3:-1.0202149 
-1 0:0 1:1 2:-1.3362327 3:-1.0202149 
-1 0:0 1:1 2:-1.3362327 3:-1.0202149 
1 0:-1.1952286 1:1 2:-1.3362327 3:-1.2395657 
1 0:-1.7928429 1:1 2:-1.3362327 3:-1.2395657 
-1 0:0 1:1 2:-1.3362327 3:-1.0202149 
1 0:1.7928429 1:1 2:-1.3362327 3:-1.240575 
1 0:1.1952286 1:1 2:-1.3362327 3:-1.2397256 
1 0:0.5976143 1:1 2:-1.3362327 3:-1.2395753 
1 0:-0.5976143 1:1 2:-1.3362327 3:-1.2395657 
1 0:0 1:1 2:-1.3362327 3:-1.2400703 
1 0:0 1:1 2:-1.3362327 3:-1.2396457 
1 0:1.7928429 1:1 2:-1.3362327 3:-1.240575 
1 0:-0.5976143 1:1 2:-1.3362327 3:-1.2395657 
1 0:-1.1952286 1:1 2:-1.3362327 3:-1.2395657 
1 0:0 1:1 2:-1.3362327 3:-1.2395705 
1 0:0 1:1 2:-1.3362327 3:-1.2395657 
1 0:1.1952286 1:1 2:-1.3362327 3:-1.2397256 
1 0:0.5976143 1:1 2:-1.3362327 3:-1.2395753 
1 0:0 1:1 2:-1.3362327 3:-1.2396457 
1 0:0 1:1 2:-1.3362327 3:-1.2395705 
1 0:0 1:1 2:-1.3362327 3:-1.2400703 
-1 0:0 1:1 2:-1.3362327 3:-1.0202149 
-1 0:0 1:1 2:-1.3362327 3:-1.0202149 
-1 0:0 1:1 2:-1.3362327 3:-1.0202149 
-1 0:0 1:1 2:-1.3362327 3:-1.0202149 
-0.9262709226717136 0:-1.7928429 1:1 2:-1.3362327 3:-1.0176858 
-1 0:0 1:1 2:-1.3362327 3:-1.0202149 
0.9715282907206655 0:0 1:1 2:-1.3362327 3:-1.0178116 
-0.9250939002126113 0:1.7928429 1:1 2:-1.3362327 3:-1.022744 
-1 0:0 1:1 2:-1.3362327 3:-1.0202149 
-1 0:-1.7928429 1:1 2:-1.3362327 3:-1.0176858 
1 0:0 1:1 2:-1.3362327 3:-1.0178116 
-0.4980170588285671 0:-1.7928429 1:1 2:-1.3362327 3:-1.0176858 
0.9950298476153291 0:0 1:1 2:-1.3362327 3:-1.0178116 
-1 0:-1.1952286 8:1 2:1.3496622 3:-0.17840782 
-0.7613769673230822 0:-1.7928429 8:1 2:1.3496622 3:-0.17840504 
1 0:0.5976143 8:1 2:1.3496622 3:-0.67871903 
1 0:-0.5976143 8:1 2:1.3496622 3:-0.67216838 
0.7916254779236355 0:0 8:1 2:1.3496622 3:-0.67544366 
-1 0:0 8:1 2:1.3496622 3:-0.18093172 
0.4252930199749291 0:1.7928429 8:1 2:1.3496622 3:-0.72486448 
0.06952070820992995 0:1.1952286 6:1 2:-1.3362327 3:-1.16173 
1 0:0 6:1 2:-1.3362327 3:-1.1611658 
0.473475826628883 0:-0.5976143 6:1 2:-1.3362327 3:-1.1611535 
-1 0:0 6:1 2:-1.3362327 3:-1.1639525 
-1 0:0 6:1 2:-1.3362327 3:-1.1639525 
1 0:0 6:1 2:-1.3362327 3:-1.1611658 
-1 0:0 6:1 2:-1.3362327 3:-1.1639525 
1 0:0 6:1 2:-1.3362327 3:-1.1611658 
-1 0:0 6:1 2:-1.3362327 3:-1.1639525 
1 0:0 6:1 2:-1.3362327 3:-1.1611658 
1 0:0 6:1 2:-1.3362327 3:-1.1611658 
0.5631748545209546 0:-0.5976143 6:1 2:-1.3362327 3:-1.1611535 
-1 0:0 6:1 2:-1.3362327 3:-1.1639525 
-1 0:0 6:1 2:-1.3362327 3:-1.1639525 
1 0:0 6:1 2:-1.3362327 3:-1.1611658 
-1 0:0 8:1 2:1.3496622 3:-0.60760392 
-1 0:0 8:1 2:1.3496622 3:-0.085354729 
-0.02909612060727044 0:0.5976143 8:1 2:1.3496622 3:1.1837969 
-1 0:-1.7928429 8:1 2:1.3496622 3:1.2168881 
-1 0:-0.5976143 8:1 2:1.3496622 3:0.38152225 
-0.2453561128868509 0:-1.1952286 8:1 2:1.3496622 3:1.2168014 
-0.9104714435204333 0:0.5976143 8:1 2:1.3496622 3:1.1837969 
-1 0:-1.1952286 8:1 2:1.3496622 3:1.2168014 
-1 0:-1.7928429 8:1 2:1.3496622 3:1.2168881 
-1 0:-1.7928429 8:1 2:1.3496622 3:0.91155119 
-1 0:0 8:1 2:1.3496622 3:0.37866936 
-1 0:0.5976143 8:1 2:1.3496622 3:-0.053309745 
-1 0:-0.5976143 8:1 2:1.3496622 3:-0.041226964 
-1 0:0 8:1 2:1.3496622 3:-0.047268354 
-1 0:1.7928429 8:1 2:1.3496622 3:-0.13109382 
-1 0:1.1952286 8:1 2:1.3496622 3:-0.076241413 
-1 0:-1.1952286 8:1 2:1.3496622 3:-0.040037331 
-1 0:0 8:1 2:1.3496622 3:-0.058139372 
0.3689726034955065 0:-1.1952286 4:1 2:1.3496622 3:-1.1908351 
-0.03370475462264385 0:0 4:1 2:1.3496622 3:-0.62907969 
-1 0:1.7928429 4:1 2:1.3496622 3:-0.78721086 
1 0:-0.5976143 4:1 2:1.3496622 3:-0.76955247 
-1 0:-0.5976143 4:1 2:1.3496622 3:-0.59596235 
-1 0:-1.1952286 4:1 2:1.3496622 3:-0.59589352 
-1 0:0 4:1 2:1.3496622 3:-0.60760392 
-1 0:0 4:1 2:1.3496622 3:-0.59829526 
-1 0:1.1952286 4:1 2:1.3496622 3:-0.77155526 
-0.9751364481831344 0:-1.7928429 4:1 2:1.3496622 3:-0.76954698 
-1 0:0 4:1 2:1.3496622 3:-0.77837888 
1 0:1.7928429 4:1 2:1.3496622 3:-1.2005234 
1 0:0.5976143 4:1 2:1.3496622 3:-1.1915393 
1 0:-0.5976143 4:1 2:1.3496622 3:-1.1908652 
1 0:0 4:1 2:1.3496622 3:-1.1912023 
-1 0:0 4:1 2:1.3496622 3:-0.77055112 
1 0:1.1952286 4:1 2:1.3496622 3:-1.1939272 
1 0:-1.7928429 4:1 2:1.3496622 3:-1.1908351 
-1 0:1.7928429 4:1 2:1.3496622 3:-0.78721086 
1 0:-0.5976143 4:1 2:1.3496622 3:-0.76955247 
-1 0:-0.5976143 4:1 2:1.3496622 3:-0.59596235 
-1 0:-1.1952286 4:1 2:1.3496622 3:-0.59589352 
-1 0:0 4:1 2:1.3496622 3:-0.60760392 
-1 0:0 4:1 2:1.3496622 3:-0.59829526 
-1 0:1.1952286 4:1 2:1.3496622 3:-0.77155526 
-0.9686716133547129 0:-1.7928429 4:1 2:1.3496622 3:-0.76954698 
-1 0:0 4:1 2:1.3496622 3:-0.77837888 
1 0:1.7928429 4:1 2:1.3496622 3:-1.2005234 
1 0:-0.5976143 4:1 2:1.3496622 3:-1.1908652 
0.02059735979408049 0:-1.1952286 4:1 2:1.3496622 3:-1.1908351 
1 0:0 4:1 2:1.3496622 3:-1.1912023 
1 0:0 4:1 2:1.3496622 3:-1.19098 
-1 0:0 4:1 2:1.3496622 3:-0.77055112 
1 0:1.1952286 4:1 2:1.3496622 3:-1.1939272 
1 0:0.5976143 4:1 2:1.3496622 3:-1.1915393 
1 0:-1.7928429 4:1 2:1.3496622 3:-1.1908351 
-1 0:-1.1952286 7:1 2:1.3496622 3:0.079996401 
-1 0:0 7:1 2:1.3496622 3:0.075160675 
-0.804879091239166 0:0.5976143 7:1 2:1.3496622 3:-0.60062818 
-1 0:0 7:1 2:1.3496622 3:-0.60760392 
-1 0:-0.5976143 7:1 2:1.3496622 3:-0.59596235 
-1 0:-1.1952286 7:1 2:1.3496622 3:-0.59589352 
-1 0:0 7:1 2:1.3496622 3:-0.59829526 
-1 0:0 7:1 2:1.3496622 3:-0.59661963 
-0.4100538809723083 0:0 7:1 2:1.3496622 3:-0.62907969 
-1 0:1.1952286 7:1 2:1.3496622 3:0.62111679 
-1 0:-1.1952286 7:1 2:1.3496622 3:0.67820993 
-1 0:0 7:1 2:1.3496622 3:0.64966327 
-0.7012038406073161 0:1.1952286 7:1 2:1.3496622 3:0.28045399 
-0.1063187743520093 0:0.5976143 7:1 2:1.3496622 3:0.67445162 
-0.4804104594597682 0:-1.7928429 7:1 2:1.3496622 3:0.67820993 
-1 0:-1.1952286 7:1 2:1.3496622 3:-0.074295517 
-1 0:0 7:1 2:1.3496622 3:-0.074555156 
-1 0:-1.1952286 7:1 2:1.3496622 3:-0.074295517 
-0.05436448508759577 0:-1.7928429 7:1 2:1.3496622 3:-0.074295517 
1 0:0.5976143 7:1 2:1.3496622 3:-0.074338384 
1 0:0 7:1 2:1.3496622 3:-0.074300745 
1 0:0.5976143 7:1 2:1.3496622 3:-0.074338384 
1 0:0 7:1 2:1.3496622 3:-0.074300745 
-1 0:0 7:1 2:1.3496622 3:-0.074555156 
1 0:0 6:1 2:-1.3362327 3:-1.1611658 
1 0:-0.5976143 6:1 2:-1.3362327 3:-1.1611535 
-1 0:0 6:1 2:-1.3362327 3:-1.1639525 
1 0:0 6:1 2:-1.3362327 3:-1.1611658 
1 0:-0.5976143 6:1 2:-1.3362327 3:-1.1611535 
-1 0:0 6:1 2:-1.3362327 3:-1.1639525 
1 0:-0.5976143 6:1 2:-1.3362327 3:-1.1611535 
0.9005428556505251 0:1.1952286 6:1 2:-1.3362327 3:-1.16173 
-1 0:0 6:1 2:-1.3362327 3:-1.1639525 
1 0:1.1952286 6:1 2:-1.3362327 3:-1.16173 
-1 0:0 6:1 2:-1.3362327 3:-1.1639525 
1 0:0 6:1 2:-1.3362327 3:-1.1611658 
1 0:-0.5976143 6:1 2:-1.3362327 3:-1.1611535 
1 0:1.1952286 6:1 2:-1.3362327 3:-1.16173 
0.8160881103383733 0:0 6:1 2:-1.3362327 3:-1.1611658 
1 0:-0.5976143 6:1 2:-1.3362327 3:-1.1611535 
-1 0:0 6:1 2:-1.3362327 3:-1.1639525 
-1 0:0 8:1 2:-1.3362327 3:-1.1639525 
-1 0:0 8:1 2:-1.3362327 3:-1.1639525 
-1 0:0 8:1 2:-1.3362327 3:-1.1639525 
-1 0:0 8:1 2:-1.3362327 3:-1.1639525 
-1 0:0 8:1 2:-1.3362327 3:-1.1639525 
-1 0:0 8:1 2:-1.3362327 3:-1.1639525 
-1 0:1.1952286 7:1 2:1.3496622 3:0.16281973 
-1 0:0.5976143 7:1 2:1.3496622 3:0.20341694 
-1 0:0 7:1 2:1.3496622 3:0.1865453 
-1 0:-1.1952286 7:1 2:1.3496622 3:-0.074295517 
-0.7317101051330686 0:-1.7928429 7:1 2:1.3496622 3:-0.074295517 
1 0:0 7:1 2:1.3496622 3:-0.074300745 
1 0:0.5976143 7:1 2:1.3496622 3:-0.074338384 
-1 0:0 7:1 2:1.3496622 3:-0.074555156 
1 0:0 7:1 2:1.3496622 3:-0.435852 
1 0:-0.5976143 7:1 2:1.3496622 3:-0.43547726 
-1 0:0 7:1 2:1.3496622 3:-0.44113826 
1 0:0 7:1 2:1.3496622 3:-0.43572531 
-1 0:0 8:1 2:-1.3362327 3:-1.1639525 
-1 0:0 8:1 2:-1.3362327 3:-1.1639525 
1 0:1.7928429 8:1 2:-1.3362327 3:-1.240575 
1 0:1.1952286 8:1 2:-1.3362327 3:-1.2397256 
1 0:-1.1952286 8:1 2:-1.3362327 3:-1.2395657 
1 0:-1.7928429 8:1 2:-1.3362327 3:-1.2395657 
1 0:0 8:1 2:-1.3362327 3:-1.2395705 
1 0:0 8:1 2:-1.3362327 3:-1.2395657 
1 0:0.5976143 8:1 2:-1.3362327 3:-1.2395753 
1 0:-0.5976143 8:1 2:-1.3362327 3:-1.2395657 
1 0:0 8:1 2:-1.3362327 3:-1.2396457 
1 0:1.7928429 8:1 2:-1.3362327 3:-1.240575 
1 0:1.1952286 8:1 2:-1.3362327 3:-1.2397256 
1 0:-1.1952286 8:1 2:-1.3362327 3:-1.2395657 
1 0:-1.7928429 8:1 2:-1.3362327 3:-1.2395657 
1 0:0 8:1 2:-1.3362327 3:-1.2395657 
1 0:0.5976143 8:1 2:-1.3362327 3:-1.2395753 
1 0:-0.5976143 8:1 2:-1.3362327 3:-1.2395657 
1 0:0 8:1 2:-1.3362327 3:-1.2395705 
1 0:0 8:1 2:-1.3362327 3:-1.2396457 
-1 0:0 8:1 2:-1.3362327 3:-1.1639525 
-1 0:0 8:1 2:-1.3362327 3:-1.1639525 
0.7372805109957502 0:0 8:1 2:-1.3362327 3:-1.1611658 
1 0:0 8:1 2:-1.3362327 3:-1.1611658 
-1 0:0 8:1 2:-1.3362327 3:-1.1639525 
1 0:0 8:1 2:-1.3362327 3:-1.1611658 
0.1347330053477497 0:-0.5976143 8:1 2:-1.3362327 3:-1.1611535 
-1 0:0 8:1 2:-1.3362327 3:-1.1639525 
-1 0:0 8:1 2:-1.3362327 3:-1.1639525 
-1 0:0 8:1 2:-1.3362327 3:-1.1639525 
1 0:0 8:1 2:-1.3362327 3:-1.1611658 
1 0:-0.5976143 8:1 2:-1.3362327 3:-1.1611535 
1 0:0 8:1 2:-1.3362327 3:-1.1611658 
0.9807293652252039 0:-0.5976143 8:1 2:-1.3362327 3:-1.1611535 
1 0:0 8:1 2:-1.3362327 3:-1.1611658 
-1 0:0 4:1 2:-1.3362327 3:-1.2400703 
0.3466724076537515 0:1.1952286 4:1 2:-1.3362327 3:-1.2397256 
-1 0:0 4:1 2:-1.3362327 3:-1.2400703 
0.01347893858385581 0:-0.5976143 4:1 2:-1.3362327 3:-1.2395657 
1 0:-0.5976143 4:1 2:-1.3362327 3:-1.2395657 
-1 0:0 4:1 2:-1.3362327 3:-1.2400703 
0.05902043520529851 0:1.1952286 4:1 2:-1.3362327 3:-1.2397256 
1 0:-0.5976143 4:1 2:-1.3362327 3:-1.2395657 
1 0:1.1952286 4:1 2:-1.3362327 3:-1.2397256 
1 0:-0.5976143 4:1 2:-1.3362327 3:-1.2395657 
-1 0:0 4:1 2:-1.3362327 3:-1.2400703 
1 0:1.1952286 4:1 2:-1.3362327 3:-1.2397256 
1 0:-0.5976143 4:1 2:-1.3362327 3:-1.2395657 
-1 0:0 4:1 2:-1.3362327 3:-1.2400703 
0.9368898731236073 0:-0.5976143 4:1 2:-1.3362327 3:-1.2395657 
0.9985132661396063 0:1.1952286 4:1 2:-1.3362327 3:-1.2397256 
-1 0:0 4:1 2:-1.3362327 3:-1.2400703 
-0.3430814797052804 0:1.1952286 5:1 2:1.3496622 3:0.74470966 
-1 0:-1.7928429 5:1 2:1.3496622 3:0.91155119 
-0.8022736989535703 0:1.1952286 5:1 2:1.3496622 3:0.74470966 
-0.251662593191709 0:-1.1952286 5:1 2:1.3496622 3:0.91145465 
-1 0:-1.7928429 5:1 2:1.3496622 3:0.91155119 
-1 0:0.5976143 5:1 2:1.3496622 3:0.67445162 
-0.1223893136994345 0:-1.1952286 5:1 2:1.3496622 3:0.91145465 
-1 0:1.1952286 5:1 2:1.3496622 3:0.62111679 
-1 0:-1.1952286 5:1 2:1.3496622 3:0.67820993 
-0.1143255984684999 0:-1.7928429 5:1 2:1.3496622 3:0.67820993 
1 0:0.5976143 5:1 2:1.3496622 3:-0.074338384 
-1 0:0 5:1 2:1.3496622 3:-0.074555156 
-1 0:0 5:1 2:1.3496622 3:0.64966327 
-1 0:-1.1952286 5:1 2:1.3496622 3:0.079996401 
-1 0:0 5:1 2:1.3496622 3:0.075160675 
0.009272860880405213 0:-0.5976143 5:1 2:1.3496622 3:-0.074295517 
-1 0:-1.1952286 5:1 2:1.3496622 3:-0.074295517 
1 0:-0.5976143 9:1 2:1.3496622 3:1.9215718 
1 0:-0.5976143 9:1 2:1.3496622 3:1.9215718 
-1 0:-1.1952286 9:1 2:1.3496622 3:1.9215718 
-0.7215798347327861 0:0 9:1 2:1.3496622 3:1.8258265 
-1 0:-1.7928429 9:1 2:1.3496622 3:1.9215718 
-1 0:0.5976143 9:1 2:1.3496622 3:1.9200265 
-1 0:-1.7928429 9:1 2:1.3496622 3:1.9215718 
-0.731888125117108 0:1.1952286 9:1 2:1.3496622 3:1.7300815 
-1 0:0.5976143 9:1 2:1.3496622 3:1.9200265 
-1 0:0 9:1 2:1.3496622 3:1.8258265 
-1 0:-1.1952286 9:1 2:1.3496622 3:1.9215718 
-0.1219777682726427 0:-1.7928429 1:1 2:1.3496622 3:2.1640067 
1 0:-0.5976143 1:1 2:1.3496622 3:2.1640067 
-1 0:-1.1952286 1:1 2:1.3496622 3:2.1640067 
-1 0:0 1:1 2:1.3496622 3:2.000449 
1 0:-0.5976143 1:1 2:1.3496622 3:2.1639373 
-1 0:0 1:1 2:1.3496622 3:2.0008163 
-1 0:-1.1952286 1:1 2:1.3496622 3:2.1639373 
-1 0:0 1:1 2:1.3496622 3:2.0008163 
1 0:-0.5976143 1:1 2:1.3496622 3:2.1639373 
-1 0:-1.1952286 1:1 2:1.3496622 3:2.1639373 
1 0:-0.5976143 1:1 2:1.3496622 3:2.1639373 
1 0:-0.5976143 1:1 2:1.3496622 3:2.1639373 
-1 0:-1.1952286 1:1 2:1.3496622 3:2.1639373 
-1 0:0 1:1 2:1.3496622 3:2.0008163 
-1 0:-1.1952286 1:1 2:1.3496622 3:2.1639373 
1 0:-0.5976143 1:1 2:1.3496622 3:2.0268704 
-1 0:0 1:1 2:1.3496622 3:1.9029266 
1 0:-0.5976143 1:1 2:1.3496622 3:1.9357258 
-1 0:-1.1952286 1:1 2:1.3496622 3:1.9357258 
-1 0:0 1:1 2:1.3496622 3:2.0008163 
-1 0:-1.1952286 1:1 2:1.3496622 3:2.0268704 
1 0:0 1:1 2:1.3496622 3:2.0268704 
1 0:0 1:1 2:1.3496622 3:1.9357251 
