svm_type epsilon_svr
kernel_type rbf
gamma 0.1
nr_class 2
total_sv 298
rho -0.805037
SV
1 0:0.5 1:1 2:1 3:0.17033595 
-1 0:0.33333333 1:1 2:1 3:0.39419102 
1 0:0.5 1:1 2:1 3:0.64117012 
1 0:0.5 1:1 2:1 3:0.64117012 
-1 0:0.33333333 1:1 2:1 3:0.48188635 
1 0:0.5 6:1 2:1 3:0.45473266 
-5.389981097940558e-06 0:0.5 6:1 2:1 3:0.34935657 
1 0:0.5 6:1 2:1 3:0.45473266 
-1 0:0.33333333 6:1 2:1 3:0.34935657 
-0.960835309594098 0:0.5 6:1 2:1 3:0.34935657 
0.3388551475526457 0:0.5 8:1 2:1 3:0.53493768 
-1 0:0.33333333 8:1 2:1 3:0.34935657 
8.286812986304577e-05 0:1 9:1 2:1 3:0.52805583 
-1 0:0.33333333 9:1 2:1 3:0.48188635 
-1 0:0.5 7:1 2:0.66 3:0.11072368 
1 0:0.5 7:1 2:0.66 3:0.015277492 
-1 0:0.33333333 1:1 2:1 3:0.31908621 
-1 0:0.5 1:1 2:1 3:0.31907046 
0.0003336985615828005 0:1 8:1 2:0 3:0.010391556 
-1 0:0.33333333 6:1 2:1 3:0.34935657 
1 0:0.5 6:1 2:1 3:0.19353757 
1 0:0.5 6:1 2:1 3:0.53986922 
-1 0:0.33333333 6:1 2:1 3:0.34935657 
-1 0:0.33333333 5:1 2:1 3:0.74095414 
-1 0:0.33333333 5:1 2:1 3:0.64003847 
-1 0:0.33333333 7:1 2:0.66 3:0.1107409 
0.04144749791665531 0:0 7:1 2:0.66 3:0.016577974 
0.0004383728032804728 0:0.5 4:1 2:1 3:0.88265466 
-0.9398461930290084 0:0.33333333 4:1 2:1 3:0.96013933 
-1 0:0.5 7:1 2:0.66 3:0.11072368 
1 0:0.5 7:1 2:0.66 3:0.015277492 
1 0:0.5 1:1 2:0.66 3:0.538062 
0.01711681293363354 0:1 1:1 2:0.66 3:0.48158132 
1 0:0.5 1:1 2:0.66 3:0.37744984 
-1 0:0.33333333 1:1 2:0.66 3:0.31908621 
-1 0:0.5 1:1 2:0.66 3:0.31907046 
1 0:0 1:1 2:0.66 3:0.14553924 
1 0:0.5 1:1 2:0.66 3:0.14119823 
1 0:0.5 6:1 2:0.66 3:0.35905948 
1 0:0.5 6:1 2:0.66 3:0.29027959 
-1 0:0.33333333 6:1 2:0.66 3:0.32210345 
0.6157842585427851 0:0.5 6:1 2:0.66 3:0.41552249 
-1 0:0.5 6:1 2:0.66 3:0.32208749 
-1 0:0.33333333 6:1 2:0.66 3:0.26232349 
1 0:0.5 8:1 2:0.66 3:0.538062 
1 0:0.5 5:1 2:0.66 3:0.76539179 
-0.06635440880145224 0:0.33333333 5:1 2:0.66 3:0.55410193 
1 0:0.5 5:1 2:0.66 3:0.76539179 
0.4517271467528237 0:0.5 5:1 2:0.66 3:0.76539179 
1 0:0.5 9:1 2:0.66 3:0.538062 
1 0:0.5 9:1 2:0.66 3:0.538062 
0.3435928627656707 0:0.5 4:1 2:0.66 3:0.82216287 
0.06322998839771356 0:0.5 4:1 2:1 3:0.88265466 
-1 0:0.33333333 4:1 2:1 3:0.93364748 
-1 0:0.33333333 7:1 2:0.66 3:0.1107409 
0.9968264643940073 0:0 7:1 2:0.66 3:0.016577974 
-1 0:0.33333333 1:1 2:0.66 3:0.32210345 
-1 0:0.5 1:1 2:0.66 3:0.32208749 
1 0:0 1:1 2:0.66 3:0.17613933 
1 0:0.5 1:1 2:0.66 3:0.17203302 
0.001911378253020726 0:1 1:1 2:0.66 3:0.48158132 
1 0:0.5 1:1 2:0.66 3:0.538062 
-1 0:0.33333333 1:1 2:0.66 3:0.32210345 
-1 0:0.5 1:1 2:0.66 3:0.32208749 
1 0:0 1:1 2:0.66 3:0.17567968 
1 0:0.5 1:1 2:0.66 3:0.17033595 
1 0:0 6:1 2:0.66 3:0.29810476 
1 0:0.5 6:1 2:0.66 3:0.14960088 
-1 0:0.5 6:1 2:0.66 3:0.32208749 
1 0:0 6:1 2:0.66 3:0.17613933 
1 0:0.5 6:1 2:0.66 3:0.17203302 
1 0:0.5 6:1 2:0.66 3:0.37744984 
-1 0:0.33333333 6:1 2:0.66 3:0.32210345 
1 0:0.5 8:1 2:0.66 3:0.538062 
1 0:0.5 8:1 2:0.66 3:0.538062 
-1 0:0.33333333 8:1 2:0.66 3:0.32210345 
-0.7032517056269748 0:0.5 5:1 2:0.66 3:0.55409114 
0.4360114332386809 0:0.5 5:1 2:0.66 3:0.76539179 
1 0:0.5 9:1 2:0.66 3:0.538062 
1 0:0.5 4:1 2:0.66 3:0.84618374 
0.145145480371834 0:0.5 4:1 2:0.66 3:0.82216287 
-1 0:0.33333333 4:1 2:0.66 3:0.82040306 
0.0007499217798274289 0:0.5 7:1 2:0.33 3:0.0010511897 
-1 0:0.5 1:1 2:0.33 3:0.27425133 
-1 0:0.33333333 1:1 2:0.33 3:0.24954905 
0.04492892712270125 0:0.5 1:1 2:0.33 3:0.48259875 
-1 0:0.5 1:1 2:0.33 3:0.24543012 
-1 0:0.33333333 6:1 2:0.33 3:0.27425364 
-1 0:0.5 6:1 2:0.33 3:0.27425133 
-1 0:0.33333333 6:1 2:0.33 3:0.24954905 
-1 0:0.5 6:1 2:0.33 3:0.24953811 
1.210939903637116e-05 0:0.5 6:1 2:0.33 3:0.11303318 
-1 0:0.33333333 1:1 2:0.33 3:0.27425364 
-1 0:0.5 1:1 2:0.33 3:0.24953811 
0.07308823963743642 0:0 1:1 2:0.33 3:0.11595384 
1 0:0.5 1:1 2:0.33 3:0.11303318 
-0.4855387273754972 0:0.5 1:1 2:0.33 3:0.22244246 
1 0:0.5 1:1 2:0.33 3:0.12433722 
-1 0:0.33333333 1:1 2:0.33 3:0.2454379 
0.980448650884727 0:0 6:1 2:0.33 3:0.11595384 
-1 0:0.33333333 6:1 2:0.33 3:0.22245105 
-1 0:0.33333333 6:1 2:0.33 3:0.22245105 
-1 0:0.33333333 7:1 2:1 3:0.14725139 
1.812036632441054e-08 0:1 7:1 2:1 3:0.022679471 
1 0:0.5 7:1 2:1 3:0.023735118 
-1 0:0.33333333 7:1 2:1 3:0.14725139 
-1 0:0.33333333 1:1 2:0.33 3:0.22245105 
1 0:0.5 7:1 2:1 3:0.023735118 
1 0:0.5 6:1 2:0.66 3:0.18782447 
-1 0:0.5 8:1 2:0.33 3:0.41883807 
-0.001088783420817085 0:0.5 8:1 2:0.33 3:0.36803353 
-1 0:0.33333333 5:1 2:0.33 3:0.5464585 
-1 0:0.5 8:1 2:0.33 3:0.41883807 
-0.9999956075002158 0:0.5 5:1 2:0.33 3:0.64206309 
-1 0:0.5 5:1 2:0.33 3:0.54645186 
-1 0:0.33333333 5:1 2:0.33 3:0.46858557 
-1 0:0.5 5:1 2:0.33 3:0.46858557 
-0.5215432553649109 0:0.5 5:1 2:0.33 3:0.64206309 
-1 0:0.33333333 8:1 2:0.33 3:0.22245105 
0.7311819236690741 0:0.5 8:1 2:0.33 3:0.16513519 
-1 0:0.5 9:1 2:0.33 3:0.36931051 
-1 0:0.33333333 9:1 2:0.33 3:0.32062355 
-0.3566872220083141 0:0.33333333 4:1 2:0.33 3:0.73433776 
0.02063769626973463 0:1 1:1 2:0 3:0.010391556 
1 0:0.5 1:1 2:0 3:0.010508516 
-1 0:0.5 8:1 2:0.33 3:0.41883807 
-1 0:0.5 9:1 2:0.33 3:0.44162096 
-1 0:0.5 9:1 2:0.33 3:0.32059554 
1 0:0.5 1:1 2:0 3:0.010508516 
0.1404587937539306 0:0.5 6:1 2:0 3:0.010508516 
0.0168001286672577 0:0.5 4:1 2:0 3:0.033206728 
1 0:0.5 8:1 2:0 3:0.010508516 
1 0:0.5 8:1 2:0 3:0.010508516 
0.128908165876637 0:1 5:1 2:0 3:0.010391556 
0.1531083545491692 0:0 5:1 2:0 3:0.010625475 
1 0:0.5 5:1 2:0 3:0.010508516 
1 0:0.5 5:1 2:0 3:0.010508516 
0.9722495642832567 0:0.5 9:1 2:0 3:0.033206728 
-1 0:0.33333333 7:1 2:1 3:0.14725139 
0.2396716589150692 0:1 7:1 2:1 3:0.022679471 
1 0:0.5 7:1 2:1 3:0.023735118 
1 0:0.5 6:1 2:0.66 3:0.18782447 
-1 0:0.33333333 1:1 2:1 3:0.31908621 
1 0:0.5 1:1 2:1 3:0.64117012 
-1 0:0.33333333 1:1 2:1 3:0.48188635 
1 0:0.5 6:1 2:1 3:0.45473266 
-1 0:0.5 6:1 2:1 3:0.34935657 
1 0:0.5 6:1 2:1 3:0.19353757 
1 0:0.5 6:1 2:1 3:0.45473266 
-1 0:0.5 6:1 2:1 3:0.34935657 
-1 0:0.33333333 6:1 2:1 3:0.34935657 
-0.9978906068801461 0:0.5 6:1 2:1 3:0.34935657 
0.7286997610729548 0:0.5 8:1 2:1 3:0.53493768 
1 0:0.5 9:1 2:0 3:0.033206728 
1 0:0.5 9:1 2:0 3:0.033206728 
1 0:0.5 9:1 2:0 3:0.033206728 
1 0:0.5 7:1 2:1 3:0.023735118 
-1 0:0.33333333 7:1 2:1 3:0.14725139 
0.01455260273960001 0:1 7:1 2:1 3:0.022679471 
-1 0:0.33333333 1:1 2:0.33 3:0.22245105 
-1 0:0.5 1:1 2:1 3:0.31907046 
1 0:0.5 1:1 2:1 3:0.17033595 
-1 0:0.33333333 1:1 2:1 3:0.39419102 
1 0:0.5 1:1 2:1 3:0.64117012 
0.1972495707541923 0:0.5 1:1 2:1 3:0.58199228 
-1 0:0.33333333 6:1 2:1 3:0.34935657 
1 0:0.5 6:1 2:1 3:0.53986922 
-1 0:0.33333333 6:1 2:1 3:0.34935657 
-1 0:0.33333333 8:1 2:1 3:0.34935657 
0.2231890172501186 0:0.5 5:1 2:1 3:0.84876778 
1 0:0.5 5:1 2:1 3:0.84876778 
1 0:0.5 5:1 2:1 3:0.84876778 
-1 0:0.33333333 5:1 2:1 3:0.64003847 
0.119149345173653 0:1 9:1 2:1 3:0.52805583 
-1 0:0.33333333 9:1 2:1 3:0.48188635 
-1 0:0.33333333 7:1 2:0.66 3:0.1107409 
1 0:0 7:1 2:0.66 3:0.016577974 
1 0:0.5 4:1 2:1 3:0.88265466 
1 0:0.5 4:1 2:1 3:0.88265466 
-0.9878308601690053 0:0.33333333 4:1 2:1 3:0.96013933 
-1 0:0.33333333 7:1 2:0.66 3:0.1107409 
0.6571934387616248 0:0 7:1 2:0.66 3:0.016577974 
1 0:0.5 7:1 2:0.66 3:0.015277492 
-1 0:0.33333333 1:1 2:0.66 3:0.32210345 
1 0:0 1:1 2:0.66 3:0.17613933 
0.1455453010285502 0:1 1:1 2:0.66 3:0.48158132 
-1 0:0.5 1:1 2:0.66 3:0.32208749 
-1 0:0.33333333 1:1 2:0.66 3:0.31908621 
1 0:0 1:1 2:0.66 3:0.17567968 
1 0:0.5 1:1 2:0.66 3:0.17033595 
1 0:0.5 1:1 2:0.66 3:0.14119823 
1 0:0.5 6:1 2:0.66 3:0.35905948 
1 0:0.5 6:1 2:0.66 3:0.14960088 
-1 0:0.33333333 6:1 2:0.66 3:0.32210345 
1 0:0 6:1 2:0.66 3:0.17613933 
0.9999111800327219 0:0.5 6:1 2:0.66 3:0.41552249 
-1 0:0.5 6:1 2:0.66 3:0.32208749 
1 0:0.5 8:1 2:0.66 3:0.538062 
-1 0:0.33333333 8:1 2:0.66 3:0.32210345 
-1 0:0.33333333 5:1 2:0.66 3:0.55410193 
1 0:0.5 5:1 2:0.66 3:0.76539179 
1 0:0.5 5:1 2:0.66 3:0.76539179 
1 0:0.5 5:1 2:0.66 3:0.76539179 
1 0:0.5 9:1 2:0.66 3:0.538062 
1 0:0.5 9:1 2:0.66 3:0.538062 
-1 0:0.33333333 4:1 2:0.66 3:0.82040306 
0.5402705842630344 0:0.5 7:1 2:0.33 3:0.0010511897 
-1 0:0.5 1:1 2:0.33 3:0.27425133 
-1 0:0.33333333 1:1 2:0.33 3:0.24954905 
-1 0:0.5 1:1 2:0.33 3:0.24953811 
1 0:0.5 1:1 2:0.33 3:0.11303318 
0.004271221521951701 0:0.5 1:1 2:0.33 3:0.48259875 
0.6266621475556533 0:0.5 5:1 2:1 3:0.84876778 
0.007740967790110488 0:0.5 5:1 2:1 3:0.84876778 
-1 0:0.33333333 5:1 2:1 3:0.74095414 
-1 0:0.5 7:1 2:0.66 3:0.11072368 
1 0:0.5 7:1 2:0.66 3:0.015277492 
0.8012960815192209 0:0.5 4:1 2:1 3:0.88265466 
-1 0:0.33333333 4:1 2:1 3:0.93364748 
-1 0:0.5 7:1 2:0.66 3:0.11072368 
-1 0:0.5 1:1 2:0.66 3:0.32208749 
1 0:0.5 1:1 2:0.66 3:0.17203302 
1 0:0.5 1:1 2:0.66 3:0.538062 
1 0:1 1:1 2:0.66 3:0.48158132 
1 0:0.5 1:1 2:0.66 3:0.538062 
-1 0:0.33333333 1:1 2:0.66 3:0.32210345 
1 0:0.5 1:1 2:0.66 3:0.37744984 
-1 0:0.5 1:1 2:0.66 3:0.31907046 
1 0:0 1:1 2:0.66 3:0.14553924 
1 0:0 6:1 2:0.66 3:0.29810476 
1 0:0.5 6:1 2:0.66 3:0.29027959 
-1 0:0.5 6:1 2:0.66 3:0.32208749 
1 0:0.5 6:1 2:0.66 3:0.17203302 
1 0:0.5 6:1 2:0.66 3:0.37744984 
-1 0:0.33333333 6:1 2:0.66 3:0.32210345 
-1 0:0.33333333 6:1 2:0.66 3:0.26232349 
1 0:0.5 8:1 2:0.66 3:0.538062 
1 0:0.5 8:1 2:0.66 3:0.538062 
1 0:0.5 5:1 2:0.66 3:0.76539179 
1 0:0.5 5:1 2:0.66 3:0.76539179 
-1 0:0.5 5:1 2:0.66 3:0.55409114 
1 0:0.5 5:1 2:0.66 3:0.76539179 
1 0:0.5 9:1 2:0.66 3:0.538062 
1 0:0.5 4:1 2:0.66 3:0.84618374 
0.9038334828655025 0:0.5 4:1 2:0.66 3:0.82216287 
1 0:0.5 4:1 2:0.66 3:0.82216287 
0.6836564279778796 0:0.5 7:1 2:0.33 3:0.0010511897 
-1 0:0.33333333 1:1 2:0.33 3:0.27425364 
1 0:0 1:1 2:0.33 3:0.11595384 
-1 0:0.5 1:1 2:0.33 3:0.22244246 
1 0:0.5 1:1 2:0.33 3:0.12433722 
1 0:0.5 1:1 2:0.33 3:0.48259875 
-1 0:0.33333333 1:1 2:0.33 3:0.2454379 
-1 0:0.5 1:1 2:0.33 3:0.24543012 
-1 0:0.5 6:1 2:0.33 3:0.27425133 
-1 0:0.5 6:1 2:0.33 3:0.24953811 
0.7356822825182544 0:0 6:1 2:0.33 3:0.11595384 
0.07103738764433251 0:0.5 6:1 2:0.33 3:0.11303318 
-1 0:0.33333333 6:1 2:0.33 3:0.22245105 
-1 0:0.5 8:1 2:0.33 3:0.41883807 
-1 0:0.5 5:1 2:0.33 3:0.54645186 
-1 0:0.5 5:1 2:0.33 3:0.46858557 
-1 0:0.5 8:1 2:0.33 3:0.41883807 
-1 0:0.33333333 8:1 2:0.33 3:0.22245105 
-1 0:0.5 9:1 2:0.33 3:0.44162096 
-1 0:0.5 9:1 2:0.33 3:0.36931051 
-1 0:0.33333333 9:1 2:0.33 3:0.32062355 
0.1653921618073283 0:1 1:1 2:0 3:0.010391556 
1 0:0.5 1:1 2:0 3:0.010508516 
-1 0:0.33333333 6:1 2:0.33 3:0.27425364 
-1 0:0.33333333 6:1 2:0.33 3:0.24954905 
-1 0:0.33333333 6:1 2:0.33 3:0.22245105 
-0.9003880801688255 0:0.5 8:1 2:0.33 3:0.36803353 
-0.9202796769174389 0:0.5 5:1 2:0.33 3:0.64206309 
-1 0:0.33333333 5:1 2:0.33 3:0.5464585 
-1 0:0.33333333 5:1 2:0.33 3:0.46858557 
-1 0:0.5 8:1 2:0.33 3:0.41883807 
1 0:0.5 8:1 2:0.33 3:0.16513519 
-0.2270264713672956 0:0.33333333 9:1 2:0.33 3:0.44176209 
-1 0:0.5 9:1 2:0.33 3:0.32059554 
-0.3072471801071867 0:0.33333333 4:1 2:0.33 3:0.73433776 
-1 0:0.33333333 4:1 2:0.33 3:0.73433776 
-1 0:0.33333333 4:1 2:0.33 3:0.73433776 
1 0:0.5 1:1 2:0 3:0.010508516 
0.4984835645218029 0:0.5 6:1 2:0 3:0.010508516 
0.05928137833747787 0:0.5 4:1 2:0 3:0.033206728 
1 0:0.5 6:1 2:0 3:0.010508516 
1 0:0.5 6:1 2:0 3:0.010508516 
1 0:0.5 6:1 2:0 3:0.010508516 
1 0:0.5 6:1 2:0 3:0.010508516 
1 0:0.5 4:1 2:0 3:0.033206728 
1 0:0.5 8:1 2:0 3:0.010508516 
0.01514300777464623 0:1 8:1 2:0 3:0.010391556 
1 0:0.5 8:1 2:0 3:0.010508516 
1 0:0.5 5:1 2:0 3:0.010508516 
1 0:0.5 5:1 2:0 3:0.010508516 
0.4428975252029319 0:1 5:1 2:0 3:0.010391556 
0.779923476656324 0:0 5:1 2:0 3:0.010625475 
