svm_type epsilon_svr
kernel_type rbf
gamma 0.1
nr_class 2
total_sv 819
rho -1.66575
SV
1 0:1.1952286 1:1 2:1.3496622 3:1.8650661 
-1 0:1.7928429 1:1 2:1.3496622 3:2.5142522 
-0.6670994678442801 0:0.5976143 1:1 2:1.3496622 3:2.5243231 
1 0:1.7928429 1:1 2:1.3496622 3:2.1824712 
-1 0:0.5976143 1:1 2:1.3496622 3:2.1846014 
-1 0:0 1:1 2:1.3496622 3:2.1846014 
1 0:1.1952286 1:1 2:1.3496622 3:2.1845696 
1 0:1.7928429 1:1 2:1.3496622 3:1.8649609 
1 0:0 1:1 2:1.3496622 3:1.8650661 
-1 0:1.7928429 1:1 2:1.3496622 3:1.5459237 
-1 0:0.5976143 1:1 2:1.3496622 3:1.5459237 
-1 0:1.1952286 1:1 2:1.3496622 3:1.5459237 
0.009229500150927968 0:-0.5976143 1:1 2:1.3496622 3:1.5459237 
-1 0:0 1:1 2:1.3496622 3:1.5459237 
1 0:0 1:1 2:1.3496622 3:1.5459237 
-1 0:1.7928429 1:1 2:1.3496622 3:1.2600237 
-1 0:1.1952286 1:1 2:1.3496622 3:1.2600237 
1 0:1.7928429 1:1 2:1.3496622 3:0.94385242 
-1 0:0 1:1 2:1.3496622 3:1.2600237 
0.3751793283594453 0:1.1952286 1:1 2:1.3496622 3:0.94385242 
1 0:0.5976143 1:1 2:1.3496622 3:0.94385242 
1 0:0 1:1 2:1.3496622 3:0.94385242 
-1 0:1.7928429 4:1 2:-0.44988739 3:-0.18291108 
-1 0:1.7928429 4:1 2:-0.44988739 3:-0.34132326 
-1 0:-1.7928429 4:1 2:-0.44988739 3:-0.34112887 
-1 0:0 4:1 2:-0.44988739 3:-0.341226 
-1 0:1.1952286 4:1 2:-0.44988739 3:-0.34128028 
-1 0:1.7928429 4:1 2:-0.44988739 3:-0.56063747 
-1 0:1.7928429 4:1 2:-0.44988739 3:-0.70777918 
-1 0:0.5976143 4:1 2:-0.44988739 3:-0.70777918 
-1 0:0 4:1 2:-0.44988739 3:-0.70777918 
-1 0:1.1952286 4:1 2:-0.44988739 3:-0.70777918 
-1 0:0 4:1 2:-0.44988739 3:-0.70777918 
-1 0:1.1952286 4:1 2:-0.44988739 3:-0.56185306 
-1 0:1.7928429 4:1 2:-0.44988739 3:-0.56180661 
-0.5044925773732443 0:-1.1952286 4:1 2:-0.44988739 3:-0.56180533 
-1 0:0 4:1 2:-0.44988739 3:-0.56182919 
-1 0:0 4:1 2:-0.44988739 3:-0.56180533 
-1 0:1.1952286 4:1 2:-0.44988739 3:-0.71908397 
-1 0:-1.7928429 4:1 2:-0.44988739 3:-0.56180533 
-1 0:1.7928429 4:1 2:-0.44988739 3:-0.71932378 
-1 0:0 4:1 2:-0.44988739 3:-0.56180597 
-1 0:0.5976143 4:1 2:-0.44988739 3:-0.71900898 
-1 0:0 4:1 2:-0.44988739 3:-0.7191428 
-1 0:0 4:1 2:-0.44988739 3:-0.7189649 
-1 0:0 4:1 2:-0.44988739 3:-0.71902296 
-1 0:0 4:1 2:-0.44988739 3:-0.71898543 
-1 0:1.7928429 6:1 2:-0.44988739 3:0.042041377 
1 0:1.7928429 6:1 2:-0.44988739 3:0.29691236 
-1 0:1.1952286 6:1 2:-0.44988739 3:0.042833167 
-1 0:1.1952286 6:1 2:-0.44988739 3:-0.19404066 
-1 0:1.7928429 6:1 2:-0.44988739 3:-0.19404066 
-1 0:0.5976143 6:1 2:-0.44988739 3:-0.19404066 
-1 0:-0.5976143 6:1 2:-0.44988739 3:-0.19404066 
-1 0:0 6:1 2:-0.44988739 3:-0.19404066 
-1 0:-1.7928429 6:1 2:-0.44988739 3:-0.19404066 
-1 0:0 6:1 2:-0.44988739 3:-0.19404066 
-1 0:0 6:1 2:-0.44988739 3:-0.19404066 
-1 0:1.7928429 6:1 2:-0.44988739 3:-0.38854211 
-1 0:1.1952286 6:1 2:-0.44988739 3:-0.38849771 
-1 0:-0.5976143 6:1 2:-0.44988739 3:-0.38853005 
-1 0:0 6:1 2:-0.44988739 3:-0.38840315 
-0.4839527896797093 0:0 6:1 2:-0.44988739 3:-0.38849168 
-1 0:-1.1952286 6:1 2:-0.44988739 3:-0.38837492 
-1 0:0 6:1 2:-0.44988739 3:-0.38843625 
-1 0:-1.7928429 6:1 2:-0.44988739 3:-0.38826432 
-1 0:1.7928429 6:1 2:-0.44988739 3:-0.51451476 
-1 0:1.1952286 6:1 2:-0.44988739 3:-0.51450873 
-1 0:0 6:1 2:-0.44988739 3:-0.51451168 
-1 0:-1.7928429 6:1 2:-0.44988739 3:-0.51450873 
-1 0:0 6:1 2:-0.44988739 3:-0.51450873 
-1 0:1.7928429 7:1 2:-0.44988739 3:0.80690338 
-0.727566163180376 0:1.1952286 7:1 2:-0.44988739 3:0.80695753 
-1 0:0 7:1 2:-0.44988739 3:0.80695753 
-1 0:0 7:1 2:-0.44988739 3:0.80693033 
-1 0:1.7928429 7:1 2:-0.44988739 3:0.47273251 
-1 0:-1.7928429 7:1 2:-0.44988739 3:0.47273251 
-0.928458092166036 0:-1.1952286 7:1 2:-0.44988739 3:0.47273251 
-0.6064686158328173 0:0 7:1 2:-0.44988739 3:0.47273251 
-1 0:0 7:1 2:-0.44988739 3:0.47273251 
-1 0:1.7928429 1:1 2:-0.44988739 3:0.78746776 
-0.0005374549413009331 0:0 1:1 2:-0.44988739 3:0.78748419 
-1 0:1.7928429 1:1 2:-0.44988739 3:0.78746776 
-1 0:1.7928429 1:1 2:-0.44988739 3:0.78746776 
-1 0:1.7928429 1:1 2:-0.44988739 3:0.78746776 
-1 0:1.7928429 1:1 2:-0.44988739 3:0.78746776 
-0.1021101354287044 0:0 1:1 2:-0.44988739 3:0.78748419 
-1 0:1.7928429 1:1 2:-0.44988739 3:0.78746776 
-0.8538913396534157 0:0 1:1 2:-0.44988739 3:0.78748419 
-1 0:1.1952286 1:1 2:-0.44988739 3:0.50838629 
0.0001679061414367375 0:1.7928429 1:1 2:-0.44988739 3:0.62354115 
3.912889695209579e-05 0:1.7928429 1:1 2:-0.44988739 3:0.62354115 
1 0:0.5976143 1:1 2:-0.44988739 3:0.35318682 
-1 0:1.7928429 1:1 2:-0.44988739 3:0.1042864 
-1 0:0 1:1 2:-0.44988739 3:0.1042864 
-1 0:1.7928429 1:1 2:-0.44988739 3:-0.070617112 
-1 0:-1.1952286 1:1 2:-0.44988739 3:-0.070617112 
-1 0:1.1952286 1:1 2:-0.44988739 3:-0.070617112 
-1 0:-1.7928429 1:1 2:-0.44988739 3:-0.070617112 
-1 0:-0.5976143 1:1 2:-0.44988739 3:-0.070617112 
-1 0:0 1:1 2:-0.44988739 3:-0.070617112 
-1 0:0 1:1 2:-0.44988739 3:-0.070617112 
-0.9287243219656414 0:0 1:1 2:-0.44988739 3:-0.070617112 
0.2555195070459247 0:1.7928429 1:1 2:-0.44988739 3:0.62354115 
0.9211434698298741 0:1.7928429 1:1 2:-0.44988739 3:0.62354115 
1 0:1.7928429 1:1 2:-0.44988739 3:0.62354115 
1 0:1.7928429 1:1 2:-0.44988739 3:0.62354115 
0.8463952966473687 0:1.7928429 1:1 2:-0.44988739 3:0.62354115 
1 0:0.5976143 1:1 2:-0.44988739 3:0.35318682 
-1 0:1.7928429 4:1 2:-0.44988739 3:-0.44112167 
-1 0:-1.1952286 4:1 2:-0.44988739 3:-0.44112167 
-1 0:-1.7928429 4:1 2:-0.44988739 3:-0.44112167 
-1 0:0 4:1 2:-0.44988739 3:-0.44112167 
-1 0:1.1952286 4:1 2:-0.44988739 3:-0.57838648 
-1 0:1.7928429 4:1 2:-0.44988739 3:-0.57838648 
-1 0:0.5976143 4:1 2:-0.44988739 3:-0.57838648 
-1 0:-0.5976143 4:1 2:-0.44988739 3:-0.57838648 
-1 0:0 4:1 2:-0.44988739 3:-0.57838648 
-1 0:0 4:1 2:-0.44988739 3:-0.57838648 
-1 0:-1.1952286 4:1 2:-0.44988739 3:-0.57838648 
-1 0:-1.7928429 4:1 2:-0.44988739 3:-0.57838648 
-1 0:0 4:1 2:-0.44988739 3:-0.57838648 
-1 0:0 4:1 2:-0.44988739 3:-0.57838648 
-1 0:1.7928429 4:1 2:-0.44988739 3:-0.70777918 
-1 0:1.1952286 4:1 2:-0.44988739 3:-0.70777918 
-1 0:0.5976143 4:1 2:-0.44988739 3:-0.70777918 
-1 0:0 4:1 2:-0.44988739 3:-0.70777918 
-1 0:0.5976143 4:1 2:-0.44988739 3:-0.93245956 
-1 0:0 4:1 2:-0.44988739 3:-0.70777918 
-1 0:1.1952286 4:1 2:-0.44988739 3:-0.93248509 
-1 0:1.7928429 4:1 2:-0.44988739 3:-0.93255072 
-1 0:0 4:1 2:-0.44988739 3:-0.93245956 
-1 0:0 4:1 2:-0.44988739 3:-0.93245956 
-0.2588868957716403 0:1.7928429 8:1 2:-0.44988739 3:0.80690338 
1 0:1.7928429 8:1 2:-0.44988739 3:0.5971253 
-1 0:1.7928429 8:1 2:-0.44988739 3:0.1737802 
-1 0:1.1952286 8:1 2:-0.44988739 3:0.1737802 
-1 0:-1.7928429 8:1 2:-0.44988739 3:0.1737802 
-1 0:0 8:1 2:-0.44988739 3:0.1737802 
-1 0:1.7928429 8:1 2:-0.44988739 3:-0.071791646 
-0.988342620712686 0:-1.1952286 8:1 2:-0.44988739 3:0.1737802 
-1 0:0 8:1 2:-0.44988739 3:0.1737802 
-1 0:1.7928429 8:1 2:-0.44988739 3:-0.23675576 
-1 0:1.1952286 8:1 2:-0.44988739 3:-0.23675576 
-1 0:0 8:1 2:-0.44988739 3:-0.23675576 
-1 0:-1.7928429 8:1 2:-0.44988739 3:-0.23675576 
-1 0:0 8:1 2:-0.44988739 3:-0.23675576 
-1 0:1.7928429 8:1 2:-0.44988739 3:0.76638261 
-1 0:0 8:1 2:-0.44988739 3:0.76653761 
1 0:0.5976143 8:1 2:-0.44988739 3:0.52424648 
-0.5066387106528485 0:-1.7928429 8:1 2:-0.44988739 3:0.52424648 
1 0:1.7928429 8:1 2:-0.44988739 3:0.29691236 
-1 0:1.7928429 8:1 2:-0.44988739 3:0.042041377 
-1 0:1.1952286 8:1 2:-0.44988739 3:0.042833167 
-1 0:1.7928429 8:1 2:-0.44988739 3:-0.19404066 
-1 0:1.1952286 8:1 2:-0.44988739 3:-0.19404066 
-1 0:0.5976143 8:1 2:-0.44988739 3:-0.19404066 
-1 0:-0.5976143 8:1 2:-0.44988739 3:-0.19404066 
-1 0:-1.7928429 8:1 2:-0.44988739 3:-0.19404066 
-1 0:0 8:1 2:-0.44988739 3:-0.19404066 
-1 0:-1.1952286 8:1 2:-0.44988739 3:-0.19404066 
-1 0:0 8:1 2:-0.44988739 3:-0.19404066 
-1 0:0 8:1 2:-0.44988739 3:-0.19404066 
-1 0:1.1952286 9:1 2:-0.44988739 3:-0.022436724 
-1 0:1.7928429 9:1 2:-0.44988739 3:-0.022458922 
-0.2529348457320775 0:0 9:1 2:-0.44988739 3:-0.022384375 
-1 0:1.7928429 9:1 2:-0.44988739 3:-0.20968272 
-1 0:1.1952286 9:1 2:-0.44988739 3:-0.20968272 
-0.1964036115995377 0:-1.7928429 9:1 2:-0.44988739 3:-0.20968272 
-1 0:0 9:1 2:-0.44988739 3:-0.20968272 
-0.9871664620918157 0:1.7928429 9:1 2:-0.44988739 3:-0.39513523 
-1 0:-1.7928429 9:1 2:-0.44988739 3:-0.39513523 
-1 0:0 9:1 2:-0.44988739 3:-0.39513523 
-1 0:1.7928429 9:1 2:-0.44988739 3:-0.55932936 
-1 0:-1.1952286 9:1 2:-0.44988739 3:-0.39513523 
-1 0:0 9:1 2:-0.44988739 3:-0.39513523 
-1 0:0 9:1 2:-0.44988739 3:-0.55932936 
-1 0:-1.7928429 9:1 2:-0.44988739 3:-0.7057668 
-1 0:-1.7928429 9:1 2:-0.44988739 3:-0.55932936 
-1 0:-0.5976143 9:1 2:-0.44988739 3:-0.7057668 
-1 0:-1.1952286 9:1 2:-0.44988739 3:-0.7057668 
1 0:-0.5976143 9:1 2:-0.44988739 3:-0.97307714 
1 0:-1.7928429 9:1 2:-0.44988739 3:-0.97307714 
1 0:-1.1952286 9:1 2:-0.44988739 3:-0.97307714 
1 0:0 9:1 2:-0.44988739 3:-0.97307714 
1 0:0 9:1 2:-0.44988739 3:0.36544924 
-1 0:1.7928429 9:1 2:-0.44988739 3:-0.4384961 
-1 0:1.1952286 9:1 2:-0.44988739 3:-0.43846993 
-1 0:0.5976143 9:1 2:-0.44988739 3:-0.43844709 
-1 0:0 9:1 2:-0.44988739 3:-0.43853575 
-1 0:0 9:1 2:-0.44988739 3:-0.43845851 
-1 0:1.7928429 9:1 2:-0.44988739 3:-0.14418816 
-1 0:-1.7928429 9:1 2:-0.44988739 3:-0.14418649 
-1 0:0 9:1 2:-0.44988739 3:-0.14418739 
-1 0:-0.5976143 9:1 2:-0.44988739 3:-0.34806009 
-1 0:-1.1952286 9:1 2:-0.44988739 3:-0.34806009 
-1 0:-1.7928429 9:1 2:-0.44988739 3:-0.34806009 
-0.7512688861016508 0:0 9:1 2:-0.44988739 3:-0.34812937 
-1 0:-1.7928429 9:1 2:-0.44988739 3:-0.56180533 
-1 0:1.7928429 9:1 2:-0.44988739 3:-0.67738739 
-1 0:0 9:1 2:-0.44988739 3:-0.56180597 
-0.8677228907380674 0:1.1952286 9:1 2:-0.44988739 3:-0.67735749 
-1 0:0 9:1 2:-0.44988739 3:-0.67737244 
-0.3462502790836582 0:0 9:1 2:-0.44988739 3:-0.67735749 
-1 0:1.1952286 5:1 2:-0.44988739 3:-0.70777918 
-1 0:-0.5976143 5:1 2:-0.44988739 3:-0.70777918 
-1 0:1.7928429 5:1 2:-0.44988739 3:-0.70777918 
-1 0:0.5976143 5:1 2:-0.44988739 3:-0.70777918 
-1 0:0 5:1 2:-0.44988739 3:-0.70777918 
-1 0:0 5:1 2:-0.44988739 3:-0.70777918 
-1 0:0 5:1 2:-0.44988739 3:-0.70777918 
-1 0:0 5:1 2:-0.44988739 3:-0.70777918 
-1 0:1.1952286 5:1 2:-0.44988739 3:-0.93248509 
-1 0:-1.1952286 5:1 2:-0.44988739 3:-0.93245956 
-1 0:0 5:1 2:-0.44988739 3:-0.93250517 
-1 0:1.7928429 5:1 2:-0.44988739 3:-0.93255072 
-1 0:-0.5976143 5:1 2:-0.44988739 3:-0.93245956 
-1 0:0.5976143 5:1 2:-0.44988739 3:-0.93245956 
-1 0:0 5:1 2:-0.44988739 3:-0.93247233 
-1 0:0 5:1 2:-0.44988739 3:-0.93245956 
-1 0:0 5:1 2:-0.44988739 3:-0.93245956 
-1 0:1.7928429 5:1 2:-0.44988739 3:-0.93255072 
-1 0:0.5976143 5:1 2:-0.44988739 3:-0.93245956 
-1 0:1.1952286 5:1 2:-0.44988739 3:-0.93248509 
-1 0:-1.1952286 5:1 2:-0.44988739 3:-0.93245956 
-1 0:-0.5976143 5:1 2:-0.44988739 3:-0.93245956 
-1 0:0 5:1 2:-0.44988739 3:-0.93250517 
-1 0:0 5:1 2:-0.44988739 3:-0.93247233 
-1 0:0 5:1 2:-0.44988739 3:-0.93245956 
-1 0:0 5:1 2:-0.44988739 3:-0.93245956 
-1 0:1.7928429 5:1 2:-0.44988739 3:-0.80422823 
-1 0:0.5976143 5:1 2:-0.44988739 3:-0.80422823 
-1 0:-1.7928429 5:1 2:-0.44988739 3:-0.80422823 
-1 0:1.1952286 5:1 2:-0.44988739 3:-0.80422823 
-1 0:-1.1952286 5:1 2:-0.44988739 3:-0.80422823 
-1 0:-0.5976143 5:1 2:-0.44988739 3:-0.80422823 
-1 0:0 5:1 2:-0.44988739 3:-0.80422823 
-1 0:0 5:1 2:-0.44988739 3:-0.80422823 
-1 0:0 5:1 2:-0.44988739 3:-0.80422823 
-1 0:0 5:1 2:-0.44988739 3:-0.80422823 
-0.8995123701830572 0:1.1952286 5:1 2:-0.44988739 3:-0.93349918 
-1 0:0 5:1 2:-0.44988739 3:-0.93349918 
-1 0:-0.5976143 5:1 2:-0.44988739 3:-0.97516452 
0.2071534846215721 0:0.5976143 4:1 2:0.43645792 3:-0.10904877 
1 0:1.1952286 4:1 2:0.43645792 3:-0.10904877 
1 0:-0.5976143 4:1 2:0.43645792 3:-0.10904877 
1 0:-1.7928429 4:1 2:0.43645792 3:-0.10904877 
1 0:-1.1952286 4:1 2:0.43645792 3:-0.10904877 
1 0:0 4:1 2:0.43645792 3:-0.10904877 
1 0:-0.5976143 4:1 2:0.43645792 3:-0.2990498 
1 0:0 4:1 2:0.43645792 3:-0.2990498 
1 0:1.7928429 4:1 2:0.43645792 3:-0.49471911 
1 0:1.1952286 4:1 2:0.43645792 3:-0.49471911 
1 0:0.5976143 4:1 2:0.43645792 3:-0.49471911 
1 0:0 4:1 2:0.43645792 3:-0.49471911 
0.9626321066367507 0:0 4:1 2:0.43645792 3:-0.49471911 
1 0:1.7928429 4:1 2:0.43645792 3:-0.68124202 
1 0:1.1952286 4:1 2:0.43645792 3:-0.68124202 
1 0:0.5976143 4:1 2:0.43645792 3:-0.68124202 
1 0:0 4:1 2:0.43645792 3:-0.68124202 
1 0:1.1952286 4:1 2:0.43645792 3:-0.30057423 
1 0:0 4:1 2:0.43645792 3:-0.30057423 
1 0:0.5976143 4:1 2:0.43645792 3:-0.56181162 
1 0:-1.1952286 4:1 2:0.43645792 3:-0.56180533 
1 0:0.5976143 4:1 2:0.43645792 3:-0.30057423 
1 0:0 4:1 2:0.43645792 3:-0.30057423 
1 0:1.1952286 4:1 2:0.43645792 3:-0.56185306 
1 0:-0.5976143 4:1 2:0.43645792 3:0.23693467 
1 0:0.5976143 4:1 2:0.43645792 3:0.2369017 
1 0:-1.1952286 4:1 2:0.43645792 3:0.23693467 
0.5739133038889518 0:0 4:1 2:0.43645792 3:0.23685217 
1 0:0 4:1 2:0.43645792 3:0.23693467 
1 0:-1.7928429 4:1 2:0.43645792 3:0.23693467 
1 0:0 4:1 2:0.43645792 3:0.23691812 
1 0:0.5976143 4:1 2:0.43645792 3:0.042909511 
1 0:-0.5976143 4:1 2:0.43645792 3:0.042961989 
1 0:-1.1952286 4:1 2:0.43645792 3:0.042988933 
1 0:0 4:1 2:0.43645792 3:0.042935044 
1 0:0 4:1 2:0.43645792 3:0.042935814 
1 0:1.7928429 4:1 2:0.43645792 3:-0.20667813 
1 0:1.1952286 4:1 2:0.43645792 3:-0.20654892 
1 0:0.5976143 4:1 2:0.43645792 3:-0.20650389 
1 0:-0.5976143 4:1 2:0.43645792 3:-0.20641433 
0.6831047776395742 0:-1.7928429 4:1 2:0.43645792 3:-0.20632323 
1 0:0 4:1 2:0.43645792 3:-0.20645911 
1 0:1.7928429 4:1 2:0.43645792 3:-0.45338743 
1 0:0 4:1 2:0.43645792 3:-0.20645911 
1 0:1.1952286 4:1 2:0.43645792 3:-0.4533438 
1 0:0.5976143 6:1 2:0.43645792 3:0.75284404 
1 0:-0.5976143 6:1 2:0.43645792 3:0.75317071 
1 0:0 6:1 2:0.43645792 3:0.75300751 
1 0:1.7928429 6:1 2:0.43645792 3:0.42479629 
1 0:0 6:1 2:0.43645792 3:0.75308552 
1 0:-0.5976143 6:1 2:0.43645792 3:0.42527925 
1 0:-1.1952286 6:1 2:0.43645792 3:0.42527925 
0.6244072022901915 0:0 6:1 2:0.43645792 3:0.42518456 
1 0:0 6:1 2:0.43645792 3:0.42503777 
1 0:-1.7928429 6:1 2:0.43645792 3:0.42527925 
1 0:0 6:1 2:0.43645792 3:0.42527925 
1 0:0 6:1 2:0.43645792 3:0.42527155 
-1 0:1.7928429 6:1 2:0.43645792 3:0.12832854 
1 0:-0.5976143 6:1 2:0.43645792 3:0.12874901 
1 0:-1.7928429 6:1 2:0.43645792 3:0.12874901 
0.3397441677515593 0:-1.1952286 6:1 2:0.43645792 3:0.12874901 
1 0:0 6:1 2:0.43645792 3:0.12868627 
1 0:0 6:1 2:0.43645792 3:0.12874901 
1 0:0.5976143 6:1 2:0.43645792 3:-0.12548762 
1 0:1.1952286 6:1 2:0.43645792 3:-0.32023734 
1 0:0 6:1 2:0.43645792 3:-0.12548762 
1 0:1.7928429 6:1 2:0.43645792 3:-0.32034268 
1 0:0 6:1 2:0.43645792 3:-0.12548762 
1 0:0.5976143 6:1 2:0.43645792 3:-0.32018217 
1 0:-1.1952286 7:1 2:0.43645792 3:1.3451857 
1 0:0 7:1 2:0.43645792 3:1.34513 
1 0:-0.5976143 7:1 2:0.43645792 3:0.83055752 
1 0:0 7:1 2:0.43645792 3:0.83046617 
0.1476348383910108 0:1.1952286 7:1 2:0.43645792 3:1.3448185 
1 0:-0.5976143 7:1 2:0.43645792 3:1.3451829 
1 0:0 7:1 2:0.43645792 3:1.3451744 
0.8018768874121593 0:1.1952286 7:1 2:0.43645792 3:0.8305257 
1 0:0.5976143 7:1 2:0.43645792 3:0.83037456 
1 0:-1.1952286 7:1 2:0.43645792 3:0.83056727 
1 0:0 7:1 2:0.43645792 3:0.83049465 
0.1582880988748842 0:-0.5976143 1:1 2:0.43645792 3:2.7194705 
-1 0:-1.7928429 1:1 2:0.43645792 3:2.7194705 
-1 0:0 1:1 2:0.43645792 3:2.7094799 
-1 0:-1.7928429 1:1 2:0.43645792 3:2.3461227 
-0.8528985759065839 0:0 1:1 2:0.43645792 3:2.3457917 
-1 0:0 1:1 2:0.43645792 3:2.3461227 
1 0:1.1952286 1:1 2:0.43645792 3:2.0198628 
0.7322630225350023 0:1.7928429 1:1 2:0.43645792 3:2.0198084 
-1 0:1.7928429 1:1 2:0.43645792 3:1.4058529 
1 0:-0.5976143 1:1 2:0.43645792 3:1.4058529 
1 0:0 1:1 2:0.43645792 3:1.4058529 
-1 0:1.7928429 1:1 2:0.43645792 3:1.1300451 
-1 0:0 1:1 2:0.43645792 3:1.1300451 
0.3089167411567788 0:1.7928429 1:1 2:0.43645792 3:0.82396479 
1 0:0.5976143 1:1 2:0.43645792 3:0.82396479 
1 0:0 1:1 2:0.43645792 3:0.82396479 
0.2070562165505494 0:-1.1952286 1:1 2:0.43645792 3:1.5080856 
1 0:-0.5976143 1:1 2:0.43645792 3:1.5080856 
1 0:0 1:1 2:0.43645792 3:1.5080856 
1 0:0 1:1 2:0.43645792 3:1.2174964 
-1 0:0 1:1 2:0.43645792 3:0.95850497 
1 0:1.7928429 1:1 2:0.43645792 3:0.67260545 
1 0:0.5976143 1:1 2:0.43645792 3:0.67260545 
1 0:0 1:1 2:0.43645792 3:0.67260545 
1 0:1.1952286 1:1 2:0.43645792 3:0.67260545 
1 0:0 1:1 2:0.43645792 3:0.67260545 
1 0:-1.1952286 1:1 2:0.43645792 3:0.38722533 
1 0:-1.7928429 1:1 2:0.43645792 3:0.38722533 
-1 0:1.7928429 1:1 2:0.43645792 3:0.18541468 
1 0:-1.7928429 1:1 2:0.43645792 3:0.18541468 
-1 0:0.5976143 1:1 2:0.43645792 3:2.0563403 
1 0:1.7928429 1:1 2:0.43645792 3:1.7939738 
1 0:-0.5976143 1:1 2:0.43645792 3:1.5080856 
0.4265717431371169 0:-1.1952286 1:1 2:0.43645792 3:1.5080856 
1 0:0 1:1 2:0.43645792 3:1.5080856 
1 0:0 1:1 2:0.43645792 3:1.2174964 
-1 0:0 1:1 2:0.43645792 3:0.95850497 
1 0:1.7928429 1:1 2:0.43645792 3:0.67260545 
1 0:0.5976143 1:1 2:0.43645792 3:0.67260545 
1 0:1.1952286 1:1 2:0.43645792 3:0.67260545 
1 0:0 1:1 2:0.43645792 3:0.67260545 
-1 0:1.7928429 9:1 2:1.3496622 3:0.97808455 
-1 0:1.7928429 5:1 2:1.3496622 3:-0.23756359 
1 0:0 1:1 2:0.43645792 3:0.67260545 
0.4053663293550392 0:0.5976143 8:1 2:0.43645792 3:0.83037456 
1 0:-0.5976143 8:1 2:0.43645792 3:0.83055752 
1 0:0 8:1 2:0.43645792 3:0.83049465 
1 0:1.1952286 8:1 2:0.43645792 3:0.57155578 
1 0:0.5976143 8:1 2:0.43645792 3:0.57157708 
1 0:0 8:1 2:0.43645792 3:0.57157708 
1 0:0 8:1 2:0.43645792 3:0.57157708 
1 0:-1.1952286 8:1 2:0.43645792 3:0.32268064 
1 0:0 8:1 2:0.43645792 3:0.32268064 
1 0:-0.5976143 8:1 2:0.43645792 3:0.32268064 
1 0:-1.7928429 8:1 2:0.43645792 3:0.32268064 
1 0:0.5976143 8:1 2:0.43645792 3:0.026470273 
1 0:-0.5976143 8:1 2:0.43645792 3:1.0021082 
0.7071072040307348 0:1.7928429 8:1 2:0.43645792 3:0.75304215 
1 0:0.5976143 8:1 2:0.43645792 3:0.75284404 
1 0:-0.5976143 8:1 2:0.43645792 3:0.75317071 
1 0:0 8:1 2:0.43645792 3:0.75308552 
1 0:1.7928429 8:1 2:0.43645792 3:0.42479629 
1 0:-0.5976143 8:1 2:0.43645792 3:0.42527925 
1 0:-1.7928429 8:1 2:0.43645792 3:0.42527925 
1 0:-1.1952286 8:1 2:0.43645792 3:0.42527925 
1 0:0 8:1 2:0.43645792 3:0.42503777 
1 0:0 8:1 2:0.43645792 3:0.42527925 
-1 0:1.7928429 8:1 2:0.43645792 3:0.12832854 
1 0:0 8:1 2:0.43645792 3:0.42527155 
1 0:-0.5976143 8:1 2:0.43645792 3:0.12874901 
-1 0:0 8:1 2:0.43645792 3:0.12853871 
1 0:0 8:1 2:0.43645792 3:0.12874901 
1 0:0 9:1 2:0.43645792 3:0.53792542 
1 0:-1.1952286 9:1 2:0.43645792 3:0.2368618 
-1 0:1.7928429 9:1 2:0.43645792 3:-0.04439745 
1 0:-1.7928429 9:1 2:0.43645792 3:-0.044311997 
-0.2635118086582719 0:1.7928429 9:1 2:0.43645792 3:-0.28724595 
1 0:1.7928429 9:1 2:0.43645792 3:0.53792542 
1 0:0.5976143 9:1 2:0.43645792 3:0.53792542 
1 0:-1.7928429 9:1 2:0.43645792 3:0.2368618 
0.5565422092811332 0:-1.7928429 9:1 2:0.43645792 3:-0.47418953 
1 0:1.1952286 9:1 2:0.43645792 3:-0.69015906 
1 0:-1.1952286 9:1 2:0.43645792 3:-0.47418953 
1 0:1.7928429 9:1 2:0.43645792 3:-0.69015906 
1 0:0.5976143 9:1 2:0.43645792 3:-0.69015906 
1 0:1.7928429 9:1 2:0.43645792 3:0.18366763 
0.6288263034838755 0:0.5976143 9:1 2:0.43645792 3:0.18371639 
1 0:-1.1952286 9:1 2:0.43645792 3:0.18371639 
1 0:0 9:1 2:0.43645792 3:0.18371639 
1 0:1.1952286 9:1 2:0.43645792 3:-0.022046796 
1 0:0.5976143 9:1 2:0.43645792 3:-0.021949281 
1 0:1.1952286 9:1 2:0.43645792 3:-0.46643727 
1 0:1.7928429 9:1 2:0.43645792 3:0.62609474 
1 0:0 9:1 2:0.43645792 3:0.62609474 
1 0:1.1952286 9:1 2:0.43645792 3:0.37569927 
1 0:-0.5976143 9:1 2:0.43645792 3:0.37569927 
1 0:0 9:1 2:0.43645792 3:0.37569927 
1 0:-1.1952286 9:1 2:0.43645792 3:0.10211863 
1 0:0.5976143 9:1 2:0.43645792 3:0.62609474 
1 0:-0.5976143 9:1 2:0.43645792 3:0.62609474 
0.7578215505933164 0:0 9:1 2:0.43645792 3:0.62609474 
1 0:0.5976143 9:1 2:0.43645792 3:0.37569927 
1 0:0 9:1 2:0.43645792 3:0.37569927 
1 0:-0.5976143 9:1 2:0.43645792 3:0.10201907 
1 0:-1.7928429 9:1 2:0.43645792 3:0.10215122 
1 0:-1.1952286 9:1 2:0.43645792 3:-0.12399052 
1 0:-1.1952286 5:1 2:0.43645792 3:-0.55113047 
1 0:-1.7928429 5:1 2:0.43645792 3:-0.55113047 
1 0:-0.5976143 5:1 2:0.43645792 3:-0.55115408 
0.3774838549763638 0:0 5:1 2:0.43645792 3:-0.55144315 
1 0:0 5:1 2:0.43645792 3:-0.55125223 
1 0:1.7928429 5:1 2:0.43645792 3:-0.69332545 
1 0:0.5976143 5:1 2:0.43645792 3:-0.693199 
1 0:1.1952286 5:1 2:0.43645792 3:-0.6932629 
1 0:0 5:1 2:0.43645792 3:-0.69319849 
1 0:0 5:1 2:0.43645792 3:-0.69316064 
1 0:-0.5976143 5:1 2:0.43645792 3:-0.80422823 
1 0:-1.1952286 5:1 2:0.43645792 3:-0.80422823 
1 0:-1.7928429 5:1 2:0.43645792 3:-0.80422823 
0.6604658244496233 0:0 5:1 2:0.43645792 3:-0.80422823 
1 0:0.5976143 5:1 2:0.43645792 3:-0.60062602 
1 0:-1.1952286 5:1 2:0.43645792 3:-0.6006187 
1 0:-0.5976143 5:1 2:0.43645792 3:-0.6006187 
1 0:0 5:1 2:0.43645792 3:-0.60074059 
1 0:0 5:1 2:0.43645792 3:-0.6006187 
1 0:0 5:1 2:0.43645792 3:-0.60062242 
1 0:0.5976143 5:1 2:0.43645792 3:-0.6743357 
1 0:-1.7928429 5:1 2:0.43645792 3:-0.67422869 
1 0:-1.1952286 5:1 2:0.43645792 3:-0.67422869 
1 0:0 5:1 2:0.43645792 3:-0.67463011 
1 0:0 5:1 2:0.43645792 3:-0.67433705 
1 0:0 5:1 2:0.43645792 3:-0.67426237 
1 0:1.1952286 5:1 2:0.43645792 3:-0.82151001 
0.5772241596607384 0:-1.7928429 5:1 2:0.43645792 3:-0.82151001 
1 0:0 5:1 2:0.43645792 3:-0.82151001 
1 0:1.7928429 5:1 2:0.43645792 3:-0.82151001 
1 0:0.5976143 5:1 2:0.43645792 3:-0.82151001 
1 0:-1.1952286 5:1 2:0.43645792 3:-0.82151001 
1 0:0 5:1 2:0.43645792 3:-0.82151001 
1 0:0 5:1 2:0.43645792 3:-0.82151001 
1 0:0 5:1 2:0.43645792 3:-0.82151001 
1 0:1.7928429 4:1 2:-1.3362327 3:-1.286317 
1 0:0 4:1 2:-1.3362327 3:-1.286317 
0.03740682767026444 0:-1.7928429 4:1 2:-1.3362327 3:-1.286317 
1 0:1.7928429 4:1 2:-1.3362327 3:-1.286317 
0.0514201718796439 0:0 4:1 2:-1.3362327 3:-1.286317 
1 0:1.7928429 4:1 2:-1.3362327 3:-1.286317 
1 0:1.7928429 4:1 2:-1.3362327 3:-1.286317 
1 0:1.7928429 4:1 2:-1.3362327 3:-1.286317 
1 0:1.7928429 4:1 2:-1.3362327 3:-1.286317 
0.5389844910311502 0:0 4:1 2:-1.3362327 3:-1.286317 
0.3513551024820022 0:-0.5976143 4:1 2:-1.3362327 3:-1.286317 
1 0:0 4:1 2:-1.3362327 3:-1.286317 
1 0:1.7928429 4:1 2:-1.3362327 3:-1.286317 
0.3544252235965926 0:1.1952286 4:1 2:-1.3362327 3:-1.286317 
1 0:-0.5976143 4:1 2:-1.3362327 3:-1.286317 
1 0:0 4:1 2:-1.3362327 3:-1.286317 
0.7883960961394072 0:-1.7928429 4:1 2:-1.3362327 3:-1.286317 
1 0:1.7928429 4:1 2:-1.3362327 3:-1.286317 
1 0:-0.5976143 4:1 2:-1.3362327 3:-1.286317 
1 0:1.1952286 4:1 2:-1.3362327 3:-1.286317 
1 0:-1.7928429 4:1 2:-1.3362327 3:-1.286317 
1 0:0 4:1 2:-1.3362327 3:-1.286317 
0.8467537518739449 0:1.1952286 4:1 2:-1.3362327 3:-1.286317 
1 0:1.7928429 4:1 2:-1.3362327 3:-1.286317 
0.4611214098547969 0:-0.5976143 4:1 2:-1.3362327 3:-1.286317 
1 0:-1.7928429 4:1 2:-1.3362327 3:-1.286317 
1 0:0 4:1 2:-1.3362327 3:-1.286317 
1 0:1.7928429 4:1 2:-1.3362327 3:-1.286317 
-0.9548628205127253 0:0.5976143 8:1 2:1.3496622 3:1.9113751 
-1 0:-1.1952286 8:1 2:1.3496622 3:1.9118481 
-1 0:-1.7928429 8:1 2:1.3496622 3:1.9118968 
1 0:-0.5976143 8:1 2:1.3496622 3:1.5754847 
1 0:0 8:1 2:1.3496622 3:1.5753936 
-1 0:1.1952286 8:1 2:1.3496622 3:1.2726657 
-1 0:0 8:1 2:1.3496622 3:1.272697 
-1 0:0 8:1 2:1.3496622 3:1.2727729 
-1 0:0 8:1 2:1.3496622 3:0.97679094 
-1 0:0 8:1 2:1.3496622 3:0.97682969 
1 0:1.1952286 8:1 2:1.3496622 3:0.67595789 
1 0:0 8:1 2:1.3496622 3:0.67595789 
-0.5653095473794277 0:-0.5976143 8:1 2:1.3496622 3:0.37324358 
1 0:0.5976143 8:1 2:1.3496622 3:0.67595789 
-1 0:1.7928429 8:1 2:1.3496622 3:0.37324358 
-1 0:-1.1952286 8:1 2:1.3496622 3:0.37324358 
-1 0:0 8:1 2:1.3496622 3:0.37324358 
-1 0:-1.7928429 8:1 2:1.3496622 3:0.37324358 
-1 0:0 8:1 2:1.3496622 3:0.37324358 
-1 0:-1.7928429 8:1 2:1.3496622 3:1.7504761 
-0.7591971454484657 0:-1.1952286 8:1 2:1.3496622 3:1.7504442 
1 0:-0.5976143 8:1 2:1.3496622 3:1.4846855 
-0.580962581863275 0:0 8:1 2:1.3496622 3:1.4841649 
-1 0:1.7928429 8:1 2:1.3496622 3:1.1891483 
1 0:0 8:1 2:1.3496622 3:1.4846001 
-1 0:1.1952286 8:1 2:1.3496622 3:1.1891483 
-1 0:0.5976143 8:1 2:1.3496622 3:1.1891483 
-1 0:0 8:1 2:1.3496622 3:1.1891483 
-1 0:0 8:1 2:1.3496622 3:1.1891483 
1 0:1.7928429 8:1 2:1.3496622 3:0.78888839 
1 0:1.7928429 8:1 2:1.3496622 3:0.49979144 
0.06638196105385256 0:1.7928429 6:1 2:-1.3362327 3:-1.1770822 
-0.1375881521537224 0:0.5976143 6:1 2:-1.3362327 3:-1.1770822 
-1 0:-0.5976143 6:1 2:-1.3362327 3:-1.1770822 
-1 0:0 6:1 2:-1.3362327 3:-1.1770822 
-1 0:0 6:1 2:-1.3362327 3:-1.1770822 
0.6187177100147863 0:1.7928429 6:1 2:-1.3362327 3:-1.1770822 
-1 0:-0.5976143 6:1 2:-1.3362327 3:-1.1770822 
-1 0:0.5976143 6:1 2:-1.3362327 3:-1.1770822 
-0.06641131742322685 0:-1.7928429 6:1 2:-1.3362327 3:-1.1770822 
-1 0:0 6:1 2:-1.3362327 3:-1.1770822 
-1 0:0 6:1 2:-1.3362327 3:-1.1770822 
-0.8408160435221653 0:0.5976143 6:1 2:-1.3362327 3:-1.1770822 
0.9767896540799607 0:1.7928429 6:1 2:-1.3362327 3:-1.1770822 
-1 0:-0.5976143 6:1 2:-1.3362327 3:-1.1770822 
-1 0:0 6:1 2:-1.3362327 3:-1.1770822 
1 0:1.7928429 6:1 2:-1.3362327 3:-1.286317 
-1 0:0 6:1 2:-1.3362327 3:-1.1770822 
1 0:0.5976143 6:1 2:-1.3362327 3:-1.286317 
1 0:1.1952286 6:1 2:-1.3362327 3:-1.286317 
1 0:-0.5976143 6:1 2:-1.3362327 3:-1.286317 
1 0:0 6:1 2:-1.3362327 3:-1.286317 
1 0:-1.1952286 6:1 2:-1.3362327 3:-1.286317 
1 0:-1.7928429 6:1 2:-1.3362327 3:-1.286317 
1 0:0 6:1 2:-1.3362327 3:-1.286317 
1 0:0 6:1 2:-1.3362327 3:-1.286317 
1 0:1.7928429 6:1 2:-1.3362327 3:-1.286317 
1 0:0 6:1 2:-1.3362327 3:-1.286317 
1 0:1.1952286 6:1 2:-1.3362327 3:-1.286317 
1 0:-0.5976143 6:1 2:-1.3362327 3:-1.286317 
1 0:0.5976143 6:1 2:-1.3362327 3:-1.286317 
1 0:-1.7928429 6:1 2:-1.3362327 3:-1.286317 
1 0:0 6:1 2:-1.3362327 3:-1.286317 
1 0:-1.1952286 6:1 2:-1.3362327 3:-1.286317 
1 0:0 6:1 2:-1.3362327 3:-1.286317 
1 0:0 6:1 2:-1.3362327 3:-1.286317 
1 0:0 6:1 2:-1.3362327 3:-1.286317 
1 0:1.7928429 7:1 2:-1.3362327 3:-1.1770822 
0.2048427187682939 0:-1.1952286 7:1 2:-1.3362327 3:-1.1770822 
0.02436375243625839 0:1.1952286 7:1 2:-1.3362327 3:-1.1770822 
0.9992490786107522 0:-1.1952286 7:1 2:-1.3362327 3:-1.1770822 
1 0:1.7928429 7:1 2:-1.3362327 3:-1.1770822 
0.6283886772516435 0:1.1952286 7:1 2:-1.3362327 3:-1.1770822 
-0.001257301596493863 0:1.1952286 1:1 2:-1.3362327 3:-1.0778334 
-0.03731778518281333 0:-1.7928429 1:1 2:-1.3362327 3:-1.0776023 
-0.03638418285637419 0:0 1:1 2:-1.3362327 3:-1.0777323 
-0.521616513134491 0:0 1:1 2:-1.3362327 3:-1.0777323 
-1 0:0 1:1 2:-1.3362327 3:-1.0777323 
-1 0:0 1:1 2:-1.3362327 3:-1.0777323 
-1 0:0 1:1 2:-1.3362327 3:-1.0777323 
-1 0:0 1:1 2:-1.3362327 3:-1.0777323 
-1 0:0 1:1 2:-1.3362327 3:-1.0777323 
-1 0:0 1:1 2:-1.3362327 3:-1.0777323 
1 0:1.7928429 1:1 2:-1.3362327 3:-1.286317 
1 0:1.1952286 1:1 2:-1.3362327 3:-1.286317 
1 0:-0.5976143 1:1 2:-1.3362327 3:-1.286317 
1 0:0.5976143 1:1 2:-1.3362327 3:-1.286317 
1 0:-1.1952286 1:1 2:-1.3362327 3:-1.286317 
1 0:0 1:1 2:-1.3362327 3:-1.286317 
1 0:0 1:1 2:-1.3362327 3:-1.286317 
1 0:-1.7928429 1:1 2:-1.3362327 3:-1.286317 
1 0:0 1:1 2:-1.3362327 3:-1.286317 
1 0:1.7928429 1:1 2:-1.3362327 3:-1.286317 
1 0:0 1:1 2:-1.3362327 3:-1.286317 
1 0:1.1952286 1:1 2:-1.3362327 3:-1.286317 
1 0:-0.5976143 1:1 2:-1.3362327 3:-1.286317 
1 0:0.5976143 1:1 2:-1.3362327 3:-1.286317 
1 0:-1.1952286 1:1 2:-1.3362327 3:-1.286317 
1 0:0 1:1 2:-1.3362327 3:-1.286317 
1 0:-1.7928429 1:1 2:-1.3362327 3:-1.286317 
1 0:0 1:1 2:-1.3362327 3:-1.286317 
1 0:0 1:1 2:-1.3362327 3:-1.286317 
1 0:0 1:1 2:-1.3362327 3:-1.286317 
-1 0:0 1:1 2:-1.3362327 3:-1.0777323 
-1 0:0 1:1 2:-1.3362327 3:-1.0777323 
-1 0:0 1:1 2:-1.3362327 3:-1.0777323 
-0.3807257216168564 0:1.1952286 1:1 2:-1.3362327 3:-1.0778334 
-0.3577369554413632 0:-1.7928429 1:1 2:-1.3362327 3:-1.0776023 
-1 0:0 1:1 2:-1.3362327 3:-1.0777323 
-1 0:-1.7928429 1:1 2:-1.3362327 3:-1.0776023 
-1 0:0 1:1 2:-1.3362327 3:-1.0777323 
-0.9134128645629486 0:-1.7928429 1:1 2:-1.3362327 3:-1.0776023 
-1 0:0 1:1 2:-1.3362327 3:-1.0777323 
-1 0:1.1952286 9:1 2:1.3496622 3:0.97808455 
-1 0:0.5976143 9:1 2:1.3496622 3:0.97808455 
-1 0:0 9:1 2:1.3496622 3:0.97808455 
-0.7126296864312898 0:0 9:1 2:1.3496622 3:0.97808455 
1 0:0.5976143 9:1 2:1.3496622 3:0.37674704 
-1 0:0 9:1 2:1.3496622 3:0.37674704 
1 0:0 9:1 2:1.3496622 3:0.37674704 
-1 0:1.1952286 9:1 2:1.3496622 3:0.057917855 
-1 0:0 9:1 2:1.3496622 3:-0.23493199 
0.1443388668456348 0:1.7928429 8:1 2:-1.3362327 3:-1.1770822 
0.55344325213159 0:-1.1952286 8:1 2:-1.3362327 3:-1.1770822 
0.1397850766346217 0:1.7928429 8:1 2:-1.3362327 3:-1.1770822 
1 0:1.7928429 8:1 2:-1.3362327 3:-1.1770822 
1 0:1.7928429 8:1 2:-1.3362327 3:-1.1770822 
1 0:1.7928429 8:1 2:-1.3362327 3:-1.1770822 
1 0:0.5976143 9:1 2:1.3496622 3:0.64383695 
-1 0:1.7928429 9:1 2:1.3496622 3:0.034573324 
1 0:0 9:1 2:1.3496622 3:0.64383695 
-1 0:0 9:1 2:1.3496622 3:0.034573324 
1 0:0.5976143 9:1 2:1.3496622 3:-0.19646299 
1 0:1.1952286 9:1 2:1.3496622 3:-0.19646299 
-1 0:0 9:1 2:1.3496622 3:1.4477086 
-1 0:-1.7928429 9:1 2:1.3496622 3:1.4481141 
-0.8065505596320364 0:1.1952286 9:1 2:1.3496622 3:1.1466759 
-1 0:-1.7928429 9:1 2:1.3496622 3:1.1472431 
-1 0:0 9:1 2:1.3496622 3:1.1471191 
-1 0:1.7928429 9:1 2:1.3496622 3:0.53679682 
1 0:0.5976143 9:1 2:1.3496622 3:0.53705395 
-1 0:0 9:1 2:1.3496622 3:0.53699108 
-1 0:1.7928429 9:1 2:1.3496622 3:0.23446897 
-0.5226976171502695 0:-1.7928429 9:1 2:1.3496622 3:0.23446897 
-1 0:0 9:1 2:1.3496622 3:0.23446897 
-1 0:0 9:1 2:1.3496622 3:0.23434772 
1 0:1.1952286 9:1 2:1.3496622 3:-0.068298967 
1 0:1.7928429 9:1 2:1.3496622 3:-0.068247516 
-1 0:-1.1952286 9:1 2:1.3496622 3:-0.068247516 
-1 0:-0.5976143 9:1 2:1.3496622 3:-0.068247516 
-1 0:-1.7928429 9:1 2:1.3496622 3:-0.068247516 
-0.0002751636733973303 0:1.7928429 5:1 2:1.3496622 3:-0.17275291 
-1 0:-1.7928429 5:1 2:1.3496622 3:-0.17207647 
-1 0:0 5:1 2:1.3496622 3:-0.17241469 
-1 0:-1.1952286 5:1 2:1.3496622 3:-0.47167636 
-1 0:0 5:1 2:1.3496622 3:-0.47167636 
-1 0:-1.7928429 5:1 2:1.3496622 3:-0.47167636 
-1 0:0 5:1 2:1.3496622 3:-0.47167636 
0.1993035033463007 0:-1.1952286 5:1 2:1.3496622 3:-0.67127485 
-0.1805340686152459 0:1.1952286 5:1 2:1.3496622 3:-0.237536 
-1 0:0 5:1 2:1.3496622 3:-0.23747801 
-1 0:0 5:1 2:1.3496622 3:-0.23748994 
-1 0:0 5:1 2:1.3496622 3:-0.42156352 
1 0:1.7928429 5:1 2:1.3496622 3:-0.5812031 
-1 0:-0.5976143 5:1 2:1.3496622 3:-0.5812031 
-1 0:-1.7928429 5:1 2:1.3496622 3:-0.5812031 
-1 0:-1.1952286 5:1 2:1.3496622 3:-0.5812031 
-1 0:0 4:1 2:1.3496622 3:0.0065289906 
-1 0:-1.7928429 4:1 2:1.3496622 3:0.71350319 
-1 0:0 4:1 2:1.3496622 3:0.71349524 
-1 0:0 4:1 2:1.3496622 3:0.71350319 
-1 0:-1.7928429 4:1 2:1.3496622 3:0.42760483 
-1 0:0 4:1 2:1.3496622 3:0.42759829 
-0.746886494002679 0:1.7928429 4:1 2:1.3496622 3:0.13834005 
-0.06976031947166295 0:-1.1952286 4:1 2:1.3496622 3:0.13834005 
-1 0:0 4:1 2:1.3496622 3:0.13834005 
-1 0:-1.7928429 4:1 2:1.3496622 3:0.13834005 
-1 0:0 4:1 2:1.3496622 3:0.13832735 
-1 0:1.1952286 4:1 2:1.3496622 3:-0.14913149 
-1 0:0 4:1 2:1.3496622 3:-0.14912264 
-1 0:0 4:1 2:1.3496622 3:-0.14910275 
0.5925954703918463 0:-1.1952286 8:1 2:-1.3362327 3:-1.1770822 
1 0:1.7928429 8:1 2:-1.3362327 3:-1.1770822 
1 0:-1.1952286 8:1 2:-1.3362327 3:-1.1770822 
1 0:1.7928429 8:1 2:-1.3362327 3:-1.1770822 
1 0:-1.1952286 8:1 2:-1.3362327 3:-1.1770822 
0.9919615862746701 0:1.7928429 8:1 2:-1.3362327 3:-1.1770822 
0.9986247640412728 0:-1.1952286 8:1 2:-1.3362327 3:-1.1770822 
0.2130427475902316 0:1.7928429 9:1 2:-1.3362327 3:-1.1770822 
-0.01026944979048331 0:0 9:1 2:-1.3362327 3:-1.1770822 
-0.6374455291637909 0:0 9:1 2:-1.3362327 3:-1.1770822 
-1 0:0 9:1 2:-1.3362327 3:-1.1770822 
-1 0:0 9:1 2:-1.3362327 3:-1.1770822 
-1 0:0 9:1 2:-1.3362327 3:-1.1770822 
1 0:1.7928429 9:1 2:-1.3362327 3:-1.286317 
-1 0:0 9:1 2:-1.3362327 3:-1.1770822 
1 0:1.1952286 9:1 2:-1.3362327 3:-1.286317 
1 0:-0.5976143 9:1 2:-1.3362327 3:-1.286317 
1 0:0 9:1 2:-1.3362327 3:-1.286317 
1 0:0.5976143 9:1 2:-1.3362327 3:-1.286317 
1 0:-1.7928429 9:1 2:-1.3362327 3:-1.286317 
1 0:-1.1952286 9:1 2:-1.3362327 3:-1.286317 
1 0:0 9:1 2:-1.3362327 3:-1.286317 
1 0:0 9:1 2:-1.3362327 3:-1.286317 
1 0:0 9:1 2:-1.3362327 3:-1.286317 
1 0:1.1952286 9:1 2:-1.3362327 3:-1.286317 
1 0:1.7928429 9:1 2:-1.3362327 3:-1.286317 
1 0:0.5976143 9:1 2:-1.3362327 3:-1.286317 
1 0:-1.1952286 9:1 2:-1.3362327 3:-1.286317 
1 0:0 9:1 2:-1.3362327 3:-1.286317 
1 0:0 9:1 2:-1.3362327 3:-1.286317 
1 0:-0.5976143 9:1 2:-1.3362327 3:-1.286317 
1 0:-1.7928429 9:1 2:-1.3362327 3:-1.286317 
1 0:0 9:1 2:-1.3362327 3:-1.286317 
1 0:0 9:1 2:-1.3362327 3:-1.286317 
-1 0:-1.7928429 4:1 2:1.3496622 3:0.30611296 
-0.2009601742547447 0:0 4:1 2:1.3496622 3:0.30606344 
-1 0:1.7928429 4:1 2:1.3496622 3:0.30597606 
-1 0:0 4:1 2:1.3496622 3:0.30604445 
-1 0:1.1952286 4:1 2:1.3496622 3:0.035007262 
-1 0:1.7928429 6:1 2:1.3496622 3:1.1891483 
-1 0:0.5976143 6:1 2:1.3496622 3:1.1891483 
-1 0:1.1952286 6:1 2:1.3496622 3:1.1891483 
-1 0:-1.1952286 6:1 2:1.3496622 3:1.1891483 
-1 0:-1.7928429 6:1 2:1.3496622 3:1.1891483 
-1 0:0 6:1 2:1.3496622 3:1.1891483 
-0.07292220002153589 0:0 6:1 2:1.3496622 3:1.1891483 
-1 0:0 6:1 2:1.3496622 3:1.1891483 
0.6847446913644072 0:1.7928429 6:1 2:1.3496622 3:0.78888839 
-1 0:-1.1952286 6:1 2:1.3496622 3:0.78888839 
-1 0:-1.7928429 6:1 2:1.3496622 3:0.78888839 
-1 0:0 6:1 2:1.3496622 3:-0.070617112 
-0.7027526450593782 0:0 6:1 2:1.3496622 3:-0.070617112 
-1 0:0 9:1 2:-1.3362327 3:-1.1770822 
-1 0:0 9:1 2:-1.3362327 3:-1.1770822 
-1 0:0 9:1 2:-1.3362327 3:-1.1770822 
0.7718816988893371 0:1.7928429 9:1 2:-1.3362327 3:-1.1770822 
-1 0:0 9:1 2:-1.3362327 3:-1.1770822 
1 0:1.7928429 9:1 2:-1.3362327 3:-1.1770822 
1 0:1.7928429 9:1 2:-1.3362327 3:-1.1770822 
-1 0:0 9:1 2:-1.3362327 3:-1.1770822 
-0.7351921973921585 0:0 9:1 2:-1.3362327 3:-1.1770822 
0.4660124404516407 0:1.1952286 5:1 2:-1.3362327 3:-1.286317 
1 0:-0.5976143 5:1 2:-1.3362327 3:-1.286317 
1 0:1.7928429 5:1 2:-1.3362327 3:-1.286317 
0.0001659735015122155 0:-1.7928429 5:1 2:-1.3362327 3:-1.286317 
0.004106918568360331 0:0 5:1 2:-1.3362327 3:-1.286317 
1 0:1.7928429 5:1 2:-1.3362327 3:-1.286317 
1 0:-0.5976143 5:1 2:-1.3362327 3:-1.286317 
0.2295353896023412 0:1.1952286 5:1 2:-1.3362327 3:-1.286317 
1 0:1.1952286 5:1 2:-1.3362327 3:-1.286317 
1 0:1.7928429 5:1 2:-1.3362327 3:-1.286317 
1 0:-0.5976143 5:1 2:-1.3362327 3:-1.286317 
1 0:1.1952286 5:1 2:-1.3362327 3:-1.286317 
1 0:1.7928429 5:1 2:-1.3362327 3:-1.286317 
1 0:-0.5976143 5:1 2:-1.3362327 3:-1.286317 
0.0007346959810993176 0:-1.7928429 5:1 2:-1.3362327 3:-1.286317 
0.2485896110383841 0:0 5:1 2:-1.3362327 3:-1.286317 
1 0:1.7928429 5:1 2:-1.3362327 3:-1.286317 
1 0:1.1952286 5:1 2:-1.3362327 3:-1.286317 
1 0:-0.5976143 5:1 2:-1.3362327 3:-1.286317 
0.0618300020017603 0:-1.7928429 5:1 2:-1.3362327 3:-1.286317 
0.9950248728253015 0:0 5:1 2:-1.3362327 3:-1.286317 
0.8737624893997741 0:1.1952286 5:1 2:-1.3362327 3:-1.286317 
1 0:1.7928429 5:1 2:-1.3362327 3:-1.286317 
1 0:-0.5976143 5:1 2:-1.3362327 3:-1.286317 
1 0:-1.7928429 5:1 2:-1.3362327 3:-1.286317 
0.9463558226898241 0:0 5:1 2:-1.3362327 3:-1.286317 
-1 0:0.5976143 7:1 2:1.3496622 3:1.9113751 
-1 0:-1.1952286 7:1 2:1.3496622 3:1.9118481 
-1 0:-1.7928429 7:1 2:1.3496622 3:1.9118968 
-0.1312793924961565 0:0 7:1 2:1.3496622 3:1.9115637 
-1 0:1.1952286 7:1 2:1.3496622 3:1.2726657 
-1 0:-1.7928429 7:1 2:1.3496622 3:1.2729038 
-0.4653873807237877 0:-1.1952286 7:1 2:1.3496622 3:1.2728799 
-0.7233034373563216 0:0 7:1 2:1.3496622 3:1.272697 
1 0:0 7:1 2:1.3496622 3:1.272825 
-1 0:0 7:1 2:1.3496622 3:1.2727729 
-1 0:1.7928429 1:1 2:1.3496622 3:3.0645437 
1 0:-1.1952286 1:1 2:1.3496622 3:3.0830098 
-1 0:0 1:1 2:1.3496622 3:3.073787 
1 0:0 1:1 2:1.3496622 3:3.0822235 
-0.1161081534073719 0:1.7928429 1:1 2:1.3496622 3:2.7417437 
1 0:-0.5976143 1:1 2:1.3496622 3:3.082901 
-1 0:-1.7928429 1:1 2:1.3496622 3:3.0830309 
1 0:0 1:1 2:1.3496622 3:3.0826203 
1 0:-0.5976143 1:1 2:1.3496622 3:2.7466508 
-1 0:-1.7928429 1:1 2:1.3496622 3:2.7466754 
-1 0:0 1:1 2:1.3496622 3:2.7442093 
-1 0:0.5976143 1:1 2:1.3496622 3:2.3895235 
-0.2453767561246305 0:-1.1952286 1:1 2:1.3496622 3:2.3901463 
-1 0:-1.7928429 1:1 2:1.3496622 3:2.3901463 
1 0:1.7928429 1:1 2:1.3496622 3:2.0530228 
-1 0:0 1:1 2:1.3496622 3:2.3899554 
1 0:1.1952286 1:1 2:1.3496622 3:2.0535088 
1 0:-0.5976143 1:1 2:1.3496622 3:1.7174382 
1 0:0 1:1 2:1.3496622 3:1.7174382 
-1 0:0.5976143 1:1 2:1.3496622 3:1.4070621 
-1 0:1.7928429 1:1 2:1.3496622 3:1.4070621 
-1 0:1.1952286 1:1 2:1.3496622 3:1.4070621 
-1 0:0 1:1 2:1.3496622 3:1.4070621 
-1 0:0 1:1 2:1.3496622 3:1.4070621 
1 0:1.7928429 1:1 2:1.3496622 3:1.0707092 
1 0:1.7928429 1:1 2:1.3496622 3:1.8649609 
1 0:1.1952286 1:1 2:1.3496622 3:1.8650661 
1 0:0 1:1 2:1.3496622 3:1.8650661 
-1 0:1.1952286 1:1 2:1.3496622 3:1.5459237 
-1 0:1.7928429 1:1 2:1.3496622 3:1.5459237 
-1 0:0.5976143 1:1 2:1.3496622 3:1.5459237 
0.6248153885850851 0:-0.5976143 1:1 2:1.3496622 3:1.5459237 
-1 0:0 1:1 2:1.3496622 3:1.5459237 
-1 0:1.7928429 1:1 2:1.3496622 3:1.2600237 
1 0:0 1:1 2:1.3496622 3:1.5459237 
-1 0:1.1952286 1:1 2:1.3496622 3:1.2600237 
-1 0:0 1:1 2:1.3496622 3:1.2600237 
1 0:1.7928429 1:1 2:1.3496622 3:0.94385242 
1 0:0.5976143 1:1 2:1.3496622 3:0.94385242 
0.9730840913196094 0:1.1952286 1:1 2:1.3496622 3:0.94385242 
1 0:0 1:1 2:1.3496622 3:0.94385242 
-1 0:1.1952286 1:1 2:1.3496622 3:0.62095574 
-0.453737034790001 0:-1.7928429 1:1 2:1.3496622 3:0.62095574 
-1 0:0 1:1 2:1.3496622 3:0.62095574 
-1 0:0 1:1 2:1.3496622 3:0.62095574 
-0.2519040364580981 0:1.7928429 1:1 2:1.3496622 3:0.39559821 
-1 0:-1.7928429 1:1 2:1.3496622 3:0.39559821 
-1 0:-1.1952286 1:1 2:1.3496622 3:0.39559821 
-1 0:0 1:1 2:1.3496622 3:0.39559821 
