svm_type epsilon_svr
kernel_type rbf
gamma 0.1
nr_class 2
total_sv 1190
rho -1.63492
SV
-1 0:-1.1952286 1:1 2:1.3496622 3:0.92567919 
1 0:0 1:1 2:1.3496622 3:1.8471723 
1 0:0 1:1 2:1.3496622 3:1.5570263 
-1 0:0 1:1 2:1.3496622 3:1.9663722 
1 0:0 1:1 2:1.3496622 3:1.5570263 
1 0:0 1:1 2:1.3496622 3:1.8471723 
-1 0:0 1:1 2:1.3496622 3:1.824912 
-1 0:0.5976143 1:1 2:1.3496622 3:1.6877064 
-1 0:-0.5976143 1:1 2:1.3496622 3:1.6930609 
-1 0:0 1:1 2:1.3496622 3:1.6926385 
-1 0:0 1:1 2:1.3496622 3:1.9663722 
-1 0:-0.5976143 1:1 2:1.3496622 3:1.8254992 
1 0:0 1:1 2:1.3496622 3:1.4756294 
1 0:0 1:1 2:1.3496622 3:1.7378376 
1 0:0 1:1 2:1.3496622 3:1.397681 
-0.4928868498206707 0:0 1:1 2:1.3496622 3:1.6903836 
-1 0:0.5976143 1:1 2:1.3496622 3:1.2708714 
1 0:0 1:1 2:1.3496622 3:1.1168797 
-1 0:0 1:1 2:1.3496622 3:1.2718486 
-1 0:0 1:1 2:1.3496622 3:1.2726481 
-1 0:0.5976143 1:1 2:1.3496622 3:0.92471556 
-1 0:-0.5976143 1:1 2:1.3496622 3:0.92565775 
-1 0:0 1:1 2:1.3496622 3:0.92518657 
-1 0:-0.5976143 1:1 2:1.3496622 3:1.2728258 
-0.8329932040722166 0:1.1952286 1:1 2:1.3496622 3:0.91705692 
1 0:0 1:1 2:1.3496622 3:0.86038983 
-0.349204534708463 0:-1.7928429 1:1 2:1.3496622 3:0.92567919 
1 0:0 1:1 2:1.3496622 3:1.5570263 
1 0:0 1:1 2:1.3496622 3:1.8471723 
-1 0:0 1:1 2:1.3496622 3:1.9663722 
1 0:0 1:1 2:1.3496622 3:1.5570263 
1 0:0 1:1 2:1.3496622 3:1.8471723 
-1 0:0 1:1 2:1.3496622 3:1.9663722 
1 0:0 1:1 2:1.3496622 3:1.8471723 
-1 0:0 1:1 2:1.3496622 3:1.9663722 
1 0:0 1:1 2:1.3496622 3:1.5570263 
-1 0:0 1:1 2:1.3496622 3:1.9663722 
1 0:0 1:1 2:1.3496622 3:1.5570263 
1 0:0 1:1 2:1.3496622 3:1.8471723 
-1 0:0 1:1 2:1.3496622 3:1.824912 
-1 0:0.5976143 1:1 2:1.3496622 3:1.6877064 
1 0:0 1:1 2:1.3496622 3:1.397681 
-1 0:-0.5976143 1:1 2:1.3496622 3:1.8254992 
1 0:0 1:1 2:1.3496622 3:1.4756294 
1 0:0 1:1 2:1.3496622 3:1.7378376 
-1 0:-0.5976143 1:1 2:1.3496622 3:1.6930609 
-0.9427103847132277 0:0 1:1 2:1.3496622 3:1.6903836 
-1 0:1.7928429 4:1 2:-0.44988739 3:-0.90073594 
-1 0:0 1:1 2:1.3496622 3:1.6926385 
-1 0:0 6:1 2:-0.44988739 3:-0.010296509 
-1 0:0 1:1 2:-0.44988739 3:0.33586209 
-1 0:1.7928429 4:1 2:-0.44988739 3:-0.90073594 
-1 0:0 7:1 2:0.43645792 3:-0.48943749 
-1 0:0 7:1 2:-0.44988739 3:-0.65178692 
1 0:0 4:1 2:0.43645792 3:-1.2203056 
-1 0:0 8:1 2:-0.44988739 3:-0.9299202 
-1 0:0 1:1 2:0.43645792 3:0.62992829 
-1 0:1.7928429 8:1 2:-0.44988739 3:-0.56745768 
-1 0:1.1952286 8:1 2:-0.44988739 3:-0.51303141 
-1 0:-1.1952286 8:1 2:-0.44988739 3:-0.51086116 
-1 0:-1.7928429 8:1 2:-0.44988739 3:-0.51086116 
-1 0:0.5976143 8:1 2:-0.44988739 3:-0.51108543 
-1 0:-0.5976143 8:1 2:-0.44988739 3:-0.51086116 
1 0:0 8:1 2:-0.44988739 3:-0.53915942 
-1 0:0 8:1 2:-0.44988739 3:-0.51087929 
-1 0:0 8:1 2:-0.44988739 3:-0.51194633 
-1 0:0 8:1 2:-0.44988739 3:-0.5109733 
-1 0:1.1952286 8:1 2:-0.44988739 3:-0.85086572 
-1 0:0.5976143 8:1 2:-0.44988739 3:-0.84589469 
1 0:0 8:1 2:-0.44988739 3:-0.87203402 
1 0:0 8:1 2:-0.44988739 3:-0.7376089 
-0.7379768116371477 0:1.7928429 8:1 2:-0.44988739 3:-0.11385695 
1 0:0 8:1 2:-0.44988739 3:-0.0079207281 
1 0:0 8:1 2:-0.44988739 3:-0.053275939 
1 0:0 8:1 2:-0.44988739 3:-0.053275939 
-1 0:1.7928429 8:1 2:-0.44988739 3:-0.56745768 
-1 0:0.5976143 8:1 2:-0.44988739 3:-0.51108543 
-1 0:-0.5976143 8:1 2:-0.44988739 3:-0.51086116 
-1 0:1.7928429 8:1 2:-0.44988739 3:-0.11385695 
1 0:0 8:1 2:-0.44988739 3:-0.0079207281 
-1 0:1.1952286 8:1 2:-0.44988739 3:-0.51303141 
-1 0:-1.1952286 8:1 2:-0.44988739 3:-0.51086116 
-0.8161475856586897 0:-1.7928429 8:1 2:-0.44988739 3:-0.51086116 
-1 0:0 8:1 2:-0.44988739 3:-0.5109733 
-1 0:1.1952286 8:1 2:-0.44988739 3:-0.7098551 
-1 0:0.5976143 8:1 2:-0.44988739 3:-0.7048859 
1 0:0 8:1 2:-0.44988739 3:-0.53915942 
-1 0:0 8:1 2:-0.44988739 3:-0.51194633 
-1 0:0 8:1 2:-0.44988739 3:-0.51087929 
-0.2140551138516446 0:1.7928429 8:1 2:-0.44988739 3:-0.77277295 
-1 0:0 8:1 2:-0.44988739 3:-0.70322447 
-1 0:1.7928429 5:1 2:-0.44988739 3:-0.01530736 
-1 0:-0.5976143 5:1 2:-0.44988739 3:0.16490277 
1 0:0 5:1 2:-0.44988739 3:0.074876466 
-1 0:0 5:1 2:-0.44988739 3:0.16427685 
-1 0:1.7928429 5:1 2:-0.44988739 3:-0.01530736 
-1 0:-0.5976143 5:1 2:-0.44988739 3:0.16490277 
1 0:0 5:1 2:-0.44988739 3:0.074876466 
-1 0:1.7928429 5:1 2:-0.44988739 3:-0.12737838 
-1 0:1.1952286 5:1 2:-0.44988739 3:-0.027864112 
-1 0:-0.5976143 5:1 2:-0.44988739 3:-0.0099734417 
-0.3581462485653367 0:0 5:1 2:-0.44988739 3:-0.011426198 
-1 0:1.1952286 5:1 2:-0.44988739 3:-0.51303141 
-1 0:-1.1952286 5:1 2:-0.44988739 3:-0.51086116 
-1 0:0 5:1 2:-0.44988739 3:-0.51087929 
-1 0:0 5:1 2:-0.44988739 3:0.16427685 
-1 0:0.5976143 5:1 2:-0.44988739 3:-0.012878955 
1 0:0 5:1 2:-0.44988739 3:-0.068647418 
-1 0:0 5:1 2:-0.44988739 3:-0.010296509 
-1 0:1.7928429 5:1 2:-0.44988739 3:-0.56745768 
-1 0:0.5976143 5:1 2:-0.44988739 3:-0.51108543 
-1 0:-0.5976143 5:1 2:-0.44988739 3:-0.51086116 
1 0:0 5:1 2:-0.44988739 3:-0.53915942 
-0.6954649841068722 0:0 5:1 2:-0.44988739 3:-0.51194633 
-1 0:0 5:1 2:-0.44988739 3:-0.5109733 
-0.3464179760374282 0:1.1952286 5:1 2:-0.44988739 3:-0.7098551 
-1 0:0.5976143 5:1 2:-0.44988739 3:-0.7048859 
1 0:0 5:1 2:-0.44988739 3:-0.7376089 
-1 0:1.7928429 9:1 2:-0.44988739 3:0.52449096 
-1 0:-0.5976143 9:1 2:-0.44988739 3:0.82448389 
1 0:0 9:1 2:-0.44988739 3:0.67451975 
-1 0:0 9:1 2:-0.44988739 3:0.82326202 
-1 0:1.7928429 9:1 2:-0.44988739 3:0.43258986 
-0.4351064404355656 0:-0.5976143 9:1 2:-0.44988739 3:0.72388612 
-1 0:0.5976143 9:1 2:-0.44988739 3:0.71089774 
1 0:0 9:1 2:-0.44988739 3:0.57826909 
-1 0:0 9:1 2:-0.44988739 3:0.72207527 
-1 0:-0.5976143 1:1 2:-0.44988739 3:1.2500752 
1 0:0 1:1 2:-0.44988739 3:1.0795193 
-1 0:0 1:1 2:-0.44988739 3:1.2495005 
-1 0:-0.5976143 1:1 2:-0.44988739 3:1.2500752 
1 0:0 1:1 2:-0.44988739 3:1.0795193 
-1 0:0 1:1 2:-0.44988739 3:1.2495005 
-1 0:-0.5976143 1:1 2:-0.44988739 3:1.2500752 
1 0:0 1:1 2:-0.44988739 3:1.0795193 
-1 0:0 1:1 2:-0.44988739 3:1.2495005 
1 0:0 1:1 2:-0.44988739 3:1.0795193 
-1 0:0 1:1 2:-0.44988739 3:1.2495005 
-1 0:-0.5976143 1:1 2:-0.44988739 3:1.2500752 
1 0:0 1:1 2:-0.44988739 3:1.0795193 
-1 0:0 1:1 2:-0.44988739 3:1.2495005 
-1 0:-0.5976143 1:1 2:-0.44988739 3:1.2500752 
-1 0:0 1:1 2:-0.44988739 3:1.2495005 
-1 0:0.5976143 1:1 2:-0.44988739 3:1.1399511 
1 0:0 1:1 2:-0.44988739 3:1.0967199 
-1 0:-0.5976143 1:1 2:-0.44988739 3:1.2500752 
1 0:0 1:1 2:-0.44988739 3:1.0795193 
-1 0:0 1:1 2:-0.44988739 3:1.1467306 
1 0:0 1:1 2:-0.44988739 3:0.9560353 
1 0:0 1:1 2:-0.44988739 3:0.12394085 
1 0:0 1:1 2:-0.44988739 3:1.032777 
-1 0:0.5976143 1:1 2:-0.44988739 3:1.0676937 
1 0:0 1:1 2:-0.44988739 3:1.032777 
-0.4800951841602075 0:0.5976143 1:1 2:-0.44988739 3:1.0676937 
1 0:0 1:1 2:-0.44988739 3:0.89853649 
-1 0:0 1:1 2:-0.44988739 3:1.0740433 
1 0:0 1:1 2:-0.44988739 3:0.89853649 
-1 0:0 1:1 2:-0.44988739 3:1.0740433 
1 0:0 1:1 2:-0.44988739 3:0.89853649 
1 0:0 1:1 2:-0.44988739 3:1.032777 
-1 0:0 1:1 2:-0.44988739 3:1.0740433 
1 0:0 1:1 2:-0.44988739 3:0.7955307 
-1 0:0 1:1 2:-0.44988739 3:0.93260352 
-1 0:0.5976143 1:1 2:-0.44988739 3:0.60275511 
-1 0:-0.5976143 1:1 2:-0.44988739 3:0.60376142 
1 0:0 1:1 2:-0.44988739 3:0.53123146 
1 0:0 1:1 2:-0.44988739 3:0.90576002 
-0.9714162713404155 0:1.1952286 1:1 2:-0.44988739 3:0.58553723 
-0.4451268319269036 0:0 1:1 2:-0.44988739 3:0.60325835 
-1 0:1.1952286 1:1 2:-0.44988739 3:0.32632969 
-1 0:0.5976143 1:1 2:-0.44988739 3:0.33513911 
-1 0:0 1:1 2:-0.44988739 3:0.60374365 
-1 0:-0.5976143 1:1 2:-0.44988739 3:0.33586906 
-1 0:0 1:1 2:-0.44988739 3:0.335504 
1 0:0 1:1 2:-0.44988739 3:1.032777 
-1 0:0 1:1 2:-0.44988739 3:1.0740433 
1 0:0 1:1 2:-0.44988739 3:0.89853649 
-1 0:0 1:1 2:-0.44988739 3:1.0740433 
1 0:0 1:1 2:-0.44988739 3:0.89853649 
1 0:0 1:1 2:-0.44988739 3:1.032777 
1 0:0 1:1 2:-0.44988739 3:1.032777 
1 0:0 1:1 2:-0.44988739 3:0.89853649 
-1 0:0 1:1 2:-0.44988739 3:1.0740433 
-0.02784166262296866 0:0.5976143 1:1 2:-0.44988739 3:1.0676937 
1 0:0 1:1 2:-0.44988739 3:0.89853649 
1 0:0 1:1 2:-0.44988739 3:1.032777 
-1 0:0 1:1 2:-0.44988739 3:1.0740433 
1 0:0 1:1 2:-0.44988739 3:1.032777 
1 0:0 1:1 2:-0.44988739 3:0.7955307 
1 0:0 1:1 2:-0.44988739 3:0.89853649 
-1 0:0 1:1 2:-0.44988739 3:1.0740433 
1 0:0 1:1 2:-0.44988739 3:0.90576002 
-1 0:0 1:1 2:-0.44988739 3:0.93260352 
-1 0:1.7928429 8:1 2:-0.44988739 3:-0.35337613 
-1 0:1.1952286 8:1 2:-0.44988739 3:-0.33539275 
-1 0:-0.5976143 8:1 2:-0.44988739 3:-0.33265383 
-1 0:-1.1952286 8:1 2:-0.44988739 3:-0.33265383 
-1 0:0.5976143 8:1 2:-0.44988739 3:-0.33316526 
1 0:0 8:1 2:-0.44988739 3:-0.34301498 
-1 0:0 8:1 2:-0.44988739 3:-0.33290954 
-1 0:0 8:1 2:-0.44988739 3:-0.33272893 
-1 0:0.5976143 8:1 2:-0.44988739 3:-0.4180522 
-1 0:-0.5976143 8:1 2:-0.44988739 3:-0.4176366 
1 0:0 8:1 2:-0.44988739 3:-0.44729492 
-1 0:0 8:1 2:-0.44988739 3:-0.41768932 
-1 0:0.5976143 8:1 2:-0.44988739 3:-0.88100497 
-1 0:1.7928429 8:1 2:-0.44988739 3:-0.4769636 
-1 0:1.1952286 8:1 2:-0.44988739 3:-0.42116325 
-1 0:-1.1952286 8:1 2:-0.44988739 3:-0.41762824 
-1 0:0 8:1 2:-0.44988739 3:-0.4178444 
-1 0:1.1952286 8:1 2:-0.44988739 3:-0.88918525 
-1 0:1.7928429 8:1 2:-0.44988739 3:-0.96585209 
-1 0:1.1952286 8:1 2:-0.44988739 3:-0.93308526 
1 0:0 8:1 2:-0.44988739 3:-0.94776713 
0.1085999171140688 0:1.7928429 7:1 2:-1.3362327 3:-1.1667559 
1 0:0 8:1 2:-0.44988739 3:-0.89207151 
-1 0:0 8:1 2:-0.44988739 3:-0.87853466 
-1 0:0.5976143 8:1 2:-0.44988739 3:-0.93041003 
1 0:1.7928429 4:1 2:-1.3362327 3:-1.240575 
-0.9126080136595871 0:0 6:1 2:-1.3362327 3:-1.1611658 
-0.5875582151832224 0:0 8:1 2:-1.3362327 3:-1.2395657 
-1 0:0 7:1 2:-1.3362327 3:-1.1611658 
-1 0:0 7:1 2:-1.3362327 3:-1.1611658 
1 0:0 6:1 2:-0.44988739 3:-0.19170864 
1 0:0 6:1 2:-0.44988739 3:0.28621152 
-0.5744958247434019 0:0 6:1 2:-0.44988739 3:0.46635543 
1 0:0 6:1 2:-0.44988739 3:0.28621152 
-1 0:0 6:1 2:-0.44988739 3:0.46635543 
-1 0:1.7928429 6:1 2:-0.44988739 3:0.085010563 
-1 0:1.1952286 6:1 2:-0.44988739 3:0.2026429 
-1 0:0 6:1 2:-0.44988739 3:0.23995628 
-1 0:1.1952286 6:1 2:-0.44988739 3:-0.030926454 
-1 0:0.5976143 6:1 2:-0.44988739 3:-0.0097301829 
1 0:0 6:1 2:-0.44988739 3:0.28621152 
-0.8114643156311475 0:0 6:1 2:-0.44988739 3:0.46635543 
-1 0:0.5976143 6:1 2:-0.44988739 3:0.23653637 
-1 0:-0.5976143 6:1 2:-0.44988739 3:0.24337619 
1 0:0 6:1 2:-0.44988739 3:0.16436258 
-1 0:0 6:1 2:-0.44988739 3:0.24197955 
-1 0:1.7928429 6:1 2:-0.44988739 3:-0.10445211 
-1 0:-0.5976143 6:1 2:-0.44988739 3:-0.0055317041 
-1 0:1.7928429 6:1 2:-0.44988739 3:-0.21032595 
-1 0:1.1952286 6:1 2:-0.44988739 3:-0.17780612 
-1 0:-1.1952286 6:1 2:-0.44988739 3:-0.17309952 
-1 0:0 6:1 2:-0.44988739 3:-0.17327656 
1 0:0 6:1 2:-0.44988739 3:-0.054958537 
-1 0:0 6:1 2:-0.44988739 3:-0.0076309435 
-1 0:0 6:1 2:-0.44988739 3:-0.0060236235 
-1 0:0.5976143 6:1 2:-0.44988739 3:-0.1740262 
-1 0:-0.5976143 6:1 2:-0.44988739 3:-0.17313054 
-1 0:0 6:1 2:-0.44988739 3:-0.17357837 
1 0:0 6:1 2:-0.44988739 3:0.28393227 
1 0:0 6:1 2:-0.44988739 3:0.43997771 
1 0:0 6:1 2:-0.44988739 3:0.43997771 
1 0:0 6:1 2:-0.44988739 3:0.28393227 
1 0:0 6:1 2:-0.44988739 3:0.28393227 
1 0:0 6:1 2:-0.44988739 3:0.43997771 
-1 0:1.7928429 6:1 2:-0.44988739 3:-0.01530736 
-1 0:-0.5976143 6:1 2:-0.44988739 3:0.16490277 
-1 0:1.1952286 6:1 2:-0.44988739 3:0.14181357 
-1 0:0.5976143 6:1 2:-0.44988739 3:0.16180209 
1 0:0 6:1 2:-0.44988739 3:0.074876466 
-1 0:0 6:1 2:-0.44988739 3:0.16427685 
-1 0:0.5976143 6:1 2:-0.44988739 3:-0.012878955 
-1 0:-0.5976143 6:1 2:-0.44988739 3:-0.0099734417 
1 0:0 6:1 2:-0.44988739 3:-0.068647418 
-1 0:0 6:1 2:-0.44988739 3:0.16335243 
-1 0:1.7928429 6:1 2:-0.44988739 3:-0.12737838 
-1 0:1.1952286 6:1 2:-0.44988739 3:-0.027864112 
-1 0:0 6:1 2:-0.44988739 3:-0.011426198 
1 0:0 7:1 2:-0.44988739 3:-0.13773256 
-1 0:1.7928429 7:1 2:-0.44988739 3:-0.35337613 
-1 0:1.7928429 7:1 2:-0.44988739 3:-0.175943 
1 0:0 7:1 2:-0.44988739 3:-0.13773256 
-1 0:1.7928429 7:1 2:-0.44988739 3:-0.175943 
-1 0:-0.5976143 7:1 2:-0.44988739 3:-0.33265383 
-1 0:-1.1952286 7:1 2:-0.44988739 3:-0.33265383 
-1 0:0 7:1 2:-0.44988739 3:-0.33290954 
-1 0:0 7:1 2:-0.44988739 3:-0.33272893 
-1 0:0.5976143 7:1 2:-0.44988739 3:-0.4180522 
-1 0:-0.5976143 7:1 2:-0.44988739 3:-0.4176366 
1 0:0 7:1 2:-0.44988739 3:-0.44729492 
-1 0:0.5976143 7:1 2:-0.44988739 3:-0.88100497 
-1 0:1.1952286 7:1 2:-0.44988739 3:-0.33539275 
-1 0:0.5976143 7:1 2:-0.44988739 3:-0.33316526 
1 0:0 7:1 2:-0.44988739 3:-0.34301498 
-1 0:1.7928429 7:1 2:-0.44988739 3:-0.4769636 
-1 0:1.1952286 7:1 2:-0.44988739 3:-0.42116325 
-1 0:-1.1952286 7:1 2:-0.44988739 3:-0.41762824 
-1 0:0 7:1 2:-0.44988739 3:-0.4178444 
-1 0:0 7:1 2:-0.44988739 3:-0.41768932 
1 0:1.7928429 7:1 2:-0.44988739 3:-1.0220166 
1 0:0 7:1 2:-0.44988739 3:-0.89207151 
-1 0:0.5976143 7:1 2:-0.44988739 3:-1.0190466 
1 0:0 7:1 2:-0.44988739 3:-1.0205275 
-1 0:-1.7928429 7:1 2:-0.44988739 3:-1.0190384 
-0.2964546979647697 0:0.5976143 7:1 2:-0.44988739 3:-0.012878955 
-0.6768017083155203 0:-0.5976143 7:1 2:-0.44988739 3:-0.0099734417 
1 0:0 7:1 2:-0.44988739 3:-0.068647418 
-1 0:0 7:1 2:-0.44988739 3:-0.010296509 
-1 0:1.7928429 7:1 2:-0.44988739 3:-0.56745768 
-1 0:-0.5976143 7:1 2:-0.44988739 3:-0.51086116 
-1 0:-1.1952286 7:1 2:-0.44988739 3:-0.51086116 
-1 0:0.5976143 7:1 2:-0.44988739 3:-0.012878955 
1 0:0 7:1 2:-0.44988739 3:-0.068647418 
-1 0:0 7:1 2:-0.44988739 3:-0.010296509 
-1 0:1.1952286 7:1 2:-0.44988739 3:-0.51303141 
-1 0:0.5976143 7:1 2:-0.44988739 3:-0.51108543 
-1 0:0 7:1 2:-0.44988739 3:-0.5109733 
-1 0:0 7:1 2:-0.44988739 3:-0.51087929 
1 0:0 7:1 2:-0.44988739 3:-0.84712527 
1 0:0 7:1 2:-0.44988739 3:-0.53915942 
1 0:0 7:1 2:-0.44988739 3:-0.87203402 
1 0:0 7:1 2:-0.44988739 3:0.43997771 
1 0:0 7:1 2:-0.44988739 3:0.43997771 
1 0:0 7:1 2:-0.44988739 3:0.28393227 
1 0:0 7:1 2:-0.44988739 3:0.28393227 
1 0:0 7:1 2:-0.44988739 3:0.074876466 
-0.6201391733965239 0:-0.5976143 7:1 2:-0.44988739 3:-0.0099734417 
-1 0:0 7:1 2:-0.44988739 3:0.16427685 
-0.9103989463280071 0:0.5976143 7:1 2:-0.44988739 3:-0.012878955 
1 0:0 7:1 2:-0.44988739 3:-0.068647418 
-1 0:0 7:1 2:-0.44988739 3:-0.010296509 
-1 0:0.5976143 7:1 2:-0.44988739 3:-0.43228101 
-1 0:-0.5976143 7:1 2:-0.44988739 3:-0.43178116 
1 0:0 7:1 2:-0.44988739 3:-0.46969816 
-1 0:0 7:1 2:-0.44988739 3:-0.43182856 
-1 0:1.7928429 7:1 2:-0.44988739 3:-0.7268292 
-1 0:1.7928429 7:1 2:-0.44988739 3:-0.50762527 
-1 0:1.1952286 7:1 2:-0.44988739 3:-0.43538979 
-1 0:-1.1952286 7:1 2:-0.44988739 3:-0.43177279 
-1 0:0 7:1 2:-0.44988739 3:-0.43203104 
-1 0:1.1952286 7:1 2:-0.44988739 3:-0.66074768 
-1 0:0.5976143 7:1 2:-0.44988739 3:-0.65287618 
1 0:0 7:1 2:-0.44988739 3:-0.68913324 
-1 0:-0.5976143 7:1 2:-0.44988739 3:-0.65148154 
-1 0:-1.1952286 7:1 2:-0.44988739 3:-0.65143719 
-1 0:0 7:1 2:-0.44988739 3:-0.65217882 
-1 0:1.1952286 4:1 2:-0.44988739 3:-0.85086572 
-1 0:0.5976143 4:1 2:-0.44988739 3:-0.84589469 
1 0:0 4:1 2:-0.44988739 3:-0.87203402 
-1 0:0 4:1 2:-0.44988739 3:-0.84419867 
-1 0:1.7928429 4:1 2:-0.44988739 3:-0.98933502 
-1 0:-0.5976143 4:1 2:-0.44988739 3:-0.98563194 
-1 0:-1.1952286 4:1 2:-0.44988739 3:-0.98563194 
-1 0:1.1952286 4:1 2:-0.44988739 3:-0.98620872 
-1 0:0.5976143 4:1 2:-0.44988739 3:-0.98570914 
-1 0:-1.7928429 4:1 2:-0.44988739 3:-0.98563194 
-1 0:0 4:1 2:-0.44988739 3:-0.98567054 
-1 0:0 4:1 2:-0.44988739 3:-0.98564031 
-1 0:0 4:1 2:-0.44988739 3:-0.98592033 
1 0:1.7928429 4:1 2:-0.44988739 3:-1.2780773 
1 0:-1.1952286 4:1 2:-0.44988739 3:-1.2688987 
1 0:-1.7928429 4:1 2:-0.44988739 3:-1.2688847 
1 0:0 4:1 2:-0.44988739 3:-1.273481 
1 0:0 4:1 2:-0.44988739 3:-1.2706958 
1 0:-1.7928429 4:1 2:-0.44988739 3:-1.2688847 
-1 0:0.5976143 4:1 2:-0.44988739 3:-0.84589469 
1 0:0 4:1 2:-0.44988739 3:-0.87203402 
-1 0:0 4:1 2:-0.44988739 3:-0.84419867 
-1 0:1.7928429 4:1 2:-0.44988739 3:-0.98933502 
-1 0:1.1952286 4:1 2:-0.44988739 3:-0.85086572 
-1 0:1.1952286 4:1 2:-0.44988739 3:-0.98620872 
-1 0:0.5976143 4:1 2:-0.44988739 3:-0.98570914 
-1 0:-1.7928429 4:1 2:-0.44988739 3:-0.98563194 
-1 0:0 4:1 2:-0.44988739 3:-0.98567054 
-1 0:0 4:1 2:-0.44988739 3:-0.98564031 
1 0:0 4:1 2:-0.44988739 3:-1.2706958 
-1 0:-0.5976143 4:1 2:-0.44988739 3:-0.98563194 
-1 0:-1.1952286 4:1 2:-0.44988739 3:-0.98563194 
-1 0:0 4:1 2:-0.44988739 3:-0.98592033 
1 0:1.7928429 4:1 2:-0.44988739 3:-1.2780773 
1 0:-1.1952286 4:1 2:-0.44988739 3:-1.2688987 
1 0:0 4:1 2:-0.44988739 3:-1.273481 
0.5529042122776793 0:1.1952286 8:1 2:0.43645792 3:-0.041067347 
1 0:0 8:1 2:0.43645792 3:-0.061083395 
1 0:-1.7928429 8:1 2:0.43645792 3:-0.25060427 
1 0:0 8:1 2:0.43645792 3:-0.31795296 
1 0:1.7928429 8:1 2:0.43645792 3:-0.69866259 
1 0:-1.1952286 8:1 2:0.43645792 3:-0.0022883121 
1 0:-1.7928429 8:1 2:0.43645792 3:-0.0021715619 
1 0:0 8:1 2:0.43645792 3:-0.021677743 
1 0:0 8:1 2:0.43645792 3:-0.0071550555 
1 0:-0.5976143 8:1 2:0.43645792 3:-0.25076406 
1 0:-1.1952286 8:1 2:0.43645792 3:-0.25062919 
1 0:0 8:1 2:0.43645792 3:-0.26825517 
1 0:-1.1952286 8:1 2:0.43645792 3:-0.6269334 
1 0:0 8:1 2:0.43645792 3:-0.7616551 
1 0:0 8:1 2:0.43645792 3:-0.66279107 
1 0:0 8:1 2:0.43645792 3:-0.63132809 
1 0:1.7928429 8:1 2:0.43645792 3:-0.80923963 
0.5259657830100366 0:-1.7928429 8:1 2:0.43645792 3:-0.75813221 
1 0:0 8:1 2:0.43645792 3:-0.78368596 
1 0:-1.1952286 8:1 2:0.43645792 3:-0.75815861 
1 0:1.1952286 8:1 2:0.43645792 3:0.16281973 
1 0:0 8:1 2:0.43645792 3:0.11798659 
1 0:1.7928429 8:1 2:0.43645792 3:0.02568627 
1 0:-1.1952286 8:1 2:0.43645792 3:0.21027105 
1 0:0 8:1 2:0.43645792 3:0.1865453 
1 0:0.5976143 8:1 2:0.43645792 3:0.083782595 
1 0:-0.5976143 8:1 2:0.43645792 3:0.096804605 
1 0:1.7928429 8:1 2:0.43645792 3:-0.11234303 
1 0:1.1952286 8:1 2:0.43645792 3:0.016176874 
1 0:-1.1952286 8:1 2:0.43645792 3:0.097143007 
1 0:-1.7928429 8:1 2:0.43645792 3:0.097238498 
1 0:0 8:1 2:0.43645792 3:0.05665994 
1 0:0 8:1 2:0.43645792 3:-0.0075521806 
1 0:0 8:1 2:0.43645792 3:0.0902936 
0.3215082727114466 0:0 8:1 2:0.43645792 3:0.094827169 
-1 0:-0.5976143 8:1 2:0.43645792 3:-0.16804214 
1 0:0 8:1 2:0.43645792 3:-0.21002833 
-1 0:1.1952286 8:1 2:0.43645792 3:-0.37571246 
-1 0:0.5976143 8:1 2:0.43645792 3:-0.37390997 
-1 0:-0.5976143 8:1 2:0.43645792 3:-0.37369651 
-0.740204906196816 0:-1.1952286 8:1 2:0.43645792 3:-0.37369651 
1 0:0 8:1 2:0.43645792 3:-0.40004068 
-1 0:0 8:1 2:0.43645792 3:-0.37371359 
-1 0:0 8:1 2:0.43645792 3:-0.37380324 
-1 0:-0.5976143 8:1 2:0.43645792 3:-0.16804214 
1 0:0 8:1 2:0.43645792 3:-0.21002833 
1 0:0 8:1 2:0.43645792 3:-0.68105194 
1 0:1.7928429 8:1 2:0.43645792 3:-0.73847617 
1 0:-1.1952286 8:1 2:0.43645792 3:-0.67025725 
1 0:-1.7928429 8:1 2:0.43645792 3:-0.67017543 
1 0:0 8:1 2:0.43645792 3:-0.70432576 
1 0:0 5:1 2:0.43645792 3:-0.40004068 
1 0:1.1952286 5:1 2:0.43645792 3:0.28045399 
1 0:-1.1952286 5:1 2:0.43645792 3:0.38162976 
1 0:0 5:1 2:0.43645792 3:0.33104187 
1 0:0 5:1 2:0.43645792 3:0.37315352 
1 0:1.1952286 5:1 2:0.43645792 3:0.28045399 
0.4788451867043209 0:-1.7928429 5:1 2:0.43645792 3:0.38175453 
1 0:0 5:1 2:0.43645792 3:0.37315352 
1 0:-1.7928429 5:1 2:0.43645792 3:0.38175453 
1 0:0 5:1 2:0.43645792 3:0.25217341 
0.247922027006623 0:-0.5976143 5:1 2:0.43645792 3:0.38121922 
1 0:-1.1952286 5:1 2:0.43645792 3:0.38162976 
1 0:0 5:1 2:0.43645792 3:0.25217341 
1 0:0 5:1 2:0.43645792 3:0.33104187 
1 0:-1.1952286 5:1 2:0.43645792 3:0.21027105 
1 0:-1.7928429 5:1 2:0.43645792 3:0.21028673 
1 0:0 5:1 2:0.43645792 3:0.1865453 
1 0:0 5:1 2:0.43645792 3:-0.21002833 
1 0:0 5:1 2:0.43645792 3:0.11798659 
1 0:0 5:1 2:0.43645792 3:-0.17054112 
-1 0:0.5976143 5:1 2:0.43645792 3:-0.37390997 
-0.06426309476374313 0:-0.5976143 5:1 2:0.43645792 3:-0.37369651 
-1 0:0 5:1 2:0.43645792 3:-0.37371359 
1 0:0 9:1 2:0.43645792 3:1.3315122 
0.04362594634104345 0:-1.7928429 9:1 2:0.43645792 3:1.3673712 
1 0:0 9:1 2:0.43645792 3:1.1473712 
1 0:0 9:1 2:0.43645792 3:1.3315122 
0.6868752349747397 0:1.1952286 9:1 2:0.43645792 3:1.2956527 
0.9176994673636808 0:-1.7928429 9:1 2:0.43645792 3:1.3673712 
1 0:0 9:1 2:0.43645792 3:1.1473712 
1 0:0 1:1 2:0.43645792 3:1.5312572 
1 0:0 1:1 2:0.43645792 3:1.8136838 
-1 0:-0.5976143 1:1 2:0.43645792 3:1.8098341 
1 0:0 1:1 2:0.43645792 3:1.4655732 
-1 0:0 1:1 2:0.43645792 3:1.9238207 
1 0:0 1:1 2:0.43645792 3:1.7263664 
-1 0:0 1:1 2:0.43645792 3:1.8096561 
-1 0:-0.5976143 1:1 2:0.43645792 3:1.8098341 
1 0:0 1:1 2:0.43645792 3:1.7263664 
-1 0:0 1:1 2:0.43645792 3:1.8096561 
-1 0:-0.5976143 1:1 2:0.43645792 3:1.8098341 
1 0:0 1:1 2:0.43645792 3:1.4655732 
1 0:0 1:1 2:0.43645792 3:1.4655732 
-1 0:0 1:1 2:0.43645792 3:1.8096561 
-0.2911113601582601 0:-0.5976143 1:1 2:0.43645792 3:1.8098341 
1 0:0 1:1 2:0.43645792 3:1.4655732 
1 0:0 1:1 2:0.43645792 3:1.7263664 
1 0:0 1:1 2:0.43645792 3:1.7263664 
1 0:0 1:1 2:0.43645792 3:1.3812903 
-1 0:0 1:1 2:0.43645792 3:1.6694432 
-1 0:-0.5976143 1:1 2:0.43645792 3:1.5461887 
-1 0:0 1:1 2:0.43645792 3:1.5461559 
-1 0:0 5:1 2:1.3496622 3:-0.074300745 
-1 0:0 1:1 2:0.43645792 3:1.8096561 
-1 0:-0.5976143 1:1 2:0.43645792 3:1.669507 
1 0:0 1:1 2:0.43645792 3:1.6117372 
1 0:0 1:1 2:0.43645792 3:1.3022601 
1 0:0 1:1 2:0.43645792 3:1.5069258 
-1 0:0 6:1 2:1.3496622 3:0.66829121 
-1 0:-1.7928429 7:1 2:1.3496622 3:-0.17840504 
-0.3223421669513481 0:0.5976143 8:1 2:1.3496622 3:-0.43622664 
-1 0:0 1:1 2:1.3496622 3:0.92553909 
-1 0:0 9:1 2:1.3496622 3:1.9215506 
1 0:0 1:1 2:0.43645792 3:1.3004977 
-1 0:0 1:1 2:0.43645792 3:1.5566098 
1 0:0 1:1 2:0.43645792 3:1.5064305 
1 0:0 1:1 2:0.43645792 3:1.5064305 
1 0:0 1:1 2:0.43645792 3:1.3004977 
-1 0:0 1:1 2:0.43645792 3:1.5566098 
1 0:0 1:1 2:0.43645792 3:1.2150184 
1 0:0 1:1 2:0.43645792 3:1.3947378 
1 0:0 1:1 2:0.43645792 3:1.275732 
-1 0:0 1:1 2:0.43645792 3:1.3097889 
1 0:-1.7928429 1:1 2:0.43645792 3:1.4294499 
-1 0:0 1:1 2:0.43645792 3:1.4289589 
1 0:-1.7928429 1:1 2:0.43645792 3:1.3104427 
1 0:0 1:1 2:0.43645792 3:1.1233735 
-1 0:0.5976143 1:1 2:0.43645792 3:0.93253556 
0.2332973636670873 0:-1.7928429 1:1 2:0.43645792 3:0.93558205 
1 0:0 1:1 2:0.43645792 3:0.84467472 
-1 0:0 1:1 2:0.43645792 3:0.93405314 
-1 0:1.1952286 1:1 2:0.43645792 3:0.62169827 
1 0:0 1:1 2:0.43645792 3:0.59311798 
-1 0:-0.5976143 1:1 2:0.43645792 3:0.9355709 
-1 0:0 1:1 2:0.43645792 3:0.93514188 
-1 0:0.5976143 1:1 2:0.43645792 3:0.62922727 
-1 0:-0.5976143 1:1 2:0.43645792 3:0.63008146 
-1 0:0 1:1 2:0.43645792 3:0.62965437 
1 0:0 1:1 2:0.43645792 3:1.3004977 
-1 0:0 1:1 2:0.43645792 3:1.5566098 
1 0:0 1:1 2:0.43645792 3:1.3004977 
1 0:0 1:1 2:0.43645792 3:1.5064305 
1 0:0 1:1 2:0.43645792 3:1.5064305 
-1 0:0 1:1 2:0.43645792 3:1.5566098 
1 0:0 1:1 2:0.43645792 3:1.3004977 
-1 0:0 1:1 2:0.43645792 3:1.5566098 
1 0:0 1:1 2:0.43645792 3:1.3004977 
1 0:0 1:1 2:0.43645792 3:1.5064305 
1 0:0 1:1 2:0.43645792 3:1.5064305 
1 0:-1.7928429 1:1 2:0.43645792 3:1.4294499 
-1 0:0 1:1 2:0.43645792 3:1.4289589 
-1 0:0 1:1 2:0.43645792 3:1.5566098 
1 0:0 1:1 2:0.43645792 3:1.2150184 
1 0:0 1:1 2:0.43645792 3:1.3947378 
1 0:0 1:1 2:0.43645792 3:1.1233735 
1 0:0 1:1 2:0.43645792 3:1.275732 
1 0:-1.7928429 1:1 2:0.43645792 3:1.3104427 
-1 0:0 1:1 2:0.43645792 3:1.3097889 
-1 0:0 6:1 2:0.43645792 3:0.079217659 
0.02927356784957225 0:1.7928429 6:1 2:0.43645792 3:0.13770135 
1 0:1.1952286 6:1 2:0.43645792 3:0.5330376 
1 0:0 6:1 2:0.43645792 3:0.45343692 
1 0:0 6:1 2:0.43645792 3:0.65107055 
0.01066900153888963 0:1.7928429 6:1 2:0.43645792 3:0.13770135 
1 0:0 6:1 2:0.43645792 3:0.65107055 
0.1983424553315771 0:-1.7928429 6:1 2:0.43645792 3:0.38175453 
1 0:0 6:1 2:0.43645792 3:0.25217341 
-0.533455115796157 0:1.1952286 6:1 2:0.43645792 3:0.15228851 
-1 0:1.1952286 6:1 2:0.43645792 3:0.070324949 
-1 0:0.5976143 6:1 2:0.43645792 3:0.078487709 
1 0:0 6:1 2:0.43645792 3:0.45343692 
1 0:0 6:1 2:0.43645792 3:0.65107055 
1 0:1.7928429 6:1 2:0.43645792 3:0.13770135 
1 0:1.1952286 6:1 2:0.43645792 3:0.5330376 
1 0:1.1952286 6:1 2:0.43645792 3:0.5330376 
1 0:0 6:1 2:0.43645792 3:0.45343692 
1 0:-1.1952286 6:1 2:0.43645792 3:0.38162976 
1 0:0 6:1 2:0.43645792 3:0.33104187 
-1 0:0.5976143 6:1 2:0.43645792 3:0.21530229 
1 0:0 6:1 2:0.43645792 3:0.12237727 
-1 0:0 6:1 2:0.43645792 3:0.22199138 
-1 0:1.7928429 6:1 2:0.43645792 3:0.015308218 
-1 0:-0.5976143 6:1 2:0.43645792 3:0.07994761 
1 0:0 6:1 2:0.43645792 3:0.04765867 
-1 0:0 6:1 2:0.43645792 3:0.079732057 
1 0:0 6:1 2:0.43645792 3:0.12237727 
1 0:1.1952286 6:1 2:0.43645792 3:0.5330376 
1 0:0 6:1 2:0.43645792 3:0.45343692 
1 0:1.7928429 6:1 2:0.43645792 3:0.13770135 
1 0:0 6:1 2:0.43645792 3:0.45343692 
1 0:0 6:1 2:0.43645792 3:0.65107055 
1 0:1.7928429 6:1 2:0.43645792 3:0.13770135 
1 0:1.1952286 6:1 2:0.43645792 3:0.5330376 
0.9875149878882649 0:1.7928429 6:1 2:0.43645792 3:0.13770135 
1 0:0 6:1 2:0.43645792 3:0.65107055 
1 0:1.1952286 6:1 2:0.43645792 3:0.5330376 
1 0:0 6:1 2:0.43645792 3:0.45343692 
1 0:0 6:1 2:0.43645792 3:0.65107055 
1 0:-1.1952286 6:1 2:0.43645792 3:0.38162976 
0.9991368380291031 0:-1.7928429 6:1 2:0.43645792 3:0.38175453 
1 0:0 6:1 2:0.43645792 3:0.25217341 
-1 0:0 6:1 2:0.43645792 3:0.22199138 
1 0:0 6:1 2:0.43645792 3:0.33104187 
-0.07279397913123832 0:1.1952286 6:1 2:0.43645792 3:0.15228851 
-1 0:0.5976143 6:1 2:0.43645792 3:0.21530229 
1 0:-1.1952286 7:1 2:0.43645792 3:0.26755726 
1 0:-1.7928429 7:1 2:0.43645792 3:0.26768604 
1 0:0 7:1 2:0.43645792 3:0.16180052 
1 0:0 7:1 2:0.43645792 3:0.22903752 
1 0:-1.1952286 7:1 2:0.43645792 3:0.097143007 
1 0:-1.7928429 7:1 2:0.43645792 3:0.097238498 
1 0:0 7:1 2:0.43645792 3:0.05665994 
-1 0:0 7:1 2:0.43645792 3:-0.069090372 
1 0:0 7:1 2:0.43645792 3:-0.0075521806 
1 0:0 7:1 2:0.43645792 3:-0.10598799 
-1 0:0 7:1 2:0.43645792 3:-0.17880582 
-1 0:0 7:1 2:0.43645792 3:-0.17850593 
1 0:-1.1952286 7:1 2:0.43645792 3:-0.67182057 
-1 0:-0.5976143 7:1 2:0.43645792 3:-0.17842211 
1 0:0 7:1 2:0.43645792 3:-0.22007564 
0.1149440292949194 0:1.7928429 7:1 2:0.43645792 3:-0.72486448 
1 0:-1.7928429 7:1 2:0.43645792 3:-0.67176829 
1 0:0 7:1 2:0.43645792 3:-0.69831643 
1 0:1.7928429 7:1 2:0.43645792 3:-0.85701105 
1 0:-0.5976143 7:1 2:0.43645792 3:-0.77695418 
1 0:-1.1952286 7:1 2:0.43645792 3:-0.77581961 
1 0:0 7:1 2:0.43645792 3:-0.79139697 
1 0:0 7:1 2:0.43645792 3:-0.68305586 
1 0:-1.7928429 7:1 2:0.43645792 3:-0.77550186 
1 0:0 7:1 2:0.43645792 3:-0.81625641 
1 0:1.7928429 7:1 2:0.43645792 3:0.13770135 
1 0:1.1952286 7:1 2:0.43645792 3:0.5330376 
1 0:1.1952286 7:1 2:0.43645792 3:0.5330376 
1 0:0 7:1 2:0.43645792 3:0.45343692 
1 0:0 7:1 2:0.43645792 3:0.65107055 
1 0:1.7928429 7:1 2:0.43645792 3:0.13770135 
1 0:0 7:1 2:0.43645792 3:0.45343692 
1 0:0 7:1 2:0.43645792 3:0.65107055 
1 0:-1.1952286 7:1 2:0.43645792 3:0.38162976 
1 0:0 7:1 2:0.43645792 3:0.18768283 
1 0:0 7:1 2:0.43645792 3:0.25217341 
1 0:0 7:1 2:0.43645792 3:0.33104187 
1 0:0 7:1 2:0.43645792 3:0.12237727 
-1 0:-0.5976143 7:1 2:0.43645792 3:-0.16804214 
1 0:0 7:1 2:0.43645792 3:-0.21002833 
-1 0:0 7:1 2:0.43645792 3:-0.16812718 
-1 0:0.5976143 7:1 2:0.43645792 3:-0.49085209 
-1 0:-0.5976143 7:1 2:0.43645792 3:-0.48903313 
-1 0:0 7:1 2:0.43645792 3:-0.16843038 
-0.9605265554687695 0:-1.1952286 7:1 2:0.43645792 3:-0.48897424 
1 0:0 7:1 2:0.43645792 3:-0.53697227 
-1 0:0 7:1 2:0.43645792 3:-0.48994265 
1 0:0 7:1 2:0.43645792 3:0.1865453 
0.1665682468697516 0:-1.7928429 7:1 2:0.43645792 3:0.21028673 
-1 0:-0.5976143 7:1 2:0.43645792 3:-0.16804214 
1 0:0 7:1 2:0.43645792 3:-0.21002833 
0.09689619875001906 0:-1.7928429 7:1 2:0.43645792 3:0.21028673 
1 0:0 7:1 2:0.43645792 3:0.11798659 
1 0:0 7:1 2:0.43645792 3:0.11798659 
1 0:0 7:1 2:0.43645792 3:0.1865453 
1 0:-1.1952286 7:1 2:0.43645792 3:-0.67025725 
1 0:-1.7928429 7:1 2:0.43645792 3:-0.67017543 
1 0:0 7:1 2:0.43645792 3:-0.70432576 
-1 0:0 7:1 2:0.43645792 3:-0.16843038 
-1 0:0 7:1 2:0.43645792 3:-0.16812718 
1 0:0 7:1 2:0.43645792 3:-0.68105194 
1 0:-1.7928429 4:1 2:0.43645792 3:-1.219087 
1 0:-0.5976143 4:1 2:0.43645792 3:-0.67053666 
1 0:0 4:1 2:0.43645792 3:-0.70432576 
1 0:0 4:1 2:0.43645792 3:-0.68105194 
-0.83468976737019 0:1.7928429 4:1 2:0.43645792 3:-0.90854436 
-1 0:1.1952286 4:1 2:0.43645792 3:-0.89593759 
-1 0:-1.1952286 4:1 2:0.43645792 3:-0.8951423 
-1 0:-1.7928429 4:1 2:0.43645792 3:-0.8951423 
1 0:-1.1952286 4:1 2:0.43645792 3:-0.67025725 
1 0:-1.7928429 4:1 2:0.43645792 3:-0.67017543 
-1 0:0.5976143 4:1 2:0.43645792 3:-0.89534295 
-1 0:-0.5976143 4:1 2:0.43645792 3:-0.89514918 
-1 0:0 4:1 2:0.43645792 3:-0.89553995 
-1 0:0 4:1 2:0.43645792 3:-0.89518926 
1 0:1.7928429 4:1 2:0.43645792 3:-1.2442589 
1 0:-0.5976143 4:1 2:0.43645792 3:-1.2193395 
1 0:-1.1952286 4:1 2:0.43645792 3:-1.2191129 
1 0:0 4:1 2:0.43645792 3:-1.2203056 
-1 0:0 4:1 2:0.43645792 3:-0.89524607 
1 0:1.1952286 4:1 2:0.43645792 3:-1.2291089 
1 0:0.5976143 4:1 2:0.43645792 3:-1.2229068 
1 0:0 4:1 2:0.43645792 3:-1.2241109 
1 0:0 4:1 2:0.43645792 3:-1.2211231 
1 0:0 4:1 2:0.43645792 3:-1.2316729 
1 0:0 4:1 2:0.43645792 3:-1.2241109 
1 0:-0.5976143 4:1 2:0.43645792 3:-0.67053666 
1 0:0 4:1 2:0.43645792 3:-0.70432576 
1 0:0 4:1 2:0.43645792 3:-0.68105194 
1 0:-1.1952286 4:1 2:0.43645792 3:-0.67025725 
1 0:-1.7928429 4:1 2:0.43645792 3:-0.67017543 
-1 0:0.5976143 4:1 2:0.43645792 3:-0.89534295 
-1 0:-0.5976143 4:1 2:0.43645792 3:-0.89514918 
-1 0:0 4:1 2:0.43645792 3:-0.89553995 
1 0:1.7928429 4:1 2:0.43645792 3:-1.2442589 
-0.6734417099221589 0:1.7928429 4:1 2:0.43645792 3:-0.90854436 
-1 0:1.1952286 4:1 2:0.43645792 3:-0.89593759 
-1 0:-1.1952286 4:1 2:0.43645792 3:-0.8951423 
-1 0:-1.7928429 4:1 2:0.43645792 3:-0.8951423 
-1 0:0 4:1 2:0.43645792 3:-0.89524607 
-1 0:0 4:1 2:0.43645792 3:-0.89518926 
1 0:1.1952286 4:1 2:0.43645792 3:-1.2291089 
1 0:0.5976143 4:1 2:0.43645792 3:-1.2229068 
1 0:-1.7928429 4:1 2:0.43645792 3:-1.219087 
1 0:0 4:1 2:0.43645792 3:-1.2316729 
1 0:-0.5976143 4:1 2:0.43645792 3:-1.2193395 
1 0:-1.1952286 4:1 2:0.43645792 3:-1.2191129 
1 0:0 4:1 2:0.43645792 3:-1.2211231 
1 0:1.7928429 8:1 2:-1.3362327 3:-1.240575 
-1 0:0 8:1 2:-1.3362327 3:-1.2395657 
1 0:0 8:1 2:-1.3362327 3:-1.2400703 
1 0:1.7928429 8:1 2:-1.3362327 3:-1.240575 
1 0:0 8:1 2:-1.3362327 3:-1.2400703 
-1 0:0 8:1 2:-1.3362327 3:-1.2395657 
1 0:0 8:1 2:-1.3362327 3:-1.2400703 
-1 0:0 8:1 2:-1.3362327 3:-1.2395657 
1 0:1.7928429 8:1 2:-1.3362327 3:-1.240575 
1 0:1.7928429 8:1 2:-1.3362327 3:-1.240575 
1 0:1.7928429 8:1 2:-1.3362327 3:-1.240575 
1 0:0 8:1 2:-1.3362327 3:-1.2400703 
-1 0:0 8:1 2:-1.3362327 3:-1.2395657 
1 0:0 8:1 2:-1.3362327 3:-1.2400703 
-0.4599020222211637 0:0 8:1 2:-1.3362327 3:-1.2395657 
1 0:1.7928429 8:1 2:-1.3362327 3:-1.240575 
1 0:0 8:1 2:-1.3362327 3:-1.2400703 
1 0:0 8:1 2:-1.3362327 3:-1.2400703 
1 0:1.7928429 8:1 2:-1.3362327 3:-1.240575 
1 0:1.7928429 8:1 2:-1.3362327 3:-1.240575 
1 0:0 8:1 2:-1.3362327 3:-1.2400703 
1 0:1.7928429 8:1 2:-1.3362327 3:-1.240575 
1 0:0 8:1 2:-1.3362327 3:-1.2400703 
1 0:1.7928429 8:1 2:-1.3362327 3:-1.240575 
1 0:0 8:1 2:-1.3362327 3:-1.2400703 
-1 0:0.5976143 6:1 2:1.3496622 3:1.1837969 
-0.02570679123816154 0:-1.7928429 6:1 2:1.3496622 3:1.2168881 
-1 0:0 6:1 2:1.3496622 3:1.2148888 
-0.7894412476644864 0:0.5976143 6:1 2:1.3496622 3:1.1837969 
-1 0:-0.5976143 6:1 2:1.3496622 3:1.2165403 
1 0:0 6:1 2:1.3496622 3:0.84938568 
1 0:0 6:1 2:1.3496622 3:1.0612817 
-1 0:0 6:1 2:1.3496622 3:1.2148888 
-1 0:-0.5976143 6:1 2:1.3496622 3:1.2165403 
1 0:0 6:1 2:1.3496622 3:0.84938568 
1 0:0 6:1 2:1.3496622 3:1.0612817 
1 0:0 6:1 2:1.3496622 3:0.84938568 
-1 0:0 6:1 2:1.3496622 3:1.2148888 
-0.6542013691900097 0:-0.5976143 6:1 2:1.3496622 3:0.91116417 
1 0:0 6:1 2:1.3496622 3:0.6635853 
1 0:0 6:1 2:1.3496622 3:0.82808224 
-1 0:0.5976143 6:1 2:1.3496622 3:0.66104416 
-1 0:-0.5976143 6:1 2:1.3496622 3:0.67004334 
-1 0:-0.5976143 6:1 2:1.3496622 3:1.2165403 
1 0:0 6:1 2:1.3496622 3:1.0612817 
-1 0:0.5976143 6:1 2:1.3496622 3:0.89500123 
-1 0:0 6:1 2:1.3496622 3:0.90940298 
-1 0:0 6:1 2:1.3496622 3:0.66554375 
-1 0:0 6:1 2:1.3496622 3:0.66829121 
1 0:0 6:1 2:1.3496622 3:0.31472733 
1 0:0 6:1 2:1.3496622 3:0.5117014 
-1 0:-0.5976143 6:1 2:1.3496622 3:0.38152225 
-1 0:0 6:1 2:1.3496622 3:0.3797919 
-0.3597623931378806 0:0 6:1 2:1.3496622 3:0.37866936 
-1 0:-0.5976143 6:1 2:1.3496622 3:0.67004334 
1 0:0 6:1 2:1.3496622 3:1.0612817 
1 0:0 6:1 2:1.3496622 3:0.84938568 
-1 0:0 6:1 2:1.3496622 3:1.2148888 
-1 0:-0.5976143 6:1 2:1.3496622 3:1.2165403 
1 0:0 6:1 2:1.3496622 3:0.84938568 
1 0:0 6:1 2:1.3496622 3:1.0612817 
-1 0:-0.5976143 6:1 2:1.3496622 3:1.2165403 
1 0:0 6:1 2:1.3496622 3:0.84938568 
-1 0:0 6:1 2:1.3496622 3:1.2148888 
-1 0:-0.5976143 6:1 2:1.3496622 3:1.2165403 
1 0:0 6:1 2:1.3496622 3:1.0612817 
-0.1866931181673537 0:-1.7928429 6:1 2:1.3496622 3:1.2168881 
-1 0:0 6:1 2:1.3496622 3:1.2148888 
-1 0:0.5976143 6:1 2:1.3496622 3:0.89500123 
-0.154258266788547 0:-0.5976143 6:1 2:1.3496622 3:0.91116417 
1 0:0 6:1 2:1.3496622 3:0.6635853 
1 0:0 6:1 2:1.3496622 3:0.82808224 
-1 0:0 6:1 2:1.3496622 3:0.90940298 
1 0:0 6:1 2:1.3496622 3:0.5117014 
-1 0:0.5976143 6:1 2:1.3496622 3:0.66104416 
-1 0:0 6:1 2:1.3496622 3:0.66554375 
0.5037208208248863 0:1.7928429 5:1 2:-1.3362327 3:-1.1667559 
-1 0:0.5976143 5:1 2:-1.3362327 3:-1.1612656 
1 0:0 5:1 2:-1.3362327 3:-1.1639525 
-1 0:0 5:1 2:-1.3362327 3:-1.1611658 
-1 0:0.5976143 5:1 2:-1.3362327 3:-1.1612656 
1 0:0 5:1 2:-1.3362327 3:-1.1639525 
0.8851491972148623 0:1.7928429 5:1 2:-1.3362327 3:-1.1667559 
-0.3523858196593346 0:-0.5976143 5:1 2:-1.3362327 3:-1.1611535 
-1 0:0 5:1 2:-1.3362327 3:-1.1612096 
0.9999756710268246 0:1.7928429 5:1 2:-1.3362327 3:-1.1667559 
-1 0:0 5:1 2:-1.3362327 3:-1.1612096 
-1 0:0 5:1 2:-1.3362327 3:-1.1611658 
-1 0:0.5976143 5:1 2:-1.3362327 3:-1.1612656 
1 0:0 5:1 2:-1.3362327 3:-1.1639525 
-1 0:0 5:1 2:-1.3362327 3:-1.1611658 
1 0:1.7928429 5:1 2:-1.3362327 3:-1.240575 
1 0:0 5:1 2:-1.3362327 3:-1.2400703 
1 0:0 5:1 2:-1.3362327 3:-1.2396457 
-0.9993924187064818 0:-0.5976143 5:1 2:-1.3362327 3:-1.1611535 
-1 0:0 5:1 2:-1.3362327 3:-1.1612096 
1 0:1.1952286 5:1 2:-1.3362327 3:-1.2397256 
1 0:0.5976143 5:1 2:-1.3362327 3:-1.2395753 
1 0:0 5:1 2:-1.3362327 3:-1.2395705 
1 0:0.5976143 5:1 2:-1.3362327 3:-1.2395753 
1 0:0 5:1 2:-1.3362327 3:-1.2396457 
1 0:0 5:1 2:-1.3362327 3:-1.2395705 
1 0:1.7928429 5:1 2:-1.3362327 3:-1.240575 
1 0:1.1952286 5:1 2:-1.3362327 3:-1.2397256 
1 0:0 5:1 2:-1.3362327 3:-1.2400703 
0.4466108907387466 0:1.7928429 1:1 2:-1.3362327 3:-1.022744 
-1 0:-0.5976143 1:1 2:-1.3362327 3:-1.0177056 
-0.4905449859347589 0:0.5976143 1:1 2:-1.3362327 3:-1.0180837 
1 0:0 1:1 2:-1.3362327 3:-1.0202149 
-1 0:0 1:1 2:-1.3362327 3:-1.0178116 
-1 0:0.5976143 1:1 2:-1.3362327 3:-1.0180837 
-1 0:-0.5976143 1:1 2:-1.3362327 3:-1.0177056 
1 0:0 1:1 2:-1.3362327 3:-1.0202149 
-1 0:-0.5976143 1:1 2:-1.3362327 3:-1.0177056 
-1 0:0.5976143 1:1 2:-1.3362327 3:-1.0180837 
-1 0:0.5976143 1:1 2:-1.3362327 3:-1.0180837 
1 0:0 1:1 2:-1.3362327 3:-1.0202149 
-1 0:0 1:1 2:-1.3362327 3:-1.0178116 
-1 0:-0.5976143 1:1 2:-1.3362327 3:-1.0177056 
-1 0:0 1:1 2:-1.3362327 3:-1.0178116 
-0.4105030286296671 0:0.5976143 1:1 2:-1.3362327 3:-1.0180837 
1 0:0 1:1 2:-1.3362327 3:-1.0202149 
-1 0:0 1:1 2:-1.3362327 3:-1.0178116 
-0.05162651580247606 0:-0.5976143 1:1 2:-1.3362327 3:-1.0177056 
1 0:0 1:1 2:-1.3362327 3:-1.0202149 
-1 0:0 1:1 2:-1.3362327 3:-1.0178116 
1 0:0 1:1 2:-1.3362327 3:-1.0202149 
-1 0:0 1:1 2:-1.3362327 3:-1.0178116 
-1 0:0 1:1 2:-1.3362327 3:-1.0178116 
1 0:0 1:1 2:-1.3362327 3:-1.0202149 
1 0:0 9:1 2:-1.3362327 3:-1.1639525 
-0.189603264675567 0:0 9:1 2:-1.3362327 3:-1.1611658 
-1 0:-0.5976143 9:1 2:-1.3362327 3:-1.1611535 
1 0:1.7928429 9:1 2:-1.3362327 3:-1.1667559 
-1 0:-0.5976143 9:1 2:-1.3362327 3:-1.1611535 
1 0:1.7928429 9:1 2:-1.3362327 3:-1.1667559 
0.5882853451341185 0:1.1952286 9:1 2:-1.3362327 3:-1.16173 
1 0:0 9:1 2:-1.3362327 3:-1.1639525 
1 0:-1.1952286 1:1 2:-1.3362327 3:-1.2395657 
-0.008185884795896492 0:-0.5976143 1:1 2:-1.3362327 3:-1.0177056 
-1 0:0 1:1 2:-1.3362327 3:-1.0178116 
1 0:0 1:1 2:-1.3362327 3:-1.0202149 
-1 0:0 1:1 2:-1.3362327 3:-1.0178116 
-0.03449217194062727 0:-0.5976143 1:1 2:-1.3362327 3:-1.0177056 
1 0:0 1:1 2:-1.3362327 3:-1.0202149 
1 0:0 1:1 2:-1.3362327 3:-1.0202149 
1 0:1.1952286 1:1 2:-1.3362327 3:-1.2397256 
1 0:0.5976143 1:1 2:-1.3362327 3:-1.2395753 
1 0:0 1:1 2:-1.3362327 3:-1.2400703 
-1 0:0 1:1 2:-1.3362327 3:-1.0178116 
1 0:0 1:1 2:-1.3362327 3:-1.0202149 
-1 0:0 1:1 2:-1.3362327 3:-1.0178116 
1 0:1.7928429 1:1 2:-1.3362327 3:-1.240575 
1 0:-0.5976143 1:1 2:-1.3362327 3:-1.2395657 
1 0:-1.1952286 1:1 2:-1.3362327 3:-1.2395657 
1 0:0 1:1 2:-1.3362327 3:-1.2395657 
1 0:1.7928429 1:1 2:-1.3362327 3:-1.240575 
1 0:0.5976143 1:1 2:-1.3362327 3:-1.2395753 
1 0:-0.5976143 1:1 2:-1.3362327 3:-1.2395657 
1 0:0 1:1 2:-1.3362327 3:-1.2395705 
1 0:0 1:1 2:-1.3362327 3:-1.2395657 
1 0:0 1:1 2:-1.3362327 3:-1.2396457 
1 0:0 1:1 2:-1.3362327 3:-1.2395705 
1 0:1.1952286 1:1 2:-1.3362327 3:-1.2397256 
1 0:0 1:1 2:-1.3362327 3:-1.2400703 
1 0:0 1:1 2:-1.3362327 3:-1.2396457 
1 0:0 1:1 2:-1.3362327 3:-1.0202149 
-1 0:0 1:1 2:-1.3362327 3:-1.0178116 
-1 0:0.5976143 1:1 2:-1.3362327 3:-1.0180837 
-1 0:0.5976143 1:1 2:-1.3362327 3:-1.0180837 
1 0:0 1:1 2:-1.3362327 3:-1.0202149 
-1 0:0 1:1 2:-1.3362327 3:-1.0178116 
-0.4359200949408003 0:-0.5976143 1:1 2:-1.3362327 3:-1.0177056 
1 0:0 1:1 2:-1.3362327 3:-1.0202149 
-0.002268142539118131 0:-1.7928429 1:1 2:-1.3362327 3:-1.0176858 
-1 0:0 1:1 2:-1.3362327 3:-1.0178116 
-1 0:0.5976143 1:1 2:-1.3362327 3:-1.0180837 
-1 0:0 1:1 2:-1.3362327 3:-1.0178116 
-1 0:0.5976143 1:1 2:-1.3362327 3:-1.0180837 
-1 0:-0.5976143 1:1 2:-1.3362327 3:-1.0177056 
1 0:0 1:1 2:-1.3362327 3:-1.0202149 
-1 0:-0.5976143 1:1 2:-1.3362327 3:-1.0177056 
-0.7553822529909398 0:0.5976143 1:1 2:-1.3362327 3:-1.0180837 
-0.8975876052309274 0:-1.7928429 1:1 2:-1.3362327 3:-1.0176858 
1 0:0 1:1 2:-1.3362327 3:-1.0202149 
-1 0:0 1:1 2:-1.3362327 3:-1.0178116 
1.602347572447177e-08 0:1.7928429 1:1 2:-1.3362327 3:-1.022744 
-1 0:-0.5976143 1:1 2:-1.3362327 3:-1.0177056 
-1 0:0 1:1 2:-1.3362327 3:-1.0178116 
1 0:0 1:1 2:-1.3362327 3:-1.0202149 
1 0:0 7:1 2:1.3496622 3:0.25217341 
1 0:0 7:1 2:1.3496622 3:0.33104187 
1 0:0 7:1 2:1.3496622 3:0.33104187 
1 0:0 7:1 2:1.3496622 3:0.25217341 
1 0:0 7:1 2:1.3496622 3:0.33104187 
1 0:0 7:1 2:1.3496622 3:0.25217341 
-1 0:0.5976143 7:1 2:1.3496622 3:0.21530229 
1 0:0 7:1 2:1.3496622 3:0.12237727 
-0.6198482205236588 0:1.1952286 7:1 2:1.3496622 3:-0.18345562 
-1 0:-1.1952286 7:1 2:1.3496622 3:-0.17840782 
-1 0:0 7:1 2:1.3496622 3:-0.17880582 
-1 0:0 7:1 2:1.3496622 3:0.22199138 
-1 0:0.5976143 7:1 2:1.3496622 3:-0.1791897 
-1 0:-0.5976143 7:1 2:1.3496622 3:-0.17842211 
1 0:0 7:1 2:1.3496622 3:-0.22007564 
-1 0:0 7:1 2:1.3496622 3:-0.17850593 
1 0:1.7928429 7:1 2:1.3496622 3:-0.72486448 
1 0:0 7:1 2:1.3496622 3:-0.69831643 
0.1229229501246096 0:1.7928429 6:1 2:-1.3362327 3:-1.1667559 
1 0:0 6:1 2:-1.3362327 3:-1.1639525 
-1 0:0 6:1 2:-1.3362327 3:-1.1611658 
1 0:0 6:1 2:-1.3362327 3:-1.1639525 
-1 0:0 6:1 2:-1.3362327 3:-1.1611658 
1 0:0 6:1 2:-1.3362327 3:-1.1639525 
-1 0:0 6:1 2:-1.3362327 3:-1.1611658 
1 0:0 6:1 2:-1.3362327 3:-1.1639525 
-1 0:0 6:1 2:-1.3362327 3:-1.1611658 
0.3218775329392397 0:1.7928429 6:1 2:-1.3362327 3:-1.1667559 
1 0:0 6:1 2:-1.3362327 3:-1.1639525 
1 0:1.7928429 6:1 2:-1.3362327 3:-1.1667559 
1 0:0 6:1 2:-1.3362327 3:-1.1639525 
-1 0:0 6:1 2:-1.3362327 3:-1.1611658 
-1 0:0 6:1 2:-1.3362327 3:-1.1611658 
1 0:0 7:1 2:1.3496622 3:-0.62907969 
-1 0:-0.5976143 7:1 2:1.3496622 3:0.6781946 
1 0:0 7:1 2:1.3496622 3:0.53963904 
-1 0:0.5976143 7:1 2:1.3496622 3:0.67445162 
-1 0:0 7:1 2:1.3496622 3:0.67632311 
-1 0:0 7:1 2:1.3496622 3:0.6779374 
-1 0:0.5976143 7:1 2:1.3496622 3:0.67445162 
-1 0:-0.5976143 7:1 2:1.3496622 3:0.6781946 
1 0:0 7:1 2:1.3496622 3:0.53963904 
-1 0:0 7:1 2:1.3496622 3:0.6779374 
-1 0:0 7:1 2:1.3496622 3:0.67632311 
-1 0:1.1952286 7:1 2:1.3496622 3:0.070324949 
-1 0:0.5976143 7:1 2:1.3496622 3:0.078487709 
1 0:0 7:1 2:1.3496622 3:0.04765867 
-1 0:0 7:1 2:1.3496622 3:0.079732057 
-1 0:-0.5976143 7:1 2:1.3496622 3:0.07994761 
-1 0:-1.1952286 7:1 2:1.3496622 3:0.079996401 
-1 0:0 7:1 2:1.3496622 3:0.079217659 
1 0:1.7928429 7:1 2:1.3496622 3:-0.66229349 
-1 0:0.5976143 7:1 2:1.3496622 3:-0.60062818 
-1 0:-0.5976143 7:1 2:1.3496622 3:-0.59596235 
-0.1300589885110053 0:0 7:1 2:1.3496622 3:-0.59829526 
-1 0:0 7:1 2:1.3496622 3:-0.59661963 
-1 0:-0.5976143 7:1 2:1.3496622 3:1.2165403 
1 0:0 7:1 2:1.3496622 3:1.0612817 
-0.402704747283955 0:0 7:1 2:1.3496622 3:1.2001688 
-0.2419595895295495 0:-1.7928429 7:1 2:1.3496622 3:1.2168881 
-1 0:0 7:1 2:1.3496622 3:1.2001688 
-1 0:0 7:1 2:1.3496622 3:1.2148888 
1 0:0 7:1 2:1.3496622 3:0.6635853 
-1 0:0 7:1 2:1.3496622 3:0.90940298 
-0.186049273716018 0:-0.5976143 7:1 2:1.3496622 3:0.67004334 
1 0:0 7:1 2:1.3496622 3:0.63505956 
-0.6174836347508764 0:0.5976143 7:1 2:1.3496622 3:1.1837969 
-1 0:-1.7928429 7:1 2:1.3496622 3:1.2168881 
1 0:0 7:1 2:1.3496622 3:0.84938568 
-1 0:0 7:1 2:1.3496622 3:1.2148888 
-0.6027960956934397 0:0.5976143 7:1 2:1.3496622 3:1.1837969 
-1 0:-0.5976143 7:1 2:1.3496622 3:1.2165403 
1 0:0 7:1 2:1.3496622 3:0.84938568 
1 0:0 7:1 2:1.3496622 3:1.0612817 
1 0:0 7:1 2:1.3496622 3:0.82808224 
1 0:0 7:1 2:1.3496622 3:0.5117014 
-1 0:0 7:1 2:1.3496622 3:0.66829121 
-1 0:-0.5976143 7:1 2:1.3496622 3:0.38152225 
1 0:0 7:1 2:1.3496622 3:0.31472733 
-1 0:-0.5976143 7:1 2:1.3496622 3:-0.041226964 
1 0:0 7:1 2:1.3496622 3:-0.085354729 
1 0:0 4:1 2:1.3496622 3:-0.60760392 
-1 0:1.1952286 4:1 2:1.3496622 3:-0.77155526 
-1 0:0.5976143 4:1 2:1.3496622 3:-0.76996171 
1 0:0 4:1 2:1.3496622 3:-0.62907969 
-1 0:-0.5976143 4:1 2:1.3496622 3:-0.76955247 
-1 0:0 4:1 2:1.3496622 3:-0.77055112 
-1 0:-1.1952286 4:1 2:1.3496622 3:-0.76954698 
-1 0:-1.7928429 4:1 2:1.3496622 3:-0.76954698 
-1 0:0 4:1 2:1.3496622 3:-0.76975705 
-1 0:0 4:1 2:1.3496622 3:-0.76962662 
1 0:1.7928429 4:1 2:1.3496622 3:-1.2005234 
0.7686715696730011 0:1.1952286 4:1 2:1.3496622 3:-1.1939272 
1 0:0 4:1 2:1.3496622 3:-1.1956793 
0.3987267468971875 0:0 4:1 2:1.3496622 3:-1.1923811 
1 0:0 4:1 2:1.3496622 3:-0.62907969 
-1 0:-0.5976143 4:1 2:1.3496622 3:-0.76955247 
-1 0:-1.1952286 4:1 2:1.3496622 3:-0.76954698 
-1 0:0 4:1 2:1.3496622 3:-0.77055112 
-1 0:0 4:1 2:1.3496622 3:-0.76975705 
0.9400751303067977 0:1.1952286 4:1 2:1.3496622 3:-1.1939272 
1 0:0 4:1 2:1.3496622 3:-1.1956793 
0.5587180286036908 0:0 4:1 2:1.3496622 3:-1.1923811 
1 0:0 4:1 2:1.3496622 3:-0.60760392 
-1 0:1.1952286 4:1 2:1.3496622 3:-0.77155526 
-1 0:0.5976143 4:1 2:1.3496622 3:-0.76996171 
-1 0:-1.7928429 4:1 2:1.3496622 3:-0.76954698 
-1 0:0 4:1 2:1.3496622 3:-0.76962662 
1 0:1.7928429 4:1 2:1.3496622 3:-1.2005234 
0.1102738726124044 0:-1.7928429 4:1 2:1.3496622 3:-1.1908351 
-1 0:-0.5976143 8:1 2:1.3496622 3:0.07994761 
1 0:0 8:1 2:1.3496622 3:0.04765867 
1 0:1.7928429 8:1 2:1.3496622 3:-0.66229349 
-0.03160046276055421 0:0 8:1 2:1.3496622 3:0.079217659 
-1 0:0 8:1 2:1.3496622 3:0.079732057 
1 0:0 8:1 2:1.3496622 3:-0.60760392 
1 0:0 8:1 2:1.3496622 3:-0.62907969 
-0.202847596795597 0:-1.7928429 8:1 2:1.3496622 3:-0.074295517 
1 0:0 8:1 2:1.3496622 3:0.33104187 
-1 0:0.5976143 8:1 2:1.3496622 3:0.67445162 
-0.9039835597995191 0:-1.7928429 8:1 2:1.3496622 3:0.67820993 
-1 0:0 8:1 2:1.3496622 3:0.67632311 
-1 0:0 8:1 2:1.3496622 3:0.6779374 
1 0:0 8:1 2:1.3496622 3:0.25217341 
-1 0:-0.5976143 8:1 2:1.3496622 3:0.6781946 
-1 0:-1.1952286 8:1 2:1.3496622 3:0.67820993 
1 0:0 8:1 2:1.3496622 3:0.53963904 
-1 0:1.1952286 8:1 2:1.3496622 3:-0.07481462 
-1 0:-1.1952286 8:1 2:1.3496622 3:-0.074295517 
-1 0:0 8:1 2:1.3496622 3:-0.07431695 
-1 0:1.1952286 8:1 2:1.3496622 3:-0.07481462 
-1 0:0.5976143 8:1 2:1.3496622 3:-0.074338384 
-1 0:0 8:1 2:1.3496622 3:-0.07431695 
-1 0:0.5976143 8:1 2:1.3496622 3:-0.074338384 
-1 0:-0.5976143 8:1 2:1.3496622 3:-0.074295517 
1 0:0 8:1 2:1.3496622 3:-0.077646424 
-1 0:0 8:1 2:1.3496622 3:-0.074300745 
-1 0:-0.5976143 8:1 2:1.3496622 3:-0.074295517 
-1 0:-1.1952286 8:1 2:1.3496622 3:-0.074295517 
-1 0:0 8:1 2:1.3496622 3:-0.074300745 
1 0:0 8:1 2:1.3496622 3:-0.077646424 
1 0:1.7928429 6:1 2:-1.3362327 3:-1.1667559 
1 0:0 6:1 2:-1.3362327 3:-1.1639525 
-1 0:0 6:1 2:-1.3362327 3:-1.1611658 
1 0:0 6:1 2:-1.3362327 3:-1.1639525 
-1 0:0 6:1 2:-1.3362327 3:-1.1611658 
1 0:1.7928429 6:1 2:-1.3362327 3:-1.1667559 
1 0:1.7928429 6:1 2:-1.3362327 3:-1.1667559 
1 0:0 6:1 2:-1.3362327 3:-1.1639525 
1 0:1.7928429 6:1 2:-1.3362327 3:-1.1667559 
-0.009540627252188821 0:0 6:1 2:-1.3362327 3:-1.1611658 
1 0:0 6:1 2:-1.3362327 3:-1.1639525 
1 0:1.7928429 6:1 2:-1.3362327 3:-1.1667559 
1 0:0 6:1 2:-1.3362327 3:-1.1639525 
-1 0:0.5976143 7:1 2:-1.3362327 3:-1.1612656 
-0.02666194743361195 0:-0.5976143 7:1 2:-1.3362327 3:-1.1611535 
1 0:0 7:1 2:-1.3362327 3:-1.1639525 
-1 0:0 7:1 2:-1.3362327 3:-1.1611658 
1 0:1.7928429 7:1 2:-1.3362327 3:-1.1667559 
0.1513417600333823 0:1.7928429 7:1 2:-1.3362327 3:-1.1667559 
-1 0:0 7:1 2:-1.3362327 3:-1.1611658 
-1 0:0.5976143 7:1 2:-1.3362327 3:-1.1612656 
1 0:0 7:1 2:-1.3362327 3:-1.1639525 
-1 0:0.5976143 7:1 2:-1.3362327 3:-1.1612656 
1 0:0 7:1 2:-1.3362327 3:-1.1639525 
-1 0:0 7:1 2:-1.3362327 3:-1.1611658 
-0.4979982294174522 0:0.5976143 7:1 2:-1.3362327 3:-1.1612656 
1 0:0 7:1 2:-1.3362327 3:-1.1639525 
-1 0:0 7:1 2:-1.3362327 3:-1.1611658 
-1 0:0 7:1 2:-1.3362327 3:-1.1611658 
1 0:0 7:1 2:-1.3362327 3:-1.1639525 
1 0:0 7:1 2:-1.3362327 3:-1.1639525 
0.7918425805744312 0:1.7928429 8:1 2:1.3496622 3:0.12259247 
1 0:0 8:1 2:1.3496622 3:0.11798659 
-1 0:1.1952286 8:1 2:1.3496622 3:-0.07481462 
1 0:0 8:1 2:1.3496622 3:0.25217341 
1 0:0 8:1 2:1.3496622 3:0.33104187 
1 0:0 8:1 2:1.3496622 3:0.1865453 
-1 0:-0.5976143 8:1 2:1.3496622 3:-0.074295517 
-1 0:-1.1952286 8:1 2:1.3496622 3:-0.074295517 
-1 0:0 8:1 2:1.3496622 3:-0.07431695 
-1 0:0.5976143 8:1 2:1.3496622 3:-0.074338384 
1 0:0 8:1 2:1.3496622 3:-0.077646424 
-1 0:0 8:1 2:1.3496622 3:-0.074300745 
-1 0:-0.5976143 8:1 2:1.3496622 3:-0.43547726 
-1 0:-1.7928429 8:1 2:1.3496622 3:-0.43534858 
1 0:0 8:1 2:1.3496622 3:-0.44113826 
-1 0:0 8:1 2:1.3496622 3:-0.43572531 
-0.9596767199977521 0:0.5976143 5:1 2:1.3496622 3:0.89500123 
-1 0:-0.5976143 5:1 2:1.3496622 3:0.91116417 
1 0:0 5:1 2:1.3496622 3:0.6635853 
1 0:0 5:1 2:1.3496622 3:0.82808224 
0.9753333894810625 0:1.7928429 5:1 2:1.3496622 3:0.41561942 
-1 0:-0.5976143 5:1 2:1.3496622 3:0.91116417 
-0.3894610192634073 0:-1.1952286 5:1 2:1.3496622 3:0.91145465 
1 0:0 5:1 2:1.3496622 3:0.82808224 
-1 0:0 5:1 2:1.3496622 3:0.67632311 
-1 0:0 5:1 2:1.3496622 3:0.6779374 
0.9948259570238847 0:1.7928429 5:1 2:1.3496622 3:0.41561942 
-1 0:-1.7928429 5:1 2:1.3496622 3:0.91155119 
-1 0:0 5:1 2:1.3496622 3:0.90940298 
-0.2224148756410957 0:0.5976143 5:1 2:1.3496622 3:0.89500123 
-1 0:-1.7928429 5:1 2:1.3496622 3:0.91155119 
1 0:0 5:1 2:1.3496622 3:0.6635853 
-1 0:0 5:1 2:1.3496622 3:0.90940298 
-1 0:0.5976143 5:1 2:1.3496622 3:0.67445162 
-1 0:-0.5976143 5:1 2:1.3496622 3:0.6781946 
1 0:0 5:1 2:1.3496622 3:0.53963904 
1 0:0 5:1 2:1.3496622 3:0.075160675 
-0.827866335519635 0:1.1952286 5:1 2:1.3496622 3:-0.07481462 
-1 0:0.5976143 5:1 2:1.3496622 3:-0.074338384 
-1 0:-0.5976143 5:1 2:1.3496622 3:0.07994761 
1 0:0 5:1 2:1.3496622 3:0.04765867 
-1 0:-0.5976143 5:1 2:1.3496622 3:-0.074295517 
-0.6592689618823442 0:-1.1952286 5:1 2:1.3496622 3:-0.074295517 
-1 0:0 5:1 2:1.3496622 3:-0.07431695 
1 0:0 5:1 2:1.3496622 3:-0.077646424 
-1 0:0 7:1 2:-1.3362327 3:-1.1611658 
1 0:0 7:1 2:-1.3362327 3:-1.1639525 
1 0:0 7:1 2:-1.3362327 3:-1.1639525 
1 0:1.7928429 7:1 2:-1.3362327 3:-1.240575 
1 0:0 7:1 2:-1.3362327 3:-1.2396457 
1 0:0 7:1 2:-1.3362327 3:-1.2395705 
-1 0:0 7:1 2:-1.3362327 3:-1.1611658 
1 0:1.1952286 7:1 2:-1.3362327 3:-1.2397256 
1 0:0.5976143 7:1 2:-1.3362327 3:-1.2395753 
1 0:0 7:1 2:-1.3362327 3:-1.2400703 
1 0:1.7928429 7:1 2:-1.3362327 3:-1.240575 
1 0:0 7:1 2:-1.3362327 3:-1.2400703 
1 0:0 7:1 2:-1.3362327 3:-1.2396457 
1 0:1.1952286 7:1 2:-1.3362327 3:-1.2397256 
1 0:0.5976143 7:1 2:-1.3362327 3:-1.2395753 
1 0:0 7:1 2:-1.3362327 3:-1.2395705 
1 0:0 7:1 2:-1.3362327 3:-1.1639525 
1 0:0 7:1 2:-1.3362327 3:-1.1639525 
-1 0:0 7:1 2:-1.3362327 3:-1.1611658 
0.9256956185577027 0:1.7928429 7:1 2:-1.3362327 3:-1.1667559 
-1 0:0 7:1 2:-1.3362327 3:-1.1611658 
1 0:0 7:1 2:-1.3362327 3:-1.1639525 
-1 0:0 7:1 2:-1.3362327 3:-1.1611658 
1 0:0 7:1 2:-1.3362327 3:-1.1639525 
1 0:1.7928429 7:1 2:-1.3362327 3:-1.1667559 
-1 0:0.5976143 7:1 2:-1.3362327 3:-1.1612656 
1 0:0 7:1 2:-1.3362327 3:-1.1639525 
-1 0:0 7:1 2:-1.3362327 3:-1.1611658 
1 0:1.7928429 7:1 2:-1.3362327 3:-1.1667559 
-1 0:0 7:1 2:-1.3362327 3:-1.1611658 
1 0:1.7928429 7:1 2:-1.3362327 3:-1.1667559 
-0.9339861206752883 0:0.5976143 7:1 2:-1.3362327 3:-1.1612656 
1 0:0 7:1 2:-1.3362327 3:-1.1639525 
1 0:0 4:1 2:-1.3362327 3:-1.2400703 
-8.441520331240561e-07 0:-1.7928429 4:1 2:-1.3362327 3:-1.2395657 
1 0:0 4:1 2:-1.3362327 3:-1.2400703 
-0.9641466288793658 0:0 4:1 2:-1.3362327 3:-1.2395657 
1 0:1.7928429 4:1 2:-1.3362327 3:-1.240575 
1 0:0 4:1 2:-1.3362327 3:-1.2400703 
1 0:1.7928429 4:1 2:-1.3362327 3:-1.240575 
-1 0:0 4:1 2:-1.3362327 3:-1.2395657 
-1 0:0 4:1 2:-1.3362327 3:-1.2395657 
1 0:0 4:1 2:-1.3362327 3:-1.2400703 
1 0:0 4:1 2:-1.3362327 3:-1.2400703 
-1 0:0 4:1 2:-1.3362327 3:-1.2395657 
1 0:1.7928429 4:1 2:-1.3362327 3:-1.240575 
1 0:1.7928429 4:1 2:-1.3362327 3:-1.240575 
-0.5814330135237303 0:-1.7928429 4:1 2:-1.3362327 3:-1.2395657 
1 0:0 4:1 2:-1.3362327 3:-1.2400703 
-0.4413596962992825 0:0 4:1 2:-1.3362327 3:-1.2395657 
1 0:1.7928429 4:1 2:-1.3362327 3:-1.240575 
-1 0:-1.7928429 4:1 2:-1.3362327 3:-1.2395657 
1 0:0 9:1 2:1.3496622 3:1.8258265 
-1 0:-1.1952286 9:1 2:1.3496622 3:1.9215718 
-0.102346046976318 0:-1.7928429 9:1 2:1.3496622 3:1.9215718 
1 0:0 9:1 2:1.3496622 3:1.8258265 
-0.8047184114605337 0:0 9:1 2:1.3496622 3:1.9207992 
-0.136228903929014 0:-1.7928429 9:1 2:1.3496622 3:1.9215718 
1 0:0 9:1 2:1.3496622 3:1.5408966 
-1 0:-0.5976143 9:1 2:1.3496622 3:1.9215718 
1 0:0 9:1 2:1.3496622 3:1.5408966 
-1 0:0 9:1 2:1.3496622 3:1.9215506 
-1 0:-0.5976143 9:1 2:1.3496622 3:1.9215718 
-1 0:-1.1952286 9:1 2:1.3496622 3:1.9215718 
-1 0:0 9:1 2:1.3496622 3:1.9207992 
-1 0:-0.5976143 1:1 2:1.3496622 3:2.1640067 
1 0:0 1:1 2:1.3496622 3:2.000449 
-1 0:0 1:1 2:1.3496622 3:2.1639373 
-0.7331893248783387 0:-0.5976143 1:1 2:1.3496622 3:2.1639373 
1 0:0 1:1 2:1.3496622 3:1.6686451 
1 0:0 1:1 2:1.3496622 3:2.0008163 
0.02657651360166137 0:1.7928429 1:1 2:1.3496622 3:1.1733525 
1 0:0 1:1 2:1.3496622 3:2.0008163 
1 0:0 1:1 2:1.3496622 3:1.668712 
-1 0:0 1:1 2:1.3496622 3:2.1640067 
-0.779690082850495 0:-0.5976143 1:1 2:1.3496622 3:2.1639373 
1 0:0 1:1 2:1.3496622 3:1.6686451 
1 0:0 1:1 2:1.3496622 3:2.0008163 
-1 0:0 1:1 2:1.3496622 3:2.1639373 
1 0:0 1:1 2:1.3496622 3:1.6686451 
-1 0:0 1:1 2:1.3496622 3:2.1639373 
0.06430466017408043 0:1.7928429 1:1 2:1.3496622 3:1.1733525 
-1 0:-0.5976143 1:1 2:1.3496622 3:2.1639373 
1 0:0 1:1 2:1.3496622 3:2.0008163 
-1 0:0 1:1 2:1.3496622 3:2.0268704 
-1 0:0.5976143 1:1 2:1.3496622 3:1.9341512 
-1 0:-0.5976143 1:1 2:1.3496622 3:1.9357258 
1 0:0 1:1 2:1.3496622 3:1.5448665 
1 0:0 1:1 2:1.3496622 3:1.6686451 
-1 0:0 1:1 2:1.3496622 3:2.1639373 
-1 0:-0.5976143 1:1 2:1.3496622 3:2.0268704 
1 0:0 1:1 2:1.3496622 3:1.5957413 
1 0:0 1:1 2:1.3496622 3:1.9029266 
1 0:0 1:1 2:1.3496622 3:1.8358039 
-1 0:0 1:1 2:1.3496622 3:1.9357251 
