svm_type epsilon_svr
kernel_type rbf
gamma 0.1
nr_class 2
total_sv 876
rho -3.64807
SV
-1 0:1 5:1 2:0 3:0.075402792 
-0.06503703028549319 0:0.83333333 5:1 2:0 3:0.075402792 
-0.06297871097218484 0:0.16666667 5:1 2:0 3:0.075402792 
-1 0:0 5:1 2:0 3:0.075402792 
-0.5181495913770509 0:0.5 5:1 2:0 3:0.075402792 
-1 0:0 5:1 2:0 3:0.075402792 
-1 0:1 5:1 2:0 3:0.075402792 
-1 0:1 5:1 2:0 3:0.075402792 
-1 0:0 5:1 2:0 3:0.075402792 
-0.001537528120243742 0:0.5 5:1 2:0 3:0.075402792 
-0.0002996530053251774 0:0.5 5:1 2:0 3:0.075402792 
-0.5382534189907654 0:0.5 5:1 2:0 3:0.075402792 
-0.035497611989356 0:0.5 5:1 2:0 3:0.075402792 
-1 0:1 5:1 2:0 3:0.075402792 
-1 0:0 5:1 2:0 3:0.075402792 
-1 0:1 5:1 2:0 3:0.075402792 
-1 0:0 5:1 2:0 3:0.075402792 
-1 0:1 5:1 2:0 3:0.075402792 
-1 0:0 5:1 2:0 3:0.075402792 
-0.001267150227926463 0:0.16666667 5:1 2:0 3:0.075402792 
-1 0:1 5:1 2:0 3:0.075402792 
1 0:0.33333333 6:1 2:1 3:0.23768376 
1 0:0.16666667 6:1 2:1 3:0.23768376 
1 0:0.5 6:1 2:1 3:0.23768376 
1 0:0.5 6:1 2:1 3:0.23768376 
-1 0:0.66666667 6:1 2:1 3:0.69774883 
-0.5333130141203499 0:0.33333333 6:1 2:1 3:0.69774883 
-1 0:1 6:1 2:1 3:0.36872346 
-1 0:0.83333333 6:1 2:1 3:0.36872346 
-1 0:0.16666667 6:1 2:1 3:0.36872346 
-1 0:0 6:1 2:1 3:0.36872346 
-1 0:0.66666667 6:1 2:1 3:0.42125753 
-1 0:0.33333333 6:1 2:1 3:0.42125753 
-1 0:0.5 6:1 2:1 3:0.42125753 
-1 0:0.5 6:1 2:1 3:0.42125753 
-1 0:1 7:1 2:1 3:0.38973826 
-0.9802177389076051 0:0.83333333 7:1 2:1 3:0.38973826 
-0.8762926979056888 0:0.16666667 7:1 2:1 3:0.38973826 
-1 0:0 7:1 2:1 3:0.38973826 
0.01756063655675776 0:0.16666667 7:1 2:1 3:0.715978 
1 0:0.5 7:1 2:1 3:0.715978 
1 0:0.5 7:1 2:1 3:0.715978 
-1 0:0.83333333 1:1 2:1 3:0.69087685 
-1 0:0.66666667 1:1 2:1 3:0.69087685 
-1 0:0.16666667 1:1 2:1 3:0.69087685 
-0.1117317675460927 0:0.5 1:1 2:1 3:0.69087685 
0.7403633972314261 0:0.5 4:1 2:1 3:0.98413386 
0.0360772545054021 0:0.5 4:1 2:1 3:0.98413386 
-0.4244576399201753 0:0.83333333 4:1 2:1 3:0.60426047 
-1 0:0 4:1 2:1 3:0.60426047 
-1 0:1 9:1 2:0.66 3:0.20163678 
-1 0:0.83333333 9:1 2:0.66 3:0.20163678 
-1 0:0.16666667 9:1 2:0.66 3:0.20163678 
-1 0:0 9:1 2:0.66 3:0.20163678 
-1 0:0.5 9:1 2:0.66 3:0.20163678 
0.2865081130736825 0:0.5 6:1 2:0.66 3:0.5887159 
1 0:0.33333333 6:1 2:0.66 3:0.22287664 
0.9523244317870322 0:0.16666667 6:1 2:0.66 3:0.22287664 
1 0:0.5 6:1 2:0.66 3:0.22287664 
1 0:0.5 6:1 2:0.66 3:0.22287664 
1 0:0.5 6:1 2:0.66 3:0.22287664 
1 0:0.66666667 9:1 2:0.66 3:0.16882353 
1 0:0.33333333 9:1 2:0.66 3:0.16882353 
1 0:0.5 9:1 2:0.66 3:0.16882353 
1 0:0.5 9:1 2:0.66 3:0.16882353 
-0.003898070981317692 0:1 9:1 2:0.66 3:0.092984035 
-0.1502953241503595 0:0 9:1 2:0.66 3:0.092984035 
1 0:0.66666667 6:1 2:0.66 3:0.76673234 
1 0:0.33333333 6:1 2:0.66 3:0.76673234 
1 0:0.5 6:1 2:0.66 3:0.76673234 
1 0:0.5 6:1 2:0.66 3:0.76673234 
0.8807489585749118 0:0.5 8:1 2:0.66 3:0.87101654 
0.01128774885412826 0:0.5 8:1 2:0.66 3:0.87101654 
1 0:0.83333333 8:1 2:0.66 3:0.80486216 
1 0:0.66666667 8:1 2:0.66 3:0.80486216 
1 0:0.33333333 8:1 2:0.66 3:0.80486216 
1 0:0.16666667 8:1 2:0.66 3:0.80486216 
1 0:0 8:1 2:0.66 3:0.80486216 
1 0:0.5 8:1 2:0.66 3:0.80486216 
1 0:0.5 8:1 2:0.66 3:0.80486216 
0.7471310003372086 0:0 1:1 2:0.66 3:0.98664368 
1 0:1 1:1 2:0.66 3:0.9729813 
1 0:0.83333333 1:1 2:0.66 3:0.9729813 
1 0:0.16666667 1:1 2:0.66 3:0.9729813 
1 0:0 1:1 2:0.66 3:0.9729813 
0.8449214927633041 0:0.5 1:1 2:0.66 3:0.9729813 
1 0:0.33333333 1:1 2:0.66 3:0.94634357 
1 0:0.16666667 1:1 2:0.66 3:0.94634357 
1 0:0.5 1:1 2:0.66 3:0.94634357 
1 0:0.5 1:1 2:0.66 3:0.94634357 
1 0:0.83333333 1:1 2:0.66 3:0.94634357 
1 0:0.66666667 1:1 2:0.66 3:0.94634357 
1 0:0.5 1:1 2:0.66 3:0.94634357 
1 0:0.5 1:1 2:0.66 3:0.94634357 
0.02459015026904669 0:1 4:1 2:0.66 3:0.89303052 
1 0:0.83333333 4:1 2:0.66 3:0.89303052 
1.406136946173917e-07 0:0 4:1 2:0.66 3:0.89303052 
1 0:0.5 4:1 2:0.66 3:0.89303052 
1 0:0.5 4:1 2:0.66 3:0.89303052 
1 0:0.5 4:1 2:0.66 3:0.89303052 
1 0:0.66666667 5:1 2:0.66 3:0.99219551 
1 0:0.33333333 5:1 2:0.66 3:0.99219551 
0.9973771871595787 0:0.5 5:1 2:0.66 3:0.99219551 
0.9869740147536921 0:0.5 5:1 2:0.66 3:0.99219551 
-1 0:1 5:1 2:0.66 3:0.76757765 
-0.2885936493998575 0:0.33333333 5:1 2:0.66 3:0.76757765 
-0.9270379226802687 0:0.16666667 5:1 2:0.66 3:0.76757765 
-1 0:0.5 5:1 2:0.66 3:0.76757765 
-1 0:0.5 5:1 2:0.66 3:0.76757765 
-1 0:0.5 5:1 2:0.66 3:0.76757765 
-1 0:1 6:1 2:0.33 3:0.34770737 
-1 0:0.83333333 6:1 2:0.33 3:0.34770737 
-1 0:0.16666667 6:1 2:0.33 3:0.34770737 
-1 0:0 6:1 2:0.33 3:0.34770737 
-1 0:0.5 6:1 2:0.33 3:0.34770737 
-1 0:0.5 6:1 2:0.33 3:0.34770737 
-1 0:0.66666667 6:1 2:0.33 3:0.28381882 
-1 0:0.33333333 6:1 2:0.33 3:0.28381882 
-1 0:0.5 6:1 2:0.33 3:0.28381882 
-1 0:0.5 6:1 2:0.33 3:0.28381882 
-1 0:1 6:1 2:0.33 3:0.28050821 
-1 0:0.83333333 6:1 2:0.33 3:0.28050821 
-1 0:0.16666667 6:1 2:0.33 3:0.28050821 
-1 0:0 6:1 2:0.33 3:0.28050821 
-1 0:0.5 6:1 2:0.33 3:0.28050821 
-1 0:0.5 6:1 2:0.33 3:0.28050821 
-1 0:0.5 6:1 2:0.33 3:0.28050821 
-1 0:0.33333333 7:1 2:0.33 3:0.28321716 
-1 0:0.16666667 7:1 2:0.33 3:0.28321716 
-1 0:0.5 7:1 2:0.33 3:0.28321716 
1 0:1 8:1 2:0.33 3:0.70506513 
1 0:0.16666667 8:1 2:0.33 3:0.70506513 
1 0:0 8:1 2:0.33 3:0.70506513 
1 0:0.5 8:1 2:0.33 3:0.70506513 
1 0:0.5 8:1 2:0.33 3:0.70506513 
-0.01473041157958711 0:0.83333333 8:1 2:0.33 3:0.55244176 
-1 0:0 8:1 2:0.33 3:0.55244176 
-1 0:1 8:1 2:0.33 3:0.43833734 
-1 0:0.83333333 8:1 2:0.33 3:0.43833734 
-1 0:0.16666667 8:1 2:0.33 3:0.43833734 
-1 0:0 8:1 2:0.33 3:0.43833734 
-1 0:0.5 8:1 2:0.33 3:0.43833734 
-1 0:0.5 8:1 2:0.33 3:0.43833734 
-1 0:1 8:1 2:0.33 3:0.55244176 
-1 0:0 5:1 2:0 3:0.075402792 
1 0:1 6:1 2:1 3:0.80506708 
1 0:0.83333333 6:1 2:1 3:0.80506708 
1 0:0.66666667 6:1 2:1 3:0.80506708 
1 0:0.33333333 6:1 2:1 3:0.80506708 
1 0:0.16666667 6:1 2:1 3:0.80506708 
1 0:0 6:1 2:1 3:0.80506708 
1 0:0.5 6:1 2:1 3:0.80506708 
1 0:0.5 6:1 2:1 3:0.80506708 
1 0:0.5 6:1 2:1 3:0.80506708 
1 0:0.5 6:1 2:1 3:0.80506708 
1 0:1 6:1 2:1 3:0.23768376 
1 0:0.83333333 6:1 2:1 3:0.23768376 
1 0:0.66666667 6:1 2:1 3:0.23768376 
1 0:0 6:1 2:1 3:0.23768376 
1 0:0.5 6:1 2:1 3:0.23768376 
-1 0:1 6:1 2:1 3:0.69774883 
-1 0:0.83333333 6:1 2:1 3:0.69774883 
-1 0:0.16666667 6:1 2:1 3:0.69774883 
-1 0:0 6:1 2:1 3:0.69774883 
-1 0:0.66666667 6:1 2:1 3:0.36872346 
-1 0:0.33333333 6:1 2:1 3:0.36872346 
-1 0:0.5 6:1 2:1 3:0.36872346 
-1 0:0.5 6:1 2:1 3:0.36872346 
-1 0:0.5 6:1 2:1 3:0.36872346 
-1 0:1 6:1 2:1 3:0.42125753 
-1 0:0.83333333 6:1 2:1 3:0.42125753 
-1 0:0.16666667 6:1 2:1 3:0.42125753 
-1 0:0 6:1 2:1 3:0.42125753 
-1 0:0.5 6:1 2:1 3:0.42125753 
1 0:0.66666667 7:1 2:1 3:0.715978 
1 0:0.33333333 7:1 2:1 3:0.715978 
1 0:0.5 7:1 2:1 3:0.715978 
1 0:0.5 7:1 2:1 3:0.715978 
-1 0:1 1:1 2:1 3:0.69087685 
-1 0:0.33333333 1:1 2:1 3:0.69087685 
-1 0:0 1:1 2:1 3:0.69087685 
-0.0001660992679094203 0:0.5 1:1 2:1 3:0.69087685 
-1 0:1 4:1 2:1 3:0.60426047 
-0.4244717716341138 0:0.16666667 4:1 2:1 3:0.60426047 
-1 0:0.66666667 9:1 2:0.66 3:0.20163678 
-1 0:0.33333333 9:1 2:0.66 3:0.20163678 
-1 0:0.5 9:1 2:0.66 3:0.20163678 
-1 0:0.5 9:1 2:0.66 3:0.20163678 
-1 0:0.5 9:1 2:0.66 3:0.20163678 
1 0:0.5 6:1 2:0.66 3:0.5887159 
1 0:0.5 6:1 2:0.66 3:0.5887159 
0.9999992755024268 0:0.83333333 6:1 2:0.66 3:0.22287664 
1 0:0.66666667 6:1 2:0.66 3:0.22287664 
1 0:0.5 6:1 2:0.66 3:0.22287664 
1 0:0.83333333 9:1 2:0.66 3:0.16882353 
1 0:0.16666667 9:1 2:0.66 3:0.16882353 
1 0:0.5 9:1 2:0.66 3:0.16882353 
1 0:0.5 9:1 2:0.66 3:0.16882353 
1 0:1 6:1 2:0.66 3:0.76673234 
1 0:0.83333333 6:1 2:0.66 3:0.76673234 
1 0:0.16666667 6:1 2:0.66 3:0.76673234 
1 0:0 6:1 2:0.66 3:0.76673234 
1 0:0.5 6:1 2:0.66 3:0.76673234 
1 0:0.5 6:1 2:0.66 3:0.76673234 
1 0:1 8:1 2:0.66 3:0.80486216 
1 0:0.5 8:1 2:0.66 3:0.80486216 
1 0:0.5 8:1 2:0.66 3:0.80486216 
1 0:1 1:1 2:0.66 3:0.98664368 
1 0:0.66666667 1:1 2:0.66 3:0.9729813 
1 0:0.33333333 1:1 2:0.66 3:0.9729813 
1 0:0.83333333 1:1 2:0.66 3:0.94634357 
1 0:0.66666667 1:1 2:0.66 3:0.94634357 
1 0:0.5 1:1 2:0.66 3:0.94634357 
1 0:0.5 1:1 2:0.66 3:0.94634357 
1 0:0.33333333 1:1 2:0.66 3:0.94634357 
1 0:0.16666667 1:1 2:0.66 3:0.94634357 
1 0:0.5 1:1 2:0.66 3:0.94634357 
1 0:0.5 1:1 2:0.66 3:0.94634357 
1 0:0.66666667 4:1 2:0.66 3:0.89303052 
1 0:0.33333333 4:1 2:0.66 3:0.89303052 
1 0:0.16666667 4:1 2:0.66 3:0.89303052 
1 0:0.5 4:1 2:0.66 3:0.89303052 
1 0:1 5:1 2:0.66 3:0.99219551 
1 0:0.83333333 5:1 2:0.66 3:0.99219551 
1 0:0.16666667 5:1 2:0.66 3:0.99219551 
1 0:0 5:1 2:0.66 3:0.99219551 
1 0:0.5 5:1 2:0.66 3:0.99219551 
0.78314515802603 0:0.5 5:1 2:0.66 3:0.99219551 
-0.9359925177895935 0:0.83333333 5:1 2:0.66 3:0.76757765 
-0.5023320734074116 0:0.66666667 5:1 2:0.66 3:0.76757765 
-1 0:0 5:1 2:0.66 3:0.76757765 
-1 0:0.5 5:1 2:0.66 3:0.76757765 
-1 0:0.66666667 6:1 2:0.33 3:0.34770737 
-1 0:0.33333333 6:1 2:0.33 3:0.34770737 
-1 0:0.5 6:1 2:0.33 3:0.34770737 
-1 0:0.5 6:1 2:0.33 3:0.34770737 
-1 0:1 6:1 2:0.33 3:0.28381882 
-1 0:0.83333333 6:1 2:0.33 3:0.28381882 
-1 0:0.16666667 6:1 2:0.33 3:0.28381882 
-1 0:0 6:1 2:0.33 3:0.28381882 
-1 0:0.5 6:1 2:0.33 3:0.28381882 
-1 0:0.5 6:1 2:0.33 3:0.28381882 
-1 0:0.66666667 6:1 2:0.33 3:0.28050821 
-1 0:0.33333333 6:1 2:0.33 3:0.28050821 
-1 0:0.5 6:1 2:0.33 3:0.28050821 
-1 0:1 7:1 2:0.33 3:0.28321716 
-1 0:0.83333333 7:1 2:0.33 3:0.28321716 
-1 0:0.66666667 7:1 2:0.33 3:0.28321716 
-1 0:0 7:1 2:0.33 3:0.28321716 
-1 0:0.5 7:1 2:0.33 3:0.28321716 
-1 0:0.5 7:1 2:0.33 3:0.28321716 
-1 0:0.5 7:1 2:0.33 3:0.28321716 
1 0:0.66666667 8:1 2:0.33 3:0.70506513 
1 0:0.33333333 8:1 2:0.33 3:0.70506513 
1 0:0.5 8:1 2:0.33 3:0.70506513 
1 0:0.5 8:1 2:0.33 3:0.70506513 
-1 0:1 8:1 2:0.33 3:0.55244176 
-0.2689065646911726 0:0.16666667 8:1 2:0.33 3:0.55244176 
-1 0:0.66666667 8:1 2:0.33 3:0.43833734 
-1 0:0.33333333 8:1 2:0.33 3:0.43833734 
-1 0:0.5 8:1 2:0.33 3:0.43833734 
-1 0:0.5 8:1 2:0.33 3:0.43833734 
-0.0002671405294860266 0:0.83333333 8:1 2:0.33 3:0.55244176 
-2.861931329632068e-05 0:0.16666667 8:1 2:0.33 3:0.55244176 
-1 0:0 8:1 2:0.33 3:0.55244176 
-1 0:1 8:1 2:0.33 3:0.43833734 
-1 0:0.83333333 8:1 2:0.33 3:0.43833734 
-1 0:0.66666667 8:1 2:0.33 3:0.43833734 
-1 0:0.33333333 8:1 2:0.33 3:0.43833734 
-1 0:0.16666667 8:1 2:0.33 3:0.43833734 
-1 0:0 8:1 2:0.33 3:0.43833734 
-1 0:0.5 8:1 2:0.33 3:0.43833734 
-1 0:0.5 8:1 2:0.33 3:0.43833734 
-1 0:0.5 8:1 2:0.33 3:0.43833734 
-1 0:0.5 8:1 2:0.33 3:0.43833734 
-1 0:1 8:1 2:0.33 3:0.28050821 
-1 0:0.83333333 8:1 2:0.33 3:0.28050821 
-1 0:0.66666667 8:1 2:0.33 3:0.28050821 
-1 0:0.33333333 8:1 2:0.33 3:0.28050821 
-1 0:0.16666667 8:1 2:0.33 3:0.28050821 
-1 0:0 8:1 2:0.33 3:0.28050821 
-1 0:0.5 8:1 2:0.33 3:0.28050821 
-1 0:0.5 8:1 2:0.33 3:0.28050821 
-1 0:0.5 8:1 2:0.33 3:0.28050821 
-1 0:0.5 8:1 2:0.33 3:0.28050821 
-1 0:1 1:1 2:0.33 3:0.57450415 
-1 0:0.83333333 1:1 2:0.33 3:0.57450415 
-1 0:0.66666667 1:1 2:0.33 3:0.57450415 
-1 0:0.33333333 1:1 2:0.33 3:0.57450415 
-1 0:0.16666667 1:1 2:0.33 3:0.57450415 
-1 0:0 1:1 2:0.33 3:0.57450415 
-1 0:0.5 1:1 2:0.33 3:0.57450415 
-1 0:0.5 1:1 2:0.33 3:0.57450415 
-1 0:0.5 1:1 2:0.33 3:0.57450415 
-1 0:0.5 1:1 2:0.33 3:0.57450415 
-1 0:1 1:1 2:0.33 3:0.57450415 
-1 0:0.33333333 1:1 2:0.33 3:0.57450415 
-1 0:0.16666667 1:1 2:0.33 3:0.57450415 
-1 0:0 1:1 2:0.33 3:0.57450415 
-1 0:0.5 1:1 2:0.33 3:0.57450415 
-1 0:0.5 1:1 2:0.33 3:0.57450415 
-1 0:0.66666667 1:1 2:0.33 3:0.47803132 
-1 0:0.33333333 1:1 2:0.33 3:0.47803132 
-1 0:0.5 1:1 2:0.33 3:0.47803132 
-1 0:0.5 1:1 2:0.33 3:0.47803132 
-1 0:0.5 1:1 2:0.33 3:0.47803132 
-1 0:1 4:1 2:0.33 3:0.41601612 
-1 0:0.83333333 4:1 2:0.33 3:0.41601612 
-1 0:0.16666667 4:1 2:0.33 3:0.41601612 
-1 0:0 4:1 2:0.33 3:0.41601612 
-1 0:0.5 4:1 2:0.33 3:0.41601612 
-1 0:0.5 4:1 2:0.33 3:0.41601612 
-0.4444814431151108 0:0.16666667 4:1 2:0.33 3:0.33505394 
0.03160610265053598 0:0.83333333 6:1 2:0 3:0 
0.2559542717014382 0:0.16666667 6:1 2:0 3:0 
-0.9860970499389071 0:1 1:1 2:0 3:0.075402792 
0.3062523670904999 0:0.5 7:1 2:0 3:0 
1 0:0.5 5:1 2:0 3:0 
1 0:0.66666667 5:1 2:0 3:0 
1 0:0.33333333 5:1 2:0 3:0 
1 0:0.16666667 5:1 2:0 3:0 
1 0:0.5 5:1 2:0 3:0 
1 0:0.5 5:1 2:0 3:0 
1 0:0.83333333 5:1 2:0 3:0 
1 0:0.66666667 5:1 2:0 3:0 
1 0:0 5:1 2:0 3:0 
1 0:0.5 5:1 2:0 3:0 
1 0:0.5 6:1 2:1 3:0.23768376 
-1 0:0.5 6:1 2:1 3:0.42125753 
0.06711582856355314 0:0.33333333 8:1 2:0 3:0 
-1 0:0.83333333 1:1 2:0.33 3:0.57450415 
-1 0:0.66666667 1:1 2:0.33 3:0.57450415 
-1 0:0.5 1:1 2:0.33 3:0.57450415 
-1 0:0.5 1:1 2:0.33 3:0.57450415 
-1 0:1 1:1 2:0.33 3:0.47803132 
-1 0:0.83333333 1:1 2:0.33 3:0.47803132 
-1 0:0.16666667 1:1 2:0.33 3:0.47803132 
-1 0:0 1:1 2:0.33 3:0.47803132 
-1 0:0.5 1:1 2:0.33 3:0.47803132 
-1 0:0.66666667 4:1 2:0.33 3:0.41601612 
-1 0:0.33333333 4:1 2:0.33 3:0.41601612 
-1 0:0.5 4:1 2:0.33 3:0.41601612 
-1 0:0.5 4:1 2:0.33 3:0.41601612 
-1 0:1 4:1 2:0.33 3:0.33505394 
-0.4445241937404859 0:0.83333333 4:1 2:0.33 3:0.33505394 
-1 0:0 4:1 2:0.33 3:0.33505394 
1 0:1 5:1 2:0 3:0 
0.002790000869290079 0:0.66666667 6:1 2:0 3:0 
0.7360384763681626 0:0.33333333 6:1 2:0 3:0 
0.9709537707578569 0:0.33333333 6:1 2:0 3:0 
0.6980251777169892 0:0.66666667 6:1 2:0 3:0 
0.02309448743832746 0:0.83333333 6:1 2:0 3:0 
0.02943239048333613 0:0.16666667 6:1 2:0 3:0 
1 0:0.83333333 8:1 2:0.33 3:0.70506513 
-1 0:0.5 6:1 2:1 3:0.36872346 
0.8501092275003674 0:0.5 7:1 2:0 3:0 
1 0:0.5 7:1 2:0 3:0 
1 0:0.5 7:1 2:0 3:0 
1 0:0.33333333 6:1 2:0 3:0 
1 0:0.66666667 6:1 2:0 3:0 
1 0:0.66666667 6:1 2:0 3:0 
1 0:0.33333333 6:1 2:0 3:0 
1 0:0.66666667 6:1 2:0 3:0 
1 0:0.33333333 6:1 2:0 3:0 
1 0:0.66666667 6:1 2:0 3:0 
1 0:0.66666667 6:1 2:0 3:0 
1 0:0.33333333 6:1 2:0 3:0 
0.002693845418687582 0:0.5 9:1 2:0 3:0 
1.607937010505477e-06 0:0.5 7:1 2:0 3:0 
1 0:0.83333333 5:1 2:0 3:0 
1 0:0 5:1 2:0 3:0 
1 0:0.5 5:1 2:0 3:0 
1 0:0.5 5:1 2:0 3:0 
1 0:1 5:1 2:0 3:0 
1 0:0.33333333 5:1 2:0 3:0 
1 0:0.16666667 5:1 2:0 3:0 
1 0:0.5 5:1 2:0 3:0 
1 0:0.5 5:1 2:0 3:0 
2.294468036397807e-06 0:0.33333333 8:1 2:0 3:0 
0.9605994718565614 0:0.66666667 8:1 2:0 3:0 
0.9730063490902118 0:0.33333333 8:1 2:0 3:0 
1 0:0.66666667 8:1 2:0 3:0 
1 0:0.33333333 8:1 2:0 3:0 
1 0:0.33333333 8:1 2:0 3:0 
1 0:0.66666667 8:1 2:0 3:0 
1 0:0.33333333 8:1 2:0 3:0 
-0.9890262111768343 0:0 1:1 2:0 3:0.075402792 
-0.8918316254371849 0:1 1:1 2:0 3:0.075402792 
-0.6888423887709348 0:0 1:1 2:0 3:0.075402792 
1 0:0.66666667 1:1 2:0 3:0 
1 0:0.33333333 1:1 2:0 3:0 
1 0:0.16666667 1:1 2:0 3:0 
1 0:0 1:1 2:0 3:0 
1 0:0.5 1:1 2:0 3:0 
1 0:0.5 1:1 2:0 3:0 
1 0:0.33333333 1:1 2:0 3:0 
1 0:0.16666667 1:1 2:0 3:0 
1 0:0.5 1:1 2:0 3:0 
1 0:0.5 1:1 2:0 3:0 
1 0:0.66666667 8:1 2:0 3:0 
1 0:0.33333333 8:1 2:0 3:0 
1 0:0.66666667 8:1 2:0 3:0 
0.9992189939163957 0:0.33333333 8:1 2:0 3:0 
1 0:0.66666667 8:1 2:0 3:0 
1 0:0.33333333 8:1 2:0 3:0 
1 0:0.66666667 8:1 2:0 3:0 
1 0:0.66666667 8:1 2:0 3:0 
1 0:0.33333333 8:1 2:0 3:0 
1 0:1 1:1 2:0 3:0 
1 0:0.83333333 1:1 2:0 3:0 
1 0:0.5 1:1 2:0 3:0 
1 0:0.5 1:1 2:0 3:0 
1 0:1 1:1 2:0 3:0 
1 0:0.83333333 1:1 2:0 3:0 
1 0:0.66666667 1:1 2:0 3:0 
1 0:0 1:1 2:0 3:0 
1 0:0.5 1:1 2:0 3:0 
1 0:0.5 1:1 2:0 3:0 
1 0:0.33333333 4:1 2:0 3:0 
0.5835428025777321 0:0.66666667 4:1 2:0 3:0 
0.4703922697039657 0:0.33333333 4:1 2:0 3:0 
1 0:0.66666667 4:1 2:0 3:0 
1 0:0.33333333 4:1 2:0 3:0 
1 0:0.66666667 4:1 2:0 3:0 
-1 0:1 5:1 2:0 3:0.075402792 
-1 0:1 5:1 2:0 3:0.075402792 
-1 0:0 5:1 2:0 3:0.075402792 
-1 0:1 5:1 2:0 3:0.075402792 
-1 0:1 5:1 2:0 3:0.075402792 
-1 0:0 5:1 2:0 3:0.075402792 
-1 0:0 5:1 2:0 3:0.075402792 
1 0:0.66666667 6:1 2:1 3:0.80506708 
1 0:0.33333333 6:1 2:1 3:0.80506708 
1 0:0.5 6:1 2:1 3:0.80506708 
1 0:0.5 6:1 2:1 3:0.80506708 
1 0:0.33333333 6:1 2:1 3:0.23768376 
1 0:0.16666667 6:1 2:1 3:0.23768376 
1 0:0.5 6:1 2:1 3:0.23768376 
1 0:0.5 6:1 2:1 3:0.23768376 
-0.09088690001992744 0:0.66666667 6:1 2:1 3:0.69774883 
-0.5575898957936444 0:0.33333333 6:1 2:1 3:0.69774883 
-1 0:0.83333333 6:1 2:1 3:0.36872346 
-1 0:0.66666667 6:1 2:1 3:0.36872346 
-1 0:0.33333333 6:1 2:1 3:0.36872346 
-1 0:0.5 6:1 2:1 3:0.36872346 
-1 0:0.5 6:1 2:1 3:0.36872346 
-1 0:1 6:1 2:1 3:0.42125753 
-1 0:0.83333333 6:1 2:1 3:0.42125753 
-1 0:0.16666667 6:1 2:1 3:0.42125753 
-1 0:0 6:1 2:1 3:0.42125753 
-1 0:0.5 6:1 2:1 3:0.42125753 
-0.9979314425593827 0:0.16666667 7:1 2:1 3:0.38973826 
0.03786164777316266 0:0.83333333 7:1 2:1 3:0.715978 
1 0:0.66666667 7:1 2:1 3:0.715978 
1 0:0.5 7:1 2:1 3:0.715978 
1 0:0.5 7:1 2:1 3:0.715978 
-1 0:1 1:1 2:1 3:0.69087685 
-1 0:0.83333333 1:1 2:1 3:0.69087685 
-1 0:0.16666667 1:1 2:1 3:0.69087685 
-1 0:0 1:1 2:1 3:0.69087685 
-4.827014790587681e-06 0:0.5 1:1 2:1 3:0.69087685 
-0.5225497885041445 0:0.5 1:1 2:1 3:0.69087685 
0.3631393179211586 0:0.66666667 4:1 2:0 3:0 
0.9386880829194262 0:0.33333333 4:1 2:0 3:0 
1 0:0.66666667 4:1 2:0 3:0 
0.5375443591112274 0:0.33333333 4:1 2:0 3:0 
1 0:0.66666667 4:1 2:0 3:0 
0.6918005941505311 0:0.5 4:1 2:0 3:0 
1 0:0.5 4:1 2:0 3:0 
1 0:0.33333333 4:1 2:0 3:0 
1 0:0.5 4:1 2:0 3:0 
1 0:0.5 4:1 2:0 3:0 
-1 0:0 5:1 2:0 3:0.075402792 
-1 0:1 5:1 2:0 3:0.075402792 
-1 0:0 5:1 2:0 3:0.075402792 
-0.8903534879875781 0:0.5 5:1 2:0 3:0.075402792 
-1 0:0.5 5:1 2:0 3:0.075402792 
-1 0:0.5 5:1 2:0 3:0.075402792 
-1 0:0.5 5:1 2:0 3:0.075402792 
-1 0:0.5 5:1 2:0 3:0.075402792 
-1 0:0 5:1 2:0 3:0.075402792 
-1 0:0.5 5:1 2:0 3:0.075402792 
-1 0:0.5 5:1 2:0 3:0.075402792 
-1 0:0.5 5:1 2:0 3:0.075402792 
-1 0:0.5 5:1 2:0 3:0.075402792 
-1 0:0.5 5:1 2:0 3:0.075402792 
-1 0:1 5:1 2:0 3:0.075402792 
-1 0:0 5:1 2:0 3:0.075402792 
-1 0:0.5 5:1 2:0 3:0.075402792 
-1 0:1 5:1 2:0 3:0.075402792 
-0.0007900764502743768 0:0.16666667 5:1 2:0 3:0.075402792 
1 0:1 6:1 2:1 3:0.80506708 
1 0:0.83333333 6:1 2:1 3:0.80506708 
1 0:0.16666667 6:1 2:1 3:0.80506708 
1 0:0 6:1 2:1 3:0.80506708 
1 0:0.5 6:1 2:1 3:0.80506708 
1 0:0.5 6:1 2:1 3:0.80506708 
1 0:1 6:1 2:1 3:0.23768376 
1 0:0.83333333 6:1 2:1 3:0.23768376 
1 0:0.66666667 6:1 2:1 3:0.23768376 
1 0:0 6:1 2:1 3:0.23768376 
1 0:0.5 6:1 2:1 3:0.23768376 
-1 0:1 6:1 2:1 3:0.69774883 
-1 0:0.83333333 6:1 2:1 3:0.69774883 
-1 0:0.16666667 6:1 2:1 3:0.69774883 
-1 0:0 6:1 2:1 3:0.69774883 
-1 0:1 6:1 2:1 3:0.36872346 
-1 0:0.16666667 6:1 2:1 3:0.36872346 
-1 0:0 6:1 2:1 3:0.36872346 
-1 0:0.5 6:1 2:1 3:0.36872346 
-1 0:0.66666667 6:1 2:1 3:0.42125753 
-1 0:0.33333333 6:1 2:1 3:0.42125753 
-1 0:0.5 6:1 2:1 3:0.42125753 
-1 0:0.5 6:1 2:1 3:0.42125753 
-1 0:1 7:1 2:1 3:0.38973826 
-0.8940085396279789 0:0.83333333 7:1 2:1 3:0.38973826 
-1 0:0 7:1 2:1 3:0.38973826 
1 0:0.33333333 7:1 2:1 3:0.715978 
0.02029910460239833 0:0.16666667 7:1 2:1 3:0.715978 
1 0:0.5 7:1 2:1 3:0.715978 
1 0:0.5 7:1 2:1 3:0.715978 
-1 0:0.66666667 1:1 2:1 3:0.69087685 
-1 0:0.33333333 1:1 2:1 3:0.69087685 
-1 0:0.5 1:1 2:1 3:0.69087685 
-1 0:0.5 1:1 2:1 3:0.69087685 
-1 0:0.83333333 9:1 2:0.66 3:0.20163678 
-1 0:0.66666667 9:1 2:0.66 3:0.20163678 
-1 0:0 9:1 2:0.66 3:0.20163678 
-1 0:0.5 9:1 2:0.66 3:0.20163678 
-1 0:0.5 9:1 2:0.66 3:0.20163678 
1 0:0.5 6:1 2:0.66 3:0.5887159 
1 0:0.5 6:1 2:0.66 3:0.5887159 
0.5234156147514595 0:0.16666667 6:1 2:0.66 3:0.22287664 
1 0:0.5 6:1 2:0.66 3:0.22287664 
1 0:0.5 6:1 2:0.66 3:0.22287664 
1 0:0.33333333 9:1 2:0.66 3:0.16882353 
1 0:0.16666667 9:1 2:0.66 3:0.16882353 
1 0:0.5 9:1 2:0.66 3:0.16882353 
1 0:0.5 9:1 2:0.66 3:0.16882353 
-0.03713292435631009 0:0 9:1 2:0.66 3:0.092984035 
1 0:1 6:1 2:0.66 3:0.76673234 
1 0:0.83333333 6:1 2:0.66 3:0.76673234 
1 0:0.16666667 6:1 2:0.66 3:0.76673234 
1 0:0 6:1 2:0.66 3:0.76673234 
1 0:0.5 6:1 2:0.66 3:0.76673234 
1 0:0.5 6:1 2:0.66 3:0.76673234 
-1 0:1 4:1 2:1 3:0.60426047 
-1 0:0.83333333 4:1 2:1 3:0.60426047 
-1 0:0.16666667 4:1 2:1 3:0.60426047 
-1 0:0 4:1 2:1 3:0.60426047 
-1 0:1 9:1 2:0.66 3:0.20163678 
-1 0:0.33333333 9:1 2:0.66 3:0.20163678 
-1 0:0.16666667 9:1 2:0.66 3:0.20163678 
-1 0:0.5 9:1 2:0.66 3:0.20163678 
-1 0:0.5 9:1 2:0.66 3:0.20163678 
1 0:0.5 6:1 2:0.66 3:0.5887159 
1 0:0.5 6:1 2:0.66 3:0.5887159 
0.475728398241224 0:0.83333333 6:1 2:0.66 3:0.22287664 
1 0:0.66666667 6:1 2:0.66 3:0.22287664 
1 0:0.33333333 6:1 2:0.66 3:0.22287664 
1 0:0.5 6:1 2:0.66 3:0.22287664 
1 0:0.5 6:1 2:0.66 3:0.22287664 
1 0:0.83333333 9:1 2:0.66 3:0.16882353 
1 0:0.66666667 9:1 2:0.66 3:0.16882353 
1 0:0.5 9:1 2:0.66 3:0.16882353 
1 0:0.5 9:1 2:0.66 3:0.16882353 
-0.1835308908257372 0:1 9:1 2:0.66 3:0.092984035 
1 0:0.66666667 6:1 2:0.66 3:0.76673234 
1 0:0.33333333 6:1 2:0.66 3:0.76673234 
1 0:0.5 6:1 2:0.66 3:0.76673234 
1 0:0.5 6:1 2:0.66 3:0.76673234 
0.02500124775548189 0:0.5 7:1 2:0.66 3:0.5340437 
1 0:0.83333333 8:1 2:0.66 3:0.80486216 
1 0:0.66666667 8:1 2:0.66 3:0.80486216 
1 0:0 8:1 2:0.66 3:0.80486216 
1 0:0.5 8:1 2:0.66 3:0.80486216 
1 0:0.5 8:1 2:0.66 3:0.80486216 
0.7471310406961732 0:1 1:1 2:0.66 3:0.98664368 
1 0:0 1:1 2:0.66 3:0.98664368 
1 0:0.33333333 1:1 2:0.66 3:0.9729813 
1 0:0.16666667 1:1 2:0.66 3:0.9729813 
1 0:0.66666667 1:1 2:0.66 3:0.94634357 
1 0:0.33333333 1:1 2:0.66 3:0.94634357 
1 0:0.5 1:1 2:0.66 3:0.94634357 
1 0:0.5 1:1 2:0.66 3:0.94634357 
1 0:0.5 1:1 2:0.66 3:0.94634357 
1 0:0.83333333 1:1 2:0.66 3:0.94634357 
1 0:0.66666667 1:1 2:0.66 3:0.94634357 
1 0:0.5 1:1 2:0.66 3:0.94634357 
1 0:0.5 1:1 2:0.66 3:0.94634357 
1 0:0.83333333 4:1 2:0.66 3:0.89303052 
1 0:0.66666667 4:1 2:0.66 3:0.89303052 
0.6033474343637549 0:0 4:1 2:0.66 3:0.89303052 
1 0:0.5 4:1 2:0.66 3:0.89303052 
1 0:0.5 4:1 2:0.66 3:0.89303052 
1 0:1 5:1 2:0.66 3:0.99219551 
1 0:0.16666667 5:1 2:0.66 3:0.99219551 
1 0:0 5:1 2:0.66 3:0.99219551 
0.3167840658252821 0:0.5 5:1 2:0.66 3:0.99219551 
-0.7684981932539806 0:0.66666667 5:1 2:0.66 3:0.76757765 
-1 0:0.33333333 5:1 2:0.66 3:0.76757765 
-1 0:0.5 5:1 2:0.66 3:0.76757765 
-1 0:0.5 5:1 2:0.66 3:0.76757765 
-1 0:0.5 5:1 2:0.66 3:0.76757765 
-1 0:1 6:1 2:0.33 3:0.34770737 
-1 0:0.83333333 6:1 2:0.33 3:0.34770737 
-1 0:0.66666667 6:1 2:0.33 3:0.34770737 
-1 0:0.5 6:1 2:0.33 3:0.34770737 
-1 0:0.5 6:1 2:0.33 3:0.34770737 
-1 0:0.83333333 6:1 2:0.33 3:0.28381882 
-1 0:0.66666667 6:1 2:0.33 3:0.28381882 
-1 0:0.33333333 6:1 2:0.33 3:0.28381882 
-1 0:0.16666667 6:1 2:0.33 3:0.28381882 
-1 0:0.5 6:1 2:0.33 3:0.28381882 
-1 0:0.5 6:1 2:0.33 3:0.28381882 
-1 0:0.83333333 6:1 2:0.33 3:0.28050821 
-1 0:0.66666667 6:1 2:0.33 3:0.28050821 
-1 0:0 6:1 2:0.33 3:0.28050821 
-1 0:0.5 6:1 2:0.33 3:0.28050821 
-1 0:0.5 6:1 2:0.33 3:0.28050821 
-1 0:0.83333333 7:1 2:0.33 3:0.28321716 
-1 0:0.66666667 7:1 2:0.33 3:0.28321716 
-1 0:0 7:1 2:0.33 3:0.28321716 
-1 0:0.5 7:1 2:0.33 3:0.28321716 
-1 0:0.5 7:1 2:0.33 3:0.28321716 
1 0:1 8:1 2:0.33 3:0.70506513 
1 0:0.16666667 8:1 2:0.33 3:0.70506513 
1 0:0 8:1 2:0.33 3:0.70506513 
1 0:0.5 8:1 2:0.33 3:0.70506513 
1 0:0.5 8:1 2:0.33 3:0.70506513 
-0.09352560667831329 0:0.83333333 8:1 2:0.33 3:0.55244176 
-1 0:1 8:1 2:0.33 3:0.43833734 
-1 0:0.83333333 8:1 2:0.33 3:0.43833734 
-1 0:0.16666667 8:1 2:0.33 3:0.43833734 
-1 0:0 8:1 2:0.33 3:0.43833734 
-1 0:0.5 8:1 2:0.33 3:0.43833734 
-1 0:0.5 8:1 2:0.33 3:0.43833734 
-1 0:1 8:1 2:0.33 3:0.43833734 
-1 0:0.83333333 8:1 2:0.33 3:0.43833734 
-1 0:0.16666667 8:1 2:0.33 3:0.43833734 
-1 0:0 8:1 2:0.33 3:0.43833734 
-1 0:0.5 8:1 2:0.33 3:0.43833734 
-1 0:0.83333333 8:1 2:0.33 3:0.28050821 
-1 0:0.66666667 8:1 2:0.33 3:0.28050821 
-1 0:0 8:1 2:0.33 3:0.28050821 
-1 0:0.5 8:1 2:0.33 3:0.28050821 
-1 0:0.5 8:1 2:0.33 3:0.28050821 
-1 0:0.66666667 1:1 2:0.33 3:0.57450415 
-1 0:0.33333333 1:1 2:0.33 3:0.57450415 
-1 0:0.16666667 1:1 2:0.33 3:0.57450415 
-1 0:0.5 1:1 2:0.33 3:0.57450415 
-1 0:0.5 1:1 2:0.33 3:0.57450415 
-1 0:0.83333333 1:1 2:0.33 3:0.57450415 
-1 0:0.66666667 1:1 2:0.33 3:0.57450415 
-1 0:0.33333333 1:1 2:0.33 3:0.57450415 
-1 0:0.5 1:1 2:0.33 3:0.57450415 
-1 0:0.5 1:1 2:0.33 3:0.57450415 
-1 0:1 1:1 2:0.33 3:0.47803132 
-1 0:0.83333333 1:1 2:0.33 3:0.47803132 
-1 0:0.16666667 1:1 2:0.33 3:0.47803132 
-1 0:0 1:1 2:0.33 3:0.47803132 
-1 0:0.5 1:1 2:0.33 3:0.47803132 
-1 0:0.5 1:1 2:0.33 3:0.47803132 
-1 0:0.33333333 4:1 2:0.33 3:0.41601612 
-1 0:0.16666667 4:1 2:0.33 3:0.41601612 
-1 0:0.5 4:1 2:0.33 3:0.41601612 
-1 0:0.5 4:1 2:0.33 3:0.41601612 
-1 0:0.5 4:1 2:0.33 3:0.41601612 
1 0:1 8:1 2:0.66 3:0.80486216 
1 0:0.33333333 8:1 2:0.66 3:0.80486216 
1 0:0.16666667 8:1 2:0.66 3:0.80486216 
1 0:0.5 8:1 2:0.66 3:0.80486216 
1 0:0.5 8:1 2:0.66 3:0.80486216 
1 0:1 1:1 2:0.66 3:0.9729813 
1 0:0.83333333 1:1 2:0.66 3:0.9729813 
1 0:0.66666667 1:1 2:0.66 3:0.9729813 
1 0:0 1:1 2:0.66 3:0.9729813 
0.185742017151384 0:0.5 1:1 2:0.66 3:0.9729813 
1 0:0.83333333 1:1 2:0.66 3:0.94634357 
1 0:0.16666667 1:1 2:0.66 3:0.94634357 
1 0:0.5 1:1 2:0.66 3:0.94634357 
1 0:0.33333333 1:1 2:0.66 3:0.94634357 
1 0:0.16666667 1:1 2:0.66 3:0.94634357 
1 0:0.5 1:1 2:0.66 3:0.94634357 
1 0:0.5 1:1 2:0.66 3:0.94634357 
0.5787589732447675 0:1 4:1 2:0.66 3:0.89303052 
1 0:0.33333333 4:1 2:0.66 3:0.89303052 
1 0:0.16666667 4:1 2:0.66 3:0.89303052 
1 0:0.5 4:1 2:0.66 3:0.89303052 
1 0:0.5 4:1 2:0.66 3:0.89303052 
1 0:0.83333333 5:1 2:0.66 3:0.99219551 
1 0:0.66666667 5:1 2:0.66 3:0.99219551 
1 0:0.33333333 5:1 2:0.66 3:0.99219551 
1 0:0.5 5:1 2:0.66 3:0.99219551 
1 0:0.5 5:1 2:0.66 3:0.99219551 
-1 0:1 5:1 2:0.66 3:0.76757765 
-1 0:0.83333333 5:1 2:0.66 3:0.76757765 
-1 0:0.16666667 5:1 2:0.66 3:0.76757765 
-1 0:0 5:1 2:0.66 3:0.76757765 
-1 0:0.5 5:1 2:0.66 3:0.76757765 
-1 0:0.33333333 6:1 2:0.33 3:0.34770737 
-1 0:0.16666667 6:1 2:0.33 3:0.34770737 
-1 0:0 6:1 2:0.33 3:0.34770737 
-1 0:0.5 6:1 2:0.33 3:0.34770737 
-1 0:0.5 6:1 2:0.33 3:0.34770737 
-1 0:1 6:1 2:0.33 3:0.28381882 
-1 0:0 6:1 2:0.33 3:0.28381882 
-1 0:0.5 6:1 2:0.33 3:0.28381882 
-1 0:0.5 6:1 2:0.33 3:0.28381882 
-1 0:1 6:1 2:0.33 3:0.28050821 
-1 0:0.33333333 6:1 2:0.33 3:0.28050821 
-1 0:0.16666667 6:1 2:0.33 3:0.28050821 
-1 0:0.5 6:1 2:0.33 3:0.28050821 
-1 0:0.5 6:1 2:0.33 3:0.28050821 
-1 0:1 7:1 2:0.33 3:0.28321716 
-1 0:0.33333333 7:1 2:0.33 3:0.28321716 
-1 0:0.16666667 7:1 2:0.33 3:0.28321716 
-1 0:0.5 7:1 2:0.33 3:0.28321716 
-1 0:0.5 7:1 2:0.33 3:0.28321716 
1 0:0.66666667 8:1 2:0.33 3:0.70506513 
1 0:0.33333333 8:1 2:0.33 3:0.70506513 
1 0:0.5 8:1 2:0.33 3:0.70506513 
1 0:0.5 8:1 2:0.33 3:0.70506513 
-1 0:1 8:1 2:0.33 3:0.55244176 
-1 0:0 8:1 2:0.33 3:0.55244176 
-1 0:0.66666667 8:1 2:0.33 3:0.43833734 
-1 0:0.33333333 8:1 2:0.33 3:0.43833734 
-1 0:0.5 8:1 2:0.33 3:0.43833734 
-1 0:0.5 8:1 2:0.33 3:0.43833734 
-1 0:1 8:1 2:0.33 3:0.55244176 
-1 0:0.83333333 8:1 2:0.33 3:0.55244176 
-0.8395849803248885 0:0.16666667 8:1 2:0.33 3:0.55244176 
-1 0:0 8:1 2:0.33 3:0.55244176 
-1 0:0.66666667 8:1 2:0.33 3:0.43833734 
-1 0:0.33333333 8:1 2:0.33 3:0.43833734 
-1 0:0.5 8:1 2:0.33 3:0.43833734 
-1 0:0.5 8:1 2:0.33 3:0.43833734 
-1 0:0.5 8:1 2:0.33 3:0.43833734 
-1 0:1 8:1 2:0.33 3:0.28050821 
-1 0:0.33333333 8:1 2:0.33 3:0.28050821 
-1 0:0.16666667 8:1 2:0.33 3:0.28050821 
-1 0:0.5 8:1 2:0.33 3:0.28050821 
-1 0:0.5 8:1 2:0.33 3:0.28050821 
-1 0:1 1:1 2:0.33 3:0.57450415 
-1 0:0.83333333 1:1 2:0.33 3:0.57450415 
-1 0:0 1:1 2:0.33 3:0.57450415 
-1 0:0.5 1:1 2:0.33 3:0.57450415 
-1 0:0.5 1:1 2:0.33 3:0.57450415 
-1 0:1 1:1 2:0.33 3:0.57450415 
-1 0:0.16666667 1:1 2:0.33 3:0.57450415 
-1 0:0 1:1 2:0.33 3:0.57450415 
-1 0:0.5 1:1 2:0.33 3:0.57450415 
-1 0:0.5 1:1 2:0.33 3:0.57450415 
-1 0:0.66666667 1:1 2:0.33 3:0.47803132 
-1 0:0.33333333 1:1 2:0.33 3:0.47803132 
-1 0:0.5 1:1 2:0.33 3:0.47803132 
-1 0:0.5 1:1 2:0.33 3:0.47803132 
0.9282870815813363 0:0.5 9:1 2:0 3:0 
-1 0:1 4:1 2:0.33 3:0.41601612 
-1 0:0.83333333 4:1 2:0.33 3:0.41601612 
-1 0:0.66666667 4:1 2:0.33 3:0.41601612 
-1 0:0 4:1 2:0.33 3:0.41601612 
-1 0:0.5 4:1 2:0.33 3:0.41601612 
-1 0:1 4:1 2:0.33 3:0.33505394 
-1 0:0 4:1 2:0.33 3:0.33505394 
1 0:1 5:1 2:0 3:0 
0.3296717318414772 0:0.83333333 6:1 2:0 3:0 
0.08497961927410368 0:0.16666667 6:1 2:0 3:0 
0.1341240819631698 0:0.5 7:1 2:0 3:0 
0.5676984750176258 0:0.66666667 6:1 2:0 3:0 
1 0:0.66666667 6:1 2:0 3:0 
0.5881031698991308 0:0.33333333 6:1 2:0 3:0 
1 0:0.33333333 6:1 2:0 3:0 
1 0:0.66666667 6:1 2:0 3:0 
1 0:0.33333333 6:1 2:0 3:0 
2.122690677815142e-07 0:0.5 9:1 2:0 3:0 
0.6195780453884128 0:0.5 9:1 2:0 3:0 
1 0:0.5 9:1 2:0 3:0 
0.9997651009819432 0:0.5 9:1 2:0 3:0 
0.000599917569432466 0:0.16666667 6:1 2:0 3:0 
1 0:0.66666667 6:1 2:0 3:0 
1 0:0.33333333 6:1 2:0 3:0 
1 0:0.33333333 6:1 2:0 3:0 
1 0:0.66666667 6:1 2:0 3:0 
1 0:0.33333333 6:1 2:0 3:0 
1 0:0.83333333 8:1 2:0.33 3:0.70506513 
-1 0:0.5 6:1 2:1 3:0.36872346 
0.1270087615061171 0:0.5 7:1 2:0 3:0 
1 0:0.5 7:1 2:0 3:0 
1 0:0.5 7:1 2:0 3:0 
4.85751926768621e-06 0:0.5 7:1 2:0 3:0 
1 0:0.33333333 6:1 2:0 3:0 
1 0:0.66666667 6:1 2:0 3:0 
1 0:0.66666667 6:1 2:0 3:0 
1 0:0.33333333 6:1 2:0 3:0 
1 0:0.66666667 6:1 2:0 3:0 
1 0:0.66666667 6:1 2:0 3:0 
1 0:0.33333333 6:1 2:0 3:0 
1 0:0.5 5:1 2:0 3:0 
0.2230123848274651 0:0.5 7:1 2:0 3:0 
1 0:0.33333333 5:1 2:0 3:0 
1 0:0.16666667 5:1 2:0 3:0 
1 0:0.5 5:1 2:0 3:0 
1 0:0.5 5:1 2:0 3:0 
1 0:0.83333333 5:1 2:0 3:0 
1 0:0.66666667 5:1 2:0 3:0 
1 0:0.5 5:1 2:0 3:0 
1 0:0.5 5:1 2:0 3:0 
1 0:0.5 6:1 2:1 3:0.23768376 
-1 0:0.5 6:1 2:1 3:0.42125753 
0.0008423771422977358 0:0.66666667 8:1 2:0 3:0 
5.117465545381454e-05 0:0.33333333 8:1 2:0 3:0 
0.9811251592163001 0:0.66666667 8:1 2:0 3:0 
0.7198609801807875 0:0.5 7:1 2:0 3:0 
1 0:0.5 7:1 2:0 3:0 
1 0:0.5 7:1 2:0 3:0 
1 0:0.5 7:1 2:0 3:0 
1 0:0.5 7:1 2:0 3:0 
1 0:0.5 7:1 2:0 3:0 
1 0:0.5 7:1 2:0 3:0 
1 0:0.5 7:1 2:0 3:0 
1 0:0.5 7:1 2:0 3:0 
1 0:0.5 7:1 2:0 3:0 
1 0:0.83333333 5:1 2:0 3:0 
1 0:0.66666667 5:1 2:0 3:0 
1 0:0 5:1 2:0 3:0 
1 0:0.5 5:1 2:0 3:0 
1 0:0.5 5:1 2:0 3:0 
1 0:1 5:1 2:0 3:0 
1 0:0.33333333 5:1 2:0 3:0 
1 0:0.16666667 5:1 2:0 3:0 
1 0:0 5:1 2:0 3:0 
1 0:0.5 5:1 2:0 3:0 
0.9049837184266959 0:0.33333333 8:1 2:0 3:0 
1 0:0.66666667 8:1 2:0 3:0 
1 0:0.33333333 8:1 2:0 3:0 
1 0:0.66666667 8:1 2:0 3:0 
1 0:0.33333333 8:1 2:0 3:0 
1 0:0.66666667 8:1 2:0 3:0 
1 0:0.33333333 8:1 2:0 3:0 
1 0:0.66666667 8:1 2:0 3:0 
1 0:0.33333333 8:1 2:0 3:0 
1 0:0.66666667 8:1 2:0 3:0 
0.9981797275580693 0:0.33333333 8:1 2:0 3:0 
1 0:0.66666667 8:1 2:0 3:0 
1 0:0.33333333 8:1 2:0 3:0 
1 0:1 1:1 2:0 3:0 
1 0:0.33333333 1:1 2:0 3:0 
1 0:0.16666667 1:1 2:0 3:0 
1 0:0 1:1 2:0 3:0 
1 0:0.5 1:1 2:0 3:0 
1 0:0.5 1:1 2:0 3:0 
1 0:0.66666667 1:1 2:0 3:0 
1 0:0.33333333 1:1 2:0 3:0 
1 0:0.83333333 1:1 2:0 3:0 
1 0:0.66666667 1:1 2:0 3:0 
1 0:0.5 1:1 2:0 3:0 
1 0:0.5 1:1 2:0 3:0 
1 0:1 1:1 2:0 3:0 
1 0:0.83333333 1:1 2:0 3:0 
1 0:0.16666667 1:1 2:0 3:0 
1 0:0 1:1 2:0 3:0 
1 0:0.5 1:1 2:0 3:0 
-0.8680359871263915 0:0 1:1 2:0 3:0.075402792 
1 0:0.5 1:1 2:0 3:0 
1 0:0.5 1:1 2:0 3:0 
1 0:0.5 1:1 2:0 3:0 
-0.667976999947433 0:1 1:1 2:0 3:0.075402792 
-1 0:1 1:1 2:0 3:0.075402792 
-1 0:0 1:1 2:0 3:0.075402792 
-1 0:1 1:1 2:0 3:0.075402792 
-1 0:0 1:1 2:0 3:0.075402792 
-1 0:1 1:1 2:0 3:0.075402792 
-1 0:0 1:1 2:0 3:0.075402792 
-1 0:1 1:1 2:0 3:0.075402792 
-1 0:0 1:1 2:0 3:0.075402792 
